-0.54778105,0.03258673,0.028033033,-0.0187838,-0.048660576,0.011857042,-0.039073866,0.005686416,-0.027324798,-0.036589384,-0.004957253,0.039661862,0.030820997,-0.3755367,-0.008302461,-0.038328048,0.01703961,0.021833546,0.011435251,-0.06433058,0.042826287,0.110158585,-0.040421747,-0.0024970954,-0.01837245,0.029647985,-0.009463733,0.04119007,0.032280423,-0.06278446,-0.095283255,0.31648052,0.025665028,-0.027245441,0.0015116303,0.0025419034,-0.010535363,-0.010445141,-0.0054477355,-0.006234796,0.05550058,-0.020564547,0.015581353,0.018012432,-0.026560621,0.005011924,0.023865113,-0.0044816905,-0.31316158,0.0018404843,0.052849296,0.033750895,-0.0039366307,-0.037557732,-0.198938,0.3247569,0.0096361395,0.0012170261,0.014118089,-0.054243587,0.06883814,-0.01017417,0.04373506,0.021558076,-0.010951489,0.036012907,-0.008378032,-0.03414098,-0.03858725,0.02500056,-1.2380869,0.021425633,-0.034261774,0.0042450833,-0.026540713,0.4461964,0.016950363,0.04237118,0.052692194,-0.0063682394,-0.05306854,0.01748609,-0.09377294,0.020802224,-0.012433092,-0.034546934,0.023272661,-0.02498593,0.19720808,0.024923777,-0.010762147,-0.047154404,0.01618099,-0.2733093,-0.03179759,0.03425809,0.0037975376,0.0035969177,0.039508183,0.0064867474,-0.004547843,0.045706317,-0.03561655,-0.021453427,0.041150257,0.034979012,0.018411018,0.037735168,-0.0765862,-0.17998607,0.04269573,0.03148925,0.036551088,0.023442581,0.060138386,0.039108604,-0.04993796,0.18294612,0.032117404,0.010460666,-0.04170304,0.21336994,-0.36138457,0.038012728,-0.0075546224,-0.068256505,-0.025934014,0.042674426,-0.038997523,-0.028675854,0.039660826,0.027155196,0.011509061,0.016953127,-0.038796335,-0.5959689,-0.023302313,-0.0048399596,0.026755273,-0.03886243,0.032688063,0.0106583005,0.08131564,0.0042662965,0.0090561425,-0.0058655776,0.023748448,-0.01459008,0.014268621,0.014405345,-0.017288964,0.027963836,-0.050575793,-0.02953887,-0.013413534,0.051707756,-0.029028958,0.032351788,-0.0059329597,0.039637715,-0.076384395,0.05110739,0.026316803,-0.005792354,0.016474279,0.01320839,-0.0066318493,-0.049778428,-0.02365514,-0.07310426,0.017727163,0.024343114,-0.032459818,-0.005341358,-0.010808716,0.019305713,-0.01794305,-0.0053161927,0.18017624,-0.04024477,-0.0017496248,-0.024116289,-0.04238381,-0.04067301,-0.042120617,-0.029709853,-0.5356964,-0.01921904,-0.035174612,-0.0016231781,0.022042962,-0.012148089,0.065973274,0.0040973597,0.011006367,0.035167467,0.16858986,0.04023386,0.031245759,-0.12745383,0.01776464,-0.025457708,-0.020511301,0.017198086,-0.019893548,-0.0058171805,0.021683581,0.029698623,0.005390155,0.024225703,0.014708196,0.0046679135,0.009047886,0.00933019,0.023244899,-0.21709827,-0.028843453,-0.021848798,-0.013515888,-0.02709155,-0.002475395,0.01385593,-0.028873157,0.008100735,-0.23545113,-0.02222528,0.0073921145,-0.011839265,0.040108778,-0.029191233,0.008778063,0.06289741,0.041537363,-0.02035843,-0.8789601,0.013372672,0.032393575,-0.04764737,-0.014836686,-0.11165556,0.019948103,-0.010319525,0.023159932,-0.009652597,-0.025162922,0.032351602,-0.02042732,0.009135585,0.0017248407,-0.20332064,-0.004416501,-0.028488599,0.007863417,-0.0018480943,-0.027947113,-0.027937554,-0.01913727,0.0073245866,-0.0022559534,-0.032394316,0.026509989,0.023025775,0.031426497,0.032780357,-0.011657616,-0.007221287,0.07794788,-0.033768874,-0.006125737,-0.49773252,0.0050910283,-0.0020202992,-0.013558693,0.012748942,-1.064738,-0.013113549,-0.015302768,0.043780264,-0.037549056,-0.37330315,-0.04628987,-0.043400373,0.03770093,0.03774851,0.032753136,-0.017822549,0.027949762,-0.15382871,0.30992615,-0.036899194,-0.030882712,0.038467437,0.010762656,0.026460804,-0.023350723,-0.036294136,0.34622723,-0.0048100986,-0.012562345,0.03970144,0.011658043,-0.027565243,0.005420231,0.028181326,0.0022107917,0.018723471,-0.02176243,0.09101862,0.010311137,0.073089354,0.032974202,0.014447598,0.056216627,0.027178915,-0.0030692902,-0.018496266,-0.03474471,-0.035668336,0.008695973,0.02940284,-0.43588075,-0.025053484,-0.006985646,-0.28739223,0.007837228,-0.21992826,-0.0014586472,-0.7247857,0.031079523,0.01958481,-0.0008905816,0.03089407,0.077030756,0.011144723,-0.0044496427,0.037621647,-0.041513845,-0.0283885,-0.066442326,-0.020674141,-0.02810214,0.03166536,0.16202107,-0.03348699,0.014540507,-0.0127043715,-0.043925196,0.31485257,-0.030842356,0.052223932,0.22926883,-0.009036893,-0.013219715,-0.05107769,-0.16285121,-0.0020542794,-0.021476822,-0.044372723,0.02064264,-0.014633106,-0.02087231,-0.027172262,0.04362864,-0.051767677,-0.0017925834,-0.32615507,-0.038171336,-0.020696849,-0.012160172,-0.47446898,-0.0032228746,0.033814594,-0.032869972,-0.057694513,0.0018359694,-0.0011513517,-0.032508582,-0.014349617,0.00049629796,0.032992423,-0.009945289,0.012784913,-0.04856642,0.012259585,-0.014116144,0.0040037963,0.13101879,0.09516314,-0.043286823,0.0065791914,0.053567752,-0.018631099,0.0025217035,-0.016950984,0.007238306,-0.046692476,-0.33130714,-0.033591125,0.018952675,0.01718769,0.2277109,0.040653966,0.03091838,0.043022428,-0.0002744425,-0.045996454,-0.037229367,-0.0063613188,0.014771401,0.08313067,-0.05236104,-0.028097838,-0.009099403,-0.012754847,-0.028896816,-0.036986195,0.033481307,-0.020947618,0.033561055,-0.04487234,0.016293101,-0.008805034,0.0074339616,0.37404233,-0.015232179,0.036022305,-0.004555829,-0.016626805,-0.042156477,-0.02555702,0.022279315,-0.009136583,0.009439817,-0.003185155,-0.016495422,0.0061995727,-0.050323572,0.014493132,0.03551868,-0.03695735,0.29026648,-0.037494626,0.031326257,-0.0057829446,-0.02023752,-0.03853339,-0.017073065,0.10406866,0.0041143415,0.04339058,0.016207527,-0.011284572,-0.0392172,0.042313576,0.005351334,0.040568996,0.02461653,-0.012540956,-0.009422671,0.04095602,-0.04465217,-0.037503697,-0.03609306,0.053670567,0.054778866,0.019732531,-0.018152498,-0.20381014,0.0079127755,0.03584525,0.042565733,0.026103767,0.0033002193,-0.16620286,0.030141897,-0.03078686,0.022154877,0.020476835,0.033201143,-0.009725056,0.025762703,-0.020600444,-0.018839166,0.020536859,-0.03685903,0.03245214,0.032774672,-0.040107504,0.034901198,0.023431178,-0.015958128,0.031062368,-0.017982153,-0.0133236,0.006379044,0.035247453,-0.01305346,0.027155364,-0.043183587,0.0020951675,0.0075659687,-0.020861914,0.0055829217,0.016532132,-0.1805235,0.040078685,-0.028679442,0.05499481,0.013286631,-0.0050808527,0.04444634,0.0021624798
-0.73297125,0.01070315,-0.022761542,0.009345094,0.0029211454,-0.012917856,0.02696393,-0.038404778,-0.013585789,-0.011508043,0.028098512,-0.03194362,0.03623826,-0.44384587,-0.0028330649,-0.015437532,-0.0040189708,-0.0326757,-0.040636398,0.015970783,0.03522251,0.5979023,0.06174631,-0.015223878,-0.017175209,0.038655028,0.010797005,-0.048885647,-0.6589824,-0.19680229,-0.0038244887,-0.9745961,0.0294275,0.05355857,0.012250807,-0.027680583,0.0074067237,-0.015424415,0.024698794,-0.030338062,-0.047606636,0.020559702,-0.03594484,-0.029031424,-0.010166703,0.020667998,0.09509679,-0.033249754,-0.6310451,0.004563355,-0.0051277783,-0.029112972,-0.022893421,0.011409714,-0.20750707,-0.25743774,0.042359557,-0.049844485,-0.03586123,0.013802576,-0.29703656,0.02256352,0.037630044,0.027449042,-0.023967449,-0.010515843,-0.041384265,-0.04197521,0.045653053,-0.049028758,-0.020874541,0.015567354,0.012682968,0.00036809477,-0.017029285,-0.62275004,-0.044927172,-0.036076486,-0.006634962,-0.04124317,-0.042237084,0.017021978,-0.9967085,0.007910639,0.012404082,-0.022821724,0.034979925,-0.026427744,-0.8987658,-0.033351406,0.010044412,-0.08241118,0.018100498,0.111098215,0.026002964,-0.016682733,0.0022994883,-0.032482486,-0.036068745,0.034853242,-0.028915787,-0.30892307,-0.024050552,-0.028721964,0.022102736,-0.015089046,0.02185877,-0.034136076,-0.45159358,-0.86441916,-0.040970605,-0.023996446,-0.05632957,-0.045263775,-0.03272591,-0.03719197,-0.019980963,-0.047565196,-0.03286834,-0.018459674,-0.0058276886,-1.3687015,-0.63785934,-0.028371854,-0.04200086,-0.044282727,0.00467781,0.03380042,-0.03672058,0.0029991276,0.0030341786,0.04515235,0.020236898,0.038868457,-0.0009031778,0.07535446,-0.022452284,0.0046500196,-0.021011874,-0.035109118,-0.00060662295,-0.042503886,0.00036106675,-0.027169181,-0.032618683,0.022968043,0.0083149,-0.022880208,0.009670489,-0.05859822,0.024866596,0.010686435,0.008460119,-5.6567304e-05,0.023919791,-0.0029727293,0.034195296,-0.051373415,-0.049187385,-0.024599604,0.03507963,-0.020605767,-0.021752989,0.00023578163,0.035210367,-0.010006863,0.0011617016,0.023020612,-0.9933596,0.01861128,0.020037664,0.046523117,-0.0043817884,-0.026391169,0.023172168,0.013061979,0.023907684,-0.013866924,-0.23155646,0.03460487,-0.026101775,-0.025472643,-0.017466215,-0.027979959,0.0042679636,0.051576786,-0.13083708,-0.043082707,-0.008768793,0.021600455,0.021728324,-0.07853232,-0.053115156,0.0102628935,-0.06388882,0.018078215,-0.03684761,-0.007109119,-0.0029563603,0.009228549,0.008489725,-0.017009798,-0.05426516,-0.019307386,-0.014457681,0.04167704,0.0021621087,-0.030488592,-0.058349468,-0.06435798,-0.026822627,-0.06869205,-0.03545164,-0.0023776966,-0.038689274,-0.81621546,0.017548963,-0.040492214,-0.017296676,-0.032038257,-0.04443469,-0.04189023,-0.0005451094,0.015903648,-0.094896734,-0.015821211,-0.035160653,-0.019970285,-0.047268216,-0.02511236,-0.026878338,-0.046893105,-0.025962567,-0.017290734,-0.78270286,-0.027100876,-0.016322419,0.0037906985,-0.043436624,-1.0581317,-0.03297966,-0.061893977,-0.30310398,0.04548416,0.010217981,0.020131405,0.004455125,-0.030450456,-0.04892512,-0.38857165,-0.030192574,0.019909272,-0.024302514,-0.039593834,0.0013060634,0.013501202,0.013269713,0.008954025,-0.10154674,-0.030419435,-0.057438653,-0.016634058,-0.016205383,-0.043972425,-0.036673136,-0.0123140495,-0.026103506,-0.009963599,0.017435934,-0.21342383,0.03087262,-0.020955795,0.011527637,0.041581884,-0.2345544,-0.013436725,0.021437254,0.013800156,-0.021156656,-0.28149608,-0.52529955,-0.008016747,-0.014630839,0.05407954,-0.054637246,0.026636185,0.011986532,0.26952007,-0.37929824,0.032784127,0.014362847,-0.035394948,0.0324296,0.023073515,-0.06928639,-0.026700195,-0.08873891,0.009079111,0.0048123524,0.0038840335,-0.02723321,-0.025995828,0.019067965,0.040790897,0.033682305,-0.04586686,0.009512796,-0.34552205,0.026512446,-0.021278601,0.19498119,-0.028929502,-0.7381883,0.008705175,-0.0517986,0.0008591636,-0.017162494,-0.027726851,0.027279403,-0.00902372,0.21599871,0.020087956,0.0076575563,-0.4737219,0.031808477,-0.14943412,-0.027106116,-0.00792061,0.029459039,-0.030862251,-0.04079761,0.037597302,-0.05594408,0.00086690637,-0.0022947567,-0.025586909,-0.100897506,0.014453877,0.04010053,0.009127311,0.03929166,-0.036143024,0.25273043,0.032042913,0.008181096,0.027179314,-0.041647706,0.6268843,0.04127707,0.005269111,-0.21918496,-0.017562713,0.0068789925,0.053410184,-0.35973492,0.03654911,-0.009768565,0.011800724,-0.000857904,0.056085818,0.037111968,-0.014477531,0.017337987,0.043454703,-0.039179124,-0.101537876,0.0067811906,-0.03680442,0.0019956692,-1.2184713,0.013006201,-0.0037607453,0.00277979,-0.014543519,-0.0021602025,-0.006134741,0.027250953,-0.031238632,0.025946075,0.010990484,-0.047130037,0.029910533,0.02448133,-0.008581987,-0.021594869,-0.02160356,0.171148,-1.2666211,-0.050685585,-0.021202985,-0.05286759,-0.03900733,0.038091063,-0.019371292,0.014968729,0.016806642,-0.77215326,-0.04301327,0.020110792,0.048865918,-0.7523082,-0.012946298,0.016196998,-0.029390426,-0.022963261,-0.037479345,-0.090846255,0.00071230717,-0.014833966,-0.032340698,-0.07273944,-0.007828866,0.0150058875,0.007934065,0.028462088,-0.012895579,0.028270863,-0.01364332,-0.03223769,0.012935883,-0.0045054574,-0.06460813,-0.031728037,-0.018962942,6.844895e-05,-0.006146069,0.26330814,0.0026975074,0.008013489,0.039473947,0.044298694,-0.049815647,-0.05504127,0.0253888,0.03448125,0.029189413,0.002276019,-0.04367357,-0.02196615,0.0007161356,-1.1108298,0.01833005,0.008712529,-0.0147739565,-0.012200353,-0.034281593,0.0070915846,-0.348103,-0.00977992,0.031177372,-0.006915458,-0.0021137923,-0.074591026,-0.022910284,0.04411607,-0.03357771,0.021054905,0.02676435,-0.0109767,-0.03248903,0.030011099,-0.029555704,0.04127781,0.03628593,-0.0135477735,-0.07795213,0.03586488,-0.91668284,0.010451028,-0.04802264,-0.040851336,0.026866341,0.03661027,-1.0325438,-0.034156956,-0.029716615,-0.002035939,0.028792096,-0.030793112,-0.05714227,0.052863948,-0.039937478,0.0063453857,-0.009860556,0.010283588,0.010874697,0.023388274,-0.023192609,0.0013147949,-0.017635077,0.03386402,-0.00046457944,0.035725992,0.029640093,-0.056404658,-0.010339127,-0.058621306,-0.045606382,-0.011762043,-0.034725,0.0042345165,0.013438853,0.019729415,0.017015634,-0.6075504,-0.020959804,0.05478246,-0.051390115,-0.019784763,-0.024637718,0.006300444,-0.050576355
-0.265602,0.0017358514,0.051909648,-0.029280495,-0.043765124,0.0219319,-0.023873037,0.045888357,0.033240646,0.019818868,-0.060074657,0.013402927,-0.053860113,0.11219902,-0.06217824,0.00895352,-0.0018506915,0.034852922,-0.032965302,-0.019284587,-0.03145124,0.093269385,-0.027161062,-0.023466876,0.00013652937,0.020482367,0.052746005,-0.0021434699,0.13138615,0.11671027,0.013024043,0.43915454,0.014876046,0.006081878,0.025440324,0.0068178624,0.02304665,0.000830761,0.020476533,-0.016814034,0.026811058,0.0087778,0.0066321306,-0.031924978,-0.04141886,0.034811497,0.19665991,-0.045589183,-0.53329086,0.014449396,0.009521054,-0.0452025,0.009514301,-0.051755533,-0.15086518,-0.15830933,0.00463699,0.0014805782,-0.04379965,-0.033362623,-0.02954188,-0.004836579,-0.025555493,0.028493427,0.0325025,-0.0070102974,-0.07622254,-0.013375423,-0.017846884,0.007939889,-0.15277554,-0.056509543,-0.033044387,0.022862256,0.0061115297,-0.19594456,-0.0307883,-0.018256228,-0.011472659,0.021385057,0.073370494,-0.045552507,-0.08511826,-0.027127206,0.08086733,0.037005253,-0.008046351,-0.053367097,-0.25328478,-0.02459147,0.042930357,-0.0653145,0.040739726,-0.18703364,0.012384783,-0.051135603,-0.0160332,0.06510202,0.012901306,-0.006605861,-0.09392336,0.18863708,0.022728167,0.029303413,-0.027541084,-0.043271642,-0.03264904,-0.015133502,-0.08014813,-0.6037827,-0.042154614,0.030827459,-0.019103762,0.01095438,-0.039192107,0.004908351,-0.036174253,0.31042063,0.013809066,0.0012720242,0.018195592,-0.21916072,-0.3776399,-0.043542616,-0.006259443,-0.016075818,0.018836409,0.0031938164,0.0018369633,0.03745864,-0.053318005,-0.030539094,-0.018871611,-0.04014969,0.03137236,-0.3354772,-0.038822167,0.032552913,0.017738724,0.02532754,-0.023955824,0.041045215,-0.16548097,-0.027453028,-0.056421537,-0.04954254,0.0084406305,-0.022318259,-0.007167925,0.027593937,-0.016290681,-0.021627078,0.03099584,0.023431305,0.01424714,0.021052636,0.005780471,-0.026706152,-0.040687203,0.021247918,-0.2056741,0.03562036,-0.030431928,-0.032243114,-0.022436459,0.040920693,0.034546,-0.029270044,0.20315062,-0.022999866,-0.008491611,-0.026744299,-0.016925162,0.02749936,-0.06624972,-0.0064352565,0.035210967,0.02408696,0.5508542,0.018742045,-0.0053276764,0.020848265,0.018458404,0.039108183,0.027244236,0.020618409,-0.19196397,0.019079229,-0.052370097,0.021477474,0.032056738,0.03911677,0.013495393,-0.009310938,0.033650458,-0.047151506,-0.11710123,0.016009038,-0.03858757,0.0149126975,0.03051928,-0.0024612003,0.015054745,-0.04537156,0.032079056,0.015187582,0.018767752,-0.016188245,-0.023498775,-0.011934782,-0.01208009,0.026230419,-0.05313123,-0.02249498,-0.0038845062,-0.15813538,-0.015255145,0.047845624,-0.025974583,0.031800978,0.039717596,0.02202135,-0.034945797,0.01621339,-0.10084465,0.03504635,0.035549168,-0.023214482,-0.07134563,-0.007939971,0.028680824,0.16957936,-0.04805304,-0.03474233,-0.055817917,0.01992296,-0.010249092,-0.06985933,0.038912088,-0.20478596,0.0010479655,-0.011901158,0.18623641,-0.051389948,-0.041428424,-0.021917202,-0.012657711,0.025141396,0.037577584,0.17433673,-0.031740975,0.013143564,0.026316652,0.014598938,-0.0008562398,-0.03517357,0.0055182115,0.008830636,-0.0579955,-0.0526404,-0.039876744,-0.014261976,0.010754679,0.03469815,0.03462126,0.015716447,-0.01673012,0.0210604,-0.0076476014,-0.1654989,-0.021668224,-0.024278255,-0.02513598,-0.00065114343,-0.042913135,0.019368343,-0.032133173,-0.032222666,-0.0003016318,-0.061402336,0.08663816,0.034943912,0.028376155,-0.008201908,-0.03754112,0.036078684,0.038934957,-0.36387035,0.07251702,-0.002094927,-0.0013075414,0.002454426,-0.0014861376,-0.015457096,-0.5162448,0.027806003,-0.1806181,-0.0075844005,0.019214055,0.028436035,-0.006722315,0.0153099485,0.008077682,-0.023251403,-0.005423303,-0.024625584,-0.016227014,0.10801496,-0.022140607,-0.063378215,-0.23971197,-0.043618314,0.2623389,0.007953631,0.047115188,0.025403136,-0.0013256304,-0.04719488,-0.013020426,-0.03457624,-0.04079535,0.024213212,0.004281047,-0.030296015,0.0016700963,-0.4442134,-0.004451361,0.31242672,-0.0022739868,-0.045059294,-0.016067434,0.029102895,0.1200037,0.012595661,-0.0007900462,0.0059493976,0.055224452,0.01988293,0.062705755,-0.02577787,0.040635273,-0.028258096,-0.11749485,-0.0026865131,0.03220564,0.041582488,-0.04689562,0.30170497,-0.029528618,-0.013650831,0.1723659,0.013714488,0.0347167,-0.008241576,0.40743384,0.0054222886,0.01961214,-0.023983369,-0.008357881,0.013126437,-0.05590412,0.017275548,0.0023402004,-0.011200757,0.08040845,0.0034073046,-0.027151702,-0.021690559,0.013816733,0.013130864,0.02924368,-0.052381523,0.0072188126,0.10672647,-0.011978752,0.039872706,-0.022890052,-0.023577008,-0.031381268,0.003559072,-0.03391558,-0.038282823,0.031745415,-0.041657556,0.035312884,-0.019227501,-0.91086286,-0.34427026,0.003593213,-0.009671822,0.03252889,-0.042991612,-0.022123933,-0.03996552,0.045233194,-0.004356934,-0.028364768,-0.025365405,0.0010925211,0.015960885,-0.35806692,0.008026001,0.02582543,-0.02880667,-0.03195741,-0.003453014,-0.014520427,0.035616074,-0.038220484,-0.06442279,0.037180874,-0.0051977104,-0.043711565,0.0090027815,0.019284254,-0.014028018,-0.0323538,0.027066948,-0.0015844624,0.0015282593,-0.0072276136,0.0012289333,0.0038248843,0.0846915,-0.031909034,0.0206596,0.45778885,-0.0026098818,-0.01227556,0.017244617,-0.024684759,0.032814205,0.14562091,0.022816766,-0.031631563,0.017563773,0.006668097,-0.038032386,0.006046902,0.019423433,-0.14742978,0.012923257,-0.010936765,-0.014574179,-0.015476877,0.022734717,0.04207681,0.014174612,0.018313782,0.01295095,0.022148106,0.0037636147,-0.015380118,0.01410362,0.029237434,-0.05300795,-0.028413737,0.0146975275,0.047172505,-0.018535607,-0.062831834,-0.027802726,0.014360232,-0.041130424,0.010360133,0.092295386,-0.033774126,-0.22885093,0.043316495,-0.026551213,0.011263442,-0.046106033,-0.06039779,-0.59547406,0.0348954,-0.04061457,-0.04120081,-0.050098658,-0.0009036823,-0.024663255,0.026529314,-0.023372628,-0.023095584,-0.03804434,0.016787587,0.012333695,0.052661307,-0.028982636,-0.018255139,0.010021607,-0.016343506,0.008992691,0.0030226451,0.020946028,-0.015298594,-0.0009842557,0.044977628,-0.022435082,-0.033326793,-0.051117077,-0.03748223,0.038522214,-8.267043e-05,-0.027351648,0.27293754,0.033324677,0.054885,-0.092306025,0.01771661,0.033454522,-0.006036623,0.040930334
-0.26177767,0.046127222,0.008963493,0.043498866,-0.019409098,0.008571677,0.01830273,-0.002271434,-0.0123096,0.020451898,-0.0007055652,0.014771978,0.01332295,-0.57080364,0.04562164,0.014095005,0.033418536,0.034103345,-0.031337872,-0.044331357,0.051122103,-0.12044215,0.013347384,-0.024778167,-0.017112244,-0.04414051,0.015181071,0.02757305,-0.3436659,-0.05823034,0.0094365105,-0.15993114,0.0051066238,0.030273277,-0.027868673,-0.023039289,-0.030866032,-0.0227593,0.015136862,-0.02742141,-0.072123654,-0.004989914,-0.038354386,0.010779435,-0.007850529,-0.04850844,0.02739936,0.0054336144,0.054721914,0.014176471,0.008430162,-0.023825238,-0.011435161,0.05731781,-0.27076158,-0.17223632,0.011146172,-0.0010152106,0.026178569,0.010200748,-0.12547557,-0.03245628,0.033939164,-0.011504442,-0.012486179,-0.008866856,0.02464774,0.018267985,0.025116153,-0.025571229,-0.02034096,0.054450646,0.01298087,-0.014634805,-0.049790226,0.17922331,-0.017284585,-0.0075054527,-0.021189215,-0.026283272,0.054119553,0.041442607,-0.09613298,0.013172033,0.053359706,-0.0020709364,-0.028285235,0.012470012,0.14137389,-0.0028910215,0.047393527,-0.0914881,0.034014218,-0.40635577,-0.010144926,0.043490734,0.01810575,0.034133278,-0.008947984,-0.039076135,0.018051662,0.25461385,-0.022074364,0.06357704,0.048419245,0.009642124,0.0069727707,-0.028480187,-0.08963083,0.1060817,0.0014429471,0.0011105754,-0.0260537,-0.031312827,-0.02429124,-0.031062247,0.021236384,0.033637427,-0.026845766,0.040556636,0.027858106,0.16165443,0.32846695,-0.020891579,-0.0043277633,-0.044481747,-0.0008291843,0.04073194,-0.02254847,0.029878085,0.01633062,-0.007490522,0.024260236,-0.018491905,-0.013059956,0.1812713,-0.004898017,0.025313616,0.011072018,0.047887906,-0.008057787,0.0007695426,-0.023023311,-0.0064479425,-0.0001446472,-0.0060810647,0.008000155,-0.010494633,-0.026324505,0.027295923,-0.018132454,0.00580737,-0.047065053,0.009849791,-0.011218642,0.024795845,0.007910301,0.013343748,-0.0042734914,-0.017754013,0.004535987,0.011234814,-0.02215679,-0.009730421,-0.017998355,-0.022422455,-0.031308137,0.027166473,-0.10031187,-0.01526952,0.0031066877,-0.0002847644,0.017455058,0.019789482,0.03571627,-3.550985e-06,-0.014374918,-0.04299118,-0.15019009,-0.03623446,-0.024594646,-0.05333649,0.02144152,0.03746482,-0.0047053355,0.0038915402,-0.08743466,0.021270663,-0.004163087,-0.044299968,0.031607293,0.026919214,-0.039279487,0.030743709,-0.013801427,-0.01156809,0.0048673702,0.052704126,0.048886444,-0.031759575,0.04419968,-0.01471445,-0.0018522404,0.030923394,0.045746204,0.044503745,0.009408276,-0.05238722,-0.009806321,0.018796917,-0.038714312,-0.004129683,0.017852059,-0.027253816,0.048593886,-0.31004626,-0.008637559,0.009606267,-0.00032507355,-0.023321483,0.027402215,0.029909272,0.0029802055,0.028938316,0.17892747,-0.045561746,0.01958738,0.022243317,0.04219363,0.05101697,0.028873328,0.20951845,-0.017941447,0.00045588997,0.3287773,-0.034232587,-0.03780357,-0.004820586,0.022282673,0.2379496,0.022875095,0.001550826,0.11107143,-0.034272756,0.036549035,0.009360075,-0.016202739,0.033602864,-0.017727645,-0.061042212,-0.030535862,-0.028871955,-0.014798065,-0.017571751,0.012414762,0.029536283,0.015633652,0.031756826,0.041875333,-0.020643968,-0.07085357,0.024395043,0.019142676,-0.014890074,0.013330708,-0.0506565,0.034131613,-0.012039474,0.03698384,0.2106463,-0.037525985,-0.0047388137,0.007368868,-0.0033700843,-0.2961707,8.48265e-05,0.04505032,-0.04266624,0.0090635875,-0.4742674,0.09633189,0.003284665,0.06886572,-0.03320005,0.024304176,0.021292616,0.0163519,-0.11427413,-1.6994611,0.015206468,-0.028460918,-0.006273316,0.042103954,0.030525073,-0.04050286,0.03340821,0.261797,-0.012937179,0.004738277,0.029977148,0.030854141,0.0142121315,-0.028742338,-0.0013316817,-0.004271144,0.012654939,-0.02402493,-0.16603562,0.016265366,-0.040073074,0.056187425,0.0068947435,0.07952469,0.0050651873,-0.023374865,0.02685631,-0.00046433025,0.028211981,0.009378518,0.05251511,0.15778433,0.030022496,0.046559002,-0.034911506,0.0014324933,0.07753117,0.05148378,-0.14385977,0.031517297,0.035817206,0.0054000607,-0.025892349,0.4850293,0.033593994,-0.0021423947,-0.044450484,0.051216807,0.03600628,-0.5879866,-0.03012154,0.020743204,-0.015220341,-0.10650378,-0.02704384,0.02503404,0.022500088,-0.0029313108,0.014320351,0.0034919884,-0.010899405,-0.055766676,0.037300795,0.026222732,0.0045382367,-0.14154278,-0.007361815,0.052147783,0.0031070928,-0.040930104,0.04703697,-0.03454538,-0.005053028,0.009182077,-0.018109668,0.03071209,0.010008736,-0.019155696,0.011596605,-0.043115735,0.19360498,0.028714433,-0.031184144,0.049274474,-0.015324703,0.023297142,0.018291702,-0.0067464355,-0.023861738,0.03663844,-0.026677843,0.003381713,0.02102846,0.025010742,-0.027920445,0.0028048572,-0.003408314,-0.5453881,0.19531007,0.0012440945,0.022493968,0.016033681,-0.015962573,0.024771178,0.046208456,-0.011931658,0.01886869,0.17802913,-0.041525174,-0.004892193,-0.028907798,-0.09817789,0.009243602,-0.030829998,0.015207299,0.040422663,0.031106273,0.064660795,0.05285395,0.022856645,0.007487127,-0.007183605,-0.01367763,0.052939698,-0.13649207,-0.03392015,0.005102809,-0.014027163,0.020783067,0.042130664,0.014301404,-0.024222499,0.0046813404,0.02510988,0.10874921,0.041052856,0.016723005,-0.47627336,-0.02700129,-0.007434558,0.0051070647,-0.01264526,0.04344791,-0.20884207,-0.054490287,0.073227696,-0.0075037526,0.020775987,-0.002098948,0.013075926,0.029576167,-0.024401505,0.0047165393,-0.010593674,0.003350975,-0.005545712,0.0040572886,0.030638255,0.10541391,-0.002573326,0.035190195,-0.051172793,-0.008673435,-0.04812195,0.036273517,0.02259708,0.009983236,-0.011175128,0.0024783877,-0.05182542,0.029625284,0.024502993,0.045986783,-0.008957475,0.02537655,0.002362297,-0.005872181,0.041790113,-0.018994039,-0.044575952,0.030991953,-0.0039477698,-0.026429065,-0.017960208,-0.12443512,0.015118552,-0.00052925426,0.010396995,-0.05484933,-0.011913306,-0.009960874,-0.042080276,0.011983107,0.01739714,0.012343946,-0.0033783338,0.0073846057,0.03925535,-0.021423977,0.047497112,-0.023972876,-0.028350832,0.052460264,-0.02691107,0.032503225,0.042000737,0.016194759,-0.038204893,-0.004192382,0.045043696,-0.005565964,0.032962386,0.031610418,-0.009928516,0.023591999,-0.12007629,0.017578147,0.034185115,-0.026001679,0.022554245,-0.049172346,-0.008838371,0.03145839
-0.04473023,-0.0059323413,-0.018088078,0.03883931,-0.0147771565,-0.0003641409,-0.033109393,-0.040489122,-0.0068085627,-0.03139835,-0.010787756,0.016027613,-0.026539316,0.29820535,0.017665992,-0.02393743,0.03702021,-0.0029907452,0.03515474,-0.0426522,-0.043998204,-0.09759811,0.022102417,-0.037020717,-0.017256051,-0.023742156,-0.041007213,-0.031661455,0.03624609,0.004036179,0.06483872,0.4067639,-0.023018839,-0.047917586,-0.021857511,-0.029797554,-0.033321545,0.02747366,0.02608986,0.0062565673,-0.02883118,-0.010298365,-0.045011245,0.033594392,-0.008833618,0.03241537,0.07081999,-0.013393372,-0.0034817741,-0.03405675,-0.024355505,-0.0032819326,0.01720344,0.0032262506,-0.035682864,-0.10692267,-0.0032859058,-0.024554605,0.020059086,-0.0033904111,0.087317154,-0.044906262,0.025468903,0.00850388,-0.012384725,-0.029831728,0.027904358,-0.022554245,-0.01062498,-0.049842294,-0.039090578,0.029804356,-0.026749188,0.034843978,-0.036245067,-0.027366962,-0.032733023,0.025815029,-0.094493166,-0.021006633,-0.0779938,0.009089646,-0.40246552,0.01727568,0.019823993,-0.047405366,0.012822327,0.04730174,-0.5149572,0.041979916,-0.0047463737,-0.08738883,0.037508614,0.17907505,0.022293085,0.018310703,-0.049390815,0.033900205,-0.012284548,0.011003767,-0.009384285,-0.083740644,0.043809887,-0.025357135,0.041575104,-0.0024224848,0.0059648696,-0.004668318,0.1965374,-0.33766326,0.00043412647,-0.01412039,0.005899246,0.056427654,-0.01588548,0.020168409,-0.008781598,-0.2566778,-0.013160424,0.011939374,-0.000637392,-0.29081926,0.004005072,-0.022491803,0.042302344,-0.014958807,0.014629693,-0.009502544,0.032851033,-0.035600424,0.027377805,-0.005057103,0.0366163,-0.02072119,0.023804227,0.011504067,-0.0059699533,-0.020407083,0.027074246,0.028530138,-0.0037236754,-0.004356824,0.064413525,-0.016752837,0.0028657503,-0.055978917,0.02624971,0.016884672,-0.023653178,-0.05275751,0.020774128,0.027506504,-0.043546163,-0.06129703,0.016604332,0.018210424,0.005447949,0.03209581,0.09875718,-0.03296336,-0.19254404,-0.02159574,0.00077116437,-0.0019444891,0.0064824256,-0.040731747,0.012199042,-0.04679966,0.49501452,-0.04689085,0.031691406,-0.027257642,-0.00884558,0.011346234,0.01037773,0.03739287,0.027751718,0.017985044,-0.26101282,0.015240927,0.007338942,0.030888718,-0.028698172,0.027414259,-0.027861632,0.032211896,-0.20165275,-0.014608387,-0.064557545,0.027628396,-0.00017131973,0.009830196,-0.0038997212,0.0058555114,0.0104138795,0.040842123,0.34127626,0.02828136,0.010603496,0.008964742,0.10820691,0.0052498877,0.019220233,-0.015086115,-0.025632087,0.04128713,0.0049083154,0.03933398,0.025859067,-0.026638228,-0.026279213,0.014120756,0.009006067,0.016712846,-0.022171877,0.23492299,0.043090627,-0.0833893,-0.012570371,-0.038932294,0.036406394,0.04085107,-0.01828949,0.020712761,-0.02713682,0.010268454,-0.009319719,0.035942886,-0.051313836,0.0062570176,0.028659485,0.04481802,-0.02268657,-0.0053407107,-1.1069154,-0.031237245,-0.007206386,-0.05109633,0.0382186,0.018225033,-0.024362404,-0.025564797,0.11336608,0.025017712,0.0041195974,-0.04587538,-0.033196196,-0.011442591,0.0010335493,0.22460233,0.033123545,0.024160873,0.013535635,0.005518526,-0.033560224,-0.024283944,-0.008866899,0.0010894059,-0.04172267,0.035612028,0.07309766,0.011951625,0.044008516,-0.040716037,0.01831732,0.008312786,0.034254912,-0.041256476,-0.010941437,-0.2960935,0.043522596,-0.022669507,0.02425016,0.013096264,0.016319029,0.036088124,0.047777098,-0.020246657,-0.032634787,-0.03287832,-0.00067453214,0.0925016,-0.0079010995,-0.042751092,0.039797813,0.023318043,0.018145852,0.21077095,-0.74847525,-0.0045309444,-0.014739653,-0.0017864549,-0.03473591,0.022564534,-0.23168704,-0.03496622,-0.055211987,-0.029809374,0.023143156,-0.014750459,-0.00143779,-0.04636672,-0.04218037,0.014806701,-0.032202434,0.006590204,0.002682083,-0.2660126,0.041993532,-0.029010478,-0.41473308,0.038081117,-0.25570524,0.0057140016,-0.027767606,0.006324429,0.000246523,0.0423702,-0.012191201,0.030581474,-0.1290099,0.0118861785,0.044005517,-0.53182477,-0.01910721,-0.32636374,-0.027494282,-0.17802943,-0.03652423,-0.016201053,0.019866304,-0.013190493,0.3965537,0.005713777,-0.038351078,-0.029733088,0.06435409,-0.013706513,0.2897612,-0.031255174,0.042381287,-0.029371817,-0.17666821,-0.0020618285,0.007989516,0.034751486,-0.02642645,0.36536622,0.029409759,-0.002006098,0.20626868,-0.00090262736,-0.017608281,0.008671785,-0.56258047,-0.017218558,-0.021436196,0.029823937,0.02482167,0.06631224,0.036817186,0.003859819,-0.011845884,-0.020937894,0.061830994,-0.37060404,-0.038872957,-0.013885946,0.040266257,-0.25622088,-0.04360914,-0.0063176965,0.010509595,0.01279677,-0.012968628,-0.025471115,0.00066556694,0.010742403,0.0256926,0.019623559,0.033714555,-0.016491445,-0.013819744,0.04516259,-0.009994265,-0.010361171,0.32866165,-0.1150481,-0.035868213,-0.0022184043,0.04012924,-0.014327559,0.037395254,0.014039408,-0.014588729,0.00444727,0.16072607,-0.012201792,-0.037712075,-0.016397266,0.32409325,-0.0079838615,0.012386761,0.040563624,-0.025347758,0.005768843,-0.052549414,-0.017494261,0.01440241,0.08001705,0.010019006,0.018069502,-0.0020587246,-0.015388847,0.019655898,0.04338401,0.003926941,-0.0056233,8.959708e-05,-0.025301266,0.028520357,-0.03002352,-0.0019268404,0.1417435,-0.0021221293,0.0020496484,-0.41604286,0.01212511,-0.04037493,-0.017658146,0.008868896,-0.0378483,0.12330894,0.005618834,-0.039470967,0.023363544,0.022134922,-0.011259663,-0.020265764,-0.04127689,0.103278644,0.011356958,-0.011693522,-0.05198843,0.026892079,-0.04374561,0.030008012,-0.14434531,-0.029821215,-0.0071323076,-0.014042408,0.0034916291,0.052762263,-0.031542975,0.047111716,-0.015296824,0.041592963,0.020383751,-0.002282594,-0.03500375,0.004378543,0.032240056,-0.024767049,-0.032678176,-0.03653054,-0.03532172,-0.008745862,-0.45407373,-0.016311307,0.03312553,-0.0018599879,0.034951236,-0.028861407,-0.25250462,0.041388247,-0.040587924,-0.018030668,0.028944297,0.0060968995,-0.033308446,0.012236238,0.004018004,-0.020660767,-0.0011453799,-0.024560178,-0.013737669,-0.032010425,-0.021623816,-0.040466204,0.017805915,0.044690154,0.0020237705,-0.004294648,0.02842517,-0.011648394,0.05151625,0.025549835,0.005599514,-0.0018307341,-0.03703823,-0.048373297,-0.032124978,-0.029908529,0.021216644,0.24131952,-0.019171197,0.022844348,-0.06371139,-0.007645846,-0.029183667,-0.049901426,0.044465255
0.03341773,-0.025461387,-0.034416694,-0.025542127,0.0064693093,-0.031981044,0.05133741,-0.015300855,0.009890014,-0.040874686,0.003307913,0.01586756,-0.011366633,0.011023738,-0.0032853025,0.016370326,0.027755357,-0.005478062,-0.014327434,-0.025987398,-0.025764639,0.1563616,-0.07696532,-0.050578587,-0.0043954467,0.011169324,0.026119618,-0.025620855,-0.4500067,0.09700058,0.0045689982,0.0880585,0.03208639,-0.03113745,-0.08567821,-0.03477714,0.012133698,-0.03299274,0.0066897287,-0.005369073,0.040882565,-0.001907954,-0.008666012,0.0029252716,0.031992476,0.027530596,0.13232741,-0.0058590183,-0.31598517,0.025329959,0.032217745,-0.052095663,-0.016087847,-0.010075175,0.012415514,-0.1827003,0.028056044,0.055649463,0.06067846,-0.014187185,0.001227989,-0.040828597,0.01714813,-0.017339572,0.06599392,-0.062106922,-0.06836031,-0.005535059,0.018472603,-0.023484858,-0.3387358,0.003813498,-0.02347807,0.017263163,-0.029081736,-0.44011176,0.005743621,-4.419097e-05,-0.07511353,0.009929275,0.041758455,0.04939471,0.26349035,0.007989316,-0.061434027,-0.02226801,-0.0023394362,0.00669417,0.3226897,-0.020892141,-0.009886828,-0.033304475,-0.013825419,0.19727306,0.052536543,0.0043531056,-0.03023666,-0.037429128,0.041000385,0.030926555,-0.023225008,-0.06914903,-0.01079423,0.02444794,0.010791168,-0.03975355,-0.017638762,0.039859597,-0.16745792,-0.21693033,-0.031675726,-0.051283397,0.0021717234,0.01806616,0.009809743,-0.022528097,-0.023849359,-1.3432271,-0.05419877,-0.030376151,0.026009759,-0.077088505,-0.11755227,-0.024609234,0.016037093,-0.023196321,-0.008202943,0.014513609,-0.029199878,0.006572776,0.028177222,-0.036832593,0.019739026,0.010533418,0.016308026,-0.39265546,0.03583707,-0.020480799,0.021678254,0.036672063,0.020987103,-0.039797623,0.007880777,-0.024224302,-0.009562502,0.024470905,-0.041851934,-0.013415798,0.048933458,-0.009689451,-0.0302525,-0.028033964,-0.015011089,0.007598957,0.013998886,0.02174748,0.009745046,0.010003971,-0.023209969,-0.014641938,-0.49807242,-0.013695204,0.016577892,0.006507183,0.018237028,-0.020879542,-0.0035974293,-0.051535778,0.01376947,-0.020939946,0.015616442,-0.034568727,-0.025231294,-0.027186347,-0.0074900426,0.041817166,0.02409641,0.024670385,0.25916624,-0.00047060844,-0.002269557,0.042270917,-0.037580803,-0.0067190556,-0.04361927,0.010728912,0.25901404,0.032153904,-0.015006044,-0.009256985,-0.018099444,-0.026498092,-0.05747366,-0.020697964,-0.06383312,0.014793415,-0.6109677,-0.020389713,-0.029302973,-0.017815955,0.026263108,-0.031503696,0.013347753,-0.0058937115,0.017701548,0.024917886,0.044817068,-0.03254243,-0.022751112,0.044855364,0.0023106467,-0.022099074,-0.023562895,0.019790977,0.013912954,0.08353171,0.036287192,-0.02692775,0.018819856,-0.024878215,-0.008586798,0.0160334,0.02863351,-0.024168827,0.09326791,-0.031896375,-0.011380788,-0.03017727,-0.06817767,-0.02604612,0.030357521,0.2138708,-0.027870059,-0.020408107,-0.8693163,-0.01619791,-0.044427194,-0.04846604,-0.038311414,0.08104349,-0.016367335,-0.025713522,0.12156778,0.013885986,-0.05334259,0.015899256,-0.03840614,-0.0014206249,0.041704837,0.29903108,0.03712177,-0.029126689,0.03909134,-0.027482955,0.02485761,0.010221002,0.008411171,0.043395165,0.007312049,-0.04005708,0.0027781082,0.047660924,-0.0073824893,-0.02887856,0.058991402,-0.05369274,0.043920092,-0.018795514,0.01799456,-0.5956128,0.049449015,0.0051642116,0.03270388,-0.008211422,0.46372864,0.016100923,0.046052247,0.0418182,0.04470341,0.1232594,0.23780245,0.017665353,-0.058777,-0.019272787,-0.040919315,0.054015033,0.015472739,-0.25622803,-0.52034664,-0.004924944,-0.03865278,-0.02704381,-0.033553503,0.00794575,0.037560795,-0.011675999,0.09831216,0.040415633,-0.027439,0.030407239,-0.021437963,-0.02909511,-0.024229804,-0.031547733,0.00935473,0.028216586,0.034442928,-0.009525826,0.030754251,0.043575924,-0.3993463,0.02311805,-0.029669765,0.032934844,-0.02825554,-0.04252128,-0.024695417,-0.0039198175,-0.040979408,-0.050224673,0.003418816,0.04829822,-0.054658163,-0.49397203,0.014480063,-0.5741617,-0.04188558,-0.290346,-0.027011447,0.016404442,0.016269676,0.0010377944,0.18357484,-0.0018741658,-0.020407429,0.008026581,-0.060470443,-0.049482036,0.09934764,-0.023011927,-0.0124071585,0.0036707094,0.081812896,-0.019989414,-0.0015129864,0.024795964,-0.027271297,-0.17924277,-0.01565611,-0.041419227,0.3595526,0.016483,0.005650985,-0.007241841,0.32394552,0.024911879,0.037249442,-0.02843003,-0.019065166,-0.008923687,0.010018126,0.0036697465,-0.020226283,-0.044960428,-0.05625941,-0.35529533,0.05075525,-0.04063799,0.04700834,0.20763712,-0.021224188,-0.0113120945,-0.026707642,-0.0045063156,-0.048187308,0.018975312,0.007756113,0.03383104,-0.026047075,0.020829538,0.031892207,-0.046993848,-0.016682763,-0.040117096,0.016716473,0.008959063,0.02442944,-0.111968786,-0.031223096,-0.016398055,0.022521842,-0.009852285,-0.002576352,-0.046510514,0.015096205,0.03877866,-0.29278138,-0.019424612,-0.045600977,0.00031047504,0.51450473,0.014019078,-0.03695029,0.03441834,-0.017943291,0.010912466,-0.010475127,-0.018493496,0.032723397,0.029217366,-0.020451667,-0.009457168,0.0015922829,-0.05042019,0.008831048,0.002957808,-0.00019719274,0.036131155,-0.036890097,0.009739301,-0.019837799,-0.0077696797,0.011320026,-0.22451584,-0.0067541557,-0.014434236,0.053073913,0.013878525,-0.03459591,-0.0022560917,0.008963455,-0.037679672,-0.1439803,-0.03740543,-0.034525283,-0.010680095,0.011095619,-0.029309308,-0.058945242,0.028273093,-0.057123493,0.004541135,0.019453915,0.0469129,-0.030151932,-0.0065459167,-0.008326148,0.18907788,0.033943694,0.007894155,0.03575134,0.018057853,0.008544544,-0.049276873,-0.03146712,0.022742398,-0.02050878,-0.004003869,0.011717914,0.03072493,-0.03438753,0.008715083,-0.0041826004,0.03743666,-0.024821723,-0.010738854,0.02447614,-0.13042173,0.013302878,-0.031533547,-0.0055778846,0.013661098,-0.07973433,-0.4928034,0.048785813,-0.047520045,0.03278944,0.018003726,-0.024973402,-0.006472809,-0.030901615,-0.03171214,-0.031006314,0.008736447,0.022164185,0.009652837,0.031757887,-0.024754385,-0.041053332,-0.0035765795,0.008875189,-0.036995206,0.026269889,0.0031105492,-0.038879436,-0.024446774,-0.02418894,-0.030254293,0.011301837,-0.023213524,0.004268653,0.007873409,0.022790711,0.027162287,0.14998971,-0.026371539,-0.02927889,-0.00695345,0.03819413,0.044778764,-0.050286032,-0.0018068418
-0.121437706,0.009495808,0.038613304,-0.050858263,-0.035189103,0.0081980275,-0.03298551,0.014592268,-0.0356105,-0.02617438,-0.029756203,-0.010264739,-0.008657911,0.18242562,-0.024214944,0.003203993,0.015397107,-0.008990269,0.018062405,-0.014403258,-0.034618646,0.080844216,0.084223844,-0.0041166083,-0.012575697,0.036529146,-0.027008148,-0.00067988154,-0.19784884,-0.014112078,0.0308831,0.14276162,0.050491687,-0.039810244,0.028488554,0.022946948,-0.011764486,-0.049227506,-0.013659304,-0.0049524484,-0.010670169,-0.0060818833,0.03968937,-0.04437404,0.009705289,0.031047512,-0.38681492,0.040452123,0.37645003,0.033725303,0.015638981,0.025671763,-0.0012771294,-0.017926626,-1.1758577,0.3226473,0.019109175,-0.008893953,0.03450007,-0.023212895,0.043239478,0.008684446,0.024192156,0.049076844,0.0046775513,-0.020696014,-0.037856054,-0.029738732,0.025971098,0.03935094,-0.751199,-0.026301537,0.026792549,-0.012770146,0.009443623,0.38436127,-0.00039177077,0.006788307,0.11915177,-0.03739896,0.05071512,-0.051010545,-0.30682555,0.025644543,0.023300959,0.02142678,-0.02813319,0.02102617,0.013958825,0.018288637,0.026024913,-0.042066656,-0.0038367235,0.03773667,0.04765729,-0.008458273,0.028927056,-0.02037598,0.03268795,0.02568637,0.01811015,-0.10786497,-0.017636262,-0.0002737878,-0.020831253,-0.028933346,-0.02286868,-0.012586039,-0.0883104,-0.9683003,0.013961089,-0.021067195,-0.024529044,-0.005294591,-0.024123572,0.032442823,0.009393791,-0.37366316,0.0025152185,0.04320663,-0.031124275,-0.2036036,-0.19360885,0.041796852,-0.037709728,-0.026087975,0.009559426,0.049661413,-0.031967994,0.014224709,0.02900921,0.03273877,0.0069609433,-0.03615475,0.018239975,-0.15569282,0.033760834,-0.006475526,-0.009684438,0.034396306,-0.013760536,-0.040399347,-0.17120275,-0.05520709,0.055766672,-0.04166859,-0.012746362,-0.045869414,0.009951058,-0.023849519,-0.046951603,0.004713851,0.037987325,-0.116046846,-0.015290243,0.014471884,0.0064928746,0.040093437,0.034850813,0.04173448,0.022753764,0.019064894,-0.00706332,-0.0029405355,0.003391563,0.039343253,-0.0062292884,0.04044998,0.2227817,0.036830526,-0.027781658,-0.041730516,0.032601893,-0.023963375,0.0002733125,0.024102487,0.0083043985,-0.03672166,0.13379674,-0.04066351,0.018709874,0.009921928,0.0021573494,-0.035025947,0.017672995,-0.00024950935,0.42655942,-0.04085656,-0.015161313,0.042903934,0.01204494,-0.00539703,-0.006382563,0.017130846,0.03704982,0.0120015,0.41906878,-0.040082954,-0.016880132,-0.02043065,-0.104186006,0.0074167047,-0.020218788,-0.024018861,-0.046398282,-0.0136879925,0.057104588,-0.013620455,0.011273219,-0.045302328,0.02516163,-0.016991435,0.004879936,0.024819026,0.042229034,-0.24712002,-0.0192674,-0.061006848,0.0411373,-0.0046907156,-0.02177585,-0.0451938,-0.026357766,-0.028031165,-0.20806567,0.0074429247,0.043897476,-0.00046368485,0.032420963,0.0050570476,0.011154356,-0.12164644,0.055784047,0.03202677,-0.49443138,-0.0071178656,0.016219348,0.0110598635,0.013409304,-0.15371759,-0.015442261,-0.020092206,-0.7480404,-0.044513278,0.016481698,-0.019653566,0.02390291,-0.016337436,-0.0040154182,-0.43474153,0.023236886,0.010678781,0.029800424,0.038869116,-0.0072915615,-0.03191977,0.038436957,-0.010258263,0.026670951,-0.042103104,-0.03387309,-0.0055604465,-0.021148903,0.009181248,0.008819856,-0.0126438625,-0.034943864,0.008379158,0.028420663,-0.5292434,9.347322e-05,-0.019608516,0.01347448,0.021318266,0.48876566,-0.00454875,0.0055383793,-0.0038201173,0.04172768,0.044386648,-0.3606578,-0.028235383,0.038009804,-0.02570045,-0.03327075,-0.042583358,-0.00019912278,-0.34173453,-0.12809256,0.05094682,-0.024099091,-0.026843114,-0.03544727,-0.006755238,-1.4378266,-0.06500847,0.29643708,-0.012802932,-0.011703097,-0.0031313288,0.016330844,0.006711966,-0.03281784,-0.013039713,0.025039887,0.0014510369,-0.04233693,-0.9435297,-0.026634607,0.042969663,-0.5748241,0.025807267,0.13547917,-0.003958691,0.0012866379,0.010402174,-0.04636202,-0.027812542,0.0005264808,0.055511843,0.040818054,-0.04046289,-0.05869124,-0.8722663,-0.046546813,-0.34082153,0.038014866,0.12756799,-0.010905598,0.030383665,-0.0356768,-0.026298353,-0.35447434,-0.0034718672,0.022817403,0.024624638,0.03027795,0.018243073,-0.57041955,0.020651266,-0.028223729,-0.03418282,0.133323,-0.019409914,-0.06065164,-0.01513292,0.015092823,-0.19043161,0.0057815993,0.009962703,0.24694152,0.017078405,0.0034156172,0.027282462,-0.07064322,-0.040896703,0.0047650174,-0.021711756,-0.01281203,0.05691004,-0.005630603,-0.034874808,0.017249558,0.016665313,-0.047623176,-0.24993041,0.041734193,-0.023947459,0.035053533,-0.058932614,-0.035689987,0.0058749737,-0.03422569,0.030630711,-0.023379534,0.03765202,-0.024376014,0.030937709,-0.030107081,-0.0070062457,-0.028385466,-0.009861556,0.010261162,-0.04692232,0.026730834,-0.016538389,-0.9982599,0.05383983,-0.02640284,-0.013137454,-0.0640607,-0.037322246,0.02980643,-0.09326748,-0.017389327,0.012327501,-0.08256697,0.021565864,-0.0362757,0.004237301,-0.08884023,-0.04154801,0.00034144163,0.024393475,-0.054888707,-0.015581539,-0.037621714,-0.031538017,-0.019243572,-0.045829743,0.004007999,-0.019990843,-0.0005953819,0.030452011,-0.047130447,-0.0407713,-0.05026729,-0.028334586,0.0081162015,0.012749339,-0.03526291,-0.03930511,0.0029330624,0.14452857,0.029580895,-0.02152986,0.17608088,0.00880236,0.0091805775,-0.02985951,-0.027022785,-0.0017552095,-0.020878226,-0.014496809,0.012705407,-0.0011979544,-0.026782904,-0.019466665,0.03204368,0.009505146,0.29175517,-0.027770506,0.042088762,0.025213277,-0.01352563,-0.016398553,0.0041657113,-0.19531776,0.012045342,0.009472031,0.050242037,-0.045923375,0.014578483,-0.031147338,0.037062056,0.023315845,0.019692978,-0.035369396,-0.0075949277,0.0004195392,0.0051472997,-0.015077855,-0.007719633,0.026086291,-0.0028305484,0.014908049,0.0094393585,0.27015284,-0.013475387,-0.025984181,0.022650907,-0.03300785,0.03414802,-0.74901277,0.028237825,0.037132923,0.022111757,-0.0068094265,0.015532651,-0.06284409,0.030648518,0.039439496,0.023720365,-0.02154626,-0.03595904,-0.04097103,-0.03452809,0.008253831,-0.012091668,-0.011416902,0.0055111875,0.016069505,-0.027834479,0.039247133,-0.06993717,-0.041935857,-0.021808507,0.038510498,0.0011617698,0.0110874185,-0.009006553,0.014497277,0.007938265,0.003846374,-0.23152399,-0.04116737,0.061858673,-0.0535265,0.031992238,0.012591982,-0.029394992,0.029779484
0.096942835,-0.03844726,-0.027794803,0.016415074,0.017234016,0.023760626,0.022608617,-0.03340757,0.026045814,0.045302544,0.021307392,0.0059304372,-0.015821472,-1.4622514,-0.037850082,0.04836271,-0.039830502,-0.024593264,0.03154093,-0.027203161,0.029685449,0.24454515,-0.021427307,0.021206046,0.024216678,0.004196161,-0.04528784,0.022966333,-0.15621717,0.5011231,-0.10291785,-0.08301041,-0.037457984,-0.012366217,-0.02674921,0.027440924,-0.028826125,-0.015836902,-0.03952992,-0.031367883,-0.0012708391,-0.006421479,0.0003910119,-0.024126044,-0.016957019,0.030789636,0.19785483,-0.034281805,0.18005334,0.0056211306,-0.0017051954,-0.030281013,-0.008736607,-0.02255472,-0.8428897,0.32280195,-0.013038636,0.028815413,-0.009156599,-0.028086353,-0.2398307,-0.031952567,0.009836454,-0.008942128,0.026044361,-0.033391096,-0.025997564,-0.032898653,-0.009964375,-0.00081565476,0.1365373,0.01994996,0.045528702,0.016909577,0.03780002,0.3281104,-0.0057159606,0.03600948,-0.032389514,-0.0060534202,-0.02652565,-0.043123186,0.022993732,-0.04495991,-0.01485255,0.023607368,-0.022097038,0.027320577,-0.22108018,0.025002062,-0.055065963,0.12222107,-0.051797796,-0.16664183,-0.051701892,-0.013319502,-0.0007182399,-0.07962633,0.029946348,-0.012248542,0.01325354,0.021902068,0.011725501,-0.049066007,0.037281424,0.011865576,0.026043996,-0.026206214,-0.31465027,-0.2955658,0.019213252,0.009754568,0.075605735,0.007502292,0.05238464,-0.0058977176,-0.039763108,0.23957053,-0.042032223,-0.034784157,-0.018730978,-0.9555618,-0.029588688,0.03291683,-0.04273846,0.015978137,0.021270266,0.0019106781,0.009328561,0.008141014,0.020460596,0.008142381,-0.0071365647,0.020530146,-0.038864765,-0.8358613,-0.024147877,0.017308805,-0.013052117,-0.05007992,-0.03391564,0.026696634,0.122292146,0.007671207,-0.045988873,0.020698817,-0.0063595935,0.0022521236,0.013986003,-0.028132891,-0.03398804,0.020257138,-0.040614724,0.031584386,0.037614327,0.019230837,-0.044178363,-0.024692854,-0.042402927,0.03438295,-0.5319298,-0.034965042,-0.028374048,-0.031641353,-0.012378213,-0.023758613,-0.04140944,-0.032111634,-0.67735606,-0.010291727,0.0014912996,0.025809303,0.018527843,0.022235034,0.041339025,0.007126126,0.0014799878,0.04597378,-0.162501,-0.040390342,0.01756926,0.00018292503,0.01653626,-0.026755182,-0.015006523,0.007823464,0.22540049,-0.011380292,-0.05504459,-0.02775842,-0.020153116,0.0010344087,0.023757461,0.023850037,0.0032942467,-0.039591886,0.15082431,-0.025804492,0.028367586,0.0025830686,0.01061311,0.020899782,0.0026253578,-0.024375023,0.016547333,0.024624359,0.006157162,0.010173069,0.017289462,-0.0036171742,-0.020582126,-0.020944016,0.026330046,0.043947123,-0.011027568,-0.24312073,0.047341164,-0.046135366,-0.03707159,-0.0020854233,0.012048023,0.0061283475,-0.027652413,0.02857413,0.081854045,0.021693671,0.0039315,-0.03432121,0.0070482604,0.00051409146,0.012147737,-0.12958525,0.0044254884,-0.01021715,-0.86193305,0.00398121,0.012609413,-0.040228005,-0.042644773,-0.34161344,-0.025987623,0.015165274,-0.49634463,0.03230045,0.019183384,0.017205961,-0.03963584,0.0017500456,-0.038681295,-0.57854927,-0.009459327,0.030595928,-0.042445973,-0.030955829,-0.0367146,0.01167977,0.038353194,-0.01997149,0.019521888,0.01924592,-0.12557757,0.0010868671,-0.0003472426,-0.006429308,-0.0399223,-0.05160033,-0.03792409,-0.04116207,0.019847251,-0.4394716,-0.003743239,-0.020420974,0.0049503124,0.03964639,-1.1910683,0.025626551,-0.030705467,0.023973297,-0.02713569,-0.1144883,-0.0041414006,0.0042478563,-0.055516843,-0.029219905,-0.033136528,0.024494685,0.015241833,0.1888459,-0.8805488,-0.023612494,-0.015487366,-0.031431783,-0.020269599,0.026842993,0.49401447,-0.005221995,0.02538363,0.03941249,0.026108945,-0.026146878,-0.0057827705,0.005322511,-0.019250719,0.0021424824,-0.011762731,-0.0047309943,-0.025659265,-0.83527,0.030347932,-0.095092416,-0.16137156,0.031799655,-0.69904375,0.011818545,-0.008804391,0.015012373,-0.028194528,-0.030938752,-0.008364997,-0.020182708,0.02175751,-0.030504135,-0.029804414,-0.14259835,0.033685785,0.098239444,-0.055948928,-0.0749702,0.009028229,0.0071966867,-0.030893344,0.032174394,0.4379795,-0.032973982,0.017998634,-0.055246923,-0.07494581,0.028185278,-0.18897267,0.024748828,-0.0075893183,-0.005751907,-0.22829601,0.0063604047,0.02276879,0.026449215,-0.021275215,-0.51354945,0.00018464007,0.041581817,0.17472363,0.021912098,-0.028417222,0.04296543,0.15934621,0.026254952,-0.024612555,-0.02849635,0.040156204,0.011817233,0.027733047,0.022953097,-0.0019848952,0.014948862,0.014402533,-0.36587277,-0.0076174084,0.0040049725,0.034864422,0.03390529,0.028850645,-0.0017543854,-0.00038327815,0.009599574,0.0048499643,-0.038151283,0.028895432,-0.043074325,0.0154888,-0.04565994,0.020230278,-0.03408659,0.029399874,0.04318711,-0.006636489,0.07679005,0.23275921,0.45741877,0.0385894,0.0028012728,0.039855372,0.015350274,0.03351282,-0.0490431,-0.034550354,-0.014707405,0.29393595,0.04522836,0.02469782,0.023381319,-0.0897932,-0.003286767,-0.0495086,0.0006339495,0.056384828,-0.051720377,-0.07807009,0.0216923,-0.04768254,-0.040803906,0.04071709,-0.01154478,-0.032421727,0.0026584896,0.025860308,-0.0033270353,-0.012578511,-0.030528918,0.019155696,0.0033004426,-0.037383545,-0.008736569,-0.028493414,0.12094595,0.029147895,-0.026673075,0.2763436,-0.0013822934,0.044047654,-0.007304264,0.040515024,-0.046734776,-0.2661556,-0.037169553,-0.0250092,0.07366326,-0.011684812,0.03442935,0.008059608,0.013835923,-0.3809377,0.03104857,-0.022522159,0.008583448,-0.03858955,-0.025862284,0.036276456,0.44005617,-0.017077005,0.004851775,0.008967615,-0.0042277854,-0.026316721,0.0450484,0.011222678,-0.019117951,-0.012963774,0.036727853,-0.0151783675,0.02253625,-0.030939594,0.017938642,0.01676226,0.026069928,0.04877152,-0.0009091346,0.069440395,-0.35681173,0.061935406,0.027531505,-0.0075804465,-0.033537228,-0.029330106,-0.40861115,0.042334925,0.038005073,-0.039977312,-0.013309733,-0.030411154,0.006684639,-0.0023917858,-0.021443786,-0.054655757,0.019056018,0.009386672,-0.0067010396,-0.025402876,-0.0427848,0.04130511,-0.03688725,-0.03150432,-0.01717857,-0.031838223,-0.01494358,0.027368775,0.019321635,0.0034518358,-0.013183317,-0.03418527,-0.04961133,-0.053660583,-0.043593485,-0.032549046,0.017024638,0.23691826,0.018606117,-0.008574458,0.07562848,0.0111927325,-0.12928513,-0.032276038,0.011730844
-0.011777161,-0.039927024,0.017949753,-0.023489565,0.046405096,-0.008987302,0.012066841,0.021008968,-0.0030611097,-0.029426096,0.025717385,0.01106361,0.021465374,-0.008005647,0.040977843,0.010509858,-0.018952373,0.0005463601,-0.030243866,0.031915523,0.025360212,-0.030208081,-0.013439966,-0.02215235,-0.040159963,-9.357602e-05,-0.03574759,-0.015678791,0.029314497,-0.029769601,0.008129494,0.018264363,-0.04353966,0.004005231,-0.0009391582,-0.00054939673,-0.015568643,0.0054739374,-0.008792715,0.012974249,0.035588253,0.038110252,-0.037912063,0.0097241495,-0.029161457,0.032028932,-0.03985027,0.025209367,-0.065264136,0.004639962,-0.03252899,-0.02043396,-0.020944646,-0.0021295801,-0.03706422,-0.013553617,5.1345705e-05,-0.014522269,-0.064248815,0.025981866,0.0057469863,0.029116064,-0.020084696,-0.0060472507,-0.026980015,-0.024478467,-0.036591806,0.032402407,0.028306209,-0.05067627,-0.019419378,0.018669518,-0.020653073,-0.027908215,-0.036885146,-0.033145208,-0.022803336,-0.020196216,0.014795414,-0.021981947,0.0415771,-0.013583583,-0.0055478793,-0.021942219,-0.02301676,0.027512446,-0.0026519692,-0.03275294,-0.025854863,-0.039030273,0.034585346,-0.046700273,-0.015677033,-0.0654157,0.01229148,-0.029758103,0.016099779,-0.011306092,0.028270027,-0.0372808,-0.038375046,-0.015941,-0.011609648,-0.0034655314,-0.03670847,0.0084928,0.038580593,0.015018845,0.010987638,0.016480394,0.036082562,0.030029533,0.010584106,-0.011443523,-0.04275242,-0.04435569,-0.030472834,0.010945464,-0.028184943,-0.011424582,0.040783428,-0.01254396,-0.040973146,-0.02986812,0.019397542,-0.045513935,-0.003932934,-0.048361372,0.028054845,-0.038305223,-0.020720012,0.0345487,0.0019919819,0.046654847,0.02518327,-0.0563824,-0.02141631,-0.03055008,-0.005863363,-0.040116724,0.0057936534,-0.0039669164,-0.021786604,-0.04325593,-0.013296995,0.0025290533,0.03798763,0.014853661,0.013237126,0.016448477,-0.017765637,-0.04279109,-0.0052493266,0.0042076865,-0.0319931,-0.014248068,0.012058951,-0.03962431,-0.018546483,0.0105245,0.0018181318,-0.03834339,-0.013642682,0.021472594,0.016793042,0.0394951,0.031157874,0.031655602,-0.013720131,-0.042264722,-0.042097256,0.03135127,-0.0024179858,0.010851853,0.027046833,0.005458059,0.035711855,0.026021183,-0.05141761,-0.030327745,0.021117525,-0.0057257167,-0.0011628339,0.026733229,0.04270921,-0.008861623,-0.03819984,-0.03654493,0.006875463,0.041315816,-0.04229367,-0.024393188,0.024051266,0.010477128,0.026001742,-0.01855015,-0.0114236325,0.015318685,-0.004336431,-0.04981399,0.0017105773,-0.038260955,0.015854174,-0.010113092,-0.03814156,-0.01918126,0.038158815,0.007374413,-0.011925605,0.010460137,0.020926021,-0.041424405,-0.026161827,0.008916643,-0.021417521,-0.031611193,0.015588432,0.024999613,-0.0048894715,0.016432108,0.03695029,-0.001313143,-0.012813134,0.00041462155,0.017853605,-0.044973195,0.02175703,-0.018313237,0.0049189976,0.032343343,0.019541355,-0.010411489,0.041838136,0.042262867,-0.020343158,-0.036503196,0.019758137,0.012418084,-0.0004531714,-0.041562833,0.034903023,-0.0037034801,-0.016127212,-0.01229507,0.024029601,-0.012031982,0.024753232,-0.0047923927,0.030858582,-0.0377532,-0.03643582,-0.005955107,0.01999107,-0.0036204986,-0.028437674,-0.03676794,-0.03732537,-0.03613953,0.0071463534,0.03169298,0.00043630585,0.033735096,-0.01539214,0.028247012,0.007932495,0.035511523,-0.01853453,-0.010539938,-0.020320449,-0.0009577298,0.009560954,0.0147016,-0.036724687,0.026245853,0.017039856,0.025371922,0.010660908,-0.02411988,0.008834317,-0.020593394,-0.04328203,-0.022275643,0.001224761,0.03201742,0.005660284,-0.0120770475,-0.010404713,-0.04347135,0.009834243,-0.027501015,-0.017794963,-0.03231341,0.016283223,-0.034407586,0.031320322,-0.0063020126,-0.03611485,0.005552531,0.018750312,0.014387238,-0.041280128,-0.014217698,0.015853474,0.0023607812,-0.024236314,-0.029828794,0.042665813,0.018906316,0.02761454,0.016411366,-0.033389706,-0.043008294,0.021648819,-0.037004407,-0.00080063206,0.01383239,-0.04434315,0.027868127,0.03960558,0.019754302,-0.02391959,0.021876143,-0.020136131,-0.023449054,-0.0022606063,-0.011223113,0.039339557,-0.013136166,-0.011490528,-0.029830264,-0.031689003,0.02502607,-0.018971577,-0.036697406,0.008678487,-0.038182653,-0.011135264,0.042040616,0.0050779446,0.0006290101,0.017550033,0.0110589955,-0.029951282,-0.023389854,0.0011581419,-0.0138049675,0.0011572143,-0.040786657,-0.04216363,-0.002558556,-0.020683855,0.016598472,0.012004332,-0.012488037,0.002464822,-0.023928652,0.0005376619,-0.014491244,0.026980352,0.04244136,-0.01235597,-0.03752224,-0.039632097,0.025031416,0.014744617,-0.044118933,0.02131239,0.0035339447,-0.0016853445,-0.03745212,-0.0006452893,0.03343442,-0.009699291,-0.031008132,0.013990482,-0.03258512,-0.03180073,0.0042232196,0.03604856,0.04108213,-0.048220146,0.0049998905,-0.032555982,0.04396482,-0.02317964,-0.027635336,0.03027007,-0.029687881,0.00010810158,0.032412495,0.0016869066,-0.03090681,0.016458845,-0.03738683,-0.03356447,-0.016881831,0.027863128,-0.007468959,0.022800693,-0.028054258,-0.043301646,0.009833654,0.010935198,-0.028658502,0.033289354,-0.051660094,-0.03650758,0.042746376,0.0029697635,-0.005787261,0.01969928,-0.04004111,0.03793989,-0.082985304,0.020362793,-0.029366316,-0.03323106,0.038939252,-0.020493094,0.012436541,0.00069967774,0.037946634,0.04235981,-0.039779767,0.017211683,-0.009076244,-0.007153819,-0.002028987,-0.04339037,-0.03298107,-0.035455737,0.025578037,-0.025439387,0.036816835,-0.04054414,-0.036101196,-0.029483398,-0.01746707,0.02678032,-0.0027364865,-0.027314097,0.04160497,0.0015195361,-0.0050310176,0.039820928,-0.0031726514,-0.01530822,-0.012741898,-0.018201811,-0.00027569037,0.006908702,-0.034571085,-0.004055006,0.03195084,0.0019064241,0.012218424,-0.02009914,-0.0043243878,0.03471051,0.024034504,-0.019425176,0.038352493,0.030146861,-0.0046638227,0.034440853,0.035464924,-0.03322733,-0.06201348,-0.016244035,0.01976381,-0.0044831024,-0.032555155,-0.037360214,-0.022502005,-0.019065846,0.03113327,0.012147671,-0.033033267,-0.026129056,0.018706152,0.016816888,0.004545155,0.005468782,0.015083337,-0.032820147,0.03557119,0.027811931,-0.046901707,0.008687555,0.026260016,0.039892074,-0.032136515,-0.038090434,-0.03146214,-0.042556584,-0.020050123,0.00019716939,0.009549422,-0.0071334955,-0.040176988,0.004811669,-0.002921639,0.031380452,0.04009572,-0.013079474,-0.006707613,0.0076660267,0.015135867,-0.00504473,-0.02305821,-0.01427074,0.016032193
-0.04628507,-0.013528217,-0.0010836007,0.0170615,-0.03145902,0.028408198,0.0058219284,-0.03284776,-0.03024191,-0.017870422,0.009129762,-0.046653852,0.018954294,-0.121546246,0.01415352,0.01621751,0.011021417,-0.02157498,0.03246759,-0.0049975095,-0.015752606,0.111675546,-0.0017327446,-0.04145102,0.016459743,-0.00097504567,-0.0047427323,-0.0036036856,-0.06630285,-0.35487488,-0.071762964,-0.14116481,0.00342558,0.019578919,0.0056995233,0.0055308896,-0.0045998124,0.03133074,-0.022914298,-0.029290067,0.009783831,-0.032446533,0.0396717,0.028865894,-0.004109112,0.02487447,0.1366336,0.031831745,0.10221,-0.043920554,-0.047259193,0.02987036,0.020337977,-0.00345421,-0.24205062,-0.7634374,-0.007435505,0.011563656,-0.04312868,0.004971596,0.1516075,0.0044718385,0.015491316,-0.0031088674,-0.019413644,0.014241034,0.02153434,-0.037648067,0.02171529,0.010413649,0.056690503,0.022264384,-0.020019632,0.03354073,0.0048104567,-0.54515874,-0.030523626,-0.028792616,-0.040408626,0.021350479,0.06958944,0.025611462,0.1250963,-0.028519465,-0.06801822,0.008673837,0.036652837,-0.0063965376,0.47262153,0.031233665,0.024201797,0.006983476,0.05164442,0.286193,0.00971105,-0.0381336,0.017327037,-0.03033171,-0.005293891,0.024787009,-0.0032289864,0.28168097,0.041018624,-0.033640105,-0.036388766,0.033059422,-0.017335858,0.04711495,0.050720133,0.022803573,0.008500434,0.047455456,0.0095670335,0.017447945,-0.004126447,0.029159397,0.017754663,0.1514116,0.037386354,-0.04466873,-0.041537337,-0.628654,-0.27331957,-0.02698151,0.013235693,0.0050236327,0.017214764,-0.031949084,-0.04297177,-0.014509716,-0.024190463,-0.008488944,-0.03676906,-0.029646836,-0.011190931,-0.23534645,-0.012084426,-0.016641894,-0.015504319,-0.026265386,-0.0335531,0.041727554,-0.14787018,0.027092196,-0.005773565,-0.015258777,0.035392266,5.7061563e-05,-0.028779998,0.0057249083,0.037621234,0.041119028,0.040909402,-0.07039383,0.037677456,-0.010323091,0.04176329,0.010612527,0.0033754064,0.037678365,-0.0686909,-0.014208634,0.0073018465,0.033709258,-0.039238915,0.02680303,-0.027646083,-0.021114962,0.06797171,0.014975844,0.0090829125,-0.005099073,-0.015788715,-0.01554783,-0.021249723,-0.042581208,-0.03550626,-0.012592508,-0.68593013,0.032969076,0.008425527,-0.042022686,-0.022072794,-0.017855285,-0.027782211,-0.015364464,0.122614756,-0.003930872,0.003596303,-0.045222953,0.002640031,-0.0037670506,-0.0015087834,0.010268113,-0.022979395,0.01550983,-0.22970119,-0.034319855,-0.02256391,-0.046090685,-0.12287139,0.023212424,0.0162425,-0.01519934,0.033218384,-0.013611419,0.010590819,0.014821002,0.006666232,-0.004850269,0.007900283,0.0056656203,0.0409308,0.041612457,0.0016648405,-0.276607,0.021477818,0.13089643,0.04384936,0.04889089,0.01986688,0.014129751,0.0049976837,0.04357839,-0.124108784,0.030159103,0.041661564,-0.008302127,-0.040814668,-0.02444176,-0.020124992,0.13065588,-0.0058205603,0.052673,-0.15528159,0.019899545,0.024280231,-0.029768016,-0.03637308,0.1427128,-0.045169685,-0.0036762042,0.1661071,0.07058334,-0.012814096,0.032092914,-0.0072912336,-0.0075757536,-0.03575261,0.049193412,-0.038369615,0.022833237,0.008685843,-0.026336396,-0.017533258,-0.040977422,0.043581214,0.04624432,-0.029632939,0.021170205,-0.060068287,0.014259707,-0.031196596,-0.019113922,0.014401658,-0.034441836,0.042751346,0.017148215,-0.020212622,-0.14779633,-0.0013749355,-0.023528298,0.047896493,-0.00037690345,-0.3696163,0.004621644,0.022374805,0.028365731,0.0058557037,0.0649211,0.12830463,0.026987832,0.002765486,-0.025551027,0.005796024,-0.0038715906,-0.013055877,0.2730564,-0.23967154,0.03513238,-0.008311358,-0.015160743,0.031468544,0.010289494,0.49397066,0.01579979,0.100695744,-0.035785772,-0.040079452,0.017688917,0.025951397,-0.008484719,0.032045428,0.03773496,0.027216863,-0.0046509835,-0.009609271,0.28289357,-0.03356858,0.056058723,0.026977291,-0.011600961,0.17175712,0.022847598,-0.010274752,0.03531381,-0.02738214,-0.008542602,-0.041224036,0.009033773,0.30324453,-0.03374722,-0.013442537,0.1179042,0.029834952,0.57681865,-0.030273268,0.11108308,0.0422792,0.027940897,-0.049354613,-0.0042981664,-0.00071706227,0.026573293,0.008127665,-0.029595116,-3.6000874e-05,-0.033667713,-0.017898185,0.016519967,-0.004311434,0.0034385594,-0.12762064,-0.0062783016,-0.059976332,0.007297319,-0.015745273,-0.33650154,-0.03057955,0.00033697576,-0.46246856,0.019174261,-0.026011186,-0.0056444574,0.31080884,0.0066430247,0.009880227,0.0038282673,0.0330714,-0.029572997,0.019576656,-0.01663013,0.010297392,0.024767134,0.03566885,0.10084722,-0.00901622,-0.011630138,-0.012941547,-0.206336,-0.035136,0.008880465,-0.029514425,0.015546451,0.01769702,0.027059468,0.009676526,0.0064076735,0.0027965328,0.03544969,0.020035712,0.052189976,0.017102066,-0.030898334,0.0044017797,-0.019522963,-0.40630192,0.44882736,-0.020087421,0.091301784,-0.030630281,0.024930814,-0.009272631,0.037929613,0.018379565,0.02962054,0.22728083,-0.02698352,0.040183138,0.028960582,0.252389,0.006755671,-0.039301526,0.042041555,-0.033166252,-0.014775779,-0.0126694655,-0.026341384,0.00089084054,0.06032752,-0.014945378,-0.029404845,0.01531914,0.035174634,-0.021274596,-0.004231749,-0.028749071,0.007054136,-0.06500817,0.004306686,0.0024478368,0.006846587,0.022198586,-0.98834616,-0.016956255,-0.004994965,0.24353375,-0.013312724,-0.0076509933,-0.029826403,0.0005050771,0.019917497,0.5313768,-0.010361322,-0.014514889,0.062303923,0.03370803,-0.0472996,-0.07147284,-0.024607195,-0.29701385,0.00755329,0.03920793,-0.006631077,-0.020564832,0.039698076,-0.023499317,-0.9937996,-0.03449218,0.01068627,-0.0075771366,0.01608917,-0.011259276,-0.022904102,0.022452822,-0.0121240625,-0.014207228,0.0064569036,-0.03680954,-0.069581635,-0.021850564,-0.007914269,0.0022296142,-0.0038618683,-0.0045537883,0.012548901,0.014604095,-0.06281966,-0.0979228,-0.024221536,0.013648951,0.025647573,-0.013428718,0.15540186,-0.008330815,-0.03325539,-0.038478762,0.014807786,-0.0055258535,-0.0287281,-0.028012075,-0.04087869,-0.025201099,0.040831137,0.0027596913,-0.0326764,-0.039857,-0.016266614,0.028552474,-0.012736318,0.022616904,0.0048807124,-0.007358966,-0.03142826,-0.014340347,0.04928073,-0.048576716,0.012190243,0.018338569,-0.039068002,0.046108976,0.038934372,0.029968994,0.008352762,0.22649887,0.044102255,0.04096044,-0.057487335,-0.026709927,0.024420748,0.04983642,-0.03647397
0.035056524,0.045061365,-0.025493601,0.0013628078,-0.008285475,-0.015621866,0.042814948,0.0293045,-0.036784247,0.032486875,0.026015233,0.011403525,0.013874353,0.039468672,-0.0061032325,-0.035142202,0.034967992,-0.030532973,0.011635685,0.016413454,-0.013864496,0.011682465,0.0032178697,0.008045275,-0.026888808,-0.032883577,-0.01325393,0.0005081051,-0.038326565,-0.025566095,-0.0043419893,-0.039638877,0.034796085,-0.01252272,-0.02316633,-0.0487151,0.0039949664,-0.04340133,-0.030078439,0.005526453,-0.010461348,0.024243526,0.038648482,0.022827726,-0.006761933,0.013377526,-0.020437935,-0.016185021,-0.023151524,-0.014433367,-0.017196078,0.037736073,0.01067763,-0.04272688,-0.04814044,0.003633241,-0.011017328,0.0118989935,0.035417527,-0.014283308,0.023369256,0.02390918,-0.002456018,0.022548538,0.03478954,0.0109010255,0.03658653,0.03050285,-0.005252635,-0.01820412,0.008010281,-0.023944614,0.025196956,-0.016383417,-0.020791166,0.009743244,0.032487128,0.00088682765,0.0010981571,-0.03239071,0.018407926,-0.009619931,-0.015944934,0.04179321,-0.036555655,0.006418858,0.014962721,0.043677997,-0.029393671,-0.013124533,-0.015855564,-0.007557861,0.02922975,-0.0063929195,-0.042865455,0.018928623,-0.014538092,0.017877828,-0.0009447954,0.035808016,-0.027475815,-0.04400091,0.030869853,-0.028827462,-0.0043229884,-0.01308764,-0.025187178,-0.03760443,-0.027519066,0.009114416,-0.045303248,-0.023627961,-0.027615478,-0.012519526,-0.023018185,-0.015626565,0.044879466,-0.00010852043,-0.0346194,0.014791615,-0.011177036,-0.023150722,-0.015060684,-0.030710148,-0.017577233,0.006183809,0.030926341,-0.00685097,-0.048901796,-0.012007556,-0.02635201,-0.022550993,-0.040417388,-0.015470297,0.002233272,-0.023822496,-0.0062696915,-0.043014552,-0.03633081,-0.024694601,-0.031096559,-0.03153465,0.0052445163,0.011363672,0.0067249145,0.021925976,-0.025224507,-0.024313947,-0.036721684,0.00280947,0.0038975456,-0.023897287,0.0088076005,-0.010282697,-0.020561377,0.019941734,0.012949392,-0.020409867,-0.018649707,0.005096365,-0.012688355,-0.0087278215,0.017728424,0.04359408,0.018332016,-0.010781311,0.015007881,-0.028966319,-0.045657206,-0.045650966,-0.038405735,-0.028430508,-0.025402626,-0.0069555365,0.002487068,0.046881612,0.035445705,0.009813624,-0.01777247,0.037043232,0.010750491,-0.012426539,0.013482513,-0.024668066,0.0016286491,-0.023626221,0.033997715,0.03550089,-0.016891688,0.00991984,0.025828637,0.015885793,-0.033725865,-0.01305757,-0.019628976,-0.011213622,-0.006232004,0.025791842,0.0046982006,-0.034720216,0.006044669,0.001048603,-0.028742732,-0.045736004,-0.029806426,-0.030318154,0.008762166,0.014479934,0.027229251,0.008447314,-0.03124122,0.03461112,0.013679982,0.02591532,0.05133777,0.012689183,0.028492447,-0.009723893,-0.0102400035,-0.014334451,0.00028739503,0.038392063,-0.026151618,-0.008353906,-0.039328776,0.018809425,-0.025997628,0.0065086144,-0.005520708,0.015363901,-0.022054728,-0.022460772,-0.030271562,-0.043296244,-0.05445408,-0.02043639,0.0010352319,-0.020536546,0.03800127,-0.04721527,0.017217504,-0.009414873,-0.048661143,-0.016037999,0.0038130516,-0.010691781,-0.032086473,-0.0344935,-0.012463494,-0.02721707,-0.023939738,-0.009690647,-0.044943556,0.038320813,0.029431924,0.026085827,-0.0259519,-0.023158655,-0.06633429,-0.041115735,0.022191098,0.040384278,-0.041804377,0.007189325,0.023830993,-0.02846341,0.012242304,-0.016326759,-0.043746006,-0.047461428,0.0061041648,-0.014554429,-0.0049162456,-0.038411256,0.033313654,0.0397813,0.00614697,0.041864134,0.0471969,-0.020211443,-0.041701935,-0.010630279,0.03624144,0.03922903,0.008291075,0.036762856,-0.031193662,-0.040941782,-0.028916351,0.02288105,-0.008019463,0.02184622,-0.048835866,-0.033750817,-0.017641285,0.012255244,0.011121373,0.02194088,0.026211385,0.013297874,0.015679156,-0.012793112,-0.021145733,0.019966936,-0.03431066,0.027254354,-0.04256094,-0.012076586,0.012823319,-0.04365387,-0.025026524,-0.0076270485,0.045424834,0.03792221,0.020078681,0.009605351,-0.037159003,0.026760504,-0.00511868,0.020944793,-0.03404708,-0.010201751,0.030528631,0.037902698,0.025240624,-0.033943463,0.008447242,-0.03157201,-0.035496607,0.0016091561,-0.007071746,-0.03217031,0.03646085,0.036336944,-0.0022761293,0.03490636,-0.048066355,0.03178039,-0.004727089,-0.03480716,0.04205079,0.022671016,-0.025796738,0.009405119,0.007725096,-0.014596164,0.017611094,-0.005698068,-0.0016024442,0.042705625,-0.0017566298,0.0050039478,0.016689632,-0.009984645,-0.074615605,0.02752747,-0.0045432793,-0.010241487,-0.031437796,0.032597356,-0.00066426594,0.023575757,0.0009053617,-0.050306614,0.03283649,-0.02080447,-0.049123593,0.0065917773,-0.020786704,-0.035586357,0.04280595,-0.03968248,0.033370778,-0.029471293,0.033894315,0.0073655597,0.023487743,0.025869131,0.024527943,-0.023819573,0.012641245,-0.039461162,0.007085233,0.021788877,-0.01714284,-0.018328968,0.013188579,-0.022756133,-0.02950475,-0.03896683,0.010559924,-0.04330574,0.017402824,-0.0029693402,0.020099888,-0.010469304,-0.013846543,-0.024465201,-0.014856823,0.0132439425,-0.028736489,-0.010990514,-0.022427285,0.019965762,0.015838807,-0.0043531335,-0.003818444,0.019865084,-0.039794218,-0.033547204,-0.0336124,-0.03767504,0.038186204,-0.031568103,0.044017293,0.01813498,-0.002317113,0.03912774,0.03752116,-0.031420358,-0.0050373,0.024854643,-0.015723329,-0.05588279,0.0146174645,0.013500614,-0.02643739,-0.026253687,-0.012136819,-0.04362478,-0.024975313,0.013436031,-0.08708329,0.0046755397,-0.00024095028,0.015744064,0.023537042,-0.023016889,0.01195755,0.037789185,-0.028516304,-0.030713065,0.033572957,-0.04138703,-0.0061473656,0.006856565,-0.03572645,0.00011319576,0.0052860947,-0.043469172,-0.014514126,0.041443832,0.040237572,0.03693556,0.009215445,0.014232379,0.026979815,-0.002042415,-0.015653409,0.029983683,-0.0077039287,-0.039168514,-0.03147711,0.020974627,-0.026152901,-0.034661483,-0.020157816,-0.010899414,0.0030841099,0.009886165,-0.014837988,-5.972837e-05,0.00807278,-0.014671185,0.013954617,0.014063523,-0.0067816563,-0.014330602,-0.02188353,0.020418674,0.028649094,-0.0135204345,0.027389308,0.0046511823,0.027594572,-0.0045158397,-0.023897553,-0.025420576,0.011524353,0.027691895,0.0364395,-0.029593736,-0.027878618,0.028981086,0.036704026,-0.023548873,-0.0057905605,0.008919911,-0.03131966,0.02600379,-0.015339477,-0.0024778275,0.041217104,0.024591627,-0.0030980438,-0.02299965,-0.015848711,0.051616438,0.042818967,0.026911803,0.010137434,0.014931079
0.37803742,-0.027576681,0.022913296,0.010083689,-0.017043605,-0.0289077,-0.042574115,-0.017559486,-0.024255212,-0.045271996,0.04939497,-0.0184057,-0.03396606,0.09788471,0.018421596,-0.019055912,0.0043069357,0.052601323,-0.0015190435,-0.0005281722,0.032212336,0.13478617,0.054876216,0.031614564,-0.013843118,0.010345022,0.032688294,-0.0005597156,-0.2795061,-0.61591095,0.042759795,-0.13969989,0.03083009,0.035366196,0.04867667,-0.028283171,-0.030597426,-0.0064004185,0.034084123,0.005720364,0.03426039,-0.020505909,-0.04945621,0.02555525,0.04645735,0.01192589,-0.16275221,-0.022910543,-0.40831804,0.024486827,0.025782257,0.052905846,-0.010258297,0.044197597,0.41203144,-0.21641353,-0.02631316,0.012359378,-0.10222081,-0.04221412,0.0661868,0.012302995,0.031773776,-0.011307733,-0.006031853,0.061499268,0.04232478,-0.051024824,-0.014441158,0.0063189557,0.2505571,-0.012196007,0.029662099,-0.012794107,0.038001675,-0.72808874,-0.007536109,-0.0042556804,-0.023116186,0.00018039312,-0.0043217535,0.01962158,0.039251626,0.0073913406,0.03617897,0.036933035,-0.028747343,0.043983307,0.5443677,0.0030906869,-0.0075883353,-0.14949243,-0.037882872,0.29487178,0.03282251,0.035206687,-0.021354623,0.009901815,-0.028746586,0.00029893266,0.002566196,-0.0346254,0.028862905,0.0004522687,-0.0058502415,0.037038393,0.023830686,-0.0048580114,0.1814126,-0.33400536,-0.030610034,-0.02487281,0.005613728,-0.023725571,0.05658592,-0.021316992,-0.038635224,-0.6857118,0.03748626,-0.01004404,-0.030481005,-0.20473702,0.44766694,-0.0037178188,0.018205864,-0.009730876,-0.013926183,-0.017376345,0.03977944,-0.018201878,-0.03976386,-0.030098418,-0.04883445,0.05210224,-0.017725097,-0.68245023,-0.0032029233,-0.0001382482,0.016367696,0.004500891,0.03628267,0.046944425,0.057564147,0.018290408,0.007015069,0.040862966,-0.07573905,0.0363317,0.047612842,0.0103096925,0.015235512,-0.018294387,0.0154931275,-0.02598965,-0.0039489144,0.01845131,-0.033947337,0.036056414,0.027822774,-0.022650471,-0.4142691,0.018751215,-0.0060363146,-0.0124819605,-0.0015190295,-0.001208363,0.019073421,0.043404993,-0.45844904,0.029530639,0.042621322,-0.013408507,0.021071652,0.01733882,-0.008977182,-0.006243136,0.039950702,-0.017896868,-0.40444404,-0.02639888,0.03686454,0.0157299,-0.007415697,-0.011475122,-0.016381634,0.030379191,-0.62218213,-0.04050247,0.038128514,-0.029224161,-0.022495057,0.05933359,0.026612,-0.053653516,-0.16515693,-0.048826806,0.45645922,0.048895136,-0.016956147,0.04077094,0.0036871326,0.017305393,-0.0006771027,-0.015628394,-0.042675357,0.04566197,-0.011659842,0.009238264,-0.039041102,0.009788849,-0.035072215,0.024284149,-0.00655153,-0.04126543,-0.04367403,0.16616471,-0.03328803,0.08257503,-0.015051308,0.0017645535,-0.030066362,0.031745125,0.041298147,0.0313536,-0.3393645,0.024416417,0.024399564,-0.053642113,-0.019512514,-0.024009917,-0.03271396,0.05740063,0.048671156,-0.019716108,-0.8813237,-0.027565302,-0.021690106,-0.031475205,0.0029798083,0.29673487,-0.014658271,0.047602534,0.15539552,0.038233,0.011452757,0.0014165208,-0.005756846,-0.0038431494,0.007886198,-0.21870022,0.029554864,-0.006879024,0.025676722,0.037179988,0.05648995,-0.0017204927,-0.037958056,0.024835924,-0.10057951,0.0006728413,-0.04530427,-0.0041837995,-0.007899378,-0.03677636,-0.0029272472,0.03319977,0.030158509,0.01525341,-0.01828854,-0.44647396,0.01255663,0.022834254,-0.039637066,-0.012829877,0.0781935,-0.029559897,0.05225476,-0.0143784825,-0.02932736,-0.18161704,-0.07520601,0.023766866,0.050223768,0.022322519,0.009265596,-0.027397906,0.029951904,-0.34458753,-0.8249002,-0.002142488,-0.03530393,0.035910025,-0.036883846,0.0016775109,0.12732762,0.011623942,-0.7009878,0.008147179,-0.017685533,0.048895635,-0.05182554,0.014896454,0.01933162,0.012648155,-0.015712125,-0.027408358,-0.04105013,0.25363243,-0.0070298538,-0.011278385,-0.25194383,-0.0044838726,0.03372716,0.04351033,0.011142683,0.045933183,-0.025112303,-0.023072185,-0.035085794,0.030756915,-0.71800894,-0.009801672,-0.01600664,-0.064779446,0.023982055,0.07402062,0.009333685,-0.18287463,0.04281852,-0.036691915,0.00081090076,0.043618206,-0.9948324,-0.020807412,0.016615076,-0.011149181,-0.003138197,0.004536908,0.0772494,-0.018663468,-0.05085391,-0.006417531,-0.020202857,0.018309472,0.021048866,-0.009198475,-0.05547783,-0.08424142,-0.035498768,-0.015492528,-0.04263879,0.030428946,-0.04838314,-0.06834032,-0.23468992,-0.023666678,-0.008733984,-0.0023801306,0.058885645,-0.0035117343,0.05821398,0.0070938044,0.01169105,0.018283682,-0.027563559,-0.06851406,-0.019153565,-0.015564755,-0.033878542,-0.025833745,0.02901027,0.01612536,0.009479125,0.03692192,-0.021290863,0.005017398,-0.020034198,-0.00011788592,-0.0011134649,-0.008592492,-0.029932031,0.023137242,0.022438368,0.037067026,-0.03381179,-0.041968364,-0.13511565,0.2498207,0.036840264,0.027431563,0.0023421121,0.005112785,0.0058208336,0.020923922,0.04073045,-0.009972907,0.2959449,0.030755857,0.022865433,0.06458125,-0.078610435,-0.013085081,0.0088292435,-0.03417327,0.01843033,-0.02703944,-0.13324241,0.0013822777,0.004992789,0.070181035,-0.0025767535,-0.009212184,-0.02190065,-0.0420529,0.0036171235,0.0220868,-0.035920464,0.050273985,-0.034013126,-0.0039406726,-0.021834468,0.0012149255,0.02406526,0.041646656,-0.018362641,-0.00040816385,-0.014149641,-0.007970834,0.026331859,-0.036935054,-0.014185178,-0.028914796,-0.12561545,-0.04063251,8.36299e-05,0.0094040865,0.026938122,-0.038947437,0.0042003533,0.017825985,0.34714007,-0.008610277,-0.053846296,-0.061074793,0.061710596,-0.039404698,-0.0023792565,-0.0274711,0.0087947715,0.02429038,0.014486295,-0.021038286,-0.007615545,-0.02372529,0.0077306125,0.013626349,0.029435985,0.023909647,-0.045282595,-0.04247373,0.06525624,0.010767177,0.00097591145,-0.011573754,0.01459771,-0.07389053,-0.0020176608,-0.728717,0.053006604,-0.022180786,0.02918345,0.01598052,0.0338912,-0.20769778,-0.043465436,-0.035532396,0.008045804,0.035174713,0.03874692,0.013116544,-0.0016261126,-0.013759096,-0.0083249025,0.022994464,0.047037344,0.019983927,0.01813214,-0.020170465,0.015392841,0.04682014,0.0133309,0.045800794,-0.027246436,-0.0059772353,0.04296742,-0.002989086,-0.034725267,-0.021391312,0.017878786,0.028043712,-0.029692583,0.010779799,0.0054413844,0.04865925,0.3757022,-0.042876046,-0.074293256,-0.03572957,-0.017871846,-0.078121714,0.0199411,-0.039434124
0.156298,-0.031244796,0.04057784,0.00086632586,0.015035856,0.00879508,-0.043970954,0.010069456,-0.016468935,0.031168325,0.0009397842,-0.016937133,-0.028304053,-0.16916886,-0.01466338,-0.029582571,0.0049837264,0.008963932,0.030644216,-0.03806962,0.013607104,0.15986449,0.03516532,0.00071158103,0.01750997,0.041985452,-0.017136898,0.026269782,-0.081559755,0.25398725,-0.02550282,-0.08702781,-0.029227126,-0.02592696,-0.015091024,-0.011513519,0.03571123,-0.030145722,0.024136888,0.012928979,0.022595951,0.002388287,-0.010004095,0.005913143,0.03611111,-0.028355889,0.19286466,-0.03921463,0.2836837,0.0012265102,-0.027838083,0.009086609,-0.035206027,0.0007727259,0.1338652,0.056529813,-0.013177728,-0.046200495,0.027042763,0.014639268,-0.1476789,-0.017001696,-0.017909134,-0.018625228,-0.025552318,0.03451405,0.033793468,-0.04154541,0.0026840444,-0.0050989017,0.3020387,-0.00179829,0.016823003,0.0073818625,-0.037471805,-0.36750957,0.013624225,-0.031979926,0.074376315,-0.0014802809,-0.1064019,-0.0116686085,-0.2039771,0.014824932,0.0054755257,-0.006065726,0.0034896147,0.012123927,-0.8237805,-0.020772595,0.024489572,-0.04816779,0.026128164,-0.023887241,-0.0016392267,-0.028918507,-0.022722337,0.007329217,-0.017578334,0.032197542,-0.008216888,-0.09932613,0.0008657173,-0.0033511778,0.005269145,-0.017418055,0.024522679,0.0029236209,-0.05328877,-0.6248302,-0.032430265,0.040676035,-0.04418135,0.024441278,0.028959982,0.017741192,-0.028691132,-0.22220097,-0.04932235,-0.0047983443,0.025378598,0.04507948,-0.030043302,-0.023994358,-0.01825147,0.011405418,0.012538235,-0.02808948,-0.031085966,0.016663492,-0.032892827,0.010769179,0.03593901,0.04000601,0.019803772,-0.9782385,-0.0051797475,0.028977318,-0.0035706721,0.0368638,-0.031204976,-0.027540589,-0.27717292,0.018072784,-0.027474167,-0.023406254,-0.041358322,0.009330684,-0.033186115,0.014196044,0.03272178,-0.027553216,-0.054894473,0.020800587,0.0008807523,0.04767371,0.033613555,0.042150937,-0.023611804,-0.03382858,0.05026341,0.033512365,0.019001596,-0.03871551,-0.025197469,0.0069414284,0.008474763,0.013013322,-0.59311724,-0.046561282,-0.0065814997,0.006869656,0.0011490284,-0.018758362,0.011820723,0.030205721,0.010271145,0.016421793,0.13326189,0.030030644,-0.040204037,0.007539223,0.017190946,-0.003550066,0.024201147,-0.036816332,-0.56993216,-0.021565977,-0.018451532,0.03428819,0.031806536,0.01097863,-0.015284533,-0.02786007,-0.034016706,-0.014831516,0.28302407,-0.036329124,0.012428294,0.027557949,0.0021114633,-0.02242389,-0.02797234,0.017775424,-0.009538403,0.026792169,-0.009615605,0.008933062,-0.044955675,0.05217293,0.009983134,-0.01034769,-0.024588063,-0.028947541,-0.049501214,0.22681314,0.055484846,-0.064816676,-0.03418204,0.020431243,-0.0037562612,-0.002071086,0.009533875,0.0025459856,-0.48440567,-0.054109804,-0.008281229,0.03541899,0.111688025,-0.021305721,-0.022984345,0.029625073,0.012796489,0.03992448,-0.8754725,0.01252818,0.01650341,-0.019964203,0.045068968,0.18383013,-0.032334216,0.004409907,0.075938985,0.0038006762,-0.016662966,-0.009192808,-0.012712663,0.0069931317,-0.013646392,0.04252365,-0.0026793617,0.004253403,-0.017746631,0.021913255,-0.004199075,-0.042765543,0.020259114,0.03287405,-0.0017928536,0.017569825,0.083936326,-0.0050729113,-0.03966771,0.028579691,0.03390219,0.03286767,0.06812813,0.0350491,0.011341063,-0.47303146,-0.013500131,-0.024147023,-0.005560516,0.0054508834,-0.24313785,0.0050692228,0.018652111,-0.021418717,-0.003821785,-0.38809395,0.08515755,0.04982549,-0.065831244,-0.036908876,0.015507111,0.04578974,-0.021952165,-0.0062481654,-0.5187533,-0.038171228,-0.025336057,-0.02621747,0.027014317,0.015565973,0.021586176,-0.015713682,-0.10042348,0.04359807,-0.023729412,-0.031002278,-0.01669,-0.047780287,-0.046195295,0.023581017,0.017649315,-0.020881299,-0.035910252,-0.7473478,-0.040014166,-0.035314087,-0.2661883,-0.012363749,-0.44402832,-0.001252631,-0.016022759,-0.014690114,-0.022984205,-0.018554728,0.0019535348,0.03761973,0.08034141,0.03241868,0.013346958,-0.09200104,0.031581633,-0.19254991,0.024795694,-0.4422854,0.012736915,-0.0079180775,-0.030902222,0.027260603,0.46988612,0.0064253397,-0.03962099,0.020707866,0.07585667,-0.040803686,0.28460905,0.016149497,-0.02673975,0.017985635,-0.110235915,0.014891071,-0.038490377,0.004683908,-0.023087507,0.5617274,0.020058786,-0.017383557,-0.28162447,-0.010938598,-0.012768806,-0.01889924,0.14202796,-0.012528105,0.009464926,0.0018727838,-0.036192335,-0.031116946,0.02495695,0.0043544173,-0.02931168,-0.0544502,-0.02478431,-0.16589256,0.01015896,-0.028356915,0.03778267,0.081439905,0.007942216,0.009295145,-0.005411555,-0.04380369,0.010187444,-0.001737232,0.016676486,0.030267775,-0.016856113,-0.01547872,-0.03769583,0.029881028,0.020177197,-0.007966697,-0.0420044,-0.0074128723,-0.19445714,0.40861368,-0.0117233675,0.021822194,0.035405926,-0.011015052,-0.012956312,0.009581884,0.020985242,0.00025955023,0.44933295,0.019633457,0.0051833144,-0.010546612,-0.8239335,0.032445397,0.019656159,-0.014812266,-0.018365758,0.036542982,0.027412374,0.020552542,0.027886594,0.08339685,-0.017113492,-0.008151106,0.009910682,0.031426117,0.020660413,0.014223079,0.009938839,0.019191204,-0.02158847,-0.018507062,-0.019174634,0.028961703,-0.041427456,-0.039775137,-0.03222617,-0.0010163991,0.13430224,-0.025657462,0.041433923,-0.03543912,0.038148724,0.007760731,0.24225628,-0.003822191,-0.04571611,-0.023412602,-0.025699973,0.015288906,0.037537564,0.030382525,-0.36310214,0.006328502,-0.019420117,0.0053428803,0.0017767507,-0.037753254,-0.038569067,-0.02696216,0.027788013,0.030313224,0.03851665,-0.038016472,0.018149579,0.019842826,-0.013304493,-0.0018327767,0.01702787,-0.017746743,-0.02547942,-0.0013358148,-0.008006793,-0.033211716,0.009616246,-0.027220063,0.011205546,0.049752187,-0.060974058,0.21259344,0.00029927565,0.025451912,0.027129974,-0.020632163,0.029149039,-0.22361231,0.0073925946,-0.0024778396,0.026419265,-0.035076287,-0.046315875,0.024602633,0.039524034,0.0056773936,-0.010065556,-0.036443695,-0.012998019,0.0005637264,0.008812625,-0.037190627,0.028813561,0.020663697,-0.020760156,0.041386914,-0.029399961,-0.030430295,0.033465743,0.04429888,-0.0070432923,-0.012388379,-0.0020046462,-0.025789546,0.042311974,0.0018951655,-0.022756416,-0.009635702,0.11826533,0.035416607,0.04294846,-0.13130516,0.01945654,0.05410416,0.021059256,0.04412605
0.006553357,0.006805111,0.040583067,0.056830265,-0.029300041,0.006441432,-0.032037936,0.025015013,-0.013417286,0.029801058,-0.009249577,0.020559633,-0.025678096,-1.0840511,-0.03867052,0.0140125,-0.011461072,0.03709262,0.0025749807,-0.010658113,-0.0039850003,0.030688355,-0.035639547,0.047397908,-0.010616169,-0.01472625,0.05600845,-0.033273287,-0.65475357,-0.55674773,-0.03579588,0.28557396,-0.030090507,-0.03529709,-0.006930667,0.03922807,-0.034090366,-0.047412917,-0.049225066,-0.036552228,-0.048339475,0.01696099,-0.0011870911,0.009867876,-0.0056820284,-0.042141575,-0.92683095,-0.041108936,0.50535715,0.01213923,0.0029215328,-0.028955268,-0.05200298,-0.03759261,-0.5037145,-0.012743966,0.0084720515,-0.0021890306,-0.02687742,0.0067311632,-0.018380113,9.575744e-05,-0.022870524,-0.010161817,-0.019417048,-0.028522652,-0.041355513,-0.017790385,0.024331778,-0.011696199,-0.014099369,-0.012257326,-0.032435898,0.0015915282,-0.015205756,-0.031371847,-0.025688503,0.051348932,0.004608745,0.010879693,-0.025821602,-0.037789248,0.09809158,-0.012090077,-0.05260845,-0.0076015284,-0.0018862127,-0.019152334,-0.021147523,-0.036278673,-0.017974388,0.003916232,0.038890567,0.34255433,-0.0009037117,-0.021419287,-0.016115792,-0.06099275,-0.041108172,-0.03194516,-0.041455273,-0.15810217,0.016569104,0.01651143,0.041182417,0.022484511,-0.043937124,0.035022546,0.16686597,-0.06323788,0.0053736973,0.0002341244,-0.027800856,0.0074512498,-0.025204163,0.03113455,-0.018276485,-0.14379042,-0.0012558155,-0.046674483,0.037473693,0.110805705,0.0021813503,-0.028795354,0.030382926,-0.023844803,0.02348037,-0.0047307927,0.013665753,0.0020342977,0.051698253,0.0052309455,-0.040293578,-0.010561724,0.038260013,0.21338968,-0.016605774,0.01978999,-0.011707026,0.0033858845,-0.046597477,-0.0018463009,-0.0032759248,-0.013966541,0.025196137,-0.03912384,0.0634141,0.04378142,0.004269337,0.0154742915,0.021352714,-0.030344253,-0.04467195,0.0020701888,-0.042525496,-0.015140115,-0.01982761,-0.038063645,0.029425845,0.026467852,-0.23908237,0.0085495,0.041297685,-0.019782031,0.003933107,0.016724853,-0.0016357731,0.0072655864,-0.9994299,0.020673882,0.020326653,-0.005501879,0.01414784,0.012561438,-0.009457971,-0.055637687,0.039266065,0.012284124,-0.46169457,-0.019540504,0.031610098,0.0018453323,-0.016958231,-0.002907023,0.04701987,-0.03565819,-0.38446957,-0.015001617,-0.0013419108,-0.04190184,0.007820876,0.021928035,0.011323815,0.032365113,-0.04950109,0.009277611,0.14669466,-0.020449605,0.030898795,-0.047952257,-0.03204695,-0.007031312,0.0066890526,0.027936704,-0.011281089,0.028096894,-0.03663742,-0.007066478,0.0013040289,0.015733585,0.0040493347,-0.041416854,0.08028936,0.01184434,-0.040301014,-0.7623618,-0.027006354,0.05928908,0.02629532,-0.03949105,-0.008129074,-0.02325788,0.012875633,0.002895753,-0.25440374,0.029619822,-0.015454095,-0.038766198,-0.00544224,0.057424337,0.0077875974,-0.0073140534,-0.01806758,0.018736118,-0.33017522,-0.03678791,0.04709409,-0.14236549,-0.024843331,-0.5580616,0.020924661,0.006173015,0.032954294,0.03111774,0.031984553,-0.0045110136,-0.038955145,-0.00012706089,-0.019501459,-0.9345632,-0.037082274,0.01414717,-0.003879422,0.014535288,0.041991644,0.029158901,-0.014084289,8.797463e-06,-0.025431482,-0.053152196,0.030742751,-0.013968845,-0.014496845,0.017852088,-0.012784547,-0.039285365,0.05643105,-0.036778335,0.0059141163,0.18064056,-0.010301183,-0.019283395,-0.006753013,-0.036553092,-0.8802603,0.015958184,0.0031251807,-0.012163335,-0.0023453974,0.18146406,-0.23557574,-0.0038765213,-0.024994217,0.006590194,-0.044181425,-0.005037326,-0.040197074,-0.37629282,-0.10232253,0.003238116,0.012407785,0.016694315,-0.016883474,0.024420125,-0.28431946,-0.051405817,-0.75077164,0.034719933,0.011729636,-0.0036864672,0.04451401,-0.024208432,0.004883171,-0.032751467,-0.036550615,-0.01667973,-0.023276085,-0.93137586,-0.026187647,0.033001192,0.15266593,-0.016003959,-0.095465474,-0.03543451,-0.032262783,0.042929456,-0.063175075,-0.006008044,0.0023667912,-0.03153006,-0.021948185,-0.0031968912,0.007620745,0.037189018,-0.05119339,-0.15500689,0.024390768,-0.10948172,-0.016029181,-0.020216186,0.012189169,0.019378815,-0.8590017,-0.017934352,-0.03707034,-0.014432709,-0.05372968,-0.037143316,-0.6536087,-0.004740393,-0.03682593,-0.015392281,-0.21692398,-0.020147268,-0.061567828,-0.037890375,0.019412968,0.0052285106,-0.020118507,-0.01187578,0.23900902,-0.031201543,0.054674312,-0.041152537,-0.73091936,-0.0041735293,-0.027913483,0.0034505504,-0.037555523,-0.042792007,0.020045064,-0.018645171,-0.009825344,0.0055243466,-0.034817263,0.024596857,0.06556026,-0.017989883,-0.009470022,0.22816993,0.04755635,0.0144633185,-0.0036218993,0.0066382894,0.04475493,-0.0033154108,0.030023191,-0.042872958,0.015227167,-0.027818935,-0.0041808914,-0.020403191,-0.0005509425,-0.017836316,-0.017878745,-0.027589325,-0.23104818,-0.41768453,0.0035302697,-0.00053303153,-0.0005171861,-0.01420926,-0.009452122,0.071284585,-0.0020122451,-0.028764794,0.008760524,-0.0392833,0.018087735,0.03323413,-2.090837,0.0016014805,0.05128705,-0.01734902,-0.030697135,0.023126822,-0.12983283,0.0015969196,-0.0032113097,0.09981313,-0.012390908,0.00014048598,-0.02521975,-0.05362194,-0.01197934,-0.029363304,-0.01864778,0.018445605,-0.043584563,0.008401535,0.0145788,-0.041980397,0.038063537,-0.39646795,0.007982983,-0.02543154,0.18058237,0.028846629,0.0045925803,-0.01055949,-0.0012847062,-0.02615912,-0.15251552,0.03181763,-0.03775088,0.032743417,0.02342244,-0.02462372,0.011510436,-0.005956014,-1.0332088,0.051549956,-0.023912119,0.041360293,-0.024258498,-0.019750798,-0.031888038,-0.6493182,0.012342647,-0.0076757683,0.01772206,-0.029189521,0.01289785,0.0144113535,0.014160135,0.0065156235,0.010060826,-0.04891547,0.008343095,0.026902538,0.001398786,0.038067378,-0.00041247986,-0.043520663,-0.021831954,0.057950266,0.010244476,-0.19692576,-0.050111018,-0.010350153,-0.015071396,-0.039297972,-0.0021611666,-0.042567044,0.009312754,-0.034435455,0.03035771,-0.017986177,0.044176064,-0.018086357,0.023152154,-0.037662823,0.0010089438,0.017568307,-0.014006763,-0.00013009679,-0.015091213,-0.014876565,0.010424135,0.031980716,-0.046390314,0.01669029,-0.027452845,0.014722086,-0.0037516821,0.03133037,-0.039556228,0.04403473,-0.017843153,-0.0102884155,-0.01008083,0.002887527,-0.008591468,-0.005525897,-0.24306054,-0.032786306,-0.025112515,0.04048837,-0.01003312,-0.029122135,0.009651978,0.021165662
0.03190852,-0.027350709,0.04387242,0.000582135,0.0316696,-0.02881466,0.020721443,-0.00037750188,-0.024794858,0.028662352,0.019723672,-0.032382566,0.026205478,0.026036872,0.022499438,0.009725652,-0.030221893,-0.015009246,0.02075394,0.045741003,0.011367287,-0.057161897,-0.017802913,-0.03677689,0.029493047,-0.031769034,-0.0032007159,-0.005308452,0.0018558493,-0.048025325,-0.036445934,0.014297583,-0.028917875,-0.039605632,0.01852997,-0.02326061,0.019239921,0.0019438671,-0.009677069,0.010828359,0.03287615,0.030226154,-0.017447094,-0.013209354,0.00037883452,0.037222322,-0.055743266,0.011242618,-0.062419806,0.019053908,0.012516821,-0.011119163,0.0007984386,-0.036612984,-0.01617443,-0.035837717,0.042733677,0.01784526,-0.040300485,0.03788018,0.016993213,-0.017275471,0.008019315,0.017026188,0.017187053,0.020616734,0.0057818363,0.032193836,0.04150407,-0.005462744,0.0030472537,0.00073871686,0.019896854,-0.040293153,0.005367422,0.019039007,0.0032476464,0.017086696,-0.016799217,0.019135635,0.015734192,0.045485463,-0.013410046,0.020691233,-0.012150124,-0.017312529,0.028058458,0.009429504,-0.0267615,-0.017200086,0.007578795,0.02614703,-0.021420166,-0.035108775,-0.017695716,-0.024169168,0.012253832,0.015189552,0.023596307,0.01725295,-0.017305728,0.0051177144,0.01200616,0.010584211,-0.022751631,-0.009735511,0.03031902,0.018458353,-0.0020873651,-0.006507373,-0.030248309,-0.033252914,-0.027554002,-0.036438584,-0.013722655,0.019152662,-0.0031368264,-0.02697517,0.017256841,-0.0007939794,-0.033504203,0.0006431997,-0.040579244,0.022435931,0.035382327,0.017923702,-0.030838208,0.009667016,-0.027535634,0.031980436,0.035001427,0.020266287,-0.025386952,0.04163871,0.037322678,-0.0750598,0.004481163,0.014690613,-0.0076368246,0.0052148085,-0.025349364,-0.0034476318,-0.038830146,0.006387826,-0.016793566,0.015211256,-0.034609925,-0.0035052253,-0.029479858,-0.02369065,0.0399495,-0.0028171712,-0.02077896,0.014316747,0.037761718,0.014546282,0.024057005,0.02871648,0.023235975,0.010339327,-0.0400762,0.020300563,-0.0153637575,0.009603648,0.014506525,-0.04256072,-0.028955586,0.037219588,-0.027732095,-0.03857044,0.023046585,-0.02820875,0.006387955,0.033097077,0.016117914,-0.011972085,0.0044994513,-0.024232168,-0.028934369,0.018621143,-0.030414902,0.04320217,-0.014454776,0.026506245,0.010958575,0.020766616,0.031077534,-0.0018436027,-0.031699114,0.0019094301,-0.03564253,0.0015453348,-0.028478034,-0.041596055,-0.046872865,-0.026881834,-0.013176711,-0.01807154,-0.016798178,-0.005552814,0.03562484,-0.011053443,0.0239349,-0.01666733,0.043311182,-0.03899866,0.040295642,0.029573942,-0.022687897,-0.024364725,-0.0007817345,-0.030415474,-0.014582667,-0.004533194,0.005201674,0.0028375944,-0.0037674706,-0.012123738,0.04488181,0.019201808,-0.022704799,-0.002003351,0.01638435,-0.022929724,-0.023704983,0.006020906,0.005102329,0.017031204,-0.01643856,-0.041356463,0.0009653103,-0.020386124,-0.0061089513,-0.032730415,0.005333206,-0.029423105,-0.023393836,0.026377253,0.008950025,-0.061093196,-0.0019021031,-0.02957413,-0.026986986,-0.002333348,0.013181944,-0.0055591445,-0.0015701551,0.032559015,-0.023390906,-0.03932547,-0.031876985,0.006188575,-0.02936806,-0.017843094,-0.012419721,-0.03643901,0.028046636,-0.0083709555,-0.030019505,-0.001498176,-0.024554461,0.0050591,-0.0049345787,0.012381307,-0.0013489972,-0.003913277,0.037807316,0.03286686,-0.030674951,-0.07860534,-0.020695595,0.0415769,0.029450946,0.038179882,-0.0021287093,0.0237783,0.011817181,-3.4613833e-05,-0.0020603908,0.027817136,-0.012863362,0.006288024,0.040796895,-0.0026241746,-0.031817634,0.020819545,0.040852506,-0.02497941,-0.044937264,-0.01844404,-0.020341383,0.03780423,0.03319589,0.009032651,0.024020309,0.012288516,0.0054681874,0.012132657,0.025588216,0.015540624,-0.02983842,-0.007299404,0.00037188924,-0.00037411923,0.015577705,-0.0259452,-0.020632533,-0.039991915,-0.043572508,0.034091797,-0.052583855,-0.03334327,-0.0041228295,0.01957719,0.030872611,0.01866039,0.014577126,0.03470938,-0.0033518705,-0.01988816,-0.024547938,0.011258756,0.0013292194,-0.040942866,0.027946968,0.035751805,-0.033635214,0.044777755,0.020569682,-0.039696336,-0.0068399035,-0.019173866,0.0056463163,0.016825337,0.029350508,-0.009356777,-0.04404506,-0.0141178835,-0.029087579,0.043352406,0.019632887,-0.0049552564,-0.07687833,-0.006398405,-0.037721336,0.03255403,0.01859106,0.010665338,0.0097194575,-0.017844,-0.015750628,-0.005700283,-0.01749908,-0.008569299,-0.044986818,-0.0024576145,0.0022330985,-0.022178888,0.012230131,-0.0024594637,-0.01825448,0.004100089,-0.044133533,-0.021961547,0.0015761589,-0.0343801,0.008199351,0.02290189,-0.036945555,-0.047896244,-0.042021208,-0.030635089,-0.0066427067,-0.053600185,0.027052138,0.03972503,-0.027867211,0.0028414086,0.036445636,-0.04471887,0.02488418,0.022594435,-0.03073606,0.007964016,0.01247455,-0.036076624,0.032943472,0.0014701413,-0.029042602,0.020895965,0.020172304,-0.010228074,-0.03400893,-0.035352502,0.049137462,-0.0015671568,-0.046001133,-0.01230237,-0.035114534,0.040599372,0.014437986,-0.004647065,-0.030448,-0.009543391,-0.01851987,-0.03367774,0.0023626296,-0.008136938,-0.03010092,0.02712438,0.029102514,0.0073728743,-0.04196604,-0.047686704,-0.04481706,0.02487889,-0.027702644,0.0038520428,-0.044009212,0.028367056,0.04178169,0.03898724,-0.03769199,-0.052051056,0.0028858413,0.026150668,-0.014229137,0.033218678,0.04209188,-0.019085096,0.014967131,0.0020662388,-0.06559001,-0.011967757,-0.0013883667,0.01448802,0.013668308,-0.012536004,0.016652297,0.020385966,-0.029705947,0.0072386186,0.015698431,-0.04838832,-0.01214576,0.043521367,0.0294831,-0.037761565,0.01696961,-0.02730487,0.024305176,0.0046221493,0.029520027,-0.02873915,0.006921821,0.035163738,-0.019590331,-0.027017618,-0.017966168,0.015681507,-0.00028939176,-0.019265644,-0.04196196,0.04679089,-0.028264556,0.030406935,-0.030195406,-0.008110571,0.029503692,0.0015557521,0.0023839101,-0.0105033545,0.04074769,-0.00760576,-0.03685956,-0.042807978,-0.019439816,0.02445999,0.024392586,-0.018156081,0.010295448,0.03381448,0.026823169,0.0029428254,0.021718275,-0.013922277,0.000734017,0.040238205,0.0034558263,0.009915244,-0.020123933,-0.006684111,0.030914113,0.01963785,0.026486238,-0.03912907,0.030736499,0.015878903,-0.0070375954,-0.00012670124,-0.03408761,0.026949504,-0.007758334,0.038062125,-0.009997217,-0.03242174,0.038912784,0.033571877,-0.032295812,0.020646825,-0.02025434,-0.028669257
