-0.27298564
-0.2801832
-0.84363014
0.14120612
0.51984423
-0.07522835
-0.69391143
-0.69634897
-0.41354147
-0.8726559
-0.4713046
-0.15514196
0.01392024
0.13591525
-0.91036755
0.32882833
0.14237612
-0.03627199
-0.059683215
-0.7162158
-0.14187892
0.115635075
0.1948884
-0.25419772
0.018678915
0.03471713
0.1774874
-0.1272424
-0.4686498
-0.30430928
-0.30626264
-0.7342396
-0.7856779
0.21418417
-0.073704086
0.28724995
-0.19398095
-0.7997609
-0.07393999
-1.0671552
0.017057491
0.23791088
-0.7086523
-0.11316174
-0.03491109
0.13827652
-0.82669413
-0.43604952
0.14289449
-0.52562225
0.19119051
-0.3261155
-0.47475106
-0.29382116
-0.17640324
-0.011643123
0.024006603
-0.09743514
0.33716103
-0.63599694
-0.2441696
-0.27492267
-0.92765284
-0.73999006
-0.011186775
0.43504074
0.3872733
-0.86048365
-0.5750987
-0.274449
0.2701755
-0.49247727
-0.35334113
-0.3421099
-0.024335187
-0.94285506
-0.54347795
-0.61650604
-0.19165653
-0.85450125
-0.16347195
-0.29836512
-0.317241
-0.75478095
-0.091433
-0.16716173
-0.14895508
-0.56936467
0.16182294
-0.18455322
-0.95546633
-0.35347486
-0.27924478
-0.5657747
0.37940615
-0.11117341
0.021119703
-1.2175015
-0.104765244
-0.08258885
-0.3992246
-0.46691227
-0.3578192
-0.51011705
0.05167414
0.7769947
-0.34636423
0.58327395
-0.55067706
0.004811024
0.5159527
-0.92122775
-0.6005339
-0.3809239
0.29656693
-0.31304547
-0.5889843
-0.6014811
-0.05964308
-0.022473775
-0.8527455
-0.5146123
-0.2970755
-0.08674327
0.023502914
-0.16222991
-0.75156397
0.20997582
0.0007399378
0.021484137
-0.09782049
0.19787917
0.18699414
-0.47885343
-0.42812493
-0.15510547
-0.16853215
0.41422024
-0.068943284
-0.54879344
-0.40304467
-1.0939876
-0.25862157
-0.26725757
-0.41561946
-0.939628
-0.21012357
0.07379286
-0.2510665
-0.06556816
-0.50722647
-0.54825646
-0.04319127
-0.011857128
0.8574423
0.14373252
-0.23911144
-0.5648731
-0.39744127
-0.49490896
0.8772974
0.930227
0.43217328
0.18528742
-0.44637096
1.0423492
0.13957661
-0.3710046
0.07379496
-0.0042900033
0.40198112
-0.053170424
-0.5678254
-0.21671824
-0.67366886
1.124542
-0.07505493
0.07872455
0.025711203
-0.90383965
0.08214995
-0.23465131
-0.35653064
-0.25069737
-0.7474222
-0.29540247
-0.4104706
-0.30635288
-0.19782412
-0.78866863
0.45280164
-0.18572953
-0.056312446
-0.4492186
-0.6554722
-0.3440003
-0.25383288
0.37708446
-0.011807878
-0.09156629
0.5934138
-0.19106379
-0.715802
0.98977524
0.0367143
0.72520655
0.10110892
-1.0382092
0.13596283
0.023943912
0.31325185
0.16716294
-0.4570226
0.22817047
-0.21921211
-0.07467822
-0.22811139
-0.16933107
0.14239174
-0.21705815
0.10815202
-0.7298717
0.06225905
-0.6957217
-0.41168502
-0.6686244
-0.31662863
0.08533284
-0.46161032
-0.048051223
-0.2734701
-0.05814052
-0.797681
-0.18138552
-0.22615641
0.05860125
-0.79680914
0.16824695
-0.4790991
-0.099170156
0.12234917
-0.3536594
-0.31019002
-0.32092452
0.12529741
-0.18996814
-0.36788186
-0.7308917
-0.16623682
-0.12169985
0.6253528
0.4690232
-0.59756273
-0.4593317
-0.41525707
-0.3106121
