-0.61849296,-1.1906155,0.8195122,-0.09987664,-1.005846,-0.9250412,-1.8231101,-1.8903993,0.44713363,0.422021,0.25108948,-0.031043986,-0.14180352,-0.4252497,0.35748404,0.8708744,-0.07903805,-0.14741558,-0.32801926,-0.16245294,-0.7447746,-0.10706996,0.12151574,0.5176373,0.15518229,0.1060881,-0.18259265,0.046077177,0.061865132,0.51424456,-0.059197627,0.52095383,0.19366044,1.542532,-1.6212387,-0.21493873,-0.036759958,-1.2330574,-0.25369772,-0.08101476,-0.29228202,-0.30675915,0.13581508,0.29090393,-0.041057203,0.074369706,0.11654927,0.07892233,-0.09510363,-0.13438328,-0.16769028,0.11948222,-0.22051033,0.25990158,0.46554813,1.7577119,0.043981947,-0.90035164,0.030861823,0.022074332,-0.021909714,-0.5232539,0.061238278,0.2547195,1.9558502,-0.18087938,-1.6279683,0.2876161,0.06343332,-0.07894945,-0.107177585,-1.690516,0.078661494,-0.13174382,-0.00900888,-1.3596737,0.12614502,0.95333016,-0.28607926,0.030057764,-0.09300862,0.028633947,-1.8212019,-0.22634123,1.300059,-1.7202353,-0.03310875,0.08582043,-0.49257916,-0.023629347,0.18293032,-0.031504683,-0.2017725,-1.783344,0.38109604,-0.22119266,1.3045021,0.7535975,0.040648043,-0.06266074,-0.4834789,0.67234576,-2.3082838,0.6508688,0.17302403,0.74490386,-0.046033718,-1.4691209,0.13259557,0.10813117,-2.0785189,0.42987776,-1.4184959,0.034717787,-0.33987898,0.006801241,2.1571472,-1.3042345,0.041218694,-0.12419397,-0.04843953,0.41505525,-0.04420241,-0.28501764,-2.6272283,-1.0794613,0.5271875,-0.5669476,0.62083775,-0.32515782,0.12559827,-0.10147165,0.21662629,-1.8613137,0.09545179,-0.008567104,-1.3416001,-1.4932975,0.020401826,-0.15031748,-0.025746094,-0.24124148,-0.32960755,-0.47797155,0.1506744,-0.09936077,0.028649852,-0.05874083,0.05996144,0.10066193,0.274705,0.32884952,-0.4248321,-0.7076997,-1.0302417,-2.4362688,0.8211279,0.2222952,-0.014888873,-0.25886893,-0.26045203,-3.8046262,-4.157012,0.3376283,-0.41548297,-1.6322771,-0.95296097,-0.66222304,-0.024506869,0.08422042,-1.380889,-0.55906,0.37369615,1.4954039,0.4912211,-0.82916266,-0.08080421,0.1415911,0.022166906,0.26160586,-0.10062287,0.002968587,0.059454087,0.36529025,-0.859985,0.46146145,-0.2809774,0.037630595,0.08012262,0.04405896,-3.78985,-1.1149448,-0.040417757,0.008774528,0.37070647,-0.013186194,-0.021704853,-0.72388,-0.08438923,0.722535,-0.6940426,0.16228285,-0.26624557,-0.80883586,0.019344592,0.83087224,-0.7560134,0.6850475,-0.15549779,0.28758398,-6.3486805,0.5370295,-0.4065109,0.26478723,-0.2937837,-0.009024734,0.045558162,-0.8434571,-0.108616926,0.09160778,-1.0080382,0.7421878,-0.2332195,-0.3925416,0.39867464,0.4063321,-0.011411489,-0.13776438,-1.2907947,0.015074915,-0.2971063,-0.2573868,-1.4393882,-0.021389302,0.07894762,0.36188656,-1.5543522,-0.11675174,1.0189914,0.093837835,1.0684843,-0.034266315,-0.49668297,0.028057113,-1.0293301,-0.35710394,-0.9365575,-0.17803484,-0.2464113,-3.6210864,-1.3404751,-0.08323033,-0.29649478,0.37488514,-0.21193202,0.032480158
-0.03366768,0.032662965,-0.14245772,0.0034865895,0.15622155,-0.053765085,-0.01237439,0.0016665912,-0.027927697,-0.1267245,0.040100135,-0.044357486,-0.07609111,-0.03698537,-0.065230094,0.03523899,0.03697663,0.017461734,-0.05363156,0.034503117,-0.072831176,-0.01630224,-0.020764358,-0.07751559,0.030299226,0.035651237,0.025203673,-0.056433856,-0.030954916,-0.032607384,0.061086692,-0.08809653,0.024772983,0.039392147,-0.0783857,0.017918503,0.025419539,0.0089757675,0.006326914,0.015735196,-0.0051015797,0.016550433,0.07441271,-0.0137246,0.058622807,-0.05914772,-0.04526773,-0.044090677,0.052921843,-0.061452534,-0.07973714,-0.050481338,-0.038133595,-0.037173357,0.012200615,0.03734013,-0.0090957135,-0.0624335,-0.059213974,0.053030252,0.029709786,0.028094782,0.03395747,-0.028019056,-0.111806504,0.037579954,-0.0066047497,-0.08299709,-0.011350237,-0.043183576,0.081317455,-0.035695396,-0.049492035,-0.095911644,-0.06915257,-0.030642912,0.017767804,0.010586405,-0.026305163,0.031858284,-0.019929545,-0.031255372,-0.027862078,-0.014214445,0.04189879,0.03128385,0.03129259,-0.010131095,-0.061266053,-0.077987455,-0.037887856,-0.05178597,-0.0023325316,-0.05881986,-0.054703258,-0.055753376,-0.08098822,0.006511479,0.004054388,-0.015184174,-0.008967381,-0.059127495,-0.017606584,-0.02253156,-0.0802197,0.001896158,0.05302707,-0.017451145,-0.08513066,0.0040576635,0.05062954,-0.14413622,-0.09478865,-0.030861178,0.01142393,0.005110495,-0.034703046,0.005124798,-0.074989624,-0.0059107994,-0.018199345,-0.026683226,-0.03459143,0.041153967,0.0034486982,-0.055189487,-0.004501171,-0.0110395225,0.04709657,0.028836567,-0.007607786,0.020051908,0.05820186,-0.062852465,-0.012997592,-0.023172889,0.04520347,-0.069635525,0.030128144,-0.07394172,-0.08369706,-0.041651104,-0.042358037,0.045543022,-0.111980364,-0.040285666,0.057188198,-0.07967534,-0.03499444,-0.07413243,-0.06935119,0.0074858824,0.024342787,0.03831945,-0.030156279,-0.08273196,-0.0010348174,0.0042283996,-0.036146317,-0.19591887,-0.007950975,0.036368683,-0.09597184,-0.045504943,0.01867034,-0.06016229,-0.07076428,0.017225254,-0.044175696,-0.028641015,-0.026950814,-0.026599115,-0.08943188,-0.07563242,-0.05649195,-0.038796745,0.020512503,-0.02751347,-0.046808243,0.001886315,0.04386028,-0.013360873,-0.055246912,-0.0058369106,0.005651727,-0.006304109,-0.047789402,-0.05808804,-0.017213685,0.057708774,-0.026503168,0.15871894,-0.07067995,0.16716498,-0.03301798,-0.0048160404,0.031172022,0.04954016,0.014090466,0.012185709,-0.06847661,0.03390974,0.0045354655,-0.023006119,0.00119788,-0.045441672,-0.016105602,-0.05594232,-0.06025602,-0.05911962,0.033436276,-0.012972468,-0.06870828,-0.061562575,-0.0059754155,-0.014421764,-0.050066836,-0.083790824,0.012148413,-0.027094886,0.009868529,-0.05368087,-0.088708386,-0.05729065,0.02927336,-0.11487108,0.003226726,-0.07505254,-0.05410157,0.00020048539,0.006473637,-0.024762314,0.030879622,-0.04555498,0.05546254,0.03210154,0.03686931,0.0059721246,0.090948135,-0.03193771,-0.068976425,0.0019095975,0.0032682149,0.0014677942,0.009136911,-0.07886827,-0.022106947,-0.042019717,-0.06485465,0.022540037,-0.041471284,0.09029683,0.0036187314,-0.008683565,0.058441952,0.05465526
0.021754859,-3.0116599,0.55960476,-0.8839494,0.8736098,-0.529215,0.62307763,0.3443557,-2.4239273,1.1014956,-0.17283446,-0.16460274,0.06760729,0.53293824,-1.7654399,-1.3275084,-0.16302018,-0.5575122,-0.79731625,0.6352613,0.44481647,0.33099064,0.10041484,-0.81489646,-0.08540546,0.008761756,0.37261084,-0.0028990938,-0.039486863,0.686582,0.0031958595,-0.8036823,-1.1392668,-0.5460175,-0.34613004,-1.5074952,-0.016558727,-0.5294772,-0.22656761,0.38716933,0.3479027,-3.2414162,0.41487134,-0.19298752,-1.8508723,-0.22709976,-0.58325964,-0.30188334,0.25889924,0.0509173,-1.834279,0.33689532,-0.5020904,1.772867,-0.4291616,0.9016449,-0.057137188,0.55031866,-0.52097255,-0.7020111,-0.026644588,0.16326743,1.1024609,-0.40204474,-0.026979266,-1.0158253,-4.1472626,0.64895886,-0.8431356,0.11104373,0.24976045,0.33905414,1.0499899,-0.10461775,0.038147192,-0.8578071,0.37748075,-0.03390344,-0.19673909,0.23197633,-0.08200097,0.19577497,-0.10560021,-0.8628934,1.3440217,-0.018519007,0.12983853,0.27605382,-3.129094,-0.031828627,0.047558304,-0.022332199,-0.2023502,-2.6204023,-1.7801589,-0.7246123,-0.47640207,0.8408519,-0.04869929,0.016064154,-2.9589298,-1.2813452,-0.22888286,-0.5108331,-0.5804534,0.73352003,0.0568301,-0.78165925,0.2639374,0.032609656,0.31628397,0.79409474,-0.10423756,-1.1553917,-4.808944,0.13035539,-0.5965152,0.5710121,-0.30418947,0.046754315,-0.18539773,-0.32483888,0.05712886,0.13923384,-0.68891066,0.0830653,-0.32185358,-0.22640115,-0.45166785,0.25190037,-0.11262161,-0.3981737,-0.26439822,0.2688633,-1.4405465,-0.049309358,-0.0958853,-0.6639013,0.01820812,0.117539234,0.13056447,-0.8177671,-0.26482397,0.36820275,-0.70885706,-0.81470644,0.058142476,-0.963322,0.03218931,-2.8960438,-0.2865106,-0.3475966,-0.17313224,0.023392623,-2.7732222,-1.0652306,-1.3635507,-0.9383759,0.122808576,0.06975889,1.3439407,-0.33658138,0.052218832,-0.02564272,-0.50930417,0.41936538,-0.063480444,-0.4654952,-1.2471243,-0.011030645,0.5435512,0.3896423,-0.27196616,0.025040926,-1.6761023,0.12137415,0.5799474,-0.37925902,0.07242455,0.21201539,-0.8698103,-0.00028068572,-0.05830887,0.04596518,-0.34614933,-1.4589366,0.46058223,-0.02289962,-0.25675976,-0.037259236,-0.14189611,-1.0442463,-0.10383109,-0.33072022,-0.76123255,-0.02843196,-0.010877922,-0.82759583,0.021498822,0.61027795,-0.33313337,0.106962904,0.18139611,-0.5875421,0.0048383996,0.76624143,-0.099382095,0.006301064,-0.43679708,-0.8985846,-0.43840688,-0.3239868,-1.6424196,-0.40772855,0.06375649,0.87921673,-0.0016091466,0.05032723,-0.28561643,-0.15438287,-0.44690385,0.30571505,-0.0046601715,-0.10887366,0.06916952,0.05080845,0.10037322,-3.4297595,0.28291994,-0.13424876,-0.15489316,1.6353056,0.51402557,-2.3851275,0.006168626,0.77952963,1.1562693,0.14309637,0.018403152,-0.07307474,0.23072691,0.013346449,1.07668,-0.038422436,0.41802213,-1.1538762,-2.9689357,-1.6567369,-0.5074669,0.89025486,-2.150502,-0.88695276,0.05966232,0.15741433,0.1417518,0.006582901
0.069075055,0.122526474,0.36574143,-0.5333437,-0.7324624,0.48930848,0.60150373,0.32306105,0.111357756,-0.10112081,-0.34377488,-0.21939377,-0.11377011,-0.16961099,-2.7829294,-0.8436566,-0.1519999,-0.7109107,-0.3564599,-1.0385885,-0.67820054,-0.16489886,0.62714595,-1.1182333,-0.14329492,-0.062796034,0.33942506,0.017731786,-1.9540284,-0.41780177,-0.0355436,-0.19569112,0.40806848,-0.19894953,0.63424027,-0.43288553,-0.054022163,-0.42190117,-0.16286017,0.14312659,0.8040521,-1.5806403,-0.3120316,-0.9207971,0.5704239,-0.07061279,-2.2421918,-0.34550932,0.17348409,-0.15917943,-0.53943324,-0.7191522,-0.04498447,-0.2606739,-0.29569462,0.3671416,-0.11713412,-0.2748203,-2.0254133,0.018326128,0.018812008,-0.3032051,0.21296027,-0.31654406,-0.27188322,-0.8743013,-1.2887266,0.39354384,-0.9815117,-0.6238816,-1.280871,-1.038496,0.028629385,0.6667084,-0.05555446,-1.5576023,-0.65453386,-0.12560016,-0.11218702,0.3581758,-0.36806574,-0.029289017,0.32753456,-1.3198228,0.85390073,-1.1681617,-0.0242846,-0.34477243,0.011163883,-0.18486384,-0.5138342,-0.006140098,-0.10988473,-2.0172424,0.66577446,0.81422687,-0.24160501,0.81292087,-0.102628574,-0.083543494,-2.1694536,-0.92031956,-0.25619596,0.45045134,-0.1095592,-1.0456386,-0.0024923757,-0.16167602,0.03221061,-0.026467187,-0.055389136,-0.3137107,-1.0908761,-0.14564735,-0.35510916,-0.08034124,0.062242974,-0.9246202,-0.5716665,0.16438273,-0.3038964,-0.06510595,-0.05019807,0.29101795,-0.29866943,-1.6796106,0.2673181,-0.5086174,-0.17232458,-1.9769083,0.58380556,-0.062497426,-0.42865658,0.11767891,-0.11207921,-0.007085605,-0.049421504,0.2225175,-0.037107255,1.1422982,-0.30540246,-0.42058706,-0.13250022,-0.58408695,-2.440834,-0.42209515,-0.05208137,-1.2000568,0.0326047,-0.2842543,-0.033864386,-1.5140823,0.14546739,-0.117278285,-0.79511476,0.045298282,-1.8962656,-0.32651523,-0.68940175,-0.29761133,0.3222712,0.22748281,-0.17867929,-1.1096779,0.53535175,0.39165437,0.10378341,-0.7224239,0.059013974,-0.20500107,0.30224666,-1.29567,-0.08387173,0.5376057,-0.26812902,-0.102214254,0.47044024,-0.045103833,-0.08583077,-1.3361514,-0.1315613,-0.040520325,-0.015024573,0.06330581,-0.05623572,0.29050547,-0.3111227,0.0076212958,0.36932668,-0.5744947,-0.030748175,-0.050845444,0.016426535,-0.14074263,-0.17697212,-0.05941888,-0.00988894,0.36499038,-0.045493312,0.29091832,0.49015993,-0.33995768,-1.4319996,0.37025854,-0.28697404,-1.2438216,0.15897568,-1.7517202,-1.0390793,-1.4727312,0.10988777,-1.9063511,-1.4853089,-1.0777618,0.0024228462,-1.6111518,-0.020324625,0.11110613,-0.1705415,-1.3164943,0.17785037,0.032439668,-0.22864597,0.6373251,0.8731176,-0.068847924,-0.18493867,-0.17231433,-0.14149192,-0.368418,0.014347181,-0.6269241,0.7974997,-1.9637005,-0.3715683,-0.46977708,-0.81715286,-0.494487,0.27935773,-0.073203765,-0.64743227,0.033778578,0.86240304,0.059913583,0.6664592,0.35115823,-0.17285357,-1.1152922,-0.12881766,0.1365205,0.13118236,-0.48038378,-0.34607393,-2.215271,-0.2236476,0.05638335
-1.2399254,-1.578368,0.60451657,0.31326646,-1.8502696,-0.7769382,0.33077723,0.27982518,-0.31305745,0.3340323,0.19971819,0.04981992,-0.1855465,-2.7931724,0.47077742,-0.3637495,0.0756272,0.14478394,-0.5950921,-0.09107843,-0.39440888,0.017564889,0.38024414,-0.32847223,-0.08681813,-0.20411651,-0.8134775,0.051933,0.43065417,0.16885093,0.05740034,-0.56255925,0.74453354,-0.11545038,-1.5447955,-0.45291588,-0.0060690264,-0.1897476,0.1668453,0.4617781,0.93857574,-0.32859343,0.8803921,0.09000175,0.6188821,-1.15607,0.69189566,-0.20315066,-0.29821298,0.37490788,-1.0561521,-1.6946231,0.0669038,-0.36190766,0.011957463,-0.24398023,-0.16868539,-0.8626942,-0.04939864,0.5561536,0.006343983,-2.1895683,-0.117394716,0.122408256,0.95529443,-0.576829,-1.8839903,0.49568212,0.76355076,0.30011708,-0.29809368,-0.11677196,0.80974066,0.704916,-0.064573936,0.5490195,-0.106903136,-1.1410667,-0.1854125,0.9816263,-0.2998853,0.21808936,-0.14860149,0.49161234,-0.23226155,-0.18211256,-0.08774535,0.35853633,-0.47523278,0.07396479,0.6963024,0.010384522,0.097421914,0.37317613,-1.6149733,-0.10170549,-3.5020592,0.0581936,0.24222012,-0.014970001,-0.6607334,0.6901002,0.37740934,1.8394846,-0.6283988,-0.7488291,-0.043790348,-0.36693168,0.19121347,0.06669908,-1.5712001,1.1270735,0.41500357,0.069508515,-0.8255467,-0.015056396,0.98477834,-1.5923855,-1.0259632,0.067616396,0.03364807,-0.54888827,0.042430624,-0.06089128,0.15735422,0.04612537,0.8843007,-2.3251112,-0.34481063,-2.517522,-0.4537611,-0.18204305,-0.33540812,0.08002649,-0.038567744,-0.018269515,-2.6987548,-1.1104243,0.014816166,-0.63717693,-1.2133858,0.22655717,-0.12663884,0.00092743244,0.13004878,0.7170441,-0.03691367,-0.25312492,0.009120829,0.5162912,0.040656947,-0.39994445,-0.05179457,-0.5218656,-0.67320085,-0.6359708,0.54087156,0.2307663,0.38009498,-2.8764536,-1.2910568,-1.883354,-1.8187732,0.32595924,-1.385747,-1.8674896,-0.5549199,-0.19267966,-0.035638876,-0.047023423,0.15091345,-1.5491235,1.2281628,-0.6669203,0.27801615,-2.0750437,-0.18574855,0.67931193,-0.049305417,0.46972716,-0.57314736,-0.043064542,0.057526253,-0.27995488,0.20700465,-0.4241291,-0.04894892,-0.021153845,-0.697594,0.18843299,-0.29260004,-1.5149379,-0.06186765,1.0039841,0.28431377,-0.04011429,0.04236208,0.58156407,-0.05365644,-0.23423597,-0.81086636,0.002752756,-1.9238455,-0.17806363,-0.09587294,-0.4171742,-0.23664723,0.85304177,-0.6948887,-1.0025094,0.157229,-0.3985885,-0.34863383,-0.17430231,0.2041249,0.41646373,-0.026900992,-0.108274594,-0.18516825,0.047470905,0.6201836,-0.47238827,-1.0831424,-0.0025406862,0.1278589,-0.082284614,0.03932495,-1.2475848,-0.2046087,-0.59733355,0.18046747,-0.5059177,0.15366893,0.24576119,0.48948747,0.21823625,0.72314644,-0.36086577,0.47484967,0.020977125,-0.32076454,-0.05146494,-0.042530157,0.0032591596,0.22092097,-0.029081155,0.057597958,-0.0868935,-0.25125805,-0.35116655,-1.3748698,-0.088699885,-2.0388641,0.040918846,-1.7644196,0.03680771
0.051365364,-3.0525007,0.20694543,0.5230235,0.8496597,0.2778794,-1.4892983,-1.040489,-0.751611,-0.18629628,0.34489182,-0.1190171,0.17316814,0.5510449,-1.6074764,-0.7755107,-0.47535592,0.3352695,0.036631145,-0.11674071,0.11659294,0.10196532,-0.044441838,-1.2052242,-0.13631393,-0.06981376,0.74377006,-0.0029173717,-0.47980574,0.16358326,-0.027458847,-2.9311361,1.1172869,-0.27825817,-1.4998722,0.69217294,-0.14068414,-0.12201717,0.41516107,0.012927442,0.32448658,-1.8273963,-3.062262,-0.47898296,-0.30379033,1.204704,-0.3752851,-0.25366002,0.05334616,-0.08052682,-0.8603132,0.95883304,-0.18753737,-2.0542896,-0.64691925,0.49166223,-0.059397027,0.26870465,0.2670158,-0.48076522,0.016798332,-0.13263626,-1.9167702,-0.65276164,-0.8524907,-0.04265704,-0.5254916,0.4729848,-1.4347717,0.08969425,-0.5612095,0.5473989,0.633994,-0.42688918,0.07170512,0.9632625,-1.642061,-0.21795379,-0.028862715,-0.7951669,-0.4609095,-0.30728737,-0.32713717,-0.57957846,0.84590495,0.20190938,-0.015751915,-0.56765366,0.53820515,-0.05203031,-0.45581883,0.019702666,0.54372734,0.7161053,-1.0692912,1.0736715,0.7005831,1.3253337,-0.05416522,0.029801859,0.2977375,-0.7683201,0.08361316,1.3911039,-0.038641416,-0.5402359,0.029218853,0.15990146,-0.29225487,-0.06470067,0.6870867,-0.80426556,0.5229745,1.3318614,0.86127657,-0.42068973,-1.905776,1.7512468,0.78458005,0.09917268,-0.57230794,-0.65764713,-0.008525036,-0.50699234,0.053199403,0.7468501,0.5055764,-0.77438015,0.123637296,-0.9660026,0.17036334,0.11831985,0.7512019,0.057353858,0.66359717,-0.042762633,0.6222995,0.2466743,-0.0075783674,-0.7950439,-0.47929788,-4.6375875,-0.319916,-1.9468399,-0.50877416,-0.75448525,-0.053680465,0.5552886,-0.034671992,-0.65752345,-1.0744983,-0.22698723,0.12147653,-0.10205669,-2.2112386,0.11628994,0.12954271,-2.3470645,1.0287918,-1.6439008,0.8676091,0.5996859,-1.1305163,1.2855592,1.3979547,0.024071094,-0.06282755,0.18438835,0.6070422,-0.071766965,0.96330965,-0.82032746,-1.9442997,0.99908346,-1.1881058,-0.0765529,-0.073039494,0.7850993,0.108085185,-0.9803036,-0.15708977,0.048134655,0.05889844,-0.07616487,0.37612155,-2.1188219,-0.27644232,-0.016234681,0.16279931,-0.026148817,-0.066708244,-1.1203228,0.03967378,1.1838044,-0.6902634,-0.02175492,0.00894136,0.358196,0.022782717,0.101208314,0.9639817,0.2928806,-0.20929374,0.9032182,0.22405982,-0.6559708,0.13451609,-2.035711,0.21677254,1.3188,-0.57295114,0.73787427,0.2842307,0.13297623,0.13942613,0.31704384,-0.022015855,0.2386531,-0.13118349,-2.4205987,0.40133926,-0.11890994,-0.11115763,0.43403435,1.1626961,-0.79744536,-0.16076455,-0.3321104,-0.35052097,-0.6506966,-0.3363972,1.0351481,0.86451447,0.48920113,-1.5111653,0.74052966,0.057399128,-0.011762015,-4.0943904,-0.033645112,0.06973086,-0.032389775,-0.9844311,-0.04346876,-0.8342218,-2.0393577,-1.3187438,-1.3308687,-0.39517888,-0.5495792,-0.57058847,0.106349975,0.1456613,-0.73687637,-3.9645915,-0.035583027
-0.1686692,-0.08007578,-0.1249005,0.13200343,-0.16855866,-0.05777614,-0.09176431,0.21286409,-0.45210204,-0.051170625,0.049131583,0.09190312,-0.050086904,0.006009868,-0.11990208,-0.1865059,-0.032783628,-0.16615577,-0.30474037,0.00095115905,-0.2590481,-0.15915163,-0.82015806,0.037478026,0.16171688,-0.0503634,-0.48361805,-0.038638465,0.0709276,-0.13254198,-0.020336486,-0.20720209,-0.04445061,-0.13335478,-0.27121326,-0.31817308,0.06604852,0.073564544,0.33070987,-0.18396974,-0.09377042,-0.3499236,0.101714484,-0.19980869,-0.40757707,-0.2055247,0.0622443,0.089130394,-0.23202235,-0.04883789,-0.32634264,0.13861518,-0.4453734,0.06555136,0.07957036,0.018129047,0.0065373494,0.09902972,-0.26979765,-0.72741956,-0.04489053,-0.26899797,-0.026473233,0.28184292,-0.31954765,-0.21081604,-0.31221563,-0.55263287,-0.41083652,-0.18491383,0.10827031,-0.66256356,-0.50476384,0.022077525,-0.00791459,-0.3773296,-0.0034656324,-0.13872118,-0.016666215,0.61867076,-0.04366463,-0.18531574,-0.1647436,0.0049074306,-0.3382585,-0.36675376,0.051618956,0.054960515,-1.1650038,0.0765876,-0.32117173,0.010910451,0.14870681,1.2271336,-0.26960957,-0.5372547,-0.30706024,-0.102934934,0.03346763,-0.026376335,0.08952237,-0.056268968,0.017092621,0.018817816,-0.1716471,0.107806645,-0.031778403,-0.2468184,0.012023069,-0.030620296,-0.23999837,-0.057437263,-0.95843714,-0.43013385,-0.19121699,-0.0062193475,-0.12209837,0.1203322,0.8356869,0.06800562,0.016938608,-0.13736388,-0.047490537,0.22760364,0.015318264,-0.14199896,0.006602467,0.008071915,-0.012862174,-0.16106004,-1.254531,-0.09011013,-0.3399479,-0.4325762,-0.8289574,0.050779097,-0.114223644,-0.504879,-0.050295893,-0.20204274,-0.16147456,-0.41988823,-0.13178027,-0.3986331,-0.04472154,-0.1137701,-0.061896272,-0.4972517,-0.0044171065,0.14022918,0.2237742,0.1215196,0.040990263,0.07115574,-0.5552023,-0.5632261,-0.0020724072,-0.049675126,-0.20976177,-0.34789354,-0.059302393,-0.3470617,-0.035305716,-0.04439169,-0.32602575,-0.26259246,-0.40241155,0.075052746,-0.08837321,-0.013945697,-0.08150874,-0.13037963,-0.72367483,-0.2272087,-0.09570147,-0.06113167,-0.10289696,-0.13292915,0.009838375,-0.13203609,-0.05341139,0.03264392,0.046598498,-0.074138604,-0.0061585135,-0.6030182,-0.28943643,0.058774598,-0.26082417,0.7113939,-0.3786689,0.032081004,-0.009291385,0.34811288,-0.40545222,-0.04427761,-0.04511647,-0.20289151,0.049152758,-0.114250824,-0.14722009,0.06422552,-0.22691111,-0.43145773,0.19975697,0.09557796,-0.1721448,0.014885731,0.24482568,-0.23257087,-0.051692102,-0.4300781,-0.26237097,-0.4114824,-0.056379214,0.116080135,0.003658183,-0.07442027,0.0023535027,0.067793064,-0.28383923,-0.3254147,0.10762427,-0.23419991,-0.3489823,-0.12275581,-0.0073879976,0.077862225,-0.037326146,-0.3000396,0.042927813,-0.1395035,-0.5163083,-0.10428318,0.12710649,0.06881778,0.5416004,-0.01589078,-0.3133834,0.012161561,-0.64642346,0.029726945,-0.014447959,-0.0027872324,-0.009796268,0.008259259,0.054127015,-0.07038665,-0.43095174,-0.11122763,-1.0690607,0.035887703,-0.005327129,-0.14720921,-0.093352124,0.009703629
-0.0012129678,-0.0069817887,-0.05549878,-0.044718325,-0.080237746,-0.012359049,0.06214037,-0.05896457,0.012618006,-0.09716935,0.008264172,0.008708689,-0.027370393,-0.108695805,-0.050585035,-0.012068361,-0.02521585,-0.013890439,-0.012183886,-0.044542033,-0.03263829,-0.017629443,-0.041961484,0.008966773,-0.05916146,-0.033182982,-0.020377245,-0.009727806,0.010732531,-0.07068632,-0.0146173835,-0.062242523,-0.07158374,-0.020884195,0.016873395,-0.05446661,-0.061331347,-0.01440891,0.025641974,-0.071869455,-0.06558505,-0.08131469,-0.006122492,-0.076278396,0.027173266,0.016160041,-0.09363362,-0.026756316,0.0029822092,-0.058879737,0.011939154,-0.0879466,-0.13126853,-0.068172105,-0.05229485,0.005015431,-0.0557192,0.00012381721,-0.04360593,-0.072577104,-0.05926556,-0.059282936,-0.06650904,-0.028686382,-0.04502871,-0.08082083,-0.0609993,-0.057155013,-0.009113602,-0.053395417,-0.02322829,0.06279457,-0.03791936,-0.03652713,-0.04237458,-0.019103292,-0.12583017,-0.083825454,-0.032627445,-0.004014699,-0.030407524,-0.053738207,0.03525809,-0.0116928,0.04877115,-0.053599063,0.0057017086,-0.050446864,-0.11271975,-0.060358964,-0.03700259,0.029476322,-0.019334566,-0.03957541,0.029574657,0.025116218,0.06643891,0.010710014,-0.032850932,-0.0018730073,-0.04118693,-0.055246826,-0.01070601,0.048762154,-0.007896079,-0.07104871,-0.04699701,-0.062193494,-0.113358,0.048545074,-0.039234485,-0.08694844,0.036735408,-0.016607128,-0.108446985,0.011731663,-0.06350303,0.0010546043,0.049188845,-0.042545665,-0.10854018,-0.02094951,-0.0066713244,0.07203788,0.016628148,0.0084778685,0.004496748,0.0893517,-0.052261062,0.018581849,-0.015599197,0.0171311,0.018252572,-0.06302173,-0.10331265,0.029797137,-0.07100781,0.02688459,-0.0027782544,-0.0154529475,-0.10038745,-0.047523074,0.027092228,-0.06524636,0.04911095,-0.037871193,-0.0055613667,0.023829669,-0.05226794,-0.069226645,-0.113968104,-0.079176836,-0.06694917,0.001455301,-0.054535586,-0.023452487,0.057867736,-0.03165808,-0.07859141,-0.039420504,0.049471002,-0.0459259,-0.07718179,-0.0035933391,-0.045241803,-0.021163445,-0.067144014,-0.05484839,0.013668736,0.026090257,-0.044962667,0.042683456,0.050768916,-0.023702733,-0.06656889,0.055501595,-0.012273071,0.005017672,-0.003054339,-0.03812548,-0.005894429,-0.024179399,0.05606757,-0.081032,-0.010381026,-0.033546448,-0.013942506,-0.015694179,-0.013441696,-0.10167043,0.023635892,-0.06932865,-0.05600156,0.038709395,-0.080883175,0.03765562,-0.02034843,0.04052473,0.03992892,0.062153876,-0.042157833,0.033081416,-0.053448353,-0.037044615,-0.063946,-0.020735105,0.037088476,-0.07110068,-0.044491615,0.026115168,0.011051175,-0.11003871,0.038409352,-0.06023185,-0.078860745,0.027731074,0.05177071,-0.07026964,0.042937417,-0.0401257,-0.0940457,-0.07158553,0.025358992,-0.017943235,-0.07013824,-0.0038899921,0.038147084,-0.06995959,-0.10584431,-0.04225889,0.019511292,-0.06346292,-0.016752709,0.03270526,-0.11512282,0.02635089,-0.08821969,-0.07496611,-0.06331089,-0.07422571,0.03493729,0.022313446,-0.07890961,0.055457406,-0.049000442,-0.033152726,-0.035126556,-0.077200696,-0.05070947,-0.01143106,-0.02599449,0.098940566,-0.09035925,-0.11329638,-0.03336384,-0.025430843
-0.07785619,-0.1044555,-0.02191386,-0.06131321,-0.14649294,-0.17763288,-0.1350231,-0.2948061,0.06826685,0.035350114,-0.21049596,-0.034930926,0.0038323659,-0.052352503,0.01273403,-0.0683331,-0.09919857,-0.15907314,-0.09767628,-0.41026342,0.008786978,-0.17942919,-0.23050639,0.0090596955,-0.053433616,0.06499157,-0.03400952,0.0151529685,-0.025637072,-0.06108889,-0.008140445,-0.034375034,-0.007910163,0.24279122,-0.07164367,-0.059931047,0.029448617,-0.30464762,0.11693441,-0.2636899,-0.003395989,0.1032204,-0.092124365,-0.09534429,-0.3095432,-0.06536909,0.1177092,0.06867244,-0.097267136,-0.20136042,-0.047409896,-0.044812504,0.046095952,-0.27875105,-0.3486424,0.117922224,-0.07223935,-0.15103605,-0.08617532,-0.25710604,-0.05759202,-0.21979502,0.07239634,0.007943228,0.09009624,-0.09375848,-0.08656254,0.025696112,0.040611148,-0.23507763,-0.21618378,-0.064811036,-0.2446121,-0.091463424,-0.06422767,0.23930615,-0.14899583,-0.0979978,-0.5944484,-0.14427349,-0.04560872,-0.09432335,0.049336694,-0.13868871,0.11779893,-0.5873718,-0.021179378,-0.1847435,-0.042382546,0.10219704,-0.1407308,0.054917365,-0.13177983,-0.23992267,-0.24834257,0.01014247,0.08583592,-0.06992142,-0.0017353515,-0.077165365,-0.34599844,-0.02737048,-0.7821745,-0.34943417,-0.082900494,-0.28568614,0.032383963,-0.13414063,-0.06391352,0.012122143,-0.14800647,-0.020084998,0.045621075,0.24399292,-0.08680021,-0.0073630023,-0.28243974,0.19809154,0.23383388,-0.041169457,-0.058624417,0.017906127,0.0334896,-0.02320712,-0.2910891,-0.0950065,0.011134398,-0.13591725,-0.39292955,0.013135577,0.02193598,-0.007746957,-0.1378276,0.09880034,-0.067744896,-0.05825658,0.12867393,-0.13153362,0.009861165,-0.1182245,0.088746674,-0.028358603,0.030115254,-0.09485484,-0.04529023,-0.13617893,0.050278746,-0.15883611,0.055851452,-0.16102475,-0.019603644,-0.2431348,-0.2924882,0.023568003,0.07994419,-0.0041550295,-0.03640666,0.07653034,-0.14070852,0.049725108,-0.19893016,-0.10691013,-0.07538364,-0.16062514,0.18664077,-0.17569557,-0.024204647,-0.06398423,-0.41532806,-0.09939125,-0.006896834,-0.47385836,0.11484416,0.25633764,-0.002835242,-0.24253176,0.008977254,-0.23057204,0.0559468,0.03685753,-0.024492707,-0.042051665,0.022065632,-0.072262995,0.22205666,-0.05631068,-0.016567765,-0.017360128,-0.010015673,-0.0064693517,-0.21439566,-0.16746491,-0.08416282,-0.25909916,-0.16059908,0.00623329,0.0005784184,-0.17873384,-0.11789664,0.029270457,-0.1330639,-0.13732812,-0.3509154,-0.05478619,-0.16604424,-0.33711606,-0.043737717,0.048068706,0.14247397,0.050087504,-0.27406302,-0.056713708,-0.6617459,-0.0730625,-0.02635788,-0.090807565,-0.031181544,-0.098746896,-0.046007674,-0.053818513,-0.09390504,0.029753305,-0.0023392893,-0.035757355,-0.10094241,0.09994345,-0.08370605,-0.18792213,-0.13797641,-0.114045024,-0.08153156,-0.13317682,0.043755524,0.025966607,-0.20779356,-0.16729183,-0.3451992,-0.16890281,-0.2576885,0.15009364,-0.112817466,-0.054050863,0.09553122,-0.026711173,-0.02411117,-0.026988566,0.012519175,-0.12156463,-0.17669234,-0.107909,-0.37314418,0.11907248,-0.21036184,-0.0871457,0.0063353977,0.0533249
-0.74298173,0.022322204,-0.94667315,-0.34343633,-0.82791436,0.3994328,0.5748213,-0.30103397,-1.9760313,0.5638134,0.016731493,0.31164667,-0.15373479,0.5224147,-0.509193,0.64754087,0.2077532,0.06889151,-0.41267714,-0.7410346,-0.13983876,-0.18411535,-1.4741223,0.20327087,-0.23609048,0.13352649,0.92038655,-0.053464193,-0.59277165,0.03500371,0.060040705,0.25298956,0.82844955,0.03703729,-2.1246667,-0.61965543,-0.09625353,-0.14772727,-0.52183867,-0.3164089,-0.35444975,0.87985754,-0.13961841,1.5599201,-1.196234,0.3919185,0.62331694,-0.200028,0.1717003,-0.3064892,0.028956667,0.24603261,-0.565276,1.3550254,0.3956039,1.4778485,-0.02867603,-0.71527493,-0.024960665,0.14513741,0.05020751,-0.38278535,0.11206984,0.054337833,-1.090869,-0.76658255,-0.62845314,0.13446806,0.37236986,0.27303734,-0.79766446,-0.755553,-1.6173346,-0.15543218,0.0032632663,0.7563908,0.46430776,0.98574007,-0.11931881,-0.41914624,-0.34369144,-1.1310662,-0.9383413,-0.45992914,0.4150763,-1.2750627,0.32634398,0.48316422,-0.662717,-0.07778388,-0.40512192,-0.009783365,0.023484332,-1.1247076,-1.220477,0.23804806,-0.46867123,0.3537241,0.008813477,0.06472874,-0.62226385,0.22057024,0.047900744,-1.3868675,-0.03265003,2.4031444,-0.05480221,-0.3806881,0.34960267,-0.016496766,1.0858221,0.3312804,-0.89964825,-2.1640978,-0.49724698,-0.054401543,-3.8918989,1.1117015,-2.7709765,-0.27951437,-0.014758154,-0.18024279,0.055921793,-0.22679316,-0.23031187,-0.042399414,0.89928395,-1.2356164,0.019560784,1.2360778,0.15663333,-0.38387784,0.4211966,0.22113223,-0.3151145,-0.023155276,-0.6227288,-1.815482,-0.43550086,-0.0421177,0.4534332,-1.0009115,-0.14262637,-0.92430484,0.13072093,-0.68012834,-0.00013770163,0.08609856,0.0605373,0.81985503,0.40918064,0.3097894,-0.16200203,-0.12833355,-0.49178833,-6.279925,-1.1293057,0.44717258,-0.124908045,-0.71410054,-0.0327503,-2.9685585,-0.39018285,-0.2976058,0.41648665,-0.32885948,-1.4154831,-0.039824758,0.7264144,0.18551685,-1.1552131,-2.4697092,-2.2633946,-0.24971548,-0.82744974,0.5792178,-0.06739014,-1.1772987,0.056036007,-0.47063175,0.2503183,0.00968945,0.037106752,0.22468321,0.7727786,0.48792022,-1.2929306,0.053998046,-0.28737816,0.16677444,-0.8868853,0.08301544,-0.011050817,0.105624095,0.20277844,0.05487322,-0.048936084,-1.1845226,0.0016118223,0.18159783,-2.5092952,0.102748506,0.1748483,-0.8755514,-0.1775588,2.3948398,-0.34532234,-0.30369294,0.3342649,0.63340634,-0.6100395,0.5481202,-0.16763894,0.2687082,-0.040570956,1.5727341,0.04823578,-0.7712325,0.028721223,0.90562433,-0.5031825,0.828753,0.49663153,-1.1418833,0.36717963,0.3263907,0.02993334,-0.108586706,-0.09449128,-0.6271328,-0.29348356,1.732199,0.2509236,0.48733303,0.02704474,-1.07733,-0.7138794,0.061468087,-0.22245203,-0.01918463,1.3347399,-0.009672142,0.87579083,-0.020703651,0.43192023,-1.9418569,-2.1636634,0.07298868,-0.28294003,-0.26452672,-0.73301935,0.70525485,-0.0422325,0.4270674,0.7437946,0.020527303
-1.1987063,0.19896919,0.7557196,-1.1714892,-1.9134738,-1.3959767,0.67544615,0.025265753,-3.1759834,-1.4795069,-0.9124482,0.2181079,0.14277358,0.56483036,-0.05747595,-0.29243731,-0.07926956,-0.16120443,-0.024682807,0.21065746,-0.073901474,0.006303302,0.13131155,-0.5840143,-0.33793092,0.11522776,-1.2488385,-0.03549167,1.5035226,0.4646946,-0.054770023,0.8681079,1.2736608,-0.015968155,-0.104880415,-0.12401488,-0.15959588,0.07210781,0.34966865,-0.12405872,-2.4442732,-0.3353391,-1.5146286,0.99486434,-0.8581512,0.38930815,-0.09903175,-0.0603266,-0.87577116,-0.7952507,0.6456157,0.6732079,-0.90391856,1.0380049,-1.303865,-0.8798006,-0.1994733,-0.12274317,-0.70207655,-0.81915903,0.055789515,0.3309283,0.19831097,-1.0332805,0.5082879,-1.4961454,0.36448935,-1.2607962,-0.05499003,0.3300973,1.5291268,-0.36659136,-0.08657971,-5.3598423,-0.09852768,-2.9274433,-1.1413823,0.6099409,-0.34908155,-0.97765887,-0.0013299244,-0.15782613,-0.9999441,-0.71486986,0.8589833,-0.6262691,-0.08285952,-0.14755483,0.67490566,-0.21970004,-2.3072457,-0.010253049,-0.6466803,-1.0512633,-2.6157765,-1.2078897,0.326617,-2.2736864,-0.41084456,-0.09520714,-2.4841747,-1.5145618,-0.1362705,-0.7957971,-0.17974474,1.3781447,-0.017511941,-1.1411768,-0.7295254,-0.016763443,0.81551874,-0.32173502,0.4451262,0.0135297645,0.39440298,-0.2514617,-1.1300795,0.28702798,-1.0987892,-1.3433315,-2.6596494,0.14189443,-0.01348944,0.07370356,-0.32832804,0.6084638,-2.2589426,-0.38923913,-2.2933507,-0.4946548,-0.5951882,0.07243745,-1.3489078,-0.59330267,0.47305787,0.02683659,0.73463744,0.042511065,0.034524035,-1.1501284,0.07582021,-0.23469138,-0.11205118,-0.3456588,0.57966834,-2.0440974,0.05918856,-0.25909728,-0.015202127,-0.087401055,-0.12928098,-0.99954915,-0.47619465,-0.33891594,1.6157465,-1.3587487,-1.1584301,0.007131034,-0.41067156,-1.2218688,-1.3775812,-0.49308,0.88077104,0.45218995,-0.5201571,0.59429264,0.012281189,-0.095889084,1.2404076,0.14764155,-0.4637782,0.72169256,-0.44792628,-0.41062555,0.70241016,0.010343241,0.19823937,0.24573836,0.0893799,-0.09399183,-0.5717894,0.04144007,-0.044368204,-0.57845956,0.9766637,-2.9155016,0.35555243,-0.060886808,-0.37082624,-0.5559746,-0.2746124,0.16196983,-0.08549887,-0.33901197,-0.14803872,0.053768292,0.022239864,-1.222859,-0.097969845,-1.895321,-0.46967515,0.16989282,0.9585428,-0.42248812,0.4067862,1.3764575,-0.6337886,0.65046,0.28465214,0.56107676,-0.13969585,0.7072086,-1.7551515,-0.05336765,0.1473152,0.18252628,0.057595573,-0.67913336,-0.26514456,0.9381855,-3.301397,0.92989147,-1.5992156,-0.040912595,-0.85427904,-1.5329126,-0.28987324,-1.1364082,1.3414214,-0.45120984,-0.27934286,0.49183884,-1.6980845,-0.036594283,-0.20605367,0.8803966,0.60953194,0.29398543,-0.05099822,0.06846518,-0.37082976,0.051066305,-3.2857344,0.045015767,-4.5446935,1.0241942,0.60052323,-0.12835032,0.0007407018,-0.94357187,-0.75185853,0.012405332,-0.037222587,0.023654146,-1.8535413,0.053298347
0.35462424,-0.24332248,-0.29543403,-0.20370497,0.5527786,0.29240265,0.29226655,0.50625074,0.70744866,0.13578899,0.18674804,-0.14725263,-0.073059805,0.70925677,0.46083817,-1.0664932,-0.28170493,-0.1550762,-0.14794788,-0.06625493,-0.15949024,-0.05363449,0.5408798,0.15375,-0.15124261,-0.0535752,-0.6379592,0.046581298,1.7794547,0.5507669,0.02526544,-0.0869911,-0.372954,0.20051646,0.0030311719,-1.5286514,-0.038247652,0.034734163,0.0952733,0.74158865,-2.0719683,-0.13980915,0.22482705,0.67701006,1.0439241,-0.64517874,1.1271744,-0.50619894,0.20416725,-0.43013257,-1.3144493,0.16706352,-0.17828193,0.5979997,-0.19044182,0.10416472,-0.103665374,0.08071588,-2.4782257,0.61857986,0.057113536,0.49661884,1.574028,0.7308424,1.3493233,-2.382794,-0.49172482,0.6350951,0.049175236,0.24261563,-0.24257173,-0.3426999,0.4897141,-3.7361245,-0.03890297,-1.0107168,0.3149521,-1.1679226,-0.15334389,0.60840577,-0.10136044,0.14097081,0.40004426,0.41676942,-0.7355032,0.31815985,-0.048992436,0.23597255,-1.5766708,-0.0503157,0.028870555,-0.039772786,-0.32676077,-1.0236806,0.21612072,-1.8740499,0.1945459,-0.6671289,-0.0031248021,0.015835304,0.08682731,-0.3846324,-0.23426856,-0.8785612,0.11147762,-1.160366,-0.003077671,-0.98924494,-0.1614846,-0.051723775,-0.008940744,0.68826365,1.1982995,-0.012362074,-1.169106,-0.10287787,1.6390874,0.42058685,-0.7416613,-0.35966036,0.24370968,1.4368846,0.0064624473,-0.34498742,-0.0033543666,-1.5194069,-0.09180691,0.07030059,0.39275315,-0.82806885,-1.8979067,-0.6654353,-2.5300589,-1.4107901,-0.25631952,0.051155534,-0.39771825,0.42426124,-0.005989721,0.5570601,1.2408259,0.34033364,0.30325365,-0.60895604,-0.8850225,0.08449961,0.049859636,-1.7362562,0.018558383,-6.879222,-1.2136343,-0.2952134,-0.24558066,-0.19964363,0.20098406,0.6202149,0.58107954,-0.9730959,-1.1539732,0.31072298,-0.75306696,-0.5634175,0.12875211,-0.6479773,-0.29667786,-0.82286775,0.29517183,0.14707075,-0.9890614,0.030134512,-0.3718344,-1.3382195,0.15951936,-0.72171086,0.9128629,-1.218544,0.12753707,-0.4040076,-0.044549957,0.60761046,0.013383236,-0.017649136,-0.028471678,-0.039532725,0.5660672,-3.596776,-0.75627124,-0.05367793,-0.373058,0.2685735,0.50908655,-0.7697341,0.032611854,-0.23885697,-0.7838068,0.058661506,0.024535194,0.11123497,-0.11545383,0.4014094,0.39220142,0.13225447,0.063413054,-0.21845724,0.09449911,-1.0174725,-0.33897847,0.8211588,-0.26945585,-0.7242728,-0.3692427,-0.7715144,-0.7275295,-1.5600972,-0.12764497,0.41392347,-0.032163106,-0.053461645,-0.15700193,0.68871224,-1.646551,1.055178,-0.7985089,-0.18259226,-0.21916822,-0.015378113,-0.0056224903,-1.8749908,-0.1514519,1.4643457,-0.1425192,1.0046462,-1.0065008,-1.122967,-1.911705,0.6705496,0.8532993,-0.025142632,-1.2721443,-0.016621968,-0.57634246,-0.024913913,-0.7024937,0.03360354,-6.3661785,-0.7427629,-0.30080628,1.1977814,-0.58318067,-0.8321294,-1.5070051,-0.56975126,0.35768807,0.3608117,0.33741552,-0.01705531
-0.020641867,-0.035567835,-0.06633114,-0.012002696,-0.13191132,-0.062336043,-0.039145716,-0.05480443,-0.22388211,0.013706936,-0.02173188,-0.015485539,-0.058797754,-0.008239494,-0.05304587,-0.035976633,-0.005843826,-0.056542467,0.004950965,0.014847699,0.0252399,-0.06806308,0.07341668,-0.045248616,-0.09085399,-0.0913077,-0.1025208,0.056998786,0.013239612,-0.12569103,-0.013422437,0.03607249,0.02279963,-0.0007220795,-0.072782084,-0.15273076,0.009761141,-0.1944577,0.05829961,-0.09321476,0.022151893,-0.08412238,-0.20432039,-0.021843327,-0.014343664,-0.047132652,-0.012624333,-0.004129447,-0.0012195592,0.01485105,-0.093023606,-0.006223053,-0.05924551,-0.1094415,-0.09864641,-0.019804776,-0.08571548,0.017529083,-0.07397922,-0.009059267,0.0061819926,0.00070547906,0.2258789,0.02458999,0.039959416,-0.059829246,-0.08343379,-0.18261057,-0.029474897,-0.061398476,0.027656808,0.011032005,-0.121936664,-0.030570788,-0.08752027,0.0014037637,-0.14419198,-0.012103224,-0.037457053,-0.27745742,0.024116732,-0.0711252,-0.124196745,-0.06485837,-0.07089327,0.031894248,-0.093728736,-0.058226187,-0.14756241,-0.06285864,-0.2771454,-0.00081510097,-0.018379897,0.028693745,-0.052683212,-0.04521362,0.08889505,-0.018433414,-0.043130293,-0.02808724,-0.11928186,-0.054612227,-0.17649546,-0.0291991,-0.00946911,-0.09005782,-0.057679385,-0.079558775,-0.115636475,-0.09814263,0.100744106,-0.066099435,0.014265201,-0.043274738,-0.18368852,-0.025222592,-0.0275827,-0.10719832,0.06773855,-0.027398901,-0.04294935,-0.010507981,0.014632307,-0.102363,-0.10841941,0.097396776,0.019969473,-0.222949,-0.06676819,-0.05903506,-0.0059780935,-0.056569304,-0.120142266,0.002286827,-0.16780393,-0.012875091,0.0024158116,-0.05274681,0.04256277,0.01558243,0.021784753,-0.008375324,-0.052151363,-0.1221831,0.057669416,-0.13953638,-0.02018401,-0.102449566,-0.024096087,-0.072184406,-0.05416943,-0.2158651,0.0053252247,-0.0233761,-0.11104432,-0.08886979,-0.030651106,-0.03973278,-0.037042867,-0.0013292482,-0.04022243,-0.0615703,-0.065545045,-0.0756017,-0.093686,-0.17254432,-0.14669806,-0.08345273,-0.06675086,-0.040898364,0.049247295,0.014411842,-0.22057937,-0.07914216,-0.039675705,-0.10184015,-0.016786844,0.047795113,0.017593805,-0.054022465,-0.015061349,0.0042999685,0.0021497966,-0.09526584,-0.039314553,-0.038947385,-0.02550023,-0.032118,0.023748506,-0.058186024,-0.10580857,0.06755686,-0.09320594,-0.099810265,-0.12299138,0.015787102,0.044829816,-0.15466991,-0.06815635,-0.10002538,-0.25118816,-0.01211839,-0.09368122,-0.02813345,-0.0054638973,-0.105922885,-0.10404908,0.042103734,-0.023575053,-0.0040003886,-0.16143914,-0.11425472,-0.28149,-0.07603412,-0.031073632,-0.017089339,-0.010425411,-0.0666495,-0.020533064,-0.09906028,-0.005280822,0.007075747,0.05679544,-0.115759864,-0.0038761413,-0.045016486,-0.07983031,0.022487625,-0.15680663,-0.11620499,-0.009605346,-0.06653338,-0.24173948,0.04916148,-0.026424969,-0.15298001,0.14117593,0.0387007,-0.06786364,0.0099967085,-0.11362368,0.0068318374,0.03170057,0.029259086,-0.0014194344,-0.031763118,-0.026606526,-0.12548111,-0.05150271,-0.08356428,-0.03578079,-0.036216103,-0.058962837,-0.08557039,-0.04442247,0.021203637
-2.0536048,-3.215871,-0.22285719,-2.7400565,-2.0353217,-0.42958328,0.99977773,0.49118727,0.740864,0.02863585,-0.044177346,-0.17196354,-0.1603347,-1.332,-1.9320406,-1.1938007,0.010977804,-0.49703026,-0.41229737,1.8311492,0.2691336,0.3496417,0.10592632,0.11549542,-1.1044651,-0.22196597,-0.123219825,0.019121107,-0.18109109,1.2384205,-0.03998629,-0.3718887,-0.6135971,-0.25807852,-1.5882666,-1.1294413,-0.006972302,0.1456392,0.09928111,-0.031480517,-2.937272,0.2493478,0.4158886,0.56792575,-0.22367738,-1.3858355,0.0014883445,-1.1142137,-1.1618944,-0.16569641,0.103825085,-0.11780908,-0.07858296,1.4300078,0.03503096,0.6783685,0.026376868,0.008221307,-9.797777,0.18761954,-0.042608768,-1.2342814,-0.9104786,-0.25115564,-0.61658704,-0.6186066,-0.58228815,0.39200196,-0.22380404,-0.009919776,-0.114281744,0.21605381,0.92223483,-0.44454846,-0.0076803034,-0.53200984,-0.48257118,-1.0277764,-0.005022717,0.51136893,-0.12507655,0.13822891,0.20047465,-1.0192262,0.8105264,0.3729898,-0.0034652434,0.06902192,-1.1626796,0.051617842,-0.30481333,0.053355195,0.03283447,-0.2733729,0.0009281362,-0.33130464,-0.5364954,1.0551227,0.22010443,-0.0076177786,-0.86350983,-0.097370274,0.3322272,0.779931,-0.10498076,0.65018314,-0.04184854,-0.5034689,0.1377172,-0.0138415005,-0.25074032,0.3238394,0.4196022,0.062347896,-0.6924857,-0.27887252,-1.2288264,-0.43763983,0.78734535,-0.40001938,0.6668561,-0.018227287,0.035328753,0.0332086,-0.61365914,0.46683925,-0.4017542,-2.159032,-0.034492463,-3.5003707,-1.5988013,-0.0030448707,-2.822945,1.959717,-0.3076436,0.04775813,-1.2438866,-0.13888913,0.028567862,-2.0268593,-3.3274565,-0.62671375,-0.46020383,0.6483681,-0.5685959,-0.78050494,0.015343159,-3.974676,-0.019257627,-0.12737101,0.6385115,-0.6066954,0.33576375,-0.03494137,-0.87490416,-0.74094725,-0.65215963,0.30105639,-1.8639811,-0.19605818,-0.33637187,-0.5910495,-0.37102476,0.4825234,-0.78628254,0.38981652,-0.2019559,-0.269299,-0.079724796,0.066965,0.55404115,-0.83968765,0.53792584,0.1298443,-0.7795276,0.016777901,0.37681964,-0.060208376,-0.033254836,0.3023638,-0.09483733,0.05747512,-0.04612103,-0.07432652,0.05920454,0.9649391,-0.9409225,-0.0032791346,0.18544011,0.74732155,-0.38984862,0.8343965,0.037303053,0.17195618,1.2854276,0.013500899,0.0076190084,0.7524677,0.06289659,0.65452737,-0.098643266,-0.09395344,-0.11362621,-1.0502111,-0.505383,0.77432376,-0.3893356,1.0453546,-1.2148554,-0.13247041,1.2528021,-2.9814982,-0.76787883,-0.63496625,-0.07714229,0.5434887,0.0049186647,0.08172182,-0.16151725,0.60740995,-0.10727852,-1.44965,-0.086664826,0.5447775,-4.986935,-0.010626749,0.014429509,-0.40247703,0.14828731,-0.52525294,0.02783724,-1.3896153,-0.1559329,-2.7567558,-2.373371,1.3107952,1.1421716,0.13798098,0.21479417,-0.067893,0.7398773,-0.028244337,-0.078347325,0.027401522,-0.039189238,0.57821846,2.2047126,-0.5384393,-0.17673784,0.154989,-0.13614821,1.863683,-2.0920718,0.6029274,-0.093820974,0.0098127425
-0.046899572,0.014938446,0.041443884,-0.03319765,-0.035352223,-0.0131544145,0.033063732,-0.052637387,0.042503353,-0.06220406,-0.0059205894,0.035259645,-0.031969868,-0.021445008,-0.05451308,-0.03457951,-0.0235636,-0.073102586,0.03934528,-0.01513439,0.035634972,-0.06422393,0.05654825,0.04960183,-0.061394583,-0.060068283,-0.049509585,-0.021301284,-0.06866699,0.03987969,0.011840299,-0.057768244,-0.04495368,-0.048128102,0.021662513,0.009125388,0.03981877,-0.018637232,-0.04556886,-0.022550264,-0.011302496,0.023640908,-0.009074581,0.02635596,0.0014378915,0.007294023,0.049779642,-0.028587485,-0.056270342,-0.020156303,0.0362499,0.0503055,0.0476688,0.0120809795,0.031564016,-0.019753862,-0.056391373,0.029897898,-0.02518132,-0.060368095,0.020369232,0.025787862,0.019516129,0.010509081,-0.026611062,0.028205056,-0.03740248,0.04241065,-0.009912645,0.01483237,0.06182659,-0.019181784,0.018213766,-0.06348884,-0.06723539,0.062171724,-0.06118914,0.042511653,0.0343249,0.010195205,0.031573974,-0.02016089,-0.042383235,-0.047105294,0.045015574,0.0010642703,0.02739409,-0.046027984,-0.007996239,-0.01592349,-0.028022842,0.039019555,-0.051617242,0.009851749,0.04303821,0.026543679,-0.05887875,-0.05337705,0.047923274,0.0335472,-0.01105298,0.027278494,-0.07191872,0.015194005,-0.076574035,0.031077014,0.017352916,0.047242615,-0.012298865,-0.042570036,-0.051000066,-0.030586231,-0.03422416,-0.030114455,0.0029053125,-0.053552918,-0.049292218,0.008819227,-0.027730264,0.0023871039,0.021247478,-0.05414663,-0.042876832,-0.003863346,0.041408133,-0.035591144,0.027431775,-0.06398631,-0.039998204,-0.0277438,0.0031018031,0.029268477,0.04961624,-0.044851314,0.015548997,0.06004432,-0.011132277,-0.03414744,-0.023447279,-0.037465997,-0.008412691,-0.008422146,0.008236835,0.013777306,-0.018358285,-0.05968802,-0.036847316,-0.056148663,-0.036413006,0.014435367,-0.062527515,-0.04633577,0.043078717,0.011338643,0.0011746353,0.011556864,-0.06187737,0.005734037,-0.06962022,-0.04324439,-0.07376549,-0.06473243,-0.07094615,0.037215315,0.028397644,-0.041334298,0.014074122,-0.0096890535,0.008635593,-0.039319474,-0.025520282,0.029592063,0.026489377,0.06334377,-0.068666145,-0.061103195,-0.022483785,-0.04001276,0.031923242,-0.026801059,-0.009415169,-0.0026007816,0.0085118115,0.03409483,0.03470713,-0.05458153,-0.0599522,-0.05320312,-0.03713863,-0.06476509,-0.025540309,-0.054799616,-0.015125743,0.008643506,-0.06728664,0.05151786,0.009794153,-0.06107166,-0.046193495,0.04843924,-0.009662931,-0.011582712,-0.029820269,-0.040699575,-0.019900057,-0.021583293,-0.038260054,-0.06146491,-0.053919565,0.052647512,-0.059420377,-0.05820777,-0.03714351,0.030434607,0.01566993,-0.055494968,0.027549155,-0.06081434,-0.07340058,0.021587603,0.018506713,0.048234418,-0.04427191,-0.003510321,-0.032441627,0.022901263,0.03464944,0.005595717,0.040818404,-0.02025679,-0.07378891,-0.023155386,-0.017810825,-0.05354933,0.039650064,0.01942655,-0.013604338,0.025932143,0.010120792,-0.013617264,0.01105951,0.039073974,-0.050397307,0.012444727,-0.047954407,-0.0009464604,-0.06218854,-0.0065064863,0.04532188,0.0010274199,-0.023922568,-0.013599093,-0.0048311297,0.022893315,-0.030800875,0.0031729266
0.030485593,0.020088915,-0.09809783,-0.0370287,-0.01612326,0.020270135,-0.043943144,0.017668761,-0.05303853,-0.119037285,0.03428387,-0.0034010182,-0.08097618,-0.04354424,-0.06359235,0.0069966945,0.013591634,-0.020014437,0.029982546,-0.02057044,0.023417143,0.03492129,-0.034411103,-0.025614262,-0.008208002,-0.1287104,0.047913685,-0.06105579,-0.03520666,-0.064184934,0.010644183,-0.012467181,-0.044312492,0.004225314,-0.044149075,-0.020360036,-0.040299356,-0.047565866,-0.07790894,0.02952192,-0.09140554,-0.017857604,-0.058451887,0.020855758,-0.03826633,0.026287211,-0.0895677,0.052638046,-0.044784687,-0.07313503,0.0663421,-0.01853105,-0.04366912,0.007280959,-0.0042625335,-0.076757975,-0.024407832,0.0039779106,-0.041213498,-0.008202532,-0.0542252,-0.057376888,-0.08713579,-0.04138543,0.06481894,-0.08083022,-0.05470706,-0.050993327,0.05251473,-0.0146460235,0.047666624,-0.065472476,-0.031468377,-0.049260546,0.022311863,-0.10097035,0.0027263672,-0.01828234,-0.020440236,-0.12045932,0.040911485,-0.052778933,0.030551288,0.017819416,-0.0165705,0.04350496,-0.008290584,-0.057067946,-0.07608476,0.006251632,0.00027999296,0.0065388605,-0.031643607,0.072118916,-0.038560037,-0.042684495,-0.11928071,-0.025772542,0.0070867036,-0.049011998,-0.041078802,-0.07731869,-0.040050194,-0.046026062,0.04403011,-0.039369583,0.023421355,-0.03557457,-0.045941465,0.017820101,-0.09696134,-0.20590866,-0.12813964,0.03561578,0.04003002,0.013472095,0.0128543135,-0.036675807,0.06252955,-0.092477575,-0.030733315,-0.041238733,0.028083675,-0.046732206,-0.060974445,0.07356495,-0.091891214,-0.0561717,0.025990145,0.003733931,-0.062470447,0.014417782,0.011154793,-0.054882474,-0.088906564,0.020550817,0.020456532,-0.010009293,0.0449779,-0.05903808,-0.023284143,-0.045067165,-0.073916286,-0.05563479,-0.02756128,-0.03501845,-0.032824814,-0.025280513,0.0006778464,-0.017618379,-0.034450214,0.028967552,-0.03628735,0.01834085,-0.06071517,0.02399825,0.0068103084,-0.10932549,0.031305294,-0.090020604,-0.07930635,-0.029947734,-0.037798118,-0.09146513,0.061508626,-0.07570487,-0.051271033,-0.05625229,-0.043691948,0.025716828,-0.06892159,-0.021886982,-0.12835908,-0.048994955,-0.02146174,0.03563137,-0.02000907,0.0045005037,-0.051118158,-0.021044116,0.02402092,0.03607683,-0.045151338,0.041696876,0.043888442,-0.047286857,-0.003969593,0.002064541,0.053588685,-0.08553487,-0.08431697,0.129784,0.044394817,0.0724772,-0.17705187,0.0571447,0.030280307,-0.101542905,0.048956946,-0.013591097,0.016801728,0.027836528,-0.01277697,-0.111609146,-0.08571945,-0.032656904,-0.06540884,-0.0650777,0.0020359291,-0.046011545,-0.031354357,-0.08538024,-0.07896496,-0.10487327,0.020106208,-0.08762901,-0.045810267,0.013721998,-0.00837006,0.012393343,-0.07967222,0.013584727,-0.057883285,0.033822596,-0.010117459,-0.043946896,-0.03851326,-0.05241949,-0.06690905,-0.01905473,-0.019201258,0.023664067,-0.035239328,-0.041441545,0.05580828,-0.03889313,-0.011919899,0.044603996,-0.008892537,0.041530896,-0.03809656,0.03579607,-0.06410016,-0.035363846,-0.049482837,-0.033223003,-0.0081024105,-0.07236693,-0.036122095,-0.04744576,0.031473134,0.016369356,0.026321178,-0.004941505,0.073486045,0.057739563
0.04703559,-0.042551972,-0.021397691,0.0012177436,-0.035170864,0.01815809,0.023719061,-0.054417457,-0.008773793,-0.06569679,-0.058485247,-0.018345762,-0.0379376,-0.055727597,-0.029878749,0.012549172,-0.0579784,-0.0025341,0.012389574,-0.0067420625,-0.040511563,0.021710956,0.03845937,-0.040018134,-0.08472856,-0.061094884,0.03533059,-0.038728885,0.038461614,-0.015821889,-0.016496688,0.06280921,-0.07309912,0.021579625,-0.07421625,-0.09840905,0.027724596,-0.014572651,-0.019197823,-0.009588094,-0.034586325,-0.06850453,0.013227199,-0.029989773,0.05754354,-0.026511425,-0.02710735,-0.0019592266,-0.05878446,0.054401446,-0.014869308,-0.021983318,-0.00025783398,-0.06753455,-0.05445688,-0.032837573,0.027435947,0.055523347,-0.009306039,-0.022253223,0.029551797,-0.045577005,0.004740845,-0.061931826,0.041343752,-0.07940704,-0.05777455,0.01153048,-0.012811324,-0.007097892,0.027769813,-0.060130868,0.00312615,-0.007455366,0.008065375,-0.007637583,-0.052045427,-0.0019723682,-0.043062605,-0.071356036,-0.054586627,-0.004679719,-0.012396621,-0.0590782,0.034145672,-0.03659599,-0.0662074,0.026226338,-0.027680535,-0.061249714,-0.026156541,0.024968415,-0.058707923,0.03304963,-0.039358754,0.016588785,-0.063465655,-0.071470074,0.03897035,-0.059450712,0.013509489,0.0141670415,-0.011044924,0.042562947,0.030303968,0.010485436,0.020527802,-0.087205574,-0.03613476,-0.055251453,-0.05037563,0.016886141,-0.01907959,-0.06384202,-0.07579271,-0.028896429,0.015372578,-0.04904403,-0.029183874,-0.002520362,-0.005881522,0.035644062,0.002917312,-0.053027347,0.016441235,-0.01773371,0.011099748,0.0052824086,-0.05872358,-0.06919329,-0.011975423,-0.043981645,-0.01566761,-0.03828687,-0.0850009,-0.009452164,0.026873702,-0.043189052,0.019890454,-0.017324315,0.014710919,0.022989972,-0.005158265,0.024894698,-0.059330348,0.044636272,0.0166656,0.023856966,-0.0029785559,-0.012518691,-0.037746053,0.023665858,-0.03937354,-0.02933917,-0.05558669,-0.05930236,-0.022156721,-0.04048088,0.02818246,-0.052621935,-0.06674723,-0.015168791,-0.046336852,-0.009731059,-0.011270881,-0.026572388,-0.02488015,-0.0808055,0.019500049,0.023927271,-0.060051166,-0.04835902,-0.033325758,0.038348723,0.045948207,0.047076266,-0.0030813164,-0.036673956,-0.014268208,0.0017898746,-0.031195816,0.031420723,0.011848472,-0.0950689,0.012638426,-0.014245294,0.009396035,0.013012968,-0.0042982777,0.034519944,0.025115484,0.043539397,0.038962387,-0.008682951,-0.028217258,0.016712569,0.024452664,-0.020557685,0.036783427,-0.08065781,0.018937405,0.038226545,-0.009939156,0.036094867,-0.05084805,0.013725442,-0.06436569,0.020737529,-0.0055603907,-0.013954102,0.057465263,0.010363116,0.026761387,0.0054667154,0.004417947,-0.012697644,0.038625307,0.043128215,0.034001194,-0.0008434608,-0.07575109,-0.010508591,0.0050213714,-0.06462944,-0.02559358,-0.0038916694,-0.04298774,0.07604079,-0.019875316,0.03686501,0.04938605,0.040268097,0.016609685,0.008984588,0.040193126,0.03689376,0.047170307,-0.02357528,-0.009088561,-0.054672025,-0.04866946,-0.036148503,0.008990934,-0.03153065,0.037796333,-0.01712787,-0.022571255,-0.043200567,0.034731522,-0.02902057,0.016649833,0.020487431,0.06256285,-0.007009426,-0.06900569,0.004006967
-0.48369014,-0.38760924,0.23559432,0.20488796,-0.6640355,-0.0938322,-1.177941,0.418806,0.33008337,-0.940891,-0.84500134,0.11716074,-0.18431342,-0.33842808,-1.5452693,0.94702095,0.27417335,0.0342531,-1.3119422,-1.269464,-0.93137276,-0.19053945,-0.014843258,-0.13982369,0.15427871,-0.03655478,0.3232433,-0.042397123,-2.8307488,-2.1226866,0.024927825,1.0742723,-0.11943699,0.07931764,-0.7296224,-0.21196449,-0.2633554,-0.5386744,-0.38054362,-1.3565396,1.1724855,0.4291637,-1.092609,0.6071444,-0.7700162,0.29404303,-1.0017315,-0.27733818,0.45691264,-0.07828131,-4.2057166,-0.09710337,-0.553683,0.048988037,0.03931679,-1.145588,0.08018291,-0.30885643,-0.0064618145,-0.0709854,0.019695252,-4.191812,-0.3981789,-0.04059594,-0.9478338,0.111929916,-0.1063066,-1.7658261,0.49459448,0.040853065,-1.7697346,-1.319529,-1.2329837,0.35986102,0.054679833,-1.3436171,0.29108855,0.014266308,-0.19011314,-1.431219,0.33833203,-0.70647734,-1.0141807,-0.7638437,-2.3059547,-1.6283072,-0.10773532,-1.1615666,-1.8625835,-0.051416,-2.200788,-0.061378866,-0.46188867,-1.7267811,-0.01906891,0.47538328,-0.76801044,-0.20181113,0.087638535,-0.21119778,-0.102215596,0.6968908,-0.82223535,0.4424717,0.049756903,0.6124649,-0.02359125,0.5525919,-0.57524854,-0.1319319,1.2867153,-1.4908053,-0.20955797,-0.48751235,-0.11902431,-0.028966492,-0.2802379,-0.29510158,-0.22396423,0.08222215,-0.027362246,-0.08636377,-0.0042721406,-0.71578604,0.23953937,-2.315086,-0.5574883,-0.4991672,0.34993842,0.47972092,-0.063998885,-0.028342405,0.013168411,0.12042886,0.023715455,-0.029979577,-2.045865,0.16077796,0.05640773,-0.4461625,-0.0038975151,-0.18585792,-0.32335398,-2.290564,0.11193298,-1.1940457,-0.0070520416,-0.06516395,-0.00014656782,0.6527956,-0.45091587,-0.33638674,-0.17767176,0.04067788,0.58772284,-0.7180685,0.34301433,0.30883345,-0.2834934,-1.7622644,-0.22632062,-0.0530555,0.38580608,-0.66980654,0.8348727,0.63214153,0.15496726,0.030911157,0.6088125,-0.0029779603,-0.6553457,-0.07559084,-0.03568495,-0.96978813,-2.0951488,0.4972332,-0.59134406,-0.62061137,0.0914723,-1.3572255,-0.47387353,0.017035298,0.055858817,-0.050005544,-0.024795707,0.7456875,-0.040421817,-0.05836603,0.2159493,-0.15908198,0.44369918,-0.45432836,0.02616137,0.6282,-0.77028435,0.0047250614,0.019020759,0.7408939,-0.15227105,-0.4793144,0.38801375,-0.32873145,-3.2883003,0.26714128,-0.27055466,0.6288379,0.22359529,-2.6122274,-1.0746827,-0.63167506,0.4018216,-0.21296346,0.16340919,0.31784686,-0.9404995,-0.570335,0.0091344565,-0.25644556,0.11553889,-1.915845,0.62297076,-0.509333,-0.12093019,-0.9498714,-0.072389975,-0.119029276,0.058751352,0.37346077,0.23019725,-0.5881329,0.049677256,-0.06550116,-1.1880512,0.022357963,0.96365243,-2.900907,-0.08486955,-0.3727926,0.47020882,0.11840914,0.35561964,-0.048641708,-0.17975503,0.035961114,0.07750317,-0.18209977,-0.96015006,-0.477851,0.08072999,0.23231064,-0.04679066,-0.06472156,-2.1877677,0.3258661,-0.32164088,-0.022152528
0.11273769,-0.11736568,1.0360929,-0.49672958,-2.6319194,-0.2803967,-1.616061,-0.23256461,0.71809113,0.55831975,0.09835091,0.009304906,0.09284999,-0.16589926,0.98941875,0.49679002,-0.3208883,-0.38443792,-0.09477586,-0.3478099,-0.0756952,-0.2558847,0.7024676,0.25325656,0.2542921,-0.034045346,0.16757037,-0.023783552,0.25203788,-1.1921943,-0.0045716614,-0.3673251,-1.6768711,0.5767596,-2.1858702,0.006891144,-0.06796371,0.1555631,-0.09446394,-0.73619395,-0.33518857,0.5308333,-0.57492507,0.17869584,-1.0123391,0.64851594,-0.020315498,-0.10095361,-0.61380774,0.5748182,-0.55345863,-0.3721974,-0.013366735,0.2794117,-0.07251556,-0.612369,-0.041915562,-1.2198706,-2.1951857,-0.11667793,0.057796456,-0.16953027,0.21049249,0.5987406,0.5399667,-0.37989688,0.030273661,0.2547134,-0.41294187,0.25860202,0.6674413,-0.62590015,-0.76000565,-0.7821978,0.0019210303,0.4701926,-0.12178892,-0.44780996,-0.10939944,-0.834504,0.27548513,0.704608,-1.7876986,0.2962029,-0.62781394,0.23882864,0.11089187,0.5006165,0.117717944,0.009076977,-0.24078327,0.021672204,0.35723722,0.23903202,-1.0045956,-2.1179113,-0.48369095,-2.1837652,-0.22482559,0.008880048,0.1721434,0.95217776,-0.88455397,-0.0010903885,-0.4296218,-0.0904574,-0.0027309358,-1.6808472,0.113467745,-0.11413656,0.59094393,0.20679659,-0.53405374,1.4972215,-0.04605483,-0.3729782,-1.1868511,-0.65874326,-0.04556971,-0.4238302,0.71539307,0.08970062,-0.03742747,-1.0415865,-0.9479294,-0.7925278,-0.89959294,-0.13301024,0.28200155,0.1840196,-1.2505585,0.11621062,0.17946604,0.76039726,-0.0032558623,-0.028241811,0.47551876,0.3571911,0.06694544,0.89103675,0.08192539,-2.6246824,-0.0012131911,-3.1735075,-1.1809527,0.26752144,0.03790643,-0.40404078,-0.004628949,-0.20782405,-0.6720288,0.50847334,-0.31380713,0.13039623,0.23950188,-0.7940807,1.0975618,-0.18977657,0.3783599,-0.5456304,-0.38748294,-0.03973729,-0.7311396,-0.7668131,0.89828146,0.55166954,-0.3490018,0.452543,-1.7893974,-0.13688941,-0.43637624,-0.35034034,-0.76556396,1.045006,0.5570109,-0.4063143,0.17755404,1.180912,-0.16066153,0.32529294,0.33691695,-0.014920019,0.061475676,-0.41511902,-0.26967892,-1.3138186,-0.7227232,-0.061760515,0.22711451,-0.20996186,0.35280785,0.53129953,-0.06313622,-0.26794156,-0.57887876,-0.031143866,0.024238408,-0.8875061,0.04782131,-2.1338933,-0.5267592,-0.02679548,-0.083853476,-0.14579172,0.13169275,-0.1377736,-0.5016596,-0.15305918,0.102673635,0.3502406,-4.626787,0.15895101,-0.27955896,0.05225976,0.2818748,-0.2891853,0.049921006,0.047692634,0.1089739,-0.8098329,-0.98944175,0.5447094,-0.4564156,-0.8999834,0.5075876,0.93264073,-0.25649726,0.35285223,-0.24477293,-0.40845767,-0.2420708,0.25826827,0.41390488,-0.7641529,0.8598049,-4.245895,-0.31510475,0.11398699,1.0642132,0.0020116775,-0.029043918,0.04762221,1.088857,0.047063783,-4.885766,-0.62939996,0.90302765,0.012798784,-0.3502845,-2.15791,-0.95876944,0.7688537,0.76507,0.3162048,0.48043305,-0.053521834
0.009072268,0.03286024,-0.050474282,0.042494133,-0.03961044,-0.03941494,0.04659232,-0.04489497,-0.016070139,0.013833421,-0.022244941,-0.052037314,0.031785507,-0.06426802,-0.029832305,-0.011536415,0.021867158,-0.034070287,-0.016475521,-0.04787332,-0.066576414,-0.03734768,0.022815773,-0.048633624,0.0065654796,-0.06247469,-0.0531641,0.017462313,0.038702976,-0.016343346,-0.05202931,-0.006688948,-0.0049614077,-0.047468215,-0.06514696,-0.02176928,0.0025384766,-0.05744812,-0.00025990847,-0.04517226,0.03905678,0.05058351,0.0005010709,-0.03868477,0.015394681,-0.012823709,-0.039331555,0.03372634,-0.014694847,-0.0051185153,-0.049057107,0.036672786,-0.07364623,0.045885477,-0.028304568,0.0297399,-0.06864425,-0.05049861,-0.044507295,-0.01391885,-0.036002494,0.04291062,-0.015182882,0.034442738,0.012129295,0.004370431,-0.042648554,-0.050628107,0.0063299173,-0.03778143,-0.04970422,-0.05642668,0.022330849,-0.027888998,0.057278275,-0.026344633,0.025116617,0.01674257,-0.008494143,0.02904808,0.021297798,-0.026342832,-0.053712185,0.037268553,-0.05875308,-0.011749007,-0.06913732,0.047988076,-0.03111764,-0.05898072,-0.049977623,-0.057919122,-0.015333663,0.01056139,-0.06046168,-0.056923445,-0.06096531,0.051797584,0.049389556,0.050875124,-0.050017674,0.011787385,0.0063100797,-0.01517011,-0.019695856,-0.07026869,0.023005493,-0.058352213,0.007649658,-0.013653139,0.022161705,-0.03678246,0.04651543,-0.020739613,-0.032946486,-0.074103996,-0.07993192,-0.041506495,0.035249628,0.00017953655,-0.051464815,-0.01854191,-0.05229058,-0.011210995,-0.008023571,0.03453457,-0.0059916303,-0.029568885,-0.046658278,0.047945462,-0.023155103,-0.06632051,-0.067574166,-0.032953925,-0.026498824,0.043174773,-0.06177924,-0.019376919,0.036670443,-0.016688144,-0.048415266,-0.0074884947,-0.031541664,-0.026583306,-0.0583632,0.012059237,0.037926666,-0.026905937,0.05875442,0.021568323,0.001717916,-0.03291472,-0.05950765,-0.041313685,0.0050026122,0.0049126763,-0.032206237,-0.040519673,-0.026780156,0.005631728,0.00056075596,-0.030799767,-0.026094826,-0.024873326,-0.032371618,-0.06197587,-0.049803413,-0.018447973,-0.014630327,-0.019990083,-0.018889278,-0.059541564,0.03470681,-0.024794428,-0.042878367,0.016237816,-0.059268743,-0.027724817,-0.044500828,0.036002602,0.046985343,0.048833422,0.06211611,-0.0278061,-0.04886832,-0.023709688,0.036947567,0.003917031,-0.05776159,-0.012925776,-0.06319025,-0.02070185,0.01430892,-0.02344085,0.03713325,0.037542284,-0.05878108,0.013693657,-0.02555295,-0.059949853,-0.037202735,-0.030637223,-0.061603792,-0.011408888,-0.040362567,-0.032937758,0.03314798,-0.0419134,-0.026808133,-0.036010697,0.011145805,0.015981397,-0.04327782,-0.072773546,-0.01971516,0.02247489,0.015954308,0.033944145,-0.04888254,-0.059893776,-0.06952112,-0.068385094,0.05534732,0.027129596,-0.03606647,-0.025034415,0.0076320483,0.022590537,0.03678793,0.0438043,0.021031149,0.028527766,0.047020495,0.0118762655,0.008257466,-0.0006536928,-0.06857599,-0.012150164,0.038789812,-0.039441433,-0.025700336,0.031228967,-0.0045452137,-0.019724295,-0.06866093,-0.033140536,0.03392544,0.0328374,0.039902132,0.0034095175,0.047396667,0.041603617,-0.05271546,-0.048652608,-0.046590623,0.003785506
0.07641471,-0.19105805,0.015422285,-0.1727256,0.03594546,-0.13072371,-0.07099937,-0.015235553,-0.0069847964,0.013734828,-0.10410498,-0.046469174,0.065990634,0.090963885,-0.010837741,-0.13257882,0.0042320616,-0.1294795,-0.2915752,0.059417225,-0.05301133,-0.1295802,-0.29259282,0.06049134,-0.057124045,-0.14791724,-0.19335197,-0.03919083,0.10310881,-0.08496865,-0.028450623,-0.1814544,-0.050919726,0.010894163,-0.047981363,-0.06321989,0.020044206,0.0630039,-0.27652356,-0.008380846,-0.28596482,-0.08854924,-0.012479974,-0.048296943,-0.2047669,-0.04203058,0.20703523,-0.07940781,-0.037977055,0.20913337,-0.4310967,-0.08362885,-0.18475692,0.024144566,0.011058441,0.096508764,-0.027395487,-0.02829036,-0.05307175,-0.109830834,0.058265813,-0.022795657,-0.11419615,0.06371616,-0.3322624,0.020187967,-0.11428734,-0.37391683,-0.21443562,-0.006922467,0.29909533,-0.4729576,-0.059138563,0.041407198,-0.026384255,-0.43107083,-0.0730186,-0.41120732,-0.055776723,-0.15592232,0.034775596,-0.014128856,-0.11254583,0.07003465,-0.2421393,-0.14262067,-0.03404914,-0.029821875,-0.32361692,0.034734912,-0.40501985,0.05598008,-0.04971584,0.38998595,-0.0197224,-0.032170124,-0.3635408,-0.0199086,-0.028013539,-0.13688919,0.059505917,-0.19442672,0.021477725,-0.07480269,-0.01208697,-0.14172952,0.03606759,-0.079486325,-0.116236396,-0.021180676,-0.12663983,-0.118491225,-0.5643875,-0.07422883,-0.2953506,0.003261024,-0.42920285,-0.01190528,0.12519915,0.10418173,0.21554898,-0.121319845,-0.0043164566,-0.25567034,-0.029867662,-0.13588113,-0.01219881,-0.03155498,-0.104269624,0.0043715676,-0.48589203,-0.099380694,0.057691067,-0.361357,-0.55794525,0.008065671,-0.067490205,-0.15583347,-0.038106166,-0.010510208,-0.14692007,-0.10514895,0.048518155,-0.71687454,-0.076262504,0.031858232,-0.044783458,-0.08564306,-0.035157166,0.04271562,-0.05185178,0.065141834,-0.06237719,-0.07726556,-0.16097821,-0.12952444,-0.05379788,-0.032910664,0.12410317,-0.22196056,-0.11751766,0.0063755573,0.084222406,-0.18821885,-0.0025710375,-0.052354764,0.05477509,0.0478787,-0.083368294,-0.024951603,-0.28807795,0.030208211,-0.50489765,-0.18137258,-0.20086569,-0.03517972,0.10197158,-0.36871433,-0.01469462,0.05452102,0.062282685,0.01429116,-0.037301928,-0.031877767,0.035800964,-0.11780391,0.064389534,-0.05602497,-0.029300908,-0.28196618,-0.08367087,-0.12638234,0.031303383,0.22143976,-0.5249156,0.051626585,-0.04828397,-0.37231812,0.07438505,-0.1156452,-0.09735457,0.06317621,-0.13734879,-0.11519265,-0.1197279,-0.14484464,-0.10248906,-0.023264684,-0.10591715,-0.09327237,0.0378155,-0.10800629,-0.1342498,-0.22799811,0.10217301,-0.07633808,0.034262873,-0.10596367,-0.010684384,-0.10693195,0.026508078,-0.05228649,-0.1604748,-0.052019063,-0.15502796,0.32782653,0.083275154,-0.12953061,0.09337984,-0.24993679,-0.09831902,-0.18294288,-0.36418965,-0.21216214,-0.0601273,-0.27864027,-0.14874937,-0.1287318,-0.19652234,-0.00493519,-0.24633926,-0.02458416,0.086056665,0.054001972,-0.030904038,-0.06897702,0.12619025,-0.12142139,-0.33005023,-0.06875976,-0.18489796,-0.0035641433,-0.06569575,-0.07818211,-0.05890892,-0.03982704
-1.2129555,-0.31040907,-0.14433563,-0.05861543,0.18429707,-0.6195699,0.2862373,-0.29150635,-0.25734156,-1.0181847,0.39030394,-0.16172399,-0.086509615,-0.5857951,0.8969593,-1.5172852,-0.26510265,-1.1204054,0.19532551,0.16442399,-0.65990114,-0.02191902,-0.4636274,0.03476816,-0.83188945,-0.017421598,-0.6632238,-0.025642833,-2.5405898,-1.9684086,0.0067913756,-0.34459284,-0.4058777,0.08050469,-0.9224062,-0.19180587,-0.025034137,0.54974574,-0.039624996,0.23574707,-0.87965333,-0.75238115,-0.888899,0.14221819,-1.9079552,0.72516024,-1.1134105,-0.7924902,-2.385784,-0.020037068,-0.45839763,0.5721925,-0.27161282,0.027278835,-1.1107951,-0.9161829,-0.036666706,-0.4615277,-3.5055077,0.29712883,-0.027127288,0.3945696,-0.28553495,0.26624647,0.57989866,-3.7307005,0.31489357,0.7306819,-1.399221,0.1920862,-0.44141304,0.27855498,-3.7693806,-1.4715639,-0.005633289,1.1138729,-0.80453146,-1.6988525,-0.020522,0.09060492,-0.31857914,0.9003458,-0.5919065,0.46364284,-0.28959692,-0.35126153,-0.01775394,0.50543886,-1.3323556,0.04113731,0.8393841,0.016651616,0.20591943,-1.5669438,-0.41651905,-1.3888961,-0.07535348,-2.1800547,-0.14172722,-0.11555463,0.16434121,-0.5090698,0.48019117,-0.029931998,-0.2100449,-0.2191359,0.049170904,-3.3367753,-1.8191257,-0.03951842,0.6624987,-0.33389178,-0.7670553,-1.2628486,0.74643064,-0.364353,0.78706455,-1.6064811,0.91934526,-0.2378254,-0.60582006,0.10276032,-0.021685816,-0.8932873,-1.0609242,-0.4589629,0.1990372,-0.46455574,-1.9403359,-3.0969863,-2.370403,-0.22545092,-1.8558912,-0.14352666,0.13496211,-0.05652143,-0.07318542,-0.73838,0.12359792,-0.0019291512,0.9268327,-0.08166767,-0.18187885,-1.4237772,-0.8535208,0.665476,0.042484455,-2.1199412,0.0046010613,-0.19809325,-0.016730836,0.70849913,-0.044113833,0.1273814,-0.7926706,-2.3317823,0.8163835,-1.060962,-0.15235762,-0.60873866,-2.918378,-2.1748362,-0.3953214,-0.5541468,0.47278517,0.30148548,-1.5977892,0.1978245,-3.141922,-0.019540401,0.35586864,-0.43998528,0.031151215,-0.05249937,0.23578916,-1.531544,-1.3715206,0.23242679,-0.08360133,0.06502767,0.02284761,-0.038409054,0.0009185076,-1.1098046,-1.6764597,-0.6060044,-1.9790373,0.035703868,0.26235035,0.5307758,-1.0611167,0.5517044,-0.036316186,-0.8031635,-1.0773404,-0.054606102,0.059827127,-4.994906,0.0462138,-0.4282043,-0.37695694,0.0007385457,0.44685003,-0.30146915,-0.5388969,0.1048861,-0.15806504,-1.3748208,-0.9357763,0.53700435,-0.990869,-1.4890168,0.22105922,-0.3704998,-0.21675792,0.268416,0.043483146,-0.44044644,-0.063655116,0.11117151,-1.1666842,-0.42186597,-0.5731716,0.42712283,0.7575815,-0.5628033,-0.41204306,-2.5518112,0.5225132,-0.24439494,-0.13692476,1.1753526,0.33084455,-1.4463222,-0.018765219,-1.5791622,0.25006452,-0.024363678,-1.6941392,-0.1049685,0.68617487,0.006024348,-0.07989094,-0.055153623,-4.8547597,-0.6426031,0.20536788,0.2784021,-0.32508898,-3.1451378,-0.24870792,0.43295652,0.92206144,0.3875444,0.036817946,0.00018922985
-0.3586922,-0.48294306,0.015795957,-0.09508733,-1.0597267,-1.790985,0.42245474,0.83668196,0.13306554,-0.2082417,0.07967119,-0.13766904,-0.16183816,0.15039793,0.7829911,-0.48008585,-0.08315908,-0.057548754,-0.021554835,-0.012525305,-0.81009084,-0.011095774,-0.10962539,0.06642822,-0.10560719,-0.11490522,-3.7621038,-0.013448502,0.03646725,0.36633772,0.0024409294,-0.12759617,0.82322,-2.2158911,-0.7204199,-1.7451771,0.09834291,0.5415234,0.14069031,-0.41838634,0.28989336,-0.1348928,0.5515809,0.32304192,-0.14653508,-0.35925567,-0.013383394,0.2648019,-1.0396607,0.31482288,-3.7383404,-0.65566933,0.037116416,0.30162415,-1.6414094,-2.8399851,-0.053164348,-0.40499768,-0.073500015,0.46479207,-0.024957255,0.3934358,-0.22634988,0.5778622,-0.92459005,-1.0837517,0.024127781,0.16048998,-0.26096314,-0.53416294,-0.80768514,0.52352625,-0.1324907,0.7949373,0.022156227,-0.23049389,0.38431194,-2.1789613,-0.123771526,0.76888657,-0.20771258,-0.1944348,0.2803288,0.5042094,-0.3275032,0.35613126,-0.012731205,0.11559294,-2.2282555,0.02959394,1.0595376,-0.0006511733,-0.23629972,-0.35499206,-1.290175,-1.0069522,-1.3302352,1.0042517,0.06927706,0.086137325,0.07173281,0.96701676,0.25767386,0.42873502,-0.46604234,-2.0330763,-0.038712896,-0.4659794,-0.09321198,0.079223074,0.7467466,0.32701227,0.8322313,0.23702417,-1.1783117,0.050836783,1.3635702,0.7423232,-0.06240935,-0.06985673,-0.55780727,-0.44559878,-0.028386824,0.057354063,-0.8782579,0.11313135,-0.5086521,-0.27135748,-2.2091892,1.195398,-0.43030342,-0.26350963,-0.47208375,-0.11922229,-1.3118495,-0.05561322,-5.2785554,-0.71102977,-0.3183732,-0.28649926,0.38195294,0.40383813,0.13520214,-0.16446114,0.09028852,1.0259153,0.023020886,-0.11285515,-0.023437716,-1.9809366,-0.019484702,-0.39831844,-0.6821029,-0.0742434,-0.06761084,1.06667,-0.47469997,-1.3402799,0.27740484,0.11189594,-4.0975876,-0.28532827,-0.21453686,-0.37813747,-1.3496935,-1.3374871,0.008019998,0.26517287,-0.47149318,-0.0040743933,-0.18366635,-0.0050800205,0.19450969,-1.7251147,0.24648428,-3.0481632,0.4647114,0.3749314,0.01997716,0.37504667,0.14533433,0.026928,-0.024080455,0.050421048,-0.0057662074,0.78665096,0.6380821,0.053950645,-1.5651672,-0.36410546,-1.1971713,0.16265985,-0.04705312,0.08636434,-0.23607175,-0.011124477,-0.03478337,-0.29001826,-0.0546205,-0.01094321,-1.3748187,-0.16384836,0.14438593,-0.5823507,-0.24268536,-2.2329104,-0.6768272,0.98675257,-0.23729923,-0.75497043,-0.5160492,-0.4383521,-0.5202903,-0.6688583,-1.1467593,-0.1821872,-0.022908695,0.20237015,-0.2183893,0.5123604,0.023242485,0.22883153,-0.12546876,0.066307016,-0.5241931,-0.69414145,0.12879267,-0.82069945,0.1643713,-0.64004195,0.16305368,0.18347906,-0.41164953,-0.2980511,0.43884668,0.62538886,-0.14603733,0.15070178,0.6251665,0.027454134,-2.9964128,-0.0046241614,0.6410814,0.0070994645,-2.3231084,0.11721925,0.0141191585,-0.026940174,-0.5354153,0.2686896,-1.4663769,0.05041162,-0.44733334,-0.018967878,-0.11175911,0.036816545
-0.06334464,-0.04008046,-0.01549334,-0.0898958,0.043515522,-0.015254498,0.00014312941,-0.017899722,0.04432462,-0.14927843,-0.05145519,0.015206531,0.014122386,-0.021515239,-0.014040807,-0.12599225,0.02902952,-0.002041046,0.05801506,-0.015451186,0.002429173,-0.030547239,0.081261665,-0.055933908,-0.04280463,-0.03631061,-0.042109456,-0.03742715,-0.042215876,-0.040938858,-0.03602144,-0.032996252,-0.0014640881,0.0052899695,-0.008411279,-0.060173076,-0.05938639,-0.12647107,0.03274748,-0.083435304,-0.046357833,-0.031276405,-0.011635141,-0.09511623,0.0012207573,0.006226572,-0.024199676,-0.04356874,-0.018997166,-0.047140744,0.023289783,0.03592196,-0.022284461,-0.083896175,0.012442914,-0.06558718,-0.009962101,0.033993088,0.009055497,-0.10140076,-0.04491788,0.0060386984,-0.019631095,-0.13388985,-0.03608249,-0.077949114,-0.08331082,-0.13755165,-0.009078792,-0.06917803,0.021921309,-0.06314573,0.06075942,-0.14449008,-0.015398709,-0.1570229,-0.08672243,0.054945946,-0.04258321,-0.012690939,-0.015009945,-0.05494014,0.027323127,-0.049570262,0.0201749,-0.020581314,-0.041404225,-0.095914066,0.0028599554,-0.04545024,-0.0814293,0.038745098,-0.0356462,0.08106232,0.02972489,0.08867988,-0.022148916,-0.012912127,0.0021086098,-0.05942162,-0.032549996,-0.15174519,-0.042472325,-0.083429694,0.0042350315,0.050849367,-0.02703397,-0.0050849747,-0.01930554,-0.052963257,-0.10168961,0.07191114,0.02985877,0.016496293,-0.029336795,0.05492853,-0.029874,-0.06811754,0.017855132,-0.017449338,-0.042503644,-0.021457454,0.025894947,0.02530927,-0.06833895,0.061738253,-0.16062973,0.026156655,-0.05238718,-0.018237896,-0.02259131,-0.01118038,-0.064386606,0.015358273,-0.010551517,0.0242405,-0.09964599,0.02020708,-0.0036750163,-0.08033372,-0.022772767,-0.075736515,-0.07101429,-0.0011156491,0.010108442,-0.059474487,0.013770707,-0.0851402,-0.027162336,-0.019117184,-0.091558,-0.033035662,-0.059153974,-0.054434985,-0.031025808,-0.012061046,0.0840009,-0.123069525,-0.022286009,0.018076839,-0.017943043,0.0056214356,0.06154154,-0.062871695,-0.056110125,0.018135967,0.016001573,-0.05558333,0.0045255963,-0.08175115,-0.03642081,-0.022249995,-0.03834106,-0.10304505,-0.002301773,0.015581649,0.054819044,0.0031071163,0.019007113,-0.006512229,0.027184362,0.0059738085,0.015725669,-0.021385878,-0.04392521,-0.10323178,-0.03963364,-0.05843608,0.059055097,0.03808377,-0.09125193,-0.06974019,-0.06056485,0.010411933,0.0950042,0.0025261492,0.043611847,0.0366531,-0.039679457,0.03647477,0.02040396,0.0045384783,-0.007033792,-0.014140688,0.030886307,-0.051772412,0.022871811,-0.12279752,-0.065055236,0.009312032,-0.031099156,-0.14121349,-0.036178503,-0.118560694,-0.036578827,-0.049748,-0.05157938,-0.0011967871,-0.019931857,-0.024810435,0.023771783,0.0070374417,-0.08855982,-0.0203145,0.0074737077,-0.03997911,-0.0184196,0.038903028,-0.012351914,0.05934887,0.0028090242,0.050089426,-0.072806895,-0.061378814,-0.106079444,0.046127982,0.11677295,0.01945072,-0.09636846,-0.059818916,-0.0043998137,-0.045942795,-0.04475174,0.029476605,-0.034016915,0.01884488,-0.040714934,-0.14305592,0.0029514818,0.016642468,-0.02658127,0.014774569,-0.0020331193,-0.02015046,-0.0026718716,-0.04236296
-1.3183804,-1.7723697,0.13402544,-0.059928603,-0.7412771,0.14842762,-0.46370918,0.68701786,-1.3792586,0.2609036,-0.06588138,0.045688957,-0.33086511,-0.3565075,-0.6832073,-0.22544184,-0.041114923,-0.07756296,0.11614946,-0.1837265,-0.7172291,-0.08153289,0.4355203,-0.1501604,-0.41112337,0.054227132,-0.1324333,-0.03900369,0.51884675,-0.29853806,0.0023226216,-3.2005746,-0.20485778,-0.032951906,-0.54575944,0.2296592,0.032646082,0.15345961,-0.33902144,-0.19957,-0.25481185,-0.49600616,-0.38574964,0.50062186,0.3155259,-0.25116575,0.34392175,-0.5064599,-0.056618683,-0.57277924,-6.541968,0.87243223,-1.625539,-0.2772432,0.16334623,-0.3319245,-0.08145616,-0.108466424,0.12597844,-0.9375898,0.03988301,0.30302793,-1.4697233,-0.099177375,-0.017749976,-0.955302,-2.6921582,0.5922062,0.43388417,-0.27427247,-0.40496728,-0.21112622,-0.16543585,0.16958168,-0.02405291,-0.5123096,0.10674897,-0.7898338,-0.08690452,0.88095164,0.13200939,-1.5415205,-0.39309433,-0.14684853,0.5638865,-0.46247923,-0.0004402012,-0.09903895,-0.010128382,-0.08991291,0.14307998,-0.0029366314,-0.25003406,-1.1178448,-0.261659,0.6855846,0.7019528,-0.23169771,0.0072915987,-0.13186724,0.26327112,-0.45373583,0.33605742,-0.07868376,0.016993012,-0.14736483,0.035395697,0.23459594,0.25970468,-0.037913434,-0.405864,0.18170415,-1.7331284,0.9916963,-1.5953354,-0.09863102,1.956489,-0.25437263,-3.4921372,0.35402504,-1.2732451,0.015267889,-0.011986665,0.07246111,0.948437,-0.68819875,0.6626928,-0.17924221,0.26850834,0.27465388,0.27612457,-0.11181037,-3.7322292,-2.3810086,-0.017800268,0.008028308,-0.04565428,-0.31689677,-0.13696396,-0.5296971,0.0205213,-0.39132324,-0.33934382,-0.049967863,0.14019272,0.18289788,0.012944281,0.14023261,-0.007773325,0.48239702,0.023143528,0.11553125,0.063510835,-0.30693683,-0.9652778,-0.6075737,-1.5602236,1.8455075,0.041660827,1.1256994,0.3103961,-0.20780492,0.53786606,-1.1900617,0.48493823,0.07008475,0.078064784,-0.12608176,0.28815752,-0.038308337,-0.008807672,0.6408593,0.05279302,0.2994522,0.30808064,0.12088166,-0.10609918,-1.3222647,-0.049546722,0.1249613,-0.884977,-0.02546145,-0.04065962,0.21210992,-0.04228227,0.700796,-1.1495578,0.05080007,0.14237921,-4.3417535,0.26713777,-2.9118855,0.04189627,-1.5549691,-1.18641,0.049414925,0.025152236,-0.11988379,-0.1490486,-0.15326543,0.63950753,0.049915254,0.6883421,-0.72012687,-0.21532756,-0.12398268,0.022499513,0.21274133,-0.8295813,-1.9848421,0.08049485,-0.87676954,0.30727586,-0.21463582,0.08337284,-0.08640457,0.049410097,-0.013542652,-0.32469293,-0.22567795,0.09259202,-0.73934376,-0.69452673,0.26492125,0.05372934,-0.0878244,0.053817492,-2.541816,0.119807,-0.63233256,0.040287018,-1.0664849,0.5808919,0.42582107,-0.27078956,-1.2879857,-0.5337924,-0.77256113,-0.39221153,0.09409749,0.16202377,-0.048847497,0.5283474,-0.035611957,0.3840126,-0.40450647,-0.40431374,-0.07669289,0.052546903,0.041269984,0.5192969,-2.7923899,-0.13857697,0.05353789,-2.1096728,-0.0035257638
-0.07316451,0.017916702,0.008412483,0.031845134,-0.005651119,0.037664313,-0.08352534,-0.029884547,-0.052037563,-0.06948903,-0.06271728,-0.07109192,0.018536774,-0.035461348,-0.06275662,-0.040334582,0.019103479,-0.037394922,0.016883934,-0.07298472,-0.06644007,-0.054992706,-0.031052953,-0.08879881,0.022182759,0.03670292,0.03374382,0.013254896,0.03421102,-0.024795419,0.023048759,0.022064162,-0.05895662,0.0034728162,0.029367745,-0.032673877,-0.054924082,-0.020191755,0.0129165435,-0.07328848,-0.07959919,-0.006615802,0.034541186,-0.07835781,-0.05202728,0.0007511556,0.041994736,-0.01746478,0.029536378,0.041319128,-0.050603434,0.03852124,-0.03134653,0.004018309,0.0036018023,-0.009838395,0.018821798,-0.01422722,-0.018332839,-0.034577344,0.040194184,0.0019740174,-0.006598768,-0.075752355,0.042212866,-0.060895056,-0.08346772,0.023253582,-0.046178132,-0.061406363,-0.0050262115,-0.0027976914,0.033982974,0.0036092629,-0.03592048,-0.009249817,-0.04573253,-0.012853745,0.04390068,-0.051675647,-0.06613726,0.007156658,0.0186669,-0.005351451,-0.059907474,0.006436966,-0.029003058,0.00056852703,0.04955731,0.011360952,-0.009788851,-0.014561281,-0.009413496,-0.011123324,-0.06782353,0.039903816,0.06521503,-0.03529762,0.02609699,-0.04035974,-0.029080966,0.01124802,0.02804012,-0.020749249,0.034199633,-0.071360685,-0.050015323,0.027190313,0.014663728,-0.013078389,0.029673034,0.015983598,-0.05992663,-0.06954184,0.008601439,-0.076323874,-0.032641668,-0.026154183,-0.07159279,-0.0020104258,-0.05731977,-0.06429752,0.0062823594,0.015744554,-0.014524579,-0.011990042,-0.04586465,-0.019267315,-0.055375755,0.044030223,-0.03472773,-0.041169085,-0.034959335,-0.037351348,-0.051428292,0.022221468,-0.081374764,0.04389102,-0.044096116,0.0120365,-0.08550897,0.044939797,-0.011991874,0.00721368,-0.09190624,-0.0009708385,0.020611696,-0.087992795,-0.0011411235,0.043110818,-0.043179747,-0.015220454,-0.0015051423,0.00661226,0.028709665,-0.007152174,0.028927444,-0.024261935,0.043653022,-0.042748563,-0.042708404,-0.029194633,-0.050136726,-0.05221763,-0.07133722,-0.06258681,-0.061053026,0.03394333,0.0335676,-0.04936686,-0.016784605,0.030107906,-0.029488076,0.03901135,-0.004234603,-0.02778475,-0.028385708,-0.06371206,-0.06944134,0.0067314515,-0.0064987345,-0.029421717,-0.0059107915,0.004830459,0.010404943,-0.05753656,0.016589278,-0.055433594,-0.015098064,-0.05342689,-0.07097434,-0.0008138103,-0.06287836,-0.057112537,0.0035608194,-0.030965947,-0.01343292,-0.039126065,-0.03817686,0.031903416,0.021386448,-0.019406784,0.032765184,0.011727695,-0.048816834,-0.018004607,0.019396836,-0.007916032,-0.061570693,-0.07056427,-0.10577182,-0.0011583244,-0.020418834,-0.056832343,-0.025464669,-0.05756149,-0.02368746,-0.05251208,-0.0838148,-0.05508322,-0.0041124225,0.016078422,-0.03581352,-0.045906577,-0.059188895,-0.009604491,0.037183624,-0.038435288,0.048003484,0.031034363,-0.083128184,-0.004476055,-0.047251284,0.022027573,-0.0062973783,-0.02936075,0.01754168,0.0313203,-0.020542786,-0.00283067,-0.004107494,0.016652815,0.0034538556,-0.026404493,0.02644633,-0.020017728,-0.054125246,-0.012985795,-0.07221413,-0.02496597,0.037212644,-0.04601372,-0.0020252524,-0.022071782,-0.057735436,-0.039922424
-0.33266965,-0.6126132,-0.5382767,0.5205997,0.6294203,0.3698832,-1.4905787,-0.85018414,0.26030722,-0.33481717,0.062244836,0.24786668,-0.031235559,0.023211943,-0.9777394,0.097568095,0.33356783,0.16932571,-0.3487164,0.22042787,0.17524482,0.2724492,-0.7513405,-0.0731134,-0.2333723,0.2242174,-0.005433447,0.05312361,0.8756346,0.5399557,0.032294348,0.29488963,-0.07775487,-0.37116557,0.08113631,-0.22534941,-0.18856682,-2.488635,-0.2554947,-0.2588506,0.33353972,-1.5928507,0.14874472,0.48587707,-0.3150538,-0.2260144,1.1065067,-0.30681577,0.043036237,-0.22516327,1.3250037,-1.0177732,-0.0059863753,-0.65389806,0.079434045,0.2585871,0.08748598,-0.06869509,0.005290296,-1.3421813,-0.0130216405,-0.08235636,-0.81686455,-1.0507618,-0.29113197,0.012699774,-0.076120384,-0.54948926,0.313287,0.5159,-2.0771053,-0.04932722,-0.8786861,-0.30191177,-0.06403558,-2.0965362,0.70389354,-0.5200866,-0.42329118,0.3054348,0.0065664942,-0.019428778,-1.0028241,-1.1266907,-1.0543028,-0.30413437,-0.10564841,-0.92350084,0.040769074,-0.102958694,-0.33481058,-0.06242779,-0.4765891,-1.0792484,-1.5924295,-0.37713766,0.3652659,-0.0034047444,0.38995215,-0.025343765,-0.5238611,-0.4295478,-0.9665645,0.052767,0.32048622,1.5916299,-0.035947315,0.1195693,0.31775764,-0.13256514,0.047792625,-0.29378197,-1.3635068,-1.1507998,-0.45598504,0.009554472,0.20687114,-0.7891599,0.7057416,-0.08341073,0.29462624,0.32690734,-0.055399105,-0.05126851,-0.37768376,-1.7573588,0.14412099,0.49233124,-0.9509848,0.7193281,0.5216216,-0.031521093,-0.04391783,0.05872679,-0.30122334,-0.014277153,-0.71909225,0.37609214,-0.033223376,-0.38040984,0.11382564,-1.7953275,0.023323819,-0.22806431,-0.20114173,-2.1639962,-0.05030854,0.013336948,-0.038370512,0.47468084,-0.72579646,-0.15674001,-0.34157515,-0.05933031,-0.06818383,-1.7514762,-0.6806563,-2.1757977,0.21732539,0.6488292,0.063151725,-0.05467269,0.23489507,0.15441631,-1.9628617,1.486751,-0.40250474,-0.1804043,1.3935062,0.14905,-2.1759782,-0.4261069,-1.254089,-3.020586,0.35127616,1.7452893,-0.0847468,-1.4861437,-0.06695818,-0.5204833,0.17102852,-0.021191247,-0.03738438,0.18476172,-1.3082063,1.988245,-0.5464957,0.054644845,-0.9537788,-0.90885353,-0.19123106,-1.6677843,-0.040957477,-0.3543351,0.32667604,0.011530317,0.014981784,0.3011745,-0.14401005,-0.3298222,0.64356023,0.2933397,0.555055,0.2416905,0.029447729,1.6385663,0.6166005,-0.7973469,-2.127771,-0.88640106,-0.1508203,0.47818223,-0.1648947,0.26794937,0.2318917,0.20629257,0.05953578,-0.82010835,0.2077459,0.19388452,-0.30648187,0.39111394,0.70066905,0.8654995,0.07286633,0.048865296,-0.12882385,-0.0720586,-0.49302503,-0.6034335,-0.15342246,-0.73595124,-0.5245532,0.19689578,0.5451668,-0.09406919,1.8282397,-0.27782622,-1.7057664,-0.025741016,0.98866606,0.053752832,-0.8949869,-0.027653128,0.50008136,-0.09593949,0.677463,0.49809003,0.6259278,-0.31404805,1.1708513,-0.031631034,0.15080535,0.4388635,-1.2659048,0.057602927
-0.029237734,-0.033462755,0.018286055,0.054633804,0.00089132745,-0.062260587,-0.06446324,0.018471181,0.05014876,0.037974305,-0.03237456,0.030865565,0.025548412,-0.060121775,-0.020563914,-0.055651248,-0.03380652,0.0015703976,-0.029214855,-0.009632648,-0.048917677,-0.038547058,-0.029681956,-0.033239618,-0.052103397,-0.021420859,-0.030325582,-0.046290167,-0.048674956,-0.04508028,-0.05909078,0.016789164,0.0045345756,-0.06593411,0.039878078,-0.008641677,-0.04546342,-0.0021797675,-0.04816903,-0.029395796,-0.027939321,-0.044764973,0.03845521,0.04971842,-0.04865731,0.04369189,0.01893805,0.00974781,0.030679861,-0.041965257,-0.01462086,-0.034180824,-0.03710503,-0.04587683,0.044894375,0.032578614,-0.02925337,-0.012667819,-0.047213726,-0.038794342,0.041750118,0.038142327,0.009333465,-0.032544833,0.02862045,-0.05146553,-0.027802875,-0.010775503,0.033940196,-0.0073580164,-0.0082768025,0.023069298,0.0023036557,0.05646209,-0.04993725,-0.058126584,0.010582041,-0.058251757,0.018410275,-0.0052610585,-0.049157135,0.035537474,-0.0046353946,0.026675336,-0.067788236,-0.013189217,-0.045686726,-0.09129237,-0.05612479,-0.033428594,-0.016942259,0.060104124,0.027094215,0.0484143,0.056366455,0.021641036,0.04374414,0.00486494,-0.0334878,-0.02897652,-0.016610635,-0.05532842,-0.0046252473,0.059652112,0.03932689,-0.05255173,0.050488226,-0.011006089,-0.0062356736,0.025464322,0.015644608,-0.02318915,-0.014450137,-0.055767767,-0.03906119,0.019657383,0.0013627866,-0.0013625592,0.008080163,-0.034367684,0.020921102,0.061747685,0.019624628,-0.020642873,-0.0282977,0.009523508,0.046020586,-0.00905543,-0.034304645,0.052011352,-0.041027952,-0.048246905,-0.030774659,0.041001525,-0.05980099,0.028635003,-0.05874961,-0.03749783,-0.03585695,-0.03696459,-0.032630652,-0.025648495,0.0098566795,-0.038988326,0.020741561,-0.014860939,-0.010661028,-0.059296343,0.045443445,-0.0044850437,-0.0101889195,0.008758582,-0.03693663,-0.035744123,0.023089055,-0.045799118,-0.07324436,0.0009165095,-0.055732787,0.030747341,-0.01998225,0.008759008,0.024434226,0.031049889,-0.028643982,-0.009050054,0.038119677,0.004343056,-0.0167122,-0.023804111,0.010145877,-0.030687928,-0.004662647,0.018639147,-0.07362987,-0.06352222,-0.050221168,0.008980772,-0.034019478,-0.043448217,-0.04310412,-0.013164379,-0.032090284,-0.0026440683,0.04619971,-0.021481805,-0.03645612,0.018117882,-0.05967314,-0.033087842,-0.025314676,-0.041663013,-0.03581011,-0.041562162,0.029625796,0.04490654,0.0039660186,0.02154022,-0.003448916,-0.035593737,-0.05130923,0.03919432,0.008086873,0.03269993,-0.0025944645,0.051834907,-0.009310483,-0.028942484,-0.035755992,-0.041026484,0.03673625,0.0024770582,-0.063906446,-0.026784247,-0.021542072,-0.032988664,0.055253096,0.027715206,0.016533973,-0.059144195,-0.05147777,0.039686177,0.04129782,0.0030920077,-0.006268823,-0.04795648,-0.0033944068,-0.034610532,-0.05366716,-0.049702942,-0.015821464,0.021686891,0.04530752,-0.054087143,-0.04829891,0.020772731,0.024177352,0.04474816,-0.017131768,-0.005346031,-0.058821876,-0.040542193,-0.04512428,-0.01706887,-0.06141554,-0.0037487736,-0.058718707,0.036258984,0.0033225045,-0.055838905,0.005292727,-0.011229972,0.017281242,0.026659813,-0.01748368,0.032458045
0.78602844,0.4163054,0.20069993,1.0381182,0.8120659,-0.34815797,-0.06026291,0.29109937,-0.11989249,-0.048318345,0.060755163,-0.13354994,-0.4293433,-2.1974137,-2.0017605,-1.2823876,-0.07145787,-0.21067204,-0.19655357,-1.0368943,0.5940584,-0.035348985,-0.028412638,-0.28110483,-0.32843933,-0.039336387,-0.16472009,-0.029605733,-1.6082911,-3.9816234,0.017034464,-3.1055603,-0.40690964,0.13222086,-0.050619237,-0.29812723,0.13615637,0.052344985,0.17549694,0.13767453,0.61311656,-0.12232974,-2.0589378,-1.1990389,0.9398554,-1.4031985,-0.4284147,0.11643287,-0.25370905,0.19592863,0.3199854,-0.90074295,0.6733875,0.0749563,-0.068354204,-1.9259883,-0.0074593304,0.21046795,0.06089838,-0.06627819,-0.019864425,-0.1917736,-1.696178,-0.73485225,-1.3729943,0.42633694,-0.799688,-0.7382099,-1.6329695,-1.0255053,-0.6719278,-1.4861904,-0.5754228,0.8616617,0.10265751,-0.03004043,0.8030728,-0.9380546,-0.040637184,-0.2948087,-0.09854201,-0.032416712,0.16251259,-0.09057516,-1.6091967,-1.4332346,-0.06250565,-0.025915962,-0.5142855,0.065027125,0.5227188,-0.047327295,-0.10371424,-1.4656765,-0.3393282,0.17279416,-0.9788617,-0.55491805,0.09204285,-0.045161337,-0.4759894,0.55603266,0.3771017,-0.68411124,-0.17584485,-2.7640605,-0.024853095,-0.05330598,1.4734519,0.045912698,0.85079116,0.19450158,0.10214592,1.7198619,-0.4433483,-0.046660777,-0.2105306,-2.36503,-2.980387,0.009386573,0.9575641,0.6518282,-0.05917392,-0.5059589,0.15828803,-1.8884172,0.26163948,0.9032424,0.04322493,-0.72902596,0.0047959625,-0.10123438,0.29213992,-4.891392,0.25535727,0.0593692,-0.39898857,-0.84076893,0.08420047,0.52178425,1.3202907,-0.07131823,0.12791847,-0.26266947,-0.013095554,0.22970061,0.014575228,-0.12839182,-0.028466977,0.5033612,-0.14283434,-0.02743144,0.31808814,0.09445524,-1.6866795,0.43773267,0.634544,0.38385913,1.1543934,0.48153746,-1.0039725,-0.19769676,-0.011593572,-0.054257605,0.22565275,-1.9232824,0.0053600036,0.021830937,-0.3340537,0.001173029,1.6347651,-0.6458946,-0.27959314,0.35027966,-1.7932742,-0.8352116,-1.1087844,0.49510163,-0.19135918,0.14925842,-0.42816272,-0.011392996,-0.040757738,-0.08045023,1.4305289,1.0951909,-0.20849912,0.006145805,-0.033560302,-0.63733107,-0.28916508,0.16395065,0.04802463,0.5615065,-1.4165124,0.04889202,0.048318446,0.5392431,0.036660284,-0.5542648,-0.19018951,-0.7660197,-0.1635445,-1.5005755,-0.13382605,-2.8079262,-0.26191187,-0.21281996,-0.120211154,1.0564219,0.037904628,0.3529332,0.2749307,0.3648299,-0.8077126,-1.2382789,-0.04346238,0.12972674,-0.078327045,-1.2439185,0.48914787,-2.6595926,-3.7086167,-0.1823235,0.11444644,0.9505763,-0.02875256,-0.47775418,-0.13195215,0.3086207,0.18704104,-0.66190666,-0.6357592,-0.95683193,0.25725454,-0.13533759,0.73477083,-0.07196494,0.46774662,-0.13815342,-2.3034387,0.058062844,-0.034818072,-0.0059273317,0.15947722,-1.1612154,-0.87167835,0.63065326,-0.12818784,-0.54097956,-3.6957278,1.0958146,-0.6281157,-0.46975493,0.20140886,0.028841026
-1.1550881,-3.424689,0.6641432,-3.6832845,-1.1858096,0.25796613,-0.5380222,-1.4632572,-0.41103175,1.1049477,-0.23995616,0.08039707,-0.28000954,-0.082880095,-0.043013446,0.48689348,-0.3035075,-0.4320695,-0.36562863,0.22820354,-0.3133205,-0.47011247,0.6505479,-1.8526725,-0.33253533,-0.00076487055,0.903964,0.0049175946,0.09211969,0.4145496,-0.055799447,-0.82566977,-0.20467328,-0.30500937,-3.2326794,-1.4167726,-0.11625099,-0.12114546,-0.6189726,1.1680496,-0.7792652,-0.54399824,0.09930562,0.97918975,-0.64779687,-1.810621,-0.6392597,-0.2664466,0.5241466,-0.36705413,-0.4354291,1.5013852,-0.0132519705,-0.48389292,0.36975273,1.4229645,-0.028027095,-0.3739026,-1.5198759,-0.6516016,-0.031126872,-0.23208524,1.891431,-1.0452088,0.3533686,-1.668091,-1.23,-0.15434171,-0.042222455,0.46766752,-0.17079705,-2.4218154,1.1040407,-1.5874596,0.01747869,-4.712506,-0.39752558,0.7396144,-0.32043734,-0.4121407,-0.31412238,-0.079342276,-0.49879363,-0.73284876,0.7524095,-1.294186,0.026130278,0.27383286,-0.79916203,-0.0421253,-0.8239739,0.044516787,-0.49545962,-3.1705287,0.08836058,0.8250178,-2.4707644,0.8827051,-0.099852756,-0.12406185,-1.5135934,0.23155372,-0.2908653,-0.0012507609,-0.065894276,1.143109,-0.056639895,0.2279788,0.095790595,-0.06715011,-1.081856,1.0194495,-1.7189302,-0.38188878,-2.2255316,0.055375572,-2.7265928,-0.45399576,-0.19086483,0.022966571,0.6588998,-0.63440216,-0.05001259,-0.060685087,-1.7917377,-3.7249641,-0.7807569,-0.8295298,0.9267827,-0.12552197,0.25323635,-0.3637431,-3.7283459,-1.7341033,-0.5006733,-0.008784814,-0.81467134,-0.7278941,-0.14402215,0.71298784,-1.1400312,-1.3205776,-0.0683902,-1.8855954,-0.94934636,-0.58875465,-0.04489313,-1.4596117,-3.7059188e-05,1.1371115,-0.8119229,-1.0328926,0.13213246,-0.35753566,-2.281252,-0.65405416,-1.0632675,0.30642492,-0.81936145,-0.014783162,1.4168715,-1.7652178,-0.024992267,-0.8658765,0.28956336,-0.029664107,-0.2203977,-0.7266954,-0.5085089,0.024194844,0.14866248,-0.31569096,-0.90015435,0.12797168,-0.6565338,0.16020024,0.55268294,-0.37942007,-0.08197716,0.3489841,-0.0027469834,-0.05707039,-0.04252029,0.4683743,-0.028068712,-2.262679,-0.17962606,-0.014778957,0.4152637,-0.92763764,0.37787378,-0.37018174,-0.02765697,0.25493565,-0.4379726,-0.041596867,0.035045043,0.068193436,-0.1225498,0.26239774,-0.66656345,0.41769022,-0.04947116,-1.3341482,-0.27630693,1.1405191,-1.6992551,0.32351407,-1.5547441,0.44044733,-0.37580234,-0.62239915,-4.4233956,-0.990129,-0.3235274,0.6833495,-0.05245141,0.035321694,-0.22394688,0.11902408,-0.7682595,0.6885411,0.65178204,-0.27183667,0.451117,1.065029,-0.03286626,-0.26572153,0.13658337,-0.94980615,-0.20008229,0.27449518,-0.87353206,-1.1246052,-2.0961647,-0.48773435,0.4125683,-0.39408877,-0.057690512,-0.0017781563,1.0130488,0.01059256,0.38949794,0.031675555,0.74606067,-4.0571227,-1.004341,-1.4316052,-0.3100902,0.3372982,-1.0246044,-1.2969767,-0.16307284,0.51393807,0.2207066,-0.0022583082
0.15481813,0.7342652,-0.21971782,-0.14515986,0.1134994,-0.1267285,-1.4208783,0.45450866,-2.2468922,0.78723514,-0.15852085,-0.11151273,-0.077504344,-0.34101987,0.49285397,-0.18869282,0.10118714,-0.019305887,0.04863286,0.13425517,-0.3404797,-0.06770171,0.12613322,-0.5085018,-0.05927119,-0.7356865,0.49061736,0.05585512,-1.4867649,-0.33408323,0.047113262,-0.18340617,-0.5569035,0.17781387,-0.0975099,0.12704416,0.007001584,-0.3079106,-0.21740995,0.29273397,0.13133746,0.22140796,-4.111923,-0.7013824,-0.17252967,-0.36942273,0.6465439,-0.0014180524,-0.16150677,0.15714072,-0.5392406,0.38261518,-0.04487599,0.15179169,-0.0454058,0.19465849,-0.03647493,0.3710476,-0.5097197,-0.2159193,0.011122175,-0.32887444,-0.018983783,-0.90486795,0.7386684,0.6077724,-0.19504535,0.29895782,0.27073216,0.1350021,-0.30164355,-0.6139007,-0.19376379,0.61620605,0.08612308,-0.01715896,-0.22603709,1.3049045,0.0018651277,-1.7388225,0.27094194,0.10987222,-0.47680783,-0.30676565,-0.18276088,-0.08604783,0.05349721,0.44946897,-0.7138297,0.029101675,-0.57844764,-0.0377322,-0.010646635,-0.021975823,-0.16433506,0.80753434,-0.39863697,0.03187859,-0.115481906,-0.27126664,-0.238416,0.13436268,-0.6373089,-0.43840832,0.052580006,0.13513702,0.009146668,-0.23471193,-0.16344082,-0.04517988,0.33044675,-0.35169256,-1.5728884,-0.18419483,-0.11233264,-0.2882812,-0.919268,0.5733557,-0.042626087,0.06950809,0.34240657,-1.2701706,0.0053446665,-0.4712432,0.2182769,0.007335257,0.27514556,0.36605728,-0.2803417,-0.13173017,0.9184032,0.1421383,0.15630546,0.33398905,-0.7671579,0.0015768572,-0.21387623,-0.17087938,-0.10364442,0.48905888,-0.5775639,-0.44445565,-0.11132079,-1.4104894,-0.23376375,-0.17420006,-0.042540707,-0.064141355,-0.059402473,0.64538,-0.12084962,0.08389773,-0.037050065,0.14420696,0.20077112,-0.45433813,-0.6650349,-0.14462471,0.3540324,-0.15455869,-0.20128274,-0.28564286,-0.21310796,-0.47245482,0.098628215,0.47976503,-0.35143137,-0.071739696,-0.060550798,-0.10374893,-0.6754678,0.5560508,-2.9692965,0.29104105,-0.7967893,0.12867327,-0.08411032,0.38330185,0.040472515,-0.10975504,0.21120577,0.054670304,0.048021723,0.1598485,0.18331614,0.050615184,-0.05504696,0.04011725,0.117537394,-0.53303933,0.33282045,0.3959047,-0.02981749,-0.13888171,0.2362589,-0.02385354,-0.056260332,-0.06537239,-0.06272513,-1.1860754,-0.27115127,-0.06731354,-0.25752255,0.10127385,-0.020549856,0.15293294,-0.14441848,-0.8603129,0.30635643,-0.33038524,-0.18907726,-0.4212388,0.07203605,-0.02847713,0.15528497,-1.0326093,-0.053384393,-0.049776755,0.05131272,-0.5954315,0.45779517,-0.2855022,0.4022437,-2.0885203,-0.025898399,0.54742193,-0.27780744,0.22802739,-0.9914553,-1.7892426,0.07660742,-0.22201835,0.27371106,-0.017830344,-0.11711933,-3.9771724,0.17764722,-0.061024103,0.33921343,-0.009579112,-0.4376036,-0.012529913,-0.14985882,0.036030315,0.37947565,-0.7928194,0.4786403,0.6699023,0.17643484,-0.7096942,0.15994906,-0.44795486,0.9132624,-0.052793264,-0.23952854,0.0014418215
0.64928955,0.4050031,-1.4699149,0.3515851,0.12689301,0.50015813,-0.5776956,0.21426871,-1.7730001,-3.1140862,-0.23189156,-0.030938702,-0.0731371,0.35478044,-3.5438962,0.33734083,0.14562905,-0.3919478,-0.4753283,-0.30770835,-1.6094273,-0.22094432,0.21638027,0.36557108,-0.84007215,-0.005376987,0.13362686,0.056577828,-0.25430587,-3.736996,-0.006610632,-1.8640358,0.23304468,0.27984068,0.046883028,-0.7544258,-0.057088424,-0.047254976,-0.15981594,-1.8044138,0.14384687,-0.39014724,-0.24531674,0.7721948,-1.0128287,-0.70329946,-2.8632116,-0.4289459,0.3883382,-0.24148509,-0.8615807,-0.4209901,-0.62823075,-0.33173922,0.8934368,-0.85456604,0.016121337,0.3870818,0.11259597,-0.44450468,-0.02947624,-0.16075914,-0.09978604,0.12740567,-1.8725873,0.006159314,-0.7149786,-0.798901,0.37122375,-0.10872702,-0.071456596,-0.048079703,-0.4527935,-0.039634295,-0.006731994,-0.54411304,-0.40730205,-0.094743535,-0.21874677,-0.021519568,0.30815294,-0.024570322,-0.56306463,-0.21642478,-1.4849466,-1.3508036,0.07938854,-0.18289967,0.32684734,-0.0144539885,0.15317369,0.030831844,-0.09801821,-3.830086,0.56052905,0.27771142,-0.11635514,-0.66259277,-0.08635038,-0.07761213,-0.030682888,0.27270603,-0.049745504,0.21033783,-0.7421212,0.86383915,0.03111548,0.059527516,-0.8666002,-0.06888269,1.8979301,-1.6723131,-0.17361052,-2.1726885,-1.478973,0.005191378,-0.018844083,0.27649477,-0.09062576,-0.10960468,-0.16912569,0.7754712,0.024772994,-0.76852506,0.19688086,-4.4846,0.4539901,-0.665081,0.4271795,1.1397324,0.28302026,-0.2179362,0.45446464,-3.3170986,-0.16887903,0.018042408,0.2567104,-0.5147159,-0.114649996,0.35813612,1.3652459,-0.5176461,-0.19793016,-0.24398582,-0.41083503,-0.30405506,-0.034879364,-0.5310831,-0.04297246,1.044303,0.49374,-0.0066100177,-0.2746843,-0.116751716,-1.3014911,-1.7198035,-0.61524355,0.4958873,-1.5583531,-0.847787,0.22698808,-0.74538547,-0.024513485,-0.12159202,0.20350955,1.4320029,-0.40512145,0.015539087,0.6242825,-0.07197579,-2.5370512,0.012196021,-0.15378033,-1.0346996,-0.1895266,0.5743884,-0.7837384,-0.31976092,0.011523202,-2.0088656,-0.23348111,-0.03327605,0.0033052787,0.042425025,2.1750357,0.5835337,0.4807408,0.012256041,0.25200397,-0.21878065,-0.33696547,-0.5549417,-0.0027305323,1.4374601,-0.59328485,-0.0077286586,-0.04905595,0.9530921,-0.178133,-0.9684858,-1.2409213,-0.14996147,1.081018,-2.5673518,-0.56924486,0.66560996,0.011690042,-2.30155,-1.034421,-0.14553888,0.60604054,-1.815704,0.031637393,-0.6279748,-0.15592252,-0.2713116,-0.023695655,-1.1923141,-0.04294506,-1.7104195,-0.14942405,-0.35165164,-2.6034844,-1.454864,-0.045965027,-0.114565,-0.00588116,0.6555708,0.21843992,-0.5350998,0.031424943,0.26295137,-0.51031613,-0.47139418,0.056960136,-0.24124531,0.004528239,-0.18503265,0.839525,-0.09162616,0.6213499,-0.013157394,-2.007203,-0.026348494,0.76657283,-1.0028809,-0.04456097,0.58183634,0.24233297,-1.7155801,-0.4480578,-0.35305554,-2.1108792,0.016082183,0.0073328037,0.0026408806
-0.8333794,0.500355,-0.5244597,0.08937957,-1.9724845,0.123612255,-1.0444299,-0.19263071,-0.121955566,0.4263158,0.09446922,0.0794141,-0.13386032,-1.4456784,0.6957866,-0.36688423,0.027936982,0.06707288,0.12626176,0.7004963,0.29952562,-0.26521394,-1.2679427,0.07245106,0.3184372,-0.28335094,0.5085706,0.026298761,-1.7926434,-1.7033557,0.04076522,-0.34821457,0.48859298,0.19713193,-1.3139377,-0.038657293,-0.01587708,0.22801228,-0.10171681,-1.3992333,-1.0434312,-0.5810972,-0.4095907,0.53935766,-0.05528628,-2.3392084,-0.42495292,-0.26609138,0.5177294,-0.21944103,0.004878864,-0.7853287,0.2523436,0.41729075,-0.08379019,-0.9216312,0.033818264,-0.64348346,-0.73718965,0.190189,-0.042114325,-0.20768207,-0.075239934,-0.17011552,-0.68967,-0.5765523,0.33991447,-0.31633317,-0.3766394,0.26830423,0.02322601,-0.4910578,-2.4931364,-3.068787,-0.027027069,-0.35540357,0.04027171,-0.0511759,0.058688566,-0.6577055,-0.0127649,-0.7578348,-0.77501774,0.21180907,-0.69148237,-0.41865563,0.1100686,0.4503934,-0.31413552,0.024029398,0.7205104,0.048314676,-0.12144347,-3.121653,0.32123291,-2.603409,0.3437713,-0.5949835,0.32792595,-0.024588473,-0.28291026,-0.21749756,0.15616143,0.023688631,-0.04515614,-0.31768087,0.032757044,-0.5172764,0.09983436,-0.16252644,-0.62856793,0.4180648,0.3070638,0.8606825,0.23111166,-0.55005354,-1.695857,-0.17842522,0.16098213,-0.7795544,-0.5322257,0.199085,-0.046192385,-0.51621455,-0.77193564,-4.877567,-0.580134,-0.8573365,-0.014285648,0.4761563,-1.4976575,0.09488221,-1.0848029,0.19407195,0.24863805,0.034449466,0.08161679,0.028208328,-0.034188528,-0.13669772,-0.09061819,-1.0075399,0.014808205,-0.22406974,-0.45251805,0.37950113,-0.05310803,-0.31054273,-0.058306403,-0.8326941,0.82103455,0.402493,-0.03598395,0.07734364,1.8071941,-1.1227978,0.6498912,0.18322882,-2.9149518,-1.513168,-1.0256433,-0.80718046,-0.5474142,-1.7675328,0.39050516,-1.4023106,-0.9192082,-0.07359144,0.20818156,0.0054059257,-2.0852413,-0.1854374,-0.18268289,-0.5059656,0.17113061,-0.11166554,-0.99843293,-0.10599922,0.040724233,0.17746282,0.03194941,-0.028516404,0.03273869,-0.71752405,-0.40006408,-0.19801609,-1.641293,-0.01484067,0.10177794,0.31771195,-0.16703337,1.1353242,0.054790027,-0.9724026,-0.19913992,0.048748,0.058246553,-0.4687209,-0.10233886,-0.69176733,0.20635802,0.3022232,0.43766016,0.37624452,0.095584564,-0.24194303,-0.5335577,-1.0734333,-1.2264458,0.076410845,-1.3861129,-1.0775837,0.22823681,0.25276068,0.22185425,-0.25679553,0.05828137,-0.5045895,0.07200516,-0.03078614,-0.15169042,-0.97625774,0.096536025,-0.17813116,0.059211824,-1.0316026,-0.35094425,0.14746039,-0.3903713,-0.77622586,-0.07426929,-3.354106,-0.9085346,-0.018028349,-1.2995409,-2.7760408,-0.07584632,-0.3284769,0.36529976,-0.03802009,-0.030427104,-0.041657936,-0.14355905,-0.0584108,-2.7548785,-0.8825852,0.20518783,0.014156861,0.07822801,-1.7718556,0.2789677,0.42431644,0.5502375,0.23454906,0.552912,-0.05176598
