0.20017745,0.33974537,0.57594544,0.26617542,-0.51966065,0.34687763,0.5498087,0.012019417,-0.026916167,-0.028379008,-0.008538455,-0.9032597,0.14971945,0.039216086,0.03524308,0.12555361,0.022596886,0.10641197,0.15502267,0.032903958,0.21908782,0.513611,0.42580768,0.5495954,0.5401594,0.03609794,0.007729844,-1.253111,0.006210746,0.032925237,0.24162833,-0.03401738,0.73560774,0.16161792,0.018518796,0.118044235,-0.023463828,0.08405514,0.21505325,-0.4844431,0.045959856,-1.8076087,0.029777875,0.057023093,0.39813334,0.6425303,0.47835287,-0.0069120983,0.44164228,0.45199433,0.08650903,0.28339806,0.31677577,0.16092071,0.40708613,0.30394787,0.43856508,0.40448537,0.09507701,0.24060778,-0.023877816,0.050277647,-0.05649166,0.30609494,0.25657496,0.46399346,-0.058355387,0.6392783,0.09505779,0.29957747,0.2822638,0.010539982,0.49341688,0.08820659,0.021174032,0.6775988,0.5697713,0.004423739,0.11732017,0.3587073,0.955371,-0.9649765,0.48607337,0.122930616,0.39242125,0.3940796,0.21021901,0.107486896,0.44708294,0.45923463,0.31061795,0.053087596,0.41399795,0.4792814,0.25419682,-0.015165206,0.06306156,0.073621,0.51909095,-0.008474463,0.2083849,0.046886787,0.020535953,0.024376007,0.114177644,-0.043948047,0.20800519,0.12840961,0.048364684,0.002976589,-0.20559764,0.31066713,0.19824381,0.21737768,-0.08732658,0.18794294,0.02142375,0.37471792,0.18859433,0.86869407,0.0009685946,-0.33143157,0.024721181,0.2908979,0.23649685,0.095315196,-0.29932642,0.5706037,0.29288888,0.18530063,0.11249721,0.045518048,0.15112095,0.26854596,-0.76006144,0.27327707,-0.49329942,0.13414182,-1.0711201,0.2690109,0.03566449,0.10493678,-0.12702812,0.90851545,0.07285676,0.19961771,0.25475916,0.17532544,0.19935703,0.16510625,0.34900784,0.20513967,0.6805057,0.04531311,0.12150213,0.006157979,0.09475132,0.17605162,0.03909301,-1.3244463,0.13234527,-0.005610325,1.83778,0.10085345,-0.75507385,0.0148352105,0.70698076,1.0588708,0.028318182,0.1710347,-1.6625164,0.20760006,0.2809234,0.1655641,0.6569957,0.009692945,0.13483775,0.015408187,0.019390445,0.015888825,-0.027246479,0.07391787,0.2635415,-0.04703274,0.037757475,0.18372737,0.25697574,0.7191915,0.1301415,0.12535475,-0.00887979,0.14399083,-0.01120191,0.29953104,0.131073,-0.056972448,0.63711107,0.06671622,0.06614134,0.4451987,-0.06325792,0.2877742,0.43969935,-0.01245236,0.55721915,-1.0056202,0.40425846,0.30124736,0.1873622,0.49759373,0.42996922,-0.04918256,0.41296437,0.7047603,0.41253594,0.37477645,0.02605098,0.6078867,0.166161,0.66415477,-0.07659963,-0.777924,-0.51039183,0.46580398,0.23664035,0.0077834865,-0.017523158,0.3217491,-2.6608632,0.0037835946,0.007924618,0.054773312,0.030868487,0.20090733,0.2565822,0.43974707,0.04384755,0.95616347,0.31228837,0.5065442,0.53772897,0.52758825,-0.013350412,0.109968305,0.20686042,0.7927131,-0.23455764,1.079349,0.33940664,0.1627938,0.7382903,0.40016997,0.19395797,0.4085602,-0.005774254,0.1739214
0.20205936,0.32979086,0.43648872,0.47298035,-2.8689258,0.3338352,0.5597235,-0.074005,0.009125858,-0.037084185,0.23709849,-0.91194427,0.15016688,0.031106168,0.03666513,0.12627299,-0.06783212,0.10598274,0.15836284,-0.03413883,0.27223012,0.6500543,0.36472493,0.51951116,0.7270084,0.080984294,0.06595559,-0.6839887,-0.008947972,-0.019543823,0.18544331,-0.027290612,0.7523054,0.17461129,0.0004968914,0.11469542,-0.042522226,0.08189981,0.21397205,0.20091783,-0.014702384,-2.3429153,0.07152871,-0.011486605,0.40907875,0.65977,0.5099685,0.02631364,0.42018193,0.39086175,0.047263984,-0.005931691,0.31223544,0.16477177,0.34055206,0.31818798,0.35412142,0.39962667,0.092888884,0.24036638,-0.044931043,0.0077190627,-0.14195013,0.30832222,0.28203246,0.56248075,0.004457091,-2.034222,0.117820926,0.30120677,0.286477,0.030055156,0.5217737,0.10362958,-0.02033056,0.6787789,0.5309356,0.0068800715,0.111042835,0.26722598,0.9255624,0.15521309,0.48650432,0.12922682,0.39667383,0.3680989,-0.72692484,0.10575642,0.44968542,-1.9036747,0.37365204,0.017932255,0.42923707,0.48852247,0.78607005,-0.02358367,0.10953251,0.06524392,0.55122364,-0.0034888873,0.21111067,0.02237212,0.053608082,0.008254661,0.11442775,0.056722634,0.16883592,0.12521408,0.0136414375,0.092441455,-0.23944263,0.28602958,0.30200797,0.20800461,-0.045489777,0.2103702,-0.038115166,0.3729708,0.16724429,0.8356751,0.0012377244,-0.607636,-0.014933433,0.2883818,0.20653722,-0.016198257,0.049976226,0.45492133,0.6396386,0.2234077,0.11703091,0.044710986,0.16566932,0.30256033,-5.2300696,0.2783428,0.44099534,0.12936394,-1.2939059,0.2726387,-0.028032538,0.10275674,-0.25911263,0.86835855,-0.051879458,0.20387387,0.2548399,0.16914529,0.20388591,0.18095922,0.34440815,0.11901119,0.6988717,-0.02003023,0.11966344,-0.0040770154,0.115692936,0.17155184,-0.021566315,-0.57306135,0.13547094,0.017293388,1.8521935,0.09601266,0.15478018,0.06326157,-2.9320478,0.9328099,0.047549237,0.16796403,1.2347789,-0.47086903,0.24882607,0.16382596,0.5569461,0.031983424,0.13591452,-0.07339512,0.006363704,0.029854534,-0.0024023962,0.36813688,0.25355408,-0.09896184,0.07340711,0.17246516,0.24380504,0.7150453,0.13261776,0.3575442,0.011951729,0.15311009,-0.020012386,0.30000338,0.13287511,0.014245784,0.6446165,-0.022310792,0.04785573,0.36732873,-0.010129327,0.29310876,0.45197156,0.03450184,0.5597282,-0.69314086,0.42847815,0.2786165,0.18858638,0.5095049,0.43591923,-0.012670438,0.39990783,0.7253595,0.4397853,-4.4336514,0.038196076,0.6164652,0.17353411,0.70301336,-0.10616325,0.078254014,-3.535251,0.4739172,0.23196112,0.14213361,-0.0470182,0.36885425,0.2574464,0.018846948,-0.0016452947,0.16055635,0.020694237,0.18922602,0.2704334,0.38997295,0.052570023,0.68717515,0.2127968,0.5071444,0.56260556,0.54242575,-0.004937274,0.10127515,0.18969862,0.719287,-0.93203604,1.0793871,0.31561425,0.15259577,0.74051726,0.49671346,0.18028687,0.23699637,-0.014945552,-2.218961
0.20058195,0.32515424,0.591676,0.42134488,0.44709536,0.3380025,0.53511876,-0.012348409,0.035967205,-0.03660715,0.22792585,-0.5345853,0.147357,0.020154044,0.03426742,0.13304892,-0.14439355,0.10433258,0.14855942,0.0011007272,0.36304587,0.66383314,0.14623825,0.55810314,0.69762987,0.11765052,-0.30038705,0.19181621,-0.00041244723,-0.06902359,-0.44293758,0.04359756,0.76495486,0.17918767,-0.030880652,0.11461099,-0.03902989,0.07575039,0.19492973,0.197674,0.01765609,-2.6164765,0.016135646,-0.03318741,0.4032126,0.58946604,0.5119188,0.013062488,0.43149453,0.41958585,-0.050187767,0.48952135,0.31503305,0.16297989,0.3190973,0.30852425,-0.08109084,0.4051135,0.09724049,0.253959,-0.058881316,0.048630495,-0.45647275,-0.82915443,0.2773409,0.4747811,-0.10990378,-1.835728,0.11069426,0.19454032,0.27923137,0.04976573,0.5305679,0.15797386,0.013420206,0.6776893,0.5278534,0.001344762,0.101122424,0.28671652,0.9330892,0.15757152,0.48774558,0.12289492,0.33257768,0.4041156,-0.50905323,0.105905,0.44332632,-1.5727574,-0.76167625,0.038167775,0.42657736,0.3292996,0.77514297,-0.07315366,-0.025780091,0.06962134,0.52313286,-0.017853731,0.2055254,0.030934703,0.012617849,-0.0270276,0.10644241,-0.03056303,0.16970117,0.12457036,0.026415957,0.031780448,-0.23613983,0.2709737,0.31960347,0.20329833,-0.0068764654,0.20138006,-0.0003538439,0.377388,0.16548428,0.83651495,0.003830129,-1.0638092,0.028155146,0.28710464,-0.07774603,0.17455304,-0.35314175,0.6387839,0.023169395,0.20839475,0.11399988,0.04425479,0.12143088,0.31767714,0.27396524,0.26803917,0.38144103,0.13153635,-2.2534378,0.26264456,0.05936617,0.10027955,0.21079941,0.9340316,0.0120415045,0.16866224,0.25894237,0.17051785,0.21592353,0.18139216,0.3451176,0.09388202,0.67904294,-0.02084476,0.11589696,-0.0011708364,0.15264119,0.17088823,0.012999153,0.25488532,0.14063989,-0.04732337,1.8585079,0.09342831,0.15278673,0.049506105,-2.3832974,0.9296909,0.020395353,0.17059308,1.2271153,-0.91104335,0.3044585,0.16750705,0.6867375,-0.027632346,0.09021592,0.026144238,0.032188155,-0.06196653,-0.0038358767,0.35835522,0.22887477,0.08498233,0.07618217,0.14721528,0.24219197,0.68421686,0.12416611,0.38763848,-0.03803936,0.13633324,-0.047581207,0.30620477,0.13962048,0.07195028,0.6614267,-0.0035335,0.0669134,0.391646,0.07507743,0.29773125,0.44461814,-0.03400188,0.54659015,-0.69464797,0.42876393,0.27477714,0.18941616,0.50357693,0.44439545,-0.02708007,0.37680134,0.7240917,0.4287424,-3.7973928,0.030657405,0.5833484,0.16420902,0.67987293,-0.11989953,0.07315386,-3.2745216,0.469543,0.22303739,0.02935406,-0.015077107,0.35624245,0.17806326,0.08326274,-0.016330728,0.3575686,0.022810679,0.18218026,-1.4716827,0.36069807,0.06373596,0.85998154,0.24131104,0.49489823,0.61201054,0.6493898,0.012429459,0.0921816,0.20798212,0.63355803,0.074993685,1.0419419,0.31016383,0.12280267,0.7443891,0.5210691,0.21768092,0.21720277,0.032602075,-2.3849428
0.21670893,0.31071416,0.5966959,0.46102443,0.45387736,0.3414789,0.5475401,-0.08275579,-0.04961038,0.051451955,0.24334507,0.14837714,0.14531033,-0.0387133,0.036763366,0.13372973,-0.16837226,0.113097645,0.13645856,-0.027477523,0.46066657,0.6439265,0.08429219,0.5652914,0.72491175,0.054678667,0.21396577,1.2176955,-0.018880852,-0.058307797,0.3428051,0.080981,0.69475454,0.19327147,-0.017143408,0.11546348,-0.016905963,0.077995874,0.18162219,0.2009578,0.009197692,-4.8434396,0.112241454,-0.07759346,0.3689524,0.6703356,-0.44171256,-0.002581995,0.49814394,0.3672914,-0.0034392003,0.2796881,0.32000998,0.15770452,0.17756636,0.20147774,0.25226012,0.40253603,0.08480478,0.18760838,-0.07503605,-0.002164011,-0.87797815,-1.2339197,0.27017045,0.4758962,-0.080514275,-4.2945585,0.090555996,0.17747973,0.28411737,0.064349465,0.578424,0.10256354,0.010534771,0.6704269,0.49369708,0.0015791454,0.0927607,0.30264103,1.0022577,0.15941106,-1.3084834,0.112624384,0.27028584,0.3915552,-0.5428716,0.108949095,0.4339491,-1.1023375,0.3666399,-0.030562958,0.42325252,0.21138945,0.7604702,-0.0112465825,-0.106699415,0.07307466,0.51331365,-0.02190684,0.19370368,0.0032360647,-0.01013202,-0.028207198,0.099007286,-0.0323867,0.17834014,0.12516496,-0.0061272886,0.015198304,-0.05618005,0.21808551,0.3199872,0.20722806,-0.11166011,0.21357733,-0.04338022,0.38026103,0.15329269,0.85082185,0.0050678416,-0.002182955,0.027737042,0.28689116,0.31738353,0.13918065,-2.8704004,0.6229013,0.64448273,0.18092455,0.11538555,0.050574798,0.16113299,0.3397643,0.29123026,0.28400052,0.45059717,0.12978923,0.740342,0.25550184,0.044478685,0.084958136,0.20377046,0.92866576,-0.0024031142,0.18168749,0.26269567,0.16947812,0.20773661,0.15256022,0.34441155,0.17210254,0.6743891,-0.005281287,0.057500586,-0.015700707,0.1705099,0.17075464,0.012594323,0.24916409,0.14520115,0.008025635,1.8666958,0.08912869,0.15204182,-0.01372399,0.7345276,1.0361395,0.04580806,0.16726592,1.2317234,0.3095187,0.28705242,0.14345123,0.5597498,-0.0025165593,-0.89225686,0.037988327,0.06640769,-0.034238596,0.0023357945,0.33702308,0.19588372,0.008102357,0.09343775,0.097441465,0.23707081,0.67571056,0.12346636,0.36049336,-0.06704568,0.12244899,-0.059982523,0.2809788,0.1477207,-0.04361305,0.6709676,-0.033873525,0.001011915,0.4342115,-0.032992776,0.2957592,0.44546857,0.03004458,0.56315535,0.1343629,0.53862774,0.38748184,0.18536463,0.47408253,0.48013455,-0.032186724,0.33676773,0.7311573,0.41015747,0.59076434,0.040168896,0.57729053,0.108727,-1.4901617,-0.21426557,0.06767292,-4.873784,0.47274226,0.19630459,-0.036845304,0.009834276,0.4046455,0.2303165,-0.021646053,-0.024177732,0.32263967,0.021816608,0.17068869,-0.2234078,-0.6690896,0.06986369,0.68847424,0.2481403,0.4812809,0.45375746,0.5672222,0.036745444,0.07054819,0.13292813,0.5755565,0.07351799,1.2238533,0.31877065,0.16645135,-0.982957,0.5218466,0.2261718,0.40393922,-0.041539032,-3.022159
0.2182303,0.28615105,0.5854505,0.40966177,0.40562236,0.2128721,0.56180036,0.056699134,-0.03842132,-0.038774554,0.23200727,0.14254692,0.14603505,-0.011308844,0.03293331,0.14462095,-0.24792632,0.108068176,0.14454746,-0.07538437,0.48637474,0.58125794,-0.22468129,0.55430835,0.74653614,-0.003026928,0.18610352,-0.2920004,0.027909325,-0.025304744,0.34562984,0.08090982,0.6946525,0.18601851,-0.0099319285,0.11550719,0.048310347,0.08154574,0.17782925,0.20202678,0.026174443,0.61049277,0.050849047,-0.019267678,0.35421905,0.67901725,0.49465,-0.0036275233,0.48197082,0.36748978,-0.009352088,-2.0415494,0.3175678,0.1658241,0.31450704,0.16875704,0.42368034,0.4288233,0.08898473,-0.046376493,-0.093640104,-0.06419742,0.079115145,0.29647923,0.23252676,0.6491481,-0.05126919,0.63584656,0.034312263,-1.3451552,0.28590775,-0.025079576,0.51788807,0.09958186,-0.046280246,0.67311,0.5253326,0.042354718,0.08302706,0.312744,0.977412,0.15857908,-1.9215202,0.09945219,0.22986947,0.44641274,0.2310583,0.10784447,0.39769238,-1.5072631,0.37319154,-0.06597719,-0.5074841,0.24089183,-2.609204,-0.0069737234,-0.05715185,0.068128444,0.47731635,-0.029408792,0.20272952,0.029490214,0.0359211,0.0015638163,0.09002707,0.048809294,0.17981161,0.12352998,0.0075429855,-0.015622557,-0.0050775674,0.1945668,0.27650684,0.2556457,-0.011537807,0.21613738,-0.0027917249,0.38403696,0.15254097,0.81565344,0.005212141,-0.010228943,0.013630734,0.29144424,0.33628932,0.16522866,0.40804234,0.5987531,-2.128542,0.17456344,0.10924555,0.04691524,0.11377648,0.3621753,0.28652844,0.28361586,0.45390564,0.12919104,0.747214,0.24312177,0.022122772,0.08687156,0.20626986,0.9476509,-0.005091452,0.18403095,0.26572856,0.17151076,0.19314693,0.16747244,0.33984274,0.22164714,0.638308,0.034081597,0.09591325,0.04671195,0.17974277,0.16490713,-0.045914307,0.25142813,0.14997895,-0.078665994,1.832975,0.08940479,0.15267609,0.03350703,0.71527284,0.9965332,0.053299494,0.1664697,1.1747906,0.13721386,0.26974955,0.14359128,0.7662925,-0.02843133,-0.7348425,0.0057828827,0.13225764,0.0032749411,0.07327171,0.3536735,0.17113899,0.009811755,0.078667805,0.07652646,0.29446054,0.71003634,0.12051501,0.42505822,-0.057376403,0.11791338,-0.077697344,0.29445332,0.17368346,-0.03441483,0.6761736,0.013968607,-0.04748018,0.44182307,-0.0037477103,0.2763533,0.43933788,-0.075517446,0.5393023,0.12600543,0.53448886,0.45493752,0.18677264,0.47780618,0.4534898,0.01703675,0.3020437,0.69231254,0.38902014,0.2348978,0.045053486,0.17806573,-1.1227059,0.6454261,-0.56335264,0.06822165,-0.1135687,0.5127168,0.27866846,0.0062564947,0.017180793,0.35542926,0.7622983,0.021836884,-0.03684366,-0.63709044,-0.010156088,0.15590897,-0.39364183,0.38161647,0.07596911,0.7426975,-0.7436013,0.46954224,0.45999214,0.5998593,0.0011506255,0.0327643,-0.5376461,0.42102745,0.07328351,1.2750986,0.41808644,0.1428403,-1.1954192,0.5234238,0.23354192,0.40724722,-0.062596194,-3.3349063
0.20057186,0.3703871,0.5436355,0.5520556,0.46011713,-0.71090674,0.5645576,0.033841662,0.008233479,-0.027975494,0.2282209,0.14394811,0.13817647,0.010196713,0.030202687,0.13369475,0.24279796,0.07526475,-1.0517815,-0.035235897,0.41789573,0.43735918,0.40722248,0.5688078,0.60625887,-0.035003126,0.19324712,-0.48014686,0.044678442,0.0050590048,0.3501501,-0.02004329,0.8026046,0.17050226,0.058627624,0.11716174,-0.0072355075,0.11939174,0.22810824,0.1985815,0.011250702,0.5778223,0.03099282,-0.019977681,0.29563484,-0.04725047,0.51113534,0.118496,-0.9702772,0.38593197,0.0012615237,0.28113216,0.30136254,0.262652,0.26487067,0.37444416,0.44802538,0.4200248,0.08332126,0.13746451,-0.15305135,-0.008543782,0.066428296,0.29612553,0.20511428,0.71578693,-0.09311167,0.66149867,-0.80967975,0.24185279,0.24182694,-0.008834755,0.579501,0.08116686,-0.07642443,0.6729851,0.51178586,0.027775362,0.051517557,0.3782064,0.94521046,0.15284726,0.5256223,0.04467772,0.35679692,-1.3206314,0.22397274,0.10396027,0.48868418,0.42272994,0.34072688,0.007942925,0.2167184,0.3818194,-0.16842028,-0.06530022,0.01624975,0.040088266,0.60088927,-0.031367876,0.19282727,-0.018149735,-0.10006556,0.015839951,0.053500827,0.05206423,0.1308783,0.11458133,0.028601583,0.0002887593,0.034787573,0.1913363,0.30412424,0.30628917,0.0005548969,0.2247349,-0.00688249,0.35036495,0.12734745,0.64804155,0.0006154378,-0.021176945,0.009527992,0.28288043,0.29436332,0.15845557,0.2607244,0.6103031,0.652165,0.18091741,0.10703163,0.04827285,0.0681099,-1.6096171,0.21218346,0.23659496,0.45269623,0.12163166,0.59230465,0.27969083,0.05466472,0.05984731,0.17764542,0.93140745,-0.026254637,0.16960776,-0.5597061,0.16921733,-0.39083013,0.081816055,0.33183292,0.1475488,-0.116033755,-0.061042704,-0.3473812,0.08423043,0.09708101,0.16229738,-0.028915882,0.24086636,0.13042998,0.07491611,0.048962362,0.08076185,0.14942695,-0.035479713,0.7211602,0.9776163,-0.016688254,0.011387769,1.2276671,0.29358277,0.3449764,0.21533008,0.51524556,-0.03601128,0.21126993,-0.018984757,-0.9413541,0.034728903,0.11705988,0.3403188,0.2362799,0.040714264,0.07195258,0.2871372,0.26496074,0.72461724,0.10186313,0.35635385,0.06075321,0.10860634,-0.28425503,0.28156847,0.2155219,0.049667694,0.3387116,-0.011120273,-0.031263568,0.40976503,-0.014924054,0.2656281,0.43272114,0.03046981,0.30471528,0.12882604,-3.8201404,0.390101,0.18718462,0.5651291,0.4450345,0.037695833,-0.40685707,0.7013519,0.46935463,0.06672296,0.089068204,-1.9459001,0.14413024,0.55727315,0.11756674,0.053606916,-1.3215535,0.52521974,0.26836428,0.010151117,0.028360583,0.3057752,0.589295,0.015755173,-0.08685084,0.34516567,-0.009883518,0.082775615,-1.9581757,0.3779221,0.055879258,0.62028277,0.18784344,-0.0052856747,0.5727309,0.4576274,0.0037674394,0.22872509,-0.83896583,-2.573984,0.06706187,1.1644093,-0.21839404,0.15870756,0.72317547,0.33884704,0.20660475,-3.0290284,0.113977425,-0.40326095
-0.48905772,0.39042732,0.5141883,0.5536724,0.4430094,-0.7711495,0.6245504,0.0034327852,0.04306069,-0.07982105,0.2001059,0.14067642,0.13238563,-0.033303767,0.028660746,0.13027605,0.24381137,0.099116534,-1.1209896,0.005127719,0.14611126,-2.490608,0.40005678,0.5684178,0.6474426,-0.009909915,0.14926049,1.0858909,0.0011063087,0.0628862,0.3456865,-0.059829693,0.8029348,0.1879115,-0.037425622,0.116293825,-0.0013635381,0.070857234,0.21092305,0.19954643,0.0596756,0.58235466,-0.05413912,0.017334418,0.40562153,0.6164743,0.5051698,0.08348984,0.43414125,0.39682487,0.0049849455,0.28608686,0.32268742,0.26268682,0.27528778,0.36379933,0.402259,0.39751726,0.08463384,0.12780312,-0.15895388,-0.030655531,0.06770559,0.2971065,-0.73280144,0.71667963,-0.047034647,0.56786186,0.13525338,0.24572533,0.2377707,0.014052741,0.5584046,0.035266645,-0.0442396,0.66355014,0.47636947,0.017386498,0.048365153,0.4340172,0.98678666,0.15172698,0.55415183,-0.004600907,0.397712,-5.653132,0.22308013,0.08633155,0.5118508,0.41402295,0.39595148,-0.0063055092,-2.2568336,0.438059,0.62865865,-0.03300544,-0.016064795,0.043438718,0.60056114,-0.026789887,0.18905991,-0.066412404,-0.04224157,-0.0015729603,0.058139876,0.08345042,0.2999524,0.11159063,-0.03177265,-0.19000462,0.043639492,0.15354165,0.28988865,0.2298577,-0.03787068,-0.94206434,-0.002282956,0.32616872,0.11470462,0.76968706,0.013918391,-0.023925424,-0.013980163,0.24801922,0.3142837,0.19218642,0.51835376,0.48826328,0.59732074,0.16238596,0.103287086,0.052307136,0.046316747,-1.2288584,0.2557343,0.2321599,0.43536192,0.12853004,0.79882413,0.28257734,0.071547635,0.048636086,0.20384063,0.87596524,0.032374177,0.16887723,0.24957581,0.1711912,-0.004377207,0.16585983,0.3569603,0.17758551,0.7617979,0.024970327,-0.43263274,0.08787298,0.042278714,0.15744342,0.008831484,0.24120457,0.123358466,0.0028751476,0.0142604355,0.07428117,0.1512323,0.03172995,0.6345522,0.8967335,-0.027792875,0.007298661,1.0608606,0.16813238,0.31240442,0.2205751,0.62202847,0.040723138,0.21430448,-0.0010012647,0.09761864,-0.008821028,0.020797942,0.35518587,0.1617765,0.009017111,0.10276161,0.28860193,0.26555204,0.722321,0.09971294,0.43105134,0.04408367,0.09940781,-0.5308732,0.2873699,0.21430285,-0.040012743,0.29082417,-0.0038965894,-0.04168667,0.33488685,0.052585263,0.25500792,0.43756038,-0.051136296,0.4114392,0.13218422,0.46402663,0.39830562,0.18353559,0.5064019,0.4522315,0.01930234,0.37141588,0.7804366,-0.98585695,0.6079995,0.085839584,-1.5952858,0.14230098,0.5750481,0.11255027,0.059058763,0.6231594,0.5270338,0.2618293,-0.04199328,0.044812024,0.30209252,-2.5601797,0.021687998,-0.09664074,0.34028605,0.007002389,0.07403498,-0.080786474,0.3887888,0.04737389,-0.9051594,0.2017154,-0.057325087,0.57383496,0.3926914,0.0060250415,0.23742874,-1.0971864,0.7581986,0.06469662,1.1415473,0.0033168157,0.16212189,0.60795456,0.48024476,0.19824369,0.35410917,-0.0064186673,0.34609082
-0.3468976,0.38562804,0.52904564,0.51685756,0.36396426,0.33658144,0.5563892,-0.074021615,0.04341924,-0.06154591,0.22050743,0.13781232,0.12368004,-0.031002816,0.024395501,-0.5644991,0.24951652,0.11716311,-0.4139472,0.035556354,0.060899146,0.6124342,0.40802115,0.5634766,0.607923,0.005143154,0.13593799,-0.066025674,0.050645854,0.16398582,0.33909371,0.05174281,0.777539,0.18349662,0.014461305,0.108629905,-0.093383014,0.06784687,0.17134304,0.19905265,0.013073337,0.5920375,0.0081033725,-0.0025309245,0.33722952,0.6085268,0.4934714,0.122392654,0.4266938,0.42736474,-0.026843201,-1.9926882,0.31224158,0.27372044,0.2973002,0.37400714,0.40527982,0.19813891,0.09664429,0.1438254,-0.17273343,-0.020635286,0.06704047,0.29252586,0.26907846,0.64468473,0.054276984,0.56389004,0.13099448,0.24750386,0.31353033,-0.04803405,0.6241432,-0.6641934,-0.06734746,0.6792053,0.5028351,0.03147416,0.042825464,0.3890026,0.9306364,0.14324617,0.5258892,-0.061147507,0.3737351,0.42758563,0.22311153,0.08380699,0.2850713,0.40216163,0.36954448,-0.022232268,0.47318202,0.46507087,-1.209895,0.052994147,-0.07785064,-0.044188682,0.55065906,-0.02154546,0.21441709,0.022608465,-0.00551649,-0.05393107,0.046935808,0.048074227,0.2896506,0.10991558,-0.05941917,-0.32724634,0.06265197,-0.11637423,0.2689859,0.2922619,0.005788821,-0.5395469,-0.06491644,0.36379412,0.14593323,0.8918474,0.011794732,-0.026103258,0.055746343,0.21510516,0.28029302,0.07430923,0.49614525,0.32265627,0.73858255,0.20411524,0.10199664,0.058643475,-0.015386106,-0.42943487,0.32188544,0.323035,-0.31537125,0.123338476,0.8033308,0.2714982,0.12931356,0.044695925,0.21262711,0.8489286,0.023978878,0.20323685,0.25783968,0.17144962,0.20582598,0.14247099,0.33523348,0.150136,0.74440753,-0.073762424,-0.9251315,0.119718105,0.11644511,0.15478784,-0.015530203,0.24088944,0.12022659,0.09295504,0.054767378,0.08157084,0.15095156,0.022343114,0.6527029,1.0042304,-0.02625812,-0.4127822,1.1376587,0.23788263,0.25315806,0.2776996,-2.6469646,0.04726562,0.21002378,0.0032709984,0.09701485,0.028952828,0.01414292,0.33971056,0.17231844,-0.06905827,0.13166684,0.28745458,0.2697256,0.7292194,0.098444246,0.2958213,-0.024236247,0.10289471,-0.7700701,0.29364246,0.20851935,0.00070538494,0.19542672,-0.050141007,0.0061834534,0.39772898,-0.007772857,0.27131838,0.3586092,-0.016292987,-0.72778386,0.13069227,0.4469676,0.44122782,0.18821403,0.38311508,0.4536153,-0.033199586,0.37335706,-2.1077032,0.40742433,0.58627605,0.08324308,0.61636645,0.13876149,0.627275,0.11038526,0.056627367,0.6053585,0.5156517,0.25760916,0.01804945,0.024613827,0.32003054,-4.1971273,-0.007368536,-0.09696371,0.33755836,0.01955675,0.06706703,0.3050773,0.38394535,0.036103394,0.89434993,0.21069044,-0.24899824,0.5822298,0.6836874,-0.0073090405,0.22640304,-0.45731533,0.78581727,0.06415686,1.1332186,0.21611074,0.16537902,0.7193335,0.5848863,0.17455082,0.34720123,0.09820159,0.35760337
-0.5776347,0.33407575,0.5087938,0.5287613,0.33069423,0.3330295,-3.3017502,0.050668377,0.041788343,-0.0003187684,0.22345437,0.13911638,0.121350475,0.026993897,0.02297642,-0.68492246,0.24862681,0.124920085,0.15302911,-0.034788895,0.31498986,0.59635484,0.041259997,0.48846024,0.7139906,-0.04044017,0.106270924,0.0903933,0.008301734,0.12634967,0.35242826,0.016253754,0.7331338,0.16195379,0.050530393,0.11331894,0.0033374338,0.07331503,0.16099341,0.19615173,0.07343779,0.6882457,0.007661837,0.020108303,0.4489442,0.612498,0.5426752,-0.017715085,0.4113798,0.3941464,-0.05544387,0.19159395,0.3199921,-1.428856,0.34269327,0.33762679,0.40552267,0.20190033,0.11265071,0.053438798,-0.2766525,0.06958237,0.06964619,0.29940844,0.27133086,0.66898996,-0.01211013,0.59326255,0.13360749,0.25883824,0.33596718,0.06692059,0.5459787,0.11678115,-0.03596212,0.6698195,0.479125,0.052885894,0.034219228,0.375736,0.91651607,0.15254493,0.5153692,0.14386216,0.46356916,0.39113346,0.22261213,0.12908451,0.493975,0.40948153,0.298753,-0.026800629,0.45781118,0.4584059,0.7800017,-0.04336883,-0.008179278,0.11019689,-3.0986598,-0.09582073,0.22841352,-0.0068851984,-0.021023568,0.0008739346,0.034117237,-0.031411964,0.26975903,0.106596194,-0.034612715,-0.6198186,0.07257891,-0.289723,0.2656733,0.27665365,-0.054091223,-0.43043894,0.04372889,0.35324195,0.11180645,0.88276017,0.0018652403,-0.017141927,0.049515698,-0.10497555,0.24717258,0.07472265,0.49325946,-0.76706314,0.6729128,0.1968897,0.104452856,0.04602241,-0.068522006,0.3385662,0.29071534,0.2879106,-2.111708,0.13781878,0.7947804,0.2825062,0.09869455,0.035269435,0.2156701,0.8571594,-0.011696856,0.17986614,0.26025227,0.1852709,0.20650783,0.18440765,0.28207344,0.15570134,0.7582437,0.037909776,0.098429434,0.07736795,0.12812711,0.17856565,-0.02118673,0.24989824,0.1089755,0.0053788037,0.15085125,0.08324182,0.15041992,0.011405807,0.6663788,0.97124165,0.059513602,-0.47235003,-1.415337,0.31126696,0.24701408,0.26151443,-1.9535388,-0.026463784,0.2103704,0.008624209,0.09504531,-0.0010406611,0.0190941,0.3289328,0.12684315,0.00032040407,0.15256613,0.2866695,0.07407494,0.74826896,0.08612727,0.31595945,-0.05662526,0.09903048,0.08498863,0.2939142,0.1991075,-0.056309585,0.20060426,-0.053677235,-0.011955871,0.33816725,-0.041108508,0.28025502,0.33326736,-0.040777512,-1.7976675,0.13270548,0.39578983,0.3922886,0.1843674,-1.1690894,0.44377798,0.04382314,0.38003382,-1.9170644,0.4307091,0.60919905,0.07296875,0.64083385,0.1340266,0.57683116,0.10523504,0.058652576,0.36505574,0.52712655,0.21984307,-0.0010572653,-0.0053575323,0.37638837,0.6817055,-0.03224214,-0.116601154,0.33940545,0.08484986,0.06323604,0.3027705,0.3766516,0.035745554,-0.39350346,0.30794373,-0.38969094,0.5759655,0.61610436,0.047376603,0.22319405,-0.23227389,0.8659351,0.05509486,1.0943431,0.4376127,0.1765255,0.72927135,0.80351454,0.20364262,0.3698531,0.15670805,0.31731725
0.2271672,0.15829681,0.50835824,0.5271539,0.44558737,0.3331476,0.55949306,0.03053344,-0.0313806,0.0048472956,0.22069548,0.13366951,0.117354505,0.0048477887,0.016396454,-0.7438834,0.16270125,0.12864822,0.1493251,-0.024260178,0.0804449,0.61971337,0.3982439,-0.973729,0.73394364,-0.055488534,0.14419207,0.58596814,-0.023249442,-0.061563127,0.3585647,-0.008529217,0.7048683,0.12571424,-0.030291785,0.10890844,-0.061936047,0.053664893,0.13266453,0.20331003,0.0030672078,0.6423306,-0.0315125,-0.0014970318,0.42281544,0.6173989,0.47544882,-0.012862796,0.4307558,-2.3317823,0.02785318,0.25951633,0.31384864,-0.7819767,0.09745584,0.3326686,0.44019473,-0.006291615,-0.083306834,0.24362783,0.041697185,0.027609445,0.06812577,0.29802412,0.26808617,0.6769213,0.010366522,0.62626857,0.13084638,0.35301414,0.3288653,-0.04708966,0.5329575,0.112787984,-0.051188678,0.6759765,0.44135135,0.010719009,0.0262804,0.37965345,1.0135506,0.14496018,-0.26402622,0.19036873,0.42319986,0.43628046,0.22350197,0.091368735,0.5021386,0.3904393,0.27790982,0.0014742956,0.44774497,0.49166098,0.71859056,-0.002497009,0.005714141,0.10911071,0.5221926,-0.66195685,0.21707763,0.010472774,0.012228047,0.029573206,0.02839314,0.0698819,0.2750567,0.11124782,-0.011732077,-1.8445619,0.07353618,0.236317,0.18964414,0.22581185,0.022218997,0.20923029,-0.019049872,0.4077016,0.10631208,0.8989843,0.011047523,-0.0045763655,0.045061976,0.2841028,0.25910535,-0.090786055,0.49721903,0.6230575,0.6780148,0.20054036,0.09802067,0.042076096,-0.1473711,0.33582708,0.2864231,0.28291085,0.43954885,0.14230588,0.79407597,0.28051376,0.027932975,0.04598833,0.17337514,0.95984554,0.027227383,0.16626094,0.25472286,0.17535739,0.20658264,0.2548113,0.35602644,-0.51290256,0.74660295,1.8392764e-07,0.09540433,0.0626046,0.15352818,0.14934419,-0.037923444,0.25104755,0.104531825,0.021948852,0.17733578,0.082216,0.14986193,-0.01963856,0.6542292,1.0226974,0.0035639491,-1.7309182,-2.1813157,0.27269953,0.26930267,0.29775792,-2.4523335,0.02220307,0.2091393,-0.0019057203,0.09570987,0.008158958,0.08140822,0.35335138,0.12039047,0.06498754,0.16142026,0.27772453,0.18098417,0.7442926,-0.031194327,0.3888491,0.08330488,0.098111644,0.08371515,0.29982665,0.18340017,0.004245834,0.6499385,-0.047827903,-0.021499638,0.3388418,0.0045565013,0.29476827,0.46799186,0.01695381,-2.2488756,0.13149647,0.39490324,0.324028,0.15845914,-1.4254974,0.43693724,-0.0033732483,0.36746675,-3.265613,0.42009783,0.6397465,0.06178792,0.62670714,0.13425666,-0.0104410155,0.100023605,0.06918544,0.6122969,0.60467947,0.20075673,-0.08142083,-0.026957044,-2.181539,0.5868758,-0.029437484,-0.1390249,0.34705278,0.05629413,0.067835,0.30326676,0.36064386,0.025375374,0.9485151,0.33240432,0.47508982,0.5726415,0.57023144,0.0051459037,0.21127406,0.23076308,-2.746772,0.046407316,1.0861343,-1.3710603,0.1857355,0.72482544,0.50474924,0.19631404,-1.4262323,0.061313782,0.31671426
0.2151736,0.35216236,0.18395257,0.48055044,0.45285374,0.3132934,0.57301104,-0.04702957,-0.04301881,0.01771938,0.21800524,0.12861046,0.08969368,0.025458818,-0.014331426,0.15971102,0.16664541,-0.5949479,0.13918959,0.008750145,-1.1469394,0.5926109,0.40571055,0.5405917,0.6370864,0.03196583,0.082158245,0.07862085,-0.006436814,-0.078228794,0.36268887,-0.011275096,0.30467588,0.15337871,0.018665269,0.12525803,-0.018129446,0.08229213,0.24000391,0.22372799,0.026364869,0.62663484,0.013998812,-0.070653714,0.40307817,0.48641363,0.29687613,0.041824546,0.4679308,0.43432558,-0.013588651,0.28780508,0.321407,0.16004428,0.37120163,0.2688142,0.4327425,0.40926158,-0.83194715,0.20886558,0.04365006,0.0040489403,0.05496601,0.3095682,0.27272567,0.65472996,0.018762076,0.6557614,0.14003283,0.3349077,0.2788908,-0.04031151,0.33538455,0.12341554,-0.013926196,0.6014337,-2.4727235,-0.020891825,-0.02282916,0.24358734,1.0010396,0.19020285,0.50838023,0.1803467,0.41645297,0.36569345,0.21389899,-1.0109249,0.5041991,0.47992927,0.06747021,-0.038146567,0.40310308,0.41134807,0.8249656,0.058650304,-0.004828863,0.07019111,0.5513782,0.11593793,0.22775805,0.040602952,0.052805472,0.03654443,-0.010280885,-0.035859276,0.16720031,0.116586275,0.0409316,-0.013675414,0.093494855,0.24083628,0.13866036,0.19885196,0.08620358,0.20067134,-0.0009952715,0.4284974,-0.45709226,0.87366074,-0.02557225,-0.025640907,0.05177539,0.17695248,0.34451106,0.12367201,0.49786896,0.61753374,0.21596734,0.2643344,0.0774954,0.107291915,0.11852145,0.32676962,0.2398854,0.23797402,0.4444257,0.1421291,0.65418154,-0.87291616,-0.017086793,-0.09744617,0.16097999,-3.005147,-0.005419757,-0.52908546,0.2560665,0.16623133,0.20506941,-0.38830584,0.340881,0.22086997,0.7619495,-0.04090707,0.085941225,0.087047555,0.17790811,0.13670465,-0.026866183,0.2333992,0.014416203,0.0010584405,0.5678929,0.07834605,0.14923294,-0.052424703,0.29258952,0.8633366,0.015990628,-1.0294931,-1.8906326,0.26603034,0.33297375,0.31317392,0.6842425,0.00048746789,0.1974287,0.017734203,0.08096667,-0.01154044,-0.02394343,0.35718396,0.123901725,0.044845425,0.14565207,0.23369066,0.1274828,0.697408,-0.8176947,0.33593822,-0.024256423,0.10788147,0.07787718,0.30252132,0.1435634,-0.02068023,0.6354621,0.042168364,-0.02000988,0.32230064,0.057330687,-0.3888455,0.42810953,0.08038152,0.5282042,0.13226518,0.049532287,0.24594747,0.17593138,-1.4055759,0.43253574,-0.003969825,0.39120686,0.7507402,-2.617881,0.60561156,-0.0019114617,0.6180204,0.11618823,0.6170277,0.08088711,0.121619366,0.54622024,0.46932837,0.2263746,-0.016273921,-0.028964063,0.19137456,0.43755764,-0.028889464,-0.21139595,0.35709375,0.0030220873,0.05776122,0.29968566,0.3610285,0.0044675,-0.95880526,0.2988031,0.44954824,0.54820365,0.5390285,-0.07832955,0.1553144,0.2223055,-0.8725635,0.039820626,1.1649104,0.43079782,0.05450441,0.7407124,0.37774825,0.1653642,0.34906894,0.02637396,0.3280602
0.21617569,0.32676417,0.49794602,0.44589072,0.4054426,0.3610525,0.5870746,-0.019678792,-0.031114805,-0.001684238,0.21762237,0.12552112,0.08554648,0.037388097,-0.020945832,0.1575982,0.12256012,-1.9062376,0.13662231,0.04019354,-4.470252,0.4968201,0.38864705,0.5712137,-0.6731378,-0.022135714,0.07482831,-0.033032957,0.07047706,-0.043603655,0.3656231,-0.063418195,-0.106874615,0.09227323,-0.052902944,0.1441116,0.021831505,0.028998034,0.25571835,0.2082235,0.03742049,0.62276,0.00054757745,0.03389751,0.3870878,0.47341463,0.48777184,-0.036373235,0.45591703,0.32218164,0.0103356205,0.30042657,0.30182663,0.1515792,0.38091135,-1.0094345,0.4361401,0.30088824,0.104911186,0.24211754,0.05234727,-0.009011321,0.054350898,0.3055686,0.26269838,0.6579058,-0.024283972,0.6470255,0.14430673,0.3363864,0.27973554,0.05473361,0.5497572,0.13149846,-0.057231624,0.59041166,-1.9468724,0.018578352,-0.031469263,0.3962192,0.6423518,0.11831351,0.5124603,0.10400524,0.38343084,0.3717314,0.21570912,-0.62703675,0.391255,0.50278014,-0.0562673,-0.020088553,0.39534533,0.4058792,0.78352165,0.020483727,-0.004362591,0.08579103,0.50569904,0.11404562,-0.82191163,0.043713894,0.039162178,-0.017883364,-0.0017534109,-0.02051727,0.3568997,0.12462635,0.04710005,0.01620089,0.09275351,0.23575312,-1.1713614,0.21964669,-0.0070650727,0.19773175,-0.06421662,0.4007959,-1.0941476,0.8562172,0.019112337,-0.017417945,0.011630788,0.16159517,0.35476428,0.042148985,0.4951736,0.6097916,0.16747208,0.23680332,0.07613457,0.112998486,0.12536795,0.33609867,0.26890683,0.2795096,0.44327974,0.16120134,0.6651971,-0.77450436,0.05297005,-0.07225053,0.17571156,-4.4070115,-0.03068223,0.20019807,0.2540513,0.1626674,0.20620407,0.249598,0.32765585,0.22358167,-0.21777368,-0.04848707,0.07798327,-0.037889436,0.17120308,0.13960549,-0.029461373,0.2542754,0.02099736,-0.043396734,0.562114,0.08593531,0.14676873,-0.06915996,0.7181191,1.0457057,0.028626096,-0.06256915,0.8727252,0.27247646,0.358647,0.2894651,0.684293,0.010601851,0.19691701,-0.05120059,0.08804478,0.017109994,0.04895785,0.33935922,0.15712164,0.024932535,0.14055964,0.2265887,-0.11078179,0.6948084,-1.0824932,0.3521091,0.028956586,0.07834552,0.07180011,0.28348008,0.14379025,-0.05672213,0.68041295,0.053151477,-0.005935456,0.28577173,-0.029569289,-0.22263159,0.43916807,0.12627017,0.5288658,0.12993513,0.011730296,0.41764146,0.16833934,0.47913414,0.4238358,0.020052342,0.3827786,0.6306034,-2.7179883,0.598945,-0.01471248,0.6278193,0.12106512,0.4917968,0.076202355,0.1278367,0.5419026,0.47304338,0.17983767,-0.024174798,0.04281026,0.37545848,0.48758903,0.041589636,-0.22236115,0.31537345,0.010116394,0.074590266,0.30151832,0.38021806,0.0010259959,1.0421085,0.24047272,0.46911803,0.5113697,0.4990568,-0.017287238,0.14897947,0.22350512,0.80348617,0.035233498,1.0686426,0.46277872,-0.061184946,0.5798114,0.38222936,0.16634224,0.4116346,0.021777237,0.32766128
0.21208397,0.33867428,0.5418406,0.45044148,0.08934486,0.31673187,-2.9270654,-0.020041753,0.005234944,0.047464903,0.21705207,0.12107181,0.07703765,-0.03308302,-0.018656805,0.15857728,0.27382013,-0.829026,0.13433355,0.022109263,0.3631701,0.677323,0.38478416,0.562373,0.4664105,-0.016109433,0.28571516,0.015624931,0.0071806135,-0.066870205,0.3285251,0.08456889,0.9517709,0.070035845,0.04668632,0.15006323,0.051552415,-0.5926437,0.24188685,0.22261004,0.07098952,0.6650391,-0.069279864,-0.007722284,0.38972697,0.5108665,0.4811318,0.023015013,0.45978236,0.36798283,0.015272493,-1.0995369,0.30600506,0.14896505,0.35821834,0.28003186,0.44382495,0.25500256,0.10341336,0.23919533,0.056053575,-0.060848907,0.04860629,0.2998262,0.2584602,0.5914379,-0.012439474,0.65484667,0.14678296,-0.026943319,0.2958329,-0.033124078,0.52002394,0.13146167,-0.008396992,0.56967103,-1.5845623,0.055505674,-0.035244893,0.391135,0.87125546,0.11651997,0.5091313,0.16874312,0.42347062,0.3976981,0.20509146,0.1173136,0.46668515,0.47041705,-0.08579571,-0.033076867,0.38110894,0.3889442,0.7512419,-0.0075466777,-0.010271507,0.09062026,0.5300977,0.10867062,-1.1851603,0.017229535,0.056286346,-0.031523332,-0.010249796,0.04201099,0.37613252,0.10837296,-0.0075254925,0.078080095,0.08779874,0.22332439,-1.4612464,0.078215905,-0.06581081,0.20239413,-0.029393543,0.3845416,0.17851096,-3.3197837,-0.03137077,-0.03180229,0.0054832003,0.32274792,0.31240225,0.10274584,0.4941231,0.6359826,-1.4086431,0.23130545,0.076284334,0.10394627,0.1422404,0.34216976,0.27837613,-0.5363898,0.44247288,0.138979,0.073948525,0.24985842,0.09870674,-0.104046695,0.183878,0.9126976,0.065395564,0.20029329,0.25575233,0.16191123,0.19803019,0.2469754,0.30449226,0.23021035,0.7596783,-0.022924706,0.07586925,0.04628667,0.17043625,0.20283107,-0.055235937,0.24968833,0.014226344,0.045119073,0.67718416,0.08119676,0.14212358,0.017072167,0.7153772,1.0747169,-0.025756104,0.01240692,0.89466137,0.21437794,0.3289526,0.28171995,0.6845171,-0.0031326674,0.1952648,-0.080884494,0.08798283,-0.030674024,0.034221474,0.34537637,0.138716,-0.031734616,0.1358377,0.23387243,-0.29544014,0.75826406,-0.91486424,0.36698046,-0.008171789,0.05412154,0.06879055,-0.7646329,0.13136002,-0.005635558,-3.1930318,-0.007004101,-0.0020873554,0.468021,0.010551051,0.28843278,0.44591674,0.07439617,0.525205,0.11480929,0.04084373,0.43576035,0.18310547,-0.10490165,0.42753577,0.07642224,0.29529414,0.71190536,0.40467,0.6601688,-0.01725598,0.64104867,0.12797672,0.44672623,0.06856065,0.16751505,0.5273291,0.46847194,-0.2960024,0.056584932,-0.030612782,0.32508093,0.7421928,0.010729276,-0.24382026,0.31703392,0.047905497,0.07174732,0.3040276,0.3877042,-0.0053694104,-0.10045385,0.24035709,0.4281091,0.52062654,0.63020504,0.00085611246,0.14756781,0.22537872,0.7984899,0.040220957,1.2643194,-2.4474719,-0.35363066,-4.2558565,0.28832147,0.17560549,0.3508888,0.047998574,0.3146043
0.21740119,0.37460625,0.53673315,0.42594767,0.47486898,0.309873,0.42753273,0.0054287706,-0.008794526,0.027341759,0.2071413,0.124194875,0.07949615,0.030760294,-0.049879473,0.15412779,0.24193378,0.11877293,0.13353376,0.049145024,0.3669702,0.60152423,0.36811593,0.56954,0.4548564,-0.03680133,0.2559537,0.75442517,-0.015518017,0.06186251,0.3251281,0.045254976,0.9815797,-0.007155257,0.024886584,0.07153183,-0.0124408705,-0.75458014,0.22940005,0.22050539,-0.0676946,0.60248905,-0.026100801,0.01195661,0.45304078,0.6142964,0.47386554,-0.0063018473,0.46944398,0.43429628,-0.020149592,-0.08604626,0.30671862,0.14796582,0.33972394,0.2772954,0.44106868,0.13400666,0.10293792,-0.24791193,0.06240051,0.011289849,0.03914742,0.29240847,0.25561747,0.56953174,0.0041348296,0.68299365,0.1389828,0.013301103,0.32715812,-0.03147428,0.538596,0.13788961,0.022703404,0.33727193,-1.481338,-0.0035161274,-0.04569603,0.38697702,0.9840464,0.09847813,0.48803967,0.15061784,0.35465196,0.44423407,0.21399498,0.11536497,-0.8316841,0.49977604,0.41332185,-0.027824022,0.41024855,0.47372863,0.705076,0.024342384,0.031063879,0.096470006,0.4245506,0.10271472,-0.34954154,0.019629503,-0.05762003,-0.028348623,-0.008943876,0.0169916,0.3793359,0.10704815,-0.050695743,0.09643708,0.08778709,0.24015346,0.32331902,0.23490931,0.023505565,0.19930169,0.005685012,0.4028772,0.17744142,0.9396964,-0.05070492,-0.064831115,0.0569058,0.31919187,0.252558,0.07958013,0.50642794,0.57940656,0.77823734,0.23176746,0.064836316,-0.26128507,0.14961867,0.34433585,0.25386173,0.30663684,0.42688155,-0.5262025,0.7652516,0.28695458,0.00025486195,-0.4939889,0.16935155,0.9037549,-0.02231493,0.19731721,0.24941789,0.16260839,0.20005237,0.2409905,0.2690592,0.2069129,0.7590626,-0.019671284,0.120585196,0.0060634087,0.16384815,0.19917944,-0.014277137,0.16199669,0.017520629,-0.07666721,0.8150862,0.06488764,0.13695396,-4.250598e-05,0.72101545,1.0462362,0.02010451,-0.007317748,0.82437354,0.18508917,0.2831699,0.24433959,0.6834154,-0.020532219,0.19190925,0.09239435,0.089754894,-0.043811943,0.014701897,0.3429806,0.109607406,0.105176985,0.1273539,0.19902852,0.27033466,0.7625652,-0.36317807,0.36718687,-0.02606617,0.042580187,0.05690538,-0.45293975,0.123779595,-0.0009784418,-0.71964824,-0.05401264,-0.0139534995,0.35518625,0.042185444,0.2845515,0.4398991,0.037472818,0.49995148,0.11505535,0.0074067973,-3.5369046,0.18719785,0.5519534,0.4110091,0.034375757,0.2599197,-3.3624012,0.40620676,0.6879897,-0.029425189,0.64193374,0.13162687,0.54738486,0.06709903,0.15890527,0.48295277,0.5718896,-1.085801,0.025289852,-0.035036355,0.33269513,0.5190113,0.069633946,0.0685453,0.3282038,0.053508386,0.080275014,0.29819986,0.381375,-0.0036254863,1.1083128,0.26660928,0.44572592,0.5093119,0.6517789,0.008492234,0.15871705,0.22338676,0.7850084,0.052947532,1.2103971,-1.9236176,-0.64073896,0.74271977,0.06145655,0.19607364,0.3502471,0.039845478,0.32558918
0.21719901,0.31413636,0.51487607,0.37818727,0.41313785,0.3039362,0.5614362,-0.0016306594,0.0042360746,0.017508408,0.16035272,0.120363034,0.098253526,-0.015382919,-0.059543643,0.1534802,0.2076835,0.11874639,0.13380027,0.022663636,0.371459,0.6666604,0.34637207,0.5666194,0.50950754,-0.0118125165,0.16016477,0.39367214,0.04067189,-0.041045386,0.34504193,-0.010143431,0.9420423,-0.13226359,0.030458229,0.08001737,-0.011239404,0.090732306,0.27215892,0.122812405,-0.05506697,0.61422384,0.026346408,0.06725682,0.40059206,0.6591382,0.46392924,-0.0674188,0.5135447,0.39229733,0.059419498,-2.6667402,-2.302895,0.15776536,-3.2313156,0.2782401,0.4226342,0.45155835,0.10275725,0.17265345,0.066795304,-0.00018773656,0.028590323,0.2891228,0.2654521,0.6593918,-0.07308402,0.6688995,0.12845498,-0.017825067,-0.27272022,0.037934065,0.49706328,0.12982288,0.053989198,-0.6448165,-1.7405432,-0.07685343,-0.05211833,0.41914544,-0.3840875,0.109119795,0.48582736,-0.011088611,0.37967777,0.40248287,0.21114284,0.11402381,-0.9832502,0.46916458,0.40766573,0.031774413,0.4058536,0.40038574,0.7405764,-0.004185275,-0.023825943,0.101554155,0.4922613,0.09589438,0.21841288,-0.0066289576,-0.023114093,0.0064195716,-0.029991806,-0.08004069,0.34329453,0.10760673,-0.014171088,0.056903195,0.08294065,0.23901126,0.3120839,0.13977799,-0.004321251,0.1986701,-0.007238172,0.36768636,0.17824164,-2.8221097,-0.13565749,-0.00034622033,-0.021268807,0.316941,0.23802598,-0.92388296,-2.903942,0.6425392,0.80031884,0.21808621,0.050519537,-0.6127035,0.19207825,0.33592704,0.2648764,0.2421891,0.45020354,-1.0660106,0.7708391,0.28109115,0.026095444,-0.56658745,0.23574278,0.87540525,0.06977278,0.20116445,0.25703368,0.1655917,0.2018377,0.24574949,0.34211117,0.22070867,0.6358832,0.01624969,0.07367247,0.07475811,0.14432809,0.20307776,-0.03488927,0.23343267,0.019202435,-0.064251974,0.8218156,0.064772256,0.13850082,-0.048256595,0.6691006,1.0326917,0.07940126,-0.007180595,0.587062,-0.062411644,0.33593166,0.17850164,0.6819918,-0.0028450864,0.19221167,0.02153152,0.08563705,-0.014089223,0.01638802,0.20999968,0.07801983,0.017651103,0.11376541,0.19130975,0.259701,0.7390346,0.15086974,0.40695128,0.044031803,0.026598303,0.049062196,-0.11374688,0.14519446,0.013779694,-2.0664701,-0.016470654,0.045030005,0.376635,-0.031900343,0.2933454,-1.3804016,0.019266363,0.5266278,0.12113181,0.24499768,0.12289387,0.19209298,0.5431142,0.50727564,0.05531934,0.24124053,0.69671947,0.391068,0.70928407,-0.036805406,0.6489283,0.1336791,0.44105604,0.06843898,0.15424068,0.6110586,0.47495192,0.23121239,0.07021559,0.037674718,0.3103495,0.75103176,0.019861829,0.07158825,0.31628028,0.034244344,0.12506063,0.2984238,0.37499598,-0.022767475,-1.1723,0.28023893,0.44026572,0.6920966,0.6559687,0.03959361,0.16939174,0.220004,0.77898175,0.043818083,1.173096,0.26078016,-1.1178683,0.73424804,0.41242114,0.20610842,0.37734187,0.042923953,0.3387684
0.20993453,0.34276,0.585402,-0.17854926,0.40862712,0.37765223,0.55283046,0.0072818655,0.05407247,-0.041346975,0.24372232,0.13236408,0.22217326,0.06930833,-0.29789406,0.14512777,0.24256133,0.10386386,0.1321583,0.024296043,0.39134496,0.60266656,0.42586246,0.56870425,0.4531149,-0.037435368,0.039502066,0.22180034,0.050376225,-0.0283096,0.32034272,-0.0009619389,0.8362659,0.16519494,0.057677876,-0.6799612,0.011789293,0.08239097,0.3094069,0.19478837,0.018392352,0.6125419,0.0036141793,-0.06786866,-1.0655409,0.6312207,0.44115514,0.071821,0.45504677,0.34954995,-0.033399545,0.19404455,-0.4180059,0.17315592,0.31203076,0.35065877,0.44769037,0.4200403,0.10820304,0.16909465,0.061384466,0.02550302,0.0122253625,0.28937426,0.29404104,0.71118677,-0.019422606,0.6458495,0.095363535,0.05940949,-3.9412131,-0.036839727,0.5295838,0.086375155,0.027724912,-0.908916,0.45033005,0.06969821,-0.09560055,-1.558213,-1.6192569,0.13312057,0.2618748,-0.05885246,0.43573934,0.44837794,0.17170836,0.11354819,-3.2425246,0.46272478,0.40475687,0.017854597,0.32832584,0.4475482,0.6490943,0.02988262,-0.051038727,0.072444476,0.4374174,0.04715408,0.20669216,-0.00056025013,-0.015712675,-0.022096094,-0.5880664,-0.07718837,0.32217526,-0.8732202,-0.0058473465,0.06507421,0.03266485,0.03883577,0.28393868,0.15387444,-0.07278945,0.19352517,0.052126,0.36051407,0.1850549,-1.491036,-0.76995516,-0.034891855,0.048356723,0.2966424,0.25837192,0.13499394,-3.4390202,0.6544614,0.7905542,-1.285791,0.0728856,0.07116251,0.16956219,0.32790992,0.26837927,0.3389559,0.46284938,0.14700367,0.79373986,0.27553523,0.0014345193,0.07643525,0.17687722,0.87335706,-0.008873975,0.1938033,0.24530195,0.17951868,0.20096187,0.2531347,0.3477633,0.20666811,-2.6854622,0.06715275,0.1028664,-0.019094469,0.093726516,0.16437173,0.014139864,0.2352742,0.022133617,0.02714141,0.40453273,-0.08316871,0.12441753,-0.04759415,0.7040661,1.0888697,0.0021249375,0.12447882,0.60542417,0.2059765,0.0449049,0.13803066,0.6405146,-0.022855015,0.16907196,0.036560506,0.0552754,-0.056530934,0.015348606,0.511909,0.3412479,-0.021488905,0.073483795,0.14448902,0.26520878,0.7330949,0.14516826,0.37816682,-0.011273697,0.054307114,0.033537913,0.30098662,-0.5704454,0.037754495,0.65356576,-0.013889434,0.02879425,-0.39483163,0.007788495,0.28929555,0.21353061,0.023769861,0.40252852,0.09747187,0.3807649,0.36648268,-0.9833003,0.52097905,0.32135174,-0.027392862,0.37214,0.68475795,0.39664835,0.5387003,-0.07023059,0.6007401,0.17068969,0.60974246,0.028533911,0.13848417,0.60141593,0.47637147,0.22943458,-0.04434533,-0.017370924,0.36023846,0.7273372,0.018456416,0.083634734,0.4058016,0.04030495,0.14176837,0.3031986,0.36975792,-0.1016479,-1.024097,0.24237393,0.38946187,-5.020217,0.5638491,0.073566616,0.15150751,0.21661766,0.73647445,0.042482086,-1.8112817,0.18817075,-1.3564023,0.72230995,0.39769456,-0.03901682,0.4192806,-0.016546061,0.38305622
0.20760879,0.31833878,0.5894865,0.42504254,0.41351908,0.38467768,0.560167,0.024827462,0.043730535,-0.024054818,0.24715695,0.1362926,0.22574282,-0.05102207,-0.94414943,0.14034544,0.23486546,0.10801669,0.12750599,-0.050192162,0.40442064,0.5950407,0.42648506,0.5674984,0.42185032,-0.0022351968,0.11360131,0.2516033,-0.015810026,0.017074324,0.32821804,0.04976759,0.8331722,0.1678109,-0.053217873,0.11979999,0.020254603,0.08293818,0.31505936,0.20573442,0.029676702,0.6430292,0.01890787,-0.04562533,-1.4755754,0.6413925,0.49993128,0.044454627,0.43615192,0.3589901,0.0021260527,-0.84825224,0.3214816,0.197239,0.2781906,0.2997507,0.4406207,0.4250007,0.10707816,0.18854107,0.057864744,0.044593114,0.008176225,0.28851098,0.2511835,0.69664973,-0.0695967,0.6349934,0.11070237,0.32020697,-5.8282537,-0.041720737,0.031094259,0.084565505,0.07286885,0.6614005,0.48234838,0.023683408,-0.11182565,-2.0438037,-1.1974381,0.13878961,0.5370195,0.20166667,0.39864066,0.46502706,0.20549871,0.11262159,0.46231976,0.4365409,0.4042712,-0.057870038,0.3114724,-1.929479,0.64761263,0.021947904,-0.024838952,0.10494187,0.508593,0.04282835,0.20368682,-0.01677768,-0.030282522,0.011548103,0.08656061,0.0403029,0.31635267,-0.8310767,-0.041450296,-0.007958289,0.031356912,0.009352691,0.30117273,0.12414059,-0.0020013866,0.19863017,-0.00029156666,-1.6750699,0.19491197,0.85968786,-0.6089681,-0.05520975,-0.030505255,0.29833058,0.2921445,0.12847146,-2.6314328,0.5461454,0.8295359,-1.3295426,-0.00051969645,0.07409681,0.17360885,0.32185706,0.27683404,0.32325277,0.45964122,0.145035,0.80969,0.27174702,-0.034850545,0.074139364,0.20871237,0.837409,0.020953655,0.19700019,0.24421376,-0.4457828,0.20119716,0.2586866,0.3461793,0.20238896,-2.7322931,0.033397894,0.11686736,0.09620281,0.080255084,0.16725214,0.02993704,0.24066979,0.035750806,-0.048688617,1.2113725,-0.16017869,0.09468185,0.074640855,0.6852887,1.0352293,0.003906961,0.13244721,0.9736234,0.29114354,0.019105753,-0.02381379,0.6297619,-0.024345962,0.16280422,-0.0004612905,0.08968888,0.026316075,-0.062009532,0.48468608,0.31285435,-0.024981838,0.07815464,0.13871638,0.25957215,0.6806358,0.14293747,0.3871941,-0.0025596225,0.0935636,0.030469134,0.30388588,0.17610992,-0.01973285,0.69982696,-0.022750517,0.03549547,-1.0251079,-0.016201956,0.28613392,0.44639087,-0.032636665,0.47113645,0.1044095,0.37121546,-0.68191195,-0.39754897,0.5170102,0.3618085,-0.0445559,0.39205033,0.5571002,0.37509722,0.53621966,-0.092160985,0.5869694,0.17472439,0.50463885,0.02256393,0.14155969,0.6168704,0.50996536,0.19817623,-0.013346757,0.018812861,0.40609,0.7396091,-0.031245677,0.080632746,0.31744108,0.024647541,0.15181677,0.3022835,0.36936492,-0.10170162,-0.9888405,0.26246372,0.40683237,0.57284135,-0.78757507,0.027532853,0.15167874,0.21284975,0.78401107,0.05351323,-1.1198016,0.3688223,-1.1982852,0.734857,0.4297811,0.012350395,0.30468655,-0.0347732,0.39295292
0.20954354,0.31974635,0.5880294,0.42158297,0.38329905,0.2755031,0.5582329,0.024001097,0.016542131,0.07668665,0.22769162,0.139854,0.21780597,-0.03536438,0.04409863,0.14170773,0.24241337,0.10298519,0.12720805,-0.018186884,0.38440284,0.5625792,0.43181744,0.5558464,-1.3885314,-0.023920266,-0.050573744,0.2672066,-0.010923642,-0.027503656,0.36161998,-0.005249943,0.85594803,0.16252993,-0.025789717,0.117933,-0.0047919573,0.08287796,0.31197897,0.19017963,-0.0071311686,0.61813414,-0.03766549,-0.0692066,0.41163382,0.64990723,0.3747674,-0.027750922,0.43387675,0.31085858,-0.035185564,0.22953588,0.31872955,0.17450066,0.33425477,0.28871167,0.3702586,0.42553544,0.1047915,-0.15261634,0.054296795,-0.023462182,0.006846535,0.28715056,0.27142185,0.71217436,-0.026708368,0.6318096,0.11075533,0.37377876,0.34992656,0.006407202,-0.7580324,0.086183846,-0.045528825,0.68197596,0.48585603,0.028953167,-0.13383733,0.2969263,0.9164873,0.13718565,0.4682558,0.12365026,0.41583598,0.37593815,0.20403314,0.11093569,0.46792257,0.4340869,0.41156852,-0.031441282,0.44139224,0.49011222,0.6720706,-0.003817529,0.015193189,0.13213396,0.4698562,0.040792752,0.20388879,-0.00018401259,0.057518985,0.04079607,0.08959485,-0.012986383,0.2676067,-0.57363826,0.008979893,-0.00013624782,-0.0043161944,0.020963352,0.27045685,-0.6204549,0.025226468,0.20343651,0.07678209,-1.509593,0.22224388,0.8563727,-0.5141559,-0.05054896,0.009328682,0.29211605,0.26509982,0.14110786,-1.4427335,0.57189536,0.76656055,-2.1640067,-0.13963887,0.071948715,0.17277828,0.3143072,0.26970577,0.28029153,-1.9482083,0.14262019,0.7476595,0.2771808,0.057239674,0.07074102,0.2624276,0.78188574,0.0039080344,0.18282363,0.2274646,-0.5818398,0.19637829,0.2654808,0.34172475,0.25634125,-1.9503732,-0.010408337,0.12543981,0.090733185,0.09324683,-0.833904,-0.002594439,0.23778073,0.044193823,-0.043864127,1.8404597,-0.88348645,0.1371002,-0.027500056,-1.7302492,1.0976926,-0.0044771885,0.14504617,0.92469996,0.249746,-0.15360567,-0.26635954,0.60661596,-0.021494187,0.17764755,-0.0064409277,0.07589862,-0.04644907,0.016673017,0.46218348,0.27411908,0.039657924,0.068402246,0.13609889,0.26023787,0.54170245,0.14488475,0.33870602,-0.0054537235,0.12287753,0.02906937,0.3028703,0.15343842,-0.04451873,0.664012,-0.050290298,0.043209963,-1.3601401,0.06830064,0.28805864,0.45104036,-0.047081806,0.44871324,0.10867886,0.3273955,-0.6989582,0.19783705,0.5046491,0.28715438,0.0060429657,0.41071376,0.678181,0.4551995,0.536195,-0.07954624,0.5831564,0.18305902,0.3456751,0.01489497,0.14091201,0.6291948,0.098689176,0.23042609,0.03032643,-0.039525144,0.3634589,0.7326287,-0.021688199,0.077774234,0.3896928,-0.005560245,0.17919806,0.29341447,0.3905106,-0.18016066,-1.231823,0.24494307,0.51145715,0.5931996,-2.5133555,0.044407737,0.13403815,0.2258727,0.78860563,0.057835918,-0.9139366,0.2829009,-1.1262507,0.72351044,0.40065685,0.2424992,0.28361112,-0.0042409664,0.35781553
0.21192941,0.32227287,0.5680798,0.4906667,0.352592,0.30398062,0.47509333,0.0541207,0.047160145,0.009098688,0.17242222,0.13656521,-0.74491876,-0.06178928,0.044110056,0.13791221,0.24804986,0.10597256,0.11600674,0.009534407,0.36828437,0.588377,0.42227948,0.5536921,0.70488125,0.028069224,-0.3567602,0.32447445,6.660814e-05,-0.0012730756,0.018046692,-0.025561927,0.8514631,0.16371112,0.026495116,0.11937869,-0.0035452703,0.083330594,0.30347845,0.18452562,0.009991508,-2.2761784,0.0039855503,-0.10750255,0.40525538,0.6519141,0.4860756,0.0048186327,0.45852768,0.24857262,-0.05323859,-1.9116629,0.3188555,0.18090953,0.31816489,0.2733442,0.24880067,0.42127424,0.102663256,0.24196133,0.048015904,-0.03928171,0.018589992,0.29282123,0.28117096,0.65718186,-0.02070559,0.6275543,0.10721831,0.34001604,0.32385978,0.04046428,-2.6182647,0.08430647,0.0069104033,0.6797262,0.45294702,-0.02880541,-0.22896476,0.27505252,0.93440527,0.15693158,0.46473458,0.10952706,-3.305544,0.3649286,0.21302116,0.11058318,0.47480044,0.45831525,0.40011865,0.009162304,0.4474744,0.49181703,0.66612065,-0.054511677,0.042627998,0.1394182,0.58341855,0.03712484,0.2067819,0.0066934256,-0.016344676,0.021590412,0.094067775,0.042322654,0.2724982,0.12569422,0.025635876,-0.0022766155,-0.025382536,0.029715706,0.24269225,0.21559697,0.0252805,0.20632647,0.016469317,-1.915,0.19291972,0.8726694,-0.6498588,-0.06678087,0.019617312,0.3014489,0.29576045,0.12962715,-1.210889,0.58851546,0.52957326,0.1708594,-0.32756713,0.06852518,0.15029567,0.3397698,0.2747316,0.25400332,0.12367645,0.14194505,0.555766,0.27483737,0.10700731,0.07551342,0.24914336,0.82653683,-0.044295173,0.19260114,0.25594136,-0.52677476,0.19651331,0.1898387,0.12458775,0.21131991,-4.194857,0.023070749,0.1391392,0.058702562,0.08913195,-1.1925621,-0.00046811742,0.24860537,0.056243993,-0.02430625,1.8985354,0.11120201,0.20323437,-0.05197184,0.726512,-1.2395551,-0.06255127,0.14702179,0.42053744,0.26142466,0.28645122,0.12582612,0.34965223,-0.08764783,0.1701748,-0.040110644,0.07118369,-0.013472659,0.0775922,0.52401257,0.26350313,0.034767993,0.06489994,0.14068218,0.2588531,0.058083165,0.1445931,-4.532685,0.015268877,0.15351541,0.022213604,0.30185905,0.15667246,-0.008199364,0.64483964,-0.015494451,0.025201581,-2.8912816,0.08787172,0.2891044,0.45445678,-0.059296153,0.3917656,0.109138876,0.45908055,0.3706863,0.19353962,0.5056625,0.25324613,-0.022783412,0.41134724,0.69731444,0.4422009,0.40236077,-0.09636563,0.579189,0.18018532,0.33290935,0.00876112,0.12494375,0.6196711,-1.555933,0.23693195,-0.038981095,-0.08660671,0.24593097,0.63935745,-0.06045537,0.07254825,0.36223406,-0.06825085,0.19590051,0.27601796,0.39279014,-0.089517795,-3.5496714,0.27206987,0.51233166,0.18454789,0.5081969,-0.00020905588,0.13077286,0.22393191,0.81632376,0.057686243,1.2991436,0.2763169,0.12887213,0.72872496,0.37307823,0.25466758,0.38806292,-0.01769384,0.14060009
0.21016924,-0.39782497,0.57751954,-0.13827907,0.41638306,0.2563121,0.57801586,0.06653671,0.023985775,0.00744723,0.15486749,0.12539992,0.156418,-0.03506246,0.043155693,0.140677,0.25103903,0.10472675,0.10987009,-0.00018260245,0.3838926,0.6699884,0.43934476,0.5593867,-2.457951,-0.019840451,-0.17537631,0.3486705,-0.0052007386,-0.08376575,-0.42534393,-0.11309821,0.82872856,0.16684626,-0.048129775,0.11795145,-0.02064576,0.083618514,0.27805328,-2.791157,0.11599064,-2.0651102,-0.017979164,0.012911203,0.3996929,0.64434785,0.35552472,0.03563518,0.4442056,0.41258466,0.0421052,0.19492438,0.31846526,0.1756375,0.40810874,0.28869098,0.31743515,0.42614377,0.09792149,0.21040885,0.039813414,0.007462993,-0.0004973339,0.30412388,0.24401091,-0.018765807,0.0053157643,0.7251259,0.11085815,0.34150282,0.23128165,0.005229521,0.545415,0.08400222,0.049157318,0.6825521,0.48904818,0.0867337,-0.5744908,0.37972397,0.90156454,0.08843567,0.46619016,0.08231878,0.39468524,0.42578623,0.20495795,0.11384125,0.45675004,0.4274259,0.048592392,0.0075799,0.4325966,0.4921486,0.62931955,0.049984116,-0.050401747,0.14349838,0.60863,0.032902263,0.20763792,-0.022458892,-0.038557094,-0.007718882,0.095993996,-0.018385358,0.27055195,0.12812456,-0.06774038,-0.0018889379,-0.04799105,0.03767893,0.24779448,0.21658571,0.018256178,0.21224728,0.0003755884,-1.5277809,0.19202422,0.8679625,0.010993795,-0.05146698,-0.04174678,0.2810778,0.28601283,0.09286644,-0.7772053,0.585611,0.5046632,0.16891567,-0.6685479,0.06420327,0.16647393,0.33717078,0.25631952,0.21168768,0.49510467,0.14101647,-0.5541225,0.2715915,0.017644472,0.07983772,0.20563453,0.93166476,-0.008033597,0.19648756,0.27916387,0.18043774,0.20071879,0.21567243,-2.6483529,0.22557461,0.7228605,-0.027680142,0.14382914,0.026977962,0.07661195,-0.69371575,0.0036505423,0.2556694,0.071844116,-0.0020131473,1.8575845,0.11195701,0.21249107,-0.010807215,-0.11426392,0.99942267,0.0047628735,0.15205088,1.5299515,0.30097485,0.30173135,0.20982872,0.7011806,-0.01967711,0.17334633,0.0012932929,0.08324897,0.006652204,-0.08268499,0.46905077,0.19338638,0.12644826,0.0763389,0.1392479,0.26070657,0.7346932,0.14298724,0.39349902,-0.035460565,0.17435597,0.016685333,0.30187675,0.15460747,-0.015489796,0.6219729,0.00517235,-0.012906389,-0.70601666,0.037972786,0.28900516,0.44938436,-0.0049225506,0.5576779,0.095807076,0.040014505,0.08920443,0.19379859,0.497931,0.24445821,0.08294759,0.355995,0.66663176,0.43153992,-0.70439,-0.09832832,0.63480693,0.17542408,0.69528264,0.0059980405,0.11281634,0.635961,-0.69150895,0.2646074,-0.049957175,-0.061053317,0.34145087,0.732012,0.06437133,0.06497205,0.34308144,0.00079330633,0.20431377,0.30858105,0.39461473,-0.58673644,-3.8805683,0.26747015,0.51171654,0.5705263,0.5616744,0.017733945,0.13342012,0.21978219,0.83264667,0.06108672,1.3062146,0.3037951,0.1505132,0.7325015,0.3645526,0.24045025,0.38955277,-0.007470707,-0.2717489
