0.35242462
-0.08377721
-0.4210108
-0.4174765
-0.122474745
-0.21538359
-0.02788934
-0.036576785
-0.3479139
-0.21451269
0.5872313
-0.085864045
-0.45636782
-0.08861077
-0.06582525
-0.4387923
-0.39735955
-0.5567093
0.4095584
-0.53395456
-0.029253852
0.80653256
-0.06365888
-0.057133168
-0.40894
-0.60596716
-0.042361237
-0.20424482
0.51162636
0.34495214
-0.29054883
0.04865448
-0.5450339
0.019002058
-0.32311404
-0.1683955
-0.013538873
-0.062295645
0.5330482
-0.011724115
0.016237164
0.013644755
-0.19812173
-0.033449057
-0.123750165
-0.002304457
0.15508483
0.24532448
-0.20595536
-0.07327397
-0.057238467
-0.09256486
-0.31208327
0.50571644
-0.3718354
-0.032644425
-0.15698352
-0.18993562
-0.063447416
0.14973211
-0.25517362
0.11996009
-0.45083675
-0.5500263
-0.1689159
-0.06296073
-0.9331816
-0.54046553
-0.5002209
-0.031069191
-0.07536344
-0.28730488
-0.3661393
-0.47573832
-0.035578083
-0.40724647
0.31181854
-0.33775368
-0.08079809
0.20622543
-0.006989822
-0.45884222
0.22142175
-0.36334962
-0.32867607
-0.06612493
-0.2908666
-0.41199335
-0.057837687
-0.15156256
-0.4276563
-0.4031957
-0.03857729
-0.09704894
0.20002462
-0.0534037
-0.40687358
-0.10688656
-0.071426675
0.5974835
-0.34313115
-0.18955044
-0.047750745
-0.39012253
-0.35236022
-0.32478052
0.18104653
-0.517508
-0.042893566
-0.3353999
-0.11371517
-0.85012203
-0.043757822
0.078940876
-0.038101833
0.28055388
0.50412506
-0.03307782
-0.031929906
-0.037156943
-0.45767805
0.04828373
0.06688906
0.091257766
-0.8298789
-0.0758918
-0.079910904
-0.09747614
-0.22471724
0.4250291
0.062626764
-0.35636696
0.13878821
-0.5182823
0.11405894
-0.27127242
-0.32376873
-0.85544145
-0.21573566
-0.2604102
-0.2961577
-0.038434338
0.0660323
-0.037184328
-0.031242227
-0.52006364
-0.04556309
-0.037342336
-0.0761725
-0.25126338
-0.10287431
-0.024761843
-0.040046208
-0.36409292
0.34501618
-0.034204025
-0.017269708
-0.065070555
-0.4707658
-0.069885455
0.33778095
-0.056161072
-0.3409979
-0.011963651
-0.4429448
-0.03341029
-0.24231973
-0.19288377
0.18204267
0.10588822
-0.31009182
-0.061501835
-0.20826648
-0.3021041
-0.50133586
-0.0101079345
-0.14634147
-0.2521694
-0.51014465
-0.06536476
0.12720735
-0.042999383
0.02591483
-0.10257299
-0.053176682
-0.069901735
-0.0076164417
0.0005121949
-0.06451204
-0.03780511
-0.021258513
0.78431565
-0.027277369
-0.12763426
0.21270107
-0.27915826
-0.60986066
-0.67694694
0.5790751
-0.34505838
-0.05710922
-0.102184184
0.2654199
-0.6013238
-0.06879669
-0.18736726
0.07733719
-0.26172706
-0.07929212
-0.25130653
-0.061179783
-0.108478636
0.962703
-0.05829529
0.12374933
-0.30558178
0.13259959
-0.08154966
-0.026580341
-0.03556973
0.38581648
-0.1392671
-0.018928636
-0.03916972
0.5453911
-0.07571644
-0.44079196
0.09854833
0.64025134
-0.042040925
-0.7042453
0.62286395
-0.08829653
0.024677012
-0.15592363
-0.36925295
-0.31691197
0.12853958
-0.80518156
-0.063200116
-0.14153253
-0.18594609
0.79737926
-0.38395646
-0.4381039
0.039839633
-0.438959
-0.04415212
-0.041835662
-0.33597296
-0.027098168
0.29127517
-0.047259834
0.016767226
0.17876206
-0.206517
