0.1654652,0.31992367,-0.7686174,-0.54925907,-0.5577048,-0.09223519,-1.6248685,-0.49647152,0.7110743,-0.1420353,0.572334,-0.1400444,0.016136272,-0.5410015,0.59272695,-0.5652251,-0.23402518,-0.3790039,0.02187644,0.090378225,-0.46910143,-1.814536,-0.71505266,0.50126964,0.26124823,-0.10890762,0.41893905,1.0423003,-0.32622752,-0.16167352,0.25403747,0.26622954,0.10889393,-0.22790854,1.2632157,-0.37248242,0.85048145,-2.3590443,-0.31970936,-0.38724905,0.09808455,0.33450723,0.79018515,-0.39846396,-0.19308352,-1.4826213,-0.04217547,-0.33316234,-0.17796823,0.010033967,0.4886771,-0.23954882,0.3726768,-1.1361904,-0.050205678,-0.6758058,-0.19431794,1.457325,0.2789927,-1.5493221,-2.1353204,0.18045484,0.33461642,-0.061515354,-1.8402921,-1.0462365,0.77459556,0.10763797,-0.8610328,-1.1988999,-0.4981685,1.8161857,-0.29829237,0.73630285,0.1733065,-0.27308607,-0.98126334,0.48621786,-0.13997853,-0.630303,-0.25701675,-0.70667636,0.042071298,-0.005153723,0.100924164,0.4013963,-0.12376059,-3.0727186,-1.3734211,0.68332285,0.155515,0.25508195,-0.28177142,-1.0960467,0.7075601,-1.711741,-0.009230467,0.045807637,-0.101798266,-0.12426386,0.2727932,0.9263303,-0.09795462,0.5097888,-0.09828722,-0.3548796,0.27414417,0.27354738,0.34569588,0.70864093,0.4756589,-0.022876875,-0.022023022,-0.9999234,-0.5369652,-1.5672269,-1.3498704,0.0080643,0.05791162,-0.92063814,-0.13040079,1.3107454,-1.580245,1.9524293,-0.13758363,-0.36759394,-0.95447266,0.049402017,-0.89936817,0.71261567,-1.6078204,-0.49276885,-0.0016474925,-0.61707634,0.006895768,0.11084762,-0.12742457,-0.27168417,0.09590513,-0.14528792,0.28917998,-0.9495831,0.0098012015,-1.2278438,-0.53435624,-0.5379414,-1.0428654,-0.44838873,0.014000296,-0.02500242,0.5829729,-0.16320707,-0.3438092,-0.039971776,1.0153068,-2.2472286,-0.25442806,-2.5576308,-0.41425717,-0.6401688,-0.7551602,-0.17327577,-0.057224777,-2.1023495,-1.7762792,0.13961588,-1.46586,0.09966401,0.049509745,-0.18420018,0.27844068,0.5847793,0.15313329,0.53892785,-0.576861,-0.002387675,-0.67099255,-0.15512626,0.4041217,-0.14034282,-0.5310994,0.20516938,0.10486123,-0.85743666,-0.45547366,-1.1654994,-0.066469684,0.062179595,0.70880395,-0.5957053,-0.78912973,0.41700813,-0.043723114,0.3741644,-0.32872498,-1.7608607,0.019515228,-2.0913832,0.1807094,0.13849893,0.06789491,0.034313336,1.8964492,0.16452667,-0.010678087,0.26794854,-0.76536417,1.3088197,0.6070091,-0.524828,-1.6309005,-0.35578123,0.107722946,-1.1901816,0.051184144,-0.27508968,-0.15828358,-3.0790455,0.02312427,0.037274286,1.2582293,-0.37074924,0.17253755,-0.66510236,-0.261534,-0.6100304,0.91127545,-1.2071153,-0.15555248,0.056507006,-0.1025948,-0.042192936,-0.1680408,0.4032001,0.37679496,-1.305754,0.17712614,-0.082442984,-0.72179526,-0.030056328,-1.1392869,0.6900386,0.5795169,0.020849647,-0.8217314,-0.28055906,-0.8086753,-0.1139025,-0.05062816,0.046369925,0.044876717,-0.6112609,0.44330212,0.2032648,-1.1135623,0.20299838
0.40117472,0.1187827,-0.6416712,-0.68913615,-0.31926706,-0.37138307,-1.6455796,-0.18452741,-0.21322599,0.9673757,-2.8606195,0.059149075,0.022421107,0.049940377,0.0034551825,-0.94374,-0.0724064,-0.4142074,-0.046229124,-1.8453922,-0.97154796,-0.5357727,-1.2096685,-1.2862204,0.17810418,-7.0362954,0.13507167,-1.4138967,-0.10588052,0.060644593,0.041172396,-0.06675598,-0.06412619,-0.14062507,0.20545448,-1.0234544,-0.22354576,-2.097425,-2.6501815,-0.071300596,0.07702272,-0.101988524,-0.45647678,1.0975394,-0.8914198,-0.86874336,0.028183125,-0.5121195,0.029415853,-0.007956986,-1.2708088,-0.53524655,-0.04129209,-0.024953526,0.8344685,-0.33167917,-0.025745763,0.40306234,-0.0434124,-0.4462269,0.35543147,-0.08953748,0.55562913,-0.01390402,-0.2108827,-1.0655885,0.2558429,0.07118529,0.28583127,0.41633117,-1.3434929,0.050226614,-0.20933145,-0.8036248,0.76470625,0.023177415,-0.46816462,-3.6132648,0.57000464,-2.2227046,-0.62293994,-2.7174575,-0.05100032,0.0020426288,0.05674111,0.35320622,0.15290944,0.38925213,-1.3601485,1.1546762,-0.51417595,0.24603893,-1.3396676,-4.8612404,0.24377953,-0.12983373,0.51321626,-0.057082467,0.46420413,-0.6157888,0.56648844,-0.42802683,-0.025994118,0.37751633,-0.3457831,0.19572292,0.036411356,-0.7942087,-1.1311852,-0.12334153,0.6148667,0.44007903,-0.013412893,-0.436994,-0.13527545,0.84800255,0.8756131,-0.38992825,-0.059039816,-0.04189904,0.54610187,-0.4029404,-2.017756,1.403458,-0.14807174,-0.3816397,-0.25168374,-0.9147532,0.080760986,-0.9967935,-0.10915134,-1.0626868,0.024642417,0.5564394,-0.03321388,-4.6155076,-0.87299305,0.0032176701,-0.8157102,-2.5373666,-0.18219618,-1.7804993,0.025336169,0.40079993,0.23279032,1.4067096,-1.6790559,0.00432128,-2.5049887,0.019166414,-3.054479,-0.573394,0.081021376,0.016122214,-2.978569,-0.06158502,-0.235417,-3.810449,-0.08303154,0.5195358,-0.47023287,-1.5355992,-0.23417854,-0.65532243,-0.61434346,-0.033365224,0.6871179,-0.20080885,0.010215353,0.004306401,-1.6165473,-0.20558277,0.4803362,-0.39697614,-0.7172815,0.09103138,-0.099637985,0.75477046,-0.02273986,-0.1763065,-0.6659003,-0.18603353,0.19696957,-0.2946668,-0.11005456,-0.16697149,1.1093402,-0.37923276,-0.118024886,-0.8071343,-0.110766955,-2.2104347,0.049166687,0.35370728,0.17085858,0.5263959,-0.13481344,0.2924283,0.6048386,0.40287003,0.47945917,0.13121197,-0.96238357,0.034545656,-1.2812285,0.33096212,-0.0048263455,-0.69769055,-0.97678536,0.43149996,-0.1258512,-0.463876,0.1840933,-0.4509945,-1.3452607,-0.28116322,-0.39745814,0.4798949,-0.1369799,0.021517038,0.49140993,-1.0595046,0.23036425,-1.3605071,-0.4926142,-1.0430174,-0.00500281,-0.16355436,0.42824626,0.002532348,0.08995133,0.020556666,-2.4651399,-0.17955367,2.4926229,-0.09021608,-0.92186636,-0.17380065,-0.47895458,-0.012898102,0.77278733,0.05030722,0.21088947,-0.50768393,-3.6975598,-0.56360644,-0.5353306,-0.265227,-0.07080108,0.04103541,-0.01850176,-0.69593656,0.11943831,0.2041817,-0.032633573,-0.22608535
0.031571325,-0.05860112,0.03741519,-0.0063110087,0.010013581,-0.066692434,-0.017966231,-0.026081175,-0.029305976,-0.03957114,-0.028496591,-0.055088576,-0.037613533,0.03186657,-0.066960834,-0.0016724148,0.046670068,-0.057129703,0.052676857,0.04527622,0.009883657,-0.002272677,0.03746114,0.047878865,0.029082324,-0.060906075,0.029901894,0.016487526,-0.054147635,-0.06917525,0.045140803,0.011118658,0.031210642,-0.04859174,0.042996287,0.033191297,-0.062471803,0.039587192,-0.015071677,-0.0075072353,0.05054862,-0.043755107,0.0042183795,-0.059983827,-0.06250567,-0.036455806,-0.04304456,-0.07122248,-0.05072004,-0.008534215,0.026807783,-0.05866241,-0.033461805,0.0029298663,0.0052896403,0.0447317,0.013567289,-0.05846914,0.051584378,-0.07195776,-0.07959812,0.011499495,-0.036065936,-0.009829044,-0.01703852,-0.050655626,-0.04475409,-0.017259123,-0.064572185,-0.011485066,-0.061753254,-0.006354055,0.006641627,0.006160047,-0.070990555,0.001371788,0.042209618,-0.065502234,-0.08145686,-0.013565105,-0.0006406129,-0.03688644,0.014333315,-0.051502667,-0.039602675,0.011185092,-0.04239365,-0.076524116,0.009702063,0.025300382,-0.06860436,-0.045902237,0.019580556,-0.0710575,0.0031009445,0.027193159,0.053844687,-0.03374275,-0.0545442,0.02190572,-0.041288372,-0.024152435,-0.030621003,-0.010420086,-0.014097339,-0.05076797,0.01808661,0.007145853,-0.020968836,-0.050791863,0.042284217,-0.05303515,-0.031847045,0.06669244,-0.012714903,-0.039595816,-0.034283634,0.002786165,-0.023529515,-0.0055472674,-0.028169708,0.029701272,0.03081966,0.026233535,0.03130723,-0.005763795,0.014796258,-0.01822003,-0.0009844231,0.02853537,-0.06551601,0.003405509,-0.05807272,-0.024485316,-0.021921441,0.038328744,-0.05132728,-0.06056659,0.051677212,0.0026611912,-0.007469216,-0.0017401233,-0.046291523,0.021414025,0.0567602,0.0010426966,-0.06235284,-0.015926871,-0.04623582,0.012896262,0.0014942045,-0.024904389,0.006977956,0.039154373,0.03629833,0.045736305,-0.055929597,-0.063216254,0.023207745,-0.03492212,-0.05651078,-0.017150419,0.011661935,0.0060274606,-0.011132704,0.031704094,-0.016453722,0.010198489,0.010098934,-0.034218557,0.038495515,-0.08329298,0.05305688,0.06497457,-0.02854064,-0.038573787,0.049955312,-0.013345519,-0.0045006694,-0.03128861,0.04741312,-0.009438265,-0.0666779,0.009060424,-0.026432151,0.030543558,0.023955075,0.014599621,-0.07900491,0.061977293,-0.06448293,-0.037569877,0.04428859,-0.056604315,-0.009254462,-0.025774335,0.041900743,-0.01611542,-0.051029906,0.0073044915,-0.031894244,-0.055254888,0.056067638,0.029506046,0.01010048,-0.014722085,-0.065771766,0.0008196067,-0.04924016,-0.08183458,0.026423555,-0.01733436,-0.014491132,0.008663193,0.025767112,-0.052087665,-0.06294444,0.005840123,-0.00903513,0.039651923,0.005623424,0.013930766,0.0084812995,0.020748207,0.019386357,0.02019924,-0.047387913,0.016376026,0.041448094,0.05173672,0.0077571715,0.024380505,-0.019563837,-0.010211215,0.013819358,-0.050272834,-0.022277957,0.06176488,-0.012319957,0.056593686,-0.05775853,-0.042609192,-0.050099544,-0.010135274,0.0245041,0.012962206,-0.024335515,-0.033376303,-0.051835034,-0.047351472,-0.021494025,-0.051902864,0.023091927,0.02400998,-0.0758867,-0.050134297
-0.004950741,-0.0203597,0.47692242,-0.7529456,0.010563119,0.020752586,0.046603214,-0.3264311,-0.025126053,0.48927042,-0.46192014,-0.21906458,0.014201183,1.0199074,-0.8540495,0.050203003,0.025776742,0.27365136,-0.007379487,-0.2694273,-0.15222605,0.2393836,0.01441772,0.47587827,0.09493529,0.5994313,0.14107452,0.16517113,-0.15400292,0.03924886,-0.18893023,-0.106091835,0.20461303,-0.2378828,0.17792182,0.08677203,-0.022448828,0.1529502,0.21973734,-0.061626222,-0.072540276,-0.33966732,-0.1427946,-0.46945778,-0.5240273,-0.0004686045,-0.048643015,-0.16687588,0.07763633,-0.16844375,-1.1777637,0.38386345,-0.10938261,-0.49712276,-1.0910684,-0.68992865,0.04180936,0.17156768,0.31355533,-0.09845893,0.25872722,-0.011808402,0.988155,0.03370315,0.7328377,-0.47704896,-0.07799211,-0.12976159,0.18742429,0.15170746,-0.27295732,-0.31129837,-0.098907895,-0.013588932,-1.2043331,1.3321556,0.15504664,0.03235247,0.37256718,-0.92088807,0.04188545,-0.72518194,-0.0038458034,0.05813478,0.05089202,-0.83521056,-0.1218869,0.30850598,0.6020248,-0.62422377,0.13089928,-0.08958582,-0.7743377,0.099554785,-0.31144556,0.3312081,-0.3685758,-0.012039416,-0.1404462,0.70000803,0.39431378,0.77234936,0.2551518,0.120603934,-1.0048063,-0.93208176,0.099611364,0.608978,-1.9572139,0.7214992,-0.16285156,0.04137696,-0.017605431,0.6603914,-0.0076921,0.5747725,0.70892364,-0.01384092,-0.043306805,-0.04403612,-0.26470497,-1.1821998,-0.18469888,-0.7156076,0.042708676,-0.04330516,-0.41872287,-0.06693169,0.083214834,0.59325176,-0.16248824,-0.093903616,0.058227737,-0.62035686,-0.039227195,0.17090246,0.034417056,-0.04671863,0.07662327,0.55546856,0.04846077,0.4373387,-0.00022387505,-0.69530445,0.2893079,-0.45535812,0.5736914,-0.49181226,-1.66723,-0.061780784,-1.0963044,1.0223246,0.21558106,0.004191309,0.62903297,0.37181467,-0.4730071,0.0680843,-0.056075636,-0.40555045,0.35263726,-1.4908451,-0.12803754,0.026881067,0.1559005,-0.18643236,0.62701124,0.018733736,-0.0053820573,-0.7476652,-0.3468447,-0.45906195,0.16016869,0.832863,-0.014819351,-0.1481176,-1.409997,0.7832352,0.02026379,0.0064683715,0.20631446,0.3436287,-0.21741423,-0.28586572,-0.19438787,-1.1237607,-1.3414526,0.0049432614,0.1592238,-0.0012331847,-1.2713155,0.45400864,0.04034271,0.060876768,-0.73535156,0.48904318,-0.022017492,0.07852855,-0.62845576,-0.18862717,-0.54059434,0.47395292,0.7633109,0.02019323,0.713197,0.25338924,0.0803453,-0.28493288,0.023103012,0.06986331,0.9613577,-0.04442145,-0.65269136,-1.9938658,0.8656012,0.39448962,0.008851846,0.699177,1.0450722,0.0574375,-0.13999373,-0.1598968,-1.0318074,-0.4089186,0.09799868,0.09394334,-0.023704482,-0.91227275,-0.4148442,-0.0091052875,-1.1444025,0.024475425,-0.33097908,0.6548344,-1.0859076,0.061069734,0.107344575,0.49876145,0.088832624,0.027995825,0.4430728,-0.7986261,-0.1221684,0.22722806,1.2077609,0.5103184,-0.08628545,0.37541598,-1.028199,-0.006453939,0.1529879,0.06628929,0.07657008,0.9400846,0.45867875,0.30433074
-0.015084091,0.019121885,-0.07773675,-0.034508538,-0.0013901818,-0.015515177,0.08305046,0.098231636,-0.20683748,-0.0862481,-0.08341656,-0.0021609222,0.03964274,0.016901651,-0.039259143,-0.021119166,-0.09859171,0.0010810117,-0.0501287,-0.12380291,-0.10711695,0.16105632,-0.086802445,0.024164421,-0.083360694,-0.020684348,-0.027117267,-0.1910106,0.053613763,-0.019285677,-0.0121967215,-0.12547243,-0.027918065,-0.22474787,-0.15223306,-0.11730863,-0.023272175,-0.055631764,-0.0015071201,-0.24226479,0.021336176,-0.18976569,-0.08388621,-0.04172692,-0.07812453,-0.030236688,0.032377183,0.04338789,-0.046491943,-0.052690122,0.084181555,-0.06546003,0.00067147444,-0.06021802,-0.018105652,0.026463343,-0.093317844,-0.17463614,-0.07377927,-0.066671774,-0.1449596,-0.023404054,-0.033960335,0.046983898,0.032525703,-0.103888944,-0.14610143,0.035741113,-0.17378585,-0.044286422,-0.15438336,-0.10151569,0.029657895,-0.07288096,-0.06007887,-0.15831062,-0.07286803,0.08656323,-0.20938195,0.05782015,-0.04044748,0.01673788,0.019967318,0.0021351576,-0.018627768,-0.008002085,-0.2505204,-0.0756747,-0.016940868,-0.08341889,-0.003375523,-0.0016794204,0.004788534,-0.16461237,-0.038197976,-0.035166822,0.09828429,0.009445891,-0.09542817,-0.20724274,0.011214727,-0.1806952,-0.04098397,-0.2857051,0.0846291,-0.04669146,-0.18352956,-0.1432306,0.0020852992,-0.033706937,-0.09364117,-0.037501544,-0.05265186,-0.10255536,-0.13105391,-0.22886465,-0.06319987,0.00013503761,-0.01660002,-0.07257263,-0.0645263,0.050500836,0.008012908,-0.009402751,-0.08225193,-0.0636543,-0.10601766,-0.011453642,0.025971133,0.061099708,-0.029882653,-0.09758547,0.025255004,-0.07215339,-0.02987596,-0.06980542,-0.09644105,0.028234424,-0.07432354,-0.04464736,-0.138635,-0.062294874,-0.03721033,0.10762491,0.0031064393,-0.1494823,-0.10997692,-0.08252069,0.058357775,-0.01505556,0.017599057,-0.2957732,0.06830283,0.037833065,-0.006072663,0.047536343,0.10068135,-0.022006944,-0.077939115,-0.17342323,-0.004055645,-0.08343208,-0.030764043,-0.0036456804,-0.1649637,-0.041418888,-0.021988615,-0.11058689,-0.026898794,-0.043888234,-0.06244705,-0.013910769,-0.10189086,-0.048838694,-0.21166861,-0.042839237,-0.05546761,-0.20635712,-0.07622955,-0.0152074145,0.058561135,0.011501709,-0.10380455,-0.19197387,-0.11428205,0.02651705,-0.10095469,-0.011640456,-0.15009405,-0.07744968,0.028058961,-0.087003075,0.032083243,-0.04645357,0.007726864,-0.122124776,-0.06335808,0.102124214,-0.06356194,0.008683806,-0.074674286,-0.14053777,0.31412366,0.11624632,0.023838924,0.053073872,0.009998904,-0.032063276,-0.09862092,0.0044655083,-0.15714061,-0.016230201,0.11748841,0.081580095,0.04437908,-0.16751572,-0.051806826,-0.033832267,-0.16824363,0.060317196,-0.023525434,-0.05313203,0.022725131,-0.026069598,-0.042281277,-0.1751856,-0.1327036,-0.027803611,-0.05381016,-0.026708268,-0.10089855,-0.0015208498,-0.079829626,0.12371211,-0.050486036,-0.10906032,-0.055732664,-0.08391985,-0.082837306,0.0027205274,-0.094741814,-0.0257448,-0.19328135,-0.06649089,-0.34796426,-0.23065142,-0.024693802,-0.16711445,-0.04032482,-0.023727829,-0.06917079,-0.06900634,-0.05552734,-0.15013467,-0.2189101,-0.08941424
-1.108165,-1.9166185,0.19811226,-0.8063097,-0.23845038,-0.7089065,-0.4173187,-1.1351835,-5.6791315,-0.8266328,-0.09011343,-0.18440342,0.005963852,-1.6148561,-0.6798119,0.31789467,0.07643378,-1.6236082,-0.021641493,-0.24185425,0.08015517,-0.89440364,0.20726362,-0.48437855,-0.054526675,0.5628754,-0.1952764,-0.83103156,-0.66203314,-0.24823104,-0.015024982,-0.068265386,-0.44031915,-2.4250104,-0.24715498,0.053750493,0.26268825,-0.46234238,0.056226958,0.03844102,0.10172132,-0.25974217,-0.020590417,-0.10898892,-1.3917155,-0.32082015,-0.020963088,-0.2620594,0.03101663,-0.66242784,-0.07243311,-0.46581355,-0.14251933,3.2326086,-0.60165125,-0.04318696,-0.042936224,-0.42915624,0.07823387,0.32321957,0.8359468,-1.0836345,0.55549014,0.05054643,-0.40894553,-1.2504094,0.3201645,0.09860913,-0.11305566,0.6920556,0.9371724,0.07165402,-0.022967534,-1.2052493,-0.5104527,-0.8438062,-1.000892,-0.87668467,-0.11100146,0.30071184,0.38845968,0.21000698,-0.018546155,-0.03544856,-0.22685404,0.21763581,-0.2919082,-0.51058954,-0.38182434,0.22732306,-0.17109956,0.0048906105,1.2131338,-1.5377448,0.34668124,-0.3115112,-0.77454394,-0.03733533,-0.7353146,0.55290043,-0.17880408,-0.50658244,0.10583651,0.8278084,0.16186044,-0.047492966,0.0064342082,-1.6384432,0.08421281,-2.8747103,-1.5146368,-0.063941576,0.005041659,0.31338298,0.059773147,-1.875503,-1.9878287,-0.10402046,-0.055659123,0.22069673,-0.91261715,-2.0727754,0.4579937,-2.4009254,-0.0476086,-0.10834018,-0.09524298,1.178971,-0.5758538,-2.0561237,-2.4367425,-2.4773064,-0.101979904,-0.7920662,-0.010315856,-0.240545,-0.03226933,0.18687879,-0.0666282,-1.5971955,0.35385475,-1.8431643,0.05695471,0.40720043,0.106891386,-0.88128316,0.10635982,-0.13187684,0.21086681,-0.044680245,-0.6058542,0.5944065,-1.7672145,-0.058282845,-0.3213687,-0.07712241,0.2722561,-0.3035458,-2.109563,0.8224507,-0.18016471,-0.35421702,-0.75729585,1.2227983,-0.0980851,0.09977319,-0.1051749,0.086928785,0.04319202,-0.30280307,-0.11976111,-0.067108266,0.008944709,-0.48605555,0.40235388,-3.6238465,-0.02503133,-1.3395307,-0.24793054,-0.19698943,-2.042105,-0.8456099,-0.31254563,-0.36046034,-1.1689613,-0.44730178,-2.5488276,-0.013032867,-0.45872158,-4.1197543,0.6428198,1.3508232,0.035608083,-0.24979332,0.056688458,-0.29242897,0.3287053,0.460867,-0.17829783,-1.9851037,-0.14462811,0.20152529,1.1484987,-0.024238883,-1.481555,-0.7804719,-0.2149876,0.2533304,0.47984692,-0.032781005,-0.43536365,0.025599422,-0.04822452,0.44784203,-0.08363847,-1.0575064,0.051396646,-0.24254218,-0.6575586,-0.04257641,0.01669004,-0.45408073,-0.59811676,-0.8405327,0.034208976,-0.011849201,0.8982644,-0.7897465,-0.810581,0.03041713,-0.06961232,-0.010439821,0.30954283,-2.2288668,0.90016735,0.5817987,0.069666855,0.033208422,0.783491,0.04642722,0.1677239,-0.12750228,-0.85016716,0.44695902,0.7017063,-0.7599459,0.510631,-0.8560139,0.18159343,0.037272394,0.70078886,-0.20859845,-0.31778002,-0.30084103,-0.40097076,-0.432562
0.012006597,-0.09851785,-0.06719728,0.011044612,-0.14542852,-0.05093939,-0.12087892,-0.26100746,0.07077694,0.12395434,-0.016169539,-0.091142245,0.0018512459,-0.0770615,-0.0021169726,-0.07197479,-0.0028022546,-0.23201358,0.062308542,0.007140908,-0.10910147,-0.05427946,-0.06640981,-0.16687272,-0.023786383,-0.015387948,-0.09523788,-0.025592016,-0.04780122,-0.122307725,-0.10694677,-0.08010984,-0.043578815,-0.093867116,-0.08490501,-0.20641817,-0.074098885,-0.11409774,0.010369897,-0.039679676,-0.10456998,-0.03680183,-0.010574298,0.038523868,-0.09079467,-0.06602755,0.0071644634,-0.10586378,-0.058721256,0.011158998,-0.0017840099,-0.023510883,-0.10083129,0.16564544,-0.06666787,-0.21721093,0.05998527,-0.025733188,-0.077263564,-0.02207197,-0.037335448,0.009597154,-0.026551746,0.05384753,-0.18672304,-0.08492658,-0.06372862,-0.06736065,-0.07666128,-0.019321034,0.08651136,0.039636217,0.01670444,-0.060895957,-0.053583026,0.20863597,-0.12321766,0.02664139,0.03337373,-0.013606576,-0.03962146,-0.17591916,-0.012568231,0.011872068,0.021835715,-0.03435178,0.02341402,-0.0070273955,0.029406486,-0.118135385,-0.14228171,-0.05248684,-0.0337734,-0.040167242,-0.09842527,-0.046290666,0.054949448,0.004429832,-0.009956951,-0.12735556,0.04003053,-0.20557137,-0.09264748,0.1255093,-0.09685821,-0.037423547,-0.10528075,-0.050800066,-0.1659142,-0.13900542,-0.051631548,-0.09114837,0.025691286,-0.14354159,0.06556454,0.08058499,-0.030875567,-0.06258051,-0.0061443597,0.007018651,-0.053047538,-0.02981621,-0.041851435,0.03191707,-0.023257922,-0.0297713,0.00041649162,-0.23067021,-0.087619625,-0.031000081,-0.083934575,0.001750693,-0.02804145,0.047107168,-0.01851358,-0.13311535,-0.002544225,-0.084918536,-0.018960163,-0.06729617,-1.2755712e-05,-0.11682099,-0.055941015,0.0050125616,-0.009663843,-0.013489329,-0.032843493,-0.1329571,-0.09637785,-0.04024775,0.015304752,0.03966167,0.21373363,0.04204788,-0.04925931,-0.1018668,-0.035043743,-0.10448033,-0.03150555,-0.052463494,-0.023819087,-0.0118274,-0.11255793,-0.101502225,-0.06145558,-0.045667287,-0.11463345,-0.07833166,0.05944869,-0.09220603,-0.07049729,-0.19509725,-0.123557456,-0.19577792,-0.21494335,-0.15251048,-0.029567437,-0.0022528803,-0.07511211,-0.010310967,-0.100251436,-0.0684115,-0.11776415,-0.09817164,-0.09482645,-0.029951867,0.05930107,-0.18111002,-0.036686417,-0.0542011,0.055770166,-0.13279949,0.041738294,-0.030639855,-0.109724425,-0.0946665,-0.09869915,-0.02758892,-0.12500064,-0.049509045,-0.10798779,-0.08110466,-0.01394182,0.013507185,-0.08312577,-0.20426248,-0.1726809,0.011201548,-0.0065471013,-0.0801129,0.09607853,0.03684878,0.04053896,-0.11479304,-0.114145614,-0.10193934,0.060102887,-0.108139314,-0.053329095,0.06225887,-0.041248202,-0.08737785,-0.0753512,-0.08414556,0.020929117,-0.08305226,-0.008470599,-0.03934446,-0.12762237,0.030469596,0.04594409,-0.04956626,-0.08961529,-0.059066575,-0.082616225,-0.113531776,-0.073015,-0.059651818,-0.12850483,-0.059551865,0.049628984,0.007829606,0.16702002,-0.13785353,0.24199395,-0.13295664,0.004939764,0.012659979,0.070452474,0.029171562,0.09083766,-0.04306804,-0.008759836,-0.050036706,-0.024456715,-0.0029847987
-0.030832252,-0.13733907,-0.057566263,-0.030449757,-0.01708697,-0.09222637,0.08922585,-0.050255075,-0.34417385,-0.14311765,-0.042248417,-0.083313294,-0.037375055,-0.025394984,-0.016609034,-0.039650347,0.0098146545,-0.07116645,-0.028901666,0.031816248,-0.062600404,-0.056214165,0.03191124,-0.12960152,-0.13268824,0.13560633,-0.027870046,-0.23136728,-0.045796636,0.017338928,-0.015226876,-0.3052215,0.056361344,-0.114412144,-0.14012027,-0.01829357,-0.044650342,-0.0077214455,-0.081000574,-0.07978639,-0.082662016,-0.1227449,-0.051366244,-0.044671554,-0.020585565,-0.07128608,-0.0059528574,-0.10224136,-0.006706316,-0.1322363,0.045552716,-0.009056497,-0.012545038,0.063102104,-0.11745561,-0.06039015,0.024674313,-0.18575104,0.008025731,0.009458635,-0.083035596,-0.0807929,-0.020963565,0.039921165,-0.25341713,-0.06803564,-0.12155005,-0.079084694,-0.058061913,-0.01611586,-0.121275894,-0.049959812,-0.09688003,-0.009413481,-0.02289397,-0.009242313,0.11342419,-0.010204273,-0.08629204,-0.12523489,-0.07175015,0.046025097,-0.023794051,0.005755529,0.05834239,-0.0543767,-0.024029298,0.06369954,0.103317514,-0.083132565,-0.012521913,-0.12910703,-0.08388518,-0.034173265,-0.088539176,0.031131981,-0.058945913,-0.035307698,-0.040903464,-0.044960372,0.056480043,0.12002971,0.03209413,-0.013108595,-0.008273611,-0.03179869,-0.06651062,-0.19827558,-0.04475789,-0.024439402,-0.027786428,-0.055266116,-0.05814282,0.04983237,-0.1000963,-0.008885953,-0.09849218,0.019368153,-0.042886592,0.0050052884,-0.07654393,-0.10937794,0.14650245,-0.08964795,-0.03694308,-0.04666733,0.013716856,-0.139881,0.09346159,-0.06190626,-0.13123015,-0.06154224,-0.06776007,-0.06584063,0.036755107,-0.044809125,-0.10444861,-0.12575708,-0.114045516,-0.07961522,0.024849959,-0.008163449,0.027508698,-0.07529724,-0.013162114,-0.07007631,0.033219136,-0.15057854,-0.18720958,-0.024355017,-0.040211722,-0.064344734,0.00091880676,-0.040064707,-0.09678239,0.019827574,0.078771144,0.0077497074,-0.15562953,-0.0674467,-0.10060135,-0.15592946,-0.16281824,-0.06268904,-0.0042167515,-0.11614356,-0.13483995,0.0073240334,0.028314957,-0.114186324,-0.29051456,-0.07683425,-0.13748166,-0.036944002,-0.0080777025,0.035045024,-0.015679903,-0.079126224,-0.18894096,0.0015599425,-0.013266757,-0.06385728,-0.010402739,0.053451348,-0.0929701,-0.075305335,-0.055808622,-0.11212053,-0.15652403,0.039867304,0.09238014,-0.07992025,0.03229639,-0.046461787,-0.08746035,-0.021860134,-0.09943381,0.057998795,-0.06330882,-0.072782055,-0.11147638,-0.0848784,0.01438239,0.0809859,-0.013428898,0.084199056,-0.21109314,-0.031856522,-0.047497008,0.003309667,-0.012373251,0.02192528,0.2137263,-0.050628487,-0.06815512,-0.25778455,-0.02995235,0.029865598,-0.179973,0.004270047,-0.110169336,-0.13412753,-0.054799598,-0.028237738,-0.03893959,0.013383647,-0.039505113,-0.042530563,-0.16589122,0.040087983,-0.042983558,-0.044344902,-0.039351404,0.022465663,-0.09564717,0.05770499,-0.1613684,-0.08896944,-0.057982605,0.049735203,-0.04586016,-0.014576907,0.025267787,-0.098335505,0.053176742,-0.18805043,0.014234957,-0.1293877,-0.0358561,0.003257744,0.050261542,-0.039724592,-0.050257426,-0.06723864,-0.05581581,-0.11382886
0.15692978,0.16062412,0.40121898,-1.3259873,-0.067671835,-0.050907504,0.21031271,-0.5266746,0.61804634,0.38345006,-0.44434154,-0.0536392,0.0322189,0.49834925,-2.5430753,-0.24948154,-0.006430024,1.0445957,0.062426344,0.39224002,-0.5147633,-0.2585287,0.20705402,0.3391047,0.081636496,0.629519,-0.33409327,0.6954063,0.61829853,0.0028847079,0.095606714,-0.0555377,0.29593813,0.062242866,-0.23162523,0.049296524,0.08157429,0.18746935,1.0684807,-0.61218053,0.09843144,-0.17778191,-0.0027056062,0.7270727,-0.015369824,0.15843153,-0.023782961,-0.34690827,0.052247256,-0.16618119,0.17670074,0.88756084,-0.06984761,-2.7933521,-0.7581222,-1.1237364,0.1617657,-0.13536912,-0.01166615,-0.06347115,0.06276983,0.22552313,-0.8692978,0.057013854,1.0841672,-0.6524048,0.48385054,0.016845474,-0.008869401,-0.07270063,-0.80199146,0.42259198,-0.06402543,0.012204915,-0.5696971,0.3084687,0.19351506,0.4230065,-0.23734936,-0.12859185,0.048894744,-0.74222696,-0.053313665,-0.009830937,-0.037954904,-0.48646486,-0.0051938226,0.37217203,0.73079133,-0.6943184,-0.13807952,0.18526755,-0.06545453,-0.096349806,-0.521709,1.1045189,-0.19590206,-0.04455898,0.13070604,0.62904,-0.55707866,-0.3750708,0.764359,0.6111124,-0.8047902,-0.7244432,-0.1584133,-0.4405403,-1.0539943,-0.14462586,0.21597601,0.08727988,-0.00021390617,0.72910416,-0.8227995,0.56851643,-0.01198205,0.015807226,0.054679148,-0.16037354,-0.06672757,-1.5024016,0.12673,-0.97178864,0.084708884,0.03642231,0.30471072,-0.038978793,-0.042344313,1.2180716,0.2489193,0.5782491,-0.069958836,-0.42724058,0.035684153,-0.80472827,0.003054385,-0.0497987,0.08506053,0.9042234,0.009769552,0.28421238,0.041913837,0.9415246,0.1427784,-0.25871193,0.18779,-0.28108406,-0.30694792,0.048637543,-0.690198,1.3342772,1.484433,-0.041974105,-1.5118251,0.010429858,-1.0133489,0.89795077,0.028500108,0.16976276,0.042757172,0.021477975,0.109262906,0.5957197,0.16518733,0.01900441,-0.008331643,-0.037166245,0.007996212,-0.89261127,0.17515515,-0.621147,-0.05269688,0.91754663,-0.18987787,-0.015780542,-0.99005264,-0.03992286,-0.061280526,0.055811662,0.5607957,-0.024252035,-0.18212774,-0.23720814,-0.5700745,-0.6291304,-1.1906941,0.041593734,0.075707644,0.4432945,-0.7458983,-0.17893396,-0.05795417,-0.729317,-0.10909835,0.3527923,0.0075931814,0.36456373,-0.31372112,0.24570432,-0.7484652,0.15201002,0.4511151,-0.21315879,1.2170247,-0.029391048,-0.082374014,0.25726163,-0.2862613,0.3695921,0.9404586,-0.036270883,0.33653465,-0.30633155,0.3720012,0.11425046,0.11488589,0.7149247,-0.27645773,-0.028619751,-0.7738601,-0.14639048,-0.34504333,-0.26889876,0.054480378,0.08331194,-1.406079,-0.5617296,-0.29171878,-0.048614517,-0.55360395,0.035998836,-0.15589756,-0.6714621,-0.62823766,0.18140395,0.11623421,0.3427373,0.13291353,0.05621651,0.45636725,-0.60944664,0.7301543,-0.27071488,0.669725,0.33687896,-0.2538126,0.22373106,-0.21087058,-0.055814803,0.3177565,-0.09297903,-0.049444377,1.1436802,-0.011471494,0.4413381
-0.029746396,-0.011578138,-0.0024922758,0.05030529,-0.007843269,-0.046010043,-0.114456624,-0.046633076,-0.13112177,0.050654825,-0.055718962,-0.009652421,-0.017762018,-0.010585787,-0.081220254,0.050216205,0.027874669,0.025232881,0.02406668,0.010978843,-0.09147824,-0.028045733,0.024088869,0.0064156475,-0.07623229,0.025276255,0.043611664,-0.02493533,-0.077170126,0.03943107,-0.07753333,-0.06537225,-0.069771044,0.00037235225,-0.0022022699,-0.13919565,-0.0039803223,0.00869465,0.035040636,-0.05487697,-0.0302515,-0.04915908,-0.012054275,0.06387452,-0.010611108,-0.03502326,-0.05251094,-0.007220505,-0.08045997,-0.012764016,-0.028205374,-0.029423412,0.016598525,0.06926881,0.022984184,-0.055955052,0.035237033,-0.019623633,-0.05214528,-0.041969553,-0.028301893,-0.08278133,-0.038790148,-0.04277792,0.02346925,-0.05847603,-0.04617438,0.024684098,-0.08452632,-0.0024910644,-0.037705112,-0.0467458,-0.08849253,0.014664464,-0.08176803,-0.041739296,-0.16216932,-0.059892043,-0.018669568,0.023346178,0.026360365,-0.016556196,0.02506809,-0.011290856,-0.0057844818,-0.036417194,-0.032903694,0.013941843,-0.012605491,-0.08509559,-0.040132586,0.025879102,0.14635025,-0.06452784,0.042530846,-0.07197639,0.026297662,0.049738184,-0.07856548,-0.012746051,-0.017323684,-0.0556288,-0.13931502,-0.07877769,0.09343701,-0.099562235,-0.08505342,0.009405668,-0.031553227,-0.094665654,-0.038154695,-0.060275275,-0.0070065036,-0.06248006,0.033172596,-0.015496808,-0.08704888,-0.028717704,0.023054384,-0.043103594,-0.093788706,0.08194742,0.035195384,0.026410744,-0.0027386865,0.044002946,-0.030405473,-0.09817594,0.032518215,0.041372806,-0.013167024,0.014789781,-0.06806819,0.017540596,0.043249357,-0.12190299,-0.06256075,0.005873262,-0.049860645,-0.030467844,-0.06966122,0.021001354,0.05037453,-0.010201905,-0.06305047,-0.003666655,0.0044225273,-0.0021131034,-0.004110857,0.016236924,-0.05972747,0.042972174,0.010994297,0.0058709756,0.07018136,0.020174043,-0.09003048,-0.022276523,-0.06647138,0.014877486,0.047595464,0.028019361,0.0039794575,0.014251367,-0.11567412,-0.0015905116,-0.016254175,-0.046576973,0.023082964,-0.07870709,-0.0057678088,-0.02757063,-0.0071564475,-0.0736218,-0.08547699,-0.063163355,-0.036016535,-0.00955594,0.007799999,-0.045270436,-0.070411764,0.028587824,-0.09971817,0.033639915,-0.041045964,0.04330924,0.020346133,-0.08433485,-0.06441551,-0.042880114,0.042840447,0.014028161,-0.0031958073,-0.08240533,-0.032891307,0.024021897,-0.051951088,-0.05949412,-0.06454591,-0.057487812,0.012205647,-0.048831508,0.07752166,0.117890805,-0.013784131,-0.0075966096,-0.04525486,0.015389952,-0.07823751,0.026929563,-0.10723612,-0.048293598,-0.019311901,0.055145714,0.022351004,-0.041885734,0.026375432,-0.04198654,-0.11649384,-0.021202669,0.05315544,0.015812006,-0.07310447,-0.043996524,-0.059042137,-0.07348912,-0.055027958,0.041124646,-0.022373086,0.045561664,-0.05654266,0.043115072,-0.06562296,0.0055709947,0.0830889,0.02987241,-0.016388608,-0.085122235,0.012425622,-0.022904664,0.007668955,-0.0041792095,-0.0053701783,0.044728428,0.013020354,-0.08131722,-0.017857013,0.0065397862,-0.035850342,-0.03200994,0.0017134685,-0.016957859,-0.05945439,-0.101946086,-0.08818353,0.04172593
-0.07147548,0.015905216,0.041683894,-0.035147563,0.023673622,-0.06085141,-0.04267642,-0.0060136192,0.039393645,-0.027337953,0.024702739,-0.008249446,0.05390373,0.022839405,-0.048841413,-0.019244583,-0.0047746957,-0.001163736,0.022752747,0.036992952,-0.06435233,0.035789244,0.012292387,-0.064811885,-0.054621264,-0.021928824,0.046817202,-0.00078326993,-0.010841388,-0.02775677,0.042377893,0.054257218,-0.03705118,-0.011168045,-0.06783783,-0.042416558,-0.021510918,0.038055856,-0.04137896,0.016059473,-0.004000104,0.049190775,-0.072317675,-0.048900064,-0.017685004,-0.0154453,-0.03340546,-0.053077176,-0.023546815,0.002408048,-0.005829657,0.042582106,-0.010875655,0.033580087,0.037136365,-0.014160175,-0.017738461,0.009704001,-0.057155043,0.035327982,-0.061257523,-0.03768972,-0.05487676,0.044111148,0.057784438,0.02397064,0.0064484864,0.01580707,0.014917073,0.039754532,-0.03972377,0.013979326,-0.06326596,0.046507306,-0.05722506,-0.014496087,-0.003609421,0.03541665,0.049732458,-0.003123569,0.005538332,-0.040620632,-0.030296106,0.0036219805,-0.035925258,0.029391691,-0.04595985,0.04750871,-0.012539792,-0.04993493,-0.059070766,-0.04315819,0.03010538,-0.057634745,-0.02547486,0.022391438,-0.029851446,-0.060045473,-0.052212693,-0.008558691,-0.011135855,-0.03402756,-0.017470855,0.049923226,-0.05809624,0.035076648,-0.0012184526,-0.036712136,-0.02229889,0.043976292,-0.051199168,0.012779582,0.04630176,0.012892001,0.03524612,0.05188654,-0.004612028,-0.06540457,0.018529043,0.008109809,-0.039865997,-0.022971924,0.0513948,-0.04074295,-0.020142926,-0.04542049,0.0041758106,-0.002630541,-0.010566276,0.03917986,-0.030333815,-0.050947644,0.047774218,-0.044977237,-0.03926804,-0.03343109,-0.0008810202,0.04154255,-0.052830134,0.028833317,0.022063415,0.024466693,0.04337126,-0.046652637,0.045314144,-0.06414907,-0.04213518,-0.028981049,0.012242502,0.012705311,-0.017431853,-0.051147856,-0.05667603,-0.033056058,0.013229993,0.020943595,0.04736762,-0.033614602,-0.04707235,0.03709843,0.049651243,0.038343053,0.00082603825,-0.06638499,-0.04460211,-0.010775295,-0.031100744,-0.029865332,0.021315165,-0.063199885,-0.009363768,0.02546068,-0.058493983,-0.03741965,0.03216861,-0.00170818,-0.052021477,-0.050417237,-0.04616428,0.053222727,0.03990595,-0.031710684,0.0019477815,-0.00078770594,-0.01229706,-0.06362193,0.002177113,0.05622927,-0.05611265,-0.011526083,0.037611328,0.0011436208,0.06175463,-0.05772089,-0.038117126,0.013361296,-0.03932384,0.021854239,-0.0008751452,-0.018893676,-0.042327717,-0.037816603,-0.023826245,0.030020894,-0.06424361,0.012261812,-0.03913624,0.0009820665,0.040678795,0.0106441295,-0.051857837,-0.029506149,0.0021938225,0.04787706,0.003520498,-0.050445847,-0.06699305,-0.043504905,0.01002712,0.042353258,0.021889376,-0.01885558,0.020086534,-0.05300825,-0.04584264,0.031978503,0.038973004,-0.0615047,0.04614247,-0.053829968,-0.04799109,0.03375028,0.031092202,0.03562564,-0.034465853,0.011710466,0.0044577345,0.010322101,0.012117589,-0.008062057,0.041344848,0.028604742,-0.03751583,0.037590485,-0.03557276,-0.009913498,0.0027150612,0.033058185,-0.026854482,-0.01227013,-0.009823592,-0.047925908,0.03674251,0.030517217,-8.556292e-05,-0.025243482
-0.0490112,-0.002118505,0.049511116,0.019357389,-0.058143362,0.03977223,-0.013348391,-0.046975672,0.015771734,-0.030373313,-0.065976836,-0.03850267,-0.0419154,-0.022732943,-0.009293066,-0.07447593,0.05387844,-0.004919799,-0.0041209087,-0.027555069,0.0065138107,-0.03436113,-0.0695155,0.012873038,-0.020996505,-0.028731186,0.038058847,-0.016983282,-0.010264666,0.022951357,-0.035101242,0.036317546,-0.010530084,0.012643202,-0.0646542,0.0058576963,0.0006080663,0.048813142,-0.030644363,-0.006682287,-0.06455836,0.02250903,-0.030125698,-0.02099553,-0.06680263,-0.025865957,0.05380112,-0.07510414,0.0002894032,0.005716093,-0.07863868,-5.2022522e-05,0.016044257,-0.031689998,-0.108235024,-0.1270122,-0.0050620437,0.014418571,-0.011795643,-0.022283534,-0.03005615,-0.029672148,0.06459098,0.050184265,0.007887395,0.02083105,0.027748553,0.032164413,-0.0487677,-0.02222899,-0.07416709,-0.04314309,-0.0075045205,-0.05302974,-0.0698309,-0.053988267,0.0036221372,-0.1027236,-0.031119112,-0.0006078305,-0.059772335,-0.12095827,0.0014390349,0.032682173,-0.045147963,-0.0012709706,-0.05846919,-0.021539878,-0.03842444,-0.08941836,-0.0029266132,-0.09565543,-0.05590042,-0.07021455,0.011094644,-0.05294607,-0.009369228,-0.038433388,-0.032597855,-0.06339473,-0.011825615,-0.031369176,-0.0067484425,0.027749324,0.016743938,-0.0005063219,-0.012449289,0.04232301,-0.16263705,-0.011696462,-0.017018666,0.0032137546,-0.035866007,-0.056767803,0.0027407142,0.0684213,0.05557381,-0.0056019425,-0.03129679,-0.019602975,-0.04646079,0.05053352,-0.015655546,-0.072252855,0.006353815,-0.014026188,0.039995484,-0.03370634,0.017605802,-0.04874768,-0.027783185,0.052795593,0.008977397,-0.0783318,0.039421074,0.0127146635,-0.057847958,0.015973032,-0.038408354,0.06907783,-0.03010296,0.0261386,0.042550944,-0.06346565,-0.0017444427,-0.022892384,-0.08703582,-0.057407666,-0.110977724,-0.029961787,0.039055824,-0.058768366,0.05849712,0.052383408,-0.00086498994,0.01952775,-0.08450607,-0.021412807,0.00070295425,-0.00953573,-0.042850506,-0.012928303,-0.07914377,-0.09067831,-0.0277283,0.007469272,0.050280392,-0.05918298,0.056781046,-0.10323958,0.04267077,-0.0478196,-0.06594846,-0.0705098,-0.03513194,0.06321033,0.0049430165,-0.018853987,0.020246048,0.05740291,-0.002583878,-0.022552298,0.01604954,-0.0844455,0.05307403,-0.048189368,-0.005152989,-0.040652096,-0.07603889,-0.026123442,0.0096547045,-0.03675784,-0.0013266355,-0.089651234,-0.00759478,-0.020032754,-0.029717432,-0.058344,0.026163675,0.053546548,-0.0525869,-0.04685245,-0.012673068,-0.021116152,0.011394221,-0.028040789,0.038704023,-0.06386411,-0.041672293,-0.0032975748,0.0014935323,-0.016791081,-0.011854415,-0.014081446,-0.047298647,-0.029337551,-0.009178483,-0.024166841,0.0010270601,-0.0017108247,-0.05436247,-0.0067932564,-0.032826293,-0.06800075,-0.061098047,-0.056370858,-0.027425852,-0.027130598,-0.07395274,0.016492836,-0.062760815,0.04445,0.013120987,-0.0298981,-0.0876722,-0.07631899,-0.05338433,0.009343403,-0.038817022,0.009258658,-0.0030490952,-0.017389517,0.08600374,-0.005546607,0.023199797,0.040002335,-0.03957348,-0.06970207,-0.03209804,-0.01836665,0.04792469,-0.018828956,0.048766702,-0.031502984,0.041113984,-0.0040882505
-0.0072071766,0.00017997241,0.06213953,-0.035922825,-0.034938704,0.01911236,0.016304428,-0.0018463796,-0.11850776,-0.047055896,-0.048213348,-0.07344995,-0.021812895,0.0009996898,-0.04411128,0.008987723,-0.058935422,-0.060166717,-0.008794561,-0.031290676,0.023472136,-0.043517366,-0.05390363,-0.046929806,-0.007631511,-0.06480221,-0.18639857,0.013269537,-0.03073684,0.00948958,0.02680292,-0.00559702,0.0031300045,-0.050662022,0.019701546,0.01969745,-0.027701424,0.020308433,0.0068357913,0.019418417,-0.027831327,-0.0976425,-0.05135053,-0.1317167,0.029324252,-0.04273708,-0.013849705,-0.02315012,0.032835145,-0.0021755071,0.021295356,-0.038997352,-0.06931334,0.005073568,0.01455036,-0.07074228,0.04241791,-0.0934182,-0.003426564,0.015021006,0.043080598,0.013438729,-0.002136817,-0.03429068,-0.0668065,0.021283789,-0.08517253,-0.05780044,0.012488932,-0.083281964,-0.0017043408,-0.10484849,-0.071853645,0.023512507,-0.15840596,-0.003070573,-0.07080727,-0.04446478,0.03485912,-0.037145346,-0.050816976,-0.07348501,-0.024700785,0.051087752,-0.01205906,-0.055667415,0.036590222,-0.08832888,-0.0398911,-0.0937196,-0.0029574076,-0.017199237,-0.08591586,-0.077425584,-0.013385506,-0.096714176,-0.01607292,-0.046757713,-0.082578845,0.025774276,-0.07785763,0.005048251,-0.04705687,0.006293727,-0.07634152,-0.006538068,-0.035421148,0.0686055,-0.08861802,0.013777772,-0.012183554,0.0007560039,-0.04998178,-0.007382844,-0.051656216,0.059187196,-0.05427193,-0.012744907,-0.052749522,-0.05227144,0.0011169533,-0.03948272,0.048562616,0.0014494269,0.014086069,0.025506249,-0.07361942,0.026881373,-0.08048954,-0.026618827,0.021426843,-0.020177357,-0.048256688,-0.094379716,0.02457946,0.045340303,-0.013990485,-0.07685808,0.051329378,0.0016567167,0.040109564,-0.027743628,0.04526727,0.015565732,0.022179991,-0.00089284335,-0.029659156,-0.040095653,-0.16195537,-0.0018573232,-0.04225666,-0.071605034,-0.02904731,0.039227664,-0.0051519955,-0.0025236004,0.0024364851,-0.022634577,-0.0082464665,0.05738288,-0.031384375,-0.042243067,-0.004543464,-0.063745715,-0.063057914,-0.026116095,-0.031206245,0.015342549,-0.013626359,-0.043271687,0.03349267,-0.07028585,-0.034459747,-0.089504145,-0.0030323535,-0.04811477,-0.069239795,-0.060889047,-0.021533905,0.06520264,-0.05791907,0.039611597,0.019016897,-0.15933593,-0.0051306104,-0.017254287,-0.050787803,0.045418438,-0.057585094,-0.08202981,-0.06222148,-0.020059116,-0.0579712,-0.044209726,-0.014801014,-0.005230134,-0.05414473,-0.049154077,0.10917832,-0.03021377,-0.031843353,-0.016764134,0.024266385,-0.013202646,0.014181081,-0.07807797,-0.012432552,0.017226676,-0.055503923,-0.03228756,0.06954531,-0.087321915,-0.07490709,0.034238793,0.05788176,-0.11286729,-0.107161075,0.06361786,-0.025090776,-0.039668,-0.014780616,-0.10377622,-0.11330408,0.04065566,0.026028648,-0.021719925,-0.030039787,-0.06905006,0.031161835,-0.01412037,-0.017823556,0.037211977,0.048377108,0.006421119,0.024940183,-0.033042092,0.030794125,0.06761332,-0.040275615,-0.062418394,-0.006932618,-0.112681486,-0.0045464355,-0.0007072749,-0.053794563,-0.12705605,-0.074959345,-0.06953036,-0.076490186,0.013932262,0.049778696,-0.013846348,-0.0010596375,-0.03282057,0.004705561,-0.0606111
0.097442955,-0.007838555,0.072715126,0.11912395,-0.06102888,-0.12330107,0.277942,0.3110503,-0.31810185,0.32781798,0.1060441,-0.022550024,0.027860245,0.39069617,-0.079167485,-0.8210177,-0.034945432,0.34212843,0.03805998,0.55783707,-0.3553026,-0.8053552,-0.22573708,0.39622012,-0.2723254,0.37370116,-0.41977382,0.44707444,-0.4812929,-0.021542264,-0.02950121,-0.09923238,0.023247061,0.014487253,-0.13653368,0.12755075,-0.08515807,0.07210735,-0.116248965,-0.334466,-0.0022306172,0.05567486,0.04458739,1.0899551,-0.26445714,-0.18812305,-0.004893236,0.20080122,-0.17289448,-0.3575252,-3.038387,0.4360729,-0.009597484,1.1521101,0.5020509,-1.7834814,0.02335952,-0.131616,-0.30659348,0.09108309,0.15534508,0.2369054,0.20934191,0.061271824,-0.11099467,0.042912345,-0.0837052,-0.030496523,-0.0040308144,0.20992526,0.1342397,-0.6184447,-0.30156347,0.15404691,0.35613698,-1.3956074,-0.035840586,-0.7346139,0.3973174,0.1895351,0.008044831,-2.3927293,0.017391099,0.02492509,-0.9705339,0.259353,0.080190435,0.056146406,-1.6002885,-0.9551538,-0.119825475,0.2089551,0.31563708,-0.40358484,0.21658961,-0.22292732,-0.1317549,-0.022246636,0.25688818,-0.25210452,-0.20361954,-0.59090936,-0.13015744,0.0131744975,-0.011219664,0.91664046,0.007864557,-0.4579269,-0.011162473,-0.24807899,0.16243339,-0.11846716,0.029398099,-0.5381704,0.4145794,-0.19999343,-0.25510588,0.05130389,0.052630663,0.041476708,1.3551426,0.007820569,-0.14925072,-0.3491647,-0.6854898,-0.0700856,0.788837,-0.074049175,-0.08260928,-0.29331353,-1.1082034,0.14081423,0.12760673,0.26137954,0.051867202,-1.0158844,-0.07674729,-0.008616262,-0.24395859,0.44003004,0.06365403,0.21918944,-0.035153896,0.51324135,-0.08849484,0.24461457,0.24794671,-0.2719014,-0.6828917,-0.059603937,-1.571075,-0.07178556,-0.025432758,-0.05761023,0.35638928,-0.5703748,-0.100403726,0.5479206,0.6645024,0.91421664,-0.0037771587,-0.19522786,-3.8208323,0.3373752,0.09086323,0.04466911,-0.17247684,-0.03638379,-0.004282366,0.45491418,0.01956479,-0.22739767,-0.1656756,0.32701632,-0.2522715,0.52046853,-0.55474514,0.12636754,-0.11201615,0.027435383,0.46540663,0.015909618,-0.012847577,-0.26324174,0.19420333,0.5560869,0.14663103,-0.061658088,-0.0072240215,-0.19172318,-2.070371,0.20772733,-0.04310397,-0.08106583,0.4281496,-0.7715503,0.023520425,-0.017806727,-0.041494697,-0.021897314,-0.053243585,-0.06721257,0.118073374,0.21712375,0.4162057,0.3071533,-0.33439934,-0.8295382,0.1692854,-0.08584154,-0.07857212,0.02748686,0.54490143,0.031866457,0.21658523,-0.012493374,-0.30322352,-0.6945494,-1.2238798,-0.0154131055,0.6281007,-0.64699084,-0.49748063,-0.28798047,-0.05518928,0.04064502,-0.1595211,0.29850695,1.794128,0.0150396675,0.73550147,-0.0394143,-3.6783028,-0.175082,0.23162267,-0.017985756,-0.15269469,0.08136567,-0.27337477,-0.052577473,-0.23476925,0.30080682,-0.14918281,0.06705577,-0.16755272,-0.19022112,-0.16611814,-0.6605295,0.77531004,-0.047922175,-0.4801543,-0.09730903,-0.1256566,-0.49488008,0.087406375,0.20216048
0.1644241,0.112657785,-0.769562,0.48950508,-0.1647499,-0.09612871,-1.5582277,0.39559776,1.2499901,-0.6479134,0.15513024,-0.11098553,0.05240243,-0.4617354,-2.0761282,-0.056296036,-0.34968147,0.15244678,0.009017289,0.061946906,-0.2000285,0.13637325,0.19948883,-0.109645404,0.028308762,-1.5865599,-0.16951242,-0.5948775,-1.1701806,0.036487628,-0.033268463,0.1720361,-0.10195509,-0.52716345,0.18868972,-0.13151509,-0.13992995,-0.13764797,-1.0963728,1.2668271,0.019871376,-0.6257223,-0.028767368,0.4815667,0.36672807,0.15171516,0.009371072,0.19135503,-0.1603417,0.104647644,-0.2400308,0.400926,-0.0031753585,0.5504263,-0.39968935,-0.042457055,0.113646895,0.45463845,-0.910011,-0.1434759,-1.5807065,0.15016359,0.21900567,0.035055064,-1.0398116,0.13882333,-0.09819865,-0.3046902,0.018729288,-0.31661898,-0.21348245,0.36169448,0.1206257,-0.27929443,0.07930063,-0.5049094,-0.8784477,-3.3758364,-0.31240702,0.77796286,-0.06366878,-0.45239696,0.040412776,-0.007452801,0.09679533,-0.2783854,0.10710688,-0.47660407,-1.2905648,0.2569808,-0.045553733,0.38721165,-0.26729742,-0.4406946,0.21455814,-0.33786368,-2.2719398,0.05081383,0.2129571,-0.63391864,-0.4162185,0.6744017,0.25903803,-0.47575834,-0.36681125,-0.11358158,0.26933306,0.27524516,-0.78529465,-0.4857895,0.09675394,0.06684557,-0.05175917,0.4250847,0.049418785,0.80923146,1.3882343,-0.1803241,0.021213487,-0.11678233,0.37259105,0.513205,-0.3457919,-0.1409823,-0.056418817,-0.16100167,-0.07660953,-2.082079,-0.63712406,0.1924594,-0.5419194,-0.65178335,0.4031676,0.5080026,0.055511065,-0.17524108,-0.016858365,-0.23440793,0.016918367,0.6321966,-0.10790505,-0.32442254,0.018536374,-0.6858257,-0.5864369,-1.0877521,-0.36489704,0.034290947,-0.13668768,-0.014872678,0.2960858,0.47496566,0.32574826,0.060332827,-0.9225172,-1.6802511,-0.40408668,-3.221035,-0.1587703,-0.00029251116,-2.1455064,1.4934254,-0.47127247,-0.9509444,-0.18608876,-0.21330614,1.2730525,-0.06939201,0.009577827,-0.10265291,-0.12505084,0.11880583,0.019198751,0.14616452,0.12847169,-0.57865673,0.052753434,-0.162526,0.019313853,-0.06069112,0.1588275,0.4022305,0.19431388,-0.8425862,-0.6548443,-0.5559713,-0.4815336,0.0764159,-2.1087053,-0.35126394,0.18622257,-1.9864198,0.019721955,0.60523283,-0.5337708,0.1821407,-0.07670883,0.20301493,0.30091432,0.1790479,1.0425206,-0.038014196,-0.6622059,-0.15377627,-0.11904764,-0.75698096,-0.09241585,0.32369995,0.09348583,0.37873983,-0.27285418,0.03397222,0.9455053,-1.6512436,-0.72671986,0.43173352,0.16389386,-1.7763315,-0.31022862,0.022163704,0.079820685,-1.0403286,0.40215945,0.02013206,0.08038867,-0.4788351,1.9913337,-1.089219,-0.3824012,0.02788204,-0.21314944,-0.0074012056,-0.48389,-0.28847423,-1.6974361,-1.3412387,-0.032680355,-1.3933355,-0.069057286,0.030537747,0.020031556,-0.55940384,-1.193742,0.03193355,1.2497411,-0.38830984,0.18199806,-0.113129325,0.97805905,-0.031701103,0.8745067,-0.3011532,0.08779945,-0.19583933,0.2319993,-0.031523142
-0.17432018,0.15614262,-0.4968606,-3.2843359,-0.25868645,-0.467107,-0.021208601,-1.1534237,0.800689,-0.7968669,0.36052096,0.15439144,0.040919278,0.66054934,-0.5257637,-0.9795527,-0.09122949,0.3395145,0.0023545697,0.48168507,-0.7150029,0.26635057,-0.08060107,0.29975608,0.09155841,0.8624735,0.17630386,-0.97390723,0.5195942,-0.28243092,-0.04539923,0.034031957,0.6981037,0.6549117,-2.6983461,0.31419322,0.29142708,-0.20494166,-0.8176551,0.4980837,-0.28162685,1.6245849,-1.1015347,-2.150054,-0.5478779,-1.5305796,-0.054953814,-0.4060521,-0.050245017,0.20067263,-1.1594566,0.33155596,-0.28944087,-1.6261609,0.54527885,-0.10363075,-0.028759155,-1.9828084,0.20623532,0.37739727,-4.0639906,-0.52005154,-1.2584499,-0.008680455,-1.7684872,0.15785943,-0.25159293,-0.045774344,-0.71377885,0.6027986,0.40273756,-0.80548316,0.11793314,-1.0308986,-0.24549197,1.7184787,0.9019603,-0.8146457,0.22614536,-0.11199274,0.04091113,-0.65372354,0.0157814,0.014402442,0.47693995,-0.1793104,-0.25605804,0.74131835,-2.5035827,0.8762279,-0.99721223,0.36513275,0.2789083,0.6499763,0.98457533,0.5057609,0.8842838,-0.024315946,-0.22215933,0.24299088,0.48020092,0.30779353,-0.7309629,-1.2795193,-0.7848012,-1.1036618,-0.5756256,0.6147891,-0.013621059,-2.7431316,0.7402852,-0.19605073,-0.05782321,0.77239513,-1.5980228,-4.7494664,-0.5137535,-0.744934,0.061187476,-0.16040151,0.036775034,-0.20144695,-0.0460737,1.7545977,0.030457824,0.17551892,-0.16310112,-0.19597827,0.27834105,0.93560094,-0.48587614,0.34177753,-0.22263995,1.0745436,0.015617537,-3.6164339,0.00053401256,0.062163375,-0.099190235,0.5125049,0.050401818,0.7989672,-0.025100902,0.25009397,-0.041761395,0.61314225,0.51981807,-1.6445767,1.218846,0.06301658,-2.4335408,-0.32628524,1.446207,-0.013039976,0.11832038,-0.77924854,0.5716703,-1.8605629,0.017013868,0.3280729,-0.0621823,1.2680331,-0.096910365,-0.7719881,-1.5261216,-0.1013637,-1.3208568,-0.025923124,-0.05859515,0.5429913,-0.9381417,-0.69210905,-1.33667,0.22666648,0.658427,1.8157214,0.8981533,-0.7742903,0.045268107,-0.34653303,0.98755205,-1.3606539,-2.7064016,0.6503611,0.06514104,-0.7439485,2.3527389,-0.03465287,-4.9061265,-0.49797887,0.46221092,0.4461201,-0.018190525,0.5385196,-2.4506063,-5.0660048,-0.16505603,0.828179,-2.687741,0.5587787,-2.618713,-1.5830513,-0.8540173,-0.43640295,-2.0665123,0.21619669,-0.8771595,-0.5157991,0.16218317,-0.8420558,0.3967052,0.050114643,0.22399414,-1.6722407,-1.6609635,0.6965089,-0.06305533,-0.7407312,1.172132,-0.010331303,-1.221296,0.20795232,0.6433631,-1.8394965,0.046110135,0.027742438,-1.5938183,1.2460289,0.08152463,0.061643004,0.35850492,-0.06041713,-0.543862,0.85310763,0.3692764,-1.6358366,-0.09571929,0.19746707,0.01963803,0.057622604,-5.2085395,0.6387458,-0.98656803,1.3298049,0.74032104,0.8592614,0.05105267,0.92797714,2.1352787,0.01060523,0.23545489,0.24076387,-0.0029236677,-0.8027212,-3.6194053,0.41473272
-0.032663256,0.25813833,0.29022378,-0.03367293,-0.32014376,0.06552636,0.5403173,-1.6694492,0.27031597,0.73628396,-0.27023065,-0.59454966,-0.020748636,-3.8558285,-0.36181408,0.34696874,0.010384872,0.039763764,-0.04257249,-1.2516778,0.353788,0.16850922,0.08893093,0.1664228,0.09428477,0.26725024,-2.9648843,-0.3022111,0.0287855,-0.17096786,-0.15381874,-0.14606856,-0.11914335,0.20508763,0.60763717,-2.5190039,0.06680584,0.010047184,-0.8181355,-0.059028726,0.071646094,-0.3725192,-1.2179431,2.085764,-0.12505642,-0.016389197,-0.0035267174,-0.9490273,0.022975901,-0.12124947,0.57573426,0.038877666,-0.09946835,-0.23528837,0.24844502,0.04152683,0.12865959,0.603309,0.6090349,0.23742148,-0.048200056,-2.5326283,-4.815675,-0.044141203,0.722853,0.3684492,0.39734945,0.19835621,0.001825679,-0.77907676,0.022557294,0.5977616,-0.13649303,-0.25405934,-0.33092576,0.7641124,0.27696547,-0.9011198,-0.5054388,-3.5170937,0.094146535,-0.0046658474,0.018087998,-0.058954813,0.04850926,-0.040153183,0.18751594,-0.7940783,-1.1650604,-0.9938514,0.3992076,1.8328677,0.8255106,0.017163647,0.52195126,0.6189593,-0.69155,-0.006833464,-1.028885,-0.33790165,-1.9937804,-0.5146851,-1.2600623,0.564273,-3.6023831,-0.6322502,-0.45765617,-1.5832266,-1.0013093,0.22692418,-0.05444387,0.1131439,-0.012359917,-1.1426189,-0.3512904,-0.14596161,-1.2460475,-0.061164904,0.030196652,0.23434071,-1.506323,-4.8671455,-0.094660185,-1.0690048,-0.029823491,-0.16017705,-1.7186081,0.3845366,0.07016561,0.17256163,1.0752772,0.79255414,-0.15494286,-0.054910675,0.03293893,0.6699617,-0.031152986,-0.23361605,0.21444978,-1.5347351,0.3563525,-0.53863317,-0.049645416,0.9906139,-0.25545806,-2.2438788,-0.42768875,0.072070636,-0.4435096,-0.047558837,-0.08696722,-0.106596775,-1.1008844,0.021669291,0.4151512,0.08977025,-2.1887422,0.31230253,0.20801705,-1.7500556,-0.43043992,0.29816613,0.11606814,0.43113938,0.041334093,-0.24469194,-1.016118,-0.15579505,-0.04022803,0.38677052,-0.14724642,-0.30785453,0.07175919,-0.9964471,-0.522559,-3.9508972,-2.6837096,-1.3995582,0.17698243,-0.036425944,-0.17061901,0.3455863,-0.021581214,0.18299009,0.3973137,-0.19550928,-1.3102548,0.13924485,-0.40430003,0.17880893,-3.8574936,0.39071167,-0.022943847,-0.9052591,-0.32450116,0.06424141,0.17702094,0.12115146,0.569541,-0.5073698,0.12864625,-0.3125047,-0.40553877,1.2121412,-2.9084864,0.13434608,-0.17635374,-0.61502457,-0.15565626,-0.74218,-0.32513106,0.14205486,-0.21057616,0.029876802,-0.21656793,-0.2801732,-0.050464936,0.6863371,-0.6664265,-0.050535038,0.78205234,0.2438301,-0.8454147,0.21768594,0.40558454,-0.018226745,-1.9056972,0.3880452,0.3425086,0.05123081,-0.43040645,0.034990683,0.58820826,-2.5888164,-1.2741983,-0.8466093,0.19223009,0.053249538,-0.1659686,-0.025158606,-2.88622,-0.043311354,-0.12387973,0.08532367,-0.97960985,-0.0249289,-0.09383206,0.16347799,-0.6618528,0.054849464,-0.22474933,0.016047707,-1.3802856,0.5178232,1.6568004,1.0276587
-0.097374156,0.17356811,-0.18762407,0.6123076,-0.31653285,0.1549494,0.44736785,-1.6318697,-1.0347488,0.83691716,0.06729009,-0.33928695,0.023383062,-1.1318687,0.18400694,0.37477946,0.03982338,0.5818304,-0.042146243,-0.3789815,-0.9202361,-2.3809206,-1.2549725,0.71924824,-0.28862217,1.4530253,-0.5526172,0.96223396,-1.6245698,-0.33151186,0.046231482,-0.38146424,-0.14244762,0.48480117,-0.32768938,-0.51920265,0.316963,-0.36784837,0.7620043,0.7579745,-0.0399341,-0.7451447,-0.24173312,-0.28297964,-0.20759821,-1.3983035,-0.013626099,-1.6712567,0.066427246,-0.07910825,0.7069235,0.5107704,-0.25864026,1.203344,0.007095826,-0.39130077,-0.4114872,-0.079390675,0.26834226,0.1528121,0.39281586,0.3024962,0.3370584,0.0011670068,0.68338174,0.06956506,-0.35383567,0.07519588,0.20524758,-0.5235252,0.35999256,1.516722,-0.5976562,-0.15835652,-0.053383756,0.13153547,-1.1741579,0.627881,0.41192415,0.2359243,-0.10976225,-0.13685276,0.03557178,0.033878848,0.13034399,0.3589242,-0.34257683,-0.21870089,-0.10495155,-0.36396244,0.20324175,0.059176426,0.8947252,0.3122948,-0.9988446,0.8294245,0.62667555,0.007993698,-0.24120517,0.04443788,-0.284323,-1.3590755,-0.81692636,0.6198322,-1.1029782,-0.922922,0.48866475,-2.7683172,-0.14164269,0.56632763,-0.28424442,-0.025469594,-0.061479762,-2.7491205,-0.057236236,-2.4361649,-0.004239733,-0.43484077,-0.0044233575,0.05493939,0.031642135,-2.343836,0.17976546,-1.1264004,-0.19929776,-0.20721447,0.7386242,-0.4490981,0.027440697,0.79160905,-1.1365936,-0.5840909,-0.31697726,-0.115808494,0.052523103,0.37541473,0.06071485,0.02628027,-0.09386132,0.5790865,0.06141302,0.3413848,-0.0034665316,0.19001444,0.023530371,0.76933134,0.14765169,-0.49340564,-0.9168022,-0.061610185,0.51416373,0.118287735,-0.38937965,-0.060957745,-4.8472056,-0.9854368,-0.47071728,0.28867579,-0.20895831,-0.06208093,0.31538182,-0.030860849,0.18555401,0.75588155,-0.15095161,-0.34845865,-3.394238,0.11008605,0.029604834,0.5821228,0.7095094,-0.032040518,-0.4641429,-2.3542902,-0.60956985,-0.621428,-0.9482705,-0.21441163,-0.019775704,-0.10034646,-1.5729225,-0.027493617,-0.30120268,-0.13092671,-0.8159919,-0.43685934,-1.0520473,0.10664045,-0.0023295628,0.80546623,-0.5657705,0.474746,0.038692042,0.22011255,-0.3708952,-2.5231836,0.12910023,1.2151868,0.5553615,-0.31093225,-0.7029754,-0.3248955,-0.6497333,1.3074881,0.91642755,0.19392534,-0.01664778,0.69100004,0.74742395,-0.06305129,0.22318909,0.09266214,1.9300951,-0.102366,0.89324534,-0.97203654,-0.6070171,0.36695012,-2.0638993,0.038100347,-0.8105519,-0.28730565,0.26190543,-0.2650531,0.09093347,0.18574843,0.6288653,0.8587236,0.13542186,0.0031209588,0.557234,0.03073144,-0.2168443,1.6167591,-0.10330558,0.17714536,-0.15558088,-0.48105335,0.097624965,-0.016480245,1.1861516,0.124485016,0.76287496,0.1684226,-0.6481749,-0.10842777,0.13932702,-0.071267314,-4.7155766,-0.011582046,-1.2653055,0.18709604,-0.15473777,-2.6268342,0.3319002,0.66492134
-0.112227604,-0.89559656,-0.25210327,0.011734095,0.07497166,-2.752541,0.33476353,0.20820023,-0.33218667,1.1286795,-0.3892407,0.026733171,-0.046883177,0.67623955,-1.0320418,-1.1540806,0.14128006,0.17199631,-0.059069127,-0.7313799,-0.1471504,-0.067428924,0.13609351,0.55316913,0.09135818,0.47986436,0.2868231,0.00816001,-0.18111566,-0.10252165,0.30375546,-0.023664849,-0.46113166,-0.022217948,1.248334,-0.18588655,0.35929826,0.08946641,0.088024065,-0.23661795,0.34085685,0.08146787,0.7469518,-0.093339,-0.19686738,0.108752616,0.02629131,0.3166074,0.0721414,-0.37195954,0.038776416,0.32754478,0.45623788,0.007900443,-2.0622573,-0.20972022,0.039785862,0.89129883,-0.6377401,-0.27396727,0.32700783,0.30537295,0.6737517,-0.010081366,3.353599,-1.7430013,0.26708725,0.094429806,0.061153922,0.54943526,-1.5165045,-1.8014113,-0.058856204,0.15509628,-0.6463119,-0.73979545,0.80653805,-0.7054172,0.11427459,0.41317332,-0.45387903,-0.3438559,0.012095821,0.01577051,-1.1099652,0.30875218,0.051206227,-0.76042444,0.06734114,0.19775864,-0.06897871,-0.33970085,1.1953737,-0.00265135,0.32991633,0.09602008,0.24389106,0.0064404607,0.3013095,-0.5779719,-0.029849133,0.665496,0.37750405,-0.24921758,0.4677354,-1.4821227,0.32725617,0.11295379,-0.59146696,0.71912825,0.01218873,-0.5666518,0.0020214915,0.03203183,-0.12566176,0.5123186,-0.20481235,0.022127476,0.03292133,-0.10480105,0.03644467,-0.03902101,-1.5604563,-0.37303442,0.06976778,-0.18483329,-1.0713168,0.36988458,-0.35655382,0.9709535,-0.027326187,0.7920103,-0.51083285,-2.0413594,0.05590029,0.005825595,-0.3966433,-0.60710335,-1.8577219,-1.4156427,-0.315725,-0.04940924,-0.051691286,-0.9438541,-0.3633907,-0.24140388,-1.9308795,-1.3821929,-0.105037525,-0.044072762,-0.059480324,-0.8726604,0.512369,0.05329857,-0.31517568,-0.0023538105,-1.3293841,0.27426475,-0.46693277,0.21933135,-0.310729,0.004959654,0.32177693,-0.6480637,0.33379793,-0.00880215,0.4829743,0.11598633,-0.00072756613,-0.96233535,-1.4583293,-0.07022021,0.26561186,-2.4530284,0.0678166,0.4660498,0.16664203,0.6365296,0.111097515,0.14307383,-0.46882528,0.30634484,0.5408183,0.7298939,-0.1421762,-1.1101778,-0.7412646,-0.095831685,0.80398655,-0.56362855,-1.8628343,-0.15150422,0.0137818605,-0.21830484,-0.055494864,0.9020194,0.013304902,0.21105579,-0.012434526,-0.58866,-0.35369018,0.48529586,0.7533729,0.0009921826,0.3452142,-1.4931921,0.38607413,-1.1122918,-1.3978978,1.0755029,0.6688207,-0.05240451,-1.587273,-2.4274724,-0.14607006,-0.19598758,-0.13045776,0.82611793,0.24306343,-0.03374564,-0.20543724,0.4509995,-0.5148579,-0.6520961,-0.20712046,0.055243976,0.11307613,-0.44421628,-1.118616,-0.05406505,-1.7000681,-0.026975356,-5.433015,-0.6327831,-0.8983017,0.061659575,-0.7543558,0.38599733,-0.50218576,-0.055771418,0.44693545,-0.622287,0.37095824,0.37734425,-2.4263914,-0.045313723,-0.81593496,-0.098785184,0.46951416,0.044547055,-0.8431248,-0.03140492,0.17861763,-0.59969014,0.34202462,-0.35679877
-0.12835279,-0.41544223,0.066887416,-0.5705614,-0.01846556,0.108294,0.10745214,-1.3358514,-1.6111073,0.6324509,-0.27219594,-0.23800352,-0.051887438,0.63881654,0.2057658,0.25360215,-0.09448454,0.78865623,-0.008014441,-0.72731394,0.20691334,0.033612333,0.15966532,0.20103036,-0.12234968,-0.1831888,0.6659583,-0.4106267,-0.08531808,0.04710539,-0.008339889,-0.18263468,-0.27457967,0.5228192,0.091829255,-0.031353105,-0.08466316,-0.03750418,-1.3590306,0.4010702,-0.10597142,0.58559555,-0.5520442,0.12264761,0.12834747,0.28496605,0.029097788,-0.08812893,0.07954598,-0.020930065,-0.68364644,-0.5059003,0.014244466,-0.56289697,0.38996324,0.13754715,0.008072858,0.060096897,-0.62703586,0.16709019,0.01739589,0.27131003,-1.6391647,0.052584484,-0.8509198,0.46348873,-0.12856255,-0.1277081,-0.015316065,-0.18822089,-0.22787844,-0.07182629,0.008554413,0.016148565,-1.0723611,-1.1197679,-0.03603401,-1.8509738,0.025982557,-0.019819755,-0.06886465,-0.18091285,-0.03379297,0.04244578,-0.38978112,-0.6534387,-0.19049193,-0.7523879,0.5797207,-0.1695257,0.32404625,-0.6080241,-0.071580224,0.40424433,-0.2617752,0.7276016,0.1409082,0.04789515,-0.35403156,0.44669127,-1.1110736,-0.681408,0.54319656,0.81838083,-1.1635555,-0.4616201,-0.75186837,-2.3794065,-0.817841,0.29298905,-0.13316637,0.1629123,0.026636101,0.19597669,-2.4928668,0.32742205,-1.2451817,0.101625286,0.041148923,0.13295145,-0.7722183,0.656224,-1.608581,-0.865718,-0.006096056,0.119421035,-0.7661395,0.6515906,0.30690068,1.6772629,-1.8068804,0.4547328,-0.06625892,-0.6556321,0.004063819,0.84957594,0.112542614,0.12914497,0.08086742,-0.34764123,-0.060085226,0.6045148,0.020208977,-0.77236694,-0.29705483,0.8020316,-0.08194386,0.2701899,-1.7297803,0.05282904,-2.6740885,-0.08486063,-1.4886668,0.032472722,0.09853874,-0.10702052,0.19890249,0.62744266,0.2593393,-0.97565484,1.04467,-0.14148873,0.2409609,0.053749673,0.13609615,-0.19413985,-0.8907425,-0.11777203,0.020488648,0.0504036,-0.42685163,-1.710327,-0.18609656,-0.011204043,-0.19330922,-2.8366303,1.1546352,-0.7691441,0.16549635,0.004899878,-0.6505175,-0.35746902,-0.06124674,1.4219398,0.07190268,-0.6632909,-0.22235169,0.10611983,0.96413887,-0.42974862,-1.3754413,0.91957104,0.054735407,-0.38959602,-1.1590374,0.27779216,0.17087594,-0.5265319,0.078236386,-0.13806087,-0.29180482,-0.060765382,-1.1496809,0.63673896,0.5589179,-0.39877233,0.047811374,1.4254521,0.37336686,-0.947834,0.84366924,0.04857378,0.81865317,-0.16627277,0.6092563,0.48823854,0.06289555,0.18696865,-0.37078688,-0.023263432,0.009065103,0.10604706,-1.5377289,-0.46396604,-0.1809734,0.13444443,0.08288267,-0.007016182,0.11870461,0.01773294,-0.97763467,-0.0035237074,-0.8239559,-1.8332398,-1.2989403,-2.058138,0.10712344,0.66659373,-0.16829045,0.0140419975,0.10421747,-0.26416472,0.6424399,0.18149301,1.1785073,-0.5862563,0.10915292,0.19510125,-0.016645392,-0.055352423,0.3197816,0.23128864,-0.1479424,0.94253826,0.124881625,-0.31814596
0.11517866,-0.27190802,0.2672026,-1.4034749,0.15393063,-0.3507724,-0.360694,0.069054246,-1.3200971,0.18501693,-1.3111125,0.3962204,-0.002230787,-3.5851192,-0.21293056,-1.0135286,0.11843133,0.38982317,0.018154457,0.63062876,0.18770252,-0.93569654,0.044992957,-0.5769869,-0.47187978,-0.7538287,0.36127457,1.1630485,-0.05365799,-0.26167142,-0.021352125,-0.11129663,-0.2592863,-1.2546695,-0.9694669,-0.88242596,-0.070082955,-0.85029054,0.3818579,0.4435055,-0.11755934,-0.2068477,1.0165778,-1.2501272,-1.7800205,-0.90989196,0.04785031,0.1958836,0.05758173,-0.3949344,0.43114492,-0.6469324,0.17042439,-0.08370619,0.5109919,0.117183365,-0.010565164,-2.640102,-1.2179558,-0.091622144,0.31917888,-0.024759907,-0.9419701,-0.026137643,0.050608207,-2.7042205,0.13245173,0.14305612,-0.27211055,0.79140633,-0.7180219,-0.8785741,-0.027354062,-0.3291593,0.52921504,0.10334828,-4.678301,1.1508762,-0.73898685,1.10427,-0.24942958,0.45018137,0.058360063,-0.05367033,1.0823466,0.26974887,-0.24078426,0.2873001,0.38328427,-0.11591065,-0.1684856,0.072223164,-0.24951091,-2.9208567,1.3298903,0.2834011,0.48148653,-0.012752399,0.20568989,-0.17249335,0.19714408,-4.0782084,-2.486084,0.40518028,0.6075431,0.14902063,-0.60449755,-3.607308,0.40518576,-0.92645735,0.2160386,-0.024300924,-0.03976541,-0.493442,-0.3566866,-2.472562,-0.45684046,-0.09400194,0.013392501,-0.7147642,-0.16346385,-2.188907,0.76722443,0.3111446,-0.035834875,-0.6592262,-0.8504444,0.13200472,-0.7331958,-2.3494396,2.5606563,-1.4112169,-0.31658137,0.18725793,0.041361954,0.19742815,-0.89657575,-0.30094296,-0.59655035,-1.9459834,-0.17116347,-1.20967,-0.029166684,0.06639872,0.43475798,-0.30584162,-2.5567563,0.68729275,-0.51771,0.0304178,0.9055888,-0.39359814,-0.22091101,0.036981106,0.15718438,-0.45030805,0.48395887,0.07397558,-0.78642803,0.4219428,0.42237923,0.5751276,-0.33764234,0.2977369,-0.3846304,0.22069801,-0.610486,0.021363247,0.002035141,0.10238085,-0.6354755,0.3005355,-0.39023226,-2.4542704,0.06554723,0.6138785,-0.15878333,-0.6046824,-0.081261516,-0.02668202,0.05041401,-0.094410576,0.54566693,-1.7188808,-1.3016521,-0.46606916,-0.96174747,0.053785976,-0.4210699,-3.0713305,0.07909805,-1.1213676,0.017465837,0.18533808,-1.7573962,-0.6104307,0.03930958,-0.71272564,-0.9193834,0.5163963,-0.018189022,-0.07514277,-0.44358352,0.35810646,-5.600207,-0.48447335,-0.11732267,0.19188662,-0.098641254,-1.004821,-1.4655101,-0.20858821,0.13756207,0.16719575,0.2464678,-0.37995002,0.09238099,-0.36942038,-0.077169254,0.016497329,0.76242006,0.23224086,0.24347925,-0.7221331,-0.085709654,-0.04543372,-0.4717024,-0.21103676,-0.6611631,0.01783967,0.15750009,0.047328085,-0.1455529,0.17784026,-0.5051896,0.1921994,-0.07312548,-1.1620241,-0.7429525,-0.021644324,0.37648562,0.519839,0.28412268,0.019670837,-0.38302395,-0.68123883,-0.659638,0.06172883,-0.3978986,0.025816621,0.59238505,-1.2576853,0.31907636,-2.4690342,-0.32260725,0.10362884
0.034329534,-0.0634528,-0.12930354,-0.01620145,-0.030364895,-0.09130418,0.0023655854,-0.08554368,-0.08875665,-0.21652308,-0.09517085,0.0025677748,0.039360568,0.04113677,-0.110961206,-0.07160089,0.013405927,0.05439624,-0.017509714,-0.038381353,0.05237455,-0.0076692053,-0.03188141,0.013169394,-0.11074225,0.060724925,-0.067465104,-0.06145872,-0.0023371065,-0.048896357,-0.06286114,-0.05586263,-0.01904691,-0.25488126,0.011494104,0.044002354,-0.00793194,-0.059224512,-0.011866004,0.04381595,-0.067896865,-0.016025543,0.014114829,0.018998785,-0.053264976,0.0032416598,-0.060299747,-0.034398526,-0.025059685,0.008670773,-0.08131667,-0.08191242,-0.0039340993,0.049237974,-0.07152635,-0.0083144065,0.043955352,-0.023790078,-0.047187466,-0.05471169,-0.06864036,0.034263283,-0.062271625,-0.03510961,-0.14548886,-0.11693077,0.015415216,-0.08723369,-0.031081166,0.0059153386,-0.06827646,-0.100243926,-0.0889218,-0.06335795,-0.08130535,0.11812568,0.024889302,0.0066628717,-0.019340808,0.014390703,-0.015652316,0.006730899,0.039703462,-0.041729107,-0.055610783,-0.05432691,-0.0046466296,-0.020177841,-0.022296695,0.0100773,-0.049873255,-0.04534725,-0.24699995,-0.050332397,0.0032501053,-0.13930546,-0.08150659,0.046758093,-0.079106696,-0.11624928,-0.048874713,-0.0043359324,-0.052040856,-0.18880889,-0.0928233,0.046189047,0.05120188,-0.13366593,-0.025233194,0.03712353,-0.07273342,0.014011319,-0.045876496,-6.78454e-05,0.033082426,-0.09219408,-0.07985652,0.026839389,-0.008601539,-0.096511304,-0.037077986,-0.12305012,-0.0659971,0.01898996,0.00023839503,-0.13172938,0.020097254,-0.047675397,-0.056649297,0.013839392,-0.12321305,-0.02655566,-0.05064451,-0.10848393,-0.00245866,0.036665834,-0.02274525,-0.107775696,0.026453704,0.0050714337,0.007938622,-0.078587495,0.030078731,-0.11822863,-0.046959873,-0.01275697,-0.09942831,-0.21910004,0.039257906,0.016775437,0.013571613,-0.10216497,-0.048102774,-0.015031569,0.031771313,-0.085716136,-0.029770555,-0.116539426,0.030267036,-0.05339512,-0.08672848,-0.19338773,-0.22834669,-0.1263277,-0.004316078,-0.025344314,-0.027079612,0.05230091,0.0027239164,-0.033090208,0.087042876,-0.0046180203,-0.02595917,0.027645,-0.040748976,0.056518145,0.04177359,0.027292592,-0.05681802,0.027682047,-0.05102599,0.0046501677,-0.113893695,0.038478643,0.017828194,-0.07231931,0.00781639,0.023545932,-0.09664073,-0.09315911,-0.07512642,-0.045863032,0.06219656,-0.06084359,-0.057636313,-0.08811721,-0.10027358,-0.09732287,-0.039506074,0.023755422,-0.1290925,-0.06446327,0.123345286,0.002875624,-0.038040638,-0.015010037,0.0067827348,0.040707026,-0.07200522,-0.057120413,-0.14567204,-0.054950155,0.011039742,-0.06453572,-0.03397505,0.2642698,-0.042413317,-0.06946995,0.100098394,-0.0065388903,-0.06946987,-0.106200784,-0.096251205,-0.01458751,0.0047549335,-0.05827326,-0.00033452583,-0.07424774,-0.082790144,0.0059397966,-0.09206619,0.035069086,-0.0017270598,-0.11194084,-0.035721198,-0.01787309,0.007772484,0.049593065,-0.04807308,-0.009874165,-0.07387586,-0.077877104,-0.058129072,-0.02111958,-0.033832237,-0.091087945,-0.08822509,-0.13705319,0.01421351,0.0071726763,-0.073655285,-0.09076355,-0.08256669,0.086075276,-0.09893669,-0.02282558
0.0015177615,-0.024597308,0.031506415,0.004413457,-0.05605343,0.018992204,0.029806022,-0.020638112,-0.019655384,-0.00097488053,-0.060947537,-0.06327703,-0.05046255,0.0041304426,-0.02342152,0.004199574,-0.00419871,0.005796354,0.06136898,-0.018084142,0.0285539,-0.005968774,0.033379614,-0.011014307,-0.043956857,-0.014532539,0.02636724,-0.0185629,0.033382587,0.053934213,0.03293501,0.029890046,0.046757154,-0.028975688,0.022489015,0.01086563,-0.020599589,-0.021481808,0.0070221354,0.03375048,-0.040290784,0.03922995,0.028889865,-0.04529748,0.034039535,-0.006061974,-0.025707178,-0.05986157,-0.038879074,-0.01427032,0.047369525,-0.043627836,-0.00905469,-0.02573707,-0.06463423,-0.011275608,0.0597967,-0.063266166,0.001462169,-0.00069426023,-0.006330531,0.04764101,-0.049605183,-0.012053557,-0.03530291,-0.041653343,-0.011651177,-0.057146642,0.036510617,0.03877404,0.005618177,-0.03678802,-0.003324214,0.0032182261,-0.062240746,0.009511674,-0.041640315,-0.024642667,-0.06236836,-0.06369562,-0.069141045,-0.013665327,0.03702108,0.042734466,-0.059431314,0.016866636,-0.06395456,-0.05808355,-0.057082694,0.0018295078,0.002310251,-0.036547404,0.015519404,-0.00583271,-0.0022693526,0.043364804,-0.055832308,-0.037586875,-0.02836114,0.022417888,-0.04951242,-0.0030138204,-0.056815077,-0.01539868,-0.05170539,0.008683123,-0.052398466,0.03660142,0.01214895,-0.0069264295,-0.026054608,-0.04426891,0.0020634606,0.025789877,0.050244533,0.019357296,0.02145343,-0.040136993,0.03761857,0.019836137,-0.00075183756,-0.0009885281,-0.0153731285,-0.0050550485,0.011140395,-0.018220311,0.058151532,-0.049193293,-0.06651013,0.035650637,0.019080926,-0.052935638,-0.0155887995,-0.048182324,-0.03008084,-0.04397027,-0.008931091,0.036218833,0.0038483012,-0.01659282,0.032968845,-0.0032787465,-0.026098125,-0.0014857453,-0.011685042,0.031911056,0.015153106,0.03513677,0.00761611,-0.046795905,-0.033813514,-0.010396231,0.004083737,0.05983919,0.044557583,-0.032393336,-0.0029532823,-0.046622075,-0.012340266,-0.05486556,-0.017817711,-0.034029957,-0.017296962,0.0503145,0.009478112,-0.03954231,-0.061083965,0.050453145,0.011020802,-0.062819295,0.0130433375,-0.00466225,0.043325506,-0.050254133,-0.056315508,-0.042438943,-0.0191426,0.04844026,-0.016337309,-0.026421513,0.03390363,-0.05072201,-0.0038431112,-0.046534497,-0.011425686,-0.031811073,0.033759993,-0.04106468,0.032359328,-0.013657205,0.0135989245,-0.01779697,0.011805199,-0.055264555,-0.016770996,-0.0081066955,-0.011244231,0.022677409,0.041934863,-0.0070482194,-0.040863644,0.019978566,0.05671429,0.010785569,-0.047261927,0.023267746,0.033029705,-0.027148034,-0.034207124,-0.06417169,0.047341093,0.039605107,-0.022086443,0.041542597,-0.066818476,-0.04129047,-0.033988114,-0.00090539386,0.057015955,-0.03413313,0.010637577,0.025036734,-0.038540013,-0.026362993,-0.026531309,-0.024396019,0.012238099,-0.047418848,0.022950424,-0.059595913,-0.009069951,-0.042710163,-0.029022034,0.011000238,-0.032321524,0.044982787,-0.037258737,0.01853127,0.045746204,-0.010287784,-0.0035481795,-0.027216999,0.044532947,-0.05224573,0.021534108,0.020443445,0.017225936,0.03302796,0.04378217,-0.0024877042,0.002633914,-0.037338573,0.047489803,-0.023349242,-0.011078014,-0.027169103
0.00042467553,-0.06040152,0.09219371,0.07025508,-0.13225982,-0.06267955,-0.13352598,-0.03464626,0.3610947,-0.050314795,-0.06883434,-0.07269232,-0.037315745,0.006284819,-0.03822535,-0.23522083,-0.09410617,-0.048564266,0.05276315,-0.04830945,-0.30229267,0.017232623,-0.07138166,-0.12549613,-0.011764515,-0.05995566,-0.044975556,-0.037427247,-0.09491321,0.0077039283,-0.1695008,0.033194788,-0.035649974,0.011096621,0.0059989123,-0.06381502,-0.1378256,-0.10100363,-0.009034471,-0.07513008,-0.18690974,-0.13584304,-0.13513657,-0.09768423,-0.06015609,-0.26266545,-0.061174974,0.0014832963,-0.004600846,-0.049588386,-0.2782327,-0.13804716,-0.09996101,-0.05002878,-0.19375238,-0.15547788,-0.035707045,-0.022744361,-0.055826616,-0.08104608,-0.0504911,-0.111853175,0.07742797,0.016498595,-0.06502495,-0.19759168,-0.17071754,-0.077490695,-0.27878994,-0.11391699,0.0125768185,0.13144952,0.015264755,-0.14114024,-0.020376476,-0.22288734,-0.018222505,-0.13029215,-0.13493456,-0.037138198,-0.09699806,-0.0159251,-0.04568976,-0.0073066503,-0.018096223,-0.13624078,-0.14672084,-0.0757164,-0.08983052,-0.022351587,-0.2217864,-0.07842668,0.07394138,0.0048740073,-0.1434767,-0.026430758,-0.045699704,-0.002291277,-0.05860839,-0.06587751,-0.12443678,-0.3356488,0.03939982,-0.058644574,0.058243435,-0.042934604,-0.11509094,0.007469442,-0.1877875,0.041951895,-0.07728881,-0.026420714,-0.0024377108,-0.099756524,-0.124569535,-0.28145733,-0.03151614,-0.15712634,0.054371305,-0.07561191,-0.079654485,0.108019575,0.004387523,-0.0802046,-0.037300847,-0.07580756,-0.12021843,-0.07132852,-0.15597348,-0.019393817,-0.14246514,-0.10556788,-0.03327179,-0.09832231,-0.031309757,-0.15782732,0.037053812,0.004799095,-0.09885113,-0.06986371,-0.054851755,-0.057952873,-0.001048699,0.0038512195,-0.028656036,-0.14665252,-0.063141756,-0.24463628,-0.010631739,-0.06021797,-0.2321634,0.102658644,-0.2003964,0.011184685,-0.05621148,-0.056769732,-0.027850667,-0.12537497,0.027190885,-0.024556994,0.05800385,-0.008223391,-0.060649034,-0.018269617,-0.29949662,-0.014290791,-0.022041358,-0.024499264,-0.012597948,-0.16437303,-0.28018427,-0.088016056,-0.042217277,-0.16010131,-0.039225016,-0.091244906,-0.03156837,-0.054338675,-0.010061306,-0.096313134,-0.14067583,-0.043358944,-0.2916243,-0.080097675,-0.15398641,-0.19248573,-0.059215825,-0.27775812,-0.09122931,-0.13307722,-0.06473264,-0.2705877,0.031772465,-0.07096044,-0.068808325,-0.10280975,-0.02440383,-0.024376804,-0.02768447,0.034559157,-0.1802494,-0.05525463,-0.013074935,0.09760657,-0.0849052,0.19983646,-0.08389179,-0.03983104,-0.14001454,-0.07334688,-0.2129774,0.013426673,0.0057292907,-0.061767105,0.008857314,-0.1480428,-0.019538976,0.04024319,-0.111953005,0.039914787,-0.06637729,-0.04833817,-0.04070352,-0.07035079,-0.109002985,-0.12826014,-0.10760179,-0.109235555,-0.12234277,-0.055176966,-0.07564184,0.021768153,-0.21936254,0.017744685,0.24470904,-0.10708465,-0.1778632,-0.03848704,-0.082591906,0.000651367,-0.28441313,-0.07506403,-0.06586781,-0.025667297,0.12333805,-0.06422012,0.012193382,0.00058561156,-0.0492207,0.019659244,0.034865364,-0.059726804,-0.019122094,0.038143687,-0.16384487,-0.056991506
-0.1153148,-0.016767073,-0.060327955,-0.028576497,-0.05655103,9.980263e-05,-0.014826576,0.05076511,-0.21249811,0.0873547,-0.03753519,-0.16151188,-0.06274896,-0.05908707,-0.054636445,-0.07700509,-0.027067568,-0.07951096,0.0071807355,-0.24488959,-0.017259773,-0.03095457,-0.2494325,0.042825297,-0.004896909,-0.23394634,-0.2191093,-0.29893464,-0.08154365,0.0066854134,-0.018287435,0.023580885,0.033787105,-0.38984308,-0.10664641,-0.13804354,-0.086891584,-0.24327804,-0.015544358,-0.20683579,0.026385453,-0.48730534,-0.025208779,-0.17890728,-0.106839925,-0.0808541,0.010630392,-0.10836037,-0.061038833,-0.08775255,0.05336087,-0.051196683,-0.026406003,-0.048233982,0.00023052971,-0.12706873,-0.071662985,-0.020441938,0.03984874,-0.095924065,-0.07531754,-0.08530341,-0.14108676,0.04279813,0.006085556,-0.029767184,-0.02851311,0.06336482,-0.036813788,-0.015004083,-0.028760118,-0.22436695,-0.13594262,-0.009590092,-0.06265843,0.035147328,-0.20330931,-0.08235073,-0.043412447,-0.052758746,-0.067755364,-0.15239958,0.05534159,0.044634998,-0.11582667,-0.043889415,-0.025465466,-0.063494034,-0.059604432,-0.11984702,0.033686273,-0.02619866,-0.19064198,-0.09898243,-0.004319306,-0.179648,-0.08643083,-0.03151443,-0.08238778,-0.14869398,-0.19752283,-0.024301445,-0.15707652,0.012672278,-0.033225767,-0.035973333,-0.24875355,-0.07471709,-0.004580739,-0.18882377,-0.072141394,0.030444046,-0.0028922036,-0.22367007,-0.026896782,-0.0957084,0.06706337,-0.030513294,0.012869269,-0.018884508,-0.14267418,0.02468599,-0.013780322,-0.1477706,-0.14577688,-0.101620615,-0.07431829,0.1024061,-0.037960257,-0.04571176,0.02273793,-0.010975201,-0.03300775,-0.11945441,-0.004026124,0.11971861,-0.033989158,0.023706168,-0.006246211,0.010657107,-0.09385522,-0.1470945,0.06222018,-0.0014918289,0.004448977,-0.062011924,-0.060564425,0.019416803,-0.097861804,-0.015148598,0.05043492,-0.21934454,-0.03203172,-0.01703795,0.181934,-0.109076895,-0.009160674,-0.02171956,-0.104238644,-0.1102221,-0.061233945,-0.082826,-0.16930239,-0.07598847,-0.047798406,-0.13468577,-0.03798041,0.0006188511,0.037371695,-0.10864542,0.08027199,0.033824146,-0.07669727,-0.14279805,-0.08244675,-0.024014723,-0.14702293,-0.008906487,-0.094083585,-0.021346696,-0.032907136,-0.017563036,0.0136761675,-0.055543672,-0.015349405,-0.075757794,-0.09305187,0.066458195,0.013031988,-0.03252996,-0.002563484,0.042323567,-0.03701751,-0.08591377,-0.08669029,-0.19210261,-0.062882416,-0.071625985,0.063824594,-0.047442798,-0.03799488,0.030535223,0.0025206218,0.057626817,-0.068847016,-0.017860174,0.010395128,-0.07851581,-0.0437981,0.05389435,-0.17811766,-0.06898119,0.013444486,-0.020784019,-0.021963019,-0.37695247,-0.33318043,-0.17722951,0.031196514,0.06249769,-0.03682243,-0.14708184,-0.076522164,-0.09263381,0.06707835,-0.022659756,-0.048344444,-0.08670477,0.030089306,0.01708252,-0.1538029,-0.055579707,0.006739769,-0.33746007,-0.019394975,-0.050363936,-0.00774548,-0.070992015,-0.10562963,-0.025890194,-0.06877844,-0.15520653,0.02356162,-0.0013972452,-0.30890495,-0.21654569,-0.07858813,-0.12580885,-0.18879329,-0.053968165,-0.16779146,-0.050793413,-0.08596606,-0.07838251,-0.057369485,-0.053902037
-0.118952096,-0.10710345,-0.041977488,-0.33627608,-0.06844952,0.0036688107,0.19837421,0.3717505,0.24528372,0.13362472,-0.015352603,0.13118589,-0.044165824,0.6106442,0.917845,-0.17121646,-0.05475899,-0.2897495,-0.04564514,0.075953275,-0.37246695,0.23219681,0.19779716,-0.14203623,-0.15567401,-0.17514591,-0.6104666,-0.049632553,0.09670882,0.033797197,-0.13096495,0.07180003,0.24358366,-0.62333006,0.28862572,0.047766984,0.07520777,0.239873,-0.19715954,1.2508463,-0.03090171,-1.9326165,-0.047884285,-1.3824736,0.21433046,0.14854911,0.008070953,-0.62038803,0.034884024,0.20543377,0.21983634,0.60109204,0.062056225,1.713258,-1.130729,-0.6295968,0.14721976,0.051354073,-0.60414135,0.09154394,0.51687306,0.026258884,-0.74864167,0.049667187,-0.93102235,-0.07949736,-0.19128855,-0.15103263,0.3602626,0.3279221,-0.6764769,0.18952146,0.112012535,0.012103269,-0.6346007,-0.075839676,0.41249254,-2.0911145,0.3008407,0.21777193,0.085785404,-1.1655097,-0.051548257,0.0336861,-0.39360538,-0.25946155,0.03877309,0.009675533,0.23288266,0.61618435,0.10536691,0.074613266,-0.49504086,0.3293169,-0.051416878,-0.34620568,0.8218046,0.02043657,0.0049784933,0.9404543,-0.51021284,0.26525414,0.58879215,0.11890371,-1.8488717,-0.8562333,-0.6287419,0.09605861,-1.0502511,0.64098436,-0.22852911,-0.025916891,0.014580138,1.1987402,0.065520026,0.6595165,0.26195884,0.11196635,0.031135738,0.11665342,-0.08266202,-3.1106246,-1.208828,-0.09654932,-0.012775643,0.031269092,0.5160547,0.04176802,0.058588885,0.8575243,-0.35801673,0.39257056,-0.19935074,-0.27455756,0.0010181126,0.75390023,0.17580453,0.071858086,0.27525672,0.05003462,0.12099648,0.18670972,0.043666422,-0.34755522,0.08932347,0.05178332,0.20683965,-0.73793566,0.005129483,-0.010085757,-1.6352783,1.4556665,0.060486246,-0.026409976,0.4285624,0.26993355,-0.7462391,-1.0043597,-0.15496671,0.012790992,-0.08008796,-0.95578384,0.17048422,0.07749806,0.0127862785,-0.4139007,-0.6505809,-0.055024955,0.0046090595,-0.5361109,0.29481876,-0.40577725,0.22847098,0.45907652,0.14409742,0.19286375,0.3435489,0.26266328,0.12558852,0.06044427,-0.2726994,-0.41892502,-0.5464388,-0.63890344,-0.042750943,0.7131383,-2.020916,0.14621657,-0.76883835,-1.7388071,-1.404978,0.5199774,-0.032246903,-0.27216303,0.7547951,0.55380034,0.07423157,-0.009311376,-0.62428474,-0.12677664,-1.0920556,0.19489478,-0.114466585,-0.1718615,0.49860924,-0.09274542,-0.28371674,0.3407568,-0.6900201,-0.30428994,1.1881891,-0.041154336,-0.78516847,-0.56539524,0.34335622,-1.3707037,0.10313287,0.19644319,-1.096003,0.044776544,-0.17271969,-1.4386692,-1.3092297,-0.18492746,0.15691909,-0.08243461,-0.17772533,-0.4810997,-0.42786738,0.013246156,-0.59475464,-0.05317933,0.0965298,-1.6885347,-0.5236114,-0.15482871,-0.052074715,0.4198611,0.44081503,-0.053910717,0.25421852,-0.8004712,0.05581921,0.08788466,0.8258034,0.3725993,0.076034814,0.39387977,-0.7134239,-0.030227937,-0.39572662,0.09526426,-0.025344012,0.5400314,0.4586627,-0.008708831
0.03991563,0.39500657,0.49895042,-0.6072051,-0.13157181,-0.10404693,-0.29154512,-0.62131876,-0.06688865,2.054305,-0.08236007,-0.37768516,0.020463983,0.10646417,0.39896297,-0.18507926,-0.07873334,-0.6843887,0.03121151,-0.38933405,-0.8866266,-3.537669,-0.23938885,1.0408734,-0.43016458,1.2910898,0.43652436,-0.9714278,-0.52442706,-0.11172203,0.1349824,-0.041156206,-1.0376046,0.25572732,1.8107833,-0.22476037,0.37267244,0.18055283,0.1106838,-1.0947756,0.25077304,-0.14225295,1.2416663,1.701231,0.6768479,-0.45975083,-0.04945641,-0.6250018,-0.11788995,-0.5871531,0.4309371,-1.2004199,0.38286477,-0.36608875,-0.070076056,-1.9458038,-0.014259234,1.7013588,0.0073112426,-0.42252502,-0.8648195,0.108609326,0.033290934,-0.024845928,0.70102984,0.8616857,0.23536737,0.17734978,-0.6744433,0.43208042,0.04318722,0.3502145,-0.618585,-0.27180064,-0.4546748,0.55170685,-2.9211485,-0.7446054,-0.10063587,-0.63031745,0.029617775,-0.14150192,0.042906076,-0.03867337,-0.7474242,0.22110869,-0.011172336,-3.1588624,0.330846,-0.44936875,0.1603308,0.32151917,1.2130171,0.07397964,0.45539853,0.4359544,0.78691083,0.014645681,0.4925308,-0.034386564,-0.60606074,-3.61721,-0.14907843,0.16608073,-0.8122451,1.2551075,-0.62985855,-1.2790601,0.6474976,0.30750066,0.15337247,0.13641842,-0.021998607,-0.021273425,-1.5819474,0.009155022,-0.18380754,0.1388129,0.046937265,-0.15437326,0.3474954,-1.0603645,-0.1308764,0.20877266,-0.46555117,-0.34146577,-0.8278212,0.6963249,-0.027896287,0.5374587,-1.1449301,-0.04257588,-0.29221743,-0.49069005,0.060701244,0.64515156,-0.20955643,-0.33986616,-0.19219038,-1.4595488,0.015638007,-1.2471012,-0.061364025,0.13951023,-0.5223583,-0.39427492,-1.5039394,-0.2833989,-0.27916822,0.015953302,-2.2980044,-0.9853399,-0.11457812,0.04728733,-1.7087466,0.15328044,-0.76540273,0.038928084,0.58841264,-0.3308756,0.56482357,-0.2634873,-0.18467043,-1.1732398,-0.8918861,-0.13957568,-1.046595,-0.036769234,-0.041090976,0.10576335,-0.24894491,0.7589459,-0.014196539,0.8116959,0.41612184,-1.0142543,-0.5182403,0.7073921,-0.06264882,-0.58803356,0.8664454,0.1398758,-0.70446897,0.20094094,0.4278868,0.21468769,-0.3217287,0.024412086,1.7852341,-0.8871755,-0.19594282,-0.77789474,-0.004521325,0.2152643,-0.8978071,-0.14437613,-0.23730472,-1.9010407,-0.4497485,0.43354642,-0.4124451,0.49063137,0.68738556,-0.04382234,-1.4290551,0.90018976,-0.24147844,0.16842721,0.5427982,0.28118342,-0.5888368,0.0016119529,0.06869948,-0.08602919,0.51006633,-1.2921774,-0.8004111,0.85730255,-1.3304696,-0.030016057,1.2427088,0.15833719,0.6556494,-0.052281056,0.2432049,-0.25672483,-0.4532156,0.9299669,0.0818312,-0.011418931,-0.510434,0.023622178,-3.6594899,-0.3306926,0.6894749,-1.819088,-0.48667303,0.750096,-0.337047,0.043792658,-1.2905177,0.2319613,0.2954432,-0.5044757,-1.3354723,-0.3511618,-0.96382093,-0.8603069,0.010229173,-0.052817684,-0.7547761,-0.42077962,0.23076566,-0.056982834,-0.7943153,0.4923995
-0.048850115,0.77361894,0.1721678,-0.2962693,0.12331694,-0.27771533,0.8372194,0.17251593,-0.042835202,-0.591652,1.0043353,-0.10796806,-0.049409326,0.09841257,0.3772498,-0.3035548,-0.025394285,0.5528115,-0.0018804222,0.63222593,-0.6951784,-0.7991238,-0.7704502,0.13401034,-0.15992089,0.16985364,0.22379193,-1.4203169,-1.7826252,0.011581625,-0.14295234,0.26205826,0.18869893,0.41511723,0.38750994,0.057389088,0.6714901,0.7134844,-1.3642133,0.52887255,-0.08571606,-0.28745633,-0.122356944,0.22493882,0.36312035,-0.25432613,-0.060176283,0.5868304,-0.13642724,-0.022113824,-0.011056433,0.29837233,0.18044302,0.23077798,0.04529292,-0.5571673,-0.08662348,-0.021985661,-0.89350176,-0.5286409,-2.0904233,-1.0452082,-1.2698722,-0.019839458,-0.8216247,-0.68349355,0.15069522,0.05120575,-0.9884084,-1.1977961,0.36625516,-1.3056457,-0.15631966,0.11260171,0.29364097,-0.071719535,-0.3817663,-0.76418066,-3.6848495,0.22407179,0.20268235,-0.05745579,-0.022046423,-0.0014660656,0.14747815,0.4585935,-0.36375946,-1.8107238,-0.3616842,1.8733233,-0.45670915,0.4314527,0.8810427,-1.070288,0.2678693,0.65401566,-0.7244213,0.010024175,0.2435777,-0.31050262,-0.5589351,-3.2984366,-1.7957149,-2.8935933,0.47634128,-1.9263685,0.16020513,-0.57345146,0.31797346,1.7458851,-0.29491812,0.20898096,0.009410739,0.10373595,-0.18751897,-0.90130454,-1.7668217,-0.05862541,0.003970243,-0.8252473,-0.042218085,-2.9400246,-0.4356407,-0.35704705,-0.31303716,-0.036670342,-0.516907,0.23666978,-0.98531485,0.18753676,-1.3778484,1.1095493,-0.0019129887,-0.40035272,-0.028651744,-0.36800414,-0.0021134932,0.031496793,-0.584076,-0.8775642,-0.2892161,-0.644469,0.058679014,-0.2903132,-1.0341636,0.17546971,0.42273915,-0.42364675,-1.0957142,0.052446216,-1.4989218,-1.3364311,-1.9405131,0.028915487,-0.07911468,0.07563728,0.14024287,0.21440996,-0.20521522,0.3632676,0.38646182,0.90143657,0.51912653,0.58032787,-0.36471668,0.17654064,-1.319367,-0.21484986,0.012315584,0.5369761,0.2567603,0.41774276,0.40776113,1.2176294,-0.2812219,0.39170823,0.5252783,0.092615716,-0.37901258,-0.1475611,0.51072705,0.3081595,-0.6916327,-1.001106,0.038731176,-0.44135287,-0.54676527,-0.2748377,-0.50712585,-0.07113969,0.25554994,-0.5979999,-0.041203998,0.21740305,-1.0122658,-0.92763567,-1.4907563,-0.49396977,0.14344482,0.47988167,-0.0067820675,-2.504031,0.48773298,-0.1590833,0.12741318,0.040430013,-0.40206587,-0.51778954,0.41647926,-2.223578,-3.1484792,0.027465526,0.1151842,0.37878436,-0.41674873,-0.36163044,-0.32923678,0.4708479,-1.3731738,-0.035051703,-1.4174455,-0.1266678,-0.2845902,-1.4093401,-0.09282744,-0.055456977,1.5274986,0.550855,0.16231444,0.03179276,0.40828434,0.013393588,-0.9849004,-0.7360822,0.754927,-2.2064998,-0.45167947,-0.19076136,-1.3601934,0.05295386,-1.4530863,0.3152274,-2.7923622,-0.6510298,0.5058378,-3.3249645,-0.47242498,-1.084188,0.03671846,0.019129183,0.01399568,-0.4514884,0.1690644,-3.0596998,-1.3259643,0.30459374
-0.012029351,0.40609944,0.044425245,-1.8917009,0.03304381,0.16534604,-0.39451152,-0.43764916,-0.21638383,-0.52235484,-0.20744483,-0.57019603,0.020275977,-0.14993934,0.36476305,-0.6307428,0.14606911,-0.065190844,-0.027357802,-0.084814735,0.48005676,-2.7351732,-0.27819014,0.6638641,-0.42548254,0.5148872,0.15653415,0.30443922,-0.48339874,-0.037478168,0.2224827,0.18930446,-0.64294344,0.14483777,0.7333573,-0.5240892,0.50859547,0.05291953,0.74856794,-0.92021483,0.23012826,-0.23059,0.65643686,0.33527958,0.32910037,0.14310156,0.012385033,-0.414018,0.017301694,0.18577275,0.62841076,-0.17462906,0.5408928,-0.3151636,-0.26741746,-0.7930809,0.15716268,0.40615103,-2.801077,-0.012801307,0.0144283995,0.34316802,-1.4024194,0.06013754,-0.071782276,-0.857551,0.5052527,0.21150531,-0.040161435,0.32281476,0.27080852,-0.68664837,-0.13406579,0.2634382,-0.19385692,1.0655842,-0.25068074,-0.058486883,-0.6418258,-0.14760666,0.13839774,-0.5533251,-0.054878924,0.011574864,-0.07305747,-0.1051884,-0.10432623,-2.4552898,-0.54267997,-2.0399532,-0.09718077,-0.3599271,-0.21336389,0.22540799,1.8797085,0.10947749,0.57640934,-0.035192013,0.19134177,0.15283793,-0.24753033,-0.25834113,0.785902,0.5209469,-1.7396685,-1.2082692,0.2414908,0.0949949,0.02865386,0.34899846,0.17617026,-0.068292074,0.03501098,0.15110847,-0.38454694,0.14589418,0.5060119,0.19902167,0.008835964,-0.55340856,-0.06229721,0.2963903,0.39751673,0.17743948,-0.013804019,-0.04207777,1.1146115,1.3306973,-0.071859926,-1.9164008,0.5174852,-0.6780613,-1.1169366,-0.8029702,-0.033874925,1.5834264,0.034217983,-0.59278506,0.31365684,-1.1599405,-0.28486687,-1.2141154,0.051933423,-0.102334164,-0.7144993,-0.4043653,-0.85958904,0.15309793,-2.202175,0.043364763,1.4064312,-1.2251961,0.44433567,0.01484929,-0.042423803,0.077974655,0.49428433,0.05256183,0.4341246,-0.60948193,0.683059,-0.19653527,-0.628682,0.4766149,0.47375745,-0.109172225,-1.6953653,0.02469456,-0.03611428,-0.52180284,0.43398502,0.2958864,0.048500117,1.0487461,-0.32872298,1.641963,-0.5918077,0.44976148,-0.13911687,0.12098769,0.4395453,0.6446247,-0.019715754,0.34968013,-0.367384,-1.1008906,-2.9464183,0.22453195,0.9972467,0.49149972,-0.28024864,0.8762383,-0.010406189,-0.25342143,-0.32364613,0.17681395,0.14029814,-1.2057775,-0.035046645,0.43696505,-0.15273257,0.328649,-1.4124829,-0.8300351,0.2894641,2.194197,0.43188548,-2.4972703,-0.870701,1.0325532,-0.4098941,0.050945565,1.0267152,0.46331817,0.70928127,0.6206026,-0.26836947,0.004010265,-1.312898,-0.048365995,1.0191432,0.057578657,0.5790231,0.22414589,0.12178326,0.29788718,0.41456863,-2.332333,-0.6244612,-0.047772765,-0.97346026,-0.05313264,0.6765084,0.19606438,2.148367,-0.18035224,0.3164162,-0.1874866,-0.49964902,-0.059414722,0.126225,-0.4153243,-1.2754151,0.006659543,-0.090195134,-0.040080283,-0.078764774,-0.6649781,-0.04167476,0.05312336,0.17705919,0.047949295,0.07404684,1.1612021,-0.14053474,-0.05116957
0.0409167,0.049630154,0.32861972,0.37618354,0.04285759,-0.025751038,0.11874749,-1.1488625,0.082929835,0.8464186,0.14628612,-0.15400499,0.059866335,1.6533614,-1.7227669,-0.41750905,-0.02699392,-0.41837728,0.037291832,-0.2918557,-0.28094056,-0.8756347,0.13702251,-0.62758553,0.13962246,0.26934573,0.10744002,0.73557925,0.17548077,0.12867355,-0.11953282,-0.18230693,-0.24745403,0.2944821,-0.18848944,0.5020329,-0.248032,-0.017740281,0.4922125,-0.374048,-0.081113845,0.7175704,-0.07799101,-1.0866933,-0.017957136,0.011908095,0.014141098,-0.62947524,-0.032288566,-0.073743515,1.2640848,-0.6430657,-0.14618756,-0.26482016,-0.903291,-1.3777895,-0.2927224,-0.25063127,-0.21181487,0.10576304,0.60729265,-0.31671652,-0.14634264,-0.043462783,-1.1106256,0.6671481,-0.15663882,-0.08776168,0.1388141,0.34240356,-0.55229986,-0.6963213,-0.006625221,-0.049441945,-1.1587002,1.6700511,0.87834495,0.2811206,0.14962706,0.54978627,-0.04376481,-0.55568653,-0.028032914,-0.03154388,-0.029158939,-0.7699935,-0.04907472,0.214397,0.765628,-1.8685752,-0.08299895,-0.2243438,-2.1631625,0.20438083,-0.7044281,0.97254026,-0.38187787,-0.036030494,-0.048580714,1.179905,-0.060798116,0.12013014,1.3505262,0.8059895,-1.0087785,1.810695,0.7380337,-0.31320983,-1.806388,0.4361541,-0.028402418,0.046481103,0.019247115,1.0579921,-0.4023608,0.7818811,-0.1568758,-0.062281497,0.062474117,0.057588253,-0.41494006,-1.445638,0.23299076,0.85710686,0.07932069,0.080577135,-0.6750615,0.12483845,-0.024572834,0.4260377,-1.1556089,1.048303,-0.15512782,-0.25293005,0.047669332,0.633816,0.07586923,0.101434164,-0.04291167,0.41723347,0.17890187,-0.14863968,0.034443393,-1.7661119,0.0047044526,-0.057571832,0.81680304,-0.39909363,-0.9825864,-0.039178077,0.3185308,1.2761091,0.82838386,-0.050211497,0.5634319,-0.1757219,-0.6289255,0.71815425,0.16590422,0.11242923,0.64879066,-0.4263427,0.648551,0.23462725,0.07515264,-0.09452594,0.23894021,0.012663947,0.04374466,-1.0378731,-0.3022323,-0.64752764,-0.25248528,0.36122927,0.44713092,0.559569,-0.3910553,0.2223012,0.2794874,0.0009778993,1.1986203,-0.21710761,-0.3243644,0.91095763,-0.20907487,0.7013764,-1.3996122,0.0400593,0.4939144,0.480503,-1.3985326,0.3844799,-0.04772368,-0.042191416,-0.7406666,0.41313037,0.11664949,0.5665429,-0.6731442,-0.17210072,-1.3680233,0.20452699,0.35503504,0.07283702,0.62405765,0.0039700414,-0.15961762,-1.2016457,-0.8532514,0.32878757,1.0577515,-0.03337549,0.8222868,-1.3060882,0.25913343,-0.4047514,-0.085559756,1.1583781,0.37113163,-0.040159583,-1.3178425,-0.0033515366,-0.007801373,-0.8063915,0.0049026324,0.072044894,1.2657695,0.017814945,-0.24037886,0.059457816,-1.2776537,0.030296095,-0.7767946,0.3470648,-0.9164936,0.24578929,0.117924854,0.048398092,0.29756203,-0.054358497,0.28145936,-1.2071027,0.5439405,0.5642574,1.912176,0.2828912,0.046743494,0.27276647,-0.85690224,0.02127839,0.39727384,0.10524542,0.24056405,0.37815428,0.27774566,-0.050277077
0.12468885,0.3414978,-0.14614433,-0.44625306,0.09749586,-0.021350255,0.7769287,0.04277317,0.93490404,-2.0006914,0.6642213,0.11991538,0.05487403,-2.3164244,-0.3678278,-0.40629366,0.023782266,0.6007167,0.058756717,0.75129825,-0.554982,0.15053864,-0.08583138,0.20383492,-0.40896392,-1.0076411,0.09047112,-0.30739248,1.4955325,-0.166287,-0.3353386,0.044150986,-0.3295185,-0.2876299,0.17791648,-0.3567525,-0.07046258,-0.031837385,-0.35832554,0.14945318,0.07779913,-0.28752542,-0.36416838,-0.5609439,-0.084494844,-0.2558471,-0.053075224,0.28910482,-0.096189804,0.1292469,-0.1013818,-0.9292491,0.11312835,-0.08025608,-0.48093686,0.6721796,0.080617584,-0.12441132,-2.173681,-0.33361188,-0.50050634,0.24909756,0.6293798,0.025786221,-1.1355087,-0.6880364,0.049248535,-0.0032827216,-0.62518495,-0.72755754,0.59687495,0.9826629,0.090772875,0.40578222,-0.006259415,0.36847878,1.3243976,-0.14076215,-0.028669365,-0.93926036,0.0014053594,0.6607671,0.059292495,-0.035519063,-0.1077398,-0.10874299,-0.049349986,-1.2536998,-0.80065954,0.6628071,-0.21274228,-0.07360666,0.27133107,-0.7727875,0.51341695,-1.2455504,0.5813102,-0.009055495,0.10950267,0.48682976,-0.24323384,0.82411337,0.81808853,-0.5148478,-0.38881445,0.008930942,0.018339686,0.5691205,0.49402958,0.20817848,-0.00031103077,0.020369772,0.028568432,0.8407682,0.1332203,-3.2213383,-0.15584739,-0.49623856,0.004776776,0.14604712,0.00019410891,0.5890477,-0.55390984,0.5273158,-0.078065746,-0.059712168,-0.5687056,-1.2096752,-0.8976506,0.9066252,-0.7646563,1.6324376,0.016624095,0.227414,-0.031785294,0.48989686,-0.019600013,-0.38878947,-0.0021523265,-3.659114,0.15103523,0.7344308,0.0020549148,-1.4325833,-0.13820551,-0.87220114,-0.16925682,-0.6796345,0.95548886,-0.00050519407,0.44055,0.4648691,-0.77631027,-0.044738397,0.13387184,-0.1558142,-0.07222296,-2.1304643,0.1244589,-0.9715389,-0.060189612,1.3563373,-0.4390702,-1.194846,-0.48683846,-0.120819144,-0.18624,0.11042714,0.0121466145,0.08896391,0.2905971,0.39682195,0.060214136,0.79981047,-0.053135253,-0.36216554,0.099081464,0.19815713,-0.047695905,-0.0020612741,-0.15778719,-0.40358815,0.17045766,-1.4925282,-0.09087229,0.26391685,-0.057243504,0.20209937,-0.97146076,-0.43495438,0.8831844,-0.0961318,-0.046395533,0.32328236,0.3984752,-0.027544519,0.014113109,-0.8437492,0.07831406,0.2753149,-0.20331769,-0.4098197,-0.04655474,-0.027259324,-0.92974424,-0.34329495,-0.35072705,1.5104377,0.76551676,-0.69700086,-1.9409504,-0.058445804,-0.9314122,-0.019409113,-0.59125704,-0.10367425,0.2714359,-1.4208727,0.031955164,0.03312952,-0.97894216,-0.4152691,0.17969267,-0.1790758,0.052276205,0.14607617,-1.438346,-0.57948256,-0.4746365,-0.01700113,-0.28041223,0.016889773,-0.27635807,0.25506455,-0.44580704,-1.1036187,0.032690935,0.26659063,-0.8830892,0.05940777,-1.9941692,0.118687,-0.3649684,0.101761855,0.71616554,0.2967698,0.041595157,-0.0035137834,0.91433316,-0.039183937,-0.5776001,-0.33750823,-0.0038537497,-0.18486461,-0.32839274,0.12174682
0.015019603,-0.07589872,-0.059538983,0.18205859,0.036028415,-0.0530456,-0.09025267,-0.023138098,-0.106655516,-0.021565555,0.049892582,0.04387813,-0.016496435,-0.12364452,0.054820783,-0.048612516,0.018049918,0.17710657,-0.0017680228,-0.0045978096,-0.045522053,0.0011726696,-0.057116628,0.06479121,-0.025158936,-0.099091455,0.040869985,-0.015460962,-0.009155416,-0.05899146,-0.024582274,-0.004794121,-0.014030843,-0.035842516,0.037259713,-0.08565792,-0.031296935,-0.075097606,0.028778177,-0.12402954,-0.020267304,0.024017464,-0.054176126,-0.030244648,-0.09253556,0.07748563,0.039586656,-0.0042750263,-0.05918247,0.012048724,-0.08112962,-0.08672606,0.012332506,-0.021793153,-0.09038299,-0.001330962,-0.026167877,-0.052988127,0.03117657,-0.0002531763,0.025475087,0.050424136,-0.016100887,0.01968889,0.17631915,0.012212875,-0.05741543,0.025906656,0.00012803986,-0.021999652,0.0046872403,-0.043244313,-0.057375737,-0.043861296,0.044595134,-0.045884702,-0.11724359,0.056006026,-0.09542726,0.056339845,-0.058307033,-0.056972414,-0.02324995,0.030307993,0.030842649,0.052925482,0.02948107,-0.10475552,0.0032736938,-0.061407983,0.03131593,-0.10482169,-0.08104596,-0.1588545,-0.031348262,-0.12388391,0.034437366,0.008153893,-0.021073386,-0.014519373,-0.05966928,0.029159203,-0.15316549,-0.05931331,-0.113011144,-0.021672588,-0.036694877,-0.044246387,0.028782293,-0.03981075,-0.058281474,-0.034448028,0.04398936,-0.08090161,-0.034057006,-0.12354229,0.0067766127,0.006864764,-0.04101473,-0.00340666,-0.094968855,-0.04351549,0.037295084,-0.05286147,-0.03218279,-0.05326502,0.056831848,-0.0048103305,-0.13868459,-0.021348171,-0.13675743,-0.06445328,0.0063162143,-0.0064259134,0.037987567,0.030761966,-0.072011426,-0.093900755,0.03258566,-0.035807475,0.018042509,0.058888227,-0.00980489,-0.0164379,-0.05194761,0.053483117,-0.09833094,-0.21348417,0.061450116,-0.012807123,0.0021988284,-0.031368494,-0.14345168,-0.028684862,-0.14446391,-0.0020917892,0.042276137,-0.10844635,-0.0029481342,-0.11199428,0.010852797,-0.10395299,-0.1226497,-0.00019580261,-0.009987117,0.021584194,-0.025940508,-0.030563578,-0.017591126,0.013850612,-0.0342467,-0.011324493,0.008436773,0.018532287,-0.09268729,-0.020311179,-0.015043862,-0.10065383,-0.0710287,-0.053998582,-0.06650031,-0.027393367,-0.07196971,-0.045568474,0.02398473,-0.05763326,-0.029595768,-0.048853017,0.0015786923,-0.009726971,-0.08976612,-0.019276943,0.0080905035,-0.013074271,-0.064526804,-0.03281986,-0.01865723,-0.13756227,-0.0057789744,0.021797847,-0.019760288,-0.055309318,0.21590848,-0.0005693075,-0.024445366,0.06556089,-0.013142508,-0.026104137,-0.0203113,-0.11600603,-0.09186813,-0.058656584,-0.019667652,0.018973004,0.022829784,0.04287189,-0.03609768,-0.10968588,-0.073678374,0.016748056,-0.08372599,-0.052539226,-0.0432683,0.14134918,0.173622,-0.035630617,0.011298695,-0.02979708,-0.13060103,0.05476155,-0.04377057,-0.049270235,-0.07232618,-0.05276809,0.019277962,-0.0981333,-0.012208207,-0.0031356092,-0.0763979,0.0053986087,-0.046868682,0.08253092,-0.033336792,-0.0542923,-0.14204212,-0.10935642,-0.08544606,-0.0053868913,-0.109611414,-0.0147072,-0.1312555,-0.08007412,0.030409323,0.0048352634,-0.045466777,0.011015234
-0.09099282,-0.22958833,0.33568007,-1.330948,-0.39822602,0.08837669,-0.8272799,0.18171935,0.72163844,1.0493393,-1.0058079,-0.00069056265,0.052173574,-0.22416148,0.107321054,-0.6598338,0.0072246473,-1.4857304,0.03324391,0.88505316,-0.3749134,-0.6126013,0.47586414,-0.15603483,-0.05713174,-0.98808146,-1.1206968,-1.2626466,-0.4000036,-0.021714166,0.08240181,-0.084138006,0.07081193,-2.7485237,-2.4737036,0.45969352,-1.9783506,-0.1968394,0.14634576,-2.1705897,-0.26659647,-0.20882127,-0.4808537,0.30470243,-1.3344612,-0.15815383,-0.051906645,-0.9342218,-0.10080515,-0.30808467,-0.53045917,-0.071670964,-0.41257194,0.25334686,-0.88554734,-0.41217232,-0.07116669,-3.189082,0.106617026,0.48022377,0.43151802,-0.8561376,1.2615219,-0.03702122,-0.06188114,-1.6312743,-0.50538826,-0.08249445,-0.25597635,0.342481,0.4535696,0.98412746,-0.013001461,-0.26463863,-0.39438972,0.58137006,0.20668243,0.014262104,0.2272685,0.06611064,0.24215665,-0.35736084,0.06145298,-0.034120932,-0.3580238,-0.5433992,-0.07757275,0.8143064,-0.76184875,-0.3141216,-0.7351667,-0.28230584,0.38814363,-1.270176,-1.4764304,1.1025574,-0.06344026,0.030977353,-0.020410366,0.536071,-0.34385216,-0.5796617,0.7683119,0.66546,-0.69516087,0.6944104,-1.1675045,-1.5153236,0.2879774,-0.51177895,-0.17462502,0.02771165,-0.017025746,-0.28018072,-0.32821646,-2.0490127,0.29829893,-0.16637975,0.022570327,0.08616514,0.2761643,-2.276685,0.58535904,-1.2343826,-0.3073903,-0.5091452,-0.53421426,-0.21089377,-0.21004698,1.0616891,-0.20917879,-0.26420516,-0.44899386,-0.3424191,0.05356659,-0.42013648,0.029971905,0.2022203,-0.3296815,-0.5533258,0.46123123,-0.4081757,0.008061118,0.4342585,0.24362071,-0.52310187,0.34634504,-0.75602794,0.958945,0.032212973,0.53914255,1.200887,0.67104715,0.033570297,-0.059218876,-0.10609075,0.22295941,0.28916907,0.7228618,0.66455233,0.37772548,-0.31868026,-3.2063007,1.3180091,-0.5272338,-0.46858498,-0.35994396,-0.047032293,-0.01606227,0.25460756,-0.41956672,-0.9158836,-0.55993944,0.21669035,0.033095304,-0.5730012,-1.782452,0.21538338,-0.17936078,-0.18374984,-0.025089072,-0.15495884,-1.4999422,-0.10117824,-1.2134866,-1.0825604,-0.1555968,-0.13749728,-1.9293467,-0.007437811,-0.38298568,-0.9213961,-0.012556195,-0.6010948,-1.431291,0.37345433,0.17700844,0.7156395,-2.0719695,-0.23107427,-1.0285972,0.54409117,-0.18793756,0.10892654,-0.27351302,0.1529047,-0.56448066,0.44180548,0.89447963,0.75089306,0.49829987,-0.023286495,0.3995351,0.036995783,0.9495737,-1.3292272,0.122444846,0.69467026,-0.6518601,-0.057185687,-0.69643044,-1.4333358,-0.88368356,-0.5587858,0.14482214,-0.07529345,-0.44396368,-1.675576,-0.67433995,-0.05828347,0.27065918,-0.062179007,-0.7107009,0.62942016,0.20363213,0.8302037,-0.3542498,0.64569986,0.98705196,-0.056912147,-0.9970067,-0.035987608,-0.6028648,0.4096394,1.0837623,-0.34643146,0.35034913,0.2718639,-0.7568901,-0.026617147,0.35937235,-0.42230248,-0.94571555,-0.18723558,-0.60707146,-0.353838
