0.0014873832,0.315417,0.0467448,0.23607226,0.012238651,0.80461365,0.083118625,0.2596858,0.052750025,0.06133838,0.11036901,-0.5641056,0.013212856,0.01819316,0.1760714,0.24447471,0.5246333,0.48217434,0.49036002,-0.026003813,0.5051082,0.3742733,0.20435567,0.034813274,0.21566603,0.39611343,0.24836722,0.09557366,0.28066564,0.019209577,0.36516806,0.38161886,0.08984594,0.07678948,0.8122344,0.024348503,0.2277859,-0.0071658515,0.08079763,-0.006930268,0.6141353,0.13698797,-0.7088076,0.1300815,0.035764873,-0.005345591,-0.10948111,-0.04756688,0.25020158,-0.08146679,0.68210906,0.14612016,0.06374245,-0.086743034,0.17358728,0.013752836,0.0626962,0.18400039,0.081275,0.08343719,0.7243389,0.18163313,-1.489413,0.470959,-0.5630982,-0.02638374,-0.04626379,-0.024059923,0.8346796,-0.02125838,0.41998467,0.16583557,0.4657067,0.036633264,-0.016167372,0.17285146,0.40209132,0.4018724,0.11097918,0.101347506,0.13570721,0.26668522,0.104395926,0.34849602,0.13170591,-0.049073074,0.07473808,0.20672855,-1.5901525,0.0940686,0.07422754,0.31791973,-0.008903493,0.3261338,0.65403223,0.5324298,0.037519045,0.17581116,-0.05581361,0.21470022,0.55903757,-2.144929,0.013369033,0.026686318,-0.027161177,0.25509486,0.37205166,0.38808984,0.18878834,-0.009802208,-0.2383504,2.185078,-0.06002251,-0.043474905,0.041601524,0.04863605,0.43971154,0.27144423,0.3292628,0.084235266,0.12910898,0.20141393,0.3746531,0.10823907,0.32106915,0.050595287,0.1334426,-0.039879665,0.16657263,-0.04655278,0.3148287,0.32843652,0.49006462,-2.8031774,0.16551484,0.13617502,0.41667444,0.007741641,0.7358945,0.5621553,0.12811123,-2.5225837,0.1737081,0.019431956,0.0516895,-0.014281492,0.23469359,0.3332178,0.063147895,0.15838432,-0.0044729454,0.29554388,-0.04769488,-0.10505078,0.009732354,-0.1332162,0.2339147,0.19541611,0.012716072,-0.04822849,0.12337373,0.15503278,-0.06313752,-0.043746408,0.1276952,0.4195333,0.02939625,0.06676364,-0.6168122,0.34609842,-0.011314107,0.10287919,-0.04241549,1.0416579,0.10379007,-0.47132224,0.00649278,-0.0057620923,0.15811417,0.10553958,0.14364189,0.004616964,0.19591114,0.45687068,0.67061484,0.04953556,0.529819,-0.93725634,0.59169537,0.1146597,0.07778471,0.33924097,0.08550117,0.23397039,0.028217033,0.4523176,0.35935837,0.16306508,0.4022572,0.63036996,0.18468441,-0.04721669,0.041929893,0.02852411,0.16807435,-1.2010878,0.061084714,-0.060142126,0.037037905,0.5198435,-0.0467887,-0.0012467001,0.008913222,0.079267316,0.27651006,0.32608813,0.23497312,-0.0030516,0.15952559,0.7818107,0.020236557,-0.9150339,0.14179996,0.38836423,0.027406128,0.07220247,-0.07995016,0.70994693,0.06204161,0.33378613,-0.1607571,0.01924693,0.054380912,0.4748376,0.0244717,0.013466533,0.14844838,0.69477034,-0.082444,0.6166343,0.10937466,0.23007438,-0.042018246,-0.023708642,0.35379347,0.65093696,0.08626329,0.07259546,-0.017957164,0.022638798,0.0769509,0.2753947,-1.8376603,0.35014957,-1.0721164,0.09889939
0.0052206675,0.33017746,0.061094556,0.23477264,-0.016845051,0.6210752,-0.012781304,0.27270505,0.06384718,0.04778604,0.120666996,-0.60473657,0.005349196,-0.016542902,-0.04263992,0.059904117,0.5512314,-1.1135374,0.3082181,0.042279486,0.49701414,0.4064702,0.19793008,-0.00471277,0.22320089,0.39374346,0.24615926,0.041263513,0.30257764,0.042659823,0.3676391,0.65483445,0.0965912,-1.6121776e-05,0.7743033,0.10146267,0.23834066,-0.025347676,0.06294503,-0.004039641,0.7892431,0.1354759,-0.5381909,0.105294935,0.03346723,-0.013239889,-0.094625205,0.022387655,0.25523823,0.004296267,0.39163494,0.17087866,0.079221286,-0.019727329,0.17633809,0.02023065,0.0700604,0.18518203,0.021177543,0.009833419,0.6888469,0.18465361,0.13212302,0.016612712,0.15405841,0.015902271,-0.011576641,0.025362017,0.840683,-0.012723563,0.41243443,0.15420824,0.46544737,-0.043302212,-0.011042304,-0.08861071,0.3602371,0.53919345,0.10828238,0.15358923,0.1393625,0.24018063,0.11646476,0.4126002,0.13775152,-0.03547377,0.13789122,0.24345495,0.19359149,-0.16887699,0.0780127,0.312636,-0.015139816,0.3158774,0.5006705,0.5650293,0.051253237,0.17696628,0.048399016,0.20294489,0.31086406,-0.46041054,0.051950544,0.05366485,0.03778928,0.2625176,0.3537968,0.38677883,0.09477429,0.01619966,0.14700933,1.4490356,-0.0109853605,-0.05606012,0.050451104,0.057557285,0.45076102,0.37430042,0.28002292,0.08057049,0.12839997,0.339501,0.36611432,0.109504215,0.3185312,0.14712141,-0.5205084,-0.024790203,0.16490847,0.004829381,0.3098638,0.17901628,0.49119726,0.6654443,0.18375097,-4.4500327,0.41581655,0.07260808,0.6904817,0.5365747,0.13848488,-3.5681617,0.17105763,-0.01474044,-0.015277453,0.007875147,0.23281921,0.53257674,0.06845119,0.16101,-0.14088033,0.282889,-0.041329745,0.011413277,0.048656728,-0.034908228,0.23743089,0.22190346,0.035854455,-0.05470391,0.1301928,0.1609689,0.04753393,0.015492759,0.12785816,0.4182818,-0.01736779,0.07065816,0.25123894,0.55027145,-0.022365058,-0.82444626,0.01609339,0.9200952,0.076481834,-0.31027192,-0.01742452,-0.04229542,0.14660487,0.11562217,0.18282208,0.03564774,0.16157871,0.42930302,0.6013156,-0.023792613,0.5262168,-0.22604753,0.59583205,0.12401712,0.09235448,0.2920386,0.062029433,0.23476759,0.026814438,0.47605905,0.3432819,0.16645315,0.3302223,0.634445,0.19723931,-0.0026777366,-0.022715842,-0.023971591,0.16912667,0.24083048,0.06933176,0.040695686,-0.084664375,0.5093237,0.008951188,0.032786626,-0.05130561,0.084607325,-0.23327184,0.33882174,0.23604774,-0.023786832,-0.32659084,0.7905732,-0.0099507505,0.686921,0.15282887,0.38496014,0.004238045,0.10792612,-0.11138146,0.73183227,0.04113345,0.33330283,0.088728316,0.029242977,-0.042540908,0.66376626,0.038328648,-0.05281925,0.1604343,0.64723885,0.036644205,0.6462258,0.0916032,0.2178304,0.08833631,-0.014401698,0.3522931,0.6114083,0.087995745,-0.0698961,0.048334047,-0.027676243,0.078358084,0.23534213,0.050785277,0.3704274,0.36990666,0.10073472
0.024523808,0.33398914,0.07413348,0.238885,0.037276015,0.74570954,0.031143077,0.26858503,0.06755241,0.05424284,0.12183981,0.19175138,0.010793421,0.01953356,0.106201746,0.09698533,0.5534914,0.0016921897,0.49617007,0.046544097,-0.07831202,0.4076379,0.19468197,-0.03462254,0.083439775,0.24110815,0.24570213,0.045431882,0.2988185,-0.060769226,0.3652154,0.58860445,0.103831366,-0.20477565,0.7737247,-0.06347916,-0.4657998,-0.0051976237,0.03897373,-0.0045980904,0.7720492,0.12527013,-0.8842361,0.10456763,-0.093696915,0.07769301,-0.090812296,-0.054932833,0.2598773,0.0075882487,0.6076351,-1.1530461,0.08619848,-0.047387168,0.1719802,0.0003981742,0.082325935,0.18492465,-0.0076932507,-0.056567706,0.7233488,0.18202409,0.1704853,-0.17853825,0.15784618,-3.4024055e-05,0.03177475,-0.04989025,0.8373871,-0.022351459,0.41872245,0.1463657,0.46849683,0.08366831,0.02169681,0.026796652,0.3369313,0.3145361,0.111168675,0.16886596,0.13984188,0.24402447,0.123975605,0.43834406,0.12432495,-0.028238703,0.085882425,0.25280267,0.35327667,-0.21354666,0.08797795,0.3203016,0.018743224,0.3559854,0.71752757,0.19121853,-0.02662714,0.20011993,-0.0074327635,0.20138142,0.33762684,0.52041554,0.054560684,0.038935278,-0.12125409,0.26588106,0.3606352,0.37582028,0.013731903,0.045245364,0.13737074,1.6068175,-0.032105643,0.03884342,0.058814522,0.061531782,0.45255715,0.359791,0.25479972,0.08083609,0.124197274,0.19675641,0.4767842,0.10925817,0.34017625,0.052150946,-3.7180011,-0.020148063,-0.081611246,0.010684359,0.32622316,0.122968726,-0.4470072,0.5467671,0.18891035,-1.2125243,0.3495387,0.020264603,0.6236847,0.570768,0.14414096,-1.0180664,0.1731518,0.028772093,-0.01537093,0.04428033,0.21448807,0.46125746,0.069536164,0.2018016,-0.16364549,0.28414902,-0.06417036,-0.008855103,0.040867183,-0.05052542,0.23281202,0.2608747,0.0053918078,0.026004205,0.13301931,-0.01128134,0.061051212,0.025121907,0.13521935,0.4119153,0.05181787,0.071872145,0.3234854,0.5497971,-0.017128602,-0.62292194,-0.019655844,1.021747,0.0876137,-0.27862743,-0.0074114213,0.07846987,0.1550491,0.11360505,0.18187274,0.057312116,0.17078766,0.024586216,0.66921765,0.009643466,0.5165927,-0.18671808,0.5837158,0.12366066,0.09934165,0.2106168,0.101450175,-0.12873639,-0.048406355,0.4863906,-0.24176842,0.21640159,0.38607043,0.6389329,0.19487888,-0.0462468,0.00065971434,-0.01341559,-0.6767775,0.50387436,0.072368644,0.045450028,0.009418693,0.51688105,-0.003416807,0.035958264,-0.04574859,0.086889796,0.28833202,0.36233827,0.23875901,0.06290235,-0.3843489,0.7853827,-0.043853115,0.7092824,0.15073496,0.38967365,0.00401108,0.098107494,-0.02749085,0.5737327,0.011641627,0.30309558,-0.34434208,0.022166226,0.05165277,0.6340754,0.042529374,0.04534447,0.1453812,0.6770278,-0.043483667,0.6408645,0.0880379,0.22614747,-0.080088645,-0.07665445,0.35237214,0.58294916,0.09612675,0.008982361,0.023243152,0.053281236,0.07850574,0.22183001,0.058211252,0.37564787,0.38002446,0.109777704
0.042566475,0.29013014,0.07224793,0.21685487,-0.037645746,0.8417698,0.03382843,0.26456586,0.064752765,0.049402043,0.12963149,0.2012421,0.026174411,-0.018735586,0.1583784,0.13069318,0.5976414,0.055439573,-2.817118,0.038664106,0.49713996,0.4031816,0.18685384,0.027541585,0.2220946,-0.9763797,0.24403015,-0.015843611,0.2848166,-0.0070544602,0.36746052,0.5797717,0.10474698,0.07305015,0.59431726,0.0008240336,-0.87729365,-0.010475198,-0.005559605,0.0005465531,0.6438548,0.13010082,0.08135185,0.10888696,0.02045483,0.017896349,-0.08800567,0.0418546,0.26538122,0.044077825,0.6829766,-0.2946332,0.09232406,0.03627049,0.15995461,0.0030993314,0.08219248,0.18763098,0.02175656,0.0039349236,0.72316813,-0.55857426,0.18248832,0.2704181,0.17174162,-0.047143172,-0.03256828,0.013888818,0.86733043,-0.056056548,0.42070526,0.14687304,-0.4841893,0.040023044,0.0052581695,0.045611206,-1.9856284,0.55476546,0.112187244,0.1781636,0.13718449,0.24220031,0.12773679,0.4351386,0.12698211,0.025247363,0.11560822,0.16966824,0.35520038,-0.37551257,0.08334955,0.33274326,0.02694223,0.43847787,0.7226822,0.19879267,0.016506389,0.181909,0.033371374,0.20820525,0.47502157,0.5110882,-0.06171175,0.006065791,0.04559612,0.26993772,0.3697553,0.31453168,0.0065287757,0.019795885,0.13964267,1.7070829,-0.0044570602,0.06745509,0.06394683,0.064369775,0.370027,0.34498945,0.12107345,0.08219718,0.12601182,0.35276955,0.45256773,-1.1240971,0.3483738,0.0131755825,-1.2111276,-0.019536905,0.15175349,-0.014290132,0.3193993,0.27243572,0.2143903,0.68052936,0.1751109,-2.4300392,0.281825,0.05940276,0.5538135,-0.6965562,0.1448699,0.20120586,0.17096604,0.0072822687,-0.0065044733,-0.01882388,0.23057328,0.4547039,0.075702414,0.23950253,-0.3791857,0.28940433,-0.080351025,-0.021473018,-0.020107185,-0.010829583,0.23070268,0.23187704,0.038180087,0.0015035861,0.13513885,-0.02600137,0.08401681,-0.02741589,0.13988069,0.41522565,-0.041325662,0.0710137,0.32472923,0.54363406,-0.019763157,-0.414715,-0.005462097,1.008656,0.09892751,-0.23920824,0.018998867,0.054241143,0.19949871,0.12519783,0.1201539,0.025827335,0.17251958,0.018774413,-0.54093045,0.021607025,0.37693304,-0.16212882,0.41634145,0.124472514,0.10911866,0.309642,0.08162223,0.0017286637,0.025996534,0.5749759,0.42133856,0.24980752,0.39764744,0.63606507,0.17831136,-0.04092984,-0.0054133795,0.037068162,-0.944553,0.6222717,0.07493779,0.015615512,-0.0014798611,-2.7439215,0.04123339,0.017038856,-0.021694044,0.0872415,0.2721014,0.41835758,0.23312336,-0.023580931,-0.6017668,0.67281055,0.0010156893,0.7413727,0.13388167,0.38853738,-0.002969153,0.1000761,-0.1309449,0.38364297,0.038315315,0.2551768,-0.29198754,0.1058624,-0.031703144,0.661617,0.054674212,-0.009000611,0.12954782,0.6582512,0.03892873,-0.23367357,0.08519798,0.24420376,-0.04506358,0.0223235,0.35270867,0.5128239,0.09181126,-0.011871536,0.000101880025,0.11100461,0.079790086,0.22159994,-2.2983077,0.36627212,0.24652313,0.13385282
0.053995572,0.2629962,0.080571435,-0.19542785,0.034241688,0.7833067,0.001186502,0.26489267,0.06910179,0.048669603,0.13213116,0.19199127,0.025938377,0.002251665,0.11558993,0.11540161,0.6010927,0.40907207,0.42749497,0.07644566,0.49054822,-0.1176727,0.19155733,0.003228019,-1.385743,0.13413338,0.24093837,-0.08023677,0.30957693,0.023318075,0.3671526,0.5855013,0.10622196,0.0053496067,0.8419823,0.029533079,-1.1792163,0.020556696,0.0027665028,0.008508355,0.6741516,0.13075605,0.08083426,0.10667134,0.020241346,-0.021730462,-0.07752944,-0.044203494,0.25996825,-0.008652337,0.4219304,0.2067667,0.096329294,-0.0095913755,0.14325899,0.0045411726,0.08510686,0.18806824,0.017532896,-0.100231424,0.6923353,-1.0997621,0.1861774,0.47081345,0.14878088,0.028692877,-0.025225272,-0.0072676376,0.85521793,0.05246199,0.42301762,0.13296734,-0.35744184,0.021604244,0.0012480441,0.035699017,-1.2966796,0.32891166,0.11149794,0.17821069,0.13762671,0.23697397,0.11950335,0.44157964,0.12169505,-0.06480812,0.11676394,0.14634079,0.3535173,-0.63399386,0.084311865,0.31498283,-0.014918095,0.38855243,0.26553768,1.9891074,-0.037459005,0.18018572,-0.005604413,0.19430508,0.4821817,0.48131472,0.040651992,0.042689618,-0.0035068342,0.27346668,0.37654704,0.29059693,0.030747384,-0.018500445,0.10902315,1.5780896,0.03733783,0.018667288,0.06395549,0.06592104,0.35292867,0.34383878,0.17600718,0.07519414,0.11930181,0.3711299,0.44411767,-0.49286988,0.25354305,0.14742483,-0.078395836,-0.011312577,0.13674791,-0.006880172,0.31596863,0.25782105,-0.6405165,0.6766044,0.17040311,-3.9665186,0.42289388,-0.004222201,0.6644969,0.5654352,0.14878759,0.3973039,-0.3593255,0.013765836,-0.018252099,-0.05688952,-0.6807173,0.59381694,0.07839679,0.25623044,-0.49107784,0.14823839,-0.04242549,0.0065717725,0.028151982,0.024017893,0.23227319,0.07266715,-0.0010279393,-0.011092802,0.13917084,-0.059931256,0.10181866,-0.019436892,0.114152126,0.45838955,0.049987342,0.06579293,0.31793135,0.5302445,-0.011535597,-0.28814182,-0.0068224734,0.28311896,0.09334178,-0.2287735,-0.0014448896,0.028018901,0.19123474,0.09210814,0.19153608,-0.0042215795,0.16871291,0.04507589,0.6466623,0.045145847,0.5212474,-0.15087014,0.26534608,0.12646127,0.1247472,0.44884992,0.085589245,0.028771479,0.049417432,0.4721225,0.4485266,0.026624119,0.40004846,0.62998116,0.15147097,0.06694624,0.039641842,0.013594232,-0.009827454,0.62674767,0.07694386,-0.009891286,0.019511223,0.5159416,-0.008832383,0.046351373,-0.0050749523,0.087646164,0.2784514,0.4216792,0.23463273,0.041246485,0.15829968,0.7855039,-0.011073053,0.56157565,0.14226986,0.38493234,0.012062634,0.10587641,-0.048151135,0.7287308,-0.025722899,0.22948667,1.9848782,0.05031379,0.024237847,0.5948227,0.07032302,-0.032128643,0.16389157,0.4278413,0.009120177,0.6301834,0.07995306,0.2530883,-0.09298043,-0.046623234,0.21042255,0.4905446,0.10338438,0.010600391,0.028978756,0.04264312,-1.0390942,0.21191958,-0.15522636,-0.2142898,0.3779022,0.15735222
0.070819326,0.2697805,0.078294456,-1.8572735,-0.02572957,0.8103624,-0.018364405,0.27168268,0.09171787,0.14349033,0.12850317,0.19364074,0.06670457,-0.044520415,0.07448774,-0.30020493,-0.06425036,0.5214723,0.5032861,0.07591932,0.50395334,0.3942257,0.23287413,-0.010321805,-0.08280193,0.27878752,0.23636848,0.02614453,0.35835505,0.03717656,0.36933357,0.5869351,-0.6649179,0.20851216,0.8522268,0.026126107,0.26535508,0.0066543557,0.025370648,0.07463848,0.7295235,0.2407901,0.03273177,0.110696375,-0.0015636254,0.07520386,-0.012112318,0.030148994,0.26436624,-0.029940799,0.6423496,0.13830522,0.10540812,-0.0094165625,0.11839737,-0.038761795,0.087017514,0.26010275,-0.00811574,-0.088795364,0.72433764,0.04614531,0.1642549,0.47206342,0.18061016,0.014074341,0.009747307,0.019941038,0.8203384,-0.025865156,0.43038896,0.0093992185,0.38707426,-0.00065572513,-0.0030520656,0.07139615,-0.014528066,0.5690133,0.12771812,0.16988519,0.14236979,-0.17450143,0.029366542,0.444333,0.048833642,-0.0284364,0.10773847,0.13756864,-0.004995822,0.057106517,0.100619964,0.294723,-0.01173273,0.35150257,0.73572487,0.27962506,-0.0033979935,0.068550125,0.057450686,0.21077336,0.4907756,0.5054546,0.034670345,0.030717967,0.067845725,0.21302836,0.35834852,0.3427505,-0.14288168,-0.013104545,0.14313029,1.5451223,0.0020207067,0.021999817,0.07647416,0.07112555,0.4137265,0.334155,0.28144285,-0.25617334,0.12931071,0.43368495,0.44436046,0.07255753,0.33102113,0.08845335,0.10939382,0.024823507,0.13522212,0.053749774,0.3092205,0.30666047,0.1782277,-0.7760861,-0.70133346,0.3087824,0.4141472,0.07212296,0.6730047,-2.2496626,0.16569942,0.41179407,0.014374675,-0.07939503,0.05255241,-0.028758982,0.24885695,0.5759714,-0.59256405,0.27489355,-0.65271664,0.24179904,-0.06348899,0.063274235,0.020699581,0.0147067895,-0.06485599,0.16712628,0.06954101,0.00013249443,0.15988965,0.052323863,0.08961103,-0.030203236,0.13880837,0.4520539,0.004436901,0.095789835,0.31534964,0.039695393,0.0025774422,0.025624644,0.014406206,0.9305512,0.043961875,-0.050356507,0.03980368,0.013583153,0.20131235,0.095893696,0.2702848,0.022084985,0.15571257,0.32577822,0.6929475,0.02997652,0.6161481,-0.069192715,0.50286895,-0.7145981,0.21826132,0.4300746,0.09616742,0.1441417,0.041073855,0.5239478,0.44443166,0.16476978,0.38996616,0.5142809,0.15922832,-0.003659257,-0.009569841,-0.016957218,0.16116829,0.64656925,0.09527356,-0.05746153,-0.016289297,0.37956628,0.02909725,-0.07305099,-0.008177836,0.09725855,0.42178956,0.3877304,0.2644159,0.042227518,0.14416988,0.77345604,-0.020060075,0.68635553,0.14134485,0.3990946,-0.015368704,0.14362548,-0.124077864,0.6439769,-0.022197256,0.24451487,0.6127368,0.020408971,0.0024998435,0.7288926,0.09077374,-0.0009320995,0.15084006,0.6261393,0.006566443,0.7376799,0.08642227,0.11841532,0.031219784,-0.032313187,0.32219526,0.55626625,0.10143412,-1.6740009,0.044236664,0.017144727,-0.028348746,-0.019484445,0.07673734,0.40745768,0.26367718,0.095636375
0.071484156,0.27801266,0.002144313,-0.6382605,-0.061085198,-2.0827591,0.0025798054,0.26857933,0.093882866,0.1582191,0.06676204,0.20838873,0.074708216,0.07183932,0.062238485,0.17728697,0.61962223,0.53202456,-0.00056544703,0.08281999,0.0087324,0.40142763,0.15690215,-0.029615078,-0.016168877,0.29362348,0.23571812,0.040614672,0.3604865,-0.03548064,0.37268418,0.6154949,-0.3485005,0.19960566,0.85492015,-0.005994459,0.26998115,-0.0019159782,-0.066154934,0.08282826,0.7585907,0.2726336,0.036377013,0.10747228,0.026060272,0.0705299,0.00095156964,0.0051517095,0.26306617,0.04979222,0.65865976,0.13357368,0.108265765,0.026127953,0.1395764,-0.0022342417,0.084369026,0.27263653,-0.03793803,0.0019039335,0.71726394,0.14882448,0.19849408,0.4925972,0.16446799,0.0009031395,0.03572663,-0.021557275,0.85212624,0.0010862006,0.43352044,0.036750346,0.4016841,-0.019021565,0.0154525,0.07752181,-0.069896676,0.5544878,0.12756754,0.17071517,-0.4215542,0.13250728,0.0095689185,0.4498421,0.046595197,0.0011892953,0.11087549,0.14014952,0.3218785,0.06517675,0.09434481,0.31748626,0.07791898,0.36383915,-0.74486655,2.076696,-0.057883117,0.26621434,-0.0196079,0.20766327,0.48630717,0.46439627,0.054124065,-0.007851513,0.026846286,-0.11684058,0.36723486,0.33445036,-0.0873251,-0.0048356745,0.13586888,1.6038789,-0.03095979,0.019706149,0.07626444,0.067503616,0.41887414,0.329034,0.25660363,-0.1239582,-0.7762202,0.42926732,-0.442602,0.07233372,0.33412194,0.081925504,0.11218775,0.034618657,0.13211088,-0.040518373,0.33075327,0.36859432,0.41972992,0.67454386,0.15780362,0.31161782,0.4175154,0.034472782,0.6278881,-1.697677,0.16578983,0.40513867,-0.4312933,0.055419225,0.03300166,0.02146469,0.22516096,0.57213265,-0.37502772,0.27028522,-0.66599876,0.24314944,-0.017225562,0.08043774,0.093701296,0.023926148,0.23795788,0.18029004,-0.009135814,-0.053119455,0.15473783,0.06824809,0.08831498,-0.09099374,0.13320911,0.45682898,-0.054346994,0.099550515,0.31177735,0.13139991,0.04543859,0.021435117,0.016200658,-1.0030667,0.07169538,-0.040634304,-0.028537612,-0.049961817,0.16795044,0.11126303,0.27791598,0.043094188,0.16332337,0.42591697,0.53945994,-0.0012358789,0.61827487,-0.056748297,0.509729,-0.66857165,0.21607319,0.37026128,0.09209183,0.14745714,0.05998946,0.5264248,0.4419717,0.17436625,0.18220831,0.508586,0.1249449,-0.05391576,0.021718636,-0.055307213,0.1615481,0.5934062,0.08601205,-0.045899734,-0.017885083,0.3698765,-0.012316105,-0.026083646,-0.0064310376,0.09586365,0.4207791,-0.49768835,0.26696426,0.04283395,0.13349475,-0.9225285,-0.014698927,0.67874104,0.14486569,0.34698293,-0.029332517,0.16569617,-0.11744078,0.4864481,-0.013745474,0.2372556,1.7477598,-0.002489339,-0.0046713827,0.29392284,0.083403185,-0.020608565,0.14850532,0.69441086,0.087770075,0.74238485,0.091188885,0.09852015,0.041280214,-0.0041020806,0.322109,0.5685909,-1.2975168,0.019494005,-0.035624396,0.055590417,-0.017641988,0.18906415,0.033840664,0.3544796,0.30105135,0.13268608
0.07507143,0.27858022,-0.040484298,0.11013929,-0.016522137,0.8008607,0.026462398,0.2627497,0.09368988,0.16321757,-0.037616614,0.1948322,0.078297995,0.054899987,0.08388701,-3.1393633,0.60983354,0.5345058,0.4734989,0.02308689,0.035719194,0.46094882,0.16571108,0.0035202976,-0.15103273,0.30171552,0.24012274,-0.038319554,0.34825352,-0.036730878,-0.17301314,0.45685902,-0.2081476,0.18856525,0.84274673,-0.0027651319,0.27184308,0.0113922525,-0.0792573,0.0935211,-0.013073535,0.17040421,0.059383836,-1.0746702,0.030717026,-0.015503046,0.013510611,-0.06614228,0.26620537,0.0044193245,0.6566687,-0.3477541,-0.94545305,-0.01727063,0.034454968,-0.056127075,0.08815711,0.2802444,0.0028588958,-0.07227885,0.72692645,0.118626416,0.20663615,-1.2625588,0.16848694,-0.04705291,0.022832494,-0.02092093,0.851564,0.0096219275,0.43849868,0.06861807,0.3508443,0.061524812,0.04113938,0.07375263,-0.009749358,0.5651995,0.13066341,0.17769128,-0.26386988,0.2049633,-0.002292622,-0.38893864,0.07943644,-0.04777053,0.11600802,0.14003669,0.32542574,0.08839401,0.09337667,0.31271094,-0.0007302815,-1.6784774,-0.27750862,0.35648063,-0.019902531,0.056133702,-0.03478126,0.20891708,0.4926851,0.52751,0.05420396,-0.05113806,0.004812302,0.04688903,0.3711824,0.25828615,-0.07865548,-0.023884147,0.14242612,1.513194,0.039806902,0.029068135,0.0787308,0.07099371,0.44098294,0.3485556,0.21472654,-0.12372062,-2.0353515,0.41734576,0.48931417,0.069876395,0.32580113,0.10711573,0.11456173,0.045194656,-0.7517202,0.0050198007,0.37885684,0.3246378,0.48724094,0.67355067,0.16167541,0.27898487,0.3726522,-0.0066772196,0.67454284,0.5906917,0.17007315,0.43565437,0.10474387,0.041829724,0.049850304,-0.0092510935,0.3187796,0.5870633,-0.26750496,0.2541458,-0.9228821,0.2674266,0.0024031792,0.07724712,0.0792447,-0.013082504,0.269991,0.10681442,-0.0041311122,0.059441768,0.1597493,0.07270446,0.091124006,0.000924514,0.13510686,-1.7312644,-0.02591121,0.10438369,0.31179348,0.26462573,0.044062737,0.028039984,0.05465105,1.0152912,0.11713124,-0.012162255,-0.025617644,0.003471809,0.21285647,0.10461365,0.28972808,0.045334,0.1705524,0.44970125,0.6161558,0.047073446,0.6054299,-0.04927507,0.5016014,-0.035210103,0.22206292,0.38366577,0.0923607,0.13787971,0.025503354,0.5320978,0.44481513,0.16885264,0.39834026,0.5558579,0.24509846,0.02182632,0.0055762227,-0.023544945,0.12741762,0.6313236,0.07508807,0.03434208,-0.0053077736,0.3644377,0.0023256717,-0.021596737,-0.014041624,0.09964801,0.4175313,0.28301123,0.19742993,0.054083887,0.12221965,-0.24557528,0.04803644,0.7551693,-0.28969073,0.4126613,0.0160299,0.1843238,-0.090969495,-0.041537505,0.0084150005,0.23059547,1.2718327,-0.008972079,0.013648872,0.4717209,0.076176055,0.09082375,0.14789653,-0.7264953,0.013261699,0.75376755,0.09270037,0.16848138,-0.013210183,-0.04147049,0.3278002,0.57081425,-0.74002224,0.0020017666,-0.0017682514,0.016553849,0.0033629253,0.26373318,0.049579017,-0.7735866,0.30174276,0.14444132
0.07376961,0.28744325,0.015065148,0.16277897,0.014945151,0.8042474,0.043218665,0.24382038,0.095706865,0.159797,-0.012309964,0.19546513,0.0835851,0.039160978,0.12548271,0.1397547,0.601916,-0.512185,0.5159635,0.011491994,0.50178754,0.44211194,0.15484256,0.05480558,0.1331235,0.33042395,0.23799203,-0.02771616,0.3203503,-0.030062687,0.33944443,-0.28447127,-0.14128156,0.22246744,0.8169858,-0.038035206,0.27704102,-0.066326424,-0.049376715,0.0970949,0.76790494,0.1437801,0.072752155,-0.5374711,0.0025755456,0.009648093,0.01868685,-0.020499634,0.2700363,-0.010271533,0.65032995,0.019839795,-0.0592614,-0.019240677,0.030295743,-0.043269742,0.089092895,0.2704071,-0.025038293,-0.06670593,0.69577956,0.101734705,0.20826916,-1.4880124,0.1714378,-0.0064474405,0.007535417,-0.009180152,0.8556382,-0.002795342,0.44348913,0.07171928,-0.14672183,-0.041982297,0.05640812,0.06985902,0.003645644,0.5628576,0.13370627,0.17867571,-1.1353467,0.18674913,-0.031339094,0.41552082,0.09193669,-0.01449497,0.11832846,0.11437245,0.26313898,0.19613571,0.09431822,0.30109867,0.032938287,0.44639707,-0.2012896,0.54535127,0.0040289965,0.19003038,0.018267537,0.13928477,0.49816433,0.5216543,-0.06093354,-0.013680978,0.08483611,0.14361548,0.36868536,0.3106873,-0.018582918,0.029810125,0.13577965,1.5390464,0.007068275,-0.08057357,0.08060509,-0.9683204,0.43060833,-0.5586341,0.2702406,-0.019579917,-1.0619651,0.4028886,0.4646784,0.08669422,0.32896066,0.16700146,0.11401954,0.049992666,-0.37413937,0.008261597,0.3922263,0.34419632,0.4424921,0.6610621,0.16531266,0.3028478,0.34423319,-0.0017911444,-2.0925481,-2.3490403,0.17081252,0.42495373,-0.3740803,-0.035858437,0.061225817,-0.06432918,0.23049949,0.4140315,-0.24146447,0.27068835,-1.0937283,0.30771562,-0.0019991372,0.07894434,0.03504751,-0.07527006,0.23927338,0.24234349,-0.07412272,0.026030015,-0.5423466,0.06472927,0.08029695,-0.009593205,0.1351565,-1.2869164,-0.044211194,0.10690743,0.31331655,0.37636992,0.07948493,0.02980082,0.03675042,0.93945754,0.13010015,0.0029891173,-0.032385115,-0.04916091,-0.11362452,0.12011156,0.28931436,0.0037139873,0.14664991,0.45286757,0.60473675,0.018627562,0.5961769,-0.038707573,0.4853734,0.090786956,0.2191602,0.44071558,0.087998144,0.14621401,-0.017052326,0.5372887,0.45125976,0.17293485,0.40154275,0.5248506,0.24474314,0.012483185,-0.026468603,0.031105543,0.13933045,0.64639145,0.07786231,0.04833269,0.041969847,0.3767372,-0.028379988,0.038303386,0.027135381,0.10053038,0.4447648,0.30715856,0.12735245,0.002956949,0.11590529,0.5418746,-0.02858465,0.6994965,-0.43901652,0.4527648,0.0016961698,0.19426008,-0.15001161,-0.55070746,-0.00027065404,0.2555333,1.2628961,0.05573136,-0.030369405,0.508563,0.082168214,-0.030388577,0.14994165,-0.19805661,0.04382467,0.75031507,0.091493726,0.15570237,-0.045737937,-0.020585548,0.34256676,0.5672166,-0.25348377,0.13201365,-0.038320787,-0.06418071,0.0015707943,0.30074587,0.01016569,0.37338576,0.40235302,0.14630912
0.0772365,0.28459427,0.039617132,0.16291463,-0.003952305,0.80061966,0.028733116,0.2298232,0.09743034,0.16075547,-0.7864737,0.14542782,0.08455218,0.0068288352,0.16113554,-1.9174508,0.6000633,0.1093578,0.5066898,-0.009890289,0.4931904,0.44130805,0.15625353,0.006755402,0.1414392,0.33472586,-0.35586733,-0.02708929,0.30918068,-0.0002535052,0.35579154,0.6192,-0.09146309,0.18180339,0.817532,-0.0019067418,0.2801935,0.041574415,-0.002349479,0.10015185,0.79515827,0.23724009,0.08446802,-0.6086875,0.0235502,0.0101314485,0.02698405,-0.027788946,0.27492097,-0.017900849,0.6515729,0.049876027,-0.031986773,-0.035473567,0.014639011,-0.034707747,0.0880711,0.27346504,-0.04293038,-0.0186925,0.72034955,0.08159094,0.21175423,0.39871302,0.15768407,-0.02501556,0.026588818,0.0045064758,0.8200052,-0.05533951,-0.45469335,0.07166524,0.39672583,-0.015505337,-0.017018208,0.09441323,0.015240866,0.54596186,0.13380834,0.17608602,0.11500241,0.20321672,-0.0480508,0.41946885,0.11388412,0.015599218,0.11576433,0.12262535,0.3164356,0.21248306,0.10039358,0.31893674,0.01720513,0.43643916,-0.35532296,0.5210706,0.058807094,0.22423874,-0.05214088,-0.36388332,-0.49103802,0.5088308,-0.054613363,-0.0061481916,-0.003224741,0.19858572,0.37188554,0.38906848,0.056505747,0.0020502808,-0.0045653647,1.4593263,-0.039891344,0.021731403,0.07970742,-0.8487658,0.43485373,0.14420852,0.3006035,0.05525069,-0.7740893,0.023110706,0.462313,0.093089156,0.33188474,0.15468916,0.09910797,0.05416432,-0.16287467,-0.0037086424,0.3231078,0.354033,0.47710827,0.6985404,0.16631569,0.30420446,0.37190002,0.053017892,-2.5520544,0.5411286,0.17090832,0.3468679,0.14106739,0.013832647,-0.06365701,0.007777262,0.24520278,0.52723694,-0.2265448,0.26426202,-1.0936512,0.2894417,0.019181725,0.07006703,0.121793196,-0.001191245,0.25209683,0.14772543,-0.03191881,0.020132685,-0.6054226,0.13816366,0.08210824,0.018606534,0.1352697,-2.1216323,0.0054692104,0.106656685,0.31470978,0.43070072,0.07766695,0.03161984,0.11789518,0.8908427,0.15616949,0.015534925,0.0477289,-0.0043306383,0.1597088,0.12295064,0.2918618,-0.00989201,0.14695792,0.44688126,0.63968885,-0.07435375,0.45206192,-0.036544282,0.49105716,0.086968414,0.21079253,0.390299,0.085499294,0.13808064,-0.06062688,0.528087,0.44963476,0.17873126,0.3993702,-0.29275084,0.24348044,-0.0034613928,0.013149558,0.028409949,0.16200666,0.64368886,0.07147635,-0.047685307,-0.060348,0.3631063,-0.021480884,0.00015168037,-0.04362489,-0.87238824,0.44082096,0.31940758,0.11921658,0.06129538,0.14960808,0.7936151,-0.05483915,0.72491217,-0.6490017,0.34079152,0.008317099,0.19941767,-0.13489543,0.59116054,-0.0015635774,0.24744281,1.2359506,-0.018099718,0.026501713,0.513066,0.08002982,-0.048810314,0.14895159,0.6460691,0.060298733,0.74287844,0.09470464,0.14112963,0.030380968,-0.040837962,0.33214876,0.5650014,-0.13714923,0.12792835,0.023488436,0.04306433,0.002929745,0.3045936,0.03498536,0.3632682,0.2533168,0.1398147
0.0813283,0.2749851,-0.029760435,0.2815295,-0.011171079,0.81605256,0.04131807,0.14223272,-0.63606757,0.1531643,0.09465139,0.18990186,0.10051573,0.011170079,0.20957954,0.27174234,0.655549,0.4197409,0.45245087,0.0486937,-2.337911,0.4431857,0.17183712,-0.01872179,0.09909742,0.38308367,-0.84460014,-0.0015285799,0.21081069,0.012372853,0.2760984,0.6347577,0.022278344,0.1901199,0.8644117,-0.07481397,0.26692352,0.024928086,-0.05259015,-0.7908713,0.81966656,0.19822478,0.069143996,-0.053500492,-0.026972096,-0.040746793,0.078181766,0.014777891,-0.0717765,-0.026915407,0.6466372,0.17061834,-0.026330458,-0.015066684,0.028941326,0.008995561,-0.79165375,0.27212703,-0.02550483,0.010935281,0.1756133,0.12949784,0.18184613,0.44685492,0.17295665,0.012095934,-0.039615497,-0.08199881,0.650929,0.057901844,0.36500248,0.061539646,0.48646888,-0.010869914,0.01707943,0.085931495,0.45803332,0.56022096,0.13971493,0.17907067,0.063589595,0.2884937,0.0065456405,0.43553832,0.1871484,-0.0006902689,0.11954572,0.09318773,0.3048345,0.20077018,0.10138102,0.30834267,-0.030342827,0.4117787,0.6932726,1.7597518,0.012116596,0.26517,0.016052224,0.21054548,0.4904113,0.5796913,0.016227983,0.030639594,0.019444924,0.16899854,0.3756649,0.38499504,0.009167144,-0.0044495044,0.14467064,-1.6984947,-0.013994063,-0.01718177,0.08934922,-0.037127364,0.42651188,0.26166153,0.34789512,0.09753307,0.10331256,0.41853768,0.504303,0.109476455,0.3293411,0.16018444,0.116665676,0.08304053,-0.15011281,0.003023361,0.32952467,0.36073175,0.46463743,0.6916697,0.15528125,0.31809834,0.47972956,-0.017882518,0.68766373,0.59729093,0.17060623,0.21298079,0.15788059,-0.023731286,-0.00968557,0.043315124,0.2703709,0.57524735,-0.06855533,0.26663128,-2.607339,0.2974812,0.005518808,0.10386297,0.012646255,0.03478692,-0.19734988,0.24382877,-0.032189317,-0.021866001,0.117805265,-0.19657838,0.09584557,-0.0265685,0.13102573,0.44132203,0.033530694,0.11132366,0.31618014,0.5044756,0.10338415,0.055538177,0.0035937433,0.6546672,0.17701323,0.07492037,0.014275926,0.029732063,0.21304442,0.1272461,0.31719992,0.0037006545,-0.35414767,0.28732258,0.65636176,0.006032127,-0.4848248,0.020897152,0.4553909,0.064935945,0.07664078,0.39563358,0.09464206,0.13694201,0.035483275,0.54803026,0.4155278,0.17266873,0.23582727,0.4613984,0.2315194,0.009217515,-0.026211541,0.045441464,0.15009087,0.6203774,0.07225404,0.0295864,-0.012199187,0.4403839,-0.02408125,0.07300053,-0.018629372,-0.05549346,0.3781056,0.35968006,0.14587034,-0.09505567,0.14707518,0.7649427,-0.047849722,0.7371475,0.15382123,0.4276012,-0.030238707,0.10322222,-0.119183525,0.72336966,0.030415945,0.17578685,1.5022631,0.078628354,-0.06522682,0.64284784,0.07973891,-0.04430739,0.16006175,0.66704106,0.029751118,0.6955166,0.09739168,0.26200122,-0.009635872,-0.0010682098,0.33393654,0.5898731,0.014141383,-0.12471305,0.012596839,-0.026308944,0.038905006,0.32258704,0.034323614,0.34136078,0.42676347,-0.5344113
0.08519673,0.2797841,-0.039533265,0.27929583,0.03693374,0.47635362,-0.002558707,0.13253859,-0.76579255,0.14946681,0.10224415,0.19796668,0.10351415,-0.03190332,0.2030525,0.27799025,0.5687939,0.4584988,0.4450069,0.053753693,0.48730618,0.4460153,0.19238132,-0.022618733,0.004188003,0.38123676,0.2521746,-0.015895491,0.19580816,0.006403275,0.3700872,0.5974996,0.02837801,0.21430756,0.75985754,-0.017661542,0.2251587,0.005691487,0.019464267,-0.114323154,0.8038255,0.25061846,0.08292081,0.07227655,0.0019507908,-0.03981992,0.0871436,-0.01843799,0.15396397,0.011616246,0.6421471,0.1819194,-0.0298609,-0.0062511233,0.029239569,0.0419273,-0.6512581,0.27388105,-0.058102954,0.012886453,0.15822081,0.13430706,0.17673856,0.49139127,0.17561175,0.050038897,0.040904537,0.029757325,0.8720495,0.01976939,0.4321373,0.0635212,0.47149867,-0.014379173,-0.039659653,0.087206416,0.41069612,0.5012433,0.14036457,0.18482082,0.059902284,0.29199386,0.031996764,0.43590292,0.19087182,-0.019038826,0.12114902,0.11784931,0.3063626,0.2001799,0.10304533,0.29867485,-0.04982754,0.40731332,0.6875143,2.1496997,-0.028946316,0.2835792,-0.007026546,0.21687901,0.3302746,0.60974115,-0.008719365,0.015177678,0.024827681,0.18748827,0.20962775,0.27643526,0.011627608,0.047672752,0.15675962,0.14506403,-0.017593699,-0.031996228,0.09039956,-0.011754951,0.4283278,0.25047112,0.3361079,0.09570909,0.10359374,0.40147313,0.49509713,0.10808286,0.31288207,0.16020061,0.12785146,0.087423764,0.04710678,-0.008054294,-0.6483971,0.35148594,0.46063644,-0.36489302,0.1693764,0.20071816,0.43154097,-0.027224243,0.7072552,0.12104345,-0.4179546,0.4081607,0.15817004,0.00010275173,-0.071246155,0.081088044,0.28021812,0.59093016,-0.055040922,0.2624143,0.8111195,0.3038518,-0.035384215,0.11518453,0.027448915,0.049858134,-0.13576537,0.24113987,0.040672734,0.007034278,0.12889847,-0.097247794,0.09435168,-0.037814446,0.13657199,0.4435928,-0.06569121,0.11467917,0.31540436,0.56351286,0.09872493,0.05805756,-0.02878084,0.9992916,0.17831114,0.08538374,-0.017937517,-0.027521571,-0.07451848,0.12849337,0.31969494,0.07806212,0.16022977,0.47458884,0.63963985,0.018915195,0.43521655,0.03160579,0.4791169,0.06357439,0.065310046,0.41550854,0.094067365,0.01712934,-0.0104616685,0.49018526,0.45856595,0.17649692,0.39621794,0.47098625,0.2055419,0.030289909,-0.003760146,-0.058396924,0.14827883,0.6249639,0.072576776,0.07322842,0.039768647,0.42253828,0.017033316,0.07363058,0.010742897,-0.041210987,0.36666203,0.3687103,-0.20435621,-0.025591506,0.14711711,0.78458625,0.0151371425,0.7350029,0.14632489,0.29006076,0.035827015,0.11090019,-0.1166494,0.7344197,-0.00075560494,0.3021886,1.6531008,-0.058203474,-0.00016280232,0.65592563,-1.1266723,-0.0143716885,0.15739828,0.5938587,0.02684567,0.6956574,-1.333147,0.2594761,0.018323427,-0.07771543,0.33377793,0.5904828,0.031414498,-0.015456986,0.028439933,-0.015799455,0.049676314,0.31982064,0.03121611,0.3696539,0.42424384,-0.34164625
0.085595734,0.2777503,-0.045949545,0.2829645,0.048600808,0.5739443,0.052118495,0.10734093,-0.028990261,0.15656531,0.08716001,0.19591615,0.10224449,0.016549816,0.19563341,0.27053285,0.62610066,0.49472135,0.43318328,0.07786565,0.44899914,0.44919208,0.18264607,0.043244448,0.11299392,0.40007684,0.2682349,-0.004847809,0.18145278,-0.044895746,0.40333265,0.6197113,0.038442113,0.1904058,0.76607776,0.027146395,0.22748114,-0.031030843,0.031914636,-0.066323906,0.8055651,0.22689134,0.09048962,0.09185523,0.032359216,0.041302085,0.095185556,0.023042234,0.2656269,-0.011712446,0.6472728,0.1710161,-0.036299095,0.05844904,0.0491038,0.036321286,-0.18186392,0.26401296,-0.014116552,-0.03889749,0.6512898,0.14583652,0.18472902,-0.5328969,0.18124042,0.006536195,-0.01377054,-0.038744736,0.84223515,0.015489322,0.32013616,0.06932908,0.46912357,-0.021916151,-0.026746172,0.08862013,0.480249,0.5805983,-0.03588853,0.1031932,0.032097068,0.29863402,0.037080668,0.48264694,0.19931552,0.044285342,0.12204232,0.12843242,0.30972305,0.18816033,0.10552585,-0.13800888,-0.038375113,0.39833787,0.6966165,2.1208577,0.04163795,0.30267936,0.0009801616,0.2065146,0.46046525,0.35779703,0.044552576,-0.02610211,0.0662653,0.20056851,-0.14896287,0.22981508,0.074720256,0.009714203,0.16282073,1.3618896,-0.03276069,-0.055549886,-1.3168588,0.0016044368,0.01691731,0.23936124,0.2868416,0.08874155,0.09810634,0.21851756,0.51580787,0.0853332,0.3279272,0.1634461,0.13388485,0.09329274,0.038686782,0.034393597,-0.36389923,-0.3794218,0.46989074,0.62358034,0.17424908,0.30823305,0.44687837,-0.0042681405,0.7165661,0.53899264,-0.3382971,0.3578612,0.17534599,-0.019283092,0.042092726,-0.025153654,0.24050151,0.35317254,-0.027453711,0.25975573,0.85159147,0.16359314,-0.048161343,0.11871311,0.04468604,0.0055880044,-0.2956904,0.23486555,0.044889674,-0.041346986,0.11095885,-0.018600987,0.097004294,-0.050259694,0.13389361,0.43299562,0.027560132,0.11415772,0.397915,0.5349468,0.10384323,0.058775928,-0.003427303,0.9830687,0.15272212,0.08980548,0.01663655,-0.08279969,0.004437188,0.12624334,0.32533023,-0.018631546,-0.33663252,0.4729097,-4.1918325,-0.04030037,0.42869306,0.03870265,0.5014555,0.0746205,0.041513268,0.4287358,0.095123194,0.19370817,-0.032801446,0.536702,0.4153259,0.18201433,0.4014211,0.49573553,0.23271495,-0.04236739,0.03600202,-0.008054724,0.16907582,0.6235828,0.071934685,0.017135818,-0.01978635,0.41354525,-0.0101236245,0.0073306384,-0.051610414,-0.03261488,0.36460856,0.37819895,-0.21446982,0.033907887,0.15117258,-0.9352241,-0.009280135,0.736603,0.16855465,-0.27376613,-0.04981961,0.12381982,-0.10827168,0.72159725,0.031191202,0.28822818,1.5689919,-0.0037212584,-0.03409974,0.6651705,-0.5195704,-0.036545314,0.16249855,0.64929634,0.014352279,0.70787495,-0.7076522,0.26147163,0.019455161,0.04531662,0.33493537,0.5956119,0.030081352,-0.023012858,-0.012422399,0.05123126,0.059123505,0.31683707,0.024254669,0.34940624,-0.42951456,-0.41444266
-0.018974775,0.28001797,-0.039909117,0.28714338,-0.009797169,0.8125536,0.022182763,0.086546026,0.08679512,0.10173041,0.10445373,0.19315141,0.104303986,0.012256898,0.19011378,0.27345762,0.585125,0.29247048,0.50497615,0.13287623,0.46416524,0.15256323,0.19457082,0.0023486794,0.22720489,0.42736122,0.23413293,0.007076006,0.16901119,0.03297093,0.39731702,0.62843424,0.043010395,0.21185209,0.80749863,0.08796841,0.22789492,0.07640437,0.008307174,-0.054043207,0.8039072,0.2083367,0.097898334,0.088426135,-0.056081496,-0.0017474564,0.09975995,0.012306065,0.23951997,-0.01525281,0.6693798,0.17638983,-0.03661599,0.038211945,0.03153866,-0.01899604,-0.16407804,0.26676905,0.0089874,-0.04200203,0.7274167,0.14607602,0.18196848,-0.104917176,0.17850478,0.004671611,-0.027350202,-0.026328076,0.84549135,-0.0013749296,0.49309993,0.062363457,0.4596196,0.038465913,0.05238158,0.08739317,0.38139525,0.57061887,-0.81665003,0.18108448,0.032001756,0.28523582,-0.068026856,0.48423314,0.18555272,0.06149594,-0.77083117,0.16532962,0.31812483,0.18535031,0.10456874,0.027336745,-0.021505386,0.4102169,0.6861217,2.1311882,-0.002038379,0.29566178,-0.008313293,0.13065776,0.42634156,0.39101878,-0.0409224,0.00019436612,0.09433708,0.23369981,0.1189338,0.3040104,0.057485767,-0.044871666,0.19620785,1.4418894,0.04939316,-0.062124677,-0.586569,0.0059302733,0.3398828,0.26284447,0.30795246,-0.22645819,0.10041206,0.2933927,0.4940207,0.0833892,0.2637783,0.15828702,0.13491085,0.09759091,0.042201042,0.0399536,0.28978342,0.35938013,0.47419766,0.65538234,0.1874041,0.31999293,0.39848602,-0.003076412,0.71613765,-1.0706024,-0.46878028,-2.7395165,0.16332583,-0.001565505,-0.020412112,-0.000541251,0.27471423,0.34679636,-0.023291754,0.087681554,0.7614451,0.13764744,0.07282247,0.1099773,-0.055294763,0.012661595,0.22917229,0.21850383,0.045696873,0.037896287,0.12235595,0.038161993,0.09994588,0.01866953,0.1318677,0.41997397,0.04716963,0.11960643,0.34786874,0.52525926,0.10044121,0.06252251,-0.029654564,0.96810335,0.076651506,0.096965164,-0.068394534,-0.032676533,0.16713738,0.12844409,0.31773558,0.049613588,-0.7382302,0.47828868,-1.4011467,0.03787019,0.40291533,0.04290988,0.5189205,0.07551746,0.03754379,0.43888026,0.09527269,0.1712353,0.011185093,0.51982576,0.3637559,0.176455,0.4076449,0.5157098,-1.7108542,-0.016201558,0.02079222,0.05238805,0.16940808,0.6303007,0.07046107,-0.034051124,0.04570344,0.45394135,0.007296986,0.032310072,-0.0600168,-0.023589496,0.36920547,0.3889428,-0.059276164,-0.008875509,0.15210097,0.78949845,-0.02504012,0.7300409,0.10594819,0.38720882,0.0032518383,0.12120527,-0.10215788,0.72840333,-0.021596981,-0.0007644683,2.1045184,-0.01724943,-0.006450152,0.66217935,-0.4419071,-0.0130306,0.16303681,0.5419908,-0.021149924,0.70542103,-0.029139923,0.22950402,-0.047225755,-0.0020672858,0.3800895,0.59136397,0.037306927,-0.020246776,-0.0020249926,0.014173413,0.06397383,0.31911743,0.024470018,0.34269965,-0.47892803,-0.17592476
-1.0297529,-0.25873896,-0.037273433,0.2841629,0.03908596,0.8130053,0.029723955,0.25400227,0.08431861,-0.20459911,0.10874456,0.1982152,0.10563816,0.05367251,0.17306586,0.27209708,0.57674557,0.49925905,0.5045618,0.14377914,0.45577845,0.37806615,0.19654018,-0.0053700353,0.21362637,0.43292877,0.23284878,0.02447556,0.15311472,-0.055073388,0.38267964,0.62275875,0.0474885,0.2010734,0.79795086,0.08295222,0.2172794,0.024937008,0.09519452,-0.061025936,0.8076298,0.383555,0.10380441,0.13762666,0.013260574,-0.01671914,0.10389684,0.04789673,0.23735759,0.019229459,0.66311216,0.17926615,-0.037773468,-0.00036839666,0.045100145,-0.042459264,-0.17477119,-0.264264,-0.07074299,0.043955564,0.74126077,0.13975255,0.17954348,0.4940329,0.18350312,-0.034211133,-0.0017805307,-0.042921312,0.6141277,0.0042262864,0.3942997,0.0685362,0.44359657,-0.040086668,0.011043854,0.089239284,0.46237183,0.5689175,-0.5907806,0.02552139,0.044329517,0.28035277,0.0811318,0.5126034,0.19263484,0.013732696,-1.090917,0.18525034,0.322235,0.18459737,0.10525081,0.04771236,0.022702562,-0.4271086,0.6832429,2.1119542,0.046874125,0.3129518,-0.075832754,0.11311653,0.44542992,0.43228516,-0.03450152,0.044600487,0.03923659,0.22072385,0.3497504,0.33883336,0.0047769863,0.03915446,0.21301371,1.4418402,0.021815803,0.10380528,-0.4535766,0.01739536,0.42245048,0.26037452,0.18534882,0.07790505,0.092846565,0.17812742,0.4929947,0.09863171,0.33328778,0.15960446,0.1314801,0.09959098,0.036030073,-0.06779367,0.31372333,0.36324406,0.4669177,0.65319246,0.18947428,0.3220739,0.44333896,0.0058596656,0.7167285,0.2833911,-0.20621169,0.053319823,0.17100717,-0.019595891,-0.013286362,-0.040772904,0.26966918,0.3521334,-0.01725613,-0.23535107,0.7688966,0.15732262,-0.00024392467,0.11168283,-0.019212466,0.009765141,0.21536966,0.21598156,-0.027070502,-0.0016638689,0.122453816,0.07142753,0.10120329,-0.022898333,0.13396396,0.44527686,0.01564425,0.11359074,-0.1442971,0.5225242,0.09994837,0.067459464,-0.0682054,0.9641586,-0.011417452,0.10138846,-0.017122447,-0.014765805,0.20895666,0.12685719,0.31965673,-0.014142839,0.17166671,0.50419307,0.16853479,0.002506483,0.39716175,0.048477046,0.5676688,0.07798631,0.04975413,0.4315117,-1.0668597,0.16762523,-0.0031680204,0.5323683,0.45850384,-0.24241023,0.3359825,0.508493,-1.73174,-0.013008898,0.03410576,0.023586428,0.16553429,0.6353713,0.06825303,0.02008811,0.016644964,0.5044612,0.036160175,-0.043470137,0.023929546,-0.024784973,0.3733204,0.37807307,-0.010477145,0.02472073,0.154888,0.7833389,0.03763218,0.7239524,0.17344351,0.4289648,0.0151896,0.11731121,-0.10181927,0.73571867,-0.022989087,-1.0063956,1.6863654,-0.059867676,-0.018708635,0.6560155,-0.04496781,0.007438141,0.15989791,0.68396086,0.04873038,0.70782626,-0.0017225206,0.22604257,-0.070923455,0.02803305,0.332844,0.5718943,0.04359349,0.062831044,0.023994055,0.010316991,0.06638252,0.257033,0.029471038,0.3567613,0.30270693,-0.15457907
-0.21210152,0.2128281,-0.022383438,0.23444413,0.05653348,0.6607305,-0.011261633,0.11874212,0.029154155,0.08961264,0.10230525,0.20307198,-0.9309564,0.037321277,0.10484334,0.26918307,0.62388134,0.45828143,0.5037716,0.12538448,0.47314012,0.36761937,0.15213339,-0.03494823,0.1909906,0.38420123,0.21946652,-0.03577518,0.20289584,0.02893998,0.3806119,-2.0419955,0.07385864,0.20046183,0.80902827,0.03021886,0.22887559,0.054721966,0.0019029984,-0.0080788275,0.37464947,0.25727335,0.081844464,0.121410765,-0.04014131,0.04365205,-0.19548143,-0.017672636,0.19310048,-0.057306923,0.67195565,0.1769981,-0.0025372955,-0.030983994,0.050634697,0.028956447,-0.010499808,0.12888755,0.013176566,0.040207166,0.73650473,0.15369055,0.180657,0.4919044,0.17714898,0.0014228526,0.050068606,-0.070360415,0.82717544,-0.019796666,0.5122442,0.1720685,0.49373305,0.06581476,-0.021893308,-0.27086967,0.4255693,0.5631431,0.092167094,0.061546046,0.09094572,0.330898,0.04259038,0.47771186,0.14575385,-0.033017322,0.10275864,0.20742247,0.32426748,0.19129102,0.110324495,0.23723173,-0.031614393,0.25511685,0.61459434,0.41741768,-0.040985383,0.33664683,0.017861344,0.13626033,0.4622375,0.54570067,0.047338013,-0.0417531,-0.0022088527,0.21755707,0.34565982,0.33472347,-0.0002162987,0.020185009,0.21319798,0.56317735,-0.04273683,-0.052394293,-0.0010635987,0.04069912,0.40287262,0.1501389,0.29303476,0.08062624,0.12042323,0.3871235,0.376554,0.105417415,0.2755052,0.16193405,0.13061802,0.10973373,0.1678243,0.020904109,0.33839244,-1.4176431,0.45934257,0.5335347,0.26572642,0.32190844,0.37926802,-0.055918664,0.72634834,0.56008476,0.049080953,0.37939882,0.16627838,-0.02037619,-0.022951119,-0.04925006,0.25475165,0.5222739,0.02520347,0.31356514,-2.078881,0.19014037,0.070200756,0.018415455,0.038971256,-0.088344626,0.24732086,0.2496974,0.006000565,0.018884981,0.106039174,0.12562312,0.10482379,-0.019994505,-0.2573198,0.44782642,0.061691243,0.11722158,0.28552213,0.5274917,0.103118874,0.079511635,-0.038930044,0.98177665,0.077155545,0.12568474,-0.029714657,-0.001592966,0.33506978,0.12929258,0.13859646,-0.007885845,0.18235074,0.40536556,0.5789801,0.015382078,0.3808619,0.077492304,0.33863315,0.075381204,0.04616497,-0.43242782,-0.0018627446,0.23360686,0.026792113,0.5338245,0.42513004,-0.19598562,0.38852432,0.5559755,-0.024434645,-0.028470825,0.023383146,-0.043272372,0.16376017,0.65328014,-0.93132097,-0.030444264,-0.02863702,0.57195956,-0.022866303,0.042540777,0.020372948,0.020338347,0.25902718,0.377732,0.24041282,0.0024593836,0.15647314,0.76968974,0.08543915,0.6206097,0.17998873,0.2457203,0.051404644,0.121511236,-0.08006721,0.72623026,0.022495659,0.027282868,1.8165644,0.01288064,0.012402923,0.67297137,0.037152063,0.012469898,0.15373445,0.4913728,-0.030323202,0.6963446,0.09397121,0.1608302,-0.010919438,0.009191903,0.36226913,0.4041198,0.06822125,0.069365494,0.005748137,0.005731051,0.062655665,0.14651859,0.027777452,0.43997693,0.24979126,0.06179353
0.053135492,0.23133147,-0.01759315,0.23040925,0.10476669,0.80012435,-0.021141583,0.16239376,0.025578355,0.10616663,0.10075262,0.19993441,-0.6548101,0.11932346,0.13025591,-0.0877643,-0.0555908,0.4566692,0.50973004,0.11318737,-1.5523435,0.42158344,-0.108100355,0.01884722,0.23464745,0.38032028,-0.07184092,0.0020246112,0.20277016,0.026372842,0.37927073,0.61748224,0.07945645,0.19890301,0.8127563,0.0047915243,0.22356182,0.017837614,0.007911354,-0.010122422,0.78439724,0.26690307,0.08061199,0.08548483,0.032261074,-0.002893634,-0.17733888,-0.024055906,0.21847731,-0.037172973,0.6710988,-0.2639207,0.00045851315,0.006586733,0.06591078,0.04075158,-0.006140446,0.18766746,0.030453993,-0.06911431,0.7341492,0.15931667,0.18512368,0.48778498,0.17919755,-0.009476057,-0.06192665,0.05967642,0.80524385,0.01430686,0.5245691,0.17818749,0.38057017,0.021368163,0.05911805,-0.067423694,0.5795785,0.5598014,0.09962056,0.07294962,0.109563716,0.33901387,0.023148125,0.45491773,0.11201849,0.02852784,0.10253869,0.18015245,0.3604268,0.19842638,-0.6210828,0.2841155,0.0014655346,0.24979344,0.6467039,0.2901021,0.056512386,0.3385335,0.011550935,0.14198098,0.50826764,0.53352636,-0.03617132,-0.08124751,0.023138328,0.21408625,0.35153073,0.3460109,0.015732644,-0.04214936,0.21031259,0.4003996,-0.036125053,-0.025907228,-0.0059313336,0.049963564,0.17291719,0.23501213,0.2911642,0.098079614,0.121498294,0.28317654,0.40046892,0.10588505,-0.6948546,0.15827855,0.13159317,0.11367191,0.16435567,-0.06036196,0.3557335,0.3312578,0.45187247,0.67485815,0.2762601,0.31450406,0.4104147,0.024041247,0.7325915,0.53755707,0.05605484,0.38277337,0.16591145,0.046708226,0.014935267,-0.008589128,0.23855741,0.5208866,0.030109053,0.3147795,-2.3177059,0.2748105,0.017337754,-0.0027105021,0.056356493,-0.00034395847,0.23251647,0.2662992,-0.019539947,-0.032505024,0.10085437,0.130827,0.10587664,0.026221266,-0.26223907,0.23416914,0.050050825,0.11793639,0.27439573,0.5162113,0.10304762,0.082715966,-0.015751755,0.93171823,0.08217228,0.12922485,-0.02791557,0.03908494,0.29769054,0.13015918,0.112971805,0.09252227,0.18566053,0.4246913,0.6293733,-0.017215697,0.4357039,0.08392117,0.55869687,0.08409649,0.049559962,0.33374473,0.036445227,0.23735978,0.020425867,0.5311233,0.33530417,0.18955201,0.37949702,0.593177,-0.12519613,0.07097629,0.008228904,0.020097794,0.16595834,0.6326649,-0.4731564,0.034036048,0.0795966,0.566071,-0.0009576715,0.018688425,0.041436017,0.029850978,0.2745394,0.37542832,0.24783221,-0.019009328,0.1546646,0.7765301,-0.024388153,0.5653866,0.18024135,0.42732075,0.040886305,-0.44634068,-0.49067092,0.7238178,-0.012033491,-0.13107078,1.713338,0.040473532,0.017456109,0.67195225,0.030075528,0.043885026,-0.31258568,0.69170356,-0.021533567,0.70757353,0.09939929,0.17190017,-0.037333626,-0.0110321855,0.3687637,0.35842228,0.07136492,0.063997485,0.024732426,0.018973803,0.0635328,0.15254904,-0.8764426,0.4019027,0.2779752,0.09138893
-1.1695459,0.23665604,-0.012250269,0.23049305,0.024398196,0.7946487,-0.014508076,0.2045371,0.027108217,0.098936595,0.09832065,0.20211118,0.09622862,0.009233956,0.10649843,-0.010406037,0.4741909,0.45423746,0.19142383,0.05762841,-0.7021777,0.38111374,-0.2369691,-0.039330874,0.23667146,0.38380328,0.22732121,-0.05839328,0.22124566,0.020906497,0.35447568,0.62211925,0.07478983,-0.043979056,0.06818883,0.036139555,0.22436397,0.09015454,-0.02515262,-0.009463119,0.76376563,0.24513948,0.083488606,0.1227298,0.0026669283,-0.0036569282,-0.1630161,0.044885717,0.17420278,0.08925641,0.6769035,-2.918093,0.007159838,-0.039465155,0.08044561,0.00477371,-0.0043406757,0.17955206,-0.0019672874,-0.051315054,0.73693806,0.16374527,0.18458334,0.45148602,0.18178818,-0.045263715,-0.0016440974,-0.04756396,0.796943,-0.0068977536,0.5309918,0.18204927,0.44154352,-0.04150915,0.034187816,0.044916503,0.6313507,0.52591383,0.09899912,0.16499218,0.116613746,0.35239622,0.03490362,0.41832942,0.093980104,-0.033669975,0.10480178,0.16087514,0.35545224,0.20046502,-0.092968754,0.28335875,-0.054542016,0.3632917,0.6548807,0.9128741,0.050665755,0.3414583,-0.02559343,0.13626263,0.3937271,0.5396496,-0.0017146791,-0.052304722,-0.04339638,0.22749366,0.35126755,0.36669403,0.16620481,0.12284032,0.20674409,1.3477175,-0.018141385,0.01862536,0.0007495773,0.04736391,-0.73426425,0.2812597,0.28700075,0.097112,0.11594316,0.27998438,0.41028354,0.10634855,-3.6731522,0.15876886,0.13299029,-1.2271436,0.16598795,-0.054306313,0.3615765,-3.6765451,0.47809938,0.66355145,0.28649345,-0.37804705,0.40616408,-0.025345068,0.7068172,0.5251652,0.058265097,0.3762071,0.16966766,0.007152086,-0.054599576,0.050547786,0.23978435,0.5252214,0.034442853,0.31460038,-2.0589244,0.25252593,-0.010817298,-0.026096186,0.05104495,-0.01182504,0.23569283,0.253369,-0.03103635,-0.011399873,0.1118614,0.13674764,0.10368504,0.028630389,-0.6835843,0.43894044,-0.044860948,0.1145421,0.18704012,0.5146146,0.07100046,0.08755711,-0.06543116,0.95816594,0.08549006,0.13274597,-0.010112097,0.08568021,0.07002789,-0.4478218,0.098548464,-0.034592547,0.20430627,0.45010456,0.6770638,-0.051534563,0.45214915,0.0881153,0.5531877,0.08843359,0.04521066,0.3418262,0.037757844,0.23746854,-0.019917333,-0.14139739,0.19883017,0.18365073,0.38769978,-3.481027,-0.63342166,0.07677187,-0.01033702,-0.015693903,0.16810787,0.6444788,-0.18700956,-0.031495906,-0.0097785015,0.5591007,0.010809232,0.0038916836,-0.052560434,0.033055644,0.27442542,0.3762696,0.24196202,-0.026973417,0.15861705,0.78038424,-0.03581772,0.57818145,0.17527397,0.43892834,0.010594682,0.109602585,-0.17259768,0.7305822,-0.031012654,-0.40661502,1.7010288,0.061488476,0.056407884,0.5198959,0.032111064,0.015883837,-0.28655133,0.6715218,-0.0019182925,0.5782018,0.10350315,0.19576621,-0.024821023,0.026106091,0.17367321,0.3747138,0.075471826,0.08531406,-0.009202353,0.0010103498,0.06691897,0.14232987,-0.76427966,0.32665744,0.39146245,0.09827988
-0.16459227,0.2807814,-0.011170231,0.22967955,-0.011511772,0.75225526,-0.024278726,0.2318543,0.029133134,0.103168264,0.09696191,0.19772132,0.08756244,-0.0016609423,0.13525783,0.2120642,0.50598454,0.4582814,0.46977195,0.059934974,0.52202374,0.40080678,-0.05532389,-0.010604561,0.21499525,0.39073858,0.21927235,0.036073845,0.23222598,-0.017111665,0.38271135,0.14275968,0.08643751,-0.28206995,0.816162,-0.016363347,0.22657602,-0.019647617,-0.012459217,-0.013018321,-0.38963452,0.25383925,0.084010564,0.12953864,-0.045028523,-0.038192317,-0.14828388,0.037300564,0.196455,-0.034600817,-0.35816044,0.17551382,0.0044261846,-0.0027692441,0.08702741,0.017632782,-0.0005728853,0.17898116,0.03698017,-0.06845557,0.7315795,0.16863678,0.18267372,0.46606436,-0.31662107,-0.020941295,-0.018407505,0.060789358,0.6336825,-0.044088826,0.5112062,0.18548416,0.45503104,0.057910807,-0.06985681,0.054524366,-0.4757929,-3.477243,0.07017997,0.22453205,0.12557447,0.3488383,0.026865752,0.30966362,0.10861153,-0.0075707273,0.105441704,0.1618605,0.35670128,0.19634846,0.16481975,0.1638182,0.030448979,0.36542124,0.65263534,2.5471506,0.0447501,0.34065574,0.07149299,0.18186487,0.5124767,0.06371117,-0.06448138,-0.032697547,-0.018616667,0.21235557,0.35143375,0.36835563,-0.03719689,0.0817423,0.20908004,1.3007933,-0.024891164,-0.0059751244,-0.004800411,0.036008134,0.4166809,0.27256265,0.2977162,0.086831585,0.13563396,-0.008539377,0.4105643,0.107920915,0.31066674,0.16146763,0.12880959,-0.32611278,0.16529153,-0.04244496,0.36806893,0.3782355,0.47031248,0.6983253,0.26657683,0.261324,0.39990902,-0.019184148,0.7230718,0.5474945,0.061378382,0.3867211,0.16579954,0.045447964,0.032726154,0.10594815,0.24122356,0.52629757,0.039722133,0.31681943,-1.9681771,0.30766517,0.02520721,-0.06390059,-0.05160335,0.018288316,0.24627657,0.146749,-0.05053095,-0.0113507565,0.11058608,0.13293643,-0.79695266,0.040703133,0.11546007,0.4730062,-0.050564572,0.11643884,0.34027043,0.5217997,-0.23823726,0.08763945,-0.06699403,-2.3536775,0.08433315,0.13426699,0.0022232612,0.015753433,0.07737302,-0.62588114,0.08896459,0.043267485,0.15655749,0.44846836,0.68951017,-0.034532093,0.38036948,0.09258652,0.5763748,0.08848259,0.051525857,0.3470243,0.04694498,0.23364268,-0.058236744,0.31116977,-0.013475215,0.19209984,0.3886164,0.5950892,-0.19478016,0.019048635,-0.007209461,-0.0078022904,0.16742311,0.6384743,-0.08290721,0.008633882,0.04723265,0.18399145,-0.005855541,-0.04517322,-0.006017635,0.040185023,0.2813066,0.38334528,0.22746639,-0.012415017,0.15865074,0.79164344,0.03408989,0.58490413,0.1839948,0.42559338,0.06368735,0.14212678,-0.10565685,0.724229,-0.063996024,-0.5086849,1.7161732,-0.019693892,-0.00085704686,0.66257,0.024333002,0.037006482,-0.5273796,0.68355143,-0.056330383,0.63774043,0.105019145,0.1951733,-0.0092681,0.022744246,-1.2424028,0.5648179,0.05763426,0.061693236,-0.01753021,-0.05007818,0.067919984,0.17362617,-0.23379315,0.28786096,0.3856604,0.1253895
-0.32164538,0.26647446,-0.0067606843,0.22963059,-0.00323774,0.74540234,0.00890692,0.25442934,0.046555057,0.08129803,0.09205295,0.18951517,0.08791237,0.004993034,0.19767986,0.25006613,0.5336726,0.4664858,0.47104537,0.06910644,0.5378543,0.40045282,-0.03572599,0.025310474,0.21653709,0.38864774,0.23984137,-0.017170852,0.22777869,0.035940077,0.3454319,0.5798308,0.08021652,-0.35044974,-1.9355865,-0.006741768,0.23370886,0.0038430328,0.008773671,-0.0074575967,0.73466444,0.18773708,0.08504142,0.13161968,-0.013048196,0.03237011,-0.16171783,-0.016686503,0.2009726,0.027167775,0.6433111,-2.1889238,0.010142261,-0.016711727,0.09762538,0.018485727,0.013720077,0.19560876,-0.00036108482,-0.013794024,0.72914433,0.16856961,-0.43354568,0.47112164,-0.20633386,0.011930414,-0.012714699,0.022721136,0.8238567,-0.005106511,0.4833476,0.19065006,0.46319777,0.00972867,-0.0067791454,0.073114626,-0.5548293,-1.8480566,0.086428136,0.20083296,0.12199689,0.3546391,0.038792685,0.3019953,0.17355943,0.04164367,0.10812164,0.1767103,0.23617575,0.15138836,0.04528175,0.19243962,0.043219883,0.4384345,0.6548258,2.7191708,0.03600326,0.34673554,0.012455624,0.21788709,0.50404704,0.10155699,-0.020405,-0.003214853,-0.008000732,0.21301565,0.105625704,0.36919796,0.021316066,-0.06644577,0.20523213,1.4247048,-0.004533271,0.0028488257,0.014293705,0.038988523,-3.7762384,0.27184913,0.29809943,0.08587536,0.13495922,0.28451055,0.4093633,0.10442658,0.31901625,-0.71036404,0.1316741,-0.198017,0.16572323,0.036390606,0.34987092,0.2564836,0.46201882,0.50521255,0.2514326,0.32480493,0.40506762,0.020462412,0.7052847,0.5556611,0.05830122,0.2681217,0.1675468,0.014740684,0.030711548,0.07816396,0.25323898,-1.4114281,0.043436952,0.31799856,-1.3696752,0.25247246,0.031578653,-0.09564418,-0.013162253,0.007810548,0.2430579,0.089668386,-0.022480162,0.036775663,0.111434855,0.13943379,-0.8939926,-0.037607946,0.13010429,0.43907204,0.0034677153,-0.78675056,0.3417666,0.5368879,-0.23088574,0.09072113,0.01078946,0.99959856,0.08457546,0.13628243,-0.0625746,0.050415948,0.12335632,-0.59498996,0.074688934,0.063381165,0.20795324,0.46533743,0.67914,-0.009759639,0.35207364,0.093370855,0.56226087,0.09199348,0.023973959,0.34770852,0.05739015,0.23173365,-0.0074254638,0.5143341,0.36247095,0.17477329,-0.076506406,0.5959122,0.21547069,0.016775856,0.022693517,-0.06061725,0.17061158,0.642982,-0.02554868,0.0052544978,0.012777615,0.49323228,-0.026477946,-0.04542627,0.056343123,0.049204227,0.29192716,0.36607128,0.24614316,0.0019785652,0.15899175,0.77953243,0.022950102,0.7296248,0.1861946,0.42689314,0.095408164,0.028582964,-0.17040424,0.7295192,-0.01671218,0.11419277,-2.1051748,0.031197032,-0.022265406,0.63694465,0.024690228,-0.017438825,-0.33097863,0.68238884,0.0202136,0.5849434,0.10675409,-0.029085629,0.0039499034,0.025723262,0.30890286,0.5634622,0.08413102,0.060099438,0.015796943,-0.029461775,0.068217844,0.20325384,-0.027982222,0.30959538,0.38580388,0.12852804
