0.19749625
0.051681146
-0.100382
0.114668556
-0.00076301664
-0.17419082
0.13594404
-0.17227729
0.12779841
0.043514326
-0.23530155
0.07804502
-0.062064853
0.13352264
0.10988325
-0.15019898
0.23066267
-0.49794698
-0.13224165
-0.29387492
0.23263665
0.012043993
-0.028859166
0.2337462
0.12850675
0.24041297
-0.09704809
0.011052075
0.15478283
0.1527628
0.012187522
0.06605775
-0.039027903
-0.19871388
-0.12883331
0.21949306
0.16034089
0.16526942
-0.067696504
-0.21895403
-0.042031884
-0.28524077
0.26213238
0.2425567
0.17407463
-0.25715205
0.32108122
-0.20316291
-0.07370122
0.15336846
-0.22958092
0.23296148
0.24430834
-0.07575508
-0.29839656
-0.19626914
0.15679868
0.08709136
0.033963077
-0.2161109
-0.10026069
-0.16981927
0.054042283
-0.07280646
0.15821892
0.15639758
-0.29214975
0.12434685
0.27732265
0.19776638
0.22171724
-0.24538285
0.12901728
-0.21513596
-0.18193765
-0.048812393
-0.027917517
0.29828984
0.14944498
0.007996814
0.2158402
-0.21398214
-0.18841213
0.22936295
0.12877357
0.057320934
0.27728748
-0.35028246
0.13930562
-0.16464311
0.20871928
-0.18976112
-0.12362977
-0.18482949
-0.36646342
0.15296532
-0.09950456
0.10978079
-0.07152362
0.2850122
0.10487977
0.00067332905
-0.049826212
-0.43162918
0.20920414
0.016562402
-0.16993853
-0.16464943
0.1740231
0.28306618
0.0034032604
-0.024914125
-0.16951028
-0.24306084
-0.044763565
0.12866598
-0.24767402
-0.04654039
-0.1723336
0.21299067
0.13824344
-0.020308888
0.24701837
-0.20637254
0.13215354
-0.19671373
-0.1532777
0.31864065
-0.19863723
-0.102468476
0.24368225
-0.15395102
0.06740985
0.23194458
0.18774809
0.10807301
-0.088268526
-0.12925625
-0.17413789
-0.09318591
-0.28702623
-0.17563011
0.10129019
-0.17662504
-0.11707125
-0.20720433
-0.19327053
0.06183591
0.09638296
-0.080372006
0.20213822
0.056478832
0.025508584
0.22115685
0.13310413
-0.20683222
-0.17201164
-0.16659418
0.31507033
-0.110882655
0.024580438
-0.2122518
-0.21138693
-0.26650378
-0.061781686
-0.08368216
0.31208292
-0.14665824
-0.07810305
-0.017499322
-0.07557126
0.13829717
-0.12596184
-0.10625438
0.24529198
0.005671848
0.1419665
-0.2489186
-0.26637936
-0.16366173
-0.15702845
0.023077356
-0.10785667
0.058099642
-0.24362287
0.009455032
-0.12971584
-0.18768077
0.12837861
0.016100181
0.14695083
-0.22816466
-0.0055068503
0.054802317
-0.03973413
0.1448141
0.1822904
-0.060094226
0.2965057
-0.11845871
-0.31939727
0.23392554
-0.2922004
0.25229794
0.04314734
0.14469565
-0.18446253
-0.29099092
-0.2031928
0.36626938
-0.30874592
0.15480849
0.11609461
0.13037191
-0.09612898
-0.14300056
0.10167001
-0.1571912
0.1622805
-0.13780418
0.076629445
-0.24815007
-0.30961716
0.07387925
0.022464747
0.16026066
-0.16326436
0.29586792
0.24008827
-0.1981461
-0.24829231
0.25114948
0.3393633
0.03301899
-0.27651694
-0.20257688
0.15293564
0.21445672
-0.2482659
-0.12924986
0.09243454
0.22954352
-0.11984418
0.23991406
-0.0037360874
-0.0032701972
0.22424185
0.13104515
-0.1531674
-0.14458284
0.15580769
-0.052187562
0.11227282
-0.28476316
-0.25522622
-0.29069713
