-0.009739395,0.089519955,0.31055534,-0.2227358,-0.11625048,0.0927444,-0.6140603,0.3121344,0.14119297,0.3442353,-0.2147154,0.7681199,-0.42249286,-0.24499474,0.06920044,0.60125136,-0.3095292,0.16251528,-0.073600195,0.42571342,-0.6093733,0.02751652,-0.2677801,-0.39460486,-0.11070876,-0.45675972,0.25203833,-0.64028484,-0.061444577,-0.25720072,-0.56633216,0.019091815,-0.10560502,0.20898235,-0.22226022,-0.022181332,-0.6145911,-0.18302016,0.22315988,-0.4154841,0.41089225,0.9694856,-0.25191635,-0.5938701,0.30180165,0.20824008,-0.48843586,0.5400698,0.25602955,-0.64831704,0.20082618,-0.84104276,-0.2831896,-0.32513407,-0.016359584,0.62304616,-0.40247968,-0.23979607,0.33742923,0.49755755,0.18896538,0.16506636,-0.08048113,-0.20082016,-0.12878564,0.65697205,0.44337127,-0.33982006,-0.1467372,-0.12470298,-0.10873521,0.025975114,-0.6515507,-0.093572065,0.7300576,-0.26939297,-0.40567002,-0.51252306,0.26847434,0.24045262,-0.5794394,-0.5419163,0.3055516,-0.46443343,0.27189115,0.31641763,0.5055871,0.097237326,-0.13380219,0.70682794,-0.867151,0.1889731,0.40140674,0.79732186,0.580207,0.14904822,0.5830872,-0.34280705,0.10300905,-0.22467098,-0.28191376,-0.29568332,0.18555737,0.208477,-0.5811115,-0.50354415,0.16589712,0.44492453,-0.0968873,-1.0619086,-0.48054424,-0.5986953,-0.3706006,0.046309218,-0.73420995,-0.45661312,0.25640506,-0.20636536,0.4680535,0.18832347,-0.2661072,0.5741006,0.18377429,-0.36053976,0.8270964,0.85668015,0.8463146,0.02254802,0.3353551,-0.22712764,-0.36013687,0.09507741,-0.10858794,0.027300695,-0.26113707,-0.16025938,0.050471403,0.21893208,0.05139202,0.6320914,0.593988,-0.8209136,0.45705768,-0.4974219,0.56724006,0.35474616,0.14660946,0.36719978,0.1898913,0.75796825,-0.24278027,-0.2630078,-0.23130572,-0.3231261,-0.9528956,-0.12824525,-0.12908931,0.8191588,-0.660882,0.8716367,0.3449398,0.69686055,0.38431954,0.5330996,-0.0027214375,0.06763743,0.016582346,-0.24813704,0.7319684,0.14710708,-0.13677196,-0.60172117,1.2592618,-0.045913994,-0.18977882,0.02760661,-0.478816,0.49656627,0.3553571,0.33831298,0.31042272,0.017736755,-0.5291051,-1.0075246,1.0305752,1.0497212,0.72031903,-0.038195677,-0.06072104,-0.24940382,-0.73237455,0.46060655,-0.23649098,-0.22194794,-0.6563976,-0.38016996,-0.3017862,0.65401155,-0.84592736,0.6384291,0.561089,-0.24955285,0.03705213,0.13576838,0.08939645,0.18692763,0.15224095,-0.008221531,-0.8742748,-0.6917983,0.42180607,-0.7688788,-0.5519784,-0.20486309,0.3508681,0.37843204,0.035917237,0.6773609,-0.16210264,0.39950746,-0.5093168,0.23850012,0.42203668,0.50997126,0.3565628,-0.10962993,0.38691515,-0.00053326465,0.40463203,0.2030012,0.74359524,-0.9431621,-0.28650942,-0.17166996,0.2190442,-0.83728474,-0.46417105,-1.2604595,0.45284617,0.76555324,-0.3078641,0.030486526,0.09520647,-0.3116158,0.14678827,-0.22513655,0.06676931,0.19329152,0.069616996,-0.5787342,-0.08445112,-0.34356487,-0.25919944,0.41362643,0.8212626,0.35014814
-0.058330834,0.31986538,-0.39626193,1.5588125,0.24308793,-0.07606452,0.9867521,0.63831,-0.70204544,-0.30606094,-0.4260499,-0.0648085,-0.13042106,-0.32981393,0.16797303,0.11958546,0.040469322,0.05812326,0.19109762,0.08183228,0.4142462,1.1501199,0.4210548,0.010156571,-0.0025781991,-0.00902864,0.26575598,0.37020013,-0.41653806,-0.48309225,0.6246966,0.6426942,0.28142294,-0.20856352,-0.14654262,-1.5434754,-0.40132004,-0.51038855,0.0915313,-0.14276488,0.054994132,-0.466208,-0.64566135,0.37037626,0.3546432,0.071370244,-0.17868973,0.030850923,-0.38340056,-0.16841087,0.4466537,-0.074373655,-0.061132878,0.7425813,0.18582422,0.19524741,-0.8976471,-0.6321484,0.5252353,-0.28236544,0.06048165,0.39487964,0.10753911,0.19763142,0.21230283,-0.46596116,-0.26253784,0.060795546,-0.3282677,-0.08881449,-0.29822388,-0.33228534,-0.7918621,0.24135137,0.36854756,0.36533418,-0.35244474,0.042932197,0.305243,-0.071559936,0.0017639062,-0.34122643,0.29157993,-0.21050142,-0.1966226,-0.056245808,0.0850251,0.23177806,0.040087286,0.14894226,0.11015688,0.0677571,0.16506201,0.017290117,-0.12641482,0.1693656,-0.034157686,0.1551498,-0.19380663,-0.04582326,0.68354106,-0.55135924,-0.33583748,-0.90296435,0.0007187136,0.12605605,0.41389135,-0.35506508,0.6383638,-0.63717276,0.4910702,-1.1448001,-0.032364327,-0.15922907,-0.22080939,0.0121571915,-0.44445968,-0.14519584,0.04891705,-0.431707,-0.12295332,-0.48354992,-0.00944562,0.56876993,-0.2540406,-0.027768519,0.53360844,0.8795708,0.3308001,0.36096594,0.12407736,0.09119611,0.10942241,-0.19400649,-0.12376052,-0.039460983,-0.08054586,0.13105278,-0.24190606,0.7802352,-0.05243616,0.97378576,-0.118314244,0.029768888,0.0026097624,-0.5663471,0.25709984,0.780678,-0.1706242,0.42093596,-0.5085014,-0.6512142,-0.19614032,0.59116125,0.020107638,-0.56338084,0.07053355,-0.025293022,-0.1817922,0.27615318,0.7070993,0.05753807,-0.43251395,-1.0319426,-0.19574086,-0.021583749,0.24226461,1.2139853,0.9138983,-0.609179,0.4153422,-0.042460438,-0.015842464,0.24263537,0.35581464,-0.81375295,0.72314405,0.22371505,-0.0005024119,0.06395258,-0.024282593,-0.27687022,-0.97582924,0.1421639,0.4970565,0.006847428,0.43358627,0.3320348,-0.42413795,-0.34733418,-0.46496207,0.14888553,-0.32470182,0.110629596,-0.0608553,-0.2627372,-0.43346524,0.032350007,-0.8391461,0.4428079,0.37600085,-0.38077322,0.06565031,-0.24303712,0.07622452,0.07543689,0.5705425,-0.57449746,0.019411113,-0.09549654,0.50232226,-0.61434776,-0.7546373,0.33940148,1.3912168,-0.0996089,0.119246714,0.7199775,-0.18955158,0.5793294,-0.30706635,0.17508802,0.18804565,-0.11102657,0.09166637,-0.23347314,0.098021135,-0.3045732,-0.51118946,0.13364361,0.070517816,-0.10484127,-0.07594573,0.7888562,0.6055541,0.6388857,-0.28256696,-0.44193023,0.5502929,0.07195925,0.17248113,0.44872144,0.35825738,0.15215462,-0.77492476,0.33756194,-0.077353075,-0.19157584,-0.39414164,-0.122153446,0.24354592,0.06959347,-0.46033117,-0.07823258,-0.15385778,0.1277836
0.30546314,-0.29772332,-0.23551391,-0.1619701,-0.19978407,0.49164292,0.32637286,0.30556774,-0.21238275,0.34840277,-0.15101966,0.30423695,0.39721617,-0.32607254,-0.017634293,-0.1111043,-0.5459559,0.33254147,-0.052942924,0.062388077,-0.23068865,0.08973452,-0.30771968,0.11538469,0.24075137,-0.39523855,0.4418151,-0.012237742,0.40194297,0.31378314,-0.27044854,0.17186967,0.16331108,-0.2844619,-0.18511012,-0.18099932,-0.30230418,-0.060071625,-0.14389148,-0.3274932,0.17256162,-0.27883375,-0.2825342,-0.33051807,0.21111351,0.4351763,-0.6600305,-0.036438238,0.0046703448,-0.10367535,0.35720643,-0.06549158,-0.12536149,-0.58753484,0.004296951,-0.08424578,-0.5700065,-0.54709065,-0.123059094,0.12978865,-0.27149606,0.0037474416,0.020032734,0.15796308,0.40713987,-0.2687353,0.6421558,-0.17606679,0.0024083378,-0.22976235,-0.28076002,0.23616056,-0.81912464,0.1827225,-0.042516783,-0.1463838,-0.005108087,-0.30601078,-0.43332455,0.06952873,-0.56432027,-0.19560528,0.17943706,-0.22770394,0.1932187,0.048952863,-0.19579071,0.48986736,-0.54738396,0.29293397,-0.08262464,-0.103158005,0.30644804,0.010981321,0.50511456,0.23733783,0.013768214,-0.044540368,0.30176538,-0.277342,-0.16826889,-0.20324305,-0.4016298,0.02749578,-0.76359934,-0.31298438,-0.011272767,0.40917617,0.18362029,-0.64319646,-0.22588998,-0.41341585,0.33995843,0.7316798,0.25909337,-0.450072,0.20553863,-0.14321946,0.33300072,-0.20526144,-0.32991135,0.40546775,-0.070404805,0.09771957,-0.10694048,-0.42343047,0.33048898,-0.119826525,0.22118473,0.75570077,-0.5280841,0.0819525,0.28490064,-0.40679285,-0.08409324,-0.03838286,0.430655,0.27936286,0.15305364,-0.19719118,0.54807544,-0.7186797,0.5165808,0.06180889,0.28245944,-0.11097647,0.013808089,0.22771001,-0.08460002,0.10780197,0.074704476,-0.5141107,0.069818564,-0.01443491,-0.98857355,0.15512398,-0.2766867,0.9053563,-0.3225438,-0.15338586,0.207411,0.031627055,-0.026297849,-0.33441436,0.08609192,0.23915468,0.07966038,-0.56853175,0.20595853,-0.024127558,-0.034006167,-0.028203228,0.7509136,0.14436261,-0.3466421,-0.047717717,-0.09161248,0.38442314,-0.0029174364,-0.099480025,0.10200808,0.096667804,0.20651838,-0.152051,0.43140164,0.5357,0.18425249,0.14173625,-0.39809537,-0.75604993,0.001948212,0.3095517,0.10138528,0.38437948,-0.7698368,-0.15770382,-0.10782114,-0.28395084,-0.35989547,0.14927655,0.42804962,-0.24152122,0.1511023,-0.023377629,0.49035612,-0.2591461,0.066903025,0.09330475,-0.52169627,-0.36340648,0.13922533,-0.72315574,-0.5146041,-0.3878085,0.30521354,-0.19727765,0.16708314,0.3336331,-0.30203733,-0.015698014,-0.25391972,0.1977253,0.21863507,0.19338293,0.38955355,-0.11779333,0.38780114,0.08364776,-0.22591469,0.10453321,0.3339035,-0.27558994,-0.544821,-0.31962326,-0.10373143,-0.4846985,-0.26147258,-0.83392787,0.5844129,0.0090853395,-0.45035276,-0.04918836,0.17911431,0.09439272,0.05304538,0.17138243,-0.18353744,0.16578451,-0.31865522,-0.04936179,0.030450068,0.60215694,-0.09810547,0.17929438,0.5918256,-0.1575701
-0.5932337,-0.1989415,-0.26672414,-0.5132293,-0.5817675,0.576002,0.41848275,0.4847502,0.48222515,-0.17962106,0.23873304,0.22926565,-1.0712241,-0.65969515,-0.13319455,0.085771695,0.46793005,0.4080217,0.66496533,0.22223444,-0.33401784,0.082092494,0.26361832,-0.29088384,0.7622784,-0.79800147,-0.5340957,0.6015397,0.22707275,-0.06277318,0.85409,-1.2324855,-0.024812384,0.96090674,0.1953541,-0.03504547,0.37900558,-0.67316604,-0.37815168,0.12936072,0.61992145,0.1456678,0.029123038,-0.48598778,0.59950274,0.5256365,-0.15026999,0.46848142,-0.30166003,-0.36703077,-0.25781584,0.0990903,-0.13556223,-0.43420923,0.512392,0.009719594,1.1093885,0.85129595,-0.35294056,0.5704575,-0.3654325,0.07284098,-0.6125149,1.1169715,-0.4252643,0.9066706,0.25149527,0.14011301,0.11069724,-0.45630231,-0.37919465,0.10184782,-0.71771485,1.0589192,-0.8783645,0.07762906,0.50437343,-0.7472327,-0.5373637,0.43040058,0.79546374,-0.19060199,-0.12603979,-0.97344065,0.27064466,-0.23437314,-0.08201959,0.29866114,-0.44584075,0.18484144,-0.32225156,0.060958285,-0.35900632,-0.543187,0.4043906,0.62035596,-0.040198036,0.40440705,0.88217646,-0.8589953,-0.44575185,0.35480967,-0.16272143,1.1994863,-0.11679425,0.583377,-0.49669766,-0.7721176,-0.42945525,-0.1854175,-0.12565191,0.80402505,0.5519182,0.11072901,0.64985615,0.5252207,0.49004307,0.1136518,0.59309393,0.5636229,-0.2935292,0.4644384,-0.3544536,0.5847242,-0.50442743,-0.5336006,-0.16730584,-0.4745823,0.29926252,0.76671857,0.003507469,0.5510008,0.54724336,0.89733577,0.84715307,-0.08335623,0.30196887,0.9495654,-0.31577715,0.12193469,0.10183525,-0.19065319,-0.42478275,1.0950559,-0.29250976,-0.35106128,-0.018021103,-0.4885705,-0.3496942,-0.5855191,-0.48834297,0.43077448,0.89409715,-0.47263393,0.80662996,0.79989624,-0.6108289,-0.21383193,-0.056821972,-0.41450968,0.67406976,-0.30481666,-0.57185477,-0.9807578,0.31021678,0.078098215,-0.15031774,0.11065725,-1.0382941,0.6596431,-0.28235304,0.5689555,-0.34503877,0.11322904,-0.18678059,-0.5640781,-0.5278567,0.3557984,0.57800394,-0.60007226,0.72354656,0.16101524,-0.6854598,0.11689768,0.26313946,-1.0256405,-0.33090067,0.4960496,0.41990292,0.52259755,0.32601574,-0.3637266,0.6547801,0.31765878,0.88662475,0.43414208,-0.04268792,-0.5032544,-0.43679497,-0.46787757,0.23280574,0.1722101,0.36028966,-0.79432446,-0.55543035,-0.20123614,-0.19332191,0.24532026,-0.2903243,-0.5683757,0.6097263,1.2317947,0.46705043,0.6007503,-0.58694893,-0.19193608,-1.0369681,0.11773383,-1.1141757,-0.25972795,0.18455541,-0.8415741,0.5126065,-0.08824868,1.1374551,-0.528411,0.55423504,0.56415004,-0.123564005,-0.4495877,0.13084622,-0.12793474,-0.8203644,0.13570194,0.2600425,0.113021865,0.16060634,-0.31587788,-0.7900288,-0.050606985,0.44863978,-1.2119592,0.9210988,0.3308962,0.31717277,0.14566852,-0.58237106,-0.6093281,-0.04781485,0.29044032,0.26524627,0.30174085,0.6709174,0.276246,-0.34431112,-0.69579434
-0.1525261,-0.22112773,0.14405528,0.3359446,0.8458772,0.36152232,0.44132963,-1.0749706,0.58301514,-0.5033579,-0.22803542,-0.26462093,-0.80690926,0.27583465,-0.6197552,-0.27648935,0.1709283,0.25440478,-0.34649113,-0.1824554,0.43668503,0.8666804,0.24418774,-0.69656426,-0.58520305,-0.89500624,-1.08795,-0.5617822,-0.93597794,-0.94567835,-0.48825848,0.44986945,-0.1354508,-0.18873404,-0.04989019,0.3759347,0.117902316,0.21244358,-0.20014547,0.33360082,0.8725312,0.10227102,-0.30620453,-0.58116865,0.49954602,0.29272273,-0.31697574,0.25439754,0.6312551,-0.6070699,0.02883107,0.16748591,-0.7331026,-0.12069113,0.17419098,-0.015681012,0.34617624,0.65923786,0.57282996,-0.1945221,0.22472523,0.3537631,0.41577017,-0.29562172,-0.40127173,-0.3961924,-0.7043671,0.29381645,-0.56797296,0.31821,-0.5029122,-0.046745,0.40961063,-0.037098646,-0.58817464,-0.19164702,-0.15091105,-0.3376873,0.614212,-0.28211734,-0.07048237,0.27120715,-0.4338903,-0.36626923,0.26307538,0.23884587,-0.12251793,0.00014530339,0.14935613,0.4651143,0.5799429,0.28665036,0.18363363,0.43530926,0.67530507,-0.07783985,0.65603846,0.70801854,0.2773062,-0.1318777,0.23899245,-0.59115326,0.0682818,-0.09899126,-0.10096783,0.37444693,0.76792514,-0.6056291,-0.26656199,0.44113714,0.48830932,0.21074535,-0.1445393,-0.49366197,0.63492835,0.61312926,0.45436177,-0.37912473,0.54635406,0.45261964,0.044826973,0.6162066,-0.1652043,-0.44566992,0.067579724,-0.029552905,0.10678228,-0.08019429,0.5180807,0.03859113,0.30991292,0.26724267,-0.4635189,0.6695771,-0.006910646,-0.78145295,-0.13666268,0.24166946,0.15273735,0.5046202,0.23649555,0.30744016,-0.08629868,0.47176465,0.29616,0.72449696,0.05733651,-0.116719715,-0.30888835,-0.26669955,-0.6456954,0.5960328,0.5447449,0.24726006,-0.1552429,-0.06134027,0.28679103,0.06134157,0.5320401,0.1835488,0.019870527,-0.33392075,-0.5151353,0.26833937,-0.4354007,-0.61406106,-0.18674521,-0.1607313,-0.25830457,0.22521584,0.14712371,0.25265625,-0.22156133,-0.065543674,0.44699103,-0.065088116,-0.4743123,-0.63254094,0.5505366,0.19680095,-0.08819916,-0.31490642,-0.42518604,-0.45805335,-0.26034963,0.54334134,-0.3611142,0.2863268,0.01079199,0.4108645,-0.3395945,-0.54012376,-0.020270089,-0.38130394,-0.15118197,-0.20262969,0.5682848,-0.49114648,0.6498577,0.13238521,-0.36375955,-0.07627772,0.36094704,0.05312404,0.43514675,-0.02583469,-0.22950868,-0.57984513,0.7769464,-0.29101965,-0.07614182,0.2843646,0.20106007,0.513954,0.17167857,-0.058073398,-0.036502663,-0.38387176,-0.07970406,0.7178527,0.5999486,-0.26513878,0.925399,-0.08680346,0.129102,-0.013031027,0.13616957,0.27790478,-0.76918954,-0.5291726,-0.39370674,0.07555334,0.11204332,0.9394614,-0.4118153,0.14448185,-0.106925435,-0.3113319,0.20781012,-0.32885143,-0.2047563,0.40052474,-0.17488617,-0.24185596,-0.2039977,-0.5966153,-0.107981816,-0.2849592,0.5373449,0.23904009,0.40265015,-0.62200993,-0.19753756,0.054184638,-0.33706772,-0.3277674
0.13333234,-1.0575309,0.6216348,0.54660743,0.06975164,-0.2852993,-0.61232185,0.747104,-0.5399166,-0.2006712,0.026903478,-0.60605234,-0.88396627,-0.06598349,-0.14905696,0.58881557,-0.45923573,-0.09276114,-0.45552945,0.00084654486,0.22595327,0.20655927,-0.761566,-0.36534745,-0.27978078,0.0079435585,0.20003492,-0.70679706,-0.11647311,-0.48989666,0.18650827,0.6367635,0.25757772,-0.112872556,-0.24895827,-0.119923316,-1.0352248,0.30154136,0.068285316,0.113161705,0.45462686,0.11019336,-0.22238052,-0.24170944,-0.49182156,-0.06202188,-0.012608159,-0.04012179,-0.53745514,0.46509454,0.24025321,-0.58778006,-0.14609224,0.14045514,0.0006408855,0.42587635,-0.48073125,-0.42584428,0.6640303,-0.38706586,0.06792824,0.14413367,0.8590802,-0.80868673,-0.044295926,-0.77343994,-0.28341934,0.24362658,-0.2270112,0.80312747,0.24927893,-0.27420497,-0.16081281,-0.1805089,0.6344844,-0.55524045,-0.7731697,-0.101027876,0.50238395,-0.5881656,-1.2131217,0.009787703,-0.018255033,0.0013461383,0.16612582,0.32502404,-0.4222287,0.14365543,0.48672378,0.48049664,-0.11138845,0.040574465,0.80058753,0.9772677,-0.1353271,-0.14267921,0.881259,-1.3435875,-0.13678595,0.07658474,0.5692841,-0.41023803,0.73499,-0.15778245,-0.18161303,-0.5555177,-0.0704693,0.17190617,0.404006,0.2950414,0.044225924,-1.3005784,-0.26761368,-0.53178275,-0.054432392,-0.5918042,-0.31914422,-0.22712131,0.04185176,-1.0679739,0.7009444,-0.18736742,-0.054447692,-1.5992097,-0.37439865,0.36896235,0.6304924,0.50863916,0.09101925,-0.11211101,0.3509329,-0.2029422,-0.3700893,0.22746788,-0.24304675,0.5824341,-0.11157331,0.25205424,0.15141432,0.38576254,-0.11300576,-0.4974373,-0.030359881,-0.42987534,0.6094699,0.52516073,0.30787662,1.5715338,0.058197368,0.3500166,-0.17981343,0.19879486,-1.1302152,0.16086583,-0.6474862,0.077126935,1.4621769,0.2304426,-0.34601137,-0.5351155,-0.17534347,0.59152806,0.684096,0.16453251,-0.5893964,-0.52317995,0.12718087,0.25718737,0.51448834,-0.6671699,0.3503427,-0.635677,0.6265134,-0.45821482,-0.2984344,-0.24616602,1.1276543,0.17256586,0.02428904,-0.33540514,0.33698714,0.78334826,-0.34983364,-0.46516708,0.16362646,0.9147618,0.8004168,-0.742616,-0.71363187,0.16159557,-0.84476894,-0.59498036,-0.41037953,-0.5433214,-0.47807512,-1.0048685,-0.18424799,0.27955917,-0.1714275,0.69677985,0.10786078,-0.057590324,0.38378537,0.22059292,0.16742001,0.47716576,-0.20208412,-0.6449417,-0.33929577,-0.14607337,0.49925897,-1.3623749,-0.65738875,0.16603807,2.0031092,0.48436412,-0.114889756,-0.08891465,0.048542913,0.570311,0.13913281,0.19036031,0.6864654,-0.37342992,-0.40735206,0.8559182,-0.116200246,-0.1797522,0.80541986,0.3600947,0.22386053,0.024033245,0.043205768,0.81286824,-0.2793736,0.25094074,-0.084602095,-0.37880167,1.0786748,-0.96351796,-0.5028425,0.4716548,-0.56469125,-0.6772486,-0.6083646,-0.8555033,0.07439215,-0.067495964,0.21301198,-0.105693355,-0.16896534,-0.066651784,-0.29536942,0.03818627,-0.028339945,0.083381906
0.720843,0.007624893,-0.4240234,-0.15269597,-0.31684875,0.72601306,-0.3597352,0.45199144,0.095126204,0.12257924,0.5327998,0.14275736,-0.1071576,-0.46208447,-0.4972629,0.009663021,-0.35567966,1.0668466,0.37292337,0.15408227,-0.1475082,0.289808,0.13036987,-0.62109524,0.15189745,-0.7506425,0.25345507,0.3086754,0.55261505,0.43655938,0.044004206,-0.18303843,0.9434051,0.10053096,-0.43308806,-0.6285345,-0.15891436,-0.53406787,-0.24774867,0.03792779,0.8309877,0.5399986,0.083987296,-1.0491053,0.101323955,0.7706369,-1.3411812,0.026913838,-0.052117646,-0.04630256,0.8111264,-0.31633967,-0.70913136,-0.40320206,0.18710792,0.041446276,-0.65565825,-0.3466382,-0.20043121,1.0700244,-0.22086188,-0.16566011,-0.1945475,0.6129599,0.36197355,0.2872699,0.67028236,-0.03141735,-1.2343841,-0.7509574,0.16611172,0.27720064,-1.1767416,0.252427,0.37499794,0.24516146,0.13861917,-0.8306117,-0.5564327,0.96456486,-0.13592713,0.5219498,-0.038927455,-0.43839842,-0.12946826,-0.15116969,-1.1107823,0.58197653,-0.380908,0.11563006,0.17032382,-0.14005373,-0.26148805,0.26740324,1.0271548,-0.51544535,-0.32054493,-0.13644728,0.43328497,-0.6840611,-0.65477735,0.18007934,-0.3006331,0.49424684,-0.4548186,0.11454078,0.08592158,0.32118037,0.21243988,-0.5589014,-0.5044344,-0.18369736,0.7330496,0.58690006,0.24810554,0.035442468,0.79311895,0.11431325,1.0198168,-0.77269614,-0.9674015,-0.07921785,-0.53115225,0.65393203,-0.43447948,0.34960666,0.12820508,-0.64618164,0.104994066,0.5554621,-1.1841772,-0.13432005,0.25949585,-0.012820927,-0.21752863,-0.3054081,0.19667028,0.7505149,-0.14647104,0.4124995,0.17330588,-1.4413266,0.40870976,0.42442012,0.17694822,-0.36784545,-0.264784,-0.0761225,0.08325715,-0.10113056,0.08122572,-0.6355481,-0.08398464,-0.103441335,-1.0100322,0.5879678,0.2894467,0.5172106,-0.25831547,-0.59210813,0.4952436,0.37116107,0.12855661,0.17530265,0.48276326,0.7401925,-0.6935171,-0.2643969,0.374475,0.2644849,-0.3881433,-0.16044103,0.51363397,0.29180193,0.092021696,-0.57504857,-0.5754617,0.04813448,0.084538855,-0.6464746,1.1868224,-0.2316428,0.44625348,-0.029485736,0.36999884,0.07234319,0.33159477,0.9560954,-0.42329913,-1.1473027,0.08222498,-0.19084132,0.13048606,0.345175,-0.3084243,-0.15550177,0.0080467975,0.3136479,-0.049941115,-0.0350278,0.16947581,-0.9039795,0.3391662,-0.02570451,-0.1713938,-0.055135217,-0.13273795,0.12495024,0.20842907,-1.1380796,0.53642285,-0.33796123,-0.06639744,-0.9905232,0.2190386,0.04949036,0.20769057,0.21997868,-0.66286665,-0.34103543,0.06228351,-0.2207281,0.34043634,-0.36580065,0.3084469,-0.7340133,0.47891805,-0.6279103,0.38682792,-0.30751613,-0.0892485,-0.12507123,-0.94891506,0.221498,-0.6365993,-0.47897935,-0.19191547,-0.45522246,0.39489618,0.7130118,-0.5343989,-1.0173508,1.0342458,-0.2560004,0.02944578,0.36094415,-0.55737615,-0.101469964,-0.12937619,0.4084161,0.01816613,0.43088797,-0.46035686,0.48084104,0.2371314,0.3812818
0.08065179,-0.0007779704,-0.12364638,-0.008516746,-0.90256876,0.027510094,-0.5535297,0.1626523,0.04647243,0.049194384,0.3575846,-0.093355134,1.077228,0.1771836,0.57958007,0.11918544,-0.4538426,0.22211096,-0.24410449,-0.2588486,-0.1654753,0.607623,-0.2423956,-0.31378317,0.15779456,-0.30390465,0.39149985,0.40556,0.7794612,0.06333277,0.6858266,-0.16183119,0.12764649,0.1374569,-0.67606044,1.0227011,-0.6748971,-0.077746145,-0.10135391,-0.00088623445,-0.004211933,-0.48492187,-0.23161569,0.055299696,-0.4237349,-0.33968955,-0.21906367,0.04973829,-0.1466508,-0.31107643,-0.24024332,-0.9180498,-0.11247103,0.25535277,0.15805101,0.35393843,0.35329247,0.5110377,-0.8717173,-0.05153816,-0.08894952,0.18950185,0.058841106,-0.5498453,0.5447092,0.006758683,-0.5948534,0.5830776,-0.27867976,-0.22732812,-0.3093525,0.56117404,0.62044704,-0.4493105,0.83554065,-0.72265226,-0.79742926,-0.36419544,-0.40022862,-0.2313333,0.37817377,-0.77026355,-0.066264175,-0.54057777,0.22078054,0.1820203,0.14903393,0.05779111,-1.1966183,-0.22850569,-0.38380393,0.2672673,0.61278135,0.59457844,0.08333253,0.6355541,-0.22504316,0.01591874,-0.08265422,0.10019386,-0.3362946,0.36238,-0.2393564,-0.16186956,-0.22164325,-0.21200255,0.049687877,-0.1528974,-0.7409812,0.35858035,-0.13389009,0.09902832,0.38376874,0.010492935,-0.5131092,-0.8709441,-0.5771708,-0.32571322,0.19888425,-0.74586046,0.3694301,0.3513801,-0.14161058,0.22598931,0.5825936,0.5457746,0.37485898,0.5836018,0.33221874,0.29425034,0.06381816,0.38475558,0.7003352,-0.6355335,-0.53161013,0.095140375,1.2943407,-0.19988367,0.23409328,-0.02820301,0.0014944646,-0.92285514,0.7138891,-0.07413329,0.3469417,0.0649495,-0.40178585,0.21405587,0.2602221,0.77804875,0.13266167,0.76500094,0.04080306,-0.3841457,0.07466308,-0.20374803,0.08382152,0.2402325,0.3297005,-0.28130808,0.38415897,0.8147878,-0.030063098,0.28493294,-0.7684835,-0.29241714,0.5976031,0.29286623,-0.6884725,0.20689337,-0.14364132,-0.058358487,0.55129385,-0.12457449,-0.5794934,-0.25912032,0.7777395,0.14933632,0.29138705,-1.1543974,0.25729072,1.0449388,-0.8587586,0.20128618,0.22719581,-0.17002994,0.7509493,-0.23215546,-0.036762305,0.38672104,-0.10498211,0.23514828,-0.20391345,0.058543585,-0.11526789,-0.45014006,-0.14213394,0.660353,-0.117706664,0.36103195,-0.9561981,0.6437895,0.35211122,0.068812914,0.31297013,-1.0706217,-0.43758592,0.4130476,0.2137604,-0.23199832,-0.13190189,-0.6042049,-0.2390347,-0.049970612,0.21299346,0.19207257,0.5583908,0.06999828,0.1133955,-0.1431827,0.101042844,0.30613658,0.4064121,0.5009874,-0.26503578,-0.10617141,-0.2882326,-0.3463777,0.2645234,1.1416588,1.0157146,-0.6129725,-0.20286193,-0.384136,-0.5445405,-0.4971985,-0.2972578,-0.18689792,-0.2420256,-0.5720266,-0.45289913,0.08893364,-0.09706492,-0.6961808,0.36319068,0.112423345,-0.0076877866,0.054838255,-0.0319642,-0.10474378,-0.16204627,0.19987397,0.47629672,0.36188564,0.54950064,0.35693458
0.16987118,-0.6211463,-0.2786604,-0.50368965,-0.22992267,0.07270427,0.17923094,-0.2391079,-0.24090369,-0.12548113,-0.0025267599,0.16148792,0.51139367,0.44787973,-0.0018076102,-0.8533864,-0.13300496,0.312036,-0.48661482,-0.029808557,-0.09656788,0.7922301,0.59645474,-0.0067058117,-0.3390647,-0.03830747,0.75381136,-0.45065784,0.19669059,-0.5922614,-0.020542713,0.131896,-0.45645604,0.04317906,0.025121624,-0.24703583,0.41367552,0.41021731,-0.20315684,-0.25743404,0.34431505,1.1736583,0.49278542,-0.07076246,-0.22244364,-0.17468421,-0.25911865,0.4176433,0.5173123,-0.37036628,0.8278619,0.40051386,-0.8512573,-0.21124327,0.17671898,-0.18060584,-0.46735448,0.4353213,0.04183618,-0.13033825,0.19689618,-0.025185913,0.16904296,-0.52872485,0.76607317,-0.56786954,0.9304701,0.13179958,-0.24429773,-0.042923763,0.04163061,0.26164016,0.40386432,-0.60592383,0.3380442,0.18696302,-0.35653964,-0.3457906,-0.040267747,-0.5390351,-0.91731054,-0.03379678,0.3417066,0.07448224,0.4690748,-0.01556421,-0.16185865,0.07583203,-0.5896501,0.44771522,-0.52094984,0.19064187,-0.3954255,-0.00088632264,0.035339948,0.035700273,-0.13193133,0.009198711,0.111957684,0.0683067,0.61540294,0.14500107,0.22841538,0.12464134,-0.55593175,-0.23642117,0.33469096,0.31546947,-0.514436,-0.038502768,0.49306276,0.11386354,-0.15432245,0.12655497,-0.99119306,-1.0063334,0.36395264,0.18747501,0.08574411,-0.009659662,0.6372306,-0.31371495,-0.19194001,0.094408914,-0.21884152,-0.1493726,-0.281573,0.2336459,-0.080481045,0.15888569,-0.63720447,0.1335466,0.28094152,0.17043658,-0.4960108,0.4696704,0.17806855,0.122596905,0.53843707,0.20256314,-0.024568513,-0.1422511,0.27113593,0.5419379,0.17227006,-0.10147576,-0.14987248,0.34075567,-0.49898383,-0.111168064,0.15540165,-0.12799992,0.2432089,-0.21287979,-0.5346126,0.32422277,0.076667055,0.8701314,0.21400669,0.26315388,-0.05481422,-0.21050677,0.36708957,-0.16746953,-0.15248711,-0.06550353,-0.040330164,0.71374303,-0.21523485,-0.3409154,-0.47833234,0.07926674,0.16490792,-0.51485074,-0.47131768,0.19330856,-0.03811518,0.5537018,0.2317065,-0.4882183,0.6180901,1.3157352,-0.13965318,0.070333526,-0.20006187,0.41775867,-0.20575581,-0.18938363,-0.39506826,0.30202112,-0.064854,0.77011645,-0.30739895,0.41011518,-0.63287395,-0.057258114,0.49591577,-0.24458894,0.07774,0.15154012,-0.04987134,-0.34965813,0.09219559,-0.113103025,0.21135853,-0.4863561,-0.315113,-0.013204103,-0.7596526,-0.26956654,-0.48249832,0.16761923,0.2262643,0.0988313,0.0045242948,0.051704977,-0.19671883,0.9479238,0.016016876,-0.34757397,-0.46596685,0.05671206,0.6142981,-0.515216,-0.27396476,-0.052119218,0.035605997,-0.45351472,-0.52078617,0.48453027,0.3480044,-0.34088954,-0.31273726,-0.23860487,0.021333741,0.38877705,-0.30279568,-0.63622165,0.5016925,-0.60045075,0.08581772,-0.59300894,-0.7918329,0.19297844,0.13619435,0.12214108,-0.04568972,-0.4542619,0.32606032,0.13969998,0.23457806,0.78488564,-0.086538106,0.19750988,0.40939468,0.25066572
0.3424992,-0.13695955,-0.18119238,1.0142313,0.35123968,-0.07049544,-0.14969377,-0.42179355,0.20846559,-0.12246664,0.1769633,0.27173206,0.041511837,-0.3114034,0.26191166,0.35114264,-0.5866322,-0.0056829774,-0.75422126,-0.40705338,-0.13141136,0.039501473,-0.26998392,0.009940361,0.4549008,-0.46507558,-0.179912,-0.18296058,-0.25558546,0.15758026,0.37471628,0.06469931,0.5854154,-0.03999227,0.27237493,-0.4843452,-0.4338275,0.1425887,0.05609625,-0.14329669,0.09962235,-0.7569369,0.06262367,0.034770705,-0.72560096,0.43960527,-0.16166466,-0.67887276,-0.34555188,0.117400795,0.3493331,-0.3170938,-0.6378945,-0.39187324,-0.0039468547,0.16343291,-0.51542324,-0.60645086,1.0749328,0.5285919,-0.04706258,-0.12400682,0.051765848,0.74622685,0.27583075,-0.17050608,-0.16092798,-0.10605811,0.26081067,0.13307448,-0.33242106,0.19417815,0.13340956,-0.011349966,0.6282744,0.3398347,-0.20281923,-0.053636417,-0.026131073,0.13622792,0.29125667,-0.39394617,-0.008103892,-0.07393404,-0.08444917,0.46060342,0.1032979,0.22295967,-0.03579453,0.25668138,-0.47015262,0.20163983,1.1833832,-0.028183658,0.030550828,0.22414884,0.7787776,0.04928525,0.14233539,0.075100996,0.536881,-0.7746456,0.09086015,-0.4643006,0.11994921,-0.606488,0.061487127,-0.2912265,-0.26355028,-0.11196946,0.060732517,-1.1417719,0.02872047,-0.7413216,0.696252,0.1877873,-0.36644152,-0.28332025,-0.016013997,-0.19932105,0.26427868,-0.10073526,0.025367849,-0.11867301,0.32529455,1.3918209,0.6250016,-0.37714335,-0.0828065,0.17146628,-0.9580664,-0.02274273,-0.52445203,0.48071527,-0.09121,-0.045253925,-0.092120506,0.11227673,0.6291367,-0.47907883,-0.1091013,0.4857466,-0.4001931,-0.048048984,-0.061803903,-0.10031514,-0.24248806,1.3466066,-0.30049014,0.5146292,-0.11483619,0.1982527,-1.0436486,0.21509415,-0.21009992,0.6617514,-0.14892566,-0.14957853,0.10216411,-0.05760434,0.16493855,-0.104872465,-0.4513519,0.5038318,-0.10776405,0.65589845,-0.2495901,0.47406715,0.11419919,0.33551535,0.5153582,0.1712933,-0.19803132,0.0317838,-0.18984582,-0.25114146,-0.079349846,0.34421396,0.08901513,0.42642245,-0.018680863,-0.4729401,-0.14180753,-0.9752128,0.08469596,0.014841619,0.5204536,0.26984984,0.5647133,0.13524814,-0.48406553,-0.93932277,0.0800897,0.6364993,0.06526422,-0.5915614,-0.4532074,0.89808106,0.1168593,0.08628494,-0.29299006,-0.46716285,-0.17779799,0.70853645,1.0230255,-0.13705185,-0.6479965,-0.42862526,0.23404971,-0.1274186,0.38735655,-0.82533413,-2.2065463,-0.53518134,1.6512831,0.113929845,-0.40520117,0.041615527,-0.12199618,1.0389117,0.32062516,0.038668245,-0.05078112,-0.24999426,0.43161103,-0.44064292,-0.003503188,-0.3842288,0.07301054,0.17219138,0.22774196,-0.651755,-0.16590054,0.72031754,-0.19767815,1.3331193,0.040556487,-0.16649838,0.2120897,0.56953704,-0.22776078,0.36427933,0.17599384,-0.33095762,-0.7742516,-0.49399015,0.1162246,0.66262746,0.17464408,-0.22846854,0.03343532,-0.10502347,0.3925364,0.079571225,-0.49272403,0.49894106
0.15102611,-0.16930747,-0.43336383,0.06073777,-0.5970029,0.72525615,0.4416345,0.40429273,-0.14102153,-0.53368795,0.42421538,0.40104213,0.3105222,-0.7470814,-0.03677926,-0.41761205,-0.6291406,0.39085916,0.5485326,0.08854741,-0.18891934,0.045149658,-0.112151235,0.14108165,0.5483001,-0.3688552,0.37152597,0.8976021,0.47549054,0.45361108,0.28209195,0.060106203,0.8913695,0.114681296,-0.91445136,-0.4854123,-0.23429847,0.0143493945,-0.6367496,-0.13235496,0.48915142,0.19515969,-0.21649839,-0.5671,0.7722055,0.6789792,-0.54072267,-0.13886227,-0.26922688,-0.09169838,0.47191134,-0.1787615,-0.5568292,-0.7321695,0.5422072,-0.02735185,-0.46835423,-0.3417975,-0.27195752,0.45317352,-0.13243914,-0.009744201,-0.4059057,-0.00031645026,0.5063902,-0.07522985,0.21614553,0.69004315,-0.5065142,-0.46890324,-0.34885722,0.48685622,-0.597427,-0.15315738,0.45072407,0.23891854,0.28776243,-0.66479677,-0.3662062,0.90076214,0.07679323,-0.10425452,0.094385356,-0.23016569,0.20094712,-0.15710768,0.009472554,0.38631293,-0.5413454,0.17835994,-0.3142902,-0.31411794,0.015583594,0.21174006,0.39683318,0.3291667,-0.40364102,-0.13848403,0.46653187,-0.13796338,-0.2535286,-0.3623684,-0.5813097,0.050965507,-0.429782,-0.24159099,-0.08395738,0.26638588,0.018309586,-0.53457433,-0.4661454,-0.39710188,0.43643022,0.22807337,-0.13132164,-0.07497709,0.36359322,0.041128837,0.62954164,-0.6493975,-0.45620656,0.78790843,-0.09101052,0.39639735,-0.13156117,-0.50061584,0.1875232,-0.37947884,0.09820794,0.68989176,-0.30128726,0.20479266,0.61029714,-0.65554935,-0.33833918,-0.2229248,0.7020946,0.77932537,-0.19882067,0.7023677,0.46679047,-0.2419917,0.46368024,-0.336032,0.28124294,-0.29978743,-0.11432363,0.15011494,0.22144406,-0.05866644,-0.27573118,-0.67837167,-0.121000305,0.122381315,-0.9398965,0.139897,0.58493024,0.66023874,-0.16297483,0.47180453,0.36141798,-0.12165699,-0.053699452,-0.1220997,0.1351673,0.4398261,-0.17998017,-0.50601137,-0.018978478,-0.09833116,-0.25515026,-0.116899446,0.8849957,-0.17565367,-0.35441273,-0.49872917,-0.3085558,0.09456073,0.27459872,-0.29184824,0.58697045,0.2653652,-0.04423018,0.5475498,0.41961667,0.5084096,0.088721305,0.59175724,-0.19343828,-1.2447119,-0.025316197,0.16165867,0.29202288,0.36468685,-0.14199962,-0.31853446,0.051387016,-0.57685673,-0.33939227,0.13793708,0.18120143,-0.36639473,0.42546177,0.13785942,0.1469142,0.006120695,-0.06854398,-0.20193902,0.26140344,-0.90174997,0.31202775,-0.92316335,-0.7925188,-1.1893278,0.2519123,-0.43427694,0.6871875,0.28247133,-0.4951624,0.0141243255,-0.16321313,0.8205651,0.60199505,-0.4027194,0.33340517,-0.26596463,0.6368684,0.054803696,0.12305731,0.46914867,0.07471118,-0.049881693,-0.15060617,-0.55913055,-0.45713875,-0.5837867,-0.29124707,-0.5925308,0.23493983,0.7792323,-0.18559836,-0.112968676,0.59941554,-0.021346297,0.02694523,0.6429451,-0.5143107,-0.011252045,-0.3768353,0.32400462,-0.035189364,0.81456953,-0.576642,0.5298677,0.34627435,0.07405807
0.14144704,-0.1814108,-0.6219859,0.38013986,0.05739654,0.32459491,0.49272004,-0.3799305,-0.13491933,0.3871962,0.24658163,-0.027862275,-0.5424535,0.085807286,0.24154909,0.36456984,0.23972769,0.17669617,-0.11025431,-0.09087365,-0.122378774,-0.26073912,-0.16757472,-0.23152107,-0.019920057,0.060945626,-0.1251008,-0.43752846,-0.041131742,-0.59123707,-0.029838523,-0.32068008,-0.074650384,0.4549694,0.3810872,-0.008245867,0.23500575,0.0863414,-0.068358704,-0.06933446,0.317276,0.45399815,-0.21587011,-0.059657305,-0.076988086,-0.13405485,-0.15592256,0.07131367,0.04930674,-0.47498253,0.050833106,0.50498414,-0.18640028,0.10058579,0.16767415,-0.5318828,-0.21287434,0.26236936,0.5272779,-0.6053073,0.021918776,0.48729837,0.31739625,-0.6134916,-0.013434227,0.2999151,0.1351555,0.103728056,-0.16541418,0.1712057,0.3883351,0.021160401,0.23261444,0.09823314,-0.5362176,-0.6827008,-0.24482927,-0.28655055,0.2582981,-0.09611284,-0.7084472,0.4839235,0.56458575,0.010645383,-0.30928174,0.14583717,-0.48137963,-0.053288333,0.3423206,0.1764385,0.2755738,-0.106391594,0.22151054,-0.32227722,0.083915114,-0.30038422,0.0070643057,0.14967953,0.20576437,0.13379768,0.36761263,-0.17082806,-0.071294814,-0.188243,-0.14544894,0.22660336,-0.24603215,-0.663989,0.059155088,0.2821811,0.3695988,-0.12691918,-0.06652699,-0.32936603,0.9196232,0.008387122,0.78739816,0.24774396,0.123917654,0.23524736,0.25898087,-0.35628802,-0.09396406,-0.024183962,-0.44232875,-0.10069737,0.107179694,-0.16237102,0.62893873,-0.22698162,-0.4401312,0.16359745,0.36040124,0.12131128,0.09119534,-0.45665756,0.056571923,0.16578059,-0.037169382,0.019774798,1.3959183,0.3366094,-0.28305015,0.44078925,-0.012638782,0.009626338,0.3978296,0.26740167,-0.22316775,-0.5393559,-0.1980507,0.28789276,-0.17988081,0.24724688,0.29629388,-0.27493948,-0.04933242,0.19443,0.35446432,-0.087728344,0.2313074,-0.20770474,-0.0718984,-0.27823874,0.012983337,-0.5878692,-0.14703077,-0.25292367,0.48306012,-0.18619345,0.10385108,0.4237383,0.013630934,0.2294313,-0.3983933,0.2401853,-0.5189695,0.29303488,0.11871027,0.09815936,0.15990955,0.30528554,0.074536525,-0.28270155,-0.30471447,0.12375673,-0.3932189,-0.24508823,-0.18487407,0.56385195,-0.02871744,-0.25243735,-0.032444324,0.2549285,-0.08022241,0.2683379,0.032701,-0.35091344,0.4946396,-0.21736482,-0.19509627,0.7058847,0.059315115,-0.14570822,-0.16742624,0.039106894,0.4117082,-0.28612578,0.3976805,-0.07199575,0.1176384,0.24138609,0.0982246,0.9009188,0.5399834,-0.34942836,-0.046948817,-0.10031885,-0.21369196,0.44735667,0.010984993,0.36259893,0.33319873,-0.16678184,0.02861202,-0.12837958,0.06610327,0.3130039,-0.3501351,-0.32363337,-0.12677185,0.26838195,-0.26941323,0.3525417,-0.17639294,0.25955185,-0.11868358,-0.61467665,0.31611452,-0.38498464,0.14416584,0.49902904,0.18456578,0.55613834,0.1881051,0.27116993,-0.24405938,-0.1742653,-0.1899265,0.4130168,0.093448795,0.1673745,-0.032362558,-0.42389548,0.019054398,-0.45952272
-1.0246854,0.3637133,-0.22764798,-0.6667698,-0.25260615,0.028887825,-0.25186306,0.2762068,-0.017822526,-0.68909293,0.7281913,-0.45728743,0.7476304,0.4804988,0.10298999,-0.16960604,0.18455878,0.14578556,-0.22457238,-0.18755236,-0.50588804,0.6037823,0.2714673,-0.49554658,-0.07737181,-0.047087725,0.31638867,0.37678576,0.110734865,-0.17039967,0.20622084,-0.12933256,0.17185658,-0.71160483,-0.3362443,-0.29338855,-0.044751927,-0.15992399,-0.4293959,-0.6950456,0.37328914,0.8955409,0.18102899,-0.65207154,-0.48760325,0.019745635,0.0018597833,0.27622762,0.040260363,-0.36501434,0.04480394,0.02807712,-0.24366963,-0.19864216,0.76700515,0.0075247977,-0.21430118,-0.2738942,-0.40503857,-0.44468257,-0.026491638,0.23484287,-0.050222185,-0.06131739,0.030966183,-0.6052341,0.70283556,0.5444704,-0.20113023,-0.23181137,-0.7097809,-0.047963094,-0.44243363,0.56596947,0.13331735,-0.34946376,-0.7939878,-0.10517292,-0.21573992,-1.223345,-0.28513172,-0.48827967,0.34715143,-0.2895874,0.6905381,-0.010743267,-0.118094236,-0.031124255,-0.24079561,-0.044145305,-0.43696478,0.27899638,-0.18063933,0.3007743,0.047809627,-0.3236434,0.015039239,-0.052035056,-0.02486806,-0.4046824,0.35170302,0.20514783,0.23410875,0.024359701,-0.25151008,0.49742782,-0.4346422,0.3380452,-0.4150999,0.1558519,0.7079865,0.26430643,0.37602955,1.0862902,-0.021250686,-0.28628165,-0.2762168,0.27610365,-0.0083000185,-0.6471935,0.7990366,-0.36858153,-0.4234956,0.2752987,-0.88430727,0.019932637,0.054274186,-0.3004164,0.23888405,0.03412503,0.8450679,-0.11292351,0.019464554,1.5372752,0.2312986,0.09602017,0.15590839,0.27715757,0.72723615,0.4960005,-0.3702873,-0.99960524,-0.10451245,0.28493327,-0.06533627,0.09077644,0.22346742,-0.1761067,-0.2552569,-0.29580218,-0.57722145,-0.3169802,-0.41292438,-0.24570714,-0.44781277,0.3396492,0.25140575,0.2650053,0.32241225,0.34991452,0.23124053,0.44416076,0.13736856,-0.17417541,-0.5747704,-0.24727124,-0.052587792,0.4509239,-0.4544011,0.21265492,-0.49299684,0.28614002,-0.07501888,-0.358845,-0.10801999,0.027759785,0.0923916,-0.27517727,0.49406034,-0.13868237,0.23111817,-0.003058138,0.050220266,0.54430616,-0.1917778,-0.27488166,0.012404468,0.5709013,-0.59786093,0.20653623,0.24956027,0.4314506,0.20746419,0.27292717,0.42732257,-0.18315259,-0.20275953,0.1326539,-0.6334615,0.010369784,0.1877918,-0.38688308,0.53782046,-0.44978356,-0.4846001,-0.60873866,-0.35902578,0.4676419,0.5319732,-0.1675324,0.2579451,0.4216099,0.2787056,-0.0060379445,-0.23351468,0.38483766,0.03394006,0.5293422,-0.015997726,-0.15830581,-0.66492647,-0.60431856,0.92243785,-0.33844748,-0.6985285,-0.084421284,0.59407604,-0.020992361,-0.36987805,0.4252508,0.049678206,-0.11356727,-0.53348154,-0.39938748,0.65615934,-0.1355926,-0.61028546,-0.54940546,-0.2278118,-0.6180887,-0.4430651,0.022782834,-0.713449,-0.27438462,-0.5646881,-0.09516577,-0.27239814,-0.46723095,-0.19444776,-0.11247069,-0.2940641,0.19343556,0.09156013,0.35102305,0.47421885,-0.036938593
0.2572735,0.17257339,-0.29656997,0.52476573,-0.39171162,0.3829903,0.8528004,0.40509686,-0.21413253,-0.71081775,-0.7895519,-0.31379807,1.3569947,0.23296005,0.011315379,0.015039586,0.043428037,0.34881714,-0.11722968,-1.7041276,0.21866326,0.6016153,0.86186445,-0.2389059,0.2207453,-0.16871415,0.02820224,-0.15845166,-0.0039110687,0.11467154,0.3118422,0.39053762,0.24288201,-0.17733383,-0.3117719,0.32844144,0.36052763,-0.30857193,0.0148518905,-0.13788196,0.40261564,0.34475788,-0.06273832,-0.05564467,0.22875732,-0.07634699,-0.39132726,-0.1923932,-0.7366958,0.009544072,-0.5941397,0.5364779,-0.2245922,-0.67489445,0.3642374,-0.3639786,0.13372761,0.3331933,0.10883286,-0.108486615,0.21282308,0.11577554,0.15897281,-0.4796092,0.5847336,0.35688338,0.28097475,0.29405028,-0.39339355,0.32645276,0.06866949,-0.033000395,0.45298302,-0.3415127,-0.50091076,-0.21610965,0.6209818,-0.21923193,-0.42570725,-0.7206602,0.27585274,-0.48397222,0.02900485,-0.699426,0.2915837,-0.055944923,0.29772612,0.062214807,-0.036859747,0.8336443,0.6511456,-0.5233311,-0.13797139,-0.5508664,0.40214095,0.42923078,-0.03767428,0.14234711,0.01659795,-0.17149553,-0.48424098,-0.038750723,-0.65137243,-0.21699908,0.02346772,0.34889418,-0.6376387,0.17297484,0.403343,1.1270225,-0.63016635,-0.11254415,0.20659967,-0.5158257,0.2992016,0.06804358,-0.54014957,-0.07775261,0.28867668,0.26910573,-0.044424415,-1.1442796,-0.34558192,0.017853132,0.30434886,-0.24243054,-0.090382956,0.49847215,-0.037986472,-0.24817824,0.12051302,-0.28890598,0.41535792,0.07276122,-0.09510484,0.606723,0.031478025,0.033942416,-0.41059577,0.46457204,-0.33536935,-0.33957252,-0.17757744,-1.1174872,0.06007891,-0.3976572,0.0016519163,0.08431157,0.6492994,0.029799458,0.464062,0.11259476,-0.64131457,0.6341454,0.11167997,-0.12701868,-0.8668836,-0.029630661,-0.0016129,0.46755332,0.14082776,-0.34159046,-0.15069093,-0.5837495,-0.7098291,-0.29211748,0.46407223,0.011329187,-0.18803112,-0.38541988,-0.37625661,0.019321093,-0.3384181,-0.1677222,0.42541736,-0.06217486,0.21128403,-1.1825079,0.43880424,0.18837944,0.5837581,-0.045900892,-0.014088833,0.27139226,-0.6312166,0.1493451,-0.3201687,-0.4347677,0.5156327,-0.58687323,-0.094138466,-0.3463465,0.10486816,0.32667702,-0.33182144,0.57975674,0.23343378,-0.56903464,0.21827689,0.052822847,-0.29177344,0.5156909,0.04470797,0.4097289,-0.22264947,0.05092243,0.06434146,-0.27164137,-0.57642525,-0.70645463,-1.0531898,0.3014836,-0.01354367,-0.18447517,0.37513062,0.058103886,0.90496606,0.1471007,-0.4414409,0.21316922,-0.46767434,-0.204908,0.035385337,0.5785302,-0.31081644,0.10024837,-0.30459192,0.19529286,1.0165629,0.156187,-0.08409092,0.19993746,0.32031316,-0.5973497,-0.25286096,0.010951535,0.2386813,0.22248356,-0.18029098,-0.16296183,0.8418499,0.43540496,-0.03339405,0.75584316,0.28278282,0.109223984,-0.339352,0.8979019,-0.66733885,-0.19381231,0.9263315,-0.32332578,0.1104376,-0.010321414,0.14475961,-0.46530938
-0.31371704,0.22480097,0.29124507,-0.36868972,-0.108817354,-0.016144842,-0.045086596,0.8766607,-0.11646602,-0.25985408,0.042489193,0.053602245,-0.265867,-0.3276464,-0.21190307,-0.23737478,0.14158855,0.20842907,0.17653455,0.31812304,-0.40043062,0.59710723,-0.88475657,-0.29112858,0.1392888,0.060961057,0.39085126,0.23119411,0.08173619,-0.030955594,0.4894535,-0.26135305,0.28079692,0.32370093,0.13493557,-0.18737426,-0.10871,-0.37047362,-0.15164565,-0.3664991,-0.06632239,0.82328486,-0.18033296,-0.26611826,-0.4879521,0.12288942,0.015421861,-0.010644271,0.5399444,0.022064399,0.53944886,-0.04589163,-0.28927132,0.36308265,0.10496891,0.21722087,-0.14850998,0.30870113,0.051403318,0.42410436,0.5556866,0.22439195,-0.055265307,-0.36300838,-0.2246022,0.034226947,0.5673794,0.13733141,-0.001124126,-0.15728359,-0.14494829,-0.051706668,-0.20510009,0.3625046,0.110053,-0.3936348,-0.12861617,-0.3869085,-0.1803298,-0.08424489,0.20174538,0.34732738,0.29277557,0.03908112,-0.04559179,-0.08160855,-0.6496041,0.070427366,-0.09564321,0.13563958,-0.16399099,0.18335764,-0.055007197,0.08357422,-0.13493232,0.06545416,-0.17125852,-0.3334119,0.37906957,-0.23865011,0.19924875,0.018604636,0.00025026107,0.22382443,-0.43889594,-0.18340167,-0.08928456,0.6845696,0.18608053,-0.6167159,0.34889603,-0.19084355,0.038333945,0.8070912,-0.38832185,-0.023017412,0.36495277,0.044074353,0.011512326,0.12516476,0.036599316,0.4098216,-0.22521819,0.03992102,-0.50121176,0.15456864,0.07545981,0.051868726,0.17935741,0.013524192,0.02824492,0.158316,0.26032865,0.06423652,0.3255521,0.2628006,-0.04717195,0.19603616,0.444952,0.4548571,0.40090117,-0.10003623,-0.057845294,0.54539984,0.3232489,-0.45116618,0.06460632,0.17544234,-0.42027816,-0.28844166,0.3167341,-0.1174414,-0.04382385,-0.5256657,-0.105761796,0.2552432,0.7348361,0.40256244,-0.28602293,-0.116271324,0.19803776,0.30062637,0.25707853,0.20947868,-0.13135405,0.08494188,-0.68279785,-0.18006594,-0.2730365,-0.076593,-0.26243266,-0.13105616,0.35248503,0.35635787,-0.08298832,-0.07010079,-0.8019233,0.2601489,-0.0029563387,0.28364247,0.57460177,-0.26101375,0.40201157,-0.06560853,0.06124187,0.09692678,-0.18932869,0.08399026,-0.14729413,0.32595918,-0.092437506,0.7579063,0.21533862,0.011219945,-0.021758582,-0.2987665,0.08929844,-0.045891657,-0.8977686,0.053543136,0.85265726,0.3514141,-0.14127678,-0.52411056,0.034559444,-0.29764345,0.13421859,0.23824322,0.1909955,-0.40590262,0.2635555,-0.26683295,0.04898773,0.3186637,0.25930488,0.005924054,-0.7701889,0.43251058,0.09997523,0.21588477,-0.95063484,-0.28671512,0.57698864,0.10520237,0.49781436,-0.33138776,0.13433665,0.029813763,0.008531199,0.5185341,-0.07625884,-0.102437295,-0.6386952,0.40816444,0.80576056,0.75197303,-0.37897986,-0.820794,-0.06709724,-0.25131804,-1.0123909,-0.3175206,0.08796289,-0.24690592,0.11623878,0.03615516,-0.1884782,0.018096479,0.03497753,0.63250107,-0.6536866,0.010934508,0.2743203,0.019779675,0.691471,0.003511139
0.3074682,-0.06318949,0.14143279,0.66216254,-0.24843837,0.07134361,-0.67332006,0.0029208004,0.06804937,-0.97031575,0.29172274,-0.18610032,0.4894165,-0.3004968,-0.9517474,0.771754,0.1955769,0.030234762,-0.26478606,-0.27122346,0.70440453,0.27228892,-0.16851208,-0.24203207,-0.26560748,0.063742846,0.5817344,0.13348491,0.09496304,-0.1845604,-0.09371001,0.25573555,-0.14759222,-0.12222248,-0.36447912,0.37991548,-0.5437771,0.7501107,-0.17265347,0.070177235,-0.17921762,-0.07528537,0.024202649,-0.33436164,-0.30865246,0.08651446,-0.2068499,-0.49244934,-0.3751916,-0.35698628,0.22265728,-0.29571137,-0.089495316,0.0054495977,0.24719997,0.58248043,-0.9584808,-0.5745012,-0.036574148,-0.14549047,-0.13769698,0.21467814,0.018803734,-0.44989598,0.66068494,-0.27527362,-0.18292733,0.63223237,-0.28952202,0.29826742,0.16444331,-0.18889953,0.12215729,-0.0836248,0.06688012,-0.28558102,-0.6389686,-0.1138981,0.08420582,-0.43236288,-0.5667008,0.24713914,-0.12300248,-0.054599877,0.4349198,-0.43190247,-0.6111439,-0.22097033,-0.29088685,0.04567576,0.25336534,-0.16614296,0.4219316,0.20047964,0.13691929,-0.1550148,0.036555935,-0.37850446,-0.24916558,0.18954533,0.052934956,-0.22763693,0.23953274,-1.2753866,-0.09387967,-0.26942888,0.9826301,-0.75712043,-0.23098335,0.3597714,0.18190373,-0.6702025,-0.93570936,-0.5255223,0.032160904,-0.69994265,-0.4744872,0.14598322,0.26254928,-0.49799204,0.33598605,-0.31639546,-0.0043788217,-0.37315238,-0.17585827,0.9232109,0.40178543,0.20500381,-0.31551197,-0.6731028,0.06331129,0.5430906,0.27035466,-0.32532755,-0.031462397,-0.94309,-0.025733609,0.26687226,0.31146383,0.1585712,-0.05856163,-0.68756354,0.59988517,0.12161662,0.050750125,0.030915009,0.35360837,1.181056,-0.026263043,0.19988208,-1.3091773,-0.4232179,-1.7677941,0.30767512,0.03146013,0.23943949,0.03404359,-0.19213079,1.000995,-0.8724343,0.19268505,0.22296792,0.15882254,0.1611352,-0.34600523,-0.3169766,-0.27241263,-0.706588,0.5952957,-0.5165969,0.6613058,-0.07541298,0.5593369,-0.059387054,-0.12938677,-0.65417904,-0.67934936,-0.327826,0.14708392,-1.2371606,-0.17089447,0.011668772,-0.062225126,0.2642176,0.00655089,0.6373856,0.5086355,-0.07826375,-0.7783332,0.18541339,-0.6948213,-0.68779874,-0.49624005,0.10131605,-0.1398937,-0.46415702,0.47854665,0.72098637,0.38250124,0.8245249,-0.66467816,-0.10288428,0.2570907,0.527172,0.58726805,-0.10261535,-0.6944109,-0.27485585,0.72073907,-0.12026776,-0.07546224,-0.6543604,-1.1015788,0.19901942,0.723838,0.4768828,-0.08776769,0.047098145,-0.025629284,0.44207948,0.61831427,-0.90152955,-0.2717581,-0.74632305,-0.06963247,1.0473859,-0.007411528,0.4304867,0.015018066,0.25779802,-0.11927395,0.33945516,0.022433238,0.67955273,-0.97948956,-0.68060267,-0.23534735,0.38990286,0.39239526,-0.11919111,-0.8130207,0.8033737,-0.05925001,-0.524119,-0.20868641,-0.1084254,0.040177524,-0.56555516,0.27411017,0.6921322,-0.49536344,-0.13173115,-0.46670744,-0.22541066,-0.23179622,0.7609954
0.4306011,-0.15163697,-0.39540225,-1.348804,-1.2711565,-0.06095779,0.27715254,0.7471689,-0.12671617,-0.5400884,-0.4023634,0.5116949,0.061750825,-1.1385907,-0.14596757,-0.3623041,0.3281349,0.14883912,0.4784842,-0.061138656,0.21362513,0.5172097,-0.0032307466,-0.8664108,0.10278912,-0.27496475,-0.2540686,0.31322315,1.0681268,0.36070928,-0.42546985,-0.07342852,0.55042773,0.6578963,-1.4052418,0.17736389,0.17817794,0.04671558,-0.37773186,0.15515298,0.8097631,0.14940898,0.098265834,-0.39598334,0.23697723,0.50031924,-0.2082423,-1.0548898,0.21978326,-0.10553688,0.25976607,0.35517153,-0.43856052,-0.133425,0.3264551,-0.116640955,-0.33856407,0.27634397,-0.6922987,0.3961004,-0.22923107,-0.6985974,-0.0344788,-0.031233722,0.39579916,0.5547473,0.10131977,0.88640904,-0.37905997,-0.32062227,0.0064557404,0.1959329,-0.07402301,0.15671088,-0.10728822,0.11946103,0.1372048,-0.56622547,-0.4906825,0.9389231,-0.42049593,1.0501059,-0.2618895,-0.07625743,1.0314069,-0.23536858,-0.18656768,-0.016208077,0.022673823,-0.39380807,-0.11890837,-0.9443604,-0.49200836,-0.36756778,-0.011992887,0.1679228,-0.49912292,0.025363775,0.033181515,-0.06143327,0.13120672,0.48623303,-0.30167884,0.3966834,0.14321268,0.23372261,0.24406952,-0.03195035,0.21980327,0.30903873,0.2877332,-0.11039203,-0.0006150405,0.28301716,-0.08946263,0.37484607,0.44197014,0.28773442,0.32536122,-0.43113184,-0.20066062,-0.36384693,-0.014647437,-0.081802405,-0.6349068,-0.09515735,-0.11540284,-0.32653227,-0.6654616,0.47054133,-0.6148937,0.9563503,0.9352685,-0.04747698,-0.03791075,-0.5071989,0.4473261,0.4780629,0.16579787,0.40248954,-0.05693712,-0.918176,0.5998005,0.3556672,0.10253122,-0.27131957,-0.54386896,-0.10637041,-0.28455713,-0.026673874,0.1334317,-0.8834207,0.478233,0.17970599,-0.27358714,0.15406111,-0.030518427,0.56568074,0.55717367,0.14470665,0.92532486,-0.0047630644,-0.24329777,0.16713408,0.48835337,1.5144283,-0.2994911,-0.02529501,0.20922853,0.46569988,0.0014891373,0.089279994,0.46332508,-0.049516413,-0.37025574,-0.9832867,-0.4160828,-0.0027818158,0.7611283,-0.3936777,0.6198265,-0.017653663,0.46909314,0.08975591,-0.031406593,0.47029948,-0.19487493,0.047919184,-0.20971279,-0.66748613,0.11524288,-0.54360586,-0.11614425,0.62066084,0.0021377974,0.06391795,0.7587684,-0.021642646,0.2679574,-0.15701912,-0.62873363,0.23637113,0.27014858,0.75375384,0.17649493,-0.4957056,-0.8722264,0.4919592,0.39229137,-0.23391011,-0.086879894,0.102682434,0.07428901,-0.56100523,-0.2114715,0.053513866,0.30513987,-0.1728559,-0.16565354,-0.48028022,0.22821039,-0.24043542,0.10340262,-0.31401458,0.34912932,0.12522373,0.72420067,0.14024349,0.16419347,-0.068857685,0.053895876,0.15762179,-0.53511506,-0.6297269,-1.0264717,0.25020063,0.1618607,-0.118788235,0.52069235,0.39217103,-0.40024826,-0.82288,0.053795,0.22741711,-0.037262842,0.34991267,-0.3281317,-0.5328837,-0.14033747,0.08858086,0.17772315,0.642811,-0.15552938,-0.12307913,-0.39957544,-0.43828768
-0.100659944,-0.47658086,0.49307218,-0.5060143,-0.09129031,0.16143046,-0.9819173,-0.16236466,-0.86900884,-0.50360066,-0.0025638533,-0.24692412,0.16478884,-0.07211091,0.11045176,0.24371617,-0.20722008,0.100482054,-0.3014882,0.10283606,-0.48287803,0.13025506,-0.8128684,-0.056032263,-0.09615155,-0.21415946,0.44495842,-0.25867894,0.0148255965,-0.3625023,-0.7747182,0.45519048,-0.05221112,-0.23024431,0.25594667,0.3922815,-0.4662562,0.0014292222,0.06884905,0.20038529,0.4602677,0.12181706,-0.60970205,-0.2703829,-1.4400086,0.0598142,-0.18765745,0.4470481,0.4304532,-0.026479023,-0.21523292,-1.013507,-0.20005955,1.5015631,-0.22119987,0.7078265,-0.09564222,0.11460399,-0.06544443,-0.39452064,-0.051308326,0.40042877,0.9600608,-0.3678271,-0.58504486,0.16712707,0.04142388,-0.28240356,-0.08006338,0.120244406,-0.19362591,0.041653793,0.40874678,-0.3870696,0.52426374,-0.70343,-0.5261793,-0.055895433,0.3807783,-0.5834349,-0.24456465,0.16789724,0.40271765,-0.014497473,0.17156573,0.9176589,-0.5430109,-0.092791125,0.016646022,0.3758769,-0.6620963,0.38247415,0.372875,0.67506945,0.31417015,-0.17386915,0.58367276,-0.6848573,-0.14338222,-0.1681768,0.24344958,0.33669803,0.032155294,-0.29584455,-0.59869856,-0.7939994,-0.19056879,-0.08010196,0.042531177,-0.43802902,0.35474086,-0.05409458,0.12947822,-0.4757185,-0.43153557,-0.4798515,0.20880803,-0.68064016,0.21799387,-0.0036676805,0.5594003,-0.2858378,0.021536741,-1.0205528,-0.36254165,0.6217536,0.65381014,0.11523152,0.37985164,-0.04758728,0.23325057,0.4444144,0.13092443,-0.70763427,0.21775739,0.68552864,0.30603975,0.27327463,0.37753505,0.48628393,0.62779784,0.11624155,0.0132619385,-0.09990929,0.7713996,0.5011684,0.33921096,0.28245723,-0.28429368,0.44595316,0.23399684,0.27103966,-0.02843196,-0.21083853,-0.3149972,-0.17191319,0.339302,0.4833445,-0.3549611,-0.7467645,0.03562909,0.7290676,0.17298383,0.86361223,-0.57100433,-0.86128,-0.92606986,-0.40848538,-0.42748404,-0.3111585,-0.09390737,-0.3582832,-0.15387867,0.78526926,-0.12886497,-0.27200586,0.6544032,0.35899803,-0.11442191,0.25912583,0.25236443,0.31061962,-0.16707174,-0.91873056,0.5458197,0.47722846,0.7545767,-0.41972443,-0.9967714,1.5488569,-0.68039227,0.22074573,0.14580059,-0.6778322,-0.5006265,-0.57765067,0.16835259,1.0136836,-0.027101265,0.61961013,0.23800434,0.2917342,-0.08463307,-0.29999352,0.17137058,0.029241752,0.47066206,-0.39554334,0.16959439,-0.25811747,0.38621113,-0.29177856,-0.5537166,-0.18663028,0.7034597,0.12931137,-0.2332771,0.7793118,-0.027082698,0.23831508,0.10948538,0.34599343,0.16860975,-0.08051788,-0.18760374,0.92924047,-0.10814748,-0.004708756,-0.3994248,0.27708903,0.45258856,-0.7148392,0.65998703,-0.07195731,-0.35239604,0.24078232,-0.14663252,-0.5644857,0.28979078,-0.4065904,-0.019812448,0.16482724,-0.7678595,-0.9890058,-0.661523,-0.7911349,0.039421678,-0.6053789,0.3852896,0.3144218,-0.518098,-0.28406364,-0.17407906,0.005598149,0.24837652,0.026613291
0.21272303,0.26743606,0.109908216,-0.6895467,-0.4477425,0.28855333,0.07319471,0.47866258,0.039255552,0.5038677,0.07613095,-0.30058554,0.0056206184,-0.2717362,-0.046869885,-0.08999957,0.42846534,0.23711064,0.37890586,0.5194554,-0.8865993,0.32264197,-0.05485135,0.35545027,0.3764952,-0.29824364,0.5227054,0.40882805,0.2721936,0.39638913,0.38784596,-0.6664676,0.57199615,0.12026861,-0.25090173,0.07806512,-0.05452717,-1.037609,0.26259297,-0.9130226,0.24371406,-0.48613462,-0.40162167,-0.22775646,0.21676253,0.1222406,-0.3743469,0.4741488,-0.44430858,-0.441788,-0.33516443,0.13849698,0.12956662,-0.35171708,0.25511846,0.1486297,0.36471435,1.2642981,-0.009723925,0.3215877,-0.06341923,0.45242706,0.0975902,0.30538765,-0.3667044,0.56709415,0.9802115,-0.11694557,-0.9937576,-0.34059262,-0.53283226,1.2626253,-0.17505127,0.5221706,-0.10813693,-0.34179437,0.4965116,-0.57345504,-0.388213,0.64188224,0.58443624,-0.09139804,0.45822993,-0.5592102,0.5649254,0.057759993,0.3459428,0.6946405,-0.21077615,0.7435371,-0.93036926,-0.18808416,-0.17559797,-0.25274232,0.08540914,0.20389104,-0.23063582,0.064016216,0.46604615,-0.9036964,0.39109424,0.6240655,-0.01056203,1.1396011,-0.77049595,-0.2943713,-0.10141878,0.39840177,-0.016482156,-0.89358324,0.24071352,0.25903282,1.0500273,-0.39964676,-0.6668924,0.49795476,-0.23169757,-0.24557565,0.6289195,0.4522322,-0.108894296,-0.021141537,-0.3461683,0.24840029,-0.16660596,0.036466595,0.05969315,-0.21715155,0.4318379,0.79652524,-0.043739352,-0.35384974,0.069599554,0.049275015,0.43093362,0.45400044,0.53139067,0.026201557,0.26934156,-0.21403417,1.2636198,0.27946672,-0.32426614,0.1921029,0.26264182,-0.112904854,-0.11968939,-0.33760175,-0.25730184,-0.4358861,0.4387782,-0.0063278405,0.19830368,-0.2677888,-0.499889,-0.15054978,-0.2540206,0.33510628,-0.6736428,-0.19175068,-0.13253409,-0.07265672,0.29443622,-0.042715535,-0.3635089,-0.05367683,-0.32662356,0.30620039,-0.134169,0.08641626,-0.6278723,0.14102001,0.43821228,0.53234714,-0.50647765,-0.5343915,0.35291782,0.49422845,-0.039159298,0.09402718,0.90290236,0.18332109,0.8313665,-0.076055184,0.5673801,-0.50040686,0.1575545,0.18936354,0.7357752,-0.14266758,-0.10368899,0.38712412,0.7306774,0.12762049,-0.2520606,0.22503905,-0.16490409,-0.0927756,-0.75722945,-0.0026017977,0.9051449,0.20846936,0.23702577,-0.34623292,-0.13800742,-0.7166861,0.08422106,0.2363629,-0.7535391,-0.53674823,0.40042722,0.57356995,1.0491476,-0.5307347,-0.10586051,-0.122299336,-0.3395231,0.34735066,0.054859687,0.12254602,-0.5622463,-0.46309805,0.7819742,0.8601107,0.11444271,-0.5616009,-0.15872529,-0.1665215,-0.124876015,-0.24476002,-0.08079054,-0.21125539,-0.42066512,-0.021254158,0.5486303,0.21922378,-0.54748243,-0.92131215,-0.20238249,0.30563325,-0.2060856,-1.0510466,0.23146017,0.13243431,0.034177646,0.17574723,-0.16718009,-0.5647197,0.059854213,-0.15025027,0.1751998,0.20819943,-0.47349155,0.72241837,0.53956026,-0.24372885
-0.14759055,0.11386452,-0.21572743,-0.36132142,-0.0014401454,0.39183915,0.35164115,0.28605333,-0.1612086,0.25353688,-0.03562972,0.043499,0.22504458,0.024854083,0.18143277,-0.07661032,0.024026584,0.82483685,0.1669217,0.1817463,-0.16295458,0.17748533,0.14414142,-0.6377682,0.42053503,-0.24107085,0.43378863,0.18268014,0.07985268,0.008525189,-0.03594527,-0.28993675,0.67254704,0.15447016,-0.028485734,0.099247426,-0.18119612,-0.7048159,0.04684899,-0.33984435,0.30822173,-0.28990042,-0.06161914,-0.86914736,0.6280361,0.19888233,-0.6864971,0.25285515,-0.31284395,-0.15653059,-0.04833309,0.025347026,-0.46297622,-0.72783196,0.16865188,-0.061153192,-0.1286924,0.067177996,-0.07539304,0.23173888,0.07253532,0.23441441,-0.015749505,0.11015009,-0.09442511,-0.032715045,0.5193347,-0.09244337,-0.74665666,-0.89022446,-0.26940516,0.32619873,-0.2433375,0.55172706,-0.05196256,-0.16690293,0.10980228,-0.70627916,-0.6368977,0.548496,-0.4450851,-0.17724691,0.36016712,-0.46358538,0.44116893,0.17777905,0.25586605,0.63748455,-0.5522135,0.5320717,-0.52716255,-0.030960325,0.08253648,0.15701982,0.5591341,0.98134845,0.24100527,-0.27504107,0.33299258,-0.629391,-1.0837648,0.3146951,-0.0947341,0.37237746,-0.7048538,-0.073271535,-0.08920127,0.43780315,-0.15584873,-0.7299809,-0.32321683,0.027998159,0.81202364,0.8864584,0.025773128,-0.19909348,-0.13430172,-0.13429579,0.66966254,0.33972302,-0.4563869,-0.14874323,-0.29809582,0.5946062,-0.0019528925,-0.3252107,-0.031445786,-0.2041404,0.31986824,-0.14928605,-0.19770642,0.014436685,0.00015828565,-0.044890396,-0.017296242,0.3482642,0.19699153,0.35200512,-0.10408724,0.34178615,0.39129612,-0.4268771,0.3309597,0.1482656,0.21503976,0.05074594,-0.08859687,-0.14080647,0.32402617,0.09794859,-0.12394246,-0.19391583,0.4547507,0.06628346,-0.47508162,0.15869613,-0.27652347,0.5197151,-0.43830755,0.38680115,0.0021117583,0.1189786,0.32424027,-0.28408,0.10336745,0.1467218,0.35786676,0.049723774,-0.13990185,0.093585566,-0.23473248,0.08344193,0.4521263,-0.5927896,-0.52059907,-0.11773563,0.019684771,0.08692884,0.42960903,-0.051840164,0.70010257,-0.38023135,0.43996283,0.10110456,0.32061714,-0.001770931,-0.09287092,0.47366923,0.12769067,-0.21459627,-0.08256662,0.73366386,0.043035645,0.32090908,-0.28836402,0.1910327,-0.5209571,-0.14735468,-1.0416818,0.09726775,0.44802383,-0.21114081,0.5194867,-0.13112895,-0.19740921,-0.72505945,0.19665839,0.7832568,-0.47966012,-0.8376671,-0.28363132,0.16727374,0.22326115,-0.38009003,-0.1914064,-0.25739178,0.78001994,0.4960659,-0.27682918,-0.058429386,-0.08701154,0.17136425,0.3014575,0.36434773,-0.08538721,-0.760851,0.17183025,0.033358812,-0.014594086,0.24773231,0.20039006,-0.2636187,-0.53363633,-0.25461838,0.58742315,-0.2983034,-0.36056054,-0.6207446,0.44331723,0.394808,-0.5912847,-0.8033089,0.6338055,0.23889028,0.5249796,0.026452556,-0.116714545,0.09908902,-0.6148772,0.2857383,0.16358681,0.0799977,-0.016531028,0.71207255,0.40223265,-0.075470686
0.019480592,-0.21532506,-0.14763345,-0.6799555,-0.2215202,-0.2872146,0.36283448,0.5136957,-0.29221743,0.7285778,-0.13950503,0.08280167,0.2737613,0.06252501,0.1449724,0.007983867,0.19814916,0.09879429,-0.34985098,0.3092384,0.026821554,0.400944,-0.0071811797,0.00038440595,-0.5053678,0.005311526,-0.0702494,0.24806854,0.32131273,0.12939002,-0.15557483,-0.6385306,0.27389976,-0.3618241,0.12300271,-0.5427466,0.14527723,-0.0858242,0.085701175,-0.064100526,0.10518642,-0.00075644336,-0.047929373,0.19579507,0.2332175,0.15221581,0.044392142,0.018926213,-0.5328837,0.5327388,0.050979868,0.28529206,0.04014884,-0.053809106,-0.032771617,-0.0076635582,-0.9973113,0.025013683,-0.084638625,0.40518498,0.41851375,-0.37639907,-0.046333656,0.18455915,0.18540296,0.06504332,0.1772713,-0.30008322,-0.8561667,-0.25588182,0.30877766,0.17454626,-0.42185652,0.42888975,-0.07779663,0.017577732,0.23353261,-0.19695812,0.14678021,-0.47391686,-0.70524716,0.33000138,-0.04061439,0.7388054,0.4824951,-0.13327543,-0.009814344,-0.20435868,0.3429751,0.51691127,-0.5758634,-0.5411238,-0.43869883,-0.4002622,0.1629203,0.14069588,-0.3793653,-0.29152724,0.015867792,0.21420395,0.06873742,0.6507232,0.1296275,0.35674623,-0.22626558,-0.27403465,-0.07128672,0.27526462,0.46571368,-0.1616028,-0.005495911,-0.035454888,0.022603761,0.11963199,-0.49670312,0.71632934,-0.39697692,0.22540689,0.0017314468,-0.24831116,-0.45246238,-0.37921098,0.09480043,0.3635338,-0.26169086,-0.21321116,-0.2314904,0.31856033,-0.2291587,0.010380623,-0.35512024,-0.13662764,0.7784584,0.5112228,0.3231493,-0.03605083,0.04781391,-0.4056052,-0.72035015,0.34608376,0.30697906,-0.11056489,0.36071885,-0.41164887,0.2721021,-0.3588323,-0.18837228,-0.15973428,-0.027075298,-0.60274655,0.9604777,-0.5992089,1.03741,0.28453484,-0.081692755,0.6280933,0.22107507,0.93942493,-0.308247,-0.056043923,-0.049446777,-0.36062443,-0.02361413,-0.07334093,0.08939283,0.39534348,-0.25006315,0.03889789,0.6706335,0.23654118,-0.516235,-0.12961203,0.40084055,-0.6139246,-0.30014813,-0.20431928,0.26347435,0.48810992,0.13942842,-0.4587601,0.5435075,0.029922208,-0.8121765,0.37348145,0.13906206,0.60851586,-0.15563652,0.19988745,0.121988975,-0.05261159,0.12115147,-0.056640055,-0.03565133,0.34177625,-0.53377634,0.27406245,0.119287424,0.19637229,-0.15572242,-0.24402814,0.5442599,0.030976105,-0.07678225,0.54682755,-0.5921706,-0.052982982,-0.12147606,0.64601386,-0.047922507,-0.07171289,0.21586335,0.040308412,0.73314244,0.27030802,0.012783734,-0.16787569,0.1969653,-0.097757496,-0.13646823,-0.33766606,-0.3267398,-0.088381596,0.15404136,0.16563445,0.39411893,-0.2038925,0.04768849,-0.15866835,0.66704816,-0.24459004,-0.2688206,0.2650789,-0.11162764,0.02888854,-0.27578893,0.17958494,0.095947474,-0.1739111,0.6712182,-0.18197614,0.46200785,-0.6894232,-0.3171249,0.06424012,0.21309237,0.2540493,0.14302878,-0.29498616,-0.18534145,-0.8460891,0.00031162487,0.18370648,-0.41177884,-0.12812898,-0.06804327,-0.31231046
-0.43436638,0.35842252,0.09837401,0.49436906,0.09637562,0.16317876,-0.16611962,0.11364772,0.13596046,0.22607864,0.04230038,0.25564998,0.13892397,0.13307695,-0.27501118,-0.3003481,-0.5322946,0.061885584,-0.43409818,-0.059259713,0.21619223,-0.29612848,0.52180815,-0.33248293,-0.1687304,-0.3060282,0.47363302,-0.49614808,-0.055075075,-0.46989956,-0.19326018,0.24605615,-0.0045027332,0.07005493,-0.3896023,0.07626758,-0.23827998,-0.07977163,-0.10348219,0.3267915,0.22072092,0.07307677,-0.20963421,-0.2678303,-0.4538747,-0.25572738,-0.17551887,-0.16414523,-0.14298177,0.34306997,0.6223812,-0.32256716,0.061113365,0.024148533,-0.060201183,0.0017225917,0.46744934,-0.5892976,-0.06966117,-0.059512902,-0.19685656,0.16406469,0.33736017,-0.7110099,-0.061078183,-0.04295261,0.3399625,-0.1785654,0.09641311,-0.21616472,0.09614802,-0.025857816,-0.57102823,0.32246765,-0.038664944,-0.5545768,-0.46917686,-0.25243068,-0.139168,-0.34683403,0.042818535,0.20722719,0.31778583,-0.31629965,-0.16212688,0.0028137092,-0.65316975,0.28212637,-0.01852023,0.3443964,-0.064699076,0.5638861,-0.017574111,0.16632004,0.10305576,-0.300432,-0.1320672,0.14999303,0.08278844,-0.23216373,0.042437386,-0.0032255137,0.1801637,-0.531393,-0.54615754,0.43989885,0.041152786,0.43145388,-0.10405259,-0.020664819,-0.32967958,-0.3656732,-0.17166005,0.4342058,0.115134574,-0.06795003,0.6329323,-0.14641365,0.29176462,-0.1141671,0.48409364,0.51456696,-0.15692946,0.011658148,0.076016515,0.31260318,-0.025406001,0.5347151,0.3874539,0.29442024,-0.0042601796,0.116120055,-0.30733585,-0.07595314,-0.3118805,-0.25972363,0.11263038,0.20981689,0.2365012,-0.3714357,0.39672473,0.063116685,0.50163364,0.56107867,0.14543921,0.70467204,0.43921655,-0.07647105,0.17531899,0.17239714,0.15347853,0.28014517,-0.038980775,0.1166357,-0.7307772,-0.44299978,-0.2717368,0.2503097,0.38822225,0.115543224,0.14446978,0.1703079,0.32574198,0.19403313,-0.06998677,-0.54942507,-0.57681435,-0.08106534,-0.7586229,0.2737624,0.4740122,-0.10842715,0.2117472,0.2490691,0.12822565,0.3899729,-0.5078056,-0.53949237,0.45418385,0.13738587,0.28609544,0.5848176,0.17386009,0.43518522,-0.19045906,-0.12982823,-0.14270724,-0.42564672,0.296858,0.98351943,-0.16903308,0.35676056,-0.03963347,-0.09819612,-0.29928562,-0.132908,-0.064092174,0.120882556,0.26844785,0.10134936,0.05846183,0.17707758,0.058591954,-0.10542615,0.007753177,-0.02083509,0.58907723,0.20601985,0.21974398,-0.28460178,-0.30522192,0.009562571,0.084048435,0.31704286,0.030479169,0.16337909,-0.2998045,0.30153736,-0.12925255,-0.31361505,-0.3181044,-0.2940056,-0.015653696,0.10826222,0.053659964,-0.3668155,-0.07560543,0.36701405,-0.44320405,-0.11557907,-0.4073545,0.12903279,-0.29913104,0.21933082,0.29985714,0.11880018,-0.08906178,-0.41208625,0.03680408,-0.20185581,-0.18019657,-0.15459424,-0.20642234,-0.33110443,-0.06175073,0.1741424,-0.18110114,-0.25375262,0.34801942,0.13826047,-0.20670056,-0.06310355,0.1609837,0.20272154,0.5210693,0.25374356
-0.631282,-0.25301486,0.16243467,0.26544276,-0.037684426,-0.08305361,-0.00475949,0.60392016,-0.099744655,-0.65608567,0.38467178,-0.23334514,-0.4901071,0.010284513,-0.69689745,0.20584689,-0.27409786,-0.16316923,-0.4180876,-0.024007013,-0.015482088,0.029484078,-0.16122122,0.08367599,-0.44777378,-0.014839743,0.6773494,-0.28227705,0.41419655,-0.5158419,-0.4016208,0.68135643,0.21303904,-0.4596231,-0.14766711,-0.120564856,-1.1261877,0.7587283,0.14566992,0.34712955,0.19110227,0.43177876,-0.5754002,0.077113174,-0.43320692,0.2213348,-0.019217951,0.22529404,0.41141918,0.42056975,-0.1644148,-1.429029,0.36389166,0.841273,0.028572908,1.1195648,-0.9339789,-0.6428066,0.37213102,0.24126746,-0.038173445,0.54658896,0.53130984,-0.0019204988,-0.032186877,-0.76706177,0.12228944,-0.09444052,0.1308019,0.087489545,-0.7867226,0.01124279,0.13407847,-0.027000366,0.27221116,-0.4552921,-0.19882439,-0.08041174,-0.22187853,-0.035917375,-0.40695557,0.89545035,0.15409033,-0.23116842,-0.07589851,0.47284257,-0.47347018,-0.08601873,0.23477995,0.33743855,-0.07213498,0.01493091,0.984664,0.5030945,0.047699846,-0.16379246,1.5994099,-0.013748161,-0.32363293,0.1964229,0.47619075,-0.28868052,-0.8916419,-0.4183442,-0.15366691,-0.80265874,0.26714122,-0.7502067,0.4863218,-0.24954441,0.4657592,-0.8522151,-0.5650637,-0.53739506,0.65284103,-1.2327567,-0.24365282,-0.098984234,0.026853481,-0.5860391,0.19601713,0.19401072,0.10178817,-0.85721034,-0.49371368,0.58058524,0.8882271,-0.48333278,0.38673463,-0.15859182,0.6677035,0.1626006,0.41199434,-0.6796277,-0.20654757,-0.0027489213,-0.44789976,0.027794765,-0.0968503,0.10730547,0.34183517,0.121868,0.64216,0.26957032,0.94163096,-0.054378558,0.050546058,0.14014852,-0.35471472,0.69508064,-0.6979482,-0.570131,-0.69440997,0.037268706,-1.1451299,0.45262852,0.79435825,0.7784102,0.27631393,-0.5268872,-0.4689252,0.35753363,-0.40944245,0.5765438,0.0004269005,0.12620686,-0.71099275,-0.8031645,1.3256911,-0.45989874,1.4240043,-0.3733379,0.38373587,0.44351533,0.12269714,0.08561028,-0.5042899,0.16011463,0.21577561,-0.2883241,-0.19896716,0.19987087,0.06419144,-0.19958799,0.74516636,0.43516672,0.66321295,-0.46042445,-1.1907089,-0.14602566,-0.9678796,-0.4570069,0.09666689,-0.42485458,-0.6422632,-0.8348891,0.14670052,0.6396171,-0.19711049,0.76390684,-0.0662317,0.22491336,-0.006097247,-0.20377554,0.8974143,-0.049047913,0.0032289035,0.20081802,0.21452172,0.071719795,0.7391322,-1.1267538,-0.5028531,0.14128286,1.3498967,0.35765833,-0.4466446,0.7586113,0.0021694945,1.1508601,0.24360229,-0.11917061,0.53079087,-0.5733105,0.09487057,0.25705147,0.05973814,-0.40823838,-0.20643108,0.61322254,0.4736947,0.23062347,0.005884949,0.45522037,-0.53724045,0.039395526,-0.41714236,-0.73147315,0.9956023,-0.73923457,0.19009458,0.54981595,0.07809002,-1.0361168,-1.2891027,-0.75324965,0.1276931,-0.7031788,-0.41906115,0.79334104,-1.3780807,-0.39849776,-0.142702,-0.10890391,0.5450845,0.4140287
0.05364204,-0.22706562,0.30939493,0.46661657,0.72927827,0.19552942,-0.61145353,0.018435515,-0.68015045,0.16914974,0.34859172,-0.6231223,-0.28150922,0.119053945,0.38388756,0.043586247,-0.63413,-0.013528992,-0.21697073,0.15513311,-0.2929151,0.26159462,-0.47856784,0.9471128,0.24205384,-0.013728242,0.4334533,-0.5473148,-0.80893576,-0.5207128,-0.31935775,0.6171119,-0.33209595,0.33525398,-0.16340244,-0.69606364,-0.25489703,0.22859912,0.14321466,0.3296823,-0.08941962,-0.4683812,-0.71860105,-0.0008101505,-0.5902101,-0.16911134,-0.26228267,0.42881298,-0.2181226,-0.72423667,0.0075446153,-0.5889546,0.062200617,0.33962524,0.08929305,0.4751749,-0.05156909,-0.35357434,1.1638132,-0.7199839,0.4161309,1.0359495,0.372296,-0.66209185,-0.49034157,-0.21349598,0.236293,0.17469944,-0.552455,0.6223606,0.3576577,0.027351666,0.3640817,-0.42825633,0.383328,-0.6546273,-0.028686179,-0.11525788,0.30309555,-0.37553683,0.2819982,-0.09539131,0.35184738,-0.16608278,-0.066562064,0.43787828,-0.36650366,0.008579246,0.18687248,0.32911634,0.2265886,0.29997018,0.24682538,0.6274194,-0.08333411,-0.3984408,0.49484885,-0.35998932,-0.20349762,-0.032953583,0.40382317,-0.79624754,0.16632034,-1.1249967,-0.025834754,0.1548347,-0.03645939,0.20489804,0.06623475,0.019666472,0.25441322,-0.4420387,0.16832979,-0.5668122,0.10062756,-1.1778985,-0.22186221,-0.009506135,0.06436943,-0.5369064,-0.13678266,0.36346585,0.04649529,-0.19807914,0.87976766,0.72743535,0.79236877,0.5354931,0.8856284,-0.10123354,0.3448375,-0.45813236,-0.33895332,-0.5631387,-0.6623389,0.7041681,-0.025297865,-0.11293519,0.51340574,0.12094103,-0.31123707,0.52898985,-0.68829423,0.23165745,0.16750018,1.0457661,1.1654502,1.0745282,0.17433283,0.49048573,-0.16508107,0.25839853,-0.5420684,-0.31291237,-0.3901712,-0.90280205,0.24720153,-0.18562584,-0.15261288,-0.45173112,0.36218098,0.20256674,1.0628998,0.13411662,-0.23761755,-0.6758917,0.22596309,0.14719777,0.4252636,-1.330301,0.56083876,-0.27916217,0.30282578,-0.35935447,-0.012269406,0.16033971,0.49556872,-0.07847038,-0.23164238,0.6026119,-0.4619902,0.25625783,-0.7120672,-0.51331365,0.5341735,0.4817623,0.5800463,-0.94178265,-0.22019397,-0.062955365,-1.0179577,-0.02411062,0.11743791,-0.45506662,-0.30167326,-0.19419312,-0.8093218,0.5379003,-0.26772842,1.0774041,-0.42737117,0.48879534,0.107201666,-0.526902,-0.30231157,0.21066482,1.3810059,-0.2846278,-0.11300868,-0.2702085,0.048783585,-0.55966854,-0.632325,0.23797862,0.7601637,0.07107145,0.19899096,0.8248268,0.055033788,0.977138,-0.09355709,0.5019224,-0.22640304,0.04871667,-1.0018648,0.6291799,-0.45975655,-0.41047257,-0.58199465,-0.25584036,0.31586644,-0.8277155,0.102596186,0.58563036,-0.03398892,-0.008037958,-0.9369479,-0.093198694,-0.3692436,-0.2019941,-1.5765718,0.4695715,-0.44594482,-0.3252309,-0.4046285,-0.35869393,-0.042508353,-0.44994622,0.0028527784,-0.77783567,-0.75414854,-0.5823558,0.117144726,0.05170392,0.8930435,0.70576674
-0.45548525,0.24311766,-0.10830123,0.17403245,-0.18557154,0.11520494,0.2234486,0.55028903,-0.21728718,0.37461492,0.16024528,0.7758759,0.35779205,-0.32746553,-0.008875778,-0.20540889,0.2269865,0.5162869,0.48975092,0.13439153,-0.12850794,0.12778644,0.34300306,0.112907834,-0.19410022,-0.13820778,0.28479815,0.5113938,0.20307659,0.2658655,-0.2585109,-0.06702703,0.21835944,-0.70263976,0.039405495,-0.5335038,-0.08438122,-0.6393302,-0.018491117,0.23915155,0.178612,0.41280288,0.019953726,-0.21060497,0.09098776,0.012166188,-0.4230543,0.25066644,0.29587787,-0.09915729,0.33767796,-0.3604922,-0.027885588,0.27066895,0.14161989,0.062325913,-0.45333573,0.12138654,-0.4013127,1.1108767,-0.20239565,-0.048372936,-0.111338064,0.26457962,-0.10829381,0.11585021,0.552384,0.015076516,-0.40042531,-0.8024668,-0.17337754,0.76644963,-0.20990995,0.96503305,0.20220092,0.27158287,1.4194195,-0.34123558,-0.07302243,0.69226414,-0.8435534,0.34020025,0.14314084,-0.2522786,0.1560728,0.026915792,0.023262236,0.16583714,-0.2841618,0.19170167,-0.79837525,-0.23916253,-0.27665937,0.20737278,0.08111791,0.13728553,-0.20370913,-0.29846933,0.15873453,-0.37477294,0.39815885,-0.075667195,-0.22761133,0.4402869,-0.6731665,0.19440344,0.17496656,0.42600378,-0.027470376,-0.64244723,0.451625,-0.3707837,0.37350163,0.3708681,0.4914368,0.24353746,-0.037114773,-0.13506226,0.2622735,-0.1427729,-0.6118271,0.09233213,-0.094306774,0.5312117,-0.4558843,0.13011205,-0.01557374,-0.6477108,0.06945563,0.549229,-0.07997185,-0.10268069,0.20951436,0.2820512,0.30270675,0.0018284979,0.34678432,0.053960223,-0.03972848,0.1945676,-0.06720231,-0.40310657,-0.39455566,0.22394705,0.5183239,-0.010327257,-0.117950946,0.13519192,-0.26053694,-0.12863807,-0.2580716,-0.30396807,-0.1238315,0.19619876,-0.60891366,0.8122089,0.4046178,0.58433914,-0.06471009,-0.46393412,0.3795153,0.32594207,-0.06297777,-0.45849243,0.4538109,0.527643,-0.07074817,0.12119358,-0.20579202,0.018170843,-0.26672953,-0.47368285,0.31451288,-0.139819,0.029037632,0.11573939,-0.057562515,0.3764062,-0.096268505,-0.3590926,0.5873139,-0.6441139,0.48398155,0.0893911,0.37561426,-0.27410486,0.338149,0.7138202,-0.31354487,-0.4098523,-0.15497668,0.25166622,-0.1980453,0.0340959,-0.27169302,-0.407244,0.0195302,0.018354338,-0.4210337,0.23637705,0.67370903,-0.3586345,0.46021482,-0.29662353,0.061148945,-0.22484683,0.07560742,-0.1490172,0.39060315,-0.4018211,0.33630294,-0.47445986,0.032736048,-0.053343475,0.32534242,-0.17256752,0.009169214,0.41417742,-0.23581755,0.14588898,-0.1716173,-0.5204187,0.4675107,0.31353387,0.49666518,-0.7135217,0.06589484,-0.30138385,0.05511549,0.1744041,0.51850516,-0.17133701,-0.07459471,0.15515198,0.22684045,-0.5520611,-0.2632866,-0.632601,0.72479033,0.41784996,-0.425463,-0.6364232,0.12938003,-0.12433102,-0.18253179,0.33508635,-0.06115528,-0.29105383,-0.044325877,0.37229908,-0.23121701,0.28269598,-0.32213792,0.24056645,0.3780681,0.23709956
-0.42904416,-0.55234444,0.6498335,0.6950768,0.15011613,-0.0065496205,-0.3647736,0.6664168,-0.45123926,-0.55117,-0.070173465,-0.9501678,-0.15728018,0.09721077,0.4126639,0.23633324,-0.67264456,-0.029397009,-0.22298944,0.18343598,-0.18723205,0.28995076,-0.6924988,-0.00023873175,-0.7116902,0.05586224,0.8477555,-0.28656986,-0.70863986,0.13102664,0.46024087,0.69783926,-0.06937211,-0.19824448,0.24367946,-0.023206256,-0.46117875,0.40080568,0.028388986,0.12643236,0.3874671,-0.10419849,-0.64894843,-0.2966834,-0.10134112,0.10893576,-0.04232335,0.36228198,-0.16708367,0.29620582,-1.1004786,-0.33268088,0.11591166,0.41313905,0.14501771,0.7697627,0.11305642,0.17242433,0.7682154,-0.7102044,0.7398193,1.026326,0.13852881,-0.8516534,-0.43569735,-0.49207622,0.6006957,-0.016422907,-0.24218117,1.0744209,0.045338895,-0.3659247,0.27149442,-1.0264469,0.1860699,-0.9001757,-0.19801112,-0.20193106,0.18339592,-0.11926067,-0.36916673,-0.62928444,0.80204034,0.19847062,0.10147247,0.348749,-0.7573942,-0.41135845,0.122888535,-0.08394162,0.31992832,0.23358375,0.76015186,0.36341,0.045152012,0.09493491,0.5331509,-0.59698844,-0.18759978,0.08984175,0.052972805,-1.0453465,0.3487745,-0.8531756,-0.29669785,-0.30083737,-0.8261769,-0.18057822,0.69687796,-0.07406967,-0.11452784,-0.38322935,-0.08230951,-0.34612703,0.07248598,-0.5579269,0.1791402,-0.4177386,-0.020813921,-0.17310664,1.050875,-0.010398146,-0.1519829,-0.4550461,-0.15848613,0.09897044,0.8093472,0.11162592,1.0409263,-0.4136069,0.29686463,-0.41754758,0.111414336,-0.14347698,0.026165554,0.03892632,-0.045494888,-0.13205257,0.5568286,0.34520167,0.9436165,0.5055963,-0.26805225,-0.33975595,0.31391922,0.61678547,0.83731824,0.9121301,-0.37499902,0.42534465,0.12400596,0.4251482,-0.764555,-0.033203326,-0.32413736,-0.6663864,0.577697,0.21021901,-0.1054987,-0.46568075,-0.109141916,0.42062375,0.7819825,0.543496,-0.66432685,-1.5510671,-0.11755602,-0.22223502,0.23017108,-0.77794194,-0.047407195,-0.6044107,-0.5217479,-0.029437372,0.08348368,-0.0807561,1.1251478,0.3595553,0.33691558,1.0204393,-0.07368088,0.6250346,-0.5161823,-0.5793508,0.06989967,0.22144543,0.35285118,-0.8698347,0.00020696185,0.99769664,-0.45304358,0.4689026,0.40840158,-0.6076431,-0.25654173,-1.0375992,-0.15133119,0.03368844,-0.07926452,0.53760624,0.08226189,0.36707503,0.3116922,-1.2122623,0.4873262,0.12562092,0.5421449,-0.42334813,-0.42725733,-0.12539665,0.11084487,-0.30576593,-1.0796354,0.16223948,0.814219,0.35030323,-0.37872443,0.47089043,0.22717291,0.5384525,-0.5198492,0.48483095,0.14257732,0.07469538,-0.5247204,0.27612373,-0.33093268,0.2882228,0.047493976,0.75037754,-0.025126325,-0.30585137,0.27806535,0.0776986,-0.13532054,-0.6310674,-0.7692426,-0.60579616,-0.30397016,-0.3640463,-0.57567817,0.2023701,-0.27101043,-0.9494576,-0.45145842,-0.60080266,0.10746246,0.17457122,-0.019942677,0.20535333,0.011117133,-0.379182,-0.013051352,0.34361988,0.32240224,0.619506
0.5898561,0.9607216,-0.51830214,-0.7785475,0.034774497,0.16345385,0.23958373,-0.38638964,-0.016338328,-0.029041626,0.039310295,-0.656554,0.37416804,0.17166044,0.16627295,-0.5027667,0.32340917,-0.003893013,0.3616611,-0.19857968,0.6742384,0.34406036,0.9090168,-0.06011563,0.3600601,0.15152906,-0.63018495,0.20259035,0.64542395,0.47451508,0.116524555,-0.32338893,0.12562053,-0.17584829,-0.095672555,0.6437184,-0.07161365,0.08024942,0.04653675,-0.19822142,-0.13171242,-0.37928304,-0.0052158255,-0.20408058,0.19795471,-0.014118865,-0.4222096,-0.74995065,-0.5742345,-0.19409226,0.14759083,0.0374774,-0.15677701,-0.5417129,0.19395599,-0.5438191,-0.11995004,1.1630608,-0.5093036,0.021943903,-0.33969843,-0.46877658,-0.8648202,0.15811193,0.894782,-0.5777521,0.27376142,-0.015365458,-0.2680316,-0.37098837,0.6758381,0.08094252,0.2793363,-0.29662022,0.11328141,0.13842773,-0.12014212,-0.20076856,-0.1989538,0.41212204,0.38311523,-0.53254426,-0.8403383,0.73842496,0.3166633,-0.7526355,0.07117362,0.18570268,-0.23667523,0.03242155,0.79703915,-0.17739944,-0.114882976,-0.4762247,0.34465963,0.77560264,-0.69217336,-0.273136,-0.060743257,0.16756214,-0.48772514,0.94449955,-0.045668084,0.24348381,0.4907405,0.7872388,0.5531426,-0.2314022,-0.1971784,0.5556911,-0.52053404,1.0611509,0.05463212,0.17919634,-0.259907,0.4261244,-0.19175369,0.44384837,0.20487121,0.08950047,-0.5530673,-0.7513906,0.016092725,0.014191875,-0.43848735,0.23677437,-0.55535746,-0.036972504,-0.34762692,-0.06609099,-0.9002536,0.42991647,-0.20062691,0.31504405,0.41861907,0.15370065,0.61694497,-0.14987856,-0.33777693,0.37144333,-0.23162058,-0.028690353,0.45121402,-0.42715505,-0.33739853,-0.37918422,-0.77385885,-0.8998846,0.80306214,-0.39759415,0.4425291,0.048297655,0.1472303,0.30644438,0.14813948,-0.02064271,-0.4465669,-0.11588702,0.28792197,-0.08692097,0.48877963,-0.712057,-0.6218474,-0.08163597,-0.13769749,0.16368087,0.80477893,-0.30006555,-0.38497168,0.6309503,-0.4680892,0.83987015,-0.05709269,-1.0548496,0.083239004,0.06415845,0.66082627,0.058363564,0.19161032,-0.34275416,0.3935179,-0.00349202,-0.16337882,-0.075998835,-0.49619204,0.12035682,-0.038224075,0.23107913,0.55196697,-0.24671027,0.6188158,-0.25669783,-0.11370777,0.42493683,-0.52516145,0.07948693,0.47449347,0.10595674,0.7362932,-0.28828177,-0.6069144,-0.005412866,0.067850485,0.15050848,-0.34202403,-0.83663905,-0.93383926,0.5707059,-0.7439494,-0.23006539,-0.28387317,0.667049,0.85184515,-0.06819055,-1.0685036,0.03047522,0.48751634,-0.88935983,-0.19188587,-0.9802101,0.012518582,-0.42663476,0.12331638,0.016245548,0.1194847,0.053843737,0.13425462,0.08312908,0.481223,-0.6403468,-0.2683793,0.4394207,-0.0931154,-1.1878878,-0.730923,-0.012685348,0.00933566,0.038149394,-0.29212093,0.39490363,-0.258085,-0.4282546,0.7985134,0.17628403,0.6250714,0.933568,-0.19381762,-0.053541485,-0.54231143,-0.41309395,0.82725716,0.35555974,-0.07398573,-0.0059413924,-0.31757078,-0.49100018
0.77947396,-0.45955324,-0.12034158,0.17962708,-0.52480406,0.31011128,-0.08219268,0.18623756,-0.25458065,-0.7822949,-0.22834596,0.30506542,-0.020894421,-0.20690486,-0.74969,-0.08944158,-0.45272774,0.2110774,-0.49365172,-0.48439586,0.06714331,0.49384025,0.8583913,-0.6125296,0.4911642,-0.54985976,0.06472523,-0.67273253,-0.08674862,0.42903236,-0.8684646,0.2889457,-0.25236145,0.19986679,-0.264524,-0.57402414,-0.31325352,-0.040624537,-0.28648573,-0.23958223,0.7276948,-0.42916518,0.33760327,-0.3681509,0.16088237,0.14088574,-0.012377253,0.1531837,0.47093,-0.6734597,0.28758386,-0.32646567,-0.09344623,0.14787811,0.55234486,0.88823754,-1.0660744,-0.38309732,-0.5780579,0.4090287,-0.87327695,-0.12821466,0.010658565,0.2570863,0.4044091,-0.49876982,0.7691173,0.32763237,-0.44066438,-0.22025281,1.4348636,-0.15498775,0.038724218,0.08570354,-0.20741732,0.42807806,-0.1854373,-0.25745353,-0.10230388,-0.43101355,-0.65756387,0.22117375,-0.20172162,-0.08071706,0.4716143,0.03899582,-0.095101215,0.028116168,-0.12664782,0.47768024,-0.3542359,-0.24010563,-0.0965354,0.09969022,0.49393213,-0.2607929,0.06484075,-0.19180995,0.10728358,0.037598565,0.13221146,0.021729331,-0.13077553,-0.37411422,-0.22585529,0.13872163,0.32441992,0.279395,0.10481837,0.23825185,0.074188605,0.110493995,-0.18348873,0.37883598,-0.27419385,-0.02160019,-0.2269492,-0.05400284,0.50337505,-0.30856198,-0.019677173,-0.38718164,-0.90281755,0.15006518,-0.5088174,-0.720093,0.10659216,-0.3387079,0.015289724,0.14922093,0.22701433,-0.12079233,0.12094173,-0.14280607,-0.732095,-0.2756951,0.04118032,0.38345996,-0.025604954,0.7553363,0.31926277,-1.1965774,1.0971045,-0.021855528,0.21682818,-0.20759311,0.11269894,-0.022819178,-0.16933812,0.3407345,-0.86490166,-0.4676167,0.043179445,-0.05062091,-1.2628291,0.31610963,0.03578414,0.81267005,-0.12974261,-0.9224107,0.2539026,0.19373061,0.004705132,0.0111775845,0.5394499,-0.032289006,-0.12861714,-0.6373833,0.29321787,-0.15845571,-0.35026923,-0.16316313,0.9348219,-0.75052094,0.14853495,-0.95586735,-0.59006697,-0.41346636,0.7158938,-0.4728156,0.45644125,-0.82735896,0.20782284,0.11576676,0.040168807,0.8697785,0.0891961,0.15327328,0.10486231,-0.69862264,-0.20791645,-0.21166328,-0.0012388495,0.017990064,0.00618675,-0.20978065,-0.0038810975,-0.06672695,0.15121415,0.38705438,0.056913283,-0.4091349,0.1929586,0.19184898,-0.3576055,-0.052753855,-0.14017144,-0.022509534,0.13321564,-0.33113307,-0.24089223,-0.008919273,-0.6867537,-0.1291905,0.2870924,0.16459844,0.23133822,0.09018673,-0.23291586,-0.13573667,0.010346778,0.0338208,0.33805957,-0.29459888,-0.14180578,-0.07624288,0.50001764,-0.10653807,1.3460637,-0.4774148,0.05500769,-0.13496447,-0.053649317,-0.42082712,-0.33942243,-0.5310683,0.1797454,-0.35369742,1.1290606,0.22074428,-0.6680945,-0.39942944,0.08737554,-0.15333667,0.31836158,-0.13348742,-0.44160503,-0.3786704,0.03166341,0.5602438,0.40588877,-0.030828934,-0.57258373,0.8095349,0.20147279,-0.0022587352
-0.27865556,-0.61444914,-0.6051495,0.07080272,-0.02773062,0.49457282,0.7154456,0.40963948,-0.7677669,-0.64233184,-0.5755084,0.5625081,0.11989071,-0.10683052,-0.016478598,-0.119390674,0.39037916,0.8017265,0.31817377,-0.018214816,-0.12173438,0.27878878,0.6682226,-0.641505,0.0183006,-0.80033666,0.27858898,0.36768633,0.11487485,0.36295578,0.2407027,-0.24353193,1.0357872,0.22268151,-0.06774011,-1.1236984,0.120927185,0.07757532,-0.041978355,-0.52306443,0.2774546,-0.055195946,0.14869845,-0.26361752,0.4657548,0.72676027,-0.034156002,-0.09521268,0.10333883,-0.8262829,0.20265764,-0.03423834,-0.35710025,0.059583247,0.49606636,-0.06729494,-0.36364603,-0.042526208,0.33716398,0.49891704,-0.1681718,0.07378543,-0.6370259,0.4313947,0.2296342,0.22690074,0.16073227,0.07093189,-0.6336489,-0.440329,0.03799785,0.29171926,-0.43803295,-0.38407868,-0.1265562,0.046485864,0.093949005,-0.67979884,-0.18293335,0.21219453,-0.2173022,0.05501998,0.13828588,-0.19143178,-0.4514589,-0.07178396,0.052240305,-0.36535445,0.010820751,0.4690248,-0.13093804,-0.6056625,-0.4919501,0.37589929,0.4441862,0.20648086,-0.2892413,-0.11140512,0.09042106,0.3080302,0.10068701,-0.6064155,-0.1967233,-0.13062182,-0.39204141,0.082251005,-0.00017641627,-0.326533,0.13919225,-0.58160114,0.002642366,-0.34884584,-0.30363017,-0.023375617,0.49310663,-0.14833577,-0.044706747,0.17572184,0.5233738,0.44275266,-0.3363013,0.3001717,-0.31812716,0.20876238,0.03951389,-0.11807413,0.31377345,0.05862159,-0.005039701,0.19400422,-0.3476038,0.19705825,-0.17556064,0.108208165,0.18598944,-0.25416252,0.23636413,0.45229736,-0.067536466,0.5424905,0.30284092,-1.262241,0.050078224,-0.19699928,0.2849155,-0.6790201,0.09014656,0.24641831,-0.102042645,-0.22723608,-1.0769674,-0.55413467,-0.44882622,0.21979903,-0.78370756,0.2998241,-0.3164959,0.94422203,-0.72034645,-0.45183563,0.6486789,0.033613637,-0.49380335,-0.27602637,-0.24526753,-0.09839894,-0.0036466597,0.38284916,-0.13269675,-0.119797066,-0.08362222,0.17620084,0.33145642,0.38069424,-0.56412244,0.07309369,0.08124804,-0.077984914,0.7990956,-0.002597395,0.52943194,-0.24662282,0.09992366,-0.21661496,0.48834237,0.46320677,-0.37674704,0.55571806,0.042952478,0.10970991,-0.20214751,0.28346688,-0.060741596,0.8096361,-0.216114,0.21869367,-0.117747955,-0.29872602,-0.2680432,0.32365906,0.6081697,-0.4525313,0.07656095,-0.33595935,-0.30387142,-0.28962687,-0.41385084,-0.21471332,0.21350308,-0.350208,-0.5199254,0.28883764,-0.002143677,0.0022526728,0.37881562,-0.07452802,-0.020873288,0.5729441,-0.34796977,0.10987426,-0.11071293,-0.22251366,0.72437924,-0.4857221,0.4513132,-0.06450003,0.48455983,0.083508424,0.44717386,0.054346547,-0.022969492,-0.040583562,-0.05209381,0.3428638,0.19246134,0.66476786,-0.49185103,-0.78965527,0.5033844,0.5222218,-0.0010556995,-0.43839958,0.4430418,0.44037327,-0.47086295,0.35669574,-0.56496066,-0.12211294,-0.15913744,0.18686087,0.7331764,0.26924893,-0.14079812,0.23886289,0.27251717,0.22494483
-0.22891569,-0.3647633,-0.74040633,0.15034185,0.2549073,0.14480163,0.52616966,0.5710451,-0.69453317,-0.52113473,-0.28178537,0.101660304,-0.37397552,-0.4261288,-0.17738153,-0.73013467,0.44807616,0.83365977,0.8288827,0.3479482,0.1407019,0.20445138,0.45836085,-0.062533975,0.09890357,0.04063596,0.13253005,0.062089786,-0.68269235,0.18077105,0.121730804,0.15411904,0.1421795,0.501783,0.17103969,-0.033700254,0.16889022,-0.27739704,0.051349614,-0.41590792,0.793033,-0.077015616,0.38140488,-0.20543201,0.5861354,0.19280285,-0.36183196,-0.056106176,-0.24734698,-0.4547941,0.13693172,-0.39425716,-0.35368457,0.52642006,0.056812756,0.46891794,-0.35877022,0.25593564,0.35024992,0.4539453,-0.19469194,0.09740963,-0.020652799,-0.0687863,-0.38987905,-0.109056935,1.0027713,-0.002225452,-1.175719,-0.6849935,-0.25070915,-0.16624872,-0.1963477,-0.15922087,-0.25233397,0.18887746,-0.0012575141,-0.10114564,0.100318775,0.063227184,-0.8159533,0.19294426,0.02030721,0.043974742,-0.18275085,0.090918854,-0.22303596,-0.34724325,0.4497671,0.16933937,-0.11108581,-0.21217933,0.3153216,-0.002107601,0.76875925,-0.10200817,-0.09876149,0.07233762,-0.04726718,0.31005588,0.28286758,-0.49087486,-0.29729927,-0.42990524,-0.4002239,0.46567354,0.3469343,-0.7495969,0.42586488,-0.57128376,0.22394693,0.0077583003,0.22642705,0.6061427,-0.14181992,-0.36407426,-0.2573953,-0.12309435,0.08956482,-0.05854884,-0.2778515,-0.17569357,-0.3199166,0.32368279,-0.33193496,0.1254937,0.102808505,0.3638542,-0.0052076173,0.20472692,0.016789863,0.14338051,0.18209815,-0.43694183,-0.006740449,-0.0040771826,-0.45058727,0.17664076,-0.1943705,1.6783729,0.38045937,0.10956964,-0.04269551,0.29869324,0.17041063,-0.19624083,-0.058641326,0.3408288,-0.20269075,0.24640316,-1.5930685,-0.6093601,0.068007484,-0.24159288,-0.08602608,0.61340135,0.35825926,0.83572257,-0.5313083,-0.48837247,0.31120893,0.15998042,-0.02214402,-0.4486103,-0.15888065,0.21842623,-0.12116953,0.06799226,0.43530047,-0.19951428,-0.44693968,0.14638008,0.0623572,0.33534908,-0.86634713,-0.7327618,-0.48736906,0.23016414,0.45738167,0.13035534,0.7402391,-0.17271525,0.0009626866,-0.2850028,0.034279622,0.44838122,-0.5637763,0.4237948,-0.5314323,0.094320856,-0.08052197,0.52608055,0.049688067,0.16204652,0.15986711,-0.08159558,0.34580958,-0.42360884,-0.8154648,0.29970458,0.6949934,-0.21653423,0.39727497,-0.38116997,-0.036517937,0.19723204,0.08238226,-0.19029419,0.63818175,-0.066437855,-0.1604986,0.055797573,-0.027074251,0.0911217,0.3536843,0.14352974,0.16468634,0.26235145,-0.60180724,0.54568976,-0.49399534,0.19974047,0.58081067,-0.08691321,0.04793237,0.10017103,0.25060305,-0.15780076,0.1129527,0.049831863,0.3493533,0.44425848,-0.42298418,0.45870867,0.50484985,1.0087618,-0.38595295,-0.545921,0.7248768,0.2639621,-0.045158602,-0.4543817,0.60222256,0.11679472,-0.3002793,-0.13752171,-0.018570822,-0.2567809,-0.4862882,0.8279228,0.34242898,-0.31972107,0.013583873,0.36400855,0.07460303,-0.035076886
-0.037497103,-0.1585024,-0.23734997,-0.07348893,-0.0736188,0.33021486,0.10445263,-0.081697784,0.0031109795,0.08452055,0.17964886,-0.35167104,0.47740948,0.104271285,0.06667512,-0.18797207,-0.3970851,0.35140058,0.06025389,-0.7640659,-0.095643684,0.18430789,-0.27021664,-0.37605897,0.29055265,-0.261022,0.23787996,-0.33490273,0.037495255,-0.27836555,-0.080260925,0.6092946,-0.31427506,-0.4908982,-0.03269478,0.0069615142,-0.24567878,-0.3995999,-0.22359842,0.039345987,-0.101262696,-0.2805342,-0.62680745,-0.2910462,-0.1040046,0.15154894,-0.35329807,-0.25780076,0.16041654,-0.14113578,-0.2756372,-0.5330972,-0.36132205,0.031387046,0.14139393,0.6165824,-0.2372979,-0.048242364,0.5336903,-0.5934084,0.4222813,0.4607891,0.0638121,-0.7495048,0.40333703,-0.3035656,-0.45263052,0.085716516,0.13000157,0.024623375,-0.06539652,0.33041707,0.74567413,-0.8874162,0.5167479,-0.567095,-0.21621689,-0.2964707,-0.22097097,-0.29442367,-0.04338139,-0.5196152,0.25668612,-0.54346555,-0.34660897,-0.008087242,-0.37459636,0.08417019,-0.2746181,0.70679194,0.17844167,-0.42923394,0.501192,0.037994463,0.1187232,0.053013496,0.1319073,-0.20389831,0.28916666,-0.16987957,-0.1567115,-0.29204044,-0.17400846,-0.69112337,-0.3973663,0.15170215,-0.036030184,-0.07671275,-0.40053877,0.123351686,0.017333575,-0.28714603,0.23335661,-0.11968253,0.15091917,-0.051940072,-0.09546065,0.16994336,0.12581573,-0.6047265,0.24832714,-0.50207585,-0.34417307,0.43138474,-0.026478345,-0.19467264,0.06330907,0.3980464,0.43643862,-0.39634702,-0.019904658,0.18561815,-0.30349785,-0.6658767,-0.74442333,-0.31834152,0.09217302,0.2530737,-0.24750851,0.5161567,0.046152398,0.6218942,-0.17923276,0.030885175,0.30497557,-0.3329132,0.16804668,0.23914526,0.39836007,0.28830567,-0.37471804,0.17115784,-0.6830147,0.05891566,0.39605322,0.30767578,0.52550095,0.48994365,0.30379722,-0.036114793,0.35533193,0.31932956,0.5570017,-0.17324716,-0.21273313,-0.10575336,-0.07494477,-0.0002510022,-0.13284487,-0.5623135,-0.14687493,-0.22495134,0.21139924,-0.25118336,-0.29598045,0.10275631,-0.34429824,-0.2542172,0.1678162,-0.06694816,0.6318346,0.4260769,-0.24275646,0.2919088,-0.18159099,0.04094515,0.26570764,-0.42085737,0.08379702,-0.0007678223,-0.4579566,-0.07701815,0.040362503,0.110408925,0.010955963,-0.22801216,0.19156666,-0.33787602,0.48631075,0.31047198,-0.12341159,0.38082987,-0.007603813,0.2721971,0.17807491,0.15335117,-0.049927525,0.031259242,0.27209762,-0.25885642,-0.080962405,-0.3123367,-0.32444483,0.36789647,0.5911299,0.6137241,0.12789857,0.26035273,-0.275253,0.49112594,0.31251493,-0.08187982,0.48424324,0.0904465,-0.415531,-0.5106612,0.05096277,-0.14971295,0.120114006,0.497992,-0.15348667,-0.07867531,-0.25028652,0.08237151,-0.60228807,0.100275815,-0.23076954,-0.4731906,0.3419351,-0.5645923,-0.31277767,0.34510982,-0.21930425,-0.24506947,0.27401555,0.064422466,-0.3689136,0.22003077,-0.23487656,0.3749171,-0.25932905,-0.456771,0.25648165,-0.34033003,0.17151466,-0.14193018
-0.18203738,-0.14249101,-0.55433357,0.11997888,-0.36086625,0.049520142,0.21819015,0.4033337,-0.42172217,-0.068185784,-0.50079054,0.16021574,0.5085577,-0.45006314,-0.42100415,-0.12155344,0.08254243,-0.15063947,0.27696335,0.028627992,-0.12529588,0.2820873,0.13074794,0.20055178,0.22797263,0.16545406,0.07712668,0.79842097,0.35348505,0.7533741,0.471959,0.10642456,-0.10515042,0.47602484,-0.046897892,-0.80078375,0.21432006,0.16855015,-0.3316812,-0.24310294,0.4806309,0.22029974,0.16599011,0.38831702,-0.18832484,0.095593125,0.15997922,-0.35257456,0.4040996,0.2285271,0.7767548,0.29346767,0.10955537,0.071488105,0.3645021,0.02392707,-0.7230778,-0.2236902,-0.0979097,0.21740983,0.54245853,-0.081721656,0.118949644,0.64952344,0.39186525,0.19879134,1.2197828,0.18242826,-0.25958154,0.08399581,0.384053,0.09259211,-0.74568695,-0.43899816,-0.12452317,0.17149395,0.4642964,0.10104266,0.16156167,-0.19305485,0.34510234,-0.18287696,-0.21111827,-0.08774345,-0.16007899,0.056080792,0.18850511,-0.12027799,0.3405214,0.21535526,-0.0014245786,-0.7918549,-0.63660765,-0.41227832,0.2147204,-0.022461724,-0.28997815,-0.3845199,-0.112279035,0.21792656,-0.44299528,-0.5708232,-0.5380215,-0.06648897,0.058530692,0.20632915,-0.26723388,0.48677826,0.6285428,-0.20472957,-0.039488908,-0.8674064,-0.3885522,0.5512494,-0.79374486,1.0127563,0.49831733,0.0046710684,0.1811934,-0.049194574,-0.36710522,-0.13207394,-0.020488702,-0.12433778,-0.9222137,-0.10435003,-0.25282452,-0.50448865,0.088157944,0.14368585,0.14955205,-0.15940084,0.2074422,-0.03319173,0.31409514,0.36145332,-0.10452567,0.2838699,-0.5091179,0.79354274,0.22601031,-0.011126146,-0.09562169,0.016153092,0.10563565,-0.79904157,0.11223694,0.19427311,-0.09561914,-0.27187663,0.33612743,-0.70096254,0.029975243,0.23133525,-0.7105997,0.22561562,-0.10323851,0.6393816,-0.12383634,0.09728808,0.39469925,-0.51290023,-0.22585921,-0.302976,-0.07111903,0.44171363,-0.22693504,-0.020056028,0.3852139,-0.45158908,-0.22244547,-0.18929835,0.19611347,0.13310526,-0.012284413,-0.45826852,-0.34412786,0.11867298,0.16004057,-0.22140446,0.6538824,-0.74445516,0.5631479,0.43616164,-0.1652223,0.4018958,-0.15664215,0.35765323,0.34123978,-0.80048054,0.08990366,-0.14533186,0.2933617,0.35093158,0.020227006,0.22399159,0.5524219,-0.05001987,-0.30855706,-0.1495081,0.3365104,0.21645601,0.06521269,-0.24462987,-0.10883418,0.7281986,-0.05717608,-0.6190539,-0.39062753,-0.2200786,0.03226406,-0.10104695,0.13571793,-0.38322186,0.4942791,-0.27216646,0.10609054,-0.06284296,0.0640904,0.18523653,-0.7951638,-0.13108939,0.38960156,-0.073932566,0.29182664,0.24887305,-0.026933378,-0.0075724428,0.160159,-0.0048441077,-0.59381586,-0.0122879185,-0.61688805,0.34287223,0.03914643,0.06312445,-0.15949589,-0.73252404,0.059160322,-0.35643688,0.3194666,0.06840356,0.5454774,0.22922166,-0.13103653,0.16181761,-0.013622488,-0.28520802,-0.2197615,0.2466754,0.37861648,0.29599303,-0.25498658,0.64342034,-0.09882461,0.18180038
-0.24757263,0.0669008,0.21131867,0.1354414,0.07654698,0.18114129,-0.008090601,-0.415575,-0.28936517,0.039783772,-0.0049514803,0.19383356,-0.64342934,0.3421572,-0.007226399,-0.65524673,0.15250246,0.01143968,-0.2783287,0.12899446,-0.20743777,0.022265121,0.35176036,-0.21736358,-0.14886907,-0.09462334,0.11945987,-0.58214134,-0.39461038,-0.19878738,-0.5382376,0.42047203,-0.35986012,0.011759927,-0.07516352,0.44605583,-0.020339485,-0.12892288,-0.13169225,0.8783569,0.075951055,-0.0046145273,-0.068024226,0.13699095,-0.231805,-0.3242,0.14949676,0.09985558,0.25482982,-0.07928026,0.93764323,-0.2786365,0.05627158,0.764385,0.31701303,0.2618075,-0.06884168,0.13664718,0.6735874,-0.24673472,0.0797252,0.43803868,0.30901363,-0.57851815,-0.31583852,-0.31012717,1.1613473,0.2707925,-0.7531832,0.2660439,-0.40566823,-0.012625765,-0.49790853,0.3323389,-0.047504228,0.09380389,-0.03133666,-0.1845986,-0.03606226,-0.25121224,-0.74982244,-0.029641341,0.14510679,0.07584271,-0.1319303,-0.059935547,-0.9597867,0.2681424,0.13504402,-0.05370361,-0.025557978,0.23849963,0.09362109,-0.25654787,0.10355974,-0.15698574,0.10109793,0.20246992,0.1432786,-0.106073245,0.30517864,-0.151089,0.1587325,-0.16246098,-1.0945643,-0.10498567,-0.28019512,0.3836163,0.023498679,-0.8085442,0.22217725,-0.13117287,0.1289465,0.35626763,0.99175096,0.11911115,0.3350664,0.121171765,0.0529013,0.20628227,0.42674103,-0.4839243,-0.28363046,-0.07042484,-0.0796502,-0.077759504,0.1652329,0.28363898,0.2850469,0.25545698,0.43727458,-0.16235696,0.18875575,-0.029560842,0.594899,-0.12481971,-0.17766757,0.026984531,0.27178568,0.04038792,0.036107022,0.41924182,-0.35862434,0.81416553,0.50016856,-0.07588214,0.2983389,0.2504533,-0.34851676,0.2580912,-0.92702633,-0.27004528,0.3327334,-0.3736553,-0.36876804,-0.6245569,-0.3611723,0.52845395,0.19740525,-0.22195667,0.48988193,0.120033465,0.04191411,-0.36546615,0.070104055,-0.49361032,-0.3390987,0.30066332,0.21247254,0.023404196,-0.0063530253,-0.18432212,0.029578255,0.1828839,-0.2815768,0.7053754,-0.44147968,0.45091572,0.35299093,0.39621443,0.035810284,0.38583556,-0.43929562,0.31812963,0.22451152,-0.23978777,0.15633087,-0.25576115,0.35218692,0.5111472,-0.3838464,0.5833979,-0.03518798,0.022490364,0.028465565,-0.16364247,-0.28652495,0.051310077,-0.24074127,0.13509066,0.6455901,-0.1069853,0.44584414,-0.28579575,-0.14039527,-0.09402791,0.2537832,0.0248879,0.7414024,-0.0741475,0.2720514,0.4041597,0.15879653,0.29694602,0.15479049,0.2574713,-0.23658998,0.34546828,-0.036279947,0.5581283,-0.12130209,-0.6808429,0.7378299,-0.20148443,-0.1903263,0.029205166,-0.12194528,0.18772419,-0.67517686,-0.08146697,-0.10619076,-0.27988616,0.04197265,0.034396105,0.15692027,0.1350944,-0.47783157,-0.32509354,0.42003882,-0.23053886,-0.15355305,-0.02627115,-0.8635716,-0.15421297,-0.18345386,-0.037751645,-0.110194966,-0.08668628,-0.11206881,0.039703816,-0.23459487,-0.18727443,-0.30757868,0.62021595,0.37646896,0.044064734
-0.48015213,0.7808385,0.12145444,0.18268567,0.2920158,0.1491394,-0.21224217,-0.024053503,0.095159255,0.028757274,-0.17260048,-0.009761039,-0.5104734,0.19847624,0.14548054,0.12886447,-0.7688137,-0.21665166,-0.3805474,0.27939194,-0.5520877,0.1257804,0.067146055,-0.31693462,-0.15152973,-0.2590039,0.5724996,0.17485386,0.44531292,0.07068171,-0.058272433,-0.5167203,-0.43583214,0.44743484,-0.32643119,-0.57296664,0.38688955,0.5176194,-0.103085876,-0.21170752,0.51090497,-0.41845736,0.09284454,-0.13581015,-0.16852862,-0.028408555,0.33529302,0.2245467,-0.03677224,-0.2305707,0.4708566,-0.1699086,0.14201768,0.11062514,0.36309397,0.3203533,0.08135571,0.07544135,-0.0058383574,-0.4623716,-0.23050462,0.47265017,-0.023021568,-0.031187436,-0.12900223,0.6081042,0.57508236,0.1526134,-0.2616293,-0.049451318,-0.49311006,0.072744966,-0.3390624,0.19131728,0.31913388,-0.44977728,-0.2381511,-0.5283455,-0.12802443,-0.58162445,-0.39028168,-0.3907547,0.3803732,-0.19775869,0.44044682,0.036549572,-0.05330847,0.17229626,0.12609719,0.032769386,-0.45227396,-0.08004354,-0.24790394,0.23205213,-0.25259244,0.018108994,-0.21448274,0.21846548,0.083638944,-0.14823735,0.003996258,-0.09742824,-0.06895085,0.67109394,-0.7670988,0.2766335,0.046288807,-0.1467992,-0.2260492,-0.68767506,0.06630466,0.11434729,0.04211061,0.4139772,0.38985154,-0.18758868,0.4881894,-0.16703737,0.3418256,0.43368146,0.27644312,0.37903398,-0.48404706,0.121137574,0.38077268,0.26324517,0.33438414,0.83781636,0.44140714,-0.4641108,-0.10482073,0.045393664,-0.06080995,-0.13326217,-1.0203874,0.05789744,0.10763932,0.25613436,0.18610404,0.42376527,-0.11456828,-0.47288015,0.35268158,0.45217916,0.33424556,-0.7307653,0.308201,0.13486648,-0.11805805,-0.02595938,-0.41584274,-0.58327216,0.2500297,-0.6866614,-0.5711995,-0.79143435,-0.12497955,0.6051341,-0.44049558,0.055105776,0.19536674,0.10185281,0.5765998,0.12904958,-0.28514627,-0.52541465,0.075434305,1.2316686,0.032477256,0.060883574,-0.26451698,-0.26059398,1.3273286,0.23960988,-0.64603966,0.44219783,-0.32966727,0.4299542,0.24069327,-0.35128558,0.0659019,0.48624074,-0.60720444,0.080556445,0.6516389,0.0034065568,0.17563885,-0.1911079,0.00038494074,0.65811676,-0.22739324,0.52555734,-0.05474843,0.30064988,-0.34562048,-0.003963556,-0.18938817,-0.012392743,-0.023426738,0.43228346,0.4036644,0.32850155,0.47094065,-0.403265,-0.37073478,-0.44309738,0.443783,0.18115321,-0.020554537,-0.32447502,0.25908536,0.16348033,0.12041848,0.1132884,0.024000637,-0.027891548,-0.028660329,0.4797748,0.24897224,0.45448115,-1.1308949,0.021735778,0.6277928,-0.017188393,-0.22077179,0.20993078,0.14335349,-0.23447855,-0.63100487,0.38432115,0.7436428,-0.6199165,-0.51272696,-0.032258134,0.20054409,0.15475594,-0.71347207,-1.0757434,-0.04932654,-0.45771834,-0.061902802,0.33371696,0.12943818,0.083550416,-0.0917601,0.17852364,-0.1346036,-0.20894104,-0.0009950239,0.09707211,-0.26029235,0.5519304,-0.14301573,-0.06275427,0.35157323,-0.15374807
