-0.18829605,0.104377605,0.3992671,-0.21137427,-0.56272066,-0.070005365,-0.12557071,0.08102496,0.6799012,0.4293266,0.43959594,-0.14922415,-0.09919106,-0.8772651,0.5605795,-0.21417806,0.28297502,0.06758757,0.14902937,0.18832144,-1.1789696,0.08655151,0.0014287237,-0.56993,-0.029270982,-0.25038707,0.27384973,-0.02727085,-0.12779474,0.04282008,0.1837526,-0.3067904,0.11717008,0.8682932,-0.11927398,-0.6986133,-0.21585217,-0.2827697,0.35370255,-0.08968608,-0.073696256,0.07353519,-0.7192229,-0.16998236,-0.38158393,-0.07148993,-0.24016827,0.24694231,-0.2960869,-0.15732676,-0.087874934,-0.13314705,0.06451926,-0.37486023,-0.16241364,0.38978687,0.42984766,0.37353596,0.47105995,0.13904414,-0.23630358,0.20359181,-0.054405715,0.3348914,-0.09006598,0.37152603,0.10427212,0.013279086,0.54230726,0.16928716,-0.27226335,0.17427018,-0.73094165,0.8138107,0.26854995,0.20212248,-0.60403574,-0.32749388,-0.2880991,0.23396263,-0.13717012,-0.26989263,0.26124787,-0.2537919,0.20426792,0.002139274,-0.2862189,-0.071776345,-0.14087881,0.023258995,-0.13827787,0.6358684,-0.1974849,-0.024540702,-0.15684706,0.38552663,0.03875369,-0.2709248,0.054497875,-0.15017425,0.19175869,1.1966108,0.4767873,1.2297995,-0.46979517,-0.3772918,-0.45338437,0.15724419,-0.52866757,-0.17730376,0.067892216,0.25900793,-0.056299668,0.17553607,-0.42767256,-0.09945429,0.28881976,0.16799468,0.29431686,-0.04810069,0.17356242,-0.06893845,-0.24182147,0.27354878,0.15645131,-0.19156861,-0.6762857,-0.37077284,0.14746363,0.4782877,-0.5277873,0.2057271,0.46882704,0.75919634,0.34995544,-0.14961812,0.14672756,0.07804325,0.5051752,-0.1975525,0.05847435,-0.17456283,1.0426338,-0.17931774,0.1986488,0.35312107,0.16688018,-1.5074867,-0.16099434,0.18119103,-0.26353362,-0.068497375,-0.7751787,-0.42602924,0.4233168,0.12734681,0.42130855,-0.101259485,-0.042750858,0.52285504,0.4674856,0.1849672,-0.64026034,0.43689224,-0.03608058,0.0279159,0.08543281,0.3668408,-0.8121709,0.7405844,-0.14489423,-0.23520227,-0.029217556,-0.17975463,-0.545428,0.040295955,-0.40164307,0.28259113,0.2956854,0.319668,0.0420925,0.22624005,0.2656877,0.038974825,0.34365505,-0.2371654,0.53267676,-0.3855079,0.12572145,-0.17560543,0.6626878,0.2918183,0.04002927,-0.305556,-1.0902655,-0.17841367,0.07046754,0.43532166,-0.28911301,-0.7193028,0.16141845,-0.321105,0.054669816,0.16064668,0.57285917,0.51154315,0.22449397,0.74867433,0.40934315,-0.2173127,0.32787555,-0.28793344,0.33912513,-0.4369293,-0.6851677,0.37338328,-0.27888277,0.47390908,0.2647887,-0.30794775,-0.022877393,-0.8643607,0.5816148,-0.15701394,0.6933762,-1.2219331,0.2280149,-0.13581577,-0.18259089,-0.019833758,0.04730997,-0.014823695,-0.6408506,0.039959252,0.015104195,-0.28635582,0.0584935,-0.057098564,-0.11079239,0.1758767,0.11557911,-0.89427245,-0.67256325,-0.28016514,0.21785113,0.09597263,0.16445841,-0.036412947,0.29729885,0.9887192,-0.35765535,0.7573814,-0.11997943,0.15155049,0.73452115,0.18388139
-0.049428456,-0.31204754,-0.07478756,0.08963762,-0.08095968,-0.14259823,0.38193333,0.7192862,-0.0011021309,0.23811163,0.38067177,0.030664828,-0.422823,-0.18159497,0.101050064,-0.15561014,0.8787187,0.09540812,0.9186014,-0.16429494,-0.4521338,0.8300515,0.72567725,-0.3424818,-0.17795376,-0.028919782,-0.19669144,0.79628927,0.3247011,-0.35853514,0.3417339,-0.24004155,0.26072866,0.35171846,-0.71440136,-0.37695158,-0.115961045,-0.17150347,0.1681479,0.35294858,0.15118177,-0.03631657,0.15025726,0.08807196,0.109121315,0.09978243,0.20168346,-0.018352535,-0.19170266,0.34152395,0.41016734,-0.10989291,0.11628403,-0.3220153,0.13524708,-0.45796728,0.13226098,0.035920948,-0.19069941,0.37421346,-0.09691144,-0.36102623,0.21842405,0.4608794,0.47405645,-0.059598226,-0.24738279,-0.121272884,-0.31702572,-0.29498622,-0.59007245,-0.20035557,-0.91073453,0.5297153,-0.23987602,-0.3319833,-0.8023033,-0.26910326,-0.21774949,-0.17735054,-0.6275882,-0.15885647,-0.4256258,-0.06304274,0.27514246,-0.2492398,-0.16416049,0.044519246,0.29223925,0.0017974722,0.19703257,0.012609927,-0.32512394,0.7206282,-0.2886685,0.2881679,-0.1131363,0.05792462,-0.0153913535,0.09913101,-0.0037799233,0.5344267,0.055606652,0.4524381,-0.21604401,-0.171503,0.23516567,-0.030504456,0.2894489,-0.0016055754,-0.018720435,-0.2396616,0.07138449,0.56552696,0.3206047,0.67273414,-0.49715137,0.2871118,0.13758889,-0.22930609,0.4609607,-0.23906337,0.09757112,0.6383374,-0.39776206,0.505436,-0.59495157,0.45671228,-0.38808396,0.74856985,0.27546772,0.005303304,0.5663613,0.9059956,0.52255744,-0.13074331,0.098097116,-0.11186721,0.19657966,-0.49068853,-0.355368,0.535722,-0.096620545,0.02204636,0.282771,0.03903535,0.14647348,-0.31550586,0.15877375,-0.028675297,0.35639903,-1.0567738,-0.20160079,0.57364815,-0.16524951,-0.49147004,0.48447382,-0.2219536,0.3177288,0.38445517,0.16975997,0.32194418,-0.118521094,-0.39274907,0.115781754,-0.15084791,0.31815088,0.5108057,-0.28592345,0.15379433,-0.039104234,0.05706082,0.18185234,-0.28371704,0.30597538,0.43350288,-0.19143844,-0.0643377,0.2873603,0.16174233,0.29265982,-0.7225907,-0.46173963,0.2834486,0.058774177,-0.6362542,-0.028742103,0.26699162,-0.21697028,0.17944925,0.5664247,0.14478672,0.014849237,-0.047994565,-0.3269489,-0.027670337,0.15670836,0.19293201,-0.2217905,-0.39039645,0.328646,-1.0947171,0.25616986,0.1601845,-0.33571237,0.21733932,-0.36536703,0.34943378,-0.12503509,-0.09258224,0.40003172,-0.29227677,0.86712223,-0.06588711,-0.117920175,-0.12003387,-0.056204557,-0.4601528,-0.10862314,-0.0835634,-0.06527264,0.3223359,0.7677943,-0.13373749,0.77467304,-0.43067297,-0.17643736,-0.25784004,-0.41956338,-0.22140005,-0.120515384,0.30436233,-0.6275567,0.022715166,0.4668928,0.22013742,0.18247804,-0.6381967,0.4344924,0.07725117,-0.4728317,-0.24400687,-0.6918422,-0.14321527,-0.14662056,0.47824895,0.0889975,0.034325454,-0.20012954,-0.09767351,0.6622928,0.51472837,-0.32289267,0.5557417,0.41375038,-0.22307898
0.075686105,0.1292953,0.1073586,-0.70531636,0.023779701,0.20325147,-0.09376244,0.47992614,-0.03133748,0.52688056,0.41369313,-0.23197012,0.43407404,0.0567189,0.31727806,-0.48540264,-0.21977454,0.24567443,0.2451354,-0.1204632,-0.80492985,0.17548984,0.06331796,-0.34509784,0.3782338,-0.3679127,-0.078439295,-0.28508094,0.27744305,0.5172364,-0.18272376,0.36183932,0.23233536,-0.65069073,0.052044638,0.12552068,-0.2159538,-0.7200308,-0.13574979,-0.15869656,0.0121247815,0.050808325,-0.034121443,-0.14317758,0.30049866,0.29116338,0.083233126,0.29695752,-0.043769304,0.30354244,0.72613585,-0.16822228,0.0793503,-0.5665869,-0.28121,-0.30991665,-0.32192028,0.12504832,-0.05786133,-0.032591302,-0.15429182,-0.3186047,-0.13535239,0.38906884,0.040674355,-0.30946913,0.3169923,-0.40360722,0.23087387,0.13646291,-0.48801094,0.5719671,-0.49127275,0.23442356,0.22317214,0.028407153,-0.23473135,-0.12826754,-0.52551323,0.07553135,0.11763045,-0.4938079,0.016928598,0.05712984,-0.32733706,-0.22309706,-0.3527696,0.2981194,-0.85482675,-0.109017536,-0.11426268,0.37028238,-0.19909798,0.088933654,0.23960547,0.24954726,-0.028056469,0.16704294,0.20297924,-0.22661464,-0.1287357,0.13380279,0.36472487,-0.028903652,-0.40859967,-0.539945,-0.32840443,0.28603807,0.10399801,-0.1699995,-0.18614028,-0.036350362,0.06784151,-0.1697161,0.5098257,-0.078473955,0.70889723,0.55729157,0.19621298,-0.27337596,0.13924494,0.1136033,-0.11754332,0.3948288,0.700067,-0.6204797,-0.13851172,-0.026763456,-0.24117857,0.4948242,0.010966137,0.10197945,-0.020985419,0.21720943,-0.046657264,0.04912913,0.13086125,0.15654401,0.30802923,-0.4170751,0.04709033,-0.21793158,0.46809685,0.11473371,0.026115565,0.25082827,0.048107274,-0.33393714,-0.1796112,-0.12439806,0.3494064,-0.2495531,-0.013436802,0.022210961,-1.6852268,-0.1872888,0.29873437,0.2768569,0.08515039,0.16495575,-0.023825498,0.34214106,-0.46262315,0.10067596,-0.028538542,0.5209294,0.12403323,-0.09873799,0.06520111,0.10721724,-0.2560341,-0.05307571,1.1728523,0.15114747,0.39049482,0.106071405,0.42780808,0.31542525,-0.13703206,0.7507315,-0.12970036,-0.5042896,0.5845318,-0.037601437,0.39940348,0.13584825,0.11878284,0.011956893,0.26595524,0.010336317,0.3486202,-0.06407673,0.1984697,0.3229525,0.0008438447,0.100516535,0.37262452,-0.27368075,-0.042329602,-0.3146719,0.5117142,-0.26819444,-0.048707936,0.14040339,0.29564643,-0.5661678,-0.266728,0.4104832,-0.30366403,-0.13771723,0.2813185,-0.17946711,-0.1348815,-0.4644592,-0.06251669,0.37716073,0.09832005,0.11539467,-0.04552435,-0.38407555,-0.048916798,0.28626725,-0.15931673,-0.14308926,0.1959113,-0.049214054,0.3535089,-0.3403295,0.14832182,0.1958712,0.18738408,0.19721185,0.24050255,-0.28154588,0.08389507,-0.8859026,0.08946166,-0.38235328,0.15782003,-0.14754364,0.051810898,-0.249519,-0.39445597,0.016171949,0.1331796,-0.11355679,-0.17894225,0.13452888,-0.06564135,-1.0766132,0.055003595,0.31000617,-0.44228157,-0.15063635,0.34015188,0.1595741
0.020181647,-0.72825444,-0.043578878,0.28118,0.79408824,0.45545685,0.16068263,-0.3562866,0.39364898,-0.29787666,0.17774226,0.60864615,-1.7387811,-0.4760356,-0.33669156,-0.098367274,-0.24503249,0.49062103,0.19297881,0.47282338,-0.18146445,0.35537842,-0.4232525,-0.32680833,-0.44353855,-0.38973168,-0.61196816,-0.45254225,-0.73682463,-0.5792858,0.67960244,-0.2126284,-0.6774233,0.16163228,0.46159416,-0.0032568122,-0.1015797,-0.13656108,-0.124444336,0.043403093,0.33772442,0.72941834,-0.7462607,-0.4651915,-0.1920027,0.41809663,-0.3512589,0.30406016,0.19981469,-0.3417021,0.40033376,-0.26055136,-0.5474001,0.2785492,0.3968814,-0.08438108,0.09754933,-0.55392605,0.7864206,-0.03845157,0.1647537,-0.06912846,-0.08046424,0.8220942,-0.79297346,0.56912917,-0.7479223,-0.0146672195,-0.62563866,0.07776672,-0.895592,-0.42299333,-0.2827163,0.22209165,-0.4271879,0.12680987,0.50722563,-0.45132113,0.47995368,0.022336168,-0.029262073,0.4960284,-0.017589899,-0.04856259,0.0009614413,0.15213585,-0.6407828,0.02191535,0.9954915,0.19248904,0.13365981,0.13034645,0.635579,-0.12980273,0.24380004,-0.16338176,0.71502745,-0.057265848,0.42091835,0.054276895,0.42131788,-0.83279103,0.20187987,-0.055292867,0.08081818,-0.050551943,0.030235272,-1.4540862,0.5801577,-0.32430646,0.43830708,-0.38153747,0.033073034,-0.5795397,0.6352203,0.46158662,0.526457,0.008439238,0.44779405,-0.45924366,0.2376531,0.02539489,-0.54423344,-0.6741548,-0.2708612,0.07531224,0.18434131,-0.37279457,0.23591623,0.18435459,0.12468375,-0.002140398,-0.6250047,0.57426757,0.7020188,-0.32540375,-0.67374897,0.5853659,0.12532432,0.41208383,0.3787823,-0.074820206,-0.6829144,0.43492433,0.02613796,0.6208497,0.5308864,0.114930265,-0.934802,-0.13485886,-0.5389355,0.027674872,-0.036288403,0.11145514,0.63338584,0.49938923,0.4959837,0.07633978,0.43654653,-0.42482045,0.6405497,-0.15329367,-0.47741735,0.23390552,0.21466272,-0.14267723,-0.87671274,0.12966412,0.23783262,0.20865005,0.1917799,0.12262326,-0.2979416,-0.3660181,-0.09104965,-0.6964973,-0.5502227,0.3140452,0.4494365,0.3303458,0.332256,-0.7342557,0.077897586,-0.604659,0.08179316,0.51321006,0.21027267,0.005494276,-0.14781798,0.472709,-0.18660143,-0.8837018,0.02543513,-0.27940363,-0.04315464,-0.031498674,-0.23529904,-0.052114375,0.51456654,-0.20183937,0.16665028,-0.110374935,0.24832048,0.23917331,0.59798723,0.099218726,0.067398004,-0.3058555,0.06605955,-0.104158066,0.6915656,-0.095725656,0.40028736,0.546461,0.3841743,0.33326206,-1.1106033,-0.14748521,-0.8436043,0.46795517,1.0543038,-0.8731638,0.64823216,-0.27634576,0.7784276,0.30814263,0.22439505,0.57423,-0.8161094,-0.8874783,-0.22654763,0.23148435,-0.674626,0.9956996,-0.30601946,0.9093821,0.12653098,-0.1936491,0.06564534,-0.27425027,0.51113796,-0.36878785,0.27215138,0.1666084,-0.38784286,-0.2716431,-0.37102208,-0.76873726,0.34489295,0.77343357,-0.11696079,-0.89701325,0.12730545,-0.40409723,-0.28958362,0.07570029
-0.53491455,-1.0781062,0.01617386,0.24170743,0.26246503,0.21444546,0.2760495,-0.53889966,-0.48177457,-0.15030248,0.5206324,-0.43315807,-0.38661292,0.6874275,-0.72516924,-0.15497635,-0.31386504,0.2509173,-0.03018904,0.08784631,0.1311265,0.5308705,0.16677074,-0.19504869,-0.47176984,-0.2520747,-1.0967921,-0.6298119,-0.6666579,-0.94772583,-0.27048412,1.1141596,-0.39742795,0.05318145,0.24457316,-0.1485733,-0.32607707,-0.0393366,-0.01970861,-0.03168955,0.6016424,0.5485498,-0.2674281,-0.35866398,-0.3771439,0.2784194,-0.3768572,-0.3396892,0.76837856,-0.37805802,1.4563754,-0.45880285,-0.3756851,-0.06361061,-0.119634,0.054962628,-0.80696994,0.14605436,0.5003717,-0.5277557,0.042987127,0.006755636,0.5362023,-0.16396421,0.106736325,-1.6475614,0.12004897,-0.034445826,-0.36869124,0.6115705,-0.7038763,0.13934179,-0.240642,-0.39129773,0.360016,0.14143021,-0.035403755,-0.14455275,0.75229406,-0.87459683,0.080646604,0.5108886,-0.7718218,-0.05843614,-0.4495208,0.19393255,-0.43790475,0.07675777,-0.047201287,0.24991553,0.39567766,0.3826089,0.21432887,1.2145694,0.37696716,-0.7803305,0.25537106,-0.0719516,0.22739227,0.16779129,0.80272835,-1.3795016,0.64380926,-1.0064135,-0.12657866,0.16570406,0.64136183,-0.8666006,0.05090017,-0.2067463,1.2988755,-0.35052177,0.013238178,-0.17304057,0.7645504,1.0696039,0.78144675,-0.2866166,0.3734345,-0.76556295,0.41715008,0.025706211,-0.07350151,-0.5353988,-0.3152637,0.020479307,0.3194102,0.2279886,0.09978214,-0.45445588,0.32943666,-0.22505431,-0.543006,-0.65096307,-0.8157826,0.0442661,-0.14283167,0.1836148,0.6800782,0.23044367,0.78217614,0.6880766,0.16151878,0.4749234,0.06351728,1.4112995,-0.11992286,-0.2716249,-0.056338746,0.7648697,-0.46963704,-0.7487127,-0.33592868,0.42218372,-0.8622385,-0.30255115,0.91375977,0.37472314,-0.37842607,-0.019775404,0.13940322,0.109493256,-0.24616857,0.21612956,-0.37740454,-0.41814518,-0.74940085,-0.39095396,0.5020001,-0.66531765,0.43740216,0.18362181,-0.43241537,0.5987209,0.3177443,0.2565892,-0.7059043,-0.23317082,-0.026712101,0.52035517,-0.11809214,-0.55178976,-0.3055897,-0.3415784,-0.081461,0.5568145,0.5872804,0.07168053,-0.7986594,-0.107907295,-0.4849246,-0.06973908,0.12872182,-0.5943586,-0.3883546,0.06336481,0.21070702,0.82336944,0.43807268,-0.25518233,0.08612756,-0.08196978,0.25175253,0.046969783,0.6584444,0.30493325,0.22880507,-0.9592423,0.25579777,-0.10607965,-0.38250175,-0.46692622,-0.061650306,0.38662642,0.70598096,0.4920471,-0.3111215,0.37450296,-0.12956448,0.41831192,0.21650104,0.2179863,0.6057398,-1.4823576,-0.3175931,0.8025975,0.049732372,-0.48622227,-0.5688407,0.013654697,-0.20647341,-0.6081517,0.3919262,1.358257,0.11963734,-0.061145954,-0.57503265,-0.06830865,0.47431698,-0.53638375,-0.11593588,0.15228546,-0.6538518,-0.43954054,-0.12404138,-0.14532791,-0.105464324,-1.088439,0.6892859,0.30695224,0.891112,-0.82659715,-1.286875,-0.17685367,0.4223291,0.45630336
-0.44214764,0.20195973,-0.03223693,-0.26281896,-0.052797243,-0.2952661,-0.20591196,0.5027156,0.041241113,0.08688601,0.08319198,-0.66772896,-0.6748867,-0.5125845,0.069096915,0.45745593,-0.6109354,-0.04468486,0.22566491,0.08710696,0.5003345,0.2803094,-0.7839415,0.1266808,-0.22099958,0.19109064,1.1277438,-0.48735625,-0.6579574,-0.5689027,0.4959774,0.0778589,0.46343192,-0.001601816,0.32535553,-0.3993845,-0.89656043,-0.041480765,0.2509365,-0.04657438,0.24777903,0.07714108,-0.06407297,0.11876126,-0.46715763,0.28223148,-0.018827092,0.05401076,-0.028487291,0.16017993,-0.49876153,-0.5423964,0.07028341,0.30106285,-0.42124164,0.34739476,-0.21211298,-0.6642922,-0.31965244,-0.26960832,0.014464694,0.50511426,0.59176224,-0.2450268,-0.10554802,-0.17864867,-0.004014889,-0.3107544,0.21877018,0.5677694,-0.108883485,0.07202223,0.009429316,0.4500436,0.031837236,-0.14649478,-0.5998626,0.14788097,0.10593402,-0.105447374,-0.5417236,-0.2762924,0.57643324,-0.15196297,0.10313498,-0.23403308,-0.02756684,0.2599122,-0.07008235,0.08189654,-0.06775984,0.25256142,0.5413641,0.84430164,-0.15019092,-0.2364887,1.2687052,-0.5231868,-0.2073347,-0.030783158,0.050364453,-0.3425922,0.8772626,-0.48303616,-0.13708963,0.09502354,-0.20320517,0.2492845,-0.46851468,-0.16491452,0.068239674,-0.79572564,0.11540815,-0.47694826,-0.721052,-1.2587831,-0.49990836,-0.12224913,-0.16370286,-0.9038255,0.53014964,0.18471171,0.43984747,-0.53024,-0.64221543,0.15271144,0.6561874,0.30105895,0.03517199,-0.2952726,-0.0018168562,0.90577716,-0.45662612,-0.49700388,-0.41237783,0.92106646,0.22388273,0.3285186,-0.11208258,-0.014297253,0.29347935,-0.11661914,-0.031526964,0.17251648,-0.034203377,1.0658795,0.28693315,1.178494,-0.46402162,0.2717185,-0.103557326,0.07151361,-0.97483927,0.025081903,0.056946073,0.053450305,1.4106203,0.43295354,-0.70742077,-0.083052084,-0.36386123,0.9968142,0.5441052,-0.25580353,-0.7143804,-0.7611326,0.1676066,0.8391848,0.43178624,-0.34411368,-0.1697704,-0.43721944,0.23641399,-0.2278624,-0.40198767,-0.49930176,1.0271839,-0.057729766,-0.6349312,-0.15382354,-0.19632179,0.15268424,-0.2437993,-0.2318128,0.29385749,-0.028773205,-0.022706462,-0.12803262,-0.05558925,0.04218982,-0.5548758,0.04520826,0.07980259,-0.29047853,0.08147084,-0.3550396,-1.274511,-0.09043087,-0.50273955,1.1634352,0.37079117,-0.7471658,-0.22345431,0.10531023,0.32052818,-0.05543729,-0.1764135,-0.12434462,-0.04529092,-0.16365522,0.21536964,-1.3497003,-1.146269,-0.5966635,1.1755061,0.33315814,-0.18656948,0.028673328,0.1325113,0.27908355,0.41133866,0.41877788,0.010269444,0.08429652,-0.47905922,0.29630744,0.26112577,-0.14590304,0.017986156,1.150999,-0.0074397647,-0.20127374,0.092321195,0.34092227,0.114092246,1.035322,0.16763969,-0.5730584,0.46477488,-0.80576676,0.09483369,0.63551533,-0.49947223,-0.18593831,-0.19831531,-0.39807847,0.15844783,0.09341023,0.27431482,0.083701305,0.13560486,-0.53012055,-0.014433181,0.023432065,0.77205235,0.057186503
-0.12516828,-0.068554185,0.12213277,0.33887246,0.1253682,0.21276778,-0.096378356,0.026733398,-0.19181529,0.11878018,0.316343,0.3605908,-0.708807,-0.08567391,-0.4099171,-0.3450573,0.3711606,0.6064137,-0.13307872,0.5354595,-0.45013806,0.49324465,0.23996598,-0.13430776,-0.22247726,-0.27350357,0.26958027,-0.5061949,-0.21287496,0.043070853,-0.118275605,0.45825288,-0.08732438,-0.30262354,0.052264456,-0.3127786,0.012908637,-0.16385539,-0.07611352,0.0006343158,0.20858623,0.26491854,0.007960842,-0.30697396,0.11070008,0.27565664,-0.2839436,0.01584397,0.2894534,0.05532932,0.9533074,-0.21364409,-0.15854925,0.18398374,-0.10826804,-0.08427988,-0.4281907,0.06356474,0.1743019,-0.020835899,-0.10390627,0.25945207,0.16975862,0.1734875,-0.07875669,-0.4204825,0.7603403,-0.32788396,-0.60146123,-0.24653612,-0.17707072,0.14269456,-1.204013,0.55275697,0.08601296,-0.2453742,-0.22114909,-0.28306088,-0.36072493,-0.032683324,-0.48628667,0.6037496,0.3487612,0.1944808,-0.12301065,-0.008864192,-0.54419786,0.17717716,0.0021478957,0.19747162,0.37495384,0.36721936,-0.07505678,0.088483796,0.45071208,-0.37045103,0.19748785,0.21460992,0.18224125,-0.13407478,0.43486887,-0.203683,0.17999643,-0.24147664,-0.99850965,0.20183139,-0.16776578,0.13097204,0.07862379,-0.71445614,0.4374593,0.13146915,0.39004505,0.13298307,0.5694747,-0.12539586,0.92189646,0.09763843,0.30973524,-0.24796501,0.38399547,-0.07581908,0.19217828,0.27318603,-0.49597535,-0.31366193,0.15618367,-0.58351976,0.35709637,0.46543926,0.16252165,-0.035258193,-0.02835601,0.030947005,0.16978,-0.83928937,-0.1579727,0.24663395,0.3774648,0.010262165,0.5759861,-0.2185781,0.101475336,0.21916611,0.5768415,0.5231317,0.12908162,0.14692958,-0.39655083,-0.45639032,-0.11539738,-0.74952984,-0.32702574,0.12035478,-0.893075,0.06924023,0.5898956,0.32647595,-0.4413273,-0.6780958,0.1303222,0.35069168,-0.3294263,0.06517878,0.17908853,-0.045040023,-0.77250093,-0.43517596,0.14902239,0.062027212,-0.053026207,0.029907875,0.45048136,0.24581265,-0.05453525,-0.5394838,-0.29486755,0.21578823,-0.07560523,-0.24546236,0.2522519,0.16268636,0.32410005,0.11025289,0.2877713,0.25940806,0.02342315,0.38310167,-0.65088624,0.059963137,-0.14547426,0.10631882,0.14258307,0.06952148,-0.050927687,0.008949823,0.104120396,-0.051669408,-0.09274113,0.18449269,0.6696907,-0.48588422,0.057195645,-0.44355804,0.07666107,0.028474972,0.27159512,0.0025923396,0.1955572,-0.29288277,0.3613465,0.13438007,-0.03839089,-0.24611357,0.07346653,0.14963716,-0.15472773,0.6839164,-0.34127456,0.013426106,-0.48874965,-0.74850696,1.1467803,-0.7155882,0.13635945,-0.21179737,0.24532875,-0.20034595,-0.009396822,-0.0575215,0.13893597,0.019884553,-0.49413273,0.12576638,0.03586268,-0.35979146,-0.3194808,-0.5994681,0.7118906,-0.094545744,-0.2088194,-0.036533095,-0.4056703,-0.054113403,-0.632532,-0.13897185,-0.1355878,-0.9567668,0.12783459,0.036110822,-0.291211,0.17982844,-1.1838866,0.058161125,0.37439844,0.02068081
-0.12340318,0.20265803,-0.2237648,-0.5726679,-1.2412138,0.04641329,0.46066067,0.32169938,0.06850137,-0.27188492,-0.21636164,0.112497576,0.7558478,0.33830816,-0.42831552,-0.0246787,-0.047238115,0.15651968,0.08766653,-0.324635,0.27165863,0.20039068,0.31679702,0.7641041,0.41358012,0.16545098,0.12338158,0.17879452,0.304305,0.23384196,0.46458432,-0.1082538,0.24891885,-0.59911525,-0.5106163,0.16618678,-0.08583589,0.24846281,-0.36164734,-0.69832635,0.051947054,-0.19961666,0.34567013,0.28196722,-0.08012155,-0.051210385,-0.22855419,0.7131436,-0.6450951,-0.27934864,0.17718835,-0.07983684,-0.27601013,-0.3660416,0.44400972,0.15786041,-0.14147708,0.198804,-0.4909587,-0.11407053,-0.5642996,-0.2485241,-0.69367015,-0.010205239,0.5680181,-0.10647536,-0.1391128,0.28412238,-0.47614437,-0.11089984,0.6850946,0.13206203,-0.067758314,-0.22576787,0.2593158,-0.018591702,-0.11790838,-0.033745654,-0.096985824,-0.45706633,-0.35800427,-0.5830729,-0.5052113,-0.14564495,0.061708882,-0.42558688,0.24581021,-0.20332552,-0.68975383,0.16744693,-0.1181353,0.003976729,-0.20381407,0.06646675,-0.025694305,-0.12087341,-0.2678774,-0.00670045,-0.08403778,0.15257365,0.010197667,-0.37155154,-0.12737934,-0.24652448,-0.09201733,0.32860285,0.36494544,0.19674395,-0.8082509,0.36321086,-0.098658815,-0.04507004,-0.23739873,0.56354237,-0.2582783,-0.2338763,-0.46700093,0.43712854,-0.101315126,-0.246342,0.3817248,-0.06645599,-0.56026316,-0.0029748837,-0.08597826,-0.09525624,0.061183713,0.07294394,0.16430275,0.8784852,0.25641507,0.3505725,0.5980709,0.17423776,0.100441486,-0.14311153,0.7609376,0.014742914,0.024174483,0.22801694,0.24136849,0.18488266,0.3492415,-0.003299791,0.047962163,-0.28010014,0.0029807282,0.12625337,0.41783622,-0.05302592,-0.29883447,-0.070310034,-0.16404875,-0.1258943,-0.0002715095,0.3202028,0.15992206,0.52986515,0.32937393,-0.5787324,0.5687041,0.05261117,-0.59043545,-0.42825696,-0.33270252,-0.6191389,-0.02095428,0.25061214,-0.27911335,0.08296347,-0.049581427,-0.054518502,0.22544539,-0.6417391,-0.37380987,0.25309673,0.38915652,-0.37150985,0.37422454,-0.47753733,0.44654652,1.0449468,-0.6903239,0.47498378,-0.08014294,0.2109127,0.27994236,0.014994902,0.46202153,0.38117036,-0.19412953,0.14418446,0.041889433,0.56395113,-0.0030871297,-0.24679624,0.26078743,-0.114681676,0.19923605,-0.005031663,-0.35333174,-0.07379697,0.97233367,0.14314292,-0.16963048,-0.7902342,-0.6220941,-0.34504634,0.10421866,0.33164415,-0.7310088,-0.36991674,-0.16126156,-0.073719226,-0.2761025,-0.051143777,-0.050848376,-0.060311913,-0.048701804,0.33081546,-0.045816183,-0.100324556,0.60421216,-0.07439114,-0.08579851,-0.13712923,0.07694304,-0.18843457,0.9241762,0.6413596,0.28733867,0.0011090668,-0.02613612,-0.260657,-0.43436965,-0.21962264,0.09378334,-0.24674997,0.20622589,-0.25581822,-0.065083854,0.24865146,-0.058425378,-0.019753493,-0.34184444,0.088994235,-0.004979284,0.20347773,-0.14352496,-0.23887901,0.49208707,0.3471594,0.17576453,0.64513856,0.2345971,-0.028318003
0.68558234,-0.033687137,0.004448667,0.1912828,-0.112528145,-0.16300248,-0.026066827,0.055359006,0.07916948,0.09003877,0.46715775,0.9792578,0.3112049,-0.028438125,0.010946127,0.6427647,0.3072575,0.066849515,-0.23301093,-0.035765722,0.515076,0.87780076,-0.6243952,-0.15500462,-0.21641707,-0.19612312,-0.048835356,0.45260125,-0.117289506,-0.19094963,0.16851996,-0.11116441,-0.091951035,0.075059555,0.16428074,0.17849714,-0.20426947,0.1293749,-0.2522525,-0.24278927,-0.0021842401,1.3713677,-0.4382509,-0.067095004,-1.1737349,-0.0829248,0.23392265,-0.49493542,0.39995924,-0.31315035,0.3704257,-0.7411486,0.027964352,0.3364899,0.23501642,0.4569914,0.26389122,-0.10094637,-0.14109555,0.26022375,-0.42882767,0.04530654,-0.3790635,-0.11988412,0.38388103,-0.65910876,-0.7110805,0.1142765,-0.55766916,0.35422578,-0.4386412,-0.62133425,-0.23642825,-0.5733247,0.4102436,0.050607964,-0.6043592,-0.1624543,0.397918,-0.17907296,-0.1679266,-0.0058408,-0.20827922,-0.05794688,0.66010743,0.05076547,-0.4750895,0.01518109,-0.084308535,-0.33369258,0.62263095,0.031952444,0.26214603,0.95808107,0.13780367,-0.03951589,0.4433739,-0.24385019,0.16274866,-0.024681445,0.35331988,-0.17963718,-0.43879655,0.2491383,-0.29738227,-0.68599087,-0.13146526,-0.61053944,0.24366131,-0.44940743,0.32110807,-0.76656896,-0.21396859,0.13688117,-0.16865928,-0.1602523,0.8822949,-0.35385585,0.2413837,-0.34924683,0.56380075,0.4430067,-0.13956612,-1.1716485,-0.17822771,0.22338559,0.43236545,0.39241427,0.01745342,0.5652051,-0.18733026,0.4186546,-0.24842426,0.0939538,0.3456047,0.15564749,-0.09500637,0.26616952,0.21826106,0.04849327,-0.2532256,-0.32944998,0.40360093,0.5591165,0.19716547,0.117597,-0.017046504,-0.18842135,-0.7180191,0.29353693,0.18659417,0.27730447,-0.48923218,0.3151026,-0.28623506,0.33236185,0.24995968,-0.2305657,0.2719001,-0.14275628,0.6382953,0.33208892,0.102649726,0.1511245,-0.09106613,-0.067907974,-0.08309215,1.056235,-0.29222596,0.038922828,0.46590796,0.024749642,-0.07966636,-0.1909245,-0.6143932,-0.038054712,0.4143648,0.073560126,-0.06590838,0.20099662,0.18525817,0.4205375,0.15267694,0.11288032,0.34451154,-0.049321022,0.14057896,-0.45483094,-0.8416357,-0.16079709,-0.18862246,-0.55484855,-0.11318213,0.25431645,-0.25848946,-0.32249385,-0.035867892,0.38317373,-0.32053334,0.15725198,0.13392572,0.34537715,0.21574934,0.6496995,0.46903723,0.20471106,-0.29268566,-0.44352823,-0.24831282,-0.16563535,0.36789402,-0.88131666,-0.136056,-0.21070483,0.45657855,0.66623425,-0.38562047,-0.19718887,-0.15494558,0.16234387,1.5542269,-0.4772597,0.13744868,0.39634168,0.9429287,0.5957836,0.08159417,0.21207815,-0.58704597,0.34287643,0.03930855,0.10693824,-0.08919904,0.80286,-0.82822454,0.66592455,-0.14602742,-0.17225222,0.06284559,-0.27198866,0.2800542,-0.59794885,-0.38941503,-0.61067647,-0.5035148,-0.40712404,-0.17053872,0.018213425,0.010301278,-0.17777607,-0.5182548,-0.46522704,0.18755408,-0.38901162,-0.2234442,0.3530823
0.55942154,0.83603,-0.30299708,0.81873596,0.4287094,-0.26009715,0.33836168,-0.059743594,0.87208563,0.46846685,-0.40256822,-0.20343384,-0.46508968,0.059961483,0.67911804,0.08330259,0.9950859,-0.1066443,0.082759865,-0.80489016,0.48057923,0.09216851,0.70350206,-0.07612753,0.58507454,0.061549965,-0.57421833,0.33178583,0.24066953,0.29365164,0.20505287,-0.29090974,0.549126,0.46525747,-0.49836904,-0.7256476,0.2213992,-0.16734068,-0.0137604335,0.13785484,-0.15166122,-0.04312601,0.63737,0.16224457,-0.24741074,-0.084177434,0.32959735,-0.44887093,-0.6538692,-0.24727426,0.010861149,0.49355653,0.15869561,-0.5427426,0.22599036,-0.6245013,0.6157587,-0.36110774,0.36959878,-0.25517696,0.4868309,-0.41648495,-0.08466139,-0.39707282,0.03416316,0.5098204,-0.96442384,0.325928,-0.22744006,-0.33477098,0.032677423,-0.15229428,0.18503894,0.32347733,-0.86818093,0.016314985,-0.3503496,-0.16574313,0.009816771,0.72256535,0.21510984,-1.0412152,-0.607531,0.1294794,0.05023675,-0.1606922,0.1543206,0.1595721,0.0987745,-0.11954242,0.15710834,-0.2217295,-0.4250187,-0.7619661,0.19704452,0.3035324,0.008236695,0.41750038,0.10284496,-0.08141258,-0.2176145,0.576103,-0.029382812,0.051975504,0.3883469,0.37730646,-0.2046775,-0.69168395,-0.20979372,0.6962685,-0.31015193,-0.16657645,-0.118764505,-0.6064345,-0.08680006,0.49710009,0.079087764,0.20690905,-0.20094448,0.346596,0.19660632,-0.67906827,0.08534571,-0.14361788,1.0727327,-0.19094756,-0.63263154,0.4828487,-0.9789619,0.021883897,-0.6650908,-0.36736706,-0.65082455,0.8154381,0.8497849,0.73486185,-0.10715903,-0.11139218,-0.049215488,-0.31730583,-0.6641907,0.4276858,0.04840286,0.02760815,-0.24723627,-0.20600411,-0.5687404,-0.4086092,0.3792601,-0.3295048,-0.0535931,0.31630066,-0.060650628,0.20513453,0.35261038,-0.17285351,-0.17243956,-0.4428398,0.8866606,-0.025351549,0.4968025,-0.3462253,0.106020875,-0.44899958,-0.3865508,-0.4980741,1.1272852,0.52372843,-1.2117902,0.34112906,0.5071586,0.37081578,-0.5503795,-0.9885867,0.33589903,0.27168638,-0.06464608,-0.7880124,0.14993863,-0.22862972,0.036675766,-0.15642564,-0.71712685,0.32340568,-0.7120064,-0.46833575,-0.075861335,-0.4201055,0.62711996,0.24381354,0.104085974,-1.0680037,0.16572434,0.6252025,0.09376443,0.5526975,0.043096412,-0.4443856,0.6307803,-0.46682522,-0.57736087,-0.0821324,0.47933877,0.73957264,-0.07564919,0.26431373,-0.7507975,-0.16045089,-0.64603555,-0.12699394,-0.058611095,0.6215968,0.426411,0.4246333,0.40074462,-0.27735457,-0.070899844,-0.4178555,-0.04650622,-0.10658487,0.92491466,-0.30940267,0.23656832,-0.009281515,-0.05371427,-0.05222803,-0.19436984,0.80891067,-0.50487596,-0.80862635,-0.75757587,0.37647787,-0.44168958,0.4963181,-0.76240945,-0.101746835,0.91400594,0.8125638,-0.50027907,-0.07039519,0.4408784,0.43570912,-0.13209838,0.49231026,0.33122295,-0.17358132,0.019715112,0.8633446,-0.75291365,-0.7206311,-0.01916438,0.00059918,0.011255906,0.26637086,-0.17189689,-0.81114197
0.10613077,0.36622655,0.021084443,-0.36316872,-0.04422842,0.41794175,-0.114591345,-0.15333037,0.0025764168,-0.4074173,-0.29033718,-0.3087438,-0.091392,-0.22563605,0.7661379,0.026109032,-0.019601619,0.5293599,0.22166274,0.25974843,-0.49402523,0.4415908,-0.31291693,0.36074394,0.086886555,-0.29071188,0.5713682,0.26107374,-0.28669614,-0.4010804,0.878108,-0.47925863,0.23335144,0.13121153,-0.59800726,-0.16244614,-0.049175534,-0.45811465,-0.42363337,-0.10413619,0.21875747,-0.30055737,-0.8743172,-0.6138686,-0.08151946,0.15663259,0.065519944,0.43002796,-0.18317364,-0.3580178,-0.43680272,-0.2891746,0.1455934,0.13528986,0.6217551,0.49075523,-0.31833598,-0.94231075,0.054127175,-0.17716639,0.76364166,0.35657498,0.03263209,-0.35711023,-0.012014021,0.882865,0.19803953,0.14544271,-0.47458962,-0.24005897,-0.20773748,0.05906991,0.21222293,-0.3328515,-0.38963056,-0.48267928,0.41271365,-0.46320125,-0.023607394,0.36704043,0.04645451,-0.2967764,0.48394218,-0.19889125,0.4605912,-0.023769751,0.10126676,0.18577611,0.08262883,0.29936093,-0.20633574,0.37854838,-0.4479479,-0.0054752477,0.15717809,0.51218224,-0.0613366,-0.38302824,0.2555653,-0.16450267,0.009189018,0.35579872,0.02414585,0.42583227,-0.48620233,-0.3951091,-0.46352834,-0.09376504,0.097844966,-0.45232812,-0.31717032,0.11410248,0.6310119,-0.9016554,0.17099927,-0.14530085,0.13546403,0.635735,0.40654442,-0.014289433,0.2348172,-0.25467208,-0.11113026,0.3014103,0.20651866,-0.18160683,0.19026916,0.542769,0.5031838,0.32969448,-0.37505093,0.26176387,0.36155137,-0.27293777,-0.06467781,0.69351226,-0.08657576,0.41894394,0.032306615,0.933764,0.71089894,-0.86348635,-0.2930579,-0.15472545,0.37835068,-0.4147207,0.4135891,-0.06543875,-0.07068408,-0.25700215,-0.28180677,0.82745004,0.5547877,-0.26794553,-0.32184717,-0.8580521,0.08466867,0.69214743,-0.19322304,-0.31039518,0.15594913,-0.17073238,0.56557465,-0.7256572,0.030265123,0.112951115,0.82910323,0.5315696,0.5784969,0.27759594,-0.11195017,-0.10450652,0.7317171,0.53418654,-0.6041915,-0.20715675,0.88582385,0.26608646,-0.21253541,-0.6562641,0.16735381,0.16175319,-0.4664576,0.23791017,0.6398747,0.18216662,0.29675305,0.05306069,0.1925892,-0.23555142,-0.0051186127,0.4926585,0.264402,-0.22198291,-0.6622507,-0.13909242,-0.13014166,0.13793501,-0.2544835,0.06135029,0.16822296,-0.07737533,0.020435108,0.06522941,0.08301234,0.1425076,0.87007034,0.5301031,-0.3255432,-0.5700047,0.13130063,-0.6260826,0.36520487,0.3539404,0.02000746,-0.34695053,0.539684,0.54966855,-0.13007142,0.13410248,0.034849137,0.25093907,0.6100938,0.39515856,-0.0406287,0.2802469,0.10959699,-0.12360037,-0.15570678,0.04293601,0.19806524,-0.42111292,-0.43936455,-0.2048855,-0.13508794,0.07460239,-0.68758184,-1.0149922,0.30833158,0.11394002,0.1416309,-1.0520377,0.23237105,-0.18081869,0.8646831,-0.418751,-0.05342806,0.14050832,-0.13082111,-0.25840235,-0.17470545,0.7308167,0.20189318,-0.20205194,0.30352858,-0.5885095
0.40384766,-0.01642281,0.56285733,0.053923942,-0.036914445,0.088927865,-0.30941096,0.30935416,-0.14823247,0.057069156,0.3821791,-0.48901704,-0.5343788,-0.028852476,-0.48090467,0.16562703,0.012613098,-0.014458475,-0.6286085,0.14813496,-0.54700226,-0.00014740517,0.29414093,-0.13643506,-0.39904663,-0.028037649,0.048514735,-0.37337014,0.18892856,-0.8565671,-0.23982415,-0.11920249,-0.32143405,0.82600296,0.27593374,-0.14674862,-0.02347468,0.34947625,0.093269356,0.10252585,0.25290662,0.15567592,-0.5246928,-0.020765558,-0.31281647,-0.18841688,0.14653902,0.09372948,0.44344908,-0.29500917,0.31641087,-0.34463593,0.05709885,0.07954614,0.11396532,0.07935074,-0.0810711,0.07904388,0.21223977,-0.55324954,-0.35928103,0.24964003,0.777413,-0.33132136,-0.16774742,0.1113704,0.25774553,-0.075118326,-0.08530245,0.37841222,0.030496646,-0.21797417,-0.46205446,0.64494383,0.14860214,-0.38305324,-0.7699727,-0.0342207,0.32809824,-0.15484898,-0.5545838,0.751651,0.25623637,0.0910825,0.009585089,0.14925572,-0.8120745,-0.04960843,0.15595233,0.08127704,0.016683925,0.5774625,0.1859069,-0.027869925,-0.039289355,-0.60999227,0.53445786,-0.10005879,-0.059438612,0.08880707,0.6811136,0.15734476,0.77111936,0.062879525,-0.7976111,0.48651522,0.10236041,0.25310442,-0.14804259,-0.021987379,0.08162305,0.05899063,-0.206199,0.29864877,0.6173121,-0.25205076,0.5784832,-0.113852516,0.045442935,-0.33001205,0.337019,-0.73400545,-0.18273753,-0.4717746,-0.5026286,0.35198885,0.07300243,0.09561307,0.2879362,-0.4524891,-0.48057878,0.1351346,-0.26498252,0.27014765,0.23731573,-0.73120856,-0.12789005,0.12503155,0.6528839,-0.11906144,0.6827693,0.031526,0.07543355,0.42622873,0.44337144,0.5955289,0.14989787,0.044061072,-0.4742434,0.45620713,-0.23018083,-0.3015884,-0.24510035,-0.062871516,-0.31615576,-0.38325617,0.371845,-0.21695739,0.13372461,-0.046473265,-0.08510222,0.277237,0.09623736,0.17017248,0.34724015,-0.37226787,-0.6552804,-0.27641314,-0.0927977,0.05948627,-0.123273045,0.11504287,-0.026887236,-0.18471256,0.16756439,0.027571525,-0.9958469,-0.08248109,0.15751752,0.058906544,0.07858207,0.63076746,0.34771296,-0.17288814,-0.06627756,-0.13321802,0.3354377,-0.19699118,0.16383721,0.54321045,-0.018591804,0.016947724,-0.008966608,-0.1361049,0.04967937,-0.2911157,-0.1960351,0.26212206,-0.1986399,-0.15981603,0.25449204,0.6626981,0.08375746,-0.27806824,0.43352488,0.031227631,0.28916135,-0.06884844,0.572903,-0.05515771,0.27701026,0.32847378,-0.0047175004,0.39505714,0.101983495,0.39330938,-0.5112389,-0.3575632,0.09672753,0.19604379,0.0067819892,-0.29613632,0.23939826,-0.7726599,-0.54320484,0.16323735,-0.013455941,-0.19951308,-0.56602794,-0.39998895,0.257961,0.06656437,-0.11146009,0.1416014,0.3040011,-0.08191477,0.055633277,-0.020653265,0.2598807,-0.5090297,-0.27225283,0.4224987,-0.4333282,-0.5475336,0.10683916,-0.46418786,0.078697674,-0.35430858,0.58006835,0.89398754,-0.389235,0.43207002,-0.69948804,-0.068424806,0.23145129,0.14867455
-0.50493014,-0.38677162,-0.16598779,0.7318768,0.040104914,-0.0010952756,-0.92104656,-0.40910405,-0.58703214,-0.06068636,0.26908377,-0.4873531,-0.37375683,0.39407742,-0.18305042,-0.05201349,-1.2578086,-0.26003283,-0.2351705,0.37837073,-0.23786789,0.4006169,-0.5383429,-0.09273117,-0.9582028,0.11796663,0.24912046,-1.0729926,-0.08560043,-0.3241066,0.3297248,-0.22096606,-0.053392205,0.49481443,0.16212891,0.25280938,-0.6753995,-0.17684817,-0.06626853,0.12497233,0.068111956,-0.194865,-0.14144641,0.050151765,-0.598795,-0.0993912,0.13051878,-0.024086747,0.7471978,-0.23757163,-0.09328082,-1.0085113,-0.084352985,0.37760463,0.104543686,0.225086,-0.3441905,-0.21473564,0.5969989,-0.6329953,0.10437931,0.16545501,0.3021893,-0.20669301,0.35863063,0.95569825,-0.14173824,0.012346999,0.3463063,0.48966348,-0.92511517,0.4979294,-0.08355226,-0.0902129,0.5688731,-0.024312453,-0.88047236,0.079633355,1.2946314,0.10610858,-0.55531913,0.46343172,0.051525507,-0.11315485,-0.022329628,0.06527602,0.09111617,-0.19316755,-0.55493003,0.39250413,-0.39828214,0.012282762,-0.57576716,0.6232489,-0.057026204,0.081444986,0.45870015,-0.28454155,0.05027952,0.20346484,0.28415668,-0.29659447,0.10613022,-0.5200444,-0.09503743,-0.1181866,0.26201126,-0.24397385,-0.36774322,-0.06999095,0.23860255,-0.65400887,0.32778552,0.13480155,-0.056635473,-0.38045067,0.2163326,-0.15546057,-0.2529462,-0.17892583,0.74916196,-0.6946394,-0.115103126,-0.17573227,-0.9745767,0.05987812,0.9894273,-0.61471456,0.33969197,-0.5156589,0.25199446,0.019042512,-0.37821072,-0.17547889,-0.40702802,-0.25453833,-0.13041373,-0.15587287,0.67325723,0.35674167,0.097251035,-0.16357867,0.18701184,0.67311513,0.41809022,0.46187007,0.27891043,0.8201993,-0.9966085,0.27079552,-0.6575091,-0.14304829,-0.21082771,0.097521745,-0.27752033,-0.25193444,-0.09855408,0.98726755,0.30439603,-0.44946253,-0.22372766,0.30898085,-0.4375038,0.16217004,-0.6409601,-0.11447491,0.11669973,0.42635918,0.27572465,-0.16112955,0.8611415,-0.71943986,0.09338528,0.13656676,-0.8279576,-0.25770938,-0.43978798,-0.016845249,0.24844758,0.30639678,-0.16560747,1.3022262,0.02967991,-0.52423674,0.20086814,-0.07216225,0.7147193,-0.3814579,-0.13721788,0.3935264,-0.7439478,0.8836039,0.23686011,-0.2844513,0.16954593,-0.37643477,-0.27614284,0.40621227,-0.024602398,0.61713415,-0.090732306,0.14723723,-0.017076189,0.42049178,1.0020963,-0.73793876,-0.17618845,-0.45980364,0.6624365,0.23273662,0.7088513,-0.65129006,-1.0229182,0.359752,0.8380247,-0.12216344,-0.8438934,0.51984733,-0.004529747,0.48609182,0.11557282,0.30354196,0.2820652,0.010050369,-0.07711367,0.23830825,0.095427305,0.044642046,-0.6248195,0.9552524,0.50701606,-0.11685661,0.18129626,0.7842952,-0.1704003,0.29299387,-0.36168802,-0.5276011,0.36202595,-0.5323794,0.14644189,0.8316201,0.06862674,-0.65795714,-0.27268255,-0.074798375,0.180274,-0.27882874,0.18070953,1.1311975,-0.80277026,-0.072468475,-0.3026647,-0.15694095,0.75376725,0.90778685
0.42311448,0.3937923,-0.11963809,-0.20538068,-0.4731524,0.1883037,0.26784298,0.6197834,0.07321385,-0.5546285,-0.42949912,-0.08695582,1.2263544,0.03480732,-0.043524638,-0.15437157,-0.46528596,0.1694229,-0.07585879,-1.0006194,0.29582924,0.23776619,0.32611224,0.06468556,-0.46191964,-0.14198384,-0.33275026,0.27064022,0.39599335,-0.38719213,0.19436648,0.25505,0.36599642,-0.19481957,-0.5565591,0.800718,0.10378384,-0.35035762,-0.15018822,0.3318871,0.13133894,1.1619582,0.23445193,0.07381591,0.40239206,-0.09342475,0.29363608,-0.14653821,-0.008328723,0.56820846,0.34608534,0.5460798,0.18751097,-0.06872524,0.12951662,0.30259532,-0.29024863,0.6003865,0.13812144,-0.22177744,0.73351604,-0.006915244,-0.35374686,-0.21752343,0.17309202,-0.39864004,0.49350026,0.15487532,0.33049133,0.4869148,-0.10888975,-0.23836736,-0.22398368,0.10273132,-0.3291519,-0.0023895137,0.32662547,-0.05731069,0.30056864,-0.28973672,0.074964836,-0.053494696,-0.25216198,-0.26745978,0.06313045,-0.6344129,-0.5607622,0.38710648,0.15629633,0.1969263,-0.54103285,-0.21356241,-0.6982552,-0.23867022,-0.0321641,-0.26349202,0.17647295,0.20854312,0.19030799,-0.4749667,0.4533759,-0.10045103,-0.57746905,-0.40670064,0.56088656,0.13766699,0.1805046,0.1540352,0.3581673,0.8235399,-0.021778177,-0.57458705,-0.42617244,-0.046110734,0.9861308,0.062431417,-0.36400896,0.24974398,0.051114734,-0.2793861,0.21272528,-0.64974785,-0.2938338,-1.1256851,0.25590238,0.13538656,0.013871205,0.30231258,-0.22314389,-0.026651593,0.12302874,-0.20197888,0.7084019,-0.04676618,-0.16745894,0.43195954,0.100290924,-0.013975866,-0.091113456,-0.15645105,0.22936234,0.06137683,-0.6427255,-0.1808964,0.08145305,-0.31368452,0.15672357,0.15025379,0.19084525,-0.7141374,0.33480108,-0.29579768,-0.0771456,0.5968695,-0.10484838,0.4968491,-0.35923746,-0.033567782,0.52652407,0.6368411,0.35087597,-0.19986801,-0.7365952,0.058264233,-0.46662498,-0.15433013,-0.1663492,0.5592228,0.44300133,-0.066845074,-0.5198098,0.5861789,-0.13313472,0.032997582,0.039682295,0.19402806,0.097259,-0.23064272,0.029795673,0.1979257,0.28741118,0.2959323,-0.088402204,-0.4374549,-0.40775293,-0.04236244,-0.24378668,-0.4435905,-0.18872537,-0.4918555,-0.24533026,-0.3910462,0.29557994,-0.21542077,0.20971982,0.092459604,0.1962249,-0.4884325,0.2425903,-0.037443954,-0.7712032,-0.06709778,-0.16664137,0.65116286,-0.36832464,0.46181995,-0.07845808,-0.33366883,-0.4602312,0.038220886,-0.18028833,-0.65872973,-0.5064976,0.21027018,0.3604074,-0.040306553,-0.37168851,0.22020087,-0.20444532,0.01354957,-0.09198448,0.34521222,-0.05424328,-0.009539238,0.063276574,0.4171773,-0.062827885,-0.16347015,-0.12698376,0.3374963,0.15973331,0.44249675,0.20546581,-0.25788847,-1.3575037,0.17011529,0.07267555,-0.06560625,0.13031349,0.004128148,1.4006342,0.2197547,-0.33677223,0.43134445,0.09387939,0.13371053,-0.4062669,0.11517546,0.5066576,0.007210991,1.3330097,-0.25951844,0.19941099,-0.42225212,0.566797,-0.027847154
0.028494323,-0.17403409,-0.29425284,0.013118926,0.14979202,0.2520593,0.025247624,0.4807224,-0.0061730435,-0.8087374,0.14726557,-0.69160837,0.2511516,-0.031021787,0.2543086,-0.29802942,-0.5940038,0.41777354,-0.3889599,-0.05137246,-0.25553304,0.04971706,0.08341824,-0.30695966,0.26417217,-0.20757672,0.15365408,-0.40138176,-0.20311815,-0.08457591,0.09368724,0.1430911,0.548338,-0.18063405,0.06037902,-0.66908,0.10399866,-0.16089544,-0.117354006,-0.2952237,0.3292919,0.037809245,-0.12061967,-0.5674542,-0.111754864,0.2763339,-0.49634275,0.102663495,-0.463833,-0.28056076,-0.14371121,-0.35841858,0.03638344,-0.3597404,0.41471314,0.100108534,-0.73500377,0.018808816,0.05370071,-0.6247003,0.0011014225,-0.06756946,0.1979064,-0.26153842,0.2729616,-0.39199796,0.21967809,0.093221724,0.01840427,-0.11099595,0.41754854,-0.11734524,0.16397573,-0.37717146,0.5189543,0.41996664,-0.15487447,-0.21565758,0.37796736,-0.3841749,-0.6797859,0.41512084,0.065697394,-0.15732503,0.601507,0.06924588,-0.1826778,0.3528691,0.14179023,0.4200541,0.0011827967,0.23738746,-0.11646652,0.57455957,0.28263813,-0.21214111,-0.2023128,0.047042284,0.39181697,-0.09803476,0.02741461,-0.16929275,0.17256024,-0.29567555,-0.052396346,0.49036923,0.14321347,0.6041479,-0.054395583,0.3565512,0.014277149,-0.40497106,-0.18315431,0.31397423,-0.7918536,-0.41461784,0.16629413,-0.053086676,0.26250803,-0.6146059,0.55704486,-0.5273924,-0.15425363,0.026846139,-0.20319885,-0.07314756,0.19578812,0.17875564,0.019136108,-1.0746884,0.1452915,0.16175441,0.10243327,-0.41437533,-0.7359641,-0.5363762,0.055211585,0.2566942,0.29076594,0.34015086,0.071535565,-0.21014166,0.4966115,-0.6290766,0.14822005,-0.16144899,0.41880998,0.27828112,0.09562898,0.20222758,-0.632765,-0.26861292,-0.27286115,-0.3524374,-0.49206886,-0.32096565,0.1924306,0.6052932,-0.1475037,0.1214171,0.30218711,0.3905088,0.00970846,0.03626696,0.13973187,0.22432567,0.07690495,0.38400838,0.18047002,0.11233125,-0.31220135,-0.24389587,0.74682444,-0.43231902,-0.10067595,0.03195497,-0.2912018,0.015152437,0.87810177,-0.24417934,-0.21024705,-0.07324191,-0.3869831,0.15973352,-0.0996793,0.7735147,0.08654034,0.14055198,-0.06607426,0.24562606,-0.11291475,0.30139408,0.1627488,0.2309255,0.4121855,-0.3774158,-0.09582098,0.017236814,-0.011792815,0.05199234,-0.10123875,-0.3550484,0.112754576,0.13085721,-0.6134345,-0.11567491,0.12843953,-0.21127886,-0.265238,-0.41235244,-0.011693986,-0.18521237,-0.6285592,0.11701119,-0.00022770147,-0.004844838,0.31918,0.14112708,-0.18385294,0.046574593,-0.16402239,0.78221875,0.3084931,-0.3153408,-0.6262905,0.34181494,0.38828582,-0.41401514,0.2840951,0.18432567,0.5555869,0.021901816,-0.1602925,0.26359254,0.212185,0.12463552,0.08081995,-0.3311208,0.94773954,-0.091091245,-0.3078498,-0.030833555,-0.26047727,-0.16936935,-0.031004755,0.0037084194,-0.41292587,0.069367826,-0.0043876683,0.1870395,-0.24568717,0.024646385,-0.08638162,-0.468287,0.46787626,0.56276226
-0.12377519,-0.39079183,0.29138103,-0.095017284,-0.28842744,-0.15791133,-0.34905452,-0.19118819,-0.4890797,0.31194782,-0.5104184,-0.17098354,0.97240305,0.23795632,-0.053071905,0.040473714,0.0778252,0.037152924,0.28557444,0.086571924,-0.050096583,-0.010199228,0.49212107,-0.05564549,0.008778021,0.21272194,0.42711005,0.05198714,0.27799964,0.26779562,0.010566779,-0.3340799,0.27036658,0.02663924,0.7577618,-0.4480478,-0.34778893,0.85242957,0.38565952,-0.2913866,-1.2180184,-0.3864787,-0.41297835,0.060563873,0.20596397,-0.69171196,-0.11020016,0.28162816,-0.028894978,-0.37327054,0.04101228,0.18435566,-0.48716468,0.07011694,-0.22115557,0.09692475,-0.23697099,-0.4520221,0.12031017,-0.08247854,0.16168807,0.27573913,0.456692,0.06196434,0.40762648,-0.11491657,-0.2093165,-0.26650575,-0.17430463,0.5732112,-0.007961309,0.5850668,0.30446133,0.62570727,-0.15300745,-0.017750409,0.35211942,0.13778296,-0.6486355,-0.6942498,0.688162,0.3384481,0.57860583,-0.24925573,0.6941967,0.13006175,0.34919992,-0.958839,-0.56048346,-0.94823396,-0.18622717,0.050821282,0.459535,0.011379411,0.2977124,-0.22726838,0.099880286,0.41416407,-0.18286501,0.86629266,0.12120903,-0.34506145,-0.22361861,0.40916556,0.21014936,-0.3927223,0.832342,0.24471799,-0.8056771,-0.3189593,0.1002447,0.23301148,-0.24642017,0.4713087,-0.5491978,-0.32162774,-0.37950957,-0.25184682,-0.113517895,0.10875778,0.16899374,0.20049359,0.36811608,-0.34614012,0.19707349,-0.02465962,0.14266786,0.048273217,0.29412004,-0.6913415,0.25670347,-0.23008282,0.25262827,-0.8571678,-0.40682203,-0.056008205,-0.1065843,0.4117662,0.25224093,-0.32134774,-0.19710593,-1.1795878,0.9111509,0.05760906,-0.15131366,-0.27223712,-0.38805783,0.2650833,-0.28157637,0.21474932,-0.10976727,0.5733257,-0.45335156,-0.341998,0.8649193,0.1579621,0.43472365,-0.32963005,-0.39167154,0.3548232,-0.5702105,0.06492868,0.5149608,-0.19099352,0.08580203,0.052184634,-0.19445994,0.80879146,-0.46513504,-0.40303862,0.32507455,-0.12461937,-0.40996855,0.16148002,0.040310353,-0.26263607,-0.5617204,0.26597646,-0.36819604,0.087723866,-0.31770757,0.20954572,0.5019057,0.34126502,0.51212764,0.025339385,-0.041319523,-0.3071805,-0.774596,0.9529826,-0.21392258,0.3973735,-0.39209595,0.4500978,-0.109773,-0.06406891,-0.53525513,-0.0106126955,0.25281718,0.48077193,0.07457611,0.122521035,0.048098896,-0.07205786,0.46690097,-0.21610811,-0.2448368,0.770816,0.41758493,-0.2791792,0.1818248,-0.55962473,-0.039957386,-0.6493509,-0.3597934,-0.017994303,0.24413489,0.7615583,0.9716684,-0.17332259,-0.1227341,0.3542389,-0.5692472,-0.3753721,-0.13322501,0.74776256,-0.07870495,-0.17776513,-0.048089005,0.18387705,1.1718333,-0.50849706,0.5999115,-0.24980564,0.40750554,0.08482294,-0.83152515,-0.39459404,-0.8608293,-0.56374824,0.92546076,0.074527144,-0.14880054,0.13045369,-0.03897921,-0.008716363,0.2598769,-0.40594527,0.02298761,0.70171535,-0.22618099,0.47302398,0.020268265,-0.2005203,0.24452598,-0.09434724
0.24675234,-0.70813906,-0.007362223,-0.40352255,-0.6273365,-0.13059509,-0.0050381077,0.8593801,-0.33459705,0.32435265,0.090972185,0.3926176,0.0012862417,-0.9429178,-0.07447999,-0.15250911,0.07417998,0.02853189,0.2811434,0.35687327,-0.19316807,0.32557485,0.12480722,-0.53880256,-0.30493808,-0.3558225,0.08108272,-0.0074674343,0.27493578,-0.13040286,0.0028650633,0.10022445,0.3693382,0.62102646,-0.5291173,0.31175908,-0.091890216,-0.15967853,-0.38963604,0.16931412,0.4436561,0.15757333,-0.121227026,-0.015346488,-0.14332408,0.14680324,-0.31301263,-0.09845962,0.6676859,-0.51551265,0.3313528,0.02209674,0.0070295725,0.07539904,0.12242422,0.09545698,-0.13562739,0.4312424,0.20228857,0.2726007,-0.009455873,-0.07718651,-0.12376709,0.26019442,0.07363212,0.05571951,-0.042026393,1.0105588,-0.22994126,-0.31871003,-0.77517086,0.5919474,0.19054689,-0.0100734895,-0.08897714,0.04792855,-0.2910218,-0.1579272,-0.013248402,0.3112152,0.29754865,1.0102706,0.11315617,0.19064668,0.7785721,0.053048916,0.27468956,0.02790476,-0.40743142,0.25715414,-0.32460952,-0.16063873,-0.23636411,-0.16615653,0.022643246,0.24697949,0.022401575,-0.11332837,0.026541995,0.11540467,0.38116628,0.2723473,0.03251102,-0.054454215,-0.027256371,0.018862944,0.249071,-0.062432233,-0.10229103,-0.2909022,0.40646887,-0.20711888,0.0026028124,0.20116878,0.055792853,-0.074046895,0.31117302,-0.014054162,0.31210324,-0.09237145,-0.34500173,0.32582688,-0.015495214,-0.25570786,-0.476763,-0.10859573,0.2708416,-0.24748382,-0.06901982,0.74645215,-0.6271625,0.6851219,0.81727666,-0.41035897,-0.12512088,-0.15654801,0.11025079,0.5609896,0.24601614,0.04627733,0.12565923,-0.770703,0.41385528,-0.043703046,0.2180874,-0.07403856,-0.0020020057,0.16848089,-0.531407,0.25828847,-0.23964898,-0.25365588,-0.15108173,-0.16261765,0.013653336,0.19843663,-0.16231266,0.40933064,0.28070542,0.17539482,0.4744277,-0.060265236,-0.31609097,0.17306167,0.509126,1.0151004,-0.07492872,0.3702702,0.2951176,-0.07119524,-0.07987664,0.12662393,0.4080396,0.41379747,-0.25267258,-0.7864377,-0.17691442,0.25089476,0.28484604,-0.0042554904,0.27599582,0.33027187,0.56074333,-0.23945357,0.22094534,0.43902293,-0.056587156,-0.04450585,-0.31546345,0.043423504,-0.05602516,0.32267797,-0.1766441,0.1343555,-0.20009355,-0.15739822,0.068716705,-0.06810027,0.13697428,0.056503866,-0.36724418,0.18761835,0.3517678,0.39215693,-0.2066435,-0.77012503,-0.49199265,0.20325394,-0.10406148,-0.2919294,0.10338006,-0.11713755,0.0035359845,-0.26204136,0.12861694,0.10798907,0.38376316,0.255644,-0.32763666,0.10009642,0.25625074,0.072036445,-0.01961273,-0.3172032,0.45191953,0.05764217,0.5513141,0.042812977,-0.35339507,0.20521222,0.46191722,-0.13045703,-0.19226421,-0.048853256,-0.46860012,0.44918564,-0.20144704,-0.3518703,0.11120165,-0.15879652,0.30820265,-0.5631013,-0.10349645,-0.23889779,-0.10350591,0.4460678,0.016520783,-0.3334427,-0.05450701,0.109733,0.14152242,0.14784954,0.39350167,0.111865684,0.0088126315,-0.15347275
-0.66548675,-0.33030048,0.6734642,-0.9322373,0.25033838,0.16528516,-0.25792596,-0.16442586,-0.9098485,-0.8395371,-0.64064276,-0.476615,0.08283251,0.061225533,-0.487115,0.33425054,0.3153826,0.18557812,-0.13434166,0.8679221,0.22057049,0.58526146,-0.3550057,0.054963887,-0.25962943,-0.11838541,-0.33090332,-0.08431463,-0.12834273,0.46208206,-0.5653551,0.46241087,-0.071059406,0.0046016714,0.080859885,0.50104856,-0.017662145,-0.0032211146,-0.22882305,0.57325757,0.33010504,0.3000563,-0.13569771,-0.101937175,-0.5281372,-0.29955584,-0.27642375,-0.40711752,0.025747335,-0.35236904,-0.38835943,-0.56403613,-0.19736171,0.6806091,-0.047900345,-0.0434117,0.040308848,0.37259528,-0.31161723,-0.4500786,-0.06718279,-0.33427593,0.466632,-0.40034658,-0.9391252,0.022119127,0.87525815,0.03208276,-0.12417568,0.35823166,-0.90725666,0.12361407,-0.044005007,-0.40201452,-0.40916616,-0.33000988,-0.15034594,0.012687512,0.03309349,-0.04347362,-0.17663243,0.588817,-0.00857783,0.061026476,0.39988956,0.7573279,-0.2705616,-0.279994,-0.5068253,0.29047695,-0.18677983,0.2759075,1.4653049,0.03590764,0.15302213,-0.3487022,0.34550712,-0.5041209,-0.062766254,0.0059591555,0.36088863,0.32902795,-0.52974945,-0.42311433,-0.2854823,0.17210823,0.12582392,-0.17645773,-0.18640992,-0.4787914,0.4451936,0.9055487,0.10283066,0.7005518,-0.1583528,0.067897476,0.8230822,-0.37658525,0.19637279,0.693403,0.72382754,0.06513977,-0.1557667,-0.59259796,-0.80858326,-0.05615085,-0.34813333,-0.040164374,-0.2686147,0.10829171,0.4608964,0.015493076,0.21732111,-0.48359233,0.45944414,0.18418644,-0.33841842,0.12012607,-0.1300977,0.3247538,0.80877715,0.07578124,0.20145608,-0.117174014,0.11298724,0.033999868,-0.44297573,-0.35919827,-0.46761224,0.2268068,0.21485513,-0.026023291,0.26433656,0.36809224,0.53460467,-0.13622753,-0.29454085,0.607218,-0.35063836,-0.46710497,0.17688294,-0.45797655,-0.04177301,0.96458334,-0.45922273,-0.61926264,-1.0766344,-0.54851484,-0.6007866,0.41667393,-0.19706267,0.30670875,-0.2472957,0.6279932,-0.49980265,-0.09098681,0.41430157,0.51710045,0.13190088,0.14455321,0.06911344,0.7735265,0.23515211,-0.44958848,-0.25037947,0.27322656,0.045436636,-0.7240694,-0.94586635,2.2444444,0.5402497,0.56858337,0.005805423,-0.26578173,-0.24399118,-0.63047045,0.20822881,0.52757,-0.13007843,-0.3611888,0.21826477,0.5072879,0.06855565,-0.6022378,-0.13281816,-0.23884359,0.04657144,0.17558534,-0.390357,-0.090575375,0.20010282,0.25173563,0.48506767,-0.24076594,-0.36134306,-0.2988272,-0.14478396,0.33065972,0.060851008,-0.1279015,-0.48037615,0.21989802,0.15122999,-0.32682857,-0.027829023,0.6534806,-0.26672146,0.3112911,-0.043298382,-0.015698623,-0.024531985,-0.28299442,0.77233946,-0.08687673,0.12844546,-0.15424737,0.5581159,-0.1836016,-0.06268517,-0.27078846,-0.40200272,0.06436283,-0.13935393,-0.49790442,-0.535359,-0.09565068,0.009206745,-0.61347383,-0.27808657,0.2910201,0.21832176,-0.026157212,-0.027559482,0.09382644,-0.13135457,-0.62773925
0.42769226,0.10225698,0.05694179,-0.8677237,-0.65076005,0.07329392,0.016130053,0.51981324,-0.3601548,0.39482605,0.10482758,0.045635413,-0.18561569,0.33334628,-0.75052357,-0.2614152,-0.30930543,-0.32417506,0.28618765,0.27538374,-0.45804626,-0.041137483,0.022644911,-0.196553,0.036654677,-0.13985653,-0.20109087,0.27928695,0.7273673,0.057204247,-0.3007995,-0.58695954,0.41582412,-0.16522759,0.04080668,0.30095497,-0.16383621,0.36531678,-0.0758998,-0.31431454,0.010494081,-0.2611835,0.3209537,-0.1910828,0.043883376,-0.11008614,-0.006830642,0.37928623,0.25381953,-0.26631945,0.6044643,0.01947895,-0.14090848,-0.023566669,0.3533338,0.0146160675,1.0261292,0.5066746,-0.029436303,0.004852094,-0.56307995,-0.11357032,-0.07276697,-0.16315836,0.12845469,-0.3401907,0.5146356,0.1915598,-0.4510045,0.07224598,-0.6293678,1.1137023,-0.8309245,-0.6594712,0.16463561,-0.046880666,-0.34935647,-0.22840948,0.16979237,-0.38712385,0.64232314,-0.12394204,0.092844024,0.09089853,0.84428513,-0.1743315,-0.3317829,0.24784492,-1.0166217,0.26268926,-0.78742766,-0.2503198,0.042700112,0.30027378,-0.041402094,-0.15647562,-0.08032616,-0.062645786,0.020981034,-0.22096449,0.087790035,0.49818227,-0.008498768,-0.09037255,-0.43617272,-0.53715914,0.30233788,0.29007137,-0.43098536,-0.6049759,0.23153983,0.5428765,0.06592079,-0.0204371,-1.4748267,0.07230745,0.30016658,-0.22638315,0.2581375,-0.13568889,0.49302754,0.40107617,-0.27933893,0.07433738,-0.37928933,-0.015937401,0.00891733,0.06653991,-0.17865525,1.3620077,-0.54219383,0.20650566,0.3773736,-0.28763318,0.19004332,-0.87401736,0.10716691,0.31691974,0.33525118,0.10892692,-0.09615188,-0.28313932,0.0071157864,0.27311602,0.3528814,-0.094677165,0.16491707,-0.2260452,-0.34205383,-0.37872553,-0.19270423,-0.6391714,-0.121763036,-0.797916,0.2798349,0.60418487,0.26085594,-0.40145215,0.11788271,-0.05464627,0.5855277,0.20348212,-0.34499246,0.17825747,0.2846533,0.07635236,-0.38266447,1.2167158,0.17764589,0.041076865,-0.31713703,-0.28351042,-0.45138898,0.22513066,-0.6177782,0.021233657,-0.8075292,0.51864,0.24287985,-0.6365316,-0.13062814,0.29359946,-0.28399363,0.27245972,0.116946846,-0.51785415,-0.14026481,-0.09468877,0.3729011,0.33824366,0.14474398,0.41963232,-0.13966846,0.28421608,-0.40988484,-0.09099316,-0.65825087,-0.14980294,-0.56030834,-0.12222586,0.3030329,0.0985172,0.090062924,0.25624183,0.7824499,-0.34422386,-0.59519225,0.09069413,-0.8063925,-0.18322656,0.30893883,-0.16161574,0.18658787,-0.42142782,-0.16568153,0.16869795,-0.21644749,-0.11234803,0.14457874,-0.36726004,0.24382311,-0.14912115,0.06503382,-0.26803476,0.49799296,0.25885582,-0.033358365,-0.39980298,-0.15468536,0.5438592,0.52212065,-0.3018861,0.08533723,-0.3717991,-0.18412179,0.48801306,-0.3956118,-0.232587,-0.63412386,0.08842467,0.07209717,-0.3875849,-0.26812923,0.016500767,-0.23564418,-0.42089236,-0.05764308,-0.18522693,-0.02515266,-0.14536956,-0.12977354,0.1260508,-0.49878845,0.14682013,-0.22142975,-0.484725
-0.38550577,0.03804881,-0.048394706,-0.14317887,0.18342172,0.14425443,-0.58922803,0.6369856,-0.2012891,0.100992836,0.5388741,-0.026175056,-0.12450745,0.3742028,0.41109684,0.18762754,-0.12283067,0.18948117,-0.49825191,0.067980945,-0.5406295,0.6348544,-0.22224024,-0.33326882,-0.24360397,-0.09660312,0.65014094,-0.7907569,0.021242933,-0.39738628,0.2955262,-0.16331652,0.12065374,0.18886435,-0.14434592,0.20934013,-0.33298275,-0.077489994,-0.27822185,-0.14808293,0.35009518,0.22185001,0.33994186,-0.18291128,-0.7483857,-0.1294261,-0.26394588,0.1089205,0.37689993,-0.25772828,0.76314944,-0.4130974,-0.6326597,0.5696227,0.27181208,0.29269686,0.12187891,-0.33890367,0.20346606,-0.37527728,0.50249654,0.46954328,0.05829679,-0.10410475,0.17219424,-0.55127674,0.80918723,0.20052178,-0.5676729,0.1773278,-0.55203867,0.027052008,-0.31727296,0.11081684,0.65423656,-0.3108924,-0.48509666,-0.20821764,-0.17452133,-0.12820536,0.15523766,-0.25336242,0.43494794,-0.21324164,0.19461207,0.18229267,-0.17409433,0.13790566,-0.109289885,0.1310796,-0.68639374,0.09966503,0.22981004,0.69306517,0.058745854,0.08382635,0.019312818,-0.14738083,0.1144786,-0.1716067,0.70701414,0.039884288,0.66250664,0.64996356,-0.6028639,0.1976454,0.15637648,0.45542356,-0.43903595,-0.42807344,1.0016501,-0.13750456,-0.23472048,-0.022350788,0.57901865,-0.6269916,-0.13575688,0.19004275,0.19204302,-0.2967149,0.63601923,0.27430707,-0.29642916,-0.14055319,0.082187325,0.2605922,0.2454069,0.3822778,0.54723865,-0.3722344,-0.24887836,0.30325484,-0.44914263,-0.5864026,-0.69521457,-0.13360068,0.17734113,0.18418162,0.318929,0.23463117,-0.35693857,0.18842043,0.41877505,0.55595714,0.2731784,-0.19834949,0.35904005,0.012766984,-0.23666605,0.61857545,0.029899713,-0.20520054,-0.42530966,-1.185062,0.13772185,-0.039573833,0.86452407,0.030872393,0.043649625,0.14381908,0.34553993,0.55582464,0.08096228,-0.16587164,-0.455678,-0.43644178,0.055742152,1.0323831,0.03464687,-0.40236476,0.21668476,-0.14750923,0.37788984,0.7010286,-0.09779944,0.08675968,0.2538626,0.675295,0.4440869,0.2605235,-0.05091311,0.6058207,-0.83267903,-0.12265093,0.23958787,-0.118440926,-0.13632281,-0.3611631,-0.00070696167,0.31007802,-0.16917102,0.5292307,0.012315176,0.27515242,-0.6777903,-0.046728373,-0.47302702,0.28991178,-0.2658592,0.42049506,0.27142704,0.09829294,0.2994242,0.08741698,0.5843334,-0.24535331,-0.2678499,0.28533277,-0.042628035,-0.2883292,0.8440588,-0.47316012,-0.020996658,-0.14290959,0.13698392,0.63674545,-0.0006815363,0.51156706,-0.06200506,0.27996874,-0.08570914,0.054505903,0.2407487,-0.39401674,-0.21828394,0.34669513,0.08554713,-0.8005296,-0.33652562,0.92013246,0.8499721,-0.54123354,-0.09178302,0.3258603,0.34011605,0.13300431,-0.56876296,-0.39039752,-0.02820171,-0.1433511,0.05656893,-0.061013635,-0.5277432,-0.2357847,-0.60655147,-0.04903313,-0.11805959,-0.5740124,-0.004983568,0.21260218,-0.45171034,-0.040775705,0.04893652,-0.3642314,0.6895726,0.43355995
-0.06301393,-0.3537749,0.1653491,-0.2659822,-0.23168522,-0.178374,-0.13695857,0.23381263,-0.29296672,-0.025519894,0.22524598,-0.0429273,0.07333842,-0.028599301,-0.4591012,-0.11949553,-0.016301347,-0.0296283,-0.36834493,0.22374187,-0.0636727,0.23376317,0.015469699,-0.022772947,-0.38055608,-0.15806621,0.23504464,-0.37204868,0.32245898,-0.6817626,0.15913977,0.10412351,-0.29742172,0.24423313,-0.011503173,0.0031887456,-0.37188393,0.09907588,0.19013083,-0.41197738,-0.1558863,0.507964,0.10236065,0.05470883,-0.44989786,-0.004451407,-0.15186556,-0.11963567,0.3607921,-0.050509162,0.5000617,-0.3012223,0.11574944,-0.025545169,-0.2291633,0.0839926,0.3827414,-0.8152598,-0.12167054,-0.050999656,-0.80638295,0.05933984,0.13931192,-0.046747524,-0.18849216,-0.27681574,0.6047291,-0.35724798,-0.016637402,-0.090354264,-0.24013181,0.018129451,-0.46165648,0.32936162,0.48115477,-0.32118627,-0.20666413,-0.021265682,0.34259742,0.12519692,-0.35090747,0.1823977,0.12153687,-0.3002273,-0.106763974,0.17786981,-1.3381178,0.12913279,-0.5650332,0.14827046,0.014359987,0.46799725,0.69235706,0.7264757,0.16022834,-0.45858806,0.60465646,-0.4961081,0.1382001,-0.13889499,-0.13562053,-0.33488548,0.24745512,-0.057159077,-0.47873062,-0.4818108,0.3610061,-0.14162014,-0.3667443,-0.7194389,0.23004241,0.10083813,-0.2057686,0.4111354,0.619952,-0.5476807,0.23319276,-0.2605194,0.02611827,-0.74447787,0.17975248,0.16545926,0.06394497,-0.21003251,0.30796948,0.46647698,0.2666683,-0.2623627,0.18344183,0.24163218,0.5654574,0.17582253,-0.094274364,-0.22680561,-0.33327016,-0.8272572,0.32616737,-0.08595049,0.58477354,0.026921703,0.18506712,0.24667777,-0.06844363,0.6664462,0.19786191,0.7457192,-0.15787691,0.19525467,-0.75897235,0.39682457,-0.2856059,-0.29719988,-0.49762565,-0.119204946,-0.5836174,-0.10919205,0.5966355,-0.20847206,-0.48282662,-0.026849972,-0.1812926,0.31718132,-0.12803859,0.896068,0.036763933,-0.30708048,-0.94904387,0.68983686,-0.20640236,-0.17332582,0.26758453,0.15329653,0.6906824,-0.11700331,0.09461049,-0.11026491,-0.16217907,0.019130908,0.052816745,0.26226678,0.26817295,0.2966761,-0.0943672,-0.23369195,0.24639004,-0.03262788,0.20705697,-0.1593159,-0.18409209,0.23807514,-0.09829107,0.4125012,0.14986087,-0.25705382,-0.24886636,-1.0183607,-0.027759645,0.029760698,-0.72246075,0.21538517,0.479223,-0.275916,-0.08255579,-0.07876895,1.4080961,-0.20255212,-0.097953804,0.10274465,0.5911571,-0.250962,0.49734265,-0.67250603,-0.52036524,0.072994605,0.09676792,0.34518078,-0.2628872,0.3222536,0.12645265,0.11994829,-0.11035829,0.42854476,0.73707885,-0.5806996,-0.2398301,-0.41797355,0.024783764,-0.18562911,-0.19379586,0.31473452,0.7272315,-0.2817179,0.1708771,0.2615484,0.14029577,-0.063404754,-0.22889909,-0.20170328,0.17287955,0.16393557,-0.36479238,0.17816822,0.04990439,-0.49973303,-0.6053986,-0.45002756,0.15136012,-0.12212619,0.3356832,0.15536042,-0.16598721,-0.11866401,-0.33547398,1.129175,0.17411512,0.46439457
-0.6500058,-0.25630674,-0.22871137,-1.2028475,0.30911624,-0.10192195,-0.5431956,0.3003439,0.5629425,-0.0042041778,0.082861684,0.063012816,-0.015128863,0.12455206,-0.06948731,1.0168481,-0.07275533,0.07084769,-0.01011725,-0.11981133,0.5306555,-0.35884443,-0.7348756,-0.14579566,-0.22636916,-0.12605831,0.21604829,0.21010968,0.7413028,0.13409418,-0.37715027,-0.32399037,-0.09428786,-0.060687587,-0.19821484,-0.44217286,-0.8692379,0.17902833,0.32195115,0.25757837,0.12672004,-0.7768497,0.24479388,-0.1617626,0.13418627,0.14132032,-0.096238926,0.45666406,0.1039002,0.3097579,0.61786026,-0.9444047,0.36470285,-0.20378347,-0.27820703,0.08571058,0.62740004,-0.2147177,-0.7177053,-0.46447182,-0.56446016,-0.2364908,-0.12052698,0.5081123,0.17769907,-0.5087159,-0.37577677,-0.36642495,0.2545998,-0.849903,-0.1424176,-1.0123376,-0.0907608,-0.24493785,0.5713324,-0.16661912,-0.5230885,0.117591634,0.4933956,0.633393,-0.30100662,-0.30427185,0.22989072,-0.12137034,-0.12543032,0.07393191,-0.1189568,0.06643099,0.4361289,0.10810746,-0.33148783,0.5141312,1.2901723,0.31901744,0.025177304,-0.07790116,-0.38050285,-0.11858045,-0.22150189,-0.25327915,0.16475993,0.7079366,0.64461654,0.26797724,-0.11045285,-0.31143245,0.96998394,-0.22137679,0.04062258,-0.4336227,0.52946913,-0.023816569,-0.08932459,0.5605405,0.98561585,-0.53007394,0.1418902,-0.32337382,0.064518794,-0.546367,-0.43906668,1.8907803,0.105955444,-0.3797533,-0.05530568,1.078075,0.59369934,0.23308577,-0.020443942,-0.51666796,-0.2238657,0.7142042,-0.45137003,-0.00077745,-0.16381206,0.30830276,0.4400029,0.14306863,0.59436935,0.041892342,-0.06867618,-0.4965048,0.088665865,0.06783916,-0.008739487,0.16151698,-0.5081777,-0.5183021,0.2448342,0.7166596,0.009410048,-0.19207753,-0.22260863,-0.4754607,0.6176232,-0.13701636,0.05012034,-0.31187046,-0.5697322,-0.43391895,-0.039227538,0.6346685,0.3954147,0.83714104,-0.040267568,-0.10804534,0.16359411,-0.954296,0.40168762,1.1607198,0.560826,0.075324394,0.093479455,0.47596145,0.354553,0.13397229,0.018055987,-0.11646287,-0.090945356,-0.818503,-0.0078108483,0.15858182,0.30718964,-0.5078496,0.3201622,0.06104563,0.12338611,0.3670179,0.10077538,0.051887725,0.10362556,-0.13977821,-0.10181714,-0.12078929,0.16667989,-0.06654765,-0.6160008,-0.037382375,0.5150414,0.42336613,0.21504028,-0.80542165,-0.21223529,0.28526652,0.31032148,0.19247985,0.05485466,0.44148523,-0.0017608948,0.030887634,-0.16267785,0.03086814,0.28085044,0.2938801,-0.768147,0.80111593,-0.023994088,0.15112604,0.10429329,-1.0043876,0.46719155,0.3496939,-0.12919782,-0.0104000205,0.39568746,0.041004494,-0.04302152,-0.22585538,-0.080748305,0.47513387,1.2024429,-0.31978816,0.19405794,-0.61089134,0.2995635,-0.3788377,-0.5093848,-0.22102,0.54293406,0.04756848,-0.3032263,0.6106623,0.14671014,-0.7608019,0.037117537,0.017919501,0.13048859,-0.69946414,0.23308526,-0.34903556,0.37036332,0.33463246,-0.28117785,-0.053126834,0.25469264,-0.23095109
-0.38862196,0.27636313,-0.052937344,-0.28380534,-0.6285063,-0.06170468,-0.58463544,0.4582682,0.3025746,0.4151294,-0.107876055,0.53712684,0.47046137,-0.16779326,-0.7829317,0.33797106,0.3199509,0.06539642,0.2330292,0.48783115,-0.32839525,-0.090904735,0.28076065,0.26877874,0.18929017,-0.1755202,-0.0099810595,0.61171305,0.065210216,-0.16695902,0.6696797,-0.6109241,0.24991526,0.13307054,0.36538145,0.19343978,-0.5916663,-0.33692047,-0.032422293,-0.014571074,-0.22905555,-1.0385491,0.22114319,-0.03803411,-0.27537355,0.48800078,0.07231173,-0.5743633,0.12597397,0.6696493,-0.1375496,-0.96238726,0.16273157,0.00019038122,-0.55337036,0.2620973,-0.53921837,-0.04069453,-0.36492872,0.2292631,-0.017096309,0.37361223,0.31523782,0.73660713,-0.26724082,-0.25500605,-0.17471284,-0.4339104,0.60991347,-0.6710939,-0.25649035,0.33521387,0.025699487,0.32221115,0.49708787,-0.36080205,0.29296666,0.09885322,-0.3529603,0.26112458,-0.37473962,0.015349996,0.2590975,0.26536423,0.24111369,0.16453691,0.26729074,-0.034260586,0.34194365,0.1311118,-0.8337316,0.38363314,-0.49842033,1.4212756,0.076551974,0.1385787,0.112089686,-0.18469673,0.22901864,-0.20078707,0.15603851,1.0962192,-0.37472513,0.74485564,-0.1930456,-0.87710214,0.6864113,0.39328775,-0.23374946,-0.48455212,-0.09089804,-0.50924605,-0.010646917,0.5524174,0.2722404,0.31977695,-0.70625085,-0.6056103,-0.053373758,-0.014417635,-0.37875238,0.30606014,0.27183315,1.0183737,0.08635063,1.2676979,0.5700318,-0.69574535,0.10077629,-0.23767865,-0.49337146,0.47683302,0.05800566,-0.40087658,0.5349731,-0.43572485,0.2242379,0.41757768,0.0045229914,-0.42092898,0.47128403,-0.3039614,0.14804037,0.26715267,0.015340403,0.7278532,0.084878184,0.254425,-0.2192012,0.36983785,0.1056679,-0.17733215,-0.57192266,-0.026903015,-0.8288513,0.40022013,0.84697837,0.092151985,-0.4110942,-0.15485795,-0.62802315,0.0032845004,-0.16487242,-0.079819925,0.588255,0.38979027,-0.70992243,-0.09946696,0.34812525,0.021005478,0.8768748,-0.46359482,-0.018250665,0.20164838,-0.12217714,-0.21618211,-0.102903046,0.16782543,-0.38975942,-0.08561872,-0.03353248,-0.44473138,0.54164726,-0.15218864,0.17661017,0.029563928,-0.21003431,0.57453823,0.015189252,0.41648588,-0.19014707,0.37887847,0.48940945,-0.030704249,0.7617281,-0.380956,-0.0824064,1.359378,0.10078625,0.3604282,0.51357865,-0.31967875,-0.41221198,-0.0113109285,0.25806656,0.7354563,0.15753618,0.65949833,0.5908267,-0.09861119,0.4998915,-0.6207038,-0.6665773,-0.62849665,0.03882345,-0.42413667,-0.47817338,-0.540203,-0.106716394,-0.072743036,-0.09959327,0.011459535,-0.14305879,0.2145794,1.0163355,-0.77090335,0.17246355,0.14784713,-0.0586347,0.21547547,0.7137021,-0.5183522,-0.54458493,0.37640542,0.79437834,0.2891297,-0.6625569,-0.48437816,0.195378,0.45416337,0.2739173,-0.10850581,0.43646294,-0.69112605,-0.85840404,-0.061592694,-0.19080955,-0.5616717,0.22501549,0.19078043,-0.43015724,0.34845868,-0.33999786,-0.43796888,-0.063075334,0.5201328
0.26727495,0.13311002,0.30941144,-0.13447836,0.17953745,0.1979918,-0.21480106,0.14748447,-0.33818835,-0.19719917,0.11347788,-0.17701787,-0.40450615,0.39611256,-0.4705452,-0.25154594,0.16488874,0.24647962,0.26717612,0.29835793,-0.017581038,0.066437,0.012893572,0.027752148,0.10964057,-0.33548865,0.28102276,-0.08095851,-0.6529339,0.5577681,-0.5163568,0.04759637,-0.103660285,-0.076981984,0.07002507,-0.23801138,0.09662385,-0.49637985,0.035481956,0.43637395,0.084667645,-0.4927483,-0.24209347,0.040910833,0.029581932,-0.30840233,-0.103095695,0.5048746,-0.21008761,-0.13847733,0.46604222,-0.35989136,-0.4924483,0.6430208,-0.2749776,-0.3961922,0.35634357,-0.030997518,0.5144385,0.13084045,0.74826515,0.029708298,-0.8566904,-1.2813694,-0.31509793,-0.19970635,0.40766463,-0.1257566,0.060995046,0.8237032,-0.051342152,0.47890413,0.016663937,-0.48016047,0.5513812,-0.4676856,0.32343,-0.06262139,-0.27866843,-0.14018434,0.74347395,0.6352771,0.8511029,-0.05191906,-1.0606145,-0.037542723,-0.61155826,0.46747947,0.37591603,0.18820898,0.06668294,0.27694458,0.5454378,0.688991,0.14806686,0.1119029,0.5806413,-0.20975271,0.1916168,-0.45320788,0.27642956,-0.49843794,0.41432247,0.07957842,-0.009579116,-0.26665244,-0.74055433,0.6477479,-0.25322732,-0.4420094,0.3207902,0.16491216,0.5505431,0.45032334,0.23253404,-0.2102473,0.37558767,0.4833368,0.17044201,-0.4509315,0.057549942,1.1338425,-0.08500972,-0.008846563,0.5013571,-0.243586,0.19797854,-0.17752515,-0.34316692,0.56735224,0.09423765,-0.7854292,-0.5442788,-0.25462243,-0.07232326,0.8035564,-0.01549231,-0.112961315,0.0046588406,0.012371091,0.84545505,0.37395132,-1.5043099,0.6612582,0.23419419,0.4671044,-0.30411816,0.035442986,-0.1354219,-0.5147787,0.17082562,0.27843934,0.1103195,-0.18178359,0.54394025,-0.4955914,0.8696046,-0.34317124,-0.51683766,-0.26848462,0.34503162,0.99535143,0.28354943,0.35180998,0.06807528,-0.25753903,-0.24347593,0.18029463,0.10589284,-0.23522016,0.116335355,-0.24913435,0.21165165,0.17692798,0.44961095,0.60046333,0.4608018,0.20779239,-0.08773864,1.226577,-0.06281608,0.47453338,0.21878326,0.73724955,-0.0032532872,0.16240692,-0.013395415,-0.30924684,-0.6507274,0.8269365,-0.18266347,-0.11837862,0.59675115,0.26487023,-0.1949141,-0.1750631,-0.08901586,0.4954184,-0.5492887,0.28160882,0.34019628,0.06989765,-0.28670505,-0.7998979,0.2778195,0.20441331,0.171099,-0.31772572,-0.31431207,-0.05242511,0.47628507,0.0054411287,0.172216,-0.2500668,-0.32269233,0.50097996,-0.68427944,-0.060505047,-0.22049096,0.48873267,-0.7328611,0.25108644,-0.36073035,-0.48336276,-0.31030515,0.22617665,-0.099177964,-0.51422393,-0.3538322,-0.028827008,0.2523949,-0.072588556,0.12146792,0.7583628,0.6973797,-0.09568108,-0.53082126,0.5068346,-0.6612824,0.30523276,-0.45122722,-0.34644872,0.11178317,-0.19540524,-0.5928915,-0.5315549,-0.2553208,-0.035115797,-0.4901378,-0.97855645,-0.34962842,0.20137076,-0.2929654,-0.71642697,0.08486839,-0.0636145
-0.8689145,-0.21451929,0.37221217,-0.3702731,-0.05577543,-0.40465263,-0.48839062,0.8876671,-0.32607266,0.41180453,0.92063135,-0.51382834,-0.61005664,0.15186812,-0.363469,0.022365391,-0.15085524,-0.0036207929,0.18663457,0.5678233,-0.4680406,-0.4950082,-0.15946507,-0.20757464,0.123113334,0.13006902,0.5483767,-0.17885633,-0.25277922,-0.8082637,-0.25034904,0.22716731,-0.6023068,0.3782679,0.16905713,-0.37278995,0.015153814,0.11921776,0.2694742,0.78168285,0.19180432,-0.53101814,-0.18198375,0.084452026,0.21444525,-0.17527923,-0.009569515,0.29100367,0.3923238,0.1690948,0.1136489,0.57980114,-0.13308848,-0.3342045,-0.10589429,-0.15760277,-0.21002375,0.2205786,0.13544145,-0.67032784,-0.030948283,0.2551153,0.2726714,-0.4018403,-0.49661204,-0.22931045,0.99535674,-0.1226502,0.18231834,-0.18639463,-0.45505014,-0.2672215,-0.46466398,0.26425296,-0.14086995,0.2731983,-0.32329613,0.020713419,0.21090417,0.1707664,-0.3493477,0.53407836,0.36547253,-0.13733025,-0.170092,-0.02357467,0.02004895,-0.3555702,-0.053686507,-0.14014216,-0.24489649,0.80718446,-0.101564266,-0.3281878,-0.012634996,-0.16270402,-0.21170977,-0.15708119,-0.16657484,0.13285987,-0.062787436,-0.16591024,0.7161152,0.19162875,-1.2924868,-0.3863732,0.21639125,0.6781678,-0.25747287,-0.6293536,0.36179805,0.2363256,0.34233516,1.184177,0.06337756,-0.44044116,0.65213233,-0.065728635,-0.06143315,0.23247828,0.31737414,0.18928112,0.23037101,0.36527333,-0.50735646,0.07789653,0.2062934,-0.15924793,0.32814848,-0.34197646,-0.04668415,-0.098570004,0.28282952,-0.12688576,-0.52144486,-0.50602454,-0.12104758,-0.026234938,0.8646104,-0.14946295,0.41061372,0.5062969,0.62061465,1.0470579,0.37727025,0.14881282,0.18871441,0.022762252,-0.46638995,-0.21030867,-0.16747567,-1.0044719,0.28860575,-1.0026368,-0.4458932,-0.042914785,-0.24115704,0.49255076,-0.48093897,0.059951566,0.0142894965,0.21197824,-0.08873782,0.48804158,-0.1386359,-0.1263627,-0.6675662,-0.41008088,-0.03353009,0.05050648,0.069476284,0.22335142,0.22580749,0.48453838,-0.22519325,0.15836139,-0.40640932,0.6683711,0.13297437,-0.08432803,0.15025896,0.40156034,0.2120307,0.023075465,0.17828113,-0.13672435,-0.05954924,0.13693053,-0.0755606,0.3754989,-0.020923618,1.3643028,-0.11863536,-0.51454973,0.09370143,-0.14340457,-0.610439,0.05910355,-0.8031746,0.1148334,0.87497115,-0.13698721,0.33680966,-0.9168521,0.22752506,-0.29966307,0.43786734,0.14080086,0.55224013,-0.041576557,0.09324961,0.2232017,0.37644413,-0.13267843,-0.35379022,0.45412186,-0.2587499,0.4288059,0.22185582,0.12054574,-1.1912637,0.00755446,0.21754584,-0.30196095,-0.31727642,0.31733182,0.23681234,-0.64778006,-0.46147805,0.456622,0.2648369,-0.025667626,-0.017857533,0.10872014,1.2415262,0.106802166,-0.35801733,-0.60547054,0.39978942,-0.26245257,-0.30367488,-0.12788156,-0.015161856,0.12988794,0.56329614,-0.0612042,0.30031914,-0.10060813,0.87016594,0.49479723,-0.2417991,-0.18945438,-0.71519065,0.3939304,0.4599562,0.29564
-0.000993089,-0.34563234,0.4498465,-0.0030751692,-0.2812773,-0.004876517,-0.010194403,0.4208815,-0.21781483,-0.58368605,0.2227,-0.45291856,-0.38313383,0.3300519,0.07031023,-0.04864923,0.18800114,0.044785477,0.386289,-0.05899878,0.08411187,0.43225068,-0.14829068,0.054163124,-0.5939591,0.07766244,0.30898735,0.12318165,0.3042615,0.046619587,0.08307423,0.18359454,-0.13482031,-0.054456584,-0.018295413,0.45150676,-0.031175863,0.28138396,-0.038311996,0.27242622,0.4257769,0.4754328,-0.07303501,-0.0008328241,-0.09151233,0.007620317,0.076998636,0.079880305,0.007432374,0.12526314,-0.2539445,0.24261682,0.06583499,-0.14114854,0.036092818,-0.4760226,-0.15557022,0.34429687,0.17007384,0.3841466,-0.2533812,-0.6104739,0.013719584,-0.38118696,-0.06438388,-0.17209308,0.98466015,-0.041534834,-0.16634256,0.6844062,0.5497459,0.14709635,0.34436712,-0.33785862,0.07833356,-0.77648354,0.36361355,-0.05808656,0.13680162,-0.025899075,-0.3038312,0.3518495,-0.7216512,0.13185358,-0.4994137,0.19113775,-0.7309481,-0.1406857,-0.58395547,0.09056861,0.014771357,0.0023758046,0.6661789,0.2613232,0.14338052,-0.30748948,0.5668839,0.16454102,-0.04115635,0.0534657,-0.033960387,-0.33086905,0.0029519848,0.08260901,-0.61069226,-0.47601977,-0.22573559,0.26702383,-0.13614906,0.8621189,0.04866763,-0.020709364,0.34744805,0.83981353,-0.55335855,0.13197246,1.0292767,0.14497566,-0.07037785,-0.06792795,0.032761868,-0.214863,0.11109418,0.018686362,0.27607948,-0.3246563,-0.55373216,-0.017372988,-0.6935155,-0.2231559,-0.082978524,-0.19290943,0.7494386,0.42020467,0.5549681,0.0008551018,0.08030618,-0.21024568,-0.20647977,0.23542711,0.33871105,0.4255191,0.29089144,-0.15170085,-0.14492026,-0.06557803,-0.63931954,-0.3376144,-0.46960452,-0.14017501,0.7669814,0.13663697,-0.2792987,0.37350467,0.525186,-0.35838047,0.37400496,0.17582496,0.022207564,-1.3789997,0.013381099,0.05776057,0.4561508,0.16689622,-0.4706711,-0.3942404,-0.34091103,-0.032843985,0.05777446,0.7261094,-0.28919542,0.04125227,-0.89814126,-0.09246025,0.22214422,-0.16143467,0.1629395,0.08377614,0.24381527,0.001014076,0.061885383,-0.09687752,-0.3565665,-0.10253689,-0.4902283,0.22191957,-0.43615547,-0.34539953,-0.49566478,0.41878545,0.46308455,-0.2748606,0.14699525,-0.24951334,-0.31640968,-0.3418764,0.79703224,-0.14080563,0.0030477096,-0.58259135,-0.2765277,0.60189277,0.065328486,-0.7860369,0.46191025,-0.017158767,-0.06219883,-0.020915337,-0.33828413,-0.034875467,0.37653542,0.046618503,0.6024933,0.35129896,-0.4315469,-0.10354281,-0.7272236,-0.3753531,-0.081719644,-0.30173838,-0.9358424,0.049670096,0.37996545,-0.48027068,0.63115084,0.4701055,-0.27045903,-0.08644316,-0.072211996,0.1956727,0.13728324,0.18464391,0.22354339,-0.20025411,0.91946757,-0.6269512,1.0296491,-0.0797448,-0.63875383,-0.46076027,0.025490208,0.050512828,0.042838044,-0.05953194,0.045434434,0.21551946,0.12056276,-0.19394465,-0.031293757,0.19025625,0.1345254,0.5091433,-0.015535475,0.32969093,-1.1196008,0.20799139
-0.12603955,-0.121894106,-0.4035731,0.05676812,0.616972,0.11546006,0.040220257,0.41275138,-0.29125658,-0.098156705,-0.9243376,-0.20236647,0.6807302,0.15284432,-0.15144053,-1.022339,0.13587998,-0.28326365,0.17488581,0.18963242,-0.30302674,0.61112773,0.81596726,0.4440543,0.096438445,0.3992745,-0.6567323,0.7600095,-0.11360165,-0.116954826,-0.17789373,-0.80905354,0.46613774,-0.444105,0.33266747,-0.34478852,0.93741846,0.5816224,0.18554851,0.19220984,0.20750454,-0.46176028,-0.46297967,0.47445223,0.33038712,0.1586668,0.55073464,-0.08636873,-0.29617298,-0.5614123,-0.047260184,1.0614231,0.25569767,-0.30515507,-0.06957044,0.008606285,-0.16425848,0.740172,-0.5348121,0.3306241,-0.29359147,0.06701448,-0.44933245,0.13123351,-0.68359905,0.03367039,0.33935854,-0.24254529,0.37269837,-0.31121808,0.5556118,-0.19388084,0.30662027,-0.29423192,-0.86097676,0.60089195,0.7055807,0.37730032,-0.6885754,0.17655627,0.30912474,-0.010253665,0.014705159,0.741462,0.3176191,-0.13031793,0.4839881,-0.24836937,-0.30803806,0.18511058,0.2966804,0.26884803,-0.6391947,-1.0860736,-0.24495614,0.08259249,0.053911153,0.40268424,-0.10974575,0.79532194,-0.46484002,0.37155074,-0.46933722,0.31314024,0.06893689,0.5281213,-0.044305824,-0.23033415,-0.0203666,-0.113752805,-0.39983743,0.65183777,0.12680534,0.07113211,0.22474678,0.19352297,-0.3993895,0.081259586,-0.76261216,0.6518095,-0.49920034,-0.19863454,0.15974869,0.173132,-0.39862108,-0.7909532,-0.33463734,0.1445098,0.14871895,-0.709808,-0.00936842,0.29410827,0.57515234,0.030890854,0.14402248,-0.07277276,-0.3935857,-0.02587488,-0.23193832,0.27620625,0.27722532,0.5475278,0.17700481,-0.5822487,0.10671744,-0.79496473,-0.033211123,-1.1475592,0.3176216,-0.23137495,0.20098187,-0.42064613,0.28944898,-0.48233432,0.34278673,0.6320478,-0.32132205,-0.017870946,0.08426008,0.31979415,0.009726418,-0.7324602,-0.9177989,-0.6756496,0.14011261,-0.276689,0.6374369,-0.63313824,-0.28765815,-0.581496,-0.44636726,0.06739223,-0.29323515,0.25095746,0.08273826,0.03875034,-0.112031855,0.24856248,0.3328421,0.5386716,-0.19069383,-0.96953285,0.11326056,-0.13825876,-0.30489755,0.32583392,-0.76315033,0.21032834,1.0606455,-0.091033734,0.9624735,0.64342654,0.34497395,-0.043837953,0.24456173,0.36028475,0.46519288,-0.5546238,0.12045238,-0.69650596,0.17067389,-0.09995603,-0.12854548,-0.45341164,-1.0236454,-0.43911836,0.2696056,-0.01982538,-0.50736654,0.5415725,-0.081121705,0.69119203,1.0298905,0.21933359,-0.82267565,-0.40107012,-0.0761696,0.0050798403,-0.24595457,-0.37031388,-0.2760134,0.47095615,-0.056459468,0.7880254,0.36794204,-0.38079816,0.2995971,-0.15890568,0.038231842,-0.9672229,-0.0035583882,0.0705237,0.015971707,-1.2059196,0.5790454,-0.0022912312,-0.057993803,-0.071823105,-0.08965713,0.06008812,0.22175743,-0.403176,0.18808262,0.2306335,0.56573707,-0.17047757,-0.21799803,0.079142466,0.22826926,0.08146965,0.71395814,0.046177972,0.3013107,0.35009995,0.2340569,-0.061572235
0.058949184,-0.36058918,0.28427026,0.04092715,-0.016792616,0.09839724,-0.26606432,0.32228112,-0.08285563,-0.33931133,0.28816321,-0.505048,0.2769262,-0.27262902,-0.2554212,0.19552259,-0.37358898,-0.047767833,0.11485101,0.4433412,-0.47064528,-0.31222984,0.02553226,-0.6780566,-0.25494826,-0.034307525,-0.03183402,0.0551749,-0.12921204,0.17625277,-0.15034631,0.27167502,0.037109297,0.21200408,-0.013203706,-0.005187407,-0.073046364,0.19013153,-0.032988206,0.50918394,-0.0044369902,0.96838266,0.30953297,-0.09444932,0.06791399,0.075202055,0.14350888,-0.631872,0.5950812,-0.17804495,0.5628235,0.30991212,0.26076287,0.13107732,0.29344696,0.2012933,-0.44632006,-0.062316433,-0.3619599,0.08799956,-0.3948682,0.015963998,0.13324256,0.5322994,0.112220496,-0.7052085,0.48823604,-0.06877595,0.49120536,-0.20995185,-0.45480976,-0.36089423,-0.61147046,0.17847916,0.29859272,0.11613633,-0.105550885,-0.18474554,-0.17349118,-0.6112839,-0.18537414,0.9843282,-0.24562173,-0.08427757,0.2173501,-0.12313174,-0.016973352,-0.0027274534,0.15405734,0.06118493,-0.60329986,0.042004947,0.20866908,-0.2079638,0.0546218,-0.3244375,0.09067281,-0.18038405,0.029327478,-0.17148218,0.39816654,-0.23093264,0.06880605,-0.04728355,-0.6350279,-0.091685124,-0.30348238,0.13904652,0.14915569,-0.50559163,0.549284,-0.37519807,-0.22807261,0.7131681,0.20223968,-0.19458146,0.5435116,0.18539603,0.086233996,-0.41283217,0.09045677,0.5859968,-0.13347262,-0.15916546,-2.143534,-0.18518607,0.08645279,-0.4739814,0.28053227,0.48557237,-0.55760026,0.17816283,-0.28758198,-0.24000107,-0.11781567,-0.23922448,0.00070372125,0.17135431,0.27975175,0.10900936,-0.045131497,0.1709548,0.11226033,0.40689915,0.18632315,0.4192756,0.53725064,0.003440248,-0.83468485,-0.2944143,-0.08684093,-0.54968834,-0.3700325,-0.24203746,-0.548503,0.79391426,0.3828179,0.5242233,-0.37117094,-0.3261158,-0.04264336,0.22104467,-0.5635435,0.25242797,0.3963436,0.2744286,-0.645759,0.42472667,0.11708733,-0.0569253,-0.28618076,-0.05862237,0.13031836,0.25905645,-0.26458624,-0.5208964,-0.39964214,0.6264568,0.42030743,-0.2360605,0.1903928,0.5363015,0.8989554,-0.16669454,0.26813638,0.08236813,0.066905014,0.16020194,-0.4411333,-0.21815802,-0.030355858,0.07458358,0.32620972,-0.43004546,0.19452941,-0.3927543,0.2691885,0.1879317,0.01894912,0.06875225,0.3501626,-0.211079,0.26569098,-0.15072967,0.24276407,0.12353423,-0.2274079,-0.50388,0.58133227,-0.06485721,0.5872115,-0.113270715,-0.51895493,-0.5296799,0.04882523,0.15248115,-0.5788113,-0.17692208,-0.09611248,-0.5059977,-0.15002577,-0.07354655,0.45245665,-0.14429107,0.16142365,-0.06448649,0.30521527,-0.36348772,-0.04810734,0.19579673,0.5395666,-0.48509866,-0.16184065,-0.044056356,0.017319424,0.239159,-0.2728654,-0.6600074,0.61960995,-0.13843249,-0.28432807,0.02302726,0.0683951,-0.21044602,-0.25103486,-0.081403576,-0.3325877,-0.09585061,0.4245781,0.97023636,0.068968944,0.17347622,-0.32173565,-0.40948343,0.20994006,0.32121858
-0.17006983,-0.11287152,0.15698363,-0.00048857863,0.030238403,0.1341139,0.11251951,0.15403211,-0.6418904,-0.61360925,-0.045762077,0.5382028,-0.5827841,0.2056172,-0.5744007,-0.26576832,0.8755952,-0.354872,-0.7872607,0.70489895,-0.015086309,0.63262993,0.08196208,0.19791503,-1.054727,-0.061145443,0.16651306,0.1862556,0.16284023,0.20828749,-0.3994965,0.07094523,0.15220508,0.09523628,0.0065980665,0.12299764,0.2935971,-0.028076267,-0.12380858,-0.33093446,-0.28533322,0.7773771,-0.50402653,0.1046663,-0.07435241,-0.21151969,0.34214982,-0.016238132,0.08303563,-0.5572965,0.85430634,0.11453353,0.059614133,0.825307,-0.022778515,-0.102831885,0.122684345,-0.3932747,0.11084555,0.15209335,-0.33714154,0.0943306,0.341515,0.15951404,-0.3971693,-0.4054462,1.0479265,-0.05506129,0.27232295,0.124705546,-0.38007316,0.15731035,-0.6357523,0.3243186,-0.48360893,-0.35083342,-0.5868608,0.01896628,-0.24386188,-0.36993966,0.30004102,0.5178426,0.31322953,0.20649494,-0.33844176,0.043023687,-0.3965233,-0.11323243,-0.30474043,-0.084075004,-0.11521688,0.12340223,-0.437466,-0.14602803,-0.24953337,-0.15108977,0.0077743153,-0.015062908,-0.098220065,0.1476621,0.4661454,-0.2853932,-0.06290519,0.14561567,-0.18977867,0.063512765,0.0036620363,0.094671406,0.1126536,-0.71713555,0.57734144,-0.2938442,0.00749929,0.23932408,0.46117452,-0.006694606,0.3487249,-0.55008554,-0.08610235,-0.2649033,0.3896737,0.14880148,0.0096714,-0.36163828,-1.1062253,0.0717944,0.24038005,-0.37679192,0.1550538,0.4720662,-0.0028872592,-0.12662134,-0.11905665,-0.011649379,0.728227,-0.07301909,-0.33044225,0.1211803,0.074206546,0.71583706,-0.42244175,0.24258834,0.0006911617,0.689288,0.3743151,0.0728702,0.41535285,0.22734989,-0.6398707,-0.52185357,-0.582534,-0.74631137,0.01935705,-0.29192424,-0.47051895,0.6039977,0.29701236,0.45360675,-0.19019957,-0.68893814,0.3922973,-0.09967213,-0.10365979,-0.35760587,0.5522369,-0.035549376,-0.6961756,0.5607501,0.2800046,0.07465129,-0.076913364,0.21473636,0.31770417,0.97753245,-0.40814155,-0.13914804,-0.0031821693,0.43494162,-0.13738027,0.12203152,-0.56201965,0.95096594,0.003950205,-0.32508463,0.3576847,2.9600418e-05,-0.23860762,-0.06301036,0.053094674,0.53970784,-0.011446398,0.19496353,0.07412824,0.046131127,-0.17904976,-0.09176811,-0.10959355,-0.040948823,-0.7187714,0.1906274,0.605251,0.35893658,-0.23660871,-0.37381005,-0.07598688,-0.16962904,-0.20741557,-0.16477334,0.22826557,0.113345504,0.4470205,-0.20768698,0.41866308,0.8327503,0.24012886,-0.13219747,-0.099252254,-0.07311742,0.22104542,0.101257496,-0.11205093,-0.3654147,0.13742542,-0.35128257,0.40378982,0.26169705,0.18397209,0.103530265,-0.31584173,0.3657004,0.24186021,0.14275679,0.046696577,0.3155098,0.17914279,1.2164795,-0.67552817,-0.70726454,-0.21027602,-0.11261112,0.21426852,-0.29836637,-0.06133451,0.07441544,-0.37704983,0.050877113,-0.024310797,-0.6919722,0.10978952,-0.11130385,-0.39578995,0.20312703,-0.29939708,0.29600602,-0.041173987,0.17214756
-0.39741337,-0.11877155,0.021499513,0.4639275,-0.029271694,0.22498108,0.15187614,0.3423469,-0.37838513,-0.6981947,0.36043867,0.012293105,0.38740912,0.18723233,-0.82329124,0.40014556,0.5900695,-0.18438709,-0.10544441,0.44670662,-0.3594676,0.34265068,0.008481069,-0.21200551,-0.3232377,-0.20294301,0.02131219,0.21178928,-0.12004719,0.032734133,-0.32531375,0.41098225,-0.118911885,-0.2997984,0.14722906,0.050780784,0.128023,0.11666784,-0.28232566,-0.69885355,-0.0025738205,0.776019,0.16127014,-0.14437294,-0.049023136,-0.03494068,0.3352093,-0.513259,0.17474298,-0.0395076,0.8740317,0.018500624,0.01865551,0.31942987,0.23000696,0.045204464,-0.22961734,-0.31367266,0.47435144,-0.51891017,-0.67375565,-0.041552257,0.07242935,-0.11109308,-0.17237605,-0.52440053,0.5291446,0.0665593,-0.14856979,-0.027266055,-0.08811786,-0.09320374,-0.70233786,0.665293,-0.07398147,-0.14026879,0.15419826,-0.16699839,-0.019045474,-0.560056,-0.84439504,0.30661082,0.037890032,0.020339105,0.109400325,-0.3635166,-0.89328104,-0.011905187,-0.2017066,0.095259346,0.36182153,0.14853436,-0.037234645,0.07770662,-0.12365002,-0.42187923,0.15988706,-0.08398832,0.021400798,0.056792628,0.47281662,-0.19381356,0.14480507,-0.07257975,-0.6591868,-0.03714289,0.54271746,0.13376784,0.03835567,-0.5821948,0.47111192,-0.12174906,-0.3858156,0.87615806,0.9925731,0.40981802,0.31020647,0.34282142,0.11210739,-0.37884676,0.2065844,-0.2062966,-0.23956113,-0.26946637,-1.0432512,0.14241028,0.41147408,-0.77515614,-0.084655814,0.13371518,0.11814114,-0.037182674,-0.19962421,0.085241385,0.13250664,-1.6768211,-0.041512493,0.22294661,0.34652403,0.26478562,0.41013435,0.17704934,-0.017138902,0.46715754,0.4872473,0.43197238,0.22446427,0.1616862,-0.3181575,-0.51521647,-0.778559,-0.7789857,-0.3774638,0.13442823,-0.013254657,0.9488161,0.37679482,0.5637995,0.031757418,-0.44740683,0.2507318,0.24941586,-0.0070116627,0.65127814,0.01831141,-0.13902059,-1.0276849,-0.46228614,0.22851758,-0.16685602,0.18079463,0.24034837,-0.1968698,0.22709791,-0.50189465,0.14300749,-0.9502328,0.27961287,0.06974782,-0.33831656,-0.28005335,0.07156138,0.6491215,0.21543469,0.3130841,-0.24184772,-0.032479677,0.13346821,-0.35263756,0.43915552,-0.1685987,0.292503,-0.0057576704,0.097687766,-0.038177803,-0.12813944,0.15205376,-0.18287297,-0.13060233,0.18267101,0.2907712,-0.05917312,-0.15113539,-0.14274591,-0.092597455,0.01026409,-0.25982982,-0.55797076,0.54520434,-0.08291658,0.21678108,0.15293816,-0.18782175,0.63592404,0.17263043,0.124584176,-0.18326356,-0.15607996,0.2201407,-0.23068096,-0.04845999,-0.47836944,0.39072466,-0.77961385,0.13347161,-0.3185962,0.21244085,-0.047015492,-0.1848414,0.003624976,-0.015433527,0.35495555,0.067259446,0.27687916,-0.0747171,0.42077652,-0.33989045,-0.5000011,0.5741692,-0.17706022,-0.059874136,0.11973231,-0.37904543,0.14500445,-0.19780013,-0.0021874437,-0.14279345,-0.2739359,0.08111887,0.56182057,-0.23505366,0.0737679,-0.5133518,0.22669849,0.57491046,-0.18662678
-0.39301392,0.035257306,-0.46886098,-0.117070295,0.049716786,-0.10917108,0.03942147,-0.18786411,-0.015854323,0.05554604,0.120372176,-0.4258337,-0.35836694,0.20436662,0.1855038,0.30780905,-0.20159742,-0.09359305,-0.43271536,0.26158407,0.10846813,0.040896684,-0.32045713,0.18436186,0.1332475,0.021351127,-0.067036666,0.5365955,-0.3401646,-0.44612026,0.13987517,0.32456857,-0.04614974,0.45174178,0.35363868,-0.18313332,0.15631843,0.32561275,-0.05853731,-0.17681345,-0.08163767,0.22737072,0.092968106,0.0695375,-0.8084,-0.15348354,0.011196357,0.19349737,0.42663234,-0.052256897,0.5514022,-0.21881932,0.35725132,0.8462765,0.07871498,0.100828715,-0.21087919,0.116872855,-0.29918322,-1.0294924,0.19535999,-0.1680405,0.26196948,-0.3347833,0.100503124,-0.5201162,-0.41888222,-0.06478531,0.14123692,0.083130576,0.24109906,-0.04845303,-0.21776569,0.28012413,0.4048813,0.6796756,0.10719844,-0.010664611,0.1427132,-0.40524754,-0.37706313,0.373744,-0.11502504,-0.22764136,-0.59205925,-0.15628055,-0.087336436,0.4488579,0.7304556,-0.10712769,-1.2129327,0.030275898,0.08826261,0.88897395,-0.21138586,0.07447714,0.20361385,-0.2367502,-0.05182379,0.103675835,0.26653975,0.08968057,-0.18069959,-1.0289661,-0.31149733,-0.13730082,0.05540304,-0.03850092,0.16453248,0.10030493,0.309299,-0.18792035,0.13370126,0.22421515,0.6681536,-0.1849817,0.45945892,0.2977472,-0.008595977,-0.55003136,0.5327019,0.44174802,0.06324844,-0.37821645,0.051696874,-0.11543409,0.019145183,0.44335398,-0.26392135,-0.2513669,0.107460506,-0.05034342,0.06163797,-0.5195207,-0.17614108,-0.42924172,-0.18483178,-0.0872646,-0.13974726,0.18122302,-0.10648654,1.1541744,-0.37477878,0.25555295,-0.05655328,0.25077996,0.033521786,0.042452242,-0.5384447,0.21336353,-0.16554254,0.15917791,-0.1588052,-0.09640994,0.94401425,-0.13984206,0.6047598,0.22241223,-0.0015230095,-0.26221365,-0.029672459,-0.32986656,0.19702575,-0.27579796,0.056723308,0.3799787,-0.13163754,0.31851792,-0.017262902,0.18930413,0.4364732,-0.11810463,0.1745177,0.4255454,-0.019990709,0.9646672,-0.5744642,0.39032933,0.06788666,-0.23602818,-0.19330442,0.6583051,0.36701992,0.37109256,-0.15364347,0.13213837,-0.088604316,-0.008703365,-0.57471186,-0.07490793,0.15745659,-0.14536802,0.057763528,0.21426448,0.2931217,-0.19745041,0.32160982,-0.28509977,-0.20636846,-0.030216705,0.005706532,0.07271328,-0.013617176,0.1507564,-0.24134676,0.20876443,0.18222459,-0.35311675,0.53173375,0.068152085,0.8924148,-0.6438822,-0.8383886,0.31877694,0.3112497,-0.2877168,0.08674533,-0.23921506,0.00284053,-0.2866838,0.21531872,0.35529658,0.23385738,-0.0936678,-0.12923688,0.20884545,0.19253044,0.073491916,-0.32725018,0.5499552,0.631506,0.12066233,-0.23752129,0.4764098,0.04357134,0.39011344,0.14250703,0.10899442,0.25197226,-0.2965707,-0.21874645,0.30042005,0.33114117,0.07768155,-0.79881203,-0.14821133,0.043651823,-0.3340726,0.1038909,0.30203187,-1.0900981,0.07114116,0.037285652,-0.8231046,-0.0669492,-0.6326893
0.14761285,-0.30312312,-0.04496047,0.2490313,0.0070950114,-0.050145358,-0.059505768,0.20232224,-0.3818122,-0.2840658,0.013252619,0.6216109,0.24402618,-0.46272755,-0.90157247,0.18250799,0.05781501,0.0026292952,0.04711801,0.3262257,-0.15630662,0.094747074,0.0027201942,-0.59503055,-0.70193535,-0.02223665,-0.168342,0.38217175,-0.12525941,0.17778511,0.17788416,0.0916386,0.36133078,-0.17299813,0.23081665,-0.30331418,-0.04329515,0.1715297,0.18623824,-0.5532834,-0.028984796,0.359811,0.51860243,-0.017498134,-0.33894026,0.18581857,0.14643028,-0.33290976,0.23684525,0.92633027,1.2160827,-0.1951647,0.50936043,-0.0997175,-0.037601326,0.122668155,-0.35962865,-0.6033564,-0.28498772,-0.20467299,-0.26416072,-0.16453275,-0.05967464,0.354559,0.14265572,-0.48344788,0.3513491,-0.15075491,-0.09574304,-0.21074815,-0.21967961,0.1785208,-0.71638495,-0.7902574,0.04806511,-0.13199255,-0.0024263028,0.14180057,0.07439907,-0.06753334,0.11428921,0.074144684,0.034066077,-0.50780714,-0.5283405,0.26074398,-0.7323692,-0.15533385,0.36520982,-0.024807721,-0.07605753,0.18824899,-0.1758534,0.16721985,0.12823275,-0.64075905,0.12225771,-0.29830068,-0.08144917,-0.11044482,0.43993884,-0.4770826,0.0833869,-0.03692073,-0.60653883,0.18988903,-0.20607269,0.04802801,0.4248583,-0.3600368,0.3944258,-0.7521902,-0.045848936,0.49762392,0.03281919,0.59865654,0.18670031,0.12828816,0.028989743,-0.28204402,-0.029195804,0.3504147,-0.18599142,-0.28499082,-0.17776419,0.087159716,0.20082904,-0.54631764,-0.13182823,0.10711476,0.0322296,-0.15211856,-0.46923968,0.3250073,-0.07313308,-0.85270923,-0.16889882,0.23537117,0.14808077,0.14534713,0.017902683,0.7865252,0.055763464,0.43049073,0.25623274,0.36819047,0.20879342,0.16962504,-0.65034735,-0.110061236,0.47008246,-0.917872,-0.07571866,0.054755446,-0.8481606,0.4330046,0.19270319,0.060799852,-0.38601094,-0.07157856,-0.08570461,-0.021416431,-0.19267301,0.03037513,0.08906168,-0.06400881,-0.9756013,-0.18122569,0.10012925,-0.23440677,0.118367136,-0.13761647,-0.64787155,0.20866661,0.50689447,-0.4329654,-0.46635374,0.23394911,-0.04857216,-0.30591172,0.61327434,-0.07465746,0.031510618,-0.24315538,-0.078400865,0.4761561,0.17714037,0.08808147,-0.7337904,-0.3835195,-0.011307779,-0.23116766,0.115665525,0.1758313,-0.060774516,-0.2689962,-0.12521546,0.10140625,-0.15155397,0.057254978,0.27209693,-0.16824587,-0.10542864,0.068929724,0.08739626,1.010573,-0.00081397267,-0.49919912,-0.1759005,0.070240736,0.3270598,-0.113490775,-0.22731033,-0.8156976,0.4154767,0.18700697,0.038037986,-0.19443467,-0.03807462,0.0212085,-0.3192848,-0.19805577,0.48715273,-0.6165541,0.025977282,-0.09868715,-0.0064084064,-0.23746948,-0.006365662,0.0066733896,-0.15072984,0.011446656,0.3043156,0.2947055,0.014271116,-0.73048264,-0.16388437,-0.025612384,0.07770331,-0.30613506,0.33423504,-0.12673673,-0.17783247,0.0561978,-0.30400917,0.017727112,-0.04622179,-0.6559912,0.038037688,0.29253325,-0.25862288,-0.08399619,-0.5965758,-0.53762996,0.058464043,-0.109437205
-0.330877,0.46358165,-0.016442558,-0.59774446,-0.4633207,0.09348017,0.10823011,-0.77053505,-0.07231979,-0.010132233,0.28799167,-0.2734041,-0.26915148,0.15699178,-0.07892135,-0.15591854,0.48421606,-0.30465466,-0.68173844,0.037001994,0.2612908,0.01999018,-0.38797024,0.032654874,-0.26554042,-0.12895663,-0.11301323,-0.20688954,-0.1931548,-0.4004968,-0.15629555,0.29310054,-0.19334857,0.5307318,0.16790456,0.38516533,-0.18702227,0.15889661,0.10108998,0.3425941,-0.18254232,0.7928042,-0.1502527,-0.06068097,0.07634023,-0.092230216,0.16506247,-0.20231467,0.5840349,-0.041658696,0.73544794,-0.30842248,0.35336345,0.20079449,0.03006362,-0.13252805,-0.10266704,0.38833213,0.6226209,-0.637523,-0.45261922,0.31874946,0.18607265,-0.5082192,0.05190262,-0.57028013,1.2801472,-0.13614053,0.15312123,0.66358167,0.1243633,-0.15028593,-0.65210617,0.1284621,-0.36416727,0.35671523,-0.11481295,0.10286956,0.3823932,-0.26392785,-0.39969078,0.36964032,0.20439781,0.002788627,-0.3295662,-0.23911953,-0.7694629,-0.12614696,0.056997303,-0.09312155,0.28591576,0.31145594,-0.12487861,-0.6176051,-0.09238021,-0.7380424,-0.3584791,0.12933508,-0.01036368,-0.17595088,0.6111638,0.31817928,0.2605499,0.3004177,-1.0587031,0.10325996,0.10574514,0.12932836,-0.050052494,-0.25785977,0.5507346,0.12683353,0.20322171,0.7202657,0.8731946,0.3219009,0.5905089,0.20108254,-0.0037290794,-0.102158464,0.64757067,-0.20581229,0.07304272,0.19655651,-0.718715,-0.45454004,-0.15129666,-0.24992022,0.025927363,-0.103213705,1.1445616,0.03131172,0.43634534,-1.1304737,0.8722423,-0.8216012,-0.11731259,0.103179075,0.5264666,0.13833202,0.97019637,0.22296695,-0.1371426,0.8589036,0.45418954,-0.07397201,0.31192175,-0.153939,-0.59887034,0.1332687,-0.5441877,-0.5656479,0.407642,0.23487699,-0.30451286,-0.5374453,0.07377643,0.55529624,0.01970552,-0.43151534,-0.3081121,0.005563497,0.07795529,-0.2256253,-0.13911557,-0.46473473,-0.94785357,0.18897593,0.53636914,-0.1900677,-0.03308204,-0.2603776,0.044282,0.35286844,-0.1372899,-0.16630173,-0.64302564,0.1305448,-0.21507002,0.23666908,-0.015410731,0.4895572,0.72483546,0.31023914,0.3188754,-0.20596813,-0.024361921,-0.27710304,0.33994818,0.21491976,0.0368261,0.34456894,-0.017966243,-0.56405485,0.16004153,0.028124906,0.23261945,-0.42238572,0.06328631,-0.38641748,-0.016102143,0.030847648,-0.39942548,-0.5226985,-0.34819612,-0.5285643,0.4233522,-0.039839108,1.3711715,-0.048272796,0.28718504,-0.01622283,0.065455094,-0.08270512,-0.20562488,0.19637708,-0.4408225,-0.15081574,0.040477533,-0.066681996,0.088379554,0.14635013,0.11135757,-0.40171036,-0.5248363,0.27539173,0.13332316,0.4063499,-0.7300534,-0.14536309,-0.03397015,0.16272925,0.44739974,-0.34517658,-0.13314916,0.113534786,-0.27348968,-0.33501843,0.41112143,-0.28522483,-0.15635677,0.491588,-0.8693103,-0.04407777,-0.2686225,0.34934777,-0.06846983,-0.5041711,0.4365132,0.9354838,-0.27911758,-0.07590753,-0.5035335,0.7689705,0.24692638,-0.18819918
-0.11246722,-0.21637072,0.10514845,-0.071472384,0.18288682,-0.090225644,-1.1917151,-0.1789132,0.28803775,0.29942915,-0.25655502,0.30842236,-0.5300716,0.52399826,0.4043758,0.40687147,-0.4298728,0.036210254,-0.4957167,-0.08890954,-0.81555116,0.23630053,-0.2748734,0.13583116,0.26757786,0.10881955,0.039800085,-0.20555258,-0.90618706,-0.10727733,-0.18018736,0.80708146,-0.41333532,-0.4380214,-0.14454988,-0.4112496,-0.3006324,1.1810759,0.3543125,0.15413497,-0.23468812,-0.60255075,-0.38949618,0.17827414,-0.46918067,-0.120187126,-0.055846013,0.15931706,0.22875305,-0.4631368,-0.36219794,-1.4200075,-0.4966023,0.013393273,0.006408136,0.6733649,0.099463545,-0.39277008,0.37322035,-0.1565513,-0.39471692,0.5962384,0.7635367,-0.21722457,-0.24587908,0.6160152,0.31574643,0.031731047,0.07903449,0.39390957,0.10424886,-0.31675217,-0.10596374,0.37994906,0.49282664,-0.7066536,-0.25004292,-0.06667028,-0.0052637598,-0.120723225,0.15188709,0.17722152,0.07328768,-0.2064553,-0.060874842,0.5131883,-0.6191802,-0.17897621,0.099321835,0.06390666,-0.39989397,0.37470156,-0.4370138,0.7825953,0.0067298515,0.33859745,0.32348233,-0.1184952,-0.13279767,0.4363907,-0.30985403,0.13979512,-0.17095819,0.7889106,-1.1122674,-0.5161352,-0.12722692,0.5953524,0.029661015,-0.38371643,-0.21208021,-0.33897257,-0.2340853,-0.34399986,0.36460906,-0.36695272,0.3563002,-0.4320972,-0.08151547,0.6182075,0.40649316,0.43889272,0.20280543,0.0843411,0.65277505,1.088055,0.97448546,0.7348973,0.61813587,0.3383422,0.55231565,-0.768323,-0.23260254,-0.43204316,-0.13947739,0.08740743,-0.28456986,-0.03351408,-0.12909217,-0.1201941,-0.040806796,0.41016194,-0.01861275,0.2821937,0.4165567,0.12625904,1.8312274,0.20067817,0.13428304,0.25819558,-0.47579426,-0.42203858,0.07042311,-0.32249582,-0.42059,-0.62933624,-0.20120233,0.33699703,-0.2365709,-0.48608458,-0.058326744,0.72825533,0.5446893,0.38410354,-0.8217986,-1.1200306,-0.13939042,-0.19947751,0.25709233,0.014628161,-0.59777224,-0.9850103,-0.3555685,0.32259902,0.15079956,0.75913316,-0.34388286,-0.31050596,-0.15969972,-0.041474145,-0.2104128,-0.03715915,-0.18259275,0.19763647,0.8758907,-0.11148108,0.67496645,-0.3467281,-0.4179724,0.10254838,-1.4122972,0.27124608,-0.46044734,-0.11717635,-0.00788825,-0.27692643,-0.41983902,0.8405892,0.2584431,0.57422954,-0.23100463,0.14519985,-0.039824583,-0.7028942,0.29040647,-0.12450604,0.37669775,-0.17576607,0.5003004,0.06360425,0.06594289,-0.09421093,0.08788641,-0.06930891,0.19381046,0.22239666,-0.27026314,0.14366338,0.38127568,0.98803,-0.97907954,0.07667512,0.4033449,0.2922608,0.027542146,0.3450636,-0.33695176,0.06028402,-0.013708535,-0.024975464,-0.3070337,-0.36617193,-0.2453905,-0.059320934,0.24714366,-0.025601309,-0.570881,-0.8827954,-0.077597305,-0.039438758,-0.3112847,0.07867877,-0.19642918,-0.11863436,-0.10741348,-0.4188724,0.3107933,0.45269158,-0.15787049,-0.14063671,-0.331355,0.01634014,0.18982832,-0.15043694,0.7622319,0.982442
