-0.8636426,-0.19071145,0.9190879,-0.19338858,-0.18216828,-0.5337412,0.7903519,-0.44062307,-0.10691246,-0.89867526,-0.34268045,-0.08871988,0.30187574,-0.28914544,0.08911238,-0.65678155,-0.7724629,0.16913137,-0.8971156,0.052150436,-0.055897266,-0.04051762,-0.17832196,0.14568575,0.3826576,0.14314564,-0.1667466,0.6785373,-0.113582075,0.42649758,-0.47313216
-0.31800503,0.4053005,1.6752547,0.72191346,-0.18548588,-0.9063829,-0.3523698,0.39078963,-0.14629535,0.12937686,-0.10457734,-0.07311496,-0.40876943,0.16385658,-0.050780956,-0.4009812,-0.15057682,0.09370878,-1.0616257,0.016178824,0.0330699,-0.047469944,-0.15243676,0.15210696,-0.25385258,0.22450447,0.36216915,-0.31481132,0.042262007,0.1546046,-0.92208695
-0.42997053,-0.0659925,0.14929089,-0.237318,0.39643067,0.5362705,0.6724073,-0.36194882,-0.086403884,0.8378683,-0.11762492,-0.11997622,0.47104973,-0.0824357,0.11210064,-0.639945,-0.39713702,0.20332487,0.5032742,-0.032294847,-0.012501605,-0.048654705,-0.27618295,0.43250683,0.4410941,0.32910287,-0.371589,0.19051358,-0.06295406,0.08180182,-1.0049583
0.11151387,0.32367253,0.7928773,0.7961589,0.25083333,-0.3105467,-0.10015835,-0.4203529,-0.8428249,0.2999739,-0.24605551,-0.70983416,0.28984925,0.27684912,-0.46097547,-1.2435609,-1.2450347,-0.057146728,0.64032596,-0.03318175,0.020194858,-0.052921236,0.10808407,-0.06932564,-0.17126098,0.045649957,0.6583407,-0.42156792,-0.019913955,-0.18154305,0.41334993
-0.07765285,0.4292744,0.6963164,0.18864039,0.20274907,-0.17060213,-0.6805005,0.17361398,-0.31192946,0.13417509,0.045226876,-0.21423836,-0.17052525,0.6694187,-0.24007265,-1.0937783,-0.6581234,0.21481563,0.5107394,0.033751503,0.035576716,-0.061058603,-0.1648542,0.37609676,0.39059147,0.2958639,-0.19102326,0.18375362,-0.21402957,-0.100732766,-0.9371535
-0.23481415,0.19265226,0.7826534,0.17040104,-0.0638867,-0.35326892,-0.6238877,-0.098263994,0.12285447,-0.71890235,0.3760339,0.0964885,0.031940408,0.03328878,-0.15490101,0.65816146,0.7018357,-0.025743416,1.0983421,0.027719334,0.043063253,0.039019458,-0.0322696,0.2400854,0.29622012,0.43638986,-0.22912699,0.5466782,0.4727317,0.06576755,0.17012624
0.33004573,0.29910913,-0.3522788,0.38231125,0.08886235,-0.26987228,0.10478823,-0.6405289,-0.18920052,0.76979566,-0.40354893,-0.2957531,0.75678885,-0.28307933,0.12927543,0.16314812,0.47120798,0.19846256,-0.24688415,0.0556489,0.0037100166,0.043679,-0.25842378,0.080505535,0.22395808,-0.09260675,0.1039503,0.117268845,0.03114637,0.16616632,-0.9305047
-0.41464886,0.07061821,0.9544262,-0.12032002,-0.6200486,0.11994908,-0.09910707,-0.10016334,-0.38909853,0.29284066,-0.14372647,-0.44396397,0.032824505,0.4130757,-0.45011425,-0.3138284,-0.42367625,-0.025096504,0.5611436,0.052377813,0.008056171,-0.004176602,0.05770066,0.29293084,0.31325424,0.27471447,-0.55367565,0.6073451,0.2612312,0.07914592,0.3921041
-0.11713876,-0.11634184,0.2687511,-0.21388693,-0.58466816,-0.24024537,-0.31963423,-0.19353715,0.6200088,0.5578513,0.19427066,0.37333375,0.27884385,-0.62698,0.17787416,0.11723646,0.2826413,-0.22926797,0.31648022,-0.010028765,-0.005293779,0.0404284,0.0857647,-0.1390027,-0.107778564,0.014150031,-0.07364804,-0.79162556,-0.21270305,-0.05066741,-0.41796666
0.049290888,-0.3696455,0.3132066,-0.57063395,-0.38065603,-0.86261314,0.4037439,0.42154312,-0.4190176,0.30742198,0.33423564,-0.43411726,-0.4572192,0.45477802,-0.8692192,-0.21502046,-0.4474575,0.0042616054,-0.63415694,-0.015271351,-0.031035118,-0.050780296,-0.017659547,0.14913265,0.31376725,0.26008427,-0.1898733,-0.2657796,0.07800681,0.50903684,-0.2114028
-0.253447,0.36054948,0.2599654,0.12734184,0.2093395,1.0590848,0.4528293,-0.14616396,-0.03934482,-0.24177746,-0.083800085,-0.0937308,0.13081454,-0.0836509,-0.0108908,-0.76585275,-0.65238386,0.22046946,-0.35283417,0.018465959,-0.055760704,-0.05751755,-0.17175323,0.22571272,0.21976721,0.24214762,-0.16268529,-0.17613076,0.28940722,0.19589773,-0.4852281
0.18150342,-0.28641266,-0.34952378,-0.48357925,-0.15315019,1.058856,1.0441598,0.12022075,0.34331724,-0.038337216,0.36239922,0.4750271,-0.051749673,0.31902394,0.5678582,-1.1059321,-0.69837856,0.24523361,-0.49087915,0.031848826,0.048358902,0.0117839575,-0.09856211,0.653575,0.76441544,0.3900655,-0.59350234,0.335414,0.40791196,-0.30744076,-0.587093
0.50254244,0.12335999,1.0332553,0.6356879,0.24812286,-1.0383117,-1.3300748,-0.8029157,0.00087229355,1.0470779,-0.49148864,0.113319345,0.84944844,1.4516742,0.49549812,-1.1736463,-1.2563803,-0.12255404,1.1413131,0.014531523,-0.050864413,0.05393908,0.16164216,-0.18585688,0.0032824457,-0.31961465,-0.14605415,-0.051861603,-0.51500356,-0.031508658,-0.89361143
-0.13122183,-0.25922838,0.910087,-0.1488556,-0.24208847,-0.7681911,0.28578454,0.104303986,0.39139593,-0.43497962,0.10370054,0.3426867,-0.092158124,0.005289974,0.52110463,0.3644117,0.40969196,-0.17708075,0.079533406,-0.025300764,0.033432156,0.05532103,0.13392586,0.14587972,0.33544195,0.21342765,-0.48937455,0.52354574,0.546434,-0.1875261,-0.07068708
0.2202421,-0.38228217,-0.15475301,-0.38758,0.22201647,0.8961713,0.34607998,0.18381132,-0.06402626,-0.24345091,0.120408945,0.10357487,-0.18662076,1.5357208,0.056632765,-0.35082558,-0.26686284,0.11369811,-0.023176743,-0.0474924,0.0018961355,0.018844284,0.0086583365,0.3324002,0.25504577,0.09284343,-0.17265962,0.4964302,1.0055083,-0.41304582,-0.11585621
-0.24393924,0.18650006,0.46389264,0.3187873,0.6969133,0.6343864,0.4392097,-0.4902767,-0.50365895,-1.2421218,-0.36357963,-0.49306822,0.48579094,1.6581903,-0.17764816,1.2069687,1.559556,0.10683242,-0.018974373,-0.014037527,0.04551983,0.029564686,-0.23131894,0.13709666,-0.4329934,-0.0450159,0.7776385,1.0939293,-0.10694696,-0.016682219,-0.49078086
0.17054366,0.037156362,-0.31324345,0.363462,0.5294997,0.4951643,0.30084583,-0.13916525,-0.1273288,0.47545606,-0.024384545,-0.08632006,0.14053185,0.5528056,0.18886842,-0.045093257,-0.019348955,0.10995347,1.4054261,0.043690056,0.007115215,-0.03537912,-0.14821681,-0.057565823,-0.035357617,-0.027738627,0.29400912,-0.00891501,1.0857451,0.009879196,-1.2833651
-0.2878674,0.43550947,0.4397667,0.5446694,0.17097431,-0.5565929,0.3199448,-0.40556344,-0.28767172,-0.6650881,0.023882955,-0.26156715,0.34505758,-0.06703325,-0.19515696,0.06709429,-0.007379364,-0.18066835,-0.31414086,0.007276848,0.02694156,0.014941409,0.3668792,0.17146361,-0.2937019,0.13782689,-0.50490046,0.2538023,0.39313263,-0.06032284,0.2600483
0.4544061,0.0020326674,-0.23816648,0.40725553,-0.27605972,-0.5576187,0.12800787,-0.2877316,0.5446264,1.1053317,0.25566086,0.37719682,0.45099822,-0.22869353,0.438249,-0.68154675,-0.31569698,-0.04253982,1.4130841,-0.0459728,-0.044403873,-0.0022721142,-0.11142845,0.17988394,0.14353476,0.2670399,-0.22945112,-0.051605735,0.32565796,0.1911679,-0.69220114
-0.29964313,-0.05540799,0.23558342,-0.17837358,-0.26012808,-0.28636962,0.6120571,-0.21539417,0.14010297,-0.30182132,-0.023794597,0.15543854,0.24773875,0.2903465,0.21751049,0.2052697,0.6038601,0.009995591,0.8300192,0.040662996,0.035134725,0.020069972,-0.14092878,0.16882578,0.100299306,-0.024818635,-0.39244705,-0.08712623,-0.21694502,-0.0067085666,-1.188148
-0.08358035,-0.15470138,0.18009174,-0.22241895,-0.38546765,-0.024280092,0.030122604,-0.13206936,-0.009509347,-0.32434458,-0.20661646,-0.016298985,0.11695215,0.17724122,-0.019596625,0.008744431,0.24061882,0.23168516,-0.41484553,0.018121786,-0.054103784,-0.023430757,-0.35974702,0.07468873,0.2294022,-0.10566473,-0.1725051,-0.057463855,-0.26147065,0.02619003,-1.4608991
0.1754234,0.10252441,-0.20048137,0.18461813,0.2418502,0.77851105,-0.5942742,-0.07681776,-0.1721021,-0.36528653,0.4043833,-0.16160682,0.07000815,-0.6017874,0.21355212,0.49721852,0.64586073,0.029783035,1.5279056,-0.016137585,0.048565462,0.03766775,-0.06908564,0.5340691,0.23810221,0.1261262,-0.5532839,0.73437434,0.28942612,0.14223222,-0.477868
-0.13804306,0.32278544,-0.08829931,-0.02454586,1.1136009,0.6359079,0.9972072,-0.115885764,-0.43398666,0.7787061,-0.41318488,-0.40818986,0.1517775,0.5819479,-0.15533575,0.5605114,0.6352198,0.14168335,-0.28541213,-0.058858886,-0.045941867,0.058389552,-0.19089931,-0.06504708,0.044982724,-0.1098731,-0.013998201,0.1727116,-0.17636847,0.41737348,-0.77530265
-0.30126444,0.47008637,0.17386562,0.14570493,0.6613813,0.17607526,0.28199595,0.13165858,0.28535953,-0.084572524,0.6262382,0.30266216,-0.17664896,-0.6294381,0.065963976,-0.6330192,-0.63822174,0.22254984,-0.27897224,0.032418318,-0.014650844,-0.019394048,-0.0029090499,0.21349159,-0.109894976,0.3760574,0.3440786,0.114562266,0.38561222,0.07615064,0.39493075
0.1387312,-0.22988121,0.07837431,-0.49147528,-0.06344803,-0.1236224,0.21902779,-0.08518672,-0.16277215,-0.21179499,-0.2487898,-0.05008441,0.091447785,0.4151715,-0.0168643,-0.28160518,0.08719756,0.14303498,0.06981693,-0.041882932,0.055442855,0.030952424,-0.12396065,0.38165343,0.07460156,0.60111004,0.14626585,0.37372082,0.4155166,-0.2504965,-1.1645379
0.040350378,0.37866694,-0.7398459,0.5820244,0.38971305,0.51394784,0.19921032,0.31682438,0.2971429,0.17767015,0.70184773,0.20445202,-0.40558472,-0.46394274,-0.019501897,-0.37039864,-0.21981046,0.06004216,-0.57795167,0.05790691,-0.026875108,0.032241493,-0.03357149,0.16038512,-0.09623519,0.27443752,-0.03190369,0.38240233,0.8384556,-0.044732668,-0.14481862
-0.012492648,0.08328456,0.2785053,-0.04677942,-0.040492523,-0.18828575,-0.047616977,-0.0648755,0.09435973,-0.35436413,0.04732909,0.07224387,0.04125555,-0.16278422,-0.11712903,0.066244215,0.23778498,0.23417342,-0.2017573,-0.026102982,-0.008148827,-0.051752314,-0.18673861,0.11682842,0.1606878,-0.06826064,0.022126088,-0.13548438,-0.12002564,0.11192714,-1.6038936
0.118779734,0.18985316,0.7687036,0.21737133,-0.86227846,-0.6766183,-0.7375332,-0.039589286,0.078506045,0.08582021,-0.24134926,0.02416998,0.18586704,0.41910034,0.055600815,0.34746718,0.68535256,-0.13644841,0.0842796,0.0103499815,0.021668062,-0.06239637,-0.0716094,-0.1612872,-0.015340865,-0.1863568,-0.22726405,0.09292742,-0.49705878,0.10345451,-0.96295446
-0.30792296,0.34676465,0.79375064,0.17132932,-0.076936506,-0.42194793,-0.1611658,-0.11679511,-0.07380192,0.29147008,-0.2594141,-0.10476231,0.15543804,-0.19432129,0.22814457,-0.53840005,-0.35140532,0.077518016,-0.6376922,-0.013680935,-0.030889817,-0.05600238,-0.11838456,0.19184963,-0.19184251,-0.19584706,-0.0729527,-0.1578871,-0.16305776,-0.1723601,-1.2542332
-0.431279,0.403498,0.84406906,0.50174993,-0.080839835,0.32817495,0.12898527,-0.2891099,0.26338956,0.9445661,-0.16510846,0.2097647,0.38019174,-0.2627814,0.4286212,-0.4855613,-0.06737059,0.27341068,-0.23897795,-0.010342762,0.04956232,0.05122201,-0.28187132,0.3604463,0.14123943,0.07386412,-0.3568019,0.66435516,-0.16593805,0.017372249,-1.3316028
0.26621836,-0.38484195,-0.110801905,-0.38567555,-0.17892106,1.1955462,0.3260077,-0.003268386,0.10579857,-0.058519416,0.21411003,0.26097342,0.08058326,1.5827035,0.2797858,0.16697258,0.26740608,0.08149639,-0.32679883,0.026168846,-0.023562156,0.008599341,-0.017704256,0.20380671,-0.086641125,-0.037635546,0.14691606,-0.16062537,0.8717126,-0.28361848,0.3976505
0.13848321,0.30035546,-0.020061769,1.1173133,-0.25185066,-1.8831451,0.33269516,-0.15145183,0.014765154,1.1022469,0.073092,-0.19173002,0.23296498,-0.38149625,0.48210752,-0.8218934,-0.5985591,-0.024686988,-0.5032595,0.010927342,-0.060205907,-0.036568396,-0.046956066,0.18050039,-0.057959918,0.15404165,-0.39641124,0.008914574,0.79494166,-0.05910647,-0.5553978
-0.1784487,0.34334818,1.047515,0.86044633,0.20354706,-0.09500361,0.012437674,-0.788225,0.22828524,0.7614908,-0.6457088,0.21485995,0.8899262,-0.19176634,0.8248468,-0.5138411,-0.47763425,0.23833495,2.4849255,0.03939455,0.031654432,-0.033674605,-0.26423338,0.4524392,0.66105264,0.38652545,-0.082861274,0.31042174,0.2292867,0.44922554,-0.25689664
-0.10190507,-0.02060451,-0.068679854,-0.0059985784,0.92545646,-0.08985263,0.24205205,-0.26763603,0.5207231,0.13482493,0.80552715,0.4972415,0.28112835,-0.116576105,0.09934011,-0.57300866,-0.56094587,-0.064261846,0.9322836,-0.028533801,-0.05477845,-0.01526431,0.050935667,-0.16387928,-0.066670045,0.073272064,0.38400367,-0.1908122,0.5353618,0.15798223,0.5738715
-0.30755058,0.17918898,0.7246133,0.2666709,-0.66100514,-0.64402145,-0.9445166,-0.3490833,-0.12674388,-0.2274248,-0.34670243,-0.14246938,0.34643582,-0.09066097,0.20086482,-0.474521,-0.15819748,0.20962268,-0.047556568,0.05492211,-0.030291215,0.009560034,-0.0895471,0.017494598,-0.34561533,-0.3357749,-0.14277962,0.48629862,-0.042040277,-0.2562682,-0.8298924
-0.09549858,0.16808423,0.25459775,0.1419082,-0.18622632,0.23959096,-0.43325275,-0.096272685,-0.21868302,-1.1173403,-0.4053441,-0.16316843,0.15996939,-0.5994105,-0.028926613,0.83373976,0.9505325,0.02002808,0.9754905,-0.057773985,0.047311112,-0.025994726,-0.1629424,0.1597309,0.051253222,-0.22796604,-0.13554002,-0.02398276,0.23159368,0.029668886,-1.526152
0.15167053,-0.054396566,-0.21829809,0.33410877,0.039930113,-0.029590657,0.12135424,-0.19316578,-0.16835923,-0.25513083,-0.13566503,-0.21123064,0.17592959,-0.038532954,-0.118129924,-0.25739458,0.21720266,0.22613817,-0.4723524,0.046318322,-0.042409346,0.055521272,-0.15854521,0.11685561,0.19791633,-0.08679915,-0.019263037,0.033161897,0.030303003,0.0036560202,-1.087818
0.5964028,0.43336833,-0.89824635,0.5884765,0.7562536,-0.074311696,-0.25180832,0.36437044,-0.27202806,-0.48045605,0.8568766,-0.13414523,-0.6717328,0.14054008,-0.26922923,-0.7013063,-0.50283545,0.082835466,-0.54309434,0.06234791,-0.029357493,0.036690928,0.09877388,0.058536906,0.0191886,0.62010753,0.21960813,0.012162357,0.47812432,0.06278258,0.11199482
-0.53291154,0.28723684,0.5109102,0.007007081,0.554087,-0.07560304,0.22021276,0.04239755,-0.14523381,0.2511511,0.07766987,-0.0918296,-0.03995907,0.6651482,-0.13487992,-0.12503728,0.19317876,0.29388258,-0.066559136,-0.03391792,-0.061194897,0.038948618,-0.30699983,0.1791749,-0.16497369,0.096930034,0.06863576,0.40470093,0.0513555,-0.031743903,-1.1507847
-0.31444946,0.18265185,-0.097191006,0.59817266,0.6900656,0.23534809,0.17150396,-0.07852869,0.23733062,-2.181919,0.3557266,0.3169927,0.11731242,0.39526302,-0.2206768,-0.36585686,-0.2791118,0.32645065,-0.27888834,0.0060849115,-0.031720333,0.056260787,-0.4004859,0.23360631,0.2261549,0.22583847,0.21707886,0.51949066,0.380669,0.20680895,0.1681626
-0.30387124,0.32906356,0.048792876,0.3704558,0.55983526,0.3552424,0.5787848,-0.31623888,0.20581107,-0.03925551,0.61486745,0.22091751,0.22614266,0.2772673,0.1777966,0.070820466,0.26657668,0.05834194,0.32041496,-0.037881896,0.031596184,0.050029144,-0.048380528,0.12060051,0.09917195,0.2847735,0.11067647,0.28098008,0.7567283,0.07815836,0.35250047
0.28498626,-0.03813556,-0.2536432,-0.10245036,-0.4946752,0.38822392,0.22383551,-0.039372563,0.3868467,0.60493857,-0.12780158,0.3081806,0.117191985,0.68869066,0.42529365,-0.015441879,0.07751487,-0.16550104,0.70794344,-0.020071775,0.04141686,0.04994621,0.14785959,0.5450316,0.2502182,0.59756637,-0.80368173,0.8660731,0.587134,0.109346166,0.12852298
0.115134306,0.2873759,0.17690095,0.014495316,-0.13781749,0.30681953,0.3944778,0.08482147,-0.15475868,-0.11382568,-0.25483662,-0.06994727,-0.118201986,-0.0039957208,-0.011095106,-0.41169003,-0.07145251,0.4036697,-2.1406965,-0.039394826,-0.05684916,0.038390703,-0.44786477,0.24470837,0.32156172,0.10166415,-0.12854849,0.09220239,-0.07624626,0.17854162,-1.1617616
-0.07692315,0.38884705,0.46429348,0.38926286,0.38997194,-0.2426511,-0.014939274,-0.18122663,-0.07459247,-0.16545111,0.047335614,-0.0903257,0.20358866,-0.090145886,0.0411359,-0.12782465,-0.13267775,0.028973296,-0.059289005,0.01590722,-0.014293246,-0.021662794,0.05780899,0.17328657,0.12050854,0.27064452,-0.011456438,0.28862137,0.43846253,0.14172536,0.40874633
-0.5337541,0.45501384,1.1582385,0.99768597,0.48094586,-0.37693608,0.32430083,-0.20246391,0.2034722,0.30238813,-0.1056396,0.10799711,0.20725942,-1.1055794,0.3475623,0.15575875,0.17315418,0.05859027,0.59448415,-0.02838552,0.042065635,0.051635593,-0.1373936,-0.0060938657,0.10863376,0.042574957,-0.22682823,-0.41972613,0.30809334,0.57386154,-0.43011546
-0.034583744,0.15281332,0.4516524,0.37874603,0.1391124,-0.21342792,-0.014996447,-0.5804377,0.075053394,0.10793097,-0.07317837,0.007202265,0.5210681,-0.3085987,0.24441575,0.19318517,0.20514503,-0.092390925,1.004054,0.05509407,-0.024483219,-0.040017962,0.07112368,0.21502474,0.09818334,0.11490423,-0.10481127,0.23265986,0.18075605,-0.031798262,0.85405505
-0.07214285,0.5137762,-0.09237996,0.7326887,0.55972177,0.6903434,-0.20096722,0.1207965,0.05036416,-0.46035612,0.81365305,0.09932117,-0.22590065,-0.20459738,-0.17897777,-0.13957609,-0.056419946,0.0742719,-0.42638034,-0.04567872,-0.05826638,0.056897603,0.09627349,0.14842764,-0.09990255,0.22678587,0.13138762,0.0950675,0.16905758,0.24849781,0.2300787
-0.3325455,-0.07330669,0.7967581,0.11115582,-0.28545487,0.05407715,0.25978357,-0.41037548,-0.21654034,-0.4269668,-0.32491434,-0.10942873,0.41181388,-0.1374787,0.043273248,-0.04879387,0.27676973,0.21093413,-0.69117886,0.022778913,-0.04141718,-0.038790807,-0.29440698,0.12569538,0.11575518,-0.23491688,0.037517335,0.092551544,-0.1699797,0.08755149,-1.1386198
0.38270587,0.02166632,-0.47938237,-0.31248972,0.31010324,-0.16044886,0.7057911,-0.2784922,0.063768685,-0.3883721,-0.19751433,0.1203687,0.32931316,0.26409888,0.37032464,-0.33315328,-0.091717474,0.19970347,1.130655,0.023696825,0.0015681684,0.046011284,-0.2592641,0.60935575,0.020182088,0.6532626,-0.09434308,0.4237592,0.4176952,-0.059293453,-0.9997618
-0.61604667,-0.0072975582,-0.49113166,-0.2584657,0.057068475,1.2071447,0.3370691,-0.25891864,0.16095155,-0.55208516,0.11507152,0.2567477,0.2911681,0.019931924,0.24633415,0.14998554,0.31140295,-0.02049824,0.8718534,-0.04190269,-0.028163768,0.025290094,0.07513137,-0.09078491,-0.6126078,-0.152001,0.39306775,-0.100894086,-0.11686836,-0.14248696,-0.6795885
0.63946813,-0.12273334,-0.8140328,-0.04329848,-0.28038707,-0.06928311,0.108595386,-0.33820206,0.37910485,-0.1958089,-0.019514661,0.3787951,0.33712763,0.41696653,0.4933279,-0.20626202,-0.03191052,-0.15155643,2.4473047,-0.052659266,-0.006979242,0.015290365,0.063731015,0.79701376,1.0317796,0.59430265,-0.78107226,0.96907187,0.5193276,-0.35743487,0.05343577
0.3195559,0.27139103,-0.030233605,0.5836347,0.28812072,-0.24257164,0.00013388599,-0.24903025,0.04018343,-0.32919875,0.053048648,0.17852859,0.17467652,0.37076294,-0.15590465,-0.23534077,0.27817997,0.3088918,-1.013287,0.053924225,-0.05643592,-0.008623615,-0.3457627,0.039712057,0.057755254,-0.18305555,-0.0064972695,-0.064855844,0.022004597,0.22863138,-0.8769956
0.27945074,0.55428904,-0.7046529,0.61513114,0.23933887,1.0164495,-0.39969212,-0.39623928,0.38582274,-0.33586276,0.59591055,0.3560623,0.25808296,-0.018155888,0.5471895,-0.09013791,0.029736862,0.024252357,-0.51767224,0.00580319,0.004449621,-0.00455492,-0.02787781,0.06272655,-0.33157325,0.30328104,0.3708598,0.13273843,0.04358919,0.2675384,0.46298885
-0.9489019,0.7751829,1.3554068,0.32630068,0.7668796,0.70379543,0.6304017,-0.13524322,0.20322771,-0.42269933,0.04047916,0.22137862,0.2513771,-0.11838802,0.33462855,-0.45143294,-0.14819428,0.18461537,-0.8137985,-0.003892839,-0.025193647,-0.0025547817,-0.2454145,0.23174872,-0.37615782,0.08943377,0.20007932,0.8792249,0.014127779,0.11966989,-1.2776878
-0.50084466,0.17261298,1.0205038,-0.26093385,-0.20173393,-0.1648982,-0.17259514,-0.10254439,-0.11263036,0.19674338,0.18124358,-0.14794713,0.11545355,0.49619675,-0.2857885,-0.55944693,-0.31911883,0.117571466,0.25684142,-0.008746676,-0.003436856,-0.05921101,-0.0073233503,0.28356394,0.0480156,0.2404277,-0.09675895,0.48659602,0.40682563,-0.07869165,0.17811345
-0.048443,0.21615085,0.45516473,0.21412228,0.27941748,0.046460003,0.33561906,-0.062246367,0.0767401,-0.41981882,0.026736483,0.08876957,0.042201545,0.026071563,-0.058334824,0.049551897,0.2803742,0.33150375,-0.87236655,0.039327055,0.033325255,-0.029708244,-0.36905867,0.15190065,0.1472676,0.056593407,0.193875,0.12834617,0.05494445,0.32336298,-1.1323049
0.34250414,-0.18978597,-0.45720503,-0.17588611,-0.3530495,0.5399035,-0.12999895,-0.34664744,0.25141898,-0.6511372,-0.41547197,0.13756621,0.3347094,-0.44378302,0.13327324,0.809104,1.0603478,-0.08626187,1.7442921,-0.022355929,-0.0047575906,-0.019226134,0.011817928,-0.044129673,0.017972784,0.028971823,0.09914932,0.02332557,0.24073637,-0.121839195,-0.88536024
0.267851,-0.023193466,-0.29022664,-0.05717034,0.16855367,1.0444227,0.06215131,0.65348953,-0.38742593,-0.40708753,0.3327854,-0.4182581,-0.6834392,-0.032138348,-0.68767905,0.46258152,0.8047424,0.018040707,-0.97364,0.017614223,-0.0013700724,-0.044056237,-0.008874563,0.14414936,0.05886323,0.015247375,-0.15666422,0.6008688,0.3749898,-0.41110504,-0.95614576
-0.35827252,0.03915242,0.717985,0.04725878,-0.21980035,-0.3285222,-0.38810077,-0.15301806,-0.43534258,0.7607217,-0.38687596,-0.35665137,0.18446158,0.3372124,-0.180269,-0.9111997,-0.634721,0.0176673,0.36650634,-0.039391503,-0.003745094,0.05267833,0.089711264,0.088204086,-0.1350022,-0.11739581,-0.16763858,-0.20846827,-0.11245506,-0.27520686,-1.2836665
0.1676356,-0.03758759,-0.45774207,-0.13512412,0.54548156,0.8422898,1.000607,-0.10450079,0.5422575,0.16289486,0.24558927,0.5463907,0.13410495,0.06075887,0.6548187,-0.730629,-0.40912825,-0.04973339,0.2940024,-0.035709552,0.058053963,-0.024015263,0.07577177,0.579848,-0.11152538,0.56549835,-0.3721774,0.80996644,1.5450683,-0.40150812,-0.2887583
0.03144113,-0.038147993,-0.1981436,0.42627162,0.52274245,0.23508975,1.0806714,0.23633575,-0.25244072,-0.43043274,0.2939233,-0.1832632,-0.38697794,0.08578647,-0.4554335,-1.9293512,-1.7776686,0.3820414,-0.43347168,-0.0039188117,0.061386473,0.027762182,-0.026751118,0.3325259,0.27831075,0.041725382,0.053539887,0.18104766,0.06137233,-0.3417861,0.38927975
-0.10948922,0.12369014,0.018477418,0.15704724,0.036215704,-0.12845488,0.41696733,-0.14521582,0.08447219,-0.17610283,-0.09619305,0.030927587,0.0673546,-0.059225593,0.16564438,-0.23872484,0.123766094,0.31561968,-0.81769645,0.018533796,0.02114626,0.058925793,-0.25927144,0.12063662,0.16458616,-0.054629784,-0.19815822,0.14669652,-0.13036264,0.039680246,-1.545085
-0.18710089,-0.064779475,-0.42345008,0.11503208,0.04745087,-0.20622481,0.3046242,-0.10229406,0.52002263,0.7016218,0.19672117,0.40768018,0.34943348,0.39166674,0.5468373,0.6366577,0.90639573,-0.20781073,0.6857016,0.037701555,-0.042355426,0.036647663,0.07022545,-0.10231724,-0.028104277,-0.0010066114,-0.41830873,0.41365662,-0.5750623,-0.09615213,-0.9841932
-0.52854216,-0.24316421,0.6508555,0.07911466,-0.2863528,-0.77437454,1.1522251,-0.23171254,-0.19575344,-0.20363231,-0.6420237,-0.11392483,0.270859,0.037631053,0.31413722,0.31403062,0.6060414,-0.113549925,0.37624115,-0.0035638288,0.008848906,-0.016998008,0.00918861,0.52593017,0.5926191,-0.062502444,-1.8647045,0.7160795,-0.22969478,-0.42592442,-0.5834104
-0.94428515,0.2562388,0.89742774,0.63092303,-0.08928298,-0.41579285,0.035455313,-0.5435221,0.078524485,-0.44435358,-0.17973052,0.11641771,0.5472219,-0.18027227,0.42536122,-0.8283862,-0.65338224,0.13659364,0.27763563,-0.055176415,0.01667843,-0.0054584965,-0.09557973,0.16795859,0.18881424,-0.5033094,-0.6995711,0.29833928,-0.74371207,-0.07906499,-0.9593801
0.05680481,0.40586093,0.43611044,1.4119446,1.016476,-0.7815782,0.3181573,-0.25438616,0.27792403,-0.774791,0.31143543,0.52477527,0.025282288,-0.07887407,0.36031047,-1.1699941,-1.0158678,0.31318203,1.1456331,-0.013814837,0.035241425,-0.03128188,-0.040333103,0.29651526,0.08279086,0.3741367,-0.38973752,-0.25942492,0.44892153,-0.052863415,-0.21336234
-1.038041,0.18007487,1.3961614,0.14264388,0.03491575,0.26960427,0.7359219,-0.044770878,0.038385727,-0.20138904,0.16293794,-0.007354096,0.099370606,0.73403674,-0.10725998,0.0062206653,-0.20822473,-0.018357571,1.5498215,0.01579798,-0.031658918,-0.03585989,0.0868453,0.21846811,0.18296584,-0.065894194,-0.04457742,0.17416178,0.33121598,0.36982304,1.1350415
-0.3546819,0.06893811,0.38400462,0.30002385,-0.22456391,-0.3182091,-0.10362362,-0.10613877,-0.12921272,0.12651575,0.038982425,-0.14181794,0.05723587,0.07671826,0.3001246,-0.7687046,-0.45382595,0.016502703,-1.1875018,0.031881504,0.022365838,-0.016908571,0.096199974,-0.019646196,-0.34171468,-0.17208773,-0.30125633,0.14318189,-0.105038255,-0.24899067,-0.98536915
0.027777588,0.16514733,-0.11926819,0.38612622,0.21535176,-0.49894452,0.7333573,0.11407986,-0.13219535,0.25011888,0.42119932,-0.06526651,-0.26952708,0.08259656,-0.069047846,-0.33925644,-0.16128528,0.05206959,-0.3298274,0.05765207,-0.03274259,0.028934486,0.16504996,0.1512609,-0.27338293,0.35487795,-0.05740955,0.44064122,0.8110054,-0.15486091,0.24924532
-0.28589088,0.2344886,0.39566988,-0.03068411,0.372433,-0.4517722,0.72983,0.008575555,0.009861964,0.5305993,0.10792553,-0.075711936,-0.04661968,-0.4476602,-0.07505153,-0.3170451,-0.37060583,-0.11883666,1.1363121,0.014164992,0.020478219,-0.040658385,0.08831294,0.26250196,0.4645855,0.4813347,-0.39018512,-0.21500489,0.37077674,0.5977959,0.81618315
-0.47984433,0.14692949,0.49176043,-0.18007553,-0.04541333,-0.46001178,0.5530182,0.10361562,0.17571887,-0.42123082,0.058920313,0.050449036,0.009251452,-0.5533042,0.020941144,-0.31397012,0.010362435,0.1798986,-0.990281,0.020619862,-0.030631557,0.03554143,-0.21848656,0.32986766,0.41990885,0.21657981,-0.5771209,0.24894343,-0.46839142,0.021207714,-0.8640165
0.8716111,0.055210393,-0.1782678,0.3728902,0.59997535,0.04318465,0.15939161,-0.31606144,0.11010921,0.5276155,0.33478835,0.21159482,0.28095832,0.3238135,0.34549648,-0.4799119,-0.58544993,-0.10496371,1.1330302,-0.046086513,0.02747196,0.035959885,0.17783614,-0.0956662,0.15182845,0.3048984,0.48491442,0.01343359,-0.19724955,0.33066425,0.6462226
0.027176967,-0.14860933,0.24975695,-0.5156862,-0.92398113,-0.2814088,-0.43339005,-0.39112654,-0.074014716,-0.20629014,-0.2285524,-0.06998472,0.39169914,-0.080669776,-0.036670163,0.08855862,0.20381464,-0.14324126,1.5161703,-0.0023783073,-0.028958589,0.05473859,0.07687637,0.3492941,0.5854891,0.14528106,-0.731073,0.64040905,1.1599962,-0.1289879,0.33238223
0.22894032,0.22424136,-0.021210304,0.14154412,0.14003259,0.08204254,-0.29166254,-0.22928452,0.038527135,0.025763107,0.06496443,0.023020156,0.13236074,-0.1625578,0.1251463,-0.26566386,-0.25885016,-0.08493116,0.19198145,0.03246876,0.012588143,0.020983264,0.14238918,0.02355583,-0.022907466,0.22291316,0.09464275,0.04433385,0.6268695,-0.050019413,0.28066477
-0.11668856,0.07877978,0.19559118,0.51343083,-0.32113388,-0.18311575,-0.13557234,-0.59564096,0.35122812,-0.26332277,0.092697434,0.2652602,0.43719158,-0.89500135,0.1626688,0.18047,0.47802964,0.15242143,0.5976143,0.03699775,0.025084525,-0.022871614,-0.051353674,-0.11728634,0.007612335,-0.55625534,-0.12607358,0.09274339,-0.23786226,-0.09895898,-1.2115668
-0.4823979,0.16116534,0.7557511,0.43810245,0.5304858,-0.6520986,0.40663576,-0.16272072,0.07317147,-0.19520384,-0.033857472,0.04977898,0.21979007,-0.4385436,0.014004873,0.7421178,0.9588328,-0.14240076,0.85328937,-0.014646612,-0.030361176,0.048031397,0.02018634,-0.3051404,0.06665046,-0.23840854,-0.27906263,-0.53854764,-0.6963449,0.4194651,-0.5804641
0.24849154,-0.29301554,0.34581918,0.26122507,0.22074947,-0.69734496,-0.078794405,-0.21979561,-0.050194692,-0.5967137,-0.29116392,-0.0897963,0.17327425,-0.3835339,-0.078450866,0.8423784,1.0914258,-0.010693404,1.0498335,0.055227697,0.014278449,-0.050210305,-0.067215495,0.18428738,0.50630426,0.06433002,-0.91654336,0.5306753,-0.044795364,0.078681305,-0.8531059
0.2179812,0.34720343,-0.27793938,0.15155217,0.20464697,-0.045104098,-0.027697464,-0.24132214,-0.0975384,-0.14618634,0.26074883,-0.13829328,0.17192939,-0.02328268,-0.057232436,-0.39313772,-0.22964996,-0.004536693,-0.33440736,-0.044692576,0.009735301,-0.013907798,0.0952903,0.22019185,0.016832976,0.35082057,-0.1477411,0.40707248,0.5029186,-0.11181882,0.6380736
0.25396714,0.61354357,1.0668111,0.8693865,0.31358305,0.018288285,-0.6258202,0.044490427,-0.5501686,0.053494763,-0.06591919,-0.46192944,-0.14297493,0.65905493,-0.43825993,-1.0185986,-0.71306515,0.15838952,0.80802435,0.004900284,0.030912556,0.03664124,-0.10325111,0.5245834,0.4872436,0.57852876,0.018356118,0.028595345,-0.21413167,0.014162952,-0.42164972
0.13484694,0.10056174,0.24754013,0.31266898,-0.087298445,-0.28369713,0.17955348,-0.37061733,0.055273302,0.74493617,0.038876865,0.0657032,0.4180464,-0.06397751,0.17849089,-0.29141062,-0.35751542,-0.16402212,0.9013953,-0.052880555,0.0005573109,-0.030746646,0.21803577,0.23748803,0.47023356,0.41021216,-0.24411762,0.51738226,0.82788855,-0.21423581,0.6699345
0.064404644,-0.15438153,-0.26871577,-0.21427673,-0.5180633,0.6903149,0.47818768,0.40434325,0.23933943,0.8857283,-0.07688245,0.24558331,-0.33109426,0.11118049,0.0079935845,0.96415323,1.1531931,-0.073770545,0.6418569,0.030486837,-0.034131713,-0.010286525,-0.053366244,-0.012353805,0.024548044,-0.09900212,-0.13400711,0.0068894504,-0.108311616,-0.13272803,-1.02171
0.09841192,-0.21282284,-0.096152306,-0.18760376,-0.512985,0.43345475,0.48695105,-0.3182969,0.42458484,0.28562686,-0.014952932,0.4430456,0.36412394,0.16886802,0.16414899,0.74579775,0.71825564,-0.17505197,1.9650502,0.008772992,0.00912229,0.047917232,-0.017221626,0.228483,0.8096121,0.31317377,-0.0789035,0.07245464,0.20702924,0.5389834,0.45382074
-0.29228455,0.18220557,0.18131526,0.038913775,-0.08254481,0.10465675,0.25269002,-0.050651394,-0.044727504,-0.27894855,-0.1489405,-0.010037137,0.1468273,0.026247894,-0.0017721129,-0.016908128,0.18407199,0.25435135,-0.69021875,0.054255918,0.055895418,-0.023305178,-0.39149225,0.17362268,0.110331826,-0.08459498,0.056017812,0.009992986,-0.21226123,0.0030781839,-1.5010463
0.6531428,0.18568729,-0.52151436,0.14050482,0.34641096,0.6620842,-0.3615207,0.112948455,-0.16693173,0.107436165,0.49587587,-0.10511399,-0.27362126,0.025494171,-0.02953212,-0.61569643,-0.64161533,0.21099652,-0.27059925,-0.0561598,0.011687584,0.050269112,0.016961426,0.14829534,0.16848049,0.4966963,0.06584501,0.24557957,0.2901013,0.09682755,0.4101259
-0.050316393,-0.16750379,0.5652249,-0.48832476,-0.14518696,0.5381047,-0.341674,-0.20954531,-0.48079348,-0.2768071,-0.5391898,-0.5206974,0.16588262,-0.18242839,-0.24772838,0.5595311,0.7397774,0.20387791,0.39454788,0.03979791,-0.03205175,0.053748302,-0.21639785,0.38604584,0.198047,0.38775185,0.009122397,0.38957945,0.5499497,0.6372571,-0.6087457
0.00975717,0.14257102,-0.22283773,0.09018892,0.09974092,0.055120546,-0.07781812,0.0112388935,0.27986118,0.26229176,0.15824193,0.25869167,0.10170014,0.45982298,0.05275684,0.4601104,0.85981095,0.033435136,0.8357047,-0.010336235,0.02311141,-0.008184776,-0.23008844,-0.08056151,0.22064397,0.047436886,0.09146837,-0.08662219,-0.6122985,0.122819684,-0.7200733
0.22496247,0.2482299,0.48513773,0.5118144,0.14040145,-0.18127185,0.19029652,-0.42226446,0.12589277,0.3909414,-0.21849385,0.1462104,0.4415477,0.02845753,0.4409421,-0.7571152,-0.5266801,-0.13278902,1.5061891,-0.05143007,0.048771672,0.030315675,-0.014045349,0.6853449,0.040094256,0.7008439,-0.8432286,0.6583342,1.0430777,-0.23575617,-0.5112199
0.11687039,0.34575862,0.14875689,0.14024849,0.07639714,-0.33049095,-0.331845,0.20042303,-0.10772104,0.13729899,0.39440852,-0.059455343,-0.24404317,-0.046505574,-0.19634591,-0.13496704,-0.24857076,0.011645926,0.30754504,-0.051519215,0.03762526,-0.0375773,0.03242185,0.17753498,0.17655581,0.44762596,0.252862,0.29060242,0.3668837,0.2433506,0.38695958
0.48712635,-0.14603269,0.34823638,0.2872448,0.043262452,0.35689482,-0.106533915,-0.20675744,0.17940621,0.75411016,-0.05498197,0.22207366,0.12148421,0.79703635,0.34801254,-1.1405343,-1.1548512,0.15376845,0.588464,-0.060812555,-0.04002732,0.026415035,-0.0145951435,0.0687049,0.2950394,0.28880134,0.1418197,-0.3633563,-0.21841528,0.36971077,-0.8513507
-0.3554804,0.043137304,0.20939842,0.14609401,0.1950519,0.4000462,0.55976593,-0.0680429,0.31962222,0.76582575,0.2608709,0.3218421,0.16813636,0.7069054,0.08585556,-0.49884266,-0.18035702,0.1915866,-0.546095,-0.004612319,0.04236243,0.009821124,-0.22486195,-0.2252607,-0.2975024,-0.3744325,0.22054295,-0.3699384,-0.37631235,-0.09344934,-0.9432022
-0.034167357,0.23002483,0.6320603,-0.047626548,-0.11001829,0.4651508,0.015287817,-0.022355832,-0.04829685,-1.078524,-0.07879721,-0.07860587,0.16980027,0.32568774,-0.34339824,0.49398696,0.53090763,0.18081123,-0.081485465,-0.035825975,0.012568742,0.024379246,-0.38874397,0.29945362,0.30962598,0.14209482,0.19048905,0.23108035,-0.36106357,0.30727923,-0.8220544
-0.18064734,0.14405617,0.008345166,0.22628708,0.30145186,0.09986517,0.26592126,-0.27720118,-0.06171243,0.2070327,-0.121704206,-0.089636624,0.24441156,-0.23164095,0.057479374,-0.26347485,-0.027410831,0.15821196,-0.16184786,-0.042429917,0.04581774,-0.0010791272,-0.10269238,0.3395885,0.0848791,0.0321894,-0.6858673,-0.009658597,-0.0069631315,-0.042040937,-1.1424223
0.07665538,0.046897758,-0.14460103,-0.24767758,-0.21181494,0.46154624,-0.00644146,0.2333385,-0.031915974,-0.5950461,0.20829938,-0.06315784,-0.18045606,0.85933834,-0.17588164,-0.4304309,-0.06936163,0.18787476,-0.25585023,-0.016909339,-0.012664825,-0.02809938,-0.25382382,0.25080508,0.47249362,0.26922718,-0.32907993,0.2855531,-0.021393472,0.15960905,-0.84752774
0.33827117,0.22580487,-0.1679861,0.3990057,-0.09561369,-0.5729949,-0.2974056,-0.18094775,0.21907455,0.5319978,0.013768736,0.059883233,0.13673255,-0.63602763,-0.06427108,-0.42299885,-0.15300345,0.2876978,0.052486554,0.019019537,0.015087098,-0.015266709,-0.16940306,0.04359841,0.029627034,-0.36674184,0.02042259,-0.12917757,-0.18655612,0.050853714,-0.8224022
-0.43966523,0.21978523,0.26768637,0.026853481,0.034462053,0.19882771,0.23527028,-0.23330858,-0.16347197,-0.045746572,-0.09120579,-0.18277767,0.2824044,-0.10657988,-0.20454049,0.025192786,0.03159097,-0.19233316,-0.034164406,0.0019029155,-0.0032733679,-0.0061964467,0.20780686,-0.07770799,-0.3051454,0.01610606,-0.06775101,-0.07083525,0.032900717,-0.02786428,0.40886045
0.023447083,-0.11749932,0.33429006,0.18638714,-0.3198418,0.00803328,0.80183405,-0.1830121,0.20628633,1.0167596,0.28685766,0.17869893,0.11504935,0.22566594,0.41199493,-0.54765123,-0.26173747,0.071138,1.5792853,-0.05720982,-0.054601036,-0.060443714,-0.106099606,0.5710366,0.17539972,0.6440843,-0.626791,0.72927034,0.94296026,0.012407321,-0.36410853
0.22978507,-0.008290434,0.03794173,0.34560162,-0.4171787,-0.21561323,0.16021489,0.06424107,0.028032385,-0.13316807,-0.11361244,0.09860328,-0.054803602,0.8582498,-0.0049102814,-0.3603485,0.132063,0.04531185,0.76625794,0.05907125,-0.060548753,0.049022168,-0.23943666,0.16232231,0.60119987,0.12332284,-0.39147955,0.19199564,-0.6412106,0.034901172,-0.7277327
-0.0675707,0.086526774,0.027269414,0.29754454,0.00606921,-0.114521086,-0.11159795,0.0035922287,-0.20354818,-0.27855352,-0.1673616,-0.1319203,0.026780799,-0.155986,-0.26857892,0.036822885,0.21609282,0.46745136,-0.80248636,-0.019770667,-0.039493315,-0.029275492,-0.5016688,0.25305292,0.32319728,0.08603717,0.36544967,0.1626094,0.18463868,0.19045116,-1.1825588
0.004214826,0.18120232,-0.19731966,0.05087047,-0.1211778,-0.15172635,-0.2691319,-0.04419047,-0.2957671,-0.23227103,0.17650373,-0.21174824,0.021410543,-0.11750986,-0.13131166,-0.040183105,0.07966651,0.0067160022,-0.10647051,-0.04302299,-0.03971131,0.037176915,0.11432829,0.16999349,0.14779626,0.33675846,-0.1869706,0.4303264,0.5969955,0.09288235,0.3468731
0.2834458,0.4180923,-0.29122254,0.062188625,0.40632188,-0.15864016,-0.2744468,0.3551081,0.09754237,-0.114735596,0.5715012,0.1332978,-0.39071414,0.4637846,-0.11795554,-0.5987143,-0.56539977,0.04953695,-0.46527433,-0.0122573,-0.010198958,0.023341328,0.0009701324,0.1858647,0.031198967,0.6478422,0.25036627,0.29290658,0.776318,0.012146233,-0.080753334
-0.21484835,0.26038337,0.4949109,0.38715342,0.26728868,-0.4315294,0.85522103,0.21500818,0.025668466,0.7846553,0.085665494,-0.110017985,-0.1909954,-0.8529859,-0.24150747,-0.8920303,-0.6023304,0.107128635,0.7110043,0.030256882,-0.015079208,0.0027311519,-0.29505372,0.51744455,0.29360697,0.47420788,-0.027654931,0.13512425,0.38098598,0.16295993,-0.7451474
-0.00084341597,0.88992935,0.59533143,0.95694685,0.17505659,-0.44321668,-0.32144898,0.011288325,-0.11216657,0.6130941,-0.44149852,-0.12651825,-0.03621321,0.17499402,-0.26683986,-0.62501824,-0.23255372,0.154793,-0.750624,-0.021541774,0.032059528,-0.043934777,-0.27937278,0.18533093,0.04829341,-0.029424833,0.08429367,-0.14080837,0.1482786,0.10142715,-1.2519108
-0.3850507,-0.16073592,0.2795855,-0.5869565,-0.34282413,0.097566426,0.24189286,-0.21103476,-0.33567178,0.687471,-0.015972396,-0.24828902,0.28390282,0.4653845,-0.11562298,-0.32326934,-0.039716404,0.24281274,-0.3424685,-0.016693316,0.014201537,-0.022240363,-0.28501317,0.39520165,0.28772387,0.28393218,-0.041373353,0.43465424,0.20668872,-0.050702296,-1.0427841
0.06276603,0.7647654,0.52450055,0.9781906,0.072422065,-0.5886379,-0.08303123,-0.20435238,-0.17435144,0.6503394,-0.029422287,-0.12533377,0.29359677,0.2341038,0.088851795,-0.52304965,-0.29142934,0.005708728,-0.1940667,0.014759712,0.009008899,-0.035202086,-0.031442087,0.2145415,0.20078796,0.39712244,-0.33252448,0.27003247,0.48660856,-0.07753621,-0.23542522
0.21861136,0.059961967,-0.21729124,0.30632678,0.3353744,-0.2493386,0.09602018,-0.011378248,0.049724977,0.014758615,0.061766762,0.0038230175,-0.08911089,-0.09107681,0.11954228,-0.04993558,0.25375468,0.34497887,-0.4296055,0.019645147,-0.02524577,-0.009869829,-0.37171882,-0.0036085139,0.10223618,-0.03850584,0.015810106,-0.12747175,-0.1906983,-0.004137387,-1.936105
-0.2010359,-0.13966393,0.07416918,-0.23204172,-0.036182947,0.14673913,0.31077072,0.1241227,-0.07532516,-0.39616558,0.008462629,-0.012353729,-0.030523956,0.10925078,-0.07964918,-0.42886245,-0.04309525,0.31340274,-0.4649358,0.014868937,0.041720115,0.006658502,-0.3724155,0.19480227,0.2643972,-0.034907628,0.12520735,0.099878065,-0.0904893,-0.051393528,-1.1646338
0.06646588,-0.17520942,-0.5757327,-0.20906658,0.36269894,0.92989415,0.7114658,-0.6679426,-0.37118024,-0.23119523,-0.29706305,-0.22937578,0.56029946,-0.2586669,0.27801958,-0.37679973,-0.27834493,-0.23781572,0.5342326,0.0067096204,-0.045071997,0.013989262,0.34223238,-0.32050553,-0.6188668,-0.25001892,0.05713994,-0.45482677,-0.4262925,-0.08658176,-0.4394249
0.16596349,-0.05301111,0.47191408,0.29788488,0.077328965,-0.8080765,-0.42002285,-0.010490849,-0.60680485,0.40093794,0.032273576,-0.36794993,0.081681855,1.3561065,-0.6792196,-1.3493398,-1.4193351,0.29417306,-0.02372983,-0.0032223165,-0.057576858,-0.041072913,-0.14105688,0.46137154,0.14002515,-0.0016933265,-0.14494228,0.16411278,0.09200216,-0.21075779,-0.38108817
0.5763118,-0.05430853,-0.093100406,0.035186034,-0.23959318,0.37652454,-0.33073252,-0.351354,-0.10865644,0.57765734,0.038833935,-0.0029983295,0.34588787,0.70819867,0.3499304,-0.24411301,-0.22423491,-0.2370941,0.20210776,0.007492572,-0.03652966,-0.045146465,0.1948,-0.26974592,-0.13475254,-0.016243557,0.32977438,-0.5052863,-0.5530773,0.088029444,0.65769005
0.026102016,-0.057234507,-0.06090618,-0.022233473,-0.3667713,-0.32671392,0.42094988,-0.048389025,0.012865059,-0.46452227,0.033028886,0.05799144,0.15423004,-0.06778914,0.14274968,0.022731772,0.4444841,0.08440408,0.4893556,0.016078629,-0.0041997954,-0.039579026,-0.17486024,0.16790542,0.11035734,-0.2521355,-0.36382446,-0.21264258,-0.1545588,-0.24420427,-1.5319725
-0.15025157,0.14761521,0.5701032,0.13477913,0.52646863,-0.22786258,0.9389711,0.15003906,0.29861295,0.026926478,0.09498222,0.23877887,-0.029519223,-0.34096804,0.06136841,-0.771931,-0.43904215,0.22351784,-0.018964015,-0.05166936,-0.011334069,-0.022453152,-0.22398819,0.36843067,0.049732562,0.50467294,0.04924057,0.33454886,0.49297065,0.23390822,-0.8222127
0.41710037,0.13531691,-0.37030753,0.34795675,0.22690998,-0.28654724,-0.5326063,0.31733721,-0.0914789,-0.23005106,0.11659715,-0.016365327,-0.3535732,0.40071055,-0.084983684,0.30557647,0.46833977,-0.18470559,-0.13957725,0.04202047,0.021600068,-0.03531667,0.10676218,-0.22875634,-0.19530353,-0.2342698,-0.06830454,0.37003496,0.098418936,-0.3220083,-0.9871798
0.22635116,0.1602371,-0.13845335,0.22687218,0.67120296,-0.09439221,0.013725504,0.100096025,-0.18099403,-0.12282211,0.35442412,-0.20541464,-0.3244761,-0.15424001,-0.07257987,-0.6329167,-0.4117077,-0.10921937,-0.3992925,-0.026165098,-0.048414186,0.048145495,0.18377854,0.021883646,-0.012504334,0.36543533,-0.045679923,-0.09617597,-0.18598285,0.25632012,0.32808238
0.007366646,0.24562576,0.36184177,0.26978937,0.062094484,-0.32500684,0.3924325,-0.09583869,0.054300815,0.4057408,0.36623242,0.09983251,-0.002816202,0.28264806,-0.23629093,-0.6119852,-0.7468584,-0.054434367,1.1527739,-0.018629052,0.0029806718,-0.026825875,0.121233955,-0.0099811675,-0.045687634,0.165038,0.5717832,-0.06314306,-0.02356922,0.21581522,1.465007
0.21752101,0.51921016,0.29047868,0.4377829,0.54651517,0.26627454,-0.39442676,-0.033898324,-0.17053969,-1.0230539,-0.43529272,-0.060821343,0.056503754,1.1835899,-0.19007494,0.83038974,1.03772,0.13593803,-0.19973023,0.05607088,0.043101557,0.025246836,-0.17659128,0.07114619,-0.4029782,0.2428659,0.4581282,0.41753492,0.93567264,0.1745915,-0.6994147
0.024300143,0.04969411,0.25380716,0.33194584,-0.50083673,-0.35289973,-0.0025788546,-0.2729192,0.32712686,-0.09253004,-0.064575166,0.2427471,0.16238685,-0.58519024,0.09910001,-0.16848694,-0.039122745,0.13779464,1.5261322,-0.04666701,0.002320744,0.023783341,-0.14054914,0.17450637,0.45338422,-0.048156105,-0.30671835,-0.1675276,-0.12778257,0.10210871,-1.2194846
0.41554478,-0.26218826,-0.050277926,0.007749458,-0.46645954,-0.48631403,0.62718004,-0.44898948,0.36924723,0.45064738,-0.3258776,0.33061215,0.43903655,0.16096215,0.5371967,-0.15433156,0.0072228117,-0.19329354,2.0811443,0.046294764,-0.041290388,-0.040356927,0.14938104,0.69893765,1.0427163,0.4481911,-1.4234093,0.5978968,0.5834903,0.004188558,0.21358764
-0.55716395,0.38250735,-0.10970891,0.6096692,0.24918081,-0.114959195,0.40686235,-0.115217164,0.3240978,0.0066573643,0.1426688,0.40972576,0.21491185,0.2955117,0.2790251,0.03751478,0.3255344,0.031701714,0.20017682,-0.023103096,0.055591717,0.006780319,-0.2704924,-0.11913551,0.022316307,-0.24772461,-0.30319044,0.22770412,-0.3293378,0.1765631,-0.94440436
0.0119493995,0.4601301,-0.39498553,0.4497905,0.37118155,0.25037286,0.17434071,0.16398744,-0.038979616,-0.044088803,0.6375133,0.05061281,-0.23588201,-0.24138553,-0.15275083,-0.48479226,-0.25178555,0.17068525,-0.37043944,-0.01243294,0.020017914,0.057515934,0.00121525,0.31666166,0.06516663,0.39391044,-0.0114193335,0.4130274,0.61569524,0.070006676,0.3485421
-0.15739511,0.22540581,0.05498544,0.19716924,0.42063406,1.0206052,0.8203223,0.29256958,0.07732276,0.09183983,0.31589866,0.16917087,-0.34995198,0.31122956,-0.22883736,-0.004009236,0.26284575,-0.14234099,1.3209417,-0.02647987,-0.024478175,-0.027928926,0.028000105,0.10282745,-0.16103603,-0.012708143,-0.26668555,0.037376743,0.3420516,-0.46437237,-0.9870331
0.3516948,0.036237195,-0.6487164,0.044656217,0.7690454,0.048414223,0.82663006,-0.4422462,0.20283227,0.30340213,-0.20295049,0.20838732,0.44794032,-0.349293,0.4711889,-0.014005905,0.12250895,-0.36406124,1.3495686,-0.055517443,0.00039556623,0.041976757,0.2993341,-0.14668393,-0.054304957,-0.35621333,-0.5398359,-0.15443079,-0.28576243,-0.13190046,-0.08514487
-0.18309097,-0.32808438,0.17745982,-0.26636198,-0.6624013,0.41411978,0.7282205,0.03598203,0.52728355,-0.6358093,0.79575443,0.46218565,-0.23069918,-0.62241834,0.17074127,-0.5431836,-0.31812337,0.23223677,0.22254503,-0.0333625,-0.010813542,0.04837665,-0.05215325,0.4616823,0.4449971,-0.15541098,-0.4397936,0.47141102,-0.35498598,-0.4205291,-0.6523118
-0.07362625,0.081654556,-0.04465453,-0.1473411,0.043300226,-0.10688386,-0.037542067,0.08335789,-0.031385895,0.25733978,0.6076126,-0.030505694,-0.1207503,0.41589612,-0.008008282,-0.14287405,0.15825836,0.04461253,0.1309843,0.026759997,-0.004022397,0.025419205,-0.07890956,0.40242592,0.20695397,0.53716767,-0.10987319,0.6835291,0.9397687,-0.18827699,-0.0071313605
0.13761157,0.32015947,0.47537294,0.36974794,1.1272846,-0.22714908,-0.0004033454,0.06454018,-0.342748,0.20719725,-0.31282303,-0.35999185,-0.11172825,-0.058751617,-0.27469665,0.2924278,0.31660554,-0.03774857,1.0136708,-0.0008878261,0.05570461,-0.0075475276,0.053264517,0.26257008,0.47919786,0.5781744,-0.12124145,-0.03837462,-0.13626075,0.85357505,0.13495472
-0.36354348,0.11451048,0.66760373,0.004001793,0.07161691,0.1726431,0.6320766,-0.27364752,0.34941405,-0.21783176,0.1229208,0.26260942,0.25063878,0.0022346848,-0.05688671,0.31959412,0.21364002,-0.12191695,2.047698,-0.042766668,0.020649515,0.024519138,0.07107775,0.13239364,0.14909633,0.10026019,0.2424818,-0.03715426,-0.0053103976,0.11742121,1.1847355
0.075024374,0.47514507,0.09081036,1.6785145,0.08141265,-1.4676163,0.12777576,-0.5361409,0.062035937,0.35018134,-0.28686443,-0.026065564,0.49583098,-1.5036666,0.4212305,-0.14877303,0.24943857,0.03133679,1.2304815,0.060002536,0.028295554,-0.04024507,-0.11033364,-0.06748025,0.107717045,-0.30696398,-0.63970524,0.26793078,-0.17233144,0.16925327,-1.0256772
0.11428291,0.06374338,-0.17328344,0.33511525,0.26124325,0.08935343,0.35143623,-0.074160375,0.09774162,-0.27692854,-0.09842781,0.030089913,0.10808054,-0.2523233,0.043563463,0.12198289,0.59262633,0.29017627,-0.8310786,-0.038481884,-0.054471344,-0.051398218,-0.41095614,0.14129771,0.11121512,0.15714094,-0.0312723,-0.09136523,0.029815674,0.10058632,-1.2567017
0.38946968,-0.2995032,-0.1342662,-0.14036624,0.2241046,-0.18479423,0.30995166,-0.09198974,0.2311656,0.0056496947,0.17486985,0.27040184,0.08761001,0.4349556,0.26300493,-0.033703625,-0.14696896,-0.2135599,1.0005397,0.024462335,0.017765172,0.050940022,0.23241596,-0.16034867,0.1874374,0.009501698,-0.15121336,0.1612175,0.043257535,-0.075479425,0.7190018
0.056495827,0.11484445,-0.15708824,0.1705323,0.15029474,-0.0019708092,0.3739305,-0.113404065,-0.035774123,-0.11077529,-0.16319223,-0.043780755,0.2205392,-0.015069658,0.03139191,-0.23914044,0.10861224,0.32767272,-0.9289001,-0.0154434815,0.03452114,0.006204717,-0.3126131,0.14379096,0.17701378,-0.061165523,-0.117133036,-0.04422247,-0.057031047,0.056847163,-1.613315
0.08728832,-0.38829464,-1.0561048,-0.6622321,-1.1692908,0.41936743,-0.27453694,-0.07015037,0.37389064,0.0040890994,0.17626382,0.37603417,0.018027212,0.31016758,0.29941472,-0.74726343,-0.38920486,-0.23170148,-0.42613688,0.048405267,0.0014973134,-0.026392207,0.28272393,-0.4337166,-0.24157637,-0.30067456,-0.34720564,-0.14591785,0.5172389,-0.12613013,-0.7807046
-0.5059867,0.39940915,0.10995473,0.6644491,-0.10379065,-0.7912965,0.3222915,-0.40458292,0.68944097,0.32342643,0.4052815,0.6079495,0.41890863,0.13365108,0.52658904,-0.46455395,-0.4868178,-0.091330014,2.2846744,0.020272352,0.054114535,-0.0120912865,0.040978935,0.39503106,0.5571444,0.3081896,-0.3137179,0.42675734,-0.29738423,0.42838833,0.7511696
-0.11596204,0.053553514,0.28544328,-0.122304164,-0.56454676,-0.5888363,-0.09960526,-0.2966725,-0.32463816,0.36912104,0.0012659697,-0.32330105,0.2297127,-0.19542152,-0.32296276,-0.964069,-1.0964191,0.041302502,0.4269607,0.05917272,-0.052402973,0.028700508,0.050479177,0.030298635,-0.029867351,0.03794371,0.8487975,0.014714804,-0.09186237,0.025885273,1.1833602
0.15539238,0.321484,0.08939481,0.3081601,-0.1004399,-0.23751037,-0.8120366,0.081421465,-0.21255189,0.4627141,0.28901696,-0.22647855,-0.075925075,0.8468729,-0.5102398,-0.36240315,0.008333752,-0.039665096,0.6683583,0.04670298,0.03920676,0.04779105,-0.05692353,-0.07664318,-0.1414078,-0.20023166,-0.26798603,0.15179239,-0.5792236,-0.106305666,-0.5349409
-0.045878667,0.24607937,0.45203713,0.06776936,0.66486263,-0.034891848,0.34245008,0.009860354,0.15604521,-0.062070157,0.039855056,0.049747217,0.035180997,-0.38043594,0.3144987,-0.2847282,-0.0016834632,0.25871053,-0.7927189,0.059751227,0.05717226,0.051567286,-0.19494228,0.069468915,-0.015760837,0.033702847,0.14525433,-0.07587826,0.24886471,0.073469885,-1.7303811
-0.15427606,-0.103805155,0.4701222,0.1936967,0.8344063,0.24464984,0.25689062,-0.14751767,0.03157809,-0.3777307,0.18378833,0.123580806,-0.02552752,-0.1882259,0.31501707,-0.364944,-0.23383725,0.14093639,1.2421342,-0.011809528,-0.053003423,0.061970897,-0.042208172,0.08914551,-0.00943788,-0.1476484,-0.15429093,0.06557698,0.38972682,-0.15467857,-1.6147449
0.27835503,0.09262887,-0.39462095,-0.09671258,0.4023135,0.0833048,0.47109172,-0.4230569,0.07915791,-0.0867385,0.051554725,0.115136676,0.4327103,0.5437589,0.21790855,-0.026233653,0.11556871,-0.054096173,0.3182577,-0.054229982,0.008243941,0.023412451,0.02011898,0.16280277,-0.0047172657,0.16874686,0.13324274,0.17834511,0.5762489,-0.072755575,0.38867828
0.15340254,0.25734445,0.7292971,0.32940748,0.3321929,-0.22264497,-0.29639176,0.14027493,0.2791403,0.49873525,0.2890411,0.2596539,-0.22833456,0.31937933,0.092682555,-0.545699,-0.49906737,-0.0003558961,0.16322082,0.045988604,0.0065191686,0.032701507,-0.013715324,0.01575719,0.1853181,0.14072025,-0.23372512,-0.2698242,-0.6831002,0.24243873,-0.6970155
-0.2308908,-0.05739189,0.735613,-0.014232616,-0.017812943,-0.1561774,-0.09361407,0.046313383,-0.10467408,-0.36718315,0.17350948,-0.05875261,0.018283557,0.048540596,-0.05562454,-0.18585443,-0.27011168,-0.13619122,0.3824679,-0.04340732,0.0419873,-0.0457984,0.10634327,0.10861498,0.10284054,0.13221826,-0.0027771185,0.30499986,0.5040024,0.032056622,0.793106
-0.46776646,0.14134814,0.45120925,0.044318777,0.058161944,-0.32096606,1.0368037,-0.21019073,-0.057895217,1.301448,-0.14047988,-0.10548845,0.3416803,0.47861466,0.061550066,-0.50907475,-0.15832184,0.22176114,0.24718702,0.05510296,0.036936633,0.009478264,-0.2592867,0.48065102,0.20805912,0.545369,-0.119074665,0.061484825,0.13736026,0.05400729,-0.8865965
-0.28379682,-0.13378671,-0.12991098,-0.06603612,0.14821383,0.5580178,0.1931761,-0.16098431,0.14289552,0.23070572,0.21137895,0.24427909,0.25085536,0.4786583,0.015546809,-0.26698357,0.1534287,0.058545094,0.7792579,-0.0326104,0.017169334,0.057248734,-0.033940136,0.017124072,0.51938164,0.2703908,0.10627751,0.07002233,0.6623706,0.1147626,0.7411934
-0.09025042,0.013912749,0.4149591,-0.13988137,-0.3353872,-0.28571874,0.31302944,-0.19438379,0.18617967,0.22042505,0.027224204,0.19819376,0.22572245,0.332893,0.13701443,0.6656733,1.1675261,-0.06176138,0.26849514,-0.054267496,0.007053986,0.055830404,-0.012176444,-0.02387376,0.036461063,-0.05605847,-0.28515154,-0.35626164,-0.31145436,-0.33835742,-1.2609662
0.11386151,0.48772004,0.5514855,0.8275858,0.04987691,0.17184742,0.29114166,-0.064384945,0.077767506,0.48907453,0.03351101,-0.026274856,-0.052499313,-0.35494146,0.05285089,-1.3588651,-0.93206084,0.36613026,0.7632389,0.033940963,-0.0029257536,0.016379677,-0.06769785,0.3473239,0.12209094,-0.15922046,0.28713483,-0.34017888,0.05439895,-0.01093075,-0.54750544
0.47180423,-0.14171582,0.17480658,0.14131118,-0.52854866,0.49205765,-0.22084379,-0.260819,0.00080607337,-0.41077405,-0.232142,0.10483738,0.3540518,0.13804178,0.34565264,-0.025387838,0.13171673,0.04337547,0.5200345,-0.024837345,-0.034069955,0.014993705,-0.010546705,0.016119398,-0.01605857,-0.17969148,0.2489945,-0.1833022,-0.1796455,-0.0032838082,0.0026476292
0.13428482,0.1263694,0.46513948,-0.023123268,0.39341757,-0.8762041,1.365369,-0.28795275,0.05959229,0.2866688,-0.22175571,0.03816755,0.29893175,-0.18108203,0.20144466,-0.7350029,-0.42069584,-0.16540729,0.7030733,0.057793014,0.040188506,-0.031627506,0.12902729,0.71464443,-0.18895517,0.77882487,-0.9069692,0.44639876,0.77947587,-0.25921175,-0.6545486
-0.17988755,0.062378168,0.17238359,-0.029747559,-0.31512618,-0.23696801,0.049185082,-0.07328418,-0.10979844,-0.37534457,-0.2288689,-0.21858259,0.10792462,-0.13093059,-0.13593297,0.14399055,0.32932168,0.20680135,-0.6602514,-0.061184958,-0.062107734,-0.005445458,-0.24760701,-0.14910954,-0.06759211,-0.1448431,0.21376532,-0.23345149,-0.17099924,0.070690036,-1.4756353
-0.53871465,-0.18883368,0.61331767,-0.27958974,-0.75028026,0.3458895,0.30621728,-0.15774512,-0.121251576,0.18848345,-0.14411023,-0.01451213,0.19045964,0.055084538,0.22424674,-1.1058079,-0.61512023,0.36511612,-0.9095711,-0.016055152,0.04644531,0.001996398,-0.33899298,0.5140741,0.615551,0.16586193,-0.6409289,-0.016273297,-0.18919767,0.0024985445,-0.8942338
0.023613596,0.24798483,0.10050528,0.07409685,0.03439784,0.059876956,0.21746674,0.33343613,-0.042828374,-0.07940679,0.09337432,0.067081474,-0.24096681,0.11160926,-0.3269835,-0.12402106,0.18359512,0.08093758,-1.0471226,0.0057470948,0.03858956,0.026471324,-0.27687934,0.04369515,0.12518196,-0.101971954,0.123091415,-0.02961614,-0.2612498,-0.10327972,-1.4685087
0.1618127,0.312864,0.1284799,1.0780892,0.60592526,-0.052778333,-0.18076663,0.15853553,-0.062063027,0.051774334,-0.2450629,-0.113182,-0.13283995,-0.42285973,-0.043827772,-0.19655882,0.10030998,0.1358526,-0.3838172,-0.06014686,0.027649924,-0.05423674,-0.28784716,0.06953665,0.05026653,-0.036002487,-0.150515,-0.52797216,0.2699902,0.28257662,-0.9736253
-0.06933821,0.060165323,0.17279474,-0.032327846,0.17332493,-0.23615946,0.68315285,-0.064158745,0.07209295,0.16017348,-0.14584021,0.052228685,0.074506626,-0.46817333,0.13470009,-0.69832826,-0.28240097,0.13433151,1.2237662,0.03473398,0.035842888,-0.027032807,-0.14119144,0.6179767,0.3096463,0.6371586,-0.28030533,0.35806283,0.54450727,0.05187322,-0.6896228
-0.53420246,0.2696299,1.3354111,0.5689569,0.022234928,-0.19261457,0.0350627,-0.27433866,0.055717226,-1.0244954,-0.07736334,0.07698819,0.2552995,0.024686579,0.3072487,-0.20396906,0.20389663,0.28573275,-0.31921643,-0.04460831,-0.052402444,0.007883504,-0.20679353,0.1721749,0.2446167,-0.00016083913,-0.37789473,0.14895676,-0.22424251,0.33465254,-1.3207638
-0.4156853,0.14240299,-0.023818737,0.21610045,-0.60139596,-0.41559026,0.67748696,-0.05940635,0.100217536,-0.61829144,0.17614882,0.15028633,-0.15128915,0.14112797,-0.029482577,0.0633469,0.23132062,0.28308615,0.35700247,-0.062160656,0.054579645,-0.058850825,-0.20502195,-0.35520977,0.3199658,-0.31140655,0.99277544,-1.1663764,-0.93415576,0.28657392,-0.7362734
0.1491366,-0.29533488,0.70445,-0.5363436,-0.6407027,0.21112688,-0.0714289,-0.25087652,-0.32923567,-0.32361615,-0.5673404,-0.22946708,0.18524198,0.29905054,-0.07576343,0.78226507,0.87357527,-0.31928155,1.5849441,0.021542586,-0.010242216,-0.004815869,0.26206145,0.114307,0.046771947,-0.036135565,-0.5175684,0.6255041,0.19932637,-0.22162952,-0.7753727
0.194333,0.2997362,0.59411013,0.806621,0.4879578,-0.4430918,0.057164997,-0.2186296,-0.013225026,-0.25897184,-0.27053842,-0.043523338,0.14198917,-0.7492648,-0.024217423,-0.5408088,-0.39996833,0.16055636,-0.17935878,0.011507593,-0.031482115,-0.051186062,-0.24055395,0.017688995,0.24495846,0.11231187,-0.30052763,-0.4574393,-0.18893336,0.27413526,-0.8879495
-0.20792045,0.57190406,0.65905035,0.06260418,0.71231735,-0.12817025,0.31332877,-0.2712359,-0.016417556,-1.1488047,0.2779984,0.0011883687,0.16191855,-0.4343643,0.1756958,0.11727848,0.35629654,0.27617508,-1.1104405,0.022337593,0.038897112,-0.02000475,-0.31881562,0.3195562,0.071427904,0.24642874,-0.13159359,0.17141639,-0.034552217,0.1813693,-1.1907727
0.76850355,0.12611656,-0.76372373,0.39062354,0.31679043,0.5088498,-0.46103123,-0.07806304,-0.113245204,0.049374007,0.48304006,-0.018328363,-0.008947213,-0.36949232,-0.009497584,0.85152406,1.1547788,0.110339984,0.42803887,-0.025108106,-0.041027553,-0.046689883,-0.22874327,-0.0036457272,-0.7105866,0.0022809266,1.5028471,-0.45303702,1.2836637,-0.26750976,-0.79060656
0.24394572,-0.15472312,0.2743507,-0.5263905,0.0969764,0.10189169,0.40574834,-0.07158839,0.21472044,0.1698442,0.01501843,0.2875214,0.15425931,0.704382,0.6008744,0.5657432,0.6296872,-0.19724052,0.6154676,-0.0305506,0.02085124,-0.0015620515,0.060588684,0.094686225,0.15521018,0.108902596,-0.26989186,0.40845582,0.5703449,-0.039392423,0.25530466
-0.68712515,0.10344191,0.8357737,-0.3631271,0.33800846,0.875081,0.891832,-0.11893435,0.58444744,-0.5337827,0.54512954,0.6771555,0.26491383,0.546174,0.12893485,-0.1733553,0.09459462,0.039106395,0.6327014,-0.014595799,-0.060844608,-0.03100168,-0.14319758,0.046230346,0.1514163,-0.12088425,0.13249846,-0.04502416,-0.20548722,0.016875781,-0.8857743
-0.01006842,0.017356172,-0.33642614,0.087494485,0.20202015,0.40268093,0.03410962,0.19243766,0.037232567,-0.7363388,0.35112366,0.10414363,-0.27312666,0.38883516,-0.38505572,0.81442255,1.0664815,0.2899474,-0.4327468,-0.06144359,-0.009856656,0.02861648,-0.259168,-0.48183858,-0.07391633,-0.34104154,0.7049515,-1.0027223,-0.21526586,0.55902416,-0.8438927
0.28317982,-0.17194234,-0.19787452,0.13728525,-0.029426584,-0.19191414,0.3470307,-0.042019732,-0.05476591,-0.034154978,-0.1562811,-0.043846775,0.1533055,-0.10444353,-0.061398055,0.22508498,0.34828526,-0.098463595,0.43468586,0.020516865,0.028317116,-0.035903454,-0.031229323,-0.08391294,0.028640429,-0.43754274,-0.3377144,-0.23474026,-0.12626643,-0.17277525,-1.401065
0.22101861,0.31457752,-0.17088872,0.35322213,0.35943618,-0.8373943,0.44870976,-0.07541883,0.5862437,1.7663437,0.508497,0.3961443,0.14692073,-0.007562885,0.4256577,-0.60199636,-0.5587691,-0.20616463,1.5845703,0.011526041,-0.056065626,-0.040037252,0.10446753,-0.34172657,-0.5841997,-0.06076068,0.64426214,-0.52617884,0.17963664,0.1552355,-0.83230287
-0.16274054,0.0057434156,0.3722839,-0.052144244,0.20528023,0.08452446,-0.069888026,-0.058090437,-0.15104228,0.005037656,0.06934302,-0.15464209,0.16636685,-0.31464976,0.08414601,-0.17289397,0.2539744,0.038182847,-0.50255543,0.047492236,0.05070071,-0.04803112,-0.004407634,0.082097135,-0.14754719,0.0013604347,-0.42004973,0.4601839,0.5584132,-0.17963713,-1.2651285
0.10670513,-0.04563122,-0.1556986,0.25712627,-0.10045173,-0.5177917,-0.12053564,-0.20482804,0.0990602,0.44894704,0.14700614,0.08116239,0.19258866,-0.4839384,-0.14138214,-0.41030434,-0.1033688,0.38735458,-0.791156,0.028442912,0.0030485168,-0.021324195,-0.31485772,0.15673603,0.08987345,-0.034519754,0.1142289,0.14736855,0.17720531,0.0050906073,-0.93672
-0.13165152,0.07195271,-0.40411907,-0.06297395,-0.02879921,-0.29408267,-0.3660677,-0.44331864,0.019133769,0.5892643,-0.05882807,0.002121446,0.3882641,-0.04164102,0.2681683,-0.16562997,0.09917497,0.014447178,-0.19863512,-0.061560154,-0.05161617,-0.017687365,-0.06411967,-0.08966479,-0.36847427,-0.2123638,0.13071239,0.34938538,0.36535963,-0.33469033,-1.414969
0.21762277,-0.39794886,-0.44065744,-0.31126025,-0.7136176,-0.22852924,-0.3181611,-0.057872694,-0.2050826,1.2329013,-0.009057513,-0.2994422,0.12183423,-0.6314141,-0.09103785,-0.9466834,-0.5888882,0.19352958,0.25971943,0.05287023,0.04270809,-0.038612477,-0.2675152,0.4076655,0.59197605,0.6075111,-0.06695286,0.081562795,0.42423168,0.327301,-0.8803584
-0.29222822,-0.30305082,0.25525331,-0.26290488,0.48391926,0.4458502,0.59250396,0.13146645,0.38414815,-0.088240035,0.42089182,0.42518878,-0.11472961,0.26704854,0.090392165,0.7936759,0.7857308,-0.25371972,0.60969913,-0.025598437,-0.022027873,-0.024410263,0.12660305,-0.11808999,-0.061474174,0.02047574,0.27894047,0.043601293,0.40032864,-0.18972263,0.771649
-0.52343094,0.048900776,0.9512356,0.0047643743,0.62230796,-0.1745679,1.1180001,-0.08217826,0.030876905,0.13520885,-0.108006924,0.14517166,0.087363645,0.12776329,-0.2104848,0.35803637,0.46543127,0.009533258,1.2075939,0.026880965,-0.008426391,-0.013238624,-0.11107028,0.11414142,0.35269845,-0.07865154,-0.4727854,0.3434003,-0.6339789,0.07212021,-0.740026
0.50607955,-0.24944091,-0.19952612,-0.20342281,-0.30524293,-0.22764036,0.061325375,-0.117907085,-0.053566188,-0.07201886,-0.16991593,-0.006935895,0.18366626,0.012390007,-0.006663037,-0.49027693,-0.23803326,-0.072730616,1.2840941,0.051720195,0.024933733,0.058660783,0.021446262,0.8295351,0.43102956,0.82366323,-0.66601086,0.9227208,1.3011742,-0.10249011,-0.7209586
0.22737601,-0.00020181877,-0.42219818,-0.10910992,0.63886774,-0.20622303,-0.6000902,-0.3871872,-0.22223921,-2.4737904,-0.09699281,-0.12613545,0.18831412,-0.16220075,0.025243724,-0.4695207,-0.4045131,0.06754535,-0.5184144,-0.00844197,0.030107178,-0.036995478,0.020879218,0.12649183,-0.037951924,0.13341181,-0.057953108,0.20542972,0.2463925,0.13697095,0.18266267
-0.35309234,-0.39693254,0.38895932,-0.6433098,-0.9753134,0.40700772,-0.055209108,-0.15074019,0.21575497,-0.0687044,-0.26138616,0.11760577,0.06979913,0.13612087,0.10282821,0.7014545,0.9975349,0.035440054,1.6318259,0.02590432,-0.054653697,0.03415651,-0.15388359,0.24295026,0.35048282,0.21586582,0.20522802,0.0019166359,0.19786058,-0.10026291,-0.621109
-0.15532388,0.3060815,0.19068687,0.6895882,-0.100149974,-0.50729066,-0.04595284,0.057327144,0.2854743,-0.08164683,0.21880871,0.29107442,-0.0116424225,-0.6012796,0.24380478,-0.8215613,-0.3686353,0.1394058,-1.0489892,0.020347528,-0.015536033,-0.02987609,-0.25755504,0.11957047,0.05400034,-0.093466796,0.04614649,-0.053162377,0.07222273,0.0042989887,-1.5323703
0.70641077,0.2190884,0.43486091,0.66229135,0.25848603,0.49253646,-0.66757524,-0.0788682,-0.3468197,-0.5217023,0.12028212,-0.27753854,0.098156415,0.18528901,-0.09654636,-0.07676998,0.11293645,-0.1019534,0.8923541,0.03471101,0.025324762,-0.019859254,0.1429089,0.1026733,-0.014837263,0.1158515,-0.18405496,-0.061047696,-0.27133682,0.033013377,0.097578354
-0.017956326,0.22790551,0.26374862,0.33278427,0.099464245,0.2759166,-0.2821922,-0.27001408,-0.25561634,-0.5460742,-0.048060454,-0.21092775,0.3453455,-0.025775656,-0.16239387,0.69298977,0.72586316,0.09982545,-1.2421609,0.018603496,-0.051625274,0.028828233,-0.1319529,-0.07032064,-0.21327819,-0.43890086,0.25489342,0.30898544,0.02326634,-0.0033468842,-0.997154
0.11205228,-0.13384894,-0.0521871,-0.22247891,-0.09013996,0.22021158,-0.13351725,-0.1063636,-0.015913313,-0.36212406,0.017957943,-0.006024339,-0.01061547,-0.3649812,0.04859823,0.61142886,0.96778625,0.11758477,0.03336166,0.007907711,-0.06224317,0.0445436,-0.19746266,-0.009494858,-0.2172881,-0.01720459,1.0358067,-0.45323664,1.0005637,0.2593943,-1.2536103
-1.07442,0.84425706,1.4471601,0.24051866,1.0975033,-0.43392777,0.61172295,-0.19308391,-0.11993007,-1.0810292,-0.2365431,-0.08821491,0.2521351,0.009820382,0.035203483,0.29832014,0.5521196,0.20803937,-1.7565699,-0.05748389,-0.001990728,0.029558286,-0.21547352,0.17128143,-0.18533975,0.05794278,0.053000942,0.62599677,-0.10892158,0.26047263,-1.2924299
-0.096318156,-0.23895866,0.024274033,-0.22321469,-0.62256086,-0.19039497,0.4127953,-0.021395562,-0.012717195,0.036053557,0.1737043,0.04314023,-0.01647746,0.5126169,-0.21528484,0.54006886,0.6382692,0.19648398,-0.87962794,-0.045616165,0.048250295,-0.04180091,-0.03673741,-0.22608341,0.14033288,0.06518457,0.4706829,-0.29762292,-0.43831125,0.24309644,-1.1810418
-0.18485731,0.010347503,0.52455384,-0.027605915,0.18000942,0.100300655,0.60053873,-0.37452963,0.08708848,-0.45231798,-0.13270873,0.07900831,0.26833287,-0.20478557,0.3705871,-1.1978514,-1.1066556,0.20474482,1.071259,-0.026446395,-0.030237205,0.060211852,-0.17389165,0.38214135,0.50542283,0.34899017,-0.16222893,0.26813844,0.4301016,0.21574336,0.19016689
0.20678504,-0.30427152,-0.12434611,-0.06777937,0.37737623,0.06527922,0.48031288,-0.14270815,0.122533225,0.17768525,0.06543561,0.20269874,0.1309389,0.23467983,0.12448038,0.13693953,0.24982256,-0.11743341,1.9975777,0.053345963,0.025232814,-0.014784023,0.047591623,0.44611427,0.70939636,0.33216435,-0.47024563,0.5598581,0.8335406,-0.16282456,0.47397625
-0.12720041,-0.041349076,0.23831815,-0.19935483,-0.1799313,0.1614814,0.50747687,-0.057442077,0.1577782,-0.60075474,0.048838377,0.21391095,0.08637426,0.11574289,0.2753058,-0.36143512,0.190465,0.0900906,0.11891158,0.044417374,-0.031458646,-0.022389486,-0.17867082,0.29496148,0.21887831,0.22903949,-0.16546008,-0.19194597,0.090475194,0.0111669935,-1.4199209
-0.40286595,0.1557371,0.71603256,0.11414344,-0.029463703,-0.16539596,-0.27348524,-0.1955564,0.054469883,0.15632422,0.18798439,0.046485513,0.22357164,0.14335082,0.2910015,0.3810666,0.6961664,0.0068161637,-0.23160066,-0.022019632,-0.019271001,0.012614638,-0.00396128,0.2864362,0.20546106,0.3215823,-0.21585909,0.5183141,0.3264929,-0.014578247,-0.09465211
-0.7340312,0.45824638,1.1986508,0.13593328,0.22523187,-0.18695891,0.63833636,-0.4322924,0.28563446,0.8676861,-0.27563486,0.16329584,0.55045485,0.03799367,0.5824264,-0.5916324,-0.47415093,0.15182598,-0.48248678,-0.0061948597,0.038877733,0.039883986,-0.021444319,0.093379706,-0.2197305,-0.24934335,-0.43928874,-0.23518437,-0.7496779,-0.18261482,-1.127692
-0.14540258,-0.16303492,-0.30311075,0.042132445,-0.29622096,-0.16162308,0.33198953,-0.16086729,0.4642033,0.2040087,0.7498135,0.41279167,0.14720155,0.7734471,0.7570419,-1.4144211,-1.2305455,-0.21449234,-0.020667614,0.03656534,-0.059920177,-0.027256101,0.29041344,-0.26408833,-0.12481349,-0.023848346,-0.18484621,0.03318386,-0.33034694,-0.35823572,-0.7266482
-1.1072397,0.079747505,0.64714444,-0.2742386,0.31191972,0.43282118,0.95647484,-0.44715142,-0.08070564,-0.028179962,-0.34819612,0.02881818,0.46249044,0.766779,0.109143235,1.9547002,2.172812,0.060181372,1.8540654,0.039518885,0.045060255,-0.0048582777,-0.006381958,0.023432352,0.08855794,-0.25208014,-0.21272978,0.13217531,-0.08982438,-0.0029393823,-0.41592276
-0.056324575,0.38483608,0.009716477,0.5558524,0.48106733,0.5355766,0.81723917,-0.01651615,0.9084728,0.5015177,1.0620061,0.9959628,0.04847874,0.5442536,0.6366656,0.029378854,-0.024470337,0.2791375,0.19438083,-0.053362653,0.053063773,-0.017277978,-0.16289116,0.12822421,0.0787037,0.21131611,0.71541953,0.055214208,0.11076859,0.20267218,0.8632242
0.19621275,0.16221234,-0.00939143,0.33570737,0.7837222,-0.5151946,0.031020027,0.0049867053,-0.3874564,0.14540242,-0.43921724,-0.3417244,-0.0022104208,-0.09330298,-0.39086258,-0.3151758,-0.23274252,-0.12372854,1.1001688,-0.01569365,-0.040269762,0.017330125,0.11210499,-0.20209002,0.012330135,0.28988877,-0.085982636,-0.23923415,-0.23946668,0.20488298,-1.0779961
0.22074175,0.027949838,-0.17851052,0.08234257,-0.00075658684,-0.1991444,0.15351626,-0.07582836,-0.0071119703,-0.3602214,0.11274278,0.08361601,0.0234434,-0.2452456,-0.13211235,0.026242364,0.46172455,0.2661127,-0.4177211,0.048556678,-0.0041041747,-0.036271878,-0.33213794,0.15977414,0.21112962,-0.0017597053,-0.031827267,0.1510487,0.0073851463,-0.008127034,-1.3441738
0.18178104,-0.1676059,0.54515684,-0.18613334,0.2931764,-0.16364896,0.5050692,0.4606144,-0.15554112,0.38983533,-0.11253362,-0.07810905,-0.5410275,0.42857856,-0.46083263,-0.15903093,0.024679292,0.15021414,-0.4409768,-0.031812496,-0.012030818,-0.055077955,-0.04262753,0.16011143,0.027118435,0.38245532,0.75764525,-0.14212094,0.00573153,0.14860404,-0.78150916
0.42792958,-0.016227817,-0.227836,0.15021774,-0.031446826,0.4373272,0.14496605,-0.4971246,0.079708435,-0.67408407,-0.1529408,0.028416254,0.5317462,-0.012162693,0.23159973,0.3314816,0.7787966,0.17054872,-0.66867423,-0.028039567,0.03858106,-0.014992565,-0.30378163,0.060640633,0.3168739,0.029445661,0.03450762,-0.13508056,-0.07755984,0.14780097,-1.2812265
0.07588358,0.04977645,0.8135746,0.027642982,0.21993858,-0.56146413,0.66338557,-0.032209884,-0.051680677,0.3212364,-0.41284767,0.077745825,0.20927714,-0.096697606,-0.012827631,0.24329887,0.31817663,-0.22635277,0.65749186,-0.019812986,-0.011551522,0.023376651,0.035376456,0.46584272,0.37856987,0.49825507,-0.76155716,0.44224808,0.6587819,0.15901572,0.33723754
-0.36597377,0.0874185,0.9779715,0.17747305,-0.88070744,0.21992788,0.24983746,0.51612675,0.44155928,1.1831883,0.47262195,0.3812847,-0.44161397,-0.39680728,-0.14981838,-0.0072081094,0.20827186,0.1063944,-0.86468637,-0.008626655,0.0072053,0.03609374,-0.2024021,0.2941644,-0.108225375,0.35622332,0.61842674,-0.14119115,0.4706847,0.13224751,-0.60041916
-0.11094428,-0.42361408,0.08934462,-0.29065803,-0.62650937,-0.5883716,-0.03044915,-0.4939375,-0.36798602,-0.038412906,-0.5892604,-0.4533115,0.49338874,-0.10956593,0.18523525,0.037748285,0.29649606,-0.20951281,1.6695181,0.055123866,-0.023023643,0.0155920535,0.1327587,0.09155383,-0.23818922,-0.008174693,-0.2794529,0.30508122,0.5140131,-0.22581543,-1.0483676
0.13096133,-0.0022416583,-0.0679624,0.24344394,-0.029999271,-0.43929103,-0.07307896,0.008260171,-0.09433665,-0.13371156,-0.17192207,-0.17614238,0.020340787,-0.20036371,-0.07191181,0.05354622,0.37439337,0.1319816,-0.77180094,-0.038789146,-0.009337641,0.020024046,-0.2197593,-0.02708412,0.021732379,-0.020661362,0.029258953,0.06020264,0.03328476,0.07490726,-1.3119739
-0.34333256,0.044679284,0.6451203,0.045975745,-0.26256573,-0.4101382,0.23802897,-0.039269064,-0.018306524,0.1653225,-0.1746999,-0.18359345,0.15431708,-0.15538947,-0.28877065,-0.20468779,-0.15747121,0.056951497,0.26910746,-0.06047862,0.023208916,-0.06153041,-0.05479766,-0.061275788,-0.062883064,-0.16702522,-0.030531969,-0.2553624,-0.23030302,0.2147854,-1.5401193
0.26177445,0.10946917,0.15838069,0.45538625,-0.1864143,-1.6537243,-0.46840972,-0.25643495,0.0075849816,0.2960366,-0.30556026,-0.06311071,0.22464599,-0.090604834,0.3055083,0.4665421,0.66772586,0.0044387453,0.23489064,0.036795497,-0.03415318,0.011892058,-0.072570466,0.09501274,0.14687543,0.43688813,-0.027600817,0.10570343,0.35430342,0.1353475,-0.5122402
-0.50673896,0.11433391,0.7707276,0.06351374,0.124484815,0.33127066,0.40061468,-0.28187904,-0.24875787,0.41491967,-0.4102849,-0.2125081,0.3910417,-0.2851187,0.2602069,-0.21780328,0.11759721,0.2799644,-0.43773508,0.057922214,0.055850595,0.025897294,-0.27449405,0.47379643,0.41953218,0.3459689,-0.13591447,0.38565928,0.021822972,0.017013106,-1.2036911
0.36556652,-0.42666146,-0.43958154,-0.6489481,-0.44959185,0.13707218,0.2216545,-0.14033309,-0.08764535,-0.06163062,-0.122084826,-0.03558221,0.19258092,0.36079013,-0.2517954,0.15580386,0.3802905,0.2622228,-0.46142313,-0.029231168,-0.011086211,-0.023089282,-0.3098642,-0.027971067,0.06433855,0.06132567,0.33853334,-0.323401,-0.26004225,0.047022928,-0.9409681
0.0951077,0.09997553,-0.22315641,0.31242839,0.19654424,-0.03696592,0.5087802,-0.019243428,0.19934984,0.14248738,0.20977318,0.26421985,0.03663626,-0.22116782,-0.05265005,-0.026430558,0.27141985,0.20315464,0.16183108,0.020960279,-0.057297595,-0.024340063,-0.21047676,0.108408414,0.08021881,0.064111024,-0.17784292,-0.10784495,-0.06551199,-0.17890976,-1.0188774
-0.22133328,0.26972538,0.18152623,0.20598976,0.07702957,-0.112269275,0.44177213,-0.17366466,-0.2037879,-0.44721627,-0.15884855,-0.082666695,0.16221547,-0.089284636,0.0049800393,-0.22556102,0.10228766,0.31695923,-0.5232724,0.030582815,-0.046022117,0.024336427,-0.29321632,0.20476556,0.059271432,-0.2577952,-0.19839121,0.029343091,-0.02832496,-0.2082014,-1.2275234
-0.20929722,0.056983937,0.48993728,0.41584638,-0.6136831,-0.6555549,-0.51899856,-0.6728588,-0.03477531,-0.11502254,-0.49758855,-0.12460388,0.6584147,0.356401,0.23986311,0.30507043,0.6130151,0.1658155,0.13301039,-0.018636174,0.041465797,-0.02476184,-0.16944578,-0.09713716,0.27895424,-0.17269602,0.14182644,0.08586044,-0.13318299,0.40802008,-0.96357083
0.126697,-0.22716741,0.48201734,-0.053528097,-0.16245764,-0.21715602,0.6578475,0.23053086,0.120436266,0.35828954,0.37883624,0.20376495,-0.13616374,0.6297651,0.030577308,-0.941157,-1.0017073,-0.0903848,-0.705559,0.008469991,0.037647933,-0.05837202,0.098716244,-0.21607535,-0.048482727,-0.29261693,-0.5817958,-0.20402595,-0.6072232,-0.58544326,0.650959
0.12847342,0.004131772,0.16725476,0.22155207,0.087761074,-0.48752815,0.03382621,-0.06257781,-0.004205119,-0.11705716,-0.14357974,-0.12170552,-0.001126489,-0.03243171,-0.06263998,-0.06379743,0.3067934,0.16452084,-0.44264698,-0.037056975,-0.054065824,-0.020819709,-0.27526128,0.09877784,0.20206171,0.041808497,-0.06228193,2.0925308e-05,-0.021203343,0.11639647,-1.2261984
-0.07237064,-0.21667996,0.43990013,0.066568464,-0.5358067,-0.22752848,0.49389383,-0.07795977,-0.05977441,-0.27852023,-0.1262078,0.011931479,0.22637215,0.33124232,0.2585119,0.29029977,0.44398457,-0.016835148,0.350527,0.035451747,-0.008775331,0.055856623,-0.1293151,-0.06165202,0.094269276,-0.37297443,-0.49253845,-0.16933051,-0.23372376,-0.16281615,-1.0282967
0.076445796,0.30303738,0.40830472,0.14677767,0.92128885,-0.71737665,0.10014033,-0.043104697,-0.20168471,-0.5087487,-0.11069478,-0.077102244,0.099289164,0.10112781,-0.19735439,0.7351456,0.6770651,0.052990716,0.86444086,0.05720745,0.020825483,-0.053097375,0.045625385,0.070989676,-0.006266395,0.24157536,0.11208428,0.2574747,0.030643724,0.15937467,1.1818908
0.030591698,0.17711191,-0.015625762,-0.106264494,-0.009403576,0.26320076,-0.084256254,-0.1489982,0.057670318,0.10568849,0.4925897,-0.009333381,0.029450212,0.23027119,0.020757219,-0.6219168,-0.5004722,0.00013564441,0.101018585,-0.060807303,0.04980492,-0.05744677,0.0612029,0.11754341,0.022804,0.22172855,0.20478655,0.33230874,0.094990514,-0.15352248,1.2853599
-0.7884583,-0.094950855,1.0341092,-0.24700771,-0.8981149,-0.5350684,0.44177908,-0.48777255,-0.064030364,0.12927328,-0.37472314,-0.10970911,0.57248634,-0.032519784,0.07378658,0.21406317,0.34096488,0.016513823,-0.49768567,0.049192637,0.04006467,0.00996273,-0.1349,0.1170498,0.18763174,-0.27016494,-0.31851646,0.27266106,-0.41175354,0.15897828,-0.8490958
0.39565182,-0.28962797,-0.86836404,-0.051863357,0.8084102,-0.04870511,0.08157924,1.3034934,-0.052648194,-0.13449143,0.6958348,-0.05699656,-1.2144917,0.18080176,-0.46711633,0.14718673,0.53859067,-0.22295614,0.40806755,-0.00880599,0.022606507,0.020148426,0.11587673,-0.014742867,0.14766736,0.05171408,-0.58095556,-0.1317536,-0.35138157,-0.060059514,-0.7016412
0.15350369,0.46107063,0.07405116,0.4724157,0.18778582,0.87780493,-0.21477233,-0.20566393,0.30059236,-0.3641376,0.36898986,0.20614824,-0.08470031,-0.52548826,-0.090157785,-1.2365754,-1.250467,0.3130534,0.4115705,0.012140654,0.0522127,-0.054792225,0.06150958,0.25640243,0.13521738,0.31103405,0.32991213,-0.2324931,0.19366547,0.1662163,1.1157802
-0.6303809,0.23638414,0.29997674,0.066882715,0.077537775,0.3726659,0.2798867,-0.2266115,-0.10675824,-0.2596333,-0.12256831,-0.08892259,0.20756717,-0.25950402,0.20749855,-0.27373996,0.108017445,0.24231517,-0.9218303,-0.032857694,0.03111308,-0.0520225,-0.36009127,0.13421047,0.043008324,-0.14544845,-0.068670966,0.045188088,-0.16145976,-0.08303204,-1.5662373
0.26489857,1.1262026,0.4747543,1.2642874,0.30745536,-0.5380776,-0.60946536,-0.14785849,-0.23229374,0.70404667,0.13086545,-0.16145079,0.0011723853,0.16572867,0.07546824,-1.6624424,-1.2596775,0.2880749,-0.33800864,0.044264883,-0.0163979,0.046289377,-0.10613704,0.17748465,0.09716367,0.6335055,0.9253336,-0.38089728,-0.09518517,0.14564301,-0.07961019
0.04030066,0.36325768,0.19823273,0.15228918,0.8101585,-0.4197076,0.23033531,-0.17348476,0.25412035,0.019957403,0.03472687,0.24122348,0.11061349,-0.44031328,0.1489432,-0.81370616,-0.60086507,0.33421758,1.3218586,-0.045384713,0.0461182,0.04551313,-0.19031619,0.7497193,0.28615022,0.6903884,-0.55907756,0.38105288,0.46995437,0.17461936,-0.54285717
-0.0037315572,0.3270468,0.03683215,0.14992999,0.46412355,0.18082403,0.09626061,0.1120949,-0.07415803,0.2328155,0.43993247,-0.10870476,-0.16067237,0.08215272,-0.17997824,-0.34164932,-0.29221487,0.15159203,0.34318057,0.021885172,0.020475246,0.020595282,-0.009355678,0.15458113,0.13842826,0.31215757,0.19248594,0.23649253,0.23878708,0.21189182,0.8374216
0.30469832,0.2980652,-0.104335524,0.31960222,0.27695233,0.48865175,0.49677598,-0.120262556,0.17759325,-0.33212647,-0.09210808,0.16459455,0.18908897,-0.10261476,0.074159995,-0.8939563,-0.37087247,0.30744985,-1.3073071,-0.0613257,0.059027717,-0.0031417236,-0.36370826,0.25204813,0.38686955,0.14174673,-0.19646242,-0.11432029,-0.03042899,0.31726685,-0.852487
-0.30969122,-0.023028899,0.13730322,0.11861018,-0.08469578,0.28999844,0.4240296,0.11833149,0.12767044,-0.45016402,0.09278641,0.15547925,-0.22385807,-0.32572576,-0.014947671,0.38432267,0.6385334,-0.02012638,0.22031572,-0.056989685,0.00968191,-0.01303684,0.008221838,-0.08957105,-0.05629443,-0.4741741,-0.452489,-0.04845311,-0.1787945,-0.42161253,-1.130051
0.23849818,0.0320683,0.22593181,0.95839226,0.46534342,-0.16445775,0.6652161,-0.06681956,-0.19075827,0.40902632,-0.38890862,-0.19800691,0.052589815,-0.30172104,0.05662898,-0.4752137,-0.20578924,0.15059592,0.090338014,-0.05691416,0.0088433325,0.011432551,-0.09913819,-0.031434048,-0.09524616,-0.037388675,-0.2088395,-0.4987025,0.9133212,0.1632356,-0.78613204
0.143546,-0.35437456,0.813735,-0.68586713,-0.6217259,0.082727924,-0.5157215,-0.6125985,-0.27637595,-0.3529575,-0.6037075,-0.29133597,0.62327105,0.33483174,0.2840167,0.40902367,0.6025716,-0.049092423,1.3701599,-0.030354246,0.059077486,-0.053683706,0.08287653,0.30530512,0.10648374,0.4715005,0.47706744,0.7445059,0.9201324,-0.18082978,-0.728932
0.70480317,0.618745,0.123099625,1.0830232,0.48812178,-1.073088,-0.017519359,0.17363471,0.118772835,0.75002927,0.017837677,0.18519357,-0.242537,0.6255438,0.20267625,-1.5318538,-1.6345329,0.07463782,-1.2687874,0.027427725,-0.027426936,0.04804662,-0.01051027,-0.25567186,-0.16463196,0.08899481,0.18622512,-1.0426075,0.055502962,0.13194512,-0.52512276
-0.11146823,0.15222341,0.1745806,0.19901548,-0.03659629,-0.36560783,-0.10005778,-0.14123729,-0.23402861,-0.104132354,0.0070030927,-0.19509639,0.17526706,0.15775628,-0.2104841,-0.3234266,-0.09884863,0.30058166,-0.74111634,0.05543579,-0.021227293,0.043472834,-0.24039282,0.31457514,0.17939833,0.0060830526,0.076987185,0.26629344,-0.025668854,0.029287482,-0.8338544
-0.12111064,0.187966,-0.24304006,0.03579132,0.3932104,-0.1317241,0.7319038,0.28173637,-0.100581095,0.17719728,0.21189809,0.00224319,-0.21363486,-0.07603329,-0.3051292,-0.6922847,-0.44327682,0.103028096,1.0931787,-0.02502691,-0.060516626,0.04723864,-0.15334311,0.48281023,0.20930621,0.5754548,-0.3233761,0.3530112,0.42129776,0.054013476,-0.47412422
0.0053451946,-0.032148913,0.13556607,-0.02256404,0.010539231,-0.2021251,0.043383352,0.0091350945,0.047275815,-0.11431938,0.06707902,0.024426978,0.07307126,-0.14936048,-0.120135285,0.03261712,0.15837806,0.19620962,-0.41133142,-0.0066197813,-0.011501141,-0.025203079,-0.21571834,0.13230823,0.16079508,-0.10576272,-0.10377161,0.046433676,-0.1851654,0.004272042,-1.4825773
-0.3409498,0.043515753,0.34933993,-0.01881219,-0.020730916,-0.73077,0.1261678,-0.22988386,0.092279084,-0.08625697,0.23893762,0.08181052,0.2583308,-0.32506093,0.41117913,0.112976536,0.37216085,-0.15286788,-0.6713239,0.011000879,-0.0050066262,-0.0067783967,0.10060442,0.00018560194,-0.14302407,0.16476539,-0.22449677,0.23889899,0.47230515,-0.16092102,-0.02659353
0.10135888,0.35963732,0.12875453,0.69716316,0.5399365,-0.5652427,0.026978955,0.092805095,0.06431615,0.28579703,-0.19538078,0.04387156,-0.006115939,0.012173021,-0.05530838,-0.5178531,-0.13160153,0.2835336,-0.6938559,0.05425898,0.005468622,-0.03598743,-0.25080314,0.15827814,0.32924342,-0.04354199,-0.2889134,-0.110877894,-0.17695695,0.12404965,-1.2609637
-1.5540045,-0.12073049,1.975876,-0.33533734,-0.96296626,-0.06098915,0.59378815,-0.30116972,-0.3302412,0.5679584,-0.39416406,-0.34335878,0.34882382,0.43529817,-0.37204415,-0.4518797,-0.5063323,-0.014586996,-0.49046567,-0.011535265,-0.008574195,0.019034415,-0.11020837,0.12414168,0.34167135,-0.2405417,-0.51164645,0.32306662,-0.67198735,0.13407755,-0.031113178
0.6939497,-0.94928795,-0.7089677,-0.7700483,-0.08838592,0.08412655,0.47967607,-0.06533235,0.29916495,0.19526936,0.07869721,0.28094077,0.012981533,0.09156799,0.32808894,-1.1169448,-1.0255724,-0.94365734,0.52390033,0.043821484,0.024534129,-0.012071878,1.0794865,-0.60036856,-0.42763424,-0.7435037,-1.2506043,-0.5093711,-0.31480515,-0.07974693,-2.4665902
-0.028439386,0.30571347,-0.22796789,0.41927144,-0.23077795,0.12312352,-0.10975691,-0.094841614,-0.17930041,-0.22321504,-0.05379701,-0.16325891,0.048743073,0.055564057,0.097012624,-0.37355483,-0.04488102,0.3077314,-0.16608748,-0.03299757,-0.039400898,-0.009871066,-0.31024292,0.055018708,-0.17102838,-0.25927463,0.2165565,-0.21713088,-0.3707554,-0.2754517,-0.75766325
0.17673133,-0.03854565,0.5631072,-0.2097308,-0.4083993,0.2652902,-0.5454238,-0.5290571,-0.1407625,1.3212541,-0.7929303,-0.14051981,0.5321843,0.43624878,0.36480945,-0.27635804,-0.19822927,-0.100349076,0.78486294,-0.04210662,0.035840645,0.02692955,0.038844023,0.18403146,-0.07630854,0.21928014,0.27991053,-0.1397515,1.2537353,0.00073919405,-0.6067707
0.29183874,-0.06683875,-0.35583547,-0.32225928,-0.08765563,0.52576816,0.11513239,0.049944974,-0.128212,0.30347282,0.24727117,-0.030707683,-0.09686276,0.79299325,0.26817793,-0.78187186,-0.38921648,0.058517553,-0.4444988,0.05173008,-0.02068071,0.060551666,0.06931818,0.37055477,0.41711316,0.29279983,-1.0279785,0.5724351,0.83272433,-0.417769,-0.44306356
0.56721777,-0.33022684,-0.47441444,-0.3539492,0.24100521,0.23362245,0.17905605,-0.20892815,-0.52867585,-0.44156173,-0.11135032,-0.52601194,0.18825988,0.8262169,-0.30657676,-1.1505194,-0.8202935,-0.31362548,1.1631873,0.06214042,-0.03527181,-0.013374798,0.36229128,-0.18484749,-0.24463525,0.07218789,-0.35551074,-0.1753689,-0.27670845,0.07709822,-0.24613753
-0.061907917,-0.3129645,-0.29038566,0.07563823,0.16106902,0.18614648,0.49687773,-0.46679518,-0.04491791,-0.30451742,-0.0019696595,-0.046266798,0.5402037,-0.26478803,0.07798834,-0.30216202,-0.1285938,-0.27628452,1.1439759,0.029844873,0.037415184,0.0025112256,0.33746612,-0.26818082,-0.07410117,-0.2966901,-0.33887532,0.07671424,-0.07130015,-0.075401895,0.16436261
0.80059785,0.09326141,-0.60307676,0.13748965,0.10330016,0.24997099,0.1355708,0.10400374,0.24693914,0.16603006,0.073806874,0.2832687,0.022310859,0.050349128,0.04964573,-0.2098264,-0.09014139,0.018091021,0.965151,-0.02886264,0.058880575,0.038721837,-0.104469374,0.1975125,0.20675644,-0.12367434,-0.3564064,-0.04472216,-0.3317665,-0.112815425,-0.871086
-0.09721779,0.23509076,0.28929248,0.28135195,0.47709593,-0.25149232,1.2646031,-0.19924328,0.24813011,-0.29635724,-0.16055329,0.22992668,0.19154018,-0.55079514,0.46739477,-0.66006243,-0.23329608,0.10413145,0.19990994,-0.02830968,0.04264167,0.039545543,-0.18691556,0.5606663,0.037421703,0.32228976,-0.54302156,0.28134054,0.08083234,-0.06327,-1.516941
0.033462077,-0.32625303,0.42414823,0.1673509,0.08648318,-0.3847334,-0.18015823,0.093718946,-0.040517494,-0.4771562,-0.011346711,0.051828142,-0.12968975,-0.68891245,-0.5814245,0.23407994,0.29520229,0.2305867,0.4513235,-0.036917664,0.049772725,0.036002547,-0.14364217,0.018061602,0.5176158,-0.27842763,-0.31604248,-0.12813796,-0.24387611,-0.014378936,-0.72176266
0.33661148,-0.20682652,0.048555214,0.12323181,0.16907696,0.14108433,0.6407957,-0.04974229,0.106424615,-0.055217408,-0.21273252,-0.022062764,0.037285037,-0.33719885,-0.18399203,-0.834258,-0.53833675,0.20302756,-0.27870804,-0.055611365,-0.006478429,0.011071034,-0.23471694,0.1158195,0.06035571,-0.06894427,-0.19011532,-0.4035253,-0.22708657,-0.06255674,-1.2605437
0.007752414,0.14763317,0.30524287,0.060053583,0.14897844,-0.54898024,0.31044075,-0.1628206,-0.03748359,-0.54400784,-0.026098173,-0.011556597,0.16752198,-0.35013697,-0.055974785,-0.20053443,0.011616716,0.28183424,-0.43040082,0.0468392,0.0071643814,0.053784348,-0.30565444,0.21623203,0.3197473,0.01451469,-0.068680875,0.20852135,-0.06523739,0.12743196,-1.4551101
0.028312877,0.088598676,0.19770911,0.5010645,0.23804134,-1.0924479,0.68252075,-0.32722,0.18405193,-0.112342305,-0.10825888,0.14741637,0.42268315,-0.17759897,0.40461525,-0.33331856,-0.23775317,0.07662749,0.4868891,-0.0589434,-0.016483203,-0.05384714,-0.15639593,0.40151766,0.19176194,0.5092713,-0.9197682,0.38105342,0.97491443,0.14491625,-0.43995112
0.9723139,0.5370733,-0.018518189,1.086519,0.7620257,-0.550937,-0.661757,-0.097832315,-0.6955498,1.2970197,-0.61053777,-0.6667601,0.12735006,1.5857781,-0.5186834,-0.2915738,-0.08519597,-0.09717662,0.4403632,-0.009217665,0.032802634,0.010165609,0.11273343,-0.22512898,-0.22177881,-0.009246312,0.28439608,-0.4582382,0.10246585,0.2791162,-0.048128147
-0.3275344,-0.28573266,0.3507163,0.032469522,-0.028929587,-0.036721293,0.6555612,-0.020919755,-0.23369782,-0.37150434,0.099860996,-0.17127374,0.032672048,-0.15330565,-0.38241234,-0.21108511,-0.20266365,-0.11304734,-0.5446811,0.019490123,-0.034981154,-0.04693997,0.018317014,-0.07657508,0.31120065,-0.27308926,-0.78210944,-0.14264108,-0.34878626,-0.11225903,-0.64708495
0.018102458,0.42673537,0.5601741,0.2639723,0.45769677,-0.25025925,-0.4730516,-0.12593323,0.04418017,0.08967795,0.06988439,-0.017995259,0.07962821,-0.11770006,-0.13326298,-1.4799815,-1.303385,0.13645679,-1.2909267,0.051986225,0.052790515,0.0068838373,-0.12216822,0.20527892,-0.09943107,0.2989254,0.014332036,0.05717887,0.24456395,-0.064472,-0.8467368
-0.09984677,0.08000659,-0.046876244,0.17047906,0.20473938,-0.03842913,0.31553203,-0.02545264,0.07572413,-0.2537788,-0.03123902,0.02430911,0.08462886,0.08698742,0.06673777,-0.023559073,0.31685448,0.30765393,-0.64933693,0.029207788,0.04405602,-0.048947625,-0.29837328,0.13573036,0.0153236175,0.004779438,-0.15058452,0.08543075,-0.11308345,-0.048864387,-1.7633816
-0.08720937,-0.13947293,0.0509048,-0.16207272,-0.24783738,0.047497023,0.066012695,-0.026866749,0.05591411,-0.420594,-0.11961196,0.022916816,0.1373908,0.0102320425,0.0888473,0.38739473,0.7109187,0.113811724,0.63376147,-0.05436346,-0.028053246,-0.05422523,-0.23891799,0.047023993,0.1152126,-0.118290596,-0.06686891,-0.23953462,-0.35152027,0.015136049,-1.5317941
0.012258643,-0.009348432,-0.08169288,0.1546102,0.024664834,0.6218937,0.37328613,0.20860125,0.3235528,0.42401844,0.17060345,0.3564316,-0.18696359,0.030503381,-0.07970025,0.64120483,0.8884273,0.15813966,1.0350311,-0.04733882,0.013615727,0.0454652,-0.15378451,-0.02902237,-0.055770744,-0.20377092,0.19077562,-0.5164676,-0.07020311,-0.22869033,-0.8525783
-0.37551555,-0.0030945314,0.83820087,-0.23502919,0.4900519,0.58951414,0.3429967,-0.36385825,-0.08627266,-0.33640873,-0.4889216,-0.10618869,0.39438084,0.12731802,0.6161586,-1.314049,-1.0475051,0.25912383,0.27592587,0.0426881,0.03218081,-0.017299257,-0.22587271,0.73634696,0.13735029,0.58222455,-0.22374961,0.6011539,1.0431299,-0.23183961,-0.42736483
0.2411807,-0.23720202,0.39803308,0.28549767,-0.29556867,-1.5692847,0.081878275,0.28733137,0.2659877,0.6878746,0.14678954,0.15593281,-0.21484968,-0.41224742,-0.0504677,-1.8182865,-1.7822964,0.27545753,1.1781706,-0.020929784,0.03948378,-0.016345292,-0.16390806,0.08704059,0.15708186,-0.24018802,-0.04051154,-0.51374453,-0.009329484,-0.13831721,-0.24046592
0.24130404,0.3473135,-0.37373072,0.90243727,0.7680819,-0.75653833,0.8279547,0.13541001,0.45722896,-0.36052483,0.8426854,0.4323344,-0.28975704,-0.09140722,0.07372719,-0.68531406,-0.66217124,-0.030347727,0.51450664,0.04743631,0.008964285,-0.019533344,0.08900439,0.43300954,0.19008291,0.64912575,-0.7107297,0.13037351,1.1200615,0.24222223,-0.3266349
-0.42884773,-0.27454138,0.6691236,0.047014687,-0.49087846,-0.14453499,0.53746,-0.7538687,0.24115525,0.01322826,-0.23421396,0.3877218,0.8042493,-0.2970157,0.46291223,-0.5948118,-0.29647177,-0.16167296,1.9796506,0.0592575,-0.033902206,0.02239097,0.05516653,-0.008713663,0.3585702,-0.033486933,-0.60281265,0.28489348,0.79138356,0.35262206,0.12117377
-0.38965255,0.2654602,0.7220771,0.22262065,-0.011885496,0.1498394,0.17001365,-0.35855633,0.11284451,0.80362797,-0.04065356,0.046330042,0.34739992,-0.2148986,-0.1870413,0.030137299,0.2458923,0.3166103,-0.9188667,-0.05048687,-0.018755347,-0.0054118186,-0.23958041,-0.066460796,0.073025905,-0.23610541,0.32720137,-0.12373589,0.049451616,0.27932796,-0.6389064
-0.07499008,0.2167686,-0.008870666,0.4724514,0.52177066,-0.46202388,0.65331095,-0.055591162,0.55735517,0.19265002,0.37245393,0.50197846,0.021682123,-0.63627964,0.21994399,-0.5368233,-0.3169082,-0.23407629,1.9926835,0.012833685,0.009476997,0.048625596,0.08436236,0.029849458,0.12592602,0.016132876,-0.69147754,-0.26702017,-0.18321832,0.14393029,-0.90492624
-0.0684763,-0.07214021,-0.17769077,0.31208292,-0.20054059,0.12021376,0.08472193,0.14667732,0.15511778,-0.16754477,0.09659054,0.09658407,-0.029643212,0.46252343,0.15391475,-0.56748873,-0.031013057,0.12811671,0.36698303,-0.026428945,0.040323988,-0.012111679,-0.22695896,0.20341526,0.54313767,0.067320496,-0.4802264,0.4871765,-0.744441,-0.18202911,-0.8704143
-0.56131405,0.061343487,0.4805542,-0.24416144,-0.21087754,-0.12377531,-0.20539713,0.0618707,-0.083019204,-0.7363154,0.40124652,-0.16045578,-0.092473745,-0.12334543,-0.2879473,0.4724247,0.6904274,0.0643182,0.028511697,-0.04409016,-0.0018626153,0.0018574521,-0.003945746,0.22680017,0.31400275,0.32252446,-0.42887604,0.55400753,0.29191095,-0.13005783,-0.8749782
-0.089631416,8.8286455e-05,0.47847226,-0.021220984,-0.03955032,-0.33338287,0.48594436,-0.21689174,0.36065498,0.22483866,0.0039882506,0.20220353,0.12271456,-0.35915276,0.19305488,-0.011285622,0.23739463,0.04439836,1.5146781,0.03356251,-0.017219372,0.027205005,-0.19975263,0.5383922,0.20661911,0.596195,-0.22853787,0.24031986,0.48609793,0.0668773,-0.40386024
0.15996116,0.12063025,-0.35674363,0.4201323,0.26743692,-0.18835613,0.32666218,-0.26300728,-0.08020702,0.33888197,-0.091757014,-0.08100888,0.33185133,-0.2375196,0.15579395,-0.36535525,-0.008874453,0.1356828,0.821305,-0.056694277,0.05094222,-0.055215165,-0.23508681,0.4790593,0.1497183,0.3344578,-0.32705024,0.4729166,0.14953075,-0.14781788,-1.2323791
0.16332084,-0.07267654,-0.24408907,-0.2629875,0.5359428,-0.25254592,0.4820408,-0.14780536,0.032140117,0.29782835,-0.008860766,0.0058356295,0.06551804,0.1348038,0.008983,-0.12864387,-0.2368761,-0.0006366763,0.41246903,-0.045173638,-0.0008524209,0.029916152,0.120669216,0.010906318,0.23187798,0.14734584,0.31016293,-0.053675078,0.21030699,0.28393847,0.9939922
-0.60155,0.48077604,0.63685846,0.07222409,0.003799348,0.9494287,0.6860553,0.007283268,-0.037973087,0.022446334,-0.17166936,-0.026479771,0.040908527,0.62423545,-0.08002886,-0.7034885,-0.2838452,0.33514118,-1.1919382,-0.028818347,0.032652743,-0.025362827,-0.32963192,0.34417763,0.10356588,0.12165174,0.13608842,-0.20736642,0.33574113,0.0814958,-1.0323819
-0.86909544,0.31729993,1.2176362,0.3070481,-0.3181293,-0.46253818,0.37193307,-0.29921916,-0.05170784,0.49815705,-0.45696896,0.053492036,0.40282378,-0.18231395,0.356566,-0.7131785,-0.54872316,0.244138,0.025482679,0.05450441,0.018503241,-0.0344624,-0.19846687,0.22660308,0.5566805,0.23694927,-0.3087295,0.676294,-0.38992858,0.08274278,-0.74636704
0.57017714,-0.42659435,-0.44875783,-0.13859637,-0.4008554,-0.28471857,-0.2994646,-0.45608604,-0.05119101,-0.37552217,-0.42888078,-0.044633187,0.48382512,-0.26757184,0.2593389,-0.14778355,0.013330532,0.032605164,1.142047,0.05753021,-0.04421547,0.0040017813,-0.18350765,0.09609055,0.28899264,0.38949963,0.5939932,0.00409448,1.4047948,0.21292774,-0.39584124
0.2300805,-0.5254693,0.30641153,-0.06819404,0.30708823,0.023134919,0.6635838,-0.1558256,0.07533619,0.53798413,0.13025129,0.13554852,0.12760371,0.74221027,0.008446681,-0.42126828,-0.6332396,-0.03500508,-0.43020946,0.03681715,0.008068845,0.047978207,0.18710545,-0.22577268,-0.26265883,-0.2609145,0.3403222,-0.058785535,0.12883534,-0.3264006,0.74368477
0.45924613,-0.02782903,-0.33621177,0.08155355,0.04816225,0.15416004,-0.011718017,-0.34390852,-0.11305908,-0.18268102,-0.17031392,-0.1746773,0.3667559,-0.21704079,-0.16454218,0.36875546,0.55797905,0.32666665,-0.12038007,-0.030890003,-0.030918933,-0.060266115,-0.2961743,-0.45606467,0.05961775,-0.49133742,0.6360387,-0.72955304,-0.42974833,0.42377356,-1.210056
0.59235305,0.4876421,-0.20152153,1.1088332,0.45072642,-0.397325,-0.3980841,-0.2631232,-0.16410755,-0.09069385,-0.22328734,-0.1842451,0.23343526,-0.2211838,-0.29409564,0.19676049,0.53456455,0.18158449,-0.81780386,-0.05413317,-0.061139196,0.027400963,-0.19977137,-0.053799875,-0.15857305,-0.15109682,0.16700797,0.015121231,0.1659584,0.16730177,-1.4015266
