-0.7686151,-0.08378982,0.7933741,-0.2725186,-0.25404152,-0.36447468,0.67428577,-0.34998745,0.021847421,-1.2144352,-0.2272024,0.107532896,0.20878547,0.14095812,0.18063168,-0.23721963,-0.27809072,0.019911643,-0.79867154,-0.047417082,-0.061313912,-0.052335657,-0.09619768,0.12864527,0.39813316,0.058123052,-0.13385122,0.6883038,-0.22545329,0.28708214,-0.45219418
-0.14737533,0.4137817,1.4745113,0.71299183,-0.086542405,-0.9073675,-0.47515014,0.0015849574,0.29135993,0.2862515,0.08127805,0.31743833,-0.1325817,0.10741837,0.4063186,-0.62834036,-0.44178,0.2513916,-1.4335645,-0.001748614,0.05712813,0.061585516,-0.19255857,0.11004019,0.016344072,0.22037765,0.29040653,-0.18686664,0.08804633,0.28284302,-0.6710816
-0.7271472,-0.29288423,0.55487597,-0.4595397,-0.022291677,0.55771005,0.64755416,-0.25696057,-0.30202442,0.72079337,-0.23421785,-0.27973345,0.24131575,0.41768366,-0.13283482,-0.5161502,-0.19555394,0.23587143,0.27596453,-0.0012918413,0.018096268,0.047386624,-0.30486953,0.5103364,0.6513604,0.27336642,-0.30694053,0.30986455,-0.12228422,0.0657373,-0.8200646
-0.11801878,0.47638366,1.2693514,0.7372102,-0.03342495,-0.26994532,-0.18473136,-0.20948687,-0.69744176,0.010663799,-0.023743875,-0.6742108,0.043498136,0.063845694,-0.51601636,-0.8323344,-0.7653982,0.069880135,-0.32120982,-0.0409839,0.026020981,0.04784011,0.09769346,0.03887439,-0.069237456,0.14861026,0.93673825,-0.18542483,0.14327493,-0.1185954,0.62424767
-0.042234253,0.4486006,0.69541454,0.22423923,0.14003387,0.047847047,-0.73487306,0.2778836,-0.34499782,-0.30780932,0.06990106,-0.2907024,-0.261782,0.5184527,-0.27324203,-0.90361387,-0.5244602,0.27342963,0.11246941,-0.01782234,-0.03714826,-0.016207322,-0.25665256,0.40912902,0.3100199,0.3063373,-0.09695791,0.119972154,-0.213169,-0.17337647,-1.00573
-0.2033562,-0.2770516,0.4474522,-0.030000113,-0.08311278,-0.38229328,0.3749924,0.12631178,-0.020389093,0.05448152,0.09478516,-0.07764206,-0.080377385,0.57304585,-0.4103465,0.68580073,0.9564135,-0.20406426,0.6431026,-0.043489404,-0.049715765,-0.01301755,0.17696717,-0.034030903,0.054391824,0.12750146,-0.2222147,0.277793,-0.029137807,-0.08275333,-0.43231514
0.27301317,0.37355223,-0.30601782,0.4731231,0.12326306,-0.44089684,0.22135842,-0.6892453,-0.09273749,0.6823248,-0.29395014,-0.0067597283,0.7232058,0.16123147,0.23711766,0.015145939,0.43932512,0.14111307,-0.014037903,0.054381967,0.040597215,0.03829345,-0.24320503,0.160062,0.13606769,-0.20879461,0.05738006,0.06874792,-0.12205212,0.289536,-1.1463634
-0.25305945,0.014107772,0.8689132,-0.07631604,-0.59388685,-0.19805066,-0.40714824,-0.05333023,-0.40470806,0.2613261,-0.24686044,-0.4137211,0.035021383,0.3731059,-0.5131694,-0.49437618,-0.65160125,-0.010601456,0.6347634,-0.034430653,0.023701072,0.040122323,0.050110042,0.3083626,0.2388737,0.32051477,-0.18762992,0.37593457,0.55621105,0.10831036,0.25383356
-0.24497312,0.11358721,0.5931032,0.047402672,-0.12228998,-0.22009587,-0.029944722,-0.16154896,0.54844433,0.43027034,0.29781723,0.38164285,0.16742149,-0.8326246,0.14250846,-0.0085127195,0.060983542,-0.13835995,0.6696156,0.0038890988,-0.021815076,-0.023760185,0.016066832,-0.1861854,-0.2621493,-0.15129794,-0.022163548,-0.7904034,-0.33860567,-0.050064012,-0.4921405
0.1321475,-0.485441,0.14011618,-0.5638028,-0.43849868,-0.9836153,0.32590628,0.49217308,-0.52566814,-0.04579142,0.30353537,-0.5226029,-0.49501717,0.6584964,-0.9206835,-0.11301808,-0.22704111,0.13472839,-0.59875345,0.03944139,-0.05395843,0.039305642,-0.08056748,0.13217777,0.4148234,0.36848706,-0.26153198,-0.32899466,0.23957783,0.53100425,-0.26737323
-0.19440222,0.4187195,0.35333297,0.12041607,0.35676122,0.9764152,0.4639509,-0.23178162,0.07989899,-0.21450764,0.038933974,0.0954234,0.097123876,-0.11136302,0.11175335,-0.9104159,-0.7613534,0.31819263,-0.44283482,-0.02203627,-0.025906764,-0.053710677,-0.20385872,0.27317312,0.32472694,0.33264726,0.052133907,-0.299458,0.23185399,0.3867537,-0.41179135
-0.07302147,-0.35363775,-0.19120835,-0.7138907,-0.14720112,1.3040639,1.2565776,0.15934469,0.46075594,-0.19805641,0.4008072,0.54465044,-0.11945141,0.40913448,0.6419115,-0.95265615,-0.65389186,0.23427597,-0.4094127,0.028612927,0.041746125,-0.033314496,-0.07592239,0.5914068,0.7666377,0.46009064,-0.38273576,0.26257446,0.35428044,-0.2204817,-0.78123814
0.81462413,0.2560769,0.9843886,0.9407618,0.7651418,-1.3561785,-1.4652426,-0.8144654,-0.3095107,0.97481114,-0.6908189,-0.15663762,0.7964208,1.7557344,0.11665435,-0.85845816,-1.0691961,-0.17622194,0.92907554,0.025987118,-0.00080076605,-0.049759768,0.14452617,-0.19218276,-0.327626,-0.3803922,-0.12882788,-0.13809797,-0.43261775,-0.049589787,-0.93894744
0.28115964,-0.36249137,0.435878,-0.23649508,-0.36066166,-1.0687597,0.100341216,0.0947314,0.08341937,0.02015167,-0.033156842,0.1033218,-0.1339709,0.38521087,0.2127919,0.4663152,0.56472296,-0.08012469,0.49542296,-0.0079520345,0.025987178,-0.012179308,0.1253783,0.13882266,0.24047107,0.17840672,-0.4074669,0.22763364,0.8601986,-0.12937412,-0.06384147
0.28660673,-0.36350492,-0.3548226,-0.369676,0.123172745,0.7267114,0.4296918,0.18135409,0.052225668,-0.17105705,0.25019854,0.20144384,-0.1437982,1.7421658,0.14615259,-0.4704254,-0.31745902,0.14892562,0.27289692,-0.0520532,0.036608234,-0.059872232,-0.067609206,0.3426238,0.21041024,0.036875546,-0.24777648,0.46855652,1.0593516,-0.4084495,-0.18831259
-0.8554398,0.026413944,1.2589452,0.31289822,0.29089576,0.91682804,0.52205867,-0.041345797,-0.012684637,-0.74178356,-0.13390446,0.02107452,0.08372289,1.6496245,-0.19460721,0.8146339,1.3320578,-0.0605146,0.5005767,-0.061245717,-0.050557368,0.031036235,0.02817881,-0.055085775,-0.36959997,-0.47729248,0.019710999,0.6151063,-0.47651538,-0.15802753,-0.47940353
0.19320679,0.026025059,-0.21321645,0.3623664,0.51670134,0.42281908,0.3787744,-0.16096257,-0.019744264,0.60090655,0.05992584,-0.05167547,0.20875132,0.5603667,0.111291945,-0.040069476,-0.054373708,0.02687267,1.427734,-0.006018661,0.040294185,-0.040845178,-0.14711253,-0.014975875,-0.081101485,-0.050550796,0.29997703,-0.0862977,1.0368254,0.047384616,-1.2174997
-0.5613556,0.8047942,0.6755317,1.2537806,0.37197354,-0.35560134,0.6316596,-0.008307295,0.044007193,-0.61204636,0.4077995,0.14305797,-0.03896106,0.14247116,-0.018348292,0.37163854,0.27964622,0.08130642,-1.3301536,0.039922655,-0.040497586,0.039544195,0.014376255,0.24112305,-0.41423222,0.34727633,0.33466288,0.30211186,0.47173434,0.16150358,0.046284262
0.19104347,-0.06431554,-0.06281416,0.68648297,-0.13519214,-0.8993627,0.24311917,-0.10009543,0.19773671,1.1763633,0.39393893,0.19527464,0.20608675,-0.5817334,0.19108707,-0.9675304,-0.7200811,0.04580144,0.90166557,-0.00186643,0.0003296733,0.013733543,-0.062118378,0.28727037,0.276123,0.45406675,-0.2920846,-0.006050633,0.44547015,0.18819767,-0.5955439
-0.2303489,0.0031177402,0.085945725,-0.13223581,-0.08106373,-0.33973107,0.7421626,-0.16042936,0.27617225,-0.27372783,0.16253534,0.29423398,0.18260805,0.17827964,0.057352785,0.22472644,0.61069196,0.0041503534,0.53023535,-0.003110081,0.03456854,0.04204169,-0.14165351,0.011980818,0.030654484,-0.057030506,-0.2059346,-0.25883925,-0.14413024,0.08455709,-1.3273546
-0.06490861,-0.039499387,0.10786927,-0.15849026,-0.27175206,-0.092898645,0.06094862,-0.123329766,-0.02003966,-0.32450262,-0.17711447,-0.066528864,0.1315675,-0.16321607,-0.01369125,0.0023261595,0.26241973,0.22540474,-0.46345899,-0.04260479,-0.052228928,-0.057375908,-0.27298507,0.06554656,0.21886322,-0.15004647,-0.09213498,-0.08210864,-0.13091873,0.07023552,-1.3982404
0.3904392,-0.68374854,-0.6487182,-0.7851971,-0.18926328,-0.21894397,0.050108075,-0.27157742,0.089022964,-0.21494137,-0.4643318,0.18730435,0.3044131,0.028160468,-0.061755683,-1.1356866,-0.81195617,-0.34017724,0.4193818,-0.0494342,0.0032744035,-0.045177035,0.35973707,-0.38730118,-0.44741857,-0.22169475,-0.11667503,-0.40789068,-0.33673108,-0.5412992,-0.53485554
-0.0036062833,0.11925234,-0.20178889,0.122783564,0.82714856,0.7806895,0.959003,0.03264414,-0.22606836,0.77241755,-0.25414553,-0.13196814,-0.059875175,0.6003152,-0.15590744,0.7846451,0.90214443,-0.029785069,0.070341915,-0.039541557,0.016611546,-0.03354349,-0.06966477,-0.10613883,0.027584331,-0.02593469,0.19659707,0.062962405,-0.20473291,0.33999807,-0.62050027
-0.23474823,0.3727641,0.1457058,0.47056818,0.73663175,-0.31231266,0.91406935,-0.2961566,0.20758723,-0.46748048,0.43374187,0.13819134,0.22266315,-0.43412167,-0.13219567,-0.26638454,-0.14129338,0.16979578,0.29296872,-0.022469983,0.055492237,0.047988802,-0.04322869,0.105990626,-0.09998589,0.30335313,-0.21049947,0.2259482,0.34507352,0.099787384,-0.12305763
0.20985065,-0.006000755,-0.1549075,-0.48984686,-0.121385515,0.035350274,-0.06806985,0.07333089,0.17171758,-0.09754089,-0.077937536,0.10637775,0.07232662,0.75548613,0.102771096,0.047069557,0.39070803,0.1325446,0.8446411,0.026748128,-0.017931074,-0.0515617,-0.114488676,0.28236514,0.17376254,0.46731323,0.030738983,0.10397631,-0.11315207,-0.079358034,-1.1659523
-0.08012653,0.41911334,-0.5439252,0.26589647,0.3322785,0.42037323,0.33518055,0.089201406,0.51280594,0.34435472,0.71143305,0.47870502,-0.106985256,-0.1754237,0.18940526,-0.46180412,-0.07429615,-0.0580278,-0.5673312,0.018287778,-0.014768124,-0.01798778,0.11526536,0.0887384,-0.17159778,0.15294321,-0.07156601,0.3786877,0.5704596,-0.089211814,-0.14810504
-0.070955366,0.023853036,0.19934213,-0.016514773,0.042886734,-0.09540911,-0.013769582,-0.031638715,0.067648515,-0.33408654,0.030387072,-0.0038296655,-0.025809271,-0.06847983,-0.029860398,0.0595714,0.23913172,0.18349513,-0.29259163,0.00016031414,0.048511,-0.06036257,-0.16456337,-0.029090382,0.09353781,-0.06537521,0.028377028,-0.050231017,-0.09632293,0.058042925,-1.6294662
-0.05219017,0.16276568,0.6435961,0.21757807,-0.5641365,-0.45571387,-0.54028434,-0.04150231,0.18875198,0.111690365,-0.14482288,0.07815746,0.2055775,0.5179367,0.22020265,0.12687707,0.50855625,-0.24151777,0.6006932,-0.012250483,0.05247745,-0.010979831,-0.016482525,-0.16932121,-0.10949376,-0.23295978,-0.26857513,0.076578744,-0.50816137,-0.02466868,-1.1551206
-0.7065238,0.28852597,0.9736765,0.08748173,-0.481666,-0.2802208,0.00606134,-0.21770123,-0.24905634,0.14888553,-0.41849598,-0.25852254,0.22957428,-0.24272059,0.13403144,-0.76885533,-0.5001481,0.1424378,-0.48385006,-0.00086048245,0.040076338,0.010995045,-0.17212713,0.34455267,0.0059548053,-0.09166721,-0.15809354,-0.014819392,-0.2630105,-0.20802099,-1.1779112
-0.08809445,0.4169568,0.28208345,0.18192609,-0.03489665,-0.117629975,0.5438606,-0.13391636,0.090503216,0.35992175,-0.14716043,0.15198411,0.19949585,-0.12199844,0.30137262,-0.77956814,-0.49806225,0.23414375,-0.9754144,0.026581787,-0.024178676,0.027733833,-0.18407822,0.33962378,0.17254366,0.2695811,-0.19510028,0.34708348,0.09168956,0.08017528,-1.4009916
0.17888778,-0.47466043,-0.5562949,-0.55169743,0.116778046,1.117918,0.45038214,-0.19972026,0.18425213,-0.65007544,0.13739659,0.31163505,0.16186595,1.8431352,0.38776997,-0.032887913,0.1519961,0.03661633,0.37203595,0.04854002,0.0030222312,-0.048467927,-0.041581735,0.20582154,0.19158223,0.055035945,-0.15214777,0.091683686,0.7398275,-0.18462075,-0.18977584
0.16324334,0.14124842,0.030979441,0.72169083,-0.58246326,-1.5412544,0.14692943,-0.12926853,-0.073008016,0.8845323,0.015419579,-0.17279395,0.12662974,-0.2519587,0.39093202,-0.680451,-0.5686635,-0.16112651,-0.15436785,0.018758573,-0.01579298,0.03969775,0.092125155,0.07300227,-0.101156354,0.07922912,-0.40926996,-0.029098066,0.7941315,-0.14847656,-0.5449325
-0.035143938,0.36381307,0.5862049,0.5597499,0.14877571,-0.53036326,0.18857469,-0.5290542,0.091900416,1.2283531,-0.59292763,0.14199302,0.520113,0.2054532,0.47203788,-0.1519573,-0.19113795,0.29744887,2.0711482,-0.021386974,0.054655164,0.040539145,-0.23303217,0.49283206,0.6138779,0.4088048,0.06100754,0.3180132,0.03936918,0.55204386,-0.38944277
0.40846315,-0.039674446,-0.1643584,0.31081307,-0.10794488,-0.45151275,-0.42574078,-0.42314944,-0.22985303,-0.053604074,-0.10779035,-0.18536149,0.405987,0.29027346,0.128161,-0.2023683,-0.16901733,0.08928244,0.49687225,-0.051920854,0.0024848059,-0.026035294,-0.09253221,0.009847241,0.39755985,0.41557854,0.4795312,0.14409043,0.7160124,0.29176477,0.3758072
-0.5579041,0.14273103,0.7831533,0.10381924,-0.14532062,-0.050973963,-0.12989113,0.19507705,-0.014121779,-0.3111926,0.22114837,0.052061785,-0.284913,-0.06152524,0.15172654,-0.539831,-0.020860335,0.056778613,0.32897824,-0.043971546,0.030061387,0.05323852,-0.06503914,0.11666168,-0.15209708,0.12910236,-0.09207638,0.3360902,0.011839431,-0.16317241,-1.2141134
3.5058354e-05,0.09298889,0.10266754,0.014318653,-0.22575998,0.15774134,-0.50211036,-0.0025188427,-0.25686735,-1.0092189,-0.36845702,-0.18395375,0.05832144,-0.58048654,-0.0459434,0.9723322,0.9926209,0.004656646,0.91797656,0.03606438,0.040241115,0.04959193,-0.15993911,0.0648669,0.06208441,-0.18930432,-0.119166285,0.046740405,0.15443218,-0.08298899,-1.4342848
0.20375891,0.05720506,-0.27333918,0.14307302,0.048770726,-0.21068794,0.18006216,-0.2400823,-0.058125712,-0.10416396,0.038740568,-0.021826793,0.16005601,0.23382549,-0.0013653473,-0.18853302,0.40004513,0.29131097,-0.49161085,0.051313557,0.04727348,-0.051504716,-0.22586267,0.12645078,0.31205678,-0.03520914,-0.010614683,-0.08821833,0.044568088,0.12033652,-1.189426
0.5785789,0.6098952,-0.7413673,0.60243994,0.8714824,-0.14443524,-0.378358,0.36400628,-0.19891027,-0.48694977,0.88795143,0.034274966,-0.5541035,0.13793498,-0.20534757,-0.58252656,-0.4314355,0.18413635,-1.1100962,-0.017859556,-0.024163358,-0.021020561,0.0999176,0.107510835,-0.15611376,0.4611178,0.5283666,0.0042072507,0.7347732,0.15089498,0.123235166
-0.56381935,0.046049133,0.76529574,0.6503585,0.11251633,-0.44612914,0.62706137,0.2002715,0.17594083,0.39039043,0.17615366,0.23675612,-0.23368247,0.8515077,0.16391091,-0.26209262,0.27016163,0.11507385,-0.24941465,0.047170058,-0.0033097938,0.013928853,-0.058162056,0.037936546,-0.015721604,-0.12081138,-0.030756176,0.33230254,-0.044884495,-0.15422322,-1.0798768
0.1361322,-0.14143705,-0.3171894,0.08950118,0.40203682,0.1324383,-0.25581357,-0.44899094,0.33059284,0.2058046,0.22742775,0.2699402,0.53634876,-0.020628136,0.92310804,0.3610708,0.11776281,-0.029711846,0.35334638,0.013849385,0.03539083,-0.014783129,0.013539642,0.027171277,0.18542299,0.14927283,-0.044782393,0.07722153,0.40221184,0.1265896,-0.8263104
0.05359295,-0.29406974,-0.057986118,0.58556944,0.43663543,0.41119543,0.7074266,-0.29689977,0.38075554,0.109730236,0.53384507,0.37272558,0.26154494,0.31588426,0.5155214,-0.08821857,0.3376006,0.1351433,0.7158851,-0.049202055,-0.023304053,0.021161638,0.00563654,-0.0027290108,0.361972,0.2466404,0.02966904,0.27384794,0.7467169,0.13144092,-0.29193845
0.38009197,0.16876842,-0.29331264,0.34312186,0.036066364,0.15793583,-0.15895596,-0.08053371,0.40928823,0.48153535,-0.018358698,0.3522642,0.11727583,0.8184026,0.2277311,0.22139135,0.22206944,0.09669212,1.2164572,-0.009505309,-0.018875606,-0.054324366,-0.1703601,0.29576036,0.4435907,0.16713072,-0.113462955,0.5084818,0.65429676,0.11968662,-0.47221428
0.10514622,0.28223822,0.057752173,-0.028779462,-0.09519858,0.36082485,0.33591375,0.17105274,-0.114883766,-0.27012646,-0.23426893,-0.15004888,-0.1528943,-0.03223772,-0.23048703,-0.54358184,-0.22479665,0.35465905,-2.3835754,0.06212411,0.03505498,-0.0014131591,-0.35418358,0.33331722,0.2742247,0.12641527,-0.14293125,0.15720668,0.023573875,-0.010908512,-1.1174692
0.102471866,0.41763854,0.1273289,0.29159984,0.43462193,-0.5031658,0.40531212,-0.2574137,-0.015094786,-0.50581783,-0.076771386,-0.056980673,0.18873279,0.08045074,-0.060035385,0.10037107,0.048952103,0.015366726,-0.3055161,0.011499688,0.047126412,0.059593156,0.14000493,0.15976533,0.11707554,0.23113698,-0.29443613,0.37810558,0.24600251,0.1082713,0.24364226
-0.6629729,0.43490073,1.4351342,0.9943837,0.45404738,-0.49859533,0.50235945,-0.04531607,0.13260569,-0.05245469,0.017606767,0.025630714,0.08590955,-1.1484679,0.2001149,0.10608951,0.14300166,0.042690277,0.7845688,0.024761736,0.05014073,0.05757229,-0.1194956,0.1475669,0.31381142,-0.088057294,-0.07999161,-0.46041813,0.44127625,0.6256069,-0.3966837
-0.027393673,0.35546285,0.30784538,0.41529796,0.13821237,0.03751169,0.060039364,-0.06289105,0.20450152,-0.29633853,0.34895915,0.12837245,0.024927523,0.16275752,0.024058891,0.63777083,0.71396106,0.11846445,0.94967395,-0.061881498,0.021782503,-0.016558595,-0.03396849,0.39299664,0.50706613,0.32751656,-0.28885102,0.49088493,0.43575457,0.21990013,0.75878084
-0.21667211,0.59344834,0.21353361,0.60537905,0.4185836,0.41877115,-0.02455561,-0.061204683,0.21307088,0.2480883,0.37114292,0.1685513,0.001731449,0.25199756,-0.07181629,0.45320657,0.546067,0.20267108,-1.0982274,0.055236064,-0.02351623,-0.0093355775,-0.19828993,0.26624954,-0.10446393,0.25317293,0.42984447,0.27131087,0.09584438,0.24003227,0.52127725
-0.37547585,-0.14844395,0.88750046,0.033991825,-0.33743566,0.028049864,0.227426,-0.41617146,-0.17991492,-0.41082075,-0.35021156,-0.17402947,0.44886473,-0.034633763,0.058057666,0.03371646,0.25216204,0.20744883,-0.78069925,0.025550947,0.019784383,-0.038526304,-0.25526828,0.07020895,0.17276277,-0.20166746,0.030974124,0.11936085,-0.16942593,0.08668114,-1.1995608
0.14704376,-0.06910229,-0.06484358,-0.6600644,0.21994239,0.26473632,0.79229724,0.0038650197,0.04046544,-0.35074258,-0.15784796,-0.004599358,0.03686123,0.5451288,0.104900226,0.13422488,0.44146362,0.14188182,1.7183169,-0.056627765,-0.039818093,-0.015553243,-0.22466785,0.5357829,0.20448835,0.48812112,-0.1155954,0.3905662,0.012828066,-0.046015576,-0.9641828
0.041057765,-0.34380698,-0.16494106,-0.1967284,-0.07860672,-0.07833616,0.16270623,-0.35475782,0.13422923,0.11062711,0.011906606,0.19894409,0.3852172,-0.11637802,-0.07415065,-0.099680424,0.13226032,-0.070920356,0.8946115,0.030462995,-0.013869077,0.051369168,0.097938545,-0.16712196,-0.39495838,-0.25623694,0.11137645,-0.17024164,-0.22368093,-0.30134895,-0.9778012
0.5671828,-0.089832805,-0.70489085,0.2606834,-0.01220453,-0.3520164,0.21489224,-0.5476653,0.46331713,-0.13219674,-0.05812107,0.4687717,0.57924366,0.123083666,0.7894098,-0.4735597,-0.30892965,-0.11729291,2.3234515,0.037542857,0.060751103,0.05461903,0.017031781,0.6282764,1.0564792,0.4440828,-0.9014144,0.6876727,0.26790053,-0.34938937,0.10088179
0.04869526,0.17613025,-0.076525316,0.3645282,-0.04428075,0.08072309,0.1097771,-0.31720936,0.044161774,-0.22556122,0.023132201,0.1844904,0.28408054,0.5155385,-0.017513093,-0.072775275,0.36377618,0.36452758,-0.48004645,0.04327064,-0.048116855,0.021013625,-0.31356898,0.05597159,0.14627203,-0.25660542,-0.082633935,0.032493133,-0.046413954,0.29629207,-0.9725263
0.1465646,0.86761373,-0.36415905,1.120219,0.5181047,1.1874962,-0.28155228,-0.47547853,0.18713227,-0.085451014,0.58451974,0.21601738,0.4005161,1.0751235,0.42055258,1.0173559,1.207841,0.029332312,-0.87275696,0.05455807,-0.028249472,-0.0030523762,0.038732886,0.1801375,-0.6381728,0.37340397,0.65471643,0.34726048,0.30523136,0.20605859,0.1863644
-0.78787565,0.60768086,0.8698869,0.48446733,0.3347941,0.33453432,0.47725773,-0.10086075,0.3663647,-0.17646903,0.11569804,0.2974741,0.09904412,-0.00922905,0.5104472,-0.52167183,-0.16670899,0.17020637,-0.6469473,-0.0086811185,0.0050543994,0.0343287,-0.25526044,0.27407584,-0.17765623,0.15657952,0.049571,0.7097512,-0.2654032,0.11687618,-1.3141898
0.048766114,-0.29458308,0.65294176,-0.31514835,-0.35106656,-0.8071466,-0.060210194,-0.24273771,-0.13168515,0.10357283,-0.2925969,-0.17109397,0.20509371,0.5632803,-0.23861331,-0.47129193,-0.14975625,-0.12513405,0.24934518,-0.049565546,-0.03600034,0.028466828,0.17535388,0.14028175,0.2079272,0.20415525,-0.2974303,0.2605438,0.29462555,-0.18034679,0.08479272
-0.10897728,0.14645459,0.43299416,0.013342065,-0.058431562,-0.01249832,0.11900212,-0.1647655,-0.16223374,-0.5568003,-0.19951037,-0.17504042,0.20886965,0.6274893,-0.1616802,-0.070088565,0.1564465,0.41769996,-0.6389605,-0.0011218563,0.03786307,0.03463248,-0.41201425,0.21366611,0.23776758,0.029051134,0.34679818,0.22824155,0.17158158,0.3739628,-0.9984033
0.44291538,-0.22031167,-0.45897362,0.031905647,-0.23696262,0.4295606,-0.29106644,-0.20460428,0.17272793,-0.49752513,-0.25826183,0.12240308,0.15710899,0.021731624,0.21473789,0.81699955,1.0037575,-0.00986708,2.2757068,0.059509024,0.031780742,-0.008872479,-0.02096434,0.013448271,0.14861333,0.1423933,0.14739557,-0.16939157,0.2660625,0.16439615,-0.84731436
0.06993492,-0.0012884963,-0.09754573,-0.13809131,0.14394557,0.8712653,0.06397732,0.6351669,-0.27354747,-0.14772356,0.4724455,-0.34240624,-0.6291121,0.102394655,-0.6105624,0.36340195,0.49512744,0.028669098,-0.8794707,0.030395806,0.016013816,0.0046207085,-0.11466609,0.24556665,0.027409166,0.103721276,-0.057747252,0.5725285,0.43232608,-0.3424629,-0.7260358
-0.36109027,0.026405603,0.7455021,0.13039878,-0.2979611,-0.2542317,-0.39926627,-0.22703278,-0.41747743,0.5693039,-0.49328518,-0.37089327,0.2802066,0.38094184,-0.017166156,-0.989817,-0.68353236,0.0912894,-0.08694263,0.01446981,-0.02837132,-0.030677624,-0.05501886,0.022246424,-0.21820734,-0.23314679,-0.10703993,-0.2249107,-0.041652746,-0.30280235,-1.2190166
0.19869615,-0.0014774415,-0.2697871,0.050005827,0.43285295,0.47491616,0.97507656,-0.15813784,0.35695496,-0.20957707,0.15372686,0.38185495,-0.0038251136,0.15666069,0.74670124,-0.71584857,-0.47208175,-0.09111866,-0.05227369,-0.053913906,-0.04445958,0.057129778,0.14362215,0.33202943,-0.19151028,0.25720134,-0.46514487,0.59834623,1.0340536,-0.58603466,-0.4202818
0.07681513,0.037930273,0.062841475,-0.02601009,0.10633229,0.366291,0.5905092,0.051931497,-0.21723011,0.40266782,0.18748355,-0.15202048,-0.018012678,0.5251383,-0.24369828,-1.1207598,-0.99101573,0.075503394,0.10414633,0.033148058,-0.022517405,-0.045389615,0.11956217,0.059102427,-0.15180582,-0.16726139,0.3241924,0.12133817,0.13145833,-0.33883032,0.5676425
-0.21886992,0.03969028,0.14401717,0.11333424,0.06809418,-0.1046862,0.39840028,-0.028554186,0.014016609,-0.087902136,-0.03759109,0.062154666,0.115826115,0.008877119,0.22214667,-0.30322084,0.03339898,0.2897818,-0.9839286,0.057170033,0.02946806,0.02644752,-0.36660433,0.05819146,0.18356796,-0.08739299,-0.090357944,0.14515425,-0.1383201,0.057375204,-1.5821267
-0.6043732,0.041048944,-0.0047182627,-0.16030712,0.11089781,-0.14237317,0.7030212,-0.38658857,0.49409595,0.54665524,-0.058982026,0.4538247,0.4698977,0.5409775,0.45720267,0.56009674,0.96164656,-0.075037785,0.82532257,0.00050806254,-0.052731402,0.03031797,-0.18894306,-0.00055852963,0.45423773,0.06003956,-0.36306518,0.34743753,-0.970391,0.19287497,-0.81677604
-0.12318455,-0.7028349,0.2864536,-0.48842078,-0.76662487,-1.2729784,0.51938045,0.29077265,-0.5125734,-0.3684857,-0.4025198,-0.41226324,-0.116694376,0.26605776,-0.16639784,0.38113925,0.6000049,-0.07573194,0.039999694,0.027772307,-0.002329044,0.05379136,0.1320753,0.27520543,0.58028793,0.07902288,-1.2537372,0.514527,0.44363832,-0.32081056,-0.26135942
-1.0324693,0.3246485,0.98886913,0.68033135,-0.020177715,-0.34559065,0.04801994,-0.5224471,0.0800923,-0.44763124,-0.25739357,0.18180977,0.556553,-0.0095296865,0.507673,-0.7575654,-0.5243602,0.05584209,0.08584485,-0.036743686,-0.009778842,0.025730312,-0.123459354,0.03948444,0.23140638,-0.5808264,-0.6289072,0.44109094,-0.7391932,-0.05096389,-1.0994968
-0.14808328,0.55566114,0.59895724,1.5449935,1.1425204,-0.7072489,0.34283227,-0.07687483,0.51611465,-0.8189213,0.5556293,0.55193186,-0.18281178,-0.47058988,0.3320581,-1.3444381,-1.0467668,0.1962181,0.9839651,0.039984405,0.04799094,-0.009428181,-0.07174353,0.22796443,0.27805078,0.1777002,-0.6547183,-0.35448888,0.44548565,0.10050384,-0.25922918
-0.521943,0.22018382,1.0941435,0.209265,-0.23523901,-0.07448452,0.40584883,-0.1896253,-0.05305004,0.24014616,0.12487096,-0.058638185,0.2444975,1.3174483,-0.032394942,0.0131544,-0.13549675,-0.06568452,0.59286106,-0.042091154,0.060540266,0.020265862,0.0749073,-0.023556935,-0.14205776,-0.268575,0.17396086,0.020393278,0.04882075,0.21032469,1.0134283
-0.14005856,-0.36219248,0.45665264,-0.15942524,-0.5204819,-0.38197613,0.00782344,0.19034737,-0.19084415,0.67384773,0.092231706,-0.27944303,-0.12358205,0.11680063,-0.32326138,-0.50779545,-0.08109084,-0.29897344,-1.6133196,-0.020266742,-0.040532254,-0.03735499,0.3103867,-0.20606564,-0.44498354,-0.28188938,-0.38407394,-0.06483825,-0.11236056,-0.43970704,-0.8156503
-0.29606274,0.48031178,0.40342063,0.5411561,0.42358738,-0.17315145,0.6620686,0.072792776,0.4008081,-0.037946627,0.75201225,0.3597295,-0.14301316,0.17110497,0.12468088,-0.17972653,0.055318363,0.18673667,-0.5378784,0.008552715,0.004166119,0.04651244,-0.10868203,0.103453375,-0.3136778,0.27677977,0.28463456,0.53632414,0.7673951,0.0034548563,-0.27019715
0.22797652,-0.027675036,0.22485809,-0.009869108,0.083165705,-0.37585664,0.5236693,0.1618721,0.3552485,0.2897704,0.43408504,0.43047684,-0.15844733,-0.11956196,-0.07602777,-0.21807797,-0.26120216,-0.38185546,0.7255913,0.0065300018,0.037568115,0.014565967,0.33070287,-0.149966,0.14050712,-0.10722511,-0.47633198,-0.47356436,-0.48068768,0.22465664,0.5739663
-0.36367905,-0.011772497,0.2972104,-0.50361645,-0.15495074,-0.31325907,0.5214391,0.07981788,0.33128002,-0.4758203,0.01915818,0.26954246,-0.14477757,-0.63085,0.13471584,-0.38012356,-0.058432482,0.068327114,-0.5022203,-0.026882768,-0.0011705011,-0.0216835,-0.19219024,0.34109846,0.6037733,0.26963067,-0.69924575,0.36999983,-0.29225403,-0.045271963,-0.98039424
0.28451204,0.090152845,0.01603177,0.05810205,0.62191063,0.25966936,0.058920175,-0.25362843,-0.2671667,0.2842101,0.24662705,-0.19217995,0.098820396,0.2967181,-0.22816876,-0.10925967,-0.25472403,0.0068086027,1.066025,-0.03994891,-0.052225627,0.051679604,0.11825281,0.10052254,0.35578254,0.40505514,0.46486643,0.072279185,-0.29971397,0.37493944,0.78641915
0.08448539,-0.23190604,0.121436656,-0.64016646,-0.8201806,-0.5626079,-0.2046828,-0.43383646,-0.050888292,-0.2261192,-0.23987241,-0.086537056,0.45076764,-0.15438099,0.09463241,-0.03088819,0.05246901,-0.18111295,1.5530674,0.01565972,0.020601712,0.044305034,0.19311978,0.23799358,0.48912656,-0.003343968,-0.9474537,0.40788355,0.79424113,-0.25542322,0.18314011
0.16386825,-0.07073248,-0.12550415,-0.29143226,-0.15347621,0.17021465,-0.26625147,0.13976878,0.20495515,0.4924095,0.50411594,0.16788243,-0.11156537,-0.40070784,-0.1388327,-0.2337727,-0.23534785,-0.12984163,0.38606814,-0.05896633,0.038330883,0.05304283,0.080137014,-0.0031789264,-0.07188086,0.2863161,0.10432445,-0.077603035,0.67398316,0.037837315,0.17304894
0.077539384,0.041241307,0.12963192,0.4251307,-0.35292134,-0.19817804,-0.16676404,-0.54952604,0.3309808,-0.11832374,0.070044,0.25793383,0.45750356,-0.8212,0.26776657,0.14610447,0.36390698,0.08029943,0.6201717,0.026095927,0.038814895,-0.017658837,0.0013487452,-0.16963252,-0.037259184,-0.5513143,-0.1895915,-0.026684308,-0.28532878,-0.1487529,-1.2513897
-0.3615338,0.029085705,0.8744947,0.3048739,0.2374171,-0.7089266,0.533041,-0.33086973,0.087648615,0.35500267,-0.23496164,0.16183159,0.3611055,-0.9861705,0.100687325,0.32993698,0.41435483,-0.041195977,1.3591508,-0.041236244,-0.033052303,-0.015577033,0.08053562,-0.26987746,0.24636261,-0.36240226,-0.50552577,-0.5312691,-0.9492481,0.26747802,-0.90355223
0.26939857,-0.4411702,0.55854756,0.108011395,0.1335408,-0.36504266,-0.2186412,-0.06558745,0.06492298,-0.70981884,-0.14799793,0.08103114,0.13782704,-0.34458458,0.14570814,0.45389727,0.6921702,0.14450862,1.0364265,-0.012033917,0.040186837,-0.026536256,-0.13915814,0.45338002,0.81996685,0.28511217,-0.7300144,0.51646537,0.3601316,0.16007596,-0.7527446
0.6129037,0.50477386,-0.1769839,0.5562849,0.5953989,-0.5653444,0.3238334,0.036343414,0.1954306,-0.31180364,0.49194852,0.1971101,-0.061652124,0.27005947,0.053042036,-0.28827557,-0.22890294,-0.038852785,-0.016943276,0.03617888,-0.01344426,0.034927323,0.16111304,0.20220822,0.04739485,0.28035656,-0.18334933,0.3021103,0.35307527,-0.093741916,-0.037138537
-0.06184861,0.7244463,1.6149192,0.76175284,0.30757734,0.61988217,-0.49885723,-0.10491267,-0.31229484,-0.33125824,0.13763233,-0.16730864,0.11960303,0.62061507,-0.0602441,-0.8484911,-0.58135337,0.20173435,0.3595292,0.04739906,-0.025703326,0.04512033,-0.19109288,0.4634742,0.42096725,0.30121216,0.36517966,-0.059058167,0.04473681,0.1344418,-0.447179
0.34454155,-0.15303938,0.12599249,0.030525852,-0.48794058,-0.34152052,-0.09023345,-0.37158352,0.07750672,0.50466096,-0.07039334,0.046204567,0.40402225,0.037645932,0.18546788,-0.20521754,-0.207515,-0.3100182,1.165858,-0.028110616,-0.03817498,-0.016564995,0.32057717,0.10273544,0.2983789,0.058232475,-0.32374716,0.23436698,0.557179,-0.34096304,0.51878476
-0.071046226,-0.34606305,0.41705894,-0.583158,-0.21122406,0.46151918,0.2458794,0.23201941,0.07481937,-0.05251716,-0.342431,0.035605658,-0.12400693,0.1168444,-0.15740463,0.5653475,0.64986694,-0.08327129,1.1743491,0.056925356,0.044129074,-0.055338524,-0.016143404,-0.06783312,-0.0005720943,-0.2565047,0.000918322,-0.4768024,-0.2974085,-0.20681569,-0.98390096
0.12540103,-0.06044116,0.018946333,-0.104744345,-0.3915937,0.37839073,0.53918386,-0.32710826,0.27475736,0.4473094,-0.11294756,0.26046714,0.3151072,0.620637,0.055776533,0.7001528,0.66888803,-0.09109485,1.0229857,0.0016517788,-0.026000768,-0.021172777,-0.015344269,0.04785095,0.52765346,0.12378422,0.08212216,0.020801665,0.36071807,0.40945882,0.17272834
-0.32610726,0.13014656,0.28442016,0.08194998,-0.038168132,0.09958459,0.31592894,-0.10514723,-0.07694023,-0.28238916,-0.0954965,-0.05218391,0.09874779,0.01582824,0.042041443,-0.10753736,0.1817953,0.2798569,-0.6695614,-0.038172603,0.014311582,-0.0022413805,-0.3412958,0.084308214,0.051559906,-0.047969345,-0.03656928,-0.0057814685,-0.205302,0.023871748,-1.4733436
0.66213363,0.2202721,-0.75630045,0.21576,0.5491725,0.7029248,-0.38126716,0.06352217,-0.08204547,-0.05202616,0.48862243,0.009465994,-0.1936698,0.36417547,0.07959289,-0.66911906,-0.62870675,0.14185232,-0.2996283,0.034096986,-0.029291533,0.014620766,-0.0047533074,0.094315015,0.01478186,0.478551,0.18062371,0.23595592,0.28124976,0.11386472,0.07434787
0.37823734,-0.43513635,0.2514507,-0.34007546,-0.52140486,0.2126245,-0.41155356,0.08641566,-0.13054241,-0.09387814,-0.0067056776,-0.19346924,-0.117349416,-0.30379245,-0.50834125,0.17128389,0.1720028,-0.24765821,-0.36050054,0.045176283,-0.0036617294,0.04907109,0.14982866,-0.35692647,-0.19976072,-0.024274234,0.38025743,-0.25856206,0.15309909,0.17177637,-0.36361766
-0.28857857,0.107256696,0.12311826,0.1343897,0.104972385,-0.06909285,0.12129214,-0.15594521,0.20616932,0.17050858,0.040855363,0.24663429,0.24493206,0.43626577,0.10589793,0.55963653,0.8110947,0.034314416,0.8873097,0.053199135,-0.020884134,0.047522858,-0.1833994,0.00014643784,0.29421216,-0.07034852,-0.084776625,-0.047343716,-0.4910858,0.3359602,-0.9840788
0.35534346,0.14532378,0.6655079,0.31325534,0.027370056,-0.0910974,-0.18308914,-0.341655,0.042366695,0.13362142,-0.19867602,0.044080485,0.4490982,0.44347438,0.19169317,-0.18764202,-0.104811735,-0.068937704,0.45128652,0.037402593,0.04728718,-0.046678923,-0.0025796175,0.37085128,0.1356963,0.2692279,-0.6340166,0.40245125,0.76443654,-0.060085185,-0.22681923
0.2172726,0.30189636,0.24976411,-0.036022898,0.24017987,-0.00072019896,-0.03559283,0.17661782,0.23790355,-0.19021013,0.32225773,0.2641563,-0.32037303,0.46220547,-0.026151923,0.0036315615,0.020492947,-0.01763439,0.39862242,0.053245842,0.010796323,-0.012670182,0.10167348,0.14818834,0.15875688,0.3140893,0.13664868,0.28245756,0.2771831,0.14308098,-0.0073960377
0.59291536,-0.14161749,-0.024002025,0.09156188,0.232131,-0.437368,0.254139,0.11497245,0.17714389,1.6110916,0.18995868,0.15837573,-0.24578397,0.39311156,-0.20648497,-1.3790704,-1.3616687,-0.056552008,1.393152,0.0067058876,-0.019214146,-0.02999939,0.112415045,-0.15721919,-0.112960495,0.054122042,-0.031847514,-0.46979207,-0.3534727,0.18347017,-0.7842393
-0.90676147,0.2734092,1.2169431,0.28491223,0.041665573,0.73117304,0.23828836,-0.19446416,0.3262461,0.6436405,0.25816885,0.356209,0.19362122,0.7712144,0.22932814,0.33876905,0.64178234,0.27277976,-1.1347141,0.048950054,0.047768123,-0.044533037,-0.34894255,0.114500254,0.027095646,-0.112738684,0.40080082,-0.011717956,0.0958999,0.1612402,-0.84957343
0.08441588,0.11945334,0.64032346,0.038827658,0.021179857,0.3154189,0.12128529,-0.028890556,-0.16060273,-1.3677421,-0.12838069,-0.24108094,0.014432783,0.40875754,-0.519657,-0.01824555,-0.03340525,0.28458026,0.014935942,0.011283383,0.06092508,-0.062257,-0.37489632,0.45972657,0.4240716,0.20813738,0.19915156,0.2864026,-0.07442052,0.2704965,-1.0050213
-0.22189732,0.33458716,0.25821617,0.30679777,0.35541013,0.21805362,0.6108388,-0.21652918,0.07992128,0.14258206,-0.026653172,0.12886105,0.30547202,0.11612648,0.14383624,-0.04629698,0.33728915,0.12256776,0.082918406,0.048873276,-0.058299623,-0.029121786,-0.18343876,0.46300706,0.23112544,0.086645626,-0.653444,0.16180667,-0.01576607,-0.0032780045,-1.1360837
0.11394547,0.11702118,-0.023239572,0.16058262,-0.09933797,0.17193873,0.13928607,0.11257869,-0.11273568,-0.29353052,0.12952459,-0.1374082,-0.13550283,0.77710754,-0.115045235,-0.7570834,-0.29635456,0.19615659,0.10724843,-0.018507667,0.0011972114,0.009694517,-0.18744664,0.28582516,0.34780928,-0.02424738,-0.4396155,0.15094204,-0.19079475,0.13583043,-1.404232
0.3238012,0.07790301,-0.096918724,0.33976057,-0.14899638,-0.6831475,-0.16641407,-0.24715601,0.19673066,0.46340972,0.10703089,0.17837194,0.15640293,-0.5989865,-0.09398267,-0.43386173,-0.23767455,0.26865628,0.19172269,0.012171812,-0.050435215,0.020668752,-0.23329735,-0.091097385,0.09605232,-0.32693014,0.07055728,-0.14199413,-0.014178485,0.0803281,-0.80135554
-0.70734775,0.54555076,0.5501206,0.37073338,0.026696987,0.07748896,0.30728862,0.15770987,0.18057796,0.017863806,0.44944778,0.14637388,-0.10764277,0.46399397,-0.08319167,0.87473094,0.88245,0.14661558,-1.2898285,-0.052952245,0.023177639,0.061579697,-0.16004284,0.17509563,-0.3151877,0.43891728,0.6048628,0.37465844,0.26586962,0.25567424,0.66221434
0.042141605,0.093525134,0.22772749,-0.04139805,-0.1932874,0.14066507,0.83847183,-0.26037422,0.21622594,0.13424288,0.15414235,0.22122662,0.2040668,1.3620497,0.47411376,0.41442084,0.5374396,0.010871395,1.0279478,0.037352465,-0.031529665,0.028971575,-0.010393803,0.17913234,0.14156525,0.14791748,-0.16558257,0.39646372,0.34132713,0.025728347,-0.76618284
0.21396576,0.10367502,0.29061216,0.61220545,-0.5264458,-0.47410497,0.15374272,-0.070344746,0.118336804,-0.022631956,-0.16694129,0.0630239,0.06315394,0.8076194,0.037728634,-0.4692407,-0.024723552,0.1496664,0.84945357,-0.017767377,0.04780162,0.006733425,-0.20915107,0.16542871,0.602993,-0.0408361,-0.34241936,0.22177777,-0.67327094,0.021572188,-0.8357997
-0.38112313,0.3455251,-0.1521568,0.29639244,0.36603642,0.3459394,0.03825907,0.09741942,-0.05336856,-0.40684968,0.06662277,0.0058571403,-0.035427377,0.22356775,0.03807019,-0.06343143,0.33752105,0.34284076,-0.32677892,-0.04821276,0.005149573,0.016741134,-0.44948,0.18227337,-0.0018981867,0.06256658,0.4389273,0.30709034,0.23361278,0.06653017,-1.1796979
0.11052393,0.24084717,-0.22219189,0.1234866,0.15707645,-0.18782516,0.0036551943,0.04512963,-0.20909263,-0.8979643,0.3422217,-0.1306724,-0.18767317,0.005658791,-0.214206,0.46113697,0.6487614,0.002417424,0.4147615,-0.018267013,0.018070973,-0.0252987,0.024034811,0.2380495,0.24051952,0.48200226,-0.1777175,0.54150784,0.6279208,0.096876495,-0.23932059
0.49945524,0.3987218,-0.47283974,0.20194787,0.44202843,-0.33592546,-0.26819542,0.25500727,0.17875573,-0.025097273,0.43792865,0.22535552,-0.34101537,0.24350388,-0.034247957,-0.8558685,-0.7102404,-0.08832222,-0.090145856,-0.059268795,0.02935794,-0.04394129,0.18847401,0.090551816,-0.050720334,0.42331144,0.054654483,0.123741426,0.5163217,-0.18097377,-0.39732358
-0.16729605,0.263038,0.6255497,0.2668884,0.13433844,-0.38003382,0.78591883,0.05329634,0.083121076,0.8069924,-0.1013533,0.023038479,0.018247394,-0.54973876,-0.02493696,-0.72076315,-0.45460147,0.096687146,0.9710962,-0.0001636371,0.041316576,0.0015607849,-0.21169326,0.40282866,0.110400885,0.49678475,0.14087163,0.27927503,0.6021777,0.17495695,-0.6715916
0.20365489,0.62354815,0.68089545,0.61635476,0.036592416,-0.4453545,-0.27656248,0.02943352,-0.4020426,0.66613746,-0.7670606,-0.41150817,0.07975592,0.3394776,-0.5213925,-0.59781945,-0.19241875,0.082627684,-0.500442,-0.0030564815,-0.055555157,-0.0060347915,-0.138,0.027315304,0.049257062,-0.0458043,0.09847869,-0.3157768,0.1011002,0.084872015,-1.0510851
-0.43560466,-0.1208364,0.649506,-0.66953886,-0.6160271,-0.022404553,0.15341479,-0.16005497,-0.4576125,1.2565179,-0.15996917,-0.44654864,0.17428103,0.675364,-0.17940664,-0.6499926,-0.30984607,0.19971922,-0.18310285,-0.017867848,-0.0077379197,0.0016947836,-0.31198886,0.49241275,0.31507024,0.36955398,-0.14528993,0.33756965,0.38171342,-0.094423644,-0.92350626
-0.02947041,0.56345147,0.75092506,0.8534305,0.07718556,-0.53946483,-0.02997631,-0.21052843,0.013308585,0.16237955,0.026543427,0.0818269,0.1478645,-0.10334394,0.25215515,-0.11584368,0.0051385188,0.11272823,0.04322428,-0.02536735,0.062368087,0.01669725,-0.09776875,0.37707722,0.38226762,0.3770801,-0.60653555,0.39115837,0.46902573,0.0012708012,-0.237182
0.08156996,-0.0029990845,0.06370945,0.052476045,0.13407157,-0.16895673,-0.16082396,-0.0010476445,0.0095183,-0.3175049,0.034904044,0.009520107,0.063527815,-0.11751374,0.061345235,-0.095579416,0.14216608,0.2554656,0.118943684,0.023419827,0.012386441,0.038615897,-0.1936668,0.10291043,0.15727673,-0.105200626,-0.108380705,-0.096884534,-0.17123517,-0.03855097,-1.72815
-0.19678187,-0.1600871,0.02141412,-0.21952811,0.0009218452,0.17443173,0.3677195,0.10829178,0.029557515,-0.54346627,0.053655908,0.038666863,-0.10816754,0.094334245,-0.11663817,-0.43936297,-0.08052246,0.3444213,-0.46664554,-0.031888768,0.017369598,-0.028680459,-0.35984355,0.2139415,0.26751676,0.03787485,0.086596094,0.08669712,-0.00199324,-0.157396,-1.2292194
-0.07009639,-0.13651063,-0.3815926,-0.104521476,0.40852788,0.1379165,0.09130123,0.22701015,-0.18417977,-0.11680079,0.4069628,-0.09564685,-0.22278778,0.09457046,-0.7334946,0.23938614,0.3014747,-0.03363794,-0.09063594,0.0041627884,0.0112326,0.030070357,-0.011167915,-0.0013444284,-0.12085563,-0.017123338,0.6694346,0.16984916,-0.1461227,0.23166609,0.51224124
-0.010402235,-0.1608575,0.40223992,-0.0976748,-0.33132425,-0.74013966,-0.28569457,-0.054987412,-0.76794183,0.8281714,0.041148588,-0.53703195,0.13363917,1.417244,-0.6730918,-1.4966164,-1.6577257,0.3525594,-0.11877292,-0.055401668,-0.028459564,-0.02073694,-0.1598897,0.38337824,0.2719203,0.10470381,-0.112125546,-0.015003146,-0.18508922,-0.015675424,-0.10552926
0.40438163,-0.45472923,-0.4121994,-0.6590614,-0.042396836,0.55720496,0.13512126,-0.35969827,-0.509585,-0.027693037,0.059643567,-0.30354008,0.2310483,0.35087132,-0.24120255,-0.7794239,-0.78059673,-0.20416509,0.3773031,0.049856715,0.033586666,-0.014582999,0.2711059,-0.19395788,-0.13376556,0.19817495,0.2001119,-0.45731133,-0.7122588,0.029325156,0.4654369
0.04743139,-0.12961526,0.029751573,-0.12939204,-0.37707236,-0.37729755,0.4258073,-0.027902396,0.10230628,-0.5487904,0.19230199,0.123787336,0.1387669,-0.095386416,0.15895464,-0.041410238,0.44797933,0.072955705,0.5320026,0.028768986,-0.062110715,-0.011765517,-0.12686959,0.048107356,0.049763683,-0.26601416,-0.40406686,-0.29275757,-0.06988339,-0.39453164,-1.554361
-0.22176251,0.21155909,0.4489779,0.1396647,0.6301627,-0.26093477,0.85542727,0.004561636,0.19311102,-0.13658227,-0.0038750907,0.21080086,0.08938825,-0.3185152,0.1082549,-0.85613626,-0.5060789,0.23356774,0.11435894,-0.04046727,-0.051840924,0.025651522,-0.24128143,0.38478836,0.054491982,0.55226564,0.17331089,0.352488,0.7110342,0.24367543,-0.6988871
0.37220132,0.22204757,-0.3951639,0.4173444,0.24665752,-0.5403304,-0.6855982,0.3904138,0.10012809,-0.24827942,0.3087962,0.05915545,-0.3683972,0.31301653,-0.21442527,0.22281764,0.36619163,-0.2846125,-0.119686246,0.053802088,0.019528076,-0.04133503,0.15869136,-0.26741776,-0.32403183,-0.2365762,-0.2946246,0.2562718,-0.062460236,-0.37649158,-0.92295784
0.3475212,0.55100185,-0.21164618,0.49954867,1.0417998,-0.49083215,0.040214147,0.1039574,-0.42867592,-0.08002252,0.18633859,-0.40036762,-0.25990957,0.16892476,-0.34489056,-0.58406556,-0.34587535,0.46749523,-0.5675399,-0.026400246,-0.05319207,0.05187899,-0.21414998,0.49491516,0.2568402,0.86822844,0.43497378,-0.02421864,0.51181304,0.49966583,0.3954433
0.01060166,0.151099,0.5017579,0.21822,0.060480088,-0.21149318,0.38483378,-0.022151913,0.13536677,0.3048047,0.32850528,0.13246214,-0.006526673,0.20121849,-0.21655887,-0.40960956,-0.53010535,-0.14960219,0.98098284,0.033569828,-0.036028504,0.017588124,0.22371876,-0.09395268,-0.176509,-0.03653432,0.43629536,-0.15826412,-0.026956784,0.062190272,1.2819546
0.43350148,0.27394664,-0.09562264,0.5663605,0.59032047,-0.18734998,-0.019708801,0.092863955,0.13524315,-0.38806513,0.2472394,0.22403236,-0.22269815,1.3057594,0.1494829,-0.56681895,-0.5542713,0.15372954,-0.3685485,0.043676734,0.038878866,-0.038595363,-0.14690924,0.19264477,-0.028763438,0.3501795,-0.07738166,0.31300285,0.59388244,0.19847776,-0.5596667
0.031779338,0.07050119,0.23296887,0.31252018,-0.4411418,-0.33510152,0.028345315,-0.19720216,0.27900565,-0.13300757,0.044018563,0.22940508,0.21679498,-0.5410332,-0.047541507,-0.22205788,-0.07993101,0.13692032,1.5981185,0.021323755,-0.04610142,-0.054201506,-0.14821252,0.21665977,0.5991619,0.017263882,-0.29026,-0.09554693,-0.17825861,0.1071625,-1.3184139
0.29445788,-0.07169497,-0.31448814,-0.011318926,-0.5393835,-0.30248153,0.012874486,-0.6084691,0.35898817,0.72685695,-0.18389258,0.40841845,0.685885,0.9539419,0.7544839,0.09936747,0.08942816,-0.029167669,1.8140857,-0.062499322,-0.047440037,0.0082362,0.07791522,0.12413627,0.47222504,-0.0331375,-0.27184606,0.21480711,0.44385076,0.106043436,0.10016313
-0.65201604,0.3585428,0.21305378,0.5710727,0.31172833,0.10616075,0.72817045,-0.25424865,0.5096519,0.16928083,0.06122941,0.46955144,0.38996902,0.24890207,0.36640957,0.10792652,0.4972593,0.21246782,0.27785423,-0.016848415,-0.004055999,0.05927635,-0.35717666,0.016563743,0.15688881,-0.23429203,-0.3204372,0.17800328,-0.4536427,0.36875108,-0.93606734
0.21787035,0.300068,-0.51702493,0.29338914,0.4664653,-0.023417765,0.24056198,0.044915035,0.05007196,-0.21990342,0.6708186,0.12572744,-0.17996211,-0.18946403,-0.109120145,-0.74307513,-0.48043582,0.032442883,-0.16080701,-0.04388413,0.03096556,-0.009334609,0.06214647,0.16055003,-0.02099784,0.2453933,-0.16311722,0.24107008,0.31510055,-0.0026876219,-0.21474534
-0.1527542,0.22190958,-0.07100724,0.12901512,0.6776027,1.1824316,0.9048676,0.23078243,0.026499234,0.32303324,0.129791,0.08014945,-0.19587006,0.1456832,-0.044734143,-0.18354632,0.01795042,-0.13288404,1.4459902,-0.052724138,0.004715018,0.049581267,0.015113377,0.20492189,0.0020697308,0.032270763,-0.3177771,-0.026485287,0.34569106,-0.32342607,-1.073472
0.20349845,0.3345228,-0.44882363,0.59514457,0.97310007,-0.6718026,1.1808677,-0.114932366,-0.09903864,0.010850873,0.028263312,-0.0034097596,0.18376173,-0.66925406,-0.12507541,-0.26815537,0.051553655,-0.11966471,0.9804957,-0.03125435,0.020018399,-0.015384518,0.07701122,0.61584806,0.33803937,0.36771435,-0.83316255,0.59746194,0.87517536,-0.17673746,0.5509277
-0.19399466,-0.38846365,0.022159528,-0.40218052,-0.5118846,0.47140682,0.5114936,0.02976327,0.61499447,-0.80273294,0.5643858,0.63620085,-0.034652337,-0.55749047,0.28320977,-0.6245229,-0.4317476,0.16035362,0.31877023,-0.02689083,-0.035048723,0.043883838,0.034623284,0.4072743,0.5077514,-0.044587795,-0.39710218,0.3311609,-0.29583505,-0.3477963,-0.75423545
0.17167027,-0.19494617,-0.24255686,0.3359044,0.0015201786,-0.6249382,0.86794716,-0.081517,0.28942057,0.4184,0.23038094,0.32165375,0.12014082,1.0148962,0.32642078,0.29446092,0.7230887,-0.1272883,0.5001638,-0.021028005,0.032133453,-0.012811035,0.16572717,0.0032486147,0.05748862,0.06582839,-0.370235,0.20754887,0.16526695,-0.16574703,-0.86502105
0.10018204,0.41833904,0.26806408,0.3750881,1.1343572,-0.18430576,0.31843242,0.16569516,-0.28605914,0.08117654,-0.07615565,-0.28673494,-0.20919867,-0.05852448,-0.25346065,0.12960523,0.12589462,-0.07867674,1.125515,-0.01749529,0.010832809,0.011189923,0.0059374664,0.21732211,0.60828763,0.39610043,-0.35796195,-0.051776454,-0.39059308,0.72817814,0.022703825
-0.33847883,0.20170425,0.9349341,-0.005102113,-0.11181664,0.33471692,0.4181689,-0.30237192,0.37582734,-0.024829948,0.14248742,0.3198835,0.3167131,-0.021578131,-0.034818906,0.1243313,0.043917067,-0.07383551,1.5259514,-0.0106740445,0.026794322,0.03817808,0.051878285,0.11765856,0.08392484,0.038820338,-0.010767262,0.16731206,0.11372869,0.21126898,0.9461718
0.34702674,0.2662635,0.31903237,1.2829,-0.5878521,-1.5096325,-0.38160765,-0.5234535,-0.16829674,0.48627737,-0.6159776,-0.21043746,0.549355,-0.8865758,0.16256893,0.17885676,0.6011281,-0.16278554,1.091172,0.055971175,0.0041933805,-0.058163792,0.040196747,-0.1381158,0.0036447325,-0.33528128,-0.25700602,-0.0035955622,0.087908946,0.16225392,-1.214475
0.21761723,0.037646554,-0.19782689,0.2835086,0.32379812,0.15111668,0.45552167,-0.023145795,0.040473834,-0.31922382,-0.20991693,0.004984216,0.06548287,-0.15792888,0.035657626,0.12540227,0.51913387,0.3380379,-0.9110812,0.031205632,-0.03427884,-0.053693853,-0.41720682,0.09052153,0.09082785,0.047725897,0.06021492,-0.0048034363,-0.037970647,0.16629419,-1.2543713
-0.1313849,-0.04234683,0.27265227,-0.105794236,0.19869599,0.18623929,0.28749302,0.13753957,0.44213733,0.15498602,0.48369548,0.4180871,-0.042588804,0.33349347,0.3105976,0.1353083,0.102569796,0.084602304,1.1032857,0.008109145,-0.05478444,-0.011843286,-0.007813624,0.2837186,0.4437523,0.23299062,0.08787147,0.31445092,0.4218042,0.10347031,0.8897156
-0.033845566,0.14485627,-0.014393931,0.084699936,0.21096931,0.09714108,0.4146943,-0.08543994,-0.0945277,-0.07725218,-0.076113164,-0.08741077,0.12910858,-0.02823832,0.00525146,-0.2504458,0.109203316,0.23018016,-0.8886499,-0.017721474,0.049883,-0.020802446,-0.26331973,0.16464125,0.04137808,-0.086481154,-0.025360197,0.0040679867,-0.13856624,0.08962276,-1.5641948
-0.19123127,-0.14706858,-0.08550981,-0.7209809,-0.11400073,2.0368135,0.2364573,0.46193868,-0.436354,-0.89246404,0.11050061,-0.3263182,-0.52229565,0.6197671,-0.24073493,0.32699353,0.79065675,0.09309601,-0.36800644,0.057560027,0.039939694,0.058344595,-0.019473542,0.26588616,0.19953091,0.29227456,-0.2405898,0.48337466,-0.015344257,-0.093595885,-0.97393334
-0.1307095,0.27530798,0.121841736,0.29527384,-0.1931195,-0.6351175,0.063099205,-0.48808682,0.630231,-0.045165204,0.34865576,0.6738445,0.5532224,-0.21901849,0.5719644,-0.47535685,-0.48459888,-0.32146853,1.8545884,-0.03374339,-0.013957292,0.0015480593,0.1848987,0.18422039,0.12790532,0.18346448,-0.33820578,0.031085413,-0.28574005,0.20537134,0.8083274
0.095143266,-0.12605458,-0.089226715,-0.3685593,-0.31579998,-0.48621142,0.036446374,-0.18421654,-0.24530052,0.21956338,-0.053166755,-0.20849559,0.108071685,-0.14898884,-0.3797818,-1.0766447,-1.1532347,0.037486397,0.2726334,0.02138856,-0.00742577,-0.060328953,0.062601164,-0.097327895,0.01014595,0.0948031,0.6555533,-0.2997546,-0.2631582,0.025149021,0.84943086
0.15428752,0.4562369,0.08144382,0.19712298,0.02514273,-0.031994704,-0.6840172,0.65173715,-0.28271157,0.21610174,0.5553609,-0.30029222,-0.6216048,0.72922754,-0.51567507,-0.6841029,-0.2689755,0.22421531,-0.76707417,0.045886457,-0.048167363,0.0020384043,-0.24383117,0.13380657,0.07737415,0.17417897,0.07221722,0.29380655,0.034479246,-0.2567952,-0.62431264
0.043947816,0.066585116,0.29480305,-0.05594545,0.4244937,-0.005420521,0.43431655,0.00461788,0.17352992,0.17655495,-0.008475385,0.08149333,-0.01958066,-0.2590993,0.25043398,-0.45049012,-0.09835002,0.19250445,-0.5670996,-0.020851582,0.008155756,-0.03619188,-0.12181591,-0.08016711,0.02379342,-0.106668785,0.07707832,-0.100599855,0.14938185,-0.018693907,-1.7367526
-0.2382758,-0.03344825,0.49232364,0.14658004,0.9262496,0.35461986,0.19354779,-0.17503001,0.13487412,-0.15542965,0.14865611,0.14593528,0.031440873,-0.20887281,0.29858014,-0.42461735,-0.2648972,0.05370084,1.1740414,0.013277508,0.015454605,-0.028229617,0.06493938,0.014299101,-0.14957839,-0.14292368,-0.07052566,-0.14210184,0.26874262,-0.11286367,-1.5416199
0.36744383,0.042346813,-0.44315195,-0.09072249,0.34232602,0.055903632,0.29867768,-0.24729861,0.074303016,0.1660266,0.20511225,0.1331712,0.2774465,0.53621906,-0.018651856,0.15885805,0.18483998,0.07773082,0.5194117,0.03691955,0.023853265,0.053418197,0.03771926,0.05684412,0.123685054,0.19009222,0.17215504,0.048031192,0.6009901,-0.06715268,0.4344474
0.311021,0.082640626,0.6017313,0.18463737,0.32151672,-0.16729125,-0.17469776,-0.12866871,0.26642594,0.5134892,0.19488904,0.28579813,0.016299259,0.12083225,0.05741701,-0.6438634,-0.5743711,-0.058165498,0.12119257,0.027147032,-0.015417151,0.0014539063,0.06822707,-0.07520609,0.30302042,0.07418563,-0.13772456,-0.34126654,-0.7799349,0.11984617,-0.8988054
-0.38258475,-0.1731087,0.73790663,-0.12943102,-0.17001899,-0.3346226,0.3471762,0.103669524,-0.17779334,-0.4966933,0.09727279,-0.084571525,-0.1711935,0.14522023,-0.26484498,-0.25906208,-0.28975716,-0.06091079,0.50686306,-0.032832958,-0.02543433,0.043596,0.17426448,0.16592568,0.25402394,0.19780482,-0.33321086,0.36479136,0.21209674,0.06758435,0.4775272
-0.42674336,0.14039513,0.40595067,0.022549348,-0.036685888,-0.3019074,1.1674843,-0.19797876,-0.07751196,1.420702,-0.125933,-0.1007292,0.28794163,0.5607991,-0.031636626,-0.4672133,-0.07935074,0.24043986,0.39663398,0.031636342,-0.060814306,0.042926706,-0.21621108,0.5394025,0.26241076,0.48614994,-0.18045998,0.17623577,0.2036287,0.047263812,-0.81339467
-0.20933434,-0.3528829,-0.15588622,-0.89405036,-0.07083214,0.09983916,0.58857226,-0.22305694,0.26790398,0.36367634,0.3498559,0.29956698,0.26603252,0.75590545,0.026720064,-0.20827198,0.23221648,-0.2593433,1.0927906,0.018572442,0.017838068,-0.051178873,0.17047429,-0.13533914,0.11951466,-0.14312705,-0.073673815,-0.2286181,0.3178001,-0.30385298,-0.14002837
-0.16664802,0.22295141,0.6606874,0.03721567,0.03372218,-0.3609877,0.4056986,-0.14425527,0.27288982,-0.015313488,0.09712825,0.40823424,0.1663933,0.40602937,0.23658459,0.13138987,0.6313919,-0.010221374,0.4158389,-0.020687953,-0.054153726,0.030576363,-0.12490494,0.09811927,0.013137726,-0.032162346,-0.10533967,-0.43469396,-0.08946016,-0.17791602,-1.1724616
0.49056533,0.20396239,-0.055280183,0.27066928,0.6309456,0.22112888,-0.09343007,-0.54243886,0.2450053,0.11728514,0.18021014,0.14472564,0.3576183,-0.2788673,0.007999946,-0.8180456,-0.5716173,0.16606541,-0.93083227,-0.048712857,-0.060353287,-0.022033028,-0.018961273,0.050557777,-0.26336145,0.06117882,0.71718895,-0.18658702,0.84078944,-0.104469456,0.1674909
-0.29620585,0.27995607,0.5716686,0.34582856,0.21165866,-0.39269218,0.44560358,-0.06998331,0.050565224,-0.40400687,-0.059613936,0.074543536,0.06889573,-0.15951374,-0.10709522,-0.48543966,-0.34526443,0.16048653,0.8334263,0.05635725,0.0046077073,-0.027625114,-0.112206206,0.08672931,-0.07108013,0.036589332,0.48506182,-0.27259552,-0.013625188,0.23651262,-0.35869333
0.26590788,0.3419538,0.23917021,0.051908117,0.5333687,-0.60776556,1.2802117,-0.13707316,0.17146093,0.016172195,-0.10586863,0.120307036,0.17484213,0.31419063,0.36670253,-0.03465515,0.29427102,-0.22171779,0.5090553,-0.03508599,0.05570712,0.027181521,0.16657792,0.18528964,-0.34595388,0.28454152,-0.43721575,0.18013902,0.5912078,-0.08676854,-0.99869394
0.03042116,-0.061944295,0.20442565,-0.08353399,-0.25781113,-0.107649885,-0.19544455,-0.10509346,-0.19744055,-0.33003128,-0.18475728,-0.14133556,0.093038306,-0.036057506,-0.24684772,0.08135391,0.40221748,0.10496183,-0.13112362,0.018427677,0.04777921,0.055855453,-0.15915635,-0.033529736,0.026405398,-0.10556562,0.09742545,-0.22423884,-0.31420842,-0.10740476,-1.3922476
-0.6195146,-0.14523737,0.62955135,-0.21392582,-0.5881745,0.3827768,0.34728867,-0.29796243,-0.039970376,0.09461415,-0.07716247,0.0071525783,0.2858332,0.24621107,0.31418157,-1.1089212,-0.68691885,0.30357966,-0.8417172,-0.034714445,0.040261433,0.009012669,-0.29725084,0.49524367,0.43778905,0.09726473,-0.4744133,-0.044650536,-0.26359105,-0.027319228,-1.0348326
-0.084994696,0.3261884,0.20059395,0.39071214,-0.00039324997,0.029920379,0.028690372,0.07715291,-0.008084978,-0.19469228,-0.019000053,0.002705628,-0.031662464,-0.0506659,-0.17347388,-0.020638684,0.21690597,0.26845533,-1.1748239,0.061499782,-0.038326114,0.028880298,-0.42238304,0.28831014,0.25169778,0.15871626,0.3727997,0.3026231,0.007326311,0.089908764,-1.158812
0.06777882,0.36003485,0.31579515,1.1025553,0.45910668,0.023834258,-0.24519376,0.07683873,-0.031879265,0.13412768,-0.27873802,-0.04519841,-0.1241513,-0.26732227,-0.059101585,-0.1045537,0.121103294,0.13296191,-0.33499223,0.016755685,0.0016139522,0.054241173,-0.21818386,0.049477965,0.03686481,-0.00010750455,-0.20244516,-0.4889794,0.27981174,0.18501285,-1.0434566
-0.05428939,0.1358469,0.43330517,-0.14136682,0.128158,0.09427882,0.7559851,0.2780315,0.029628446,0.22382627,0.080571376,0.048055764,-0.17731658,0.08313013,-0.1493253,0.016611239,0.4266271,0.09087287,0.9833984,0.019980557,0.034706466,-0.049005568,-0.24636947,0.5955497,0.3924727,0.43342113,-0.10843169,0.4630941,0.29362231,0.19016738,-0.70892745
-0.58593166,0.27827793,1.3389492,0.21361329,0.13177697,-0.1717436,0.17254403,-0.044735853,0.019375937,-0.94664,0.044084672,0.14712177,-0.1355595,0.43883082,0.12662287,-0.184447,0.24507001,0.37410557,-0.28811562,0.044385992,0.0040598735,0.002687715,-0.28605637,0.3136677,0.40408042,0.15376163,-0.207329,0.14177375,-0.1380471,0.11671243,-1.079927
0.9128135,-0.24247646,-1.0142334,0.12165668,-0.11251238,-0.3088519,-0.4946727,-0.005537237,-0.14380823,0.030450512,-0.3384938,0.00791784,-0.035795536,-0.014393634,-0.03632991,-0.035795584,0.31143153,-0.21511026,-0.82384306,0.059354752,-0.0581353,0.021861345,0.2549309,-0.16024019,-0.35251182,-0.091698624,0.004282249,-0.40693247,0.009569605,-0.4129352,-0.7967216
0.34665024,-0.18888526,0.061267987,-0.48911688,-0.66260713,0.38485828,-0.46319553,-0.21077392,0.055479396,-0.30495942,-0.18702522,0.030230487,0.28870836,0.5344199,0.18324308,0.78844684,0.8169433,-0.09275431,1.1016022,0.01743596,0.029174514,-0.023147352,0.113754116,0.18529654,0.27017075,0.1735648,-0.15722604,0.4226994,0.89070773,0.06837711,-0.3804731
0.065257125,0.32356733,0.7396853,0.8499805,0.48154858,-0.4909062,0.20849262,-0.3441265,-0.02633094,-0.03571325,-0.40692756,-0.18513645,0.2736985,-0.77618235,-0.057554897,-0.42772225,-0.17187876,0.2544686,-0.2434535,-0.01523976,0.05282806,0.0100106,-0.33345786,0.055789743,0.29884076,0.1300755,-0.2940652,-0.3165753,-0.1677694,0.22036988,-0.813488
-0.036881786,0.42047247,0.2503435,-0.14339606,0.6873359,-0.29019827,0.33741027,-0.2523503,-0.06627136,-0.8638631,0.26765737,-0.068089165,0.18014719,-0.27282855,0.23212025,-0.007614743,0.24406263,0.19489348,-0.97618777,0.05839409,-0.01565937,0.03825575,-0.11986698,0.358361,0.014216536,0.30907944,-0.1734849,0.19643827,-0.12779376,0.14971885,-1.2570046
0.77650434,-0.15203393,-0.40566948,0.29125255,-0.015371261,0.54939204,-0.3262061,-0.2555325,0.17349197,-0.15140274,0.022878662,0.2460848,0.18503012,-0.025543762,0.35147068,0.55176896,0.9301365,-0.078660704,0.4764371,0.014381714,0.013420634,0.051805846,0.04950841,-0.07229889,-0.42207223,-0.20597966,0.3532357,-0.21386144,0.66919976,-0.39499578,-1.1423936
-0.12632269,-0.065193884,0.72119296,-0.17609295,0.06991643,-0.30776474,0.80529994,0.060145188,-0.05990685,-0.13645229,-0.14047693,-0.054675587,0.084921695,0.5325267,0.23738489,0.5914132,0.63586557,-0.02054666,0.6050381,0.0036294982,-0.00822182,0.010927819,-0.020963555,0.2550973,0.17074434,0.010525376,-0.6493845,0.3822033,0.52294683,-0.017401585,0.124404065
-0.7160458,0.021221949,0.90133613,-0.45424291,0.29385817,0.844439,0.94900846,-0.13214815,0.50523514,-0.38263035,0.42432746,0.60059226,0.14775476,0.3486005,0.17918672,-0.26559913,-0.061606586,-0.011535117,0.6794813,0.015127197,-0.0072934926,-0.029403925,-0.1229004,0.1710584,0.14619774,-0.07047838,0.02941298,-0.18901041,0.017411757,0.19972865,-0.83231264
0.21379974,-0.20287403,0.13702199,-0.37685642,-0.35118428,0.20397094,-0.19177166,0.07468709,0.25273523,-0.46121028,0.047835868,0.20421644,-0.079591505,-0.011455805,-0.17452338,0.42811352,0.7904338,-0.012755419,0.6395667,-0.0051620603,0.002360262,0.0026759654,-0.040786453,0.040303998,0.12241803,0.057097517,0.058853664,-0.30059204,0.10591763,-0.0068670847,-1.338717
-0.0041965456,-0.0007245976,0.23559335,0.4489719,0.21733448,-0.16954455,0.46589386,-0.005286289,0.006706059,-0.1418065,-0.0995893,0.062282287,0.14073087,-0.08113527,0.13419504,-0.18002908,-0.03379261,0.044921383,0.5324975,0.036349602,0.03621825,0.01268433,-0.15790723,-0.0403115,0.07094791,-0.19149406,-0.22149023,-0.12673661,-0.045572765,-0.09867175,-1.2291285
0.20215994,0.38991114,0.074635066,0.4546971,0.6171857,-0.7928196,0.43807086,-0.49691862,0.47569433,1.8830408,0.30770254,0.27674246,0.582933,-0.28969356,0.5477848,-0.53284585,-0.47815135,-0.25612608,1.853741,-0.0038744658,0.042999,-0.011886753,0.23020442,-0.5578918,-0.7262205,-0.27023357,0.69429547,-0.42408505,-0.029363802,0.08972717,-0.4267238
-0.005241021,0.07537652,0.45183766,0.35427293,0.06664509,-0.34788087,0.18598196,0.03698735,0.02247031,-0.45836905,0.1448819,0.012525141,-0.09372984,-0.09057807,0.060223494,-0.08018923,0.37392753,0.16381723,-0.40264073,-0.0042041615,-0.029966325,-0.013861671,-0.16747612,0.24630174,0.08975565,0.08282686,-0.4397807,0.5499095,0.39135563,-0.114471145,-1.4300541
0.09803447,0.013302456,-0.02137707,0.17671539,-0.26909605,-0.6614595,-0.013563507,-0.2144447,-0.0027302704,0.3784962,0.03801907,-0.015620774,0.28114069,-0.30567378,-0.11436342,-0.45810542,-0.1423037,0.32693285,-0.69755214,-0.028946437,0.0590529,0.034354277,-0.21305533,0.10481862,0.14328246,-0.1460572,0.049028985,0.105421886,0.075808145,0.081863515,-0.90356255
-0.19813785,0.25479752,-0.24362916,0.04341255,0.044966895,-0.41142982,-0.1658213,-0.24476606,0.2923891,0.7039975,0.18947478,0.26554105,0.32184592,-0.41013038,0.29203707,-0.6231921,-0.20094778,0.1476641,-0.033478808,-0.03616915,0.0043877065,-0.055119693,-0.13217211,-0.029382717,-0.25855213,-0.17585443,0.3137199,0.35821477,0.37857702,-0.24194333,-1.3972329
-0.12353461,-0.23319131,-0.06407886,-0.30824992,-0.7643368,0.046934437,0.02351312,-0.40057185,-0.07349798,1.1699436,-0.12564474,-0.14540341,0.4825443,-0.15820353,-0.015245662,-0.3203703,-0.022107892,0.2238306,0.75833803,0.008405894,-0.027192257,-0.011043705,-0.26615575,0.31583044,0.5908205,0.23728907,-0.24890476,0.24389783,-0.015242951,0.3090753,-0.818031
0.044661604,-0.28328162,0.018455485,-0.0633562,0.61386365,0.17024451,0.2524136,0.21615598,0.5522394,-0.17362335,0.37292472,0.5862893,-0.20607504,0.2498821,0.297643,0.6588286,0.5955214,-0.23526502,0.9036569,0.010690004,0.026502475,-0.019877188,0.21526583,-0.24004735,-0.0070535974,-0.11109469,0.04666823,-0.049349546,0.2686371,-0.07959433,0.56228656
-0.056147743,-0.06699689,0.6409709,-0.28733107,-0.37718725,-0.9048892,0.7067478,0.0562791,0.15338145,0.59822917,0.2242068,0.21465728,-0.03556917,-0.15127108,-0.08341038,0.53682274,0.59549564,-0.113843456,1.9489998,-0.0330562,-0.044068538,-0.058653235,0.049091566,0.16982512,0.3871586,0.099670015,-0.1660544,0.006801252,0.12859489,0.35092613,-0.06543972
0.24957553,-0.22777756,-0.19623868,-0.015801918,-0.43414798,-1.196358,0.5395348,-0.10608528,0.19566688,0.09375238,0.13721688,0.30163667,0.13660647,0.035466034,0.15325005,-0.5622728,-0.3138464,-0.09518817,1.6651647,0.02170948,0.060450196,0.026544213,0.035573065,0.20775597,0.571053,-0.05410662,-1.1163801,-0.0043539125,-0.12396454,0.032716267,-0.94505996
0.54304826,0.2657639,-0.8749761,0.3701621,0.896531,-0.089842714,-0.730547,-0.6397597,0.19726269,-2.3750494,0.14384331,0.27683473,0.4624394,-0.19992639,0.6147443,-0.23346488,-0.21778063,0.14370123,-0.63553804,-0.025511391,0.028674923,0.04723821,-0.0827673,0.10506495,-0.036456607,0.3215451,0.080992855,0.12745084,0.54332787,0.15656847,-0.09227742
-0.34459797,-0.28899696,0.5085864,-0.48783526,-0.9013866,0.41951823,-0.0235675,-0.14215073,0.071383834,-0.03577395,-0.36000603,-0.054027036,0.17848618,0.022457752,0.08728329,0.88808316,1.0164413,-0.030477462,1.6021799,-0.048585698,-0.0075889006,0.045638278,-0.047523927,0.12055573,0.28072992,0.104618475,0.12424284,-0.12348041,0.10994222,-0.09207438,-0.6805681
-0.16132967,0.25835392,0.26499888,0.4885539,-0.2203507,-0.4594545,-0.09550468,0.019424843,0.4235538,-0.16457306,0.1863297,0.26110184,0.04846596,-0.5475826,0.2629847,-0.8123681,-0.37725222,0.1562502,-1.1451824,-0.05559545,-0.013136126,-0.014021687,-0.28018317,0.012392995,-0.11700561,-0.073303394,-0.019231582,-0.015811011,0.089055456,-0.013404035,-1.5544165
0.542275,0.34252346,0.69986194,0.7944396,0.4349184,0.7375886,-0.8039868,0.034947548,-0.14981306,-0.66175514,0.1624043,-0.05419219,0.024006797,0.2284533,-0.049404733,0.35655114,0.64409405,-0.03103755,0.3915552,-0.0049928054,-0.052510463,0.04378835,-0.0349321,0.14119105,0.10206393,0.20686536,-0.2625758,0.19927,-0.12404292,0.0077636964,0.29325488
0.17369945,0.18789968,0.13449827,0.215085,0.04258671,0.10001225,-0.448254,-0.22331777,-0.35926348,-0.36966327,-0.03470968,-0.35654745,0.2666572,0.0096639395,-0.19876301,0.47932053,0.45855623,0.05254287,-1.0699092,0.04872609,0.012796313,-0.026849046,-0.20574015,-0.09192918,-0.1693328,-0.4027315,0.23294932,0.16139562,-0.111642785,-0.007788641,-0.8945469
0.38009888,-0.06271894,-0.10021083,-0.21343243,-0.04256357,0.27910247,-0.36068434,0.034607597,-0.063508436,-0.5669445,0.0011206131,-0.12699445,-0.026946822,-0.05824406,-0.12828955,0.46756443,0.89636475,0.2122925,0.17013657,-0.014650449,-0.019483559,0.028188929,-0.20005614,0.08329871,-0.03988693,0.038451824,1.0100521,-0.1829343,1.061746,0.2263275,-1.5024501
-0.9607465,0.5259914,1.5193282,0.15198502,0.8589677,-0.4554737,0.5048611,-0.09315511,-0.30833274,-0.22157855,-0.3070064,-0.3521306,0.18616524,-0.23119245,-0.19615753,0.08779584,0.50768715,0.019188207,-1.6022595,0.0490966,0.044633918,0.005259007,-0.10833177,0.18324119,-0.24721637,-0.0061836117,-0.17633699,0.5168982,-0.2979583,0.020575777,-1.2314426
0.1097711,-0.20902544,0.09448526,-0.36978868,-0.16977826,-0.17817155,0.13061686,0.08576678,0.14103723,-0.10474107,0.047682308,0.08045012,-0.13951036,-0.048464596,-0.4409676,0.20670803,0.39022344,0.013892071,-0.32596275,0.04185403,0.061432667,-0.035796933,0.09045577,-0.03805954,-0.047054846,0.11426151,-0.015914163,-0.119508795,0.019794103,0.0885263,-1.1533362
-0.043642104,0.30352288,0.35391837,0.13788404,0.12854901,-0.37615252,0.35214064,-0.1239111,0.3562105,-0.32154298,0.3446944,0.43775246,0.11790199,0.1322876,0.3530509,-0.30539632,-0.14239563,0.041691717,1.060195,-0.029435083,0.051547132,-0.007730946,0.026307981,0.20493563,0.17042539,0.09948306,-0.13022931,0.21385616,0.7652609,0.13085023,0.36617377
0.39510837,-0.17532244,-0.33603987,0.11240896,0.601852,0.04896049,0.5054626,-0.13957794,0.27027366,0.036803156,0.2550594,0.35148275,0.091066994,0.7589015,0.29542923,0.10605087,0.25025132,-0.024179041,1.7179751,0.030739635,0.02585876,0.0038381368,0.09619234,0.10807653,0.3515647,-0.11413578,-0.4910081,0.06810034,0.37675753,-0.2319175,0.039048966
-0.28635183,-0.031559132,0.31224304,-0.22602117,-0.17364849,0.22551268,0.63198256,0.03429869,0.08827227,-0.65112156,0.09035296,0.14981344,0.07455881,-0.0009625339,0.1758822,-0.3400387,0.23217392,0.051783074,0.088284604,0.038936086,-0.032697693,0.025289677,-0.1193608,0.29398495,0.25818455,0.29505673,-0.2898508,-0.02987365,0.1060602,0.08356017,-1.3030118
0.034881946,-0.24932699,0.20436732,-0.25437635,-0.21648365,-1.3975931,0.6655593,-0.12521209,0.23265795,-0.15273938,0.020802438,0.24334285,0.11956045,0.42543423,-0.35334817,0.12985845,0.44292215,-0.05920077,1.0011767,0.055379316,0.025656268,0.0313581,0.06089832,-0.005896269,0.24174334,0.11782407,-0.44632137,0.02806852,0.15784776,-0.17752223,-0.3342924
-0.5145667,0.4069185,0.8903355,-0.125169,-0.31014556,-0.0166678,0.6505195,-0.27926472,0.08776254,0.3956261,-0.16457239,0.044521604,0.31802985,-0.044523202,0.314494,-0.59325063,-0.50320697,0.08703685,-0.9514609,-0.037714273,-0.038363546,0.010264777,-0.04370339,0.13704085,-0.10602969,-0.09051044,-0.07416349,-0.25796053,-0.5003965,-0.078123726,-1.0871679
-0.22163834,0.5099999,-0.40195453,0.6976509,0.09848022,0.31467053,0.07542921,-0.10373062,-0.31044695,-0.10312163,0.19713324,-0.23625615,0.07998691,0.36623135,-0.0723465,-0.48028538,-0.36811578,0.1763469,-0.6996514,-0.032239087,-0.05186104,0.047573738,-0.010829988,0.19390877,-0.07592946,0.4819932,0.15728231,0.51124614,0.5065242,-0.0049983766,0.4291495
-0.8506684,-0.16487408,0.63513947,-0.29108435,0.025725745,0.47182152,0.29085097,-0.29214305,0.026024546,-0.06967155,-0.23916386,0.16062367,0.24612862,0.56919783,0.040093552,2.3595169,2.490376,-0.053539768,1.5415385,0.052657187,0.05201172,-0.043132484,0.005189299,-0.03191849,0.12022051,-0.43555138,-0.26763478,0.030002112,-0.079809055,-0.03936586,-0.115183204
-0.22793065,-0.09138419,0.087819554,-0.1548862,0.065366305,0.55644697,0.44121656,-0.10538646,0.4952123,0.47362173,0.3922661,0.5257067,0.050732046,0.21645987,0.3350269,0.20728497,0.19137967,-0.2838245,0.3349165,-0.03533931,-0.054824807,-0.016564757,0.34012714,-0.30615005,-0.40029612,-0.09701326,0.22466257,-0.41182223,0.061887544,-0.18897483,0.6694709
0.04431845,0.10203755,0.22762519,0.23954214,0.7501183,-0.5242481,0.21034944,0.086783305,-0.15253936,0.67136884,-0.2695926,-0.2470514,-0.13482995,-0.5916633,-0.48821527,-0.28878048,-0.36236423,-0.019812996,1.5048302,-0.019067675,-0.050719716,-0.0546839,-0.005069994,-0.011142763,0.026001576,0.37538773,0.07230565,-0.16055322,-0.13962261,0.25934538,-0.9125682
0.07354774,0.023109112,-0.014290174,0.098885074,-0.07320935,-0.21413033,0.062120337,-0.052734606,-0.0053292974,-0.3834996,0.06820297,-0.06623374,0.10498843,-0.0994804,-0.13904391,0.08771898,0.52755374,0.3153672,-0.2987613,-0.061464913,-0.0042067617,0.018817626,-0.27842766,0.19259836,0.23364201,0.0052743084,-0.08243062,0.06823127,-0.039144397,0.090809055,-1.4377341
0.30719662,-0.19094877,0.47117248,0.0017394982,0.43426234,-0.31224078,0.1010256,0.56662786,-0.04598465,-0.4257533,-0.086993635,-0.045361515,-0.5714183,0.83886665,-0.49458176,0.97691345,1.0126747,0.13228278,-0.09478295,0.028457105,0.0401529,-0.053355634,-0.101056285,0.06921877,0.12880489,0.31001565,0.433041,-0.046000466,0.25052807,0.33610967,-0.8146122
0.4738754,-0.056399234,-0.32014674,-0.017950337,-0.11056336,0.3112835,0.1728362,-0.44288075,0.008523784,-0.5140386,-0.19302166,0.059780978,0.36817214,0.26733795,0.20567821,0.28716925,0.7629947,0.17761946,-0.63125324,0.014177233,-0.058953524,-0.05011487,-0.24426861,0.083563626,0.49467674,0.16498442,0.08603831,-0.24783087,0.042270385,0.10445667,-1.2912539
-0.23998405,-0.22858478,0.924486,-0.35214415,-0.14988168,-0.37216252,0.5657073,-0.20252906,0.06466037,0.109432556,-0.60328484,0.012477094,0.3049522,-0.27466804,0.23275624,-0.3313358,-0.21109188,-0.2740658,0.992907,-0.054191567,0.015265465,-0.034803756,0.30285415,0.06982345,0.34193054,-0.43752518,-1.0887574,-0.16290823,-0.9934957,0.004694258,0.21450849
0.11675404,-0.26622033,0.8573223,0.016755203,-1.0333627,0.46725273,-0.03380953,0.085546985,0.024548726,0.18974504,-0.061990537,0.05584502,-0.19848973,-0.19004543,0.048472524,0.37795237,0.5227599,-0.08056937,0.2797575,-0.03659916,0.04562877,-0.034917027,-0.0043452145,-0.026866814,-0.05927942,0.10472239,0.01527434,-0.06385887,0.23894392,-0.04427275,-0.8567311
0.5271772,-0.33870006,-0.3041637,-0.20043002,-0.7511359,-0.69029516,-0.26356614,-0.5148579,-0.15795167,-0.08560898,-0.3266203,-0.1813751,0.57448494,-0.26648402,0.43046927,0.4043068,0.51393753,-0.29063073,2.5237021,0.06109921,0.056416966,0.0029360875,0.31818905,-0.19762777,-0.23037894,-0.34960943,-0.28186515,0.08871453,0.06278911,-0.08808232,-1.118846
0.10200662,0.014836044,-0.016637716,0.284682,0.07227317,-0.45617858,-0.11470483,-0.06853384,-0.07775936,-0.14032814,-0.1803818,-0.1466465,-0.012569591,-0.1775244,-0.013411874,0.0755328,0.3746672,0.16672228,-0.5883798,0.014863238,0.03284827,0.020281553,-0.27519235,0.08081173,0.18780436,-0.056133322,0.012282239,-0.031647332,-0.026633615,-0.03660777,-1.3382236
-0.22065124,-0.14703025,0.44929132,-0.19129936,-0.3210333,-0.062371835,0.063765,-0.1474156,0.07010338,0.1664177,-0.040550467,-0.057205666,0.1287972,-0.06120334,-0.19634824,-0.03149936,0.08907191,-0.05207041,0.41919023,-0.01860664,0.01336699,0.058956914,0.019197954,-0.14155556,-0.17528415,-0.17137754,-0.18784863,-0.42213264,-0.34812465,0.010620226,-1.5878865
0.11922733,-0.1258445,0.61217445,0.17440633,-0.21285953,-1.1607457,-0.5388718,-0.059130635,0.0529369,-0.314912,-0.22654898,0.05943215,0.022675818,-0.21837479,0.32572857,0.32336125,0.6294952,0.0042861146,1.0593956,0.055982314,-0.01386562,0.001062952,-0.012878922,0.21621743,0.4331018,0.32476854,-0.2216724,0.040978514,0.092785366,0.06339545,-0.43712142
-0.5413531,0.09381009,0.846688,0.08205604,0.08087252,0.04965369,0.47067398,-0.15954,-0.2985923,0.25491324,-0.39628968,-0.23031823,0.16288541,0.12119553,0.10417366,-0.42786953,-0.0744227,0.28806612,-0.5266561,-0.03689766,-0.03436792,0.0034023002,-0.32649678,0.321941,0.3557549,0.21365309,-0.018141631,0.4870455,-0.09833177,0.046779763,-1.2274057
0.28517723,0.036169235,0.0012990986,-0.093670614,0.14495692,0.040912386,0.17222798,0.20542504,0.10511101,-0.34314162,-0.053444795,0.038268186,-0.24315475,0.23197232,-0.19983028,0.15859038,0.46377346,0.38174477,0.23805705,0.054028556,-0.0057887584,-0.058087282,-0.3760577,0.22882752,0.15585017,0.08415198,0.43970677,-0.077856526,0.18662065,0.13011158,-1.3341068
-0.11972611,0.43711576,0.077772446,0.5559003,0.085758805,-0.37338173,0.64494723,-0.10635974,-0.003449569,0.3152357,0.09566174,-0.077024125,0.13424215,0.049043693,-0.27802256,-0.12548104,0.18068072,0.32263574,-0.18421428,0.038846366,0.015510008,-0.053767867,-0.29867226,0.26787582,0.28447643,0.100123234,0.122321494,0.003253412,0.30334914,0.19851007,-0.6462991
-0.13155186,0.16992311,0.07186052,0.18268082,0.19429485,-0.33962137,0.4390442,0.0951698,-0.038691085,-0.65607387,-0.027379585,0.096707866,-0.026191892,0.01889281,-0.04427465,-0.46182662,-0.11109836,0.3755692,-0.3757018,0.05968617,0.042651072,0.003771089,-0.33211902,0.23374991,0.0279828,-0.014568892,-0.14291772,0.09019355,-0.008052459,-0.044195846,-1.2312224
-0.07089914,0.018286388,0.4848529,0.32141882,-0.74999446,-0.5782484,-0.4523497,-0.6145706,-0.17568694,-0.15121083,-0.460347,-0.17600939,0.6377757,0.5115777,0.20059751,0.47032592,0.7694361,0.13806675,0.42871836,-0.023761064,0.05029711,-0.025957584,-0.14660162,-0.11660931,0.30204284,-0.21295252,0.18402457,0.09732857,-0.13064115,0.2197403,-1.1487626
-0.28541973,-0.26273364,0.5179411,-0.029642897,-0.22235052,0.2470334,1.0366243,0.20349997,0.06383574,0.69460714,0.34986714,0.10952568,-0.15578867,1.1192126,-0.0917306,-0.98771554,-0.96880955,-0.023315068,-0.28026378,-8.948892e-05,0.0007791817,0.060888648,0.007301516,-0.10706789,-0.014165063,-0.2633378,-0.41504022,-0.033372357,-0.91349715,-0.37401664,0.27546957
0.03531037,0.07375666,0.22298957,0.22914365,0.07839496,-0.5790687,0.03709759,-0.024679488,0.012788726,-0.03959883,-0.08809081,-0.056298494,0.15537749,-0.017413406,-0.14205152,-0.11786725,0.1679549,0.20441245,-0.30109242,-0.00075837225,0.027282938,0.033951968,-0.3205773,0.13958208,0.17734595,-0.014302392,-0.06111611,0.06411758,0.035926703,-0.004763974,-1.2377763
-0.21160571,-0.2932835,0.6853423,0.15440454,-0.30597845,-0.46123943,0.74959415,-0.08720194,0.042391665,-0.3420209,-0.030342992,0.07951853,0.093817346,0.33293995,0.38184434,0.15176424,0.22386687,-0.02197232,0.49942046,0.054133482,-0.016797595,-0.019244656,-0.0810701,-0.02660937,0.15610759,-0.37084505,-0.58735627,-0.15915795,-0.31061414,-0.27643085,-0.8501858
0.32394406,-0.07790979,0.16818456,0.00846193,0.6939527,-0.60540617,0.32629627,0.21983121,-0.050167996,-0.58733463,0.074853286,0.050310876,-0.15114301,-0.3803554,-0.34600487,-0.005625792,-0.020773621,-0.17293562,0.8629034,0.0007791072,0.020673744,0.034774736,0.14578797,-0.08960296,0.13272248,-0.015865825,-0.21531917,-0.05628711,-0.06133061,-0.00898034,0.8290423
0.33756697,0.21282838,0.2506383,0.42012656,0.055986352,-0.51922274,0.22183684,-0.128105,0.1596024,0.40932962,0.25478306,0.075237945,0.0658232,0.62125206,-0.18933307,-0.2231472,-0.17476939,-0.00674863,0.30249467,-0.021041721,0.016650677,0.046812095,0.1379869,-0.017313218,-0.24933459,-0.032415695,0.2936301,0.1494224,-0.07014023,-0.24855919,0.11508039
-0.9439086,-0.10783541,1.0986266,-0.2158254,-0.74660397,-0.6526817,0.43717173,-0.42428103,-0.15859075,-0.032146387,-0.25856727,-0.14217368,0.5399214,0.013455213,0.073136635,0.14424199,0.18878621,0.046281733,-0.5605386,0.030971453,0.018780239,-0.055896066,-0.06723036,0.061182085,0.093307234,-0.26156172,-0.33934453,0.31931922,-0.40724286,-0.0068722954,-0.88494223
0.53106207,-0.36528292,-0.89629704,0.14550433,0.645141,-0.11165967,-0.02190402,1.2570666,-0.042681355,-0.15760218,0.6829801,-0.059211425,-1.223727,0.28782982,-0.44306645,0.05646305,0.53864974,-0.12885657,0.43075275,-0.041020706,0.056221664,0.052688412,0.10754076,-0.039878104,0.20481025,0.0013246721,-0.73134154,0.08964645,-0.20312627,-0.1932021,-0.7295097
0.13961202,0.71148974,0.09043578,0.17491712,0.79292136,-0.24417113,-0.13316308,-0.482546,0.18656187,0.37716937,-0.11736172,0.14758828,0.3272047,0.026190564,0.038335394,-0.5188683,-0.60101116,0.084227234,0.5345677,0.025594182,0.02644103,-0.047444947,-0.008332957,0.052197076,-0.31599042,0.17162323,0.38068157,-0.13416879,-0.007463391,0.18423511,1.1883698
-0.7565956,0.2086778,0.41365463,0.10330751,-0.13463935,0.39881527,0.4595992,-0.12406437,-0.0059689423,-0.1498946,-0.08838267,-0.011589462,0.18084309,-0.112167135,0.13881186,-0.36979538,0.07752981,0.3327965,-1.0111006,-0.018322088,-0.038660623,0.0072094947,-0.3331832,0.17238225,0.047854476,-0.19747388,-0.065232806,-0.0026485946,-0.08033277,-0.041395985,-1.5880302
0.23534161,0.8698874,0.48446485,1.3260809,0.18699262,-0.5610625,-0.689387,0.057202794,-0.558493,0.26092035,0.18325745,-0.36752108,-0.16607317,0.21111625,-0.318765,-1.5527854,-1.1633912,0.19846003,-0.45033693,-0.023242883,0.039393894,-0.0021017045,-0.01555459,0.16532847,0.098100394,0.48707044,0.80615115,-0.4254893,-0.043016974,0.030406328,0.06390471
-0.023350896,-0.025190514,0.06410857,-0.006964246,0.14014907,-0.2132358,0.53692126,-0.09219693,0.5103375,-0.037161198,0.07592388,0.5286446,0.04693407,0.25055173,0.28547472,-0.7153184,-0.49846137,0.00026109067,1.9325646,0.051573023,0.056048423,-0.05461444,0.08121718,0.03655943,0.0807731,-0.06649079,-0.3742262,-0.0013532131,-0.21472214,0.011899464,-0.8624184
0.24836919,0.45145568,-0.1191809,0.39964962,0.7959164,0.06260529,0.059343483,0.1273568,-0.004637951,0.2162035,0.4622844,0.017609894,-0.2273581,0.29355848,-0.24107547,-0.46191484,-0.45716467,0.066847116,0.20928358,0.016352795,0.023522332,0.0030257478,0.16295855,0.11883886,0.04233196,0.18537936,-0.044928968,0.24076189,0.1510782,0.09202926,0.5675459
0.09650487,0.21819551,0.13953681,0.25041485,0.20186982,0.51995546,0.48407435,-0.1452904,0.08739813,-0.35482794,-0.18529361,-0.014907935,0.28354934,-0.2508448,0.08412632,-0.9604678,-0.43641227,0.31053796,-1.4603475,-0.009272173,0.054724805,0.033352472,-0.37894687,0.19892211,0.24472708,0.1388392,-0.09714124,-0.30694208,0.16259842,0.27689263,-0.81589293
-0.19632187,-0.15798594,0.0035445744,-0.047678385,-0.28375387,0.20741959,0.5627715,-0.06278594,-0.043732025,-0.3637489,-0.045780092,0.0048527652,0.055019487,-0.33980173,-0.07698306,0.13930464,0.3031772,-0.12680008,0.122153066,0.05251117,-0.030911863,0.014992878,-0.04577179,-0.031400487,-0.10556306,-0.4450101,-0.49605903,-0.02997852,-0.28451988,-0.43178132,-1.1598464
0.13415815,0.006074369,0.36493355,0.9968337,0.568015,-0.19885142,0.65891653,-0.26235357,-0.21354848,0.40732023,-0.5599517,-0.18958679,0.15618765,-0.32331815,0.22604789,-0.51488477,-0.23762584,0.051759195,0.053488348,0.023309335,0.0040686578,0.024247408,-0.18173496,-0.038171202,-0.106823884,-0.16901669,-0.0894665,-0.6036767,1.0071155,0.14771515,-0.76289463
0.7813228,-0.40964764,-0.19049104,-0.15297517,-0.97285146,-0.14910847,-0.98525405,-0.5015131,-0.21639346,0.20697041,-0.53998816,-0.27763972,0.41578522,-0.26494458,0.1511784,-0.025891507,-0.020407815,-0.48746967,1.4854518,0.034575954,0.008040234,0.014791943,0.43067634,-0.35768607,-0.37675464,-0.5006203,-0.10672088,0.07692125,0.10989298,-0.42253652,-0.65658695
0.71848726,0.6049686,0.12079784,1.017788,0.73125523,-1.0308754,-0.08666442,0.27669042,0.10351494,0.89684385,0.13041319,0.065096125,-0.31355894,0.6395408,0.022673873,-1.3695712,-1.3700511,-0.005675821,-1.3118182,-0.058625303,-0.059039734,-0.013137534,0.04306553,-0.2178571,-0.15073152,-0.032850325,0.03283589,-0.88057566,-0.026362754,-0.032058276,-0.5209571
-0.11383744,0.12369584,0.32627654,0.0990519,-0.07534929,-0.41344848,-0.015868125,-0.27134433,-0.21715997,-0.18601505,0.0086758565,-0.18346769,0.19166777,0.11467046,-0.22843453,-0.32627213,0.043288447,0.20999591,-0.7106905,0.061106883,0.05623121,0.049599916,-0.24612321,0.19835088,0.114978194,-0.05442686,-0.030664908,0.35983226,-0.009545648,-0.038382296,-0.88174015
-0.20514634,-0.032379948,-0.26711756,-0.35767025,0.32319093,0.9436304,0.7230087,-0.026029956,0.17808242,0.45498383,0.36564374,0.096231826,0.013267086,0.16945815,-0.0773414,-0.11298466,0.09192918,-0.05447911,1.7477884,-0.053980865,0.055092193,-0.004574038,-0.03263859,0.29246664,0.209597,0.40233415,-0.3447415,0.14497335,-0.08893442,0.16334443,-0.7946501
-0.15652381,0.0107620675,0.32681316,0.0036865477,-0.13135958,-0.18937162,-0.016806496,-0.054935522,-0.060144715,-0.2594473,-0.022165012,-0.09000505,0.15308563,-0.016081043,-0.0643755,0.084269226,0.22613034,0.17686087,-0.404558,-0.051069334,0.035697296,-0.045394085,-0.22809142,0.008983782,0.0791947,-0.16245185,-0.13579525,0.0124604255,-0.1922922,-0.059975483,-1.476059
-0.4387051,-0.058223154,0.45275098,0.54133,0.09897373,-0.69377655,0.2768793,0.24253169,0.095635675,-0.60464853,0.6823403,0.02142289,-0.1706526,0.33927244,-0.05538551,0.628605,0.9013586,0.060021423,-0.59164464,0.009899169,-0.042454116,-0.0350058,-0.016998433,0.20597018,0.14742653,0.3672339,-0.010281553,0.5112521,0.7249562,0.022286158,-0.5778694
0.14360623,0.35628688,0.087756686,0.6558251,0.5216969,-0.57896703,-0.058923546,0.038086288,0.07742328,0.35271475,-0.23761609,-0.019019162,-0.059199482,-0.0826011,-0.08705214,-0.49438024,-0.13635004,0.25237855,-0.8329905,-0.0064489096,-0.013703652,0.04604008,-0.2836891,0.16047208,0.27309933,-0.03857152,-0.25077394,-0.1210215,-0.21225293,0.053074487,-1.2446988
-1.3086791,-0.06838951,2.0095043,-0.42367703,-1.2943558,-0.45886794,-0.011363506,-0.7515434,-0.4114002,0.91731423,-0.48265263,-0.33984753,0.76318544,0.76253045,-0.067401394,-0.28429592,-0.4142704,0.07788051,-1.6168494,0.05129859,-0.041451067,-0.0021122545,-0.22187717,0.17803039,0.28265044,-0.034981288,0.1389738,0.16398813,-0.27971467,0.29901835,0.32798657
0.23913687,-0.04766113,-0.2323159,0.13170712,0.8011866,0.100832246,0.385194,0.32040542,0.23738715,-0.34168208,0.4763732,0.26363006,-0.36570233,0.6538132,0.18926829,-0.53611875,-0.4193195,-0.12798525,0.9396511,-0.045156457,0.057561196,0.008746125,0.18389073,-0.14374346,-0.025991127,0.10288462,-0.19026347,-0.03093192,-0.10113596,-0.049627677,-2.7474833
0.028577434,-0.13727444,-0.21525013,0.076924525,0.05601324,0.068391286,0.4019045,0.19404022,0.2700724,-0.2369505,0.44363987,0.22848752,-0.17400071,0.42216524,0.054511365,-0.2933113,0.27311373,0.003593229,0.36071607,0.060178727,0.020936213,-0.038016386,-0.05672041,-0.17875645,-0.07181511,-0.15515497,-0.085257895,-0.3552099,-0.15496501,-0.11779342,-1.2807295
0.1940053,-0.027414074,0.5296829,-0.17653538,-0.31685868,0.31930393,-0.47064146,-0.50246936,-0.044894043,1.1978364,-0.75072515,-0.05114182,0.54771036,0.4593606,0.29946285,-0.21467099,-0.18289085,-0.159051,0.83315396,-0.018922701,0.050977483,0.028682113,0.02512469,0.14482869,-0.109301366,0.23431018,0.11437112,-0.20947133,1.1973245,0.040373348,-0.66666365
0.32351232,-0.09668987,-0.16003107,-0.30663404,-0.2027895,0.65692055,0.16919005,0.13308759,-0.19066972,0.2338885,0.19332474,-0.16133061,-0.09021705,0.87397796,0.19025837,-0.60527635,-0.20737223,-0.0854794,-0.46436524,-0.057256207,-0.01363796,0.05792518,0.1278009,0.28192642,0.24707563,0.27284443,-0.9366235,0.57871187,0.6953566,-0.54161024,-0.6145632
-0.08629342,0.7507873,0.38222364,0.43551245,1.2515712,-0.09976226,0.1469585,0.15641081,-0.21082024,0.26527622,0.18067339,-0.18724734,-0.11628668,0.66728306,-0.23774785,-0.76788616,-0.5362635,0.33453026,0.09118931,-0.009209454,-0.047563553,-0.005371943,-0.13423915,0.3827693,0.18743181,0.73976254,0.5290252,0.037890583,0.39139,0.48525634,0.29573768
-0.19629776,0.21213612,0.24825668,0.18627106,0.07265183,-0.12220143,0.3196559,-0.23334679,-0.13743724,-0.2301999,0.09481149,-0.13014118,0.29257423,0.041706584,0.0017755576,-0.011034684,0.03454742,-0.17363626,0.567733,-0.007894196,-0.0050043017,-0.034762003,0.19626454,0.1099915,0.09198308,0.16696714,-0.08753699,0.32993767,0.21374248,0.072794825,0.91425383
0.5293612,0.15934093,-0.3850496,0.15773912,0.1896055,0.21830632,0.17879973,-0.068872094,0.23060292,-0.09914704,-0.025265777,0.1556204,0.110379875,0.16065525,0.05222987,-0.39505696,-0.19349626,0.091125704,0.9946632,0.04566347,0.026294142,-0.041511595,-0.18846765,0.29146853,0.31205723,-0.020989452,-0.36375004,-0.0072716465,-0.28532755,-0.031853676,-0.8584081
-0.18037306,0.30857432,0.48362577,-0.19365688,0.7445949,-0.08393775,1.3979832,-0.056462478,-0.18216233,-1.2487736,-0.22710559,-0.13463515,-0.005797577,-0.05493346,0.029999206,-0.23666021,0.18470195,0.079394355,-0.17889103,-0.0052246004,0.032509178,-0.0023269802,-0.20784485,0.5272386,0.05893295,0.3510885,-0.27012634,0.31689617,0.2305275,0.10674443,-1.1487116
-0.10479122,-0.25195235,0.75253946,0.24672286,0.10234545,-0.28121445,-0.1269082,-0.18366744,0.41073284,-0.26448512,0.081334256,0.40525162,0.17743866,-0.86472255,-0.049958114,0.46559417,0.44363162,0.07515659,0.57434964,0.042519256,0.046638682,0.03989152,-0.064262286,-0.027629957,0.28411156,-0.14933406,-0.4480994,-0.17608216,-0.23965777,-0.04520711,-0.66620415
0.4475645,-0.13780683,0.1190183,0.20839852,0.10953682,0.07344656,0.63224727,-0.13117214,0.05333736,-0.14289007,-0.35063615,-0.07976637,0.16349602,-0.24530864,-0.1814157,-0.79815966,-0.43155205,0.21543895,-0.20118323,-0.03207788,0.049823657,-0.018495582,-0.13974103,0.19433892,0.15177663,0.009044218,-0.2271158,-0.36502668,-0.13600603,-0.14792898,-1.1613019
0.005235029,0.16896845,0.36447817,0.03592964,0.17622565,-0.42360193,0.30952764,-0.07861678,-0.034791965,-0.35113886,-0.08607695,0.04830872,0.043097217,-0.07151739,-0.09208377,-0.31934726,-0.033400267,0.37791392,-0.4595725,-0.043509834,0.048987262,0.034963317,-0.3332723,0.18693365,0.2668317,-0.004409828,-0.04360757,0.19901282,-0.06872004,-0.023792941,-1.4964148
0.4390501,0.03375584,-0.21066594,0.249526,-0.15986565,-1.2313374,0.31302917,-0.6820392,-0.09477845,-0.17146781,-0.20498572,-0.1424403,0.60078245,0.035704195,-0.06493236,-0.07239132,-0.02164823,-0.39369702,0.56301236,0.010456085,-0.049968883,-0.057972968,0.34673992,-0.12525016,-0.22941749,-0.0897321,-0.8425996,-0.10258249,0.49560314,-0.14714207,-0.29007456
1.0147673,0.3595778,0.3541462,1.3287045,0.58476245,-0.16115478,-0.6062044,-0.29163545,-0.6152226,0.5130189,-0.6715947,-0.61737204,0.29840517,1.2774493,-0.2873592,-0.42345598,-0.1305202,-0.1406119,0.30165213,-0.036660366,-0.053808764,0.013526142,0.05323751,-0.27718666,-0.07962566,-0.046669204,0.14871268,-0.41361597,-0.13583592,0.204388,-0.22132392
-0.3117949,-0.28377318,0.38552973,-0.26875922,-0.12078831,-0.036879376,0.791669,0.046836905,-0.15728444,-0.13910134,0.17453906,-0.10754765,-0.03130391,-0.0041247527,-0.3787057,-0.21337683,-0.18899673,-0.1578945,-0.43984172,0.01815971,-0.014957748,-0.056535907,0.20527004,-0.13436955,-0.015388729,-0.26230696,-0.58960634,-0.30223292,-0.5946886,-0.09745521,-0.5661309
-0.44944492,0.46566117,0.99885,0.6102753,0.046493407,-0.29515517,-0.09545092,-0.25249782,-0.3726388,0.25209004,-0.480351,-0.52518034,0.38602957,-0.17784902,-0.09446457,-0.22176619,-0.18292636,-0.16238813,-1.7616603,-0.05187776,-0.019276828,-0.022942498,0.044850077,-0.07036068,-0.5128414,-0.27924106,-0.089260384,-0.13050234,-0.21114022,-0.09915897,-0.9569874
-0.10970886,0.029215883,0.08690694,0.013731277,0.24464066,-0.025975395,0.34537554,-0.072769426,0.049699467,-0.29201898,-0.044956375,0.08937938,0.067179255,0.088990904,0.15538277,-0.13355175,0.31044242,0.22792366,-0.623573,-0.03639777,-0.050337024,-0.010939382,-0.26129448,0.08966204,-0.054092,-0.06923218,-0.18055534,0.04392978,-0.055036705,-0.036365747,-1.7594882
-0.03350125,-0.063510016,0.060693868,0.0011193375,0.044022936,-0.1703699,0.2049813,0.107072845,-0.14256518,-0.40992686,-0.2839363,-0.14188194,-0.03694534,-0.0020556105,-0.0042040516,0.2887826,0.5113086,0.10773807,0.32580099,-0.062239893,-0.013791151,-0.039352417,-0.23647898,-0.016765207,0.17594798,-0.18113963,-0.09354151,-0.1563139,-0.18899412,0.12910475,-1.7560534
0.13278048,-0.06590524,-0.1696795,-0.094832204,-0.0032656244,0.4812752,0.22541018,0.17132348,0.14401162,0.042902205,-0.09819035,0.24065396,-0.21553989,0.06156062,-0.1668233,0.3816756,0.68385845,0.08235398,1.2583369,0.02966693,-0.039654657,-0.039651103,-0.12014075,-0.09521784,-0.117399715,-0.07917294,0.17137676,-0.28450987,0.02223995,-0.11629696,-1.0133293
-0.36357528,-0.30933622,0.16910328,-0.75109166,0.3013922,0.70185006,0.774739,-0.24863218,0.35988456,-0.11461097,-0.18384135,0.41130194,0.121421404,0.38756776,0.6214805,-0.7316689,-0.6074434,0.00146442,1.8757383,0.012793697,0.01935184,-0.029033065,-0.0047315364,0.47928914,0.57867086,0.22753623,-0.8487467,0.33247522,-0.6174352,-0.15618598,-0.061132044
0.26857722,-0.047613673,0.33072764,0.40880293,-0.2247397,-1.2692028,-0.1376123,-0.11677581,0.042148657,0.86819816,-0.11089248,0.05488206,0.107559726,-0.24638647,0.051354684,-1.8605903,-1.6957939,0.29706752,1.5614017,0.010465056,0.032682583,0.015771255,-0.17168932,0.19952239,0.2840893,-0.14954025,-0.09506104,-0.41882294,0.21195644,0.043750867,-0.0132433595
-0.10010044,0.7377624,0.12481063,1.0487987,0.77549666,-0.9371522,0.5372565,-0.2904006,0.35328034,-0.4612696,0.55946183,0.48988867,0.1429302,0.0220132,0.33205634,-0.4030446,-0.37002948,0.03642863,0.31396726,-0.025771342,0.06063181,-0.05225207,0.19401856,0.16335739,-0.13203605,0.30532637,-0.02389237,0.06556561,1.1390185,0.055291425,-0.56106544
-0.54795486,-0.27029762,1.3205749,-0.08669118,-0.550021,-0.3722944,0.5588177,-0.58865815,0.007700561,0.4231121,-0.49461415,-0.014329106,0.6179238,-0.9575789,0.31869367,-1.0521128,-0.934455,-0.060311936,1.4048026,0.005656317,0.015739739,-0.03978973,0.12240273,0.34084964,0.6635007,0.34229735,-0.90531284,0.1401276,1.087587,0.37291804,0.47276506
-0.25664413,0.235229,0.7291886,-0.027078122,-8.2506245e-05,0.45747983,0.32006043,-0.26987183,-0.13610576,0.7470364,-0.036407012,-0.093346685,0.30750415,0.7075529,-0.37306857,0.30514592,0.5628384,0.35317555,-0.58585995,0.010379158,-0.0481736,0.028767705,-0.35215673,0.047972396,0.13213573,-0.11987181,0.51047504,0.051236082,0.24342008,0.21882638,-0.60441166
-0.12047175,0.33056614,0.20094548,0.4640895,0.53598964,-0.42658135,0.5318469,-0.19703735,0.75550944,0.3416558,0.2694239,0.46833283,0.23529398,-0.84085125,0.34800223,-0.21623792,-0.006263582,-0.16840269,1.6750968,-0.061115168,-0.036337815,0.0049245358,-0.0075053154,-0.069052,0.03217841,0.06695304,-0.5013406,-0.028752035,0.16249847,0.085821666,-0.7076154
-0.0384483,0.062789544,-0.18873128,0.42529508,-0.31873444,-0.021333395,0.31692317,0.011574711,0.107954025,-0.22928992,-0.041636948,0.0976209,0.08364889,0.3621628,0.24704127,-0.6650826,-0.14024545,0.10149349,0.16866712,0.05292411,0.048100993,0.005517058,-0.22797313,0.07667828,0.452048,-0.027573317,-0.40096557,0.5459752,-0.6590772,-0.15087722,-0.90149343
-0.49293673,0.06957325,0.35422474,-0.16405784,-0.19343838,-0.22566389,-0.19317734,0.2199784,-0.11765622,-0.40768787,0.31558594,-0.19969776,-0.14843932,-0.018513681,-0.36930144,0.09632291,0.38327867,0.12764862,0.15797047,0.03832917,-0.030412696,0.05812335,-0.060685813,0.2069382,0.36039436,0.31326973,-0.5579142,0.6407594,0.23786248,-0.26700014,-1.1008809
-0.09786834,0.2060594,0.37761247,0.32688797,0.3256666,-0.45230594,0.6297809,-0.07300214,0.075009815,0.10888514,-0.02890588,0.07263604,0.17521949,-0.93721855,0.03975675,-0.15742452,0.17572296,0.1783223,1.2549194,-0.04901766,0.04859607,-0.03780525,-0.27629766,0.5157663,0.054248124,0.48365006,-0.08842434,0.44669804,0.45848197,0.1513938,-0.91503996
-0.20659336,0.16219878,0.43736,0.021383064,-0.06501171,-0.21286228,0.48645535,-0.16980703,-0.1204842,0.4691538,-0.062505014,-0.1316282,0.28723797,-0.009199746,0.06522166,0.006659561,0.28723937,0.16051951,0.6446686,0.048257872,0.0115299225,-0.028642721,-0.29979834,0.45226786,0.1952972,0.3357578,-0.041367754,0.3866099,0.16297011,0.016339978,-1.160599
0.14116493,0.19125773,-0.010845931,0.06602417,0.68118036,-0.73366445,0.41999584,-0.08294232,-0.1327706,0.041005693,-0.16528243,-0.09534108,0.037353504,0.4488226,-0.1273446,-0.29463097,-0.33867258,0.035087314,0.6283633,0.036264963,-0.045202978,0.009014726,-0.013149871,0.13199365,0.16518117,0.038310084,0.16951627,0.012199374,0.3002141,0.21433039,0.68641096
-0.61590666,0.5241498,0.7051746,-0.05187394,0.1509578,0.978891,0.72875893,-0.023336036,-0.041185673,0.070991226,-0.116930105,0.063865274,-0.05504125,0.6756139,-0.15507324,-0.9226416,-0.35826877,0.29191676,-0.94323057,0.056233034,-0.017839499,-0.03138385,-0.31925827,0.371327,0.3255649,0.026702318,-0.01948727,-0.09732151,0.31712615,0.20842753,-0.9397492
-0.92890155,0.2392534,1.3082509,0.29494587,-0.2849897,-0.50089556,0.44521028,-0.42675203,0.011069981,0.54697144,-0.5358315,0.043039836,0.47681525,-0.20088114,0.39719686,-0.6961768,-0.4416919,0.24705337,-0.03519175,0.04177563,-0.060507864,-0.011856161,-0.23643556,0.2451434,0.54451627,0.12969944,-0.24744482,0.6215297,-0.3855939,0.13112044,-0.8160693
0.30323115,-0.6295582,0.19923817,-0.5043654,-0.22276776,0.08060946,-0.40615118,-0.7704935,-0.022567384,-0.04785029,-0.631779,-0.08060133,0.7998425,-0.06596097,0.48854056,-0.10764371,0.12288929,-0.022877013,0.8138164,0.05863019,0.049925238,-0.05326715,-0.08336655,0.19791889,0.4109521,0.3228065,0.38478938,0.11368898,1.1331685,0.107197195,-0.110983655
0.33009145,-0.5803977,0.12060602,-0.16563314,0.2640826,-0.06869423,0.40774494,-0.11606725,-0.012228468,0.5970676,0.05606592,0.059644867,0.09946616,0.89737743,-0.014649803,-0.541254,-0.6734255,-0.1238706,-0.4414688,0.014141209,-0.0030768514,0.059295334,0.18340434,-0.31759614,-0.22010641,-0.23525403,0.36060292,-0.051168513,-0.05864863,-0.3328642,0.6105972
-0.12034718,-0.016444538,0.03499111,-0.13479751,-0.1717486,0.16772649,0.19201939,-0.14362982,-0.024682492,-0.10706624,-0.07322191,-0.06664942,0.14972597,-0.15775107,-0.15492612,0.0068895197,0.26515833,0.24052401,0.35145748,-0.005002871,0.024086088,0.019374497,-0.22085604,0.009664958,0.18526445,-0.042252563,0.06821879,-0.27247125,-0.21370666,0.22545654,-1.5990987
0.61652315,0.39572284,-0.30389187,0.9493711,0.28024247,-0.24186054,-0.37207776,-0.56637067,-0.022785425,-8.679993e-05,-0.17830281,0.012232203,0.5469286,-0.22257468,-0.0011099932,0.14355357,0.46489695,0.08204268,-0.6163321,0.039844304,0.0365979,0.05653274,-0.16199744,-0.044752434,-0.060689673,-0.283812,0.176247,0.020393029,0.08431659,-0.040418375,-1.3612257
