0.0015509077,-0.025089197,-0.039561216,0.03838854,0.093740895,-0.005136305,0.092276655,-0.0011727286,0.0054814997,-0.01681098,-0.20258838,0.012635694,0.004472766,-0.0027701263,0.10266529,-0.09860792,0.0012432828,-0.0021602605,-0.1083621,0.020909838,0.010916504,0.032607283,0.021269385,-0.1508853,-0.081432395,-0.040242806,0.004936396,0.053933363,-0.060527347,-0.00021411394,-0.0046107057,0.0036650014,0.05194807,0.05481431,-0.0025959571,0.003093001,0.0114675015,0.020410264,-0.020165786,0.022294955,-0.00633886,0.00067148975,0.022167804,-0.0061868243,0.010296286,-0.026155874,0.018605318,-0.076855764,-0.0011635099,0.003080685,-0.02523859,-0.011126037,0.012977025,0.004199984,-0.016276296,0.021456549,0.025888253,0.039564516,0.009911773,-0.00407455,-0.004254851,0.037291348,0.005476421,-0.007077196,0.12671135,-0.002124082,0.014938526,0.2328349,0.033103656,-0.1445348,0.021245738,-0.0055655697,-0.004066502,-0.021210887,0.11961037,0.10722442,-0.023891322,0.008666951,0.003352194,0.03161066,0.029455308,-0.009513441,0.07218918,0.009040281,-0.026635133,-0.049279764,0.01799604,0.0009216989,0.12976433,0.009805498,0.0067466386,0.06822508,-0.019243004,-0.037411846,0.097679034,-0.0010390293,-0.020991262,-0.03692516,-0.00450981,-0.14861192,0.028513206,0.0137643125,-0.034590725,-0.00016861966,0.10122828,0.011604231,-0.03637615,-0.13165623,-0.2494604,-0.05561052,-0.015243183,-0.23361965,-0.035721,-0.15139331,0.0080381455,0.033448372,0.005303706,-0.2181293,-0.012967071,0.47904128,-0.003911176,0.006139847,0.011371308,0.079252034,0.08782134,0.000918422,0.015425843,0.0004860052,-0.03202851,0.05275384,-0.06448582,-0.058976468,-0.03837671,-0.01917773,0.02664641,-0.012708433,0.114202656,0.0058220536,0.0016050217,-0.014698133,0.0020159136,0.0059170313,-0.004169235,-0.03685748,0.812766,-0.030414268,-0.0116927745,0.0017262811,-0.050871942,-0.010571007,0.40745622,0.0200518,-0.059924442,0.017004622,-0.21258569,-0.09615215,-0.014419671,0.21692987,-0.0583137,-0.0014929842,0.08136474,-0.0021346977,0.010343972,0.0126631,0.107468426,-0.018932948,-0.025433216,-0.048046198,0.038344998,0.08110787,0.0012732437,0.08118018,0.0019850605,0.030145999,-0.16524275,0.0101901535,0.019930046,-0.19892834,-0.11410207,-0.0037396434,-0.051511943,0.44361833,-0.0074779345,0.094053894,0.0036894863,0.030877331,0.119735055,0.0015424042,-0.005290369,0.025180284,0.06436385,-0.039390024,0.14498827,-0.0118226595,0.026897743,-0.0016213709,-0.029490555,-0.011751283,-0.0029137137,0.037186272,-0.023014003,8.397568e-05,-0.042495754,-0.00034859363,0.0013180288,-0.002628021,0.00013813926,-0.13773426,-0.070654295,0.010367342,-0.029900229,-0.002020784,-0.0016132968,-0.03869941,-0.0977317,-0.03638546,-0.0603159,0.22726275,-0.0007573945,0.0555574,-0.054866467,0.064249784,-0.013538483,-0.004754624,-0.0018212954,0.010049947,-0.010907348,-0.026206885,-0.012788349,-0.034019206,-0.0077483356,0.012305367,-0.22555147,-0.045456022,-0.1632361,-0.019525962,0.2453539,0.0342986,0.0002709054,0.010616179,-0.0770084,-0.101864524,0.0040923734,-0.20996073,-0.12487504,-0.03300992,0.0099897,-0.040203806,-0.019857023,-0.010743757,-0.011224654,-0.04590082,-0.11142877,0.07639436,-0.012936338,-0.021815438
-0.018371126,-0.013047063,0.040530384,-0.06808132,0.10324357,-0.022290165,-0.07549625,-0.027657289,0.0077020912,-0.06955978,0.08828621,0.0051251883,0.062037162,-0.008234706,-0.011589756,0.13416404,-0.012926467,-0.005142549,0.09688921,-0.01287028,-0.008618986,0.03175347,-0.032632083,0.24839097,-0.17220211,-0.018813014,0.007262724,0.07985577,0.035600703,-0.008561819,-0.054446664,0.0018070173,-0.017528977,0.007773449,-0.01376349,0.008450664,0.060037788,0.04176739,-0.020890584,-0.08349185,-0.0048669977,0.01225267,-0.08049351,0.009032736,0.0043307054,0.048772942,0.0044323453,0.09158229,-0.011265336,-0.06776332,-0.021959616,0.033886213,-0.0007934382,-0.0006704503,-0.012318907,-0.015833922,0.031933885,0.0044520893,0.017904405,-0.016597219,0.05205334,0.010368526,0.06976772,-0.025342831,0.0106139155,-0.004709095,-0.008627561,0.13311046,0.024630046,0.043653186,-0.049575713,-0.019001987,0.011205453,0.03684124,0.08814509,0.034389105,0.064425655,0.015177463,0.027599603,-0.20676461,-0.06823638,0.0095575005,-0.006650647,0.038741518,0.008221388,-0.18601285,0.016980343,-0.101956695,0.13621818,0.012116653,-0.027784599,0.035322417,0.019883817,0.036572102,-0.068600886,-0.012626492,0.02332018,-0.09509719,0.021880053,-0.035985265,0.036294706,0.025810353,0.022104139,0.0014850108,-0.08893931,0.013691585,-0.006673243,-0.15363474,0.028784879,-0.17944813,0.022054646,0.06924666,-0.04615898,-0.03276645,-0.04298403,-0.15353827,-0.019612037,0.049514715,-0.010931118,0.21613075,-0.01581994,0.015640382,-0.008893837,0.08896888,-0.12146104,-0.028496407,-0.02002523,0.016727077,-0.07773509,0.04364151,0.065032266,0.06513787,0.019329177,-0.03698179,-0.07432455,-0.010302824,0.18650718,0.014815338,0.012872493,-0.07108313,0.0014740786,0.03298563,0.096532784,0.05015046,0.63789123,0.013315173,0.00425779,-0.06277109,-0.00673597,-0.032500453,0.16176035,0.007973122,0.041588645,-0.35572174,-0.06364586,0.034225147,-0.042973705,-0.28654116,-0.018184327,4.7580063e-05,-0.13077244,0.0068417233,-0.0054639094,-0.014215064,-0.22176921,0.034850303,-0.02669853,-0.010469965,-0.0617226,0.12458668,-9.8603414e-05,-0.02105425,-0.022503523,0.012104002,-0.061526105,0.027334658,0.089332186,-0.11707921,0.037069447,0.0058309296,0.06624234,0.36123782,-0.11203361,0.1515191,-0.0434539,-0.0947634,-0.15155227,0.012592445,0.0038912487,-0.0163236,-0.01650437,0.036496665,-0.18076508,0.023236085,0.12063964,0.024712358,-0.013208986,-0.14731818,-0.046274763,0.015928255,-0.015935732,0.027176308,-0.05324814,-0.012631394,-0.010838053,-0.0012942677,0.0036743472,-0.037580706,-0.23777135,-0.002205648,0.005396027,0.015379707,0.028538225,0.002868898,0.11779351,0.09539932,0.17289448,-0.17290635,-0.09373112,-0.03825553,-0.15340064,0.062996306,0.006543992,0.036056638,0.0077288435,0.081186205,0.006247128,-0.11074527,0.022902237,0.0625858,-0.008368799,-0.026697097,0.065694086,0.034538925,-0.019639248,0.045425985,-0.11811102,-0.021641327,0.00261754,-0.0025102948,0.07416348,0.10691178,-0.017351443,0.3793598,0.037700985,-0.4324469,-0.010556129,0.07330924,0.009044271,0.05613107,-0.02129136,-0.035517935,-0.07017966,0.13225843,0.07521064,-0.046649046
