0.034519903
-0.23833786
-0.43981484
-0.25987294
0.2627116
-0.4701236
-0.47038046
-0.11721088
-0.23595792
0.19027022
-0.61759156
-0.20326753
-0.3556637
-0.23794258
-0.27184364
-0.27515873
-0.023040347
-0.049474675
-0.18477736
-0.8046157
0.016305305
-0.6664565
0.33906147
-0.57366693
-0.21193333
-0.6508694
-0.28511846
-0.56424177
0.6042341
-0.089662276
-0.60494655
-0.28930372
0.60504436
-0.4420911
0.009992053
-0.35555243
-0.5491324
-0.86888963
-0.78494114
-0.35411775
-0.24089843
-0.04692896
0.12204354
-0.32165188
-0.10840911
-0.41826567
0.11353153
0.7082033
0.3652722
-0.09848884
0.59732157
-0.3938794
-0.5832766
-0.6691567
-0.5258722
0.2906447
-0.6268762
-0.65523213
-0.22854994
-0.2791141
-0.6390866
-0.0059712413
-0.11690993
0.15470469
-0.2792524
-0.421514
-0.5092161
0.35811394
-0.30201453
-0.31181338
0.873358
-0.5881856
-0.88568527
-0.70519656
-0.34661904
1.0557576
0.17303206
-0.16907889
-0.050476134
-0.7874224
-0.45295203
-0.12798707
-0.10186943
0.7810792
-1.2978693
-0.4737213
-0.27132472
-0.2616839
-0.77292866
-0.07075341
0.49296615
0.084824756
-0.6763034
0.043047603
-0.6794749
0.30673188
-0.21374436
0.4480621
-0.54143184
-0.3915766
-0.118705496
0.29164773
0.024338307
-0.7123673
-0.33451638
-0.0748929
-0.5873008
-0.101005405
-0.150826
-0.56117755
-0.1708871
-0.029983876
0.02451551
-0.5591343
-0.14679286
-0.6025892
-0.49125266
0.21887863
-0.71319807
0.49785358
-0.59390306
-0.26957038
-0.73675776
-0.15922964
0.6653761
-0.56043667
0.20615976
-0.40440702
-0.20185988
0.028232453
-0.61877733
-0.31105176
0.13416745
-0.064946175
-0.33576417
0.053873803
-0.6475236
0.048019495
-0.016293833
-0.04511943
-0.17005879
-0.7604088
-0.005651642
0.17846018
0.35392788
-0.34398997
-0.10306355
-0.8361435
0.33376327
-0.51692116
0.05332423
0.0883776
0.20325997
0.084829226
0.81666464
-0.009871353
-0.7349997
-0.17793615
-0.6743028
-0.48745215
-0.12668301
-0.27331367
-0.47017512
-0.15113997
0.12762831
-0.34051546
-0.022486668
-0.6386247
-0.5015048
0.06842934
0.31856322
0.02894089
-0.42243218
-0.22983858
0.16850272
0.64795
-0.19888404
-0.18033208
-0.34250122
-0.71341103
-0.70482796
0.17269498
-0.115625255
-0.1647079
-0.73809487
-0.03703027
-0.5759423
-0.17381339
-0.43774554
0.042886678
-0.7278266
-0.21223207
0.17562205
-0.46113378
-0.17908454
-0.4373078
0.11563543
-1.1125783
-0.73550254
-0.43436772
-0.13826534
-0.064765155
-0.07344863
-0.7514625
-0.6243883
-0.47974786
-0.116097555
-0.69463
-0.10868664
-0.07835395
-0.58501124
0.42072797
-0.66377115
-0.5125422
-0.68481153
0.40389258
0.4074081
-0.62890613
-0.2665676
0.17611897
0.23202418
-0.46717116
-0.15600203
-0.07621773
-0.12168697
-0.23187937
0.15078646
-0.34585476
-0.65749764
-0.30706546
-0.94764996
0.9857621
0.03471521
-0.5535021
-0.79887575
0.44083378
-0.38827798
-0.46781757
0.83281124
-0.9558284
-0.7607043
0.37399545
-0.21670336
-0.68170196
-0.105905294
-0.84302104
-0.48873878
-0.50608736
-0.09530601
-0.45849976
-0.37826928
-0.22235721
-0.2537728
0.23310268
-0.3030751
-0.7080503
