-0.23353682,-0.033078413,0.8871756,-0.2700323,-0.41829553,-1.4000249,-2.1493502,0.029421711,-1.165781,-0.19853616,-1.1152143,0.024886623,0.35223195,-0.18571448,0.8037597,-0.10660876,-0.2092401,0.10768695,-0.038752034,0.37891647,-1.6747123,-1.8429092,-2.4480414,0.1776796,-0.7232243,0.8549623,0.060684003,-2.7632709,0.9744566,-0.07800341,-1.7273712,0.0022568512,-0.4461564,-0.03687233,0.007042147,0.08132513,-1.1075052,0.04882178,-1.7254094,0.44665968,0.14039306,-0.3287805,-1.0506747,-0.042701952,0.31615338,-2.3700919e-05,-0.16823404,-0.24270353,0.26539397,-0.029201344,0.10536179,-1.2965784,0.014010686,0.6204381,-0.2399334,-0.06476409,1.1764375,-1.0830555,-0.1991074,0.03503988,-0.27669558,-0.15809342,-0.32027057,-0.19011863,-0.04183246,0.06758577,-0.6087997,-0.5359641,-0.1523485,-0.043687433,-3.3161323,-0.45584193,0.5924403,0.95579636,-0.040816613,-0.11149607,1.076174,0.792212,0.15012102,0.6827414,-0.24988551,0.48128614,0.54874957,-4.5984287,0.40043217,-1.3033105,-0.05176127,-0.46332937,0.37298188,-4.186448,-1.8355786,0.5211003,0.1669968,-2.665907,-4.2477827,-0.33477426,0.9394634,0.2593037,-0.11489725,0.45049945,0.18733884,0.70008373,-0.03172504,0.32138196,0.46060795,-0.44994885,1.3903219,0.10551792,-0.5182126,-0.5095001,0.16554931,-0.34742346,-1.3351879,1.3219324,-0.019672662,-0.2678736,0.17410436,0.33594775,-0.6579716,0.05420264,-0.04995884,-0.11421363,-0.7085798,-0.07814649,-0.4594384,0.6666378,1.2635384,-1.6527346,0.84687245,-0.6037594,0.776411,-0.024397053,-0.04628168,-0.3975074,-0.028409205,-2.0649781,0.02223872,-0.31894305,-0.32407635,-0.987676,-0.18949911,0.26460135,-0.02444552,0.53455544,0.68068993,0.050430074,0.5124407,1.3708433,-1.8916731,-0.42082942,-0.12097331,-0.21064608,0.2309996,0.13868456,0.10534256,-0.38598135,1.1575817,-0.13718118,0.41487378,-0.4779741,-0.039549798,0.020500215,-0.10339278,0.7826373,-1.4636859,0.99548435,-0.33231091,0.2373071,0.20799655,-0.3412624,-1.258116,-0.12376684,-0.9330936,-0.35048208,0.04577839,-0.18647365,-0.18502547,-0.89619577,0.001710631,0.8271557,-0.8914344,0.75208503,0.50085175,-0.04221564,0.35840026,-0.109377444,-2.1481872,-0.01963868,-0.11916222,-0.060609695,-3.1752665,0.012967655,-0.5257557,-0.04256477,0.12841299,-2.229158,1.8829951,-0.034409907,0.5887905,0.09460429,-0.467099,-0.042939473,-0.8308067,-0.5957127,-1.2162112,0.49069986,-1.9804827,-0.89978415,-0.23115426,0.8595262,-0.91521907,0.055997957,0.9889512,0.8889281,-0.96101815,-0.97292936,-1.2132282,0.6053664,-0.49911407,0.09179286,-1.1714846,-3.0162113,-0.0890585,-1.6718154,-0.10395853,-0.13774009,0.5003962,0.05055599,-2.4582043,-0.040249094,-2.316912,0.55680203,-0.107412286,0.38782126,-0.19012734,-0.2205897,-0.19197349,0.27096352,0.25154528,0.78096414,0.92725885,-0.6898874,-2.1388693,0.8015219,0.068598635,0.83559036,0.32104567,-0.6014735,0.103605665,0.23082769,0.0071716392,-0.1817025,0.57806325,-0.06066194,-0.38493365,0.079102464
0.803448,-0.35798827,0.5079524,0.9143785,0.9556561,1.634498,0.7986475,-0.010787599,-0.18393585,0.07898736,0.10286646,-0.18844745,0.2703853,0.047294702,-0.48982462,-0.12150584,0.107186,-0.09772353,-0.08126504,1.1327628,0.47883388,0.75826395,0.55232626,0.6893481,0.47884998,-0.3577728,0.055160575,0.63720757,0.21425398,0.36862674,-0.02909661,2.5354877,0.92236257,-0.12304715,0.113855004,0.0064033745,2.000747,1.2976373,0.90894294,0.054911427,0.08074268,-0.109176725,-0.009367163,0.033472173,-0.7878245,0.108867876,-0.16152374,0.33532435,0.8701466,0.02875293,-0.23369825,1.7798551,2.067392,1.0716501,0.617246,-0.1818135,-0.3923755,1.1383244,0.09991233,-0.061992392,-0.1378555,0.038080376,0.17738295,0.33407265,-0.0038438258,0.62688875,0.3448795,0.9950901,0.0966578,0.036054283,0.098502845,0.8556779,0.6876986,1.1302167,0.014559515,-0.898848,0.65521264,-0.42403448,0.8129895,0.5767679,0.026965609,0.8528701,0.15159252,0.3324833,1.2106713,1.9578595,0.052838057,-1.0025939,0.76106906,-1.3047413,-1.4390948,-0.57945126,0.11754385,0.30335432,0.8888927,-0.4133197,0.6612061,0.7608044,0.5089848,0.5160914,-0.67272514,-1.5509834,-0.019736402,0.29071447,0.9369363,0.37962586,-0.36278152,0.9089124,0.2961586,0.9931733,-0.37802586,1.1199226,-1.1744007,2.1854384,0.020345347,1.073149,0.9530724,-0.070783824,-0.07097529,0.03983226,1.5916077,-0.09868326,0.18852128,0.023240304,-0.7493642,0.7516007,0.07622945,1.3693054,-0.6944095,-0.09330331,1.4630638,-0.0009627193,0.051919583,1.2373012,-0.029795483,0.25431234,0.149497,-0.22752766,0.021831317,0.13278705,0.89416283,1.1230906,0.050843734,-0.29557914,0.78783655,0.0016904622,-1.570706,0.6039046,-0.7645951,1.2970568,-0.00029746484,-0.07887805,-0.18501014,1.3598572,-1.4198945,1.1799777,0.7244542,0.4942731,0.5870231,0.7396889,-0.20418179,0.04795082,0.08851411,0.55829185,0.46777794,0.8544444,-0.03897174,1.6143543,1.6380183,-0.24305308,-0.06502898,-0.880331,1.1847783,0.1414019,0.45653078,-0.5270789,0.07263494,0.19260637,-0.051640444,-0.12749848,0.55853957,1.414581,-0.61861897,0.036971908,-0.106511556,0.03675525,0.3494276,0.02259443,-0.26176646,-0.14899758,0.5329514,0.17286606,-1.1661471,0.19217986,-0.088056244,0.17581421,-0.32724634,0.8469957,0.7381657,0.7497436,0.092328005,0.16950448,0.48071018,-0.8930336,0.9905539,-0.062266637,-0.08072601,2.0272455,-0.057647515,0.5067464,1.1170015,0.33313265,1.2128106,1.2642647,1.4477054,-0.7233335,1.0227258,0.26467574,1.0857307,0.27355075,0.55767834,0.273917,0.059950475,0.65420526,0.0028874672,-1.192629,-0.5058187,0.02610311,0.6550231,-0.002266851,0.6257074,-2.4302897,0.056006692,0.08328609,1.1231481,0.38174462,0.11920398,0.8953746,-0.5145266,0.31581983,0.7495569,0.38600326,-0.49049807,0.1970352,-0.04214616,1.0514886,1.0187668,0.09786793,-0.40428945,-0.056054827,0.9407608,0.64733374,-0.3609594,-0.1251735,-0.7078532,0.7281406
0.011467775,0.041030854,-0.06953019,-0.012240924,-0.01910569,0.038713656,0.03809322,0.0514265,-0.050845303,-0.065362535,-0.006882287,-0.046891704,0.016588908,-0.04079123,0.002728915,0.041267008,-0.03813822,0.04049988,-0.057180274,-0.06900556,0.032384492,0.042779393,-0.062112406,-0.022170331,0.017801091,-0.031526934,-0.048184708,-0.0039057916,0.0143672,-0.031699076,0.015561908,-0.045542777,0.005828304,-0.04242235,0.021921579,-0.030532831,0.034412593,-0.025968457,-0.059847523,-0.0068453043,-0.013229479,-0.07938858,-0.08426044,0.032577537,-0.059733614,0.013260715,-0.035383075,0.015305954,0.035423987,0.018116094,-0.055080358,-0.023935847,0.02245433,0.02928386,-0.0013639173,0.008902613,-0.050042693,0.01952434,-0.03408824,-0.037606865,-0.054388862,-0.009476667,-0.033791892,-0.046704035,-0.0046691224,0.025930021,-0.01735226,-0.06648428,-0.0157189,0.04066792,0.035688452,0.039599016,-0.02699784,0.02068073,-0.038436808,-0.058199808,-0.07940347,-0.06624454,-0.026108535,0.013642728,-0.021019256,-0.020176282,-0.018674258,-0.023975452,0.030455375,-0.024221448,0.059419803,0.027812708,-0.024827484,0.032774944,0.032767877,-0.043633793,0.03921067,-0.03192998,-0.008148332,-0.025506916,-0.01375347,-0.03594893,0.023113912,-0.048907425,-0.020523772,-0.012401196,-0.03896448,0.03600582,-0.013163959,-0.09017227,0.020421494,0.03188599,-0.050993495,0.029355913,0.010289389,-0.048813455,-0.04956021,-0.024619875,0.044669524,0.01461999,-0.066448286,-0.013285978,-0.035384413,-0.0654448,0.049779877,-0.06705137,-0.05340235,-0.028296445,-0.04076155,0.05265677,-0.070929445,-0.07932604,-0.009477173,0.035164524,-0.030305494,-0.042837784,-0.009343788,0.04906748,-0.014612645,-0.06428716,-0.023238534,0.011342635,0.04872611,-0.043130916,0.05362186,0.0214859,-0.05568023,-0.049113505,0.019268615,-0.05978258,-0.035902977,-0.06818098,-0.03683994,-0.04094121,0.05283331,0.037949305,-0.06972635,0.008792319,-0.059676804,-0.02087329,-0.005426407,-0.05450704,-0.030220106,-0.060136855,0.015350322,-0.02434121,-0.023022242,-0.062108506,-0.037411857,-0.023271445,-0.026444333,0.0015643688,0.052152757,0.052717917,0.039060242,0.0019753375,0.0040619294,-0.030760935,0.005930816,-0.008121835,-0.003016782,0.018718556,0.010767311,-0.028354352,0.046750337,0.030173017,-0.029193785,0.032984126,-0.0327292,-0.032225017,-0.03439232,0.024927393,-0.0009416442,0.05791688,0.028331902,-0.02592415,-0.059695218,0.03079939,0.04949904,-0.0158558,-0.038982652,-0.0027753238,-0.016717523,0.002446366,-0.068463095,-0.06423817,0.05617703,0.026360553,-0.02604723,-0.020081997,0.029326355,-0.049474914,-0.045597326,-0.03875592,-0.03685749,0.026763096,0.00023317675,0.0026574656,0.005652845,-0.059481174,-0.072815,0.015619058,-0.069328316,0.0026549632,0.042285092,-0.053710915,0.005399107,0.00038982223,0.013044581,-0.015366519,0.003744118,0.020518541,0.049403254,0.04445316,0.013849133,-0.047301725,0.05568332,-0.062349584,0.05221331,-0.019759659,-0.04207496,0.0011538061,-0.05796184,-0.04148769,-0.0113362195,-0.059729803,-0.044032946,0.028090937,0.04894278,-0.051764574,-0.03285588,0.051348638,0.03166158,-0.059458073,0.015276144,-0.059698377,-0.010510378,0.0072995955,0.028539639,0.032741766
1.4177773,-0.29683068,1.2478164,-0.28247872,-0.26913545,-0.14353487,-2.4512515,-0.06117932,-0.48705286,-0.07028272,-0.35718402,0.16561648,-2.5589645,-0.035324566,-0.9889952,-0.059928328,0.006830767,-0.016441576,-0.033570003,-1.0398299,-0.6389921,-0.5979515,-2.1052454,0.5946571,-0.60242707,0.61393046,0.029827468,-1.5547961,0.93296313,-0.5345222,-0.15415867,-2.1857665,0.35277334,-0.4075918,0.068933,0.17967092,-0.08702859,0.34848085,-1.215484,1.1731836,0.09844509,-1.5910414,-4.5085998,0.0292188,-0.3791965,-0.06364561,-0.38736174,-0.17288774,0.009274974,0.026697978,-0.8194898,0.3600089,-1.6914182,-2.0470114,-1.0983077,-0.27854666,0.4350627,0.3699494,-0.012785136,0.025244258,-0.2804785,-0.035006702,0.014857226,-0.042364698,0.021169074,0.30612668,-0.074144624,-1.8603357,-0.11621944,0.031232692,-1.5792867,0.020365547,-0.014337875,-0.5647091,0.058042534,-0.08758342,-0.7904583,-0.6643156,-1.8122983,0.59372425,-0.25769752,0.43945262,-0.59643435,-2.3436136,-0.8683939,0.7489959,0.012096077,1.1582711,0.3726937,0.11657783,-0.8956615,-0.022443866,0.42694774,-1.0602344,1.1117965,-0.6810944,0.063883245,1.3850813,-1.957725,1.0249257,0.28626147,0.77791655,-0.02202076,0.04393465,-2.506354,-1.6513789,-1.4890847,-1.8164208,-0.26336998,0.4984941,0.5255957,0.43203858,-0.83734345,0.10389648,0.023452114,1.3246175,-0.33762088,1.3902544,-0.4011946,-0.07838855,-0.70180136,0.20292106,0.19652401,-0.0051130024,0.49996316,-0.033391546,0.41993946,-0.4112428,0.08446295,0.57696605,-0.6164397,0.010446772,-0.14020783,0.36321414,-0.02287513,0.19428171,-0.3980262,-0.10512088,-0.15686086,0.14806767,-0.5976685,-0.6467365,-0.01824216,0.008999739,-1.8812567,0.041601278,-0.46205044,-0.007863184,-0.04513238,0.37552035,-0.26718885,-0.30365947,0.33789673,0.5043254,-0.20156789,0.9844257,0.000520437,0.86430603,-0.18679655,0.3110313,-0.45133966,-0.018144421,0.29904994,-0.008841728,-1.5369011,0.4591154,-0.5243634,0.22824843,0.5184058,0.10591538,-0.8658024,-0.25687453,-0.18081531,-0.09672582,-1.6075557,-0.7545538,-0.10491688,0.68438506,0.023016639,0.3265648,-0.103467375,1.7685652,-1.6459364,-0.118096404,-2.2275236,0.22727075,-0.6278169,0.021111816,-1.0569108,0.04631314,-2.8527212,-0.33916727,-0.84105635,-0.29966763,0.31959325,0.47230735,-0.7520957,0.03331542,0.1231975,0.7869996,-0.34587294,-0.40641627,0.77332306,-0.035790797,0.08780255,-0.16751187,1.4237181,0.47400135,-0.35144395,-1.1244544,-1.0179853,-1.623431,-0.24671465,1.824169,-1.3983505,-0.7107516,-0.103085056,-0.9956789,-0.8962921,1.0329224,-0.17230785,0.8237586,-0.012928085,-1.6543756,-0.19182861,-1.8385849,0.9267521,-0.01156836,0.9048983,0.031249853,-0.5083401,0.17558868,0.14471935,0.76892805,0.74216455,1.4147189,0.049403317,0.2693399,0.47272205,0.30740282,0.26699677,-0.31450987,-1.1000483,1.4135873,0.036218215,-0.426499,0.10453616,0.7528166,-0.36208484,-0.0014207847,0.8064754,-0.07620245,-0.17295517,0.15929995,0.34516007,0.6587357
0.44489413,-0.48179296,-0.6174508,0.20878819,0.43980682,-0.089519925,0.19008192,-0.28637835,0.06481302,-0.57519865,0.18759519,-0.099483505,-0.07905403,-0.08140169,-0.3260153,-0.32970864,-0.17200336,-0.10939476,-0.24484088,0.9855787,-0.25978288,0.015689002,-0.5359074,-0.45385933,0.023000365,1.5847502,0.016245313,-0.03382052,-0.5291371,0.00783586,0.35378608,-0.700819,-0.046713654,0.17454231,0.062641636,0.08615992,-0.20793803,-0.23291129,0.31457835,0.35053945,0.2477023,0.2869646,0.3472638,-0.021818839,-0.62610525,-0.14354263,-0.4146747,0.082650505,0.5278487,0.00017849356,-0.69659805,-0.91456205,0.97150165,0.38924098,-0.13092013,-0.25615233,0.4695889,0.2726689,0.13557354,0.04606892,0.1268268,-0.21281229,-0.09816115,0.42968825,-0.035968054,1.0074236,-0.6523122,-0.42919636,-0.25291407,-0.03126937,-0.80653244,-0.4314792,-0.642677,0.60407233,0.027107902,-2.0381255,-0.3309776,0.3859459,0.11960017,0.10946419,-0.7994263,-0.19522937,-0.079117544,-0.9285052,1.9150586,-0.35242605,0.02465824,-1.3338106,-0.6148032,-0.35263783,0.42049107,0.28070158,1.0021513,-0.4569298,-1.0008186,0.24970874,0.3697391,-1.7194438,0.7931584,0.17945033,-1.8031775,0.19997469,-0.038320046,0.7337626,0.4820087,-0.18238436,-0.96556056,-0.4996443,-1.8954146,0.40569034,0.8137657,0.60774535,0.87716246,0.56080115,0.030618863,-1.83838,-1.8761195,0.8535692,-0.1730953,0.4995869,-0.51195186,0.03273705,0.060055174,-0.06102166,-0.37555465,-0.4592973,-1.3576828,0.2150373,0.49511245,0.0073268283,0.045539603,-0.001140751,0.007472592,-0.22149663,-0.03558532,0.09717342,-0.40405366,-0.6008621,-0.041714825,-0.30698323,-0.2940399,0.88246596,0.018267568,-0.45066264,0.083978005,-0.04333812,0.59971005,-0.23942156,0.10341726,-0.46294758,-0.08908317,0.02719741,-0.01567073,-0.6117709,-1.2484987,0.2961675,-0.14107373,0.5540129,-0.4389641,0.33611503,-0.31345502,0.03673959,-0.14064404,-2.3622746,-2.0309577,0.68923694,0.01700048,-1.8610575,0.85780436,0.24443156,0.20682737,-0.7099063,1.1412615,0.10495142,-0.37446278,-0.4553118,0.07694802,-0.110263355,0.04905472,-0.33197954,0.900959,0.2855628,0.49520066,0.068130895,-0.17430656,-0.005960578,-0.04344497,0.01684893,0.47221223,-0.012033928,0.6256687,0.16155516,0.22676694,-0.24549523,-1.9649619,0.082992606,-0.8038239,-0.79085636,0.48766074,-0.07365588,-0.038670428,-0.25388116,-0.6896168,0.32845613,-0.5473162,0.085325316,-1.4931462,-1.0638204,-0.06639298,-0.013297745,-0.33888733,-0.86589944,0.32631952,-0.19320522,0.46823442,-0.1892597,-1.16808,0.18109432,0.5547748,-0.6064012,-0.9829384,0.5954419,-0.24764685,0.047525648,-0.0457415,-0.02376732,-0.12990955,-0.023234405,0.69829226,0.02019521,-1.0218306,0.08971456,-0.023375748,-0.9056898,-0.95802325,-0.09977809,-0.5023787,-0.03313377,-1.8068829,-0.036120858,0.7670128,0.01292141,-0.5111288,1.00075,0.06230734,1.2087274,0.20263572,0.1566901,0.14036797,-0.13315146,0.20456712,1.0149868,0.31992754,-0.75942105,-0.16474898,0.09084239
-0.0016399316,0.008578232,-0.07267481,-0.0033774565,-0.011256699,-0.054459266,0.048853897,-0.06945977,0.014473827,0.026328146,-0.059746347,0.035603646,-0.062519215,-0.012009825,0.037203535,0.016616277,-0.00011709754,-0.060074326,-0.0505657,-0.039815363,-0.05482012,0.0043901256,-0.011660086,-0.026448563,0.03288796,-0.043990772,0.013599113,-0.019867558,0.011490286,0.04660734,0.015434764,0.02911689,0.014122488,0.019944642,-0.016845003,-0.026236849,0.023625825,-0.043180343,0.018185038,0.017267816,0.04236267,0.016504828,0.03575319,0.022280551,-0.06953563,-0.012670675,-0.00355808,0.0026845313,-0.028340656,0.045722686,-0.05250997,0.0033849073,-0.05194813,-0.040461585,0.027074372,-0.077038795,-0.042622894,-0.041622486,-0.00085255597,-0.010642052,-0.009550475,-0.019789616,-0.04204053,-0.043768972,-0.016150687,0.002519262,0.020709889,-0.040299486,-0.037850335,-0.004749365,-0.064162776,-0.034356616,-0.02473623,-0.009717336,-0.057781152,0.003631639,-0.05976624,-0.05997407,0.024637165,0.02863892,0.01572274,0.0015592827,0.01707001,-0.056586184,0.024062643,-0.06522713,-0.056968868,-0.035652008,-0.03764866,-0.019403517,0.027568394,0.020712538,0.033191264,0.0138160875,-0.00067025697,-0.021378785,0.022663347,-0.046657503,-0.013481085,0.017136002,0.035280727,0.025546404,-0.039853685,0.011324519,0.050887067,0.0031627428,-0.060947597,0.029742375,-0.025760554,0.0302435,-0.030815378,-0.030221011,-0.044392195,0.023186922,0.05968871,-0.057820678,-0.026048943,0.008472295,0.024118187,-0.04154431,0.054326624,-0.020431573,-0.011518117,-0.05639246,-0.0072261584,0.022715945,-0.05317414,-0.050170332,0.016831152,-0.075930566,-0.053121094,-0.0024770796,-0.02667091,0.05407169,-0.0068480745,-0.02339569,0.021772254,0.005685981,2.4335818e-06,0.0016655507,-0.033818778,-0.047543958,-0.011564522,0.03139326,-0.059555717,-0.027219228,0.002493687,-0.0284769,-0.0017845845,-0.037053194,0.053990394,0.010032155,-0.03706824,-0.009591036,-0.060027704,0.008740406,0.037856072,-0.07156571,-0.06161338,-0.038346376,-0.032430798,0.03813377,-0.012686994,-0.015541425,0.04834651,0.027464895,-0.025931468,0.03954331,-0.010909662,0.020833492,0.014802931,-0.028350707,0.029856063,-0.041616786,-0.0008041555,-0.04427205,-0.0022685,0.025620472,0.037941314,-0.0018248305,0.040056214,0.049603958,-0.00696633,0.044681583,0.047558933,-0.08700252,-0.004237286,0.059173025,0.050028324,-0.07446193,0.009872951,-0.0007254272,-0.057329595,0.0511763,-0.056863867,-0.0006921082,0.036579847,-0.008548428,-0.02484982,0.012786952,-0.025059808,-0.022628115,-0.03776344,0.040221058,0.047204323,-0.0048566964,0.008370724,-0.07608578,0.0045276447,-0.022664053,-0.032004017,-0.05612569,-0.008381698,-0.060804226,-0.05582637,-0.038486693,0.011062452,0.039675638,0.04452724,0.031372026,-0.02091549,-0.043324783,-0.069446355,-0.008858204,-0.013787183,-0.010751076,0.042175747,-0.0535798,-0.010234085,0.017217547,-0.023883741,-0.06578011,0.008770781,0.008118757,-0.0028435735,-0.038689766,-0.015880842,-0.032452337,0.047007203,0.029166289,-0.008830583,0.04555946,-0.0399877,-0.041538224,-0.066421494,-0.061332487,-0.012681249,0.017901266,-0.0401791,0.001723667,0.013720601,0.0029970724,-0.012502834,0.003769704,-0.01691799,0.03815257
-0.49178487,-2.3311534,-2.0274935,0.20879711,-1.9216584,0.22597119,0.46031255,-0.9046888,0.36250904,-1.205777,-1.2939329,-0.1583074,-0.10988382,-0.201824,-0.12988114,0.0347269,-0.06760618,0.0122423265,-0.1362935,0.8154456,0.49749455,-0.5270164,0.09126697,-0.37704453,-0.049965315,-1.0229315,-0.038567707,0.8107335,-1.3439546,-0.054387946,-0.49504074,-0.6165451,0.7212095,-0.54884285,-0.027036898,0.021221144,-0.036352698,-0.20501077,0.48510942,-0.30419627,-0.5897516,-0.5135599,-0.037789058,-0.047338434,-0.8381286,0.07943724,-1.952089,-0.30162865,0.5454479,0.042049147,-0.100674026,-0.2684871,-0.13346426,0.3150533,0.4882435,-0.5233647,0.82114524,-0.12744024,-0.047077723,-0.016544484,0.09389875,-0.1454952,0.267315,-1.685651,-0.016412625,-0.49134734,0.5676965,0.47414348,-0.16872714,0.040823236,-0.5997398,0.530795,0.35340405,0.55133927,-0.023558252,-3.5593305,-2.9676912,0.616599,-0.11266584,0.3790896,-0.18837923,0.0004141947,-0.16352439,-0.3116782,1.0113748,-0.03456125,-0.014936954,-0.12215245,0.3516263,-1.0102459,-0.00066514104,0.38883767,1.2061347,1.0725958,0.93910414,-2.1828444,-1.0041687,-3.692786,0.76098967,1.2060105,-0.9886621,0.15750638,0.037995994,0.27380875,0.43757385,0.59171593,-0.33168283,-2.3432875,0.7322857,0.31575567,0.6234394,-0.79728746,-0.8230243,0.1317478,-0.061600696,0.5979294,-1.1310436,0.092408985,-1.2458695,0.6729553,-0.9462334,0.22779217,1.0076808,-0.06905505,-0.670599,-0.79409593,-1.3254089,-0.38157943,-0.16087297,-0.09925261,0.6345215,-0.009182289,-0.01626894,1.4555626,-0.043953024,-0.831127,-0.14711696,-1.420556,-0.054154452,-0.044997018,0.4172072,0.2172628,-0.04412679,-0.9343962,-0.1862967,0.060719118,0.4656937,0.22203888,0.3158776,-0.41495782,-0.11219888,0.048001863,-0.376898,-0.042934727,-1.5413165,-1.1191455,-0.2774144,0.077146724,0.39121953,0.6975984,-0.4005427,-0.005312639,-0.29340944,-1.2025977,-2.2398467,-0.9008874,0.081085384,1.1409385,1.2526767,-0.057945535,0.16593798,-3.9031024,-2.348777,-0.08163109,-0.8396607,-0.5972581,0.024426376,-4.6601515,-0.0063785315,-1.1545537,-1.6411614,-0.22553125,-0.059852954,0.21040481,-0.38144067,0.025947684,-0.6823924,0.05924195,-0.33324113,-0.026181867,0.52296424,0.1642507,-0.61099756,-0.21756953,-3.4062953,-0.67120737,-0.12555166,0.2961351,0.42003924,-2.6230721,0.15683982,-0.06304654,-0.021865403,-0.8952301,0.46889293,0.037526637,0.10323261,-0.5128544,-0.11816095,-0.03971746,0.4154652,0.11070744,0.64400524,1.2483356,0.030049404,-0.3131467,0.00027402965,0.5911147,0.5454827,1.1156964,0.14191337,1.2232621,-0.123276964,-0.28839916,-0.21355651,-0.3248256,0.37460488,-0.0485026,-0.48247236,0.027600512,-2.0904865,-0.5358444,-0.051046718,0.4256679,-1.6412919,-1.1171569,0.38788664,-0.66943866,-1.2522368,0.4147661,0.5117129,0.17715226,-0.958083,1.4294459,-0.010676008,0.9808716,-1.7441111,-2.0401318,0.040356264,-0.6197341,-0.8169963,-1.1377597,0.7570569,-0.7809415,0.04346653,0.5482751
-0.0037364787,-0.06312892,0.017151656,0.04153217,-0.017683074,-0.005820087,0.005038867,-0.054702237,-0.019111948,-0.03902702,-0.03973546,-0.050400794,-0.008888527,0.016595751,0.041186653,-0.039846558,-0.05946729,-0.014101145,0.018149054,0.010025301,0.0081690755,-0.01336488,0.020735495,0.013138809,-0.018201366,-0.04697596,0.022362217,0.011765579,-0.0015320717,-0.05144185,0.015891287,0.03136819,0.0026725447,-0.052606158,0.035253014,-0.0011951794,0.04714445,-0.010275935,0.047392692,0.037605673,-0.05014429,-0.036853075,0.032430112,0.020358376,0.016939782,-0.019974858,0.013310773,-0.049529854,0.00019384176,0.014490835,-0.06470946,0.05624038,0.029972259,0.0017797922,-0.06496387,-0.020345178,-0.022903409,0.04459396,-0.049087647,0.001944989,-0.03215676,-0.02437459,-0.031933118,0.0004398002,0.022775061,0.0013532043,0.01949381,0.026926814,-0.009641738,0.037231773,-0.04557293,0.038243078,0.052070543,-0.0049831425,0.031193271,0.012442063,-0.016165882,0.012090191,-0.038972802,0.03284052,-0.0441633,0.0057542776,-0.03313803,-0.06110781,0.03860448,0.009612858,-0.05054728,-0.0145618105,0.024585895,-0.008410401,0.041785236,0.036549345,-0.041196536,-0.060634777,-0.0029398429,0.052300267,0.054900493,-0.017240979,0.013521142,-0.021183742,0.048158705,0.021247534,-0.039179273,0.013984568,-0.025634136,-0.025852045,0.012554597,-0.058060024,0.048062935,0.004081831,-0.06146617,0.026581625,-0.060405385,-0.040231407,0.0034445375,-0.00012786957,0.015807752,0.016236354,-0.041884445,-0.06418852,-0.0072156535,0.015266144,-0.009211199,0.022826571,-0.017329501,-0.043335192,-0.038345233,-0.02648877,0.02007151,-0.0023341402,-0.03201055,0.009335943,0.052124284,-0.051609825,-0.059032105,-0.005524737,-0.061856747,0.026918039,0.00019934849,-0.011067605,0.013043823,-0.0070837517,0.052280042,0.008067112,-0.03456251,-0.02726905,-0.019033864,0.023414733,-0.057030614,-0.060658634,-0.064605154,0.021255177,0.041753713,-0.053694926,0.011373912,0.0057788626,0.011657752,-0.041085012,0.0077978903,0.00589101,-0.012927259,-0.018016838,0.031416226,-0.0007457142,-0.022301607,0.0006634814,-0.049118374,0.04223797,-0.010315738,0.02951879,0.05115925,-0.048806757,0.04259691,-0.059778128,0.039053924,-0.04780039,-0.041054823,-0.0561444,0.050947048,0.012892616,-0.049236745,0.011736502,0.058501676,0.023122966,-0.040919494,0.0033379109,0.036519747,0.034188107,-0.020433037,0.03356737,-0.019257916,0.032632615,0.0139439,0.011371413,0.04797648,-0.043799248,-0.011714364,-0.017548054,0.04548411,0.009798429,0.04321183,-0.0743039,0.01723294,0.0048741954,-0.059637763,-0.051953092,-0.007832352,-0.046965174,0.001428108,-0.03945641,0.029251939,-0.04649543,-0.008922121,-0.04174142,-0.0014132403,-0.024819072,-0.023635585,-0.046166997,-0.015537344,-0.05627537,-0.07395795,-0.0017790453,-0.05469111,0.047550354,0.04095089,0.0024359084,0.029210776,-0.010822259,-0.0470261,-0.060176365,0.00033977875,-0.03586913,-0.0001860072,0.039822895,0.047331106,-0.020412065,-0.026435738,0.024887297,0.011369454,-0.0011978224,-0.027811483,0.052937884,0.05486328,-0.062260002,-0.03254837,0.036821507,-0.020270862,-0.034980793,0.014018879,0.038991507,-0.010866672,0.058723062,0.003674537,-0.05526904,0.052733712,-0.056846865
0.5824271,0.57034236,0.5793738,1.2075273,-1.3064355,-0.55347466,-1.1307113,-0.55627674,-0.5943664,-0.060273893,-0.36555928,0.023353865,-0.049693525,0.17912123,-1.1600052,0.060871467,0.08821395,0.05008573,0.14151268,-0.8806876,0.3698206,0.7574231,-3.670728,-0.35525367,-0.34640932,0.58310646,-0.02982761,-0.25015968,1.4983805,0.044466786,0.31736407,0.27778158,-0.036045957,0.24951078,-0.039379794,0.047868825,-1.1166347,-3.5008507,-0.37961993,1.4963902,0.24165817,0.6316401,-0.8657218,0.047091976,0.61370456,0.0127739655,-1.0011681,0.1699657,0.6188226,-0.03615942,-0.78955054,0.6662319,-0.5722098,0.38382173,-0.120498456,-0.22290777,-0.16293457,-0.4981233,0.037143376,0.037886046,0.23551016,0.28071767,-0.074279085,-2.1348073,-0.0041688234,0.02406729,-0.6061203,-0.47365418,0.036719,0.033195436,-6.647008,0.62437236,0.49671555,0.4990818,0.06189932,-0.5100257,-0.48034275,-1.2297318,-0.5867932,1.2739615,-0.4785295,-0.22581357,-0.3426459,-9.100719,1.5967548,0.848445,-0.017146178,0.10811998,0.36378032,0.1653297,0.090817675,0.6204537,-0.0864837,-1.0588117,-0.26443943,-0.29465523,-0.049431562,-1.5928365,-7.9590592,-1.0405787,0.2750389,0.33884445,0.039164852,0.6914176,1.5170693,-1.7695105,-0.72210866,0.3910331,-0.60861975,1.8407668,0.15983175,-0.46090072,-0.25417072,0.5032788,-0.006132871,-1.8378673,0.2425186,-0.7976911,0.6663569,0.027912918,0.6695895,-0.28231022,-0.10948554,-0.037324052,0.7125568,-0.6301396,-0.5514733,-1.5250466,0.49447122,-0.17535347,0.82636875,0.02007319,-0.34815148,0.025856247,0.051989302,0.27761737,0.55418944,-1.5198189,-0.3752326,-0.34031194,0.42019203,0.9256773,-0.11895697,0.38745293,0.01287633,-0.015284114,-0.8726995,-0.8030051,-0.30364835,0.4762037,-0.09487398,0.02136312,0.3541051,-0.76744276,0.34205487,0.18301621,-0.8222732,-0.13278905,-0.06771042,-0.040973663,-0.18157968,-0.012375235,-0.54951847,0.056983754,0.49520347,0.848606,-0.06428787,-3.5035288,1.0192229,-1.2893617,-0.15328012,-0.83208424,-0.089706,0.04301064,-3.3118074,-1.6814866,0.07042425,0.87340534,0.014433987,-1.1571473,-0.09821926,-1.2381809,-1.2860632,0.031110642,0.42349505,0.012992007,0.34442064,-0.025778495,-0.15557455,-0.021773143,-0.6126594,-0.2129765,-0.10671027,-0.9042828,-0.78568876,0.15644532,-0.023397366,0.7352321,0.76303357,-3.452206,0.114098504,-0.20797342,-3.506308,-0.032222904,-0.10711866,0.47450152,-0.8995581,-0.18907483,-0.2971913,0.8683268,0.24492362,-3.2010493,-0.37064603,0.8214499,-0.33391103,0.73799545,-0.24309993,1.0079579,-0.16008891,-0.3170349,0.004237393,-0.9667012,-0.10722854,-1.7645403,-0.46754324,0.43269056,-0.8516122,-0.0066693425,-0.043263946,0.000288462,0.029506601,-0.09080954,-0.11150495,-0.49945024,0.41240975,-0.001241949,-0.4672904,0.3604803,-0.08904897,-0.049833357,0.964857,-1.3347809,-0.4087819,0.5753617,-0.07594022,0.44327796,0.37243587,-0.3575845,0.14171974,-0.7207501,0.4312064,-0.9153346,-0.5951114,1.154341,-0.13623683,-0.84783554
1.6300344,-0.931708,0.4012196,-0.014686944,0.6990051,0.15782146,-1.203101,0.052374225,0.5918176,0.01319058,-1.7972955,-0.3676526,-0.047011204,0.08128706,0.9492588,0.5108547,0.11996712,-0.085014686,0.010432623,-0.19495083,-0.104969494,0.18884145,1.1173007,-1.7050749,0.01563758,0.49802554,0.028111048,-0.065729976,-0.768009,0.06932218,0.10010023,-0.031242922,0.25294867,-0.062719665,-0.06881867,-0.2089378,0.6410567,-0.55460775,-0.22759952,-0.044714343,-0.34649187,0.15568897,0.6019308,-0.004072875,-0.10284193,-0.116777234,0.048749663,0.68675095,0.34579077,-0.020084992,-0.5024768,0.93658626,-0.9569814,-0.7678573,0.23361719,-0.21248358,-1.1094738,0.7377361,0.07326585,-0.0020832047,-0.42354113,0.11830631,0.15978065,-0.10026698,0.0008211065,-0.3750833,1.0595618,0.8194892,0.34208578,-0.02413211,1.1318818,0.081586376,-0.9269694,0.40139726,-0.0097469315,-0.5933267,-0.10156297,-0.87055165,0.92775434,-0.4461761,-0.91401905,-2.4679654,-0.31103754,1.217846,-0.8620736,0.6776744,-0.029512532,-0.71805507,0.14262833,-0.2562,-1.3934,0.19523011,-3.1916616,0.1273413,-0.3002056,0.33182326,0.23238803,0.010593883,0.3611016,0.13481677,-2.7310667,-0.18512717,-0.012669221,-1.1658617,-0.9184608,0.32738283,0.5222907,0.7116193,0.14967543,0.9099057,-1.0981698,0.5805393,0.06082231,-0.0154255275,-0.027238315,0.2815345,-0.575338,-0.7701394,0.5261138,-0.21609464,0.40956846,0.18499115,-0.38969898,0.021561306,-0.2657074,0.11219226,-0.7701475,0.19940938,-0.7694097,0.32329452,0.16659287,0.057663485,0.046672735,1.0290995,-0.0061055496,-1.4615301,0.624557,-0.04595527,-0.06205516,-2.0126214,-0.13590641,-0.8229077,-0.06956371,-1.3949327,-0.8382186,-0.00023557991,-0.17179213,0.077432185,-0.40331087,-0.4400162,0.3476376,0.17019409,-0.3704384,-0.54120153,-1.0178363,0.044255096,-2.7433708,-1.2116594,-0.25230014,-3.7959256,-0.037895583,0.05375688,-0.3582571,0.06446177,0.6448391,-1.3132377,0.31628034,1.3007467,0.8004105,0.656169,0.3005779,-0.19467677,-0.32800984,-0.11529419,0.7321617,0.19911344,0.06658813,0.15759836,-0.053155832,-1.1940203,0.08142046,-1.8071116,0.36418495,-0.103296615,0.066839,-0.6120387,0.035205953,-0.031777464,0.016211351,0.047695126,-0.20542808,-0.17828982,-1.6606209,0.032837186,-0.68141645,-0.10284398,0.029062519,-0.27973107,-0.1313745,-0.16125554,0.23689586,0.46659467,0.06898621,-0.20101137,0.02811604,-0.2823984,-1.7613926,0.15962161,0.37036115,0.52165943,-0.3486687,0.32156065,-0.09305643,-2.6536336,0.10024842,-0.18459749,0.029642405,0.22654647,0.3702844,0.18497781,-0.59813994,0.0033389395,0.10117845,-1.5822053,0.06545508,-0.19969106,-0.6844506,-0.03727384,1.0668637,0.04374454,-0.40939653,-1.0501274,-0.17185195,-0.14145835,0.49900097,-1.4655135,0.0966134,0.19176354,-0.5925655,-1.5392817,-0.36502764,0.39053077,0.9217218,-0.5438789,-0.0016993744,-0.5412096,-0.25220534,-2.6453176,-1.1974547,-0.19489262,-0.605092,0.060195528,-1.1713033,-0.0725433,-0.83545077,0.35073283
0.24503419,-0.99831927,0.80466634,-0.53911746,-0.8056567,-4.1249404,0.73982495,-0.02217272,-0.25559038,-0.97172225,0.003832909,0.120160386,-1.0839965,-0.4463174,-1.1725897,-0.21927099,-0.13699515,-0.07782581,-0.25809535,0.193895,-0.8560949,-2.475319,0.6011152,0.87393165,-0.075240865,-2.8850496,0.007794656,-0.7102283,-1.0957271,0.2002407,0.07723261,-0.35872945,0.43884444,-0.38911742,-0.057633024,-0.3068755,-0.6666379,-0.23668122,0.28252852,-0.2624032,0.043784067,-0.17336202,-1.042751,-0.01341442,0.33645493,-0.035222266,-0.16154091,-1.2092197,0.22861263,-0.042024232,-1.0588824,1.4158326,-3.0402613,-0.14399338,-0.25179768,-0.77199537,0.6608154,-0.83016795,-0.14288494,0.012909085,-0.21826339,-0.17828459,0.19179685,-0.773136,-0.051785223,0.46585295,1.0031656,0.8504575,-0.3719028,-0.02808915,0.44972107,-3.6539273,0.017746897,0.46920785,-0.06155107,-0.51873,-0.93821436,1.2413857,1.275712,0.48950058,-0.013846374,0.27413636,-0.20952682,0.49806836,-0.7472202,0.9587242,0.031956077,-0.74832743,-0.7808188,0.3123044,-0.4604858,0.44603723,1.9904162,-0.04666717,1.48533,-0.6698545,-1.4293842,-1.737933,-2.529806,1.0214937,-0.8831848,-0.02895799,-0.0038544121,0.59557873,-0.71753055,-0.5089394,-0.15586631,-1.2411537,-2.0345235,0.07783396,-0.2464486,0.82857877,-2.5598202,-0.40260148,-0.036775514,0.048590153,-3.3748376,1.7951488,-0.16377614,-0.14751229,-0.0722849,0.37605488,-0.7903896,-0.048544098,-0.8000815,0.44914445,-1.4419817,-0.32323456,-0.114956215,-1.1118952,0.16835737,-0.043016426,0.1854745,-0.05901268,-0.047570147,-1.0152683,-0.7758358,0.25380257,0.079525,-0.26313722,-0.7139058,-1.3189597,-0.03666122,-0.59019816,-0.26623875,0.011949249,0.32526866,0.19639246,-0.41069394,-0.1577678,-0.6388423,0.08303866,-0.10218514,0.56163335,-2.1573958,-0.026334101,0.51395327,0.16159299,0.2465626,0.8049018,-0.4584401,0.024266617,0.22192687,-1.0748761,-0.47762537,-0.19612513,-0.36613303,-1.6557405,0.7920942,-3.4612932,0.21211629,-0.35828015,-0.049740914,-0.263934,-0.5264609,-5.139965,-0.39603743,-0.17343026,-0.012837991,0.60655046,-0.22847824,0.9422317,-1.3132727,-0.18416822,-2.6944585,-0.09202583,-4.539699,-0.032015167,-1.3676766,0.055284172,-0.7320709,-0.122837245,-1.6083663,-0.050613616,-2.3217835,-1.3683373,-1.2572693,-0.31658947,0.17128101,0.320869,-0.2687804,-0.2901539,0.34265038,0.0076292716,-0.43136477,-0.11071535,0.27295983,-0.6910766,0.28801405,-0.12728913,-3.01155,-0.0014815922,0.096359715,1.4630588,-1.7976241,-1.1603653,0.42019832,0.24795432,-0.05220718,-0.31213638,0.75044954,0.85081154,-0.08086559,0.57190293,0.008180015,-0.28762138,0.36272538,-0.0057918727,-0.37351757,-0.060118876,-0.3061439,-0.747976,0.010322678,-1.3488915,-0.054263044,0.16415645,0.08324624,0.48985136,-1.3043195,0.52364963,0.51617944,0.9234509,-1.584745,0.7055817,-0.046473645,0.5393902,-1.1384921,-0.46168375,0.11088894,-0.43241683,-0.21401495,-1.3018618,0.53138196,-1.2329739,-0.019581454,0.58880293
-1.3246495,-4.0201025,0.14717785,-0.42425123,0.717756,0.54485387,-0.58799314,0.14909108,-1.5639317,-1.4280722,-0.74818766,-0.022291308,-0.6876357,-0.24594867,-0.16619746,-0.16086107,-0.10927714,-0.25227693,-0.036537565,-0.27271378,0.4019341,-0.12804678,-0.3716509,-0.6118019,0.14197262,0.09908164,0.016325355,-0.7884708,-2.479711,0.22911228,-0.09140256,-0.42858917,0.083569914,-0.19985895,-0.066855945,-0.2608458,0.44533467,0.0632835,-0.30289993,-2.1750922,-0.5711996,0.21875004,0.13238193,-0.036394678,-0.32764283,-0.12961568,-0.16162658,-0.93514425,0.4921693,-0.04606334,-0.79787576,0.08441498,-0.28092337,-0.5266561,0.09330671,-0.19403745,0.4156507,-0.3093443,-0.1767974,0.052219287,0.101747364,0.045335848,0.06294674,-0.0135020465,-0.0041706874,0.14499328,0.59245783,-0.27109858,-0.20007306,-0.0008786619,-0.120606735,-0.7179738,-0.8993319,-0.86482805,-0.027750261,0.10953025,-1.2246616,-1.5319532,0.5848098,-0.7102882,-2.5713115,0.16751152,0.076082125,0.09270903,0.34244314,-0.578548,0.008145757,-0.12900321,-0.9657393,-0.25483176,-0.06591164,0.23481886,-4.7497478,-1.1081039,-1.0415372,0.21046777,-1.157583,-0.124021955,0.71512896,-0.28240278,-0.094559595,0.419152,0.037892245,0.051142577,0.828552,-0.30448717,-0.21343568,-0.7571027,0.0065118386,0.06228588,-0.0632839,-0.16967121,-0.8676638,-0.015928868,-0.011908643,-0.9465331,-0.50671846,-0.4978575,-0.1480493,0.2014992,-0.6693957,0.26554725,0.29263437,-0.11827506,0.07361136,-0.17539857,-0.005341929,0.11064489,-0.8871688,0.15516025,-0.22930513,-0.031986944,0.12850153,0.2066835,0.0461426,-0.8485862,0.050799496,0.069576435,-0.012641026,-0.53596604,0.026943643,-0.032579165,-0.15387888,-1.2075272,0.5894995,-0.00034683943,-0.035713017,0.14832002,0.12342813,-0.685948,-0.22641997,-0.19593422,0.1974037,0.5052347,-0.5379663,-0.08498306,-0.5002623,-1.2677261,0.04200453,0.234654,0.066917166,0.014209375,-0.647445,0.23115471,-2.8646123,-0.5232342,0.2511282,0.4498321,0.4883702,0.2787559,0.4381461,-0.0004920437,0.49841574,-0.10638774,0.2682493,0.099158205,-0.11134481,-0.22407861,0.008196816,-2.335236,-0.61775774,-0.89690137,0.5663919,0.18555377,-1.6009103,-0.5783502,-0.17087498,0.050489508,0.6201587,-0.20585935,-1.2482256,-0.377415,-1.0138192,-0.39369637,-0.7668225,-0.29673192,0.11104235,-0.1165838,-0.001120651,-0.36746004,-0.27592513,-0.7139044,-1.1771564,-0.93150836,-0.290616,-0.097226664,0.11844408,-0.14642656,0.1302113,-0.33582428,-0.7459527,-1.581602,-0.11400934,-1.8992307,-0.2649306,0.108968,0.46712217,-0.117528565,0.03494049,-0.7210747,-0.0722276,-0.6964439,0.022742037,0.05490056,0.117421575,-1.1445014,-0.24620554,0.04605984,-0.33587447,0.001969205,-0.8611438,-0.6016214,-0.17008018,-0.88054556,-0.028595153,0.1879983,-0.110197,-0.8637724,0.05056426,0.46587548,0.8368132,-1.003744,-1.0729444,-0.21440218,0.014651007,-0.2889986,-0.77587587,-0.28586495,-0.19614108,-0.16343164,-0.91327924,-0.12475092,0.92752147,0.15358321,-0.29934335,0.5175629
-0.31023166,-0.13719243,0.8219568,-0.027269308,-2.2150416,0.22165187,-0.06217223,0.12665577,-0.61457604,0.23373368,-3.0969105,0.12423431,-0.021612674,-0.08535019,-0.41256428,-0.17094666,-0.11273024,-0.025077092,-0.037459444,-0.3158631,0.40546262,-0.6680025,-1.7131473,-0.45408016,-0.061937816,-0.104267575,0.021778107,0.3784296,-0.99232125,-0.13765197,-0.345729,-3.4835699,0.30303797,-0.3779121,-0.04775359,-0.21491762,-2.9603877,-0.10482647,0.9514702,0.9122611,0.28910172,-2.3939123,-4.320622,-0.057997346,0.018952241,-0.12799822,0.26411518,-1.3442184,0.22607844,0.056713067,-0.06758721,-0.31256428,0.43358535,0.024147535,0.19534871,-0.07507729,-1.2186799,0.7207043,-0.11383959,0.016768292,0.17086558,-0.044651292,-0.5406836,-0.7060826,-0.017371537,-0.027624708,-0.6670283,-1.4086236,-0.4448867,-0.029630609,-0.91051674,0.20871586,-0.7129623,-0.17563738,0.03101267,0.16382107,0.5952224,-0.5790249,-1.9735184,-2.4338427,0.8665046,-0.08551019,0.07709535,-1.1760067,-1.6946614,0.16717722,-0.0113087,0.9582855,-0.6363519,-0.08640577,0.85850614,0.1149239,-1.0494292,0.039703183,0.013096963,-0.42970657,-1.3727342,-1.6182879,-0.042968653,-0.11598305,-1.5812397,0.6116303,-0.049952913,-0.41262788,-0.51965046,-0.11598095,-0.89061403,-1.4384094,-0.99111134,-0.58734643,0.7016066,0.70320654,-0.5306569,0.10969127,0.044518135,-0.18368058,-1.1708511,0.57498133,0.5625475,0.43915406,0.21625115,-0.18296379,-2.961918,-0.082272425,0.42866912,-0.76940763,0.678406,0.4783833,0.038028087,-0.8449116,-0.6077576,0.018064372,0.12870514,-0.32567134,-0.057990745,0.38930854,-0.10021362,0.05967586,-0.083203696,-0.037728705,0.039092537,0.7609182,0.029233653,0.38384816,0.18026702,0.01759734,0.009066292,-0.16276321,-0.060450155,-0.63934743,-0.07584552,-0.42853567,0.28535992,-1.3213321,0.0056979954,-1.2921292,-0.7468003,0.30599985,-0.9681451,-0.8501794,0.30776048,0.051604226,-0.17001952,-0.38244927,-0.41910648,-0.8219375,-0.17107745,-2.3731396,0.6668845,0.041303113,0.2778001,-0.12732317,-2.2810605,0.035510994,-1.5526947,-1.9431062,-0.1297662,-0.26133806,-0.006754659,0.045444544,-0.10511457,-0.021244224,0.020258779,0.010898781,-2.198596,0.001036829,-0.12084178,-0.035860308,-0.114872456,-0.093248725,1.7734275,-0.71130747,0.43107662,-0.008299057,-1.968924,-0.24898592,-0.5577569,-1.1611627,-0.02372768,-1.7885249,0.20553926,-0.12901688,-0.39506117,-0.24768986,-0.1908,-0.09097871,0.06432347,-5.417073,-0.39355832,0.07825822,0.4641898,-1.3461876,0.38382733,0.28321376,0.18185475,-0.39179784,-0.7679246,-0.3513213,0.28782627,-0.79783964,-1.8166108,-1.2960782,0.021925068,0.026962621,-0.2728438,1.0304258,0.5083504,-0.006960258,-0.3152908,0.049896244,-0.26951137,0.25097418,-0.12666225,-0.044966277,0.1668477,0.70423055,-0.6485828,0.17267242,0.23836793,0.49762815,-0.35575205,-0.93495905,-1.052284,-0.42056435,-0.04803774,-0.4814648,1.0428532,0.29045317,0.18192714,-0.028174844,-2.5404856,-0.9591689,0.82052827,0.16406114,0.06069088,0.6774535
-0.06559669,-0.16646858,-3.153988,-0.0197975,-0.015922539,-2.658228,0.44581568,-0.06501968,-0.11044514,-0.37317353,-0.66113466,-0.0027258946,-0.19519028,-0.1003486,-0.74263203,-0.28150132,-0.004320957,0.01782309,0.011103418,0.25792074,-0.14352702,-0.7467424,0.14135481,-0.041624837,-0.08204951,0.059299372,-0.009898476,0.38463837,-1.314994,-0.21973974,-0.10332745,-2.5614765,-0.49685785,-0.3974747,-0.066477805,0.06852111,0.13731326,-2.5764844,0.31127334,0.6782794,-0.049834996,0.58196145,-0.62026906,0.026044704,-1.6028439,-0.04777872,-0.21339555,-0.1335255,0.72237545,-0.050347775,-0.39978653,-0.118079096,0.84830475,0.38322684,-0.5057643,-0.19282119,0.89546466,0.747057,-0.028624274,-0.035350442,0.42647573,-0.16403215,-0.52437913,0.6033976,-0.0062434236,0.9752997,0.85800695,-0.029932924,-0.2253293,-0.045007624,-0.2603824,0.16930956,0.13327926,0.052021667,0.04231152,-0.29848343,-1.0990107,0.2436381,-0.022696713,0.7531967,-0.9976086,-1.0941563,0.12467592,0.12188459,-0.74723905,-3.664552,0.02084145,0.46015033,0.026949082,0.05300407,-0.0017677349,0.3072085,0.37120435,-0.28636923,-1.8777199,0.6269601,-0.20003904,-2.1058264,-0.56302625,-0.8036101,-0.34863362,0.5644198,-0.061591625,-2.5544784,-1.0014745,1.2145755,-1.1917902,-0.326947,-0.04435729,0.19574505,0.11032053,-2.3856368,0.69495094,-0.01262995,-0.03991185,-0.090502545,0.5409926,-0.26461905,-0.833233,-0.83422506,-1.8061547,0.24331713,0.022359265,-0.07356325,-0.9470507,0.39239112,-1.0998119,0.29013193,-0.2349765,-0.904764,0.2825832,0.01778157,0.08265806,0.9173297,-0.029964551,-0.72331625,-0.42085612,-0.16556793,0.08923162,-0.09486174,-2.9516294,0.45929596,-0.07495174,0.0025548353,0.11436076,-0.043472007,0.24129006,0.44421223,-0.070947215,-0.9652018,-0.13207106,0.25495052,0.3294454,-0.5206295,-0.6069015,-0.56849486,-0.20136966,-0.99512786,-0.48929465,-0.36782768,-0.26069388,0.008530118,0.14654334,0.02067153,-1.0800104,-1.8292431,0.10829863,-3.5155714,-1.0579389,-1.2861623,0.098463245,-0.29225296,-0.1240401,-0.062603064,-1.8800014,-1.7236471,0.022699062,-1.419943,-0.039639667,-1.687873,1.67073,0.31192797,0.270458,-0.21269445,-2.0189877,-0.005659309,-1.0056261,-0.012538321,-0.059067868,0.010868156,0.025295973,0.22874026,0.021791918,-0.016031578,0.20478505,-1.2217946,-1.2251625,0.025902102,-1.0502071,-2.1675777,-1.6494262,-0.06255291,0.031905107,-0.26096117,-0.059175987,0.16306989,-1.1330006,-0.252542,0.033025764,0.7301149,0.2942152,-2.2071528,0.38648552,-0.17197226,0.349946,-0.018362867,-0.8879544,-0.066581085,-0.16837071,-1.7286744,-1.03179,-0.06920777,-0.07975687,-1.0338236,2.6555486e-05,0.050524134,-0.85325634,0.02218365,-0.28506175,0.015994936,-1.7679727,0.32858375,-0.18745357,-0.76404816,0.44343704,0.56105924,-0.11736798,-2.5484054,-0.79873556,-0.31616235,-0.1827504,-1.7574145,-2.6567419,0.74817425,-0.077144645,-0.02227434,-0.7090789,0.28349534,0.07089201,-0.15415081,-0.16343652,0.79189885,0.8298134,-0.19430815,-0.1181226,0.3493758
-0.038435638,0.44131136,-0.882139,-0.5491294,-0.28422573,0.2940094,0.78607607,-0.26819676,-2.0578187,0.06510077,-0.04419683,-0.11646775,0.046044424,0.066832274,-0.68895584,-0.05181129,-0.022635149,-0.009233558,-0.084403485,0.64402187,0.41916296,0.33034045,0.040332235,-0.2140329,0.69434285,1.3098956,-0.006383337,0.5969508,0.45795143,0.23660551,-0.2963015,0.09757335,-1.1733,0.1432677,-0.00094914244,-0.23137519,-1.4972266,-0.47375718,-0.16176628,-0.83709645,-0.16820695,0.5984852,0.6068751,-0.017267182,0.1826365,-0.10742806,-0.5632624,-0.0680396,0.0008490516,0.021185711,0.6066527,-1.8839531,0.1250939,-0.28480545,0.26514903,-0.0018982815,-0.006562973,0.36720592,-0.003831793,0.0026436374,0.17628081,-0.2218003,0.010021047,-0.2321475,-0.03305224,-0.10708067,-1.1293348,-0.76347744,-0.04101186,-0.054070108,-0.41894737,0.4262828,-1.5216776,-0.46154773,0.05469373,-0.53381133,0.3226263,1.2965207,-2.2810526,0.42429626,-4.680753,-0.40256327,0.00775178,0.053990822,0.23910391,0.017947016,-0.05752389,-1.7116671,-1.0877483,-1.2322865,-0.5378629,-0.6164284,-0.9317391,0.24526022,-0.13670792,0.37293282,0.14938827,-0.35512787,0.4174026,-0.35010383,-0.37606654,-2.6997135,0.056002796,0.2266024,0.19195373,-0.019265134,0.35127762,0.18492702,0.5375722,-0.83760875,0.60177565,-0.10704092,-0.039054852,0.37989008,0.03321545,-1.632931,0.30237898,0.00067285943,-0.5027458,-1.2271115,0.7103177,-0.39423507,-1.3751942,0.064114705,-0.7871045,0.06024846,-0.12221368,-0.6867591,-0.069705084,-0.01979906,-0.33287397,0.0046617016,-0.17939241,-0.4714347,-0.047962934,-0.56628716,0.742057,-2.4994936,-0.5890578,0.008474845,-2.6708572,-0.007944717,-0.02052361,-0.19514108,1.2010148,0.00041208416,0.049425427,-0.16955386,-2.4699128,-0.79545176,0.06861667,0.19703983,-0.019606575,-0.71671116,-0.2636088,0.09691895,-0.02570076,-1.0795527,0.34603676,0.26655355,0.18695867,0.06347126,0.015341768,-0.47546893,0.078967705,-0.47335005,0.11087013,-0.7925505,-1.1539186,0.451906,-0.13929813,-0.16559874,0.09469753,-0.06653383,-0.26065883,-0.037047464,0.04333601,-0.6538688,0.060891032,0.34887627,0.43558884,-1.0293701,0.8860291,0.04525743,0.744266,-0.21383333,0.14320017,0.012035012,0.6154133,-0.19934054,-0.09337863,-0.42170894,0.25775954,0.32640043,0.14799741,0.15180166,-0.82321906,0.92244697,0.23195939,-1.5633183,-0.04280543,0.105837226,1.4113013,-0.1319758,-0.47817165,0.087164745,-3.3430283,-0.61016935,-0.097335935,0.08096345,0.28622124,0.19940907,-0.56361884,-1.139757,0.06136649,-1.2986273,0.45925727,-0.08805873,1.2418839,-0.17031994,-0.124181405,0.25091806,0.051050324,0.58610725,-0.5393311,0.07860173,-0.3512903,-0.055268317,-0.4631081,0.023734933,0.55551106,-0.32515758,0.02047963,0.29765832,0.93092734,-2.238678,-0.536698,-0.5294534,-0.7955922,0.13636558,0.11544727,-0.4026494,-0.86295366,-2.4707453,-0.046877336,-0.08992994,0.5194924,-0.20099525,-0.042815246,-0.07808429,-1.6217775,0.24406543,-0.0017417744,0.105960324,-2.3567264,-1.948864
-1.2515787,-0.20361082,-0.42474106,-0.3973718,-0.8765807,0.46530828,-0.009533874,-0.23250437,0.12730163,-0.400677,-0.39939076,0.0036596602,0.022209689,-0.24656692,-0.35927382,0.00013265276,0.025307087,-0.015086724,-0.06312634,0.3021316,-0.25847575,-0.20941947,-0.53522307,-0.4943067,-0.22580968,-0.6872509,0.016688816,-0.4142388,-1.1497613,-0.21926436,-0.7916329,-0.32903618,-0.03935825,-0.36942223,-0.021520402,0.06395077,-0.77793074,-0.0010537003,0.13786079,0.42216524,0.24664956,0.085663624,-0.15116063,0.03231144,-0.043878686,-0.048103966,-0.1169498,-0.42896578,-0.40506214,-0.034774236,-0.34581414,0.012379429,-1.5117764,-1.0605422,0.34867865,-0.1142232,-0.013973165,-0.19654159,0.1616186,0.039204188,0.06723086,0.0441847,-0.05127637,-0.5776711,-0.05982468,0.0647211,-0.12899093,-1.0706162,0.085355654,0.009855561,-0.59898907,-0.3802633,-0.25523522,-0.51577014,-0.018897347,-0.83821136,-0.1828297,-0.6005786,-0.9246949,-0.14997284,-0.2161779,0.25168443,0.06838541,-0.44582313,0.64237684,-0.062092338,0.038813874,-0.21010298,0.20177898,-0.71603656,-0.39538428,-0.008955844,-0.10948493,-0.50186414,0.268949,-0.18192774,-0.37789077,-0.16347821,-0.014549401,0.26745048,-0.058694348,0.024763897,-0.043810766,0.14468174,-0.37728342,-0.69415903,-0.11858414,-0.14176725,-0.15710787,-0.11141145,0.1340349,-0.09678625,0.23153247,-0.73233074,0.032654684,0.20512335,-0.26736486,0.31283703,0.0043779467,0.087390885,-0.04694712,0.34618974,0.21130958,-0.061805062,-0.18765968,-0.04869281,-0.084712766,-0.57606244,-0.14291409,0.07653181,-0.11642204,0.04561934,-0.09540009,-0.86348504,-0.05870405,0.22787534,-0.6618222,-0.75629586,0.021125868,-0.22668655,-0.38451958,-1.1340584,-0.057170052,-0.24296623,-0.0830649,0.013297789,-0.5644721,-0.6890141,-0.90825224,0.18989204,-0.0919731,0.04338186,-0.15977113,-0.16871044,-0.36517948,0.01575026,-0.69437283,0.08353192,0.08985709,0.121862754,-0.24526176,-0.04361811,0.30166748,-0.60605335,-1.0740913,-0.3454816,0.087577134,0.3151375,0.050955955,0.12406448,0.066809155,0.09617449,0.13861927,0.10000581,-0.47011796,-0.22171685,-0.1481807,0.2526528,-0.03125356,-0.19866729,0.030023236,0.14083539,0.17007811,0.08985663,0.11636295,0.0106452545,-1.0401155,0.03619855,-0.5783559,-0.111556634,-0.2862417,0.09996056,-1.5637102,-0.36305103,-0.21345918,-0.22049657,-0.38488442,0.30932716,0.026730048,0.40091488,0.08041152,-0.09546903,-1.2294381,-0.11035282,-0.14642735,-0.19099344,0.6016234,-0.15743695,-0.059508197,0.23843624,-0.6786392,-1.1341724,0.07213825,-0.7278331,0.29350457,-0.0366931,-1.1763743,-0.3422771,-0.30042487,-0.23435268,-0.86728424,-1.0254233,0.06765824,-0.12079019,0.048574656,-0.8156243,0.22193013,-0.036310464,-0.63104993,-0.01025039,0.23443829,-0.5257907,0.022641234,-0.058674563,-0.17801589,-0.044580076,-0.15122882,-0.0067892475,-0.58352375,-0.708894,-0.99495894,-0.22867584,-0.059274115,-0.22981408,0.008130723,-0.42528522,-0.09632217,-0.0657924,0.12797391,-0.11664835,-0.09751653,-0.29372188,-0.09054242,-0.13145673,-0.35339296,0.19111958
-0.0069993613,-0.049722083,-0.071590126,0.050743736,0.06225884,-0.008011379,0.009290847,0.03169867,0.025074176,-0.058031656,0.0039753728,0.0045477743,-0.049590945,0.046630822,0.025648018,-0.024030646,-0.03576066,0.009686939,0.007605918,0.011838227,-0.02490994,-0.06112609,-0.081743024,0.031001298,-0.0141224945,-0.042799074,-0.030540086,-0.063053325,-0.023890575,-0.06362022,-0.028266652,0.009543036,-0.060848664,-0.00064905913,0.0472624,-0.019055717,0.003840089,0.026964858,0.0020469886,-0.008026072,-0.07046589,0.022987016,-0.11559948,0.057669647,0.00973204,-0.014960319,-0.10329879,-0.0074038613,-0.075977065,-0.04194483,-0.004091134,0.0075667896,0.021880299,-0.08089977,0.014149515,-0.07854744,-0.041697145,-0.029361615,-0.07952005,-0.010068558,-0.055584922,-0.053669244,0.038587723,-0.033304818,0.04332286,-0.03698837,-0.071375445,-0.00816586,0.0004998278,-0.03892032,-0.008737772,-0.066765934,0.018408585,-0.032738484,0.0077060163,0.030523218,0.046865847,-0.061736066,0.049128868,0.045256145,0.02980894,-0.07250907,0.028956918,-0.009739972,0.02143639,-0.08313853,0.028362885,-4.1668095e-06,-0.019111477,0.064972825,-0.031748343,-0.043781035,0.011965544,-0.082059756,0.028354315,-0.09371454,-0.007869519,0.028163247,-0.036119927,0.010195773,-0.0460065,0.0050200764,0.046122603,0.037494667,0.028890677,-0.1027,0.038352847,0.056802236,-0.080940716,0.035792284,-0.022806246,-0.0930811,0.050157942,0.010032815,-0.030269682,-0.05249928,-0.06509871,-0.016540496,0.0018148759,-0.0058918498,0.0060634827,0.05263258,-0.0067383735,-0.014298478,-0.032190315,0.014378163,-0.028810898,0.017162453,0.023816254,-0.018852567,-0.10416347,-0.06096799,-0.003409125,-0.046173107,-0.03995754,0.027696222,-0.08864774,0.015785437,-0.023003004,-0.0599284,-0.04196689,-0.015005089,-0.014134381,0.0147978915,-0.050442696,-0.04299309,-0.052294105,-0.06578232,0.021020077,0.029024325,-0.034790527,-0.027902303,-0.08625347,0.019226281,-0.059585858,0.0008814814,-0.0514178,-0.10125473,-0.009776722,-0.06131975,-0.047649536,-0.04010897,-0.042409327,-0.049284574,0.04724482,-0.019441001,-0.067772776,-0.08278932,-0.022199087,0.017148621,-0.05572497,-0.015836746,-0.024676621,-0.0685161,-0.008260972,-0.07794504,-0.035075154,-0.05393165,0.0063781664,-0.076499715,0.004368,-0.011716285,-0.016420474,-0.071557514,0.0011953268,-0.08255445,0.0062028165,0.02678527,-0.0425116,-0.006677574,-0.04177005,-0.060130987,-0.0016155225,0.0387893,-0.026279477,-0.011873721,0.03553882,-0.024833405,-0.078514084,-0.0048279045,-0.035805847,0.02159759,0.014062903,0.022935374,0.033447005,-0.079779446,-0.05595271,-0.09188189,0.010971967,-0.09995681,-0.090620376,-0.03442864,-0.03011324,-0.053343516,0.042954925,-0.07283339,-0.07909138,0.028503941,-0.053636547,-0.054532085,-0.06735851,-0.06970808,-0.017546436,-0.10756477,0.029942263,0.050834477,0.03465198,0.009347118,0.04043093,-0.0057815537,-0.017188506,-0.026615014,-0.04888789,-0.0534806,-0.025722465,-0.084140934,-0.01547306,-0.039757702,0.0053740516,-0.040404603,-0.022010608,0.027812665,-0.0505256,0.019873584,-0.07281812,0.0028365718,0.027798347,-0.06424463,-0.060661953,-0.0070691146,-0.0057176673,-0.044410847,-0.04595719,0.018722415,-0.0101235565,0.033312403
-1.3788792,-0.5198757,0.24900773,0.15040915,-1.4656482,-1.203766,-0.14585969,0.09836847,0.5263356,-0.42635077,-1.6439679,-0.06533516,0.026501512,-0.03366542,-1.7447445,0.27179343,-0.18496875,0.04575329,-0.13497986,-0.8209285,-0.08821102,0.4258449,-0.3359667,0.43264985,-1.4812104,-0.3842426,0.019082606,-0.7118775,0.8993298,-0.40683663,-0.06202443,-3.4400978,-0.24475746,0.16000147,0.010901427,0.1545317,0.4019449,1.0295445,-1.5913934,-1.0193021,-1.0449253,-0.9720394,-3.7896216,0.017207794,0.17448966,-0.0944961,0.29904118,-0.8059138,-3.4702985,-0.057350747,-0.8217693,-1.4441366,-0.18116508,0.4013344,0.10775665,-1.3096912,-3.5294087,-0.20266823,-0.036582254,-0.04821834,0.023924667,-0.2183802,0.117622435,-3.6327717,0.016921977,1.803713,1.0975417,0.20486745,-0.1694139,0.031149551,-0.21277002,-0.8355719,0.13139959,0.21660388,-0.0035219043,-0.44581962,-0.7053842,-1.4014226,-0.12128642,0.2849485,-0.5497358,-0.8574666,-0.21478556,0.1115215,1.4741511,0.3551886,-0.057241365,0.37348586,0.21531129,-0.079073094,0.5639631,-1.1117326,-1.0156461,-1.2515563,-0.14280862,-0.63900864,-1.2876419,-1.0273398,-0.042648453,0.16682991,-0.5205218,-0.78684455,0.0037979698,0.50224185,-1.2500076,-2.3524067,0.8203785,-2.0260966,-1.0895991,-0.24355043,0.33085367,0.20276251,0.30790886,-3.5187237,-0.04930015,-0.45709565,-0.88391095,0.10439645,-0.35343257,-0.60058445,-2.9414241,-0.4759966,0.47973004,0.0034892838,-0.12833709,0.2754035,-2.0314035,0.1831371,-0.15037765,-0.71014106,0.24800304,-0.055605166,-0.22403334,-0.6288722,0.0013499632,-0.13062882,0.079356685,0.2975285,0.04668982,0.13327481,-2.3106685,0.12373368,-0.06785847,-0.4413318,-1.8693652,-0.0058670416,0.013687704,0.5673785,-1.5873638,0.35479534,-0.27970317,-0.20050251,-1.0335975,-1.4742912,-0.9172412,-1.3276381,0.66487527,-0.15621959,0.19823763,-1.2880561,-0.012347991,0.010022774,0.5540983,-0.16918564,-0.2712827,-1.098155,-0.4445158,0.10543656,-0.26198614,-2.177182,-0.42587677,0.055439133,-5.640923,-0.32754052,-1.5414252,-3.166102,-0.25331366,-0.827317,0.055803195,0.22632615,-0.40786538,-0.5533389,-1.3183985,-0.25418144,0.16099751,-0.14712253,-0.1703642,-0.04991509,0.091723956,-0.037148904,-0.64952755,-0.2928806,0.47973177,0.5875387,-1.3339744,0.17458613,-3.0334651,-0.26969928,0.038898267,-1.1624343,0.28170508,-0.12850262,-0.28532186,-0.8749473,0.3208581,0.3895565,-0.38859615,0.43702906,-0.03643467,-0.5603058,-1.0060875,-2.5346503,-0.6320913,0.045001402,0.6606746,-1.9282534,0.38743955,0.56230146,-0.07654779,-2.851354,-0.040763106,0.75600916,-0.04979982,-1.4970473,0.09894153,0.88664335,-2.515838,0.0015381575,-0.5139648,-0.03316163,-2.1792908,-0.6539847,-0.05692267,0.79899114,-0.33736134,-0.44556302,0.46754533,0.33872372,-0.1344483,-2.4829671,0.37249187,-0.08968586,0.013867284,-1.2651135,0.013565334,0.25054413,-0.7992075,0.30166057,0.24271932,0.37677622,-0.64776176,-2.3667386,0.08752887,-0.31909603,-0.1419431,-1.6611389
-0.12666284,-0.32176545,-0.022144018,0.26059276,-0.6550138,-0.8011035,-0.40147868,0.007995365,-0.2995131,0.015102561,0.32950512,-0.07151962,-0.092184715,-0.031806424,0.26836914,-0.26698422,-0.010454029,-0.05972368,-0.10387701,-0.09068552,-0.28822106,-0.64477056,-0.9072302,0.044485286,-0.014707461,0.15348992,0.018683791,-0.16472511,0.0062179863,-0.3279978,0.018497739,-0.62732744,0.20447491,-0.28954864,0.044602565,0.04320266,0.29320315,0.49333823,-0.33108044,-0.17417803,-0.17699759,0.24391544,0.24609365,-0.053379476,-0.14501448,-0.0014299211,-0.44566113,-0.34284806,-0.06255884,0.0026861727,0.34255674,-0.59500945,-0.13368042,-0.5155027,-0.36482662,-0.081090376,0.34692317,-0.02453425,0.10737273,-0.016476482,-0.11894614,0.05578156,-0.2094512,0.19196233,-0.056425568,-0.017630998,-0.16036725,-0.5909885,0.09925041,-0.023377724,-0.672499,-0.26031816,-0.35839546,-0.6410932,0.0039722174,-0.75653565,0.2239609,-0.96373516,-0.05602381,-0.31466636,-0.3091984,0.10670927,-0.25162077,-0.78625745,0.1493315,-0.10313368,-0.04074403,-0.22355315,-0.13140263,-0.081979364,-0.3721419,-0.32399195,-0.12343997,-0.089572184,0.13408759,-0.14592268,-0.8821703,-0.07985716,0.2774718,-0.34046775,-0.03463018,-0.56459194,0.034482047,0.051683526,0.24308479,-0.352248,-0.2957831,-0.34741902,-0.9726223,0.043916658,-0.42974305,0.14535731,0.24584536,-0.7104624,0.036557097,-0.6035675,0.11905182,-0.6859519,-0.18933062,-0.00037389048,-0.1418251,-0.12255324,-0.19099607,-0.20202951,-0.35598272,-0.027673556,0.4886378,0.07394759,0.17611672,-0.13633403,-0.54469883,-0.02323822,-0.4035432,-0.43120876,0.020333,-0.014502586,-0.18582186,-0.6060919,-0.03592684,0.029488,0.095630474,0.11817801,-0.028149491,-0.12608512,-0.5174253,0.021524154,-0.11447403,-0.2983246,-0.20550498,0.047152787,-0.01264673,-0.39761806,-0.51703835,-0.107713625,-0.07234733,0.043389674,-0.27946883,0.037892997,0.064803205,-0.27753353,0.1137188,-0.049783055,0.008809324,0.022481477,-0.60262835,0.37829128,0.115638636,-0.5544024,0.16967325,0.26548904,0.11290759,0.10250557,-0.22572635,-0.027928784,-0.36742395,0.07118652,-0.024831112,0.16138646,0.018545836,0.052355364,0.31130126,-0.67044127,0.11591366,0.29444203,-1.0940917,-0.020313961,-0.02026675,-0.06207776,-0.40548193,-0.052096583,-0.42259765,-0.05864625,0.042832322,-0.38678715,0.08674007,-0.13874492,0.12366982,0.17879851,0.14864066,-0.42207608,-0.6678894,0.07247719,-0.86654973,0.025823135,-0.10956376,0.19355547,-0.13519265,0.2995458,-0.21141993,-0.60172236,-0.20556912,-0.34207112,-0.21807201,0.45552427,-0.15637013,-0.182779,-0.18293741,-0.14006153,0.47362825,0.25714618,-0.30139863,-0.05178344,0.041640107,-0.17311633,0.03175318,-0.08844772,-1.3179544,-0.0053376257,-0.5031859,0.022425482,-0.31799233,-0.81676275,0.044144887,-0.0060677053,0.13910994,-1.0027094,-0.034730893,-0.15128516,-0.41642067,-0.25640634,-0.22147015,-0.21265265,0.13304448,-0.9398209,0.048267562,-1.0944675,0.13543612,-0.049705904,-0.27355725,-0.014820265,0.29266945,-0.6120187,-0.060855187,-0.0676002,-0.33268243,-0.18002169
0.6526018,-3.0666978,0.68346083,-1.230261,0.10186333,0.6085522,-0.86430174,-0.22308415,0.47032905,-0.17949401,0.55706394,-0.06893826,0.622165,0.13187172,-0.11360197,0.048198257,0.033147555,-0.051406994,0.060237043,-0.9084212,-0.5573734,0.48200098,-0.9734836,-0.672652,-0.2297251,0.5335456,0.0072863623,-0.3985195,0.2132484,-0.94788855,0.008306995,-0.9493629,0.030267736,0.04345104,0.05139193,-0.085748635,0.17501663,-1.2344177,0.2587443,-0.8747924,0.14378533,0.22621654,-0.8154815,-0.019602194,-3.3445237,0.09567756,-0.6118836,0.40354833,-0.30006534,0.03999783,-0.930091,-0.11982327,-0.5353475,-1.3395662,0.51399624,0.0718871,-0.1882994,1.0320201,-0.00056066725,-0.03134183,-0.014413122,0.105369456,-0.30592546,0.4081636,-0.051532168,-0.24014735,-0.1050651,-0.5344683,0.110359035,-0.009753741,-0.54394853,-0.2974248,-0.42338982,-0.79498607,-0.003360033,-0.17287919,-0.6686829,-0.69085336,-0.18639664,0.9150507,-2.4132009,-0.7768646,0.0988005,-0.63285816,0.071153454,0.21150939,-0.03441284,-0.39095223,-0.17064391,-0.30485025,-3.469965,-0.03006384,-0.30963096,-0.7957185,0.119364046,0.10082517,0.96788186,0.86946416,0.1852795,1.1192802,-2.496341,-0.51068985,0.0457675,-0.4626585,0.7116934,-0.06528504,-1.6509343,-0.30098322,-2.0106325,0.40306965,0.9303027,0.2244498,1.5150385,0.94669515,-0.0026048664,-0.35074466,0.82791543,0.54755944,-0.27257842,1.5339274,-0.77749413,0.119979285,0.5834442,0.03271226,0.0693599,0.6787213,-0.7269572,-0.21532953,0.109032094,0.38892296,-0.6608381,0.0073236898,0.08971202,-1.4896833,-0.024837121,-1.6583207,-2.934236,0.044092048,-0.08446127,-1.5830172,0.44911388,-0.15799145,-0.16074793,0.24747631,0.49629518,0.061864898,0.14614108,0.053533472,-0.2576343,-0.06098209,-0.2788796,0.050824616,0.3017466,-0.29798093,-0.2471955,1.6590985,-0.41176727,-0.12349756,-0.2546023,0.2841526,-0.53954756,-0.054871388,0.068060905,0.407562,-0.2451593,0.1902693,0.06768079,0.09704413,-0.13312794,-0.3052224,0.94473433,-1.2726432,1.1049343,-0.02773417,-0.026309174,-0.5935154,0.020695532,0.268748,-0.049869694,-0.4942256,-1.5843389,-0.30575153,0.3496628,0.16792151,0.70006746,0.1317387,0.491962,0.017961212,-1.8760406,0.030576404,0.199913,0.059822414,-0.79478985,-0.019952096,-0.35148394,0.09679356,0.9031221,-0.35248715,-0.039712284,0.62079346,0.31131378,-0.15409961,0.9333477,0.27531716,0.32903242,-0.25290537,0.81728184,-0.06860819,-0.038213708,-1.510862,-0.030009389,0.18376857,-3.4541404,-0.08602648,0.684431,0.34739625,0.31700966,-0.30001435,-0.45132926,-0.055678017,0.32334805,0.12042114,-0.13051535,0.50186974,0.23151334,-1.0857328,0.90042704,-0.051142454,1.0948213,-0.014414923,-0.22853245,0.588205,0.11797224,-0.5938945,-0.64549476,-0.9832949,-0.04195975,1.040356,0.4166829,1.2317857,-0.9819377,1.274612,1.2592154,1.0316725,-0.021113003,-2.1303308,0.111610316,-4.3184333,-0.23071839,-0.31081602,-0.94829637,0.5770364,-0.2798298,0.16254018,0.46934775,-2.850264
1.7062047,0.8372632,-0.24873993,-1.9525796,-0.5128019,-4.460324,0.26069224,-0.19079223,-1.0375689,-0.23768352,-2.7337813,-0.048001602,-1.1862285,-0.063150615,-0.29185206,0.06170317,-0.21626422,-0.13950154,-0.1788669,1.0189904,-0.97148436,-1.6837605,-1.1860217,1.1207031,-0.5716367,1.058425,0.059607662,-0.8034175,-1.2067581,-1.2369065,-1.079587,-0.29818025,-0.20251024,0.013137252,-0.010058588,-0.21221054,0.5684398,1.05192,0.33483884,1.4733833,-0.6690793,-0.40303957,-1.204434,0.009676106,0.6921207,-0.3352673,0.13619587,-0.61173564,-1.0056036,-0.039280035,-0.04005864,-0.037076045,1.2975513,0.76362425,0.6379853,-0.7429861,-0.17577265,-0.45737815,-0.04745266,0.032808587,0.15827627,0.14419842,0.26214528,0.524968,0.036045395,-0.517687,-0.7524761,-1.8797717,0.048433017,0.011235036,-4.1550035,-1.1127894,-0.25430802,0.74965805,0.045806237,-2.209346,-0.25818124,-0.20635585,-1.365836,-0.35637787,-1.7157055,-0.051246524,-0.28431424,-2.748736,1.0754627,-1.0529189,-0.046456613,-0.7580237,0.42896545,0.8474667,-0.28965548,-0.49336827,0.5046217,-0.64145076,-0.4905066,-0.59437656,-1.8544539,-1.8221577,1.283107,-0.7215232,0.15302452,-1.2399125,0.00053601176,0.8330449,0.8967637,0.044217117,0.48458466,-0.16379869,-3.1456985,0.6342989,-0.36847845,-1.3015982,-3.5108259,-3.962758,0.041548844,0.87755275,-0.03716653,-0.15868028,0.14037466,0.11667701,-0.32851046,-0.24920502,-0.18420322,-0.11490645,-0.9850716,-0.3987347,-0.27709776,0.2917013,0.4326929,0.092727154,0.2979833,0.035396487,-0.24137218,-2.1707816,-0.018387899,-1.5254142,-0.23687586,-0.7086096,-0.035036415,-0.5571272,-2.0553527,0.21348627,-0.048229206,-2.1692028,-0.9939249,-0.028340787,-0.04368202,0.17683738,-0.4177043,0.61704415,-0.3252746,-0.30770403,-1.1127477,-0.98569405,-0.80089825,-0.96591616,-1.1620468,0.080615185,0.5130879,-0.39587453,-0.044383626,0.0300166,-0.09864396,-0.008246537,-2.66526,0.363951,-0.045489494,0.069198094,-0.96934164,0.22940014,-0.33485734,0.22434905,-0.74056566,-0.2945057,-3.2633073,0.3195811,-0.33851218,0.1867084,-0.0486734,0.50625044,0.80306894,-0.5174062,-0.0930509,0.21318263,-0.59570026,0.01008568,-2.1144998,0.049813025,0.7479551,-0.14643317,-0.8932475,-0.54386383,-0.35340768,-0.13760817,-0.30561236,-0.27223793,0.5156244,-0.13746233,0.47484404,0.47850913,0.37350804,-0.082891345,-0.44190454,-1.1178526,-2.1668024,0.28442022,0.29290977,0.5763423,-0.07652646,0.18977977,-0.31589255,-3.7752416,0.05064303,-0.19571882,-1.7781869,-2.1432738,-0.80674225,0.019305373,-1.2242854,-0.6456516,-0.2539762,0.17789161,-0.1066115,-0.17414355,0.074317195,-0.9003553,0.021165177,0.036089756,-0.14531359,-0.023683725,-1.3879732,-3.2487369,0.099525526,0.60319173,-1.3387176,-2.9026093,0.032823388,-0.3889128,-2.2856364,-0.59533894,0.06366076,0.036592092,1.9074234,0.4527025,-0.008866148,0.7404594,-1.7465955,0.809423,0.08914094,0.28576523,0.47994715,3.2802377,-0.24955678,-0.032063656,-0.08280669,0.40158927
-0.31124443,0.8189148,-0.15258898,-0.17205478,0.3760481,-0.17771985,-0.031260855,0.17218639,0.8385088,0.07603679,0.5097725,0.051594026,-0.259809,-0.03383545,0.17054236,0.337579,0.12329254,-0.09176817,0.20511839,0.37423247,-1.9212475,0.39886466,0.59633327,-0.8562773,-0.04783033,-0.7247822,-0.010874078,0.44752938,-2.3016236,-0.35348928,-1.9038607,-1.3635219,-4.0192323,-0.010622084,0.013956387,-0.03579883,0.37400284,-2.0235295,0.064389594,0.88738114,-0.1120246,-0.15307833,-2.1069045,0.054847613,0.20561416,-0.11399274,0.27856913,-0.27284136,-0.26361546,0.0066128895,0.24852951,-0.5293775,-1.3149241,0.15604545,-0.24098621,-0.18816808,0.61107737,0.66760296,0.10517985,-0.023594305,0.17135864,-0.017933745,0.057727437,-0.7083715,-0.025645398,-0.53965795,0.1610247,0.7003804,-0.032447305,-0.041518375,0.891848,0.028057963,0.29046902,0.058017973,0.037061863,0.03371429,0.05729655,-0.0020580587,0.8560391,-1.0464193,0.1425772,-1.111901,-0.04019058,0.8188375,-1.019441,-0.010507298,0.035429344,0.25773925,-1.7608467,-1.0461931,-0.85472274,0.14936568,-1.1134311,-0.15311734,-1.0521543,-0.16347486,-0.41365242,0.007951859,0.017885089,-0.032125417,-0.6267897,0.19387703,-0.012608729,-2.845246,0.040775318,0.28826475,0.8886096,0.0060763857,-1.105669,0.64473224,0.47689724,0.45292866,0.22391444,0.4406988,-0.020163685,-0.36271954,-0.37408543,0.13209732,-0.09182833,-1.6682304,0.17920606,0.07547347,-0.064823195,0.010178672,-0.027933754,-0.43231082,0.80198264,0.25358337,0.63399255,-0.10291609,0.22464725,-0.00966154,0.16818307,-0.42340302,-0.004819058,0.22831658,-0.17799954,0.5675314,0.010748715,0.46550608,1.1268406,-0.4801375,-0.024441576,-0.098059,-0.69469535,-0.060717665,0.6584343,0.8156918,0.06613808,-0.5549849,0.0978109,0.047493648,-0.11807781,-0.5962443,-0.13282634,-0.5382091,0.13771251,-0.16929919,0.07417278,-0.10393957,0.16794312,0.061133422,0.0036005746,0.25610673,0.82479465,0.49845323,-0.13852629,0.17073269,0.29973015,-5.576448,-2.222825,-3.5283506,-0.1776715,0.05910709,0.31430727,-0.2881961,-0.0053244065,-0.07803996,0.062158845,-0.017036509,-0.34316283,-1.1056207,0.04948572,-0.014240015,-1.3700249,-0.059254773,0.525674,0.04975424,0.10290869,0.024673304,0.084834084,0.0019682145,-0.82621783,-0.23210174,-0.71518457,-0.30382368,-0.7839546,0.6820734,-1.3043758,-1.9559027,-0.20937333,0.0669731,0.045982607,0.12109682,-2.549981,0.3043783,-0.16895199,0.109915614,0.13369596,-1.0868943,-0.36488038,0.04858725,-0.22101936,0.062798485,-0.28448987,-0.5413873,-0.035424862,0.06170472,-0.075905934,0.5120882,0.49198866,-1.2002015,-0.11812399,0.35477197,0.07771119,-3.3971803,0.28982994,-0.011403196,0.3780223,0.010972226,0.79364777,-0.028748404,-0.49586228,-0.021516237,0.124855846,-0.79132766,0.39252254,-0.020142864,-1.1199046,-0.93925107,-1.0500381,-0.68131113,0.46057352,-0.27493948,0.047727507,-0.3756905,0.91238093,0.4812578,-0.25603753,0.23745011,0.23140891,-0.85109407,1.276757,-0.8853769,-0.3219617,-0.33074006
-0.15316759,-1.6651176,0.33427975,-1.4754928,0.4155068,-1.4827431,0.04636793,-0.37403104,-1.6119974,0.012192239,0.5335422,-0.12600929,-2.924419,-0.022100976,-0.021538995,-0.30328634,-0.11323571,-0.053082947,-0.13885437,-0.021189358,0.04289009,-0.10153272,-0.37350804,0.007152967,-0.5306198,-0.93829304,-0.046873726,-0.3935004,0.54780895,0.009595228,-1.2982775,-0.13464633,-0.9972758,-0.014340841,-0.16618057,-0.39155063,-0.020849891,0.018402424,-0.7605813,-1.3729348,-0.14210366,-0.40123186,0.47034475,0.053697065,0.5176506,-0.10552885,-0.8472887,0.1534895,-0.1598728,0.03698618,0.25475958,-0.16977903,0.41483656,-0.56712985,-0.41418085,0.111602806,0.17646912,-0.003444022,0.06394714,0.008392245,0.13762452,0.120246865,0.10285786,0.724533,-0.006582159,-0.9222794,-1.6811429,-0.34146592,0.040583663,-0.05448001,0.2945417,0.097956166,0.7901023,-0.72966963,-0.027139246,0.11704739,-0.7290764,-0.17563164,-0.012858916,0.3568302,-0.21979663,0.013595336,-0.4055598,0.2831401,-0.81037587,-1.5476179,-0.047397017,-1.0490769,-2.196906,-0.5846738,-1.1027834,0.32542482,-0.028019689,-0.61539257,-1.0413761,-2.31377,0.41153866,-0.7642405,-0.69534284,-1.3429805,-1.0801027,-1.6051825,0.00092542917,-1.1772863,-0.75147176,-0.23679972,-0.20319231,0.22183983,-1.721245,1.0229814,0.7171584,1.0885714,-0.20439117,0.13807566,0.033852547,0.66315395,0.26301908,-0.6179337,0.5431721,0.9000172,0.5989488,-0.7163959,-1.3993603,-0.016012503,-0.22050554,-1.0842394,0.21097155,0.17780718,0.36032942,0.4981312,0.4979732,0.026852392,-0.00087015843,-0.7452457,0.044281706,0.30462635,0.543986,-0.865626,-0.35090646,0.358302,-0.273955,-0.33894643,0.23885642,-0.18997075,-0.088512845,-0.05617468,0.013306071,-3.6387758,-0.6719045,-2.6132944,0.16319986,-0.023653457,-0.011357242,0.10234976,-0.3006075,1.416657,-0.13221031,0.5767421,-1.010928,-0.7825631,0.13945882,-0.050412707,-0.009976897,0.26992285,0.47368604,-0.8036862,-0.6970892,-1.1537553,0.34604093,-0.4778436,0.33854932,-0.073306985,0.65092576,-0.07905674,-0.08264463,1.0696082,0.0101569565,0.6787466,-0.007753007,0.20598112,0.8997442,-0.66749364,-1.292988,-0.06642096,-3.9176915,-0.29784602,-0.11751961,0.026657246,-0.9512323,-0.06360893,-0.6234967,-0.3024957,-0.78142613,-2.3752809,0.6140069,-1.0418452,0.420187,0.50615275,-0.33288515,0.07872859,0.6392512,0.18668978,-0.3888205,0.7545281,-2.0403085,-0.4427927,0.5853544,-0.27858114,0.16064546,-2.2009315,-0.16993736,0.71877056,-0.2149419,0.16932258,-0.12281274,-0.16864122,0.9917582,-0.066083804,-1.1976897,0.67398196,1.0779831,0.061937515,-0.17277616,0.62741846,-0.112076275,-0.37567633,-0.08816791,0.052906126,-1.6256049,0.061163865,0.7311799,-0.3667992,-0.43349236,-0.58441466,0.19835332,-0.9015031,-1.4139886,0.6719263,0.29396045,-0.009647116,0.07908558,0.69165945,-0.65265167,-1.7723426,-0.0685829,-0.09229689,-0.17502043,0.943113,-0.32964167,-0.22763774,0.3460923,0.40166318,0.048417553,-0.6928999,-0.11785625,-2.0029948
1.808014,-0.15626699,-0.1327811,0.20311569,0.22345056,-0.19105414,1.1701823,-0.49404326,-0.1675101,0.30354616,-1.2063135,-0.023018058,-0.35977727,-0.047333695,-2.239382,0.14948286,-0.031562395,0.17377952,0.10027625,-0.41129515,-0.49583307,0.17666008,-0.22392875,0.8301837,-0.82258266,-0.19933802,-0.016964726,-0.0418714,-0.72338814,-0.38222048,0.21958767,-0.4667701,0.09955662,0.17755552,-0.056768578,-0.098180205,-4.198381,-1.0474954,0.46519256,-0.6903503,0.051501304,1.1420801,-1.4059552,-0.016610466,-0.41272497,-0.18410271,-1.0773648,0.44012797,0.32608837,0.04235676,0.3586804,0.7606546,0.41879803,-0.55180556,0.09365034,0.09325498,-1.2561824,0.58343285,-0.04474627,-0.043854922,0.055547167,-0.07584568,0.15244739,-1.5209852,-0.032212205,0.04703174,0.48478365,0.057322286,0.23520103,-0.05926799,-0.13749754,0.39319995,0.3404713,0.16958466,0.045370147,0.17716986,-0.10000881,0.3821717,-0.06235711,-1.7440166,-0.14259125,-0.84114873,-0.025604254,-0.18958579,-1.1782521,-4.5457253,0.055142775,0.25188783,-0.16779174,0.48368004,0.46183294,-0.016206251,-1.6613761,-1.4869171,-1.7668598,-0.5094819,-0.15800905,-0.1908496,1.4341487,-0.5243289,-0.45849046,-0.07782954,0.021151975,0.05157374,0.67586446,-1.265811,0.8010502,0.39777547,-0.23282291,-0.0390019,0.26068,-0.3391594,0.4374599,0.24673703,0.03909687,-0.28282923,-2.4081106,0.11466618,-0.48610157,-0.13449858,0.21027496,-0.8506938,-1.6074421,-0.1314131,0.2727274,0.01008249,0.9480167,-0.6407663,-0.63008946,-0.60788065,0.8383011,0.027065657,-0.09061521,-0.088957116,-0.014901079,-0.035301175,-0.14313939,-0.29224348,0.16737358,-0.03433287,-0.48798186,-0.043943804,-0.037795935,0.28338653,0.26680514,-0.062336475,-0.6714529,-1.874498,-0.07409679,-2.3059,0.104923554,-0.08996062,-0.033768892,0.11373653,-0.12912448,0.28165433,0.22476433,0.2655754,-0.21241558,-0.19412537,0.256941,0.010446243,0.020545818,-1.1224911,-0.37574393,0.06117071,-0.24522115,-0.78084457,-0.18281001,-1.5908554,0.517421,0.050425928,0.33292773,-0.03313436,0.25959155,-0.46608248,-0.065891966,-0.98328745,0.003476873,-0.19313051,-0.65152884,0.26852322,1.2417351,-0.023439063,0.030712998,-0.059915632,0.38611,-0.025687046,0.7096732,0.0103740385,0.5787901,-0.1505858,0.10578957,-1.5532268,3.805722e-05,-1.0362272,0.25156707,-0.6103604,0.08728648,-0.38506982,0.26610443,0.0656313,-1.9441926,0.14179978,-0.23871522,-0.53958577,-1.4750372,-1.2696642,-0.056431066,0.8690301,0.14074998,0.7703634,-0.2934556,-0.30165386,0.33768657,0.48730847,0.5361041,-0.35054892,-2.113684,-0.16559054,0.19375126,0.38078594,-0.94636315,1.078492,9.623226e-05,0.37685698,-1.2437546,0.03771334,0.1462027,0.013836721,0.062550046,-0.0080623785,-0.28970376,-0.5077918,0.5568649,-0.3975748,-0.9132039,-0.01409697,-0.17557113,-0.567514,-0.095981106,-0.7173046,0.6200083,0.12999107,-0.018837532,-0.57799286,-0.5212403,0.59405994,0.18590868,-0.5123251,-0.1061856,0.14905933,-1.7034403,-0.08038353,0.1349605,0.38294438
-0.2477475,0.48322195,-0.8090455,-2.9279852,0.12572859,0.69921577,-0.16287233,-0.48119712,-0.6198827,-0.45912692,-0.27971375,-0.21956675,0.12580149,0.038144045,1.5950642,0.22679733,0.006517063,-0.059997257,-0.053885646,-2.2098305,-0.3556356,-0.4537574,0.13989753,-0.46608627,0.5147412,1.1282389,-0.038472243,-3.2186508,-1.6894505,-0.42579058,0.028771397,0.48916763,-0.5177466,-0.22186242,-0.042720493,-0.07907646,0.1713088,0.8887006,0.70496476,-0.37259397,-0.019598305,-0.07781279,-0.23319748,-0.008750029,-0.1176512,-0.0015417285,-0.67259043,0.37716004,-0.8590602,0.00063154846,-0.083297476,-0.78742015,-0.15373993,0.086024255,-1.5298564,-0.47073594,0.13207428,-0.33338735,0.05960609,-0.008310676,-0.3273718,-0.05265301,-0.28294697,-0.98847866,-0.05234337,0.49264002,0.29803675,-0.3438437,-0.46083838,0.022958629,-1.0316476,0.7288406,-0.15589786,0.058474943,-0.03607683,-3.89904,0.43223184,-0.7589194,-1.117376,0.33726823,-0.09012614,0.8092331,0.029977858,-0.56824595,0.97910887,-0.034224648,0.058532253,-0.9964196,0.19839586,-0.65434456,-1.2266043,-0.96745926,-0.37400997,0.029701704,0.49844983,-0.8170656,-0.34253186,-0.25305313,0.19996059,0.3246284,0.23960014,-2.3184233,0.016138658,0.46931854,-0.36652747,0.25797415,-0.99686307,-0.024036968,0.05603711,-0.35206795,-1.3371485,0.05803313,0.39786217,0.16547903,0.03948113,0.59788936,0.81868,0.048781447,-0.8057773,0.0034826365,0.35685658,-1.2374448,0.11358717,0.064792305,-2.6776223,0.5834379,0.35251033,-0.1527017,-0.43796694,-0.0012072275,0.9082353,-0.015895016,-0.2811824,-0.5681031,-0.009879343,-2.1195898,-0.5626196,-0.61643994,-0.07531043,-0.23223782,-0.30927622,0.2234478,-0.080052406,-1.1878299,-0.29976973,-0.06024032,-0.009320427,-0.59769535,-0.83029556,0.50677526,0.24199922,0.009302098,0.019828603,0.24494438,-0.981214,0.46324506,-0.14730246,0.25637817,0.12814198,-0.16695228,-0.17076515,0.035828173,0.26033854,-0.34783873,0.49976188,-0.16550039,0.11018008,1.0020778,-0.3795857,-0.14297676,0.10318232,-0.29555723,1.1456974,0.007919967,-0.7100017,-0.6622278,0.17850265,-0.38374203,0.004051909,0.3161509,0.34923992,-0.26149806,0.38911793,-0.10745227,0.06899484,-0.22182703,-1.2889148,0.059866168,0.47179845,-0.048929565,0.5010592,0.13443443,-2.6118178,-0.0060638585,-0.33944163,0.13583939,0.06789257,0.5143435,0.3903869,0.5031858,0.084790364,-0.05131492,-0.021727454,-0.3534917,-1.1249021,0.14330286,-0.64093566,0.5083885,0.06787882,-0.27375466,0.6626157,-0.23339485,-3.9134946,-1.6362902,0.8146401,-0.30375442,-0.23438244,0.36803454,-0.49289045,0.050324127,0.4960241,1.7251562,0.03865047,-0.29620326,-0.002941438,-2.7921698,-0.70534766,-0.025753446,0.8036069,0.014847476,0.24133228,-1.2870423,-0.16375536,0.3208754,-3.5416012,-0.6122471,0.040243845,0.35081583,-0.13479067,-0.44146326,0.696955,0.73986256,0.55449677,0.4546107,0.022473594,0.32777506,-0.008798072,-2.4231818,-1.9607316,0.048050918,-0.34037974,1.440576,-0.09170231,-0.6938822,-1.358662,-0.7795057
-1.1538299,0.5306458,0.43739915,-0.21039373,-1.2732904,-0.3895952,-1.6081965,-0.0676725,-0.12975274,-0.13371886,-0.2662653,-0.090969495,-0.027768454,-0.56725985,0.6717006,0.015749404,-0.29739586,-0.0676957,0.09728098,-0.9660816,-0.1775821,-0.8259352,0.9989485,0.38653755,0.8555749,-3.0003533,0.050928228,-2.9115117,-0.9630016,-0.511203,-0.8600249,-0.78396744,0.31814346,-0.26070207,-0.0481271,0.0464849,-2.186266,0.44407204,-2.5218613,1.8585068,-0.8637326,-0.13112877,-1.1578956,0.0577342,0.44499987,0.0076291636,-0.14249822,-0.8187249,0.07031015,0.01787164,0.1611355,0.81256413,-0.16673982,-0.06533482,-0.07757373,-0.04585204,-1.3094435,-1.1124469,-0.06596439,0.000107467175,-0.39682654,-0.13021624,0.19288214,-2.5218742,-0.04091033,-2.0219662,0.2770939,0.74173653,-0.3408871,-0.020289086,0.85502565,0.0010841865,0.6024814,0.025185961,-0.019632868,-0.62918085,-0.20190431,0.60305554,-2.8448825,-1.328457,-3.7622805,0.36438975,0.095592156,0.8625056,-0.030297138,-0.043447074,-0.0048696473,-3.1303532,-0.5249654,-0.4461188,0.7426593,-1.4593003,-1.6662381,-0.13349502,0.055287004,0.14190204,-0.34568518,-0.7404755,0.7168903,-0.7471713,-1.6745623,0.6674532,0.05293934,0.35297525,0.70243376,-2.4022791,-3.8803918,0.08120396,-0.2280082,-4.219266,1.6008657,0.8835151,-0.55572855,0.5614233,-0.025994845,0.26137313,-3.9019136,0.014507381,-0.46289894,1.0085478,-0.89843243,0.20531213,-0.22560002,0.119141445,-0.46061823,0.932981,-0.14341179,-0.7078521,0.88120645,-0.41866133,-0.052455112,0.00966689,-0.037376337,-0.76905584,-0.010759279,-1.1627259,0.21103103,-0.9264989,-0.3854448,0.23688972,0.6316025,-1.2912035,0.020898342,-0.583328,0.5600695,-0.0006722063,-0.2663179,-2.0121481,-2.3025606,0.19751313,0.104904324,-0.062166754,-0.2141487,-0.04780187,-0.34996447,0.2727959,0.19276117,1.0950689,1.3383555,0.86933804,0.12910354,-0.008556704,0.12175809,-1.7427802,0.4188564,-0.39207047,0.093919106,0.06670125,-1.0562763,-0.009090673,0.20562309,0.7634495,-4.804973,-0.19927184,-0.17707233,-0.05369019,-0.17588922,-1.3857119,0.05012939,0.205846,-0.4040599,-0.7649634,0.76545566,-0.12543264,-1.1092528,-0.18737456,-0.10152215,0.039507486,0.1089485,-0.0712919,-0.61854094,-0.2611546,-1.1941825,-0.11016533,-0.12584005,0.023030693,0.07645198,-0.34271455,0.23092818,-0.2063431,0.578093,-0.14384691,0.55005014,0.3515138,-1.2927006,-0.2422326,0.0036768878,-0.24306355,0.12892161,-0.030193167,-2.2622054,0.7661942,-0.7192013,0.73239243,-1.2406291,0.06253005,-0.076320134,0.13202389,-0.043558523,-0.6072886,0.51949865,-1.9383112,0.0057031075,-0.28875285,-0.21437256,-1.9945276,0.4587412,-0.023556463,-0.6326156,0.020659477,-1.3875573,-0.6993214,-0.05331989,0.5768377,-0.029491635,-1.4184523,0.20948835,0.49414122,0.20590252,-1.1296374,0.3273889,0.28227183,-1.0485771,0.6555145,0.014379525,0.22383569,0.045675255,0.19735241,0.0862162,0.08077694,-0.7916671,-0.94600195,1.0104219,-0.012372434,-0.21372852,-0.8650094
0.036312744,-1.777151,-1.6930368,0.0787784,0.8191785,-0.67494535,-0.8185111,0.053865556,-0.47264448,-0.056080252,-0.34990788,0.10702042,-0.6199328,-0.11178453,0.38137266,-0.43444172,-0.0042801574,-0.02282389,-0.2632643,-2.3347304,0.7263567,-0.1312588,0.91341907,-0.12932736,-0.22709979,-0.29733482,0.009228833,-0.36138743,1.1798792,0.5910617,-0.27410504,0.28871226,0.15204015,0.027614238,0.031221012,-0.103181064,-0.82144785,-0.51926446,0.574164,-2.745572,0.035558872,0.2808701,-0.04364276,-0.026766278,-0.22759418,0.100934125,-0.25335532,0.61275464,0.84504056,-0.051124677,0.72956526,0.6218097,0.5107403,-0.40838236,-0.35751206,-0.26536778,-0.58986896,0.41654518,0.06614087,-0.013639942,-0.055370584,-0.10017554,0.37151662,0.5391576,-0.039489195,1.2705754,0.7415262,1.138623,-0.13748826,-0.0016519353,0.90818596,-0.22876911,-0.900065,-0.22395559,-0.008424588,-0.5479772,-2.1579714,0.5650951,-0.1774561,-0.29304555,-0.24361286,-0.8628843,-0.25325835,0.89866465,-0.56204814,-0.2755406,-0.02088654,-0.2734936,-0.2375407,-1.2079504,-0.0813555,-0.20337585,-3.2396986,-0.41246578,-3.1240845,0.09650806,-0.061009053,0.5182834,-1.0976859,0.7770547,-0.14487405,-0.4775221,0.056318432,-2.2748117,-0.17001018,-0.65346426,0.9671669,0.07234103,-0.020216191,-0.5693739,0.22066364,0.12665384,0.026988411,0.85688657,-0.052715953,-0.12329047,-4.2460055,0.90933144,-0.24142562,0.069223225,0.3565564,-0.29685828,0.0863875,-0.071928844,-0.68397826,0.7856581,0.11404646,0.0588327,0.12694608,-0.13971663,0.5611784,-0.05388131,0.24639955,0.7066697,0.03089682,0.3512098,-1.4494036,0.032168712,0.036927253,0.13518687,-0.25986126,0.03917631,0.14340073,-0.0024220983,0.65209657,-0.010843024,-0.6563762,0.010660278,-0.17681032,-2.6368594,0.13490525,0.088513754,-0.35359514,0.514455,-1.2582908,-0.5361791,0.3283338,-0.058729183,-1.1911811,0.18271247,0.24768522,0.049480528,0.19749458,-0.8590012,-0.5662043,-1.8630431,0.30043033,0.25567785,0.008161619,-0.5028587,0.79041755,-0.27221546,0.6731231,0.083127335,1.0424924,-0.14754736,0.06289275,-2.1448674,-0.0052571967,-1.1266077,1.3183639,1.4883232,-0.43950564,-0.03501617,-0.25348848,-0.017321445,-0.3828199,-0.032113895,0.19922173,-0.023581702,0.055792637,-0.6037447,-4.6663,0.41928554,-1.8306552,-1.2735301,0.58727986,-1.3138788,-0.70902485,-0.3126147,-0.16518971,-0.13903075,0.037131667,-2.2576437,-0.13979445,-0.112229586,-0.80245423,-1.849343,-0.08083221,-0.09274949,-0.4196933,0.9308117,0.17496575,2.0512133,0.22845435,-0.026322866,0.018542266,-0.28831792,0.2877453,-2.534837,0.77296,1.2548909,-0.21332575,-0.1328022,0.017336685,-0.35837716,-0.10699397,-0.01725164,-0.77798563,-0.018207308,-0.97096956,0.063371785,-0.077442095,-0.07959099,-1.7073104,0.30071416,0.020009145,-0.4604581,-0.088600054,-1.2891964,-0.83224887,-0.22599901,-0.6791899,1.3838278,0.032756172,-0.44152245,-0.38486615,0.6574205,-0.7889629,-0.40241632,-0.12324133,-0.38947007,0.20718534,-0.34586614,-0.0012873169,0.38919055
-0.5413485,0.4346533,-2.5611775,0.17467028,-0.57551,-0.13102801,-0.28582433,-0.44616446,-1.6904836,-0.1079411,0.6351888,-0.289367,-0.123586625,-0.042461082,2.1167424,-0.025903137,-0.17494184,-0.18920037,-0.039433356,-0.3679069,-0.10649883,0.19361088,-0.073028035,-2.4238157,-0.10398814,-0.29856315,-0.05881364,0.109511375,-0.14651588,-0.5018296,-0.28627774,0.021578254,-1.9124495,0.10970933,-0.02705766,-0.17767434,0.48821735,-0.697052,0.5534943,-0.08139204,-0.027213415,0.77969533,0.6310538,-0.012808137,0.08613242,-0.27548787,0.2694411,-0.32686523,0.30065304,0.06182415,-0.57442117,-2.0722806,0.34862053,-0.71660465,-0.44560617,0.081769474,-0.004631123,0.48763102,-0.018638572,-0.030441195,0.11034719,0.052092094,-0.77157253,-0.9194935,0.0014377311,-0.8089671,-1.0234653,0.36060143,-0.18816702,-0.048468344,-0.8324047,-0.27951908,-0.17583157,-0.12920815,-0.027675025,-0.35694,0.17821032,-0.6256993,-0.9289916,0.98589665,-4.3371725,-0.77905774,0.097899646,-0.38685122,0.77337646,-0.9240673,0.012115747,-0.6872278,0.039237507,-0.29043683,-0.083957754,0.062021673,-0.4348435,-0.06644391,0.38535285,0.1922846,0.07929828,0.73236,-0.108085945,-0.07061908,-0.4904907,-3.1101515,0.014158137,0.09439972,-0.15115301,-0.71662956,-0.7015057,-0.2995598,0.4127957,-3.4740393,0.6421796,0.13888413,-3.392336,-0.29603362,0.0037220567,0.15593989,0.7614166,-0.07217938,-0.019111238,-0.046220444,0.7386724,-0.20283757,0.17365801,0.026442368,-0.2999559,-1.3789725,-1.0347229,-0.50259274,-0.64696425,0.0448779,-0.051674694,0.03964912,-0.83656174,1.0798255,-0.061673366,0.0010602522,0.7484954,-1.7081268,-0.36894962,-0.17642137,-0.8860446,0.27496144,-0.033587094,0.11864327,-0.56508625,-0.029850118,-0.026686303,0.66623044,-3.3700156,-0.1641912,-0.07169457,-0.3884594,-1.5427079,-3.6991692,0.1450558,0.5603465,0.008664958,-0.055956677,0.14771397,0.2940209,0.14988257,-0.010617806,-0.010775254,-1.160751,0.46119264,-0.65837115,-0.05388257,0.41735062,-3.0664916,0.34606224,-0.3025373,-0.6652905,-0.52786016,0.017215349,-0.36088973,0.40315166,0.09878798,-0.85544175,0.028777778,0.9321507,-0.83986765,-0.39416707,0.5887975,0.10531098,0.84898716,-0.595865,-0.13811275,-0.028965771,0.45173264,-0.19318284,0.9911939,-0.9385088,-0.24258955,0.9027447,-0.2065309,0.122551024,-0.06869692,-0.18959112,-0.35192266,-0.571845,0.22942649,-0.060440503,-0.8508891,-0.35764715,-0.3261476,0.09313471,-1.8687234,-0.10624833,0.18441105,-1.9287481,-0.05680885,-0.48691526,-0.48277014,-4.690195,0.9616946,-0.2868866,-0.904346,0.11996028,-0.7534583,0.39395455,-0.7008707,2.3909516,-0.04764753,-0.17906266,-0.19056171,0.14295565,-0.087282985,0.018044464,-1.6767088,-0.01385349,-0.37608254,0.05642747,-0.08885091,0.49887222,0.32580844,-3.4967988,0.08196238,-1.2199616,-0.32192585,-1.3858602,-0.7290675,-1.3813602,-0.967717,-3.01976,-0.020612404,-2.193133,-4.721989,0.42908034,-0.039625127,0.13140227,0.4422519,-0.925418,0.05412988,0.3055171,-0.54406285,-1.970931
-0.77879727,0.48941827,-1.699124,-1.4444026,-2.019646,-2.7751517,0.4684144,-0.24272749,0.03844118,0.40505487,-1.0210108,-0.097253084,-1.4091154,-0.12282024,0.0003544981,0.13395429,0.039142787,-0.112655714,-0.07870376,0.73108613,-0.35922316,-1.3176079,-0.12628844,-0.16623358,-0.31076506,-0.2025775,-0.048009112,-0.050842583,1.043099,0.083778486,0.39731452,-0.72578967,0.21150942,-0.4324109,-0.020410025,0.038645465,-0.3526024,0.8119766,-0.54519385,0.015148622,-0.09005556,-0.047116585,-2.623,0.02770894,-0.44501287,0.00056560367,0.07504474,0.05859744,-4.147246,-0.0015369356,1.1844898,-0.2301971,-0.95772433,0.19197473,0.09285379,0.19569176,-3.6286333,-3.774952,0.13082956,0.032772228,-0.34936705,0.032166284,0.08116007,-1.1821837,0.06719369,0.27920768,-0.12894364,-0.19923133,0.27265847,0.033850826,-0.27110156,-0.91613495,0.6338499,0.43632296,-0.009992242,0.38073647,2.6639085,-0.051066414,-0.36397263,-0.063118674,0.49908143,-0.25634384,-0.58258814,-0.7675165,0.53873426,0.78381306,0.038522616,0.83566654,-1.6823486,-0.70479655,-0.039642725,-0.87035865,-0.89705634,-0.93881214,0.8162752,-0.58230937,-0.5319086,-0.74027646,-0.18975605,-0.49549615,-2.500426,-0.46392944,0.053367287,0.26036218,-0.39127332,-0.686488,-1.313594,0.3081697,-0.581424,-4.1707335,-0.29162282,-2.5044842,0.36902136,-0.5361449,-0.030197578,-0.6452529,0.4038298,-0.33844087,-1.0026336,-0.7820529,-0.0067250086,-0.13565809,0.19711025,-0.0074000154,0.22461785,-0.5328013,-0.42748013,-1.5285648,-0.808403,-0.47653356,-0.051817514,-0.030908078,-0.25534812,0.32546794,-0.041554064,-2.1992795,-0.30960763,0.06057846,-0.012409785,-0.24153954,-1.3649889,-0.37938532,-0.060762353,0.97333,-0.30145612,0.035343334,-0.12386376,0.4906231,-0.46659172,0.6267895,0.09168596,0.12384645,-0.6033259,-0.34265533,-0.21928014,-0.13806032,1.6929106,-1.9956865,-0.34987113,0.1869802,-0.4298668,0.056834497,-0.46320412,0.28588805,1.2811979,0.44570822,0.0654146,-0.8368712,0.3421272,-1.9289627,0.6303869,0.35687655,0.31806663,-0.03870649,-1.192929,-3.535691,0.019163543,0.3385715,0.055705972,-0.017928354,-3.6862872,-0.23795642,-3.652963,-0.2298867,-1.161023,0.025811793,0.90782994,-0.013216026,0.10941273,0.09138273,0.25295922,0.0016346205,-1.0379424,0.18154314,0.77168936,0.2290463,-1.386764,-0.358192,0.23992972,-0.3058211,-1.9148792,0.006475457,-0.7140691,-1.1583651,-3.042571,0.25546953,0.1424771,0.8168976,-0.18781568,0.79069275,0.41253427,-0.1982386,-0.3988475,1.1664542,0.43820906,-0.23227032,0.4730672,0.28367114,0.8627956,1.0491432,0.53159434,-3.4669015,-0.016753418,1.2079631,0.12942226,-0.31085715,0.29216412,-0.038560204,-0.9777413,0.02207242,0.4711383,-0.9117109,0.03737922,0.043407105,0.28811455,-1.1155056,0.16505273,-0.79619503,0.3727102,-1.7240515,-0.15037179,-2.6154993,0.53407395,-0.16192053,0.072470814,0.049056493,-0.36575568,-1.6240118,0.3920378,0.10994806,-1.0851976,0.9485906,0.018456653,-0.0512006,0.45768,-0.2653375
0.31698814,0.39140517,-0.22218578,-0.46741182,-1.0372293,-2.9177685,-0.3203743,-0.17132421,-2.1646037,-0.18550095,0.15899831,0.10788697,0.44533616,0.01785812,0.18630502,-0.09048215,-0.09727966,0.0513861,-0.21115907,0.42383727,-0.5484635,-0.19071029,0.14630288,-0.44875792,-0.56659096,0.54688394,-0.027168036,1.0594255,-0.3420319,0.007010857,-0.2582229,0.21315098,-0.6650626,-0.06410973,-0.07633042,0.13577026,-0.014883763,-1.3833364,-0.0531499,-0.19781026,0.16627213,-0.8244386,-0.23135427,-0.044524707,-0.46893704,-0.0018746424,0.021778269,-0.08344811,0.8743391,-0.05262676,-0.107673705,0.18602107,0.070953675,0.13193215,0.52459455,0.040981665,-0.32821602,-0.12758821,0.0063116387,0.04935906,0.18874279,-0.1020875,0.0807159,0.29517907,0.059433993,0.4927842,0.022296024,-0.88060135,-0.069678724,0.011022717,-0.20505428,-1.6476012,0.3906133,0.030203924,0.0038222075,-2.2534835,-3.2568946,-0.9890779,-1.9049722,-0.22428748,-0.9021229,-0.03756527,0.090443164,0.046537165,0.57379067,-0.20305239,-0.019885294,-2.437517,-0.016824087,0.30550596,0.06274878,0.12592682,0.5275406,-0.5473503,0.03382199,-1.0413407,-0.13064227,-0.7972762,-4.4949017,0.044656765,0.3183451,-1.8093688,0.013219848,-0.5551372,-1.1899879,-0.29253328,-0.7217569,-0.18823163,-0.5902018,-0.12441705,1.3860989,0.5335729,0.4755341,0.46715924,0.0013729036,0.2593178,-0.089446485,-0.4102593,1.241797,0.2419991,-0.9751768,-0.21467742,0.34853145,0.018888904,-1.2805195,-0.32479626,0.926182,0.23447591,0.3235099,-0.06974499,-0.11564394,0.042152576,-0.07231192,-0.70777386,0.0037121996,0.4189475,-0.19581252,0.1958955,-0.0021783095,0.38081482,-1.0054666,-0.036209933,-0.029861638,-0.824387,-0.2809823,-0.0069270805,0.021533875,0.27363646,-0.97450495,-1.049952,-0.07092239,-0.04641435,-0.4045835,0.3288224,-1.4570113,-0.1583691,-0.9211682,0.6057067,0.87754065,-0.9719405,0.050497703,0.017189063,0.075386964,-0.27342713,-0.27182424,-0.5391888,0.14856799,-1.6349946,0.6129564,-1.070314,-0.38973463,-1.4291177,0.19128264,0.074363545,-1.7687645,-0.32950035,-0.030474275,-0.57745546,-0.050376453,0.36196226,0.4280433,-1.7982198,-0.684825,-0.03463105,-0.39185363,-0.061957993,-0.15187511,0.03211274,-1.1181935,-0.021071766,0.108158976,-0.39878693,0.6135192,-0.8089978,0.22525504,0.11031293,0.0949714,-0.4439264,-0.3879543,-0.038289122,0.31005612,-0.014808379,-3.7915707,0.46844047,-1.9131244,-0.12955496,-0.629908,0.294091,0.047075957,-0.52844,-0.5485825,0.51204383,0.22376083,0.6707407,-0.8557064,-1.1585113,-0.2363869,-0.13512823,0.5311775,-0.65175056,-0.30993658,0.101078525,-0.02796107,-0.06494072,0.0021428894,0.32176235,0.17486176,-0.029427812,0.3296781,-0.013262851,-0.447528,-0.6998209,-0.03461937,0.14953485,-1.0723418,-1.3033807,-0.06359426,0.033805445,-1.7267125,0.26947057,0.57338667,-0.2765473,-0.63396806,0.8097299,-0.06744553,0.24592279,-0.4528864,0.18439989,0.13845462,-0.0012116588,0.669431,0.83017045,0.3100836,-1.5553006,0.0007590484,0.1199921
0.834626,-0.5947821,0.71595526,-0.80552024,-0.19602226,-0.055553284,-1.0933863,0.113500305,0.14262025,0.24335939,-0.070304595,-0.19584693,0.016554862,-0.06836537,0.44837922,0.4466386,0.22278865,0.0031266266,0.3721077,-1.7646589,-0.52183676,-0.2279707,-0.16781983,-0.5575255,-0.5513101,-0.10027976,-0.013099648,0.29813173,0.5391796,-0.2551138,0.004076024,0.9684947,0.11066147,0.13310869,0.06683717,-0.12944905,-3.6300523,-0.96462804,-0.7507279,-0.06646755,0.06490518,0.0293223,-0.7637488,0.005935602,0.040537227,0.08173782,0.112060785,0.67769444,-0.15419565,0.03642077,0.03700192,0.1710766,0.2553445,-0.98195595,0.6602715,0.23698984,-1.0601114,0.39484814,0.03341336,-0.025234401,-0.14920816,0.12373365,-0.067161694,0.3228924,-0.010010415,-1.0163196,-0.6227043,0.15995108,0.18007667,0.019814797,0.27042493,0.036492825,-0.20718613,-1.1950048,0.021949686,0.608999,-0.92625177,0.73093337,-0.22455633,-1.1874803,-0.5732086,0.36250794,0.20099165,0.2844938,-2.4435322,0.013434709,-0.051697828,0.18975176,0.058277424,0.596722,0.20408916,-0.3349798,-0.7500463,-1.9505572,-2.7635527,0.62860346,-0.09404467,-0.20747903,-1.7138464,-0.4936277,-3.4882123,-0.37353158,-0.042414673,-0.37450033,-0.5407358,-0.71171606,0.9630241,0.4608725,-1.0783675,-0.37774476,0.25240543,-0.5440192,0.78161937,-0.123867236,0.050218172,-0.8505691,0.3382742,-1.6575339,-0.70288795,0.20679072,0.52985823,-1.1323307,-0.4513862,-0.031710465,0.4930761,-1.1547666,0.09019144,-0.7754709,0.12523097,-0.028055226,-0.09372519,-0.02891057,0.02422101,0.3185712,0.058272816,0.05836498,0.8218603,0.26692885,0.08738124,-0.20960754,-1.0407479,-0.51745564,0.13216525,0.23676619,0.9830174,0.046439916,0.048190895,-1.1004939,0.17883272,-1.1328298,0.2291297,0.27026632,-0.052453015,0.43029422,0.17906772,-1.2853562,-0.8853088,-0.30116293,-0.25105107,0.53170097,0.08644905,0.05596628,-0.41693294,-0.31008908,0.22555266,-0.1287341,0.28309867,-0.420861,0.36675486,-0.8113479,0.22396448,-0.19332847,0.71403927,-0.06443577,0.2464777,-0.101494655,-0.022335656,-0.5693475,-0.041545697,-0.35711357,-0.7700271,-0.4310499,0.46203995,-0.09842452,0.2573752,0.035034623,0.39100748,0.03041064,0.18433163,-0.008628334,-0.47179186,-0.22498803,0.056268763,0.89408296,1.272109,-0.37545913,-0.0008132687,-0.4309841,-0.36752844,1.1526315,-0.12523387,0.07887937,-2.541283,1.2818578,-0.19351344,-0.5247658,0.7996046,0.026587687,-0.09982366,0.5330326,-0.06763728,0.31510973,-1.1521413,1.4028502,-0.20621088,0.34900078,0.2616665,-1.6073375,-0.21281216,-1.0408217,-0.8803765,1.2025554,-0.28029945,-0.9776792,0.049461,0.13033983,0.5445758,-0.010621436,-1.0925182,-0.03597258,-0.22851512,0.2211244,0.008436578,-0.6203849,0.52008533,-0.17016257,0.34150383,-0.6103266,0.36524954,0.71029353,-0.9420569,-0.06691637,0.86593175,0.23175743,-0.045377497,-2.4088986,-0.25756174,-0.6988243,0.06695347,0.05859992,-0.37546068,-0.13391955,-0.33678976,0.38863063,-0.49959004,-1.1301452
-0.016991964,-0.1034428,-0.071966775,-0.16336696,-0.24603005,-0.44327798,-0.094850175,-0.021263527,-0.16475236,0.0511371,0.20189127,-0.0846464,-0.5748196,-0.28598025,-0.01665488,-0.10647113,-0.06399852,-0.10584458,-0.11912549,0.11926968,-0.19238013,-0.22675347,-0.5024066,-0.033877406,-0.033953615,-0.3526339,-0.007066712,-0.043377977,-0.10116562,-0.09672092,-0.10981358,-0.14601874,-0.29125017,-0.11111835,-0.010446704,-0.031926673,-0.116667494,-0.00202403,-0.34365556,-0.06777091,-0.31131735,-0.07222932,0.0009863055,0.056412227,0.061357915,-0.05845418,-0.05748545,-0.29438958,-0.258319,-0.013056591,-0.13428104,-0.16256176,0.024282722,-0.24406025,-0.31106597,-0.16717309,-0.3782855,-0.18311217,-0.02947638,0.021211162,-0.15032496,-0.02073976,-0.28794944,0.0069651175,-0.042257912,-0.24366139,-0.328575,-0.58122313,-0.44036782,-0.0214144,-0.45411602,-0.13693516,-0.20656633,-0.04316483,0.015300132,0.041392103,-0.13126841,-0.07590229,-0.08342705,-0.1577358,-0.043237925,-0.011047113,-0.26705503,-0.47258836,-0.7387984,-0.2905985,-0.03218671,-0.07147111,-0.502771,0.034951273,-0.09544317,-0.18852067,0.012689799,0.111869186,-0.08928286,-0.0075132945,-0.5799796,-0.20566577,-0.514989,-0.019162612,0.12170474,-0.1415779,-0.050370008,-0.5236973,-0.4518891,-0.1458181,-0.38716596,-0.10495343,0.032656822,-0.21766144,0.3688475,-0.08902476,-0.36170483,-0.3366173,0.034108832,-0.4034482,-0.4849754,-0.11918862,0.078522004,-0.045061298,-0.14582632,-0.09822843,-0.04423508,-0.06986499,0.008482114,-0.19405885,-0.103439935,-0.21775708,0.2610254,0.017092446,-0.3861215,-0.024811469,-0.24208622,0.049089517,-0.02508369,0.05891647,-0.093541704,0.045471214,-0.10798324,-0.026344677,-0.1396382,-0.38896534,-0.07328274,-0.14111808,-0.21278086,-0.03048946,0.014372022,-0.029532582,-0.08597981,-0.41470462,-0.15423472,-0.18478817,-0.24886937,-0.26145768,4.2975036e-05,-0.015048686,0.016370991,-0.06561763,-0.72274435,0.033057097,0.05013788,0.019360784,0.12131385,-0.054827176,-0.0038799439,0.061293807,-0.26881185,-0.3926957,-0.23769996,-0.052812032,-0.17033799,-0.041423887,0.042581733,-0.21992354,-0.26047465,0.04478146,-0.21149097,0.04537198,0.014790535,0.010275002,-0.11437052,-0.11518718,-0.25211808,-0.1255986,-0.7550291,0.004768108,-0.40615225,0.025541551,-0.3566221,-0.033794753,0.014056991,-0.102450356,-0.19948873,-0.12563427,0.08313121,-0.07871843,0.21808441,-0.18647918,-0.06729977,-0.2984574,-0.0125703,-0.066918895,0.23202719,-0.18218228,-0.40037394,-0.22830231,0.03792846,-0.18719143,-0.03848042,-0.21227048,-0.21038727,-0.0032216357,-0.15895936,-0.2640146,0.012790814,-0.06210757,-0.37007508,-0.4208091,-0.29511964,0.054602012,0.01811875,-0.14169806,-0.17477457,0.24201901,-0.048927523,-0.20524333,0.093371816,0.020327076,-0.1957115,0.058220513,-0.1435312,-0.2568742,-0.038758874,-0.3304427,-0.070446104,-0.2283329,-0.07066419,-0.21775183,0.01042317,-0.39819348,-0.37605816,-0.12476425,-0.37174913,0.001971891,-0.01194577,-0.027352912,-0.20118031,-0.24099766,-0.23957732,-0.008700871,-0.22218786,-0.15863289,0.085727006,-0.13508251,-0.09341107,-0.04950123
-0.663273,-0.009124951,-1.107242,-0.6852598,-0.8157036,-0.15623218,0.5242916,0.0066413,-0.189208,-0.13365708,0.020295082,0.10882352,0.22100511,-0.054368243,-0.2813081,-0.16966413,-0.49223223,0.020703781,0.056456365,-0.48474717,0.8523784,0.00654254,-0.4242981,-1.2498568,1.0022393,-5.7781663,0.011725552,0.29180166,-0.6431145,0.22822176,-0.1217673,-0.079495855,0.20320968,-0.37921435,-0.049219396,0.098370746,-0.93597347,0.33909383,0.119012795,0.40643552,0.3042849,0.16309416,0.31144074,0.026550934,-1.3712809,0.1120792,-0.10371748,-1.3566407,0.16489777,-0.06036345,-0.9030081,-0.47854444,0.38467708,0.039579574,-0.08851871,-0.095199145,0.80550957,-0.06667732,0.09407066,0.0017798617,-0.08125722,-0.32138586,-0.09940015,0.14647233,-0.019898491,-0.012889903,-0.25119874,-0.1540147,0.2672207,-0.018598393,-0.9195745,0.72940135,-0.16887774,-0.14162968,0.014694147,-0.47958812,-0.93470985,-0.04725207,-0.5145814,0.3455755,-0.6865049,0.26926434,0.032910835,-0.6376139,1.09594,-0.12977497,0.016145848,0.22022752,-1.41487,-0.40250352,-2.8118813,0.36473963,0.76796705,0.64433193,-0.2678355,0.30756605,0.55019766,-0.35676867,0.33481076,-0.79966384,0.5283736,0.56222904,0.009373788,0.2170672,0.4135178,-1.3675674,-0.9031703,0.023193693,-2.7825217,-1.1724924,-0.2993601,0.045454662,0.7165428,0.48689896,0.022827113,-1.5171317,-2.3912303,-0.47910365,-2.2554357,-0.78310496,0.3531705,-0.1118032,0.24140322,-0.0252036,-0.8546108,-0.27494654,-0.24352999,-0.4640137,-0.06426545,-0.6565765,-0.1302362,-0.008331612,0.0017163089,-0.09335618,-0.016963251,0.44163948,-0.4018023,-0.19458982,-0.04815048,-0.07871567,-0.9390085,0.14960587,-0.08559491,0.31725886,0.3834996,0.010921054,0.29841352,-0.8946252,0.27962157,0.025828166,0.083639145,-0.15163803,0.07758552,0.96593934,-0.2613153,0.033519987,0.9650156,-1.4875715,0.82773715,-0.455418,-0.11755525,-0.014640421,-0.34495363,-3.5836637,-1.3565978,-0.4795811,-0.11915895,-0.6411117,0.29582313,0.047899432,0.25104147,-0.22157654,0.5261437,0.12842187,-0.5390874,-0.42664084,0.03772419,-1.6136581,0.042894438,-0.09532995,-0.02711214,0.19712482,0.32942158,-0.0064555905,0.29973456,0.014388641,0.4451583,0.010270268,0.049113706,-0.020147273,0.2565258,-0.037707068,0.35582274,0.1736867,-2.5630548,-0.09242903,-1.0029767,0.040335547,-0.061086126,0.46187836,-0.59374577,0.076381266,1.1212122,0.48010358,-1.2464228,0.23525248,0.057697475,-0.53443664,-0.2073335,-0.18481849,-0.8445424,-0.2576034,-0.158734,-0.39077008,-0.4139509,0.09602611,0.36927274,0.1982934,1.1548984,0.23898558,0.56429386,0.05718347,-0.1393009,-0.8261157,-0.2522868,-0.51638067,0.12421375,-0.0150066465,0.091530465,-0.016446324,-1.1101096,0.5798636,-0.2617606,-0.038447853,1.1234629,-0.112522945,0.0057962667,-0.16125329,-0.28287074,0.5863798,0.42152584,0.07781462,0.13905272,0.4282424,0.04198596,0.19148643,-0.1482402,-0.4570247,-0.7786364,0.0054981266,-0.090792134,-0.5774392,0.5358027,-0.37127414,-0.17916133,-0.3434754
