0.090785325,0.024509182,-0.001452493,0.04232219,0.42365545,0.3567295,-0.18807338,0.098559625,0.070348494,0.02797935,0.06030552,-0.9731891,0.015617633,-0.061938137,0.098788515,-0.020285076,0.045074817,-0.03125621,0.32760456,0.26621532,0.5673825,-0.17618854,0.13569884,-0.043848574,-0.025913645,0.34312478,0.11827795,0.013918192,0.015234669,-5.1252294,0.2629118,0.050206393,1.1205189,0.6605085,0.024360606,0.0045979586,0.18693718,-0.0623742,0.16060887,0.038005453,0.34702313,0.46498168,0.9452145,0.13945082,0.21808904,0.5400606,0.21377414,0.08287563,0.17434433,-2.3806276,0.4206841,-0.062395055,0.44234586,-0.06641782,0.19898279,0.28875136,0.17649576,0.11640758,0.12751155,0.30515477,-1.0904362,-0.028818319,-2.1646485,0.7506605,0.41560858,0.20956895,0.031791683,-0.032503378,0.19775894,0.39882618,0.4980278,0.0032485076,0.036112666,0.30414727,0.1298241,0.09143898,-0.9407573,0.17977938,0.5793463,0.406077,0.43054205,0.07336489,0.21853589,-0.0022571702,0.3715175,0.07216552,-1.4695036,0.15240821,0.34947202,0.270671,0.29286572,0.2934816,0.3689778,0.87552226,0.08667131,-0.5784797,0.07585226,0.12727316,-0.63596684,0.031431504,-2.0868716,-0.06831519,-0.0099646,-0.010615888,0.16818947,0.13936529,0.32172096,0.2607354,-0.9389349,0.42099777,0.35608155,0.23951167,0.0226552,0.08310582,0.430611,0.5282068,-0.40916553,0.07091464,0.25624397,0.17671497,-0.6148545,-0.19375588,0.41293767,-0.15228312,-0.06122038,0.1306527,0.62482077,0.02834009,0.08564065,0.17216721,0.3336043,0.31533766,-0.030216876,-1.2646029,0.59553355,0.37846678,-0.015961653,0.00790608,-0.29255548,0.009734034,-0.07870126,-0.021335509,0.5582366,0.1556492,0.14602524,-0.037542686,0.3403218,0.24873851,0.027634652,0.07673182,0.4785151,0.12717119,0.019597108,0.06766177,0.358798,-0.03927376,0.09347334,-0.027195452,0.2906931,0.58680934,-0.030401789,0.24375452,0.0065340064,0.025767766,-1.2069932,-0.030015597,0.46099636,0.051659748,-1.7203549,0.04704509,-0.10601856,0.30869088,0.007714471,0.04104561,0.11395396,0.26286373,0.28979594,0.06658156,0.039169338,-0.0054044197,0.5650627,0.2246739,0.65231055,0.47608662,0.11354623,0.3544848,0.04888817,0.03511867,0.049378734,0.7123791,0.40596944,0.34885675,0.06380313,-0.7425063,0.02231556,0.33905065,0.003420263,0.10326333,0.19336729,0.11920563,0.5826712,0.12666924,-0.0114552835,0.2830308,0.20696679,0.12703486,-0.05125325,0.45547777,0.21033761,-0.020570531,0.17871358,0.05270717,0.38884634,-0.5099829,0.3897144,-0.04235611,0.3592734,0.06576874,0.18690787,0.3132566,0.0015922264,0.20015658,-0.05470732,0.744961,-0.010189821,0.4705125,0.15705246,-0.015522231,-0.19366041,-0.030955179,0.23451446,-0.013716708,0.34815904,0.06737558,0.3125367,0.49116662,0.042757243,-1.1313263,0.81638414,0.29345077,0.6276222,0.03372753,0.11325822,0.30602092,0.030960584,0.2567137,0.8099148,0.1239659,0.5295328,0.3849092,0.1380197,-1.4265025,0.5296014,0.11994712,0.25834385,0.4488562
0.09232096,-0.004066537,0.048661586,0.012285488,0.39134586,0.31016913,0.3070058,0.09521818,0.08876568,0.029245501,0.0644855,-0.953977,-0.46833643,0.042516828,0.04911137,-0.026237642,0.037204545,0.040096752,0.3356446,0.26588812,0.5376676,-0.19944908,0.14014952,-0.013385839,0.05846956,-0.20826793,0.07662796,0.032908864,0.0074998722,-0.23120582,0.10833608,0.04983354,-1.4733598,0.6694486,0.00393531,0.007210295,0.21510345,-0.039798267,0.15871723,0.059743688,0.34014928,-0.4393529,0.9390874,0.13312405,0.53665656,0.5428304,0.21145976,0.08287956,0.17345579,-2.362261,0.41599566,-0.053232893,0.41997144,-0.049230706,0.19835982,0.10340539,0.17979456,0.118228234,0.114560165,-2.260337,0.24222669,0.038995896,0.48670927,0.76255447,0.43310413,0.21278122,0.019966016,-0.029317359,0.21054068,0.3922035,0.50649005,0.37410948,-0.013013212,0.33253238,0.10018351,0.046476204,-0.8205151,0.18088154,0.36393154,0.40454912,0.44388264,0.066944145,0.21970071,0.006903286,0.31371468,0.008934742,0.06863099,0.16700868,0.28882855,0.25528228,0.27400082,0.319323,0.37799716,1.2646483,0.09061233,0.18349655,0.16240501,0.13159794,0.17674488,-0.016567577,-2.305412,-0.074994855,-0.03780992,0.13366435,-0.7665411,0.1395771,0.35121036,0.18940122,-1.0845525,0.39368936,0.39106402,0.17247353,0.001165298,0.09252871,0.41321105,0.52330345,0.54377276,0.0845036,0.22470604,0.17668441,-1.2634004,-0.012573499,0.376259,0.46634647,-0.04006132,0.13457683,0.6534569,0.031967428,0.08549084,0.18575111,0.41589847,0.34355998,0.017190969,-0.8938544,0.6250692,0.3370742,0.03057299,0.028646164,-0.2976708,0.008618146,0.020342894,0.035146914,0.5108142,0.29365307,0.14440528,-0.053355522,0.34895715,0.2454042,0.20878515,-0.06679215,0.46495727,0.13448101,0.014714257,0.04853299,0.35930935,-0.012055583,0.09425326,-0.015159665,0.285355,0.5739113,-0.03825948,0.23797563,0.019756215,0.038010426,-0.8635984,0.01706422,0.3454293,0.010485859,0.30119365,0.012247805,-0.19072792,0.3031418,-0.009327122,-0.009213025,0.109397694,0.5407921,0.28076085,0.06359188,0.032919887,-0.01348948,0.5442506,0.1428746,0.47860265,0.40842322,0.076430716,-1.6946388,0.019888189,0.05096445,0.037732527,0.027063418,0.40422434,0.3461053,-0.018428944,-1.0647422,0.0459053,0.37158236,-0.050708346,0.1042726,0.19486922,0.11211682,0.58717257,0.12639517,-0.015151468,0.57036185,0.21347095,0.12774621,-0.028152926,0.42799,0.2028935,-0.013550535,0.13547264,0.051945455,0.38204247,-0.65106016,0.40688583,-0.058318812,0.38527235,0.07089605,0.17890139,0.3031985,0.04560279,0.1999688,0.037023846,0.19026898,0.06463117,-0.22511221,0.1536822,0.0075977184,-0.2801578,-0.014138772,0.23418163,0.04532957,0.33052823,0.036904648,0.3096622,0.47446826,-0.022295587,-0.6151744,0.96806276,0.29083085,0.59942263,0.005147946,0.09937402,0.31472233,-0.01348944,0.24661656,0.9700942,0.12524942,0.5738052,0.3807635,0.11997441,-1.2723219,0.5042753,0.12120721,0.23210685,0.4424313
0.087344244,0.029937409,-0.13743854,0.012023055,0.39220127,0.30738616,0.28413776,0.107185,0.084281266,0.0021733176,0.056467324,-0.63281876,0.23722361,-0.060566705,0.0011133667,-0.00011721559,0.03266448,0.026494179,0.3412143,0.266768,0.5771383,-0.21934932,0.13771512,-0.052164737,-0.06469974,0.318358,-0.3800258,-0.0055182455,0.016310602,0.2950774,-0.0068779555,0.045983776,0.5714493,0.7111577,-0.005853719,-0.0030295546,0.18739124,-0.07688419,0.15386291,0.20280299,0.34414738,1.1559235,0.9316622,0.1292064,0.532465,0.57897115,0.20754045,0.08505874,0.18574066,-1.7787408,0.41694713,-0.05620605,0.524016,-0.05293593,0.1952704,0.035889987,0.17305101,0.11729187,0.108538575,-0.41438803,0.24077155,0.026679428,-1.9870001,0.74883145,0.44301492,0.21390638,0.027386107,0.017253853,0.18899487,0.38619766,0.46627134,0.39438254,-0.0024328677,0.30992562,0.12522615,0.03930231,0.5734707,0.19218987,0.56289697,0.5001492,0.44090408,0.070737004,0.21484694,-0.04350668,0.3183212,0.0014289961,0.066363946,0.18797077,0.19819121,0.23367307,0.260572,0.3020021,0.37413085,1.4039093,0.10961219,0.1836841,0.09970354,0.1260107,0.19632663,0.04444682,-1.831441,0.22441834,0.016719565,0.202487,-0.60251695,0.13829876,0.36404374,0.17998198,0.46485794,0.3685746,0.34273076,0.23989402,0.076861694,0.09498775,0.4069349,0.56739086,0.55305535,0.038808215,0.18759675,0.19100522,0.5405499,-0.015026547,0.40147126,0.42006838,-0.015545366,0.12498113,0.6184518,0.06321099,0.07650459,0.21394533,0.4230867,0.40863988,0.07744903,-0.28685495,0.64733213,0.3083298,0.00081998325,0.076509394,-0.48365855,-8.577863e-05,-0.04076357,-0.040101454,0.5631393,0.29406738,0.14086728,-0.071104825,-0.11914841,0.24165715,-0.20720094,0.012435262,0.46926376,0.15543535,0.008540824,0.043489706,0.36675912,-0.029801628,0.09158664,-0.00798359,0.29496282,0.5753884,-0.03340506,0.22565179,0.0169546,0.03013107,-0.644287,0.061721217,0.3896585,-0.0055447347,0.32785937,0.042743295,-0.34833625,0.36063576,0.0019990844,-0.010852992,0.10300915,0.26676068,0.28194964,0.057084348,-0.02291521,-0.0807976,0.48652697,-0.17997766,0.5916214,0.41906896,0.07175999,0.41347605,-0.02718616,0.0030799226,0.0005319917,-0.3235056,0.41195893,0.34974754,1.0624012,-2.345631,-0.068351544,0.3469696,0.039286043,0.10788469,0.19438319,0.10732118,0.5765663,0.14594445,0.014507258,0.6155477,0.2038069,0.019625938,-0.045393743,-3.8480775,0.19134194,-0.021616256,0.20086284,0.04889668,0.4080861,-0.5314765,0.39657488,-0.07476642,0.3137165,0.067441,0.17295232,0.30072543,0.020391341,0.19910908,0.07240322,0.72422826,-0.010927263,-0.18795396,0.16369963,-0.031576723,-0.84360707,-0.0001077814,0.25818706,-0.014751048,0.34607166,-0.044715136,0.2807831,0.33343488,0.004734987,0.13750832,0.47187066,0.30487457,0.6121931,-0.008919168,0.089355044,-1.0833639,-0.0010308061,0.25782916,0.94972616,0.12440434,0.4883657,0.39221835,0.11366336,-0.024826657,0.4980219,0.13087447,0.23814106,0.4480331
0.08882281,0.078996345,-0.08932986,0.064661175,0.3731917,0.294368,0.28777018,0.09603951,0.051061887,-0.016668633,0.06042244,0.39161566,0.23894013,0.018936206,0.011481476,-0.01542448,0.020060161,-0.08316734,0.34887117,0.26426876,0.5123889,-0.27078766,0.123966604,0.009737346,-0.039636776,0.3808277,-0.75161463,0.0686967,0.00030721826,0.29515806,0.4687314,0.04147752,-1.6121086,0.7130396,-0.011858356,-0.010595328,0.18884777,-0.16153555,0.15667419,0.1943974,0.35210016,1.1443545,0.8103748,0.12812115,0.53887194,0.5107663,0.20986381,0.077261224,0.17253888,0.23453915,0.37245655,-0.0018460461,0.53278655,0.015981931,0.19406608,0.29289594,0.16471627,0.12344947,0.10245416,-1.5124651,0.23746084,0.04097396,0.4175693,0.7501034,-1.7371036,0.20246708,0.020999897,0.07138191,0.1952947,0.3849631,0.46134073,0.39511132,-0.036351193,0.30305433,-1.3850279,0.055753972,0.5336237,0.18136472,0.5208536,0.46024746,0.44527555,0.08238864,0.21798936,-0.06374113,0.32060492,0.116989225,0.06560239,0.18763325,0.15278822,0.22585832,0.21688896,0.31661934,0.36962256,1.349483,0.112722665,0.18373166,0.028734224,0.13284065,0.19895633,-0.021863976,0.31195942,0.23564209,-0.041968536,0.21902636,-0.40486568,0.12850134,0.3541101,0.15222353,0.46220943,0.3900671,0.33396232,0.19737957,-0.037059914,0.089477204,0.49879667,0.5718815,0.55341774,0.03027437,0.1709091,0.19288096,0.5326904,-0.042552076,0.37351066,0.43725967,0.004686773,0.13069777,0.67308015,-0.022301985,0.08236414,0.22631149,0.42455295,0.3961477,0.03604803,0.17130172,0.58869857,0.16910256,0.029594334,0.035554115,0.05333061,-0.0015341092,0.07485723,0.029842705,0.554476,0.27820325,0.1387746,-0.07844789,-0.035489373,0.24903007,0.22647001,0.04443973,0.4763876,0.1497595,0.012157881,0.044323735,0.35929993,0.07130081,0.08973203,0.010285416,0.29452568,0.56751245,0.008484718,0.19008389,0.0014802498,-0.08766321,-1.1304183,0.07240327,-0.38182637,0.020319862,0.44771385,-0.04798574,-0.5875201,0.30756846,-0.0044658286,-0.0019804134,0.09362525,0.5483279,0.32566908,0.057801835,0.06640879,-0.04460753,0.38921893,0.21111017,0.63116044,0.5232069,0.06339397,0.41042712,0.017789472,-0.016096579,0.02466489,-0.6822325,0.41130108,0.34722033,-0.78272927,0.12384952,-0.028523022,-0.798663,-0.034954768,0.10051997,0.19384062,0.10847291,0.5769349,0.11426077,0.04019493,0.5938699,0.2099986,-0.6212963,0.0030347097,-1.4964787,-0.065995984,0.0037320727,0.21217006,0.051776797,0.40612173,-0.6809402,0.44055614,-0.08901633,0.42998904,0.07049314,0.1720779,0.37572744,0.0106520355,0.19809133,0.017320411,-0.106988475,-0.061196648,-0.1703598,0.15785961,0.02959375,0.09791523,-0.08244521,0.23443095,0.0033469535,0.38017446,-0.036038373,0.28046098,0.43334302,-0.07719523,0.13684806,0.82054627,0.2942017,0.5931547,0.034004934,0.08103097,0.29911593,-0.093408115,0.2345391,0.93411076,0.12449762,0.5127699,0.3862277,0.11357644,-1.2530757,0.4800666,0.12848379,0.24747397,0.45142663
0.08746345,0.03309907,-0.096885145,0.07931576,0.35836464,0.29710323,0.27781114,0.08366172,0.0017182458,0.061676167,0.058430284,0.38954198,0.23582731,0.046918847,-0.0009959157,-0.03632188,0.011826733,-0.025679806,0.36636257,0.26513463,0.57997316,-0.28226054,0.1162356,0.033464044,0.04166662,0.36663598,0.109755576,-0.053130835,0.019741783,0.29734057,0.46521434,0.036881488,-1.7793646,0.77798724,-0.01525421,0.013037879,0.18998966,-0.16193524,0.15824504,0.19571894,0.32844782,1.1628263,0.5793549,0.12399074,0.53542817,0.6254742,0.20784827,0.07744538,0.16393146,0.23648849,0.4744002,-0.03897701,0.5163911,0.01078585,0.20301901,0.2541809,0.008371647,0.1308622,0.07803786,0.29545414,0.24298775,0.031097468,-1.1918528,0.6142729,0.43241787,0.21389344,0.012874861,0.025874954,0.1939836,0.38590702,-0.19075,0.40842536,0.021036247,0.2961309,0.103020824,0.06829961,0.46208093,0.18288377,0.60934716,0.39038178,0.4417627,0.092704564,0.21919884,0.017465012,0.33958188,0.04943689,0.0735246,0.19051361,0.15292749,0.22798331,0.15277924,0.30806968,0.37665185,1.107626,0.11188975,0.18310995,0.053710964,0.13057208,0.19914776,0.07140529,0.27082157,0.22857343,0.0018829536,-0.94187015,0.19224162,0.11353737,0.35521352,0.21614942,0.46440935,0.3983435,0.3333234,0.21455392,0.00083476584,0.07260093,0.49644297,0.56023014,0.5486442,0.032469615,0.14776243,0.001571099,0.52297467,-0.06820822,0.40432692,0.44349286,-0.03121338,0.12582004,0.49566653,0.037626196,0.07865708,0.25212133,0.4200903,0.38328227,0.008845477,0.1669005,0.5971725,0.5590331,0.0043622954,-0.042151563,0.05818173,0.0001784478,-0.011327468,-0.015057081,0.5560535,0.27728716,0.1329076,-0.09521362,0.06734099,0.23917603,-0.080840245,0.04030033,0.46389037,0.14664489,0.0092769805,0.02329309,0.35964635,0.057727087,0.086841255,-0.02097721,0.2932147,0.5778886,-0.0060803005,0.26952308,0.005205105,-0.75490564,0.2934704,0.09699919,-0.8319884,-0.015394254,0.47688943,-0.028185785,-0.8402848,-0.11237958,0.0018539416,0.03127084,0.08606855,0.542965,0.31416374,0.057669256,-0.009104988,-0.036295597,0.62744236,0.25354064,0.38352075,0.4935631,0.060861282,0.4100511,-0.0017717166,0.037016813,0.029976787,1.076934,0.29783124,0.3549226,-0.74507576,0.12565368,-0.06413879,0.3918806,0.034435652,0.10002216,0.19056945,0.08306999,0.5775439,0.13573465,0.027522743,-0.13150251,0.19845055,-0.88103044,0.036750212,-0.74508864,-0.08055644,-0.0073280856,0.20163363,0.04941304,-3.1424634,-1.0028782,0.41575852,-0.11665181,0.39403963,0.07070904,0.15966585,0.40682608,0.006597056,0.20552097,0.013298522,0.57548785,0.05014105,-0.74874425,0.15630037,0.05699474,0.09764759,-0.020790057,0.22488953,0.033308454,0.4053201,0.15950888,0.26283744,0.5022033,0.01450576,0.13319723,0.9140146,0.3018756,0.60307825,-0.016643187,0.06782003,0.26652548,-0.06878483,0.25365478,0.927938,0.12085029,0.6180587,0.39412004,0.099801205,-1.3505306,0.49051315,0.12856545,0.2568935,0.43941367
0.07317816,-0.007650552,0.002213818,-1.2587025,0.06660373,0.2836377,0.3597933,0.07913149,0.00027074787,-0.024030374,0.05762301,0.39043203,0.23474616,0.053049967,-0.021128327,0.015271642,-0.06931725,0.03281078,0.457157,0.26599312,0.5763882,0.07941614,-0.48928863,0.017516658,-0.014806657,0.3687356,0.10167351,0.010272339,-0.29877335,0.29771832,0.41234264,-0.003141533,1.0157999,0.6553687,-0.027646046,0.013674209,0.18479778,0.060274497,0.15432483,0.1261632,0.2863911,1.0794424,0.97952276,0.11708129,0.50297457,-0.04618896,0.20499364,0.08278073,0.17037101,0.27746144,0.45496282,-0.017843492,-0.16480255,0.0438234,0.1872329,-0.87776774,0.09059328,-0.8978727,-0.20571283,0.38965845,0.24887906,-0.0033090047,-1.2387351,0.31911695,0.4246926,0.19408116,0.015498995,0.022367956,0.1906848,0.3188992,0.4740078,-2.833999,0.051863085,0.31441125,0.060598798,-1.1132635,0.48145795,0.19486691,0.57470155,0.25446466,0.39953884,0.12109804,0.22131386,0.022165908,0.27666065,0.0030386883,0.07948484,0.15209909,0.34549797,0.21688476,0.33425307,0.27478343,0.35183978,1.4564965,0.13665034,0.17875302,0.06634838,0.13238788,0.19701934,0.011837946,0.35650176,0.22755718,-0.0050388197,-0.95696443,0.1941912,0.026500713,0.36412963,0.3119064,0.46331415,0.3459388,0.19909292,0.22930767,0.010377467,-1.1252884,0.47825274,0.65310335,0.5708959,0.046853837,0.17647825,-0.7717875,0.50386864,-0.06333377,0.4110298,0.44331235,0.017131759,0.13713928,0.49659568,-0.011611594,0.08125935,0.27430946,0.40999335,0.3584948,0.058725353,0.15756716,0.60370296,0.5591344,-0.025757262,0.0031197972,0.07693898,-0.01441287,-0.08081049,-0.033381734,0.57687396,0.28686062,0.10346606,-0.19748685,0.046666216,0.2037071,0.14145224,0.005097419,0.45407015,0.15992028,0.012726982,-0.17182831,0.36291435,0.021758428,0.077127255,-0.06008288,0.29217836,-0.5828575,0.0009828005,0.105564535,0.0026746194,0.10279086,0.29406086,0.005746355,0.39047822,0.0027716912,0.6353763,0.052721273,0.16321188,0.2907886,-0.07551833,0.042070087,0.042263832,0.49664646,0.3407067,0.065100886,-0.05334363,-0.1597611,0.54878813,0.21402083,0.5986729,0.44826502,0.14545721,0.3707571,0.0038298275,-0.06133367,0.040994927,0.21149918,0.39805222,0.26839274,0.9552426,0.14413445,0.05113583,0.382053,0.06736792,0.09176456,0.18368442,0.08293911,0.60319114,0.14510168,0.042440858,0.6311988,0.20881122,0.13956434,-0.024532381,0.46773782,-2.2343314,-0.0041205715,0.2033841,0.038027387,0.35108253,-1.3314804,0.4330083,0.0061951135,0.45498693,0.055873092,0.17498721,0.33056,0.024959672,0.13763282,-0.12239076,0.6485397,-0.04691458,-1.2871041,0.17358291,-0.0045873965,0.08290446,0.050388906,0.16282897,-0.05914777,0.33136374,0.17929111,0.27637115,0.42683068,-0.03463271,0.12618978,0.93057555,0.025390504,0.65105385,-0.09423639,0.01819189,0.3422319,-0.8942246,0.22732767,0.6657449,0.10650363,0.4560915,-3.2761798,0.023962148,0.2597829,0.117623106,0.019613013,0.24468842,-2.001981
0.076035194,-0.01770994,-0.03389634,0.09711362,0.2500377,0.30999795,0.23819771,0.07474567,-0.008799853,0.0023423438,0.06295805,0.38345417,0.23577435,0.06087877,0.09684427,-0.06160067,-0.06746887,0.08185942,0.46272913,0.26753536,0.33006808,0.0808771,-1.0293497,0.027306871,-0.064235784,0.37358916,0.10105551,-0.052793693,-1.145332,0.29882768,0.4770609,-0.0074602487,0.9163951,0.62665975,-0.029330077,-0.06982735,0.18648344,0.060458582,0.157502,0.14510842,0.31368852,1.0950452,0.9670373,0.115800664,0.52474934,0.5537543,0.22146527,0.083281234,0.1655984,-0.8792945,0.46888715,-0.06481464,0.54123574,-0.032066222,0.18975434,-1.8723539,0.12542997,-0.86740816,-0.6196159,0.38031816,0.241306,-0.044993278,-0.2072817,0.78587663,0.41243187,0.21315172,0.027812986,0.028877566,-0.9342619,0.3150291,0.47502837,-3.5157409,-0.004771289,0.3388487,0.018364422,0.088318825,0.48513442,0.19548531,0.5710298,-0.39101183,0.40064272,0.11999849,0.20370841,-0.026812378,0.2921158,-0.024623012,0.078852676,0.14436792,0.34407142,0.22358495,0.3512444,0.29495662,0.35345113,-2.59996,0.15061504,0.1808259,0.01434254,0.12109983,0.19669457,-0.025075331,0.36877146,0.22472511,-0.0066108825,-0.3825985,0.19212468,0.018854845,0.36195037,0.370095,0.45786312,0.32696006,0.38797024,0.23637089,-0.007907455,-0.70418125,0.47764942,0.64148074,0.54151326,0.082181185,0.20245473,0.17880224,0.5083509,-0.06968729,0.41199416,0.42928234,-0.0980365,0.14038746,-0.37971038,0.006212563,0.08204835,0.27857342,0.37643155,0.35591733,0.041891634,0.15870315,0.6067024,0.5702866,-0.01725373,0.0108706625,0.074915916,-0.008018926,0.057446104,0.05193426,0.53416044,0.3114384,0.0867228,-0.18524836,0.18106039,0.20203434,-0.13188274,-0.01954755,0.43091896,0.16278636,0.014098423,0.07530424,0.3597309,-0.018243259,0.070996985,0.046053827,0.2762129,0.5754295,-0.014476339,0.22579801,-0.019609777,0.09775392,0.2910231,0.02839955,0.27696264,0.00018068691,0.6063291,0.041707855,0.16078305,0.2814099,-0.879481,-0.051092565,0.034790177,0.5517974,0.35883313,0.051759537,0.03350473,-0.06691147,0.5036557,0.19891189,0.6425753,0.4259133,0.15111569,0.41546738,0.072467014,0.10461641,0.031980257,-0.17330612,0.41511068,0.22324108,0.97627145,0.13500603,-0.013870002,0.37945822,0.039970398,0.091006376,0.18089364,0.05823087,0.2996647,0.10431383,-0.030195097,0.65081835,0.18577717,0.13854693,-0.011694689,0.33388397,-1.6449333,-0.04142179,0.20580201,0.047535066,0.355785,-0.88911295,0.36108568,-0.029935637,0.38610688,0.055970892,0.1808047,0.31418192,0.002440953,0.12680058,-0.008032159,0.5175195,-0.015587428,-1.8202481,0.16738273,-0.016941989,0.07934096,-0.042305276,0.20581406,-0.038684312,0.32818595,0.17528783,0.27601555,0.44117206,0.0072677354,0.13122463,0.92795354,-0.28532645,0.6623225,-0.08137211,0.014537128,0.3293299,-0.611887,0.23563161,-1.2058928,0.108255185,0.5317471,0.38740444,-0.18193503,0.26077303,0.32337067,0.019857306,0.27317664,-2.147097
0.07392673,-0.08042607,0.010819198,0.09640386,0.4224617,0.31142187,0.2120183,0.069518246,0.00095969735,-0.018096521,0.05314584,0.3505162,0.2356452,0.052775156,-0.012789599,-0.007747843,-0.07758494,0.001865181,0.427961,0.24355078,0.21065646,0.08436505,-0.7323835,-0.019502178,-0.03996646,0.36721772,0.10396339,-0.007583961,0.042032544,0.2981834,0.4181986,-0.011764511,0.8838623,0.63534564,-0.032204464,-0.011652463,0.18453404,0.059918605,0.16173385,0.12153355,0.37629214,1.1320617,0.9506258,0.116271906,0.53624856,0.5779837,0.21414027,0.08075534,0.16880918,-0.44205448,0.4346476,0.006754818,0.539778,-0.013837416,0.16502719,0.23404938,0.12715694,0.079671256,-0.69979966,0.22841339,0.24924843,0.01849215,-1.9028655,0.78006846,0.42642015,-0.016769718,0.035379965,0.028949324,-1.0870389,0.26600093,0.47513527,-3.142324,0.019472623,0.34416637,0.10369132,0.080980524,0.4809912,0.2023103,0.5388124,-0.5106877,0.34686014,0.11974753,0.26563606,0.04177625,0.28889555,0.024822315,0.06904232,0.13091269,0.3395923,0.21310377,0.34298688,0.29483232,0.3834321,-3.987798,0.16481352,0.18200526,0.07943112,0.11158554,0.19522312,0.035168093,0.41077,0.23518683,0.015038701,0.2849752,0.19297548,0.0044192565,0.3658436,0.26734933,0.45514917,0.47539648,0.3034822,0.23578717,-0.04894899,0.09969717,0.36722445,0.7024816,0.52168536,0.1092395,0.25366443,0.1774151,0.49144542,-0.03181448,0.4002463,0.4404804,-0.034868363,0.14481865,0.5647273,0.055042602,0.0895929,0.26628283,0.40971795,0.3629129,0.08072297,0.15697148,0.58981127,0.57234925,0.013493107,0.010245024,0.07057537,-0.0072263996,-0.02880756,0.02477437,0.55325073,0.3045789,0.067008354,-0.19925943,0.16064683,0.19322355,-0.50881505,-0.029279344,0.45479974,0.09314817,0.02406338,0.112866744,0.35960582,0.040358275,0.0670329,-0.058250867,0.30351987,0.5698849,0.012646864,0.15730648,-0.07629293,0.09472619,0.2945675,0.026642298,0.35099086,0.048022132,0.5658954,-0.040497936,0.1540885,0.2929078,-0.93316406,0.05151237,0.032321043,0.419337,0.27936822,0.04568796,0.041646525,-0.006727584,0.5342149,0.20889392,0.56560504,0.43715698,0.13766755,0.44957566,0.02774725,0.07818274,-0.00843303,0.37831628,0.41510105,0.25161722,1.0046248,0.10874121,-0.02338537,0.37889397,-0.07761027,0.09126607,0.18045174,0.028941805,0.31445304,0.08197133,0.026645899,-2.7588644,0.24959776,0.13757214,-0.058635224,0.29689166,-1.4838039,0.030684918,0.19511601,0.051849786,0.1379816,-0.7415309,0.46751618,-0.0217563,0.5047111,0.057418406,0.18379147,-0.21152368,0.018932642,0.14733258,-0.016741049,0.51161075,0.019246895,-2.4016957,0.17399757,-0.032824986,0.076813295,-0.05299724,0.24341905,-0.058617104,0.33490065,0.16256088,0.28318694,0.31947654,0.024224129,0.12983645,0.96009743,0.32069546,-1.2177944,-0.06547688,0.010053387,0.35541606,-0.70417476,0.24638218,-1.477764,0.1170157,0.57186556,-3.207145,-1.3025777,0.245685,0.3672015,-1.1207579,0.29441696,0.45876715
0.07044303,0.038047224,0.008918413,0.094947636,0.42947713,0.3432623,0.34116033,0.06566752,0.006745244,0.042032104,0.049841944,0.35405302,0.23106085,-0.029023036,-0.034619648,-0.007838936,-0.09566376,0.045620367,-1.8120224,0.2553039,0.49306193,0.08427784,0.11740817,0.03354792,-0.07116578,0.36367145,0.10149653,0.04104189,0.04113951,0.29586023,0.46847337,-0.010311952,0.8728189,0.65241486,-0.03593567,-0.012247658,0.18486829,0.05788212,0.15598696,0.13095874,0.39343822,1.0885488,0.94311124,0.11407684,0.5328531,0.5101877,0.20570228,0.08335603,0.1646456,0.19957203,0.4434487,0.0026105403,0.543004,0.021694496,0.17045611,0.22753923,0.12394507,0.12718537,0.16269964,0.32197076,0.18706392,-0.027028317,0.47356695,0.77888846,0.41763064,0.15492372,-0.06466953,-0.02739606,-0.36184973,0.271869,0.47567844,-2.8897653,-0.024998104,0.3656874,0.08143369,0.07818204,0.4659168,0.1966656,0.50954807,-1.9872055,0.16697462,0.11633382,0.22447972,-0.018250722,0.28370532,-0.010161977,0.05834271,0.1248739,0.33420435,0.22012419,0.33173433,0.310885,0.34493122,1.4761912,0.18701665,0.18324532,0.046099056,0.110013604,0.19328181,-0.028026802,0.4029719,0.19858763,0.062698945,0.28447938,0.19272542,9.2409064e-05,-2.6823013,0.28949803,0.42709342,0.33358684,0.3335291,0.22862951,-0.03563075,0.09805042,0.36852035,0.6114513,0.5549979,0.1305155,0.2597092,0.17692354,0.47513163,0.016039453,0.40585163,0.43669665,-0.038584292,0.1403071,0.5862666,-0.004475399,0.08176817,0.2555574,0.3997529,0.36407858,-0.0004114954,0.1537927,0.6771712,0.5839775,-0.0077615473,0.02409394,0.056891046,-0.0036775982,-0.060701583,0.073661976,0.56917816,-0.05470702,-0.0025446648,-0.21501757,-0.6963839,0.13773055,0.1811628,-0.043850947,0.07329669,-0.35914618,0.03861298,0.13266338,0.36233816,0.050046686,0.064959235,-0.0070128,0.28279692,0.5710916,-0.04522883,0.23314229,-1.0221962,0.092458665,0.2756376,-0.030336963,0.31838098,-0.076247096,0.5756684,-0.013550753,0.16207722,0.32471415,0.08736912,0.021584135,0.028344585,-2.2781956,0.1797185,0.055145208,0.01828602,-0.019914579,-0.5781736,0.20763528,0.5619526,0.52953726,0.14592661,0.42521235,-0.015792836,0.037944,-0.026161598,1.0546261,0.4001668,0.31860465,1.0238359,0.26793456,0.015046204,0.38388017,0.0035356164,0.10615971,0.18073608,-0.043794002,0.13845816,0.14292295,0.052036457,-0.86631215,0.21154678,0.13814162,0.026342055,0.4957675,-1.0025823,0.0035889302,0.17425446,0.05779734,-0.08639711,-0.7744192,0.37136245,0.049283992,0.50016326,0.05330449,0.1820981,0.36803904,0.025199402,0.15350924,0.014865249,0.5075495,0.033231422,0.45300665,-0.29186928,0.03988385,0.07556617,0.025559459,0.3103882,-0.06744822,0.32225952,0.1596705,0.27820185,-0.28056377,0.030561624,0.13159126,-2.8835008,0.3237102,-0.9568771,-0.15557061,0.00548792,0.37343693,0.0747184,0.24609725,1.1794804,0.117679104,0.501713,0.40996513,-1.0358624,0.25926536,0.4612213,-1.1492804,0.26141676,0.30434433
0.062190015,-0.012536869,0.02545126,0.09557758,0.42326346,0.31212962,0.2776143,0.06398986,0.0134133715,0.0059555727,0.059537895,0.35181665,0.22886749,0.04103949,0.038427357,-0.03581555,-0.10894512,0.0057219565,0.42738327,0.25022864,0.5806105,0.0857065,0.11849356,-0.032860883,0.03575951,0.36804554,0.10190113,0.038267795,0.040565018,0.30025342,0.483016,-0.017853908,0.90436983,0.7727404,-0.034639932,-0.017235123,0.18527403,0.06462837,0.16322999,0.13481784,0.38764647,1.1146234,0.92522764,0.112479955,0.51550704,-0.27665356,0.21365428,0.093965836,0.16373813,-0.0854676,0.41566038,-0.0017062478,0.538634,0.05189144,0.17118582,0.23169905,0.115621135,0.12475952,0.16149361,0.36759657,0.12425259,-0.037367787,0.4749661,0.7827075,0.43941316,0.24170083,-0.7948228,0.019251572,0.21291637,0.28235358,0.48272783,-2.783068,-0.022219518,0.3933075,0.14069809,0.08281185,0.45347497,0.19777542,0.63940454,-1.876621,0.4144175,0.11502755,0.20501311,-0.057968564,0.29358143,0.013312689,0.06802731,0.13061322,0.31585672,0.21937919,0.28038788,-0.33789477,0.3535452,1.4592475,0.18675187,0.17976901,0.034940597,0.114712454,0.19496119,0.028792208,0.40474665,0.22558701,0.037472785,0.28295347,0.18974401,-0.004592682,-3.0081062,0.30173308,0.4839223,0.3569468,-0.9389898,-0.042260893,-0.017580612,0.09870989,0.3591151,0.61823577,0.5370383,0.14609116,0.22447309,0.1741105,0.4931591,0.04510142,0.405272,0.44041485,-0.33875754,0.13809714,0.43833485,-0.03969144,0.09312214,0.2534963,0.37119746,0.36862314,0.0048200176,0.1564949,0.63012606,0.59602344,0.013815178,0.0106742205,0.04838907,0.009209572,-0.016559836,0.0118413735,0.5560555,0.29933015,-0.018157346,-0.26618415,0.33188918,0.12577629,0.099048406,0.024509734,0.4560084,-1.0600865,0.0495011,0.114917435,0.36112073,-0.029286273,0.06185861,0.014765057,0.27863827,0.55994326,-0.06018122,0.2346089,0.09135212,0.08688856,0.29117262,0.002388982,0.30841878,0.038333084,0.57530135,-0.015736122,0.15203223,0.25482005,0.0887141,0.014998396,0.02249961,0.50984937,0.30505413,0.0482195,-0.009938393,0.018674703,0.56581813,0.2154423,0.63173664,0.52927995,0.1461072,0.3971302,-0.0041422583,0.015419395,-0.056408387,-0.6484789,0.1713452,0.3577627,1.0359437,0.27342695,-0.0021417744,0.38070792,0.06768487,0.09962594,0.17329985,-0.08504859,0.3027274,0.15648235,-0.010613641,-0.40677232,0.19764167,0.13700709,0.04138643,0.4655129,-1.5140861,-0.032668266,0.14844218,0.05268851,0.3837045,-1.4539411,0.37809387,0.08454511,0.46351576,0.057151143,0.18607688,0.31677967,0.06427351,0.16850863,0.0009886797,0.44084182,0.02001689,0.3955747,-0.67208564,0.017273312,0.069817506,0.037130147,0.36394164,0.021997232,0.30003637,0.16565455,-1.5161474,0.47545385,0.0932098,0.12492249,-3.3047717,0.32488996,-0.37942037,-0.4238571,0.0020107415,-2.0525935,0.08040715,0.24010989,-0.54167515,0.08830667,0.5818214,0.38598645,0.121875115,0.24911532,0.29888082,-1.4608362,0.26707554,0.48501322
0.04128018,-0.042975504,0.011396546,0.07927701,0.4096857,0.2489508,0.3019578,0.030767117,-0.0021009736,0.055021282,-0.30758676,0.3602213,0.22054717,-0.057178356,-0.03703239,0.039352693,-0.68348926,0.004446899,0.40524533,0.21747743,0.5405726,0.08165787,0.120156296,-0.0029329879,0.026129512,0.36408302,0.10275474,-0.030558402,0.0532102,0.3102723,0.4489515,-0.055019826,0.87381667,0.79782236,-0.032981694,-0.015470979,0.20332885,0.049547773,0.13185388,0.1322026,0.26800573,1.1246761,0.9875273,0.10281806,0.3989192,0.54946196,0.20413642,-0.6546964,0.14094904,0.17983335,0.4061207,-0.053132962,0.53232265,0.033375733,0.17532249,0.23657294,0.09554992,0.12337879,0.15331349,0.30855393,0.19373076,-0.009018979,0.47628915,0.7717246,0.40893045,0.27000412,0.067515194,-0.018731417,0.211372,0.4267332,0.3551242,0.30654645,-0.038503587,0.3235826,0.10507162,0.069469966,0.41064632,0.20619197,0.65176266,0.38904145,0.4254224,0.02809442,0.22392133,0.0118881315,-0.011775435,-0.03812814,0.07320974,0.17149045,0.23738733,0.2718645,0.38322148,-1.3150785,0.35254338,1.3774723,0.20490047,0.18261427,-0.26793703,0.10103249,0.197394,-0.028860725,0.40029183,0.22215018,-0.024222443,0.2798804,0.18839267,-0.01088072,0.2424713,0.29899198,0.48659152,0.31787074,0.37588608,-0.090279154,-0.017166937,0.097436324,0.5026377,0.42175454,0.529919,0.099159025,0.20325692,0.17624119,0.74209535,-0.017629622,0.39160776,0.38964438,-0.066077076,-0.8776496,0.5951207,-0.011011583,0.084103584,0.20892568,-0.94102305,-1.9486555,0.05009256,0.14124498,0.34258637,-1.7179638,-0.039107226,0.04416992,0.027596654,0.08707216,0.026348796,-0.04002261,0.55510944,0.3911349,-0.61662495,0.099984355,0.297347,0.022219796,0.08033233,-0.007121334,0.4726583,0.16065212,-1.0761758,0.12047555,0.29052737,-0.02815982,0.04102301,0.0051654154,0.28794503,0.54029775,-0.02611183,0.004797496,0.08595627,0.0504552,0.25586087,0.040884566,0.45107147,0.014897767,0.53505087,-0.03645247,0.13662106,0.29433793,0.07924483,-0.0058611515,-0.030267846,-0.06716227,0.42897442,-0.010245083,-0.06570786,-0.021895336,-1.6344978,0.1994742,0.55046445,-2.4329693,0.062445097,0.3886775,-0.044156954,-0.11781343,-0.03511183,1.1999762,-0.025307635,0.33559555,1.0143007,0.19658424,0.019376716,0.40370828,-0.024061806,0.095352136,0.1571717,0.10929443,0.5727954,0.13313419,0.0773173,-3.723983,0.1900456,0.13265078,-0.040115375,0.5021048,0.16104661,-0.044555113,0.07058453,0.014877563,0.34929964,1.0445858,0.44255364,0.08633293,0.28816158,0.02762737,0.15688062,0.33911908,0.0055384026,-0.76593536,0.001386923,0.69530886,0.046618596,0.08958326,0.17925484,-0.07757364,0.048966605,-0.04579305,0.35482422,-0.048658077,0.29763967,0.14742619,-0.4510994,0.454761,-0.057705108,0.11914363,0.65157187,0.31362128,-0.8104206,-0.83817494,-0.05061906,0.298934,0.083589025,0.2772283,-2.533652,0.08032757,0.49804363,0.3539895,0.10015838,0.25253475,0.38005316,0.081145,-1.1665131,0.26817787
0.039576937,0.047318153,0.047996785,0.07096861,0.41103804,0.25929826,0.23125859,0.018996414,0.011013266,-0.085591935,-1.1082057,0.3488094,0.20728394,-0.0322432,0.06878271,0.112951174,0.057979085,0.015515998,0.38776857,0.16519101,0.5471234,0.07501252,0.1167548,-0.0081723025,-0.027258104,0.36320302,0.09972562,0.035815943,0.07299939,0.2639375,0.45614976,-0.052596718,1.0648165,0.78975284,-0.04383816,0.042888604,0.20848879,-0.0038440458,0.12642123,-0.05696615,0.29285902,1.1129259,0.93402034,0.09830654,0.33169314,0.504442,0.21424407,-0.6322122,0.13265584,0.16401753,0.3772827,-0.00028362736,0.53437835,-0.04458872,0.10394273,0.19143903,0.10555735,0.12127101,0.15113282,0.3005799,0.217201,0.015846195,0.46956348,-5.2886763,0.3824439,0.20708582,0.06476314,0.044286687,0.21202348,0.4286731,0.34774822,0.29939756,-0.009344614,0.33559862,0.10427368,0.06391255,0.3986356,0.21689098,0.56960535,0.36374137,0.3923805,0.009014442,0.22897843,-0.027735883,-0.22819108,0.018185677,0.07280453,0.17482665,0.21494207,-0.42502058,0.37915635,0.29294375,0.31937814,1.3689213,0.19185743,0.17887412,-0.7538014,0.12364691,0.19529104,0.04645407,0.4110237,0.22275881,-0.06450052,0.27746302,0.18728007,-0.018070139,0.17524466,0.24558794,0.48306566,0.40387636,0.359329,-0.06602868,0.0033773116,0.09963686,0.51912844,0.35582697,0.58728045,0.09154304,0.2058095,0.17145967,0.74162,-0.020056168,0.39416632,0.3908269,-0.026361404,-0.63914716,-0.11812595,-0.014780923,-0.7679213,0.21510574,0.42540205,-2.0704012,-0.061887324,0.1424859,0.68043554,-1.4457395,-0.004628861,-0.00041144915,0.027106648,0.102749035,-0.031939276,0.023428401,0.55179447,0.38658744,-0.81698316,0.09820718,0.3013429,-0.12271106,-0.03929966,-0.03181967,0.35853177,0.15699635,0.065759815,0.124459915,0.3537196,-0.022878895,0.048772894,0.050162233,0.2837092,0.5312124,-0.024768187,0.17865638,0.08477213,0.04662212,0.31035936,0.06683932,0.4566043,-0.022191294,0.68198586,-0.0017697461,0.14069998,0.28849265,0.08335934,0.029223306,-0.037839685,0.5308471,0.25192508,-0.11437216,0.018441714,-0.006387969,-3.6255126,0.19654743,0.5540694,0.48606265,0.21427867,0.3457012,0.033745155,-0.22513562,-0.04470896,1.204065,-1.9394915,0.32564452,1.0284587,-0.07637077,0.048677746,0.3974718,0.050555848,0.0969877,0.15191601,0.10153598,0.5651074,0.14628355,0.08423631,0.56122524,0.18532775,0.13136989,0.010052247,0.45192462,0.14949588,-0.051393602,0.048597462,-1.9472433,0.3553712,1.0374824,0.082956605,0.076462805,0.47620225,0.011955576,0.1311549,0.34605205,0.020872807,0.22634786,0.08225787,0.6804092,0.04309691,-2.0728505,0.1852914,0.021626119,0.0444493,-0.048444908,0.30494672,0.0039147413,0.28894714,0.15293398,0.27131218,0.45439947,-0.031805333,0.12174247,0.67085284,0.344084,-0.10116729,0.092871115,-0.05983378,0.1885038,0.08038114,0.265516,0.9596558,0.07225807,0.45542306,0.08375163,0.105011016,0.24629118,0.35587478,0.08234491,-2.078229,0.4186862
0.026415398,0.03232351,0.0014972693,0.07035108,0.40058106,0.2615172,0.31602973,-0.015677156,0.015228187,-0.0060527055,-0.73773015,0.44089854,0.22698535,0.016189288,-0.038740654,-0.052884426,0.07463625,0.073953755,0.44410592,0.26037166,0.5570852,0.06847364,0.11367447,0.06315753,-0.049251225,0.3313841,0.097350046,-0.058231607,0.059810057,0.24168852,0.22071822,-0.07423172,1.0712171,0.766498,-0.047260255,0.022942968,0.2155939,0.12542878,0.14895262,0.06672305,0.28787738,1.0424926,0.92143756,0.09703759,0.3274777,0.51189846,0.2157794,0.082982525,0.16208236,0.21392031,0.38168007,-0.011449357,0.54081416,0.036728445,0.08542373,0.2721136,0.12729222,0.12192511,0.1505921,0.30188802,0.18022339,-0.048537724,0.46597487,-1.3232431,0.45735615,0.16827151,0.06045077,0.051266264,0.21195708,0.38251078,0.4854444,0.29799768,0.009457864,-1.1707624,0.19112064,0.120377876,0.5079042,0.22050908,0.602873,0.44003338,0.34873086,3.9099805e-06,0.18135646,-0.021112029,0.08147444,0.011790837,0.06366842,0.16784747,0.19662867,-0.58883613,0.3702681,0.2934203,0.3427157,1.4065948,0.18319893,0.17573865,0.08198577,0.13594405,0.19671619,0.08864524,0.22867142,0.18465146,0.012187884,0.27655,0.18332693,-0.00060456496,0.15646961,0.3002012,0.48647264,0.32394016,0.3780514,-0.1420748,-0.018211639,0.099584155,0.2971284,0.12082697,0.53132504,0.08274783,0.23933685,0.17230734,0.7483983,-0.035207454,0.39263496,0.23552069,0.035806865,0.14186376,-0.271222,-0.067903794,-0.6027545,0.21647927,0.4158669,-1.261801,0.05660302,0.14281031,0.6954504,-1.052971,-0.082614735,-0.061917093,0.030946724,0.1170389,0.034809757,-0.007538696,-0.44706663,0.39097008,-0.74036807,0.0987382,0.29495287,-0.5758166,-0.016973972,-0.0056812335,0.18467899,0.15605044,0.06388745,0.13132665,-3.5799644,0.037131634,0.049138237,-0.046433404,0.28039446,0.5413622,-0.00016895148,0.2552862,0.07856563,0.046637714,0.31994736,-0.016174592,0.4600664,-0.050189618,0.62706995,0.056568865,-0.008754027,0.27909413,0.08024292,-0.032247342,-0.042732615,-0.35265017,-1.5792029,-0.24383165,0.056087285,0.04210212,0.55187047,0.15182045,-2.8411853,0.44584054,0.041146103,0.34490338,0.06544472,-0.16591297,0.013315025,1.2247889,0.33040437,0.33445382,1.0251503,0.07089415,-0.009376658,0.3880991,-0.0001946134,-0.72269386,0.1464663,0.093426034,0.5549023,0.116396986,0.0731019,0.5640715,0.19621007,0.12912436,0.022069816,0.42625937,0.1512008,0.039449632,0.04327353,-0.8631193,0.3603359,0.9835173,0.44892013,0.07022806,0.32241347,0.017086389,0.14375813,0.37452915,0.004923061,0.22467384,0.0748683,0.6598301,-0.020734282,0.41631904,0.1829581,0.015219649,0.040398937,-0.018393675,0.2627595,0.007984545,0.29029953,0.15226518,0.275416,0.43190506,-0.018442495,0.12289151,0.74883986,0.28147262,-0.13433345,0.09421313,-0.066425264,0.20634954,0.08632967,0.24773148,0.94929177,0.065721884,0.49414265,0.41923982,0.107325256,0.28730035,0.4473338,0.08702207,0.255349,0.31690946
0.032055486,-0.0088308165,0.06069468,0.063655,0.4049583,0.32405967,0.315936,-0.037900142,0.03151017,0.061429325,0.07581735,0.45734984,0.2826243,-0.010929791,0.059667382,0.036777277,0.0832941,-0.051735256,0.44107535,0.16476803,0.51267153,0.05767364,0.116909124,-0.005211381,0.027928319,0.297976,0.09401702,0.012723461,0.030102847,0.15958913,0.23307802,-0.113211066,1.0523486,-1.2946163,-0.015250882,0.03774563,0.21877864,0.07671116,0.1534394,-1.0377561,0.3608553,0.980729,-2.3448915,0.092887364,0.2980192,0.5177083,0.21111922,0.08126804,0.15224187,0.21707183,0.20750165,-0.02715649,0.5452529,0.0018948313,0.2165555,0.24959394,0.13291992,0.11487096,0.15964599,0.31054142,0.20371598,-0.0047041196,0.46865743,-1.9097549,0.12486402,0.15814066,0.063799866,-0.018633023,0.2151878,0.3686037,0.46414,0.29603377,0.04475102,-1.8633194,0.13525964,0.053135548,0.5997972,0.2118515,0.2468061,0.3641564,0.21023266,-0.022789627,0.18253845,0.04954761,0.33354503,-0.03263857,0.06362518,0.15080558,0.17990048,0.21191597,0.36578053,0.2915453,0.37323728,1.4455743,0.17869388,0.16510795,0.081803456,0.12818642,0.19445442,0.08944056,0.2348863,0.17668942,0.04176953,0.27725893,0.18023163,0.009604086,0.33199188,0.31270906,0.40746704,0.3745601,0.39044976,-0.6201523,-0.015774943,0.105407126,0.33358315,0.38879547,0.5318482,0.08555715,0.1743621,0.17383397,0.70806473,-0.04046526,0.41557887,0.19546507,0.065963395,0.14126183,0.5768636,-0.031790245,-0.6838613,0.14259838,0.41361368,0.3596323,0.04338058,0.14298244,0.6237238,-1.1627706,0.021565005,-0.019246873,0.03182208,0.12572354,-0.056549493,0.0026505694,-0.059509873,-1.835897,-0.8497398,0.09511539,0.3206401,0.22393596,0.08028874,0.002312728,-0.05804627,0.15688957,0.06624039,0.12746453,0.28014556,-0.032339808,0.039920866,0.032076254,-0.6756253,0.5481735,-0.0325079,0.23274893,0.07075583,0.046385203,0.30430028,0.03818592,0.45875788,0.007854092,0.6706823,0.0150665315,0.15832295,0.27906463,0.08054734,-0.03369796,-0.05624287,-3.6478672,0.30958292,-0.8404565,0.00038204537,0.009933305,0.59182024,0.1801402,0.6520747,0.4378969,0.08652154,0.31728333,0.05935958,0.046265982,0.006579342,-1.6167175,0.35031977,0.3486739,-0.83034325,0.09392396,0.046281114,0.18387347,0.015415953,-0.9963992,0.13836099,0.09942375,0.5519937,-0.109885916,0.0028627699,0.5613037,0.199402,0.12930495,0.031283762,0.44357732,0.14850645,0.055981074,0.032642398,0.07740452,0.36226702,-2.2176342,0.44003877,0.04825495,0.33618018,0.03424829,0.14745876,-0.13816828,-0.09816118,0.22082826,-0.0034865178,0.7024691,-0.023858866,0.4432476,0.17451158,-0.06838732,0.030851258,-0.0374364,0.2859882,0.01836784,0.28372613,0.15798678,0.27693674,0.48824334,0.025693279,0.11913787,0.7831914,0.23183645,-0.16568749,0.09244713,-0.066312976,0.24481666,0.07228968,0.24140386,0.9231736,0.059661727,0.5866644,-3.9296112,0.11580176,0.31124663,0.34256297,0.09332935,0.24928212,0.4733047
0.03717347,-0.014873953,-0.05569207,0.064608954,0.40508655,0.31412986,0.28110552,-0.070612125,-0.048437566,0.007329409,0.07153644,0.45228952,0.2309093,0.01839043,0.0058903876,0.054238714,0.075299576,0.003082623,0.44466376,0.27778283,0.55294293,0.045220815,0.11797891,0.12220389,0.0368034,0.2626986,0.09738767,-0.04516959,-0.0029278663,0.22769381,0.26718318,-0.726087,1.050353,-3.6927836,-0.06338406,-0.026754154,0.21236297,-0.067709595,0.15598664,0.097478814,-3.4983845,0.9309341,0.84962803,0.09296174,0.30553782,0.5279748,-1.4529709,0.080894805,0.16730137,0.22447823,-0.11858039,-0.013202416,0.49904516,0.047824517,0.20122367,0.15146983,0.15919699,0.11863319,0.15367259,0.30112982,0.28595096,-0.042078197,0.46655235,0.7592964,0.44360965,0.16343737,0.05942332,-0.0061549433,0.20552401,0.33959544,0.49171087,0.2752417,0.0057622734,-1.8913957,0.11667904,0.08713469,0.5577318,0.21896099,-3.534684,0.38810885,0.40984678,-0.04890633,0.12514676,0.0036956167,0.33673853,-0.034817472,0.06008033,0.16227417,0.14222695,0.20534936,0.3558716,0.29423687,0.44499603,1.4681059,0.1484781,0.17730454,0.08807948,0.13211119,0.19549422,0.016346186,0.50748485,0.16888975,0.019599253,0.27718848,0.18143092,0.015611861,0.34611893,0.26902273,-0.13410044,0.3726185,0.38311365,0.20731921,0.024572937,0.093599774,0.30371505,0.6643008,0.5003583,0.07875631,0.16308405,0.17928644,0.7227407,-0.05362424,0.40448046,0.4127488,0.06996847,0.13937064,0.6159344,-0.016964117,0.08546143,-0.81632954,0.415928,0.35969314,0.0112328045,0.1385022,0.70816374,-1.2503927,-0.06283287,0.027857646,0.03392597,0.124089226,0.086428486,0.014320365,0.5509191,-3.0803492,-0.6837734,0.09274542,0.32963315,0.22615364,-0.0043786257,0.03207681,0.4727181,0.15517017,0.063093565,0.12777254,0.26167667,0.015679669,0.045341007,0.034469258,-0.7049906,0.5447838,-0.014640918,0.22927535,0.057265718,0.040300492,0.3351509,0.033876676,0.38528094,-0.07755903,0.60313267,0.0032497598,0.1614727,0.26903716,0.07878828,-0.056391828,-0.062668346,0.57253253,0.31529528,0.09570954,0.0443481,-0.06084981,0.53528553,0.13716714,0.64933306,0.43695593,0.18901134,0.3684954,0.00087000785,0.06678989,0.015517989,0.8736752,0.3605487,0.34720224,-0.85449964,0.17705978,-0.014449279,0.37583575,-0.032928053,-0.66471857,0.1254256,0.10416115,0.5254689,-0.21701616,0.04062701,0.5659568,-0.8012445,0.12292332,0.015661865,0.4325766,0.14612134,-0.027071543,0.028057404,0.075752646,0.35760373,-1.518699,0.46123132,0.03829168,0.009985476,0.07519347,0.17034465,0.06082058,-0.0014028009,0.2204642,-0.05511101,0.7078355,-0.042953867,-1.3627303,0.18465464,-0.004524757,0.02630907,-0.032084003,0.19376644,-0.07461094,0.28544363,0.15508945,0.27783284,0.39375043,0.015077408,0.1169085,0.9787264,0.1973701,-0.5770104,0.08116101,-0.06493134,0.2107791,0.07982515,0.24095544,0.9128209,0.07440837,0.65359366,0.36918062,0.121822014,0.28804132,0.4190939,0.092300996,0.24916773,0.40051228
-0.014970605,0.051106684,0.0058585797,0.051940627,0.37733594,-1.3018843,0.30225003,-0.3422644,0.040513415,0.031523403,0.072853684,0.4408402,0.08567979,-0.030802209,0.023816466,0.026657168,0.09893527,0.07105748,0.39470097,-0.4839557,0.58766335,-0.017963625,0.10440022,0.006746849,-0.0128263235,0.21428125,0.0913342,-0.03862438,0.012987263,0.28627872,0.45869428,0.0894241,1.0171313,0.61240935,0.109313294,-0.007033583,0.20963553,0.02978787,0.15916412,0.10597223,-4.623144,0.6027323,0.8506205,0.11455971,0.35440558,0.590227,-0.20767348,0.077803604,0.18459316,0.23638925,0.39876658,-0.03065692,0.22708572,0.08639819,0.18598703,0.1763151,0.2221188,0.12239253,0.13703015,0.281157,0.22084045,0.0053985245,0.38842273,0.76311326,0.4313948,0.1634342,0.057035387,0.022233829,0.19975446,0.32633558,0.38045347,0.37789857,-0.011877149,0.3384017,0.06860851,-0.011877068,0.40615255,0.22602546,-2.570942,0.38637304,0.28104615,-0.11658764,0.18865733,0.027564684,0.3393505,0.012534969,0.03636892,0.13403673,0.32748556,0.20987847,-1.227254,0.2761092,0.40138185,1.2178736,0.06467714,0.07204194,0.08225844,-1.3620893,0.18486567,0.01158276,0.15391344,0.14415276,0.023084078,0.27645642,0.17572953,0.10085182,0.30797666,0.1905409,0.48381874,0.39760685,0.38031963,0.20063272,0.041486666,0.08933894,0.52960014,0.6625311,0.5089639,0.08709377,0.064180836,0.17794411,0.5691883,-0.03704801,0.11135328,0.39093766,-0.023205783,0.13404322,0.6610751,0.038902532,0.08375713,0.20498934,-0.10430479,0.33981916,0.0095074475,0.15398893,0.56219834,-1.0970527,-0.022409478,-0.023583153,0.016425513,0.08843025,0.012709295,0.0024376216,-3.8016074,0.28692374,0.11842694,0.068526015,0.3097711,0.21998416,0.031662423,0.047032442,0.46750593,0.15135849,0.055894855,-0.09689585,0.09589255,-0.0011147482,-0.46606016,-0.07963888,0.28849846,0.5520193,-0.017079212,0.21103063,0.026225168,0.029213093,0.34247145,-0.018027652,0.40877387,-0.036648717,0.6643288,-0.016551936,0.18208262,0.28687087,0.07105662,-0.029579045,-0.12115679,0.5507604,0.19123903,0.084498376,-0.017101694,-0.0010377354,0.5935742,0.25681862,0.70265543,0.48598397,0.1505124,0.31867513,-0.046561513,0.07739883,-0.047255106,0.8589994,0.33179504,-3.9514232,0.7244703,0.22726585,0.011163507,0.4422841,-0.0034121457,0.112598546,-1.1775715,0.16004361,0.056113657,0.13818946,0.026492963,0.559651,-0.6223613,0.11242611,-0.0025891683,0.4059936,0.1393231,0.015010443,0.048903164,0.06595568,0.24114154,-0.99669063,0.1445786,0.0025873708,0.3867553,-0.87496346,-0.5868482,-0.17549309,0.016319683,0.22029385,-0.07106495,0.63515425,-0.034224246,0.13038975,0.17937396,0.069104634,-0.0015595886,0.010952152,0.1361847,-0.04071137,-0.62017137,0.12502678,0.27064615,0.46834493,0.017574342,0.13099205,0.8317032,-0.03791426,-0.7438593,0.069517195,0.03556672,0.38145185,0.069929086,-0.98262507,0.89177245,-0.037365094,0.58967644,0.36626092,0.15051681,0.30965948,0.5919166,0.09374039,0.2634891,0.39119068
-0.04380725,-0.027558574,-0.040061735,0.055267166,0.39352423,0.35949534,0.31870767,-0.40899575,0.065683216,0.07063145,0.07293436,0.37322032,0.26627964,-0.015064028,-0.009667167,0.044082507,0.09607509,-0.0028241838,0.43631548,0.26290536,0.5068492,-0.03245824,0.10517242,0.035647344,-0.021095082,0.2223273,0.10254902,0.012296465,0.021753926,0.28972727,0.48031595,0.08331702,1.0134532,0.5753091,0.10768253,0.009654228,0.1984302,0.08944257,-0.7256848,0.105802655,-5.5023108,0.6928995,0.787466,-0.10394804,0.36644438,0.48630875,0.21775275,0.07928435,0.18423708,0.23420374,0.399351,-0.05255873,0.5650073,0.028139343,0.17892824,0.26584837,0.23375498,0.11889099,0.15528569,0.26294258,0.13229531,-0.017725125,0.41893134,0.7595247,0.42985085,0.20306425,0.057141315,-0.018178025,0.20572023,0.18304217,0.48316446,0.36047983,-0.014362504,0.33905783,0.040162656,0.0027051244,0.40825537,0.23508386,-1.3235713,0.3834181,0.30168045,-0.1107454,-0.022385238,-0.015693069,0.33843508,-0.029875379,0.047853798,0.12374298,0.32553586,0.17660774,-2.4960945,0.27892208,0.35950923,1.2913628,0.05710883,0.1783383,0.08498816,-0.5878127,0.19334412,0.056725517,0.36695147,0.15288387,0.015691932,0.27465373,0.17803918,0.1011229,0.32073313,0.33151194,0.4549635,0.37048322,0.37628078,0.18781127,-0.033985894,0.074872084,0.5299223,0.6494443,0.51778316,0.055291004,0.03964244,0.17516495,0.43001562,-0.033903066,-0.10015672,0.45926625,-0.015698276,0.13029566,0.2744538,0.05550485,0.084028155,0.20725805,0.4077733,0.3361032,-0.027372733,0.1508436,0.56499934,0.61614627,0.0109573575,0.014423643,-0.030367905,0.08530641,-0.008317,-0.060679283,-3.266594,0.24004743,0.13023116,0.06028197,0.30815604,0.21568511,-0.07711644,0.07161595,0.46156237,0.14135976,0.05213435,-0.06352789,0.20741615,-0.029473241,-0.8102116,-0.08188531,0.28504035,0.5528234,-0.004781783,0.21952887,0.02527103,0.033967193,0.3240079,-0.071975276,0.46686858,0.006589967,0.6270122,0.026986228,0.18196408,0.36851928,0.062641725,-0.04776982,-0.14236517,0.5367544,0.35387993,0.08588961,-0.014693114,0.029495085,0.51647127,0.25177372,0.5975951,0.326697,0.1726881,0.43862298,-0.007345815,0.07970934,-0.0057351016,0.8276473,0.29939246,0.28219134,0.7077709,0.20956753,0.06366192,0.27377412,-0.08597027,0.113556325,-0.66967875,0.17343013,0.5539271,0.13039915,0.04570764,0.5459692,0.2194885,0.11507317,-0.0024334555,0.39441872,0.13228245,0.028657103,0.057627525,0.065502726,0.39145863,0.08031071,-0.019340131,0.010688817,0.38862452,0.075381234,-0.41652712,0.29035962,-0.01604091,0.21720934,-0.061323542,0.6006146,-0.045513354,-2.1776452,0.17652476,-0.005088226,-0.012041785,-0.07050506,0.23739603,-0.046996575,0.14659753,0.09069692,0.27362135,0.4665481,-0.025490869,0.117761426,0.97169656,-0.021731168,-0.533149,0.061790917,0.054744642,0.32731172,0.06463619,-0.6590604,0.8877598,-0.10020642,0.5463425,0.38203007,0.15185128,0.36419356,0.54960394,0.09617367,0.26416898,0.41586673
-0.32545063,0.039609883,-0.034338128,0.047174975,0.39703393,0.36710852,0.30180702,-0.41727102,0.09049533,0.03392587,0.069138385,0.37378383,0.28115067,-0.04864289,0.036225934,0.0074242395,0.08554747,-0.043441113,0.43702552,0.2650793,0.43898737,-0.050194193,0.12046235,0.028823217,-0.04864732,0.18978846,0.09937429,0.010620253,0.051533327,0.29185912,0.47365627,0.07910388,1.0142632,0.57301575,0.10749342,-0.036674436,-0.84440464,0.11807976,-0.8861234,0.1242611,0.36036596,0.7596521,0.8526378,-1.3114133,0.45889714,0.5626583,0.22487949,0.07847044,0.17373137,0.24241915,0.4052897,-0.038166933,0.5354715,-0.007447622,0.121209346,0.19885212,0.2427772,0.116725855,0.16023082,0.27949393,0.22046319,-0.013958859,0.3494132,0.7490359,0.4188354,0.22658856,0.047075413,-0.03481356,0.2056047,0.16529562,0.50334793,0.34924665,0.05307986,0.3209672,0.013032331,0.028849803,0.030723538,0.20510943,-1.4148848,0.41535535,0.32599455,-0.11435346,-1.0989672,-0.016609695,0.3410568,-0.008005844,0.035984073,0.14921379,0.31550944,0.13050874,-3.018316,0.29023984,-0.4548578,1.3047277,0.05231273,0.18293835,0.08887421,0.13295142,0.18547794,0.015321873,0.35151583,0.12777221,0.03998013,0.27154467,0.19507238,0.093908675,0.29987258,0.30092198,0.45928285,0.3794127,0.3910119,0.18498783,-0.07407682,0.08962015,-1.0407599,0.6361622,0.592832,0.03608675,0.08010493,0.17344664,0.30135724,-0.017720101,-0.6179548,0.24514808,-0.051958848,0.13193907,0.5954324,0.010074714,0.08383659,0.20368628,0.41769725,0.33018783,0.020856928,0.1621109,-3.1438339,0.56790936,-0.054907206,0.004416588,-0.054770503,0.07520485,0.05423302,0.009143996,0.56298333,0.26436877,0.14671953,0.053520706,0.3044693,0.21360277,0.22572733,-0.014315733,0.4650052,0.14709482,0.04825426,-0.5311934,-0.12604366,0.0056387843,0.10064153,0.04829854,0.28425503,0.3729538,-0.04308111,0.22706793,0.022514058,0.03413821,0.3091108,-0.01651148,0.43528426,-0.01751961,0.61970145,0.012980806,0.18752787,0.3000741,0.066965856,-0.05254166,-0.1594847,0.459531,0.28409523,0.088289894,-0.017550547,-0.00936113,0.59313434,0.27345955,0.7041604,0.42037782,0.20662338,0.3211798,0.04011289,0.059327867,-0.01840696,0.7930215,0.37452888,0.27683535,0.66889167,-1.6358769,0.12114545,0.42603165,0.035927318,0.11354828,0.1508083,0.16450371,0.6062127,0.13522148,0.037852675,0.52662295,0.2159576,0.11137514,-0.026662113,0.42091814,0.163699,-0.04027012,0.044396028,0.06278406,0.38793087,0.20008266,0.48750037,-0.008553192,-1.630914,0.070115186,-0.8017435,-0.07769254,0.04527352,0.2171689,0.011744344,0.67653376,-0.008978132,-3.0021925,0.17339827,-0.02521927,-0.0115521895,-0.033136543,0.23161255,0.033446785,0.314802,0.084113784,0.27879354,0.53284466,0.0088832555,0.117238894,0.88723403,0.20078292,-0.56629765,0.0667243,0.068211176,0.27596754,0.061667494,-0.93031895,0.8870894,-0.6882727,0.54156536,0.38229913,0.14198506,-0.2870841,0.5746197,0.097338535,0.20427576,0.38844067
-0.70879304,0.036301065,0.04191189,0.043449238,0.4060972,0.3634275,0.17048413,-0.4314501,0.12600331,-0.009823266,0.07076819,0.41986278,0.28906825,-0.025570208,0.009495722,0.029226793,0.08482117,-0.0035360425,0.45375097,0.26493216,0.2899579,-0.05796632,0.1166618,-0.016555337,0.04050205,0.22269166,0.10127861,-0.025553498,0.013920588,0.30341318,0.42378765,0.074381575,1.1708219,0.56105745,0.104179256,-0.020568222,-1.1655035,0.046771858,-0.45773166,0.09876358,0.39872572,-1.3908613,0.814922,-1.0417582,0.5325987,0.5575379,0.21025403,0.078616336,-0.50841576,-0.28776348,0.4035556,0.0022109337,0.53518695,-0.0030877239,0.015611043,0.22462343,0.2445664,0.11397707,0.14302811,0.4020097,0.10209285,-0.018958295,0.36644953,0.5613919,0.4189429,0.29630476,0.049026527,0.062025655,0.19843312,0.14572923,0.37873355,0.31919393,-0.06839119,0.3205448,-0.0150566185,0.12212287,-0.8005283,0.14965746,0.5649229,0.41483742,0.4194604,-0.10773796,-0.9687932,-0.061747335,0.33970597,-0.016482735,0.042182513,-0.57699513,0.3155404,0.13732655,0.34946156,0.27713904,0.37980825,1.1407598,0.047459573,0.21030127,0.093452625,0.13595949,0.18540092,-0.13402793,0.33725855,0.13871944,0.049683467,0.2692746,0.18968362,0.13253249,0.35598353,0.27349353,-0.18122531,0.06055073,0.37057012,0.24771024,-0.031192187,0.09114182,0.33352742,0.6344251,0.47160473,0.11261164,0.16067617,0.16528368,0.36893862,-0.0059481054,0.41048557,0.43679208,-0.0434543,0.13378279,0.58615357,-0.09208239,0.08285876,0.20586789,0.4233154,0.33746997,-0.030178986,0.16055474,-4.373665,0.5445532,-0.102646686,-0.04215427,-0.08324307,0.06858286,-0.044066284,-0.06852666,0.55247265,0.2310151,0.14487804,0.046514593,0.31813762,0.19834274,0.23378383,-0.03823276,0.46561754,0.14236051,0.043191124,-0.4662165,-0.2649725,0.0029470106,0.09885316,-0.08004234,0.28293008,0.5843974,-0.047406416,0.22599126,0.0239789,0.031001875,0.30471092,-0.012046833,0.42972296,0.054059558,0.3528805,-0.033476632,0.1855724,0.29697114,0.052431796,-0.015621363,-0.20180282,0.5683839,0.25979486,0.08648569,-0.0138269905,-0.029080242,0.54556704,0.27755153,0.72527874,0.4237605,0.14970532,0.38989675,-0.0069690887,0.055761453,-0.0123718325,0.7530177,0.29615533,0.23949118,0.64716953,-1.7881277,0.036728073,0.4616857,-0.038373772,0.114018306,0.19743788,0.16790214,0.55491465,0.13314958,0.033179585,0.49986446,0.21319354,0.12236903,0.04616221,0.15481661,0.18561806,-0.031510368,-0.06278537,0.06204519,0.39221787,0.27592084,0.48877198,-0.010665509,-2.6743088,0.06735983,0.17403933,0.3080991,-0.044120915,0.2150347,0.0055575264,0.6918036,-0.09610264,0.21506567,0.17426148,-0.012722965,-0.015287666,0.008298253,0.22949463,-0.03815683,0.30712807,0.08432306,0.27565804,0.46910504,-0.0040093143,0.120956734,0.8679703,0.30522215,-1.5986631,0.047902662,0.08935286,0.29828876,0.07032901,0.25868088,0.89352727,0.12814924,0.54142207,0.260648,0.13234451,0.36902878,0.5392868,0.09652211,0.20948881,0.17497455
0.09779722,0.0030123345,-0.0703192,0.04288997,0.42416045,0.35905698,-0.011748781,-0.44519737,0.13993396,-0.017935894,0.071920425,0.40731364,0.27279308,0.02032113,0.051011562,-0.0075901668,0.07601125,-0.006451043,0.45881146,0.26653445,0.5571005,-0.08207529,0.12694356,0.015179475,0.029378254,0.065190844,0.094825655,-0.049190816,0.008690672,-1.9736228,0.41284284,0.070333295,1.1567454,0.57332724,0.09664736,-0.043046646,-0.956669,0.027296375,0.16379602,-0.01849394,-0.14611636,1.2262205,0.96348476,-0.8328954,0.51580507,0.53717893,0.20652959,0.07959911,-1.278737,-2.7120023,0.4125704,-0.002701137,0.53413874,0.002827336,-0.056642402,0.2056822,0.24058689,0.11887107,0.13910551,0.39587173,0.18259189,0.010547726,-1.8707806,0.75392556,0.41831484,0.2763929,0.04665716,0.057178248,0.20967862,-0.1202124,0.40339622,0.28785694,-0.018589474,0.31780374,-0.055794045,0.014371587,-0.6151638,-0.60636514,0.5727625,0.41210064,0.41584623,0.003992366,-1.0292009,-0.012472394,0.34374714,-0.054427657,-0.05342686,0.17749038,0.32014957,0.13366985,0.32468253,0.33676842,0.38028574,1.1236789,0.045086265,0.24973002,0.09942978,0.13162053,0.17368022,-0.06664124,0.29614604,0.13562289,0.07622313,0.28982958,0.18706416,0.14193505,0.30727112,-0.24570665,-0.23100655,0.23224153,-0.018620992,-1.2967266,0.008048571,0.096700504,0.4010409,0.611835,0.591501,0.11092834,0.26162097,0.18223602,0.33676654,-0.21686916,0.41038293,0.44375953,-0.025960002,0.13616654,0.56788385,-0.033616297,0.083934814,0.2049246,0.4022405,0.3362402,-0.044848554,0.16234612,0.6478174,0.508418,-0.047523484,-0.017915871,-0.088072725,0.06506937,0.0032190438,0.036550898,0.5496783,0.3250579,0.14526975,0.035324775,0.39023182,0.21002565,0.23312142,0.020327706,0.45527413,0.14532238,0.038274735,-0.2732666,0.37521404,0.07683931,0.09714516,-0.043230508,0.2820634,0.6074935,0.0032004993,0.2201644,0.02004364,0.031063927,-0.14304176,0.020683823,0.42343628,0.047789503,-0.38098162,0.035715114,0.18109803,0.2868083,0.047001548,0.002850885,-0.35828665,0.51131254,0.27440536,0.08573814,-0.020306788,-0.058342464,0.5830597,0.27119866,0.69099206,0.47195145,0.12058003,0.39755508,-0.0095687555,0.055350885,0.03035986,1.1005833,0.41456553,0.2201023,0.60573953,-0.95522386,0.04112562,0.50754017,0.0022789333,0.108784616,0.19770372,0.15300749,0.5581124,0.12948099,0.026387293,0.48590267,0.21240407,0.11088842,-0.011663593,0.41336063,0.19004999,-0.009575383,0.18268974,0.061608877,0.39985853,0.12784354,0.44245428,-0.012191138,0.40910584,0.06724568,0.17520131,0.31461442,0.012455224,0.21438438,0.030835576,0.7299229,0.006181051,-0.26815593,0.16969578,-0.0011893706,-0.029831396,0.044359982,0.23517942,-0.0015527833,0.37637678,0.08303434,0.27295467,0.19031341,0.031577345,0.15357089,-0.21979186,0.3007791,0.6897262,0.058720987,0.0985376,0.29692462,0.062717736,0.26107264,0.8980464,0.12873003,0.5403823,0.2688248,0.11912541,0.12030774,0.51454574,0.10124903,0.20100017,0.49222463
