0.24290574,-0.45666346,0.20117544,-0.0710226,-0.41096276,-0.1156952,-0.0771631,0.3706652,-0.19136381,-0.5145258,-0.14491494,-0.16087312,-0.31782904,0.38452047,-0.37595093,1.9411516,-0.92648584,-0.30753672,0.33653283,-0.045972206,-0.004960969,-0.026798047,0.24405354,-0.41338328,-0.1410864,-0.39757946,-0.17568612,-0.48475128,-0.48854938,-0.29233977,-0.63682204
-0.8160794,-0.037116006,0.5388271,-1.0935076,-0.9856052,1.1401023,0.9319144,-0.20520486,-0.4088959,1.4525651,-0.5077547,-0.5456144,0.13718633,-0.17480662,-0.57101756,-0.31280714,2.8492162,-0.16751322,0.81645966,0.038524114,0.03259161,-0.057307392,0.18003136,-0.162899,-0.43167427,-0.3910781,0.057833746,0.102417886,-1.0821561,-0.06701211,0.088710934
0.04692482,-0.13271652,0.5438268,0.23269692,0.11138431,0.16998135,0.5349373,0.6937045,-0.5510799,-0.13125959,-0.16170922,-0.51445293,-0.62606514,-0.3743526,-0.92597604,0.09266404,-2.706371,-0.11289443,-0.28397915,0.036640182,-0.024606898,-0.025635086,0.21836413,-0.17526895,0.03424361,-0.26028252,-0.22503583,-0.33142817,-0.38723767,-0.2103519,-0.33547094
0.56456906,0.5703396,-0.27689984,1.0810908,0.9897697,-2.3110454,0.23240627,0.87450546,0.5723834,-0.43083322,0.8679202,0.5996076,-0.991493,-1.1970704,0.19090536,0.8558648,0.6116205,-0.14778627,0.12314355,-0.036453366,0.004697621,-0.050979786,0.055294663,-0.0940011,-0.5853157,-0.14365566,-0.12507929,-0.23316844,0.04398594,-0.10048096,0.054500315
0.88637537,-0.18296216,-0.7132389,-0.5606788,-0.047627877,-0.5561458,-0.2537419,0.49674118,0.10051386,0.577572,0.45199156,0.043967873,-0.4977186,1.0921751,-0.51930815,1.0336685,1.0804707,-0.49254864,0.05453187,0.0002489388,-0.017853513,0.022890016,0.55074835,-0.5235292,-0.6194939,-0.35110188,-0.3510886,-0.5365434,-0.36344177,-0.43689963,-0.7053817
-0.5579249,-0.15547627,-0.34349838,-0.6914603,-0.5176815,0.3335829,-0.35298568,0.19796449,-0.68624365,0.576701,-0.35559437,-0.694692,-0.16436166,0.009833537,-1.1729839,-1.5918351,0.71454185,0.23200658,-0.32147288,0.04869888,0.024355821,0.054806665,-0.28463778,0.28007698,0.36210486,0.5353403,0.12895589,0.3318287,0.07298781,0.22893275,0.29588547
-0.3411204,0.32831302,0.16769215,0.018208386,0.026590066,1.469495,-0.60146284,0.75554276,-0.8586818,0.11373574,0.29941934,-0.8356385,-0.78502834,-1.4771789,-1.0045195,0.2826917,-0.9286881,0.15951169,-0.3279839,0.016306147,-0.0048020706,-0.021142378,-0.10167119,0.12512232,0.19852147,-0.06456895,0.1399157,0.34714326,-0.09849196,0.12423994,-0.4648422
-0.43578297,0.09130026,0.6891165,0.14220388,-0.17420194,0.52480173,-0.6815023,-1.4921532,-0.6024327,0.19999929,-1.4689616,-0.5800854,1.370381,-0.17252003,0.34580007,-0.11900311,1.8933703,0.10485806,-1.1598629,0.05178593,0.034713678,0.055059023,-0.04367802,0.12193876,-0.0066586835,0.07733202,0.07067761,0.3554133,0.13905858,-0.04703545,1.3116782
-0.018799309,0.4901945,-0.60870165,-0.057137217,0.09018379,-0.2676176,0.46246964,1.2728873,0.26045504,-1.4705957,0.98860687,0.30188572,-1.0973227,0.8812728,-0.5326985,-0.89174247,1.207683,0.14477175,-0.19952507,0.06212394,-0.034107856,-0.021930352,-0.23310971,0.24884696,-0.08448612,0.35837027,0.010998152,0.09232554,-0.063745424,0.24960077,-0.46376395
0.36822182,-0.006534735,-0.25794825,0.47156695,0.3295603,-0.8558208,0.21708044,0.27660426,-0.22834519,-0.15388241,-0.2825606,-0.29067305,-0.3181364,0.48284552,-0.62360233,0.3704125,1.785604,0.038196664,0.25241143,-0.062298194,-0.0066012517,-0.04266902,-0.00034270223,-0.05483015,0.21134745,0.0127353985,-0.1716171,-0.18242648,-0.06776601,0.13379318,-0.2855382
-0.6343635,-0.16003299,0.058038242,-0.56316787,-0.5649658,0.9815864,1.0328128,-0.5145126,0.49083495,3.7691479,0.15973319,0.4593577,0.50241727,-0.8840834,1.0198567,2.0475543,4.4332094,0.101599224,0.9617192,0.061748408,0.052890882,0.03503359,-0.013388847,0.10307282,0.1269265,0.09761097,-0.0063164905,-0.13195398,-0.18243574,0.13081813,-0.03691798
-0.98089176,-0.19058195,1.5890279,-0.08817824,-0.19846974,0.04497591,0.69922435,0.07706031,0.8916862,3.08935,0.5652067,0.8313803,-0.03163815,0.72614837,0.5318758,0.7399832,2.103809,0.014108471,-0.8282293,0.010102883,-0.04216247,0.023505822,-0.07892871,0.13853419,0.08871468,-0.06491696,-0.03289529,-0.08630042,-0.091706626,0.09133677,0.27724838
-0.08707627,0.36131996,0.72650194,0.8590525,0.18093963,-1.0062779,0.15990117,-0.2270177,-0.3241448,-0.34897506,-0.12429867,-0.37967575,0.13850635,-0.22653887,-0.43183768,-0.7646573,-0.92746973,-0.054321464,-1.8522553,0.046044156,-0.0081039965,-0.05253785,0.054569453,-0.07838903,-0.29832828,0.08314456,-0.008880323,-0.24749078,0.18691844,-0.15089366,0.59591234
0.26778856,-0.6369827,0.23968397,-0.3818472,0.10339405,0.57451177,-0.5260238,-0.73717725,0.47425684,-0.78181314,-0.07779372,0.47069845,0.73652965,-0.62112373,0.58188945,-0.0070922803,0.14995623,-0.37706307,0.50488776,0.041563697,0.004160367,0.028435968,0.5138558,-0.48265177,-0.40074888,-0.69157135,-0.28362674,-0.18678087,-0.4976201,-0.48897326,-0.036378805
0.16780828,-1.0658637,-0.3208251,-0.44305325,-0.5143889,0.38466972,-0.0915766,-0.2510082,-0.9513071,0.4925133,-0.7133616,-1.0234653,0.18790866,0.52007896,-0.73234564,-0.16263175,-0.36924067,-0.041822873,-0.6299253,-0.011003576,0.02103445,-0.0323124,0.16503161,-0.07807802,0.20621166,0.18273054,-0.349414,-0.03920396,-0.15289995,-0.20277314,2.0510778
-0.42264277,0.70447063,0.1818491,0.64182645,0.7358228,0.33318117,0.0350762,0.15934521,-0.4534274,-0.20589119,-0.2945345,-0.4620914,-0.20999534,0.6181729,-0.44440493,-0.049515724,1.6802062,0.19438043,-1.349043,-0.033694394,0.009757057,0.061783873,-0.11793736,0.18989542,0.049535714,0.010745262,0.0026399896,0.2171529,0.032737568,0.16467777,0.2091456
0.38257822,0.10828808,-0.8605875,-0.86327094,-0.12795904,0.35963327,-0.06412816,-0.58549225,-0.24820532,0.33130258,-0.6373762,-0.2424371,0.5921145,-0.3660328,0.1984342,0.76960236,0.31258795,-0.07800856,0.022053095,-0.032402307,-0.056521744,0.041866817,0.026304038,0.04063015,-0.2582183,0.12337758,0.07580834,0.14215016,0.14521044,-0.015852362,-0.53249246
0.5679395,-0.73863834,-1.0874622,-0.91460377,-0.34212264,1.3104649,-0.91314834,-0.024018545,-0.22738464,1.1929144,-0.15822916,-0.26026553,0.09091529,0.36933896,-0.37781453,0.9346803,-1.7781878,0.16713347,-0.98355055,0.026742019,0.039748214,-0.005531147,-0.042097688,0.060998376,0.74586916,0.43639728,-0.028937602,0.3573592,0.1148201,0.024745587,0.66757476
-0.9563325,0.17184843,1.3047441,0.33272815,-0.7728117,0.33656645,0.32081228,0.69326985,-0.5908174,1.0082774,0.1770149,-0.6024155,-0.69181997,1.4167928,-0.6587566,-1.6612362,1.1979733,-0.0060858116,-1.2506126,-0.02953004,-0.059248097,-0.040280916,-0.012345985,0.03868646,-0.051247653,-0.034223184,-0.23537423,0.015732167,-0.1781948,0.061348073,-0.33752602
-0.79595107,-0.12492584,0.38486066,-1.3305057,-0.93058676,1.1644818,-0.2093127,0.17951953,0.6222476,0.4052563,0.7810511,0.59573436,-0.13615724,1.6221211,0.36021295,2.963197,0.5354767,-0.13661751,-0.084745556,-0.044555075,-0.0035134777,0.004546769,0.0797815,0.06693626,-0.30719042,-0.06888751,0.05857901,0.41962075,-0.23050857,-0.15048027,-0.037723023
0.102884635,-0.8293099,0.0013543327,-0.9321323,-0.25632864,0.62032604,-0.38248047,-0.58451295,0.16526797,1.2444904,0.07626241,0.10259657,0.56633246,-0.6139151,0.31970444,-1.2484411,0.60314935,-0.15811473,0.17166212,0.034974925,0.0031826347,-0.027953595,0.23615663,-0.12679811,0.024193749,-0.010837037,-0.2750006,-0.13493142,-0.5480521,-0.16994575,0.09581753
0.264816,-0.70534444,0.12776789,0.24182118,0.052746687,-0.31790686,-0.6413315,-1.1439725,-0.1620825,0.6146594,-0.5117421,-0.01407955,1.153982,0.9072161,0.61124325,2.186931,-1.3599287,-0.9997557,0.7504307,0.01235725,0.022690497,0.05900649,1.0357363,-1.0121444,-0.6819707,-1.0189388,-0.88716274,-0.8125596,-0.83823216,-0.988062,0.13382608
0.34333843,0.17465219,0.23815438,0.7640802,0.12626739,-1.2444901,-0.2798857,0.14030685,-0.36491907,-0.32814535,-0.29173785,-0.3732181,-0.18808518,-1.7650822,-0.36235046,0.02569957,1.4430685,-0.33207437,-0.5502022,-0.014076069,-0.04413127,0.020478971,0.19426107,-0.2574903,-0.34269404,-0.32549828,-0.40090752,-0.28865194,0.23026979,-0.29205206,0.19068557
-0.22449891,0.18759619,0.36436963,-0.03152329,0.13627,0.035573263,0.14849871,0.5825248,0.7119429,-1.3178799,1.1588086,0.64295065,-0.59775,-0.27732858,0.16587378,-1.4485102,0.34699976,-0.26527914,-0.8665652,-0.037326865,-0.051288478,0.02046512,0.19984365,-0.12590717,-0.62682927,-0.35884532,-0.43034542,-0.18546325,-0.62747043,-0.23340319,0.3944238
0.3838686,0.2124452,-0.27945825,0.51508194,0.47245434,-0.17549695,-0.15168835,-0.3544159,-0.84186924,0.63183206,-0.94750136,-0.8291434,0.39499524,-1.7304039,-0.28000268,0.021730062,-0.843668,-0.06264387,-1.305116,-0.0022347346,0.041208267,0.03685517,-0.006130601,-0.11768811,-0.19958793,-0.17563565,0.101131946,-0.12892118,0.43408734,-0.06220834,0.5432875
-0.51586396,0.57694405,0.58756953,0.79464316,-0.29241952,-0.28708467,-0.10950155,0.74376243,0.6091596,0.9424856,1.0405478,0.6565836,-0.77139187,-0.82835567,0.097422086,-0.15991177,-0.14171465,-0.16626593,-0.10350825,0.024552733,0.05137849,0.01935038,0.21973887,-0.050211065,-0.66293705,-0.08621671,-0.038018975,0.006174462,-0.19205776,-0.15620746,-0.8282794
0.597032,0.19058464,-1.4826541,-0.11345117,0.07677772,-0.30858386,-0.26951063,0.28224853,-0.287977,0.15700856,-0.09786257,-0.28567564,-0.29202947,-1.114896,-0.5146827,1.590787,2.6013076,-0.08832374,-0.16407387,0.040916942,-0.013755463,0.014710836,0.036428448,-0.14700682,-0.116468154,-0.064957336,-0.12536487,-0.19120227,-0.16714138,-0.042936135,-1.696749
0.9363895,1.0667235,-1.7287284,1.2041721,0.37658152,-1.3758996,-0.90700626,0.4591396,-0.64872694,0.7101393,-0.073774666,-0.69226813,-0.3526756,-0.8872295,-0.4152581,1.2099373,0.14438112,0.012300878,1.35109,0.01314681,-0.038282737,-0.021919474,0.025509031,-0.047277566,-0.06047083,0.09421826,0.18396339,-0.07320062,0.46285027,0.04062055,-1.0268133
0.5252242,0.5097877,-1.4337436,0.03197916,1.5082172,0.16233489,-0.70775956,-0.1608506,0.5705505,-0.5609089,0.20455936,0.6556703,0.13083734,-0.18598482,0.2688672,1.478461,-0.69636995,-0.11513995,0.4497736,-0.0047794804,-0.05283253,-0.03281644,0.2196532,-0.11410458,-0.3360861,-0.3291121,-0.36399305,-0.410694,0.08255862,-0.25842664,-0.4789699
0.5257167,0.0032804925,-0.52389836,-0.6279923,-0.08998712,0.35296845,-0.64606315,0.0843236,0.67934805,-1.33876,0.38229683,0.73899364,-0.1362005,1.500654,0.5086842,-0.62678933,3.4198205,0.0844006,-0.29417533,-0.03723199,0.020310037,0.056338564,-0.049893256,0.11095352,0.3030261,-0.0039222245,-0.09023169,0.2756697,-0.12079117,0.072919816,-0.48337585
1.0843233,0.10555355,-0.5175709,-0.11979824,0.4056954,-1.5003594,-0.6772224,0.22503951,-0.17877811,-0.4299803,0.055312496,-0.19702853,-0.19587341,-1.0856342,-0.036897536,-1.0347307,-0.037967272,-0.0442556,-0.37417358,0.017164692,-0.033662856,-0.050071217,0.098396696,-0.0059020515,-0.55069184,0.094297394,-0.052758735,-0.09096809,0.24255735,-0.026446976,0.26335087
-0.07774414,0.15063962,-0.010421521,0.42152485,-0.4375428,-0.38088417,-0.12816827,-0.23297071,-1.0541813,1.1421484,-0.7822226,-1.1816343,0.24466784,-0.26249182,-0.73630726,0.5312146,-1.0420892,-0.033422735,-0.40679497,0.049507886,-0.03596948,0.03879498,0.14420567,-0.12684801,-0.014090262,-0.089668505,-0.03323951,-0.41332862,-0.035315633,-0.08969012,-0.6227574
-1.0393924,0.03155042,0.9602217,-0.17140914,-1.0299017,0.9791588,-0.50571287,0.22617348,-0.794355,1.790825,-0.47844863,-0.84087104,-0.32855234,0.91386557,-0.6857218,0.661262,1.144405,-0.1003326,-0.080043525,0.050845936,-0.062304273,0.0039874464,0.06783454,-0.089461796,-0.105412744,-0.20591007,0.19690025,0.15857586,-0.151215,-0.0058046095,-0.67777026
-0.6269309,0.3656122,0.74068385,1.0275568,-0.2859404,0.11254499,-0.28767142,0.8546523,-0.2123558,0.46336532,0.61038786,-0.14670362,-0.87734765,-1.5770336,-0.6691268,0.4939116,-0.22301172,0.45830792,0.43601507,-0.010572091,0.049897797,0.039595827,-0.43599558,0.40361306,0.31867972,0.36634496,0.35802627,-0.115688436,0.56745076,0.41756493,0.024124956
0.2663567,-0.00294663,-0.4232179,-0.4597008,0.7603422,-0.17097548,0.2810836,-0.37798804,0.4985023,-0.5650794,-0.09880574,0.43365014,0.2469411,-2.2186892,0.44030574,-1.2111428,1.7223697,0.08754632,-0.15929992,-0.01870536,0.025643274,0.032701015,-0.08820633,0.11319622,0.22724499,0.09568723,0.18017134,0.18990865,0.37422732,0.094406985,0.058503345
0.254772,-0.6986497,-0.14036377,0.36118287,-0.35052663,-0.20724909,-0.56156605,-0.8595242,0.34428486,-1.561631,-0.2903499,0.39286488,0.67238814,-0.8562828,0.86182797,-3.0686426,-1.5683953,-0.5192957,-0.3827431,-0.011775248,-0.024162985,0.026609704,0.545604,-0.3973802,-0.23843026,-0.5215916,-0.80022824,-0.38660172,-0.4147789,-0.59069544,0.20842779
0.44317895,-0.51432276,-0.1633745,-0.23774175,-0.8377,-0.89013165,0.03737048,-0.21528748,-0.25401944,1.3647751,-0.23772614,-0.25265047,0.301921,0.65779567,-0.24080102,-2.7124622,-0.26528475,-0.021598117,-0.842456,-0.029797971,-0.036206312,-0.028848305,-0.040068835,0.0801778,0.21959002,0.21043962,-0.067452185,-0.42259052,0.09113629,0.01763948,0.9965702
-0.03977131,0.3401965,0.49462765,1.0055554,0.6263594,-0.7472561,-0.44660044,-0.4112854,0.050697844,-0.59241843,-0.39284477,-0.008290168,0.37384966,-0.54623306,0.45678183,-0.7799725,-0.036233407,0.0022966585,-0.33224067,0.019807719,0.0092935935,-0.035609268,-0.06572575,-0.039574403,-0.02563907,-0.06883522,0.066010885,0.39138407,0.0798126,-0.023494082,0.1431342
0.030583259,-0.28219044,-0.64323586,-0.39301577,0.018820552,0.14615025,0.20933372,0.034588035,1.453445,0.50389767,0.8206775,1.491303,-0.007021806,0.3888021,1.0807028,1.8679149,-1.4810436,-0.141878,0.64703935,-0.016315289,-0.030523628,0.053254165,0.18609035,-0.26024473,-0.1257186,-0.18181023,-0.20933335,0.026863107,-0.1753279,-0.11926806,-0.85878384
-0.08104375,-0.2680192,0.79854584,0.88537174,-0.380241,0.36317244,-0.5358632,-0.32671636,-0.811742,0.28119767,-0.7282505,-0.7617159,0.3485415,-0.072809845,-0.57680774,-0.059219822,0.17273943,-0.22861823,-0.42047212,0.019359238,-0.016690165,-0.0129451305,0.14538722,-0.18223062,-0.27399468,-0.29281014,-0.2412397,0.015406886,-0.03545381,-0.2189604,0.8517678
0.4137536,-1.1114881,0.18349378,0.4804271,-0.38570726,-0.54778045,0.33525717,-0.45834437,-0.70326674,-0.9727498,-0.67123383,-0.69351965,0.5027963,0.5270974,-0.20138079,-0.67129225,-0.58467376,-0.25010344,0.6296628,-0.0127974,-0.040220857,0.03079456,0.233842,-0.39221558,-0.016757233,-0.14194104,-0.251282,-0.49311432,-0.28213474,-0.37399676,-0.55877906
-0.9594577,-0.3863013,1.0337676,-0.5564003,-0.35663655,0.75210935,-0.3172169,-1.0023947,0.2612838,1.4874449,-0.0754373,0.07317949,0.99439037,0.6878412,0.8412554,-0.13263032,-0.9309281,-0.42443898,-0.5067968,-0.016429536,-0.04271348,-0.051456288,0.48225936,-0.5593167,-0.04522126,-0.5744958,-0.47519237,-0.22974588,-0.75757647,-0.5867522,0.90382826
-0.14845955,0.34781104,-0.22603044,0.24983588,-0.44196805,-0.21488467,0.7115859,-0.20749988,0.23395105,-0.12701614,0.38073257,0.19885276,0.072147645,-3.1763926,0.24106175,0.17154184,0.62418455,-0.05882023,-0.029853102,0.055583708,0.028405242,-0.01471971,0.045228787,-0.018709632,-0.30592665,0.007973137,0.14445537,-0.12675385,0.017564397,-0.036739625,0.3264125
0.048475444,0.13816963,0.27836996,0.6607272,-0.90027106,-0.022147125,-0.90440375,-0.011987793,-0.005347723,0.05755613,0.031506464,0.016869513,0.045906495,0.5179531,0.027691334,0.8498775,1.2389857,-0.3434004,0.14449824,0.032995284,0.03836345,0.024222441,0.34065643,-0.30129546,-0.24759746,-0.32524678,-0.38635463,-0.27192262,-0.1914945,-0.36976448,0.346015
0.19447312,-0.11020292,0.15983179,0.28416368,-0.03981649,-0.8785028,0.30350533,0.039684545,1.1067985,0.011945442,0.774824,1.0593424,-0.0969764,-0.55192935,0.6298728,-0.54959023,-0.75825816,-0.042920627,-0.89994425,-0.012370385,0.058538415,-0.02459231,0.031572808,-0.0030077295,0.11894405,0.028261872,-0.17170626,-0.1747397,-0.63268876,-0.13539538,0.1577387
-1.0822465,1.1742581,0.7001033,-0.47961733,0.21421129,0.17489061,0.23901431,-0.06594621,0.43951294,0.12427561,0.22205642,0.47732922,0.14806636,-0.10661756,0.5177905,-0.24205734,-0.015873063,0.09458025,-1.0083778,0.027224839,-0.022874124,-0.05943737,-0.021137482,0.14229083,-0.8127858,-0.33673707,-0.14196995,0.29240113,-0.44655585,0.07726424,-0.25762692
0.18635927,-0.24457926,-1.2530986,-0.7242547,-1.122235,0.48070037,-0.03454511,-0.8120509,0.106265664,1.1742891,-0.6728648,0.06451436,0.86734366,-0.97509444,0.54781723,0.6093126,-1.19541,-0.0648089,-0.5413141,0.030075587,-0.027954511,-0.034795724,0.015515446,-0.04955145,0.19068913,0.29368377,-0.058533624,-0.23691855,-0.006547867,0.0013306754,-0.010664817
0.34873655,0.29118824,-0.45140296,1.0282719,-0.6165745,-0.33353826,-1.2263545,-0.10194474,0.88004446,-1.4054388,0.9552197,0.85925674,0.09095516,0.14022626,0.37784293,1.2724527,0.069128044,-0.27149823,-0.18952063,0.031769343,0.05457308,-0.0079662725,0.16666503,-0.27298382,-0.2047581,-0.16117832,0.045786675,0.1550956,-0.14662157,-0.13525319,-0.494825
-0.43995774,-0.020007424,0.12485005,-0.2926563,-0.855632,0.062317345,-0.010417564,0.043461233,0.1049169,0.66179264,0.12859195,0.036569063,-0.054684043,0.11457695,-0.19076207,-1.3006628,-0.71205854,-0.5328296,-0.50967777,-0.0515,-0.04664015,-0.00845702,0.4477344,-0.547854,-0.9346385,-0.78626305,-0.45434052,-0.25115645,-0.6364404,-0.5289674,-0.87109417
0.4301685,-0.14967039,-0.7829199,1.0287592,1.4918442,-0.29638112,0.16271955,0.9022554,-0.7303126,-0.23797746,0.1279769,-0.72422665,-0.9346361,1.0762886,-1.3912568,-0.80826855,-0.1661631,0.07329238,-0.30284354,0.05035436,0.006936118,-0.054606855,-0.08225624,-0.10609548,0.27921888,0.02268019,-0.0908195,-0.2494136,0.28710166,0.081097126,-0.3812957
-0.4830793,-0.43069384,0.26588646,-0.7068972,-1.8275043,-0.31401327,0.72860926,0.26823565,0.0358706,1.9345331,0.0541588,0.0026902468,-0.24070117,0.6306505,-1.4518724e-05,-0.8468688,1.2430378,-0.09126124,0.031264838,-0.05331023,0.03966336,-0.052548572,0.026522508,-0.014972198,-0.16843273,0.1345217,0.13658643,0.036963943,-0.2734359,-0.019801667,-0.75735223
0.04814086,0.19356424,-1.1474541,-1.3570855,-0.4447237,0.13432185,0.09242305,0.15242751,0.33381662,-0.99554443,0.24718355,0.42499834,-0.12710674,-0.85773,0.4234751,-0.9414189,1.4534837,0.061364293,-1.2636944,0.0022705197,-0.0071165785,-0.05819428,0.017739495,0.07175556,-0.084349476,0.2243045,0.0132848,0.2199369,-0.07693037,0.012906626,0.39277554
0.2828879,0.6129229,-0.41466835,-0.19052613,0.40514487,-1.2665629,-0.16953231,-0.62368643,-0.25805992,0.18919478,-0.34907782,-0.2680269,0.66532654,0.7696502,0.036130138,-0.32066482,-0.50063205,-0.085150704,0.66606814,0.055164754,-0.010267198,-0.00982476,0.071714304,-0.16042452,-0.4930696,-0.30120185,0.21673326,-0.21254472,-0.026984405,-0.19160926,-0.28347382
0.0013815891,-1.9054214,-0.18388839,-1.6006233,-0.90497667,0.6825188,0.91358316,-0.5835052,-0.53258723,-0.0038731506,-0.876373,-0.46875983,0.7318399,0.64325386,-0.054070245,-0.43325323,0.64656144,-0.40686008,0.027121104,0.026718788,0.04045008,0.05573973,0.23245127,-0.099023916,0.01271886,0.16491492,-0.18945438,0.07269842,-0.35471275,-0.37293363,0.42542142
-0.087113634,0.1389789,0.6560328,0.4627499,0.49839357,-0.5378458,0.076097816,-0.97973067,-0.24256691,-0.39055717,-0.9071941,-0.23185533,0.9679833,-0.04673265,0.51305467,-1.1073481,-2.4146755,0.050353393,-0.28076875,0.005136274,-0.05160843,0.006817691,-0.08846204,0.15733035,-0.31100294,0.18471658,0.034697153,-0.10108836,0.5169736,-0.00056027656,-0.03925836
-1.5888522,-0.35631156,0.0095476275,-0.7582051,0.21869017,0.97386235,0.8029814,-0.08270521,0.43211892,0.9690189,0.46807134,0.3965374,0.08026803,-0.26399165,0.18060565,-0.19847707,1.0789729,-0.012378723,0.5025156,0.03244684,-9.636581e-05,-0.0023919046,0.0153413145,0.03650134,0.07047629,0.05672701,-0.15217558,0.08297218,-0.18558691,0.007469237,0.5511651
-0.012486821,-0.42819843,0.66353154,-0.10524578,-0.7253924,-0.69497114,-0.57229424,1.073867,-0.91284025,-0.81571525,-0.073074214,-0.76918894,-1.0211972,-0.72830474,-1.2935257,-0.5062144,-0.0117648365,-0.26842588,-0.38271084,-0.028409407,0.0023301542,0.02048634,0.31810844,-0.23624326,-0.36414874,-0.25899926,-0.12605171,-0.5544237,0.07309635,-0.36030605,0.09824731
0.12940188,-0.061664,-0.5407895,-0.78347915,-0.6388746,-0.084019,0.54427826,-0.015755646,-0.71030396,3.4454513,-0.27221495,-0.85338056,0.027630037,-0.52288765,-0.64535546,-1.5649288,0.6158058,-0.12623033,-1.403024,-0.02064675,0.054911375,0.006230697,0.14572194,-0.03902703,-0.4219994,0.12416254,-0.017269446,-0.46108836,-0.10560279,-0.1029262,-0.5731705
0.7272487,-0.72610164,0.30363846,-0.36529437,-0.80564183,-0.14563783,-1.0534753,-0.44465107,0.092093565,-0.24390644,0.00537308,0.12671639,0.48280352,0.87324965,0.00930914,0.8016819,0.86006755,-0.67412734,0.23303737,0.05004698,-0.005700074,0.020207912,0.59384155,-0.65883857,-0.4761677,-0.66846406,-0.3883095,-0.7219444,-0.5246361,-0.5716745,-0.516147
-1.093606,-1.0110964,1.1718947,-0.49167666,-0.731325,0.8688285,0.9977764,0.27159917,-0.23581503,0.54127437,0.1989157,-0.21812843,-0.1545537,-0.42448303,-0.3803118,-0.8548844,0.6360353,-0.31873658,0.13805753,0.043910228,0.04967363,0.02766978,0.21131216,-0.2053303,0.15131243,-0.32017705,-0.41391686,-0.2355801,-0.563303,-0.26730278,-1.1650106
-0.40316764,1.2155135,-0.52490175,1.1778725,0.9255726,-0.72540504,0.40402603,0.30265957,1.0642205,0.31585214,0.8498659,1.0348244,-0.20362636,0.19454886,0.6549336,0.77862734,-0.15996361,0.03933544,-1.2802124,-0.00025352836,-0.0064458996,0.009662002,-0.11171829,0.03386868,-0.44513777,-0.13926022,0.016545273,0.37144628,0.13381043,0.062639825,0.20747441
0.79665124,-1.0591563,-0.38469458,-0.015602819,0.24473459,-0.5786979,0.7822943,-0.89635146,-0.17585927,0.913497,-0.8373528,-0.21501872,0.9411669,-0.054128595,0.4395137,1.4228683,-1.1323429,-0.45006555,0.5379702,0.05948087,-0.048306152,-0.024032533,0.3867688,-0.31472355,0.3310922,-0.24847582,-0.75185734,-0.11824008,-0.44879207,-0.29527262,0.16541341
-0.8494079,-0.50760096,-0.05325143,-0.9472351,-0.93487555,1.1103766,0.39498988,0.20932214,0.3713334,0.13966908,0.2668644,0.30372435,-0.19605765,-2.3410368,0.15033613,0.35839367,1.5853137,0.013819325,-0.056440875,0.0010532364,0.034361348,-0.002249539,-0.063026644,-0.05614492,0.40785006,-0.06521692,0.014173578,0.2878979,-0.45016006,0.012757896,0.060090527
0.006987893,-0.033859994,-0.36854556,0.8318083,0.4726736,-0.2934262,0.22845118,0.38032907,-0.054202665,0.8128051,0.40093145,-0.07962842,-0.44513455,0.69170845,-0.2237542,1.0876836,-0.35147038,0.016642688,0.50976497,-0.04007946,0.017644957,-0.034775823,-0.014152675,-0.11998327,-0.3426006,0.04502103,0.0111594815,0.13103136,0.040090133,0.1296412,-0.93693846
0.5963531,-1.8985858,-0.29339722,-1.6281736,-2.0672102,0.2726036,-0.039177444,-0.94962734,-0.098596424,-0.26057523,-0.6413464,-0.09805485,0.8710426,-0.66754556,0.34701154,0.28103337,1.4047494,-0.50477177,0.22473921,0.057207987,-0.034202665,-0.0029282346,0.49243858,-0.489682,0.0060677794,-0.26720613,-0.23262115,-0.35211322,-0.36488527,-0.52801085,0.5621209
-1.1778731,-0.09886549,1.8827447,-0.0190868,-0.5197612,0.93432504,-0.6521782,-0.19136433,-1.4838948,-0.37133184,-0.6220171,-1.4605026,0.17514254,-0.56266093,-0.727097,2.4108982,0.38289374,-0.079704836,-0.25370497,-0.029500179,0.02470678,-0.028447181,-0.0008929765,-0.10027373,-0.010078728,-0.16353337,-0.05293437,0.21126345,0.0038236128,0.034786392,-0.9653366
-0.45098907,0.5143474,0.7505717,-0.18582854,0.3596767,0.090509124,0.36402267,0.3101009,0.16037233,-0.031103093,0.14312817,0.07107154,-0.3984579,-0.320923,0.029714685,-0.39504555,1.0291152,0.17633246,-0.7880582,-0.005286768,0.05922948,0.020113602,-0.08509518,0.21844079,-0.15335055,0.09119105,-0.04310529,0.2896245,-0.051436767,0.13386627,-0.47225204
0.72514975,-0.2058686,-2.1277757,-0.52025014,-0.6706074,0.07315163,-0.9286902,0.114149034,-0.4135578,1.0716099,0.29992756,-0.5733095,-0.21166207,-2.3452432,-0.6776025,0.5306398,-1.8341609,-0.0030593565,-0.24250212,-0.010797761,-0.0070597604,0.056906156,0.123833045,-0.0925717,-0.058209375,0.28816608,-0.113008074,-0.08556894,0.26964822,-0.16420273,0.81060654
0.14079928,0.0319552,-0.011370014,-0.3061197,0.10535043,-0.05062614,-0.03792381,-0.44057414,0.4844315,-2.2857947,0.014042295,0.4471909,0.41288525,-0.74875975,0.47539032,0.18772447,-1.1263932,-0.048281603,0.683284,-0.047705956,-0.014892571,-0.053845964,0.096759364,-0.21356364,-0.06899925,-0.39990836,-0.07909966,-0.0047496776,0.021295462,-0.1508692,0.12209763
0.17405972,-0.6257951,0.3499773,-0.09292556,0.06114991,-0.15823442,0.297957,1.2393895,0.0691332,-0.73963505,0.70887643,-0.07605134,-1.3444896,-0.6154505,-0.8134289,-0.7150418,0.15430294,-0.15072288,-1.0353276,0.018015914,0.020937316,0.006823756,0.17709142,-0.008251032,-0.09903266,-0.037909627,-0.23707213,-0.16977681,0.096593544,-0.16562895,-0.11721787
-0.045234,-0.7536277,-0.21988899,-1.3068391,-0.6325243,0.8044941,0.13838519,0.15334752,0.64288,0.9005339,0.81906,0.57898664,-0.107516766,-1.6031717,-0.0704412,-0.16969512,-0.31646368,-0.35243598,1.2960263,0.043220006,0.01588346,-0.0082878545,0.36570263,-0.45194224,-0.353671,-0.23722611,-0.30286005,-0.2325871,-0.60940516,-0.39822146,-0.5793717
0.14570335,-1.1126045,-0.5914172,-1.6628019,-0.7376235,0.5875425,0.06728554,-0.015272918,0.17391866,0.118291125,0.1420189,0.16478741,0.01831146,-0.48270118,0.07626919,-0.11268643,-0.7108093,-0.34021178,-0.9614414,0.014669277,0.029130504,-0.014209531,0.24803525,-0.20513012,0.17062177,0.051207166,-0.2697105,-0.25847116,-0.3229222,-0.32285115,-0.14143832
-0.09027882,0.21540192,0.55482435,-0.06512403,0.6852429,0.0056497916,0.120287426,-0.5760923,-1.191896,-1.5624963,-1.2148417,-1.1504632,0.5497639,1.2578199,-0.32276085,0.44987422,-0.15861331,-0.19570765,-0.59742093,0.061199576,0.049749523,0.009755671,0.18342096,-0.2741279,-0.5223645,-0.30402702,-0.1976772,-0.26147956,-0.04724433,-0.24178405,-0.4006029
0.30414164,-0.40040895,-0.38632336,-0.5400232,-0.8213887,-0.4453938,-0.08063352,0.008652559,0.27328664,-1.652222,0.021345036,0.26766604,-0.032582976,2.340814,0.6622132,-2.0168316,1.1487781,-0.39671245,-1.0823059,-0.012905516,0.03847404,0.021052852,0.4169237,-0.38116947,-0.4814892,-0.2668607,-0.50969887,-0.5376709,-0.9151172,-0.4912978,-0.46527436
-0.057337746,0.9907242,-0.47647837,-0.38862535,-0.46816576,-0.29719236,-0.47125682,-0.43189633,-0.39393604,1.4138288,-0.44178417,-0.3927746,0.36664164,0.2989608,0.1456108,-0.25933486,0.41685548,0.21481264,-1.0628525,0.028290205,0.05356288,0.024107516,-0.16120017,0.15079123,-0.059937198,0.052991,0.27867115,-0.11591033,0.60203624,0.18254532,1.2339343
0.88238335,-1.0000677,-1.1553965,-0.63985556,-0.34551787,0.12010583,-0.5566341,-0.1722842,0.44357833,-0.75533295,0.17853476,0.45855427,0.22860573,0.18986765,0.37862736,-0.14149915,-1.1182908,-0.09074873,1.403935,0.018251702,0.051873893,-0.050340846,0.11777013,-0.065072626,0.5547148,0.18751428,-0.36424887,-0.18780054,0.28641477,0.01659012,-0.38292834
-1.5077742,-0.14736596,1.690004,0.00018817832,-0.7475078,1.2035513,0.10730597,0.84462684,-1.1026615,0.79860604,0.07527696,-1.1178304,-0.8328517,-0.31073567,-1.5467311,1.5049014,-0.089305416,-0.0075734463,-0.58621365,-0.05690714,0.028828368,-0.0071588606,-0.07227115,-0.09359416,0.31151316,-0.1878746,-0.21049553,0.16544062,-0.43641436,-0.018925913,-0.5276788
-0.44816375,0.90003866,-0.18857089,0.005781893,-0.0076244697,0.47437268,-0.24010946,-0.3223452,-0.27954978,-0.6172937,-0.5154565,-0.30137226,0.28838018,1.632721,0.066279076,-0.28022015,3.0898447,0.100579545,-0.29986507,0.021833189,0.02350095,0.044238858,-0.08767792,0.10157896,-0.44225803,0.020756481,0.40067813,0.34020552,-0.034735642,0.087130845,0.6753202
0.12732254,-0.07520018,0.39403644,-0.15591992,-0.014353022,-0.8588897,-0.7129785,-0.16615373,-0.1561179,-0.28587267,-0.21676718,-0.038115665,0.15801544,-0.7059928,-0.15200126,0.40994486,-1.456309,0.08860313,-0.1473495,0.042100593,0.03489551,-0.05316642,0.021109747,0.092954494,-0.029667763,-0.033687074,0.122123905,0.28725842,0.37097034,-0.032864213,0.26727077
-0.13443235,0.16647679,0.008042468,1.0477867,0.40510538,-1.1695197,-0.42861667,-0.17859527,-0.13036732,0.12783684,-0.021355692,-0.1446281,0.27016103,-0.3874317,0.4660238,-1.1800597,-0.67138016,-0.07103613,-0.5746593,0.034032494,-0.055165596,0.024860993,0.26205173,-0.21218035,-0.3560268,-0.38880616,-0.17203012,-0.25903636,-0.14451836,-0.25119144,-0.47443357
0.38975096,-0.41488674,-0.52119225,0.12720741,0.3092858,0.16292943,0.22973378,-0.23248267,-0.6598137,-0.17349954,-0.3839528,-0.6707118,0.19145592,-0.9167482,-0.52940243,0.7059996,-1.3800591,0.17816637,1.0202837,-0.03012181,0.057628535,0.02383864,-0.14989914,0.12211653,0.56421506,0.17860033,-0.045206945,0.09678391,-0.07904997,0.1570612,-0.10563313
0.31965688,-0.38956523,-0.15925582,0.1821691,-0.8896844,-0.5590845,-0.530262,-0.44570434,-0.5155591,1.1211581,-0.61450994,-0.6110576,0.37614584,-1.6340688,0.06819034,-1.0506636,2.2249155,-0.66633314,-0.15533139,0.036535084,-0.030964553,0.016568996,0.56028277,-0.47539148,-0.62822837,-0.46359098,-0.36938208,-0.19169682,-0.39256206,-0.45070454,0.25924337
0.28696233,0.3881391,-0.57552373,-0.38442877,0.065718584,0.8448046,-1.0743924,-0.650729,0.38315699,0.8180927,-0.32975355,0.29655457,0.71298796,-0.07577154,0.7578834,2.7852733,0.26369354,0.12098749,-0.6987963,0.007938817,0.011638537,0.041893356,-0.24089076,0.2351138,-0.08521065,0.14569294,0.32990223,0.7542287,0.27927455,0.16838625,-0.33199996
0.3545241,0.2059739,-0.6216379,0.096868046,0.35918757,-0.12531221,-0.029750245,-0.035650797,0.06454913,0.8662393,0.12388168,0.081830546,0.013652668,-0.24938905,-0.10612387,0.52043575,-2.3068964,-0.28520757,0.36885095,0.05146122,0.027482882,-0.011648372,0.24662513,-0.3114689,-0.261641,-0.42009607,0.008120688,-0.24813892,0.39425147,-0.2784729,-1.1089807
0.5215989,0.17495297,-0.44799834,0.6590321,0.2876202,-0.5132554,-0.6331395,-0.09147234,0.4006197,0.47092274,0.4651863,0.42930278,0.14590997,0.8458512,0.2117803,0.78275687,-0.6667994,0.1080226,-0.33874688,0.04972124,-0.034627475,-0.00039373338,-0.06785336,0.12191832,0.06460988,0.26546103,0.094061166,0.19879673,0.09143121,-0.030154228,0.4863034
-0.5309006,0.23781359,1.017878,0.53853875,-1.0495853,0.11315357,0.8235915,0.1253405,-0.53707504,0.45232108,-0.5633933,-0.46121505,-0.05868478,0.31037375,-0.41304478,-0.31548142,0.4571881,0.08799937,-0.8007945,0.03811179,0.0067092776,0.039170116,-0.031482536,-0.04829472,-0.014900747,-0.19222714,0.017102497,-0.1522918,-0.20696922,-0.0069590886,0.27385625
-0.26216596,-0.556603,-0.9805485,-1.1741818,-0.7153828,1.1832811,-0.19486149,-0.5137388,0.2723061,-0.9492756,-0.28481475,0.2879768,0.5699333,1.3811417,0.6505985,1.7318391,1.0109144,-0.2733635,0.39978537,-0.0013386235,0.034630142,-0.018431984,0.3229632,-0.24571458,0.048647016,0.13410242,-0.5096692,0.11627633,-0.2835366,-0.25121814,0.60451245
0.24289998,-0.18454961,0.46025014,0.27305293,-1.1072983,-1.1614057,-0.64087147,-0.1363493,0.9994547,-1.1234189,0.65109414,0.9922488,0.17838833,1.5290151,1.00113,-2.5350032,1.1322407,-0.011920614,0.5825337,0.011850074,0.05662778,-0.058617197,-0.054979034,0.03237416,-0.04030247,0.14605492,0.061889533,-0.10339714,-0.09993368,0.08366896,0.8323367
-0.36137095,0.12631921,-0.62056,-1.0208898,0.5998353,1.1692343,0.3412413,0.28577134,1.7495638,0.4742221,1.6345361,1.6653408,-0.2907855,-1.2949945,0.15914163,2.0743876,-2.0931673,0.043566808,1.3117845,-0.05097588,0.039521195,-0.057010733,-0.056223594,-0.069578156,0.069326155,-0.15744263,-0.10036608,-0.18356869,-0.14555201,-0.0325914,-0.5771485
-0.38869235,-0.6985777,0.10362373,-0.398411,-0.42428106,0.0845362,1.1210883,0.6908708,0.47279596,-1.192481,1.2875482,0.50910676,-0.7318728,0.13792725,-0.42884603,-0.95512295,1.3244466,-0.14711405,1.6840163,0.0043959245,0.020992175,-0.062471308,0.11192625,-0.25756153,0.21926652,-0.19282013,-0.102268755,-0.38338104,-0.6023557,-0.22295089,-0.065295026
0.3310646,-0.23649444,0.5083815,0.48930508,-0.49926347,-0.0088210935,-0.5427681,-0.5343314,-0.13480619,-1.6338067,-0.67844796,-0.047640197,0.44544494,-0.04003651,0.25057623,-0.93322456,-1.2349255,-0.1418744,0.041074663,0.048825413,-0.00056762993,-0.062000975,0.16960616,-0.14260066,-0.010689737,-0.3000461,-0.2617016,-0.25938815,-0.36240488,-0.19224396,-0.711298
-0.1727392,-0.65181595,-0.017414777,-0.4295632,-0.26152158,0.5024628,1.0229845,0.6557325,-0.6293246,1.9359127,0.17936264,-0.7149736,-0.6288746,-0.9337837,-1.0501598,-0.5493273,0.9777721,0.12697244,0.3219518,-0.042959042,-0.044849716,-0.041767232,-0.055747952,0.046385083,0.34986943,0.100848466,-0.08634576,0.028224003,-0.51340514,-0.090068504,-0.64545286
0.37290487,0.33144662,-0.3787086,1.0559293,-0.19363731,-1.2392868,-0.1718509,0.5271474,0.42140144,1.3693101,0.5724372,0.4520922,-0.50023794,1.4751527,0.018561166,0.18408033,-1.6008258,-0.09059958,-1.8109375,-0.013352588,-0.04734464,-0.04893633,0.20529386,-0.18802889,-0.24146158,0.037166595,-0.04627852,-0.12687865,-0.09056181,-0.15302373,0.29459026
0.043788534,0.41331497,0.29232758,1.6476492,-0.17959277,-1.3728122,-0.29841122,-0.52456546,0.95495385,0.5032994,0.08043054,0.87568575,0.552288,-0.28114325,1.2013639,-0.33398733,0.42779732,-0.032588925,-0.5738891,-0.04058271,-0.043653928,-0.05333212,0.1357702,-0.05353539,-0.10438413,-0.2646401,-0.3373619,-0.26434237,0.043346,-0.10386147,-0.5378325
0.09680916,-0.58948475,-0.17381042,-0.56961083,-1.3717512,-0.20137618,-0.175788,0.45824453,0.5191669,-0.6030468,0.6503749,0.57034975,-0.45457363,-1.1764991,-0.23837738,0.1640564,1.0968441,-0.08898625,0.7347609,0.03054145,-0.045616142,0.03590843,0.16639854,-0.14809375,0.15078968,0.09905119,-0.038107526,-0.34431094,-0.2765647,-0.108264714,-0.38117918
0.5650774,-0.048644047,-0.6147301,-1.0257496,-0.11264248,1.0117311,-1.2378899,-0.67325157,0.89502215,1.458809,0.050787997,0.9084416,0.7090881,0.82849276,0.8208801,-0.026665313,1.037902,-0.2300163,0.8648394,-0.020964526,-0.020759575,-0.062140018,0.19718055,-0.25565124,-0.31067353,-0.23542169,0.08166827,-0.21442018,0.01362885,-0.091476016,0.13642022
-0.092831805,-1.1788545,1.1506671,-1.9250779,-1.6495922,0.68446976,-0.017995505,0.09156203,-0.5850411,-1.0726502,-0.77335155,-0.5605054,-0.043558527,-0.14656419,-0.8777767,1.0029168,0.6967224,-0.52485853,-0.9294431,-0.053548433,-0.029069655,0.0023699254,0.5180312,-0.5691886,-0.20986412,-0.45393464,-0.36345872,-0.67942816,-0.53152376,-0.53420156,-0.8112772
0.3428425,-0.11606629,-0.5247852,-0.16810064,-0.39679098,-0.06418171,-0.7562013,-0.15050231,-0.23950051,1.2462996,-0.08748325,-0.32726544,0.17036954,-1.2368497,-0.06356983,-0.94073427,1.0614663,-0.27146316,-0.80443555,-0.022163399,-0.019246683,-0.056245074,0.228305,-0.1957345,-0.45118663,-0.043480564,-0.486358,-0.086311124,-0.6627112,-0.2715153,0.30860946
-0.041688245,-0.40296698,0.083021455,-0.057093967,-0.40655223,0.34116226,-0.8345036,-0.5470842,-0.42726317,-1.3582863,-0.50986445,-0.43456882,0.5761272,0.4035264,-0.099524066,-1.4019341,-1.1594932,-0.1132095,-0.7422527,-0.04779032,-0.04450053,0.058731683,0.22147146,-0.269748,-0.17979987,-0.3831106,0.020446246,-0.3440935,0.05017768,-0.28457215,0.5333273
-0.051388822,-0.26183894,-0.05615625,-0.31483352,-0.25120243,0.19392733,0.4584853,0.46773988,0.13499588,-1.0568523,0.44992375,0.24023503,-0.405937,1.0409029,0.0042685107,-0.51698524,-0.406762,0.006411536,-0.2284301,0.009535715,-0.04292228,0.05217351,0.07508484,-0.00785923,0.20097663,0.16655114,-0.014256228,-0.022727806,-0.22951294,-0.108873315,-0.16804677
-1.2066212,0.02202872,0.47713536,0.1910572,-0.54044086,-0.5034496,1.6110309,0.9980643,-0.83195704,-0.3328097,-0.31070325,-0.80400616,-1.0011963,2.477546,-0.94711185,0.28982368,3.3349128,0.071015395,-0.92820144,-0.013488717,-0.043840885,-0.05485387,-0.09646827,-0.029395364,0.23209776,-0.15581721,0.021589277,0.10697443,-0.21902058,0.21733582,-1.770004
-1.5835284,-0.013825096,2.298855,-0.11776576,-0.53679365,0.20075831,1.576418,0.4081967,-0.21007061,0.479812,0.12921146,-0.13040087,-0.31712708,0.78207177,-0.2978733,-0.065289825,1.7237178,-0.05529804,-0.43374807,0.008564696,-0.04195945,-0.0011616275,-0.0014826297,0.03109476,0.20086557,-0.19850966,-0.134466,0.005975913,-0.21388738,0.033624772,-0.39075896
0.25904304,0.3503887,-0.29310665,0.4383688,0.35080767,-0.84172744,-0.6421152,-0.05183776,-0.4262794,0.6212815,-0.032219812,-0.42522082,0.07687634,-0.7016522,-0.5341111,-1.4082607,-0.64751315,-0.00573015,-1.3937526,-0.0014060363,-0.045202583,-0.05840061,-0.034164947,-0.03045416,-0.24999787,-0.078046754,-0.01430036,0.16610904,0.07057287,0.019795258,0.030918166
0.07938731,-0.21216051,-0.08827324,0.11381066,-0.15139583,-1.1095439,0.4404987,-0.12219091,-1.1607056,0.71555036,-0.40254956,-1.2235986,0.07617977,-2.114781,-1.463636,1.193351,-1.8304487,-0.22777463,0.8087575,-0.035870537,0.04662653,0.001533024,0.20877372,-0.25754556,-0.3556699,-0.22131582,-0.0531168,-0.6939626,0.012078516,-0.27634424,-0.46645206
0.15787545,-0.40450162,-0.827779,-1.1904645,0.12801193,1.0662293,-0.40568364,-0.40449628,0.75017685,0.15523966,0.077680424,0.82973313,0.47624692,1.0042169,1.1375651,1.6051505,0.09652949,-0.28525454,-0.024699178,0.0049987957,0.062030546,0.0018190145,0.29986864,-0.22585866,-0.33037874,-0.007875676,0.021517476,0.25407284,-0.16776194,-0.24382192,-0.19833545
-0.11036979,0.44951698,0.009921621,0.25044894,0.70086145,0.24115087,-0.14129959,0.63580835,0.14225776,0.28467232,1.0863168,0.14769737,-0.55830055,0.20734835,-0.43924385,-3.5383058,-0.4689965,-0.13783102,-0.34962058,0.010052644,-0.024443135,0.012460545,0.14620851,-0.26577616,-0.2782639,-0.46611622,-0.23827817,-0.301532,-0.44843552,-0.102590084,-0.5920669
0.43232223,-0.49572837,-0.76936597,-0.07037203,-0.33196622,0.21722771,-0.61313134,-0.98137754,-0.6034478,0.010387184,-0.9070003,-0.55077076,0.96793604,0.3943445,0.00837248,1.0382694,-0.70211375,-0.084294826,0.32456702,0.05289273,0.05834443,0.027917579,0.19321261,-0.148045,0.037302446,-0.016068304,-0.14653713,0.04138369,0.2343151,-0.27300134,0.84029764
0.17702723,-0.8051517,-0.3353971,-1.48208,-0.5299127,0.115709074,0.004583445,-0.515946,0.9545066,0.6250285,0.33509487,0.8953968,0.52495193,1.2974099,0.74171835,0.9838235,-1.3859684,-0.17139974,0.9042844,-0.026993692,-0.018190786,-0.033658534,0.20647043,-0.3891014,-0.057703994,-0.18356846,0.014030822,0.022262063,0.05709128,-0.27360943,-0.4452472
0.103925325,0.43728083,0.12578946,0.8606708,-0.05461195,-0.40166593,-0.019349122,-0.8047747,-0.23743922,2.0206957,-0.4344696,-0.23702265,0.8729708,-0.5082329,0.4608691,-1.058488,0.39031026,0.17992246,-0.17867595,0.012548007,0.010386698,-0.033334672,-0.16870491,0.32299167,0.20458184,0.3100006,0.19078426,0.32073897,-0.07181657,0.19727315,-0.19420442
0.18455574,-0.5486251,0.20807834,0.6061768,-0.9062406,-1.1205207,-0.7313852,0.12726976,0.009369248,-1.8582194,0.1026188,0.0178413,-0.0904433,-0.58645135,-0.055756576,-0.17355387,-0.4297,-0.18500745,0.38606942,-0.011135854,-0.031386696,-0.023720026,0.17015095,-0.18326664,-0.21249458,0.11000737,-0.19286829,-0.09453172,-0.107715175,-0.26516214,-0.2162686
0.6944078,-0.52780724,-0.35773033,-0.47097045,0.15065543,-0.79257244,-0.7387473,0.22575474,-0.1158623,-1.1330202,0.033872135,-0.13533236,-0.35400447,-0.8838169,-0.15655644,-0.7798766,-0.64041084,0.0354535,0.2680697,0.0285042,0.01260709,-0.053172216,0.028525256,0.061387613,0.20963182,0.15035293,-0.016334595,-0.28572455,0.5329623,-0.055774923,0.04219307
-0.09548878,-0.11627559,-0.5680546,-0.2580625,0.012059159,-0.17330715,0.017944409,0.13384679,0.044137683,0.31515515,-0.10005875,0.04151827,-0.23268741,-1.187711,-0.10496368,0.15430936,-0.557252,-0.2015065,-1.1588862,-0.013506353,-0.037695087,0.03950993,0.20451906,-0.38655934,-0.13799992,-0.07350283,-0.37524468,-0.6102816,-0.38733634,-0.26973796,-0.8891944
0.4820151,-0.73732424,-0.08028256,-1.8945515,-0.2626616,0.1849356,-0.5815609,-0.36703825,-0.3339351,0.4438518,-0.5380048,-0.4287931,0.3197113,-1.3041334,-0.24304023,-0.14225534,1.8712288,-0.5680905,0.79265714,-0.059530005,0.015971676,-0.009131864,0.51933223,-0.5967471,-0.20643623,-0.46050498,-0.45859322,-0.36806425,-0.36770004,-0.5651081,0.26705372
0.45467523,0.5224878,-0.7930567,1.3883784,0.22325747,-1.2349198,-0.16294475,-0.2600724,-0.5085944,0.990354,-0.7672924,-0.42927402,0.21600768,0.6443293,-0.040538758,0.94306695,1.7756417,-0.08509917,0.19479853,-0.044547312,0.052177086,0.029239394,0.024008838,0.04141175,-0.18324493,-0.075309105,0.04739506,-0.014352291,0.23160994,-0.0155292805,-0.22508655
-0.22290798,0.119676545,0.0014192605,0.45329326,0.47326317,-0.16834003,0.10556716,0.44260997,0.08312985,1.2914866,0.40470988,-0.0292058,-0.4569988,-1.4809388,-0.21757086,-0.8435674,-0.07048947,-0.12531222,0.23039643,0.047499575,0.00585372,0.01435519,0.024545241,-0.13566275,0.09323305,-0.26492095,-0.14696343,-0.123576514,-0.14858957,-0.03560907,-1.3712503
0.07317818,-0.51030064,-0.25405544,-1.0694654,-0.41970706,0.33605114,-0.36535156,-0.43678826,-0.1565956,-0.27959454,-0.10654673,-0.21000563,0.3939336,-0.2173837,0.0918845,-0.82290065,0.7440026,-0.5857906,-0.27442715,-0.0041284114,0.01139386,-0.04612544,0.6372486,-0.6068763,-0.76640517,-0.6102122,-0.21927968,-0.49315423,-0.6214707,-0.7499733,0.61872596
-1.2045424,0.1176973,1.4234202,-0.11097466,0.1365861,0.5031177,0.5150943,-0.108164944,-0.8277188,-0.50172555,-0.25137848,-0.76870745,0.15792647,0.79918283,-0.78438497,0.35184082,3.9307609,0.19943647,0.3951145,0.040637627,-0.0334709,-0.06061534,-0.1647567,0.15274064,0.4541461,-0.14169896,0.10647732,0.46381146,-0.15027128,0.14126347,0.11601623
-0.4641032,-0.026290618,-0.029534189,-0.24965721,0.8304139,0.6220294,0.87540746,0.511428,-0.31835967,-0.23301134,0.121429406,-0.5298325,-0.33305308,2.007889,-0.5426713,-2.7716012,-1.5235803,0.37299296,-0.38412556,0.0119017735,0.006247036,0.06123358,-0.28202984,0.31949812,0.20798355,0.55921316,0.2444453,-0.32387426,0.11393743,0.11093994,0.8111405
-0.044576313,-0.36944076,0.33705246,-0.7358512,-1.8946366,-0.36262926,-0.30868283,0.011690231,-0.55187696,1.1079069,-0.7421741,-0.5677321,-0.082308345,1.1803972,-0.079729155,1.9145976,0.8503597,-0.110292345,-1.7684933,-0.0021718666,-0.030109406,-0.022846773,0.08733587,0.011862504,0.03635525,0.08900133,-0.17107648,0.030874122,-0.30383113,-0.13565674,-1.3154997
-0.021130137,-1.0533091,0.14677101,-0.9669867,-1.2931157,0.6750203,0.05489129,-0.34157664,-0.63308674,0.17078424,-0.7764911,-0.59663886,0.31610566,-0.8955537,0.083347045,-1.3425703,2.404425,-0.33248776,0.08977032,0.049056232,0.01447244,-0.060146615,0.33339834,-0.34501675,0.10754968,-0.09959973,-0.36402515,-0.12740353,-0.9291512,-0.19828159,-0.36007345
-0.054765977,-0.3404955,0.017057136,-0.16514453,0.5687124,0.2786216,0.19386764,0.8311344,0.90323263,-0.10716289,1.6126966,0.843877,-0.76519746,0.02344134,-0.0906267,-0.68440336,-0.5739296,-0.10947565,0.12297808,0.019534484,-0.03519447,0.06043224,0.10459382,-0.28170672,0.03853531,-0.20727132,-0.06354973,-0.15176901,0.05082665,-0.15531878,-1.447053
0.006583342,-0.5100119,0.47507212,-0.10836509,-0.78010744,-0.12442202,-0.20969114,0.3171918,-0.037392475,1.765998,0.0674638,-0.054433264,-0.28320438,1.3226823,-0.12536855,-1.9507447,2.0444655,-0.12029594,0.11026039,-0.030281968,-0.0369071,-0.01068911,0.02906469,-0.054332707,-0.07445699,-0.012815514,0.053306695,-0.17796755,-0.14806952,-0.12251183,-0.04077425
-0.9408132,0.058677427,0.7727067,-0.6456333,-0.23032214,1.6081821,-0.08117181,-0.513814,1.1129912,-0.26905596,-0.0686516,0.9880883,0.4644167,-2.1903975,1.2872208,-0.49698028,-0.01237971,-0.074515335,-0.10807703,0.04133793,0.04934109,0.002111353,-0.046595722,-0.016784586,-0.036193352,-0.20797935,0.054007288,0.24334869,-0.046661552,0.019067101,0.25361478
0.3711994,1.1324747,-1.1102418,0.40489638,1.1802101,-0.82658327,0.26508334,0.35242867,-0.17667153,1.6011977,0.1077212,-0.14752772,-0.39882138,-0.30564868,-0.5407648,0.95828307,0.7246796,0.014432022,0.19503266,-0.038510233,0.018117294,0.004532993,0.053249024,-0.09191816,-0.37220198,-0.38416377,0.10720465,-0.039954096,0.13119662,-0.12565267,-0.6872731
0.052527674,-0.4681225,-0.78102875,-0.17136109,0.050277144,-0.17135759,-0.52662605,-0.46078822,-1.240283,-0.2030465,-1.5345347,-1.213882,0.3645692,-1.2515898,-0.35675997,0.28972864,0.99639165,-0.3174493,1.0263313,0.018456444,-0.03713964,0.010248721,0.23642963,-0.34321412,-0.17896226,-0.21163154,-0.33515662,-0.33369127,-0.22442867,-0.3199213,-0.54372764
0.42674163,-1.1567212,-0.3956275,-1.5841944,-0.69749826,-0.21357435,-0.6998532,-0.964846,0.021395495,0.19591156,-0.82812613,0.068685465,0.89770097,-1.8453548,0.18541682,-0.46061856,-0.41827968,-0.2487197,0.36607358,0.0324544,-0.018312536,-0.044652626,0.3266056,-0.2634586,0.010112178,-0.10639615,-0.085898995,-0.23145765,0.14831106,-0.22312076,-0.315097
-0.067818254,-0.9012969,0.49913058,-0.8690021,-0.029847406,0.48009646,0.28425422,0.34192312,0.2675769,-1.4989029,0.4237631,0.36035866,-0.43531162,-0.43631822,-0.28173482,0.35372603,-0.4523267,-0.43820363,1.0463213,-0.05398734,0.010167055,0.030141257,0.43446437,-0.5683899,-0.2564361,-0.7200811,-0.57573664,-0.43221727,-0.3126886,-0.53233975,-1.0240129
-0.89907306,-0.49310768,1.2525214,0.1839994,-1.3449477,0.030571004,-0.18969153,1.000376,-0.14379978,-0.51436293,0.5506038,-0.23197816,-1.0296389,0.21267004,-0.57087106,-0.28278002,-1.4520266,-0.2931026,-0.995039,-0.047804996,0.026229866,0.05822794,0.35993555,-0.3859704,-0.60150564,-0.3922898,-0.43863773,-0.5022557,-0.5480048,-0.3473078,-0.5435411
0.33152285,-0.66970515,-0.87720644,-0.15765496,0.47367215,-0.5142744,-0.05142477,0.57068944,1.7299258,0.5056306,1.8433607,1.678685,-0.625033,-1.7208052,0.505275,-1.8715067,-0.112768754,-0.30050418,0.26619375,-0.014206432,-0.014437631,-0.03637129,0.24646634,-0.117932275,0.114379175,0.04002203,-0.5801131,-0.66176456,-0.15412822,-0.23318063,0.6210403
0.4311899,-0.67804736,0.14623523,0.69672704,-0.39658496,-1.0976534,-0.15343364,-0.32238537,0.35454065,1.0979726,0.21767668,0.5834783,0.39726895,-0.15501021,0.6208413,-1.0661328,-2.3691373,-0.50762933,0.5445173,0.02424217,0.025472283,0.050534368,0.5129939,-0.60379946,-0.34153026,-0.5426532,-0.5478334,-0.8440077,-0.3267635,-0.5527906,-0.49716264
0.47687876,0.029639049,-0.8081958,0.7228619,0.10417482,-0.07321681,-0.61822015,0.18845248,0.05927273,0.24961068,0.256031,0.100813426,-0.15290841,-0.97908837,-0.3575613,0.31685668,0.19823384,0.060770508,0.45659575,0.041705757,-0.04010824,0.053813547,-0.038860366,-0.02388885,0.051963527,0.10167729,0.13389447,-0.06278301,0.32273158,0.030654522,-0.94470835
0.058778886,-0.43869302,0.77292943,0.633407,-0.22089204,0.110872,-0.1025716,0.1591786,0.48039055,0.96332604,0.8487118,0.42503703,-0.07577175,-0.22623195,0.08885402,0.29670012,0.42630985,-0.004670591,1.3352735,-0.031218171,0.03425619,-0.00639683,-0.03169097,0.11047665,0.15997544,-0.02750193,0.0009261453,0.27475145,0.2877911,0.15167528,-0.5691231
0.08475741,-0.45136604,-0.2981185,-1.8952631,-0.25547737,1.4450608,0.38469857,-0.7917861,0.14763896,0.8130981,-0.52216333,0.10523923,0.8646914,0.10877443,0.56049824,0.28031448,1.6726928,0.09636957,0.6127236,0.022288859,-0.047614165,-0.056439437,-0.0021162918,0.04668501,0.26285645,0.112216316,0.29557613,-0.15670586,0.28282243,0.03896628,1.0047557
-0.7771788,-0.34461045,-0.2893257,-0.51205647,-0.7753109,0.30037048,0.37364382,-0.70543736,-0.4181356,0.36538765,-0.66226465,-0.2737335,0.62729865,-1.7066664,0.33501953,-1.6467291,-1.4425182,0.12129636,0.14042431,0.01427304,0.053528212,-0.029015362,-0.10888698,0.08900866,0.0075903437,0.14097124,0.15297867,0.033313714,-0.17609632,0.06120175,0.8053272
-0.28359988,0.0852859,0.568494,0.1602229,0.10545259,0.44848558,0.25971666,-0.29831776,0.18193968,1.0548579,0.23344287,0.134829,0.3625724,-0.098007075,0.24666694,-3.4032233,-0.22421603,-0.05929471,-0.37007532,-0.03441848,0.04638207,0.04227913,-0.02856917,-0.0999149,-0.040609363,-0.10579348,0.16633916,-0.07186153,0.0071104914,-0.07620361,-0.31530222
0.39080694,0.42254832,0.71309066,1.8987826,1.7280655,-0.999051,-0.53199655,-0.5253472,0.34589732,-0.43937826,-0.4286714,0.33107868,0.5282566,-0.78579026,0.66802645,-0.22747737,1.433968,-0.0013453024,0.31897822,0.018149622,-0.002134107,-0.027920038,-0.070779294,0.0984238,0.0945556,-0.09060537,-0.24838562,-0.09037327,0.32671225,0.07260645,-1.0389602
-0.76585907,-0.091644496,-0.26619142,-1.1620471,-0.17044663,0.605612,0.62455785,-0.18967831,-0.081773065,0.37229368,0.10456058,-0.045813903,0.16410771,0.8282211,-0.024242552,0.45062986,-0.5093505,-0.0589697,0.87772566,0.015125893,0.037586972,-0.006603323,0.0054215747,-0.13296953,-0.20571402,-0.2254637,0.004816676,-0.04239297,0.10376643,-0.10506353,0.07160514
0.28816277,-0.36902574,-0.56245315,0.5717128,0.07637506,-0.3614522,-0.2813399,-0.7045451,-0.1529143,0.07911748,-0.6073118,-0.18194646,0.6841196,-0.6839487,0.4805484,-0.40191817,0.62036526,0.09466404,-0.13295121,-0.021450482,0.027745701,-0.036305614,-0.06642903,0.09926046,0.25431708,0.16124687,-0.032105573,0.008862173,0.08636281,0.04208716,0.42086983
-0.8452953,-0.5563126,1.2363328,-0.861716,-0.91312,0.55013156,-1.1726466,-0.12434396,0.44218594,1.0430996,0.30851114,0.46487555,0.11917073,1.1979754,0.41886494,1.4523543,2.444742,0.019572906,-0.12971194,0.038538262,-0.035365157,0.006152652,0.01537909,-0.049208626,0.22016126,-0.14393547,0.08988039,0.20713818,0.013912041,-0.022088615,0.8433978
0.4225932,-0.4463702,-0.9593067,-1.1563054,-0.31235272,-0.4633791,0.5998898,0.28808692,0.12809333,-0.6372859,0.5344511,0.20074287,-0.30059314,1.0369581,0.08166774,0.1611547,1.2875019,0.046428297,-0.94636863,0.04772029,-0.0061807707,-0.0156209245,-0.122878745,0.09920121,0.316365,0.3053586,0.055093765,-0.16329034,0.02752517,0.16523288,-0.36930412
0.57238495,2.348825,-1.1463852,0.33038747,1.913788,-0.6017579,-0.5909802,0.025950868,-0.17262015,-0.60673434,-0.26902762,-0.23984778,-0.024750711,-0.054140795,-0.095497824,-0.84714115,0.23001494,0.040567163,0.13478784,-0.019642077,0.045374908,0.012028426,-0.022918755,0.06866276,-0.45800188,-0.22492042,0.016199976,-0.18666922,0.0581356,0.061004423,-0.7870157
0.4251625,0.2736528,-0.47146508,0.23922965,2.1641574,-0.51445293,-0.36425868,0.18503103,0.11751396,1.2602538,0.337024,0.016976792,-0.0962536,-1.0151247,-0.05367659,0.07159815,1.0505782,-0.09495027,1.1186929,-0.022877507,-0.05721716,-0.0053769574,0.06334573,-0.01520655,-0.42497396,0.04172231,-0.11930305,-0.30119005,0.037599448,-0.124270216,-0.024030568
0.25384405,-0.31460634,-1.0293248,-0.44114885,0.04003625,-0.6444091,0.904106,1.0168439,0.28161117,0.750513,1.022183,0.2630162,-1.0748814,-3.1402202,-0.2456226,-0.38454998,-1.2828554,0.03372759,-0.088310376,0.035920426,-0.0096531585,-0.05987698,0.05923039,-0.06385109,0.18636046,0.14308098,-0.260605,-0.18505983,-0.4665272,0.013109769,-2.0194468
-0.53192186,0.40816298,-0.37579352,-0.47376087,1.549601,0.4245682,0.7160747,-0.10439657,0.8939446,0.48096484,0.658831,0.8980885,-0.028498994,-1.4607337,0.7705948,-1.7765578,1.3139398,-0.077318124,-0.57662904,-0.06241654,-0.016413532,0.04301423,0.08279935,0.12898049,-0.22409788,-0.018559584,-0.15567636,0.012564685,-0.20114708,-0.23543803,1.2710768
-0.24116473,0.89002085,-0.5929256,-0.47554725,0.7789207,-0.03727306,-0.29525757,-0.32260686,0.29338932,1.5494884,-0.1859808,0.28899035,0.2972393,0.7496889,0.028315865,0.72599864,0.48662135,0.25754404,0.40651143,0.034164324,0.0011228547,-0.017894462,-0.20486952,0.36243793,-0.12201495,0.117934085,0.4160702,0.47704348,0.6028735,0.29100657,0.45212138
-0.3195419,-0.37020436,-0.48457974,-0.697734,0.00794261,0.99403685,0.1960749,-0.67121494,0.6777582,-0.17371368,-0.06088459,0.64562744,0.69138116,0.8663028,0.5555326,-0.24570146,1.5753359,-0.056465037,1.9487163,-0.025637828,-0.047087766,-0.012246147,0.021923235,-0.03945617,0.12606454,0.06802741,-0.17301403,0.098811015,0.09412401,-0.112927414,1.2265123
0.1483663,-0.9167051,0.6001841,-0.5303886,-0.9476384,0.6409879,-0.8542504,-1.1088451,-0.114934295,1.0901684,-0.9298527,-0.18913503,1.0452802,-0.25702924,0.22485605,1.0521069,-0.3981386,-1.005458,-0.54058164,-0.0034426674,0.056590356,0.008362457,0.9631409,-0.9053872,-0.6545442,-0.99046975,-0.8140458,-0.8311721,-0.5055916,-0.96506375,0.36031607
-0.21259192,-1.0007368,0.5973151,-0.38862014,0.10716178,0.29517493,-0.042812817,-0.72747594,0.8146399,0.32312775,-0.019755688,0.8224273,0.6882478,-0.60675037,0.7486294,-0.58578485,-0.1368684,-0.6947341,0.778348,0.0011861101,0.0070128962,0.053491913,0.752329,-0.86065185,-0.34597313,-0.883402,-0.7882975,-0.74564683,-0.88701504,-0.79773813,0.96922445
-0.42218694,-0.22335668,-0.18367492,-0.8441872,0.16522896,1.0490885,0.09250693,-0.8666766,0.60119915,-0.87031686,0.17490976,0.6211657,0.9234626,-0.13219827,0.60111904,0.54096514,-1.1701094,-0.18637744,0.25519037,0.05790744,-0.0056668073,0.024899796,0.21083513,-0.18410988,0.067790955,-0.32443866,-0.059166066,-0.0771721,-0.14609861,-0.19712798,-0.50206906
-2.0891163,0.3924759,1.350679,0.10797421,-0.7173457,0.61566687,0.6587948,0.887218,-1.1741714,0.2550888,0.15203992,-1.15642,-0.84040797,1.0989904,-1.5828543,0.23982665,1.1128687,0.09424013,-2.1808283,-0.025887035,0.018999755,-0.022381708,-0.17060745,0.123131804,-0.014406355,-0.021631053,0.20445246,0.25839183,-0.19690181,0.104906864,-0.0134604005
0.81827533,-0.054474406,-1.7441256,-0.884168,0.689197,-0.50237244,-0.6449384,0.22350454,1.0923167,-0.062381092,0.88365644,1.1218392,-0.2061812,-0.13039301,0.671885,0.3498406,-0.42994863,-0.23028836,-0.25523385,-0.059465453,0.0313188,0.020598948,0.18655722,-0.26130298,-0.50516677,-0.1271213,-0.063019425,-0.27996606,0.28736576,-0.253549,-0.60599256
-0.04164881,0.20322466,-0.46688464,0.8148026,-0.17827117,-0.312257,-0.018307256,0.12603536,0.4597185,0.7139588,0.5959192,0.45410952,-0.08758103,-0.5948842,0.3604863,-0.90682673,0.13111143,0.16285156,0.09268258,-0.040802777,0.031476513,-0.018678568,-0.21046637,-0.0010795511,0.030879768,0.11110451,0.23698899,-0.026973486,0.30672392,0.2079074,-0.68753123
0.66480273,0.2755533,-1.0418417,0.84249187,-0.33158717,-0.88535166,-1.3432916,0.2555818,-0.6225283,-1.7410716,-0.0024511367,-0.66979414,-0.35113513,1.0480666,-0.7820592,2.8015335,-0.4501029,-0.12877443,0.93551344,0.0144844875,-0.05149126,0.01790633,0.031140283,-0.10922113,0.17515562,-0.054789487,0.004791795,-0.100039236,0.52970606,0.0091929585,-0.74790114
-0.15993847,0.22936133,-0.13014606,0.9553613,-0.43716297,-0.094810225,-0.0057938285,0.015933566,-0.4736463,0.88833314,-0.27839455,-0.51829857,-0.07523877,-0.11954559,-0.3010487,-1.7660804,1.4611729,-0.034829836,0.21953776,0.015883595,0.006545283,-0.020962045,-0.0012032402,0.052388765,-0.098132424,0.18507275,0.07401135,-0.07706951,-0.31455618,0.07454435,-0.5869443
-0.19717462,0.25976956,-0.2938906,-0.7212438,0.013431241,0.7271822,0.84307,0.7450956,0.51608145,1.9446894,1.1469012,0.50156754,-0.7158916,-0.009625996,-0.081994094,-2.080435,0.83428055,-0.111737035,0.7231611,0.059934624,0.039110303,0.029463999,0.12888986,-0.17781316,-0.26596573,-0.23456912,-0.13679294,-0.18285882,-0.73042315,-0.13161962,-0.2823236
0.1244224,-0.97946477,0.411855,-1.1748363,-1.508652,0.38733062,-1.0480208,-0.4064305,-0.17223106,0.2596634,-0.3863903,-0.18150838,0.38002804,0.19316457,-0.2568698,0.6744452,1.5239378,-0.4535307,-0.82511145,-0.053127915,0.025597908,-0.03431526,0.3225215,-0.33635482,0.1753048,-0.05721937,-0.37290734,-0.40859383,-0.48287907,-0.34264147,0.25887772
-0.24130651,-0.48489073,0.9821686,0.23539399,0.029423023,0.5192228,0.35946476,0.671398,0.6668616,0.7984335,1.1292974,0.6808111,-0.5698052,-0.59134895,0.0073898626,1.0269026,-0.7529258,0.39127937,-0.031916905,-0.028279945,0.029930435,0.0070992336,-0.37802723,0.20762204,0.5284028,0.23633347,-0.040300194,-0.09820085,-0.06795025,0.35681567,-0.812687
0.73728555,-0.38142994,-0.35814488,-0.21310897,-0.62069446,-0.23296164,-1.3097335,0.048039254,0.6081697,-1.6638743,0.66157526,0.65584123,-0.06643856,1.0342478,0.5610061,-0.9717537,-0.5673499,-0.29428712,-0.030368466,-0.0036961213,0.025803842,-0.02856452,0.26332635,-0.32421276,-0.069000036,-0.25006038,-0.3720002,-0.30536714,-0.33726093,-0.32531574,-0.3258773
0.1209394,-0.2511769,0.26628223,0.47918993,-0.5395824,-0.76151556,0.16416152,1.185851,-0.2410221,-0.18334608,0.9740155,-0.32198316,-1.125791,-0.19043516,-1.1640882,-0.87204236,0.217965,-0.13734211,-0.09641592,0.042973943,0.032559194,0.05982191,0.0598893,-0.25069714,0.09757365,-0.2604097,-0.035028078,-0.55766904,0.5977054,-0.12395353,-0.38591838
-0.23362635,0.51386654,0.06234056,0.7108095,-0.45520258,-0.9471514,0.292223,-0.2495623,-0.582785,0.42002782,-0.060325846,-0.5640887,0.14857551,-1.2897443,-0.30557826,-3.470058,1.8583405,0.0071020946,0.14990515,-0.038416572,0.0558135,0.028296717,0.025357986,-0.15300836,-0.32414153,-0.18845709,0.28166503,-0.05610151,-0.4640939,0.08166834,-0.9329635
0.99257857,-0.45974267,-1.7529032,-0.65908086,0.5340885,-0.5129373,0.8792955,-0.033044092,0.87171,0.75946707,0.96497536,0.90322685,-0.004265927,0.056612566,0.4208875,-1.2561561,-0.26752573,-0.14343368,1.1873593,-0.056400344,0.006967336,-0.010962494,0.22333883,-0.2590215,0.12878564,0.056705743,-0.27501276,-0.43381965,-0.17117769,-0.20261121,-0.40398812
0.069050044,0.3849504,0.22186223,1.4502616,0.88176316,-0.408191,1.2728126,-0.18550473,0.57056993,0.34744596,0.6707587,0.5965187,0.17469941,0.01313627,0.6413616,-1.9173965,3.7727876,0.04742711,0.31394136,-0.050059035,-0.016368978,0.020396069,-0.107861355,0.02591314,0.03837477,-0.009516018,-0.0042449073,-0.016129375,0.021150362,0.052012645,-0.07123361
0.38419595,-0.76068485,0.23160078,1.1034615,0.14765556,-0.92015064,-0.37102723,-0.45373747,-0.7161032,0.8675097,-1.2776575,-0.7726125,0.5291603,-0.46218377,-0.3206656,0.6635702,-1.4853933,0.19081277,1.2878075,0.060412526,-0.046722792,-0.024969555,-0.1458096,0.12938277,0.7810411,0.19239748,-0.31680915,-0.114625156,0.7277373,0.08726171,-0.15894213
-0.6358098,1.0259686,0.6644817,0.77965176,-0.50503546,-0.07632111,0.12513271,-0.49071458,-0.40029922,1.6226957,-0.17683114,-0.34626773,0.62579024,0.6016507,0.4274185,-0.058242682,2.639851,0.07110991,-0.736169,0.01078067,-0.017541043,-0.06160444,-0.071109645,0.10765954,-0.41841236,0.110778876,0.3556122,-0.080318145,-0.15664999,0.102255195,0.21209344
0.3504037,0.030926768,-0.25490314,0.25663605,0.1054677,-0.5735689,0.40184593,-0.28747445,-0.16073295,-0.43166044,-0.2740617,-0.15099902,0.29839456,-0.50538516,-0.18199717,-1.4145752,-1.7845434,-0.28155032,1.8159047,0.017897934,0.032978773,0.030434467,0.3131615,-0.23837082,-0.49838737,-0.33900946,-0.21030544,-0.26160595,-0.12454746,-0.37303546,0.28886676
0.70782614,-0.025249543,-0.81290317,0.67156184,-0.7700613,-0.8181514,-0.3776626,0.6516249,0.057792515,2.0036635,0.60051084,-0.050909683,-0.53281486,-0.69669443,-0.5985747,-0.119290404,-0.5451878,-0.2574007,0.06454302,0.044904,0.06035328,0.056727253,0.23363893,-0.3772027,-0.24709196,-0.21061376,-0.2831605,-0.6418172,-0.47828275,-0.26383635,-0.302953
0.47671667,-0.30206552,-0.2282964,-0.04477705,-0.10848193,-0.48446217,-0.41922018,0.17320244,0.96129864,1.3723787,0.98683745,0.8363005,-0.33733138,-2.5176446,0.366301,0.36718684,0.5572483,-0.061351806,1.1268947,-0.0059950054,0.012769319,-0.04491572,0.09220314,-0.2239549,-0.08599672,-0.20311113,-0.11279447,-0.7659343,0.04395435,-0.023360798,0.052246198
0.09197695,-0.60895586,0.16404437,-1.234145,-0.8988903,1.2087376,-0.8950503,-0.454422,-0.09770072,0.8207811,-0.28822783,-0.20180394,0.50214916,0.70154625,0.08160417,2.037893,0.73900306,-0.80007875,-0.28771758,-0.017284505,-0.046135694,-0.021990202,0.7907137,-0.8513636,-0.66396755,-0.8055915,-0.47681186,-0.5177744,-0.43908057,-0.70728976,0.14411914
-1.0479836,-0.36261636,0.41247016,-0.5617559,-0.3359337,0.40836543,0.73369986,-0.15249264,0.11299538,0.6962381,-0.050275926,0.10200801,0.15175198,-1.8997648,0.22223796,-1.0055056,-0.6553632,0.092209496,-0.11358328,-0.035254374,0.028476149,0.061834052,-0.008109528,-0.014765316,-0.0072465884,0.17205682,0.099850014,-0.061743878,0.12483504,0.013248352,0.17515601
-0.2514874,-0.13184641,0.015306966,-0.067875564,0.2978861,-0.099242285,-0.28384745,-1.4714514,-0.14685158,1.3788325,-0.97257245,-0.15825266,1.4445573,-0.7850279,0.6486585,2.0174675,-0.47837833,-0.17225966,-0.41118994,-0.015011422,-0.017717779,0.00874535,0.2162931,-0.2714232,-0.40299267,-0.2571553,0.13255571,-0.030236648,0.21735302,-0.08337328,-0.19324024
-0.6775194,-0.40216833,-0.33224782,-1.4980353,0.69752556,0.6652654,0.6874401,-0.78113556,0.13296135,-0.14428698,-0.43268025,0.17706697,0.81989795,-0.5986597,0.15218443,0.8627013,1.4898657,-0.31207347,1.2767808,-0.0052195042,0.062348835,0.023421831,0.2869688,-0.359899,-0.3697782,-0.34300464,-0.028007884,-0.24203883,0.36947876,-0.34636277,0.97239274
0.10240481,0.0049761096,-0.36349335,-0.6239457,0.24210879,-0.19958788,0.40101328,0.09627623,-0.28958765,-0.46797198,0.16289002,-0.37959358,-0.17568941,-0.56278044,-0.442773,-0.5026834,0.15627027,-0.3873042,0.94187486,-0.04792016,0.03364498,0.007880196,0.41310924,-0.44253257,-0.5409929,-0.48197824,-0.2800934,-0.56111515,-0.4515573,-0.44789466,-0.5708446
0.39460266,-1.0754598,0.34215838,0.4163744,-0.8420958,-0.29981413,-0.79382765,-1.7843268,0.02624477,-0.35887912,-1.0079147,0.17451905,1.7371634,-0.08230957,1.0193019,-1.4357817,-0.3520144,-0.49169388,1.2093413,-0.038531855,-0.0084202215,0.005008146,0.5569995,-0.47621042,0.020441853,-0.3179481,-0.6297081,-0.3242661,-0.74636424,-0.54090255,1.0126648
0.44729745,-0.46913594,-0.8052468,0.5885831,-0.2542193,-0.70204294,-0.11915249,-0.86036354,0.44892034,1.5288823,-0.43786144,0.44769558,0.8360889,-0.9862769,1.037041,0.0545501,-1.2541585,-0.20714648,0.5148705,-0.048783995,-0.05290439,-0.009531885,0.33041418,-0.34897527,-0.116646275,-0.037362773,-0.139194,-0.53764695,0.22894253,-0.37603197,-0.09393369
-0.46137348,-0.22945115,-0.5223724,-0.4790596,-0.17424731,0.7632731,1.0361496,-0.19507293,0.15622765,2.5194077,-0.32327327,0.12653026,0.16284692,-0.21892479,0.31047592,-1.4483359,1.7600987,0.057728432,-0.09624528,0.032001875,0.0052368566,-0.04382109,-0.019480806,0.10896123,0.17565353,0.15640037,0.23337445,0.19429897,0.013748625,0.09208794,0.25617644
0.20890667,-0.12610915,-0.089346915,-0.37152255,-0.26547372,0.6114136,-0.5418357,0.061459832,-0.18487158,1.1742272,-0.028077666,-0.13908623,-0.119221516,-2.003337,-0.16495155,-0.105104126,-1.3029354,0.30246755,0.03321829,0.022504069,0.032254554,0.041792348,-0.19737071,0.3465048,0.13102843,0.42225552,0.16948108,0.29207876,0.39521086,0.20402,0.9424474
0.40572596,0.67731404,-1.0010834,1.5685863,0.5872761,-1.2569665,-0.06529847,0.49183348,-0.00014449615,0.039825343,0.3485307,-0.020287996,-0.52646613,0.20412074,-0.2974633,-0.47964925,1.0442957,-0.21554781,0.2547504,0.035275355,0.020672314,-0.036913656,0.1883638,-0.23048377,-0.22175363,-0.1458074,-0.2605083,-0.20796154,-0.13375184,-0.16065305,0.6331525
0.7855518,0.08733469,-1.062193,0.027887564,0.7451,-0.46640244,-0.34067613,1.064102,0.4108306,-2.0885074,1.0405198,0.5185684,-1.0065062,-2.1680043,-0.3224408,-0.027262177,-0.5256302,-0.45128208,-0.05005287,0.031916372,0.0108749345,0.049841076,0.40049505,-0.28438964,-0.40637544,-0.19477096,-0.45530576,-0.26426178,-0.053046416,-0.45405358,-0.0032855654
0.4817678,-0.3812567,-0.26083344,-0.25795788,-0.30548888,-0.9984904,-0.5909365,0.4881076,-0.20380019,0.3358589,0.18865895,-0.08451257,-0.5216186,-0.5820397,-0.2105719,-0.75088733,-1.7386581,-0.3067037,0.1585859,-0.022372559,0.00561437,-0.062490642,0.36719325,-0.44511974,-0.6044622,-0.37757462,-0.19291864,-0.6131257,-0.52844214,-0.44120157,0.9915205
0.1495075,0.16065836,-0.6421385,-0.08461088,0.41183037,0.058299348,0.52107096,0.052496515,-0.058313135,1.8684256,-0.02210846,-0.16330323,-0.03010123,-0.55957276,-0.12827036,-0.7223257,1.0674888,-0.15899009,-1.3459908,0.032677688,-0.06123323,-0.0003131926,0.15476444,-0.16733257,-0.33366984,-0.044587426,0.12747107,-0.100948125,0.43711704,-0.15470186,0.16341871
0.48763,-1.279038,-0.048650976,-1.3100933,-0.5923196,0.25466356,-0.10172231,-0.3934025,0.40169877,-0.33667445,-0.0024305454,0.37542138,0.32087278,-1.8768117,0.45329148,0.8530319,0.17619601,-0.48970085,1.3453226,0.04549227,0.041171968,0.015162379,0.52714574,-0.5429041,0.065437384,-0.44612673,-0.61071277,-0.4378676,-0.674843,-0.57880247,-0.24574839
-0.32244843,0.019712372,1.3900005,1.0567272,0.45678425,-0.46404868,0.34548366,-0.62252986,-1.1687155,-0.5878471,-1.2802606,-1.1160973,0.62922436,-0.7851341,-0.3535431,-0.28983563,-0.5208098,-0.17425607,0.025915012,0.0062715337,-0.049042977,-0.05713813,0.24107783,-0.18132803,-0.2830933,-0.39364076,-0.28266823,-0.16567835,-0.24912548,-0.1613825,-0.08954166
-0.39588434,-0.8791269,0.3206745,-0.74150354,-0.5881772,1.1602631,0.055763677,-0.0915878,0.104071416,-0.22802031,-0.1693217,0.08907223,0.11333451,0.83741105,0.21208073,-1.3247759,-0.8137939,-0.17694643,-0.7466321,-0.015337959,-0.011097267,-0.059876613,0.22337252,-0.1793057,0.15864524,-0.07102931,-0.39924183,-0.12722862,-0.2460443,-0.21435222,0.9060197
0.2505445,0.72095466,-0.56499124,-0.30978233,-0.2590583,-0.489686,0.3499863,-0.65487343,0.078173205,0.8594626,-0.6214142,-0.009997306,0.5779604,0.4503517,0.44060987,0.07100999,-0.7881404,0.04512208,-2.1104772,0.05892977,0.014737837,0.034288503,0.039918944,0.1590735,-0.15992756,0.2670159,0.27469465,0.026892116,0.0750835,-0.05310354,-0.015679646
1.1413726,-1.1506219,-0.84772295,0.14343682,-0.5684394,-0.54695094,-0.51395965,-0.51831555,1.0169613,-1.2625402,0.50366,1.0524575,0.47148123,-0.09201939,0.84269005,0.10093403,0.0822392,-0.45870277,0.70226765,0.026513174,0.050282903,-0.029804774,0.39940354,-0.32877907,0.12013169,-0.095533796,-0.7023897,-0.30530694,-0.28975555,-0.47670466,0.8105622
-0.6109404,2.7764604,0.058127742,1.9782954,1.8407563,-0.4844319,0.3582867,0.20376939,-0.37934735,-0.16344017,-0.28675085,-0.36067694,-0.25455734,0.11274155,-0.29387912,-1.2539456,1.1641338,0.26809853,-1.000252,0.035727516,-0.059630558,-0.007474132,-0.33474737,0.3149197,-0.31356493,-0.14031528,0.13205214,0.02794043,0.47935954,0.3160748,0.6424915
-0.7586835,-0.5701163,-0.06958769,-0.6686992,-0.7575253,1.2600933,0.005758934,-0.6968332,-0.39887545,1.2137333,-0.3357813,-0.415359,0.7245477,-0.49732566,0.2293568,-0.8413691,-0.2859608,0.03639182,0.1475678,0.013044879,0.04249651,0.013837822,-0.06960619,0.10321949,0.29542562,0.31448337,0.18163837,0.17345981,-0.21100289,0.023074234,0.14374143
0.7048173,-0.18210739,-0.6715245,0.36496028,-0.47053152,-1.4709862,-0.35357258,-1.0500449,-0.13143249,-1.0237924,-1.0734061,-0.07327426,1.0331218,-0.7229254,0.6111648,-1.3750801,0.12492763,-0.3734799,-0.3224517,0.06039633,0.02275277,-0.043897808,0.34450117,-0.4319336,-0.4741038,-0.23083417,-0.27488086,-0.6485706,-0.10654223,-0.20832396,-0.5004996
-0.67498267,0.7180898,-0.38234657,0.5632048,-0.21728943,-0.28645232,0.15114786,0.571386,0.63833696,-1.6335417,0.9605679,0.6060223,-0.60523146,-1.912657,-0.07051955,0.37666595,0.6716052,0.03393107,0.060783904,0.046357147,-0.059604846,0.049368314,-0.086812995,-0.15901642,-0.49669516,-0.1360103,0.33278257,-0.17332724,0.036062974,0.12969336,-1.5479684
0.15700103,0.017537817,-0.7135415,0.06285015,0.66943914,0.18739651,0.63461435,-0.4956653,0.3387001,0.12989914,-0.20834817,0.3781259,0.45496693,-1.4325482,0.533204,-1.0881388,-0.62186885,-0.22777319,0.0821523,0.034054123,-0.057829015,-0.025786586,0.12367321,-0.07878856,-0.12879051,-0.12996326,-0.26763046,-0.40704006,-0.15466653,-0.05192426,-1.2270808
0.65920216,-0.80529714,0.28997466,0.23597306,-1.6651645,-0.14593913,-1.2270212,0.35111108,-0.24944092,0.31894472,-0.014529432,-0.34297836,-0.38953382,-0.11184845,-0.5736915,-0.16547352,-2.4171786,-0.5491077,0.5269691,0.060293235,0.04485792,-0.0454935,0.5427912,-0.60622567,-0.5840566,-0.5735415,-0.52829844,-0.46121752,-0.18185565,-0.55552197,-0.022067996
0.4013701,-0.029751105,-0.14525881,0.55335134,0.8111871,-0.39054143,-0.44810143,-1.0643948,-0.4160072,-2.1472616,-1.1118785,-0.38755035,1.0429528,-0.44748327,0.38975587,0.37254083,-0.6306388,-0.40502667,-0.6231495,0.010307543,0.029160373,0.046653397,0.3343003,-0.47080854,-0.24199471,-0.5688406,-0.73335904,-0.33613884,-0.49463996,-0.35062313,-0.2502778
-0.28465882,-0.23580337,0.5219005,0.23487516,-0.4794652,-0.89289075,-0.48674467,0.31118613,1.0346543,-1.1317668,1.3680875,1.0158415,-0.4106044,-1.1530827,0.7074199,-1.0932726,-0.3260851,0.1604532,0.17134202,0.06214264,-0.0037265122,-0.00012091547,-0.118431054,0.27747762,0.1487692,0.3401607,0.17877835,-0.22895299,0.15302625,0.1288818,0.5016766
-0.04272785,-0.17843103,-0.17619474,0.20969152,0.54724646,-0.765279,0.86078215,0.21463794,0.42443043,0.19170964,0.24610943,0.41199514,-0.20330188,-2.5559716,0.1551563,-0.24661747,-2.13579,-0.20073768,0.23377818,0.0036483854,-0.04502313,0.03320024,0.2681359,-0.19530685,-0.056979142,-0.08121255,-0.3763318,-0.6118869,0.019075489,-0.21915987,-0.87362146
0.53824174,0.62417394,0.37221366,1.1577018,0.13756047,-1.5913742,-0.5679448,-0.09600525,0.45267045,-0.5702037,0.59041244,0.40091297,0.0030485806,-0.71319276,0.12881714,-1.9026691,-1.1917282,-0.28128952,-0.09219823,0.026103757,-0.03124138,0.0565181,0.2841548,-0.36716783,-0.48860425,-0.33280203,-0.011019226,-0.51988983,-0.39454788,-0.34216726,0.3910617
0.51078075,-0.24943265,0.2962242,0.38952836,-0.17784782,-0.19481845,-1.045288,-0.53758335,0.10063333,-0.3773562,-0.07501774,0.11049656,0.5675394,-2.827857,0.37120596,0.046596717,1.3594294,-0.3477493,-0.5484375,0.00022365153,-0.006131105,-0.057517007,0.31101605,-0.28782427,-0.5720303,-0.229498,0.014027182,-0.43179646,0.15878823,-0.38034338,0.5061412
0.46175957,0.024803797,0.15828015,1.7177004,0.5481493,-1.0370178,-0.37499857,-0.29036683,-0.39211893,-1.6448221,-0.35555857,-0.47396132,0.2607893,-1.0880688,-0.026016375,-1.6850493,-0.48540446,-0.17573847,0.285939,-0.039984025,-0.044137,0.05123406,0.13634776,-0.23096353,-0.14089957,-0.21650478,-0.111210436,-0.3491748,-0.22353925,-0.17622857,-0.7123929
0.21247153,0.64130014,-0.67697805,0.7177176,-0.08230298,-0.63334566,0.2299673,0.5331501,-0.032650575,-0.15749179,0.12549797,-0.057168614,-0.5517509,-0.45585948,-0.108419105,0.035430863,0.587902,-0.26270348,0.11001666,-0.007980831,-0.04410538,-0.008456022,0.17944482,-0.19601446,-0.45055413,0.009822727,-0.33011514,-0.027789876,-0.22375213,-0.1884231,-0.95016533
0.62079376,0.046515208,-0.84307545,0.6688638,-0.41470227,-0.3014032,-0.37273055,-0.07642853,0.16889796,0.26629815,0.024464168,0.2066188,0.16690025,0.91313624,0.70466983,1.1471287,0.6979749,-0.00896032,-0.6875374,-0.0107614845,0.0031217635,0.037603505,-0.048806723,0.14185487,0.10323568,0.25339165,0.0006433918,-0.08726838,0.2853018,0.10512315,-0.71765107
0.28984514,0.07550407,-0.15397538,-0.17151053,0.010064447,-0.8907547,0.6007191,-0.0427828,0.24816513,3.8033073,-0.04950813,0.07638378,0.03246084,-1.0951471,0.053946882,2.094802,3.3023314,-0.13817836,0.4627397,0.058579475,-0.019158065,-0.021954581,0.17826204,-0.26567003,-0.32458612,-0.083043106,0.22567712,-0.42371273,-0.20504037,-0.16150434,-0.808887
-0.5549691,-0.8654601,-0.074295245,-0.6853799,-0.34998706,0.45092604,-0.17009735,-0.90702564,1.0391338,0.795893,0.3002236,1.1327882,0.9190636,-0.5286826,1.2988538,-0.002820468,-0.005982254,-0.20040463,0.87088734,-0.026521109,-0.007958695,0.0070595667,0.21925484,-0.27599752,0.17946386,-0.12879616,-0.31177425,-0.18914396,-0.08824074,-0.24730997,0.6145553
0.948405,0.15657067,-0.427355,0.43016472,0.31081077,-0.3296401,-0.6032616,-0.6692599,-0.26725623,0.031258117,-0.7692033,-0.2508472,0.5858963,0.93940634,0.31823528,1.1161082,1.0535678,-0.00881121,0.5259373,-0.0129819065,-0.021950655,-0.018730894,-0.0333634,-0.030159708,-0.10286522,-0.05618686,0.12149831,-0.21021536,0.5424383,-0.0047139325,-0.43111753
0.102226965,0.42239636,-0.39412296,0.47393203,0.15214545,0.6908456,-1.0835187,-0.97990596,-0.11137923,-0.55879164,-0.589051,-0.12632233,1.0452951,0.7150821,0.549663,2.3191664,-1.0725158,-0.12390268,1.6194693,0.04666429,0.003875807,-0.050451033,0.11423245,-0.12823251,-0.19418298,-0.26595485,-0.014891045,0.32445014,-0.3281049,-0.1301548,0.04546596
0.4856996,-0.46206516,-0.26759174,-0.1103149,-0.053686623,0.50833106,-0.4773181,-1.2534482,0.24898872,-0.5764126,-0.4489436,0.23667376,1.2382561,-1.5545915,0.85534656,0.55719054,1.5477599,-0.023122711,-0.9169482,0.0038781464,-0.046716616,0.011640772,0.0013616557,-0.081872,0.29198414,-0.059445757,-0.26180577,-0.22410113,-0.08162153,-0.19741595,0.8955885
0.8746702,0.6121808,-1.0001734,-0.066251665,-0.783894,-0.42364943,-1.8306912,0.7765779,0.40158033,-0.49345475,0.8664121,0.32352602,-0.866634,0.00753791,-0.37049627,-0.97301984,1.8583142,-0.2244809,-1.455338,0.055632748,0.041843243,0.020611547,0.229147,-0.26923677,-0.33855683,-0.19635834,-0.004680314,-0.31434032,-0.0143328225,-0.17727908,0.7434911
0.6368482,0.6351194,-2.009998,0.6807688,0.8786141,-1.4005926,-0.30034357,0.106051534,1.0040268,0.95058596,0.42810655,0.9225935,-0.15255938,0.381519,0.40245342,-0.6279922,-0.21762574,0.19459914,0.7664129,0.023442574,0.018589333,0.02411431,-0.12221606,0.100568056,0.33130264,0.23708288,-0.031017384,0.15571894,0.44391114,0.09713374,-0.7686112
0.05411198,0.45332438,-0.24489889,0.17742647,0.70639175,-0.08981519,0.4454174,1.2302747,-0.19850163,0.16742463,0.33570427,-0.1982699,-1.2675124,-0.36723712,-0.8264843,-0.20717816,1.0876095,0.3761453,0.062986664,0.0018155351,0.022904336,0.0045065135,-0.29773483,0.22030702,0.19368812,0.21872798,0.2271645,-0.15437339,0.39546186,0.29563817,0.23418209
-1.3451792,-0.054693125,1.9209819,0.22592025,-0.52236384,-0.16386625,0.63540846,-0.04772041,-0.49773842,2.1302836,-0.5386663,-0.4379288,-0.014512281,-0.18775651,-0.27704057,-0.2820429,1.0565863,-0.14759544,1.0948919,0.046825208,0.026884079,-0.048976213,0.15728126,-0.07100679,-0.10742428,-0.3633761,-0.28041142,0.1355471,-0.5809559,-0.10448672,0.112966485
0.31552204,-0.60976845,0.5811153,0.6082936,-0.29075256,-0.45507282,-0.89530057,0.48761562,0.16710337,-1.4384463,0.44164604,0.18619627,-0.47843996,0.45810902,-0.34519836,-2.1581063,0.77756524,-0.39235342,-0.91364557,0.04894618,-0.030658133,-0.01780238,0.3882407,-0.44298083,0.09535405,-0.39066172,-0.67334074,-0.41171372,-0.1544642,-0.38285646,-0.15182428
0.036048587,0.5421138,-0.2630812,0.7585975,0.69253904,-0.3331026,0.7611728,0.05165387,0.37611488,0.33127925,0.48230994,0.3403132,-0.030284833,-0.083169036,0.11212461,-0.410744,0.68284804,-0.063778095,-0.5586448,-0.00017745793,0.060532637,-0.01378154,-0.00019556948,0.015663996,-0.092596956,0.21373266,0.12014844,-0.20063335,-0.076240756,0.1148731,-0.72260493
0.6167357,-0.41105232,0.051072348,-0.47709647,0.47656015,0.25114945,-0.38173527,-0.005561404,0.5051139,-1.2626895,0.43393257,0.56459695,-0.1424812,-0.9605604,0.113246985,0.8349287,-0.50556314,-0.3111404,0.109216526,-0.013787337,-0.04319389,0.01496762,0.21093448,-0.28527775,-0.20783938,-0.31426167,-0.24808173,-0.2827323,-0.1225408,-0.24721915,-1.31293
-0.18746696,-0.105027966,-0.040298134,-0.21449193,-0.3086413,0.7829775,0.15261014,-0.67306405,-1.0026381,1.2262734,-1.2757375,-0.9530177,0.7216714,3.178972,0.15020168,-0.4637133,-0.0025977993,0.09435224,-1.5036925,-0.052936494,0.026229084,-0.06157203,-0.086817555,0.27530265,0.2810677,0.3199754,-0.1366492,0.31579018,-0.08928972,0.003323989,0.58253056
-0.037347373,0.051692452,-0.0073085227,-0.8176261,0.07334823,-0.15287153,-0.37186104,-0.06862273,0.20500125,1.6802899,-0.18097104,0.12300096,0.14666432,-0.6962893,0.118600965,1.6114185,0.11911663,-0.4326384,0.6504641,0.038700856,-0.0583485,0.05550362,0.4659373,-0.38696605,-0.8194499,-0.31044632,-0.0075442237,-0.30892903,0.07627086,-0.4723731,0.22471747
0.93911207,-0.8393445,-0.9863098,-0.56112635,0.2813121,-0.1460046,-0.4630942,0.28398162,-0.30390617,1.0916677,0.37118012,-0.29155985,-0.340125,0.28994793,-0.36110643,1.4073,-0.69198495,-0.5416291,0.29766086,-0.016283952,-0.0375302,-0.013540208,0.396328,-0.6178588,-0.18964328,-0.34833366,-0.21612357,-0.3222534,0.16429617,-0.40450558,-0.30494192
0.2915565,0.13509619,0.053384934,0.2760123,-0.038168103,-0.099053256,-0.16683711,-0.7154311,0.110937454,-0.14355321,-0.3710264,0.109768905,0.6824032,-0.026623113,0.3785026,-0.5048599,-0.84216344,0.15753217,1.4779972,0.048313655,-0.04519923,0.037447825,-0.0984018,0.016547134,0.11254232,0.04840038,0.25259572,0.021873929,0.2311713,0.06853515,-0.013544045
-0.9664706,-0.049618654,1.3857951,0.45858184,-0.14285511,0.7173574,-0.09739514,-0.217,-0.60222083,-0.666066,-0.46279138,-0.56157833,0.23401596,1.6167784,-0.4482028,0.620005,1.7270155,-0.09539906,-0.12679437,-0.021758169,0.00503017,-0.0318411,0.09905141,-0.2255803,0.21462713,-0.3723378,-0.054622922,0.12529016,-0.23636095,-0.08749014,-0.444123
-0.022878641,0.5757616,-0.45265388,0.37671176,-0.028463462,-0.03781048,-0.6145234,-0.6937584,-0.42972755,0.022086257,-0.53172284,-0.49497393,0.6287385,0.6260756,0.092086636,-0.89038736,0.02103601,-0.26947328,-0.029193671,0.0448082,-0.024960674,-0.018191181,0.14202872,-0.178235,-0.3865672,-0.13419987,-0.13872524,-0.06764002,-0.083071336,-0.33821878,0.21745259
0.03711416,-0.28057355,-0.87621206,-0.6881948,-0.35820717,-0.394012,-0.33606297,-0.020401543,1.4480195,0.91363096,1.0387335,1.4327188,-0.008309739,0.63198847,0.9156375,-0.114986025,0.44770852,-0.23053184,0.065486215,-0.054397024,-0.051319636,0.055699475,0.19013481,-0.18129823,-0.0034786488,-0.11832852,-0.25449702,-0.18516654,-0.69411016,-0.14882663,0.074936196
0.002628587,0.4544807,0.4282927,0.5404166,-4.64298e-05,0.42106247,-0.4748881,-0.5959219,0.3372557,-0.15927815,0.18387671,0.48400775,0.6021392,-0.85978156,0.81639606,0.42962882,0.33880183,0.3346654,-0.43171692,-0.06112905,-0.022877336,-0.0541806,-0.3113032,0.38047534,0.12817323,0.45361245,0.3489971,0.4803483,0.28441015,0.29049766,0.6904183
0.10057611,-0.034455944,0.17741928,0.9932675,0.2828872,-0.887302,0.18247414,-0.23033977,0.72824365,-0.48826385,0.4110453,0.69541174,0.302708,-1.504577,0.6228163,0.8404873,0.096569195,-0.4038781,-1.3272943,0.039125487,0.055358224,-0.031882033,0.50492626,-0.4006916,-0.6351083,-0.29842797,-0.18979314,-0.35649052,-0.12004722,-0.5483443,0.840675
-0.4430749,-0.6346033,0.044798274,-0.6459222,-0.46508098,1.5063062,-0.2012953,-0.17166193,-0.2865117,0.79619724,-0.36129436,-0.35625488,0.30176556,0.467068,-0.24518354,2.0471973,1.7307112,-0.08621649,-0.37105075,0.019478157,-0.045908257,-0.06061782,-0.018329944,-0.03396981,0.20801802,-0.07631183,0.18941616,0.17087214,-0.015757317,-0.1377459,-0.83524716
-0.006560439,0.75891507,-1.0120121,-0.52312547,-0.06808518,0.8304346,0.8595048,-0.21084464,0.29539242,-0.21312869,-0.06351095,0.30001247,0.15534234,0.42814803,0.5533468,-1.0298532,0.122011624,0.006820896,-1.5921323,0.054318547,-0.0437506,-0.044950128,0.062318943,-0.21583508,-0.100409135,-0.14567496,0.05505084,-0.30917588,-0.2934218,-0.085222445,-1.400631
-0.6314134,-0.25660643,0.6387776,-0.5334906,-1.0211036,1.206677,0.1776685,-0.06936146,-0.16255006,0.25961107,-0.17165223,-0.088663146,0.11840549,0.3653081,-0.26538956,-0.8474253,1.1417397,-0.25302294,0.112590745,-0.030578464,0.021743536,0.025396489,0.25486946,-0.41666198,-0.34516543,-0.56476814,0.08672866,-0.20463197,-0.43337843,-0.28682417,-0.39869562
0.4055663,0.6878846,-0.37868953,0.52427554,0.09115506,-0.4906261,-0.7134366,-0.14269486,0.09771597,0.15689334,0.23679371,0.19832966,0.10043989,0.2057528,0.036453366,-0.49983066,0.77097183,-0.26775923,0.49913397,-0.02760724,-0.05613368,-0.009978287,0.27972156,-0.24319471,-0.46013284,-0.33970723,-0.25734574,-0.16971977,-0.34007627,-0.25623775,0.64385474
0.20116924,0.47537795,-0.186043,0.96396494,0.6501642,-0.6824228,-0.2900837,-0.8286668,-0.12953009,-1.0131632,-0.8645178,-0.06807033,0.74281645,-0.8729227,0.1381842,1.4767793,0.39237705,-0.23203653,-1.5692174,0.00826297,-0.05881217,-0.0143236,0.17016831,-0.109645285,-0.24238269,-0.031075234,-0.19838724,-0.31119663,0.041480068,-0.24315616,0.28140602
-0.24807462,0.027374862,0.17959905,0.4690355,-0.30774614,-0.51659876,0.47108218,-0.035692513,-0.17202036,-1.2416236,-0.08592929,-0.23653078,0.07158604,-0.2263531,-0.04200001,-1.005773,0.5047509,-0.45461074,0.1751514,0.052599765,-0.004061654,-0.007587701,0.43707898,-0.48413172,-0.70954794,-0.6798093,-0.4602318,-0.44605744,-0.73146313,-0.49447694,-1.0275265
-0.2295295,-0.74024266,0.6451809,-0.46679762,-1.0465282,-0.020758823,-0.47035792,-1.0536432,0.084493525,0.1137055,-0.24237847,0.065032184,0.94500667,-1.2648947,0.635677,-0.41423205,0.06702778,-0.19967818,-0.75232655,0.055424772,0.02098842,-0.03268964,0.17719944,-0.15517259,0.12233796,-0.033305507,-0.13060573,0.15100226,-0.024229374,-0.24544303,1.5488831
-0.3447678,-0.20767835,0.06462896,-0.6460644,-0.36013585,1.0243685,-0.64218634,-0.9351917,0.42471406,0.7489289,-0.38609007,0.3931534,0.904093,-0.57345396,0.725348,2.1737688,-0.21598779,-0.10411038,-1.366836,0.016416922,-0.027886085,0.038517334,0.0020333207,-0.038797997,-0.0073999674,0.043115634,0.32248205,0.2606995,0.7689827,-0.0029981504,-0.17201282
0.50560975,0.3132654,0.34462556,0.84946984,0.3785367,-1.4609128,-0.053016346,0.2642019,0.5066346,1.4064137,0.8170223,0.5242881,-0.22735606,0.07141575,0.27619702,0.084119424,0.35689875,-0.42435315,-0.3623008,-0.020147137,-0.045212306,-0.0054640397,0.3291412,-0.23260574,-0.52141124,-0.3560191,-0.3546245,-0.6064863,-0.20763355,-0.32013184,0.04524911
1.0727669,-0.4397688,-1.8252261,-0.8546193,-0.35991263,0.48456365,-1.0785779,-0.36638543,0.43728468,0.77988136,0.3490815,0.4119643,0.34854928,-0.6217863,0.5226344,0.24535301,-0.9143503,0.07553569,-0.4700514,0.0057137012,-0.037800707,0.013448894,-0.060404915,0.057535328,0.14537486,0.45129696,0.27596617,0.103441454,0.42384043,0.08268972,0.062320646
-0.44510543,-0.75633854,0.40150142,-1.313782,-1.4370637,0.28078872,-0.8607179,0.5244245,0.2835926,1.6948181,0.5711808,0.30103937,-0.42243657,1.3876818,-0.088324144,1.8196107,1.1215469,-0.11479502,-0.06734148,-0.033196524,-0.0137941465,-0.044578806,0.07053991,-0.20653532,0.046259116,-0.19882034,0.12290802,-0.19175036,-0.041789684,-0.1776419,-0.057839803
-0.845967,-0.22847122,0.5598732,-0.8875633,-0.9945605,0.0003674688,0.71689117,-0.3659012,-0.83994335,2.0967405,-0.9733433,-0.76226985,0.2986219,-0.24012992,-0.28954598,1.0396843,0.8531229,-0.07044522,0.15087736,-0.031204104,-0.043247372,-0.049339302,0.05391355,-0.09080289,-0.47039545,-0.05486154,0.088430084,-0.05091441,-0.14232132,-0.12034302,0.16270152
-0.043857682,0.1080703,0.35628784,-0.11656911,-0.34979773,-0.024307348,-0.2931292,-0.18109272,0.14171043,0.08665339,-0.2756349,0.12569737,0.29041037,0.46073645,0.060982883,-0.117031015,-0.56565714,0.13534264,-0.92842895,-0.025893696,0.03297379,0.00048293173,-0.14219224,0.107781015,-0.29279318,0.036766384,0.16018516,0.28790095,0.27762693,0.05209648,1.0268089
0.17753313,-0.38187012,0.30204028,-0.5004582,0.6945921,0.89793,-0.8710355,-0.70247364,-0.72185963,-0.62151754,-1.6726865,-0.6637573,0.70491385,-1.3534578,-0.3507287,0.3132592,-0.7965756,-0.11880667,-0.036414955,-0.056546755,-0.038058758,0.05548013,0.11000802,-0.18846138,-0.34195638,-0.35390982,-0.22681573,-0.28959242,0.07071363,-0.14887398,-0.9231913
0.45641446,0.62305796,-0.61779207,0.6826605,-0.015164534,-0.21569254,0.19895306,-0.25112784,-0.8028896,0.059705555,-0.6234186,-0.6880702,0.27387643,0.65993994,-0.51123345,0.7821156,-0.4038975,0.17941405,-1.1277016,-0.055512182,-0.010532729,-0.0477949,-0.12933673,0.21541761,-0.02970388,0.23433945,0.2066593,0.01772961,0.21042629,0.18540764,0.8220584
-0.5166491,-0.5156266,0.5704296,-0.29666984,-0.3263569,0.30361658,-0.7159573,-0.35504213,-0.84764975,-0.2939544,-0.90639377,-0.9429739,0.38260725,-0.8585408,-0.37357947,1.3013315,-1.748551,-0.10767603,1.7889622,0.0321631,-0.008462533,-0.040509254,0.06650859,-0.1576294,0.22808728,-0.29383135,0.045120448,-0.04976183,0.0751713,-0.16713239,0.050918594
-1.2247282,0.16266762,0.8893288,-0.22814083,-0.38265923,0.82225996,0.54844683,0.009105546,-0.12734549,0.1966344,-0.15669106,-0.13154392,0.060369756,0.40465167,-0.12267416,-0.7829932,1.2249103,0.14112175,-0.21288617,-0.023169912,-0.050685734,-0.04235799,-0.15194646,0.07599874,0.17817451,0.051898766,0.28879228,0.43789655,0.04307734,0.11529431,0.05969955
-0.4611126,-0.20793343,-0.005082174,0.08498202,0.24597196,-0.09896494,1.2635298,0.12693602,0.7810977,-0.9916668,0.61940753,0.80638295,-0.14375907,0.062161133,0.5241318,-1.7238485,-1.9099158,-0.19914094,-0.24845503,-0.026588663,0.04683949,-0.041604064,0.20337635,-0.10108654,-0.24340054,-0.04153615,-0.18421,-0.39297423,-0.091245584,-0.14722499,-0.6459011
0.56286883,-0.46964398,0.8498564,0.32069582,-0.43145436,-0.5740231,-1.0253307,0.6570536,-0.28450868,-1.0357585,0.3750468,-0.27085045,-0.61744004,-2.3275,-0.7414865,1.8842108,2.2431512,-0.6058823,1.4167423,-0.04179948,0.060390733,0.034009613,0.5669011,-0.5966808,-0.45076793,-0.8358541,-0.42694613,-0.50667965,-0.460348,-0.48534876,0.18522467
-0.32270995,0.37356144,0.74272823,0.11101245,-0.06337663,-0.17090338,0.4430534,-0.23223542,0.8657565,-0.5954683,0.56373394,0.864474,0.3370307,1.5492504,0.76875925,-0.719081,1.388986,-0.26488414,0.48659527,0.025175892,-0.0068620592,-0.042817146,0.28299046,-0.25344524,-0.51836866,-0.37063935,-0.23611195,-0.45655683,-0.5770521,-0.11179798,0.18159208
-0.14169231,-0.45613718,-0.5107487,-0.75608516,-0.67181593,0.37685582,0.11698981,0.13717507,0.28413197,-0.6101474,0.44745716,0.25423795,-0.21002525,-0.6382032,0.12788056,-0.6222228,0.80415297,0.16020095,1.388949,0.027074821,-0.040397488,0.010255218,-0.16122566,0.1554835,0.3024778,0.293797,0.2044716,0.2470818,0.08837702,0.19162825,0.23883562
-0.09559816,0.41155842,0.14512648,-0.32021278,-0.8684775,-0.13777922,-0.4347176,0.16723436,-0.23622443,0.9555851,0.1404303,-0.25177103,-0.25165385,0.12541506,-0.40466073,-1.3995531,1.1507335,-0.21696863,0.637631,-0.017292462,0.032425053,0.0013925806,0.19147569,-0.17692333,-0.7146226,-0.2718644,0.019426605,-0.19785447,-0.30595398,-0.21855803,-0.292122
0.11772265,0.10775932,-0.43272886,0.0104870135,0.26440823,0.14661895,0.23272647,0.33858433,0.09377738,0.019821718,0.33642533,0.07109735,-0.44123834,-1.2079706,-0.14067218,-0.2760147,0.79476804,0.109535754,-0.6434154,-0.003081195,0.030128635,0.01962822,-0.12076533,0.14249413,0.39815417,0.24601246,-0.041510876,0.189506,0.0014378452,0.11241069,0.54681295
-0.17894205,0.0527274,0.09148628,-0.12902994,0.51481897,0.059053004,0.9032984,-0.303818,0.021171967,0.6855071,-0.37599462,0.11520406,0.40233558,-0.40677392,0.16795298,-1.0881033,-0.90715843,-0.2348212,-0.9772165,0.032399155,-0.0134575665,0.0040007457,0.3186124,-0.28884447,-0.535674,-0.39531794,-0.028389398,-0.3646478,0.38372603,-0.251351,-1.0559065
0.10010397,0.15094222,-0.15122946,0.0034959835,0.5033691,0.1974895,-0.710896,-0.014532393,0.771356,0.7156642,0.54103357,0.71744937,-0.04277289,0.18364662,0.55769706,0.14115293,-0.87489533,-0.22094208,0.6930609,-0.044179186,-0.034655094,0.026313953,0.27542138,-0.23333485,-0.47239864,-0.3205222,-0.15405808,-0.14179939,-0.11883497,-0.39614338,-0.5931086
-1.0938389,0.37623313,0.49249557,-0.40733784,-0.3088344,0.4914492,0.05747652,-0.390129,0.056609843,-1.0280198,-0.22112195,0.05286034,0.39118427,0.34217256,0.47922736,-0.054997887,-1.4680333,-0.44612584,0.04044438,0.037474997,-0.0580383,0.025473386,0.5346495,-0.5354366,-0.6601053,-0.63129616,-0.5032874,-0.28763437,-0.83138525,-0.4621005,-0.30183482
0.28926387,0.15548584,-0.87923557,-0.38663885,0.2460525,0.19247815,0.81774193,1.1468024,-0.099841945,0.41923004,1.0230027,-0.101210006,-1.0519603,0.192993,-0.48540083,0.8688414,0.43783048,-0.18582116,-0.024400467,0.06035704,-0.036302917,-0.059116036,0.17188324,-0.29234067,-0.07344405,-0.22250289,-0.17899483,-0.090363726,-0.26484096,-0.12335884,-1.2814999
0.37408885,-0.91806495,-1.217806,-1.4919354,-0.17933987,1.5554476,0.27090544,-0.3954329,-0.33297685,1.5634955,-0.5189686,-0.38577518,0.5779715,1.3302008,0.040319048,-0.2263275,1.6846657,-0.31601962,1.6848558,-0.033268057,-0.009288646,-0.006071076,0.22305542,-0.2852503,-0.054909833,0.07766923,-0.17250761,0.11696443,0.1584765,-0.15485008,-0.2655537
-0.4832601,0.5867843,0.117636085,-0.19380781,0.1569829,0.17413285,-0.16720617,-1.5578054,-0.040803924,-0.56850606,-0.50293106,0.031932976,1.4669714,-1.2227973,0.92023385,-0.5950907,-0.5427961,-0.2568173,0.7503103,0.015310265,0.016628355,0.02818495,0.26699743,-0.11306055,-0.69606864,-0.15124848,0.100237615,0.21998759,-0.2391535,-0.17248784,-0.71211386
-0.21786556,0.6434489,-0.69138336,-0.46950865,0.5308876,1.4048374,-0.6221142,-0.6711281,0.48228684,0.8071876,0.038456116,0.41778573,0.6486956,1.2395791,0.58589303,0.23663439,0.9653649,0.11047941,1.258786,0.045323037,0.053192526,-0.038618483,-0.108522095,-0.06503727,-0.005085577,0.05116984,0.18082054,0.065352105,0.4758611,0.15385072,-0.1943863
-1.0838323,-0.046806052,0.5527199,-0.5031369,-0.9048176,0.5797168,-0.18959878,-0.094115205,-0.17343244,1.0426252,-0.17773129,-0.21071869,0.07101902,0.71232486,-0.21276733,0.337277,1.1186589,0.04636109,-0.2984632,-0.042293295,-0.054849118,0.0014576837,0.008368232,-0.18203267,-0.23326981,-0.2576604,0.1751392,0.27176544,-0.5419889,0.030020569,0.64433646
0.8042708,-1.1130562,-0.9298152,-0.8599901,-0.52281666,1.0846775,-1.3603191,0.40824702,-0.5192312,-0.2349788,-0.23151875,-0.60061353,-0.42161915,-1.0967141,-0.64091533,1.3488706,-0.9683556,-0.12063548,-0.08662755,0.034461863,-0.060811915,-0.050965786,0.041123394,-0.14283657,0.6225578,0.11458477,-0.1670822,-0.15966074,-0.11856126,-0.104773454,-0.17103988
0.59456426,0.3417424,-1.3070188,-0.8134106,0.06295182,-0.4486027,0.9690563,1.0936234,-0.10676411,-0.3411015,0.700732,-0.08771418,-1.0638521,1.3130647,-0.7957543,1.240044,0.2823452,-0.08101894,0.24721636,-0.035219975,0.032070905,0.013085261,0.09099532,-0.07315371,0.2952945,0.16336046,-0.20389737,-0.28344232,-0.29484466,0.042225387,-1.3015882
0.5915421,-0.9419758,-0.53736013,-0.28202,-0.70099205,-0.28529674,-0.28654867,-0.08719672,0.3709769,0.24376847,0.5426839,0.4503737,-0.01095813,-1.0571821,0.32218733,0.5329817,-2.4227579,-0.08387857,0.89427614,0.03661815,-0.006675862,-0.01800774,0.21392977,-0.17001317,0.41945586,0.12262699,-0.11557946,-0.39414525,0.020518124,-0.1471088,-0.858949
-0.048562877,0.6583783,0.7195617,0.49079555,-0.51489764,-1.1772591,-0.42508513,-0.95748204,0.32861698,0.691912,-0.449099,0.23640077,0.99057835,-0.14863373,0.94637215,-3.2637737,2.7047546,-0.07082749,-0.8893053,0.051189646,-0.024906456,-0.03394916,0.015244734,-0.03887564,-0.4322188,-0.20428085,0.29541218,-0.22176011,0.5030313,0.049870297,0.8457714
-0.21652329,0.21352647,0.55247265,0.59875715,-0.1801655,-0.23321648,1.1135473,0.11821163,-0.77326953,-0.325728,-0.57029265,-0.71495384,-0.13530442,-1.9726245,-0.5302337,-0.2052989,-0.7489498,0.033921756,0.23051283,-0.008960418,-0.009136431,0.055215612,-0.07881068,0.04075763,-0.31493792,0.20432623,0.1957282,0.0902772,0.013824058,0.0025141656,-0.91463405
