-0.2327415,0.60803944,-0.51903707,-0.11114044,0.34857607,-0.08474753,0.5934174,-0.6289466,0.048036247,-0.039734878,0.2950051,0.29831985,-0.7226949,0.10196059,-0.9325455,0.4134686,0.34671637,-0.16037622,0.21105807,0.09321498,-0.4192617,-0.32920662,-0.028652795,-0.3674732,-0.4480657,-0.2771514,-0.35454106,-0.4467805,-0.15017849,0.03812718,0.6959143,0.082143836,-0.65456724,-0.26310852,0.2653783,0.122043215,-0.047207505,0.020289984,0.570864,-0.26131937,0.24148913,-0.35288095,-0.06676737,-0.44027787,0.27429214,-0.09360159,0.7964346,0.10028917,0.41069937,0.019030051,0.4861295,0.73635405,-0.3038612,-0.17301868,-0.0006551182,1.0140136,-0.042656872,0.042749524,0.5363367,-0.4577707,-0.26776463,0.07781594,-0.34180036,0.21580973,0.38646114,0.84400797,-0.6330233,0.6476362,0.65034574,0.85032445,-0.09815477,0.25597075,-0.21553591,0.2101396,0.3741116,0.5542278,-0.2519873,-0.60169256,-0.40811035,0.049250353,-0.059698746,-0.20378244,-0.11856979,0.41389674,0.23230703,-0.21381448,0.0007877747,-0.7276263,-0.42720324,-0.14692412,-0.5692457,0.3919002,0.18107751,-0.26694518,-0.010531279,-0.29918787,0.3167638,0.91407,0.6662691,0.23574007,-0.26820093,0.1695376,0.038304392,0.33757988,0.11109835,0.074110135,-0.44858733,0.7261072,-0.036923405,-0.43590727,0.36198413,-0.041659206,0.01901198,0.28833774,0.23134772,0.06843918,0.14745463,0.8710216,-0.20290694,-0.52590644,-0.16105796,-0.21926545,0.10035375,0.26600894,-0.09771179,-0.0030573467,0.41045338,0.17618814,-0.14900376,-0.09187724,-0.2818432,0.385819,-0.70718026,-0.44107288,-0.5170228,-0.63101536,-0.37326556,-0.35815227,-0.556653,-0.41998148,0.2849631,0.07153077,-0.34002963,-0.24340728,0.17650494,0.10787427,-0.16937771,0.070697516,-0.20475122,0.8743958,0.07195796,0.27980167,-0.4109649,-0.6108952,-0.83988607,0.047290783,-0.48870498,0.5198846,-0.08766191,0.05875989,0.25722247,0.068456106,-0.9199506,-0.55885273,-0.10427309,0.6440181,0.22895224,0.3422014,0.06627384,1.1388764,-0.42432973,-0.27489325,-0.26180416,0.11081047,-0.17671221,0.24511783,0.7454042,-0.33036408,-0.48543376,-0.35302794,0.14801604,-0.6487898,-0.13435777,-0.5694818,-0.8401671,-0.50522584,-0.41325796,0.37269935,-0.22691995,-0.12108095,0.03552808,-0.1332357,-0.0205724,-0.45955354,0.8485732,0.70009714,-0.18061247,0.5614106,-1.0780385,0.8250946,-0.11317563,-0.30413425,-0.3985819,0.2723041,0.5480866,0.10417692,0.15076077,-0.3885339,-0.32550353,0.8072643,-0.615454,-0.258786,-1.0957018,-0.42976385,0.3841348,0.5539719,-0.74285954,0.30008516,-0.5600355,0.19583458,0.04519194,-0.49172586,-0.6232781,-0.4574284,0.9824714,-0.089507066,-0.26978454,-0.1883198,0.061268643,-0.54512626,-0.33477396,-0.6148407,0.19134374,-0.74323946,-0.13897467,-0.08005082,-0.27373472,-0.11653787,0.07039459,0.12209777,0.092616916,-0.24901268,0.3157842,0.24964342,-0.43335143,0.1368652,0.03170942,0.047164086,-0.6252879,-0.4509243,-0.07887265,0.37612045,0.272136,0.24223056,-0.06278085,-0.7066896
-0.080031976,-0.99228585,0.5871131,0.47814322,0.94199646,-0.124556154,-0.28864732,0.6810063,0.101338334,-0.12776434,-0.006259605,0.10308143,-0.35077262,0.08718162,-0.5526494,0.30808264,-0.28908774,0.078659914,-0.16345057,0.28622222,0.6990213,-0.37911862,-0.8863046,-0.14620872,-0.100436226,0.2448245,0.099888586,0.3340522,-0.20721589,-0.13433713,-0.2546491,0.2363782,-0.106917135,-0.10227838,-0.055927087,0.13462907,0.08468254,0.57739484,-0.17383145,0.5639761,-0.6465554,-0.49033636,0.10574048,-0.17489147,0.22616653,0.051985156,-0.23005944,0.17366093,0.015291475,-0.06292852,-0.07309453,-0.0895654,0.30237103,-0.08035797,0.26198095,0.11741928,-0.10493017,-0.3035321,0.3709194,0.22826296,0.39473963,-0.18031399,-0.55831784,0.14538555,0.14672476,0.7754417,-0.14878057,0.40398917,-0.030346705,0.30315715,0.0874963,-0.13614814,0.31307605,-0.14464395,0.5026061,0.31199962,0.25518227,0.41925272,1.0832137,-0.52566814,-0.047681183,-0.4813761,-0.1105493,0.64433676,0.4590167,-0.19936745,-0.022958552,0.1687538,0.035481147,-0.28349075,-0.9325308,0.29690918,0.4054253,-0.08802526,-0.027669815,0.0080172755,0.7558003,0.15702279,0.426591,-0.12117392,0.021673877,0.07972403,0.049359236,0.4678842,-0.55442894,-0.05155708,0.48706606,-0.10103788,0.20884813,-0.23180482,0.35660043,0.34397623,-0.551634,-0.29243717,0.5408129,0.42711243,-0.09677392,-0.39456552,-0.39026856,0.26777437,-0.11970479,-0.15620781,-0.060977228,0.08263191,0.15053688,-0.46435043,-0.74357414,0.0381115,0.7634694,0.29317275,-1.2781343,0.074755386,0.6083964,0.521205,-0.31721625,-0.63312167,0.38453826,-0.061840754,-0.14083813,0.32334545,0.6568879,0.17403531,-0.38226327,0.23591328,0.25087965,0.21536642,-0.0043827333,-0.23778696,0.34839612,0.070058934,0.05515552,-0.05909292,0.28184474,-0.39386237,-0.08745133,-0.03703028,-0.21489082,1.0951501,0.16186318,0.036967475,0.64769894,0.21080633,0.71767026,-0.13808125,0.45773092,0.52780306,0.1751456,0.5045549,-0.0042955335,-0.12420567,0.68122715,-0.027751394,-0.0769933,-0.08079555,-0.18283449,-0.004390796,0.19675489,0.26089126,0.3137245,0.18913907,0.07198624,-0.5430535,-0.065618604,-0.03471968,-0.056531105,-0.39877343,0.25970656,0.66589713,-0.72460824,0.18437545,-0.60279757,0.4023363,0.1712003,0.09948346,0.53895444,0.1995755,0.3405144,-0.34381083,0.7405866,-0.6563302,0.47424838,0.11502321,0.20962761,-0.32597572,0.37027487,0.17205913,0.19062038,-0.13008076,-1.01173,-0.012155659,0.023931127,0.11411928,0.17208931,0.28168494,0.28349563,-0.8181834,0.4069316,0.40148303,-0.69660074,0.15377215,-0.5508349,-0.21040514,0.11169271,0.1690161,0.34766826,-0.4835597,-0.40961778,-0.7346607,-0.1635177,-0.3887275,0.16051897,0.39852732,0.06063584,0.53148466,0.3873827,0.46208096,-0.3635227,0.35462296,-1.3558245,-0.021847071,-0.26036552,0.24053155,0.4504167,-0.3129217,-0.8908447,0.1708976,0.33556008,-0.26927447,-0.031463426,-0.28790116,-0.07446018,0.4650793,0.03190437,-0.4737083,-0.09139449,0.72304064
0.012851013,-0.7356106,0.76260275,0.1735239,0.19844434,0.6005317,0.11260388,-0.27275273,-0.17706494,0.36923167,0.8605568,0.16362818,-0.09375021,-0.30134204,-0.50634956,-0.04190136,0.24809808,0.5214217,-0.20086713,-0.052716862,-0.75634277,-0.40220484,-0.21600765,-0.32996038,0.33188823,-0.23662104,0.2405931,-0.2586022,0.37342024,-0.4134121,0.13021004,-0.1628929,0.27976465,0.12359865,-0.10432022,-0.28523916,-0.45369765,0.16361491,-0.04902404,-0.24952735,-0.13513932,-0.045771517,0.9927346,-0.0792151,-0.66403663,0.80441296,0.9404456,-0.7209316,0.24225679,-0.08489964,-0.40713763,-0.5540776,-0.22308975,0.09769169,-0.23094393,-0.40141132,0.34499097,-0.101568215,0.12800778,-1.1203368,0.14509606,-0.04945171,-0.5916139,-0.378087,0.28314373,0.1136659,0.33792147,-0.7874341,0.32033485,0.0963291,0.04815562,0.2579581,0.2859919,0.285074,0.039713535,-0.85682476,0.37982896,-0.058407165,0.1398523,0.19053744,-0.029278172,0.38854638,-0.11342392,0.07691154,-0.011296826,0.58931243,-0.14951047,0.024188593,1.1206695,1.1253408,0.11644306,0.18511502,-0.54283583,0.21509618,0.86811453,-0.23410664,0.32948282,-0.04773067,-0.691218,-0.1507492,-0.50047165,0.38635063,0.5436831,0.32828593,0.40361276,-0.094066404,-0.48691308,-0.5425138,-0.17567791,-0.03279834,-0.5541225,0.50553346,0.1550826,0.36894432,1.0157565,0.2057659,-0.539773,-0.14872369,0.14291574,-0.7164648,-0.0042175283,-0.18418598,-0.32585493,-0.4082514,-0.0063715596,-0.6629651,-0.5413212,0.41252813,-0.20644382,0.52134854,0.15065937,-0.2872075,-0.13674079,0.1250079,0.8116645,0.49934646,-0.050105054,0.077627845,0.40882933,0.2826142,0.3346038,0.13081768,0.4510628,-0.31847975,0.1386373,0.6437864,0.73630637,-0.19738019,0.35557264,-0.20871107,-0.07604904,-0.102007836,0.3477941,-0.14985387,0.15061162,-0.16272952,0.027859239,0.5861737,0.72953117,-0.6465375,0.35834274,0.2174295,-0.05221908,0.5563124,-0.73195034,-0.4332645,-0.46283472,-0.26180762,-0.27778015,1.1548623,0.7834497,-0.2548894,0.20029797,0.8481388,0.42519912,0.18951856,-0.30643755,0.08929235,0.74035287,-0.23840608,0.039146278,0.08550334,-0.22081338,0.89352083,-0.037501927,-0.30456465,-0.11984772,0.22285794,-0.2392765,0.46862823,-0.25419283,0.26446146,-0.40201846,-0.043201286,0.23548323,-0.34186178,-0.3480311,-1.1145664,-0.06255226,-0.018805293,-0.3129323,1.0162257,0.8148912,-0.80169404,0.58341473,-0.42274955,-0.47125039,0.05636694,0.23646629,-0.28154835,0.836842,-0.21829674,1.0980146,-0.6387651,-1.1295348,-0.18902345,-0.3553539,-0.39666164,-0.7735666,-0.0745034,0.49588004,-0.28842118,0.9954784,0.5211469,-0.17929533,-0.38209683,0.1848171,0.38388515,-0.013613122,-0.73042613,-0.2672803,-0.2193624,-0.17075372,0.32590073,-0.51285625,-0.049019206,-0.7478705,0.36888978,0.048509523,-0.6091989,-0.1431059,-0.6276332,-0.25198784,0.74526715,0.030945143,-0.16674234,0.051326882,-0.58192,-0.21395753,-0.13589576,0.16231687,0.56692594,-0.25577408,0.15894249,-0.60521656,-0.038000327
0.29666573,0.46647877,0.33812702,0.17335215,0.31365523,0.18944551,-1.2065896,0.33503252,-0.4333807,-0.06897619,0.80655456,0.19397214,0.35429096,0.00040852395,-0.103700034,-1.2691357,-0.2708709,-0.2544373,-0.1941589,0.08680316,-0.52785236,-0.44828913,0.16359018,-0.12931709,0.24738516,-0.08714402,-0.6642123,0.69881713,-0.61299115,0.10101295,-0.06580084,0.03241726,0.3520573,0.23535089,-0.0026644138,-0.8777812,-0.004574722,0.23718697,0.18145235,-1.219868,-0.025476508,0.09720255,-0.1945146,-0.7731594,-0.2062561,-0.31476498,0.7846736,-0.4948236,0.00986002,-0.5070879,0.5737666,-0.008743466,0.25741395,0.33237466,0.52565557,0.6046209,0.33691588,-0.12083482,-0.08573982,0.14122225,-1.0976872,0.09272157,0.30230257,0.19071908,0.5110056,0.680999,-0.6078289,0.8349163,-0.23456089,-0.19503361,0.21776268,0.12345399,0.9316008,0.2977278,0.16620398,0.4062487,0.05240078,0.10341092,0.22240543,-0.31668246,-0.03612825,-0.3273885,0.5432474,0.32447878,-0.5661022,-0.21783626,0.15965028,0.21199845,-0.35655367,-0.44332546,0.02501992,0.21578659,0.12520191,0.8037054,-0.7125513,-0.46159926,0.22099221,0.3887563,-0.90079296,-0.9675276,0.47232187,0.6285069,0.4820177,0.35111642,-0.6222056,-0.3261814,0.33570045,0.085423544,-0.37759244,-0.16597253,-0.04182866,0.51662296,-0.7084209,-0.5205261,0.48098773,-0.52450806,0.45392904,-0.60530704,-0.39620933,-0.24434912,-0.3467661,-0.5488181,0.33480424,-0.3897975,0.06006123,0.14870591,-0.43088135,-0.08671174,0.55053496,-0.1903298,-0.11136136,-0.16075467,0.18998413,-0.21607147,-0.9226164,0.43179157,-0.10222474,-0.13607986,-0.4759979,-0.15312406,-0.036262147,-0.2517307,0.58798265,-0.49848253,0.018927505,-0.62043834,0.12534304,-0.11083269,-0.61774766,0.25989932,-0.020561032,-0.042483754,-0.68457687,-0.3713857,-0.4510894,0.4129266,-0.19560291,-0.012298445,-0.7231553,-0.11963491,0.19491258,0.4448664,-0.025408763,1.0492637,-0.08537343,-0.23191504,-0.08743641,0.017068138,0.95045763,0.37025785,0.0747968,-0.27489457,-0.4042729,-0.24724957,-0.13274495,-0.70480436,-0.25142515,0.31363922,0.114515014,-0.7677205,0.13829309,-0.02214378,-0.13911647,0.03882304,-0.6117982,-0.17461622,-0.6160142,0.3504211,-0.23289579,0.15596673,0.7475126,-0.32070103,-0.49216783,-0.6326375,0.5050791,-0.40884143,-0.23089342,1.0226191,0.8115403,1.4282757,0.66167486,-0.103402145,-0.88548374,-0.3694564,-0.12215413,-0.30197728,0.6683283,-0.18626991,-0.59553176,-0.046261888,-0.89529204,-0.63200784,-0.1346774,0.37009525,0.124415234,-0.26116383,-0.0744775,-0.36835366,0.49281472,0.5874876,0.32328463,-0.5163814,-0.37350625,-0.1999723,0.21621463,0.28893667,-0.65377355,-0.3144139,-0.11730509,-0.7251801,-0.039606173,-0.104267664,-0.5272887,-0.24157955,0.2586286,0.21586907,0.8920666,0.51219547,-0.40190947,0.13501416,-0.67871124,0.2219709,-0.1560867,0.40591323,0.075538784,0.41639104,0.46301162,-0.55996704,-0.22210214,-0.66393363,-0.075057514,1.0326465,-0.07599674,-0.36829203,-0.12271635,-0.10949163
-0.0076293233,0.05091124,0.27209467,-0.019408153,-0.8028043,-0.42064086,-0.63020283,-0.90750325,-0.19077943,0.7319497,-0.31186804,0.41370738,0.47462413,-0.11460826,0.19692953,-0.19081485,0.010469488,0.038982067,-0.40462145,-1.2450705,0.2502672,-0.17959403,0.009518553,-0.3295078,0.21435946,-0.54719454,1.7126101,-0.10041231,0.16170135,0.42982286,-0.7499266,-0.098271295,0.11592412,-0.3529867,-0.5165267,0.1943687,0.1531293,0.255372,-0.31284288,-0.45368436,-0.7771188,0.14225467,0.56349564,0.011795783,-0.4995243,0.0470203,0.6490753,-1.2363125,-0.122844666,-0.122015476,0.10312771,0.53493166,-0.6947234,0.021594262,0.18628916,0.38008684,0.45567834,0.06421342,-0.6809342,0.46481827,0.7885077,0.21242298,0.6972825,-0.7086069,-0.27623138,-0.6022272,-0.2152635,-0.18225656,0.6481878,0.4565867,-0.15647897,0.86386776,-0.27727365,-0.0928653,0.08202464,-0.13005307,-0.36170146,-0.3257148,-0.38034812,1.0435039,0.41752788,0.05150527,1.1079878,0.41918758,0.42918435,0.50679153,0.29798213,0.15419646,-0.32024428,-0.09557737,0.109047376,0.36607525,-0.4093536,0.104001105,0.26993093,-0.3847524,-1.1858488,-0.71446383,0.18818213,-0.31709757,0.3451442,-0.9240655,-0.2310839,-0.19776769,-0.67042935,0.28059217,-0.53121084,0.32589373,0.5691968,0.4335215,0.48317015,0.17234895,0.12743917,-1.5724397,-0.34319195,-0.09131941,0.19962463,0.51295805,-0.4062546,0.8766661,0.03296798,0.13151717,-0.5575839,-0.24990001,-0.7048847,0.18972349,-0.19417052,-0.48183897,-0.038359467,0.036066808,0.59244424,-0.15480787,-0.8046423,0.52054936,-0.3687307,0.50274026,0.32939264,0.04935103,-0.10647652,0.07756699,-0.8388893,-0.0025768792,0.7522628,-0.40068877,-0.069855645,-0.2289264,0.59819347,0.3023443,0.36783955,0.5943368,-0.35829785,-0.43143454,-0.008460188,0.5880615,0.28155065,-0.012831302,-0.1171844,0.5167346,1.1666168,0.26254588,-0.67598176,0.22024089,-0.19090542,0.07660912,-0.19004782,-1.1954188,-0.5416661,-0.57018644,0.28664917,-0.050006464,-0.14094216,-0.09185849,0.570469,0.11288713,-0.1458213,-0.016276715,0.026026,-0.7374357,-0.19693096,0.061680146,-0.4998306,0.41117778,0.012834434,0.4155259,0.468033,0.5188703,-0.4977687,0.13764843,-0.2985697,-0.19690958,-0.07481086,0.099248976,-0.1296766,0.285074,-0.48632228,-0.1589262,0.08637551,0.6755397,0.05314903,0.40750176,-0.020578686,-0.23243651,-0.3381079,0.224202,-0.9213933,-0.9409738,-0.47228152,0.013523494,-0.22028059,0.21112897,-0.6416547,-0.40659565,0.13840537,-0.061239533,0.03235734,0.4043335,-0.47216693,0.33844134,0.989932,0.616143,1.0529631,-0.17847474,0.25475597,-0.87777275,-0.4609218,-0.054382402,-0.18427289,0.14219432,0.09965772,0.30813947,0.10145073,0.30260685,0.9201583,0.32585523,-0.5469621,0.5151636,-0.09035991,-0.5988762,-0.4257532,-0.5481163,1.0114409,-0.24164313,-0.4982096,-0.041211735,0.24131584,0.045246128,-0.34061632,-0.10035208,-0.048037063,0.15050013,0.5360118,0.14400229,-0.040863346,0.2082776,0.43064162,-0.7623792
0.15770891,0.18132418,0.5087232,-0.4735128,0.5999413,0.04457369,-0.07179873,-0.39466852,-0.6917303,-0.24507767,0.36607552,-0.6106625,0.1250126,-0.6447056,-0.40999094,1.0154487,-0.01973225,-0.25358886,1.1977363,1.1777722,-0.6027252,-0.48178348,0.16250104,0.2889483,0.38191372,0.27055866,-0.29526386,0.0998244,-1.1445643,-0.5128964,-0.1751066,0.3752966,-1.0357156,-0.31766382,-0.45705178,-0.3149521,-0.18901415,0.39315128,0.052419055,0.21568748,0.15567495,-0.9632264,-0.27791753,0.35818312,-0.29524642,0.6122164,0.5940726,-0.08687148,0.028903333,0.82244116,0.39837545,-0.16647062,-0.22721364,-0.7407358,-0.015269568,0.6025704,-0.6648708,-0.011766361,0.7599376,0.74198717,-0.81241596,0.10356576,-1.0240134,0.32928687,0.14565232,0.7259478,-1.3283731,-0.12876916,0.12520239,1.0105537,-0.16116296,-0.30796972,-0.5356311,0.33567822,-0.15897033,0.53866565,-0.021048138,0.3018526,-0.21514592,-0.54162824,0.57390857,-0.37284985,-0.5080087,0.030730013,0.39384118,0.17916277,0.86038685,-0.13645425,0.77542436,-0.71137446,-0.300302,0.36855412,0.02146534,-0.2659543,0.10523357,0.40330833,-0.022507539,0.09177342,-1.0078168,0.78505665,-0.33928078,0.2585308,-0.15450841,0.12604773,1.0513699,0.1651753,-0.7557994,0.32211787,-0.51060915,-0.5890132,-0.8094401,-0.790085,0.017432807,0.55400556,0.064370885,-0.09838353,0.27737457,0.70868325,0.5836513,-0.76603055,0.12679383,-0.06807154,-0.5668493,0.7779366,-0.5983292,-0.25156176,0.3294974,-0.26739398,-0.50389,-0.6581903,0.40209094,-0.42104805,0.29935464,-0.5189598,0.07666323,-0.71555007,0.061166056,-0.22638862,0.38046542,0.44343,0.277636,-0.3905791,-0.469755,0.36775285,0.19534415,-0.06584143,-0.018558,0.38594607,-0.60946417,-0.0076434244,0.09240959,0.47599402,0.60153,-0.42575374,-0.3976232,-0.27819085,-0.49766538,-0.21702069,0.035412367,-1.0684385,-0.0014196587,-0.72503114,1.143104,0.27115494,-0.12995549,-0.0019457932,0.066672556,0.11274512,0.67401433,0.4522325,-0.13846116,-0.54091924,-0.25145668,0.53210485,-0.34663847,0.25118285,0.520524,0.060717106,-0.12288022,-0.76253617,0.11764073,0.28588322,-0.13502648,0.06282767,-0.21410644,-0.27969763,0.38511226,-0.5168937,-0.617067,-0.6260404,0.32772255,-0.19123782,-0.36177957,0.35353306,0.01375074,0.06266587,0.4460148,-0.032780193,-0.28918824,0.938333,0.16726202,0.32525086,-0.12109809,-0.06668495,0.11656,0.49463502,0.5510747,-0.32012042,0.34152663,0.38442916,-0.09227764,-0.18682596,-0.5739432,-0.47816104,0.0773706,0.27583337,-0.08232257,0.42959034,-0.5821328,-0.09326219,-0.32484832,-0.2556173,-0.27622953,0.73247445,0.47184548,0.15535669,0.068320476,-1.1225855,0.6806249,0.11887622,0.33847395,0.4721414,-0.68340546,0.053343326,0.28824022,0.113271855,0.70560277,-0.14636631,-0.1261948,-0.24841012,-0.004993371,0.62300396,1.3336247,0.13685304,0.2860241,0.1407742,1.2203884,-0.122599594,0.23365533,-0.11930968,-0.18431056,0.16454439,0.22217733,-0.23615365,-1.1186533,0.1585407
-0.025414906,0.16053154,0.20961602,0.2474024,0.029789226,0.49412134,0.10651931,0.66334444,-0.37538987,-0.28000554,-0.5243317,0.29286882,-0.4556486,-0.46784815,0.16240895,0.04012035,-0.6388087,0.21420477,0.9577062,0.08967264,0.038669642,-0.4689533,0.68287295,0.115165435,-1.0785598,-0.06339064,-0.16509674,0.124893315,0.12914038,0.16883864,0.40441176,-0.1709535,-0.8464528,-0.5274267,-0.16283815,0.0021698992,-0.60544014,0.34550363,1.1312405,0.26360482,0.57205546,-1.0836258,-0.06533751,0.04628925,0.1169815,-0.46194142,-0.5189272,0.54576087,0.4700993,-0.5974497,-0.37430957,0.22612555,-0.49378216,0.040105913,-0.90203947,0.77263296,0.10478516,-0.12525223,0.572012,0.548132,-0.16009608,-0.1475429,-0.27419764,-0.022440048,0.017886313,0.34054968,0.5175862,-0.3615806,-0.15468621,-0.34099588,-0.22487317,0.2336396,0.044323854,-0.31297097,1.3245734,-0.7404688,0.107404426,-0.19872214,-0.18400581,-0.58745813,0.77443415,0.07113098,-0.15877046,0.68241143,0.4461377,0.105006866,0.65384656,-0.19237892,-0.2176017,-0.9007897,-0.40316346,0.51290995,-0.35559452,-0.16715744,-0.49910572,-0.7999504,-0.35489264,0.080386505,0.28709897,0.50855035,0.33719432,0.17091402,-0.03948913,-0.60552543,-1.2661489,0.58160144,0.09465498,-0.3457319,0.22671181,0.27252635,0.16732436,-0.14807108,-0.27573028,-0.5579259,-0.5421116,0.26727894,0.47772935,-0.2927458,-0.047093287,0.1911496,-0.4504078,-0.31309763,-0.000645758,0.07627383,0.26935196,0.08924246,0.07304355,-0.23594265,0.057899464,-1.093757,0.32284915,0.7050396,-0.25788116,-0.8020373,-0.4816016,-0.07679433,0.45626932,-0.96584105,-0.18703416,0.49047047,-0.67322946,-0.2101213,0.3999298,0.5193784,-0.21238725,0.541202,0.57687217,-0.08439609,-0.109065704,0.78283155,-0.42727542,-0.013641456,-0.25670758,-0.07264286,-0.10308486,-0.38168585,-0.8311187,-0.23214984,0.17269269,0.20972002,-0.3339584,0.028315827,-0.23086873,0.31757602,-0.25275987,0.0001627902,0.5404589,0.61450034,0.44912052,0.26592433,-0.6489789,0.5124303,-0.25239098,0.24452361,-0.95371133,0.767301,0.38774052,-0.29315788,0.90725327,0.48742706,0.025606634,0.7568363,-1.3053358,0.14759319,-0.033294715,0.5162634,0.04170327,-0.6911894,-0.04197532,-0.82353795,-0.26999712,-0.1534815,0.6972835,-0.41036496,0.44917813,0.38398084,-0.09628364,0.29596767,0.7147219,0.13667783,0.05659569,-0.8408501,-0.18051338,0.36116272,-0.13624299,-0.23034719,-0.21977253,-0.42235094,-0.3215479,-0.058910634,-0.2747735,0.16655852,0.15195595,0.53442,-0.47771272,0.08722569,-0.4517272,-0.5870362,0.023122735,0.06677771,-0.2835331,0.38315645,-0.18092209,-0.009304332,0.41286415,0.17478344,-0.1075422,0.185906,-0.22545955,0.14290011,-0.09398007,-0.41459996,0.21115594,0.2561706,0.045772932,0.31348222,0.37846053,0.17315276,0.5700693,0.6832001,-0.035540067,0.006601447,-0.4331509,-0.29463184,-0.06011536,0.41975832,0.17181581,0.18236122,-0.36495635,-0.09472071,0.4817385,-0.30246252,0.2292791,0.05099146,0.6018245,-0.448419
0.1375669,0.24887611,0.21001923,-0.5114176,0.05994155,0.079068564,-0.08212191,0.7167236,0.15059902,0.16723913,-0.06351593,-0.111544155,0.32094052,0.34391052,0.22599715,0.15643643,-0.0013453686,-0.16596146,0.2872285,0.16065714,0.17151602,0.17218466,-0.088374145,0.28140292,-0.36042607,-0.95187706,-0.5040992,-0.04879837,0.43209922,0.14028898,-0.20759277,0.59050095,-0.17718293,-0.5782075,-0.5120642,0.051255822,-0.41113138,0.3944834,-0.15533255,0.35016027,-0.6329423,-1.1680189,0.5298149,-0.36646247,0.7420906,0.9242803,0.22958328,0.40087944,0.1713041,-0.23990466,0.25428668,0.32875493,0.3673049,-0.09056297,0.25290093,0.6710099,-0.22775823,0.42069313,-0.31047094,0.5123483,0.5041292,0.33064735,0.28931716,-1.2779611,-0.26588705,-0.29919305,0.029327666,-0.2210634,-0.81281286,0.032396365,0.16891633,-0.14865786,0.40276882,-0.42508942,0.57958454,-0.5591616,-0.20525683,-1.1507592,0.21363495,0.048082817,-1.0908426,0.3669967,0.024934607,0.083846256,-0.4614219,-0.012620879,0.36186925,0.89290446,0.08271225,-0.33737636,-0.50767225,-0.31131563,-0.068191245,0.09398108,-1.0232688,0.5596751,-0.07584988,-0.87528425,0.1257181,-0.07937078,-0.011286938,0.35328063,-0.5879173,0.05917064,0.030652577,0.28910568,-0.41776177,0.7047424,0.3433418,-0.21865374,-0.76175696,-0.701579,0.3966903,0.3108594,0.13410474,-0.5075722,0.72613853,-0.6972688,-0.9097528,-0.15657938,-0.0017688815,0.60782844,-0.12394736,0.41474542,-0.25953847,0.07976479,-0.23221877,0.12977035,0.19065148,-0.7854079,-0.47992814,0.10012003,-0.20523211,0.20566031,-0.62042683,0.12692213,-0.26089755,-0.26314214,0.5035255,-0.54583657,-0.6342926,0.005928758,0.13013493,-0.3311605,-0.2387487,-0.5674559,0.5889976,-0.27129567,0.6201758,0.28842142,-0.7565981,-1.0949107,0.40054095,-0.37445366,0.15569378,-0.19134586,-0.33541435,0.59990484,-0.058773305,0.4750677,0.28701994,0.41528824,0.22003645,0.08779863,-0.6199872,-0.5250135,0.011762684,0.095331304,0.7766959,0.019902106,0.3465587,0.3250821,0.44147202,0.31634608,0.022310402,0.08903293,0.53668517,-0.025883717,-0.18317823,-0.41184008,-0.13047133,0.3822109,-0.006162009,-0.11831056,0.059016522,-0.08747294,0.6435716,0.2557444,0.5815847,-0.21249157,0.19675107,0.056733612,-0.36294296,0.009123695,0.060771175,-0.15732612,0.93109643,0.6762825,-0.3329853,0.04902921,0.23407023,-0.27968892,-0.26144105,-0.4438147,-0.37850127,-0.3605549,-1.1221097,0.5441292,0.31228957,0.13008803,-0.0998615,-0.23848777,-0.19546434,0.38228524,0.090874314,-0.28206676,0.3789055,-0.06608196,0.4189715,0.5361994,-0.36653462,-0.7421032,0.10857267,-0.6569527,0.8234736,-0.30780777,0.24504754,-0.36069822,0.052785546,0.5105432,1.3709223,0.61912113,0.138892,0.2111084,0.08527999,0.2113006,0.5103677,-0.40108037,-0.0861011,0.26899853,0.3307381,-0.51376325,0.078439265,0.74937046,0.32131186,0.2590297,0.117807396,-1.1655666,0.16168432,-0.2088113,-0.72697574,0.3865252,0.40102187,-0.29394573,0.7696835,0.3772361
0.2790184,-0.8678938,0.9159984,0.10579667,0.4302233,0.4778332,-0.3025192,0.75868964,0.11516778,-0.48939398,-0.3090542,0.36952892,1.1362315,0.6434627,-0.46108186,0.28072795,0.072951145,-0.291259,0.4983414,0.70441145,0.26712537,-0.6384502,-0.41437215,-0.06274432,-0.092655115,-1.098047,-0.21349674,-0.26283914,-0.3765159,0.059116583,-0.5228052,-0.401063,0.2991609,-0.078959696,-0.39972153,0.19870497,-1.0888249,0.38169733,0.039014902,0.30057234,0.04925698,-0.36975303,-0.4011149,0.6923409,0.09519613,0.51116586,0.28610745,0.27746004,0.30509737,0.33037338,0.096573524,-0.5493477,-0.6134168,-0.104039185,0.019500459,-0.03422047,0.48216242,0.5124735,0.14816019,-0.14526589,-0.7019086,-0.7489648,0.25673842,0.39510143,0.12858285,0.13154499,-0.6361848,-0.13135959,0.030965267,1.0091522,0.27388436,0.6984084,-0.07768873,-0.2996622,-0.63258576,0.06684911,0.027801134,0.44145477,0.56994545,0.22192706,0.4023919,-0.8376131,-0.9524601,-0.18460526,0.34204394,-0.25515708,0.062375724,-0.6985629,-0.5564045,-0.43974105,-0.07845243,0.43254432,0.1280924,0.07850424,0.15865396,0.061537724,-0.122947335,-0.053982515,-0.19355464,-0.28583854,0.48991382,-0.046288114,-0.56273574,-0.19529967,0.9529139,0.25968137,0.4902019,-0.31700644,-0.6159051,-0.10157665,0.51710075,-0.68488073,-0.24722235,0.42075977,-0.2490799,0.23439738,-0.27590647,0.615127,-0.12273303,-0.28518748,-0.29622424,-0.1327731,-0.53365827,0.88598204,0.3417055,-0.36105704,-0.0845278,-0.24581721,0.21642694,-0.14029074,-0.16995461,0.23533098,0.38997713,0.33099473,0.5647939,-0.24650699,0.31953704,-0.14861695,0.072579406,-0.06917234,-0.52382886,-0.15656522,-0.52673084,0.60715306,0.8569235,-0.7472443,0.009980957,-0.59578156,-0.27951017,0.8380463,0.1998694,0.12136995,0.76296645,-0.5999315,-0.60734266,0.64783525,-0.2151547,0.33025438,0.7764882,-0.43666142,0.39792594,-0.7473604,-0.47137246,0.54827344,0.907849,0.95191765,0.15386283,0.37541404,-0.46263686,0.44124073,-0.61219114,0.49244446,0.13432229,0.27232665,0.12695934,-0.41571346,0.07003345,0.27699715,0.06364127,0.14524356,0.17104256,0.33286214,-0.43609557,-0.6159371,-0.63614583,0.28971738,-0.5154546,0.72259456,0.020578641,0.02994283,-0.56205267,0.14186905,-0.37957025,-0.26490852,-0.008111661,-0.5343021,-0.3886505,0.027139222,0.21852602,0.061738748,0.09611975,0.8243383,0.6855464,-0.19042672,0.74800617,0.44576263,0.13983189,-0.46758202,0.0610003,0.3518024,-0.2150193,0.77253884,-0.33569047,0.09282465,0.32945147,0.9130746,-0.08750607,0.15390457,0.087858215,0.44445595,-0.5942343,0.53099954,-0.25908208,0.9391236,-0.16420193,0.23655619,0.18933676,-0.26115528,-0.050010987,-0.25878707,0.5385207,0.12051871,-0.44846085,-0.18065435,0.29942584,-0.3735269,-0.16908306,0.68608356,-0.2429657,0.2546298,-0.48637465,0.43890393,-0.0670311,0.0486398,-1.0037999,0.2107168,-0.052586,0.19055332,0.063773006,0.59342647,0.35314828,0.43634757,0.12207116,1.0035096,-0.54132324,-0.21534574
0.6172396,0.3425644,-0.77092046,-0.024941338,-0.16545616,-0.11225461,-0.111232966,0.11446802,-0.6799021,-0.10995723,0.72430605,-0.8045527,0.28769648,-0.07815434,-0.11300771,0.40171835,-0.0567421,0.5200016,0.5432938,0.134245,0.69376105,0.24321075,-0.8653001,-0.05943529,-0.5305203,-0.22587267,0.20869376,0.14189808,-0.06048059,-0.14055397,-0.2876769,0.7121856,-0.43571424,-0.26140574,-0.82225615,0.023756618,0.12569387,0.3220785,0.42701113,-0.546466,-0.47888803,0.48856047,0.00029124774,-0.14837325,0.38711163,-0.36916572,0.069610834,-0.76629066,0.25892958,0.33199388,1.1321716,0.30880532,0.17058218,0.2673908,0.32068503,0.1512464,0.7447965,0.12271457,-0.2102318,0.6246857,-0.08000724,0.39437148,0.07801013,0.96620446,-0.079359055,0.3136469,0.0070950366,0.6038695,-0.03869301,-0.599566,1.093586,-0.008855634,0.35945982,0.25195435,-0.67263216,-0.25707093,0.14757738,-0.43847638,0.54456615,-0.59476393,-0.5861246,-0.25941697,-0.5689767,-0.1141237,-0.39773622,-0.34885103,0.18613565,-0.08503928,0.38790086,-0.15299952,0.37446684,0.3822897,-0.686605,0.70953447,-0.23326111,-0.0011280428,0.13315254,0.18434468,0.07522227,-0.12995763,-0.29126644,0.33231905,-0.07456726,-0.7101313,0.6119847,-0.20958784,0.068923734,0.04066081,0.42282218,-0.27698508,-0.2758574,0.027467482,0.053465948,-0.28527316,0.24513397,0.05060819,0.68166786,0.025743647,-0.24429223,0.17307374,-0.14477456,0.44663107,0.5843282,-0.0911792,0.4647933,-0.25609362,0.9251454,-0.18709873,0.34617296,-0.024813395,0.6815573,-0.25877452,0.37253654,0.4403999,-0.40427762,-0.19104767,-0.38286096,-0.15513635,0.6340915,-0.53547025,0.68541497,0.07764358,0.09502613,-0.17635016,0.013132045,-0.10403953,0.053302046,0.51035935,0.008483887,-1.2058452,-0.3216441,-0.025267117,0.20787363,-0.034145124,-0.09326339,0.30270693,-0.07555578,-0.045039173,-0.44577283,0.29387215,-0.52474564,0.14748432,0.24134524,0.37338987,0.22841603,-0.34614894,-0.94836193,-0.191342,0.61296654,0.93909776,-0.2611836,0.26389933,0.42888835,0.4948319,-0.41884533,0.09419028,0.7471708,0.6928029,-0.021403901,-2.194793,-0.20425251,0.21033186,-0.02252395,0.24730039,-0.25173578,0.7876462,-0.406828,0.3584998,-0.51238996,1.051673,-0.40731436,-0.004503165,0.006848984,-0.27710506,-0.20196982,0.0077079004,0.017724494,-0.4405914,0.056375884,0.56198066,-0.015895914,-0.27776393,-0.036826074,-0.5133132,0.59014493,-0.20760672,-0.37214357,0.34115556,0.048184264,0.2791916,-0.29823828,0.41516283,-0.49396846,0.94346774,-0.58819383,-0.121979594,-0.6109795,-0.5951215,-0.24512403,0.46113515,0.73223853,-1.0758293,-0.6117769,0.4342786,0.40132868,-0.25961336,-0.4884913,-0.96227795,0.38494518,-0.2709284,1.0195718,0.24756287,-0.4614183,0.30656952,-0.59692204,0.7605994,-0.42049098,0.19696791,0.03624898,0.82815605,0.5836008,0.09018245,-0.14694403,0.94682324,0.21977527,-0.36991942,-0.37465698,0.33665904,0.56181127,-0.96159345,-0.048349537,0.4502374,-0.37217695,0.17892407,-0.45081818,0.22055206
0.013370249,-0.27222323,-0.005007289,-0.07645382,0.028312046,1.1759267,0.4268364,-0.24753992,-0.349009,-0.22347349,-0.56107664,0.57570845,-0.287847,1.6585536,-0.19079986,0.13001865,0.6382052,0.7986186,-0.09368039,0.19504833,-0.12737471,-0.8662774,-0.6377212,0.10445323,-0.33644602,-0.07315557,0.04081887,-0.35847944,-0.5169275,-0.26882395,-0.7809869,0.03045777,-0.48363826,0.3242142,-0.4638542,0.19043851,-0.69554985,-0.1751817,-0.49432912,0.024258776,0.2608667,-0.11552614,-0.34729886,0.12510395,-0.36848217,1.1362933,-0.2614594,0.62400866,-0.2616973,0.74371815,-0.2692504,-0.7675704,-0.25358742,0.3265504,-0.2365205,0.10854887,0.57043004,0.3908639,0.73693985,0.561996,-0.78679776,-0.77222955,-0.08224863,0.066815466,-0.1645214,-1.064766,-0.12141944,-0.60252446,-0.017612986,-0.376873,-0.39839318,-0.026667682,-0.4791279,0.33253476,-0.4336338,-0.24866988,-0.89091504,0.5486021,-0.27435058,-0.21213114,0.27712956,-0.06230838,-0.14936243,0.31358016,-0.6848806,-0.85063666,0.018491838,-0.056728482,-0.38150537,-0.2690082,0.09742384,-0.28351718,-0.29082036,-0.15199992,-0.037533183,-0.32595834,-0.8948491,0.16864984,-0.2938155,0.12071129,0.87404346,-1.0299052,-0.27025774,-1.1275506,0.8208214,-0.24641709,0.30854508,-0.1037392,-0.8339049,0.21994266,-0.12712951,-0.030651731,-0.08660511,0.34979296,0.62721485,0.5086217,-0.41151467,-0.52603805,0.3166636,-0.1237654,-0.350742,0.047823634,-0.16367736,0.7562019,-0.01643525,0.06799064,0.78294337,0.88732475,0.29447,-0.32992154,-0.05788348,0.8408813,-0.39508545,-0.32280037,0.8003818,-0.9851695,0.8456285,-0.111076415,0.07585853,-0.05244621,-0.01100096,-0.31264666,-0.5343998,-0.14409803,0.0838671,-0.58281916,0.24614298,-0.5444009,-0.7603106,0.6771417,-0.94574034,0.047901463,0.44402778,0.00030062153,0.11444137,-0.34103474,0.7261632,0.9793867,-0.04620478,0.32826823,0.5372569,-0.13215852,-0.16264531,0.04596989,0.947278,-0.33224335,0.488884,0.18909712,-0.3378424,-0.44888353,-0.076864354,-0.29722774,-0.1121981,0.21297738,0.29553843,0.34322757,0.6411736,0.5854832,0.120538406,0.10951772,0.462037,0.23175345,-0.32898685,-0.5529027,0.09681649,0.2460792,0.3446771,0.35165626,0.2603577,-0.07342019,-0.18010284,-0.48612297,-0.5601349,0.03516571,0.029246569,-0.01658788,0.853316,-0.55016506,-0.78360915,-0.75186557,0.7980374,0.54350626,-0.5313677,0.57104665,1.5863036,0.02255414,-0.2697296,-0.5112996,0.03375184,0.18274017,0.6036932,0.40048957,-0.16128302,0.114223845,-0.23936668,0.07870992,0.16417108,-0.75176233,0.05423315,-0.08184201,-0.75753444,-0.023374218,-0.445128,0.6718475,-0.30006284,0.29821253,0.17422846,0.037756603,0.10416826,-0.06597156,0.023911154,0.028033692,-1.1603082,0.03216313,0.5887831,-0.7069314,0.3932246,-0.1148619,0.25056845,-0.4001378,-0.30295354,0.13048585,0.3137427,-0.3159532,-1.0540669,0.5863026,0.5096404,-0.01378357,0.8655861,0.3684439,0.09839027,-0.12262923,0.42204762,0.7328181,-0.027944086,-0.058200832
0.11196596,0.47875223,0.11099075,-0.205932,0.4349387,0.47931844,-0.5940389,0.44418433,-0.31057405,-0.9756806,0.29268974,0.17341718,0.20395444,-0.51161206,-0.59517777,-0.1855283,0.2140423,-0.07391393,0.0049074367,-0.24897446,0.0045408164,-0.20871574,-0.94564885,-0.012473976,-0.9596046,0.1980667,0.2226321,-0.5525504,-0.1330603,-0.7750658,-0.55457765,-0.14738925,-0.49823284,-0.14851557,-0.26014626,-0.5755182,0.27405423,0.22491518,0.4550293,-0.014197675,-0.3205603,0.35640416,-0.6868574,0.11026963,0.09461848,0.2921537,0.20502362,0.31140184,-0.44954064,0.59160966,0.5063978,-1.0356079,-0.21543849,-1.001989,-0.17159669,0.26682138,0.47383842,0.041909784,-0.02526352,-0.15465382,-0.15926622,0.28815815,-0.63978004,1.0374748,0.022822501,0.07439813,-0.24352968,-0.87316716,-0.36306924,1.1852999,0.04635357,0.82916796,0.21480212,0.102215335,0.44764873,0.41220194,0.15520945,-0.41584948,0.505602,0.31784925,-0.1533675,-0.5960789,0.05323874,0.0018530618,0.41047198,0.326398,-0.4974297,0.20093386,0.31776702,0.397684,0.49569252,0.21363169,0.12286549,-0.50876343,-0.8179019,0.18903327,0.49720687,0.12737387,0.4013452,0.2119871,-0.07528145,0.19440648,-0.9358973,-0.15321155,0.10454358,-0.09801989,-0.3070733,0.81672317,0.98468316,-0.16762915,-0.6133817,-0.9141226,-0.30007723,0.9151779,-0.42449775,-0.02961597,0.5958347,0.7043128,-0.4458161,-0.81556994,-0.8469758,-0.68815875,-0.121880144,0.5401626,0.4844731,-0.13172331,0.5708379,-0.19328989,0.12154869,0.64321226,0.058277592,-0.004646986,0.11687377,-0.1519986,-0.35527226,-0.41431305,-0.20952658,-0.32060814,0.0038661908,-0.06747584,1.0862668,-0.11078849,-0.93454194,0.57199556,1.3802462,-0.99832314,-0.4400592,-0.05358221,-0.62226385,-0.30770496,-0.15407862,-0.0031753527,-0.012516646,-0.987647,-1.0592141,0.9577027,-0.61401135,-0.38448668,-0.30146915,-0.033571534,0.020760994,0.095662594,-0.1449775,0.3684022,0.29136682,0.5515456,0.3864526,0.10508703,0.47695562,0.6120335,-0.2838477,0.2953309,-0.19513363,-0.121481836,-0.48688725,-0.5747193,0.54915583,-0.032496236,-0.24340276,-0.69988525,-0.12613715,-0.3673712,-0.74676824,-0.74578243,-0.5762509,0.63516265,-0.18594867,-0.31898418,-0.07595646,-0.25036728,0.13218397,-0.50795984,-0.08694182,0.11810216,0.6770172,-0.15092932,0.49915466,0.38114262,-0.19334908,0.29359406,0.10951033,-0.084595904,1.0389904,-0.19756922,0.03559416,0.21690054,0.86705446,0.22557783,-1.1529876,-0.3813175,-0.6164023,0.389765,-0.8200152,-0.5208924,0.35671824,0.126454,-0.7798089,1.1491948,-0.52448267,-0.16563223,-0.1972943,-0.25977302,-0.2862346,0.6889965,0.3918944,1.1746057,-0.52038264,-0.6397381,0.38136184,0.05354871,-0.1296818,-0.16211465,-0.07179417,0.35924205,0.5477898,0.56876683,-0.0821846,0.25584963,-0.028842727,0.5096815,-0.52142817,0.46683294,0.09503626,0.7018005,-0.07647121,-0.052098945,0.5422825,-0.5686641,-0.09490777,-0.44612616,0.645821,0.40305832,0.2613866,0.5800017,-0.46963373,0.28137976
-0.3116016,0.20101705,0.52263874,0.12771845,0.30022073,-0.22239688,0.21907897,0.61650705,-0.08015927,0.16418977,0.10189697,-0.3392657,-0.3200008,0.15116462,0.54379827,0.52755153,-0.76848304,-0.76424515,0.3335331,-0.22786668,0.16083767,-0.18357433,1.030629,0.23572582,-0.07843981,-0.2905633,0.3305858,-0.16986038,-0.016685957,-0.3731157,-0.088697955,-0.14035773,-0.22087483,-0.45583066,-0.43501484,0.5085447,0.26603168,0.45585594,-0.025477182,0.14379592,-0.43754342,0.1091666,-0.07589367,-0.33262965,-0.3904066,-0.5427661,-0.41442212,0.30473208,0.12849963,-0.55200374,-0.4585468,0.83672506,0.35563254,-0.060225908,-0.5198732,-0.23717473,-0.06960395,-0.3656873,-0.037562635,-0.6117307,-0.42405507,0.35353482,0.33896407,0.16301441,0.3894387,0.5717414,0.28024545,-0.84404165,-0.29129028,-0.65084094,-0.49915794,-0.7308459,1.1150426,0.12933047,0.3194923,-0.25672156,-1.0614792,0.11603856,0.45016783,-0.6256693,0.5007353,-0.91925776,0.48598698,-0.17514911,-0.5615437,-0.3345056,-0.19022073,-0.121864766,-0.057673465,-0.26329476,-0.11016831,-0.041568413,-0.06203269,-0.2207825,-0.03502861,-0.636658,-0.124044195,-0.10666549,0.055737577,-0.06954888,-0.2320342,-0.08488232,0.06375838,-0.25859916,-0.8637988,0.6940658,-0.125803,0.46533734,0.8848355,-0.35340875,-0.26836833,0.33811098,-0.10577498,-0.16307592,0.5336523,0.48562747,0.5765938,-0.047157757,-0.9699432,-0.5611772,-0.5136808,-0.6172774,-0.04626603,1.0536516,-0.03946515,-0.32542688,0.22835329,-0.14177854,-0.5388659,-0.5067701,0.55123717,-0.08657099,0.47972852,-0.09788827,-0.5890245,0.2076085,-0.24023712,0.37659213,-0.2524639,-0.29513317,-0.2648392,-0.20165884,-0.35814628,0.13810456,-0.58516073,0.015605255,0.5436417,-0.6725877,-0.9224327,0.12377651,0.33037144,0.9762448,-0.6748694,-0.10561458,0.014591533,0.46742514,0.3878416,-0.40104213,0.09917407,0.18933806,-0.2942771,-0.035638228,0.70056987,0.810987,-1.0873122,-0.22286987,0.4418009,0.44886455,0.2877326,0.6007899,0.7217685,-0.5333331,0.17028865,-0.62704176,0.44679302,0.052363023,0.8618814,-0.18835045,-0.067076296,-0.71130854,1.0621921,-0.34815115,-0.33383614,0.37200195,0.005393247,-0.049261834,-0.025684744,-0.3342065,-0.32260168,-0.22038563,0.09221223,-0.8981175,0.53043324,0.4283555,0.74917704,0.0014836267,-0.6054409,-0.1607311,1.0631778,0.6290016,0.012717855,-0.30460775,-0.4769902,-1.2844245,0.4337887,0.26585516,-0.1013964,0.36540037,-0.60731304,-0.48881543,-0.48133883,-0.42683896,0.25941545,0.38239586,0.49104643,-0.31093,0.6255586,0.8840219,0.29246446,0.07896729,-0.1297708,-0.22831999,0.09086228,0.38761976,0.45550457,0.041891713,-0.12605526,-0.070894524,0.50283986,0.87391984,0.25358018,-0.15830757,-0.045443624,-0.03078827,-0.5305183,1.146651,0.110767074,-0.79202855,-0.4947477,0.38280937,0.32807314,-0.18327558,0.00025752268,0.18689892,-0.13842812,0.71376586,0.7184,-0.17849189,-0.020508602,-0.22739017,-0.119553134,0.17320907,0.02392978,-0.805147,-0.15664522,0.8903172
0.6834214,0.58624953,0.09337215,-0.06882973,0.1431714,0.02248718,0.1245339,-0.43574876,0.22833844,-0.6292448,0.54544544,0.4559899,-0.4542105,-0.09751897,0.601667,-0.26832616,-0.5647831,0.22946519,-0.72563404,0.16391869,0.10996511,-0.4387704,-0.022766616,-0.32263544,-0.8088286,0.42845157,0.3144589,-0.4624878,-0.27215928,-0.8198635,0.17721753,-0.27875555,-0.16007724,0.34390363,0.4292988,0.19922985,-0.66872925,-0.007042425,-0.16777825,-0.19989213,-0.44859606,-0.059405103,0.8396151,0.284175,0.48273465,0.83565825,0.21363482,0.26269916,0.7202281,0.23950733,-0.8936775,0.48106086,0.7667344,0.031247098,-0.4455376,0.68511814,0.10218559,-0.11466298,-0.5420789,-0.05307105,0.47159,0.5035799,-0.12740348,0.485301,0.25317287,0.66991884,0.80595875,-1.4364676,0.39785907,-0.6739341,-0.09233276,-0.44206834,-0.41745174,-0.24077381,-0.14424632,-0.014969493,-0.04240516,-0.15622751,-0.040485736,-0.67063856,-1.0015178,0.30700758,-0.17452297,0.3213065,-0.20608509,0.9738355,0.69561386,-0.59265786,-0.27103347,0.82406443,-0.05124057,0.30745807,-0.21399876,-0.55575854,0.55778563,-0.74531454,0.20187111,-0.26526132,-0.4684963,-0.08602006,0.2889998,-0.20008664,-0.24142145,-0.24481128,-0.0013813088,0.34880456,1.2683209,0.13383566,-0.2898096,0.016051173,0.1760367,-0.18252599,-0.0046631335,0.83701843,0.05818107,-0.09368514,0.19050607,-0.59292716,0.74614835,-0.9922191,-0.5146916,-0.4966434,-0.00018167279,0.52203315,-0.7888002,-0.02221182,-0.5565171,-0.2726853,-0.19981964,-0.35594034,0.19531338,-0.17324975,-1.1537398,-0.44781926,0.27318114,-0.74917465,-0.09788225,-0.568375,0.040305715,-0.06405401,0.6357577,0.1808912,-0.11611654,0.57419,0.41464856,0.1970596,0.2870134,0.19067878,0.36944386,-0.98956305,-0.34613913,-0.11763175,0.657393,-0.3122201,0.15990321,0.5933443,-0.40480012,-0.170147,0.15194453,-0.17918837,-0.3205753,-0.2296687,-0.5590491,0.52750546,-0.16445184,-0.16249411,0.14969777,0.7784647,-0.4277016,-0.05018626,0.1969294,-1.0572138,-0.011872293,0.20875709,0.36165798,0.04345366,0.18103734,-0.30140898,-0.61842996,0.119263425,0.5957271,-0.08749513,-0.1256081,-0.33439758,-0.059784297,-0.18423164,0.38928762,0.007390084,-0.7814859,-0.15385252,-0.3712953,0.32306924,-0.2363208,-0.46566334,0.94094825,-0.4283566,0.24362798,0.039232936,0.8602062,-0.062595055,-0.4874357,-0.11547216,0.04076756,-0.41834062,-0.1745443,0.8279332,-0.024989512,-0.05453932,-0.54827356,0.047097914,0.5245778,0.0075814077,0.42329654,0.29186225,0.23509097,0.54810643,0.031051774,0.1698362,-0.03207452,-0.0004428022,0.32415003,0.44888288,-0.2581881,-0.5145737,0.12651326,0.51181483,-0.0937077,-0.6719093,0.47366595,-0.07633449,0.5163641,-0.86494005,0.18881257,-0.0037872063,-0.12612283,0.16180865,0.42042103,0.48080406,-0.31847796,-0.26970512,-0.29819888,0.23563428,0.28519565,0.48384136,-0.56512207,-0.054941025,0.8418206,-0.6270643,-0.6838068,-0.46576652,-0.20339255,0.011544788,-0.10913295,-0.16418356,-0.42279366,-0.1407333
0.07387219,0.009872015,0.13230306,0.22501403,0.4064341,0.9533805,0.043545093,0.68243176,-0.2886394,-0.5293366,0.20758311,0.27711886,-0.4861315,0.31611863,0.9745747,0.90181166,0.2954826,-0.016066406,-1.0715926,0.09712158,-0.065190464,0.24468186,0.8144831,0.8563632,0.070736945,0.12337904,0.2752868,-0.058775306,0.5019417,-0.6575096,-0.06142647,-0.8663775,-0.13636799,-0.16888735,-0.17611185,0.4393255,-0.017907033,-0.18421222,-0.044421554,-0.921762,-0.08560927,0.3383514,0.81952375,-0.36508423,-0.37478924,-0.58601296,-1.1406983,-0.28698492,0.5970332,0.8400555,0.91956663,0.66379166,-0.052516293,-0.21514125,0.23983574,-0.06573169,-0.56665736,-0.29983726,0.09015412,0.3665279,-0.38685724,0.8864008,-0.2931183,0.12544775,0.9979406,-0.020688754,-0.008307094,-0.51883304,-0.15238947,-0.14185578,0.280951,-0.061962098,0.0077012163,0.2536736,0.64599335,0.23709998,0.41919017,0.37056208,0.215806,-0.29897076,0.054075807,-0.67051303,-0.5563179,0.78394264,-0.6557614,0.30374733,0.35674685,-0.2520084,-0.12226091,0.46368635,0.6122513,0.49187186,-0.7648568,-0.5468986,-0.21362734,-0.69954467,0.45789975,-0.07210031,0.07342269,0.14258055,-0.3633828,0.08486551,0.44618306,-0.98693275,-0.1692167,-0.20074265,0.61192167,0.36981103,-0.9130186,-0.043646134,0.17575818,0.45605248,-0.47141075,0.32903257,0.29904282,-0.27133527,0.115499236,-0.07585473,-0.47010142,-0.60515267,-0.1574326,-0.66078544,0.51531744,0.41985038,0.57637376,-0.21431687,0.24566567,0.16371413,0.22015917,0.06447229,0.16599864,0.77027637,-0.019342834,-0.102269284,0.0013944652,0.022803927,0.52207416,-0.4784248,0.36952192,-0.6772363,-0.3716506,0.04965657,0.23851857,0.25594297,0.34751922,-0.61228657,-0.040605962,-0.6301242,-0.20594092,0.8085585,0.97876006,0.15224533,0.4136834,-0.21899016,-0.46976936,0.6153426,-0.21754916,-0.6317763,0.6073144,0.073282145,-0.056606196,-0.14487776,0.78456366,0.4737965,-0.21433032,-0.23963155,0.33881426,0.28264436,-0.31047073,-0.12154315,-0.79784757,-0.28761286,-0.010439338,0.041993875,0.46312436,-0.89070165,0.015634345,1.1578864,0.0263006,-0.11300334,0.5292733,-0.13833867,-0.5720182,-0.3847604,-0.43378213,0.7452604,0.21496567,0.46512082,0.68034655,0.40058374,-0.93428403,-0.13492723,-1.624432,-0.66981673,0.28837144,-0.26567927,-0.22066568,0.024330337,0.09896269,0.32146963,0.41231686,-0.033727914,0.35584807,0.42026716,0.6822281,0.053856455,-0.20078254,0.20194773,-1.2775997,-0.40274584,-0.11889662,0.30992347,0.04006943,0.11451636,-0.74404347,-0.44553295,1.1831532,-0.020634761,-0.42982718,0.00835871,0.50193584,-0.59695464,0.23757777,0.7176508,0.2518782,0.004950389,0.2341278,-0.36430103,-0.5365333,-0.4689094,0.6282574,0.4968264,-0.67078596,0.21378732,-0.06513892,0.03936931,-0.5691618,-0.99188286,-0.17595926,-0.9774168,-0.16991429,0.49137625,-0.18589975,-0.2021866,-0.6725376,-0.40534994,0.04987072,0.0937708,-0.08507372,-0.40146545,-0.34632748,0.20594883,0.23121576,1.2822629,-0.07546473,0.35727775
-0.21242379,0.02975264,-0.06044568,0.23998511,0.89299643,0.5511171,-0.334201,-0.10084002,-0.86367923,-0.3792737,0.2556156,-0.20798326,-0.6214525,-0.29724193,0.56504625,0.31282952,0.35267073,0.84982467,-0.450389,1.1732924,0.5047899,0.52604276,-0.08438699,0.203099,0.39365768,-0.54320955,-0.7374498,-0.051601794,0.33827996,-0.7165191,-0.29765797,-0.12079205,-0.1978834,-0.6295737,-0.4449349,0.8463396,0.03514275,0.29745206,-0.14088662,0.06833,-0.035094187,0.08890603,-0.011151792,-0.00013068249,0.45232612,-0.19811101,0.12457578,0.6774448,-0.13885252,0.06550617,-0.4674148,0.06787625,0.352246,-0.18604733,0.012833368,-0.37906292,-0.7220316,-0.6999155,0.52587295,-0.23848014,-0.09590578,0.027409088,-1.3457984,-0.39654672,0.10724328,-0.10508727,0.05531344,-0.41657686,-0.12676205,-0.19065526,-0.41006827,-0.7171221,0.39929876,-0.42802155,-0.512912,-0.36902332,1.0803193,-0.20773815,-0.4978068,-0.5000567,0.53215224,-0.36430457,-0.9397145,-0.19519237,0.20193619,0.27024576,0.012680405,0.2074673,0.048815772,0.43342882,0.260703,-0.033259537,0.43797854,-0.33115765,-0.37951759,0.30628097,0.8120689,-0.111270666,-0.585737,-0.59530413,-0.2633008,1.0250684,0.41043237,0.34935728,0.7909243,0.17333122,-0.083885156,-0.24980754,-0.4655801,-0.6187597,0.04736957,-0.37830865,0.2236924,1.0082705,0.7317097,-0.5361068,0.76483166,0.15153311,0.38743883,-0.50174344,-0.00923781,0.2583685,-0.63199466,0.005745079,0.3424561,-0.31153244,0.1542241,0.44794938,-0.9363667,-0.73962545,0.504734,-0.19825938,-0.03166313,0.034266423,0.049640454,-0.00055317715,-0.3280498,-0.4143697,-0.47142404,-0.44680095,0.54189664,-1.111481,0.011458112,0.1376278,0.6383946,0.08715192,0.052402966,0.09341064,0.084422864,0.31867474,0.57671535,0.37652668,0.31056347,-0.30939594,0.016990444,0.16638991,-0.66296864,0.31897527,0.28745306,-0.1926624,0.25615218,-0.20639373,0.9924151,0.0018845942,-0.22443192,-0.43213362,0.056346033,0.30852777,0.26484573,-0.7890892,-0.052009188,0.3811953,-0.34690756,0.25318655,-0.19357817,0.25889587,-0.8902008,1.088484,0.12872604,0.17124349,-0.054962978,0.5948324,0.14735538,-0.25356817,-0.015655616,-0.042093664,0.8741814,0.38367054,-0.6486417,-0.42986175,0.032067254,0.6178295,-0.63023055,0.30380684,0.46833837,-0.7344472,-0.32360458,0.17313044,-0.23860474,-0.515424,0.36525908,0.2721361,0.6509779,0.07688366,-0.1137727,0.81088066,0.40494,0.79659253,-0.12864523,-0.18395704,0.33814326,0.016689826,0.6085924,-0.517095,-0.48460308,-0.31606537,0.93296283,0.039142057,-0.44050157,0.41368172,-0.06535903,0.5493224,-0.034170303,-0.16474329,-0.16319416,-0.47675243,-0.11677516,-0.022465412,0.6185139,0.74254084,0.1859929,0.2688085,-0.2678846,0.115561485,0.5677564,-0.110289335,-0.9934227,-1.1767378,-0.30893883,-0.043130893,-0.437167,-0.017866094,0.27016854,-0.21437143,-0.34765932,-0.47904116,0.3342666,-0.2051467,0.5919297,0.032669004,0.36571714,0.4963053,0.7477502,-0.29492038,0.772365,0.9071612
0.2309876,0.78603977,0.31146345,0.7739019,0.07742541,0.12331553,-0.050765403,0.38475996,0.2099043,0.028338915,0.47627068,-0.054662738,0.22269881,-0.10456014,0.42037892,-0.6281532,-0.61049277,0.49611592,0.10510161,-0.038269144,-0.103353746,0.20616843,0.24238421,0.9256468,-0.09782832,-0.45717445,0.5844767,0.4798897,0.17736839,0.0036433064,-0.1207922,0.5318265,-0.080147885,-0.21911903,-0.62189496,-0.30130026,0.22381929,-0.38185185,-0.18794438,-0.13434942,0.24282087,-0.57135886,-0.94981605,-0.3577358,0.10324365,-0.34865505,-0.6074297,-0.6134306,0.24194562,-0.33141652,-0.5589836,0.8557102,0.76070017,0.16839541,-0.3406548,0.14805746,-0.35449046,0.25288278,-0.30760178,1.034657,-0.3581685,0.014167997,0.50514346,0.13161178,0.9391794,-0.7964154,-0.015837317,0.66445047,0.07174418,-0.10415689,-0.34414673,-0.031375997,-0.17545006,0.3842881,0.48560736,-0.7032222,0.23354492,-0.45117748,-0.027120788,-0.23303036,-1.0661993,-0.4378685,0.13191639,0.053038225,-0.714688,-0.0476758,-0.079454765,0.8307176,-0.19632836,-0.26198372,0.37053698,-0.530218,-0.24921021,0.7500611,-0.70777094,0.17352572,0.34945938,-0.49562803,-0.13237588,0.29213306,-0.13196856,-0.037771203,-0.6051143,-0.7211979,0.22094084,0.21963741,-0.012170878,0.24356216,0.08098923,0.23231141,-0.33601713,-0.9526387,-0.061533794,-0.5727347,-0.17465523,0.17429404,0.09094592,-0.9817889,-0.6739496,-0.014316605,0.03505444,-0.3055947,-0.03125063,-0.018765451,0.30846003,0.7159233,0.5905656,0.332697,-0.8090676,-0.5979482,-0.57139295,0.24664758,0.17805715,0.8309145,-0.44820124,-0.13243404,0.058240227,0.30127522,0.0111149475,0.20277402,0.4929947,-0.7421628,-0.50359863,0.25901031,0.18485211,0.15993373,0.3526056,0.04982435,-0.070281714,0.17326704,-0.09159554,-0.77855206,-1.082538,-0.485218,0.30031693,0.25986445,-0.005089666,-0.008912548,-0.2464411,0.45006692,0.12677251,0.12712629,0.39447275,-0.16689752,-0.23324148,-0.16134626,0.82616,0.30715013,0.11268418,-0.22518025,0.12874883,0.37176618,-0.7597364,-0.36725247,0.09881844,-0.4712199,0.5893415,-0.040259194,-0.5866263,-0.20463806,0.016998589,0.17594618,0.6544894,0.04237937,-0.022754712,0.10115078,0.25590503,0.6093445,0.09602372,0.06568099,-0.20379771,-0.29538518,-0.13501635,-0.017909307,-0.075417556,0.7573385,-0.36845046,0.56480956,0.20501235,-0.23270005,-0.10494452,-0.38191488,-0.16679102,-0.29210877,0.1452012,-0.37152934,0.60277003,0.5559051,-0.3241191,0.2738118,-0.35275203,0.59114647,-0.040527597,-0.19276975,0.15273955,-0.17738073,0.12508658,-0.070925824,-0.122500814,0.35755888,0.09405477,-0.22315411,0.3098248,0.6761912,0.19200161,-0.29006255,-0.6400064,-0.49645382,0.90089077,0.42352745,0.5279092,-0.094335325,-0.16579635,0.29643953,0.47436327,0.63322085,0.21549878,-0.96591294,-0.30316877,0.36541873,0.25326058,-0.24330464,-0.07708749,-0.6529067,-0.29903078,-0.33606055,0.45418826,-0.44771734,0.6875233,-0.6804619,-0.8985964,0.38396823,0.30184194,-0.028723577,0.33908945,0.62322223
0.26361838,0.116363786,-0.5029997,0.050573334,-0.114786945,-0.0691406,0.5676633,0.18793415,-0.96227866,0.33077738,0.19456564,0.094690055,-0.083592884,-0.33658662,0.4953503,0.59997344,0.4424521,-0.12245542,0.16469537,0.17661397,-0.01436721,0.042658523,-0.31184855,0.09448296,-0.029196499,-0.23706137,-0.12875468,0.06436546,0.075059526,0.11285623,-1.2044766,0.55347145,-0.9762607,-0.4012051,-0.466579,-0.28923437,-0.3411725,-0.20598996,-0.03924098,0.19986124,0.3758551,-0.24961846,0.01957566,0.020370213,-0.2774997,-1.2874444,-1.042926,0.05819025,0.6495549,0.14479233,0.27937454,-0.15973754,-0.33897194,-0.10090255,0.39978185,0.5475367,-0.85983294,-0.30274567,-0.0948331,0.2756578,0.48187268,0.28048962,-0.96976817,0.14216636,-0.46977767,-0.1291335,-0.2282562,-0.308266,-1.2123897,0.1824931,0.09737756,0.15265037,0.7477133,-0.08886484,0.15944849,-0.369398,0.862689,-0.40459597,0.44726455,-0.5735649,-0.14361706,0.045853544,-0.47538725,-0.70119697,-0.88047606,-0.034282207,0.4037344,0.20436674,0.6162847,-0.0635404,0.6086648,-0.41659915,0.039627,-0.5162094,-1.0279279,0.20181194,0.03751712,-0.65387034,-0.43458378,-0.47388762,0.1342049,-0.567546,-0.6262863,0.71462107,-0.072546616,0.21237664,0.4846259,0.45538065,0.09569467,-0.2692021,0.22943154,-0.42997307,0.3334114,0.3742699,0.20968421,-0.17047358,0.43155155,-0.046795122,-0.11510439,0.07632119,-0.59598494,-0.2414539,-0.42160255,-0.4032881,0.40461153,0.3003596,-0.08764244,-0.66545737,-0.7934324,0.061055653,0.0895976,0.7921411,0.4530008,1.094077,0.38211122,0.2962117,0.2119878,-0.38729116,1.0139123,-0.22593214,0.8394957,-0.7445162,0.03590247,0.49486375,0.27410626,0.41325685,0.48998392,0.03143302,0.8875705,-0.22113271,0.12214718,-1.232587,-0.3703399,-0.43890545,-0.19689699,0.050301824,0.7476458,-0.70523345,-0.016145965,-0.66023356,0.13098204,-0.42718446,0.8108074,-0.1096007,-0.386869,0.79379374,-1.1480805,0.00049800717,0.46127078,-0.1904715,0.09978223,-0.19575946,-0.27590692,0.3844923,0.6646461,0.68073803,-1.0056773,-0.62537897,-0.5618359,-0.35633436,-0.034024484,0.18291566,-0.32114625,-0.58083814,-0.2225638,-0.49440882,0.47681856,0.73800296,-0.021477051,0.9671122,-0.2452983,-0.4260745,-0.8965104,0.35157043,-0.077898555,-0.0048136385,-0.18096264,0.059507664,-0.20084311,0.38937378,0.4928408,0.3129598,-0.00081564375,0.5756987,-0.2859859,0.13729982,0.0016347105,0.07262821,-0.33592975,0.1435961,-0.65201944,-0.47359213,-0.4342556,0.49014652,-0.47439042,-0.51854396,0.5850456,0.8988718,0.2230961,0.64752984,0.44750863,0.7961384,-0.767394,0.3334023,0.43025997,0.32639173,-0.2297304,0.22692643,0.70597494,0.26458663,-0.07149733,-0.3762837,-0.077837445,0.14170872,1.0502088,0.07966383,-0.050542157,-0.264877,0.6625341,-0.11141147,-0.20761438,0.61066985,-0.055289943,-0.45471674,0.23516732,-0.09694005,0.11406139,0.12355825,-0.59167755,-0.36518133,-0.6430715,-0.7691529,0.16958204,-0.066042006,-0.052883178,0.55645376
0.39268106,0.10546823,-0.38684332,-0.23191199,0.0059436522,0.014288241,-0.28546998,0.048108526,-0.7507936,0.1236894,0.10088682,0.0031361629,0.13734263,-0.06564626,0.33102491,0.83677477,0.8285606,-0.3166172,0.006312057,0.38521963,-0.34065613,-0.13849261,-0.13258146,0.5070347,-0.7460159,-0.0045153727,-0.18299371,-0.19444343,-0.4225139,-0.12693496,-0.61706394,-0.35678768,-0.28945705,-0.3126711,0.17491977,-0.028671663,-0.2698921,0.8035403,-0.6523627,0.17399067,-0.3071274,0.78681165,0.46631446,-0.018648652,-0.18170835,0.46586913,0.4744566,0.14302312,0.60246617,0.3494479,-0.560326,0.047157973,0.05611454,-0.261879,0.6359693,0.49255657,0.2789166,0.52027625,0.4257336,-0.380637,-0.23769034,0.19048117,0.2404373,-0.13117406,-0.48423958,-0.2899846,-0.055725332,0.6402523,0.0555073,-0.25728223,0.10812478,0.561002,0.95808727,0.07419632,-0.020220326,-0.7090219,-0.1572532,0.09679609,-0.21209979,0.033442255,0.07487237,-0.034528345,-0.354801,-0.45846826,-0.2799995,-0.56123835,-0.24866092,0.027109047,-0.37926295,0.49914336,0.25552857,-0.23054706,0.25854844,-0.7813152,-0.32377225,-0.0021747374,0.09441433,0.39154506,0.5472208,0.091025725,-0.21266428,0.2590594,0.56656617,0.49357933,0.082159236,-0.86264414,0.46107054,0.19746533,0.0061740563,-0.3937819,0.18227582,-1.0294569,-0.00090306264,-0.17604114,0.17140448,0.34679505,-0.01351061,0.3107604,0.16130143,-0.5548284,-0.29919147,-0.5197532,-0.5706071,0.533881,0.13336541,0.05213816,0.38830507,0.20422569,0.23713478,0.71032,0.019663895,-0.52833444,0.011620327,-0.5774053,-0.24557538,0.5424692,0.8719683,-0.7903539,0.3617907,0.17623758,0.05432426,0.34476006,-0.37310907,-0.026986491,-0.45906013,-0.65202236,0.07732569,-0.42966896,-0.96509314,-0.30558163,-0.43649068,0.31350437,-0.39437336,-0.29601753,-0.10214154,0.13171755,0.42446288,-0.0030920226,0.745843,0.8986729,-0.4483247,-0.3642515,0.25990254,0.122821756,-0.38030583,0.51303625,-0.3614412,0.10547699,0.16702795,0.24349907,-0.23653698,0.19185106,-0.67544097,0.6984186,0.28469548,-0.20351757,0.38171148,-0.5389099,-0.15349604,0.18557246,-0.4056236,-0.43749017,0.29789063,-0.6827499,-0.3714462,-0.16731893,0.23591577,0.6172276,-0.64169,-0.2917437,0.4769285,0.30776024,-0.3487964,0.1353907,0.53206193,0.16466367,0.55795574,0.66536266,0.2535515,-0.22161883,-0.039417516,0.04790995,0.60229677,-0.12966196,-0.026943495,0.3843613,-0.121963255,0.3063578,-0.6320641,0.17554823,0.28302318,-0.27621672,-1.0520241,0.6444036,-0.6874548,-0.24943109,0.059037827,0.47100455,-0.11517534,-0.44674888,-0.1312681,0.024417317,0.69486153,0.06344355,0.45816988,-0.0037180276,-0.06790816,0.4350928,-0.26032773,-0.97517776,-0.2463117,-0.39093164,0.31714064,0.36721238,-0.25751606,0.7986268,0.21761021,0.7012961,0.52345747,-0.21799378,-0.40886042,-0.13047324,-0.37947777,0.8679499,0.0023449177,0.77088255,-0.27138668,-0.087334275,-0.55759925,-0.3533631,1.1246165,0.32287702,0.37936527,-0.4824883,0.0799082,-0.18590723
-0.34419608,-0.043009274,0.1716354,0.16853301,0.36346418,-0.004177236,-0.19262224,0.34239852,-0.42615137,-0.92561567,0.357233,-0.3442371,0.80959487,0.1231073,0.5793783,0.2637829,0.75222564,-0.07552024,-0.16283706,-0.100065954,0.027060097,-0.395583,-0.047877822,0.12040908,-0.21209759,0.12183883,0.16216461,-0.47187233,-0.27886865,-0.5759286,-0.23566394,0.42139372,0.050637484,-0.65575296,-0.2996907,0.11768452,0.09927761,0.2953658,-0.6132769,0.6257095,0.33249354,0.2984932,-0.79639095,0.5405025,0.005201845,0.057993744,-0.17336296,0.3119886,-0.264382,0.14207223,0.027533082,-0.27909142,0.04566725,-0.47246778,0.009796632,0.06480846,0.49567166,0.10508781,0.45730025,-0.0961572,0.36531112,-0.23875941,0.01934408,-0.77803415,0.35031307,0.66286963,-0.34349164,0.3649633,0.2730728,-0.029366272,-0.13989618,-0.65380585,-0.015092687,-0.18765463,-0.25439727,-0.273073,-0.14416823,0.318977,0.095327295,-0.43286505,0.056291938,-0.21904446,0.3697359,-0.19261613,0.13934769,-0.6803931,0.19483122,-0.10246182,-0.38711426,0.3851606,-0.5384536,0.10598674,0.32145274,-1.1905533,0.14661512,0.44457206,0.13119781,0.7154407,-0.2753983,-0.43088976,0.4102398,0.4497552,0.40439007,-0.045481566,0.3290156,0.1280129,-0.80648863,0.40081194,-0.19375527,0.12988262,-0.48229012,-0.74756896,-0.33218008,0.09512385,-0.011339275,0.60929734,-0.16709259,-0.5243462,0.15117258,-0.5928372,0.4126269,-0.03152073,-0.12914707,0.24848977,-0.14693639,-0.9408281,0.88546634,-0.38152677,0.025219882,-0.47711858,-0.40341187,-0.048223782,-0.1691355,-1.1353393,0.45711383,-0.2998689,0.011924179,-0.14700419,-0.4903942,-0.55862087,0.5856162,-0.49341726,-0.16634503,0.70700365,0.49683505,-0.7578307,-0.36271632,-0.36774522,-0.32189444,0.52726424,0.2120753,0.66850764,0.03422428,-0.58982104,-0.26625237,0.103203215,0.26406682,-0.068489134,0.42961794,-0.60563695,0.117736496,-0.26938292,0.13150601,-0.22461489,0.12138758,0.41668233,-0.60736513,0.5453679,0.020890938,-0.21001375,-0.018364368,-0.47227454,-0.09801086,0.006108128,-0.34928054,-0.28844312,0.0880758,-0.32558677,-0.15069468,-0.111364655,0.14012727,0.60618824,0.4824866,-1.2016829,-0.104236454,-0.3936607,0.4417534,-0.13016608,-0.10425267,-0.5476902,-0.5629258,-0.43455276,0.08237598,0.30063036,0.040964365,-0.6646149,0.07857191,0.6340167,-0.81370056,-0.10078967,0.40267438,-0.16105698,-0.38505977,0.09517468,0.5296885,0.26166296,0.26083484,-0.06723428,0.2386478,0.15425609,0.7698829,0.018321533,0.096621685,-0.17651826,-0.05000093,0.41211614,-0.53695303,0.1464064,0.09444341,0.47293943,0.45619118,0.56929123,-0.13769318,-0.4870197,-0.15199791,0.13303405,-0.13135178,0.12669547,-0.15466046,-0.09070278,1.0927967,-0.12924936,-0.45450422,-0.83770597,-0.16737974,0.15341398,-0.34214628,0.028766857,0.2644098,-0.42232624,0.46220443,0.19186096,-0.47815472,0.10410975,-0.5179369,-0.20674789,-0.16464828,-0.29120964,-0.124304816,0.56170374,-0.40048486,0.44615337,-0.9497894,0.84740055,-0.56407875,0.27093002
0.35568845,-0.07531434,0.49765337,0.22416736,0.7105713,0.06083846,-0.3858504,-0.5346156,0.37192625,-0.8255601,0.44832116,0.50482833,0.4890716,-0.13673663,0.10162389,0.59539646,0.027375333,-0.30004835,0.26227394,0.5669738,0.6157474,-0.30586615,-0.46645054,0.14212778,-0.30710366,0.12374604,0.045647576,-0.108133905,0.48738903,-1.1295756,-0.71956855,-0.8250565,0.49761385,0.27556288,0.08874187,-0.05767896,0.31696168,0.19401413,0.87582177,0.6462332,-0.09515722,-0.40431637,-0.38184518,0.1983844,-0.26897427,-0.5223021,-0.0347006,0.6617971,-0.71018547,-0.15150486,0.51596093,0.36065036,0.15640071,-0.7478815,0.086406015,0.46077073,-0.1779366,-0.10572114,0.113917656,0.42428523,0.0048205587,-0.025816835,-0.6763801,0.25315434,0.39502797,1.0195708,0.04271382,0.8575975,0.12850495,-0.5255847,0.35982752,-0.8455354,0.09807594,-0.41599667,-0.24577314,0.098638125,0.3559922,-0.1897708,0.23862,-0.31098297,0.47965953,-1.1869539,0.4360738,0.27899948,0.21751076,0.23087193,-0.026792394,-0.15866782,0.24710199,-0.53382283,0.112904444,-0.12311177,0.06431638,-0.70848525,0.43508586,-0.73144853,-0.124866106,0.94936645,0.16687916,-0.08214911,1.2125431,0.19478689,0.27974853,-0.2043211,0.120802194,0.0057286685,-0.18292658,1.0134139,0.031813275,0.09863054,0.50769913,-0.5356656,-0.22225927,0.424541,0.2434262,-0.37374058,0.06603703,-0.46181062,0.11626535,0.0639507,-0.7522605,0.036003854,-0.24293415,-0.5476224,0.50517166,0.36705843,-0.5311531,-0.11253918,0.25073257,-0.032901928,-0.77086043,-0.2372038,0.09318817,-1.0909888,-0.08213796,-0.3221039,0.24457745,-0.04350824,-0.38559794,-0.15716682,0.75133014,0.17320938,-0.7658846,0.05057154,0.054370485,0.106721394,0.5152804,-0.2299289,-0.38630795,0.67251086,-0.8249614,-0.030214014,0.22848248,-0.15549687,0.06082618,0.055451844,-0.024610098,1.3713354,-0.6802807,0.16665748,-0.6072099,0.050270826,0.52033323,0.34069216,0.01995257,0.58146286,-0.14855604,0.4958789,0.39722365,0.0852248,0.049109746,0.16810043,-0.49817517,1.0043418,-0.009676358,-0.07712804,0.36039698,-0.0059507303,0.51807356,-0.12999186,0.0409897,-0.060993183,-0.7432709,-0.93683344,-0.6207586,1.2638283,0.21960463,-0.34366906,0.096909724,-0.16833399,-0.3442792,0.56206334,0.22531354,-0.46368143,1.0393372,-0.2134397,0.5516265,-0.15632838,0.12968573,1.0389833,0.38916138,0.06853277,0.058618754,0.30241397,-0.15968648,0.2032044,0.18303834,-0.1879164,-0.5183604,0.5956284,-0.77655727,-0.6681627,0.32419878,0.18000883,-0.12978075,-0.075286984,-0.04044094,1.0737349,0.071750686,-0.093884155,-0.049315594,1.1833446,-0.1438213,0.03639555,0.23236513,-0.43971273,-0.4043553,-0.37386692,-0.547398,-0.25901774,-0.16167055,0.67258507,0.48462856,0.003444728,0.03770881,0.88832664,0.93596727,0.3368738,-0.14616884,0.1618528,-1.0415467,-0.24293263,-0.17604172,-0.04353801,-0.09898299,0.25565296,0.9600915,0.19360925,-0.61433715,-0.1316145,0.20454296,0.08026163,0.6770906,-0.110556945,-0.6309388,-0.086142525
-0.007823865,0.14054279,0.11484087,0.5079434,0.09708723,-1.0110358,0.21842222,-0.008124262,0.3802072,0.31006846,0.6444944,-0.3770979,-0.44261137,-0.47099128,0.5984663,-0.47471452,-0.42438558,0.43554348,0.92716515,0.40409258,-0.31077403,-0.34834415,0.59323764,-0.21961366,-0.17374733,-0.01735362,0.44184345,-0.06775169,0.5219503,-0.48638192,-0.19228095,0.3265483,-0.121641256,-0.023077216,-0.67604935,-0.16241834,0.120070264,-0.23854865,-0.21956664,0.32746893,-0.11668988,0.19407293,0.06812327,-0.6680511,0.14915793,-0.14088692,0.2597617,0.6794619,-0.2243366,0.19530174,-0.45721304,-0.1293815,0.69362956,0.80130535,0.14205432,0.124226466,-0.43769094,-0.39003134,0.12745334,0.71329886,-0.17675616,0.11031022,0.017638246,-0.36873153,0.5853284,0.13902792,-0.337709,0.017059823,0.5975387,0.15546437,-0.26403773,-0.06871774,0.1981677,-0.026639361,0.23215781,-0.013013167,-0.17616875,0.41046825,-0.105133526,-0.56975424,-0.44597885,0.34692773,0.19365762,0.03429577,-0.5315949,1.0576878,0.4492276,0.36936623,0.67264307,-0.23328906,0.5368329,-1.4073737,0.25142562,-0.11900924,-0.17841657,0.28236538,0.22795741,-0.24897276,0.20499782,-0.5438747,0.21919073,0.32242465,0.81136274,-0.5877233,0.2909325,-0.40719137,0.7853685,-0.045457505,0.35078537,-0.52543616,0.7118645,0.5203779,0.23201755,1.0074347,0.72502613,-0.16764493,0.6025445,0.34112197,0.01340379,0.4413029,-0.40913892,-0.6831139,-0.5149364,0.19561966,0.7832458,0.12292863,0.084471546,0.087806866,0.11751882,-0.5502271,-0.536138,0.14972045,0.37896812,-0.1629235,-0.22527298,0.019175226,0.10857488,0.27063388,0.7791152,-0.13123237,-0.055336185,0.0950671,-0.06511845,-0.1594694,-0.49881282,0.87035614,0.91585803,0.4979511,0.1799384,0.31655383,-0.28960055,-0.6307587,-0.2580722,0.3156966,0.3647427,0.7067898,0.37225387,-0.16725643,-0.48597628,0.3105639,0.29381102,0.05503093,-0.2679123,0.26014125,-0.23396774,-0.45209002,0.029133843,-0.058612205,-0.05971131,-0.19584483,0.37871248,-0.29735667,-1.0079813,-0.20357312,-0.25480172,-0.47395697,0.26847813,0.5184357,-0.117196485,-0.701946,-0.052550502,-0.5361917,0.41609526,0.61931956,-0.3669893,0.52267975,-0.18802205,0.66276485,0.6444168,-0.06197602,0.8580653,-0.4066446,-1.106766,0.4018733,-0.32526404,-0.97032255,0.24538678,-0.6275806,-0.5737492,0.17902052,0.056088224,0.6438657,-0.14101808,-0.041952882,-0.14430285,-0.30639955,-0.31431022,0.13781711,-0.05685039,-0.26077455,-0.037442084,0.13127476,0.009024975,-0.18651132,0.22207484,-0.31065878,0.26416263,-0.4573519,0.339113,-0.35209864,-0.03256871,0.33793476,0.03424192,0.15604517,0.42388338,0.7689331,0.40545508,0.0037167713,0.1726109,0.16484863,-0.1581497,0.036444675,-0.30664337,0.09155409,-0.11819325,0.45857102,1.0997885,-0.09662136,0.81706536,0.15323572,0.21503629,-0.3513124,-0.80249304,0.712285,0.8026294,0.52892995,-0.19200768,0.031327516,0.1791468,-0.41369298,0.18604955,-0.21365938,0.6769214,0.20783992,-0.50850046,0.726893
0.14965317,0.97412515,0.83154976,0.79159737,0.35080153,0.5208121,-0.66808987,-0.5198046,-0.28573394,-0.123384014,-0.1197973,-0.64356303,-0.05136363,0.23818785,-0.13574326,0.45332745,-0.30014426,0.27909693,0.020415476,-0.04532648,-1.7443905,0.6640859,-0.1279617,0.50013137,-0.28291014,-0.35941857,0.23216285,-0.16080926,-0.43490604,0.21136466,0.03956955,-0.84579414,-0.16792248,0.016738152,0.29808035,-0.118259095,-0.055262502,0.36394343,-0.095203914,-0.91609174,0.6352942,-0.3522498,0.083968796,-0.5098566,-1.0513165,0.016590744,0.15108512,-0.3614949,-0.28237405,0.1517164,-0.16974208,0.11006087,-1.1206234,0.08495314,-0.159028,0.4490806,0.19715302,-0.27454966,-0.1371105,0.16439404,-0.44773814,-0.9568762,0.5272063,0.41014177,0.2545124,-0.02095403,0.493867,-0.43619365,-0.14125665,0.3177346,-0.1153992,0.13071473,-0.39951333,0.13986981,-0.11373685,-0.14114654,-0.3621139,-0.63466096,0.36228397,-0.13206525,0.1354206,-0.0002579518,0.16073883,-0.41813067,0.43891943,0.06228518,-0.008044248,-0.85595036,-0.9628568,-0.58742607,-0.37823287,1.0282583,-0.6782763,-0.43453494,-0.36021352,-0.14434677,-0.32053375,-0.028328612,0.061168954,0.19836873,-0.06384576,-0.17259578,-0.47677913,-0.43745244,-0.40060398,0.342295,0.044871055,0.2576031,-0.514632,-0.5508072,-0.5031928,0.57080245,-0.19211335,-0.49933672,-0.38956177,-0.017615387,-0.1227935,0.48449787,-0.01930019,0.48738027,-0.046944927,-0.072823726,0.5566947,-1.1762534,-0.42772022,-0.4255943,0.65884966,0.040571593,0.24667223,-0.3321478,0.5392566,-0.21898438,-0.27416426,-0.84692276,-0.09669609,0.5563602,-0.027535269,-0.3493612,-0.076210484,-0.21152155,0.014920616,-0.18509376,0.30663314,-0.28885838,-0.27404398,0.34203115,0.2346724,-0.7082816,-0.40244612,-0.13980962,0.09073936,0.65252423,0.05244455,0.43948144,-0.9191766,0.28289744,-0.6110701,-0.40918228,0.22703381,-0.4690821,0.32313216,0.75154793,0.03706874,0.49355897,-0.1857911,-0.4145959,0.009163865,0.4257618,-0.14474887,0.4674846,-0.04160744,0.0041713105,-0.24308322,-0.6527707,-0.08665233,0.20041402,-0.7513425,-0.25293067,-0.19299623,0.40746573,0.5170775,0.2587484,-0.76779705,0.4607523,-0.14487182,0.2971173,-0.19663884,-0.07389366,0.57799184,-0.43827915,0.14664249,0.46960366,-0.074697286,-0.52005637,0.20437226,-0.2420878,-0.035809103,0.59199256,0.054034304,-0.37685212,-0.24913962,0.09981804,-0.20295952,-1.1533785,-0.43694112,-0.19781128,-0.3606622,-0.4084449,-0.032817215,-0.7892074,-0.3728019,-0.21718583,-0.28648943,-1.0495185,0.6122275,-0.0063450956,-0.0624218,0.19640517,0.3384682,-0.1173807,0.26421234,-0.45472643,-0.32802787,0.20821813,-0.015617745,0.27580568,-0.23797277,-0.4157585,-0.25886017,0.18320282,-0.11717027,-0.93212414,0.56632805,0.23726094,-0.21609364,0.3552136,0.16373102,-0.3464806,-0.307517,0.60827184,-0.21713,-0.49000382,-0.3069212,0.5437068,0.63334674,-0.17324924,0.10948966,0.24024056,1.2052832,0.12966684,0.13048285,-0.024705693,-0.07444646,0.56869894,0.8689636,-0.16024357
-0.30741248,0.1813697,-0.306274,-0.23116213,0.5295296,-0.9910784,-0.2935989,0.529975,-0.06633906,-0.22665006,0.16109133,-0.5431354,0.0034613211,-0.3052976,-0.3488375,0.3872295,0.6561793,0.76196456,-0.14017877,0.056517858,0.40959358,-0.8108389,-0.30158022,-0.41859612,0.24666022,0.59478456,-0.019881962,-0.18245792,-0.030371888,-0.57747877,-0.83506167,-0.24593486,0.08405184,0.22485813,-0.55101305,-0.090361506,-0.35828632,1.4779437,0.12375982,0.42434442,-0.3353872,0.27476662,-0.2563778,0.15087679,0.3537656,-0.115206584,0.02125957,-0.40521166,-1.0109493,-0.26889968,0.6886207,0.46981972,-0.8373934,0.41091406,0.5510322,-0.2833511,-0.05286262,0.22852921,-0.3294411,1.1964549,-0.86224085,-0.17351755,-0.12670211,0.65387285,-0.16154781,0.4240774,-0.5983368,-0.20314649,-0.043015573,0.07580646,-0.004937752,0.035295274,0.48148644,-0.55643106,-0.06912657,-0.16384323,-0.15541221,0.57643217,-0.089836046,0.4102049,-0.04045477,-0.8614205,0.49895388,0.36233523,-0.8368455,-0.02220971,-0.3522652,0.10532352,0.09825946,-0.08218952,0.17485131,0.64519596,0.8309166,0.023369683,0.070991434,0.20488887,0.23096442,0.25623646,0.24707778,0.25839147,0.5647959,-1.2723606,0.7442913,-0.70018756,-0.6834313,-0.8140014,-0.089402966,-0.32207745,0.37280226,-0.012301245,0.073674984,0.012300121,-0.28557152,-0.24568433,0.16944283,0.048570797,0.015569982,-0.0864586,-0.7637453,-0.46011904,-0.5491252,0.14091602,-0.5383527,0.5526078,0.54081506,-0.03415765,0.20790099,0.022157028,0.9158023,-0.006459436,-0.08616539,0.27765036,-0.62803584,0.30870992,-0.18941858,-0.5272065,0.23294911,-0.89081305,-0.31058443,0.16050662,-0.05284207,0.12674858,-1.0230094,-0.6204611,0.23852988,-0.18744837,-0.13294537,-0.41442627,-0.68912536,0.8144452,-0.15747876,-0.7525277,0.1259663,-0.26910394,-0.85166544,0.12598172,0.33289644,0.85305953,-0.042096466,-0.49772808,-0.776937,0.18316735,0.2497836,0.3367924,0.5397062,1.2090621,0.100497365,0.45831624,0.13929053,0.7731892,-0.20544006,-0.6205412,-0.08481884,-0.54546833,0.6370005,-0.13965863,0.119709104,0.06692887,-0.3046665,0.4831087,-0.22333828,-0.40711427,0.08875512,-0.368425,-0.13056713,-0.64505327,-0.1324737,0.16950655,0.3962446,0.6892589,0.014984695,0.025711985,0.39581612,0.6145895,0.6540335,-0.17083916,0.62192214,0.25573745,1.0198085,-0.20888169,0.10859826,0.40823323,-0.18310738,-0.9317933,0.12459386,0.77104026,0.16478486,0.21716431,-0.27203718,-0.40617648,-0.7294209,-0.16865192,-0.43687734,0.02669695,0.3247017,0.25147933,0.37072697,-0.22681253,-0.5721915,0.11567741,-0.255947,-0.7934653,-0.4526883,0.05757666,0.41892466,-0.52555233,-0.41711962,-0.48964557,1.0452124,0.019362032,0.10238653,-0.18530016,-0.01759673,-0.21049388,-0.6219391,0.37766948,0.3826448,-0.5824961,-0.24300976,0.3082785,-0.022707408,0.9572961,0.17923689,-0.09157092,-0.34812737,0.7671534,0.119917706,-0.0507053,0.19467105,-0.6826511,-0.3176395,0.117632486,0.27606398,0.4027753,-0.38606495,-0.58162636
-0.7493302,0.16347519,0.10591943,-0.48656565,0.0058089634,-0.18661495,0.2986199,-0.44326147,0.32908872,0.22425787,0.6593495,-0.15212491,0.60600376,-0.7056068,0.41547808,-0.0045165624,-0.38428366,0.23305269,0.11013938,-0.21328452,-1.1104225,0.60024285,0.093927324,-0.2741178,0.4927705,-0.066388845,0.51390934,-0.0010548648,0.42362925,-0.4478351,0.50999177,-0.3660529,0.25520742,0.54713625,-0.12001333,0.27617654,0.26382616,0.24292786,0.33261517,0.08454698,0.48654854,-0.30101943,0.21249329,0.21580736,-0.7428359,0.36013645,0.23983914,-0.86456835,0.118069306,0.20266661,-0.23306078,0.49099043,-0.32667524,0.2210928,0.68585354,0.019590978,-0.40739006,-0.46457145,-0.28118527,0.7970055,1.0692569,-0.44684938,0.5848844,0.55140704,-0.28149033,0.28528777,0.051090304,0.432266,0.38015983,-0.08741574,0.038398243,0.6798155,0.2748177,-0.88852215,-0.91002816,-0.27742004,-0.6320235,0.21996456,-0.3247264,0.002418966,-0.26302,-0.08009405,0.09047197,-0.4668271,-0.2039724,0.61114657,-0.8307175,-1.1126786,0.9948935,0.7400973,0.35607502,1.143662,-0.24264112,-0.13647099,0.52709943,0.62283313,0.4708332,0.17881733,-0.4882862,0.26530954,-0.39382437,-0.47445744,0.6325421,-0.59747577,-0.61502886,-0.3994053,-0.845717,-0.4287734,0.58496815,-0.17291336,0.22754493,0.62586296,0.3179179,0.3571268,0.13712953,-0.3585945,0.2141453,0.38037372,-0.6004839,-0.8619311,-0.0145228915,-0.17069893,-0.27859867,0.32034954,0.21225388,-0.09373006,-0.33235934,-0.42865315,-0.07996845,0.2782013,0.55468416,-0.4091722,0.02096804,0.5086216,-0.55231434,0.43244123,-0.0028842797,-0.0762314,-0.45135105,-0.048263323,-0.2278545,-0.25203517,0.19292313,-0.18694548,-0.6655117,-0.85282344,0.8453012,-0.32225975,-0.30148208,-0.040446457,0.60645264,0.059832893,0.39694217,0.08404657,-0.6265377,-0.30329317,0.16136365,-1.0103433,0.9054322,-0.08762153,-0.4517232,-0.9409717,0.75693554,-0.016048113,-0.037047464,-0.5600625,-0.28588286,-0.09647387,0.44982684,-0.21854097,-0.96095246,0.089469895,-0.16916187,0.6016923,-0.28667203,-0.105783276,0.10545001,-0.106421895,-0.038041797,0.26581818,0.16595474,-0.44524303,-0.40630683,0.19477753,0.5442694,-0.57564133,0.17850618,-0.5819182,0.21144293,-0.5089104,-0.37843305,0.119261056,-0.35817748,0.6219581,-0.21217383,-0.4010809,-0.58039844,0.9760288,-0.2958478,-0.22302774,-0.06755843,0.9306584,-0.15621926,-0.25411034,-0.12627532,0.3868615,0.11802992,0.38898918,-0.17723754,-0.31709778,-0.29419738,0.14672181,-0.22404127,0.27456212,0.7494179,-0.63518006,0.6763162,-0.4795872,-0.042729765,0.20603278,0.58716357,-0.6211709,-0.28061956,-0.38813233,0.27455947,0.0116646085,-0.57568115,-0.51284736,0.49047565,-0.212884,1.1045303,-0.015505169,-0.39048648,0.38848355,-0.8698054,0.8266843,0.5852441,-0.43653172,-0.13591011,-0.4633339,-0.3167679,0.38649583,-0.3860077,0.4968199,-0.18996659,-0.13420784,0.3149538,0.3311373,-0.06943188,0.22399305,0.059084274,0.7001077,0.052354474,0.50574106,-0.26884976,0.69109535
0.19524829,0.6839479,-0.47897318,0.14428884,0.6158431,0.086138636,0.06286052,-0.37852326,-0.7790175,-0.23142093,0.04210171,-1.207835,1.0742131,-0.31532556,0.34413183,-0.45315334,0.42857802,0.29614562,0.34283248,-0.22733046,0.538775,-0.5200316,0.6058196,0.074960075,-0.23210564,-0.21301065,0.040953416,-0.8785387,0.42852202,-0.68598586,0.18981211,-0.37346613,0.18919784,0.3533433,0.03261084,-0.16590926,0.3272686,0.1481547,0.46239132,-0.26079246,-0.18403164,0.80844975,0.23457463,-0.3374121,0.45905095,0.3824091,0.3791855,-0.3300139,0.375705,0.13768339,-0.8923385,-0.4954387,-0.66251105,0.6565504,0.2579528,-0.72048295,-0.5917553,0.6907622,0.56508934,-0.31585348,0.27283674,-0.020875838,-0.41735607,-0.26525941,0.18294474,0.322127,0.27054244,-0.17043981,0.8790435,-0.07781008,-0.054635886,0.25625134,-0.47726324,0.3271396,-0.28973824,0.19562104,0.4835395,0.2464506,0.3788819,-0.29174513,0.12595932,-0.35864335,0.27981,-0.42974117,0.9767136,0.44153485,0.7757332,0.7649508,-0.19635299,0.19471455,0.4109058,0.14705957,0.15317309,-0.5749422,-0.12509026,0.3380477,-0.04497841,0.015732443,-0.12257596,0.3800145,0.061181296,-0.2489122,-0.19781585,-1.3940946,0.06311161,0.055980142,-0.20585735,-0.033897787,0.736633,0.29461694,-0.35947657,-0.5304091,-0.29026487,0.12380068,-1.1295998,0.26655525,-0.4860719,0.01053148,0.5759811,0.4159641,0.33397928,0.08703829,-0.43595254,0.7117633,-0.21432826,0.20110491,0.7999745,-0.402414,-0.009038687,0.5944981,-0.0794203,-0.37422606,-0.2630816,0.27152878,-0.29559705,-0.18748765,0.035456665,1.3182347,0.46955845,-0.008969452,0.1891144,0.20656453,-0.8641067,0.26751456,0.54667777,0.3291005,-0.21161297,-0.20008095,0.054854065,-0.16127262,0.31935108,0.27394643,0.9985541,-0.0917304,-0.6228922,-0.6526135,0.24620004,0.1539375,0.4070207,-0.15938507,-0.44432747,0.013706229,0.5151188,0.43249583,0.2907485,0.49743,0.34766793,0.5305088,-0.1566245,-0.19175935,-0.03322365,0.4637294,0.22525361,-0.89416885,0.3095118,0.5619175,0.37818977,0.23206216,0.05139234,-0.09486179,0.07112737,0.2172377,0.16657464,0.1972274,-0.34040755,0.4811793,0.017926639,0.33545256,0.895128,0.5893005,-0.1857741,-0.07386099,0.250538,0.5141492,-0.06121269,-0.43236315,-0.032690387,0.54501677,0.789363,-0.41662237,0.3384091,0.3032748,0.8480279,0.24391866,-0.31300747,1.5635561,0.3649861,0.27726635,0.32404068,0.16054675,0.01712629,0.15389466,-0.31075874,-0.34119105,0.3639253,-0.114535704,-0.12573047,0.46361876,-0.48142657,-0.2428018,-0.16180669,-0.5649368,0.22563821,0.56179976,0.5893086,0.43305355,-0.41921672,0.17586657,0.44911224,0.29242662,0.114691,0.47247097,-0.12804486,-0.32596326,-0.34887058,0.07396594,-0.4943016,-0.29254937,0.77453005,-0.7236523,-0.5762627,0.0715843,0.135627,-0.48171574,0.12597895,0.39362556,0.5655773,-0.15757418,-0.56972915,-0.4801962,0.20399676,-0.4523028,-0.25554416,0.87100285,-0.1949009,-0.4259566
0.47830164,-0.7952818,0.10393755,0.5470077,0.3796501,-0.37310135,0.85629994,0.7571402,0.40351048,-0.5145638,0.7522881,0.3840938,-0.24123044,0.5284274,0.11793709,-0.59188354,0.5367314,-0.37703192,-0.18894222,0.93086004,0.21501409,0.11645095,0.4123239,-0.16633965,0.40877166,-0.064698644,-0.26362386,-0.069076866,-0.18642706,-0.44758663,-0.8364127,0.25222236,0.2633903,-0.2997702,-0.14196764,0.4720111,-0.17252843,-0.4092113,0.048225854,-0.523929,0.24245356,0.5525165,0.41642895,0.016460015,-0.20537756,0.23199667,0.8558529,0.39706725,0.16687386,-0.3097239,-1.2637769,0.4719733,-0.020975582,-0.48342398,0.3627097,-0.42810544,-0.12254806,-0.079856895,0.6303715,0.5712616,0.38553762,0.20273177,-0.023211284,-0.34113124,0.42780834,0.045300018,-0.06974922,-0.44364148,0.6290371,-0.20210022,0.65283436,-0.13270344,-0.4458686,0.5793004,0.16666614,-0.32292217,0.028996691,0.16793814,0.11851924,-0.43626136,-0.4306482,-0.13311037,-0.23165397,-0.063131236,0.12912418,0.14450641,-0.5572947,0.21812785,0.24502903,-0.35264763,-0.5186974,0.044039503,-0.119657576,0.33185077,0.41033491,-0.50978065,-0.08100772,-0.06032186,0.7842327,-0.30225673,-0.556238,0.42503452,-0.03343391,-0.9998482,0.32169148,0.022306278,0.08012972,-0.33576205,-0.31677473,-0.10292008,-0.262606,-0.39603162,-0.24648464,0.22617617,-0.10897381,-0.19282825,-0.43431544,0.11128097,0.2899911,-0.13158506,-0.062397968,0.056968763,-0.88180107,-0.24518004,-0.36713555,-0.54810596,-0.5484898,-0.45913723,-0.8689432,0.5334415,0.07536338,-0.72586006,-0.20871013,-0.09957952,-0.28873736,-0.5835553,-0.1872668,-0.19415285,0.07733974,-0.20619021,-0.098297946,-0.20713726,0.17577448,-0.36583906,1.2345438,0.030919136,-0.006348598,-0.3033645,0.008935079,-0.1575514,0.51410484,0.62635124,-0.8283924,-0.667805,-0.09925034,-0.007901208,0.0609471,-0.3294973,0.8461683,-0.1971094,-0.18507051,-0.6983933,0.72459704,0.019173967,-0.5333782,-0.545443,0.22450316,0.31607154,-0.009570778,0.24193701,-0.6105782,0.28614128,-0.29478484,0.51693267,0.006469076,0.40949437,-0.38883206,0.40104875,0.2839266,0.015013158,0.5811164,-0.56403536,-0.20517795,1.1597738,-0.29243115,0.40249217,-0.18016358,-0.023189208,0.22586508,-0.23594669,0.7434437,0.21129659,-1.3203416,-0.12717156,0.49572098,0.09249858,0.26677543,-0.1901856,-0.21604627,-0.2640261,-0.39607126,0.17576173,0.029997844,-0.052898563,-0.21211775,0.30280676,0.20748946,0.110723,-0.25305143,0.06627405,-0.68154985,-0.23222534,0.3570498,-0.063492894,0.4865061,0.23847398,-0.64928645,-0.23818593,-0.32804427,-0.5519764,-1.3118994,0.2841802,0.8528438,0.22292842,0.31731912,0.23104262,-0.44079596,0.1436613,0.95739233,0.44130117,0.29990453,0.09856826,0.232184,0.32874188,0.14000048,0.25773516,-0.3866517,-0.11813654,-0.24910441,0.9453408,-0.20348607,-1.0180604,-0.6346994,-0.2531356,0.3594544,-0.26421794,0.014226812,0.13629179,0.56006837,-0.028191749,-0.018090632,0.002648584,0.0043145115,0.13188662,0.22465661,0.3415724
0.19062582,-0.8501549,0.6297695,-0.61828864,0.46975148,0.7950975,-0.24650264,0.33414513,0.40401947,-0.024013452,0.018928047,0.34222403,0.02134729,-0.17477591,-0.026055805,0.14215739,-0.23502187,0.59832454,0.15680774,0.18763034,0.039844327,0.18692112,-0.18200128,0.16342275,0.49647415,-0.4865326,-0.029439673,-0.9684841,0.2518963,-0.0913907,0.23889808,-0.48848206,0.81912047,0.64515007,0.33501545,0.07219521,-0.17600647,0.36846423,-0.14851773,0.20475063,-0.1289859,-0.13445291,0.5563431,0.12767424,-0.09642591,-0.026570287,-0.12265286,0.5336579,-0.26501688,-0.09623994,-0.23829342,-0.034276374,0.5394651,0.059744343,0.14278926,0.1903893,-0.3425792,-0.5928391,0.08264151,-0.027469907,0.6915759,-0.47022942,0.17826879,-0.551358,-0.17393528,0.28367808,-0.43211198,-0.69867015,0.42987427,-1.0882533,0.07910399,-0.44016787,0.2190994,-0.9662395,-0.19819742,0.017529586,-0.8342338,-0.03688904,0.05616625,0.07118729,-0.6639461,-0.5092282,0.25797984,-0.19304748,0.11360613,-0.2533078,-0.6860896,0.5671997,1.1606125,-0.9175322,-1.1931617,-0.34387732,-0.37398258,0.046704136,0.25890282,-0.7832033,0.004513563,0.28833172,-0.013120311,-0.38445076,-0.28055716,0.18934923,0.24797326,0.26765263,0.011752097,-0.49683902,-0.14768293,-0.1603901,-0.796426,-0.24655847,-0.3381737,0.15874366,-0.057302557,-0.13259555,0.1783159,0.09312493,0.039513968,-0.36043414,-0.707192,-0.097459726,0.49343544,0.3151686,0.04826034,0.3339014,-0.26059616,-0.7582394,-0.6927016,-0.19075744,0.6205739,-0.12251597,-0.06555536,0.105544336,-0.28800458,-0.9513851,-0.5143804,-0.19246268,0.016384546,-0.0073709465,0.3989818,0.017139582,-0.11392881,-0.37076986,-0.52643484,-0.5918163,-0.090932675,-0.19499354,0.9088,0.15529564,0.61252415,0.8822775,-0.22223394,0.5739641,-0.76301503,-1.1520411,-0.056846365,-0.3180025,0.14034906,0.44072202,0.008400058,0.5525917,0.6372818,0.38643584,0.2371998,-0.47913554,-1.219283,0.4678387,-0.0292779,0.38563836,0.23271288,0.4446919,0.67058396,0.52449244,0.021029815,-0.5273634,-0.24867076,0.0032145102,0.0710442,0.049002986,0.034548562,-0.7020449,-0.37655273,0.18506432,-0.13773541,-0.26487392,-0.48411387,-0.71162283,0.26320598,0.0711025,-0.7152151,-0.6149005,0.20957316,0.093035616,0.0046554166,-0.0792826,0.26840428,0.060967542,0.43515617,0.21043298,-0.07332519,0.05809309,-0.16824894,-0.23444068,0.114367634,-0.43052733,0.009953768,-0.40478393,0.6097062,-0.41727868,0.37072143,0.1397807,0.079640605,-0.36938432,0.64670193,-0.49636868,-0.048913542,-0.5792312,-0.41120464,-0.17833957,0.09630951,-0.22805043,0.086382754,-0.18513305,0.35283175,-0.36210102,0.24413301,-0.08589614,-0.57124496,-0.11605004,0.31520203,0.7383073,-0.14685,0.3484639,-0.37242597,0.8561221,0.27718624,0.8734017,-0.30049765,-0.24833791,-0.08020724,-0.21991558,0.11528447,-0.44920987,0.086475946,-0.3856418,0.25163868,-0.024497489,0.4378239,-0.49400026,0.18394382,-0.094994046,-0.59376204,0.11769101,-0.38448763,-0.47065878,0.6378071,0.005918677
0.09720575,0.682072,0.047715988,0.61991173,0.24216224,-0.081568904,-0.3243908,0.31681496,-0.6876443,-0.051377133,0.09960185,-0.1756212,-0.94325686,-0.32111952,-0.53743106,-0.37072262,0.2714065,0.4162537,-0.03536505,0.53027666,-0.4431973,-0.06543698,-0.21003471,-0.4912105,0.45536715,-0.32663742,-0.061838344,-0.66225606,-0.33647606,-0.24556983,-0.114607215,-1.5121496,-0.30945963,0.32960123,-0.2969659,0.19559664,-0.31049085,0.8281997,0.14273183,-0.6270152,-0.34871966,-0.14686887,0.22742578,-0.20733474,-0.27712554,0.265504,-0.2715433,-0.12130027,-0.3839761,0.007358592,-0.12115772,-0.35639295,-0.73873866,-1.1677089,0.9206336,0.43473205,-0.8175198,-0.115393005,-0.13372496,0.29808122,-0.46607322,0.32178307,-0.5467413,0.36367276,0.25243834,0.23945022,-0.028413571,-0.65583944,-0.093761094,-0.18142563,-0.0026730814,0.38780937,0.32624966,-0.20940846,0.20403159,-0.3243226,0.33777294,-0.2061929,0.7375284,-0.9091838,0.35024637,-0.54635566,-0.15258184,0.27658293,0.24795812,0.19990847,0.20026232,0.03078868,-0.06050494,-0.25104913,0.123480156,0.32969987,-0.22883625,0.16050074,0.046443716,0.44627374,0.8208544,0.8644429,0.09389466,-0.213269,0.21538079,-0.3708137,-0.6179834,0.16311076,-0.1587616,-0.28412572,0.028010372,0.10341681,-0.13656865,-0.4949901,-1.0109671,0.44472465,-0.272756,-0.01733938,0.16288489,0.12093923,-0.2646735,-0.031416938,-0.65948784,-0.4482415,0.08655192,-0.9138679,-0.7381158,-0.17410308,-0.26379114,-0.4127127,0.9811662,-0.43738157,-0.5194138,0.19939929,-1.2883191,-0.95724344,-0.28093627,-0.14039166,0.68169516,0.3761134,0.8174742,-0.01094278,1.0512459,-0.24463613,0.5187579,-0.30608115,0.33373895,0.075688444,-0.45611298,-0.0705894,0.5233415,-0.6057343,0.104099646,-0.39966863,-0.04080694,-0.8546937,-0.0053561707,-0.45490146,-0.1370862,0.39134228,-0.21139875,0.17689022,0.6550059,-0.35262448,0.015245575,-0.15903796,0.6636481,0.9053932,0.7195829,-0.17386848,-0.097350985,0.90056425,0.54421204,0.3094936,0.8053628,-0.09523261,-0.49933368,0.5880823,0.7298312,-0.7103527,-0.0054430715,0.65923584,0.4691031,-0.16316691,0.25020748,-0.58078045,-0.70576143,0.40324205,-0.0045337696,0.32369697,-0.008587059,-0.11551295,0.36385265,0.7888567,-0.3588775,0.17299008,-0.7561684,0.09824109,0.3733328,0.24978037,0.543886,0.24021162,0.78371185,0.2803825,0.5382351,0.44209927,0.7973717,-0.5058747,0.21229212,-0.2647664,0.5074821,-0.43023705,-0.5142479,0.26370737,-0.0049870745,0.11490578,-0.38388997,0.14133132,-0.24144337,-1.1018544,0.25369668,0.31206366,-0.63905483,-0.13856289,-0.35605863,0.028462993,-0.6573759,0.54543227,-0.019867092,-0.64912325,0.01615855,-1.1055512,-0.45072114,0.09385388,0.17019129,0.3697433,-0.49821335,0.8218568,-0.3524347,0.42149836,0.051120054,-1.6371526,0.07322871,0.51435494,-0.53360105,-0.07951039,-1.265704,-0.2762635,-0.65463805,0.03286694,0.25455073,-0.51066166,0.095249414,-0.19793278,0.03834916,1.0722351,-0.87143487,0.17467885,-0.14968917,0.46669632
-0.07006222,0.40879667,0.0012630387,0.5022072,0.124647774,0.35948122,-0.21000926,-0.062756516,-0.4858833,-0.4830072,0.086175896,-0.16730562,0.49397516,0.43461382,0.4491081,-0.04922657,0.24551417,0.50056636,0.5864715,0.5125139,-0.18281028,-0.17759362,1.2108861,0.36610478,-0.8878669,-0.19413757,0.16144916,-0.03989405,-0.24583764,-0.35239044,0.61682487,-0.41260248,0.20213097,-0.11332577,-0.03424362,0.13648403,0.34919024,-0.224893,-0.009436189,-0.4021854,-0.27643922,-0.3770919,-0.31824186,-0.09927433,0.3287115,0.41118968,-0.14458862,0.7964378,0.13689536,0.7690799,0.8674038,-0.20957404,0.28088084,-0.14563245,-0.13824579,-0.97948474,-0.0720641,-0.15224136,-0.041107208,-0.17379963,-0.5768312,-0.3090019,0.38405713,-0.32230267,0.22241805,-0.28965068,0.010737509,-0.17186685,0.16259606,0.53139913,0.025510145,-0.009466645,-0.21485692,0.21777184,0.48369923,-0.020613115,0.13974604,-0.0042174524,0.036310602,-0.44287995,0.24845113,-0.029462198,0.09288637,-0.4795027,-0.46045974,-0.58632076,0.660351,0.23714782,-0.36595348,0.056212094,0.5307402,-0.3096266,0.18122345,0.7933283,-0.17330109,-0.3544626,0.10149309,-0.12770756,0.20670126,0.033817753,-0.3098395,-0.10014307,-0.26524767,0.07784884,0.06350035,-0.046503905,0.30236393,0.67384475,-0.33523184,-0.49049455,-0.7895308,0.07838804,0.0911203,0.45642972,-0.36125055,0.2605139,0.38417348,0.18464635,-0.11212462,0.332863,0.26483607,0.38710955,0.5166418,0.21115097,-0.21009633,0.3788588,0.47006282,0.32853195,0.4315155,-0.557976,-0.299093,0.2999979,-0.52450573,1.100811,-0.4111103,-0.286585,-0.25197318,-0.098571345,0.29682314,-0.013501969,-0.38959336,-0.087695345,-0.124914266,1.1270515,-0.4813721,0.13042572,0.16161713,0.026634809,-0.53295267,0.4499937,0.38277376,-0.6039973,0.749879,-0.6139039,-0.20091958,-0.21083066,0.3514724,-0.15939629,-0.78065604,0.47009608,0.38985935,0.49296936,0.33242896,0.5153334,0.08074007,-0.51705176,0.21561787,0.2054808,0.5830523,-0.04962236,0.1466481,0.7493478,-0.48650065,0.35329917,0.31810424,-0.06674045,-0.22337954,1.0138164,0.40825212,0.024562903,0.529947,1.0912819,-0.08400822,-0.39126316,-0.8362571,0.26756406,0.26434296,-0.21959491,0.76823324,0.10525082,-0.044291716,-0.5352268,0.35935295,-1.187616,0.17389168,-0.08699709,-0.67084205,0.50645757,0.03241449,0.3507928,0.050517354,-1.2599682,-0.21033125,0.644189,-0.01421235,0.023315798,-0.39029238,0.118564025,-0.72656035,0.08611232,-0.5742416,-0.4418541,0.4629506,0.41101494,-0.06886329,0.28343037,0.25721687,-0.27970353,0.55922794,-0.7345266,-0.8669221,0.07689236,-0.36893305,0.06457102,0.7972116,-0.3311755,0.021547558,-0.058806892,0.051089257,0.12357136,0.06770521,-0.4113011,-0.4118141,-0.09532641,0.8152057,0.20099454,0.8000381,0.5416195,-0.57475483,0.5998378,-0.6764497,-0.79722273,0.3141487,0.12785676,-0.22528717,-0.08085586,-0.21521437,-0.2621867,-0.43996096,-0.7953046,0.40724537,-0.7342264,0.03405626,0.42947167,0.7321056,0.63385254
-0.016289756,0.35558066,-0.27040035,-0.043668468,0.49260944,0.23431323,0.15954268,0.69526136,-0.41893372,-0.39481562,0.4448454,0.74049056,-0.5575501,-0.20882946,0.24832962,0.24129066,0.029541045,0.012981472,-0.57813114,-0.08061353,-0.56607574,-0.9254573,0.081589,0.63925475,-0.19430724,0.22833203,0.3607564,0.322415,-0.9069695,-0.7133862,-0.58226734,-0.5435204,-0.10689018,-0.44664767,-0.5484535,-0.055907354,-0.3282512,0.112345144,-0.5162122,-0.198302,-0.19945021,-0.71288884,-0.37205032,0.2937858,-0.7723391,-0.5725315,-0.11349521,-0.31568894,0.21744677,0.35434455,0.018454863,0.24166481,-0.49178943,0.5394747,0.12249119,0.09228132,-0.017276267,-0.089047134,0.12279756,-0.32751146,-0.07310463,-0.4492179,-0.7521137,-0.5844824,0.4122897,0.076999374,-0.44948334,-0.63158864,-0.43328133,0.7698365,0.84051913,-0.36769658,0.056963008,1.1795112,-0.35696155,-0.031450175,-0.07179719,0.46297505,-0.25210267,0.64228064,0.26745403,-0.30198845,0.016543075,0.11038229,-0.26564315,-0.5599654,0.32201242,-0.0945346,-0.5613319,-0.22825922,-0.41771582,0.20597817,-0.7236834,-0.58988935,-0.067257725,0.36503816,-0.077998474,0.23008642,0.44000146,-0.10033921,-0.0845703,0.38208562,0.22676016,-0.20505805,-0.107349835,0.09092144,0.08631045,-0.06179235,-0.04504993,-0.100924626,-0.21931429,-0.012681152,-0.8388238,0.29881307,0.25297108,0.70186675,0.3342507,0.18729334,-0.25374633,-0.50491464,-0.2908011,0.48619646,0.002502304,-0.57785755,0.5114247,0.32334575,-0.35035783,-0.13468876,-0.20156968,-0.44353142,-0.22768459,-0.43240562,0.5229584,0.55115193,0.021701002,0.092078194,-0.3458995,-0.8232111,0.87462616,-0.30928397,-0.15627046,-0.46003738,0.71036595,-0.46790117,0.6550653,-0.43479666,-0.41613755,-0.9949346,-0.74175864,-0.22066939,0.8795906,-0.51189035,-0.21027084,0.025641348,0.023382723,0.08135077,-0.21444303,-0.050277546,-0.05767528,0.119086966,0.15956655,0.43832412,-0.3023241,0.63422984,-0.3451208,-0.5250005,0.4268377,0.21110243,0.19695684,-0.480628,-0.2089292,0.14478949,-1.5869083,-0.08242771,0.13575083,-0.27011755,0.33023092,0.12551747,0.7850193,-0.561003,-0.13444279,0.12727112,-0.8553654,0.4131188,-0.06362733,0.4560859,-0.7168689,0.1523442,-0.14590506,0.077744,0.60634625,0.0483231,-0.33829948,-0.20941298,-0.18948103,-0.24584308,-0.09275474,0.28519472,-0.01704424,0.3775153,0.6202228,-0.5794088,0.00039972868,0.46198678,0.10347797,0.20949191,0.15662648,-0.013350103,-0.31414723,-0.0018115881,0.073490836,0.35209697,-0.22101982,-0.70786,-0.81182575,0.38334265,0.25559118,-0.4777147,-0.31122294,-0.5666649,0.65330535,0.99933463,-0.2533668,-0.18262248,-0.99727017,0.045417994,-0.20396867,-0.1348781,0.017466921,0.11523742,0.3092541,0.8504231,-0.0860173,-0.1010597,1.2408171,-0.27504784,0.44305426,-0.39763254,-0.9699907,0.006565166,0.5956265,0.26905695,0.03994112,0.1739302,-0.63657385,0.16518661,0.36868262,-0.21967928,0.8665691,-0.6580086,0.9289046,0.6688695,0.04440173,-0.3573493,-0.33557466,-0.3570733
-0.005940251,-0.3196107,-0.43301928,0.30354765,-0.026539274,0.7917633,-0.24500456,0.44680387,0.96881616,0.36844805,-0.07137811,1.1135266,1.3545576,-1.0384462,-0.008993354,-0.5805557,-0.4476254,-0.43725914,0.5171635,-0.30902907,0.7165901,-0.0852816,-0.002402505,-0.21260224,-0.10089775,0.30072,0.43881395,-0.41130114,0.4347797,0.49832067,-0.8285032,0.65301424,0.01621338,0.4796795,-0.07603328,0.24284065,-0.34735134,0.3810684,0.38043508,-0.18893357,-0.22061378,0.50862676,-0.16282603,-0.40809557,0.45474908,-0.72234493,0.1278576,-0.18025127,0.10666651,0.26669917,-0.28980446,-0.5292582,0.027719416,-0.09976751,0.06733712,0.19800593,-0.3907901,-0.6440105,-0.21464217,0.64495915,0.38454276,0.4849273,0.06496595,0.20151885,0.23800264,-0.03271233,0.23215188,0.27859366,-0.33008912,0.54950833,0.5430523,0.008510003,0.05213775,0.13737632,-0.41620845,-0.6303179,0.43153855,0.20107397,-0.08269496,0.17492478,-0.16348957,-0.09145883,-0.5465761,0.03744034,0.16196068,-0.10128195,-0.061574094,-0.015633691,-0.2638131,0.23214528,-0.29397723,-0.35811335,-0.51736224,0.85540956,0.08791533,0.34795797,-0.028855884,-0.26701677,-0.49847028,-0.60792416,0.31397438,0.29686257,-0.2576349,-0.5740792,0.27992415,0.046336923,0.35186833,0.21612784,-0.16750205,-0.24494746,-0.40276188,0.3702034,-0.5197824,-0.051545165,0.31210777,0.1858594,0.4217061,-0.7342454,-0.6241799,0.3684706,0.13152285,0.057118826,-0.13749908,0.5647463,0.47771114,-0.14127967,0.23453747,-0.65813535,-0.034662843,-0.23410484,-0.40654424,-0.17508893,-0.27956066,0.26863697,0.07420625,-0.020192904,0.6753456,0.58218867,-0.4646588,-0.3229274,-0.10965995,-0.16206872,-0.46366897,0.33154964,-0.09858512,-0.53011924,0.13582273,-0.07018694,0.017343843,0.005268325,-0.63149786,-0.16867577,0.5583824,0.4621836,0.3059814,-0.021077078,0.0036868642,-0.45627066,0.32428795,0.7353776,0.10458363,-0.31021395,0.19673237,0.11993474,-0.35176656,0.03393419,0.07158568,0.28024113,0.5708633,-0.34212145,-0.18527369,-0.30433938,0.0555225,0.43544486,-0.1335656,0.60456204,0.012498036,0.5837121,-0.6836978,0.7063062,0.48971543,0.063467816,-0.11891487,-0.3613541,0.17045492,0.3195235,0.93520206,-0.66488105,-0.4909369,-0.5189933,-0.3277603,-0.17117007,0.3101051,0.09481097,-0.059978988,-0.14410968,-0.39958075,-0.5608859,-0.83697444,0.075189196,0.29803064,-0.37618726,0.77712774,0.25249234,-0.7462634,0.14179046,-0.26798493,0.30670157,0.14118166,0.26827857,-0.5450708,0.2736093,0.29088178,-0.20539053,0.7057442,-0.34824827,0.2199975,0.116277345,-0.14750218,0.0006775458,0.78741497,0.64111936,-0.14942864,0.2599832,-0.925883,-0.26043662,-0.22741589,-0.057033762,-0.9039201,0.11549205,-0.38397384,0.16029784,-0.09326921,0.7904684,-0.20976503,0.25648853,0.3273617,-0.43803492,0.04150831,-0.13233732,-0.6371493,-0.39590406,-0.49063694,0.012042266,-0.761564,0.29402605,0.14179647,-1.0480094,-0.3316003,0.26171792,-0.16473699,-0.12018816,-0.63452333,0.22971107,-0.6073307,-0.12568146
-0.13553189,-0.22323684,0.40609196,0.46373245,0.46710783,0.6309225,0.2198695,0.7192343,0.3123396,-0.3856614,0.33449742,0.6317066,-0.7189806,-0.06756473,-0.9092363,0.9851317,-0.06800329,0.024812436,-0.31172228,0.4880714,-0.1546498,-0.4337534,0.06267555,-0.2197804,-0.10724362,-0.9989538,-0.036778327,-0.023335353,-0.37855124,-0.24952585,0.1867361,-0.07634811,-0.26998198,0.19684975,0.1787012,0.16343674,-0.21982244,0.17905337,0.5514726,0.1995389,0.036402307,-1.0012456,-0.6582472,-1.0354663,0.059011772,-0.20491026,0.049985357,0.1358246,-0.62559426,-0.3369638,0.18847844,-0.19995749,-0.944333,-0.5857664,0.18510148,-0.029386152,0.37973005,-0.18815476,-0.22898223,-0.00096081686,-0.3148553,-0.385621,0.044462822,0.21925087,0.8816516,0.123646796,-0.29336163,-0.36339867,-0.040814284,0.51541436,0.41216755,0.3010502,0.21530218,-0.7983398,0.010243492,0.14510497,-0.30421308,-0.08012164,1.7305564,-1.0422869,1.2033536,-0.1952572,0.26680169,-0.40345025,0.8175243,-0.17670211,0.5378123,-0.083941914,-0.70791435,0.2597671,-0.75086874,-0.45571032,-0.36979634,0.36715037,0.7886462,0.15241508,0.60644674,0.51534414,0.44067726,0.09095897,-0.01273873,-0.37940276,0.4421781,-0.024822857,0.08506817,-0.02810388,0.58298063,0.3523115,-0.33636555,-0.16681378,-0.4910044,0.47316858,-0.403676,-0.19357578,0.19983697,0.36381963,-0.8816479,-0.1564158,-0.08327726,-0.9802243,0.067569286,-0.31998453,-0.06897934,0.34729138,0.4385086,-0.8606689,0.19955562,-0.04148213,-0.31849745,-0.33488333,-1.093886,0.060563114,-0.2829833,-0.39584094,-0.011661813,-0.23178005,0.67782867,0.047646493,-0.44198358,0.08000031,-0.4527037,-0.44687155,-0.22957584,0.27644798,-0.42852217,0.11343619,0.6278467,-0.22602475,-0.256185,0.42144674,0.09795217,0.6787537,-0.26959822,-0.7371184,-0.036463905,0.5950196,0.036277365,-0.1005163,-0.224495,0.021347307,0.6965251,-0.58663017,0.29274827,0.31980097,0.23315355,0.09860287,0.86043274,0.5492535,0.08513773,-0.24670741,-0.1337802,-0.25332558,-0.7188787,-0.48417068,0.22862616,0.07840862,0.44488552,-0.18624867,1.2081852,0.5943969,0.5577934,-0.025442196,-0.2217152,0.5399525,-0.35513592,1.1496822,0.20211722,-0.23935509,-0.49705157,-0.049997587,-0.7198267,0.22240132,-0.19279657,-0.61597043,0.19798853,0.2861142,1.3700086,-0.24803421,0.41210502,-0.4158478,0.4077285,0.2468664,0.52221876,-0.9227273,1.5129386,-0.7195827,0.106234565,0.1996542,-1.7086883,1.0284976,-0.5823199,-0.114016436,0.72801536,-0.17112842,0.62638116,-0.25351635,0.18018827,0.42922568,-0.7988431,0.006990331,-0.61700207,-0.21478647,0.38513258,0.34763885,0.9805862,-0.39189193,-0.3464781,-0.6491492,-0.6545821,0.87663805,-0.2839699,0.14503019,-0.58144647,1.6395242,0.0005302383,0.27633947,-0.32571474,0.5502906,-0.91394466,0.019480906,-0.6061599,0.16147701,0.5378487,-0.38450548,-0.4756509,0.16762258,0.2645038,-0.41022632,0.26623508,0.06484276,0.0332627,0.87852293,-0.18755381,-0.11997135,-0.07619652,0.2082052
0.69489306,0.41894242,-0.62585735,-1.0549585,0.18526126,-0.08591025,-0.043323323,0.73266166,-0.92940676,-0.38130224,0.1703315,-0.5171748,-0.5265472,-0.38690695,0.5616969,0.15740506,0.255403,0.19954748,0.25352585,0.5649186,0.2991874,-0.2268818,-0.07802983,0.35447794,-0.625305,-0.86587113,-0.27551186,-0.7275413,-0.22547087,-0.039019305,-0.15494195,0.08656019,0.3079258,-0.04048723,-1.0632148,0.008651264,-0.6726459,0.05765696,-0.11594565,0.21154654,-0.09358159,-0.18948102,-0.07951638,-0.7377896,0.0769962,0.53994733,-0.20222363,0.47442874,-0.30038658,0.44835263,-0.038585756,0.001113936,-0.7644435,0.33998948,0.48146516,1.4844985,-0.3994973,-0.3454139,-0.14224492,0.3424255,-0.1919021,1.1162338,-0.42876422,0.85410553,0.12595497,0.4292787,-0.2832311,0.54662937,0.20810764,0.31374094,0.20119664,0.29218984,-0.29719165,-0.21070631,0.04015317,0.059364893,-0.52078897,0.44957605,0.5462058,-0.41933888,0.121706,0.097621895,-0.50235385,0.081488065,0.20110966,-0.16988844,0.4170456,-0.912908,-0.6208951,-1.1388211,-0.60715973,-0.23119383,-0.34088105,-0.074624546,-0.36691064,-0.06823186,-0.14872582,-0.047686968,-0.44179982,-0.29666483,0.5830749,0.30110744,0.34432375,0.7623817,0.05927606,-0.6585953,0.06374845,0.18653548,-0.8925469,-0.9557512,-0.02401637,0.3711263,-0.37649518,0.62335587,0.13360149,-0.19492494,0.4735469,0.4127175,-0.5905872,-1.172945,-1.1634648,0.115048446,-0.04158368,0.48936275,0.9454638,0.42934936,0.14698532,-0.71348304,0.45759457,-0.02120548,-0.79024285,0.4763539,0.19762214,-0.3552245,0.21533792,-0.06021383,0.0835246,-0.08360662,-0.17132585,-0.28227463,-0.18776505,-0.35268134,-0.35335916,0.7469586,0.381239,-0.64084643,0.4772245,-0.16172709,-0.88805616,0.3235973,0.18051529,-0.60737914,0.43661302,-1.1109705,-0.8613196,0.03844925,-0.0409639,-0.25178075,-0.27949953,-0.541355,0.44885606,-0.4275806,0.098943494,0.34721684,-0.52378947,0.07658816,-0.17215085,0.22804108,0.64694244,0.640778,-0.32027924,0.7744241,-0.6278742,0.8043426,-0.021350915,-0.13682126,0.39313713,-0.83722264,-0.12535405,-0.69258195,-0.02256231,-0.18570141,-0.63434434,0.14327976,-1.1019925,0.20068304,0.6051536,-0.032769423,-0.27297887,0.28301105,-0.5024774,0.64998037,-0.50885284,-1.0744357,0.7511449,-0.27498257,-0.76627725,0.26600054,-0.20939933,0.2409646,0.5186638,0.35144368,0.1035079,-0.22245476,0.21761602,-0.35624763,0.35721332,-0.60839224,-0.37355834,0.6340566,-0.17199722,-0.50256485,-0.7906411,0.004747226,0.40607727,-0.14537098,0.12580165,0.643647,0.34140056,-0.0626445,-0.06265901,-0.0603958,-0.25622073,-0.20864101,1.143361,-0.33326474,-0.25947258,-1.1137108,0.5018141,0.48168555,0.804305,0.782349,0.53965265,0.6511928,0.026723284,0.6179134,0.1032445,-0.13257095,0.57096964,-0.29775587,-0.62727463,0.6058782,-0.23785578,0.40657192,-0.43213737,0.65558684,0.66648686,-0.40453047,0.38069528,-0.5914412,0.7945463,0.35605538,-0.9845665,-0.14523296,0.7973461,0.4310785
