1.0343896,0.31150553,-1.3209904,-0.31778634,-0.0463751,-0.10556217,0.34148985,0.16470933,0.23717941,-0.70200205,0.37020192,0.24504909,-0.20523266,-0.7713772,0.07051831,0.19933899,-0.076608546,-0.08647118,-0.564958,0.0041385144,-0.037024118,0.048553653,-0.015691359,-0.056447107,0.10726691,0.18836136,-0.07547363,-0.24989817,-0.40493932,0.06994197,-0.7744676
0.39547557,-0.2313766,-1.0895301,-0.4223747,-0.3243845,0.13441025,0.026464926,-0.5345531,-0.30346286,-2.3366215,-0.83531463,-0.16969007,0.58607846,0.0819482,0.1496323,0.16210184,-2.5982676,-0.5073082,-0.43867669,-0.05628343,0.030017704,-0.005536586,0.40337268,-0.4434035,-0.60162926,-0.59390974,-0.24375385,0.039530743,0.2621142,-0.68975836,-0.762787
-0.6064857,0.022910947,1.4631317,0.46509188,-0.4941571,0.8164949,0.18823676,0.026069364,-0.94895875,0.9853075,-0.515433,-1.0020934,-0.082278416,1.9874352,-0.7158911,0.17442383,-2.2135692,0.15023544,-1.2423346,0.009756483,0.027079053,0.032953903,-0.105217196,0.23857927,0.28896797,-0.10283572,0.06683653,0.6600945,-0.16668534,0.0021255352,-0.062437247
0.4610259,0.076312736,-0.87702286,-0.69774806,-0.40991148,-1.0525471,0.31806564,0.39648026,0.4942626,-0.8390863,0.6796263,0.45903412,-0.43615028,-0.36898133,0.20434418,1.2078773,1.9340149,-0.14060451,-2.4783278,0.059814863,0.027099349,-0.02857615,0.053471208,0.030882783,-0.1334033,0.42515862,0.34483117,-0.12718588,0.84937185,0.18659061,-0.484653
0.18536852,-0.34806275,-0.29799402,-0.4369958,-0.20260544,0.5005677,-0.26848686,-0.4663712,0.8205575,0.22746952,0.18508464,0.77921605,0.30037317,-0.5692125,0.859233,0.082481965,1.0144144,-0.2659454,2.4114082,-0.02238442,-0.054395348,-0.039471224,0.42778298,-0.41973418,-0.05796602,-0.16848637,-0.12592155,-0.26970977,-0.32770303,-0.24474886,0.1548089
-0.056596234,-0.0077731963,-0.23023917,0.109467365,-0.28770706,0.70003134,-0.60248137,0.03212927,-0.058567356,-2.0758853,0.028260889,-0.13283913,0.008285575,1.5892655,-0.180609,-1.1209141,1.9779637,-0.068124734,-0.8025962,0.04927066,0.035528257,-0.04609423,-0.1277362,-0.11241342,0.0002630134,0.056783315,-0.21999314,-0.36274695,0.30043703,0.47592327,0.31313938
0.9038807,0.3435227,-0.4377577,1.5287794,0.7398103,-0.7557344,-1.3430852,-0.5973384,-0.32243165,-0.36799565,-0.48184362,-0.14320374,0.67715603,-0.0008451929,0.37887138,-0.946148,-2.831571,-0.1267504,-1.0586337,-0.049691595,0.05329553,-0.040533803,0.13372359,0.14366299,-0.3804072,0.017790874,-0.31463552,-0.036187183,0.61691666,-0.16188987,-0.3703945
0.50775474,-0.25187176,0.16308294,-0.19796027,-0.5258383,-0.28617963,-0.09397365,-0.38469037,-1.2672688,1.1270179,-1.401308,-1.2999197,0.36201182,0.38492984,-0.48605388,-1.27868,1.3468475,-0.061939042,0.3203954,0.043267228,-0.05171211,-0.037067138,0.12297199,-0.02895533,0.1875781,-0.084743835,-0.3584749,0.0026522356,0.03310193,-0.24254327,-0.52161556
-0.14168453,0.04364505,-0.7207841,0.09411101,-0.6055918,-0.68300194,0.23976716,1.271996,0.5952431,-0.34074366,1.4389457,0.5605367,-1.3354963,-0.3149086,-0.27089104,-0.83127606,-0.06181972,-0.108757764,1.3657899,0.058888488,0.046762973,0.058603406,0.17447844,-0.14917482,-0.16231777,-0.028022641,-0.4262681,0.13514367,0.030440545,-0.36673376,-1.2152953
0.88007164,-0.9178764,-0.007783009,-0.0068455227,0.040134184,0.09707811,-0.74242604,-0.45031402,-0.23120016,-1.1472261,-0.77554977,-0.17359927,0.331745,0.9036131,-0.12763621,-0.66974914,2.086783,0.25239113,3.052385,-0.050734393,-0.017772563,0.0040878803,-0.18117818,0.18303776,0.7223417,0.25965324,0.19690177,0.3037709,0.36467242,0.3062581,0.3491849
0.011444586,-0.37622976,-0.54895186,-1.2005811,-0.73788565,0.501482,0.61104715,-0.025090098,0.29751006,0.9419897,0.26714274,0.37326115,0.06212146,0.25481018,0.15184054,2.3969347,0.19211635,-0.26504266,-0.6748205,0.004672177,-0.04406687,-0.009599023,0.19457577,-0.19551015,-0.072164275,-0.14476246,-0.2561039,0.101414084,-0.27601495,-0.24259365,-0.014397199
-0.6740452,0.10373532,0.32271037,0.05942872,0.59513617,0.40235585,1.0501789,0.13298163,1.2459428,-0.84250224,1.0700887,1.3984929,-0.161871,0.9627522,0.7746527,-1.0687655,-1.7200198,0.051079355,-0.55198336,-0.0002924502,-0.04877104,-0.029932141,-0.022004379,0.32138386,0.21392687,0.099271655,-0.4303059,0.33290944,-0.1948319,-0.029162407,0.12912959
-0.1751484,0.09662665,0.6179842,0.057789274,0.031842455,0.54739,-0.7324796,-1.0389898,0.0076515777,1.0277933,-0.9589403,0.11338792,1.0725912,-0.41766468,0.6132077,2.4735334,-0.50673604,-0.33363456,-0.6594771,0.023388863,0.05538691,-0.018047512,0.23457518,-0.2760274,-0.10242158,-0.009670696,-0.08572101,-0.3977308,-0.5002747,-0.4411747,0.08408692
-0.9976373,0.60925937,0.8604679,0.158714,-0.40751305,0.6884165,-0.16626525,-1.0122699,0.42983457,-0.61126906,-0.30022436,0.3899827,0.98932594,1.2119035,0.8397395,0.9416829,0.9618131,0.17295915,0.68788177,0.0020627677,-0.027481832,-0.04430776,-0.18163332,0.03161004,0.07037186,-0.5000389,0.2520694,0.7963605,0.2997889,0.090209335,-0.06543028
0.5748491,-0.73871255,-0.5217909,-0.31102479,-0.82181716,-0.19715235,-0.21674335,0.6489575,-0.6807311,-0.9843217,0.021534648,-0.66112775,-0.7232559,0.928594,-1.1492153,1.166166,0.5690371,-0.04938837,0.25528494,-0.034645103,-0.04044652,0.00094521046,0.04410809,-0.34848776,0.34950504,-0.09370368,-0.07110911,-0.18110107,0.11864608,-0.19687355,0.6285924
0.5455665,0.5105871,-0.48860723,2.7441282,0.5428251,-0.7209686,-0.8735931,-0.21127509,-0.6045048,-0.8552532,-0.39780772,-0.59225476,0.25249305,1.2511246,0.200752,0.10647017,-0.04607724,-0.0036996803,0.9910782,-0.003207244,0.042584933,0.01858683,-0.019341165,-0.020114707,0.39989027,-0.26370996,-0.42097753,-0.49263763,0.3124723,0.13996558,-0.25131586
1.157978,0.52915466,-0.90952253,1.2444847,-0.4335309,-0.69237036,-0.7695112,-0.19988313,0.9305634,0.4647076,0.42374972,0.9090876,0.21180141,-1.4218525,0.52716243,-0.57057863,0.58875483,0.057900526,0.7026432,-0.037355788,-0.04181365,-0.031423017,-0.052289452,-0.07975941,0.012309806,-9.959887e-06,0.060891815,-0.24532719,-0.22945814,0.030612007,-0.9887244
0.4189179,-0.5322701,-0.48285297,-0.528102,-0.41836944,0.01962382,-0.79824084,0.66410255,-0.7822136,-0.76019895,0.34454006,-0.67924815,-0.68176705,1.8736615,-1.0830883,0.22501913,0.24218497,-0.3291666,1.0091417,-0.057206437,0.034107357,0.05485437,0.20150569,-0.48968232,0.017754741,-0.24091814,-0.4874125,-0.051626973,0.29917485,-0.0974049,0.52693343
-0.48417923,0.16735454,1.1401829,0.66791326,-0.6806797,0.16410525,-0.22247183,-0.6259733,0.6573087,-0.0062763463,-0.07338268,0.62697434,0.65516925,-0.98760045,0.98044664,-0.92584485,0.54190814,0.3047102,1.1883415,0.030464329,-0.00795038,0.0214056,-0.14199264,0.19297393,0.43862593,0.10890425,0.18779802,-0.29641992,-0.05015277,0.18038175,0.016953416
-0.28057274,-0.1684103,0.710755,0.6754347,-1.0190439,0.16059212,-0.43451843,-0.5216758,0.80885935,-0.2523541,0.27168867,0.77302796,0.52690876,-1.3713962,1.1292206,-0.8071137,0.21823493,-0.16217272,1.7598068,-0.022453733,-0.032116234,0.026631214,0.23676038,-0.12967984,0.2760499,-0.23140495,-0.4660631,-0.002914454,-0.68024653,-0.29557636,0.42908496
0.87979656,-0.3894621,-0.5802617,1.0278367,0.33312896,-0.018849896,-0.2458514,-0.51841867,-0.69936967,-1.1325562,-1.1479853,-0.79287225,0.28212684,-0.38474008,-0.35325366,0.632185,-1.4786322,0.24427748,0.9472852,-0.04402242,-0.006233588,-0.048857644,-0.041243337,0.12962084,0.1549475,0.10246669,0.15584122,-0.21582319,-0.35932243,0.032362346,-0.004810211
-0.18021996,-0.13838884,0.3981642,0.57531744,1.3687453,-0.17532778,1.1941099,-0.50997865,0.34407318,0.80862457,-0.11042034,0.46421394,0.6298765,0.91565114,0.70977217,0.15175886,2.070143,0.22521314,0.8859775,0.019913226,0.013136253,0.033034638,-0.17368911,0.22246024,0.4225218,0.42207107,-0.07693989,0.3774759,-0.76786053,-0.07687162,0.34239382
-0.94402456,0.8062716,0.51331216,-0.1946249,0.746097,0.58494055,0.30769297,-0.15303601,0.16019629,-1.7132422,0.06200354,0.18673587,0.19656527,-0.39799526,0.11868217,0.76652867,1.0894446,0.17036021,1.5756081,-0.02396866,0.051288515,0.047976203,-0.071504734,-0.09053767,-0.48042288,-0.21730402,0.22009902,0.6920034,0.0696074,-0.0134604955,-1.0943811
0.9269449,-0.782242,-0.23999833,-0.027922874,-0.3684503,-0.033098325,-0.4980221,0.45923498,1.1647924,-0.36322358,1.1663798,1.0044905,-0.46092662,-1.7536734,0.57553804,0.0260298,0.036911946,-0.3788282,-1.5004655,-0.02395323,0.028349094,-0.062322326,0.28728747,-0.28535798,-0.16430302,-0.30733392,-0.54557383,-0.07784088,-0.4481573,-0.28716156,0.3704732
0.67470753,-0.5762205,-0.07455767,0.74747854,0.35846317,-0.8736667,-0.86987734,-0.773216,0.42327332,0.13705644,-0.18411125,0.30632237,0.7820762,-0.7995759,0.90890586,1.3936185,-1.8352115,0.06139172,0.47884312,-0.0008887872,0.04224526,-0.013179906,0.0056026555,0.040300675,0.28273973,-0.0639171,-0.32583958,-0.07052423,0.36368677,-0.13819456,-0.043525238
0.045123696,0.6155298,0.6609913,1.5150186,-0.2916141,-1.3523707,-0.3255518,-0.49411067,0.326884,0.32541877,-0.06032436,0.23972592,0.5545372,0.5722415,0.964012,-0.31331083,0.027703367,0.20943083,2.1461549,0.057254143,0.011390857,0.021202125,-0.020072483,0.15197274,-0.32101884,0.047861535,-0.039863404,-0.0742426,0.09998639,-0.045527805,-1.2448097
0.79999304,0.070745245,-0.8136016,0.43304515,0.06741265,-0.3383837,-0.2773403,-0.08328419,-0.30650836,-0.11926923,-0.5558819,-0.2452301,0.29447982,0.48123273,0.05669702,0.49117294,1.704587,-0.06837292,1.3661714,0.0049250573,0.039543755,0.04770437,0.02365514,-0.1582585,-0.11064288,-0.08778295,-0.30542374,-0.23873688,0.3025401,-0.27113637,-1.2414482
0.8850786,0.8813043,-1.4830366,1.0823538,1.2195213,-1.0690161,-0.9082333,-0.121220745,-0.8435329,-0.13765119,-0.64069253,-0.74563205,0.123097524,-0.1597799,-0.54802364,0.8664317,-1.7943227,-0.038703814,0.10567956,0.013442919,-0.040022276,0.038699225,0.15947424,-0.2180445,-0.17096598,-0.24048634,-0.25552118,-0.5588805,0.6998825,-0.10268849,-0.55471134
0.011334524,-0.39277047,-0.3849526,0.13681827,1.3474166,0.9717881,-0.16121228,-0.2506631,1.2232008,-1.4455252,0.82040817,1.1509085,0.10736082,-1.0492686,0.45600146,-0.06969305,0.5705036,-0.23673613,-0.4187379,0.009786665,0.05310285,0.027014144,0.15790586,-0.26115474,0.062403303,-0.21046792,-0.18460968,-0.2033341,-0.16024762,-0.10380062,-0.44765118
0.7264579,-0.6373346,-0.8126509,-0.8459459,-1.410891,0.34351778,-0.80311203,0.49376684,-0.14188871,0.2208739,0.107673444,-0.03313337,-0.2969863,1.9440504,-0.15548788,0.2514092,0.17352663,-0.14416817,0.5090299,-0.02279231,-0.051606625,-0.011988945,0.25695992,-0.17702243,-0.0042702234,-0.15587483,-0.41050828,-0.18576704,0.20293234,-0.23957357,-0.61958265
0.44824907,0.53198475,0.117911935,-0.21782558,-0.30271178,0.19166207,-0.7347378,0.24955258,0.4008684,1.8734277,0.39511982,0.25106975,-0.29847795,0.09732651,0.19467205,1.1259183,0.105397716,0.29831108,3.6748705,0.011363782,0.027014747,-0.049515978,-0.08391245,0.008119269,0.09725613,-0.08592169,-0.12039436,-0.45838526,0.21610694,0.23076478,-0.48577163
0.044511132,-0.34779662,0.23567773,0.058059283,-0.9637486,-0.4275902,-0.06204728,-0.020933937,-0.7676267,-0.10849724,-0.5492515,-0.7870122,0.086730145,-1.0121,-0.8577348,1.5738342,-2.2294676,0.0478813,0.5724735,0.04832653,0.0008439794,-0.04345385,-0.024720926,-0.046054926,0.14308915,-0.029571043,-0.09766037,-0.30213752,-0.21232708,-0.25663874,-0.6654397
0.042910412,-0.028353496,-0.2962798,-0.45832264,0.06109931,0.91930884,-0.9380069,-0.21470894,1.0867728,-0.5711073,0.76164466,1.1486858,0.18743329,1.4665939,0.8205941,0.11567149,0.51441634,0.11435042,0.7496047,0.02953481,-0.058998913,0.040521972,-0.059790857,0.19325542,0.27987808,-0.09098308,-0.14351588,0.58481234,-0.24816006,-0.014390719,-0.34010962
-0.07002267,0.12706628,-0.1594649,-0.3037294,0.40522736,0.6922852,0.027843842,-0.4854705,0.16907741,-1.7147936,-0.053870257,0.1405893,0.3849617,-0.5914188,0.43635577,2.0717592,0.008719497,0.0074264016,0.52278525,0.013595603,0.034205467,-0.030065395,-0.03876557,-0.16438368,-0.26120213,-4.0188213e-05,0.028965572,-0.30804715,0.3516721,-0.077608466,-0.9960566
-0.042326763,0.0616607,0.18794183,-0.16300721,-0.075799905,0.17731382,0.3109996,0.88714945,-0.23086071,-2.457742,0.26001742,-0.18193671,-0.7905906,0.22330569,-0.8544349,0.17561176,0.49790365,-0.1946576,-0.80190676,0.03568124,0.041857466,0.033707008,0.021440469,0.17234744,-0.20513159,0.020848956,-0.2369893,0.11944968,-0.11903445,0.1394525,0.4107502
-0.35160086,-0.2036707,0.3827375,-0.040695447,-0.04292447,0.63036096,-0.02452066,-0.49487346,0.14082961,0.0991324,-0.58824956,0.18178815,0.59279764,-1.292036,0.1769309,1.053641,-0.08873954,-0.15925556,-3.0382757,-0.04291115,-0.061575323,-0.012561448,-0.017193688,-0.120271884,0.17208757,-0.075448416,0.30930132,0.26253924,-0.18288295,-0.09777908,0.96654195
-0.20264564,-0.15921257,0.8056869,0.18202801,-0.17230527,-0.25780153,0.34331182,-0.013490107,-0.3483691,-0.017612442,-0.34725994,-0.33938456,-0.06959385,-0.6660826,0.21401496,1.1964037,0.24842718,-0.12122797,-0.16368677,-0.04367382,-0.0039227307,0.037431717,0.1301794,-0.08491179,0.02564773,0.027841082,0.05307181,-0.0049654315,-0.18970947,-0.14452612,-0.43796974
0.10277688,-0.7323219,-0.18641998,-0.2010799,0.4539847,-0.27559182,-0.31630304,-0.34348646,-0.4994562,-1.874645,-0.3678634,-0.41343716,0.40596795,0.81007785,0.018736092,0.5078433,-0.62781733,-0.8217454,0.6663512,-0.041863926,-0.031050585,-0.004829578,0.75848454,-0.7215509,-0.5700966,-0.5634366,-0.8476832,-0.94348824,-0.4664517,-0.72948265,-0.14286377
-0.720943,-0.027474353,0.13425109,0.43133214,0.4043233,-0.16980198,-0.15818264,0.0020741667,0.69783133,1.0092145,0.06927207,0.70497066,0.20136441,-0.43125185,0.36331788,-0.3000598,-0.412845,-0.0806478,-1.4779433,-0.02251941,-0.029758021,0.03041014,0.06394485,-0.13392451,-0.2524686,-0.007569377,0.14662202,-0.042672016,0.21420273,-0.14519599,-0.087120585
0.34119666,-0.10333837,0.6781246,1.490229,0.50190204,0.08528271,-0.18772359,0.058740284,-0.32333797,0.36758405,-0.26484463,-0.20757556,-0.20784098,-1.121689,-0.31673864,0.5182403,-1.1305867,0.14949396,1.8250682,0.05111426,0.04216131,-0.01375661,-0.056956585,0.15297967,0.20301412,-0.12468625,0.013105754,-0.25370017,0.2847663,-0.18327959,0.33031437
-0.11100117,0.09380519,1.0902693,-0.096585855,-0.1349999,0.22639653,-0.04724481,0.751581,-1.1232936,-1.0982686,0.104356125,-1.0726626,-0.7437754,-0.032357756,-1.1665169,0.4336641,1.046725,-0.25608492,0.24249873,0.025913365,0.061869256,-0.04013598,0.25343344,-0.26345325,-0.47507,-0.37250796,-0.41710135,-0.41740862,-0.3391865,-0.21172547,-0.24678475
-0.3756707,0.53931904,0.38991886,1.235943,-0.7419067,-0.619707,-0.20137809,0.0073465845,-0.28739107,0.37212902,0.31744778,-0.3357091,-0.14679457,0.6593533,-0.11570625,-1.840094,-0.3071187,-0.0037068077,1.7263008,0.06064614,-0.04733195,-0.058392547,0.1432614,-0.0006971106,-0.26044193,-0.18715598,0.07987724,-0.7494689,-0.36672252,0.013629339,-0.5092647
0.17734836,-0.13427815,-1.0517789,-0.70459795,-0.24145,1.1928407,-0.066212244,-0.12051532,-0.54571444,-0.28128815,0.11262346,-0.51287377,0.17212185,1.9708583,-0.31808344,3.3447633,-0.6266978,0.15752174,-0.26522073,0.04773654,-0.061484784,-0.05890932,-0.09810408,-0.0014403628,-0.14251271,0.17321512,-0.2720781,0.89594483,-0.23300599,-0.358565,-0.02044561
-0.08458189,-0.14271401,0.11949137,-0.3750978,-0.7278954,-0.11259637,-0.8302328,-0.11466778,0.015649412,1.1685404,0.036270533,0.068653345,0.14069858,-1.0555469,0.2968563,-0.46633834,-1.4643967,0.09594411,-0.5164855,0.042914927,-0.023264706,0.049231634,-0.027386487,0.24551663,0.4305733,0.20463842,0.14117725,-0.06427155,-0.0333643,-0.029914621,1.44083
-0.2029717,0.4493604,0.25605693,0.3658887,-0.16944656,-0.8069941,0.6913751,0.08601401,-0.027685361,-1.3594993,-0.036445394,0.0036322183,-0.33370894,-1.3510612,0.008853386,-0.80319536,0.070957184,0.13734041,0.50041777,0.044707112,0.05739156,-0.023846582,-0.0057696714,0.10918292,-0.51034796,-0.2655923,0.09627241,-0.29029706,-0.6941412,0.07490406,0.24450867
-0.50828177,0.7927188,0.5711434,-0.19263296,0.13645141,0.1218168,0.32234624,0.32389417,-0.036825467,-1.6080335,0.307191,-0.16010901,-0.404294,0.43088055,-0.0954982,-0.12364531,0.6332411,-0.17749985,0.6892248,-0.01938288,-0.038017303,-0.04863465,0.14386171,-0.030447658,-0.69954735,-0.28828722,-0.06335852,-0.21457207,-0.32317984,0.092706285,0.040505707
0.90748215,0.06983089,-1.790444,0.23613168,0.076071255,-0.33614796,-0.026762469,-0.9241893,0.4185518,0.72312415,-0.23586461,0.48693466,1.0352925,-0.49269444,0.986592,1.1491126,-1.6823446,0.1370459,-0.9048853,-0.0259578,0.032140665,-0.0051910058,-0.10192516,-0.013138977,0.27960294,0.3858318,0.23147464,0.41122854,0.56105167,0.12699696,0.37332702
0.61959743,0.5400733,0.13285851,2.3789196,-0.56038785,-1.2450815,-1.1194899,0.09171498,0.8344294,-0.12506033,0.9206334,0.9577966,-0.05056656,0.12490703,0.8911829,1.7943175,-1.0486495,-0.15549812,0.1313867,-0.048066176,-0.021895722,0.05643014,0.19176076,-0.19111434,0.053964354,-0.1766184,-0.19168563,0.039842647,-0.68761426,-0.37133965,-0.23197846
0.7780775,-0.030933326,-0.8755829,-0.21499988,0.6734284,0.4895143,-0.58873093,0.18922223,0.6003278,1.753907,0.100677766,0.41567528,-0.12332756,-0.32132655,0.27653337,4.302815,-2.2593167,-0.21998335,-0.77611345,0.02302266,-0.048489615,0.05564663,0.24285387,-0.18647838,-0.40894422,0.031859264,-0.19141012,0.066607505,0.16322346,-0.11722126,-0.06552238
0.6764702,0.09974918,-0.2454887,-0.21435156,0.8328053,0.59139913,-1.1408088,-0.06113137,-0.5304413,-0.7560901,-0.21178576,-0.56208074,0.09451161,0.44701877,-0.4817979,0.23765695,-0.048124634,-0.03303811,-0.18360169,-0.05169592,0.04844793,0.0028396249,-0.004744542,0.038997766,-0.085034944,-0.053501643,0.03452398,-0.3174286,0.8681014,-0.24976659,0.577313
-0.33223712,-0.44573933,-0.3729854,-1.2621833,-1.3841882,-0.169225,0.5284468,0.8619469,0.51926947,-0.6904309,0.87863606,0.45335308,-0.83265096,-1.2287534,-0.16753829,0.3710213,1.0525624,-0.07104823,-1.9410324,-0.05964373,0.0051720813,-0.014250502,-0.115534864,-0.041184995,-0.5218263,0.325168,0.36269775,0.6452811,-0.19611435,0.20470607,0.28345072
-0.36818755,-0.0032607173,0.1260888,-0.272703,0.06987939,0.13038974,-0.27918363,0.5716597,0.3931931,-1.6574897,1.0145116,0.3315551,-0.59065723,0.16639805,-0.10161611,-0.30764383,0.7072544,-0.08205679,1.2738323,-0.015579879,0.02205687,-0.04739987,0.18285824,-0.24646391,-0.43311122,-0.21575196,-0.11274634,0.063442126,0.3361894,-0.09527385,-0.6997042
-1.0115832,-0.06020221,0.4668067,-0.8183219,-0.55634993,0.5316383,0.855896,-0.74853647,-0.92186767,0.4541791,-1.0449189,-0.9378611,0.757258,-0.7905974,-0.30253756,1.3877581,-1.1744347,0.14459513,0.60099185,0.039183818,0.021528125,0.042064883,-0.011710637,0.032000415,-0.21687628,-0.23023106,0.23041977,0.12612246,-0.30420604,-0.29283002,-0.0062432885
0.23043102,-0.17238809,-0.35434482,0.29260215,0.014082794,0.3624888,0.67253447,-0.46775296,0.27469566,1.0423495,-0.3166069,0.03976949,0.5013323,-0.21398704,0.37152916,-0.6625612,-0.8969893,0.3400564,1.3095211,0.052301414,0.006834008,-0.024815671,-0.043931127,0.13659476,0.118124135,0.05699862,-0.23557645,0.14765339,-0.27642304,-0.33393985,0.8776984
-0.6487213,0.59213716,0.20765041,-0.21294168,1.362088,-0.5010629,0.27858704,-0.56879145,-0.41218653,1.3799524,-0.970661,-0.33653843,0.66628844,1.1677766,0.050117992,-1.1700437,2.793948,-0.116029404,1.7928674,-0.04012873,-0.012925416,-0.021404512,0.1237994,-0.012168993,-0.5924094,-0.023864426,-0.15999542,-0.12337194,0.0690135,0.18161297,-0.07454596
-1.481059,0.018282682,0.4223538,-0.19045822,0.47321832,1.1276095,1.2663623,0.051379967,0.5832783,1.1015463,0.9689432,0.4780367,0.0061213123,-0.26772824,0.1802282,-0.24676917,0.83313787,0.03187947,0.2035499,-0.0043502226,-0.002400823,0.062469788,-0.11697869,-0.12557487,0.2678206,0.17670389,-0.27622038,0.114981934,0.084155336,0.15843219,0.24964769
0.042902976,-0.60269,0.5218564,0.12543632,-1.2526462,-0.5268424,0.107354954,1.2226777,-0.8018629,-1.6142535,0.04065884,-0.9351692,-1.1563997,0.09356859,-1.168629,-0.24559534,-0.4153257,-0.11536427,1.0754733,0.036633953,0.037916653,-0.06199515,0.12173823,0.011806262,0.17851995,0.22220628,-0.30839762,-0.61025774,-0.62142515,-0.145218,-0.23167849
0.3071577,-0.13710988,0.18085425,0.90839183,0.62503827,1.1695629,-0.510191,-0.66769487,-0.58396226,-0.17575036,-0.90187824,-0.71608466,0.67563426,-1.6638265,0.07229648,0.7302791,-0.96786404,0.22826831,0.6594061,0.017739818,-0.03847401,-0.04142998,-0.09950755,0.24443318,0.34466642,0.2674273,-0.10791478,-0.12946454,-0.2313037,0.031058814,-0.10533846
-0.13430607,-0.5543937,0.43415624,-0.4286585,-1.2778133,1.0395278,-1.3022016,0.2864864,0.56081,-0.9914799,0.7441143,0.57730776,-0.21711737,0.4868507,0.26814455,0.20180368,1.0593659,0.052644175,1.4139138,0.023313172,-0.042499788,-0.0070412755,-0.0749006,0.1078098,0.472943,0.033750746,0.25361687,0.32524854,0.4893621,-0.058410067,0.58130205
-2.2311625,-0.30616257,1.6494299,-0.23623312,-0.6580793,1.3384005,2.1492097,0.25041527,-0.44031507,0.29785475,0.22683065,-0.40938476,-0.24297008,-1.5216618,-0.3866721,-0.34917104,1.0510668,0.14328131,1.2140285,0.031010725,-0.044885114,0.026840627,-0.10827983,0.028327975,0.28852355,-0.0660874,0.09019665,0.1665155,-0.32543743,0.096081585,-0.07078705
-0.11474221,0.95691466,-0.52047086,-0.13545895,1.4021754,0.23337159,0.03907738,0.61466956,0.7223645,-0.80710626,1.0934396,0.8490467,-0.5223645,0.6543169,0.12601426,0.73688954,-0.14707881,0.16137038,0.17996608,0.05925619,0.023744307,-0.04342895,-0.08160486,0.0124385245,-0.49119765,-0.15485354,-0.006035878,0.32821876,0.19782467,-0.2517076,-0.07788025
-0.35102427,-1.0349263,0.4916317,-0.79372823,-0.5861535,0.43727604,1.4484202,0.37557968,-0.038172103,-0.28576785,0.05497758,0.08143921,-0.32846805,0.6462835,-0.3486751,1.5512125,0.9805435,-0.19561431,-1.4890648,0.013310209,0.053470075,-0.027898677,0.09934639,-0.2351023,0.24588235,0.026894446,-0.31500643,-0.48921534,-0.83566535,0.2645089,0.16358174
0.20203672,-0.45031852,-0.92759585,0.044367123,-0.0736832,-0.49484086,-0.43988466,0.45599273,-0.82466143,-0.419337,-0.34416926,-0.7340358,-0.33444268,0.4810802,-0.7082982,-0.7210025,0.1857562,0.054829113,0.87936616,-0.029736817,0.044214822,-0.04321733,0.14056972,0.045124106,0.31758335,0.023879562,-0.24379103,0.19358692,-0.3143626,-0.29986817,-0.89639914
0.30940682,-1.0880512,-0.6782979,-0.5855841,-0.8683082,0.35272163,0.8943837,0.50619,-0.577578,0.86836433,0.1426636,-0.5449586,-0.3491385,-0.37103412,-0.48014125,-2.539879,1.5756276,-0.7354242,0.17896466,0.012332246,0.050972812,0.015170939,0.6621391,-0.7390845,-0.25491932,-0.42990896,-0.5088127,-0.29471326,-0.62488693,-0.5401586,-0.516457
-0.15969095,-0.63485307,1.1857826,-0.3421445,-0.039656907,0.28393447,-0.39300656,-0.3372387,0.2785698,-0.45747486,-0.059308417,0.344167,0.27319387,1.160512,0.020646513,-0.25622857,1.9387006,0.08664939,0.35068566,-0.03695581,-0.05663172,0.059068754,-0.100274354,0.042515565,0.32534134,0.14543247,0.48008636,0.05603214,-0.012914297,0.35761756,0.51979595
0.10215451,0.56467646,0.10931,0.76849955,0.4298094,-1.1000475,-0.3095626,-0.11327568,-0.95854986,-0.031818956,-0.661997,-0.8117975,0.30500165,-0.35517794,-0.6221399,-0.16729264,0.5607013,-0.068992026,-2.1049757,-0.012615204,0.06090141,-0.03247375,-0.09153816,-0.2631458,-0.29941776,-0.15959214,0.2140133,0.1898027,-0.21580137,0.37540907,-1.2575961
0.4767444,-0.21870685,-0.0047390405,-0.45449737,-0.002023028,0.07679174,0.073594674,0.787104,-0.55811536,0.13733928,-0.16247897,-0.5416857,-0.8785191,-1.2043192,-0.67934036,-0.46949568,0.97484994,-0.10304257,0.42324892,0.06012766,0.0056915134,-0.01459983,0.07141698,0.10118481,0.0735162,-0.06552263,-0.10375553,0.19884406,-0.10643512,-0.08223193,-0.4512599
-0.70269173,0.42056325,0.12388187,-0.41931006,-0.5441378,-0.0002475464,-0.60995865,0.23206389,-1.1760806,1.9973483,-0.41610375,-1.3419775,-0.19183914,-0.22766852,-0.85914344,0.6178162,-1.971256,0.37861696,0.5622401,0.028002061,0.060780577,0.013858169,-0.23784605,0.42331886,-0.1440051,0.30877274,0.49718496,0.6744112,-0.16021688,0.0014764118,1.7787081
-0.916283,0.07545553,-0.014893053,-0.77718425,0.42954892,1.1589389,0.14973694,-0.17779619,0.26301798,-0.40370855,-0.21196827,0.27904582,0.34935555,4.8293796,0.22801404,3.7954433,-1.7368231,0.3399707,1.8738023,-0.0070389733,0.050952896,-0.017007709,-0.12873523,0.21780884,-0.030432751,0.21686661,0.0740255,0.26373062,-0.34270954,0.15496272,0.93506986
-0.094251044,-0.45580193,0.06217378,-0.017862901,-0.60903513,-0.2974447,0.1896264,-0.08083875,0.02735098,0.91644555,-0.513015,0.116478585,0.028955758,-0.037517652,0.13599242,0.44269708,-0.9655241,-0.5277754,-1.8688776,-0.015061617,0.014938608,0.048858143,0.3679396,-0.38257432,-0.24088214,0.016017884,0.08461285,-0.24581848,-1.0165716,-0.38918066,0.15713422
0.45959294,0.14414169,-0.6153208,-0.72479314,0.6057776,1.2675371,-0.7516591,-0.17383696,0.462144,-0.04429221,0.15417854,0.38600376,0.06464529,-1.8713005,0.4437493,-1.3218465,0.29512134,0.14814688,1.6701385,0.01434806,-0.0060061365,-0.05964835,-0.086721234,0.2778715,-0.02621707,0.19778493,-0.25819075,0.38801318,0.034834743,0.19147071,-0.42180905
-0.16810203,-0.48680195,0.048457123,0.07757131,-0.47241682,0.071991436,-0.14966482,-0.31422332,0.23830417,-0.51160616,-0.12555596,0.1312406,0.19368939,0.4287858,0.31279013,0.74102783,-1.303548,0.01742276,0.17587261,0.0068560094,-0.006743975,0.026840203,0.12123767,-0.1899212,0.09098418,0.1727832,0.07991763,-0.10404693,0.27821884,-0.102633715,0.14425413
0.0029527198,0.555795,0.15252419,-0.16451094,0.30062643,0.1606132,-1.0436628,-0.2741987,-1.1304526,-1.0356139,-0.93879104,-1.065545,0.25957736,0.808059,-0.397144,1.5511869,0.6390006,-0.35041475,0.71287173,0.03405609,0.017927706,-0.054482818,0.2450094,-0.07781158,-0.58100253,-0.29637718,-0.08528081,-0.27841812,-0.15210329,-0.07746597,-0.34509635
0.40232983,-0.24119061,-0.069399424,-0.25185126,-0.39366257,-0.28693843,-0.43692344,0.18423586,0.3920685,0.9182522,0.51301986,0.3099092,-0.19488032,2.1722105,0.5643856,-0.026249496,2.6999936,-0.07597544,0.43780896,0.022555277,-0.05668033,0.053327218,0.074258395,-0.12729098,-0.119187236,0.10841754,-0.09974235,-0.16217963,0.12248068,0.08900871,-1.2926182
-0.089062706,1.2031153,-0.8487179,-0.7973279,0.14679416,0.23933376,-0.07193332,-0.51572293,0.17032377,-1.9557422,-0.2236184,0.21511248,0.40772566,0.8608381,0.44206843,0.2922931,0.10841192,-0.0084587,-1.0343282,0.05390948,0.0033777133,-0.019134022,-0.12735361,-0.12817407,-0.37475273,-0.09491419,0.37712333,-0.34926307,0.8785833,0.11176479,0.47168615
0.6336835,-0.9033428,-0.25967604,0.16256966,0.0829915,0.039928485,-0.70889026,-0.5065509,-0.37580833,-0.10651551,-0.82048845,-0.36608228,0.40954536,1.2554526,0.07787385,2.4055254,0.42785087,-0.16882771,0.771897,0.032405183,-0.03805141,-0.012035377,0.1415784,-0.12107354,0.386107,0.06769265,-0.23469868,0.014900796,-0.28996727,-0.3399471,-0.5723175
-1.174073,0.36007974,1.9179159,0.029146321,0.5149236,0.7426418,0.4220841,0.4244056,-0.7352644,-1.9899936,0.16810733,-0.7325617,-0.3950806,-0.078673236,-0.9165493,-0.82036227,2.243218,-0.09636334,0.5204133,0.032003902,0.0316732,-0.031073764,0.07056766,-0.10757642,-0.07414917,-0.4924214,-0.27223054,0.005956558,-0.29040635,0.042290974,0.39107454
-0.47399586,0.31115702,0.58904105,-0.76882184,-0.17200476,0.522939,0.7550255,-0.15333536,-0.12022524,-2.311628,-0.31025013,0.0262096,0.25000203,1.3866152,-0.11836638,0.37686646,3.016687,-0.067560576,-1.2801139,-0.008125037,-0.0304638,0.052902825,-0.00030031847,-0.051401246,-0.255411,-0.120697305,0.4289733,0.038817253,-0.54204524,-0.0025787225,0.81057054
0.17433947,0.5699509,0.29905623,-0.20111051,-0.16947603,-0.31593427,-0.13629766,-0.12920268,0.7133268,1.1011233,0.702497,0.8081802,0.18134983,1.2592518,0.53500056,-0.60240906,-0.04653956,0.0147791235,1.7473093,-0.0039844364,0.01373364,-0.036481634,0.038937494,0.2308712,-0.24213454,-0.094729066,0.12103079,0.14727461,-0.1394342,-0.30531418,0.20172215
0.5468672,-0.50744694,0.14619333,0.7744334,-0.67990035,-0.4582538,-0.45956832,-0.9024164,0.06800396,-1.5740783,-0.5614458,0.037330173,0.82360303,-2.5096784,1.3872607,-0.99622357,0.43959942,0.08280462,-0.37325245,0.03147363,0.045459248,-0.062148243,0.033179335,-0.029339032,0.37913507,-0.05108336,-0.27599928,-0.2570696,-0.2717513,0.08244439,0.4983772
0.073633924,-0.38351092,0.14142306,-0.56550294,0.47277912,0.34658626,0.061821245,-0.7006978,-0.3149732,-1.8240441,-0.48903337,-0.22676247,0.7008709,0.77760595,0.023492517,0.6948511,-1.3252645,0.31002018,1.8447868,-0.008487046,0.01709982,-0.037858084,-0.010642682,0.25138342,-0.028304173,-0.122490175,-0.37781793,0.29448935,-0.2360284,-0.33584845,-0.40113637
0.4608149,-0.700744,-0.29107696,-1.1797124,-1.1045594,0.4050352,-0.58290327,-0.7223706,-1.2351949,0.24018571,-1.643265,-1.1852281,0.70768565,2.9550352,-0.42346504,0.4771803,0.7698141,-0.029742144,1.1770341,0.006224863,0.025443546,-0.017452605,0.03326809,0.03235381,-0.049039245,-0.044524703,-0.043793663,0.01846667,0.13193215,-0.015811857,0.120463595
0.6631547,0.4882156,-0.4256221,1.5998471,-0.35472706,-0.5092427,-1.0520896,-0.82712245,0.14650872,0.20263259,-0.583071,0.033783972,0.8248902,-0.9491094,0.7513465,-1.5252137,0.13484752,0.0994215,2.7452617,-0.03893228,0.012483567,0.00521823,0.10179499,-0.15931429,0.168154,-0.07569717,0.078396395,-0.57377803,0.17507029,0.2065647,-0.053738993
0.5605122,-0.029130636,-1.2925591,-0.17838848,1.5304317,-0.03156849,0.7320492,0.399367,-0.3569157,-1.1839736,0.2851366,-0.26076743,-0.63163555,-0.31058642,-0.7513664,-0.46401608,-1.1273836,-0.09930375,-1.5460651,-0.062179983,-0.031721905,0.017170452,0.29577413,-0.24036202,-0.5016305,-0.40235862,-0.59246624,-0.25009108,-0.07700025,-0.2603303,-1.3275479
0.40504488,-0.0096232975,-0.8167051,-0.067708015,-0.8911254,-0.7510956,-0.33463082,0.93052477,0.4445462,-1.4260902,1.4618464,0.5227632,-0.9829283,-0.197838,-0.17269005,0.45119864,0.23955369,-0.19654855,0.0036140801,0.041846298,-0.016247086,-0.0493661,0.28372005,-0.45354527,-0.44649598,-0.009475265,-0.042953573,-0.50625324,-0.021236405,0.051561777,-0.23623195
-0.010375125,0.07726033,1.1906215,0.80499387,-0.31588387,-0.97292227,0.8826609,0.062111627,-0.21012855,-2.3301382,-0.12105813,-0.16130313,0.0928525,0.67940885,-0.23464385,-0.8823109,-0.1344648,0.05166081,-0.8806054,-0.050029032,0.032876052,-0.0039060116,-0.07307213,-0.05631096,0.04696452,-0.2790574,0.32328475,-0.3671915,0.18471697,0.15538584,-0.26012963
0.47099045,-0.36305955,-0.79755145,-0.032264695,-0.29048267,0.17783101,-0.5760382,-0.62527883,0.68732995,0.1375049,-0.025106383,0.4913882,0.6343479,-1.3078493,1.0693519,0.22487588,-0.36356816,-0.51259726,0.8728124,0.012295753,0.014198601,0.040713087,0.5271486,-0.26290858,-0.38543802,-0.27342516,-0.6201999,-0.1867022,-0.008091017,-0.5582612,-0.22082724
0.73659,-0.15020587,-0.7745761,0.18640177,-0.1293975,-0.26326287,-1.0655239,0.6345152,1.0793102,-0.46346986,1.3996046,1.0883708,-0.57521087,1.683064,0.43588647,0.6693704,1.8055297,-0.5341509,1.5206786,0.009109363,0.004690334,-0.03301432,0.3557738,-0.35307032,-0.11102578,-0.022031223,-0.24291396,-0.6109326,0.15983817,-0.3832338,0.4323754
0.50588703,1.1288335,-0.4352,0.28241602,0.54341114,-0.69885004,-1.3352569,-0.47745958,0.9491259,-0.061264858,0.25122458,0.9928194,0.37189186,-0.27648452,0.7239214,0.58898884,-1.2786677,-0.09809592,-1.1377715,-0.026611552,-0.057797372,0.061882287,-0.0510779,0.068178624,-0.5860127,-0.24220984,0.20679247,0.1082411,0.4448613,0.054839186,-0.096887894
0.09009528,-0.20099594,-0.3972304,-0.20980825,-0.4530393,-0.113986835,1.3456498,0.039195683,-0.48202416,1.3983709,0.072568595,-0.4451016,0.045418903,0.7041232,-0.35472384,0.8181745,1.7091205,-0.10024966,-0.07956465,-0.03017763,0.004717022,0.056170337,0.10665265,-0.108852394,-0.0962312,-0.09995054,-0.10736085,0.21725011,-0.05210302,-0.23750913,0.3351612
-0.27494955,0.03234278,0.1152,-0.04224362,-0.7220791,0.17503028,0.15578014,-0.28610325,-0.26625648,0.59810144,-0.38744366,-0.208208,0.32348993,0.7371338,-0.04825025,1.1729767,2.1224227,-0.21757108,0.8412968,0.011989944,-0.036752068,-0.051301688,0.1659589,-0.31515595,0.010439759,-0.248215,-0.084741905,-0.6430181,-0.5962755,0.18820693,0.6863422
0.5228695,-0.03808937,-0.5193423,-0.015865989,-0.51336014,-0.5276702,0.6666858,0.5329483,-0.46842033,0.08493396,-0.117258444,-0.53728694,-0.5553528,-0.22277738,-0.8014344,1.3889614,-1.2996343,0.09238164,-2.3361676,-0.019361086,0.0060946867,0.043159023,-0.1385038,-0.11117707,0.30549654,-0.0037580314,0.5706344,-0.65626305,0.31759924,0.07954842,0.07115012
0.50333905,0.44609392,-0.49278727,1.4157029,-0.20086992,-1.170189,-0.7036774,-0.04105011,-0.59244627,0.10814383,-0.5957839,-0.65036243,-0.08799116,-0.2612266,-0.37255546,0.04487624,-2.0803888,-0.12657435,-1.0896714,-0.024957784,0.027649842,0.037887648,0.310879,-0.19652605,-0.67467463,-0.42102048,-0.28860006,-0.09290185,-0.7751427,-0.29541615,0.11927245
0.64108866,-0.40979162,-0.28373876,1.8652035,-0.4394749,-1.235788,-0.6415582,0.05873241,-0.4298487,1.4859605,-0.22782812,-0.422094,0.067546904,0.6340742,0.22862297,0.23039255,-0.2530162,-0.07243724,1.1229664,-0.033350907,0.0069477335,-0.0029242858,0.06075509,0.043559868,0.7171587,-0.104794435,-0.4921986,-0.4942204,0.22363628,0.06901661,-0.7456968
0.94323426,-0.44616973,-1.1673208,-0.6039877,-0.65102386,-0.31387815,-0.7399798,0.5387475,0.24372764,-1.988395,0.6685527,0.30899614,-0.51897097,0.16702928,-0.22647533,1.5416852,0.04734438,-0.2600453,2.1035728,0.028407179,-0.05617273,0.056711033,0.36045298,-0.33097044,-0.1669856,-0.12642278,-0.4823956,-0.018943049,-0.3106224,-0.5099924,-0.09294032
0.21746549,-0.48011413,0.12804434,-1.0435922,-0.9885758,0.4787842,-0.24294499,-1.0807447,0.1538841,0.6447537,-0.87430495,0.23158593,1.2092797,-0.8714596,0.73315775,0.29317486,0.93857354,0.006775975,0.73172444,-0.020863146,0.01752939,-0.055920437,-0.06555693,0.17993036,0.11470623,0.18015653,0.06741773,0.24342503,-0.1229952,0.13412112,0.98994404
-1.1390282,-0.41964573,1.4747926,-0.56306374,-0.87426025,0.59495544,0.31955948,0.45454934,0.75556254,-1.1488204,0.6181156,0.73842716,-0.43417516,-0.061173547,-0.008940546,0.56743217,-0.8030207,-0.0090290755,-0.74144316,-0.024745084,-0.039983317,0.036188617,0.08070067,0.054932483,0.06943887,-0.14584564,-0.07624659,0.43527082,0.0078926105,-0.21150379,0.37601495
0.44735473,0.21106759,-0.5986057,-0.5383291,0.36949086,0.12383095,-1.0722418,-0.37949368,-0.086899854,-2.487385,-0.051078603,-0.098754674,0.48476678,1.3215694,0.3470488,0.7515437,1.8688958,-0.021126218,1.5294847,-0.038052246,0.04989014,-0.02493751,0.13787271,-0.26975402,-0.4758351,-0.29837716,0.16916305,0.49473915,0.055901185,-0.31553882,-0.9295023
-0.2784297,-0.19135405,0.4442843,0.1831953,-0.4158252,0.0072693704,-0.5213489,0.3299055,-0.8451781,-1.9223734,-0.09638517,-0.77877355,-0.3117885,-0.341208,-0.21467872,1.1800083,0.7696988,-0.15309061,0.027758233,-0.030716784,-0.013641395,-0.041786924,0.02233245,-0.010584036,0.19293201,-0.28538975,-0.21655825,0.54773563,0.4044356,0.105419226,1.0847554
0.5786852,-0.69826233,-0.52179474,0.16737543,-0.28727403,-0.018196115,-0.559678,0.26390514,-0.75633764,-1.1764418,-0.15977484,-0.68052053,-0.28703836,-0.20591423,-0.22042242,0.06831614,-0.09055398,-0.08123482,1.5880113,-0.0034549087,-0.060425602,0.004664302,0.108432025,-0.09837383,0.47901526,0.32538357,-0.28065294,-0.1668784,-0.10950039,-0.2031395,-0.29681408
0.36724186,-0.6030586,-0.4712888,-0.4486574,0.315155,0.034962784,0.6651422,-0.07010407,0.30149072,-1.451297,0.30935413,0.41041735,0.009617631,1.0411267,0.56066483,-1.0209761,1.6438565,-0.088073306,3.9294357,-0.011586294,-0.051282577,0.043845996,0.29724872,-0.06337448,0.03196426,0.11046244,-0.0008411411,-0.15719004,-0.24990988,0.29386654,-0.65311617
-0.79813087,0.068664975,1.0021106,-0.36250505,-0.26247495,0.65224093,1.5658127,0.56871754,0.34863353,0.061239485,0.5506707,0.39476275,-0.66128635,-0.32851192,-0.431875,0.9172742,-1.7628373,0.027479773,-0.38187894,-0.058960512,-0.022463515,-0.029017478,0.056826614,-0.053049285,0.046722226,-0.28692827,0.16322504,0.08011308,-0.26345494,-0.37438697,0.2515547
-0.66062444,0.768592,0.046540223,-0.63217705,-0.049561102,0.4356504,0.2621172,-0.6038515,-1.112134,-1.2418631,-0.78687173,-1.084484,0.32889983,0.7073606,-0.80782545,-0.75746024,2.3362145,0.32241282,0.5025255,-0.050802425,-0.018251896,0.034392744,-0.25790745,0.15785196,-0.2541909,0.12004088,0.20168991,0.6493035,-0.36087742,0.5003928,-0.61773366
0.2527199,-0.16888694,-0.46871433,0.057019133,-0.6506893,-0.84225845,-0.12871715,-0.45504603,-1.3505442,-0.95108974,-1.2644026,-1.3568143,0.43060923,-0.5168266,-0.69773614,2.9823346,-0.44045663,0.12770037,0.93306786,-0.035956554,-0.026087299,-0.0052525178,-0.027900878,0.18626462,0.09349983,0.3269736,-0.05843944,0.46154237,0.38502708,0.02202494,-0.24889235
0.5149189,0.0029753512,-0.49517375,0.762295,0.18587875,0.47187087,-0.45362297,-1.1405953,0.2981164,1.6262666,-0.606615,0.22853531,1.2051865,-0.869055,0.9831058,-1.4079636,1.3816832,0.2321897,2.749589,-0.053199492,0.018570833,-0.007926621,-0.11372505,0.10641354,0.31322834,0.0653314,-0.17837378,-0.37523377,0.34540367,0.030436875,0.4192718
0.99249995,0.094291575,-0.7115369,-0.16517457,0.68933135,-0.20684394,-0.18300812,0.43409163,0.3675197,-0.47738025,0.5058366,0.44348374,-0.38976356,0.023849113,-0.39337832,0.61172676,0.30434665,-0.22535661,-3.6882505,-0.052015312,-0.0054291263,0.057398707,0.03269737,-0.109394066,-0.32910493,-0.027341891,-0.21000414,0.40586597,-0.38590196,0.074170925,0.43191138
0.2911138,-0.24562879,-0.5219203,0.11254774,0.37652916,0.40327626,-0.67854077,-0.74639237,-1.366151,-0.374103,-1.4604652,-1.3011932,0.6508894,-1.5241781,-0.4773936,2.2697008,-1.2380728,0.0928131,-0.46320704,-0.062425524,-0.019836642,-0.060933635,-0.04299953,0.2112566,-0.14148453,0.3017145,-0.26880807,0.04595936,0.38945168,-0.061740406,0.4730249
0.4391209,0.34523648,-0.32643557,0.056396596,-0.77399963,-1.3267013,0.3013807,0.061725687,0.06818017,-1.7899778,0.016271101,0.24627462,-0.09689934,-1.0659852,-0.07577957,-0.535276,0.030401876,-0.24161108,-2.8683288,-0.059359387,-0.021241643,0.061307356,0.022247046,0.08588388,-0.6002354,0.10429403,0.16199885,-0.070778295,-0.21205081,0.22785433,0.077271625
0.3833626,-0.26171932,-0.54342055,-0.5070694,-0.33157614,-0.26370934,-0.10021133,-0.308222,-0.22298954,-1.6016945,-0.34209245,-0.06762229,0.31672445,0.5156895,0.09979607,-0.6223316,-0.44883916,-0.39760536,-2.0695033,0.021185078,-0.042105183,0.03513059,0.20085862,-0.18900965,-0.030935546,-0.123210125,-0.38038537,0.13847366,0.3411071,-0.10046262,-0.09553903
0.28506756,0.2905999,0.15159425,1.0254908,-0.10547164,-1.0799792,-0.6477333,-0.9140905,-0.23575725,0.399635,-0.70982254,-0.16495362,0.9971247,-1.3240819,0.5789088,-1.0685188,1.2432295,-0.2428866,-1.4393185,-0.03775981,0.057643466,0.023425527,0.08403932,-0.26625663,-0.09125873,-0.26842493,-0.27762464,-0.5986488,0.28396693,0.14627738,0.12615743
0.125708,0.775706,-0.18617156,0.8339782,0.023595734,-0.5331281,-1.0699987,0.33333817,-0.47890192,-3.3235037,-0.040565573,-0.45505118,-0.3547835,0.65432835,-0.35193837,-1.2543861,-3.211028,0.20794046,-0.43688622,-0.017233811,0.021426119,-0.058533326,-0.13731511,0.23164299,-0.29160362,0.08889341,-0.14470416,-0.043299742,0.46852228,0.11476397,0.46361873
-0.49378437,0.20689246,-0.13978198,-0.68301225,-0.6486748,0.46058846,0.8211713,-0.7055516,0.32966352,-0.3571336,-0.68694115,0.27772105,0.72173005,-0.76976657,0.49063143,-0.907651,0.4363162,0.24119194,2.6577098,0.009420551,0.049553454,0.011664294,-0.021378754,-0.027138788,-0.44133857,0.050381362,0.4628215,0.11155318,0.16559216,0.49042365,-0.76451534
-0.2059857,-0.76668483,0.81460637,0.2147464,-0.0700716,-0.117584586,0.42382038,-0.73351145,-0.2856452,0.83741647,-0.65830404,-0.2921768,0.643235,-0.493011,0.4316607,-0.07024656,0.8240202,-0.07600843,0.3271127,0.052823216,-0.05817739,0.018991627,-0.017260114,0.007839554,0.37031716,0.0688249,0.14048848,0.13835004,-0.3535009,-0.07786404,0.53275996
1.1913837,0.40031603,-1.5736539,1.3491077,-0.6836295,-1.0825348,-0.73109895,-0.0811647,-0.0322278,1.3138874,-0.5200574,-0.14603442,0.19287208,-0.15055779,0.33547705,-1.2441899,0.77595186,-0.14945997,1.8308522,0.037747584,-0.009657979,0.027523786,0.3110312,-0.30829674,0.09941404,0.033211857,-0.020538537,-0.19280656,-0.15444177,-0.20638768,-0.6719455
-0.054994464,-0.06024677,-0.13973063,0.4407609,0.9291147,0.6744093,0.121772185,0.9589408,0.07485574,0.45360184,0.67626256,-0.037126303,-0.923333,0.7124584,-1.1695894,2.1250677,-0.15314798,-0.12696895,-1.6725019,-0.01524125,-0.040557787,-0.04411354,-0.034038857,-0.29017702,0.1441164,-0.31060356,-0.12277363,0.29555684,0.7478046,-0.08532752,-1.146682
0.24012251,-0.4813492,-0.5034921,-0.88937855,-0.7698815,-0.083804816,-0.10164103,-0.28031603,-0.9109667,-1.7963971,-0.9123444,-0.7844215,0.3846209,1.0825589,-0.69438654,0.26582953,0.8119929,-0.42867425,-2.6818907,-0.0039058179,-0.008457258,0.052413963,0.18110631,-0.1199746,0.06316678,0.07627299,-0.16908431,-0.41648135,-0.49188405,-0.020591924,0.78252584
-0.32398027,0.16678621,1.3388339,0.6142608,-0.72509515,0.31265938,-0.8269908,-0.3330856,0.21208219,-1.5068724,-0.13998048,0.32325962,0.4328374,0.025799813,0.4756168,1.1518967,-0.7555409,-0.6896089,-3.8972366,-0.059370004,0.02906309,-0.010202482,0.11183409,-0.4690841,-0.49918485,-0.5815402,-0.010437773,-0.816419,0.3630606,-0.33358085,0.79534364
-0.4350435,-1.0320066,0.49884918,-1.068211,0.5191186,1.2787012,0.36912116,0.36551833,-0.010639751,-0.43281257,0.2960018,-0.14937355,-0.43736207,0.7775794,-0.57536745,3.237863,-1.5628953,-0.05441366,1.2180675,-0.0071496964,0.028265953,-0.029833555,0.17397292,-0.26457557,0.2880663,-0.35469788,-0.26368645,0.09758522,-0.2760065,-0.5047138,-0.2177718
0.44451016,0.12204886,-0.2919551,0.057133198,-0.2626958,-0.55373037,-0.82764757,-0.26847288,0.21656589,-0.45405787,0.028934438,0.15127832,0.26725534,-0.027112473,0.27694392,1.8664882,1.5472813,0.12277675,2.129737,0.020001665,0.06063714,-0.031910032,-0.07280852,0.20738669,-0.030108811,0.050285745,-0.43351153,-0.025131479,-0.12421788,0.094093174,0.0011327475
0.1938777,0.30005988,-0.71294886,-0.55305,-0.8891789,0.64978987,-1.3526175,-0.9841911,-0.105068594,-0.25549248,-0.43215007,-0.07586212,1.0631537,0.28780076,0.6885174,0.9298607,1.9841597,0.06916582,2.1946678,0.011592761,-0.028477423,-0.040980265,0.02180752,-0.098480605,-0.3058158,-0.22162332,0.27302468,0.25783157,0.0149175925,-0.17594661,0.68125767
0.0468093,-0.620276,-0.6877631,-0.66920847,1.201193,1.1256499,0.5158227,0.41168705,0.3212823,0.48535007,0.49512315,0.31114388,-0.26687425,1.8099339,-0.16185704,0.51183784,-0.8245481,-0.1622039,0.04766442,0.049352773,-0.049331084,-0.008795187,0.18055646,-0.26176098,0.17389984,0.078648284,-0.3216572,-0.11752033,-0.080884255,-0.30661306,-0.33554086
0.17999266,0.22705059,0.8418579,1.0208981,-0.28647473,-0.88010925,-0.35263148,-0.6036151,0.6139218,1.1172645,0.043935567,0.51295495,0.5122062,-1.9405816,0.7235209,-0.9069321,0.05896887,0.09397731,1.8388944,-0.0014384314,0.060810484,0.043040343,0.07647495,0.13454212,-0.33658975,-0.05419155,-0.10867772,-0.14539662,0.299758,0.10868097,0.1384387
-0.49582282,-0.22849005,0.3114274,-0.17762378,-1.2345878,0.10440292,-0.35267186,0.5344804,0.16088524,-1.6678218,0.39079487,0.16378416,-0.6425461,-1.0463152,-0.20767845,1.3944279,-0.09498883,-0.11170917,0.39075553,-0.048528805,-0.019372918,0.006203279,0.010965518,-0.268573,0.02845094,-0.27391365,-0.019221693,0.41049966,0.09496605,-0.13262574,-0.20336841
0.730953,0.7512021,-1.7138398,-0.13330215,1.3471631,-0.1742536,0.34135684,1.236986,-0.36890185,-0.268076,0.44454604,-0.39977863,-1.1705692,-0.18776567,-1.2257566,0.46916527,-0.41198337,-0.28534338,0.67221695,-0.017643474,-0.0044003204,0.022037186,0.2248668,-0.26451835,-0.3324795,-0.3252035,-0.48501956,-0.2525552,-0.37535164,-0.2336613,-1.0412076
-0.13650706,-0.14716232,0.3699485,-0.9346656,-0.14721137,0.15680113,1.050806,-0.0974368,-1.1267383,0.40932876,-1.0349708,-1.2190909,0.014498732,0.6123613,-0.7491095,-0.8763251,0.9364063,0.2551589,1.0546668,0.05423575,-0.019403934,0.029798731,-0.09305906,0.11869118,0.23704076,0.1600731,0.06262019,0.1931472,-0.3434924,0.12182855,-0.6648748
-0.54616636,-0.024795663,0.62923205,-0.63271326,-0.24913228,0.15955706,0.042559892,-0.46735868,-0.1576844,-0.5752115,-0.59236383,-0.08291872,0.47517723,0.4652226,0.16173656,-0.86495525,1.9333149,0.07764452,1.2642895,0.034974106,-0.0233289,-0.04639016,-0.047038656,0.20924583,0.0069017243,-0.047512617,-0.060487226,-0.354938,-0.03785869,0.66667104,-0.03373485
0.19189742,-0.40891442,-0.61962533,-0.992522,-0.14889441,0.4657442,-0.17076762,0.08052504,0.5738483,-1.1649123,0.19040705,0.5585707,-0.06890996,0.25593588,0.22234659,0.9434147,-0.6269085,-0.5028182,-2.173247,-0.031568654,-0.04296699,0.024722792,0.3376696,-0.42997035,-0.3438429,-0.48996446,-0.19143496,0.11758517,0.13513157,-0.198443,-0.16449392
-0.57672393,-0.11491981,0.24560034,0.6042475,-1.2494736,0.21457636,-0.34821475,0.8809266,0.40490252,-0.9260189,0.9463719,0.3901126,-0.7470223,-0.2100208,-0.23257451,1.7295904,-0.15024972,0.03816075,0.09184706,0.0037488714,0.058395505,-0.046632774,-0.09800981,-0.09882023,-0.030244367,-0.13020699,0.5135287,-0.30068722,0.19774386,0.10421769,-0.11626863
-0.5700478,-0.4647295,-0.014740184,-0.6206786,-1.2146728,0.5113573,0.25019908,-1.536698,0.9843994,0.37259087,0.20107295,1.0385222,1.4750274,-1.7084073,1.3890182,-0.3104594,-0.021015298,-0.036012385,0.62683535,0.030434005,-0.0014110878,-0.050789148,-0.0044821342,-0.12569304,0.10697812,0.1599148,0.31609073,0.16103193,0.00057391,-0.026626237,0.6038067
-0.10142535,-0.37504733,0.38558182,0.502978,-0.33265817,0.056555074,0.5057035,0.1826786,0.06296422,-0.0056447093,0.030042028,-0.07501813,-0.22613326,-0.65795034,0.22906017,0.21202298,-1.4448124,-0.28176165,1.2481095,0.006210491,-0.041801482,-0.05957616,0.37786832,-0.22784454,-0.26304722,-0.21251407,-0.5613278,-0.24856782,-0.42628074,-0.27708116,-0.53550035
0.49988234,0.52156115,-0.4385318,2.4207041,0.12468669,-0.51093215,-0.20279142,-0.13981707,-0.25811648,-0.24237649,-0.47694248,-0.32876998,0.084917136,-0.9545754,-0.018842345,-1.0136759,0.85345125,0.3240532,1.4820279,0.05727464,-0.03332758,-0.037360147,-0.17073846,0.2200036,0.30292124,-0.08610162,-0.15667957,-0.07206242,-0.4873069,0.20616476,-0.44869953
-0.40913707,0.18950735,0.9047581,2.0606842,-0.6243885,-0.3723034,-0.83986235,-0.4893753,-0.06707542,0.3304456,-0.24295168,-0.097911075,0.49328604,0.3084681,0.5434435,-0.14233896,0.39732996,0.09555325,1.7049047,-0.051969245,-0.032637753,-0.0401411,0.0007039906,0.06682453,0.38357955,-0.08689062,-0.0009803812,-0.019937646,-0.05476313,-0.003262364,-0.65694296
1.1030126,-0.036024332,-0.5626109,0.17493494,-0.7026091,-0.8854512,-0.9242248,-0.42358157,0.9975336,0.94461495,0.27136523,1.1436908,0.41366336,1.1624085,1.0541385,-0.5762656,0.0019133661,0.007910278,0.13465536,-0.031505965,0.017005183,-0.013148561,0.065410584,0.052391637,0.010846561,0.10920919,0.39726388,-0.49913937,0.039402116,0.01877007,-0.27358967
-0.656276,-0.61834437,0.17911078,-0.72348946,-0.21436003,1.220721,0.14029793,-0.06734268,-0.03420588,-1.3564131,0.053020496,-0.13148567,-0.022395352,0.21479201,-0.24082728,1.3713905,2.1629,-0.21268141,1.6240143,0.0049479976,-0.00038315356,0.054563858,0.18257056,-0.17502809,-0.027178412,-0.42101,-0.9483953,0.5673165,-0.92595226,-0.49935326,-0.48467803
0.4264903,0.3912411,-0.081774995,0.45311013,0.91835666,0.7213983,-0.8304516,-0.28007355,-0.10119597,-0.042272728,0.21868601,-0.11024224,0.33612996,0.37249148,-0.2824129,1.1487011,-1.620816,-0.38655856,-3.7008548,-0.0023883358,0.0174914,0.0061841607,0.024295188,-0.34229907,-0.5373965,-0.29141107,-0.11783744,-0.46028608,0.518976,-0.30279616,0.29433015
0.23254141,-0.5545337,0.6527857,1.3281447,0.6418376,-0.13558792,-0.6933017,-0.6672735,0.33352265,0.9967741,-0.04277392,0.23123252,0.659329,-0.93274355,0.8521008,-0.84707606,1.1541506,0.26753342,2.6114395,0.049265966,0.003974661,-0.002118431,-0.118932985,0.3056894,0.566717,0.24512562,0.25438082,0.26827243,0.8088658,0.32078618,-0.003516225
-0.44014025,-0.44408223,-0.118249856,-0.9828462,0.44000107,1.4023798,0.30241168,-0.17345163,0.5365389,0.7349986,0.4091548,0.585204,0.35127878,0.94112366,0.31296232,0.8272361,-0.2252093,-0.11216057,-0.34051687,0.026793927,-0.005352184,-0.031923667,-0.031199021,0.17159602,-0.23901756,-0.008658028,-0.2159438,-0.13019004,-0.0844959,-0.42608398,0.8353395
-0.11997885,-0.47841218,0.48080754,0.30804005,-0.48371625,-0.31262097,-0.27440637,-0.9941647,-0.58158886,-0.8648475,-1.25676,-0.5902478,1.0197477,-0.9396038,0.17413884,-0.20646742,1.672349,-0.07553386,0.530773,-0.036936782,-0.04109613,-0.010923125,0.1703375,-0.3039369,0.020966267,-0.4075014,-0.037660245,-0.042598266,-0.41984716,-0.25066704,-0.7007674
-0.4093542,0.0937592,0.046787728,-0.93228686,-0.38667893,1.0031134,-1.4298028,0.163808,0.3025431,-0.47593677,0.08467636,0.3298936,-0.1240593,1.5090598,0.16234834,0.13640025,2.078509,-0.12761168,0.23227093,-0.033021502,-0.05493673,0.05159907,0.00079452025,-0.12792441,-0.29833055,-0.26375067,0.117008895,-0.004671425,0.4938238,-0.087677866,0.12221189
0.10301084,0.4442847,-1.0702418,-0.71486205,-0.058901872,-0.59571517,0.09764996,0.6024469,-0.2053995,2.2365499,0.3361373,-0.21554476,-0.48467752,0.09406381,-0.44299644,0.31529105,2.36387,0.051880926,-0.44398427,0.043605357,0.033093974,-0.019236863,-0.08192938,0.08640287,-0.08656912,0.20579161,0.054232202,-0.29534808,0.34962043,-0.08661329,-0.12939991
-0.25730082,1.4275305,-0.8884735,-0.2934019,1.4464433,1.0100701,-0.08953319,0.092756286,0.18925248,-0.7304486,0.2921488,0.24165803,-0.19120128,-0.18605565,0.36611506,-1.7227951,1.2138413,0.22611533,1.7632804,-0.013803139,0.05173765,-0.031225465,-0.13483372,0.26819652,-0.118116096,0.004689419,0.5721641,0.61051196,-0.14329962,0.11564427,-1.0993197
0.3294717,0.11555979,-0.6260164,-0.21384047,1.1056728,0.50201654,0.53867584,0.14073701,0.8232152,0.37787378,1.0052404,0.7337062,-0.23480372,0.5810091,0.49288994,-0.3720505,1.6192977,-0.07513598,3.4968834,0.035684727,0.032359503,-0.0013482049,0.15949959,-0.06339246,-0.3013202,-0.17826921,-0.46577567,-0.15184027,0.21364674,-0.22211632,-1.0177323
0.81754714,0.10396463,-0.79912454,0.36125523,0.70393246,-1.3081474,0.527468,-0.57408184,-0.027895087,1.1029236,-0.35969073,0.0038107138,0.70192057,0.58916026,0.5508196,0.4878333,0.14305049,0.047211044,2.9749317,-0.008531742,-0.01825688,-0.042062044,0.08755992,0.016003434,-0.0041434886,0.040573493,-0.36705118,0.1595351,-0.2436926,-0.11250255,-0.31175458
-0.3077704,-0.03558794,0.069680706,-0.18400322,0.48022062,-0.13455032,0.64914197,0.30966055,0.23202762,0.32490277,0.3454232,0.22296306,-0.29266378,-1.8215333,0.028240714,-0.48334566,-0.20817192,-0.2246426,-0.30596536,-0.03830708,0.005905755,0.053186074,0.15361245,-0.14426787,-0.3207165,-0.4655638,-0.5582688,-0.2656764,-0.051148433,-0.15524079,0.0072050015
0.86239594,0.37104753,-1.1099256,0.6940451,0.23243989,-1.2407721,-1.0031554,0.07675054,0.033486836,0.72698045,-0.10787778,-0.04118787,-0.201056,-0.6499747,-0.0032460687,-1.1267518,-0.19905992,0.0817115,0.47765332,0.0013078004,0.043980137,-0.059281796,0.0855035,0.0053598885,0.029051002,-0.03657117,-0.018807,-0.411011,0.48532385,0.059536126,-0.2000698
0.29250082,-0.34526625,-0.16641282,-1.0423723,0.34162354,0.87895346,-0.34845147,-0.29685923,-0.41086853,-1.2900414,-1.246292,-0.43551022,0.42104053,1.4273677,-0.31517965,0.86826485,1.8466419,0.11857735,0.875035,0.027762726,-0.03517776,-0.035186842,-0.14863345,-0.048781242,0.32564625,0.28086454,0.10285654,-0.44589922,0.20380634,0.2838734,0.94949883
-1.5890807,0.19898948,1.8092273,0.2532358,-0.630962,0.6187904,0.08004094,0.15631546,0.64699954,0.4139365,0.9904663,0.78044003,-0.22763306,1.0474479,0.2763802,-1.1722604,0.3618038,0.20417789,1.2880597,-0.053194612,0.002922058,-0.04692267,-0.19004156,0.35507855,0.03968265,0.14051737,0.48141643,0.32677478,-0.024199046,0.32094732,0.35915497
0.50267947,-0.54266053,-0.077071324,-0.6278866,-0.33140406,-0.42799476,-0.19226255,-0.33349192,-0.27636114,1.1919165,-0.49803552,-0.2915188,0.39150104,-0.011268517,0.019878602,-0.1911283,1.7224697,-0.33091047,-2.1608105,0.0040734857,0.018769585,0.053337708,0.2170104,-0.13598576,-0.12504523,0.13066757,0.030972846,-0.4196504,0.23267686,0.04743052,1.529183
-0.5365201,-0.1609726,0.38741636,0.1405356,0.6087698,0.19908966,-0.12975721,-0.45482135,0.46118715,-0.9697689,-0.036152035,0.4877475,0.5825819,0.65728575,0.5272571,2.0562,-3.1821213,0.17956987,0.4220157,-0.03520847,-0.01761569,-0.056232587,-0.05673975,0.19972397,-0.15073106,-0.05497802,-0.33464444,0.40646446,-0.06474193,-0.10146476,-0.676671
-1.9291929,0.33556163,2.5801015,0.3041627,-0.36946854,0.8993717,0.42181304,0.26708496,-0.36307383,-2.0104585,0.31400752,-0.36800233,-0.2755224,1.5946249,-0.5531315,-0.5566201,1.8755021,0.2895132,-0.8344245,0.023851126,-0.016550206,-0.0065514147,-0.25011918,0.08098715,0.3009418,-0.3095272,0.03478004,0.21093486,0.30971426,0.04867028,0.9548781
-0.10114053,0.1338519,-0.17548066,-0.6517374,0.17311089,-0.06610622,-0.6441154,-0.25057796,0.15016028,0.48741582,-0.32114074,0.24845104,0.22965999,0.7070598,0.2200972,0.71353436,-2.0178924,-0.03945385,-1.5556941,-0.029541075,-0.017476961,0.062384598,0.029958196,-0.14161544,-0.38868102,0.06890712,0.19610699,0.17316835,0.13236548,-0.3494446,0.9744501
0.18181728,0.013415814,-0.63583076,-0.4496435,-0.14020057,-0.27429292,-0.6855128,0.62883765,-0.6509312,-1.28977,0.3376652,-0.48716456,-0.6256471,2.7570946,-0.6704228,1.0098325,1.9209572,-0.57991356,0.7749386,0.04076843,0.048704863,0.02973266,0.37115142,-0.52293515,-0.17904095,-0.54642814,-0.6707298,-0.14276291,-0.40366498,-0.21630386,-0.52394116
1.0060376,-0.21608718,-0.19252183,1.0777111,-0.36648637,-0.63520896,-1.6338503,-0.29229757,0.6298757,-0.56400377,0.3194931,0.4939952,0.2312531,-0.107530974,0.2157409,1.3376452,-0.847877,-0.19185983,1.0466623,0.061164163,-0.028599463,0.02128677,0.14320476,-0.3178068,0.4046328,-0.19343531,-0.28042856,0.20167707,0.47122175,-0.37522626,-0.57697034
0.5371442,-0.47770676,0.71615255,0.17413828,-0.46841496,0.07189102,-1.3267894,0.1759818,0.30125806,-0.86050344,0.76206505,0.18309315,-0.27510652,1.2345034,0.44926345,-1.1467358,3.2432587,0.1967808,2.7706304,0.044161253,0.01435452,-0.00910531,-0.07940834,0.06813031,0.60039467,0.089656256,-0.11500243,0.38310528,0.17025793,0.14592971,-0.36619183
-0.31095135,-0.047667567,0.14972703,-0.11658811,-0.3928895,-0.18552646,-0.62406266,-0.48724887,1.1887356,0.1473415,0.06538244,1.1674131,0.5044797,-0.5751486,0.9686211,-0.23472635,0.3689049,-0.07463252,0.060960036,0.0326266,-0.05286482,0.057625107,0.11825952,-0.055140547,-0.34799317,-0.26754054,-0.123791024,0.15362673,0.077008456,-0.21753986,0.747445
-0.5780244,-0.8690274,1.7863181,-0.14588569,-1.4015572,0.5436956,-0.94767016,-0.5089593,-0.0058913347,0.57529163,-0.07762675,-0.05614493,0.43218067,-0.17355745,0.1913165,1.0306515,-0.1517369,0.04123768,0.20030177,-0.039706714,-0.001301907,0.03694109,-0.09435363,-0.020810703,0.42290518,0.19461489,-0.004645698,0.15260911,0.32407507,0.010969335,0.0487906
0.4222892,-0.8335854,-0.30105466,0.031330284,-0.640257,-0.2222611,1.0752285,1.6627009,-0.052799374,-0.19570163,1.2725639,-0.0700647,-1.7342541,-0.17412195,-1.0846308,0.7549503,-1.0991371,-0.03356071,0.15688679,0.037742615,-0.007559113,0.050597996,0.13122252,-0.20679055,-0.0517388,-0.09168313,-0.30173382,-0.56646925,-0.4821079,-0.04102742,-1.8340496
-0.042898986,0.12847443,-0.1166526,0.36980024,-0.29876044,0.60266185,-0.417686,0.5513272,-0.7949326,0.22237936,-0.48945323,-0.8231779,-0.5385179,-0.9114685,-0.842328,0.5613975,1.2036157,0.34297892,3.485128,-0.0008386746,-0.05868528,0.003971316,-0.25989842,0.09838294,0.4418584,-0.18509893,0.17447121,0.40902677,-0.044854872,0.436368,-1.2334299
-0.26892146,0.35629952,0.08902474,-0.4176112,0.85889655,0.12926526,0.78454584,0.24692993,0.049077615,0.9926421,0.38944602,-0.033652224,-0.27766073,-0.0025659201,-0.7140719,1.8292897,-1.2089608,-0.050912715,-1.3774685,0.028280392,0.003702715,0.0302459,0.0063177166,-0.2150382,-0.33273044,-0.4290392,0.19055638,-0.23034216,0.4869415,-0.26510698,-1.1117828
-0.45209858,0.029389715,1.1362716,0.24352162,0.034690946,0.49142495,1.4229481,0.67636263,-0.85391587,-0.4534102,-0.032773715,-0.79074365,-0.62330896,-0.94338244,-1.1158437,0.85830355,-0.7738452,-0.16868481,-0.6834372,-0.009580262,-0.0563196,0.05965986,0.13865562,-0.16597399,-0.16038284,-0.52773046,-0.36769056,-0.14589524,-1.4739099,-0.45912778,-0.6600865
0.37692538,0.6894223,-1.4718877,-0.7655432,-0.18942884,0.07150398,0.24343623,-0.5912716,0.66872203,1.4033082,0.38104483,0.5590841,0.6325335,-1.500261,1.0972487,-1.1683292,0.1579922,0.09206903,0.10134701,0.02687557,0.010511033,0.03238847,-0.12432778,0.21046281,0.041896526,0.2650705,-0.16995537,0.30659717,0.44730204,0.2279569,0.28880417
0.6709191,-0.08131352,-0.7798578,1.0141433,0.94450915,-0.731879,-0.046298224,-0.99952596,-0.02145493,-1.8779601,-0.573585,0.06284612,1.0107942,0.6450839,0.5189911,-0.05455112,0.08885681,-0.11641107,-1.8043846,0.021082766,0.054612152,0.026329726,-0.05792624,-0.14127757,0.15549669,0.17409107,0.1305464,-0.07131587,0.67647135,0.23657951,0.12593782
-0.31741038,-0.35461456,0.27065104,2.3843253,0.18929839,-1.400855,-0.23331247,-0.10554849,-0.14907384,0.56985384,-0.13972986,-0.100374,0.10277588,-0.33896416,0.21048523,-0.16123618,-2.3363273,-0.21826121,1.1823353,-0.051557638,0.021645635,0.03678003,0.31295383,-0.14823161,0.12993997,-0.3651081,-0.40186372,-0.36371943,0.26765698,-0.2544097,-0.30190533
-0.10961112,0.81262064,-0.4454835,0.13991198,-0.29237697,-0.108819805,0.5635249,-0.09887804,-0.14722228,-0.38462102,0.21393721,-0.1920658,0.07987972,-0.5852448,0.048069738,0.39343053,2.56046,-0.006919294,-1.2213217,-0.04939556,-0.010276146,-0.0074689165,-0.10486704,0.19029294,-0.09754535,0.02071858,-0.07374213,0.57414156,-0.13538714,-0.012705581,0.34769967
0.5169454,0.5815998,-0.08143925,0.8575242,0.46744153,-0.8102458,0.31215754,-0.7888958,-0.1186672,1.4014952,-0.6774324,-0.1264504,0.86078405,-0.93674326,0.60681784,0.36121213,1.0933973,-0.2534079,-1.1220673,-0.0394184,0.046307974,0.043559194,0.04492086,-0.15136106,-0.5790718,-0.046472844,0.020573197,-0.2873463,-0.20541476,0.23055576,-0.23505916
0.016532935,0.91437054,0.078295626,2.4453053,-0.7387971,-1.3054978,-0.19508618,0.4095516,0.1754194,-0.5768575,0.8837174,0.1791003,-0.64500266,-1.6306844,0.13705987,-1.1897436,-0.5733857,0.21345367,-0.30198735,0.006523803,-0.035032414,-0.056397833,-0.12721837,0.24522462,0.020020863,0.12994216,0.35349944,-0.43041363,-0.26570126,0.06858763,-0.20387922
0.38869676,-0.19015841,-0.4093421,-0.22366625,-0.7420423,-1.1504598,-0.017360084,-0.03088082,0.41363275,0.38979453,0.3423136,0.47387436,-0.013927764,-1.4114273,0.0501522,-0.29773808,-0.33194396,-0.2963134,-3.4929373,-0.039546467,-0.054167792,-0.061789803,0.15759838,-0.11231918,-0.19694872,0.14158306,0.32870117,0.18921101,0.5326231,0.07653816,0.45824465
-0.04553464,-0.28358066,0.6656221,0.7150212,-0.118051104,-0.10753183,-0.46831957,-0.8056302,-0.5801661,0.6448306,-1.0418218,-0.63561726,0.732166,0.22390424,0.2346676,0.51054835,0.3377047,-0.32275468,1.6356372,0.0030978546,0.03888081,-0.04470806,0.421854,-0.43241134,-0.3799976,-0.48520634,-0.2334944,-0.9122406,-0.23482747,-0.4008285,0.22197224
-0.3530332,-0.079822354,-0.109684914,0.74723977,1.4075149,-0.19435096,1.0227697,0.2917542,0.727585,-0.84265375,0.7395403,0.7848404,-0.3763771,-0.031097783,0.071341105,0.17167768,-0.507731,-0.021296265,-0.35885862,-0.017293766,-0.053182356,-0.04069551,0.051127166,-0.075000875,-0.4565263,0.15058172,0.11698461,0.03243347,-0.39254045,0.017987782,0.64488214
-0.728433,0.4593502,0.4476554,-0.45164096,-0.049947508,0.5358551,0.3142059,-0.5533359,0.47229367,0.33012083,0.16602866,0.48092905,0.63034433,0.32881442,0.67115533,0.41721207,-0.13474487,-0.23555988,0.12807034,0.021276243,-0.020140208,-0.008309118,0.09549604,-0.03274362,-0.886999,-0.26534617,-0.005753025,-0.14890312,0.28235707,-0.10226921,0.25557062
-0.3465902,-0.115962386,-0.25894246,-1.7111772,0.4332588,0.96594083,0.8091623,-1.2921954,-0.15701652,-0.87750846,-0.9136291,-0.14660317,1.1636926,-1.6389629,0.31778696,0.04921832,-0.86666733,-0.24313112,-2.5109656,-0.014940344,-0.030910894,0.04565978,0.17495075,-0.23104882,-0.34925145,0.07231301,0.30127254,-0.029482031,0.3678158,0.10334748,0.25279474
0.31218776,0.07154547,0.02528746,0.45060197,0.9509134,0.25424558,-0.04909704,-0.18109864,0.44875935,-0.97459465,0.5204824,0.46544537,0.14143854,-1.8830553,0.63374525,-0.29833704,-0.553871,0.17140675,0.6227254,0.025341325,0.015512995,-0.033489496,-0.14858992,0.061273634,0.28249145,0.03713891,0.17208378,-0.1859618,0.3201048,0.2917337,0.013304429
0.7626532,-0.022241024,0.4177729,0.7095282,-0.62567323,-0.72870904,0.106145784,-0.49766004,0.36775586,1.537052,-0.057403952,0.32912785,0.44252244,0.9991435,0.6408707,-0.3002446,0.3538332,0.10524529,2.7280855,-0.017704353,0.01680211,0.01606246,-0.04091328,0.11825325,0.5906563,0.2608153,-0.15945226,0.16674699,-0.18346924,-0.07205914,0.5680724
-0.21998687,-0.17403674,-0.083590455,0.7277376,-0.1864585,-0.4127794,0.35536602,-0.28878787,0.8294832,1.4149216,0.35897645,0.8704475,0.30379993,0.21962598,1.0232497,0.6410279,-1.2054421,-0.114457004,1.2771355,-0.05772885,0.02857764,-0.013234466,0.27086326,-0.15333378,-0.21911943,-0.17256042,-0.32264438,-0.6608372,-0.31527817,-0.23976925,0.16533686
-1.2854717,-0.3236162,0.16171853,-0.9126215,-0.5595622,1.2656018,1.7317985,-0.08332401,0.9182808,1.0488408,0.37793306,0.75147575,0.23138584,-1.6803491,0.66201097,-1.9725316,0.764312,0.170146,0.2549103,0.0063998997,-0.04792951,-0.007267736,-0.17845394,0.16946158,0.10541967,0.14208758,0.34659865,0.37043658,-0.22427194,0.31998765,-0.65252316
1.0836409,-0.08666091,-1.2672682,-0.08067536,0.43662342,-0.55204374,-0.26930827,0.06228573,-0.40689787,0.12199299,-0.23646338,-0.46345,-0.10782841,-1.314983,-0.45825642,0.6201918,-1.9489433,0.04618652,0.15702711,-0.030328043,-0.047734737,-0.037980348,-0.0528519,0.116798766,-0.09303812,0.17307979,-0.108115785,0.166103,0.3577668,-0.084791206,0.81861645
0.30530947,1.3402855,-0.8961544,3.2503285,1.540351,-1.239189,0.0075448873,0.24291149,-0.0077688755,0.24089298,-0.2035028,-0.04865748,-0.25738993,-0.31031698,-0.1871218,0.29562822,-0.4106922,0.108021855,-1.2079962,0.053977296,0.025227152,0.037695833,-0.14035538,0.018136552,0.017173199,-0.14324385,0.14084455,-0.00656787,0.030336974,0.010533384,0.18725665
-0.30071393,0.4493971,-0.30362052,-0.28538254,1.3385357,0.9515189,0.72752905,0.8739055,0.09743503,-0.9588074,0.9647421,0.1310033,-0.91038287,-2.6021688,-0.55539954,0.2428539,1.7458483,0.10325972,0.90034497,0.052287757,-0.017875768,0.04197359,-0.18322569,0.20585266,-0.07838932,0.19865645,0.31579423,0.14687747,-0.15190195,0.30773416,0.084641874
-0.3029971,0.22689138,0.08743002,-0.91463536,-0.56233984,-0.46935377,0.74225575,0.25873786,-0.055373702,1.4296749,0.24033442,0.074343465,-0.3133051,-0.93362,-0.36497012,-1.053098,-1.7921387,0.01086707,-0.7818233,-0.0033349916,-0.010058008,-0.029638357,0.06339491,0.10469837,-0.22690676,-0.017503241,-0.19555125,-0.41541967,-0.36455262,-0.20813124,1.2646023
-0.20537867,0.43843603,-0.041338876,-0.4911457,-0.035264578,-0.32687783,0.44795305,-0.27390942,0.85689104,2.086452,0.7587163,0.94143486,0.23667747,-1.1337124,0.642861,-0.6238385,2.3100204,-0.0890537,0.12548405,0.05979836,0.0155489445,0.05534941,0.07654972,-0.023228562,-0.38333482,-0.39343962,0.11334182,0.14731312,0.19853246,0.015152051,0.21958612
0.33176124,-0.103565834,0.18164721,0.093911745,0.7192185,-0.08937612,-0.31375268,-0.74007726,0.61498195,-0.38531405,-0.112927474,0.76202387,0.79760146,-0.24921001,0.8535551,0.3790418,1.7603678,-0.12017665,1.0130208,0.060082957,-0.034037873,0.0027462393,0.13477214,-0.08982411,-0.15496238,-0.13400014,0.123536944,-0.35977367,0.26572627,0.009356763,0.32889104
0.2771049,0.37393776,0.44654843,1.2142738,0.23214546,-1.0359374,0.21033715,0.776636,0.007963166,-0.116571315,0.41230568,-0.04017709,-0.58344823,0.10425022,-0.5565011,1.474102,0.2835299,0.01934623,-1.37736,0.051096812,-0.036546707,-0.03529442,-0.04835073,0.049064178,-0.30130833,0.2229543,-0.042826418,-0.41323695,-0.20608449,0.27585188,0.018837485
-1.1477239,-0.58611774,1.835252,-0.1567075,-0.8946953,0.84299374,0.47101796,0.07845019,-0.523216,-0.46931756,-0.07214374,-0.49522948,-0.22827765,1.2474335,-0.46179676,-0.5633574,-2.0555842,0.29857197,2.0779426,0.045554914,0.01369451,0.03183931,-0.025568875,0.19493088,0.5062597,-0.010652303,0.060093705,-0.4515316,-0.0015328957,-0.09544741,1.2557306
-0.13103376,1.6141597,0.3563285,0.47991914,0.22037138,-0.06065787,0.5369905,-0.19158784,0.6176658,-0.04350593,0.29279217,0.5091104,0.24853536,-0.47777805,0.7235945,-0.3034765,0.07467464,0.158841,-1.5135751,0.009620443,-0.018269844,0.008504435,-0.14046262,0.18976393,-0.5391557,0.031154232,0.45057255,0.1319012,0.06327415,0.030968705,0.78490573
0.07105465,-0.102875814,0.33756205,1.5999577,-0.9267547,-1.1243562,-0.4217603,-1.0042756,0.24518307,-0.6199719,-0.6096779,0.21216412,0.9706783,-0.049927246,0.34442306,1.0945983,-0.49468136,-0.2694604,-2.600244,0.01607012,0.02112531,-0.005897589,0.17833942,-0.23097406,0.19705033,-0.18021718,-0.2744991,-0.18477836,-0.6099633,-0.37512287,1.1546452
0.114813074,2.8268924,-0.6049264,1.7656317,2.8540714,-0.6338421,-0.21545546,0.24294263,0.19434536,-1.3999008,0.49251127,0.22781244,-0.25574043,0.44747886,0.06802424,-0.73915356,0.4617122,0.30027056,0.24127862,-0.023117691,-0.0607393,0.01228518,-0.18927816,0.09547413,-0.31191587,-0.029556781,0.10894748,0.19472629,0.15657768,0.11442935,-0.13819218
0.8496355,-0.019732313,-0.85989195,-0.43208367,-0.4740955,-0.23581523,-0.624397,-0.3869262,-1.2486346,0.2242592,-0.85119903,-1.3977705,0.42768532,-2.6826904,-0.39564133,-0.8290764,0.57919043,-0.0066910028,1.2763308,0.01775562,0.06088143,-0.05378376,0.13484299,-0.072156884,-0.062003847,-0.05173417,0.3271526,-0.44597515,-0.06017498,0.11925942,0.3846129
0.24805766,0.22513652,0.24525006,0.08157277,-0.06508595,-0.96270883,-0.16562305,0.59197235,0.8591187,0.27392003,0.93842506,0.85671145,-0.5461833,0.8142171,0.43418652,0.13638845,1.5270123,-0.14512351,0.6522185,-0.044318244,0.0076331943,0.053565055,0.10946324,-0.11474728,-0.45498663,-0.3143424,-0.018402671,0.07102032,-0.13589656,0.06473188,0.05181949
-0.123826906,-0.4534543,-0.68738383,-0.25267756,-0.60846984,0.013938826,0.9215705,0.8126047,-0.26632833,-0.94199955,0.17491722,-0.2744086,-0.78862906,1.6061722,-0.68945235,1.5396564,1.050516,-0.07598081,-0.069278926,-0.035368003,0.030062094,0.044898614,0.065340675,-0.3543612,-0.03314796,-0.1801422,0.04345484,-0.17358531,-0.61225355,-0.07700451,-1.6764852
0.46339285,-0.42795137,-0.96767384,-0.5646978,0.5026931,0.1335032,0.39806217,0.23658547,1.131706,-0.28323767,0.98472416,1.0689715,-0.20591635,0.68256915,0.8468147,-0.10746463,1.8389647,-0.3740147,1.6591212,-0.030541845,-0.004650481,-0.05844058,0.304269,-0.34220272,0.004612402,-0.28220722,-0.9677637,-0.16847287,-0.32819006,-0.17804956,-1.5636486
0.48504466,-0.12421923,-0.62040406,0.55955166,-0.058011744,-0.9353606,0.79511714,-0.19915155,0.11231666,2.103258,-0.26097432,0.07262325,0.123395704,1.3993688,0.35708264,-0.26927057,-0.40492737,-0.19019094,0.8609588,0.0260223,-0.042343438,0.032419503,0.21275085,-0.20579007,0.09493603,-0.041860595,-0.116541035,-0.07442964,-0.3467815,-0.18738587,-0.289907
0.46721736,-0.017989209,-0.41397023,0.40445253,0.27925205,-0.29024503,-0.686369,0.38785225,-0.445791,-1.7657632,0.23603119,-0.4734465,-0.45925802,0.6906911,-0.563569,1.4203653,-0.5722029,-0.16334827,-0.17054746,0.016773038,0.014518224,0.0037948638,0.19482179,-0.42928922,-0.16178703,-0.10024776,-0.25494233,-0.033197157,-0.21355066,-0.18838128,-0.6334591
0.047260866,-1.1188129,0.4120114,-0.43310174,-1.1951632,-0.06673422,0.9565413,0.49556464,0.52896476,-1.0789295,0.96273434,0.5104179,-0.52328557,-0.8359107,0.13366553,1.0360019,0.6376086,-0.5027882,-0.07358325,-0.047216967,-0.016287401,0.04770738,0.40203932,-0.49097648,-0.17967804,-0.3411318,-0.8248206,-0.13242532,-0.7954588,-0.59276026,-0.3050043
-0.040094823,-0.26708898,-0.07707312,0.9054925,-0.91631544,-0.33452046,0.31777087,0.2708019,0.43399027,-0.7108899,0.19517699,0.41815162,-0.28435317,-2.8518877,0.25099966,-1.4671441,-0.053325053,0.11445796,1.2172137,-0.040993296,0.0063675568,-0.057722405,0.08467633,0.117932186,0.016894994,0.10387138,-0.04568934,-0.4870013,-0.21076211,-0.15298225,0.52456003
0.9244925,-0.5424031,-0.5338729,-0.3063055,0.23514701,-0.8013152,-0.7828704,-0.45340174,0.34096327,0.48647997,-0.09775133,0.45885137,0.54642785,1.9927804,0.29472134,0.6034304,0.2711577,-0.6129886,-3.683096,0.0060295314,-0.042048313,0.0024319962,0.4233577,-0.41076452,-0.57399476,-0.30680057,-0.16705722,-0.14991702,0.16702795,-0.5411522,0.4781485
-0.15157428,0.2860886,0.11174636,0.2541601,0.39255634,0.08346289,0.3042111,0.7407754,-0.18045954,-1.3576977,0.5780916,-0.1811479,-0.73659134,0.46258542,-0.4743091,0.8569123,-0.22158821,0.12244529,-0.6067097,-0.05548832,-0.057706244,-0.026291043,-0.115331925,0.23402491,-0.12276707,0.03772631,-0.09807479,0.13086376,-0.29008815,0.06746655,-0.3888639
0.113484174,0.4890967,0.24202071,2.2892942,1.5341023,-0.28327724,0.040828988,-0.72518945,-0.21110624,-2.8096564,-0.23986633,-0.12772547,0.61080295,0.5405755,0.25887388,0.6165303,-0.44031554,0.214452,0.02454779,0.018030465,0.041488104,0.011142485,-0.08837793,0.13166042,-0.2968123,-0.33519253,-0.41713905,0.13208897,0.033558134,-0.16225933,-0.38789943
-0.33590642,0.72137994,0.18952022,1.6403239,0.121290796,-0.44826463,0.030758759,-0.11925145,0.17089686,-1.1357994,-0.13192609,0.095708296,-0.06416829,0.6668237,0.39715567,-1.9362835,2.659218,0.07397172,0.9068146,-0.009684652,0.011565007,0.034111656,-0.06422479,0.19818592,-0.10561915,0.05801966,0.1435534,0.5783994,-0.8879759,0.15216349,-0.37585813
0.33697045,0.7166678,-0.8322428,0.82236904,-0.1176968,-0.9043868,-1.236937,-0.88340354,-0.22957937,-0.04860291,-0.79516745,-0.25537613,0.9048514,0.656746,0.65797585,-0.9343329,-0.20794848,-0.2598312,0.11728726,0.042402208,0.030496337,0.023162887,0.21077242,0.09060422,-0.95082086,0.029618617,0.09328448,-0.25825906,0.31769648,-0.09185842,0.2398833
0.20065749,0.3012027,-0.30863264,0.3195184,0.44086552,-0.28930485,0.3562767,-0.31877837,0.1156453,0.6192386,-0.22425327,0.1609367,0.13491179,0.094480775,0.30872107,0.14620894,-3.3801053,-0.27349982,-1.1473528,-0.020213433,-0.029673256,0.038289018,0.3402947,-0.050039455,-0.8128136,-0.43339518,-0.32786077,-0.3172531,0.29510602,-0.731248,0.04647835
0.24415521,-0.06440202,-0.43213117,-0.39374495,0.46214,-0.10501111,-0.22304635,-0.4044808,0.40322888,1.8166711,0.041827697,0.39618492,0.43240365,-0.71651506,0.6100268,-0.60815185,0.47692627,-0.21936901,-0.97463393,-0.03027457,0.036829226,-0.02556672,0.22187355,-0.010050237,0.026686888,0.14595146,0.052690886,-0.23026803,-0.06334455,-0.071199656,-0.3785604
-0.111375466,-0.28172,0.092401095,1.1754762,-0.60005605,-0.40000474,-0.21764237,-0.54832816,-0.4952288,1.3968604,-1.126985,-0.48659372,0.6040647,-0.45684335,0.32755816,-0.374792,1.4586647,0.30251333,1.0985689,0.057381958,0.045756035,0.022950292,-0.26278412,0.17640856,0.25941277,0.35149446,0.18870828,-0.3218387,0.17205805,0.4531774,-0.7327165
1.0147998,0.08782662,-1.1669804,0.29383516,-0.22074312,-0.76403284,0.09767376,-0.040006183,0.6751583,1.4901701,0.6582545,0.69266576,0.04106995,0.006463564,0.40476668,-1.5079334,1.3489506,0.10164172,2.718695,0.022290908,-0.047149777,0.028075121,0.086062714,-0.05134924,-0.054221153,-0.03434364,-0.063233666,-0.21000285,-0.23391518,0.13797536,0.7640973
0.7337249,-0.01902662,-0.9232624,-0.07907126,0.7193577,0.65952104,-0.1475513,-0.61359566,-0.24339819,-1.2860866,-0.64120525,-0.16176662,0.69529986,1.0279906,0.43224847,-0.39258102,0.93798393,-0.013196531,-0.031688485,0.03284879,-0.0497491,-0.0029742122,-0.01823855,0.10208124,0.2559271,-0.038216688,-0.049656946,-0.021438885,0.3942356,0.02730795,-0.6828102
0.6233584,0.17257325,-0.99011725,0.30556998,0.4662748,-0.15601844,-1.3915898,0.4768806,-0.06781761,-0.66364247,0.4911428,-0.14908347,-0.54591244,0.546767,-0.551329,0.1611643,0.28165096,-0.34120107,-2.1831393,-0.018608421,0.02040366,0.055758663,0.09830562,-0.27836818,-0.33006963,-0.10727104,-0.017469808,0.32269296,0.95968604,-0.7830764,0.35484877
0.34585667,-0.03738074,-0.81135976,0.20576155,0.37194902,-0.9358224,-0.22008145,0.17488377,0.32984638,1.961027,0.29708803,0.33044997,-0.069228925,-0.049749553,-0.12984392,-0.78660697,0.4400271,0.0073329206,2.583445,-0.05611579,-0.05934105,0.008942172,0.12648837,0.00693297,0.12708375,-0.25566933,-0.2916286,0.19635402,-0.372033,-0.14169317,-0.6524985
0.46855617,-0.42749944,-0.48840943,-0.15317062,0.10746306,0.26134798,0.8025011,0.7910201,-0.15259351,-0.049083754,0.15124655,-0.22875245,-0.6230517,0.7604436,-0.4704256,1.2803776,1.3715818,-0.015372023,1.372328,-0.030048013,-0.053089976,0.041207977,0.13532665,-0.30494303,-0.012200723,-0.38485682,-0.07328645,-0.28652683,-0.09732356,-0.4320853,-0.6745369
-0.39217204,-0.7422204,0.9163681,-2.7964752e-05,-1.2682116,-0.37461123,0.86328435,-0.4317109,0.474664,0.51640266,-0.003463954,0.5594352,0.5792606,0.6138296,0.6420996,0.9636662,0.26736388,-0.18842143,0.7078847,0.047611795,-0.028006352,0.058254838,0.077748835,0.11268962,0.1244284,-0.09739722,-0.42606097,0.51298416,-0.086568974,-0.41781396,0.14011547
-0.4033468,0.05624356,1.6087302,1.6651639,-0.89082086,-0.8269058,-1.0109667,-0.35744625,-0.10513483,0.23063678,-0.2739842,-0.059668086,0.23910603,-0.31841996,0.51308876,-0.6824148,-0.38384902,0.14898871,0.068347245,0.0076435655,0.020634197,0.03653115,-0.19627182,0.23364079,0.6768073,0.09739276,0.06555785,-0.1371412,0.4892727,0.023224618,1.6668674
0.11099978,0.6817399,-0.45954847,1.2216355,1.1502305,0.016476013,0.52380615,0.17129843,0.89718205,0.45601568,0.6094545,0.7819475,-0.11620673,0.47744393,0.5282811,-1.3929962,-0.2551432,0.46909,2.4577196,0.018678024,0.052588977,-0.05771646,-0.13628748,0.21282785,-0.2613068,0.09108999,-0.020992924,0.258197,-0.5256488,-0.23384927,0.035642024
0.12160499,-0.22511275,0.03597927,-0.36020672,0.000585974,0.40218833,0.65956295,-0.6505188,-0.22180587,-0.32873958,-0.36914158,-0.35156363,0.56700253,-0.85978884,0.123624146,0.4631813,-0.5890501,-0.16118763,1.132426,-0.007964984,-0.0008414164,0.045076452,0.25541148,-0.18330638,-0.24651863,-0.24922965,0.027712407,-0.09684002,-0.43668628,-0.19000746,0.66727495
0.7005334,0.46613452,-0.2694063,0.46393004,-0.30706048,-0.82542455,-0.44425064,0.17305034,0.050128557,2.2469249,0.09840431,0.04108872,-0.26270866,-0.36375812,0.19894724,-0.33694467,0.14768729,-0.39965826,-0.36058417,0.02280388,0.03436777,0.0052792504,0.3863975,-0.4238875,-0.4528568,-0.26858604,-0.5495994,-0.6563604,-0.25143224,-0.38488984,-0.53504866
-0.19799371,-0.77415097,0.5568399,-0.85832584,-0.39984217,0.022286797,0.45163393,0.60163426,0.019697864,1.0920327,0.2543498,0.07054056,-0.42469886,0.26879838,-0.1921982,-0.57044923,1.7677572,-0.25094658,0.049389485,-0.035425767,0.052070104,0.02829706,0.15990564,-0.04840308,0.13240768,0.15543419,-0.30317584,0.050989483,-0.40868402,-0.004443546,-0.035028327
0.34959197,-0.98752344,-0.4452716,-1.3837146,-0.6740129,0.5208165,0.032468956,0.35245985,0.2792493,-1.2003559,0.6623832,0.27465183,-0.39461428,-0.61587024,-0.45179823,-0.24058789,0.51510215,-0.38018313,-1.0964541,-0.017038353,0.059835866,-0.05131896,0.348709,-0.40631485,0.10562495,-0.2978333,-0.32458997,-0.62101614,-0.63979304,0.22937384,-0.5212141
0.97294384,-1.067137,-0.5558874,-0.8889171,-0.12957391,-0.3777444,-0.57666034,-0.5151663,0.30496633,-0.41269568,-0.24492584,0.33809015,0.40643436,0.96049905,0.45855084,1.3515038,0.49995795,-0.5279116,1.6126128,0.023320533,0.038940847,0.04082819,0.51739347,-0.4894677,-0.20521004,-0.3970909,-0.7050562,-0.22901425,-0.21213983,-0.76240146,-0.24662045
-0.74461627,0.19982849,1.4950634,0.33642948,-0.33335087,0.6975576,-0.47033742,-0.3143442,0.0030104953,-2.6297374,-0.04907154,0.029989352,0.27423713,1.3050709,0.2547277,0.52080363,0.14607649,-0.23599885,0.30266732,0.05425489,-0.022016518,-0.04015515,0.1676504,-0.40619218,-0.130774,-0.5736105,0.06384368,0.10556478,-0.13397416,0.1104075,0.26017615
-0.48240653,0.20791997,0.24360526,0.22531898,-0.27534106,0.13067816,-0.22484854,0.41640908,-0.3918465,-1.2389652,0.4180168,-0.36107332,-0.41348013,0.16983876,-0.49230763,-0.19907208,1.2717538,-0.031222273,0.064560995,0.055872694,-0.0009814277,0.029044308,0.013293899,-0.2892909,-0.0037411496,-0.34174582,-0.35165223,0.26313263,-0.24550053,0.058829688,-0.10886193
0.14965636,0.7290258,0.07894207,1.3120154,-0.1751249,-1.3343264,-0.19449027,-0.20350878,0.07247432,0.4658952,-0.15715946,0.11034167,0.34169656,-0.30867466,0.7042703,-0.46090302,-0.28244847,-0.14193922,-1.5174532,-0.017161183,0.035161205,0.03742913,-0.01267031,0.22639047,-0.06592,0.072549365,0.14753519,0.135726,-0.55281365,0.100270785,0.28925106
0.8240269,0.27106595,-1.0138968,0.2430375,-0.5816251,-0.80592954,-1.2239594,-0.21532215,0.22680248,-0.33786792,-0.1737795,0.20148693,0.21099527,1.3551296,0.38961923,0.030205984,-0.2527653,0.037692867,1.3058348,-0.0036391616,0.032292955,0.011897311,0.084310345,-0.12936005,0.18814841,0.10988274,0.022522222,-0.17904474,0.18122634,-0.3997866,0.12811719
-0.32346913,1.1925309,-0.3868472,0.35855743,2.510807,-0.53213197,0.33181262,0.325302,1.2459238,-0.6043295,1.2908247,1.2949629,-0.33856893,0.91567075,0.76701236,-0.46173942,0.25949353,0.1160221,0.017733516,0.05961252,0.025149994,0.036429986,-0.11221125,0.027239136,-0.5546715,-0.008738209,0.4684105,-0.021563008,-0.21672864,0.24055837,-0.07775826
-0.021678276,-0.41394868,-0.43438974,0.82212645,-0.2651698,-0.25938672,0.18779823,-0.042759553,0.3226747,-0.35671297,0.40769324,0.39614236,-0.022759046,-0.03981953,0.39954698,-1.8914986,0.73531467,-0.27202463,1.7562274,-0.058445677,-0.023094833,0.04998222,0.4372652,-0.31675515,0.14595008,-0.2390019,-0.48517704,-0.3848791,-0.41223252,-0.42191294,-0.2397671
-0.23660542,0.47440016,0.25805935,-0.09990544,0.44716945,1.0499859,-0.16448885,-0.33698216,0.009356508,-0.36275962,-0.13744046,-0.1190659,0.37268898,-1.1859217,0.26372862,0.040589962,0.04779897,-0.09822044,0.3007417,0.045790374,-0.04651405,-0.011962846,0.08632332,-0.048083447,-0.31374562,-0.20440319,-0.16032276,0.092190824,-0.55179286,-0.22075476,-0.12273835
-0.39072624,-0.33471265,0.63071066,-0.8019279,-0.26695165,0.8687154,0.9195087,0.84190977,0.05761666,-2.9254162,0.6496287,0.1868457,-0.84130085,0.6529143,-0.7966823,1.120846,-1.879332,-0.087495185,0.13141738,-0.02776561,0.04577066,-0.028160624,0.047035318,-0.20262454,-0.09422022,-0.5513477,-0.41436124,0.06637156,-0.9433404,-0.17505458,-0.5968065
-0.10961497,0.0053608045,0.006846869,-0.529912,-0.16518065,0.7865212,-0.1972319,0.4835824,-0.7763619,-0.36119598,-0.31663305,-0.8432002,-0.4007796,0.2055288,-0.9769869,1.7715995,0.1822767,0.0054161074,0.71883607,0.058678873,-0.016941316,0.01999665,0.09227631,-0.059852872,0.011129954,-0.021817105,-0.2535733,-0.025713032,-0.26354846,-0.085177846,0.1722827
0.08936491,0.35293883,0.9527354,1.4080799,0.09388223,-0.3199302,-2.1439657,0.03379932,0.041389,0.64441943,0.18144669,0.101477206,0.07250322,-0.52170175,0.21053934,0.7838405,0.047412414,-0.31384373,-2.8094869,0.045048736,0.0021776184,-0.038849987,0.118195556,-0.13164742,-0.16870168,-0.40128437,-0.41113815,-0.47508392,0.084043846,-0.2819292,-0.29108703
0.59600127,-0.35299036,-0.033856854,0.5085699,-1.119278,-0.30835378,0.36887023,-0.39968088,0.16025595,-1.0254894,-0.18624222,0.20315303,0.4138252,0.4991811,0.36923218,0.6708776,0.38344148,0.09162004,0.92400604,0.038873754,0.030825466,0.024446912,-0.09299605,0.10024715,0.10235793,0.022148194,0.064896815,0.28767103,0.023329148,0.007587802,-1.0528344
-0.47810584,0.21862435,0.0692979,-0.07128255,-0.32335404,-0.7272139,0.5796931,-0.03880698,-0.7423074,-0.6343519,-0.5854895,-0.8602682,0.22938871,0.68532175,-0.2953283,-0.75486463,0.89984775,-0.37948215,-2.738753,0.025992572,0.057353124,-0.041999504,0.031218523,-0.29511154,0.002262562,-0.07706659,-0.1186714,0.6020996,-0.19131897,0.095344454,0.8288627
-0.31244758,-0.0182789,-0.15363403,-0.7328735,0.15612872,0.66127706,0.7039587,0.16777775,0.101445794,-0.011966976,0.4036971,0.19219644,-0.21612836,-0.84493893,-0.23683502,-1.4326754,1.7061945,-0.10924197,-0.7331516,-0.048000373,-0.057836406,-0.041379824,0.059638087,-0.23573789,-0.17632669,-0.20948498,-0.05344682,0.13688324,0.15579474,0.15017465,0.30664742
0.35168648,0.2706219,-0.72604096,0.5978604,0.17962721,-0.9292763,0.31708604,0.6457333,1.0687313,0.061450932,1.7771922,1.1838334,-0.69001144,-0.6283748,0.5658659,-0.5621558,-1.5985229,-0.10231471,-0.4677192,0.028764248,-0.02785232,0.018349625,0.10131243,-0.00024130441,-0.013663013,-0.04034983,-0.032954432,0.139682,-0.03592717,-0.32781705,-0.33056766
1.0058022,-0.25157082,-0.86372644,-0.15903537,-0.39623323,-0.7038779,-0.60234493,0.31306508,-0.360496,-1.9354155,0.07256221,-0.3760848,-0.3592965,0.749607,-0.47049466,-0.7879176,1.6508557,-0.19845289,0.16504106,-0.018142521,0.015317768,-0.058690727,0.14006637,-0.16380525,-0.37211868,0.14494655,-0.24041873,-0.20349953,0.36574027,-0.03521751,0.25848624
-0.72566384,0.004154566,0.9346906,0.35316616,-0.3732923,-0.97046363,-1.0605768,0.029336112,0.28694504,1.9437684,-0.1514906,0.22147997,0.005097449,-1.2079346,0.19746211,-0.5621505,-1.2076509,-0.009558811,-0.36666197,0.026927337,0.013156772,0.015053436,0.05459045,0.13583578,-0.6522633,0.09335361,0.094058946,-0.07172529,0.17260906,-0.0628788,0.09084244
-0.013202072,0.33643243,-0.55045754,0.16308181,-0.85617673,-0.92563945,0.16769546,-0.33506867,-1.3817066,0.32198337,-1.0382905,-1.2776794,0.303889,0.14916502,-0.4573868,1.4607946,1.2330945,-0.15181294,0.210157,-0.03577216,0.037495524,0.025991432,0.0396465,-0.12801495,-0.19473407,-0.02321079,0.14284895,-0.083035864,0.28520012,-0.13344929,0.25263032
0.25613388,-0.15625688,-0.3218871,-0.5458678,-1.3293313,-0.16598286,-0.44432047,-0.03108868,-0.29207537,-1.3088905,-0.43811584,-0.23694204,-0.013415172,1.6379725,-0.49485555,0.27295166,1.4917829,-0.13080677,-0.74936765,-0.022992544,-0.03973238,0.033560276,0.14222345,-0.27521178,-0.16985103,-0.2839581,0.04015142,-0.44375092,0.0629938,0.11357413,0.6471279
-0.18888503,0.07092733,-0.29272297,-0.28262615,-0.48137274,-0.06480029,-0.2716705,-0.74624175,-0.34736845,0.34948814,-0.8606715,-0.48737797,0.869329,-0.7311552,-0.01925864,-0.38284045,1.107299,0.030116776,-0.61500794,-0.06233488,-0.029015206,0.044738688,0.099068895,-0.04269682,-0.39333847,-0.15213816,-0.09081848,0.07506479,0.12504186,0.20491773,0.85691416
0.41754,0.11670339,-0.20942745,-0.0849216,-0.11340678,-0.25313315,0.47640738,0.5103909,-0.40541986,1.2476221,-0.37511113,-0.50650287,-0.40620723,-1.0824497,-0.49834976,-0.87291926,-0.6816611,0.20170544,0.89931625,0.023939021,-0.0020027757,-0.051667072,0.014975336,-0.018891834,0.058649007,0.06757611,-0.09334958,0.19361547,0.59201026,-0.068918474,1.2049835
-1.2670044,-0.17107457,1.1156932,-0.35603285,0.1751396,0.9223219,-0.59894526,-0.043763176,0.7824509,-0.3462947,0.5392157,0.7609083,0.065292574,0.5885493,0.2272368,0.56778955,1.2594941,-0.24141957,-1.7207344,-0.030830994,-0.014845237,0.016228378,0.08168468,-0.1565627,-0.31743795,-0.2530493,0.023249555,0.0108587,0.18974888,0.046141442,2.1119258
-0.5317419,0.16374932,0.85382974,0.16069092,-0.35171068,0.86235327,-0.046626743,0.0049806745,-0.01635577,-0.12860398,-0.08637762,0.038214393,0.0073199854,-0.76477987,-0.031061383,0.3351147,0.81803864,-0.2935292,1.5416375,-0.032865316,-0.054282725,0.047886707,0.24910073,0.0047372035,-0.25795373,0.016573993,-0.01766358,-0.6341676,-0.47062382,0.20997225,-0.89847445
0.0073323413,-0.80278283,-0.57717353,-0.036185753,0.28909844,0.050712112,0.8266452,-0.705346,2.1158473,-1.1030456,1.1193378,2.267317,0.6694735,-0.54992145,1.9939734,-0.1801512,-0.88429725,-0.21732935,1.302934,-0.036399826,-0.055789255,-0.012955874,0.22836064,-0.15986913,0.1996058,0.16068973,-0.28151435,0.14625701,0.095053196,-0.17013063,0.48425502
1.0332162,0.15944327,-0.2693203,1.9362582,0.15777609,-0.7976162,-0.927886,-0.016569402,-0.028807426,0.6524595,0.27921492,-0.15693289,0.074724875,-0.91081685,0.077583134,0.033454333,0.9367792,-0.12940928,1.1050401,0.025203027,-0.0044955313,0.04529324,0.09455789,-0.054257337,0.18416423,-0.10214554,-0.24426588,-0.24911465,-0.016261972,-0.24988419,-0.18741684
-0.48666316,-0.23809998,1.1724002,-0.7742802,0.6686465,0.42310432,0.072295964,-0.71757,0.16547984,-2.5046508,-0.28707102,0.24076697,0.5222278,0.91910464,0.07849782,-0.3239949,-0.48771426,-0.12038354,-2.9149442,-0.041702464,0.035887673,0.046472326,0.020455426,-0.27436,-0.10495619,-0.4205459,0.095007375,-0.23493703,0.16591503,0.22261347,0.3800458
-0.20831774,-0.43093258,-1.1542034,-1.0429676,-0.21695592,0.5965732,1.002965,0.67177063,0.6453235,1.0499386,0.5224896,0.6528403,-0.49528992,-0.26592952,0.08295184,-1.3123707,0.863584,0.17660551,1.5559505,-0.019934103,-0.018965036,0.01071886,0.12468762,0.06413738,-0.20471962,0.029292943,-0.18668756,0.012732194,0.19811983,0.18252078,0.48353124
0.48316458,0.57183933,-1.0478041,-0.4247498,-0.13208963,-0.1037962,-0.0035783083,-0.09193698,0.9226456,-1.0901593,0.72355944,0.7291174,-0.024565427,-0.81407166,0.70873433,1.0466866,0.76120675,-0.06854563,-0.77151525,-0.017057396,-0.059923604,-0.020526707,0.07936681,-0.1459164,-0.52520245,-0.0005428257,0.028367989,0.04682377,0.47186536,-0.20657721,-0.43058136
-0.48860303,0.08820011,-0.031171808,0.58682984,-0.94693667,-0.2458945,-0.51104283,-0.029790945,0.43368754,-0.3069242,0.14531016,0.34401584,-0.05486354,-0.42229956,0.29317677,-0.43602964,0.04039099,-0.12771934,-0.5417925,-0.06081178,0.03840041,0.037280597,-0.079541184,0.103407785,0.16236813,0.31266123,0.1617122,0.3451069,0.25189316,-0.14107308,0.77853256
-0.2930915,0.6820656,-0.28313494,-0.51287967,1.525194,0.33898845,0.25802886,-0.19876847,0.4046529,0.97391856,0.2705401,0.5057783,0.32276556,1.6145513,0.51754266,-0.3012241,0.9538522,-0.27858004,0.011358609,-0.039605998,0.054075934,-0.019203372,0.16479167,-0.16322272,-0.7204021,-0.4067507,-0.06955637,-0.14867768,0.800996,-0.0940029,-0.43615565
0.019497544,0.14311515,-0.36329815,-0.29724896,0.64577407,0.07296281,-0.07308779,0.5567861,0.23081525,-0.5664171,1.1928295,0.24362749,-0.6437637,-0.59204286,0.101675786,-1.7961472,0.12574023,0.20780067,1.1962999,0.022214971,0.038778074,-0.057826757,-0.09739499,0.31319234,-0.07475737,0.31166577,-0.024101263,0.6277512,0.4547986,0.11947817,-0.4230301
-1.7296357,0.2015125,1.2497044,-0.7019066,-0.9639314,0.8752232,0.4407115,-0.8641805,0.7266151,-1.35313,0.33772895,0.8053079,0.95898795,0.68285155,1.2367955,0.89130884,-0.036009528,0.015222712,1.0203354,0.022340655,0.051201686,0.03402575,0.018726029,0.0608167,-0.10573163,-0.18018948,-0.11345334,0.045931637,-0.4565351,-0.13583845,0.83513075
1.1820167,-0.381614,-1.5607674,-0.01752359,-0.2325227,-0.6861246,0.22129524,-0.42282242,-0.16405624,0.3432201,-0.4338761,-0.27584785,0.5238003,0.15954947,0.16855812,0.68930244,-0.046789374,-0.19541664,1.1974232,-0.053174384,0.028702512,-0.049964696,0.47942,-0.29668266,0.07677244,-0.221615,-0.52848893,-0.3380986,-0.23516048,-0.21842346,-0.8377316
0.0570821,-1.0183439,-0.14983304,-0.77683777,-0.47701162,0.6361036,0.2054074,-0.60930455,-0.19618212,-0.91248757,-0.65513587,-0.22068064,0.6136571,-0.92346257,-0.21916088,0.769577,-1.3655461,-0.23307586,0.6203077,-0.004675634,-0.0036029592,-0.012220927,0.22346628,-0.2284627,0.080041766,-0.08930333,0.0051346333,-0.035929855,-0.01516847,-0.40707007,1.0691173
-0.18914701,1.4331722,0.14568101,0.6048596,0.47322044,-0.65434766,-0.7206774,-0.6674842,-0.064958364,1.1390861,-0.4914998,-0.07846934,0.6391572,-1.0640224,0.55502903,-1.6494691,0.4691831,-0.08603709,-0.2756484,-0.031056657,-0.02485989,0.0304953,0.1902416,0.039075945,-0.82775587,-0.26688093,0.02715609,-0.38502336,-0.13394624,0.074916005,-0.00842879
-0.1576546,0.31065,0.04105497,-0.08619494,0.7187242,0.4565953,-0.90629095,0.2465645,0.8022804,-0.94101155,0.88307524,0.81116766,-0.22502472,2.0536616,0.20504662,0.9954328,0.07625133,-0.3000305,-1.180365,0.05572903,-0.043494426,0.031176649,0.035954773,-0.18195774,-0.38832897,-0.33247763,-0.09778534,0.22689413,0.24074088,-0.0006143045,0.4955987
-0.72249293,-0.21127713,0.06897647,-0.9681283,-0.013184948,1.465138,-0.93378186,-0.63520867,-0.97958183,-2.0222595,-0.9918799,-0.77374154,0.6296061,1.565777,-0.75858396,1.7301563,-0.20674953,0.3678859,1.4892265,-0.023083732,0.049510173,-0.02780649,-0.14936152,0.076912634,0.071451485,-0.1072089,0.21109217,0.51707244,0.3093744,-0.090560526,-0.26221606
0.81113976,-0.8640478,-0.72478145,-1.2527531,-0.103386104,0.48671603,-1.2316831,0.3480567,-0.66474044,-0.0862585,-0.075335644,-0.6389144,-0.34338498,-0.64174616,-0.7855394,0.3530738,-0.1978709,-0.16909978,0.84681416,0.015368074,-0.008469343,0.04021524,0.16700436,-0.32872277,-0.2551943,-0.28106508,-0.4019946,-0.16972096,0.27369672,-0.22565123,-0.39855945
0.41938785,0.21097538,-0.6103733,0.6477978,0.21472894,-0.31929857,0.00233716,0.396424,0.31183782,-1.6207302,0.55111665,0.38824135,-0.33165202,0.34492967,-0.2290783,3.0951521,-0.6845969,0.42044857,3.1971245,-0.03400287,-0.035137415,-0.030881703,-0.32696292,0.2829738,0.31805688,0.23268552,0.16588087,-0.27647674,0.26717094,0.29096353,-0.669139
-0.039251998,-0.8513412,0.3353402,0.025185775,-0.2790136,0.22525907,-0.15642273,-0.54857254,-0.36365128,-0.5583397,-0.67086923,-0.41278696,0.61070776,0.072013296,0.20075247,2.0470746,-0.8710481,-0.086586796,0.9150785,-0.032874584,-0.020385318,0.026165366,0.0033218334,0.1477607,0.32296413,-0.02639233,-0.23573257,0.36721492,-0.24501038,-0.2431001,-0.5910817
-0.91713715,0.19082315,0.23717444,-0.4148354,-0.41266933,1.478587,-0.50945526,-0.40299913,-0.18590815,-2.1002316,-0.32326815,-0.0887757,0.36398596,2.4612257,0.13248204,-0.93848497,-0.6290622,-0.06321362,-0.9755342,0.058647804,0.051094808,0.02100072,-0.009566652,-0.25564966,-0.11592243,-0.18475585,0.115065284,0.06935759,-0.07939604,-0.13177212,0.59023094
-0.018255312,-0.9022419,0.8387752,0.31810942,-1.5542923,0.47905758,0.17843115,-0.17037693,-0.4199561,-1.023762,-0.47426793,-0.49394098,0.21387635,-0.49015653,0.22500993,-0.54421,0.26217958,-0.21931538,0.9269072,0.030741781,0.029523693,0.042284675,0.2653745,-0.3027807,0.24743634,-0.14126562,-0.28069413,0.13454913,-0.61362225,-0.1328342,-0.57535064
