-0.21451855,-0.2178071,-0.22858258,-0.33485824,-0.9561605,-0.5186174,-0.55899787,0.03928048,-0.32417807,-0.5873462,-0.39756227,-0.35770872,-0.06759621,-1.38785,0.050144874,-1.6094873,1.9593666,-0.22633609,1.0488737,0.017877713,0.048580818,0.0049103647,0.2193676,0.09900505,-0.10508081,-0.15414165,0.21331055,0.21583052,-0.50690305,-0.285425,0.17251165
-0.22971144,-0.30733782,0.12928462,-0.798744,-0.21517724,0.517718,0.6661421,-0.20287095,0.108587764,0.8186683,-0.53077114,0.2087108,0.28420153,0.106533594,-0.18183818,-0.96202743,-2.4515,-0.0844672,-2.6202514,0.036007524,-0.029265165,0.023708455,-0.017540824,0.074266925,0.03326928,0.06538822,0.7982835,-0.74194914,-0.8480801,0.34420955,-0.7145973
-0.30333185,0.4393386,-0.24046645,0.27215675,0.93095005,0.4437642,0.36231318,0.38253045,-0.37190893,-0.1320806,0.24806249,-0.38230893,-0.41185492,-2.1797204,-0.44305968,0.9243675,0.9144929,0.3616206,2.1463363,0.024187826,0.06103442,-0.045385808,-0.21281087,0.23275304,0.28598657,0.2844747,0.2554521,0.43364945,-0.5045751,0.03923276,0.2958769
-0.17961927,0.09798836,-0.32326356,1.0676538,-0.48976952,-0.22886337,-0.52444106,-0.16031468,0.017127154,-0.6186461,-0.00849563,-0.017849283,0.15773493,-0.111669354,0.32318044,0.8485138,0.4605889,0.18356654,3.496565,-0.052438222,4.222244e-05,-0.0009464696,-0.043252505,0.15980436,0.43560302,0.025058769,-0.6010132,0.51629955,-0.61959314,-0.047696,0.43123084
0.056723986,-0.2504431,-0.46647534,-0.0047934093,-0.512269,0.03345587,-0.1729586,-0.077198125,-0.4100267,-0.41899222,-0.5979473,-0.34843642,0.18746418,0.55831873,-0.4715181,-0.5060891,-0.58600163,0.29530782,-1.8782971,0.023118526,0.010758318,0.04607732,-0.51726794,0.5132775,0.45656338,0.6311359,0.37645137,0.80933523,0.6822699,0.39730963,0.7256333
-0.3428989,0.002282107,0.5460338,-0.48999667,-0.5125694,-0.34736103,-0.11988152,-0.10636075,-0.022808341,-0.7817201,0.08760538,-0.07253523,0.1618788,0.2085169,0.21731696,0.27411926,2.0071974,0.27823186,1.4694744,0.024106309,0.035690494,0.0030269474,-0.13673681,0.023464225,0.11343356,0.13867563,-0.49069202,-0.08425793,0.27008265,-0.033823498,0.26551202
0.48649746,0.055655245,-0.91884875,-1.2834411,0.7056907,0.47834736,0.02007733,-0.1279875,-0.12540945,-1.1540059,-0.16280457,-0.17609996,0.085634686,-0.15474062,0.11357471,2.571243,0.564315,0.06768557,0.19387247,-0.008573487,-0.009577118,0.056682833,-0.021119462,-0.10682999,0.12060232,-0.013588348,-0.046505503,0.67086834,-0.45611295,-0.29847383,0.6227898
-0.022264857,0.09474999,-0.4041266,0.29458165,0.1192252,0.4520216,-0.43729112,0.50221384,0.56753063,-1.1747227,0.87134016,0.540573,-0.59767425,-0.7894218,0.03375631,0.68672794,0.26188272,0.14147364,1.0670124,-0.052381165,-0.015364744,-0.017685592,-0.009152694,-0.11445047,0.17969537,-0.3426054,0.057518475,-0.113024645,0.052706525,0.15404671,-0.91137236
0.04977057,0.40518153,-0.29272342,-0.25394797,-0.19227837,-0.30384243,0.13277555,-0.17476173,-0.19587702,-1.9415474,-0.31064183,-0.13953128,0.12156171,-3.4957747,0.12125391,-6.166291,1.3038313,-0.014345072,0.036510006,-0.060952485,0.06016311,0.013306022,0.042211752,0.1803941,0.24757357,-0.009363001,0.2795788,0.0009094684,-0.1273668,-0.012727028,0.04163141
0.20077538,-0.056480367,-0.2803716,0.069651544,0.95350415,0.42872947,0.71594083,0.15839745,-0.061142247,0.54263234,0.044426892,-0.099857084,-0.30302244,-0.33993167,-0.18919814,-1.1189799,0.31783465,-0.06331438,0.3215598,-0.038422793,0.040845044,0.05632183,0.19031848,-0.14461756,0.36395717,-0.2900104,0.10851389,-0.78834766,0.5145706,0.29309925,-0.831004
0.60870653,-0.3095123,-0.85726523,-0.013439972,0.80039763,-0.39626035,0.41644132,0.17077658,-0.020847488,-3.508092,0.23234142,-0.03587866,-0.014187637,-0.8761892,-0.10855218,-0.91608334,-0.17288068,-0.26677296,-3.5688717,0.046924256,-0.023353279,-0.03007482,-0.005118826,0.08514483,-0.003729131,-0.045939267,-0.19386052,0.103136286,0.1804869,-0.2384623,-0.21399954
0.31175575,0.28198493,-0.4808942,0.4424111,-0.02713168,-0.54409575,-0.14950493,0.17842504,-0.4641099,0.523619,-0.4460322,-0.43165722,-0.21891208,-1.2336371,-0.1485615,0.89012355,0.09843857,0.019427262,-0.110909075,-0.021121264,-0.05586867,-0.036978588,0.022418462,0.24929047,-0.37303784,0.38007176,0.31486672,0.1634794,0.112165414,0.012664979,-0.039864223
-0.6161877,-0.018071631,0.73526627,0.689278,-1.041056,-0.41438025,-0.007989276,-0.012033718,0.2751931,3.3140965,0.520492,0.2766536,-0.11004217,-3.430806,0.20840123,-4.2031884,-2.370441,-0.016281461,-0.6868543,0.0063366443,-0.03006132,0.0054842383,0.087231904,0.14434321,0.33756977,0.19667837,0.121855825,-0.35533428,-0.008775548,0.07001547,0.05186902
0.120776415,-0.066520065,-0.30878034,-0.016052838,0.03169568,-0.42005146,-0.41364697,0.03537821,-0.34476724,0.23022781,-0.11783276,-0.41545257,-0.11792102,2.3622499,0.1502231,3.025547,1.7042418,0.048639897,1.4903736,0.056505598,-0.049954303,0.034014978,0.015702475,-0.21750438,0.16213824,0.22087063,-0.45980296,0.030224776,0.24617434,-0.3466624,0.35231093
0.56294006,-0.26054546,-0.36866271,0.31601816,0.06028772,0.2915282,-0.09637064,0.19458696,0.0030369412,1.0621722,-0.09140951,0.09083643,-0.19142506,2.2610164,-0.15554011,-1.5742494,-1.6923703,-0.07764016,-1.1141921,0.018129759,0.033058852,0.019941442,-0.036967855,-0.043337382,0.18545708,0.16245347,0.04652332,-0.096901536,-0.6263281,0.1244969,0.44319034
-0.3227729,0.038624164,-0.039828677,-1.9398439,-0.40697345,0.39138967,0.98712945,-0.243424,-0.27619278,0.11674713,-0.28379202,-0.18948619,0.27986535,-0.3443345,-0.3267574,1.6118504,0.9335637,-0.040048458,0.016756136,0.012935743,0.04609739,0.01513505,-0.093417116,-0.08004318,-0.4797965,-0.01659052,-0.42534533,0.19923615,0.315793,-0.06718016,-0.60574687
-0.09670973,-0.14384563,-0.016899157,-1.0719289,-0.629212,-0.26166895,0.084007435,0.06333423,0.0997206,-1.2226881,0.06798294,0.16692723,-0.024472952,1.46769,-0.3042802,1.8343883,-1.2939129,0.007357413,-2.550238,0.038898975,0.01229427,0.055710293,-0.20682009,-0.09500889,-0.30044588,0.09030832,0.2433402,0.116707936,1.1356134,-0.24406645,-0.4553439
0.16766173,-0.33856106,-0.21296926,0.19684052,0.405977,0.3177311,-0.32004353,-0.04204686,0.25463977,0.25567538,-0.1037792,0.27280253,-0.068005994,-0.4850302,-0.03900778,-0.6187516,-3.155056,0.0064642895,-3.4451435,-0.03268221,0.05931165,-0.03327114,-0.07267592,-0.007960943,0.4198477,0.18694746,0.49938697,-0.03457745,-0.55276054,0.3178304,0.42400134
-0.5645832,-0.86352676,1.468331,0.5938529,-1.3423432,-0.021124534,-1.1597161,-0.11698899,0.22366711,0.46055514,0.14047097,0.16350104,0.073142745,-1.0592514,0.5783488,-0.7003523,0.38769326,-0.19753286,-1.1881974,0.018962823,0.0039543137,0.031356096,0.15186784,-0.022151282,0.19323514,-0.19848832,0.23001352,0.13062312,0.51962054,-0.11080853,0.944581
-0.011299726,-0.9656974,0.1567894,-0.26772448,-0.27798772,-0.047389288,0.29860428,-0.012757264,0.0635266,-1.0767095,0.13440333,0.09128376,0.14340588,2.5765724,-0.34768614,2.8745267,0.115127735,-0.11119269,-0.66016775,0.059552535,-0.041198947,-0.03561897,0.026675293,-0.12965532,-0.10376042,0.054142006,-0.22359067,0.43441024,0.36954394,-0.061495077,0.5310905
-0.24311441,-0.07243513,0.17129122,-0.70974684,-0.10474769,-0.1589727,0.48984623,0.41487476,0.19749339,0.5432103,0.2287292,0.23624742,-0.3029188,0.48945192,-0.48114,-0.345432,0.6801599,-0.62993395,-4.4262033,-0.034777164,0.026891388,0.04777953,0.1030238,-0.11118138,-0.66501427,0.3888828,-0.12358851,-0.10248196,0.76091254,0.4894904,0.0045492337
0.104820564,-0.45614612,0.25659335,0.46304175,0.69080144,0.16430715,1.3955005,-0.018021092,0.008917687,-0.029993447,-0.025314344,0.016332136,-0.101474985,0.14702635,0.20135587,-0.8448655,0.6290196,-0.5116591,-1.3829254,0.011843346,-0.04078582,0.022975229,0.35948002,-0.33165792,0.1771685,-0.19610488,-0.5534625,-0.47122118,-0.90874547,-0.08091099,-0.5878278
0.14199285,0.07550261,-0.5560783,-0.38862213,0.40612274,0.0030251453,0.5825144,-0.10253368,0.12809089,-0.43713638,-0.16440989,0.017762681,0.12036592,2.7707498,0.16155303,-2.6581044,0.018755171,0.1533791,1.311396,-0.013676204,0.020879105,-0.062385194,-0.100891896,-0.105481565,-0.13288666,0.006301256,0.27718672,0.085211866,-0.23874477,0.5533557,-0.80340195
-0.06346686,-0.31066298,0.061061226,-0.06716251,0.14921054,-0.09222767,0.65437734,0.19696403,-0.09213308,-0.1615685,0.16474254,-0.07261258,-0.11138199,3.7097714,-0.2945451,3.0002184,-1.0429868,-0.06646859,-2.4733467,0.0013156384,-0.015271686,-0.0023260564,-0.07373329,-0.39277527,-0.07378155,0.05617425,-0.0772688,-0.1000058,-0.032322556,-0.15899141,-0.11585691
0.48260835,0.14045739,-0.6154531,0.76133525,-0.06488425,-0.32868576,-0.46268722,-0.26167208,-0.5104491,-0.44571093,-0.32618225,-0.514177,0.2639464,-1.6063019,0.33188993,0.10072961,-0.18563089,0.16398416,2.2967458,0.0066353977,0.055604376,-0.043601245,0.02245348,0.14062387,0.8725957,0.067371294,-0.03766355,-0.23157863,-0.19474639,-0.30207852,0.5348508
-0.15989083,-0.39213833,-0.2135557,-0.85284126,1.3479284,0.7239632,0.66705304,-0.54910195,0.019455569,-0.8307193,-0.34569576,-0.008105339,0.56053334,-1.8969487,0.07738989,0.28625023,-0.42887026,0.01970671,-1.3240658,-0.0075479746,-0.045079827,-0.011334673,-0.027150493,0.21737665,-0.14940827,0.10179907,-0.20712143,0.47609106,0.13347499,-0.09721766,0.124837674
0.3600225,0.23646395,0.11617658,1.3093303,0.08470572,-1.0071753,-0.17591457,-0.37484762,-0.066703744,2.2912235,-0.34562403,-0.00586624,0.31224748,-1.0078248,0.8649562,-2.3300002,-2.9671211,0.15179116,1.4350879,0.05725359,0.011693709,0.043876402,-0.039349906,0.32679978,0.25213715,0.26172498,0.24622485,-0.0956176,-0.6511254,0.061998628,-0.3679822
1.1022502,-0.16495547,-0.9575864,0.99641865,0.16909014,-0.3443592,-0.5470384,0.26969635,-0.109607875,-0.009931088,0.13866878,-0.2769576,-0.3027119,1.2649955,0.06256221,-0.15509398,2.3792002,-0.10768665,-0.6899928,0.002045013,-0.061216973,-0.016851999,-0.010369122,-0.13454318,0.23365934,0.06384623,0.16412136,-0.22836433,1.0193803,0.1407784,-0.31024566
-0.18631117,-0.16982134,0.41698766,-0.30353594,-0.5152692,0.31161192,-0.24570988,-0.04288189,0.31781223,1.9987814,0.30137876,0.21180958,0.02294604,-3.9773557,0.2202934,-5.649848,2.0876026,0.018463919,1.1656125,-0.0074009523,-0.05713691,0.04617724,0.060979806,0.2762187,0.16284822,0.2247957,-0.08682651,-0.14297342,-0.12364586,0.11286384,0.0036006747
-0.17485785,0.20781499,0.45217568,-0.042011533,-0.24948837,0.57700026,0.27715316,-0.5712223,0.21213336,0.45137334,-0.41969642,0.16538796,0.5716583,1.633352,0.58152086,-0.8291239,-1.3079251,0.2388598,2.055105,0.013087854,-0.031330697,0.0018343404,0.010547594,0.12601507,0.061610796,0.16192608,0.37752742,-0.7066574,0.3172963,0.4446705,-0.55827546
-0.2346113,0.07571919,0.4560826,-0.1573935,-1.1407567,0.40476134,-0.0038725405,0.24473256,0.20284818,2.6300113,0.19658364,-0.042289115,-0.20354621,0.18805453,0.23797464,0.607021,0.7454936,0.4066779,3.859826,0.05480396,-0.029695816,0.052224845,-0.029103033,0.010906024,-0.08510261,-0.075118065,-0.4227606,-0.29247513,0.5380777,-0.05851723,-0.4462337
-0.5744487,0.12868555,0.2941551,-0.02312508,-1.3036462,0.12643866,-0.057628803,0.0072590695,0.18498233,-1.0913612,0.35409337,0.30925277,0.0027801814,1.7978232,-0.003776063,-2.2467065,1.8221772,-0.28579438,-1.5075277,-0.045724556,-0.030967109,-0.055436037,0.13620129,-0.0486109,0.18511426,0.0030276855,0.038283437,0.28004658,-0.6538514,0.32781717,-0.00037626844
-0.20503521,0.31570926,0.21362104,-0.32231158,0.40970457,0.30219802,-0.38090652,0.24066493,-0.007841718,1.6240761,0.16147217,-0.024351427,-0.2106268,-0.4263492,0.028065506,-0.20904371,3.9989045,-0.0356194,1.6714827,-0.007947668,0.00076170266,0.04981561,0.016521588,-0.012300628,-0.21475439,-0.027738245,-0.4291928,-0.10728721,0.653875,-0.16043395,0.84762204
-0.09224079,0.11376811,0.030600982,0.27507374,-0.33976045,-0.93049186,-0.22277379,-0.13497366,-0.11208713,-0.89815146,0.2062858,-0.11835715,-0.01483283,-4.422649,0.20045723,-0.4723377,-1.5875312,0.040422488,1.5193046,-0.039440535,-0.05320009,0.027967893,0.057891063,0.30022502,0.09103857,0.06912668,-0.18490395,0.082414076,0.8418012,-0.34926596,0.5417912
0.05678849,0.09518574,0.07920867,-0.20009609,-0.15196851,-0.41327295,-0.20116673,-0.120218605,-0.094518974,0.478326,0.12512863,-0.14240949,0.084544286,-1.0618951,0.09723552,2.0556593,2.2552824,0.12685026,2.9370759,-0.013031699,0.03836003,-0.004888788,-0.077215314,0.027520096,0.26955184,0.27477258,0.21770658,-0.1453205,-0.052038327,0.24022895,0.11031944
-0.15138291,0.5383202,-0.2750527,-0.08969127,0.2171854,-0.070518196,-0.1467913,-0.39755473,-0.06362987,-0.045737367,-0.10453027,-0.010135983,0.29696542,-1.7279949,0.36354294,1.8951086,0.022790251,0.4256623,3.7197697,0.054171845,-0.015399374,0.04141467,-0.08798728,0.20805718,0.21877033,0.2129348,-2.2781696e-05,0.2148135,0.06162541,-0.09021436,0.78962964
-0.5216943,-0.53408176,0.554789,0.23006646,-0.939707,-0.34293264,0.8478857,0.03280645,-0.1065765,1.8524985,0.037388653,-0.1537162,0.09952485,-0.82354265,0.14066307,-2.4088466,0.07135328,-0.101481766,-2.2389424,0.06204748,-0.06082093,-0.028692141,-0.0039626462,-0.083488494,0.2963079,-0.048899792,0.07613296,-0.6779946,-0.3079387,-0.0543632,0.25922704
0.11503226,0.26809028,-0.3033202,-0.14450844,0.0876726,0.0037343751,-0.1107006,0.01621035,-0.06311313,0.22961475,-0.00534269,-0.028363856,-0.06573935,-2.3210077,-0.1814507,-2.348932,-5.186249,-0.15396221,-2.905007,-0.035127,-0.02608928,-0.0587466,0.039958056,0.14141095,-0.08708873,-0.092583776,0.27526057,-0.09261288,-0.41487202,0.10413208,0.1367134
-0.1049102,0.7838862,-0.8431828,0.40003935,0.21950784,0.363207,0.58242846,-0.021233948,0.4811765,0.9846656,0.76364756,0.39490607,0.1056938,-0.47854754,0.2741805,-0.35245046,0.8592148,0.13781102,2.2006261,-0.04652612,-0.037534602,-0.029136248,-0.07475019,0.12001901,0.11823766,0.18736854,-0.060777724,-0.38376758,-0.3988164,0.1385718,-1.1579727
-0.24551363,0.15664488,-0.50379366,-1.0165612,0.329939,-0.20817427,0.66060936,0.19437303,0.06711287,-0.41548145,0.07965603,0.18888104,-0.12032792,0.9216069,-0.2839337,-0.86169285,1.3870013,-0.1538648,-4.14702,0.014417782,-0.040253103,-0.032677792,-0.08899289,-0.16355751,-0.4989326,0.1416504,0.22324409,0.2461281,0.28904307,0.21730228,-0.7781447
-0.3013399,0.53705484,-0.18024284,0.073094204,-0.03800881,0.086389445,-0.72232556,-0.046734393,0.021439016,-0.7223099,-0.04805266,-0.0776926,0.07323654,-0.74557906,0.08429097,2.99921,3.0791152,0.1633725,3.4440444,0.0066096336,0.0264294,0.012561478,-0.08937284,-0.07681942,0.11237146,-0.31511542,-0.09249994,0.031092549,-0.0767716,0.01329285,-0.009876687
-0.38701534,0.18460844,0.35880905,0.14701013,-0.37923223,0.26448107,-0.4898932,0.006203884,0.09332731,0.8530124,0.13096863,0.22829981,-0.10708098,0.24386777,0.3172149,-0.09871323,-2.4197268,-0.23719023,-0.9556004,0.020067252,0.022148766,-0.06237004,0.1155385,-0.048116405,0.72259325,-0.23556577,0.18937942,-0.035641257,-0.58406705,-0.6543323,0.4640133
-0.6296599,0.30956674,0.60880744,0.18911132,0.4088838,0.6358645,-0.40416253,0.21787387,0.051241145,1.728425,0.046811834,0.04265336,-0.23742627,1.7643678,0.04489827,0.6565183,-1.3160604,0.26555452,2.945166,-0.036253273,-0.0036310107,0.018479615,0.042607907,0.05595794,-0.09073421,0.060919277,0.38317716,-0.5595643,-0.04147946,0.20131102,0.2889032
-0.81525576,0.22426903,1.5505272,0.43003336,-0.7220263,0.1734934,-0.64977527,0.47235164,0.1501585,-0.015845211,0.73368233,0.33579293,-0.6258216,0.6954379,-0.1592162,-0.023448268,0.7842885,-0.42621905,-1.6510551,-0.056297682,-0.024463281,-0.045021854,0.09781769,-0.1697605,-0.12548548,-0.51826674,0.079499446,-0.22662923,-0.36710054,-0.14798501,0.39525497
-0.9889824,-0.43642646,1.4096622,0.055913556,0.18870208,0.0068898867,0.46863288,-0.32458276,0.031698294,0.44939497,0.0386046,0.016407235,0.3686032,1.4941187,0.1283694,-0.6348802,-0.28514257,-0.120216265,-0.573954,0.039658077,0.034090273,-0.012244768,0.06491605,0.0753674,-0.56707263,0.11042209,-0.57535166,-0.054588817,0.7442736,0.316562,0.22638974
-0.3222683,-0.53013057,0.020179404,-0.12985972,-0.31130788,-0.33586386,-0.19342464,0.37087274,0.032364108,-1.6977926,0.18665317,0.09918049,-0.44033843,-2.1182451,-0.3484497,-0.93503106,2.1958673,0.104798965,2.3611827,-0.02987618,0.03731332,-0.027534358,0.017124746,0.24962501,0.50152344,-0.16135271,-0.4601973,0.62050426,0.0998814,-0.30990112,0.29468703
-0.7880666,0.19011204,0.7345789,-1.085745,-0.18744908,0.06487728,0.8425325,-0.030020883,0.17671734,0.50252646,0.21191888,0.26427457,0.002109385,-1.245648,0.40395883,-0.67059517,0.1179179,-0.13881907,-1.0607705,-0.058107294,-0.042996712,-0.05400665,0.019418191,0.0023152179,-0.29442683,-0.0014637912,0.06093252,-0.3143295,-0.55107516,0.28067595,-0.32517684
-0.11486056,-0.7419754,-0.103738435,-2.7381124,-0.3152669,0.52720743,0.37368786,0.4000684,0.09857235,0.20042543,-0.23471847,0.024696294,-0.24852072,1.224086,-0.5130268,-0.70637155,0.5584347,-0.11242678,-2.2050378,0.015179619,-0.050507896,0.042121947,0.026482724,-0.13254663,-0.4715478,0.16619246,-0.27768815,0.35492268,-0.04398209,0.22106259,0.27034143
-0.5446962,0.7655442,0.537698,0.6834527,0.42357805,0.19629447,0.28050035,0.36089167,-0.474465,0.273621,0.03554906,-0.5184955,-0.29769322,0.7727064,-0.19521518,1.9389808,-0.78736323,0.5209341,3.7761118,-0.04521873,-0.01492276,0.021743126,-0.101579025,0.16524707,-0.11872528,-0.16203378,-0.11996719,0.25697884,-0.08172304,-0.51532876,-0.28650776
-0.65089536,-0.12123333,0.8866399,-0.21558289,-0.7027849,0.23235126,-0.01949532,0.031985056,0.14443459,-0.6022772,0.1360113,0.25105634,-0.0046321186,0.18940482,-0.06015905,1.9731835,0.2983731,0.22890355,3.0746355,-0.0067210793,-0.043827094,-0.025825068,-0.100668095,0.12605163,-0.123866074,-0.274938,-0.8359301,0.6622344,-0.07110768,-0.29756823,-0.20150757
-0.011150912,-0.52958256,-0.040753696,-0.7527343,-1.0435718,-0.54311484,0.69493026,-0.34008253,0.29204592,1.4780581,-0.112593666,0.3829257,0.49737123,0.92558897,0.2267697,1.0687836,-1.3192949,-0.10685295,-3.0517607,-0.04099136,0.002478823,0.030239962,0.053959973,-0.023450436,0.055056993,0.023059031,0.1525234,-0.55674714,0.08892868,-0.06443562,0.00497283
0.19498023,0.2618994,-0.8633679,-0.53022647,0.7271356,0.7989376,0.11551644,0.20584945,-0.073130704,4.8602424,-0.024097184,0.030590564,-0.16255338,-0.077278525,-0.4581948,0.1948521,-0.55652446,-0.13707148,-1.6233644,0.016992263,0.006934054,-0.017911427,0.023477769,0.0369582,-0.39296335,0.21215966,-0.0059898915,-0.20051317,-0.13333823,0.17521249,0.23218307
0.28037745,-0.062570475,-0.27510455,-0.103084765,-0.21103518,-0.27912048,-0.019808797,-0.23375395,0.27296498,0.86311454,-0.12892014,0.33487245,0.19951412,1.4695861,0.500911,-1.5804869,1.0297992,-0.3915786,-2.8031628,0.05162046,0.0077140704,0.040382892,0.03198187,-0.16245265,-0.23814008,0.20554046,-0.059368096,-0.24980754,0.59217614,0.3562001,0.27712104
-0.10580701,0.3321241,-0.048545763,0.7034713,0.8927691,0.12482809,-0.32688007,0.20322612,-0.25424352,1.573667,-0.28354698,-0.41203594,-0.17124298,-0.5434988,-0.05440054,-1.1192749,-0.76825744,0.39124522,4.049792,-0.031545497,0.05515442,-0.044705473,0.0068407864,0.12391498,0.25390333,-0.008631241,-0.107559,-0.17606784,-0.31219038,-0.24131559,0.7006497
0.16418897,-0.10003428,0.12591524,0.39857104,-0.15186639,-0.08838997,-0.36018184,0.0009174613,-0.23388922,-1.3817892,0.0073346132,-0.25260296,0.08295975,-3.0651214,-0.0030619686,0.6769937,-4.1892505,-0.11769109,-2.01997,0.048833363,-0.03135652,0.02827359,-0.07422309,0.042549547,0.4478906,-0.37788272,0.2547298,-0.0015298714,0.07324253,-0.034960758,-0.0054697595
0.84207654,0.24104258,0.026715204,0.48085463,0.028848665,-0.55580175,-0.40185776,0.24458505,0.0039550685,-2.3191788,0.30933684,0.1329609,-0.085789196,1.4491845,-0.25678423,1.6749382,-1.3746877,-0.049247935,-1.8811255,0.057856776,0.05476916,0.050127327,-0.098726206,-0.054211788,0.28204718,-0.13310987,-0.39203387,-0.12828359,-0.5343308,-0.10555064,-0.86517733
-0.002240284,0.15657094,-0.35319993,-0.14954583,-0.5308251,-0.24375723,0.21497299,0.027591167,-0.16048768,0.8577433,0.14446092,-0.21625005,0.059915546,-2.9314795,-0.06310207,3.2892396,2.165584,-0.017824076,0.14167553,0.057522207,-0.03442447,0.028133407,-0.09233046,0.044198766,-0.012149907,0.11138621,0.14357443,-0.3647302,-0.1976692,0.30500582,-0.44351047
-0.08937774,-0.21457979,0.9243578,0.756455,-0.619841,0.19179073,-0.9777405,-0.3452041,-0.06511677,0.1813538,-0.19613251,-0.0848127,0.34002325,-3.2729812,0.18263444,-0.24442929,-1.7095876,0.06297696,2.0832474,0.01642152,0.005944021,-0.013405465,-0.0038087799,-0.0015405259,0.35947973,-0.08423566,0.16387203,0.12983298,-0.06715482,-0.240004,0.4572037
-0.14443055,0.05938298,-1.126503,-1.2736578,0.1328926,0.710999,0.98793113,0.29231066,-0.193556,-2.190857,0.2551503,-0.16806771,-0.34408802,-0.37201333,-0.9804237,0.965117,0.10103954,-0.18253362,-0.17498071,-0.061903633,0.009760462,-0.04528556,0.09341294,-0.042570923,-0.15644005,0.11264297,-0.29538798,0.24918498,-0.65419406,-0.16169736,0.44569695
0.8101874,0.13923436,-0.5328265,0.6666482,-0.03087919,-1.3916609,-1.0890945,-0.68112665,-0.015241294,-0.2572291,-0.7261146,-0.011793078,0.86722326,0.8163589,0.5364255,-0.9911149,-0.9723777,-0.4337946,-3.7521005,-0.0014013574,0.026309974,0.0022360906,0.19066718,-0.036504798,-0.6920885,-0.2930075,-0.059358362,-0.0287132,0.37541524,-0.370458,0.26326996
0.35563704,0.55139136,-0.7971308,-0.2556283,0.83681846,0.42005384,0.2939382,0.24524842,-0.059312057,0.9773596,-0.19550776,0.007149364,-0.24023637,-1.4876796,-0.11198856,-3.816929,1.2797104,-0.06353485,-2.6986022,-0.044891432,-0.04906477,0.046062037,0.025773413,0.038064074,-0.100055434,0.053018752,0.07672791,-0.13458051,-0.7056547,0.33351007,-0.8293246
0.38502765,-0.36139175,-0.64179814,0.06866029,0.9377156,-0.61005044,0.3324582,-0.23553607,0.2245023,0.0022906044,-0.14327207,0.10973856,0.11440725,0.49512485,-0.10349272,-0.08989034,-1.0704067,-0.33045217,-3.5092182,-0.008072846,0.036074854,0.054930665,0.13948476,-0.063601516,-0.36360648,-0.088659704,0.08557442,0.92182344,-0.07519018,-0.5083946,-1.7285479
0.08487331,0.2596874,0.43815815,0.6180606,0.68296945,-0.32967037,-0.92183846,-0.31092435,0.11657597,0.2971098,-0.21688424,0.10618612,0.13117333,1.4708643,0.51030004,-2.4801729,-2.2157805,0.29423526,3.1583188,-0.0046504363,0.0534577,-0.03817997,0.053174898,0.25595915,-0.078602396,0.008403593,0.2886556,-0.22517487,0.24036571,0.1701418,-0.35649
0.10904661,-0.36388043,0.26751545,0.16550396,0.36248598,0.04140952,-0.07456567,0.09940752,-0.019924672,1.8454294,0.39236668,-0.077472046,-0.12102539,-1.9701976,0.22206888,6.670014,-3.1593623,-0.041451957,-0.8938768,-0.054937713,-0.019658081,-0.027015984,-0.05647262,-0.055120017,0.21386889,-0.2556731,0.1493696,0.24089076,0.1793287,-0.46970782,-0.349918
-0.61833304,0.87671155,0.024866914,-0.042466678,0.3024769,0.38894942,0.18158534,-0.39893627,-0.005577848,-1.1678411,0.23444353,0.0027308485,0.46008572,-0.23956546,0.18038844,0.91524655,-0.6303307,0.43220842,1.126303,0.014013596,-0.029954486,0.02521094,-0.44685203,0.36726454,0.083565764,0.35937852,0.1394467,0.3987972,0.2884052,0.28405496,0.052296914
0.17748204,0.17445108,-1.223567,-0.3654298,0.08654864,0.49783143,0.7001086,0.17901027,-0.06185224,1.169447,0.13909225,0.021056758,-0.23003694,-3.301967,-0.009132158,1.4207289,-2.4516885,-0.072535954,-2.903481,-0.05773805,-0.004881583,0.018745847,-0.019548744,-0.019207438,-0.5449208,0.011630735,-0.06505582,-0.23412693,0.42769048,-0.096334964,0.45480728
0.040545683,-0.6106867,0.3392051,-0.2636273,0.53989553,0.8648941,-0.4042455,0.005139813,0.13976596,-2.134014,-0.21917762,0.19705074,-0.0028155237,-2.3029966,-0.1604779,-2.315986,3.9693928,-0.12343773,1.1672344,-0.05190099,-0.014255978,0.035354853,0.12125231,-0.1686406,0.09485257,0.012647767,-0.1308028,-0.0112146,-0.17717361,-0.042008724,0.5484152
0.43108448,-0.33024278,-0.5633739,-0.21741469,-0.22115573,0.8588228,-0.4033862,-0.5998989,-0.60943824,-0.24172184,-0.6075217,-0.21510564,0.92714137,1.0475007,-0.002976756,-0.81848365,0.24598591,-0.43755016,-2.6638982,0.034574114,-0.031736232,0.03439559,-0.02522674,-0.036784146,0.13087092,0.15907909,0.051769573,0.3449675,0.17665565,0.32014284,-0.50041854
0.012230069,-0.24233744,-0.25523242,-0.41175905,-0.29070714,0.79957485,0.85562927,0.3724948,-1.0057511,-0.14239842,-0.48994684,-0.9748196,-0.438486,-1.32907,-0.6514092,0.044670805,1.0250885,0.1788259,1.30381,0.059896678,-0.050540604,0.05902157,-0.02397229,0.18557943,-0.07419851,0.30765265,0.15290755,0.20677336,-0.1093584,0.035351634,-0.030079713
-0.47204864,0.6797761,0.5189441,0.84267104,0.6862331,-0.2855129,0.078261144,-0.325314,0.1712129,-0.06868258,0.104856946,0.15484563,0.3068349,-0.25340915,0.44074813,0.14225683,0.4586553,0.15286939,1.2883904,-0.028115228,-0.032585666,-0.058975615,-0.033972878,0.07874318,-0.37063047,0.05877253,-0.22549519,0.4510241,-0.49838212,-0.17595558,-0.5823705
-0.30444944,0.42331582,-0.4624002,-0.28759083,0.63422513,0.28578877,2.2045524,0.59265983,-0.9296521,-1.8821917,0.052520603,-0.88689005,-0.62249076,0.3255946,-0.957056,-0.6614721,0.32762086,0.12510513,-0.7462889,0.04295072,0.018767819,0.061828136,-0.21650994,0.26416478,0.28905058,0.057772253,0.00103984,0.3868147,-0.23013899,0.11956119,-0.4312424
-0.13871738,0.26217338,0.3207019,0.37244585,0.20078844,0.21220712,0.024853736,-0.14772229,-0.1987508,-0.52604896,-0.042153865,-0.23278503,0.14579439,-1.8672882,-0.08279224,0.30933592,-0.37249973,0.18488893,1.5680573,0.048786268,0.03342837,0.06069974,-0.050407972,-0.030000305,-0.10070855,-0.3262996,0.16116177,-0.05434747,-0.28212795,-0.07478112,-0.4578405
0.23012866,0.079288356,-0.1577894,0.04372877,-0.06211036,0.029965008,-0.3886626,0.010344273,-0.022196246,1.5223198,-0.0020343987,-0.018632822,-0.020991147,-1.8930498,-0.15455835,-2.0458672,-4.677177,-0.14973073,-2.599138,0.020235904,0.030273654,-0.0021655858,0.04999375,0.11906628,-0.1254572,-0.09387123,0.5163998,0.019209662,-0.04253491,0.11300036,0.17341451
0.10689169,0.17774105,-0.08930192,0.24498361,0.04131294,-0.3409566,0.4389763,-0.1422826,-0.35546517,-0.54103947,-0.48338673,-0.3675143,0.093616694,-1.0524135,-0.1537278,-0.4175537,-2.500365,-0.16710094,-3.169473,-0.018764295,-0.0548395,0.025184669,0.016033836,0.30575612,-0.21167244,0.12297183,0.080416426,0.0973578,-0.09273061,-0.35984886,0.5970902
0.7024286,0.56182176,-0.7932107,-0.20571007,0.81472033,0.5005229,-0.3321347,-0.11997291,0.24574684,1.802856,-0.2425954,0.22917278,0.23659867,0.35312772,0.35671407,-0.6896377,-0.6485547,-0.11696738,-2.5031445,0.036240213,-0.028239243,-0.059288077,0.016468138,-0.037572574,-0.17960516,0.0055192257,0.5900235,-0.37152785,0.19333328,0.08492564,-0.35826677
-0.19152778,-0.8756411,0.44401863,-0.054999758,-0.9455122,-1.4109386,0.4309691,0.024687959,-0.16750176,1.0561665,-9.71547e-05,-0.13750246,-0.08491939,-1.2584454,0.1641962,-1.153064,-2.4965687,-0.1074392,-1.7169248,0.05560814,0.0150536895,-0.05299721,-0.043828692,0.18179308,0.50785595,0.33679876,-0.05482514,-0.494869,0.13804257,0.11355535,-0.53691614
-0.18428594,-0.5293861,1.486673,0.14464512,-0.5675036,0.7078032,0.27567232,-0.23097612,-0.00900533,1.2406697,-0.17454743,-0.021884972,0.28324786,0.49324366,0.16091223,1.6347988,-4.1469884,-0.0071139364,-1.9810402,0.0623182,-0.04878269,-0.02283921,-0.15942273,-0.1838183,0.41587564,-0.25840124,0.12698244,0.25839016,-0.3159584,-0.035802852,-0.2710094
-0.16976409,-0.15289934,0.7343104,-0.19869375,-0.9889004,0.06571645,0.16730401,0.1579638,0.033097487,-1.9399362,0.6754475,-0.07979031,-0.13115656,-0.08643129,-0.055124763,0.29948264,0.6035998,0.2561382,2.4136832,-0.0237142,0.053645737,0.050398424,-0.010628235,0.030917086,0.32378498,-0.061888285,-0.577487,-0.24667835,0.40567952,-0.06296575,0.4426091
0.23605289,-0.11193896,-0.112969324,-0.85200554,0.59071016,-0.50810504,0.08196751,0.07178853,-0.045712963,-1.0751603,-0.08319867,-0.083917014,-0.13525487,-2.5632977,-0.20876391,0.36301237,-1.3253435,-0.31333917,-3.7058458,-0.023236312,-0.026294753,0.033555284,0.03261977,-0.0033257143,-0.3184538,-0.18686216,0.29653108,0.4613351,0.18667267,-0.16345197,0.12599157
-0.08547609,0.19922537,0.40699658,1.0953208,-1.0456882,-0.36980096,-0.73667186,-0.2211199,0.044776782,-0.55159813,0.15859675,0.015842417,0.009702701,-2.328579,0.54367894,-0.3058835,-0.5824218,0.117466405,1.5696539,0.015863761,-0.062212847,0.05647468,-0.03531366,0.14825222,0.20855094,-0.273922,0.48819664,-0.12953132,0.29959926,-0.24979302,0.4614419
-0.15077773,0.4109795,-0.09437479,-0.17280422,-0.22196855,-0.2583175,-0.45745412,-0.23947732,-0.35692543,1.5030955,-0.34758294,-0.433047,0.24939428,-1.7897797,0.04001123,2.0892167,-0.82173795,0.006322178,-0.029683733,-0.056591116,0.00037036836,0.007742502,-0.014766236,0.17305367,-0.21011752,0.099949226,-0.107626684,0.047543485,0.27149212,-0.3066794,0.7325561
0.16637321,0.048674095,0.08484882,0.44975138,0.7836862,-0.62799674,0.6000724,0.13207778,0.09855787,0.16587465,-0.28122404,0.18516165,-0.13509093,-0.031249184,0.23131493,-1.3241014,0.14510041,-0.137865,-2.3678074,-0.043866478,-0.036801822,-0.016987287,-0.019352254,-0.021389924,-0.061518677,0.20481013,0.5807635,-0.46361393,-0.5301776,0.2454385,0.14150012
0.25566828,0.2203222,-0.09133581,1.0624866,-0.52397615,-0.164758,-0.75120014,0.15751775,0.20212266,0.048863817,0.45045394,0.15568563,-0.1580379,-0.538218,0.44330055,-2.990783,-0.36129832,0.17018366,2.118806,0.039982267,-0.039240435,0.04476241,0.06593179,0.19621822,0.34293404,0.24882662,0.092473745,-0.5921755,-0.13008606,0.22550488,0.23493543
0.16663574,-0.22365461,-0.38724414,-0.30961233,-0.53286844,-0.35608566,0.65413463,-0.10471002,-0.212137,0.68472743,-0.38380504,-0.24133904,0.10432747,-1.8239901,-0.24915577,0.69155794,1.3633057,-0.29705834,-3.6508944,0.012447536,0.028856963,-0.003929749,-0.011923772,-0.11105496,0.15727141,-0.025340326,0.28571835,-0.13663684,-0.85905224,0.031051701,0.6346616
-0.044255786,-0.16744074,0.0778529,0.95114315,-0.7885844,-0.6024535,0.09034256,0.024034683,0.14263359,-0.016930308,0.36253023,0.12958492,-0.03154864,-4.0445848,0.55620295,0.8176651,3.002478,0.09966022,2.6521223,-0.049783006,-0.05883436,0.00012066215,-0.05073655,0.097058535,0.24242805,-0.015436118,0.19519876,-0.5162624,0.2623436,0.33364302,-0.2873185
0.72141653,-0.16520181,-0.42880097,-0.020080777,0.9369493,-0.5743636,0.9230091,0.58606344,0.32878295,2.0882273,0.29089695,0.2770354,-0.59051746,-0.37589818,-0.4870114,-0.08690356,0.039006986,-0.28911254,-1.2100568,-0.036792845,-0.010051541,-0.029920064,0.019860774,0.0829794,-0.3979721,0.3836483,0.13949494,0.2376749,-0.059467826,0.19295238,0.25526884
0.17057885,-0.45147982,-0.64636993,-0.39970028,-0.0981813,0.2678789,-0.018887201,0.25803497,-0.08610817,0.6492029,0.15600197,0.033638194,-0.12307645,4.7942386,-0.36137542,1.8055624,1.9942898,0.0073214225,-0.7619096,0.01288832,-0.052155465,0.013297811,-0.020100644,-0.22050631,-0.28529578,0.32583767,-0.08068742,0.40627682,0.117061876,0.015574335,-0.57030267
-0.2801079,0.24024273,0.53210497,0.41344583,-0.5549668,-0.36599544,-0.14234632,-0.23590548,-0.042299185,-0.15447637,-0.10677303,-0.091205,0.14440855,-1.5289339,0.20964871,-5.5333943,-1.3951217,0.015288857,-0.78237385,0.0129978135,0.036879927,0.036524422,0.019834649,0.36621827,0.015240649,0.16823345,0.3720712,-0.69889677,0.14184205,0.040214267,-0.023968866
-0.19479465,0.07489693,-0.49558032,-1.1646793,0.66943985,0.8324817,0.2591033,-0.29672906,0.18435015,-0.6825573,-0.46107268,0.19508855,0.1358834,-2.0624907,-0.13344666,-1.7210363,-1.5650172,-0.0059010447,-1.5667425,-0.018901505,-0.039604798,-0.0017723143,-0.03529808,0.19992097,0.07132333,0.031763453,0.20783474,-0.52438194,-0.5152193,0.07743253,0.31991652
-0.7387521,-0.4783371,0.44378355,-0.6505259,-1.0845507,0.2386454,1.2195879,0.12990692,-0.07413661,1.7111706,0.0010523032,-0.07835243,-0.23431782,1.7239767,-0.07755422,-1.3159422,0.06618411,0.2649163,1.8550315,0.032104805,-0.05855041,-0.047275446,-0.07071981,0.16293219,0.43303117,0.18196489,0.1846553,0.015307805,-0.61584836,0.04390477,-0.10260135
0.17412351,-0.0726029,0.07116901,0.34252807,-0.011111547,-0.13196386,-0.5618754,-0.008016987,-0.21366356,-0.1500688,-0.25659367,-0.1594519,0.07247254,-0.2749157,-0.07827133,-1.0260568,-1.7247013,-0.42546758,-4.239241,0.011319123,-0.056512386,0.030832134,0.059644863,0.17078881,-0.5039759,0.2544842,0.41631243,0.6890207,-0.059068765,-0.59658605,-0.42364544
-0.16437997,0.44117162,0.10605186,0.57867646,-0.6207296,-0.34202018,-0.2932756,-0.16372593,-0.22905062,0.17091009,-0.10980601,-0.2786033,0.16274214,-1.1266416,0.20358457,1.4949998,-1.2010038,0.4749556,4.104034,0.0044546127,0.010132827,0.033157296,-0.091578364,0.31554645,0.21567492,-0.074643955,0.01116095,-0.37676182,0.034151036,-0.5775855,0.2733745
0.21858658,-0.6356329,0.4544526,-0.4914614,-0.18967116,-0.06197002,-0.2797584,0.31441033,0.07559989,0.36746576,-0.28538126,0.15079053,-0.051513474,1.364429,-0.122801036,-0.05204377,-0.38298953,-0.10767871,-1.6473887,0.02769705,-0.044415265,0.054452583,0.015121336,-0.023391394,-0.5705544,0.26854888,-0.38598835,0.1418612,1.154226,0.41741905,0.8086811
-0.22963177,0.5851666,0.76657736,1.938063,-0.24146551,-0.6355917,-0.6670348,-0.4651137,0.4101797,1.5181557,-0.1130323,0.1447555,0.55543077,-0.15241078,0.84225297,0.043756466,0.2412098,0.3771974,3.558309,-0.05626352,0.037322834,-0.015189387,-0.0050289407,0.27300227,0.411349,0.03166221,-0.029141003,-0.36334863,0.08271351,0.075371236,-0.40515733
0.4899254,0.22836897,-0.27442652,-0.07235366,0.41547936,-0.24702044,-0.3454851,-0.04124976,-0.1776804,-1.0458362,-0.08311418,-0.20601365,0.10405201,-3.3636775,0.029259034,-1.0947565,1.9642831,-0.028238837,-0.24325696,0.04530582,-0.025520988,-0.056958675,0.04045547,0.19795156,-0.20167089,-0.05087368,-0.18061703,0.48674604,0.5121243,-0.3720767,0.56365037
-0.35954916,0.20728023,0.24180691,0.68630856,0.07944835,-0.12694274,0.030123187,-0.13931926,-0.06369954,-2.5485256,0.22066665,-0.03023432,0.21175428,2.9051142,-0.07091023,3.766793,-0.025754236,0.013078013,-1.1427226,-0.055795588,-0.061055154,-0.032075353,-0.08177322,-0.13585816,-0.0873892,-0.28118655,0.06337561,0.46486092,0.03566116,-0.14648701,-0.46463984
-0.3316147,-0.4055569,-0.14850843,-0.94963884,-0.42450154,0.73116934,2.9468327,0.09453831,0.043040663,-0.9159765,0.42323235,0.11648728,-0.17401524,0.090618394,-0.13621815,0.52058166,-1.5875461,0.19140498,1.2222235,-0.010544002,-0.04561302,0.0005913228,-0.16855559,0.22291003,0.58428603,0.12419407,-0.058420364,0.07664733,-0.14146696,0.24849263,-0.54630727
0.23269387,0.4933523,-0.39742652,0.13866253,-0.10009662,-0.4434534,0.18156266,0.1153842,0.31451222,-1.7349663,0.4627558,0.28570652,-0.0005378842,-1.2078757,0.09687558,4.6232963,1.4475228,0.06695539,0.08765802,-0.0040306225,0.020641357,-0.05550825,-0.07010089,-0.23019662,-0.14563401,-0.24364905,-0.29821163,0.5712967,0.3421704,-0.16835576,0.3773215
1.0565795,-0.9104194,-1.2667391,-0.58835715,0.45938918,0.7681336,0.17948003,0.23405497,0.049107283,1.1295742,-0.027220014,0.031488348,-0.3315534,0.37577665,-0.4008195,-1.8049123,-1.9522786,-0.09276096,-2.7732282,-0.039429106,-0.018181674,-0.024180286,0.015793182,-0.002385048,0.016259875,0.50461775,0.24859248,-0.0918243,-0.048442345,0.37301624,-0.7559198
0.045154456,-0.21065539,0.03328438,-0.12290448,0.07562176,0.21739732,0.14106265,-0.056080945,0.011765088,-0.1552874,0.036741525,-0.020446505,0.14634067,-0.42485154,0.077878445,3.1775239,3.0905464,0.14139792,1.0457793,0.012243487,-0.046744503,-0.033623144,-0.090133056,-0.19641876,0.14161937,-0.11575592,-0.34286445,0.35787207,-0.06783389,-0.016409384,-0.44786248
0.1120471,0.23896226,-0.9655878,-0.046394646,0.4429074,-0.28622025,-0.72653615,0.07600943,0.19482936,-0.069390126,0.12021983,0.23366997,-0.06345822,-0.94388366,-0.20469227,1.1235417,-0.69662046,0.011131735,-1.6841279,0.008421749,0.009969287,-0.012355089,-0.075199865,0.29351807,-0.070147105,0.41357762,-0.070651315,0.44233832,0.04428879,-0.19845611,2.5237677
-0.35880297,-0.14488341,1.1834468,0.10998903,-0.2423074,-0.7772307,1.0235567,-0.10905788,0.56888646,0.20963982,0.5531454,0.6097122,0.20843361,1.5410037,0.454775,-1.098727,1.7086422,-0.18583941,-2.0941582,0.02251175,0.04921502,0.039906137,0.02403379,-0.18670247,-0.0053692088,0.14295311,-0.04905798,0.22221576,0.24625106,0.013245879,-0.0484509
0.26819912,0.06480182,-0.9037963,-0.14433621,0.22037372,-0.22567444,0.30857542,0.06251479,-0.22881687,-1.222395,0.10187215,-0.16905317,-0.04064812,0.28275326,-0.32102466,0.34678602,2.5594823,0.15646727,3.1663141,0.04362096,-0.027734876,-0.058312245,-0.07631909,0.061880905,0.013722677,0.11415577,-0.2501987,0.5648073,-0.07723146,0.07668439,-0.1314745
0.38651416,0.042343553,0.029446375,1.2390164,1.0022831,0.5077412,-0.54271704,0.011567747,0.23510219,0.1463278,0.038355887,0.0008146548,-0.0071805157,1.1915697,0.14368246,-0.667081,0.6040221,-0.3244907,-0.87816054,0.045836166,-0.017350085,0.010223508,0.106753126,-0.330734,-0.09242324,-0.041970223,0.30972487,-0.49615258,0.19719522,0.32529885,0.0306237
-0.48949292,-0.51934844,0.63814884,-1.2688171,-0.5691077,-0.12157304,0.075938836,0.35578242,-0.03997938,-1.3279164,0.3404794,0.029472383,-0.19881913,-0.6230761,-0.60602117,1.4652046,0.11071571,-0.18655194,-2.800665,-0.022406258,0.041118808,0.0033170134,-0.07977351,-0.19216967,-0.40897796,0.01700944,0.07858173,0.4926917,0.37415233,-0.29113436,0.119127125
-0.33941612,0.14278863,0.1997176,0.1393704,-0.45956513,0.20455037,-0.16316321,-0.009602086,-0.18690503,1.274645,-0.34423882,-0.15353131,-0.055458385,-1.0083067,-0.007363024,-0.19365858,1.4082218,0.31729457,2.9536858,0.062253304,-0.043878473,-0.032406107,-0.098176464,0.06423196,0.081891835,0.089221545,0.10632783,0.54531556,0.05581426,-0.06439533,1.1193173
-0.5875877,0.39740914,0.2261067,0.015032674,-0.46955383,0.30180296,0.16055839,-0.113626204,0.25875035,0.15978587,-0.052767236,0.24334314,0.02876413,0.76756126,0.08536342,-1.3316945,0.52307886,-0.06666117,-1.7155846,0.0054494664,0.0017775074,0.0027113184,0.046484537,-0.07166226,-0.7388923,-0.20882048,0.28658116,-0.1815188,-0.34062994,0.06967274,0.26894403
-0.23525266,-0.16425252,0.27986687,-1.2636057,0.28528878,0.5095488,0.3710275,0.15578923,0.05586785,1.050568,0.02083284,0.06944752,-0.060038198,1.9212476,-0.72800386,0.36263406,0.57824826,-0.25945,-3.8094215,0.045449182,0.0364248,-0.00946869,0.024235774,-0.42957288,-0.5733847,-0.16650522,0.25817543,-0.27803987,0.6226781,0.1138878,-0.6212576
-0.01838916,-0.025894947,0.36020717,0.061266262,1.106819,0.53301895,0.40990046,0.17883857,0.24010922,1.3455848,0.061612833,0.31725642,-0.07190276,-0.88262457,-0.07641701,-1.4648507,-1.8320744,-0.24733426,-3.619207,0.040136017,-0.0595681,0.011828482,0.051560536,-0.026272008,-0.20173617,0.0051755635,0.2988794,0.118227765,-0.9718163,0.23479742,-0.0629509
0.0016803141,-0.21800697,0.5015577,1.0374618,-1.1395252,0.018404042,-0.98512375,-0.33257934,0.041947775,1.4145882,-0.17585677,-0.0016552455,0.3033683,0.5071452,0.9128264,-1.6217166,1.3195523,0.21572447,2.751464,-0.05856736,-0.050988242,-0.0017150342,0.014594013,0.16078876,0.3340643,0.12721328,0.06606531,-0.21113476,0.25603813,0.2569747,0.03810765
-0.1215775,0.09078215,0.19532076,-0.11992399,-0.29444498,-0.010355845,-0.3579175,-0.33737847,-0.084539324,0.25560528,-0.40724787,-0.15180385,0.36594513,-0.8391829,0.2706049,1.7120768,2.1625907,-0.14431733,1.0157243,0.015130617,-0.04127843,-0.022933595,0.12255132,-0.013051551,0.065242924,0.06221335,-0.025401717,0.37524778,-0.15489519,-0.11243666,0.18106858
0.20288652,0.3083015,-1.1705501,-0.66830564,-0.29051155,0.22409326,0.7787971,0.12751447,-0.05162172,0.2450747,-0.09222332,-0.056917384,-0.088637784,-0.29963368,0.06374129,-0.24500251,0.0564782,0.26764324,2.89969,0.046263307,0.015569389,-0.047062576,-0.04184877,0.11203583,0.25195357,0.18020338,0.06301145,-0.44395694,-0.5933532,0.75457907,-1.2286899
-0.09558105,-0.7658457,0.42640993,-0.09694357,-1.1731762,-0.66143113,0.077283286,-0.35820442,0.09853443,-0.94480866,-0.33782443,0.16055109,0.36599568,-0.50781363,0.25735635,-1.6304723,1.3513291,-0.29788265,-2.3058834,0.020839728,-0.021256723,-0.015669748,0.1238899,0.061452586,0.07595367,0.057402186,-0.17071927,-0.39312255,0.05534148,0.30747676,0.2273744
-0.32951146,-1.0123805,0.3343007,-0.05804507,0.062732674,-0.12091577,1.0410817,-0.27884316,0.0588606,-1.7995502,0.21854673,0.16439568,0.18937437,0.689642,-0.36476654,2.0688443,0.18630068,-0.20012787,-0.45025477,0.012481801,-0.043213047,0.03279595,0.09531936,-0.18240635,0.08100648,-0.010479245,-0.61030126,0.7520789,0.18603855,-0.1327404,0.096109755
0.5224589,0.059289075,-1.1483712,-0.24456169,0.5126787,-0.7726581,0.5907299,-0.66695696,0.2848343,-0.39254427,-0.28254545,0.26852417,0.57207966,-1.8262259,0.38809353,-1.9524004,-0.02614961,-0.29258952,-3.9563735,-0.0035102144,0.005589001,-0.020659178,0.102897644,-0.1752196,-0.003857713,-0.041377336,0.0055666342,-0.11243064,-0.4088321,0.21198104,0.5811598
0.02201253,0.138619,-0.15948643,-0.14685835,-1.0449543,0.1765403,0.90017205,0.027691523,-0.21371062,-2.024203,0.2083387,-0.11545429,-0.10218919,-0.39838624,0.009105047,1.6596655,0.3183717,0.5634617,3.857894,-0.033860058,-0.06171123,0.035493344,-0.18077669,0.1499393,0.7413987,-0.1701225,-0.3255798,-0.42445904,0.28826666,0.19452143,-0.31622607
-0.19630606,0.09441216,-0.00792903,-0.92174566,0.5113493,0.691752,0.6408607,0.031533815,0.090213805,1.3018168,-0.26863918,0.13884936,-0.008064994,0.4408498,-0.40506005,-1.6455345,-0.6993045,-0.25170758,-3.7665758,0.048729606,0.020747907,0.013910398,0.053115673,-0.044265065,-0.39252016,0.122670025,0.4851605,-0.11806083,-1.0766556,0.354617,-0.43644863
-0.42140415,0.6066962,0.07640146,-0.1074447,0.38364753,0.89850974,0.06279626,-0.05646472,-0.4056799,-0.098633155,0.16263036,-0.44021416,-0.04487057,-1.0292616,-0.3753653,1.3840941,-0.36938846,0.51537603,2.1700015,-0.052251056,-0.01730349,0.041967228,-0.19714576,0.13480037,0.25005493,-0.23950753,-0.059358377,-0.6530605,-0.7942745,-0.14875962,-0.6196553
-0.3050807,0.06588211,0.28319058,0.08423589,-0.017025664,0.32599717,-0.9778486,0.83586705,-0.15099333,-0.4332442,0.29972115,-0.18392844,-0.7541292,1.4247165,-0.81017524,2.588643,2.929589,0.043507837,2.5215979,0.03581974,0.009082355,0.017567657,0.074754454,-0.16553542,-0.27126926,-0.18513905,-0.13589807,0.2446072,-0.061810423,-0.22205353,0.2301953
-0.19151945,0.07692548,0.0314176,-0.43720236,-0.16513641,0.38339934,-0.41445932,0.09325003,-0.12933801,3.6614127,-0.28342992,-0.07348576,-0.23170546,0.56699586,-0.40012947,-4.2863955,0.053689875,-0.011960482,-0.28568068,-0.038554937,-0.060420632,-0.038761243,0.11192861,0.09654981,-0.13633037,0.3081448,0.24041386,-0.47043487,-0.43954706,0.33214518,0.5745161
-0.17925563,0.20388788,0.042123467,-0.11810266,1.7496185,1.0727997,-0.15130767,-0.23076232,0.10959184,0.5479982,0.27086636,0.22414033,0.2704539,1.6975638,0.13835858,1.3980608,0.94037265,0.4713124,4.6107726,-0.04194232,0.0051712766,-0.033156767,0.030846316,0.09779266,0.039939143,0.20085178,-0.38563854,-0.12018272,0.14364079,-0.28578764,-0.010938143
0.12863247,-0.253492,-0.08053454,-0.99459445,-1.0277057,-0.053591892,-0.130257,0.46489447,-0.0768127,2.5308206,0.16477849,-0.09292233,-0.46882644,0.84882176,-0.41317642,-0.8655292,0.20191084,-0.09105131,-0.60329163,-0.03808316,-0.03185606,0.055366978,0.044360917,-0.10052394,0.44046813,0.114853695,0.07723087,-0.12287503,-0.04457749,-0.12227932,0.6274508
-0.86919206,0.45075992,1.5741376,0.95084184,-0.35818726,-0.09050486,-0.7695623,-0.045974854,0.14367302,-0.40546158,0.22558255,0.22110306,0.13002487,0.13435231,0.34280288,2.0419571,1.5918671,0.13548343,2.4108431,-0.060815,0.010106854,-0.05461672,-0.011113807,-0.11036648,-0.18500909,-0.31799617,-0.021232247,0.20103621,-0.14512613,-0.241381,0.2516906
-1.2624706,-0.041805457,2.4072104,0.24492696,-1.0225207,0.22307168,-0.28874645,-0.21762066,0.03560042,-1.5302455,-0.37968317,0.007667197,0.13477242,-1.4022892,0.21374041,-1.3934346,0.0011506301,-0.06781286,-0.72986203,-0.004661724,-0.030309781,-0.022378378,0.020681854,-0.10930543,-0.26294237,-0.12591325,0.44461054,-0.14302309,0.12208036,-0.13458142,0.4112006
0.1814352,0.35493714,-0.73671037,0.18883814,-0.1144537,0.0786869,0.4537913,0.54342246,0.7660874,-1.1750526,0.8297198,0.7876316,-0.43947077,0.48501247,-0.01618468,-0.34027943,-1.4702245,0.34884453,1.85527,-0.05987814,-0.029369265,0.057425305,-0.19825666,0.35882333,0.056484755,-0.14145191,-0.22072947,0.09043477,0.0153469145,-0.11967873,-0.83667094
0.38089556,-0.18323137,-0.31428978,-0.1876455,0.2349122,-0.0059481505,-0.47650078,-0.024257757,0.12512702,0.002404085,0.07700077,0.033194397,0.22879511,0.10438921,0.033966955,-0.12433408,-1.6319817,-0.5417943,-4.480381,0.0391251,0.01526951,0.021165848,0.047856685,0.084016226,-0.4409565,0.21231943,0.45417506,0.74600667,0.27331457,-0.9671652,0.02029903
0.038731333,-0.28472668,-0.34997827,-0.73117137,-0.47381872,0.118100666,0.9514383,0.033792324,-0.1678887,0.32335997,-0.1055364,-0.10702318,0.0014508679,1.2074682,-0.27483082,0.54403,-1.2812849,-0.16754583,-2.8608274,0.008519791,0.019502185,-0.0144007355,0.051626917,-0.105723955,-0.057166077,-0.09187896,0.33208734,-0.105163194,-0.83800733,-0.15174045,-0.20413443
-0.12909748,-0.05139263,-0.050303068,-0.17103826,-0.4655404,0.3436511,-0.46491855,0.13129999,-0.17704932,1.0973216,-0.086683564,-0.11593177,-0.14367051,2.4900556,-0.034417443,-1.2147857,-3.6386185,0.23892136,0.6622219,-0.058708347,0.057479486,-0.03603193,-0.16244021,0.31075904,-0.047404934,0.43580726,0.124305084,-0.01100601,0.47512278,-0.100405656,0.79347694
0.052244037,-0.3223395,0.13273756,-0.1811672,-1.0239561,-0.5502331,0.39421576,1.4162681,0.4941541,0.73930633,1.5637597,0.41579726,-1.3902725,1.0486757,0.099065386,1.6325811,0.8749622,-0.07793561,-0.95994365,0.03520535,-0.0038169324,0.060367092,0.04423197,0.019350493,-0.07982107,-0.112561174,0.1407306,-0.3329335,0.27866012,0.05534503,-1.2209233
0.20973301,0.3228792,-0.34022754,-0.56950426,0.5971983,0.032650717,0.21275139,-0.28069147,-0.26531824,-1.1192001,-0.1823947,-0.24879333,0.19647604,-4.6970887,0.11937251,-2.730937,-0.36528423,-0.10283043,-0.97469586,0.014622338,0.06211526,0.042262703,0.0814551,0.019602766,0.18295448,-0.20625809,0.14414556,0.06930434,-0.32094413,-0.1830313,-0.23789252
0.18577084,0.4815663,-0.78204644,0.038739774,-0.119012,0.050691422,-0.45447087,-0.2736642,0.015237715,0.34949225,-0.28418648,0.068824336,0.31088784,-0.094709344,0.10946814,0.17687666,-0.12520821,-0.10182919,0.06727608,0.03335525,-0.013434097,0.0503072,0.07502238,-0.07302756,0.62068266,-0.39822188,0.05856887,0.019485913,-0.81062555,-0.31106687,-0.03793174
-0.08711162,-0.0545481,-0.37782273,-2.0877397,0.1690283,0.6298498,0.99868804,0.12529784,0.20835224,0.3751362,0.052974727,0.22520083,-0.16061763,-0.88292867,-0.43649492,-0.9659051,-0.17276424,-0.062272593,-2.7835023,0.005724594,0.044124767,-0.06065955,-0.0972184,0.018352386,-0.25275594,0.21546167,0.022841532,0.08302938,-0.42330745,0.15625326,0.07764375
0.10959216,0.31621233,-1.4831641,-1.0893555,0.7853195,0.7430687,-0.108620785,0.5780846,0.5515136,-0.36562267,1.0799671,0.5375344,-0.49906996,-0.15881439,-0.00065225054,0.5938048,0.39805013,-0.004987092,0.16728333,-0.00015631318,0.041843176,-0.053573772,-0.035046447,-0.07276927,-0.10656197,-0.017455192,-0.0655347,0.40982887,0.07641134,0.054240324,0.5439421
0.034017332,-0.30548513,-0.18318102,-0.77842695,0.40468326,0.7347111,-0.026630875,0.3739749,-0.26386324,0.20736395,0.16845472,-0.22414185,-0.492087,2.1633184,-0.5291226,-0.64992386,-2.594756,0.1373294,0.41647032,-0.038788654,0.023554206,-0.018980369,-0.09702937,-0.008785724,0.22417772,0.055491164,0.21390338,-0.0079516275,-0.39819926,0.22232573,-0.20821169
-0.21543907,0.14946432,0.037640702,0.01704408,-0.6294691,-0.059250977,-0.36499965,-0.10953936,-0.041373696,-0.36938378,0.3267758,-0.045074083,0.110900365,0.5624321,0.24761462,2.4170969,1.5225242,0.27151302,4.0511727,0.053537935,0.030744351,0.0014055371,0.0024719853,-0.005187022,0.09342375,-0.007899191,-0.56090873,0.5419971,0.78872365,-0.4304818,0.4528965
0.21362488,0.38983744,0.15344878,1.399476,-0.28128073,-0.74255663,0.09835668,-0.112503745,0.7205698,0.13604455,0.30401853,0.71823204,0.026965039,-0.6051002,0.8123162,-1.0270919,1.1996508,0.20291348,1.9179622,-0.023304872,0.060304075,-0.037932374,0.050911866,-0.173047,0.34227118,-0.22462325,-0.03646571,-0.07025432,-0.17480573,-0.17452036,-0.48802024
0.038840618,-0.04158744,-0.542521,-0.16056022,-0.5213537,0.3748311,-0.6815937,0.19462325,0.04470647,-0.14779878,0.44830844,0.047631465,-0.28261882,-0.38560373,-0.19902517,1.7800431,-1.0629461,0.23671234,2.4771037,0.011532292,0.043620437,0.04933601,-0.07621211,0.05248555,0.16487399,-0.1646941,0.059213728,0.87051463,0.28332356,-0.7733748,0.34255812
0.2638727,-0.79308134,0.3511561,0.6502702,-0.4788769,-0.4838083,-0.60528624,-0.038209893,-0.47401288,0.51993704,-0.28085017,-0.42295876,0.020755116,-0.88728243,0.2550038,-1.7971841,-2.481469,0.081165925,3.2789307,0.007752672,0.012612067,0.0038792118,0.16717447,0.266547,0.850912,0.18280055,-0.19195569,-0.3271988,-0.12462929,0.16064946,0.38647482
0.16084965,0.015951501,-0.3678645,-0.13958003,-0.22629331,0.13556951,0.50884986,-0.37707582,-0.21840581,-0.6563945,-0.5918951,-0.12641086,0.3916434,0.056797642,0.03826036,-0.9657054,-2.79008,-0.004908636,-1.7565165,0.0019390136,-0.024919793,-0.047792844,0.04421624,0.2283839,0.088401936,0.22962481,0.6938523,-0.3678301,-0.41830435,0.17005631,-0.2227804
0.14111127,-0.59161943,0.053245753,-0.41852236,-0.724372,-0.23181468,0.6034935,-0.5353271,0.32924104,1.6270825,-0.3450109,0.29304954,0.5008517,1.2411792,0.530199,-0.18391067,-0.53729963,0.20551144,1.2026769,0.035596244,0.0419617,0.008427702,-0.08795855,0.15206712,0.58242154,0.103318624,-0.0644797,-0.27928475,0.13239312,0.108346,-0.5600386
0.00035841286,-0.53867453,0.026105558,-0.06466032,-0.92188174,-0.42586064,-0.6298558,-0.14393221,0.3444544,-0.9365481,0.084321335,0.3280204,0.11217235,0.4909755,0.054060727,1.527274,-1.0274292,-0.11924236,-1.8111843,0.013324365,0.05719327,0.051735163,0.033110958,0.07329766,-0.17517833,0.0032930865,0.23226526,0.06572304,0.40889925,-0.1180739,0.4479851
-0.18290381,0.2959773,-0.2379611,-0.16900504,0.14247058,0.38448322,0.33554968,0.16832279,0.18759692,-1.1000096,0.30568963,0.15016647,-0.22825067,-1.7970424,-0.26152343,-2.4123926,-2.3459804,0.014883264,-2.6911519,0.04669024,-0.017862186,-0.048532866,0.010992289,0.10084618,-0.255749,-0.17166868,-0.12346726,-0.013385986,0.49677473,-0.029726312,0.091496035
0.80242395,-0.37140027,-0.5757141,0.39764166,0.66307294,-0.4103688,0.61779815,0.5472873,0.50085366,1.3378974,0.8517284,0.32677877,-0.5302164,0.9357632,0.12656316,0.8227419,1.2863449,0.19304639,4.2858353,0.029608503,-0.061391763,-0.03681524,-0.06766593,0.0046859053,0.6828187,0.369094,-0.18601803,-0.083419666,-0.6722854,0.3318214,-0.8039297
-0.90347373,-0.21742433,1.472193,0.39244473,-1.7866904,0.23171201,-0.8554725,0.20802267,-0.057881836,-0.9118736,0.2756078,-0.05777466,-0.20819484,0.82756215,-0.016280713,1.834625,1.1772851,0.11214338,2.212985,-0.05504991,0.042623863,0.013219394,0.042060222,0.21317741,-0.3336937,0.10009928,-0.23736544,0.10176382,-0.2153864,0.07072938,-0.38945505
-0.39652976,0.07592223,0.4348173,0.73357415,-0.2603919,-0.22890101,-0.16411382,-0.13297518,-0.13533965,-1.030392,-0.02248974,-0.16080084,0.10359797,-0.6756448,0.46629527,0.509575,0.69452703,0.1662849,2.3894436,-0.050295062,-0.02904129,-0.025022492,-0.04740942,0.027030872,0.10406459,-0.17966203,-0.360493,0.38388544,-0.87237066,0.086833134,-1.3619045
0.71942,0.0004911608,-1.0322975,0.3031753,0.95610267,-0.6276422,0.5522069,-0.38343585,0.46951574,0.96258605,-0.32334352,0.41215622,0.18436863,-0.20778833,0.4868814,-1.0693141,-0.22379337,-0.23371166,-2.153094,0.035202853,-0.01804085,0.005022265,0.17732438,-0.09669337,-0.504091,0.32496902,0.4966886,-0.015046179,0.0016124957,0.23385431,-1.6435784
0.54936564,0.5501525,-1.0491987,-0.11455539,0.867304,-0.04309538,0.3145008,0.42387033,-0.18142463,-1.2480869,0.29145187,-0.04509067,-0.39404926,0.1988343,-0.23776308,0.3509814,-0.53180164,0.48366904,1.0590755,-0.046944745,0.037554838,-0.06179311,-0.548515,0.46954253,0.107247174,0.5442992,0.32587314,0.5192915,0.55563235,0.4418428,-0.11594124
-0.110951364,-0.8846244,0.36657482,-0.7938686,0.17491722,-0.017391158,0.46076378,0.30522177,0.047848538,0.51921195,-0.25264356,0.13265216,-0.465755,-0.57036567,-0.119911134,-1.0760472,0.8026967,-0.43538007,-2.6951187,0.03233958,-0.014932737,-0.035585962,0.17670023,-0.047011543,0.42136708,0.038447,0.27966332,-0.45147595,-1.0198698,0.22478642,-1.1584086
-0.22812976,-0.033963826,0.3792304,-0.18625931,0.7486391,0.41185677,0.51987267,0.04839579,0.1710895,1.4795237,-0.24958913,0.03828479,-0.05846459,-0.282241,0.26161826,-1.9870049,1.6039761,-0.3992957,-2.0946062,0.014720142,-0.019209586,-0.023307458,0.09961059,-0.07071999,0.12335965,0.12267819,-0.058268726,-0.40889537,-0.47852007,0.45751974,0.25793627
0.990415,-0.12898286,-0.9621167,0.047812544,-0.08075806,-0.3789436,-1.5072787,-0.20354441,0.09125564,-0.8052826,-0.07331181,-0.08018595,0.13642089,0.2463704,0.15622933,-0.067922235,2.116666,0.20021175,1.8322548,-0.052146107,0.020175785,-0.027066223,-0.05904193,-0.012700561,0.13277768,0.079207234,-0.016137173,-0.09583114,0.77069783,0.20304605,-0.06570883
-0.06554735,0.064999975,-0.14116876,0.21128055,0.1703035,0.5742993,-0.061378125,-0.24961413,0.21230471,0.011544159,0.1898424,0.23217568,0.4148962,0.42755914,0.5249379,1.7890002,0.11764075,0.19750488,3.7032058,-0.02065751,-0.03686235,0.042220913,0.005596375,0.015144892,0.29416358,0.0095957015,-0.4804511,0.65610474,-0.40354535,-0.50094867,0.6155844
-0.28709942,-0.16587919,0.31938198,0.21053937,-0.7827776,-0.4959632,0.30911672,0.019653719,-0.020288797,-0.44380423,0.11905393,-0.045360815,-0.0028851267,1.4675138,0.11793743,3.1347005,3.771168,0.09396054,2.8705924,0.04986123,-0.007746212,-0.060440533,0.007889516,-0.13642827,-0.08572038,0.014834334,-0.33676443,-0.10378979,0.546695,-0.12991075,0.43731606
-0.7000268,-0.8007727,1.2069696,0.24867226,-1.5192871,0.8055452,-0.82934475,0.11595324,0.21849446,0.46707276,0.31721744,0.28121543,-0.11822523,1.702259,-0.25957304,2.1646204,1.479809,0.013061199,2.008881,-0.00859791,0.004063502,-0.03308329,0.026304604,-0.06647961,0.090391435,-0.18107484,-0.2534592,0.61478996,0.09596277,-0.26776534,0.08861187
-0.49500743,0.3838433,0.57831025,1.2262259,0.056716327,-0.41843882,-0.21462956,-0.22477932,0.4136021,0.37915453,0.13143241,0.39564136,0.14435515,0.35491574,0.67276025,-1.9111859,0.20772009,0.14938772,2.2411697,-0.005550191,0.0026449338,0.03480638,-0.04282535,0.16262914,0.3586714,-0.03750439,0.2938045,-0.38065475,-0.00034271606,0.19277231,-1.0663961
-0.08301592,-0.18820219,-0.014666272,-0.5536758,0.47015437,0.21797626,-0.3167631,0.491366,0.25503287,3.5118036,0.46214005,0.18208769,-0.5214803,-0.79611456,-0.019135969,-2.4043148,1.8844938,0.06247578,1.7891847,0.030549414,-0.05231391,0.016788334,0.009115067,0.063885145,0.12705721,0.1971376,-0.22116534,-0.08035739,-0.5480136,0.0399541,0.3514663
0.22229287,0.44666097,-0.75982356,-0.3840085,0.23466125,0.24456613,0.21104366,-0.5722285,0.07249162,-0.2246556,0.022786984,0.07980376,0.5876412,0.4451106,0.2348032,0.016264997,0.40364435,0.16746536,-0.393993,-0.032466292,0.0154522285,-0.017886579,-0.08991661,0.1555152,-0.3258915,-0.021509325,-0.03453735,0.5664264,-0.4448592,0.011588505,0.476092
-0.14688909,0.150167,0.110459186,0.23992708,0.28190842,0.079338595,-0.7606396,-0.4618904,-0.04048189,-1.6522944,-0.44392785,-0.05855884,0.33648178,2.1744704,0.32041734,-2.2855115,-2.7551596,0.2276462,1.0615636,-0.013962403,-0.025214761,-0.058748454,-0.059301436,0.18823294,-0.23291264,0.039182656,-0.15213984,0.217114,0.3750218,-0.16170974,0.41135976
-0.6826225,0.3441332,1.0150748,0.7951356,0.22361939,-0.65995014,0.2682265,-0.15072095,-0.1522245,-0.90216875,0.14780557,-0.08820903,0.21113642,-0.97545046,-0.13873212,0.4814576,0.006637442,0.0054744855,-2.3822284,-0.049744084,0.0055066273,-0.040885165,-0.11403346,0.19318445,-0.23044132,0.20233151,-0.21081536,-0.008498139,0.26269335,-0.04662526,1.5196018
-0.21958645,0.45761058,0.22672485,0.7123126,-0.38051987,-0.21265984,-0.5246769,0.14726266,-0.36365485,1.2001204,-0.20578435,-0.36860266,-0.05927705,-0.43209973,0.08566183,2.5899696,-1.4619976,0.42792562,3.6657655,-0.012403779,0.014159635,-0.05050619,-0.07652083,0.14687428,-0.11525147,0.08445749,-0.10029072,0.06816562,0.32770032,-0.26454607,-0.32400244
0.3911551,-0.0031568636,-0.129711,0.15541966,0.0031239474,-0.2759694,0.39399853,-0.10448357,0.341042,-0.82800084,-0.018961824,0.31014043,0.1663653,2.606008,-0.29164192,-4.0399814,2.2350361,-0.11826233,-2.4273682,0.016129784,0.04467167,0.053955466,-0.054107275,-0.028089115,0.043065425,-0.06744068,0.26196742,-0.25561288,-0.3007848,0.21121977,-0.370968
-0.2892056,0.59300154,-0.6965101,-0.27753475,-2.1197813,-0.2263468,-0.0006041431,0.8756252,0.27041775,0.030065706,0.70390713,0.24029408,-0.96926636,-1.8314253,-0.23253489,0.06540664,2.9081995,0.036902983,-0.4666226,-0.054386765,0.048428215,0.005333543,-0.10628579,0.026748648,-0.247736,0.16202874,0.13859361,-0.03077333,0.3821973,0.18525876,-0.5962195
0.18645045,-0.30876726,-0.12227159,0.27591157,0.5893308,0.3017424,0.6367626,0.2315799,0.14537017,1.8685851,0.12521946,0.19056708,-0.14620245,1.4526345,0.028583817,-0.17233127,0.7170374,-0.21492831,-2.4202557,0.056470945,-0.023764476,-0.04557766,-0.01128664,-0.21978785,-0.19399424,0.09741914,0.17130609,-0.011346834,-0.23762317,0.3418735,-1.3001145
0.012313816,-0.6722148,0.09714399,1.5586706,-0.71355605,-0.3367133,-0.80619377,-0.38073477,-0.42054906,-0.8834313,-0.057663724,-0.41812178,0.25037602,-0.72796917,0.3708707,0.35568964,-0.17276897,-0.019160425,0.37378475,-0.0029176176,0.05698614,0.0016820356,0.14568761,-0.062347982,0.7117369,-0.0047245254,0.06415414,-0.198123,0.20805842,-0.067358434,-0.5073788
0.05852505,-0.50331396,0.113592625,-0.35827136,-0.024963893,0.09524089,0.25100154,0.049576275,0.3206276,-0.9980845,0.17748195,0.31054538,-0.10901651,-4.2471175,-0.15618978,1.1459845,-0.17887364,0.08037647,1.4956625,0.00498686,-0.027475521,-0.06218651,-0.058951728,0.10094712,-0.01655385,0.039630003,-0.23405467,0.04941078,0.37386265,0.13722077,-0.24861062
-0.020818587,0.5315799,-0.019612487,1.12994,0.42286897,0.47709563,-0.7506096,-0.5187716,-0.4435415,-0.45106944,-0.5439777,-0.39998463,0.49465975,-1.1087269,-0.022401525,0.5002622,-1.2780167,-0.06582866,-1.1026437,-0.022657081,0.019813344,0.022882633,0.0011963536,0.068616204,-0.40706113,-0.11064969,0.17050204,0.17155196,0.19294894,0.044578355,-0.03156079
-0.59279656,-0.25076392,1.3156316,-0.5073917,0.09578343,0.67497855,-0.12592685,-0.10317741,-0.00060145685,0.087150484,-0.2974626,-0.07327077,0.1808939,0.33824337,-0.19267759,-0.03983049,-0.22215435,0.12809072,0.13673979,-0.02907154,0.022563584,0.05219812,-0.035941303,0.19579796,-0.8088635,0.056826152,-0.52694917,0.17174904,0.6049033,0.292753,0.5449093
0.23746286,0.98597115,-0.50552076,1.7676952,0.6024951,-0.16537645,-0.23083141,-0.5290591,-0.043071546,-0.037651498,-0.26505178,-0.14562927,0.6635336,-0.35366783,0.5009069,-0.034329843,0.45949617,0.17069432,3.0376215,-0.011134781,0.02055192,-0.021782957,-0.18647605,-0.13708654,-0.18042709,0.13127944,-0.30170643,0.2685734,0.33043075,0.3643666,-0.11014031
0.050726615,0.56147605,-0.5471837,-0.35313278,0.2841407,-0.02742181,0.2543349,0.123294845,-0.20158876,-1.6301976,0.22877362,0.017010124,-0.15186621,-0.004447616,-0.121724196,-0.53516036,-0.85117906,0.5982237,0.13294171,-0.034160107,0.0102740675,-0.018136494,-0.60479236,0.72294766,0.14751914,0.6992926,0.38083678,0.66419476,0.4393613,0.57184285,0.1302758
0.0073052286,-0.5975414,-0.0066539217,-0.8409889,-0.12308566,0.0162164,0.26228887,0.1008194,-0.16330734,1.4163458,-0.23181836,-0.14176348,-0.025668096,0.8498762,-0.11182091,-0.566459,0.27540696,-0.20145959,-3.8595107,-0.0041670725,0.017670445,-8.761138e-05,-0.0053519653,0.0002553479,-0.14778747,0.17707865,-0.12315638,-0.42639658,0.92137915,0.49496382,-1.4113635
0.013409322,0.5121787,-0.16112699,-0.03066424,-0.6563938,0.22830787,0.6678493,-0.24037437,0.04268237,-1.9748334,-0.09143146,0.04114297,0.27016535,-0.5833605,0.097161345,1.5507592,-4.057377,-0.011835971,-2.41642,0.017167702,-0.014035568,0.018830292,-0.02914943,0.049762078,-0.31281343,-0.1023744,0.24099205,-0.4482828,0.5082887,0.07527893,-0.116092436
0.15726182,-0.23567636,-0.28931427,-0.5191096,1.0648607,0.17241636,0.6093491,0.07247953,0.46589655,1.0080615,0.1820298,0.29223606,-0.04712725,0.5382346,0.2781758,-1.2550519,0.41277447,-0.49555954,-3.3412292,-0.03608299,0.025559679,-0.049852185,0.13740817,-0.13014859,-0.19997579,-0.053936947,0.4568547,-0.5264903,0.37978652,0.12577964,0.5050985
-0.22318742,0.28016868,0.7023971,1.1102445,0.2753713,-0.85484475,0.6316821,0.1326568,0.11412508,-0.7429343,0.16904832,0.1007192,-0.088059545,1.3240361,-0.17262673,0.6778673,0.5511543,-0.022119675,-0.6653401,0.038052022,-0.049514614,-0.033412613,-0.01189056,-0.22683546,0.034648914,-0.38353923,0.14040497,-0.3705743,-0.17896765,0.08345304,-0.67423743
-0.21112843,-0.09193659,0.98854446,-0.15756325,-0.15937248,-0.63780814,0.95326364,0.20110235,0.08342147,0.3505727,-0.23157072,0.00502386,-0.14455885,-3.0315437,-0.33573005,-2.8944936,-1.7316144,-0.17618896,-2.872486,0.016939498,0.018576816,0.039703056,0.107205264,0.07365968,-0.2369466,0.13095306,0.19447738,-0.31330413,-0.47633526,-0.018896814,-0.22471908
0.3530801,-0.060518872,-0.08464412,-0.34124666,0.34192038,0.02712825,0.18716069,0.18147941,0.13722524,0.482471,0.088501416,0.1260542,-0.057918023,2.6732998,-0.110960245,2.4373364,0.5991935,0.13844666,0.73663116,-0.04884769,-0.037486777,-0.043202087,0.007703007,-0.008805919,-0.30316383,0.17047466,-0.19034714,-0.14532936,0.5172632,0.1262524,0.35296416
0.31890386,-0.17837672,-1.053309,-0.5789628,-0.2603567,0.8715033,0.4802854,-0.08499833,-0.5256742,-0.038157362,-0.3988475,-0.42781958,0.007791845,1.3089657,-0.28281575,1.2353588,-1.8617853,0.03982089,-0.13368872,0.03217183,-0.035082176,0.031976096,-0.08721566,0.02942674,0.08220706,0.32963586,0.07195911,-0.4034065,-0.22737342,0.24866606,0.91230226
0.19484751,-0.6465518,0.025324002,-0.28221372,-0.6407561,-0.12338464,0.08428538,0.52265227,-0.021544022,1.5507891,0.2200481,-0.19914085,-0.5672742,2.0974462,-0.72648215,0.1258976,0.12889206,0.05091683,-1.225667,0.048547678,0.028418884,-0.022197165,0.045892533,-0.02103037,0.048405368,0.21290646,-0.06825339,-0.251225,0.4977176,0.07764975,-0.47159702
-0.43123052,-0.8075262,1.1562731,-2.009877,-1.1327758,0.29123655,1.228167,0.08737723,0.1119238,-0.07968509,-0.07737812,0.12921017,-0.15672417,0.62414306,-0.16428955,-0.47490975,0.120945,-0.164881,-2.284039,0.006391838,-0.025872454,0.028989099,0.08177705,-0.12418785,-0.4422492,-0.10527351,0.2226485,-0.27057287,0.16116974,0.25467122,-0.13449456
-0.23147808,-0.51103437,1.0423787,1.0836191,-0.94339657,-0.48350817,-0.84114033,-0.40257296,0.6184475,-0.47421694,0.0925761,0.6123446,0.31571114,-0.5957059,1.0957079,-1.9708037,0.4699292,0.27917403,1.1310017,0.05456978,-0.006117068,-0.018747471,-0.1728339,0.15681027,0.62084126,0.1666009,-0.013848023,0.63832986,0.10005192,-0.030677924,0.050698616
0.39422968,0.22029729,0.29792184,1.126243,0.5795544,0.33581552,0.2223868,0.38604826,0.30336094,0.28762448,0.51928943,0.18813846,-0.30828398,0.4306796,0.04538188,0.68920475,0.2056326,0.54013973,4.0617375,0.061341822,0.027341358,-0.02863507,-0.091973685,0.031039426,0.8102982,-0.25865796,-0.031170148,-0.6730972,-0.48287353,0.2346993,0.23282202
0.13719635,0.21321544,-0.10704,-0.34205374,-0.04293479,0.68268186,-1.0616722,0.014487652,0.015731204,3.2798188,-0.19992961,-0.106960975,-0.10199312,-0.10745986,0.115922414,-0.6833764,3.0736742,0.13126314,4.3981204,0.02875141,0.034307107,-0.049700476,0.06734623,-0.07677369,-0.2663392,0.115685135,-0.103731774,0.11803802,0.008183201,0.24910107,0.27449083
0.088654436,0.030528508,-0.73166823,-1.0180829,-0.3919394,0.6115263,0.2813318,-0.33354548,-0.022513635,0.22871941,-0.3007688,-0.06586624,0.30086243,1.221267,0.13721286,0.16459711,1.0244603,0.47978023,3.8711402,-0.045153998,-0.0037617236,-0.011125289,-0.24167366,0.3775838,0.3670691,0.5782508,-0.12256587,0.3420866,-0.5595944,0.28288844,0.54614663
-0.75471026,0.83625036,1.3405502,2.0242162,-0.08411011,-0.095263176,-0.7079763,0.13888556,0.04981003,0.04949424,0.12613173,-0.076929554,-0.08551593,2.1510313,0.021823509,-0.34437424,-1.2830789,0.11074138,0.9105338,-0.026812099,0.008627646,-0.021175705,-0.0630483,0.14127998,-0.0620414,-0.14314078,-0.14506833,-0.038591806,-0.46909297,-0.17501506,-0.30148995
-0.37216288,-0.083320655,0.082398064,0.68063915,-0.053850017,-0.8098263,-0.083727,0.16843514,0.106518865,2.0435321,-0.17407778,-0.06637256,-0.33594558,-0.3413933,0.10391234,-0.728047,-1.0733469,-0.38797235,-0.8646341,-0.038232528,-0.029183745,0.05348836,0.3808236,-0.3753017,-0.5296141,-0.3056433,-0.21414731,-0.048526756,0.039170384,-0.20208454,0.14430933
0.0723715,-0.5868975,-0.035731286,0.56276786,-0.5617326,0.21652046,-0.1713857,-0.011594456,-0.11975714,1.0037577,-0.5813354,-0.24376188,-0.02005942,-0.43342188,0.29390094,-0.66573447,0.014487713,0.41542953,3.298154,0.0510173,-0.05386527,0.022931151,0.02982734,0.3965607,0.19643576,0.22323255,-0.24627703,0.25333768,0.016323429,0.113761604,0.45979625
0.052011915,0.60438615,-0.0056577516,2.170763,0.15429416,-0.09528763,-0.73787224,-0.12352818,-0.12498294,-0.66465014,0.37616044,-0.048990265,0.052700378,-1.0998561,0.47928992,0.24303474,-0.79114777,0.05848526,3.399211,-0.045093045,-0.011219636,0.01126872,0.0752997,0.25474486,0.30230784,-0.15983298,0.027113559,-0.15077655,0.080000095,-0.19961518,0.8134777
0.33916107,-0.54742575,-0.24342774,0.108264074,-0.6152928,-0.29618365,-0.020208366,0.25517422,0.6675532,0.89488065,0.313662,0.654883,-0.36400744,-0.8520991,0.39864597,-0.60638255,-0.37349042,0.065159924,-1.264047,0.03461449,-0.015580036,-0.051958792,-0.096202135,0.09032277,-0.018661717,0.12444886,0.038792845,-0.07618713,0.9023266,0.3029742,-0.291547
-0.29978618,-0.06898031,0.691811,0.8744546,0.008612458,-0.5724041,-0.75881886,-0.18930475,-0.4999699,0.8358036,-0.5653083,-0.44329235,0.20448382,1.974396,-0.11003822,-0.1624022,0.50665677,-0.20429453,-0.7752707,-0.01688286,0.051939756,-0.0010873079,0.07183163,-0.18598756,-0.35302553,0.028864823,0.06917653,0.37664494,0.108715236,-0.039131787,0.15310311
-0.0374059,-0.27198002,0.5411655,0.48297435,0.054925993,0.13591604,-0.9593782,-0.04306279,-0.15142326,-1.226178,0.33126485,-0.1821682,0.003801271,-0.32645229,-0.17111632,0.6761387,-0.26749942,0.007840532,0.09301548,0.041732654,0.056324176,0.031510882,0.035324417,-0.042054217,0.2011124,-0.06393457,0.24881029,0.327382,0.34941864,-0.18672507,0.75725114
-0.29114506,0.27168965,0.14096627,0.41141304,-0.15593353,-0.12310467,-0.5974175,-0.0061859963,-0.22184284,1.8254021,-0.056314375,-0.229568,-0.0024235041,2.1118593,-0.03890673,-2.0287576,-4.5569825,0.09327462,0.9407258,0.026947752,-0.029839292,-0.035107188,-0.0077002496,0.24714296,-0.014901475,0.11664958,-0.31238353,0.162755,-0.084070124,-0.25253177,-0.2536481
0.29433835,0.116089486,-0.3753224,-0.053228714,0.1671075,0.28258982,0.32172677,0.14302924,-0.18249068,-1.1104237,0.21028519,-0.17053883,-0.087807454,-0.44294629,0.016868278,-1.0935804,-4.317522,0.036270082,-2.4182637,0.028386503,-0.03194707,-0.03798815,-0.06180538,0.10323813,0.0028368966,-0.118365444,-0.27202067,0.23860398,0.20877811,-0.10784993,-0.17110074
0.46696198,-0.29407364,-0.24974383,0.5155985,-0.064620994,-0.94918525,0.29166338,0.1350379,-0.08193226,0.18987732,-0.0017367855,-0.087067395,-0.16724236,0.675533,-0.11930885,-3.769354,-1.9304425,-0.2074408,-3.6891744,-0.038293622,0.0070506707,0.013208441,0.13560236,-0.22396508,-0.32701796,-0.057550326,-0.024051258,0.3367929,0.2564388,-0.15772073,0.1114625
0.12628594,0.5647241,-0.06656167,1.2693578,0.24157803,-1.6820968,0.51542836,-0.22233637,-0.39988157,-0.93638676,0.2995601,-0.35723978,0.18845662,-1.2839051,0.09453974,-1.4996858,1.8115983,-0.14489594,2.0469477,-0.026218824,0.039424263,0.034359828,0.08612,0.05327113,0.029341664,-0.13397858,-0.1364779,-0.1997468,-0.16194448,-0.15667856,1.029544
-0.855853,-0.052507136,0.8236473,-0.5629801,-0.35775563,0.2560802,1.0581256,0.2496201,0.9533908,1.4491242,0.48194394,0.95601946,-0.28395316,-0.48736623,0.06925292,0.11377786,-0.97904515,-0.19943023,-3.7190068,-0.020374909,0.027572453,0.057031,-0.12611496,-0.019222358,0.075764164,0.14255498,0.24514347,-0.47803116,-0.104803555,0.21280019,0.2304481
0.29678443,-0.43440393,-0.08526432,0.93675417,0.7875993,-0.075428754,-0.42645195,-0.25467372,-0.35148877,-1.6617658,-0.46018443,-0.30647272,0.2997874,-2.5159297,-0.16980076,-1.408559,-0.16150664,-0.011963948,1.9668745,0.042336807,0.054069355,0.05314216,0.10248104,-0.0401321,0.48007727,0.08791502,0.15688461,-0.25031084,-0.7069819,0.0749582,0.28682277
0.46814814,-0.15401429,-1.034041,-0.83715695,-0.39606807,-0.4575451,0.6639321,-0.04113984,0.05777524,-0.0031751476,-0.13274448,0.11666949,0.12419024,-0.9968633,-0.22175089,1.3737427,-0.009891956,-0.41173667,-3.993533,0.046508737,0.05110404,-0.03233446,-0.07157276,-0.04652653,-0.255471,0.19389251,-0.17297065,-0.32757628,0.30047414,0.21506597,-0.0037762579
0.35829923,-0.02050384,-0.5922755,-0.3918863,0.6400496,-0.12099179,0.1962736,-0.23682329,0.20917436,0.5793772,-0.11633676,0.19239086,0.42557618,-2.2055051,0.30632707,2.4031737,2.5224962,0.0029010123,-0.3047886,-0.02955722,-0.05210136,0.018712252,-0.038346916,-0.031092867,0.019335324,0.22923358,0.0014397537,-0.06713924,0.11888631,0.07660777,0.09955637
-0.3573942,-0.66213167,0.71612215,-0.6380986,1.0296609,0.4354276,0.50167555,-0.08866444,0.526981,0.67271954,0.34833977,0.46958187,0.04597846,0.5814503,-0.021911751,-0.64135164,0.07076952,-0.00044235485,-0.85680526,0.0057552457,-0.061154626,0.035844274,-0.06624579,-0.02008688,-0.34390464,-0.17077108,-0.6417198,-0.22824706,0.7837781,0.47202918,-0.6939036
-0.0021416198,1.1102301,-0.24240832,0.19509734,-1.3799772,0.16560009,-1.4865514,-0.41618633,-0.34349468,0.36897516,-0.47244433,-0.5140416,0.6615992,0.71795446,0.29171976,0.91310096,0.94089,-0.16516668,-0.47792205,-0.030333467,0.05983545,0.00068080425,0.07581869,-0.40914664,0.27653274,-0.39689666,0.35328668,-0.46051466,-0.11889922,-0.20279436,0.053095765
0.33821893,-0.007903621,-0.20725207,1.4120715,0.08810181,-0.15422104,-0.37539452,-0.28637862,-0.27712974,0.47441238,-0.3288673,-0.28128594,0.34570834,0.6643672,0.24683134,-1.1751513,-0.98350877,-0.018397853,-0.015034998,-0.014925532,0.028235413,-0.028123163,0.033237096,0.08154506,0.022776151,0.14653121,0.63636255,-0.740034,1.1225693,0.30793083,-0.9952341
-0.012256103,-0.015430165,-0.12434715,-0.35678867,0.050401565,-0.40634608,0.56510156,0.1228258,0.23380663,0.51195866,0.11359999,0.20479187,0.045433227,1.6189406,-0.4371169,-1.4926891,-0.54866546,-0.05098088,-2.3427312,-0.038594425,0.017202206,-0.027093187,-0.0075956373,-0.027199391,-0.819213,0.066414684,0.28873652,0.0016687106,-0.004842742,0.1558477,-0.70132494
0.12582074,0.11156841,-0.2983728,-0.25424728,-1.085632,0.82744807,0.21903506,0.21683654,-0.3001393,1.1235594,0.06733061,-0.2632955,-0.055812873,-0.33427003,-0.22526443,2.398907,1.1424353,0.43477854,1.7302644,-0.040021442,0.012652904,0.04213742,-0.34778637,0.51789635,0.19311889,0.21453884,0.084062956,0.21817908,0.26235753,0.22993962,-0.3761521
-0.54912144,-0.01468822,0.42105114,-0.6040697,1.2838266,-0.30383077,0.15353838,0.19529335,-0.19944915,-1.4113764,0.3196297,-0.20869824,-0.22025612,-1.2043179,-0.45161033,2.2433465,-2.7389004,0.022851126,-1.0993538,-0.04983671,-0.05271335,-0.046585105,-0.02216732,0.008745587,-0.108570844,0.032086316,-0.49464345,-0.044499375,0.60659426,-0.12882704,0.052397717
0.25863555,-0.20156918,0.2497828,0.26451156,-0.16439454,-0.44644856,-0.5953864,-0.039910246,0.10931198,-2.2873626,0.07822857,0.16922113,0.0728088,0.83923703,-0.07007605,1.1685586,-0.42750862,-0.0073355567,-2.3896894,0.05039995,-0.0139384195,-0.016092986,-0.24144433,-0.058770053,-0.075903505,0.057887107,0.37512225,0.69383717,0.6714265,-0.31124148,-0.33068648
0.1289107,-0.075315945,0.24683478,0.49503964,0.16888037,-0.21419126,0.11329805,-0.029070782,0.010234083,1.0192027,-0.03615717,-0.011251473,0.0305135,2.3679323,0.46092698,-1.7820188,5.246003,-0.11817615,-0.7172344,0.044470236,-0.007115893,-0.02218318,0.041698072,-0.15421353,0.2568951,-0.075851165,-0.24783437,0.021135207,-0.16497579,-0.14278688,0.20800047
-0.047178824,0.13055082,0.14035591,-0.13487856,-0.2639334,-0.108594954,-0.76522774,-0.011183795,0.18698373,-0.4313706,0.39746025,0.19397496,0.09659616,0.22078297,0.3621932,1.6649623,1.1185548,0.14499748,2.385024,0.009333074,0.026205413,0.040476307,-0.06614934,-0.045986224,-0.010873832,-0.14012295,-0.51912856,1.2328478,0.6854999,-0.5504708,-0.57488066
-0.7185468,-0.3886232,0.65416104,-0.18197852,-0.3064649,-0.0027704209,0.40994665,-0.2717516,-0.61301845,-1.7626053,-0.5522135,-0.49307585,0.17545176,-1.0603187,-0.31438452,0.24910347,-1.3232781,-0.39617094,-1.9824713,-0.03494735,0.036282614,-0.017414868,0.15861112,-0.16726668,-0.31947178,0.016607948,-0.23310846,0.6918814,-0.50512344,-0.16588539,0.28917173
0.07864733,-0.13386123,-0.20536056,-0.6081754,0.2413344,-0.08573051,0.24785307,-0.040536955,-0.36694607,-3.435232,-0.1934692,-0.35913655,0.009243293,-3.1070867,-0.13092105,1.0285097,2.8136086,-0.055806693,-0.49013728,-0.0451269,-0.053807802,0.061440416,0.007601,-0.10010183,-0.21998797,-0.2286688,0.0035375834,0.15445836,0.42840278,-0.07247656,-0.24819252
-0.38074118,-0.19285102,0.100142494,0.013024702,0.36615008,0.30040598,1.2830693,0.114814185,0.30324578,-0.7871113,0.03295405,0.3207085,-0.03631615,0.50085926,-0.20506512,-2.4527423,-0.102111906,-0.10594189,-2.340472,0.025330797,-0.04085824,-0.023390368,0.022201685,-0.1532642,0.050388627,-0.010311233,-0.06701531,0.08457426,-1.0233985,0.2916591,-0.31586435
-0.2461881,-0.20909439,0.722932,0.71570575,0.19606441,-0.30067107,-1.1478916,-1.1411835,-0.353872,-0.20393595,-0.96385485,-0.34533206,1.0627372,-0.5068005,0.4534889,-0.32610387,-1.0206363,-0.01541935,-0.5947374,0.058022037,-0.020990685,0.036426656,0.041982215,0.13246647,0.28141275,-0.14622025,0.16541883,0.06843024,0.34695488,-0.09475918,0.66488385
-0.2860319,-0.61865234,0.8515846,-0.6230018,-0.63153344,-0.13074245,0.49337336,-0.01231693,0.40983653,-1.0160354,0.43003327,0.48912778,-0.09066801,-0.27709758,0.30365762,0.96574646,0.3199981,-0.19140807,-3.0667827,-0.02125226,0.039614297,0.032766633,-0.11726414,0.044601373,-0.15755713,-0.0047525684,-0.019002844,-0.2154988,0.5129062,0.24233676,-0.45849273
0.11980387,-0.045672476,0.258174,0.9909841,0.7847347,0.6697166,0.22423306,0.1276553,0.25622627,-0.41596556,0.64157516,0.1944975,-0.17200194,-0.42336842,0.28161407,0.6139367,0.4638218,0.50642425,4.945981,-0.05951997,0.04480993,0.018537976,0.010344768,0.15438919,0.74487984,-0.2222672,-0.66580313,-0.19695441,-0.72811604,-0.13747753,0.9707954
-0.6997627,-0.114998445,0.76104563,0.64213276,0.4099542,-0.24702077,0.63013047,-0.5293813,0.18701015,-2.0409257,0.06944945,0.08555265,0.51151246,-1.0358657,0.32928598,1.9596505,0.100371115,0.10749697,1.5125939,0.02811896,-0.03738361,0.0020459294,-0.065011285,-0.18823776,0.11669187,-0.1951469,-0.14519298,0.37080303,-0.17669617,-0.044981044,-0.11313341
0.0035704146,-0.35994232,-0.16707975,0.11306611,-0.088142045,0.22153719,-0.22400534,0.1352835,0.09522621,-0.37952536,0.03402117,0.06708217,-0.16551344,-0.68458664,0.20655298,-1.3547848,5.8540263,0.07209792,3.4210706,-0.025364593,-0.050577357,-0.056823507,0.08999301,0.09087267,0.27318802,0.06463355,-0.4795662,0.18635976,-0.36110494,-0.1111651,0.08107868
-0.0725113,-0.31633654,-0.36537108,-0.37684768,0.23817293,0.07066454,-0.039520532,-0.06826359,0.07911177,1.3734354,-0.08228206,0.0798537,0.3128209,1.6205379,-0.08236555,0.42097202,-2.1680408,-0.32396886,-4.3381705,-0.035872996,0.032742932,0.050157577,-0.09570975,-0.10830296,-0.20429428,-0.048546363,-0.14508083,0.16336368,0.5893931,-0.63372815,0.51668036
0.0832153,0.073051535,-0.1869002,0.030488547,0.088564895,-0.22873318,0.012459473,-0.016026478,-0.21184322,1.3822067,-0.1712789,-0.15681551,-0.06915713,-4.0962906,0.104229175,-4.6239448,-6.771413,-0.012410161,-1.6086241,-0.026418649,0.020100996,-0.036060624,-0.035755288,0.18410508,0.20703323,-0.084140696,0.36078838,-0.707134,0.14706276,0.25138152,-0.13302669
0.63183856,-0.035307452,-0.73433733,-0.21378042,-0.13162726,-0.45971867,-0.2646406,-0.039280757,-0.0014681772,-0.892728,0.016083673,-0.07097879,-0.17210399,-0.87342584,0.15231813,-0.93580943,1.8651457,0.17878085,1.2361013,-0.022054918,-0.05754017,-0.013088211,-0.036157936,0.17651024,0.04760781,0.1514467,-0.24237987,-0.05663033,0.39245752,-0.11325793,0.7992842
0.090579614,0.15416741,-0.15824221,0.14725283,-0.050288543,0.40579733,0.24975592,0.48350227,0.10462545,1.746601,0.5580726,0.15595816,-0.3928431,0.13658817,-0.30833128,-1.2426847,-2.9789941,-0.32132196,-2.7471278,-0.05347366,-0.02217815,-0.014552601,0.022228371,-0.002260229,-0.15440372,0.044071693,0.10396029,-0.016567923,-0.5308631,0.082722515,-0.59556675
0.08111187,-0.7958785,0.07394045,-1.8074939,0.39929712,0.15740038,0.45900118,0.13970844,-0.11367461,-1.0033505,0.081512935,-0.016095966,-0.25968507,0.3396358,-0.6356819,0.13494061,-0.82365936,-0.39575613,-2.5789602,0.025714122,0.0136542395,0.038160853,0.03483519,-0.19227378,-0.24552096,0.13822079,0.41570857,0.17475283,0.45976353,0.003839183,-0.28491613
-0.24088818,-0.06203753,0.14524126,0.10478764,-0.2860226,0.17577232,0.09944553,0.07403529,0.09200927,1.6307776,-0.02842244,0.07375533,-0.22604331,0.2666057,-0.11027009,-2.8769803,-1.7471727,0.015714912,-0.28759032,-0.020571597,-0.045691364,0.019422315,-0.010518637,0.18002254,0.21084976,0.23249206,-0.051838655,-0.96452916,-0.72296244,0.355097,-0.27086663
-0.039452028,0.07117111,0.520441,1.7543055,1.5699704,-0.5611729,0.49022985,-0.47204813,-0.017107554,-0.46558583,0.07190899,0.0083758915,0.35038987,0.6297851,0.583036,1.1330276,0.39665347,0.10424473,3.3084211,-0.027377762,-0.053430133,0.05633221,-0.026179682,-0.046100914,-0.10501488,0.163459,-0.42166582,0.6170398,-0.25753218,-0.18566623,-0.23938009
0.093537435,0.43252575,0.0020735473,1.1254749,-0.35181016,0.084436774,0.09080561,-0.14930077,-0.074268214,0.5525016,-0.18193197,-0.08045921,0.115705304,-1.2204324,0.6386198,-3.1586719,-0.5429883,0.19192336,0.73370755,0.021248244,0.034371793,-0.029703483,0.05556049,0.18433547,0.27803496,-0.109997086,0.13808419,-0.22126259,-1.0971582,-0.11158444,0.13657023
-0.15154602,0.001618854,-0.13638781,-0.022480423,-0.24023521,-0.21331847,-0.78999263,0.16741325,-0.0022478434,-0.86085,0.22571214,-0.080224104,-0.17013742,-0.18253304,-0.010505249,0.6646484,0.60340685,-0.07137105,1.1534463,-0.018579796,-0.051546462,-0.019727685,0.07632247,0.108386636,-0.3080216,0.092421845,-0.7306515,0.75823236,0.13218045,-0.33150193,0.66564524
0.2805402,-0.38093093,0.0772607,-0.1680055,0.35216418,0.2901761,0.0071075093,-0.06635576,-0.8134457,-1.9079432,-0.5117625,-0.75259644,-0.20425777,-2.0916033,-0.131991,-0.11196654,2.0286038,0.3341833,2.4098978,0.01530233,0.04642587,-0.059029475,-0.03962256,-0.0063443496,0.06329123,0.109150276,0.15466774,-0.09349962,0.59010357,-0.10455431,0.60751814
-0.15413806,-0.018729398,-0.08473322,-0.41243538,-0.74436,-0.14516556,0.28542688,-0.0075615905,-0.18675247,-0.488882,0.29120582,-0.1414874,0.1138899,-0.28567502,-0.28133038,1.5963595,-1.0103104,0.32164174,1.9733855,-0.007196635,-0.056479,0.017794758,-0.068604,0.13625821,0.28250206,-0.3506949,-0.61333776,0.7968947,0.3208066,-0.57448363,-0.19751942
-0.08189491,-0.27604088,-0.069697544,-2.34529,0.25541988,0.3577444,1.097679,-0.0025554297,-0.060859043,-0.6927579,-0.039611258,-0.018176204,0.027110286,-1.2536438,-0.68844485,1.5185976,0.5817203,-0.101584315,-2.900275,-0.047037855,0.007982172,-0.006723352,-0.0528347,-0.102100655,-0.66518605,-0.24702771,-0.08463659,0.27963242,-0.1300571,-0.021885995,-0.06518853
-0.36708933,0.8165094,0.822095,0.48953307,1.3454732,0.30237204,-0.6952667,0.031722043,-0.21196507,-3.7014396,-0.3299123,-0.2501141,0.030737462,0.3092018,0.06178747,0.17010567,-2.9745457,0.009645804,0.5619922,-0.0014753714,-0.041340657,0.007883333,0.103032134,0.010246087,-0.35163173,-0.18920027,-0.2600848,0.17687212,-0.37977406,-0.067156784,-0.008687586
-0.105754055,-0.15786913,-0.56168216,-0.51517755,-0.3170489,-0.32986015,0.22588208,-0.22018808,0.23099826,-1.034686,0.1955451,0.19431102,0.095838785,0.39833933,0.259772,1.1946707,1.9789312,0.36082754,3.845769,0.045955017,0.06007573,-0.03601174,-0.074560724,0.023712523,0.49648538,0.22819106,-0.427043,-0.29635766,0.41376403,0.3187005,0.36339834
0.2989398,0.38161275,-0.29915518,0.015487393,-1.5518029,0.22389995,-0.25903216,0.08592888,0.10646316,1.0939908,0.007031688,0.11183692,-0.10671581,0.27594942,0.3272168,-3.2492678,2.0484643,0.21996664,3.162452,-0.035210364,0.041591674,0.031036459,0.03696528,0.022771407,0.05635547,0.19351204,-0.075906016,-0.06198543,-0.01569339,0.28257862,0.14359939
0.09632937,0.069697455,0.22614239,0.5971367,0.20699777,-0.23730797,-0.2266717,-0.29395777,-0.34380183,-2.1969473,0.04935058,-0.35889268,0.19209933,0.38461635,0.2132022,-0.56235725,-2.7234097,0.02281293,1.032161,0.010975942,-0.035571784,-0.016344368,0.10967593,-0.112324305,0.28722668,-0.15333647,-0.172722,0.025699459,-0.15102956,-0.31834525,-0.23424418
0.32086056,-0.2695211,-0.32221058,-0.25763026,0.66775334,0.6197572,0.039999846,0.24392816,-0.012103869,0.47606635,-0.01856849,-0.0040379264,-0.34746423,1.4429252,-0.29695308,-3.3024397,-1.7081174,-0.11094035,-1.5150714,0.0002334714,0.053047664,0.031080097,0.08485743,0.06933829,-0.15844461,0.31200972,0.4047438,-0.67466736,-0.0062261513,0.28043216,-0.58663595
-0.17899647,-0.7832078,0.6276802,0.21248606,-0.8374534,-0.4598842,-0.7351754,0.16029455,0.39294836,0.60199314,0.4022841,0.49517676,-0.110819586,2.039026,0.28615224,1.016985,0.29778472,-0.2626795,-0.4164091,-0.006991729,-0.013413727,0.034482718,0.092620954,0.09829095,0.7224252,0.08545203,0.11709893,-0.18375815,-0.42372274,-0.32698306,0.50462866
0.64687866,-0.6451534,-0.07340697,0.586773,1.0904742,-0.211599,-0.72337186,0.08219125,-0.18305123,-2.4365585,-0.31980887,-0.124970816,-0.0029605753,-1.4534605,-0.075772375,1.5802858,-1.2106829,0.092890345,1.706351,0.03395143,0.020139694,0.0438886,0.048096392,0.072217,0.7452992,-0.053152863,-0.32746089,0.102767624,0.42125145,-0.08858795,-0.45088965
0.11898035,-0.063838124,-0.08629378,0.1841225,1.053492,-0.24048936,0.64601064,0.09416161,0.056473162,1.951766,-0.3247673,0.011233797,-0.14462474,0.012746223,-0.016955733,-0.2175888,0.1393393,-0.27772665,-2.664405,-0.04114353,0.0069047287,0.019715786,0.08010384,-0.1111799,-0.17308334,0.37701228,0.6227637,-0.7928611,-0.42858765,0.60740316,0.084665984
0.22746502,-0.15094662,-0.13746905,-0.33664426,1.7285405,0.19201212,-0.24646828,0.114534736,-0.026615292,-1.0342163,0.08582438,0.16416815,-0.018876057,0.56513214,-0.42161244,2.1111343,0.13361856,-0.14754853,-3.4355288,-0.028187193,-0.025288537,-0.052280597,-0.08903511,-0.018352551,-0.4131367,-0.010879209,0.21127091,-0.3851071,0.21240503,0.03126928,-0.22759172
-0.19475539,0.050037064,-0.00078501704,0.9248953,0.20942937,-0.24018297,-0.3633714,-0.15516213,-0.035466637,-0.8142367,-0.23929878,0.027206203,0.2795505,1.829064,0.18186314,1.7494768,1.0971571,-0.04168655,-0.84176064,0.017830275,0.031897552,-0.05163017,-0.09114436,-0.12921365,0.27623472,-0.24278542,-0.11287422,0.24010861,0.3783743,-0.064332545,-0.28166768
0.170897,-0.184225,-0.21421582,0.13907352,-0.06495254,-0.27369303,0.5009637,0.08921196,0.141832,-0.50765884,-0.0060510496,0.09954981,0.13865422,0.24567293,-0.15949725,0.053615984,-1.1784835,-0.26182032,-1.9230565,0.055764243,-0.05540652,-0.0031579658,0.17679521,0.08228073,-0.38852677,0.06798958,0.2742842,-0.15927236,-0.42365557,0.111802176,-2.7311666
0.15990725,-0.54013675,0.35736826,-0.1516712,-0.3672308,0.19261289,-0.8174488,0.0147908665,-0.049375962,1.0422003,-0.30653846,-0.048371784,0.0966826,0.16159849,0.11574068,-2.5729954,-1.6249642,-0.207682,-1.4039145,0.03606785,0.04723925,0.0022680461,0.19927683,0.14896515,-0.3864348,0.01859445,0.34351277,0.24389929,0.59245735,-0.39359722,0.41209844
-0.22918499,0.009308889,-0.15926029,-0.5587187,-1.0147512,-0.6335422,0.11966739,1.7441717,0.4817832,0.28412327,1.8329823,0.45948443,-1.7721019,1.702975,-0.32781044,0.8204794,0.30580604,-0.120263,-1.380283,-0.0055342168,0.052798666,-0.024307072,0.10376174,0.03293897,-0.2750615,-0.0891761,0.12283061,-0.2451926,0.07437166,-0.038362924,-1.455878
-0.00043511754,-0.83169174,0.14882328,-0.7739488,0.40775478,0.24799132,0.7758096,-0.0036385683,-0.53685343,-0.959754,-0.3326015,-0.6264459,0.13381986,-0.30054864,-0.7742982,2.4876173,-0.13646282,-0.42438126,-2.5963478,0.0022719353,0.036235914,0.059678175,0.08683444,-0.1783697,-0.30461323,-0.029318701,-0.13996053,0.37571988,0.507551,-0.3365127,-0.18322808
0.21841697,0.28537232,-0.15911594,-0.036430564,1.0652009,0.37750632,0.23831367,-0.0007430977,0.39260182,1.5386169,0.031198567,0.28546673,0.061429136,-1.5073652,0.10502652,-0.22295982,-1.2833989,-0.32945025,-3.3492093,0.04430069,0.03841809,0.024521224,-0.04542741,0.0021412256,-0.38398495,0.19939664,0.4576344,-0.16952854,-0.37019077,0.04469317,-0.16233033
0.24467513,-0.15151817,-0.6780086,-0.28318638,0.74418694,0.45582446,-0.18196571,-0.104549795,0.56795734,0.9659716,0.29705897,0.64604765,-0.020410378,-0.11226124,0.455255,-1.4195397,0.7866911,0.48437756,3.3708954,0.044487365,-0.0075288787,-0.03616082,0.042848736,-0.04192406,0.08354143,-0.038422257,-0.2417064,-0.26178572,0.08391077,0.49249804,0.18226881
-0.34276408,0.10034791,0.4135468,0.57479835,-0.276296,0.31841367,-0.6070836,-0.21909432,-0.008801832,-2.3165624,-0.0040587573,-0.104814425,0.39770424,-1.468643,0.19025531,2.4864473,1.1691166,0.026382852,2.2445722,0.0010100976,0.012271754,0.056863837,0.01966224,-0.13109054,-0.024140222,-0.3496558,-0.28669286,0.8372226,-0.12671489,-0.41391715,-0.7302406
-0.27757174,0.23589319,0.20464875,-0.4410661,0.09577315,0.28775352,-0.6791666,0.09981447,-0.12669028,-0.0020160596,0.3376106,-0.07038642,-0.050661705,0.19868843,-0.120920695,2.0678856,1.3096048,0.11220157,1.1914971,0.0070081726,0.045649596,0.023436531,-0.050403807,-0.22413348,-0.31983694,-0.20988749,-0.10580679,0.5238251,0.96735287,-0.34349433,0.8092119
0.20435481,0.27748236,-0.15192041,0.06356507,-0.03468949,-0.23179607,0.5998462,0.17010503,-0.10197521,-2.5628684,0.09569089,0.014925931,-0.14910272,-1.8530836,-0.252445,-0.0036241964,-5.0610895,-0.08521775,-3.2770734,0.04106874,-0.046373688,-0.02006787,0.026480041,-0.048627768,0.15402825,-0.16063502,0.40404844,-0.28467196,-0.30679637,-0.14408277,-0.048794243
0.66490567,-0.38648015,-1.2923272,-0.07868455,-0.38628373,-0.31742385,0.26945636,1.0215756,-1.0142007,-0.97125787,0.15677519,-0.9815451,-1.0383825,0.45514268,-1.1073467,-0.6036191,0.70887715,0.07493654,2.1168187,-0.010515273,-0.0048014075,0.0043544695,-0.17974637,0.12669155,0.06920063,0.38146225,0.1602467,0.07422119,0.35725412,0.43853554,-0.6580841
-0.16295363,0.23527476,0.11036002,-0.018236682,-0.7956187,0.53904235,0.7736117,0.21612695,0.04761272,-2.1275392,0.49096578,0.04734553,-0.34528276,-0.97639817,-0.19121648,0.80346763,-1.0311606,0.384728,2.298191,0.009660758,-0.042237364,0.018936358,-0.15157229,0.33071777,0.17583142,-0.19338673,0.14050964,-0.4882104,0.044447165,-0.010945584,-0.3689861
-0.24427466,0.10057532,-0.5634911,-0.35769886,1.0915616,-0.5370127,0.103465885,0.30070192,-0.23218651,-1.214156,-0.20084791,-0.15188435,-0.18966033,-0.33398125,-0.58811456,0.34204325,0.77532285,-0.4602977,-3.7422931,0.022681907,0.05390951,-0.03754071,-0.06338223,-0.049651135,-0.4302309,-0.021034913,0.4407564,0.56294066,0.14922109,-0.32605064,0.2679166
0.32969055,0.39715746,-0.6938474,0.33199245,0.2489642,0.3233783,-0.14343052,-0.21436782,-0.5739553,-0.5567146,-0.19868925,-0.6501912,0.109636754,-1.7728412,0.036480013,0.2946532,-0.82836264,0.3015767,3.321613,0.056790195,-0.014530577,-0.027604468,0.026897464,0.15431683,0.36532,0.042769045,-0.14853846,-0.40969855,-0.27191243,-0.013764227,1.5085776
0.4100926,-0.010973254,-0.5511993,0.43965584,0.30924174,-0.571923,-0.14094502,0.53344,-0.18060173,-0.6163465,0.2505373,-0.10263523,-0.49929675,1.3728993,0.107788146,0.44176206,1.016367,0.20209405,2.4112072,0.05585649,0.025176398,-0.04715375,0.044928193,-0.14884228,0.77429247,-0.34137723,-0.28283843,0.14657503,-0.26330265,-0.25921014,-0.37316576
-0.3046597,-0.26504838,0.45990652,0.2532719,-0.60385,-0.42122623,-0.20599698,0.018802995,-0.0034927006,-0.0943097,0.1134394,-0.0016748767,0.081014454,2.873185,0.119183026,1.7876087,3.659649,0.15028863,4.045576,-0.060225397,0.006744109,0.027089298,0.0528365,-0.09628022,-0.1657314,0.1321021,-0.45549425,0.49143812,0.38504484,-0.35489732,0.9357178
0.3997961,0.0041211364,-0.22554973,-0.06751111,-0.48282084,-0.44784296,-0.29225615,-0.33893195,0.24359892,-1.5091665,0.06548163,0.12206525,0.47627103,-1.0543668,0.26298216,2.6573114,-0.21285138,0.068380006,0.98572946,-0.008291252,0.05827468,0.04944831,-0.03741132,-0.05407857,0.109760284,-0.055920992,0.2941395,-0.26601475,0.745999,-0.12446416,-0.15479642
-0.1465794,0.07627011,-0.1714446,-0.38548157,0.33337545,0.321716,0.9082578,-0.2383935,-0.022515703,-1.1097156,-0.07476672,-0.0036025813,0.29417986,-2.3532734,0.10982378,1.6017984,1.4893659,-0.16147985,-1.8989202,-0.043476462,0.05773905,-0.05815153,0.0021367485,-0.15861487,-0.48622906,0.23168947,0.3912783,-0.26291347,0.56072044,0.031096287,0.18716772
-0.49872214,0.410659,0.8416457,0.37346238,-0.0436415,-0.11543587,-1.5007904,-0.2947681,0.79529977,-0.8740732,0.14793849,0.8125565,0.28522807,-0.9984243,0.8645016,-2.6058798,0.4508546,-0.027038943,-0.99310696,-0.0054050535,-0.0022147298,-0.026204482,-0.07480613,0.23092665,-0.4577524,0.12824862,0.09007004,0.6440532,0.258325,-0.1739011,1.590808
-0.6285601,0.33560127,0.2506588,-1.0000162,-0.45220304,0.3948598,-0.2989949,-0.11873422,-0.43501362,-0.30871987,0.25415432,-0.25932622,0.12781091,-1.0872003,-0.24325886,1.4819796,-0.4413508,0.31486547,2.1559064,0.03622686,-0.04399012,0.06143617,-0.08164894,0.19810665,-0.07529154,-0.24159151,-0.378871,0.52148384,0.16336653,-0.41897425,0.17189494
0.48508775,0.16916129,0.437051,1.114129,-0.254339,-0.89171404,0.1989191,0.32722855,-0.5986361,1.2750533,-0.3644278,-0.68102306,-0.40124014,0.10397047,-0.9250672,-1.9482037,0.19246091,-0.2356295,-2.4746554,-0.040268086,-0.01345703,0.020934694,0.086266644,-0.139332,-0.24426618,-0.23882695,0.12508221,-0.1947577,-0.53084946,0.043691296,-0.6496274
-0.20619272,-0.6356321,0.27846098,-1.0551496,0.93233323,0.6976098,1.2517166,0.33122835,-0.19197218,0.06798163,0.11418382,-0.063333094,-0.2779141,0.34592533,-0.43524352,1.7343004,-1.6010269,-0.09159541,-1.0700306,-0.02884058,0.024646476,0.031355396,-0.13169582,0.012713462,0.2031039,0.26971602,-0.38074204,0.13290074,0.1816835,0.12264935,-0.09270873
