0.16207376
-0.3000487
0.27644056
0.43320128
0.4470553
-0.6554087
-0.034712255
-0.0022196057
0.26582828
0.31430304
-0.051892214
0.057120357
0.053368878
-0.13285854
0.65997195
0.18850726
-0.2639245
0.82958746
-0.5193867
0.21261565
0.34161228
0.5345981
-0.57353425
0.34699702
-0.0151051115
0.21833569
0.09974302
-0.6708185
0.06148123
-0.71550643
-0.055739637
-0.06944754
0.42379326
-0.129313
-0.21983522
-0.30097342
-0.3558905
-0.63402283
-0.17069027
0.113602124
0.34761322
-0.9726226
-0.51898164
0.614775
0.12513496
-0.11863088
0.053736538
-0.7956881
0.95471394
0.06894118
-0.28847
0.48718718
0.05916065
0.6736325
-0.38258418
-0.1789435
-0.4424173
-0.044840258
-0.6301711
0.34257483
-0.14291242
-0.4581626
0.81718624
-0.34155595
0.26603207
0.48487648
-0.30406547
-0.37554604
0.28997526
-0.5035877
0.9439581
-0.19367678
0.5176593
0.5296991
0.7058921
-0.15525661
0.08354196
0.65152967
0.2516683
-0.4471329
0.1604948
0.0880976
0.0076094163
-0.41301826
-0.86144394
-0.033478886
-0.4192564
0.13748172
0.2113342
-0.85502034
-0.11578236
0.19235441
0.22917998
-0.5303282
0.010755907
-0.10497677
-0.092098355
-0.14665595
-0.6206905
0.3129831
-0.044217724
0.33168846
-0.103869505
0.0514013
0.8702949
-0.5268782
0.7561174
0.08805657
-0.939563
-0.6424501
-0.72721726
0.1927551
0.6992459
-0.05410635
0.27899218
-0.16914153
0.6708719
0.70568216
0.2407065
0.15655655
-0.2408873
0.1872173
-0.23859796
0.05189832
-0.34566912
-0.12785225
0.50205356
0.06793222
-0.08070506
-0.47966346
-0.59976083
0.1744431
-0.41445315
0.20309399
-0.04051006
0.6827161
0.24082972
0.28386182
0.38461623
-0.58940226
-0.52188045
0.31359407
-0.009821551
-0.5072391
-0.14110778
-0.4960173
0.18314028
-0.25361884
-0.6079652
-0.14650716
0.49053726
0.5683364
-0.05618398
-0.6807605
-0.5015921
0.45725086
0.37793452
-0.11999313
-0.3558776
0.103050716
0.29801524
0.6428966
-0.3272949
-0.41225904
-0.44507617
0.34754536
-0.34327465
0.52484226
-0.28480574
0.040987395
0.1733452
0.6618207
0.61471266
-0.74875915
-0.2541235
-0.11039557
-0.3879906
-0.15318851
0.10961403
0.8833742
-0.33960694
0.23917355
-0.1111304
0.42033926
-0.08416434
-0.50774527
-0.13343109
0.088623755
-0.45928913
0.4960488
0.71499896
-0.7360624
-0.007154902
-0.50274485
-0.16190834
0.078867085
-0.3768972
0.65052414
-0.7824106
-0.12946908
0.17340858
-0.39132667
0.34444535
0.8119919
-0.42109635
-0.49188665
0.046049777
0.42181227
-0.5939897
-0.35046437
-0.43104836
-0.16152854
0.7520958
-0.3154903
-0.23701367
-0.026485099
-0.37452108
0.6873935
-0.23018147
-0.564327
0.30873987
-0.05183109
-0.40832508
-0.061513472
-0.6236553
-0.65887636
-0.89116246
0.07445891
0.0059534386
-0.4784683
0.83440566
0.026618889
-0.28005528
-0.33496812
-0.43234724
-0.5199504
0.2564897
-0.2687206
-0.33864784
-0.04453846
0.31752014
0.07414735
-0.28011563
-0.21066776
-0.56399614
-0.22516397
0.4219436
-0.19974455
0.23584197
0.09323381
-0.57121885
0.03133769
0.12841356
0.63638407
0.035534054
0.11127641
