0.3950063
0.2698408
0.9562189
1.3718619
0.81224877
0.1089168
0.30796146
0.6179835
0.49661842
0.59608454
0.21253745
0.24886109
0.34104472
0.15751666
0.6847719
0.48741314
0.69425017
1.3739403
0.2066061
0.6747905
0.7452912
1.1883051
0.05063585
0.7627817
0.27722272
0.32481578
0.55571556
0.049828433
0.4395856
-0.011543574
0.35809746
0.46360663
0.65179366
0.0978807
-0.14662069
0.44918743
-0.22613801
-0.13788491
-5.5953868e-05
0.4419083
1.1868008
-0.20963803
-0.18851076
1.0178009
0.2817168
0.46894234
0.30978277
-0.19315678
1.5208095
0.39398652
0.030786749
1.090345
0.33113286
1.4267763
-0.22278395
-0.098924026
-0.24080536
0.37300262
-0.059179578
0.8688201
0.24660379
-0.08088707
1.6269273
0.011281268
1.3859373
0.98949444
0.070296265
0.013207677
0.7217141
-0.30090237
1.5248979
0.0028527912
0.827306
1.1531318
1.3253735
0.16588214
0.48838222
1.3275913
0.6357062
0.065037295
0.60763764
1.1210573
0.104277626
0.11197229
-0.1259533
0.19732863
-0.10555254
0.5005388
0.50350636
-0.17113487
0.010627616
0.8675292
0.60982364
0.24840866
0.7443376
-0.23550634
0.341344
0.06315072
-0.27857742
0.83172774
0.6239801
1.0904238
0.8010567
0.6173824
1.5951723
-0.09466082
1.4450029
0.20597875
-0.16644733
-0.047230333
0.066560715
0.5707237
1.2089791
0.37733173
0.7935532
0.14785036
1.3592896
1.3506501
0.34782672
0.5822049
-0.11104542
1.1383631
-0.03545245
0.29200536
-0.23585106
0.39121908
0.936246
0.34981284
0.9354404
-0.25263157
-0.13298033
0.36918265
-0.016011516
0.7032234
0.48854414
1.3284614
0.9515284
0.70316505
1.1620554
0.08199084
0.05648828
0.63974535
0.16043209
-0.347387
-0.08179753
-0.12272405
0.65952486
0.07072979
-0.2937926
0.10991195
1.2629732
0.81137806
0.21521811
-0.12363084
0.08179171
1.2061574
0.7865254
0.1939399
0.02922136
0.2819864
0.44289216
1.0765104
0.12056604
-0.18897496
0.12168112
0.77753705
0.2547602
0.8848778
0.15169793
0.8641865
0.46610487
1.2352363
1.0675511
-0.23660697
0.050021008
0.24844848
0.0816728
0.88221085
0.523286
1.6041547
-0.000637313
0.54601187
0.16186282
0.6994237
0.296019
-0.23714073
0.26295647
0.3591232
0.045662854
1.3160928
1.2016509
0.073462166
0.71685296
-0.29235172
0.2665048
0.50547034
0.08687727
1.423293
-0.37240607
0.4027671
0.28725323
0.15794398
0.7374053
1.2598329
0.4282568
0.26422346
0.40860546
0.51599884
0.3637491
-0.051369835
-0.08359882
0.11779078
0.89067733
-0.06560231
0.054972865
0.24419725
0.13147704
1.3662059
0.023388647
-0.094228625
0.54192317
-0.07867515
0.23589061
0.111273795
-0.26551217
-0.05742864
-0.17167467
0.10997361
0.09748999
-0.0247302
1.4907405
0.46312392
-0.28941745
0.19860867
0.15629853
-0.080314845
0.39437467
0.20697205
0.1574633
0.27192533
0.90643597
0.3340429
-0.14180683
0.36803004
0.12899038
0.19276132
0.766255
0.115177125
0.34561616
0.43967423
-0.1777591
0.2511976
0.5337594
0.9478844
0.62429863
0.38720796
